~o
<STREAMINFO> 1 25
<VECSIZE> 25<NULLD><MFCC_D_N_Z_0><DIAGC>
~s "silst"
<MEAN> 25
 -7.482296e+00 3.038541e+00 -2.099191e+00 4.444568e+00 5.111022e+00 4.702460e+00 4.102764e+00 2.246164e+00 1.716309e+00 1.036996e+00 8.907711e-01 3.464920e+00 -1.558866e-01 1.289917e-02 6.799426e-03 3.408736e-02 4.493523e-02 3.126463e-02 1.103860e-02 -3.244538e-03 -5.041147e-03 1.503043e-02 2.178478e-02 1.102434e-02 -1.546745e-01
<VARIANCE> 25
 4.167150e+01 2.547665e+01 2.609745e+01 3.082757e+01 3.441597e+01 2.960848e+01 2.651771e+01 3.334938e+01 3.493218e+01 3.533095e+01 2.741565e+01 2.243405e+01 4.670242e-01 6.734441e-01 8.457791e-01 1.027657e+00 1.310942e+00 1.461443e+00 1.534556e+00 1.702183e+00 1.695728e+00 1.691643e+00 1.518616e+00 1.377631e+00 3.205752e-01
<GCONST> 8.782377e+01
~h "a"
<BEGINHMM>
<NUMSTATES> 5
<STATE> 2
<MEAN> 25
 4.430143e+00 -6.653360e+00 -3.365862e+00 -3.933476e+00 -5.262261e-01 -1.414845e+00 -5.902855e-01 3.353083e+00 2.609663e+00 1.131284e-01 -2.356769e+00 -3.163433e+00 3.053256e-01 -1.115222e+00 -5.749390e-01 -5.112733e-01 5.113290e-01 2.954650e-01 1.721436e-01 7.450874e-01 2.981587e-01 -2.903114e-01 -7.098436e-01 -5.091391e-01 7.439498e-01
<VARIANCE> 25
 3.004166e+01 4.043529e+01 4.642346e+01 4.914585e+01 6.455771e+01 6.930535e+01 5.692596e+01 5.906371e+01 5.911666e+01 5.231512e+01 5.097573e+01 4.479360e+01 1.728730e+00 3.036470e+00 2.912461e+00 3.499048e+00 3.996139e+00 4.256869e+00 4.134269e+00 4.885239e+00 4.181641e+00 3.933764e+00 3.968908e+00 3.273615e+00 2.491246e+00
<GCONST> 1.091749e+02
<STATE> 3
<MEAN> 25
 4.889369e+00 -8.451955e+00 -3.801419e+00 -4.771852e+00 2.728549e-02 -1.301283e+00 -9.715797e-01 4.062638e+00 3.043362e+00 -2.253957e-01 -3.399355e+00 -4.088915e+00 -3.144099e-02 5.231014e-01 -3.033222e-02 5.610098e-01 2.634692e-01 1.978579e-01 1.394485e-01 -2.895096e-01 -2.058096e-01 -1.059466e-01 -5.557499e-02 3.108306e-01 -6.456450e-01
<VARIANCE> 25
 2.168269e+01 3.648853e+01 4.181307e+01 4.309526e+01 5.768585e+01 6.125763e+01 5.363636e+01 5.911666e+01 6.130876e+01 5.187330e+01 5.413081e+01 4.506128e+01 6.063834e-01 1.824251e+00 1.650315e+00 2.090287e+00 2.555612e+00 2.924203e+00 2.755555e+00 3.042111e+00 2.769519e+00 2.793109e+00 2.678091e+00 2.287827e+00 1.287085e+00
<GCONST> 1.018007e+02
<STATE> 4
<MEAN> 25
 3.346617e+00 -4.397048e+00 -4.413552e+00 -1.096468e+00 2.233771e+00 4.692059e-01 7.545183e-01 2.486167e+00 1.894781e+00 -8.532954e-01 -3.158775e+00 -1.743706e+00 -2.974688e-01 8.363881e-01 2.783370e-01 5.247408e-01 6.639700e-02 1.505014e-01 1.237018e-01 -3.394864e-01 -2.389519e-01 4.316372e-02 2.722395e-01 3.491026e-01 -8.675556e-01
<VARIANCE> 25
 2.364403e+01 3.736166e+01 3.376957e+01 4.492887e+01 4.543793e+01 4.874456e+01 4.067776e+01 4.375481e+01 4.391588e+01 4.447132e+01 4.373461e+01 3.463689e+01 6.380036e-01 1.211697e+00 1.317269e+00 1.669420e+00 1.983522e+00 2.054027e+00 2.087700e+00 2.336301e+00 2.262575e+00 2.127377e+00 2.100242e+00 1.809883e+00 7.134044e-01
<GCONST> 9.623169e+01
<TRANSP> 5
 0.000000e+00 1.000000e+00 0.000000e+00 0.000000e+00 0.000000e+00
 0.000000e+00 4.899275e-01 5.100725e-01 0.000000e+00 0.000000e+00
 0.000000e+00 0.000000e+00 5.525075e-01 4.474925e-01 0.000000e+00
 0.000000e+00 0.000000e+00 0.000000e+00 7.360229e-01 2.639771e-01
 0.000000e+00 0.000000e+00 0.000000e+00 0.000000e+00 0.000000e+00
<ENDHMM>
~h "b"
<BEGINHMM>
<NUMSTATES> 5
<STATE> 2
<MEAN> 25
 3.559133e+00 8.045447e+00 1.655641e+00 4.411098e+00 2.357746e+00 2.111531e+00 -4.448953e-01 -3.571817e+00 -3.049815e+00 -2.404711e+00 -1.243351e+00 -6.634966e-01 4.341030e-01 3.604714e-01 6.043931e-02 4.576974e-03 -1.520814e-02 -2.085545e-01 -3.668449e-01 -4.261715e-01 -5.056275e-02 -1.123528e-01 1.744260e-01 -8.853808e-03 2.886375e-01
<VARIANCE> 25
 2.705970e+01 3.259442e+01 2.490206e+01 3.161067e+01 2.904587e+01 3.245019e+01 3.377966e+01 3.602764e+01 3.246581e+01 3.395300e+01 2.918287e+01 2.458516e+01 2.476302e+00 3.600883e+00 2.504401e+00 3.748399e+00 2.836731e+00 3.554244e+00 3.391963e+00 3.321751e+00 3.336473e+00 3.569406e+00 3.133193e+00 2.269288e+00 2.822484e+00
<GCONST> 1.015677e+02
<STATE> 3
<MEAN> 25
 5.396044e+00 4.972622e+00 -2.834679e-01 1.015136e+00 1.309985e+00 8.102654e-01 -3.245974e+00 -4.918935e+00 -2.201598e+00 -9.217232e-02 1.490440e+00 -4.435849e-01 5.589149e-01 -2.408448e+00 -8.750025e-01 -1.941497e+00 -1.162812e+00 -1.243032e+00 -1.634335e+00 2.645267e-01 1.201956e+00 1.529668e+00 1.215632e+00 -5.311045e-01 2.420695e+00
<VARIANCE> 25
 2.040712e+01 3.980568e+01 2.960003e+01 5.423850e+01 3.346806e+01 3.993973e+01 4.009950e+01 3.944244e+01 4.003577e+01 4.916003e+01 4.491552e+01 3.134575e+01 2.602500e+00 4.968444e+00 4.464119e+00 7.581129e+00 4.874363e+00 6.663780e+00 6.048637e+00 5.844854e+00 6.950009e+00 7.853951e+00 5.573585e+00 4.877316e+00 2.903621e+00
<GCONST> 1.109226e+02
<STATE> 4
<MEAN> 25
 6.180529e+00 -4.843076e-01 -1.532606e+00 -1.524116e+00 -1.502139e+00 -2.600389e+00 -6.357205e+00 -2.160929e+00 1.446292e+00 2.082970e+00 2.244658e+00 -2.809395e+00 -5.557578e-03 -1.900754e+00 7.532337e-02 -8.695205e-01 -1.184032e+00 -1.019565e+00 -3.534705e-01 1.230467e+00 1.028218e+00 4.359234e-01 -7.189818e-03 -4.094497e-01 1.579540e+00
<VARIANCE> 25
 2.348412e+01 4.334910e+01 4.210961e+01 8.317490e+01 4.612774e+01 6.713779e+01 5.367410e+01 5.312218e+01 6.360157e+01 9.544591e+01 5.173066e+01 4.206783e+01 1.535638e+00 3.503985e+00 4.645890e+00 5.677537e+00 4.825999e+00 5.868397e+00 5.112978e+00 6.556566e+00 7.044416e+00 5.796918e+00 6.082524e+00 5.203403e+00 1.915800e+00
<GCONST> 1.130496e+02
<TRANSP> 5
 0.000000e+00 1.000000e+00 0.000000e+00 0.000000e+00 0.000000e+00
 0.000000e+00 5.686901e-01 4.313099e-01 0.000000e+00 0.000000e+00
 0.000000e+00 0.000000e+00 3.883272e-01 6.116728e-01 0.000000e+00
 0.000000e+00 0.000000e+00 0.000000e+00 2.891831e-01 7.108170e-01
 0.000000e+00 0.000000e+00 0.000000e+00 0.000000e+00 0.000000e+00
<ENDHMM>
~h "c"
<BEGINHMM>
<NUMSTATES> 5
<STATE> 2
<MEAN> 25
 -8.716737e+00 5.258343e+00 5.891725e-03 9.689971e-01 3.719310e+00 -1.480511e-01 1.179993e+00 -6.633637e-01 5.928940e-01 -4.664882e-01 1.675723e+00 1.270600e+00 -2.024076e+00 2.181761e-01 1.432993e-01 -6.050228e-01 2.253879e-01 -2.818412e-01 4.379239e-01 1.475144e-01 3.222229e-01 -4.223920e-03 4.185250e-01 1.135262e-01 7.289007e-01
<VARIANCE> 25
 1.068092e+02 4.780884e+01 4.330732e+01 4.785692e+01 4.733327e+01 5.209523e+01 4.707526e+01 5.192124e+01 4.562686e+01 3.395672e+01 3.574397e+01 2.961578e+01 6.639006e+00 5.000755e+00 3.958362e+00 4.296791e+00 5.005822e+00 5.291902e+00 3.813521e+00 4.537132e+00 3.785478e+00 3.205636e+00 2.968138e+00 2.179249e+00 6.671999e+00
<GCONST> 1.107685e+02
<STATE> 3
<MEAN> 25
 -1.177542e+01 1.207122e+00 5.695796e+00 -2.690634e-01 -1.509167e+00 -1.102295e+00 1.719522e+00 1.781933e-01 1.933479e+00 -2.427098e+00 2.069342e+00 2.351574e+00 2.435197e+00 -1.892657e+00 1.143317e+00 3.760945e-01 -2.126562e+00 -1.309860e+00 -9.736278e-01 1.878560e-01 2.765878e-01 -5.769689e-01 -3.459496e-01 -6.333037e-02 1.781197e+00
<VARIANCE> 25
 6.680844e+01 9.518141e+01 7.025418e+01 5.885729e+01 7.242099e+01 9.420418e+01 5.715443e+01 5.793789e+01 4.421671e+01 4.823769e+01 4.034397e+01 3.370707e+01 1.034332e+01 8.125983e+00 7.029987e+00 6.502415e+00 7.278093e+00 8.423044e+00 6.950123e+00 6.777958e+00 6.121351e+00 5.687423e+00 4.046897e+00 3.519321e+00 3.641297e+00
<GCONST> 1.185659e+02
<STATE> 4
<MEAN> 25
 1.755610e+00 -3.262426e+00 5.090453e+00 1.334879e+00 -5.273172e+00 -4.739496e+00 -3.041431e+00 -9.774382e-01 1.919529e+00 -3.315797e+00 -2.792327e-01 7.561190e-01 2.684665e+00 -3.498607e-01 -1.108912e+00 -3.332741e-01 -3.117384e-01 -5.992446e-01 -8.117307e-01 -1.578727e-01 -2.422850e-01 4.459153e-01 -9.528798e-02 -6.201612e-01 7.620394e-01
<VARIANCE> 25
 5.416603e+01 8.344152e+01 7.322830e+01 4.727560e+01 8.129584e+01 1.076469e+02 6.722856e+01 8.604045e+01 6.433277e+01 5.285681e+01 3.762230e+01 3.662358e+01 6.588215e+00 8.583097e+00 6.945285e+00 4.531993e+00 7.625585e+00 8.626491e+00 5.787040e+00 6.973571e+00 6.377579e+00 5.278017e+00 4.827188e+00 3.727920e+00 2.831196e+00
<GCONST> 1.184281e+02
<TRANSP> 5
 0.000000e+00 1.000000e+00 0.000000e+00 0.000000e+00 0.000000e+00
 0.000000e+00 7.752011e-01 2.247989e-01 0.000000e+00 0.000000e+00
 0.000000e+00 0.000000e+00 5.729815e-01 4.270184e-01 0.000000e+00
 0.000000e+00 0.000000e+00 0.000000e+00 5.552228e-01 4.447771e-01
 0.000000e+00 0.000000e+00 0.000000e+00 0.000000e+00 0.000000e+00
<ENDHMM>
~h "d"
<BEGINHMM>
<NUMSTATES> 5
<STATE> 2
<MEAN> 25
 2.670076e+00 5.220083e+00 2.984785e+00 6.007665e+00 1.339539e+00 1.075709e-01 -1.008785e+00 -1.543195e+00 -9.931118e-01 -2.604155e+00 -1.668829e+00 -1.391248e-01 2.408671e-02 -6.428357e-01 8.014855e-01 8.051093e-02 -6.641258e-01 -7.224587e-01 -3.452885e-01 -1.445735e-01 -1.573915e-01 -3.148202e-01 4.026607e-01 2.023665e-01 9.579757e-01
<VARIANCE> 25
 4.379733e+01 6.144082e+01 4.075100e+01 5.155717e+01 6.342236e+01 6.045058e+01 4.976744e+01 4.989654e+01 4.937571e+01 4.363174e+01 4.604131e+01 3.412051e+01 4.389472e+00 8.030798e+00 4.201200e+00 5.934044e+00 6.302182e+00 7.540287e+00 6.115555e+00 6.119287e+00 5.743353e+00 5.319074e+00 4.978022e+00 3.731297e+00 6.222406e+00
<GCONST> 1.150297e+02
<STATE> 3
<MEAN> 25
 2.564321e+00 -9.700700e-01 6.370529e+00 2.895165e+00 -4.274096e+00 -5.074955e+00 -3.025171e+00 -9.479354e-01 -8.575220e-01 -2.312965e+00 9.324106e-01 1.496847e+00 -8.334281e-02 -2.191218e+00 9.805512e-01 -1.822065e+00 -2.268926e+00 -1.669767e+00 -1.014980e+00 7.499980e-01 2.230999e-01 8.181922e-01 1.362495e+00 1.171783e-01 2.471480e+00
<VARIANCE> 25
 2.226667e+01 4.361884e+01 4.366769e+01 5.420201e+01 6.330110e+01 5.703804e+01 6.283859e+01 5.855557e+01 5.498948e+01 4.745378e+01 4.297104e+01 3.610785e+01 2.711334e+00 4.336897e+00 5.545222e+00 5.365773e+00 5.909853e+00 5.664447e+00 7.131825e+00 8.339260e+00 7.439164e+00 6.576454e+00 5.925807e+00 4.003557e+00 2.928055e+00
<GCONST> 1.137960e+02
<STATE> 4
<MEAN> 25
 4.251326e+00 -3.675475e+00 6.749474e+00 1.259783e+00 -7.211058e+00 -6.207466e+00 -5.107932e+00 -4.099602e-01 -6.530634e-02 -2.180507e+00 2.026343e+00 2.713260e-01 5.218157e-02 -3.423899e-01 -1.523935e-01 -8.390420e-01 -4.914023e-01 -5.745105e-02 -4.252815e-02 2.906744e-01 1.555431e-01 4.592244e-01 1.326710e-01 -4.329042e-01 5.418662e-01
<VARIANCE> 25
 3.041746e+01 4.967240e+01 6.272602e+01 8.108226e+01 8.310665e+01 7.198090e+01 8.540828e+01 9.761743e+01 8.064545e+01 8.524161e+01 6.099619e+01 3.986683e+01 1.219492e+00 2.527402e+00 4.451905e+00 3.951101e+00 5.046026e+00 4.521415e+00 4.883395e+00 5.072830e+00 4.805791e+00 4.542408e+00 4.603310e+00 3.370576e+00 2.196974e+00
<GCONST> 1.131009e+02
<TRANSP> 5
 0.000000e+00 1.000000e+00 0.000000e+00 0.000000e+00 0.000000e+00
 0.000000e+00 5.686581e-01 4.313419e-01 0.000000e+00 0.000000e+00
 0.000000e+00 0.000000e+00 3.385923e-01 6.614077e-01 0.000000e+00
 0.000000e+00 0.000000e+00 0.000000e+00 5.244204e-01 4.755796e-01
 0.000000e+00 0.000000e+00 0.000000e+00 0.000000e+00 0.000000e+00
<ENDHMM>
~h "e"
<BEGINHMM>
<NUMSTATES> 5
<STATE> 2
<MEAN> 25
 3.364177e+00 -4.618434e+00 1.658543e+00 3.183268e-01 -5.547511e+00 -6.883938e+00 5.865479e-01 3.327969e+00 -7.577521e-01 4.722224e-01 1.450466e+00 -3.537550e-01 6.569574e-01 -1.075858e+00 8.637707e-01 -4.388215e-01 -1.589881e+00 -7.746404e-01 4.467897e-01 8.745369e-01 -4.128334e-01 -1.866243e-02 4.341773e-01 -2.562193e-01 1.272025e+00
<VARIANCE> 25
 3.810341e+01 4.511359e+01 6.352740e+01 4.127882e+01 7.052842e+01 6.790935e+01 6.072650e+01 7.094546e+01 6.108958e+01 5.100953e+01 4.938420e+01 3.447433e+01 3.029441e+00 3.622070e+00 4.563524e+00 3.917876e+00 5.174784e+00 5.276169e+00 5.132777e+00 6.077367e+00 5.193707e+00 4.728465e+00 4.445117e+00 3.067419e+00 2.901989e+00
<GCONST> 1.125003e+02
<STATE> 3
<MEAN> 25
 4.280104e+00 -6.551734e+00 4.908607e+00 -7.879779e-01 -9.764164e+00 -8.522141e+00 1.668168e+00 4.585550e+00 -2.480959e+00 2.111364e-01 2.855746e+00 -1.774009e+00 -6.018372e-02 4.599714e-01 -3.272851e-02 2.876919e-01 2.098522e-01 3.499951e-01 2.917736e-01 -2.024843e-01 -2.077005e-02 3.339328e-02 -1.260383e-01 2.391810e-02 -4.861059e-01
<VARIANCE> 25
 2.359260e+01 4.107011e+01 6.927425e+01 4.843878e+01 6.869949e+01 6.648216e+01 6.926254e+01 8.250925e+01 7.059953e+01 5.208352e+01 5.361020e+01 3.391655e+01 7.348999e-01 1.984366e+00 2.202061e+00 2.195562e+00 2.970412e+00 2.624726e+00 2.922099e+00 2.788308e+00 2.908793e+00 2.621093e+00 2.522250e+00 1.903363e+00 1.480335e+00
<GCONST> 1.038314e+02
<STATE> 4
<MEAN> 25
 2.377408e+00 -2.072887e+00 3.640490e+00 8.301640e-01 -5.732684e+00 -5.730305e+00 1.582604e+00 2.644513e+00 -1.582392e+00 1.002771e+00 2.097209e+00 1.458257e-03 -2.226227e-01 4.915071e-01 -1.738222e-01 2.337177e-01 6.673133e-01 4.463855e-01 -1.990765e-02 -2.686985e-01 2.706729e-02 -1.294254e-01 -1.963247e-01 7.207864e-02 -5.300721e-01
<VARIANCE> 25
 2.540496e+01 3.784274e+01 5.285503e+01 4.219119e+01 5.502114e+01 5.200726e+01 4.875552e+01 6.079299e+01 5.081185e+01 3.857900e+01 3.937366e+01 2.827417e+01 4.126783e-01 9.387786e-01 1.066877e+00 1.165817e+00 1.836870e+00 1.688544e+00 1.788567e+00 1.918997e+00 1.900302e+00 1.704550e+00 1.643802e+00 1.408884e+00 4.495828e-01
<GCONST> 9.392507e+01
<TRANSP> 5
 0.000000e+00 1.000000e+00 0.000000e+00 0.000000e+00 0.000000e+00
 0.000000e+00 5.286934e-01 4.713067e-01 0.000000e+00 0.000000e+00
 0.000000e+00 0.000000e+00 6.387413e-01 3.612587e-01 0.000000e+00
 0.000000e+00 0.000000e+00 0.000000e+00 7.954947e-01 2.045054e-01
 0.000000e+00 0.000000e+00 0.000000e+00 0.000000e+00 0.000000e+00
<ENDHMM>
~h "f"
<BEGINHMM>
<NUMSTATES> 5
<STATE> 2
<MEAN> 25
 -1.397996e-01 4.646067e-01 -1.375075e+00 2.583321e+00 2.623180e+00 6.093446e-01 1.817342e+00 -3.889189e-01 9.029067e-01 -3.863138e-01 2.886075e-01 1.968952e-01 -1.892546e+00 3.711513e-01 -1.198555e-01 5.902554e-01 1.056783e+00 -1.300187e-01 5.169494e-01 8.087385e-02 3.346509e-01 -3.175823e-01 -1.504891e-01 5.675339e-01 -8.119804e-01
<VARIANCE> 25
 3.682313e+01 2.754725e+01 3.494131e+01 3.255436e+01 4.004205e+01 5.592863e+01 4.104438e+01 5.580160e+01 3.710118e+01 4.303921e+01 3.219725e+01 3.029727e+01 2.693970e+00 3.223629e+00 2.499522e+00 2.489757e+00 3.721598e+00 3.844277e+00 3.975618e+00 3.825463e+00 3.394024e+00 3.176592e+00 3.210968e+00 2.346789e+00 1.593762e+00
<GCONST> 1.038506e+02
<STATE> 3
<MEAN> 25
 -4.551686e+00 1.012258e+00 -1.553319e+00 2.803209e+00 3.414843e+00 -1.521440e+00 2.240089e+00 -6.808292e-01 1.888756e+00 -8.098415e-01 -4.840941e-01 1.656478e+00 -1.226209e+00 -8.237706e-02 3.380892e-02 2.222141e-01 2.673775e-01 -2.037940e-01 2.474097e-01 1.266841e-01 3.203337e-01 -7.677744e-02 -1.444620e-01 2.878964e-01 -3.186969e-01
<VARIANCE> 25
 3.098481e+01 2.396938e+01 3.437740e+01 3.309604e+01 3.251407e+01 4.962218e+01 3.802033e+01 4.527526e+01 3.719291e+01 3.256548e+01 3.125896e+01 2.313959e+01 1.709791e+00 1.442811e+00 1.445296e+00 1.710427e+00 2.186811e+00 2.502336e+00 2.122849e+00 2.641645e+00 2.372167e+00 2.314495e+00 1.990667e+00 1.904499e+00 6.903585e-01
<GCONST> 9.601124e+01
<STATE> 4
<MEAN> 25
 -6.328824e+00 -2.667296e-02 1.277225e-01 3.005493e+00 3.916775e+00 5.287594e-01 2.476111e+00 1.090785e-01 3.295907e-01 -7.161558e-01 6.854144e-02 1.770970e+00 2.081265e-01 -1.215128e-01 1.977860e-01 -7.077847e-02 -2.991247e-01 -2.005386e-01 -1.845481e-01 -3.944334e-02 -6.587432e-02 4.356707e-02 5.941880e-02 8.207540e-03 2.298109e-02
<VARIANCE> 25
 2.638595e+01 1.898240e+01 1.939944e+01 2.083943e+01 1.906039e+01 3.396922e+01 2.478144e+01 2.938184e+01 3.249676e+01 2.345054e+01 2.102637e+01 2.078391e+01 1.599028e+00 9.296766e-01 1.503236e+00 1.592587e+00 1.845121e+00 2.258617e+00 2.052348e+00 2.072168e+00 2.469182e+00 2.077616e+00 1.807755e+00 1.596251e+00 5.069845e-01
<GCONST> 9.010480e+01
<TRANSP> 5
 0.000000e+00 1.000000e+00 0.000000e+00 0.000000e+00 0.000000e+00
 0.000000e+00 4.670265e-01 5.329735e-01 0.000000e+00 0.000000e+00
 0.000000e+00 0.000000e+00 4.472782e-01 5.527218e-01 0.000000e+00
 0.000000e+00 0.000000e+00 0.000000e+00 7.793642e-01 2.206358e-01
 0.000000e+00 0.000000e+00 0.000000e+00 0.000000e+00 0.000000e+00
<ENDHMM>
~h "g"
<BEGINHMM>
<NUMSTATES> 5
<STATE> 2
<MEAN> 25
 2.263299e+00 4.694093e+00 3.230391e+00 3.911179e+00 1.117160e+00 -4.033458e-02 -1.476907e+00 -2.596063e+00 -2.080866e+00 -9.607185e-01 -9.005414e-01 -1.332109e+00 1.557235e-01 -1.684281e-01 2.326490e-01 1.674727e-01 1.314507e-01 -8.439578e-01 -6.316532e-01 1.060570e-01 5.395557e-02 4.207451e-02 1.393946e-01 -1.483763e-01 6.557102e-01
<VARIANCE> 25
 4.131089e+01 5.745836e+01 4.552740e+01 5.252373e+01 7.045425e+01 6.216307e+01 5.203080e+01 5.594320e+01 5.185490e+01 4.529617e+01 3.532278e+01 3.065636e+01 4.964784e+00 6.810754e+00 4.714911e+00 5.237849e+00 7.517236e+00 7.276220e+00 6.002383e+00 5.445769e+00 5.275328e+00 5.144610e+00 3.954501e+00 3.384838e+00 5.314233e+00
<GCONST> 1.143905e+02
<STATE> 3
<MEAN> 25
 3.541056e+00 1.426536e+00 2.942812e+00 2.247143e+00 -3.766941e-01 -5.412822e+00 -4.940147e+00 -6.059529e-01 -1.367763e+00 1.164710e-01 6.003432e-01 -1.675462e+00 2.231722e-01 -1.356539e+00 1.517107e-01 -1.290595e+00 -1.157797e+00 -1.405742e+00 -7.652327e-01 9.844323e-01 6.735296e-01 5.171560e-01 5.722288e-01 -2.114486e-01 1.791857e+00
<VARIANCE> 25
 2.687717e+01 5.326458e+01 4.983467e+01 5.534147e+01 7.258228e+01 7.188547e+01 6.984631e+01 6.182301e+01 5.383422e+01 6.060736e+01 5.194359e+01 3.882163e+01 2.544361e+00 4.796644e+00 5.519520e+00 5.662294e+00 8.332222e+00 6.578147e+00 6.784055e+00 6.870574e+00 6.801776e+00 6.309080e+00 5.395563e+00 4.244769e+00 2.843567e+00
<GCONST> 1.154907e+02
<STATE> 4
<MEAN> 25
 5.342798e+00 -8.019090e-01 3.163506e+00 -5.004216e-01 -4.855460e+00 -7.187625e+00 -5.654485e+00 1.518321e+00 1.319505e+00 -1.301118e+00 3.593852e-01 -2.271097e+00 4.967139e-02 -6.484371e-01 -2.157242e-01 -9.226400e-01 -5.018954e-01 2.261475e-01 3.093941e-01 3.583804e-01 3.595095e-01 2.294869e-01 -6.678548e-02 -1.418852e-01 6.841739e-01
<VARIANCE> 25
 3.501562e+01 6.291066e+01 5.457911e+01 7.084830e+01 7.873280e+01 7.789886e+01 7.648113e+01 8.445374e+01 8.109972e+01 1.157894e+02 6.906620e+01 4.518261e+01 1.141795e+00 2.733089e+00 3.908333e+00 3.309441e+00 4.144458e+00 3.943388e+00 3.953397e+00 4.655908e+00 4.757447e+00 4.115224e+00 4.045857e+00 2.966977e+00 1.634468e+00
<GCONST> 1.119480e+02
<TRANSP> 5
 0.000000e+00 1.000000e+00 0.000000e+00 0.000000e+00 0.000000e+00
 0.000000e+00 5.648329e-01 4.351672e-01 0.000000e+00 0.000000e+00
 0.000000e+00 0.000000e+00 4.379544e-01 5.620456e-01 0.000000e+00
 0.000000e+00 0.000000e+00 0.000000e+00 5.490883e-01 4.509117e-01
 0.000000e+00 0.000000e+00 0.000000e+00 0.000000e+00 0.000000e+00
<ENDHMM>
~h "h"
<BEGINHMM>
<NUMSTATES> 5
<STATE> 2
<MEAN> 25
 5.750098e-01 -2.476818e+00 2.290749e+00 7.051241e-02 -1.623523e+00 6.606293e-01 3.534742e+00 7.623024e-01 2.467288e-01 -2.714606e-01 -4.336585e-01 1.065651e-01 -6.608701e-01 2.725517e-01 -1.389508e-01 4.434891e-01 6.538656e-01 4.821539e-01 4.864607e-01 8.957828e-02 4.382420e-02 -4.063062e-02 6.429010e-02 2.548835e-01 -8.925456e-01
<VARIANCE> 25
 3.716133e+01 4.985101e+01 6.687853e+01 5.508194e+01 8.147163e+01 6.732523e+01 7.150634e+01 5.988450e+01 5.290219e+01 5.016042e+01 4.227059e+01 3.248030e+01 1.356897e+00 2.182534e+00 2.628405e+00 2.642093e+00 3.137023e+00 3.022070e+00 3.302695e+00 3.187145e+00 3.158239e+00 2.774415e+00 2.670594e+00 2.178524e+00 1.259645e+00
<GCONST> 1.055523e+02
<STATE> 3
<MEAN> 25
 -1.022232e+00 -2.643044e+00 2.453187e-01 1.594781e+00 1.278248e+00 1.160662e+00 3.903044e+00 1.057443e+00 -4.007803e-01 -9.360898e-01 -6.735522e-01 9.889403e-01 -4.298705e-01 2.903406e-01 -2.129599e-01 2.478496e-01 3.735876e-01 1.629266e-01 -3.920779e-02 2.381996e-02 2.275348e-02 4.387476e-02 4.615381e-02 1.688063e-01 -7.466127e-01
<VARIANCE> 25
 3.490165e+01 5.392797e+01 5.156901e+01 4.640228e+01 6.107673e+01 5.320496e+01 5.782829e+01 5.480406e+01 4.673729e+01 4.328608e+01 4.180297e+01 2.933235e+01 7.106394e-01 1.255545e+00 1.620312e+00 1.684570e+00 2.101349e+00 2.201657e+00 2.376024e+00 2.355727e+00 2.295621e+00 2.123992e+00 1.938342e+00 1.694337e+00 5.189637e-01
<GCONST> 9.840060e+01
<STATE> 4
<MEAN> 25
 -3.733289e+00 6.692767e-01 -6.970265e-01 2.300244e+00 3.350557e+00 2.251009e+00 1.882098e+00 4.082076e-01 -4.559132e-01 -4.017829e-01 -4.326119e-01 1.544607e+00 -1.068716e-01 9.833950e-02 -1.319903e-02 5.692550e-02 5.555462e-02 1.732993e-02 -3.140572e-02 -1.789487e-02 7.813431e-03 1.139967e-02 2.591595e-02 2.193233e-02 -1.756825e-01
<VARIANCE> 25
 3.134495e+01 2.856471e+01 2.660287e+01 2.880537e+01 3.091849e+01 2.804429e+01 2.974296e+01 2.889858e+01 2.738740e+01 2.905919e+01 2.490748e+01 2.268864e+01 2.617077e-01 5.082541e-01 7.567570e-01 8.860745e-01 1.212125e+00 1.312441e+00 1.435284e+00 1.593010e+00 1.602540e+00 1.611621e+00 1.481132e+00 1.339975e+00 1.821634e-01
<GCONST> 8.472942e+01
<TRANSP> 5
 0.000000e+00 1.000000e+00 0.000000e+00 0.000000e+00 0.000000e+00
 0.000000e+00 4.949609e-01 5.050392e-01 0.000000e+00 0.000000e+00
 0.000000e+00 0.000000e+00 5.043257e-01 4.956743e-01 0.000000e+00
 0.000000e+00 0.000000e+00 0.000000e+00 8.474222e-01 1.525778e-01
 0.000000e+00 0.000000e+00 0.000000e+00 0.000000e+00 0.000000e+00
<ENDHMM>
~h "i"
<BEGINHMM>
<NUMSTATES> 5
<STATE> 2
<MEAN> 25
 4.588109e-01 8.859782e-01 1.040784e+01 2.058752e-01 -7.212462e+00 -4.653736e+00 -1.811432e+00 -3.393522e+00 -4.422380e+00 -7.916914e-02 2.083763e+00 -2.954799e-01 2.747406e-01 -2.597769e-01 2.429139e+00 -1.133610e+00 -2.073529e+00 -4.137021e-01 -7.162292e-01 -3.706457e-01 -1.278950e+00 3.862892e-01 6.091150e-01 -3.271951e-01 1.116269e+00
<VARIANCE> 25
 3.079881e+01 4.546199e+01 6.261192e+01 7.667765e+01 7.499477e+01 7.361746e+01 5.820992e+01 6.169949e+01 6.092563e+01 5.342408e+01 5.023121e+01 3.808612e+01 3.547638e+00 3.288570e+00 5.450209e+00 6.684228e+00 6.152914e+00 6.405028e+00 6.126553e+00 5.689529e+00 5.976915e+00 5.669055e+00 5.825523e+00 3.889569e+00 2.259588e+00
<GCONST> 1.148509e+02
<STATE> 3
<MEAN> 25
 3.990317e-01 8.857544e-01 1.587520e+01 -2.543630e+00 -1.215240e+01 -5.134727e+00 -3.257282e+00 -3.654482e+00 -7.862094e+00 4.800546e-01 4.180678e+00 -1.689986e+00 1.222986e-01 1.370151e-01 -2.395789e-01 6.613153e-02 1.207413e-01 1.176796e-01 1.542916e-02 1.066802e-01 1.601974e-01 9.109644e-02 -1.117972e-01 6.689800e-02 -2.265173e-01
<VARIANCE> 25
 1.912795e+01 3.126680e+01 5.026682e+01 7.547839e+01 5.745596e+01 6.646468e+01 5.017100e+01 5.499329e+01 5.845163e+01 6.419099e+01 6.821201e+01 4.439549e+01 8.530531e-01 1.832723e+00 2.814197e+00 2.821639e+00 3.191023e+00 3.190768e+00 3.000185e+00 3.303484e+00 3.182333e+00 2.836879e+00 2.702305e+00 2.146107e+00 1.238585e+00
<GCONST> 1.043031e+02
<STATE> 4
<MEAN> 25
 3.928320e-01 3.205894e+00 1.021995e+01 -3.432765e-01 -5.760149e+00 -2.560791e+00 -2.878374e+00 -3.914468e+00 -3.808866e+00 1.897081e-01 7.563369e-01 5.440452e-01 -5.711777e-02 2.545818e-01 -1.119420e+00 5.652168e-01 9.895461e-01 3.925393e-01 3.671570e-01 2.505158e-01 5.050282e-01 -1.774685e-01 -2.829718e-01 1.792892e-01 -7.530547e-01
<VARIANCE> 25
 1.973916e+01 4.292448e+01 4.411099e+01 9.607638e+01 5.539981e+01 6.486416e+01 5.734845e+01 5.428495e+01 5.499299e+01 4.609763e+01 4.695262e+01 3.405666e+01 8.382613e-01 1.474152e+00 2.067845e+00 2.376298e+00 2.722275e+00 2.732146e+00 2.816965e+00 2.811550e+00 2.875448e+00 2.620844e+00 2.536260e+00 1.930283e+00 9.880340e-01
<GCONST> 1.019619e+02
<TRANSP> 5
 0.000000e+00 1.000000e+00 0.000000e+00 0.000000e+00 0.000000e+00
 0.000000e+00 5.586618e-01 4.413382e-01 0.000000e+00 0.000000e+00
 0.000000e+00 0.000000e+00 6.787440e-01 3.212560e-01 0.000000e+00
 0.000000e+00 0.000000e+00 0.000000e+00 7.692634e-01 2.307367e-01
 0.000000e+00 0.000000e+00 0.000000e+00 0.000000e+00 0.000000e+00
<ENDHMM>
~h "j"
<BEGINHMM>
<NUMSTATES> 5
<STATE> 2
<MEAN> 25
 -2.420620e+00 6.803257e+00 3.559159e+00 3.638028e+00 1.191791e+00 -9.689038e-01 1.084506e+00 -1.755677e+00 -8.163632e-01 -3.004012e+00 -4.188631e-01 4.945445e-01 -1.368981e+00 6.926957e-01 9.307222e-01 -4.279527e-01 -1.232040e-01 -4.542580e-01 4.817335e-02 -5.997884e-01 -2.069610e-02 -1.601316e-01 4.201927e-01 1.444872e-01 7.976824e-01
<VARIANCE> 25
 7.750932e+01 5.738802e+01 4.607686e+01 4.628388e+01 5.489366e+01 5.515759e+01 4.494626e+01 4.300742e+01 3.952198e+01 3.821976e+01 3.479362e+01 3.133727e+01 6.257523e+00 5.385139e+00 4.991407e+00 5.248196e+00 6.344727e+00 6.857578e+00 4.694144e+00 4.419401e+00 4.252722e+00 4.331130e+00 3.747603e+00 2.845473e+00 5.441281e+00
<GCONST> 1.124717e+02
<STATE> 3
<MEAN> 25
 -2.766719e+00 3.736368e+00 1.128860e+01 1.021706e+00 -5.507513e+00 -5.546439e+00 -1.619055e+00 -3.735989e+00 -2.790169e+00 -2.304029e+00 2.617209e+00 2.041857e+00 1.717185e+00 -2.202855e+00 1.312683e+00 -5.735133e-01 -2.621306e+00 -1.904165e+00 -1.411859e+00 5.055255e-01 -5.748402e-01 4.587924e-01 9.193874e-01 2.281594e-01 1.658598e+00
<VARIANCE> 25
 4.518538e+01 6.632919e+01 4.869421e+01 5.743025e+01 6.673062e+01 8.363860e+01 5.883711e+01 5.130434e+01 4.702453e+01 4.899226e+01 3.986239e+01 3.764540e+01 5.071850e+00 5.259367e+00 5.898924e+00 6.318227e+00 7.238196e+00 6.046896e+00 6.128229e+00 6.381205e+00 5.755515e+00 5.861520e+00 4.691362e+00 3.180811e+00 2.014805e+00
<GCONST> 1.148532e+02
<STATE> 4
<MEAN> 25
 2.484475e+00 -1.994188e+00 9.632562e+00 -6.216453e-01 -9.291497e+00 -9.347167e+00 -3.988559e+00 1.778800e+00 -1.778394e+00 -7.810209e-01 3.441193e+00 1.872779e+00 7.482038e-01 -8.842840e-01 -1.394252e+00 -2.481046e-01 4.836113e-01 3.625102e-01 -6.896909e-02 9.591749e-01 7.413815e-01 2.627061e-01 -4.620876e-01 -6.395261e-01 1.665425e-01
<VARIANCE> 25
 2.352995e+01 3.682986e+01 3.879097e+01 6.280980e+01 5.089197e+01 4.684326e+01 7.174461e+01 7.231406e+01 5.340034e+01 6.202651e+01 4.577517e+01 3.491643e+01 1.027176e+00 3.209045e+00 2.726911e+00 2.792296e+00 4.203918e+00 3.907299e+00 4.642436e+00 4.435337e+00 3.695292e+00 3.766699e+00 3.623153e+00 2.998483e+00 1.451123e+00
<GCONST> 1.067601e+02
<TRANSP> 5
 0.000000e+00 1.000000e+00 0.000000e+00 0.000000e+00 0.000000e+00
 0.000000e+00 7.313731e-01 2.686269e-01 0.000000e+00 0.000000e+00
 0.000000e+00 0.000000e+00 5.957831e-01 4.042168e-01 0.000000e+00
 0.000000e+00 0.000000e+00 0.000000e+00 6.741711e-01 3.258288e-01
 0.000000e+00 0.000000e+00 0.000000e+00 0.000000e+00 0.000000e+00
<ENDHMM>
~h "k"
<BEGINHMM>
<NUMSTATES> 5
<STATE> 2
<MEAN> 25
 -3.559167e+00 2.075094e+00 -2.569009e+00 3.080009e+00 2.912308e+00 3.144025e+00 1.051732e+00 6.835139e-01 1.323617e+00 1.017764e+00 1.984457e+00 1.651555e+00 -5.743913e-01 -6.898247e-01 -6.814207e-01 -8.954999e-02 5.250477e-01 -3.107442e-01 -1.377282e-02 2.538081e-01 4.334713e-01 2.850065e-01 8.656148e-02 1.834081e-01 3.189850e-01
<VARIANCE> 25
 4.624948e+01 6.576976e+01 5.181328e+01 6.571111e+01 6.814667e+01 7.052909e+01 5.430483e+01 5.141535e+01 5.330853e+01 4.533684e+01 5.031966e+01 3.561322e+01 3.399954e+00 6.314859e+00 4.744096e+00 5.711280e+00 6.505075e+00 6.644404e+00 5.625043e+00 5.104134e+00 5.406903e+00 4.430886e+00 4.299700e+00 3.491031e+00 6.409224e+00
<GCONST> 1.150260e+02
<STATE> 3
<MEAN> 25
 -2.232438e+00 -3.108842e+00 -5.267122e+00 -1.295104e-01 3.953906e+00 -2.704631e-01 2.102418e-01 1.494904e+00 2.745260e+00 2.041966e+00 -2.736317e-01 9.736995e-01 1.100729e+00 -9.647636e-01 -1.811750e-01 -1.377782e+00 -5.834280e-01 -9.441307e-01 -2.837796e-01 -3.044792e-02 -8.487654e-02 1.017226e-01 -3.423609e-01 -5.330020e-01 2.176301e+00
<VARIANCE> 25
 3.804220e+01 5.826517e+01 7.171088e+01 6.424649e+01 1.001355e+02 7.289622e+01 6.940495e+01 6.196247e+01 6.306946e+01 5.398653e+01 3.938515e+01 3.583519e+01 5.115946e+00 6.556385e+00 6.676265e+00 7.811327e+00 9.136567e+00 7.812053e+00 7.132632e+00 6.723862e+00 7.034575e+00 6.673445e+00 5.287919e+00 4.752854e+00 6.139330e+00
<GCONST> 1.192264e+02
<STATE> 4
<MEAN> 25
 1.433084e+00 -2.817969e+00 -4.607141e+00 -3.207553e+00 1.573097e+00 -1.269178e+00 3.167544e-02 5.015603e-01 7.664794e-01 1.290152e+00 -8.214032e-01 -6.275280e-01 1.379177e+00 -2.717172e-02 7.010463e-01 -9.984179e-01 -1.282984e+00 -3.269130e-01 -2.856355e-01 -3.651430e-01 -6.528274e-01 -3.005982e-01 -6.581828e-02 -6.485849e-01 1.260911e+00
<VARIANCE> 25
 3.698268e+01 4.991957e+01 6.268689e+01 6.023966e+01 7.531128e+01 6.542625e+01 5.264259e+01 5.596165e+01 5.727162e+01 4.752671e+01 4.405687e+01 4.000338e+01 3.847081e+00 4.351084e+00 5.003633e+00 6.045193e+00 6.212075e+00 5.685231e+00 5.430349e+00 5.813890e+00 5.803433e+00 4.836123e+00 4.861603e+00 3.854274e+00 3.302106e+00
<GCONST> 1.142820e+02
<TRANSP> 5
 0.000000e+00 1.000000e+00 0.000000e+00 0.000000e+00 0.000000e+00
 0.000000e+00 5.841856e-01 4.158144e-01 0.000000e+00 0.000000e+00
 0.000000e+00 0.000000e+00 4.319783e-01 5.680218e-01 0.000000e+00
 0.000000e+00 0.000000e+00 0.000000e+00 3.649358e-01 6.350642e-01
 0.000000e+00 0.000000e+00 0.000000e+00 0.000000e+00 0.000000e+00
<ENDHMM>
~h "l"
<BEGINHMM>
<NUMSTATES> 5
<STATE> 2
<MEAN> 25
 5.882759e+00 -2.797997e+00 -2.140076e+00 -3.350308e+00 -1.488823e+00 -1.775687e+00 -5.142423e+00 -3.517372e+00 3.328110e+00 3.329396e+00 -4.857407e-01 -2.546581e+00 2.912148e-01 -1.920402e-01 -1.318064e-01 -2.381265e-01 -3.091465e-02 -3.711043e-02 -7.983071e-01 -2.710460e-01 5.825270e-01 6.462744e-01 -1.277858e-01 -2.890038e-01 1.291105e-01
<VARIANCE> 25
 2.591116e+01 3.616741e+01 4.509919e+01 6.374002e+01 5.537345e+01 8.095662e+01 6.594997e+01 7.700646e+01 6.078936e+01 6.722507e+01 5.309377e+01 4.284527e+01 9.515146e-01 2.100394e+00 2.545174e+00 3.410700e+00 3.562761e+00 4.723767e+00 4.212557e+00 5.022658e+00 4.283850e+00 4.065574e+00 3.866300e+00 3.217701e+00 1.155702e+00
<GCONST> 1.079911e+02
<STATE> 3
<MEAN> 25
 5.910373e+00 -3.345685e+00 -2.690804e+00 -5.094582e+00 -1.181178e+00 -7.381262e-01 -6.592494e+00 -3.513089e+00 4.992219e+00 5.172883e+00 -6.644152e-01 -3.304824e+00 -2.889300e-02 -4.215126e-02 1.738528e-02 -5.145110e-02 1.578470e-02 -1.731792e-02 -1.617551e-02 3.278498e-01 3.480960e-02 -2.292527e-01 -1.663758e-01 8.499911e-03 4.174267e-03
<VARIANCE> 25
 2.207448e+01 2.999722e+01 3.998176e+01 6.173742e+01 4.740583e+01 7.254006e+01 6.073912e+01 6.468477e+01 5.952142e+01 5.861996e+01 5.223496e+01 4.011631e+01 3.316854e-01 1.241155e+00 1.576503e+00 2.093135e+00 2.139800e+00 3.006897e+00 2.830887e+00 3.492940e+00 2.671419e+00 2.716145e+00 2.848755e+00 2.004935e+00 4.858268e-01
<GCONST> 9.993941e+01
<STATE> 4
<MEAN> 25
 7.239922e+00 -3.154209e+00 -3.018219e+00 -3.512559e+00 -3.356590e+00 -3.101625e+00 -4.525676e+00 -1.080114e+00 3.420269e+00 -2.755298e-01 -9.932816e-01 -2.015669e+00 -1.784345e-01 1.263053e-01 1.649138e-01 7.222824e-02 1.686879e-02 1.057578e-02 3.713901e-01 2.779331e-01 -4.147919e-01 -2.881328e-01 6.014384e-02 1.380550e-01 -1.593237e-01
<VARIANCE> 25
 2.452449e+01 3.906050e+01 4.886237e+01 6.829228e+01 7.913820e+01 9.649569e+01 5.900161e+01 7.874691e+01 5.955397e+01 9.665206e+01 5.973788e+01 4.143580e+01 3.431760e-01 1.097964e+00 1.379532e+00 1.712600e+00 2.174919e+00 2.454640e+00 2.261962e+00 2.556026e+00 2.437709e+00 2.509873e+00 2.379195e+00 1.662292e+00 5.437410e-01
<GCONST> 1.006714e+02
<TRANSP> 5
 0.000000e+00 1.000000e+00 0.000000e+00 0.000000e+00 0.000000e+00
 0.000000e+00 4.007773e-01 5.992227e-01 0.000000e+00 0.000000e+00
 0.000000e+00 0.000000e+00 4.168958e-01 5.831041e-01 0.000000e+00
 0.000000e+00 0.000000e+00 0.000000e+00 6.742805e-01 3.257195e-01
 0.000000e+00 0.000000e+00 0.000000e+00 0.000000e+00 0.000000e+00
<ENDHMM>
~h "m"
<BEGINHMM>
<NUMSTATES> 5
<STATE> 2
<MEAN> 25
 5.320488e+00 1.254742e+00 -4.669373e-01 1.174750e+00 6.235065e-01 2.871848e+00 -9.913604e-01 -5.540242e+00 -4.725113e+00 -6.582101e-02 2.150847e-01 -1.446343e+00 -1.944972e-02 7.169327e-01 7.519023e-01 1.157117e+00 2.430269e-01 4.864292e-01 2.605539e-01 -1.314278e+00 -1.293344e+00 -4.775267e-01 -4.377171e-01 4.973735e-02 -5.898985e-01
<VARIANCE> 25
 2.058638e+01 3.054234e+01 3.397637e+01 3.896532e+01 3.420703e+01 3.976813e+01 3.854356e+01 3.984351e+01 4.849620e+01 3.221649e+01 3.397099e+01 2.702539e+01 1.199020e+00 1.929235e+00 2.790503e+00 3.385381e+00 2.526242e+00 2.771797e+00 2.708688e+00 3.316594e+00 3.749822e+00 2.547036e+00 3.014604e+00 2.246113e+00 1.522055e+00
<GCONST> 1.001228e+02
<STATE> 3
<MEAN> 25
 5.288609e+00 1.517941e+00 3.471052e-01 1.702018e+00 4.692330e-01 3.883146e+00 -2.679384e-01 -7.069636e+00 -6.593181e+00 -8.328184e-01 -3.193493e-01 -1.564327e+00 1.459522e-01 -2.890194e-01 -6.126093e-01 -6.114124e-01 9.796818e-02 1.855811e-01 -5.550964e-02 4.747141e-01 5.925332e-01 -1.854453e-03 -7.606868e-02 -3.504772e-01 3.141430e-01
<VARIANCE> 25
 1.940948e+01 2.929145e+01 3.548024e+01 3.834695e+01 3.481203e+01 4.399115e+01 3.784035e+01 4.281098e+01 5.870107e+01 3.381402e+01 3.688005e+01 2.774894e+01 7.251095e-01 1.703741e+00 2.908710e+00 3.456924e+00 2.208347e+00 2.418689e+00 2.378998e+00 3.033350e+00 4.095644e+00 2.213282e+00 2.490250e+00 2.096736e+00 1.184232e+00
<GCONST> 9.895152e+01
<STATE> 4
<MEAN> 25
 4.786217e+00 2.099744e+00 -9.663204e-01 5.071760e-01 1.012612e+00 2.532373e+00 -6.068078e-01 -3.761983e+00 -3.480227e+00 -1.249100e+00 -1.298467e+00 -2.113284e+00 -2.728729e-02 -1.826500e-01 -3.156948e-01 -4.361794e-01 -8.214124e-02 -2.080647e-01 -6.709067e-02 6.556103e-01 5.743591e-01 1.354050e-01 9.646635e-02 -5.276800e-02 1.336514e-01
<VARIANCE> 25
 2.146949e+01 3.215748e+01 3.708902e+01 4.304138e+01 4.148337e+01 4.168754e+01 3.617659e+01 3.725381e+01 4.232655e+01 3.520530e+01 3.408274e+01 2.834686e+01 4.533655e-01 1.119177e+00 1.503379e+00 2.001525e+00 1.900223e+00 1.876635e+00 1.798476e+00 2.318263e+00 2.528003e+00 1.987729e+00 2.136321e+00 1.745297e+00 6.038138e-01
<GCONST> 9.424957e+01
<TRANSP> 5
 0.000000e+00 1.000000e+00 0.000000e+00 0.000000e+00 0.000000e+00
 0.000000e+00 5.061203e-01 4.938797e-01 0.000000e+00 0.000000e+00
 0.000000e+00 0.000000e+00 4.320640e-01 5.679360e-01 0.000000e+00
 0.000000e+00 0.000000e+00 0.000000e+00 6.795285e-01 3.204716e-01
 0.000000e+00 0.000000e+00 0.000000e+00 0.000000e+00 0.000000e+00
<ENDHMM>
~h "n"
<BEGINHMM>
<NUMSTATES> 5
<STATE> 2
<MEAN> 25
 5.016425e+00 -2.233667e+00 1.790798e+00 1.865180e+00 -2.723373e+00 -3.086507e+00 -1.947798e+00 -6.613272e-01 -1.009690e+00 -9.235275e-01 -2.826011e+00 -1.533423e+00 1.926757e-01 1.778025e+00 4.359237e-01 1.367001e+00 7.377408e-02 4.301844e-01 -2.081916e-01 -1.733890e+00 -4.181210e-01 6.391246e-02 -3.751506e-01 1.220868e-01 -1.450035e+00
<VARIANCE> 25
 1.567954e+01 3.883990e+01 3.225266e+01 3.425200e+01 4.021636e+01 4.277470e+01 4.483692e+01 6.428457e+01 5.042985e+01 4.974736e+01 4.284484e+01 3.457998e+01 8.795426e-01 1.910420e+00 2.625320e+00 2.549917e+00 3.357677e+00 3.635554e+00 3.446492e+00 4.674609e+00 3.855813e+00 3.750879e+00 3.460464e+00 2.838015e+00 1.012952e+00
<GCONST> 1.025817e+02
<STATE> 3
<MEAN> 25
 5.274887e+00 2.196833e+00 2.757254e+00 4.184028e+00 -2.741709e+00 -1.498469e+00 -1.908954e+00 -4.726235e+00 -1.867280e+00 -5.952880e-01 -3.776155e+00 -1.503217e+00 -1.058671e-01 9.129977e-01 6.580397e-02 3.431113e-01 3.320824e-01 3.110183e-01 1.116967e-01 -3.264630e-01 -2.277038e-01 -1.488258e-01 -4.115537e-02 5.332277e-02 -6.837981e-01
<VARIANCE> 25
 1.402928e+01 3.298683e+01 2.563743e+01 2.805031e+01 3.517380e+01 3.779743e+01 3.679239e+01 4.589349e+01 4.127658e+01 4.788184e+01 3.986502e+01 3.039252e+01 4.340293e-01 1.106961e+00 1.348386e+00 1.367684e+00 1.830271e+00 1.994280e+00 2.090626e+00 2.430023e+00 2.280947e+00 2.189058e+00 1.987946e+00 1.667099e+00 5.165553e-01
<GCONST> 9.291993e+01
<STATE> 4
<MEAN> 25
 2.130196e+00 4.428048e+00 2.537770e+00 4.825900e+00 8.700020e-01 6.490397e-02 -6.727858e-01 -2.934391e+00 -2.034416e+00 -1.695005e+00 -2.356554e+00 -5.216322e-01 -4.406467e-01 -2.417799e-02 -7.914881e-02 -8.102199e-02 3.081075e-01 1.813703e-01 1.854243e-01 3.570121e-01 1.179896e-01 3.955741e-03 2.478706e-01 1.212288e-01 -2.443340e-01
<VARIANCE> 25
 2.192624e+01 2.929081e+01 2.553415e+01 2.862551e+01 3.808839e+01 3.249096e+01 3.235326e+01 3.757919e+01 3.711901e+01 3.842981e+01 3.340527e+01 2.645045e+01 6.565394e-01 1.214635e+00 1.254192e+00 1.389118e+00 1.830506e+00 1.937690e+00 1.989910e+00 2.442886e+00 2.169197e+00 2.182473e+00 1.997993e+00 1.676679e+00 6.078648e-01
<GCONST> 9.271934e+01
<TRANSP> 5
 0.000000e+00 1.000000e+00 0.000000e+00 0.000000e+00 0.000000e+00
 0.000000e+00 5.359848e-01 4.640152e-01 0.000000e+00 0.000000e+00
 0.000000e+00 0.000000e+00 5.550800e-01 4.449200e-01 0.000000e+00
 0.000000e+00 0.000000e+00 0.000000e+00 6.959603e-01 3.040396e-01
 0.000000e+00 0.000000e+00 0.000000e+00 0.000000e+00 0.000000e+00
<ENDHMM>
~h "o"
<BEGINHMM>
<NUMSTATES> 5
<STATE> 2
<MEAN> 25
 4.218850e+00 4.465062e-01 -5.172552e+00 -6.605434e+00 -5.157754e-01 2.314749e+00 -1.166450e+00 -6.928774e-01 1.019759e+00 1.861277e+00 1.324165e+00 -1.050941e+00 1.400092e+00 -3.239207e-01 -9.121170e-01 -1.951739e+00 -4.411259e-01 7.935408e-01 -9.312366e-02 -1.873095e-01 -1.467920e-01 3.796930e-01 5.602990e-01 -4.161544e-01 1.308063e+00
<VARIANCE> 25
 5.060403e+01 3.946831e+01 3.698560e+01 7.895660e+01 6.294738e+01 7.585135e+01 5.936320e+01 5.361135e+01 5.199080e+01 5.204161e+01 4.315235e+01 3.783361e+01 4.803256e+00 3.426681e+00 3.376005e+00 6.855142e+00 5.362318e+00 5.858671e+00 4.932603e+00 4.804988e+00 4.602677e+00 4.392138e+00 4.003147e+00 3.367582e+00 4.321514e+00
<GCONST> 1.129902e+02
<STATE> 3
<MEAN> 25
 7.082445e+00 -8.127517e-01 -7.325686e+00 -1.078276e+01 -7.791187e-01 5.667604e+00 -2.156310e+00 -2.404871e+00 5.503979e-01 2.624802e+00 3.318759e+00 -1.607187e+00 -1.094172e-01 2.470499e-01 -9.095168e-02 3.382798e-01 2.756929e-01 2.836654e-01 2.769082e-01 -5.309099e-02 -1.500498e-01 -1.075919e-01 -4.571048e-02 1.730412e-01 -4.891450e-01
<VARIANCE> 25
 2.507327e+01 3.287678e+01 3.471401e+01 6.520326e+01 5.984702e+01 8.164672e+01 5.538416e+01 5.506220e+01 6.224985e+01 5.902499e+01 5.005901e+01 3.937172e+01 9.359417e-01 1.976777e+00 1.645422e+00 3.534745e+00 2.710819e+00 3.454700e+00 3.238359e+00 2.928313e+00 3.573673e+00 3.397452e+00 2.897475e+00 2.630951e+00 1.721002e+00
<GCONST> 1.046316e+02
<STATE> 4
<MEAN> 25
 5.099002e+00 1.280686e+00 -6.403862e+00 -8.542899e+00 -7.726318e-02 4.978110e+00 5.783651e-01 -1.201973e+00 -3.992403e-02 1.331203e+00 1.884205e+00 -5.417396e-02 -3.616171e-01 1.418660e-01 3.433998e-01 7.331731e-01 2.168720e-01 -2.163348e-01 8.528417e-02 5.197455e-02 5.450223e-03 -1.271723e-01 -2.307193e-01 2.904721e-02 -4.133952e-01
<VARIANCE> 25
 3.584542e+01 2.782870e+01 3.006797e+01 6.212705e+01 4.404012e+01 5.894794e+01 4.365539e+01 4.071462e+01 4.192868e+01 4.408301e+01 3.404916e+01 3.216625e+01 4.861234e-01 7.853689e-01 1.017939e+00 1.745635e+00 1.475528e+00 1.713254e+00 1.711517e+00 1.690563e+00 1.823841e+00 1.838118e+00 1.631116e+00 1.464258e+00 4.224011e-01
<GCONST> 9.307065e+01
<TRANSP> 5
 0.000000e+00 1.000000e+00 0.000000e+00 0.000000e+00 0.000000e+00
 0.000000e+00 5.426158e-01 4.573842e-01 0.000000e+00 0.000000e+00
 0.000000e+00 0.000000e+00 6.357245e-01 3.642755e-01 0.000000e+00
 0.000000e+00 0.000000e+00 0.000000e+00 8.016824e-01 1.983176e-01
 0.000000e+00 0.000000e+00 0.000000e+00 0.000000e+00 0.000000e+00
<ENDHMM>
~h "p"
<BEGINHMM>
<NUMSTATES> 5
<STATE> 2
<MEAN> 25
 -2.334234e+00 3.003183e+00 -2.704745e+00 1.915925e+00 2.537257e+00 3.312235e+00 1.755239e+00 1.306343e-01 1.779343e+00 3.283956e-01 1.262192e+00 1.248120e+00 -6.712548e-01 -5.058901e-01 -6.670834e-02 -1.563216e-01 -1.822928e-01 -1.675134e-01 1.331151e-01 5.023901e-02 4.212319e-01 2.062851e-01 3.343061e-01 1.819492e-01 1.670146e-01
<VARIANCE> 25
 4.517165e+01 3.011234e+01 3.106329e+01 3.568714e+01 3.213895e+01 3.821886e+01 3.263736e+01 3.407001e+01 3.801402e+01 3.190876e+01 3.084926e+01 2.574580e+01 4.398848e+00 3.898401e+00 2.735790e+00 3.598315e+00 3.295717e+00 4.283119e+00 3.343573e+00 3.335517e+00 3.501466e+00 3.105489e+00 2.873543e+00 2.517919e+00 6.127637e+00
<GCONST> 1.044445e+02
<STATE> 3
<MEAN> 25
 -2.873951e-01 -1.459240e-01 -3.256030e+00 2.842995e-01 1.101228e+00 1.703480e+00 9.178247e-01 -7.826172e-01 1.844643e+00 1.270171e+00 1.365809e+00 7.122844e-01 2.150796e+00 -1.884967e+00 -6.375012e-01 -1.706194e+00 -1.050871e+00 -8.495878e-01 -8.841482e-01 -2.772510e-01 9.719458e-02 3.307671e-01 7.524695e-02 -9.929369e-01 3.270724e+00
<VARIANCE> 25
 3.586965e+01 4.266105e+01 3.658707e+01 5.099185e+01 3.986113e+01 4.808236e+01 3.500814e+01 3.867443e+01 3.895451e+01 3.306603e+01 3.160270e+01 2.776154e+01 5.909290e+00 7.034345e+00 6.205691e+00 7.859398e+00 6.444925e+00 8.453375e+00 5.917110e+00 5.883664e+00 6.217417e+00 6.195271e+00 5.788077e+00 4.824458e+00 5.672033e+00
<GCONST> 1.133969e+02
<STATE> 4
<MEAN> 25
 4.970084e+00 -3.471501e+00 -5.378544e+00 -3.354097e+00 -1.020069e+00 3.906552e-01 -1.468480e+00 -1.213043e+00 1.545974e+00 1.239315e+00 1.094093e+00 -2.129648e+00 1.352193e+00 -1.199220e+00 2.163534e-02 -9.662842e-01 -8.681862e-01 -7.037731e-01 -7.239963e-01 1.500096e-01 -1.426666e-01 -6.608912e-02 -1.390061e-01 -7.832814e-01 1.967773e+00
<VARIANCE> 25
 3.865769e+01 5.244253e+01 5.885651e+01 7.491389e+01 5.227077e+01 7.760627e+01 4.469311e+01 4.742421e+01 4.907575e+01 5.042347e+01 4.073278e+01 4.076187e+01 3.730244e+00 5.138103e+00 6.897113e+00 6.721477e+00 6.686356e+00 7.574903e+00 5.534370e+00 5.895751e+00 6.619666e+00 5.453053e+00 5.520719e+00 4.545411e+00 3.843171e+00
<GCONST> 1.155033e+02
<TRANSP> 5
 0.000000e+00 1.000000e+00 0.000000e+00 0.000000e+00 0.000000e+00
 0.000000e+00 5.831237e-01 4.168763e-01 0.000000e+00 0.000000e+00
 0.000000e+00 0.000000e+00 3.695807e-01 6.304194e-01 0.000000e+00
 0.000000e+00 0.000000e+00 0.000000e+00 2.771651e-01 7.228350e-01
 0.000000e+00 0.000000e+00 0.000000e+00 0.000000e+00 0.000000e+00
<ENDHMM>
~h "r"
<BEGINHMM>
<NUMSTATES> 5
<STATE> 2
<MEAN> 25
 5.010390e+00 -5.106116e+00 -2.651558e+00 7.611759e-01 -3.054475e+00 -3.396780e+00 -3.064404e+00 4.303158e-01 4.604784e+00 9.696348e-01 -3.512377e-01 -1.563100e+00 9.603382e-02 1.020246e-01 1.459490e-01 1.102466e+00 -2.433798e-01 -2.356824e-01 -2.596603e-01 -1.518889e-01 2.141238e-01 -3.230352e-01 6.071453e-02 3.455208e-01 -5.968686e-01
<VARIANCE> 25
 2.481384e+01 3.362043e+01 4.098928e+01 3.845833e+01 4.705099e+01 5.158962e+01 5.172651e+01 5.822762e+01 6.163390e+01 5.351442e+01 4.817768e+01 3.872873e+01 1.773921e+00 2.720043e+00 2.578153e+00 3.550025e+00 4.046438e+00 4.175238e+00 3.843931e+00 4.272653e+00 4.377670e+00 4.183858e+00 3.961654e+00 3.465841e+00 1.976422e+00
<GCONST> 1.070961e+02
<STATE> 3
<MEAN> 25
 4.780553e+00 -4.008452e+00 -1.988273e+00 2.941444e+00 -2.909804e+00 -3.844670e+00 -3.018644e+00 -2.396181e-02 3.966486e+00 2.849984e-01 -1.716053e-01 -4.486191e-01 -2.591484e-01 5.118193e-01 4.109189e-01 4.563198e-01 1.518002e-01 1.200031e-01 1.695298e-01 -1.496334e-01 -5.015771e-01 -3.105692e-01 7.812912e-02 3.125808e-01 -6.078944e-01
<VARIANCE> 25
 2.325518e+01 3.379142e+01 4.017972e+01 3.326438e+01 4.868038e+01 4.903102e+01 4.781217e+01 5.468843e+01 5.469553e+01 4.881131e+01 3.899344e+01 3.123429e+01 1.538603e+00 2.439662e+00 2.489079e+00 2.559255e+00 3.431018e+00 3.630800e+00 3.258812e+00 3.862195e+00 3.769132e+00 3.483769e+00 3.499905e+00 3.059002e+00 1.525840e+00
<GCONST> 1.040504e+02
<STATE> 4
<MEAN> 25
 3.814618e+00 -1.905392e+00 -7.198805e-01 3.286297e+00 -1.958047e+00 -2.972683e+00 -1.752156e+00 -1.001398e-01 1.803325e+00 -8.165910e-01 -1.390240e-01 3.652679e-02 -3.243436e-01 4.883763e-01 3.476020e-01 -1.615097e-01 2.021535e-01 3.608281e-01 3.180264e-01 -7.881051e-02 -6.000544e-01 6.080274e-03 9.057801e-02 1.973482e-02 -4.060383e-01
<VARIANCE> 25
 2.615234e+01 4.398538e+01 4.195498e+01 3.504938e+01 4.921556e+01 5.427477e+01 4.437103e+01 5.750249e+01 5.323162e+01 5.113681e+01 3.842050e+01 3.076777e+01 1.116819e+00 1.816788e+00 2.029788e+00 1.788125e+00 2.706537e+00 2.948974e+00 2.611339e+00 3.002112e+00 3.111457e+00 2.705918e+00 2.545259e+00 2.065406e+00 1.034441e+00
<GCONST> 1.009639e+02
<TRANSP> 5
 0.000000e+00 1.000000e+00 0.000000e+00 0.000000e+00 0.000000e+00
 0.000000e+00 3.717431e-01 6.282569e-01 0.000000e+00 0.000000e+00
 0.000000e+00 0.000000e+00 2.427715e-01 7.572285e-01 0.000000e+00
 0.000000e+00 0.000000e+00 0.000000e+00 5.340095e-01 4.659905e-01
 0.000000e+00 0.000000e+00 0.000000e+00 0.000000e+00 0.000000e+00
<ENDHMM>
~h "s"
<BEGINHMM>
<NUMSTATES> 5
<STATE> 2
<MEAN> 25
 -7.090538e+00 5.825319e+00 -3.633240e-01 2.393040e+00 3.540197e+00 -4.468439e+00 3.161610e+00 6.147062e-01 1.215101e+00 -1.707623e+00 5.132357e-01 1.337073e+00 -3.221367e+00 1.788329e+00 -7.824521e-01 3.454142e-01 1.302578e+00 -2.528324e-01 1.152869e+00 2.924111e-01 3.628576e-01 -3.838772e-01 6.004763e-01 4.146788e-01 -1.359227e-02
<VARIANCE> 25
 6.875259e+01 5.430699e+01 6.027710e+01 5.368499e+01 7.065757e+01 7.094708e+01 6.683185e+01 5.971432e+01 4.845009e+01 4.516056e+01 4.600045e+01 3.426170e+01 3.901631e+00 4.041915e+00 4.169409e+00 4.348155e+00 4.471701e+00 4.558925e+00 4.591444e+00 4.718733e+00 4.029267e+00 4.180390e+00 3.734627e+00 2.973687e+00 1.244495e+00
<GCONST> 1.113155e+02
<STATE> 3
<MEAN> 25
 -1.635428e+01 7.898745e+00 -3.038985e+00 1.749967e+00 6.299022e+00 -4.043478e+00 5.236341e+00 2.173301e+00 2.045962e+00 -1.644871e+00 1.803504e+00 2.832431e+00 3.923232e-01 -6.241967e-01 1.962067e-01 -6.074399e-03 -3.586288e-01 1.126127e-01 -1.401373e-01 2.862848e-02 7.793946e-02 2.097984e-02 -6.725603e-02 4.159703e-02 -3.552702e-01
<VARIANCE> 25
 5.202607e+01 4.335567e+01 4.669090e+01 6.183805e+01 4.824342e+01 5.681008e+01 4.835189e+01 5.088270e+01 3.927105e+01 4.060616e+01 3.416937e+01 3.170880e+01 3.584188e+00 1.974441e+00 2.306053e+00 1.940400e+00 2.329498e+00 2.829392e+00 2.624115e+00 2.771819e+00 2.585790e+00 2.388443e+00 2.206703e+00 1.899835e+00 1.090782e+00
<GCONST> 1.023885e+02
<STATE> 4
<MEAN> 25
 -5.557519e+00 -5.727497e-01 3.554324e+00 1.766489e+00 8.436406e-02 3.171855e-01 2.273892e+00 8.770940e-02 2.316941e+00 -1.905517e+00 8.907093e-01 2.393915e+00 2.651607e+00 -1.011450e+00 2.307279e-01 -5.141341e-01 -1.165925e+00 -1.676173e-01 -1.144070e+00 -5.795460e-01 -2.256120e-01 1.511237e-01 -5.566447e-01 -5.313211e-01 6.867176e-01
<VARIANCE> 25
 6.920232e+01 1.159473e+02 1.292032e+02 5.806071e+01 7.565108e+01 1.225593e+02 5.940710e+01 5.587099e+01 4.488618e+01 4.456281e+01 4.312015e+01 3.327333e+01 7.990099e+00 7.483039e+00 8.230836e+00 5.126581e+00 5.829691e+00 6.607590e+00 5.738250e+00 5.419585e+00 5.129584e+00 5.078550e+00 4.218000e+00 3.612215e+00 3.371628e+00
<GCONST> 1.180926e+02
<TRANSP> 5
 0.000000e+00 1.000000e+00 0.000000e+00 0.000000e+00 0.000000e+00
 0.000000e+00 7.022350e-01 2.977650e-01 0.000000e+00 0.000000e+00
 0.000000e+00 0.000000e+00 7.612621e-01 2.387379e-01 0.000000e+00
 0.000000e+00 0.000000e+00 0.000000e+00 6.447159e-01 3.552841e-01
 0.000000e+00 0.000000e+00 0.000000e+00 0.000000e+00 0.000000e+00
<ENDHMM>
~h "t"
<BEGINHMM>
<NUMSTATES> 5
<STATE> 2
<MEAN> 25
 -2.912890e+00 3.354791e+00 -7.887733e-01 3.432039e+00 1.280522e+00 9.358730e-01 1.439184e+00 -1.097913e-01 1.575567e+00 -2.848819e-01 1.212214e+00 1.935079e+00 -1.135112e+00 -3.640404e-01 -4.832191e-01 -3.619744e-01 2.243651e-01 1.310141e-01 4.029863e-01 1.247387e-01 6.732566e-01 -1.346627e-01 3.987113e-01 3.330619e-01 -2.189859e-01
<VARIANCE> 25
 3.664499e+01 2.628921e+01 3.424495e+01 3.350876e+01 3.796181e+01 4.967150e+01 3.540465e+01 3.686129e+01 4.249742e+01 3.098133e+01 3.562350e+01 2.541585e+01 2.790740e+00 3.689289e+00 3.026235e+00 3.637331e+00 4.002951e+00 5.649139e+00 3.848907e+00 3.813108e+00 4.110504e+00 3.233645e+00 3.394691e+00 2.475689e+00 6.751975e+00
<GCONST> 1.057307e+02
<STATE> 3
<MEAN> 25
 -4.564610e+00 -5.705754e-01 -1.684146e+00 3.725820e-01 1.503357e+00 -1.130392e+00 2.140421e+00 3.430278e-01 2.982890e+00 -3.616542e-01 1.333595e+00 2.262128e+00 7.720336e-01 -1.657409e+00 1.305216e-01 -1.656052e+00 -6.079762e-01 -1.523522e+00 -7.442546e-01 -2.533717e-02 5.982611e-01 -1.672655e-04 -1.776659e-01 -6.059316e-01 3.272805e+00
<VARIANCE> 25
 3.287776e+01 4.013600e+01 3.561353e+01 4.002144e+01 4.720546e+01 6.715555e+01 4.003615e+01 4.273606e+01 4.026922e+01 3.678443e+01 3.758902e+01 2.897764e+01 5.417543e+00 5.126698e+00 5.351449e+00 5.667788e+00 6.519310e+00 8.410360e+00 6.702452e+00 6.679737e+00 6.664077e+00 5.548304e+00 5.798602e+00 4.607524e+00 6.641110e+00
<GCONST> 1.135252e+02
<STATE> 4
<MEAN> 25
 -4.587899e-01 -2.160501e+00 -1.045010e+00 -2.413345e+00 -2.359597e-01 -4.103405e+00 -1.627283e+00 -6.105784e-02 3.357716e+00 -8.977000e-02 -3.261545e-02 -5.648715e-02 1.912227e+00 -5.094054e-01 2.413374e-01 -1.037289e+00 -7.939024e-01 -5.937987e-01 -1.542781e+00 -3.070090e-01 -3.034618e-01 4.628237e-01 -2.249132e-01 -1.030575e+00 1.834001e+00
<VARIANCE> 25
 3.624298e+01 4.008238e+01 4.552718e+01 4.472847e+01 5.095037e+01 6.846061e+01 6.110430e+01 5.500612e+01 4.968241e+01 4.768026e+01 4.051766e+01 3.657221e+01 4.481772e+00 4.990040e+00 5.988445e+00 5.679164e+00 6.241323e+00 7.843368e+00 7.312683e+00 7.182443e+00 7.296547e+00 6.044764e+00 6.173523e+00 4.528351e+00 4.060959e+00
<GCONST> 1.152002e+02
<TRANSP> 5
 0.000000e+00 1.000000e+00 0.000000e+00 0.000000e+00 0.000000e+00
 0.000000e+00 5.925875e-01 4.074126e-01 0.000000e+00 0.000000e+00
 0.000000e+00 0.000000e+00 3.775280e-01 6.224720e-01 0.000000e+00
 0.000000e+00 0.000000e+00 0.000000e+00 2.568733e-01 7.431267e-01
 0.000000e+00 0.000000e+00 0.000000e+00 0.000000e+00 0.000000e+00
<ENDHMM>
~h "u"
<BEGINHMM>
<NUMSTATES> 5
<STATE> 2
<MEAN> 25
 5.996724e+00 2.703412e+00 -2.084672e+00 -4.720810e+00 -1.191427e+00 -3.658508e-01 -6.799699e+00 -4.870360e+00 -2.432904e+00 8.425631e-01 2.503285e+00 -4.704401e-01 9.709444e-01 4.455908e-01 -4.102918e-01 -1.186155e+00 -3.243635e-01 7.796143e-01 -7.965130e-01 -9.644161e-01 -8.198401e-01 3.617098e-01 8.550222e-01 8.255557e-02 2.672086e-01
<VARIANCE> 25
 2.420182e+01 3.666118e+01 3.959202e+01 6.876783e+01 5.338495e+01 6.280164e+01 6.615152e+01 5.733669e+01 5.650850e+01 5.834375e+01 4.729568e+01 3.821449e+01 2.415910e+00 2.950859e+00 3.268851e+00 4.979092e+00 5.012437e+00 5.336956e+00 5.243385e+00 5.186022e+00 5.402806e+00 4.895282e+00 3.841785e+00 3.316254e+00 1.843466e+00
<GCONST> 1.103782e+02
<STATE> 3
<MEAN> 25
 7.007152e+00 2.756371e+00 -3.201199e+00 -7.029347e+00 -1.588349e+00 2.222186e+00 -7.826943e+00 -6.853377e+00 -3.402712e+00 1.744081e+00 4.295620e+00 -1.588648e-01 -4.039833e-02 1.748500e-01 1.926870e-02 4.954048e-01 9.343425e-02 1.846179e-01 3.345743e-01 1.257790e-03 1.533510e-01 -5.129136e-02 -2.741887e-01 2.675322e-02 -4.290263e-01
<VARIANCE> 25
 1.952512e+01 3.208872e+01 3.925733e+01 6.824622e+01 5.185155e+01 6.114076e+01 5.689296e+01 5.943761e+01 6.314248e+01 6.562536e+01 5.288978e+01 3.931917e+01 7.204508e-01 2.272969e+00 1.942003e+00 4.137165e+00 3.210623e+00 3.570428e+00 4.215168e+00 3.698981e+00 4.575283e+00 4.185962e+00 3.512258e+00 3.257777e+00 1.452883e+00
<GCONST> 1.059634e+02
<STATE> 4
<MEAN> 25
 5.315958e+00 5.234258e+00 -1.960517e+00 -3.615041e+00 -1.314788e+00 1.249658e+00 -3.812928e+00 -4.678346e+00 -3.337277e+00 -3.073795e-01 2.114117e+00 1.036732e+00 -5.642295e-01 1.448885e-03 2.776360e-01 8.328084e-01 3.780490e-01 -3.834104e-02 5.348865e-01 4.307239e-01 3.521566e-01 -1.303739e-01 -4.051268e-01 2.431557e-02 -5.285890e-01
<VARIANCE> 25
 2.355398e+01 3.444911e+01 3.172778e+01 6.270960e+01 4.346442e+01 4.673742e+01 4.296899e+01 3.999291e+01 4.902679e+01 5.364828e+01 3.999631e+01 3.695863e+01 7.348960e-01 1.289185e+00 1.421982e+00 2.173558e+00 2.119781e+00 2.393564e+00 2.416436e+00 2.450021e+00 2.587913e+00 2.585112e+00 2.344506e+00 1.972006e+00 6.946356e-01
<GCONST> 9.802476e+01
<TRANSP> 5
 0.000000e+00 1.000000e+00 0.000000e+00 0.000000e+00 0.000000e+00
 0.000000e+00 4.649905e-01 5.350094e-01 0.000000e+00 0.000000e+00
 0.000000e+00 0.000000e+00 5.352051e-01 4.647949e-01 0.000000e+00
 0.000000e+00 0.000000e+00 0.000000e+00 7.372969e-01 2.627031e-01
 0.000000e+00 0.000000e+00 0.000000e+00 0.000000e+00 0.000000e+00
<ENDHMM>
~h "v"
<BEGINHMM>
<NUMSTATES> 5
<STATE> 2
<MEAN> 25
 -2.941767e+00 -4.523813e-01 5.441236e-01 4.804431e+00 3.464622e+00 1.796763e+00 4.624103e-01 1.527476e+00 5.800156e-01 -1.385988e+00 -3.803331e-01 6.849980e-02 -6.487513e-01 -1.041301e-01 -4.333983e-02 4.181246e-02 1.509141e-01 4.898707e-01 1.790646e-01 -8.434657e-03 1.421595e-02 -2.077583e-01 -2.086493e-01 1.347151e-02 -2.928264e-01
<VARIANCE> 25
 2.526188e+01 2.078951e+01 1.622364e+01 2.517208e+01 2.106056e+01 3.198788e+01 2.251912e+01 3.876949e+01 3.277538e+01 2.600542e+01 2.597411e+01 1.538564e+01 1.625316e+00 1.286871e+00 7.388870e-01 1.466235e+00 1.664058e+00 2.498343e+00 2.383574e+00 2.452774e+00 2.577983e+00 2.396902e+00 2.067458e+00 1.951676e+00 3.882412e-01
<GCONST> 9.052492e+01
<STATE> 3
<MEAN> 25
 -2.122241e+00 -6.377767e+00 8.604186e-01 3.451282e+00 -6.013775e-02 6.926871e+00 7.221738e-01 -1.634641e+00 1.935956e+00 -3.109068e+00 1.294676e+00 2.329543e+00 4.163947e-01 -3.330189e-01 -4.854927e-01 -6.671620e-01 -8.253682e-01 -7.374399e-01 -2.107964e-01 -1.881260e-02 1.616002e-01 -1.567186e-01 -1.284404e-01 -8.202501e-02 3.921337e-01
<VARIANCE> 25
 2.739559e+01 7.468957e+01 1.764644e+01 3.654195e+01 4.194809e+01 9.689677e+01 2.778079e+01 2.479732e+01 2.352370e+01 2.224260e+01 1.362287e+01 2.047474e+01 3.558101e+00 5.166366e+00 1.388199e+00 3.466552e+00 4.155560e+00 4.693242e+00 2.929167e+00 3.798128e+00 4.034246e+00 1.953029e+00 1.756764e+00 1.689300e+00 7.997094e-01
<GCONST> 9.956663e+01
<STATE> 4
<MEAN> 25
 3.110558e+00 -3.429257e+00 -3.718473e-01 4.737968e+00 3.017297e+00 1.114987e+00 -3.237432e+00 -2.329091e+00 -1.215677e+00 -3.739881e+00 8.607126e-01 1.961346e+00 1.722759e+00 -1.193245e-01 -2.504620e-01 -7.823080e-01 -6.498909e-01 -1.035441e+00 -5.895547e-01 -2.782547e-01 -2.683949e-01 3.112674e-01 2.441467e-01 -1.419780e-01 1.050816e+00
<VARIANCE> 25
 8.036536e+01 3.596436e+01 9.535519e+01 7.173053e+01 4.259017e+01 8.895602e+01 5.710143e+01 4.319048e+01 7.516352e+01 5.158928e+01 1.684656e+01 2.461344e+01 6.597997e+00 4.438113e+00 7.384497e+00 6.067870e+00 6.398443e+00 1.163731e+01 5.143371e+00 5.645911e+00 9.156094e+00 4.027011e+00 2.759668e+00 3.681729e+00 1.944418e+00
<GCONST> 1.145364e+02
<TRANSP> 5
 0.000000e+00 1.000000e+00 0.000000e+00 0.000000e+00 0.000000e+00
 0.000000e+00 7.336977e-01 2.663023e-01 0.000000e+00 0.000000e+00
 0.000000e+00 0.000000e+00 5.247458e-01 4.752543e-01 0.000000e+00
 0.000000e+00 0.000000e+00 0.000000e+00 6.551320e-01 3.448680e-01
 0.000000e+00 0.000000e+00 0.000000e+00 0.000000e+00 0.000000e+00
<ENDHMM>
~h "w"
<BEGINHMM>
<NUMSTATES> 5
<STATE> 2
<MEAN> 25
 2.767691e+00 4.136436e+00 -3.449403e+00 -4.922986e+00 -8.368063e-01 2.740043e+00 6.215513e-03 -9.532081e-01 -1.950438e+00 1.126924e+00 2.261005e+00 1.206986e+00 1.528159e+00 8.907547e-01 -3.176200e-01 -1.542740e+00 -9.683355e-01 -1.926947e-01 -4.570897e-01 -4.233020e-01 -7.021529e-01 -1.409076e-01 3.556885e-01 1.363701e-01 7.977424e-01
<VARIANCE> 25
 9.329112e+01 5.004611e+01 3.383221e+01 6.875921e+01 4.814629e+01 5.039307e+01 4.139828e+01 3.864566e+01 3.363145e+01 3.570374e+01 3.010259e+01 2.822518e+01 4.817638e+00 2.830924e+00 2.144621e+00 4.477790e+00 3.748595e+00 4.097912e+00 3.309067e+00 3.023250e+00 2.778283e+00 2.708539e+00 2.905228e+00 2.909379e+00 3.603612e+00
<GCONST> 1.064994e+02
<STATE> 3
<MEAN> 25
 1.017972e+01 6.261110e+00 -5.518905e+00 -1.147550e+01 -5.069668e+00 1.943361e+00 -2.621745e+00 -2.780427e+00 -3.706725e+00 3.356599e-01 3.556148e+00 4.927257e-01 8.049480e-01 -1.273228e+00 -1.052953e+00 -1.400126e+00 8.633394e-02 8.206811e-01 -5.056431e-01 -3.816478e-01 3.415982e-01 6.483313e-01 7.263430e-01 -6.719318e-01 1.519405e+00
<VARIANCE> 25
 2.700670e+01 5.359992e+01 3.733746e+01 5.536017e+01 4.208168e+01 9.133138e+01 4.104140e+01 4.216555e+01 3.660387e+01 4.134636e+01 4.550751e+01 3.831237e+01 3.554144e+00 4.333630e+00 2.976474e+00 4.557692e+00 4.872586e+00 5.938146e+00 4.186893e+00 4.073257e+00 3.506315e+00 4.608337e+00 4.150740e+00 4.223660e+00 2.863967e+00
<GCONST> 1.095966e+02
<STATE> 4
<MEAN> 25
 8.831654e+00 -2.473220e+00 -7.861872e+00 -1.240296e+01 -9.094849e-01 5.994301e+00 -4.663228e+00 -2.939233e+00 8.757635e-01 2.668489e+00 3.700858e+00 -3.694564e+00 -3.823371e-01 -8.875338e-01 1.587852e-01 7.911264e-01 5.871849e-01 -4.606446e-01 2.671774e-02 3.979305e-01 7.960620e-01 -7.259417e-03 -8.432710e-01 -6.068892e-01 2.993811e-01
<VARIANCE> 25
 2.026546e+01 4.064681e+01 2.681080e+01 7.001997e+01 5.099167e+01 1.042175e+02 5.064029e+01 4.707790e+01 4.908320e+01 7.328836e+01 6.112851e+01 5.260573e+01 5.449279e-01 2.594914e+00 1.457524e+00 2.643602e+00 2.370726e+00 3.368426e+00 2.711294e+00 2.969331e+00 3.147749e+00 3.041545e+00 3.058442e+00 3.514606e+00 1.162449e+00
<GCONST> 1.034599e+02
<TRANSP> 5
 0.000000e+00 1.000000e+00 0.000000e+00 0.000000e+00 0.000000e+00
 0.000000e+00 5.492303e-01 4.507697e-01 0.000000e+00 0.000000e+00
 0.000000e+00 0.000000e+00 6.337250e-01 3.662750e-01 0.000000e+00
 0.000000e+00 0.000000e+00 0.000000e+00 7.890552e-01 2.109448e-01
 0.000000e+00 0.000000e+00 0.000000e+00 0.000000e+00 0.000000e+00
<ENDHMM>
~h "y"
<BEGINHMM>
<NUMSTATES> 5
<STATE> 2
<MEAN> 25
 6.325334e-01 -4.740684e-01 1.024804e+01 -3.857770e+00 -8.002308e+00 -3.727102e+00 -1.237438e+00 -1.699003e+00 -3.112211e+00 1.788929e+00 1.054941e+00 1.083698e-01 1.583712e-01 -4.697316e-01 1.021576e+00 -6.382605e-01 -1.329869e+00 -5.624570e-01 1.909059e-01 2.655255e-01 -3.933131e-01 2.766341e-01 4.638307e-01 3.101397e-02 9.697666e-01
<VARIANCE> 25
 3.045193e+01 5.238946e+01 7.271790e+01 9.486985e+01 7.493830e+01 6.360554e+01 6.080164e+01 6.946337e+01 6.320659e+01 6.083390e+01 5.489544e+01 3.855526e+01 2.584007e+00 3.814226e+00 6.753995e+00 5.891969e+00 5.542053e+00 4.813739e+00 5.438476e+00 5.864663e+00 4.895851e+00 4.863721e+00 4.049222e+00 3.048890e+00 3.130902e+00
<GCONST> 1.144336e+02
<STATE> 3
<MEAN> 25
 1.686268e+00 -5.080333e+00 8.986545e+00 -4.763280e+00 -1.115355e+01 -7.115839e+00 1.252271e+00 4.000036e+00 -2.641522e+00 1.400962e+00 2.837327e+00 -3.049312e-01 2.134204e-01 -6.616555e-01 -1.210345e+00 2.261162e-01 8.491324e-01 3.885819e-02 4.483785e-01 1.015893e+00 5.109811e-01 -5.197148e-01 -7.262468e-01 -2.150611e-01 1.384179e-01
<VARIANCE> 25
 1.938251e+01 2.879872e+01 4.408131e+01 4.343044e+01 4.322549e+01 4.417253e+01 5.330920e+01 6.846548e+01 4.751504e+01 4.633598e+01 4.673688e+01 2.737679e+01 3.513499e-01 1.441044e+00 2.454139e+00 1.657932e+00 2.701814e+00 2.059513e+00 2.480298e+00 3.026619e+00 2.994310e+00 2.580569e+00 2.782327e+00 1.953935e+00 4.958492e-01
<GCONST> 9.792832e+01
<STATE> 4
<MEAN> 25
 2.103821e+00 -5.028565e+00 9.122833e-01 -1.710967e+00 -3.353277e+00 -3.741246e+00 2.702902e+00 4.115894e+00 -2.688575e-01 -1.119133e+00 -1.339208e+00 -7.060677e-02 3.841612e-02 2.721113e-02 -5.217637e-01 1.276916e-01 7.235602e-01 3.493810e-01 -1.201045e-01 -1.129090e-01 1.273684e-01 -6.068401e-02 -3.526229e-01 -1.218510e-01 -2.463884e-01
<VARIANCE> 25
 3.149709e+01 4.099976e+01 3.013806e+01 4.069429e+01 4.147319e+01 4.070192e+01 5.003060e+01 6.426079e+01 4.185571e+01 4.396433e+01 4.684561e+01 3.136158e+01 2.865746e-01 6.469209e-01 1.213144e+00 1.088440e+00 1.926109e+00 1.441460e+00 1.664337e+00 1.807304e+00 1.727371e+00 1.812507e+00 1.804303e+00 1.471416e+00 2.657567e-01
<GCONST> 9.204685e+01
<TRANSP> 5
 0.000000e+00 1.000000e+00 0.000000e+00 0.000000e+00 0.000000e+00
 0.000000e+00 7.261584e-01 2.738415e-01 0.000000e+00 0.000000e+00
 0.000000e+00 0.000000e+00 7.271905e-01 2.728095e-01 0.000000e+00
 0.000000e+00 0.000000e+00 0.000000e+00 7.503561e-01 2.496439e-01
 0.000000e+00 0.000000e+00 0.000000e+00 0.000000e+00 0.000000e+00
<ENDHMM>
~h "z"
<BEGINHMM>
<NUMSTATES> 5
<STATE> 2
<MEAN> 25
 -5.500560e+00 4.153152e+00 9.632624e+00 6.878974e+00 -2.866672e+00 7.519958e+00 -2.434696e+00 -8.222547e+00 -2.467303e+00 -5.651360e-01 6.370695e-01 1.758585e+00 -1.231312e-01 -4.559082e-01 4.123891e-01 4.789819e-01 3.147127e-02 1.860324e-01 -9.336863e-02 -3.503089e-01 3.647259e-01 -6.014989e-02 2.602211e-01 -5.954506e-02 3.760715e-01
<VARIANCE> 25
 5.652780e+01 1.872341e+02 1.134446e+02 1.960949e+02 1.184909e+02 1.780137e+02 6.151236e+01 8.931854e+01 1.018452e+02 8.828387e+01 5.469121e+01 6.436333e+01 4.339663e+00 5.497636e+00 7.674060e+00 1.022440e+01 6.993526e+00 1.035194e+01 5.729631e+00 5.813011e+00 8.456157e+00 6.758660e+00 4.799772e+00 4.250668e+00 3.184759e+00
<GCONST> 1.246047e+02
<STATE> 3
<MEAN> 25
 1.912151e+00 -7.657033e+00 1.258896e+01 9.765880e+00 1.957295e+00 8.105364e+00 -8.033949e+00 -1.066534e+01 2.197531e-01 -5.419179e+00 1.150904e+00 1.256275e+00 2.908855e-01 -3.275084e-02 -5.297095e-01 -3.927479e-01 -3.755364e-01 -2.717689e-01 7.121690e-02 2.887250e-01 2.750177e-01 -1.633567e-01 1.992322e-01 3.238981e-01 2.715525e-01
<VARIANCE> 25
 2.445039e+01 4.321027e+01 1.346820e+02 7.336153e+01 6.380099e+01 1.264678e+02 5.526538e+01 5.566002e+01 5.441093e+01 6.355788e+01 5.922986e+01 5.890562e+01 2.032803e+00 2.181141e+00 9.729941e+00 3.237795e+00 2.626684e+00 8.782425e+00 3.343971e+00 4.562086e+00 4.106193e+00 5.317448e+00 3.792808e+00 2.994923e+00 1.627870e+00
<GCONST> 1.122446e+02
<STATE> 4
<MEAN> 25
 6.583610e+00 -3.579269e+00 -3.437182e+00 1.129661e+00 -2.749848e+00 -2.517347e-01 -4.007502e+00 -4.136669e+00 1.643063e+00 -6.858308e+00 1.848251e+00 3.381587e+00 1.329705e-01 1.595638e-01 -6.309972e-01 -4.998603e-01 -1.214495e-01 -1.689994e-01 4.457763e-01 5.553060e-01 2.081163e-01 1.425578e-01 -2.566193e-01 -2.356755e-01 -2.486058e-01
<VARIANCE> 25
 2.917028e+01 8.328014e+01 5.110550e+01 6.585818e+01 8.873477e+01 5.886791e+01 3.643909e+01 3.783502e+01 3.948475e+01 1.003119e+02 1.465801e+02 3.148116e+01 3.647082e-01 1.069700e+00 2.224689e+00 1.853782e+00 2.068128e+00 1.934901e+00 1.975661e+00 2.217574e+00 2.171789e+00 3.654665e+00 1.807891e+00 1.238123e+00 5.787858e-01
<GCONST> 1.000447e+02
<TRANSP> 5
 0.000000e+00 1.000000e+00 0.000000e+00 0.000000e+00 0.000000e+00
 0.000000e+00 8.721588e-01 1.278412e-01 0.000000e+00 0.000000e+00
 0.000000e+00 0.000000e+00 8.940498e-01 1.059502e-01 0.000000e+00
 0.000000e+00 0.000000e+00 0.000000e+00 8.123506e-01 1.876495e-01
 0.000000e+00 0.000000e+00 0.000000e+00 0.000000e+00 0.000000e+00
<ENDHMM>
~h "aw"
<BEGINHMM>
<NUMSTATES> 5
<STATE> 2
<MEAN> 25
 4.449786e+00 4.307823e+00 -2.407688e+00 -8.361968e-01 -6.145004e+00 -1.413172e+01 2.706324e+00 8.472466e+00 5.605593e+00 2.964278e+00 -4.977275e+00 -4.552220e+00 -7.674436e-01 1.097433e-01 8.796041e-01 -1.183629e+00 -1.101234e+00 -1.721915e-01 5.663559e-01 -2.523764e-01 -4.103667e-01 1.453853e+00 -4.324124e-01 -7.866207e-02 4.726834e-01
<VARIANCE> 25
 3.928760e+01 5.084499e+01 3.368716e+01 6.818983e+01 6.812381e+01 1.250450e+02 4.368083e+01 1.220912e+02 3.736114e+01 5.210204e+01 3.140264e+01 4.234027e+01 1.762133e+00 1.098752e+00 4.806100e+00 2.489963e+00 6.623844e+00 7.198567e+00 4.832847e+00 2.552692e+00 5.174402e+00 4.838387e+00 2.459454e+00 2.081540e+00 2.471159e+00
<GCONST> 1.089622e+02
<STATE> 3
<MEAN> 25
 -3.978881e+00 5.483357e-01 9.310083e+00 -7.464121e+00 -1.210445e+01 3.036492e+00 4.647058e+00 -3.360714e+00 -7.017851e-01 1.092457e+01 -4.093377e+00 -3.530693e+00 1.254747e-01 1.376739e-01 8.126511e-02 3.478800e-02 9.730405e-02 6.518754e-01 -4.769261e-01 -2.036213e-01 -1.109792e-01 -4.521068e-01 1.929491e-01 -1.772467e-01 -3.952861e-01
<VARIANCE> 25
 3.165262e+01 1.987401e+01 5.543834e+01 4.275898e+01 5.727277e+01 3.327970e+01 5.158236e+01 4.601616e+01 3.835841e+01 3.525972e+01 3.032667e+01 2.851089e+01 2.472045e+00 1.672430e+00 2.744013e+00 3.423688e+00 5.083134e+00 2.904542e+00 2.798182e+00 4.722309e+00 4.267274e+00 2.774738e+00 2.794978e+00 2.206759e+00 1.894753e+00
<GCONST> 1.033219e+02
<STATE> 4
<MEAN> 25
 2.215940e+00 -4.566025e-01 -2.209718e+00 -1.029234e+01 -5.849260e+00 1.076855e+01 -1.917110e-01 -3.339393e+00 9.595223e-02 3.711897e-01 1.091153e+00 2.216056e+00 8.925808e-02 3.794315e-01 -3.451816e-01 7.601205e-01 2.904426e-01 9.400350e-02 2.216339e-01 -3.988221e-01 -3.961696e-01 -6.369064e-01 8.228209e-02 6.098363e-01 -5.320059e-01
<VARIANCE> 25
 4.850936e+01 7.697129e+01 4.559924e+01 8.070981e+01 3.499261e+01 8.320606e+01 9.082714e+01 3.969582e+01 5.376126e+01 3.705796e+01 4.639280e+01 3.982158e+01 6.059826e-01 3.860513e+00 8.529650e-01 3.307859e+00 3.160147e+00 4.459561e+00 3.202967e+00 2.370598e+00 4.317113e+00 3.686331e+00 3.245421e+00 2.602329e+00 1.502848e+00
<GCONST> 1.055364e+02
<TRANSP> 5
 0.000000e+00 1.000000e+00 0.000000e+00 0.000000e+00 0.000000e+00
 0.000000e+00 8.392627e-01 1.607372e-01 0.000000e+00 0.000000e+00
 0.000000e+00 0.000000e+00 8.602416e-01 1.397584e-01 0.000000e+00
 0.000000e+00 0.000000e+00 0.000000e+00 8.051169e-01 1.948831e-01
 0.000000e+00 0.000000e+00 0.000000e+00 0.000000e+00 0.000000e+00
<ENDHMM>
~h "ay"
<BEGINHMM>
<NUMSTATES> 5
<STATE> 2
<MEAN> 25
 1.663427e+00 -1.051206e+01 2.333801e+00 -4.875500e+00 -5.440469e+00 -6.904188e+00 5.574510e-01 1.014534e+01 3.808271e+00 -2.938574e+00 -7.000971e-01 -3.564758e+00 -2.699538e-01 5.849555e-03 1.421224e+00 5.989776e-02 -1.313644e+00 -8.723257e-01 2.353170e-01 5.838531e-01 -1.072777e+00 -2.379966e-01 1.158005e+00 7.480735e-01 1.941903e-02
<VARIANCE> 25
 1.381739e+01 2.632709e+01 4.327361e+01 2.630153e+01 4.533863e+01 4.191990e+01 4.704061e+01 4.334393e+01 5.374575e+01 5.012866e+01 5.415021e+01 2.708261e+01 2.944609e-01 1.612129e+00 1.673008e+00 1.275174e+00 2.059153e+00 2.354527e+00 2.265306e+00 3.656852e+00 2.354907e+00 2.484101e+00 3.331683e+00 1.892329e+00 4.229748e-01
<GCONST> 9.569308e+01
<STATE> 3
<MEAN> 25
 5.195127e-01 -3.856333e+00 1.084770e+01 -3.809747e+00 -1.149475e+01 -7.915952e+00 -2.221200e+00 4.913400e+00 -3.918773e+00 -1.768709e+00 6.378205e+00 8.672939e-02 1.852611e-01 9.271803e-01 -2.968997e-01 4.804950e-01 6.191044e-01 7.521484e-01 -2.115883e-01 -1.092244e+00 -4.259342e-01 4.157419e-01 -3.901916e-01 7.197562e-02 -8.374903e-01
<VARIANCE> 25
 1.329282e+01 2.627521e+01 4.033140e+01 2.930117e+01 4.132684e+01 4.594265e+01 5.773312e+01 5.246127e+01 4.582086e+01 5.352935e+01 5.211553e+01 1.970067e+01 5.833511e-01 1.358443e+00 3.291140e+00 1.630779e+00 2.947237e+00 2.262642e+00 2.717785e+00 4.040279e+00 4.730674e+00 2.818087e+00 2.734600e+00 2.085983e+00 6.702635e-01
<GCONST> 9.885390e+01
<STATE> 4
<MEAN> 25
 6.987195e-01 1.374988e+00 3.809603e+00 2.429457e+00 -2.738116e+00 -2.172095e+00 1.451541e+00 3.468983e-01 -3.424089e+00 4.317020e-01 -9.856840e-01 3.143732e+00 -1.335218e-01 5.000746e-01 -5.972248e-01 3.090996e-01 7.119544e-01 5.427678e-01 1.926061e-01 -4.954190e-01 1.080173e-01 9.130806e-02 -3.561175e-01 1.220574e-01 -7.088109e-01
<VARIANCE> 25
 1.081670e+01 3.240789e+01 3.799476e+01 2.890173e+01 3.105156e+01 3.957723e+01 2.978630e+01 6.019615e+01 4.408132e+01 2.794746e+01 4.646643e+01 3.409539e+01 4.179713e-01 1.176776e+00 1.518264e+00 1.303939e+00 2.170641e+00 1.793847e+00 2.177773e+00 2.433562e+00 2.391913e+00 1.827959e+00 1.664379e+00 1.584236e+00 5.444710e-01
<GCONST> 9.273495e+01
<TRANSP> 5
 0.000000e+00 1.000000e+00 0.000000e+00 0.000000e+00 0.000000e+00
 0.000000e+00 7.550033e-01 2.449967e-01 0.000000e+00 0.000000e+00
 0.000000e+00 0.000000e+00 7.931823e-01 2.068177e-01 0.000000e+00
 0.000000e+00 0.000000e+00 0.000000e+00 7.371920e-01 2.628081e-01
 0.000000e+00 0.000000e+00 0.000000e+00 0.000000e+00 0.000000e+00
<ENDHMM>
~h "eu"
<BEGINHMM>
<NUMSTATES> 5
<STATE> 2
<MEAN> 25
 2.721788e+00 -1.248266e+00 -3.710183e-01 -3.622866e-01 -1.543673e+00 -3.322780e+00 -2.165118e+00 -1.239848e-01 1.590881e+00 1.265759e+00 -2.173100e-02 -1.073251e+00 1.198355e+00 -6.828775e-01 1.090513e-01 -4.792517e-01 -6.670177e-01 -6.424140e-01 -3.577967e-01 3.380404e-01 -2.522985e-03 1.729151e-01 -2.543591e-01 -4.605958e-01 1.082016e+00
<VARIANCE> 25
 4.193392e+01 5.067470e+01 4.933115e+01 5.204948e+01 6.530424e+01 7.246369e+01 6.261050e+01 6.301965e+01 6.149577e+01 5.209677e+01 4.606963e+01 3.614666e+01 4.499659e+00 5.302800e+00 4.634206e+00 5.467476e+00 5.939882e+00 6.760434e+00 5.984738e+00 6.651206e+00 6.321257e+00 5.424323e+00 4.673452e+00 3.782906e+00 4.723069e+00
<GCONST> 1.154325e+02
<STATE> 3
<MEAN> 25
 4.441762e+00 -2.728630e+00 -3.740541e-01 -1.259866e+00 -2.500036e+00 -4.498605e+00 -2.947530e+00 1.810783e-01 1.824731e+00 1.551050e+00 -3.377560e-01 -1.582657e+00 5.045902e-01 -9.679750e-02 9.276189e-02 1.674262e-01 -1.727556e-01 2.425214e-01 8.641858e-02 1.138161e-02 -1.644227e-01 -5.050737e-02 -2.094454e-01 -1.211773e-01 2.549171e-02
<VARIANCE> 25
 2.741997e+01 4.474921e+01 4.753017e+01 5.018454e+01 5.792529e+01 6.142760e+01 5.841819e+01 6.679325e+01 5.983480e+01 5.508519e+01 4.822661e+01 3.577206e+01 2.134388e+00 3.383562e+00 3.022393e+00 4.013095e+00 4.110916e+00 4.478273e+00 4.453997e+00 5.137395e+00 4.636764e+00 4.231190e+00 3.789009e+00 2.991867e+00 2.561799e+00
<GCONST> 1.096973e+02
<STATE> 4
<MEAN> 25
 4.316495e+00 -2.370062e+00 4.005027e-01 -6.263815e-01 -2.777996e+00 -4.674729e+00 -1.824188e+00 1.152189e+00 7.963572e-01 1.053652e+00 -5.209570e-01 -1.546455e+00 -1.301665e-01 5.092538e-01 7.713651e-02 4.912914e-01 2.726521e-01 5.899823e-01 3.054974e-01 -2.898987e-01 -2.297336e-01 -1.702375e-01 -6.295285e-02 1.360086e-01 -6.491653e-01
<VARIANCE> 25
 2.679668e+01 4.880503e+01 4.965760e+01 5.106189e+01 5.573142e+01 5.961320e+01 5.725398e+01 6.883247e+01 6.245127e+01 5.549652e+01 4.665041e+01 3.502110e+01 1.047024e+00 2.034442e+00 1.886949e+00 2.502072e+00 2.661185e+00 2.861511e+00 2.964330e+00 3.162573e+00 3.123554e+00 2.859903e+00 2.632846e+00 2.098582e+00 1.492231e+00
<GCONST> 1.037739e+02
<TRANSP> 5
 0.000000e+00 1.000000e+00 0.000000e+00 0.000000e+00 0.000000e+00
 0.000000e+00 2.985061e-01 7.014939e-01 0.000000e+00 0.000000e+00
 0.000000e+00 0.000000e+00 1.279544e-01 8.720455e-01 0.000000e+00
 0.000000e+00 0.000000e+00 0.000000e+00 5.380623e-01 4.619378e-01
 0.000000e+00 0.000000e+00 0.000000e+00 0.000000e+00 0.000000e+00
<ENDHMM>
~h "kh"
<BEGINHMM>
<NUMSTATES> 5
<STATE> 2
<MEAN> 25
 -1.067752e+01 -9.104778e+00 -1.375690e+00 6.139445e+00 1.026512e+01 1.240713e-01 -4.554037e-01 4.622130e+00 8.991032e-01 4.767456e+00 7.356501e-02 -8.167648e-02 4.888147e-01 -8.124465e-01 -3.425476e-02 -2.171851e-01 3.574940e-01 2.915045e-02 -1.163245e-01 -2.429032e-02 -1.775672e-01 3.597590e-02 1.826691e-01 -1.909231e-01 7.694905e-01
<VARIANCE> 25
 9.773054e+01 5.173627e+01 4.036820e+01 9.515096e+01 6.278726e+01 4.297476e+01 8.021678e+01 4.136467e+01 4.075325e+01 4.628411e+01 3.558617e+01 3.277048e+01 6.511090e+00 3.940797e+00 1.778980e+00 3.634057e+00 6.328154e+00 3.379248e+00 4.302015e+00 3.652667e+00 4.844826e+00 4.098966e+00 3.905691e+00 3.555406e+00 7.859212e+00
<GCONST> 1.119499e+02
<STATE> 3
<MEAN> 25
 1.505624e+00 -6.952246e+00 -9.787732e-01 1.847613e+00 3.071594e+00 8.167621e-02 3.174036e+00 2.660984e+00 -1.210082e+00 -1.301664e+00 -2.283898e-01 1.987358e-01 2.235259e-01 3.223542e-01 2.988692e-01 -7.713719e-02 -6.264549e-01 5.359873e-01 2.965738e-01 -7.393731e-01 -3.547916e-01 -3.578536e-01 1.231353e-01 -2.470604e-01 -4.460902e-01
<VARIANCE> 25
 9.792537e+00 4.230961e+01 1.922173e+01 1.655839e+01 3.306918e+01 3.769868e+01 3.730043e+01 7.784572e+01 2.380684e+01 2.225896e+01 3.291396e+01 3.390240e+01 2.395087e+00 2.540718e+00 2.261039e+00 2.586273e+00 3.379190e+00 4.462670e+00 2.961822e+00 4.167571e+00 2.646914e+00 2.079517e+00 2.856356e+00 1.456858e+00 3.107075e+00
<GCONST> 9.919203e+01
<STATE> 4
<MEAN> 25
 1.899657e+00 -1.032357e+01 -1.547719e+00 -3.894444e-01 2.593227e+00 5.848513e+00 3.244062e+00 -1.630127e+00 1.714306e+00 -2.727797e+00 3.080435e-01 -1.197492e+00 -6.979027e-02 5.147650e-01 2.591459e-01 -3.364497e-01 -5.228824e-01 1.743481e-01 -2.172417e-01 -3.216191e-01 4.072644e-01 8.675951e-02 1.941488e-01 -1.633123e-01 -9.335258e-02
<VARIANCE> 25
 2.985179e+01 7.042365e+01 2.380014e+01 2.823004e+01 2.418261e+01 4.347332e+01 4.575251e+01 5.418727e+01 6.415392e+01 1.852275e+01 2.822470e+01 2.834119e+01 6.693038e-01 1.383250e+00 1.179865e+00 1.593859e+00 2.387902e+00 2.841095e+00 2.423868e+00 2.203671e+00 2.554895e+00 1.548217e+00 2.884042e+00 1.441038e+00 5.949526e-01
<GCONST> 9.507101e+01
<TRANSP> 5
 0.000000e+00 1.000000e+00 0.000000e+00 0.000000e+00 0.000000e+00
 0.000000e+00 7.968798e-01 2.031202e-01 0.000000e+00 0.000000e+00
 0.000000e+00 0.000000e+00 4.399432e-01 5.600568e-01 0.000000e+00
 0.000000e+00 0.000000e+00 0.000000e+00 6.746073e-01 3.253927e-01
 0.000000e+00 0.000000e+00 0.000000e+00 0.000000e+00 0.000000e+00
<ENDHMM>
~h "ng"
<BEGINHMM>
<NUMSTATES> 5
<STATE> 2
<MEAN> 25
 5.384897e+00 -1.112481e+00 -9.636780e-01 -1.662797e+00 -1.353349e+00 2.268551e+00 -6.436854e-02 -2.984381e+00 -2.299581e+00 8.751816e-01 -1.270729e+00 -2.868645e+00 -6.198437e-03 9.097059e-01 5.869101e-01 7.583540e-01 -4.110270e-01 3.496032e-01 3.969764e-01 -9.975626e-01 -4.686242e-01 3.955110e-02 -2.603611e-01 2.780611e-01 -8.013826e-01
<VARIANCE> 25
 1.582621e+01 3.357270e+01 3.685425e+01 3.393021e+01 4.448137e+01 4.866956e+01 4.323899e+01 4.052765e+01 4.629086e+01 4.391672e+01 3.533428e+01 3.214543e+01 4.677041e-01 1.088330e+00 2.158848e+00 1.970983e+00 2.568549e+00 2.334534e+00 2.623159e+00 2.897644e+00 3.010845e+00 2.598230e+00 2.653989e+00 2.097730e+00 5.160874e-01
<GCONST> 9.685957e+01
<STATE> 3
<MEAN> 25
 4.996935e+00 1.568812e+00 1.271067e+00 -1.579445e-01 -2.694507e+00 2.793442e+00 8.825232e-01 -4.757850e+00 -3.040030e+00 7.639791e-01 -2.142977e+00 -2.005591e+00 -1.266830e-01 6.453478e-01 2.107418e-01 4.186735e-01 9.571262e-02 -3.539642e-02 1.177585e-01 -1.332255e-01 -1.002904e-01 -1.519346e-01 -1.353076e-01 8.083402e-02 -4.968783e-01
<VARIANCE> 25
 1.351099e+01 2.926966e+01 3.125661e+01 3.013942e+01 3.789706e+01 4.391427e+01 3.883774e+01 3.942778e+01 4.391077e+01 3.939222e+01 2.984459e+01 2.643885e+01 3.369999e-01 8.843582e-01 1.177427e+00 1.261459e+00 1.615153e+00 1.551384e+00 1.695669e+00 1.871047e+00 1.866394e+00 1.776817e+00 1.608814e+00 1.404251e+00 4.474391e-01
<GCONST> 9.012038e+01
<STATE> 4
<MEAN> 25
 2.665296e+00 3.979585e+00 1.307886e+00 1.619936e+00 7.144615e-03 1.748032e+00 8.998832e-01 -2.591745e+00 -1.865167e+00 -7.672383e-01 -1.881914e+00 -9.870718e-01 -4.077323e-01 -8.381657e-03 -8.565556e-02 1.513958e-01 4.097927e-01 -1.678061e-01 2.084751e-02 4.108191e-01 2.320938e-01 -4.310726e-02 1.794260e-01 1.096319e-01 -2.211148e-01
<VARIANCE> 25
 2.049941e+01 2.984220e+01 2.930484e+01 3.226519e+01 3.753883e+01 3.552025e+01 3.659361e+01 3.726393e+01 3.971275e+01 3.430413e+01 3.013210e+01 2.656972e+01 6.837085e-01 1.101997e+00 1.389640e+00 1.574623e+00 2.039498e+00 1.991228e+00 2.043275e+00 2.392286e+00 2.312102e+00 2.172871e+00 1.948905e+00 1.700386e+00 6.195230e-01
<GCONST> 9.335240e+01
<TRANSP> 5
 0.000000e+00 1.000000e+00 0.000000e+00 0.000000e+00 0.000000e+00
 0.000000e+00 4.673234e-01 5.326766e-01 0.000000e+00 0.000000e+00
 0.000000e+00 0.000000e+00 5.621263e-01 4.378738e-01 0.000000e+00
 0.000000e+00 0.000000e+00 0.000000e+00 6.431735e-01 3.568264e-01
 0.000000e+00 0.000000e+00 0.000000e+00 0.000000e+00 0.000000e+00
<ENDHMM>
~h "ny"
<BEGINHMM>
<NUMSTATES> 5
<STATE> 2
<MEAN> 25
 2.777726e+00 1.717375e+00 7.792121e+00 -3.397812e+00 -4.475330e+00 -6.599181e-01 -5.139008e-01 -2.537757e+00 -4.487901e+00 8.011916e-01 6.145123e-01 -5.317099e-01 -4.550542e-01 -1.204869e+00 1.168526e+00 -1.146772e+00 -1.208376e+00 -8.983731e-03 6.312695e-01 9.718148e-01 -5.923236e-01 -1.506875e-02 3.692562e-01 -2.166827e-01 1.040135e+00
<VARIANCE> 25
 1.919937e+01 4.642828e+01 5.081071e+01 7.272893e+01 4.946875e+01 5.329385e+01 5.044835e+01 6.113567e+01 4.692431e+01 5.431495e+01 4.383370e+01 3.869172e+01 1.691514e+00 3.594396e+00 4.087827e+00 5.755992e+00 3.932370e+00 4.939723e+00 4.515870e+00 6.076205e+00 3.977578e+00 4.663581e+00 3.595365e+00 2.874132e+00 1.608984e+00
<GCONST> 1.091184e+02
<STATE> 3
<MEAN> 25
 1.755791e+00 -5.263841e+00 8.629119e+00 -4.455694e+00 -8.535950e+00 -2.401871e+00 2.658119e+00 3.924385e+00 -5.094472e+00 -1.241004e+00 1.522353e+00 -1.175577e+00 1.638625e-01 -1.253138e+00 -9.794394e-01 5.518773e-01 3.263906e-01 -5.816271e-01 1.247941e-01 1.298980e+00 5.434613e-01 -8.847764e-01 -5.391413e-01 4.863529e-02 4.768777e-01
<VARIANCE> 25
 2.017567e+01 2.971505e+01 4.329297e+01 4.655638e+01 4.958718e+01 4.731691e+01 5.793906e+01 7.331622e+01 4.768681e+01 5.277124e+01 3.923883e+01 3.792601e+01 4.950041e-01 1.724986e+00 1.887888e+00 2.201783e+00 2.590747e+00 2.637194e+00 2.631208e+00 2.898188e+00 2.983322e+00 2.486233e+00 2.541233e+00 1.978740e+00 5.860488e-01
<GCONST> 9.950694e+01
<STATE> 4
<MEAN> 25
 2.562154e+00 -7.135590e+00 3.631046e+00 -1.329654e+00 -3.781708e+00 -3.476543e+00 4.064498e-01 6.363768e+00 -2.929333e+00 -5.399246e+00 -1.823270e+00 -8.675940e-01 1.325200e-01 1.331133e-01 -8.247440e-01 4.479840e-01 8.340065e-01 5.216172e-02 -3.508349e-01 -8.021056e-02 4.714938e-01 -4.323130e-02 -4.968788e-01 -5.676196e-02 -4.056549e-01
<VARIANCE> 25
 1.764508e+01 3.327468e+01 2.864629e+01 4.670444e+01 4.856420e+01 4.202765e+01 5.482889e+01 6.414757e+01 5.265364e+01 5.434108e+01 4.523320e+01 2.900266e+01 3.734805e-01 1.170792e+00 1.390134e+00 1.552031e+00 1.921668e+00 1.631778e+00 1.990770e+00 2.034450e+00 2.084722e+00 1.982283e+00 1.860117e+00 1.480666e+00 6.513062e-01
<GCONST> 9.493250e+01
<TRANSP> 5
 0.000000e+00 1.000000e+00 0.000000e+00 0.000000e+00 0.000000e+00
 0.000000e+00 7.189511e-01 2.810489e-01 0.000000e+00 0.000000e+00
 0.000000e+00 0.000000e+00 5.791450e-01 4.208550e-01 0.000000e+00
 0.000000e+00 0.000000e+00 0.000000e+00 7.324076e-01 2.675924e-01
 0.000000e+00 0.000000e+00 0.000000e+00 0.000000e+00 0.000000e+00
<ENDHMM>
~h "sp"
<BEGINHMM>
<NUMSTATES> 3
<STATE> 2
~s "silst"
<TRANSP> 3
 0.000000e+00 2.269354e-01 7.730646e-01
 0.000000e+00 9.103397e-01 8.966036e-02
 0.000000e+00 0.000000e+00 0.000000e+00
<ENDHMM>
~h "sy"
<BEGINHMM>
<NUMSTATES> 5
<STATE> 2
<MEAN> 25
 -1.105195e+01 5.509015e+00 6.016583e+00 -1.330225e+00 2.355475e+00 -3.205298e+00 1.803146e+00 1.025416e+00 8.917593e-01 -4.332494e+00 5.856922e-02 2.958583e+00 -2.415598e+00 3.366278e-01 6.715108e-01 -2.085557e-01 4.363621e-02 6.893829e-01 6.369213e-01 -1.770397e-01 2.396640e-01 -2.850338e-02 3.044221e-01 3.970857e-01 1.539158e-01
<VARIANCE> 25
 9.422816e+01 3.530721e+01 4.911665e+01 2.869123e+01 3.063772e+01 3.862429e+01 6.420153e+01 6.221398e+01 4.148410e+01 3.551931e+01 3.241620e+01 2.903071e+01 6.617481e+00 4.693062e+00 1.974657e+00 2.470485e+00 4.459291e+00 3.677842e+00 3.424934e+00 1.614196e+00 2.518527e+00 3.367840e+00 2.703205e+00 2.382287e+00 8.924394e-01
<GCONST> 1.042331e+02
<STATE> 3
<MEAN> 25
 -1.628830e+01 -1.945266e+00 9.146151e+00 1.637952e+00 -3.994598e+00 2.930426e+00 -9.697446e-01 1.383501e+00 5.300227e+00 -3.509467e+00 2.404496e+00 4.881884e+00 2.249885e+00 -1.040850e+00 -6.122014e-01 8.508816e-01 -7.070466e-01 -1.122616e+00 -6.962627e-01 3.518081e-02 5.151329e-01 2.363509e-01 -6.872556e-01 -2.375835e-01 6.456336e-02
<VARIANCE> 25
 1.078912e+02 2.378807e+01 4.009265e+01 4.184620e+01 3.822279e+01 1.224942e+02 8.963593e+01 3.453098e+01 4.109479e+01 3.923169e+01 3.033076e+01 2.966668e+01 8.270221e+00 2.107724e+00 2.637450e+00 2.665928e+00 3.732048e+00 1.153279e+01 3.743857e+00 2.703921e+00 4.147094e+00 4.240957e+00 2.590144e+00 2.385973e+00 1.114654e+00
<GCONST> 1.075817e+02
<STATE> 4
<MEAN> 25
 -8.773956e+00 8.285942e+00 4.170726e+00 1.050321e+01 -6.289423e+00 6.584704e+00 5.842775e+00 5.647319e+00 4.317828e+00 -7.342684e-02 2.000115e+00 -2.370619e-02 5.669185e-01 1.569299e-01 -1.343063e-01 -2.821872e-01 -1.720304e-01 -6.872254e-02 -2.556984e-01 -2.438268e-01 -9.234154e-02 2.981674e-01 -1.165248e-01 -3.295921e-01 2.427367e-01
<VARIANCE> 25
 8.676505e+01 1.563037e+02 1.167188e+02 9.850539e+01 5.627666e+01 9.922860e+01 1.204627e+02 1.088182e+02 1.200568e+02 7.960437e+01 5.643975e+01 4.556401e+01 6.048667e+00 5.998873e+00 6.900121e+00 1.024331e+01 5.439335e+00 8.637651e+00 8.576747e+00 8.757230e+00 9.998238e+00 9.308698e+00 5.258695e+00 6.002923e+00 3.362052e+00
<GCONST> 1.251542e+02
<TRANSP> 5
 0.000000e+00 1.000000e+00 0.000000e+00 0.000000e+00 0.000000e+00
 0.000000e+00 7.993799e-01 2.006200e-01 0.000000e+00 0.000000e+00
 0.000000e+00 0.000000e+00 7.775576e-01 2.224424e-01 0.000000e+00
 0.000000e+00 0.000000e+00 0.000000e+00 8.803404e-01 1.196596e-01
 0.000000e+00 0.000000e+00 0.000000e+00 0.000000e+00 0.000000e+00
<ENDHMM>
~h "sil"
<BEGINHMM>
<NUMSTATES> 5
<STATE> 2
<MEAN> 25
 -6.108677e+00 1.983602e+00 -1.041527e+00 2.969137e+00 3.540021e+00 3.475536e+00 2.564258e+00 1.153700e+00 6.591884e-01 7.395595e-02 6.949160e-01 2.331916e+00 -6.000983e-02 1.934102e-02 -6.931060e-03 1.408158e-02 3.358423e-02 4.016577e-02 1.596054e-02 1.001539e-02 5.759708e-03 6.967717e-03 2.095049e-02 1.340428e-02 -6.402363e-02
<VARIANCE> 25
 2.692817e+01 2.194467e+01 1.852411e+01 2.387068e+01 2.432508e+01 2.280424e+01 2.196261e+01 2.591187e+01 2.689355e+01 3.103386e+01 2.403654e+01 1.940177e+01 1.588265e-01 3.191152e-01 4.893753e-01 6.888934e-01 9.271093e-01 1.084175e+00 1.219762e+00 1.355772e+00 1.412987e+00 1.416647e+00 1.333598e+00 1.224212e+00 9.236955e-02
<GCONST> 7.919569e+01
<STATE> 3
~s "silst"
<STATE> 4
<MEAN> 25
 -5.215882e+00 1.325860e+00 -6.497418e-01 -1.810069e-01 1.273062e+00 1.721644e+00 1.762705e+00 1.171607e+00 -1.913012e-01 1.252841e+00 3.555527e-01 9.352701e-01 1.644370e-01 -2.714354e-02 7.192538e-02 -8.903924e-02 -2.953126e-02 -1.180508e-01 -4.795154e-02 -6.439707e-02 -6.476864e-02 9.877840e-03 -3.287374e-02 -5.701860e-02 2.489939e-01
<VARIANCE> 25
 6.693784e+01 5.274049e+01 5.921744e+01 7.289582e+01 7.104816e+01 6.362218e+01 5.027458e+01 5.179163e+01 5.413046e+01 5.134562e+01 4.064540e+01 3.553291e+01 2.274371e+00 2.500465e+00 2.615938e+00 2.943165e+00 3.893934e+00 3.423097e+00 3.067715e+00 3.490505e+00 3.340801e+00 3.004397e+00 2.640708e+00 2.220796e+00 2.771070e+00
<GCONST> 1.078073e+02
<TRANSP> 5
 0.000000e+00 1.000000e+00 0.000000e+00 0.000000e+00 0.000000e+00
 0.000000e+00 9.155937e-01 1.777585e-02 6.663048e-02 0.000000e+00
 0.000000e+00 0.000000e+00 7.871112e-01 2.128889e-01 0.000000e+00
 0.000000e+00 9.739978e-02 0.000000e+00 7.178247e-01 1.847756e-01
 0.000000e+00 0.000000e+00 0.000000e+00 0.000000e+00 0.000000e+00
<ENDHMM>
