\data\
ngram 1=3712
ngram 2=17985

\1-grams:
-99.999	!ENTER	-0.5772
-4.4832	SENT-END
-4.4832	SENT-START
-3.3071	a	-0.2437
-4.1821	aa	-0.2359
-4.1821	abed	-0.2954
-4.4832	abet	-0.3010
-3.1821	abis	-0.3698
-4.4832	abisnya	-0.2942
-4.4832	ac	-0.3003
-3.3692	acara	-0.2508
-3.8811	acaranya	-0.2903
-1.9329	ada	-0.4038
-3.2279	adalah	-0.3493
-4.1821	adanya	-0.2369
-4.4832	adblocker	-0.2370
-3.7050	adegan	-0.3688
-4.0060	adik	-0.2902
-3.7842	adikku	-0.4508
-4.4832	adiku	-0.2943
-4.4832	adonannya	-0.3008
-4.4832	adu	-0.3010
-3.7050	aduh	-0.2343
-4.4832	aduk	-0.3009
-3.4040	agak	-0.4238
-4.1821	agama	-0.5380
-4.1821	agate	-0.2974
-4.1821	agustus	-0.5380
-2.9918	ah	-0.3421
-4.4832	ahelah	-0.2973
-4.1821	ahmad	-0.2355
-4.4832	ahsiap	-0.2370
-4.0060	ai	-0.2967
-3.8811	aing	-0.2962
-4.0060	air	-0.2994
-2.0133	aja	-0.5269
-4.4832	ajaibnya	-0.3010
-3.7050	ajak	-0.2199
-4.1821	ajang	-0.6020
-4.1821	ajarin	-0.3003
-2.7589	akan	-0.4234
-3.1609	akhir	-0.4700
-4.4832	akhir-akhir	-0.2972
-3.4832	akhirnya	-0.2283
-4.4832	akriliknya	-0.3003
-4.4832	aksinya	-0.2976
-4.4832	aktif	-0.2994
-4.4832	aktivitas	-0.2370
-4.4832	aktor	-0.2370
-1.8101	aku	-0.4207
-4.4832	akurasinya	-0.2965
-4.4832	akut	-0.2370
-4.1821	ala	-0.3007
-4.4832	alam	-0.2942
-4.4832	alamatnya	-0.2956
-4.4832	alasan	-0.2968
-3.7050	alat	-0.4769
-4.1821	alatnya	-0.2956
-3.8811	alghi	-0.3510
-4.4832	alhamdulillah	-0.2370
-4.1821	alias	-0.3009
-4.4832	alif	-0.3004
-4.4832	aljabar	-0.2976
-4.1821	all	-0.6020
-4.1821	allah	-0.6019
-4.4832	alternatif	-0.3004
-3.7842	alur	-0.6986
-4.4832	alurnya	-0.2995
-4.4832	ama	-0.3009
-4.1821	aman	-0.2901
-4.1821	amat	-0.5380
-3.3071	ambil	-0.2433
-4.4832	ambilin	-0.3010
-3.4832	amerika	-0.2173
-4.4832	amin	-0.2370
-4.4832	ampe	-0.3007
-4.4832	ampuh	-0.2370
-3.5289	ampun	-0.4724
-4.4832	amri	-0.2370
-4.4832	an	-0.3010
-2.9918	anak	-0.3130
-3.7842	anak-anak	-0.2941
-4.4832	anak-anaknya	-0.2947
-4.1821	anaknya	-0.2996
-4.4832	analisa	-0.3010
-4.1821	analisis	-0.3005
-4.4832	analisisnya	-0.2943
-4.4832	anatomi	-0.2976
-4.4832	ancur	-0.2992
-4.4832	and	-0.3010
-3.7842	anda	-0.4561
-4.4832	andi	-0.2370
-3.4418	aneh	-0.4162
-4.4832	angga	-0.2370
-4.4832	anggap	-0.2968
-4.4832	anggota	-0.3002
-4.1821	angka	-0.2998
-4.4832	angkasa	-0.2965
-3.4418	angkot	-0.3477
-4.0060	angkotnya	-0.3004
-4.4832	angle	-0.3010
-4.4832	anjay	-0.2370
-4.4832	ann	-0.2370
-4.4832	anna	-0.3008
-3.3692	annelies	-0.3325
-4.4832	antar	-0.3002
-3.6381	antara	-0.2988
-4.4832	anti	-0.3010
-3.5289	antman	-0.3325
-4.4832	antri	-0.2996
-2.1407	apa	-0.5783
-3.7842	apa-apa	-0.3222
-3.3071	apaan	-0.3839
-4.4832	apah	-0.2370
-3.5801	apakah	-0.7179
-3.4418	apalagi	-0.3790
-4.1821	apalah	-0.5380
-3.7842	apanya	-0.2295
-4.4832	apapula	-0.3009
-4.4832	apapun	-0.3007
-4.4832	api	-0.3010
-4.4832	apks	-0.2985
-4.0060	aplikasi	-0.4771
-3.7842	aplikasinya	-0.2266
-3.7842	apply	-0.2920
-4.4832	apps	-0.2370
-4.4832	april	-0.3008
-4.4832	ar	-0.2370
-4.4832	arak-arakan	-0.2370
-4.4832	arsitektur	-0.3010
-4.4832	artifisial	-0.3009
-4.4832	artikelnya	-0.2998
-4.4832	artinya	-0.2971
-4.4832	artis	-0.2370
-4.1821	artisnya	-0.2369
-4.4832	asa	-0.2994
-4.0060	asal	-0.2998
-4.1821	asalmu	-0.5380
-4.4832	asem	-0.2370
-4.4832	asgard	-0.2959
-4.4832	asia	-0.2370
-3.7050	asik	-0.3718
-4.4832	asiknya	-0.2943
-4.1821	asin	-0.2961
-4.4832	asisten	-0.2995
-4.4832	asli	-0.2977
-4.0060	aslinya	-0.2290
-4.4832	assalamualaikum	-0.2370
-4.4832	assasin	-0.2976
-4.4832	assembly	-0.3010
-4.4832	assurance	-0.2370
-4.4832	asus	-0.3009
-4.4832	at	-0.3010
-3.6381	atas	-0.4425
-4.1821	atasnya	-0.6020
-2.7930	atau	-0.2786
-3.5801	ato	-0.2933
-3.7050	atur	-0.4079
-3.6381	aturan	-0.5366
-4.4832	aufa	-0.3010
-4.4832	automatic	-0.3009
-3.7842	avenger	-0.3199
-4.4832	avengers	-0.3010
-4.4832	avrg	-0.2975
-3.7842	awal	-0.2282
-4.1821	awal-awal	-0.3003
-3.8811	awalnya	-0.2942
-4.4832	awan	-0.2976
-4.4832	awas	-0.2988
-4.4832	ayah	-0.2972
-4.1821	ayahku	-0.5380
-4.4832	ayahmu	-0.3009
-4.4832	ayahnya	-0.3008
-3.2790	ayam	-0.3463
-4.1821	ayamnya	-0.2959
-3.1407	ayo	-0.3606
-4.0060	ayok	-0.2998
-4.4832	ayrton	-0.3007
-4.1821	ayuk	-0.5380
-4.4832	ayunda	-0.2989
-4.4832	azis	-0.2370
-3.7842	b	-0.3319
-4.1821	bab	-0.2989
-3.3370	baca	-0.5319
-4.4832	baca-baca	-0.3010
-4.4832	bacanya	-0.2972
-4.4832	backpacker	-0.3003
-4.0060	badan	-0.2923
-4.4832	badannya	-0.2999
-4.1821	badminton	-0.5969
-3.2527	bagaimana	-0.5039
-4.0060	bagi	-0.2991
-4.0060	bagi-bagi	-0.2994
-3.3370	bagian	-0.3486
-4.4832	bagianku	-0.2988
-4.1821	bagimu	-0.6015
-2.8497	bagus	-0.4939
-4.4832	bagusnya	-0.3004
-3.8811	bahagia	-0.3555
-4.4832	bahan	-0.3010
-3.6381	bahas	-0.3597
-3.2790	bahasa	-0.4960
-4.4832	bahaya	-0.2976
-3.4418	bahkan	-0.4248
-4.1821	bahwa	-0.2939
-2.9391	baik	-0.5170
-3.8811	baik-baik	-0.6009
-3.4832	baiklah	-0.4416
-4.1821	baiknya	-0.2326
-3.5801	baju	-0.4205
-4.4832	bajunya	-0.2942
-4.4832	bak	-0.3010
-3.2044	bakal	-0.3113
-4.1821	bakalan	-0.3008
-4.0060	bakar	-0.4695
-4.4832	bakat	-0.3009
-4.4832	bakatnya	-0.3010
-4.1821	balai	-0.6019
-4.4832	balas	-0.3010
-3.5801	bali	-0.4376
-3.3071	balik	-0.6996
-4.4832	bambang	-0.2370
-3.6381	ban	-0.5985
-4.4832	bandar	-0.3010
-4.4832	bandara	-0.2370
-3.3370	bandung	-0.3256
-2.3759	banget	-0.6017
-3.1821	bangun	-0.5207
-4.4832	bangunan
-4.1821	bangunan-bangunan	-0.6015
-4.4832	bangunin	-0.2991
-3.6381	bank	-0.5399
-3.6381	bantu	-0.2981
-3.8811	bantuan	-0.2964
-4.0060	bantuannya	-0.7141
-3.7842	bantuin	-0.2329
-2.5387	banyak	-0.3874
-4.1821	banyak-banyak	-0.2979
-3.8811	banyakan	-0.2305
-4.1821	banyaknya	-0.3009
-4.4832	bapa	-0.2965
-4.0060	bapak	-0.2310
-4.4832	bapaknya	-0.3004
-4.1821	bapanya	-0.2971
-4.1821	barang	-0.2942
-4.4832	barang-barang	-0.3010
-4.0060	barat	-0.2853
-3.0852	bareng	-0.3355
-3.8811	bareng-bareng	-0.3537
-4.1821	barengan	-0.2318
-4.4832	barnes	-0.2985
-2.6023	baru	-0.3234
-4.4832	barulah	-0.2956
-3.8811	barusan	-0.2942
-3.8811	basah	-0.3568
-4.4832	basdat	-0.3010
-4.4832	basecamp	-0.2370
-4.4832	basi	-0.3003
-4.1821	basic	-0.2992
-4.1821	basis	-0.6017
-4.4832	basjep	-0.2370
-4.4832	batan	-0.2972
-4.0060	batas	-0.4768
-4.4832	batere	-0.3010
-4.4832	batik	-0.2370
-4.4832	battery	-0.3010
-3.8811	batu	-0.5968
-4.4832	bau	-0.2976
-4.4832	baunya	-0.3010
-3.4832	bawa	-0.3384
-3.7050	bawah	-0.2268
-4.4832	bawahnya	-0.2959
-4.4832	bawain	-0.3009
-3.6381	bawakan	-0.5369
-3.4832	bawang	-0.3903
-3.8811	bayangan	-0.3603
-3.5801	bayar	-0.4339
-3.7050	bayarin	-0.4576
-4.4832	bayarnya	-0.2370
-4.1821	bayi	-0.2368
-4.4832	bbm	-0.3003
-3.8811	bca	-0.8391
-4.4832	bea	-0.3010
-4.1821	beasiswa	-0.2998
-4.4832	beb	-0.3007
-3.7842	bebas	-0.3194
-4.4832	bebek	-0.2959
-3.2790	beberapa	-0.3745
-4.4832	bec	-0.3010
-4.4832	becanda-becanda	-0.3007
-4.4832	bed	-0.3010
-3.3071	beda	-0.2620
-4.1821	beda-beda	-0.2318
-4.1821	bedanya	-0.3006
-4.0060	begini	-0.4128
-3.1821	begitu	-0.4452
-3.8811	bekerja	-0.3556
-4.4832	bela	-0.2994
-3.4832	belajar	-0.3224
-3.5289	belakang	-0.3390
-4.4832	belakangan	-0.2972
-4.4832	belakangnya	-0.2370
-3.5289	belanda	-0.2740
-4.0060	belanja	-0.2997
-4.4832	belanjaannya	-0.2959
-4.4832	belar	-0.3010
-3.1609	belas	-0.3376
-2.8921	beli	-0.4616
-3.7842	beliau	-0.3921
-4.4832	beliin	-0.2978
-4.1821	belinya	-0.2984
-4.1821	belok	-0.2977
-3.0852	belom	-0.3547
-2.5436	belum	-0.4228
-3.2044	benar	-0.5331
-4.1821	benar-benar	-0.3000
-4.1821	benaran	-0.3007
-3.8811	benarkah	-0.5335
-4.1821	benarnya	-0.5983
-4.4832	benda	-0.3010
-3.1029	bener	-0.5114
-4.0060	bener-bener	-0.4735
-3.6381	beneran	-0.2329
-4.1821	benerin	-0.2368
-4.4832	benerinnya	-0.3009
-4.4832	bengkelnya	-0.2972
-4.4832	bensin	-0.2972
-3.3370	bentar	-0.6685
-4.0060	ber	-0.4131
-4.0060	berada	-0.4714
-4.4832	beragam	-0.2370
-4.4832	berandalan	-0.3001
-3.4832	berangkat	-0.3374
-4.0060	berangkatnya	-0.2353
-3.7050	berani	-0.2359
-3.8811	berantem	-0.2281
-2.7930	berapa	-0.5030
-4.1821	berapaan	-0.2938
-4.1821	berargumen	-0.2999
-3.2790	berarti	-0.3238
-4.1821	berasa	-0.3009
-4.4832	berasal	-0.2994
-4.1821	berat	-0.2983
-4.1821	berawan	-0.2334
-3.8811	berbagai	-0.4258
-4.0060	berbeda	-0.2341
-4.4832	berbintik-bintik	-0.2370
-4.4832	berbuat	-0.3010
-4.4832	berburu	-0.3008
-4.1821	bercanda	-0.2981
-4.4832	bercerita	-0.2998
-4.4832	berdekatan	-0.2370
-3.8811	berdiri	-0.5920
-3.4832	berdua	-0.3840
-4.4832	berempat	-0.2968
-4.1821	berenang	-0.6012
-4.4832	berenti	-0.3010
-3.8811	beres	-0.2350
-4.4832	beres-beres	-0.3007
-4.4832	berfikir	-0.3010
-4.4832	berfikiran	-0.3010
-4.4832	bergabung	-0.2370
-4.1821	bergaya	-0.2370
-4.4832	bergerak	-0.3010
-4.4832	berharapnya	-0.2956
-3.8811	berhasil	-0.2983
-4.4832	berhenti	-0.2370
-4.4832	berhubungan	-0.3006
-4.4832	berikan	-0.2943
-4.4832	beringas	-0.2979
-4.1821	berisik	-0.2349
-4.4832	beristirahat	-0.3009
-4.1821	berita	-0.2941
-4.4832	beritahu	-0.2943
-4.4832	berjaga	-0.2956
-4.1821	berjalan	-0.3000
-4.4832	berjam-jam	-0.2956
-4.1821	berjuang	-0.3009
-4.4832	berkabar	-0.2968
-4.4832	berkata	-0.3010
-4.1821	berkeliling	-0.6019
-4.4832	berkemah	-0.2979
-4.4832	berkepala	-0.2370
-4.0060	berkesan	-0.2854
-4.0060	berkunjung	-0.4696
-4.1821	berkurang	-0.3010
-4.4832	berlatar	-0.3009
-3.7842	berlebihan	-0.4567
-4.0060	berlibur	-0.7752
-3.8811	bermain	-0.2953
-4.4832	berolahraga	-0.3007
-4.4832	berperasaan	-0.2947
-4.4832	berpikiran	-0.3000
-4.0060	bersama	-0.4102
-4.1821	bersama-sama	-0.5380
-4.4832	bersamaan	-0.3001
-4.4832	bersamurai	-0.2370
-4.4832	bersaudara	-0.2370
-3.5801	bersepeda	-0.5276
-4.1821	bersih	-0.2334
-4.4832	bersihin	-0.2994
-4.4832	berspekulasi	-0.3010
-4.1821	bersyukur	-0.2349
-4.4832	bertanggung	-0.3010
-4.4832	bertanya	-0.3006
-4.4832	bertele-tele	-0.2370
-3.4832	bertemu	-0.5170
-4.1821	bertiga	-0.2331
-4.4832	bertukar	-0.3008
-4.4832	berturut	-0.3010
-4.4832	berturut-turut	-0.3001
-4.4832	berubah	-0.2976
-4.4832	berulang	-0.3005
-4.1821	beruntung	-0.2949
-4.4832	beruntungnya	-0.3004
-4.4832	berusaha	-0.2972
-4.4832	berwibawa	-0.2370
-3.6381	besar	-0.3740
-4.4832	besarku	-0.2370
-4.4832	besarnya	-0.2370
-2.9918	besok	-0.3882
-4.1821	besoknya	-0.5380
-4.1821	betul	-0.2948
-4.1821	betulin	-0.6010
-3.1821	biar	-0.3017
-4.1821	biarin	-0.2998
-3.1609	biasa	-0.3554
-2.9150	biasanya	-0.2690
-4.4832	bibit	-0.2968
-4.0060	bicara	-0.3002
-4.4832	bicarain	-0.3010
-4.4832	bicaranya	-0.2976
-3.7842	bidang	-0.2977
-4.4832	bidangnya	-0.2979
-4.4832	biji	-0.2947
-4.4832	bijinya	-0.3010
-2.9918	bikin	-0.3123
-3.1821	bilang	-0.2735
-3.3071	bimbingan	-0.3445
-4.0060	bimbingannya	-0.2350
-3.1029	bingung	-0.5487
-4.4832	bintang	-0.3010
-4.0060	biologi	-0.2929
-3.8811	bioskop	-0.2949
-2.2657	bisa	-0.2819
-4.4832	bisa-bisa	-0.2370
-4.0060	bisakah	-0.4673
-4.4832	bisalah	-0.3000
-3.7050	bisnis	-0.2320
-4.0060	bla	-0.4703
-4.4832	black	-0.3010
-4.0060	blibli	-0.2326
-4.4832	blizzard	-0.2942
-4.0060	blockchain	-0.7141
-4.4832	bo	-0.2998
-4.1821	boba	-0.3010
-4.4832	boba-boba	-0.2976
-4.4832	bobo	-0.2370
-4.4832	bocah	-0.2370
-4.1821	bocor	-0.6004
-4.4832	bodohnya	-0.2370
-4.4832	bogor	-0.2370
-3.8811	bohong	-0.5328
-4.4832	boi	-0.3009
-4.1821	bola	-0.2952
-4.4832	bolak-balik	-0.3010
-4.0060	bole	-0.2991
-4.4832	bole-bole	-0.2968
-4.4832	bolee	-0.3010
-2.5100	boleh	-0.5310
-4.4832	bolehkah	-0.2943
-4.1821	bolong	-0.2976
-4.4832	bombastis	-0.3010
-3.5289	booking	-0.5530
-4.1821	bookmyshow	-0.2364
-4.1821	borju	-0.2321
-4.4832	borma	-0.2370
-4.4832	bos	-0.2942
-4.4832	bosan	-0.2987
-3.7842	bosen	-0.2881
-4.1821	bramantyo	-0.2369
-4.4832	bri	-0.3010
-3.7842	bro	-0.4542
-4.4832	brown	-0.3010
-3.8811	btw	-0.2955
-4.1821	bu	-0.2990
-3.4832	buah	-0.3788
-4.4832	buahnya	-0.3009
-2.6702	buat	-0.3369
-4.4832	buatin	-0.3010
-4.1821	bubar	-0.2957
-3.7050	bud	-0.4103
-4.0060	budaya	-0.2988
-4.4832	budgetnya	-0.3006
-4.4832	budi	-0.2965
-3.2044	buka	-0.2905
-3.8811	bukain	-0.4243
-2.9517	bukan	-0.2488
-3.7842	bukankah	-0.5219
-3.6381	bukannya	-0.2938
-4.4832	bukanya	-0.3009
-4.4832	bukittinggi	-0.3006
-4.4832	bukti	-0.2370
-2.9780	buku	-0.4136
-3.6381	bukunya	-0.4696
-3.6381	bulan	-0.3621
-4.4832	bulu	-0.3010
-3.4418	bumbu	-0.6398
-4.1821	bumbunya	-0.2363
-3.7050	bumi	-0.4757
-4.4832	bunga	-0.2985
-4.1821	bunganya	-0.2363
-4.0060	bungkus	-0.2316
-4.1821	bungkusan	-0.2889
-4.4832	bungkusin	-0.2997
-4.4832	bunuh	-0.3010
-4.4832	bunyi	-0.3010
-4.4832	bur	-0.3010
-4.4832	burger	-0.3010
-4.4832	buru-buru	-0.3003
-3.8811	buruan	-0.2977
-4.0060	buruk	-0.7141
-4.1821	burung	-0.2941
-4.4832	busway	-0.2976
-3.4418	butuh	-0.2889
-4.1821	by	-0.6020
-4.4832	bye	-0.2370
-3.8811	c	-0.2360
-4.1821	cabut	-0.2971
-4.4832	cacat	-0.3010
-4.0060	cadangan	-0.4129
-4.4832	calon	-0.3010
-4.4832	camping	-0.3002
-4.1821	campur	-0.2968
-4.1821	can	-0.6020
-4.1821	canggih	-0.2330
-4.1821	cantik	-0.2349
-4.4832	cantiknya	-0.2972
-4.1821	capa	-0.5380
-4.4832	capcay	-0.2370
-3.6381	cape	-0.3576
-4.1821	capek	-0.2329
-4.1821	cara	-0.3008
-3.8811	caranya	-0.2249
-3.7050	cari	-0.2929
-4.4832	case	-0.2976
-4.4832	cat	-0.2370
-3.8811	catatan	-0.2365
-4.0060	catur	-0.2325
-4.4832	caturnya	-0.2972
-4.0060	cece	-0.4087
-4.4832	ceceku	-0.2370
-3.7050	cek	-0.3730
-4.4832	celananya	-0.3010
-4.4832	cemas	-0.2370
-4.1821	cemilan	-0.2367
-4.4832	cenderawasih	-0.3009
-4.4832	cengeng	-0.2976
-3.8811	ceo	-0.4172
-3.5289	cepat	-0.3390
-4.1821	cepat-cepat	-0.2983
-3.5289	cepet	-0.3390
-4.0060	cerah	-0.2296
-4.0060	cerdas	-0.2952
-3.3071	cerita	-0.4620
-4.1821	ceritain	-0.2997
-4.4832	ceritakan	-0.2370
-3.4040	ceritanya	-0.3481
-4.4832	cewa	-0.2370
-4.4832	cewek	-0.3009
-4.4832	changing	-0.3010
-4.0060	channel	-0.2931
-4.1821	chaos	-0.2985
-4.0060	charada	-0.4707
-3.7842	chat	-0.3889
-4.4832	chatbot	-0.2978
-4.4832	chatime	-0.3008
-4.4832	chatnya	-0.3005
-4.4832	chatting	-0.2985
-4.4832	check	-0.3006
-4.4832	chef	-0.2956
-4.4832	chefnya	-0.2968
-4.4832	chicken	-0.3010
-4.4832	cia	-0.2370
-3.8811	cicis	-0.2288
-4.4832	cinematic	-0.3004
-4.4832	cinematicnya	-0.3004
-4.4832	cisitu	-0.2370
-4.1821	citra	-0.2360
-4.4832	cium	-0.3008
-4.1821	ciwalk	-0.2362
-3.7050	cluster	-0.3733
-4.4832	clustering	-0.2370
-4.4832	co	-0.3009
-2.9034	coba	-0.2812
-3.7842	cobain	-0.2300
-4.4832	cobainnya	-0.2370
-4.4832	coco	-0.2998
-3.4832	cocok	-0.2697
-4.4832	code	-0.2370
-4.4832	coffee	-0.3010
-4.1821	cokelat	-0.6019
-3.7050	coklat	-0.4090
-3.8811	com	-0.2915
-4.4832	conductornya	-0.3010
-4.4832	configuration	-0.2370
-4.4832	constraint	-0.3006
-3.8811	contoh	-0.2955
-4.1821	contohnya	-0.2369
-4.4832	copy	-0.2975
-4.4832	corgi	-0.2370
-4.4832	corner	-0.3010
-3.6381	cowok	-0.4644
-4.4832	cowoknya	-0.3010
-4.4832	crcs	-0.2370
-4.4832	css	-0.2370
-4.4832	ctim	-0.2985
-4.4832	cuaca	-0.2965
-4.1821	cuacanya	-0.2979
-3.8811	cuci	-0.6014
-4.0060	cui	-0.4090
-4.4832	cukainya	-0.2947
-3.2790	cukup	-0.3165
-2.8704	cuma	-0.3211
-2.9918	cuman	-0.3631
-4.4832	cumi	-0.3003
-4.0060	cup	-0.2347
-3.5801	cupu	-0.4393
-4.1821	curang	-0.2946
-4.4832	custom	-0.3010
-3.7050	cuy	-0.5295
-4.4832	d	-0.2994
-4.1821	da	-0.2940
-4.4832	dadak	-0.3010
-3.5801	daerah	-0.2988
-3.5289	daftar	-0.2282
-4.4832	dagangan	-0.2981
-4.4832	daging	-0.3010
-4.4832	dago	-0.2965
-3.2790	dah	-0.4802
-4.1821	dahulu	-0.5380
-3.1821	dalam	-0.5199
-4.4832	dalem	-0.3010
-4.4832	dam	-0.3003
-2.4301	dan	-0.3014
-4.1821	dana	-0.5380
-4.4832	dananya	-0.2998
-4.4832	dandanannya	-0.2987
-4.4832	daniel	-0.3006
-3.3692	dapat	-0.3643
-4.4832	dapatkan	-0.2956
-4.4832	dapatnya	-0.3004
-3.2279	dapet	-0.2552
-4.4832	dapetin	-0.3006
-4.0060	dapur	-0.2247
-4.4832	dapurnya	-0.3009
-4.4832	darah	-0.3010
-4.4832	darahnya	-0.2370
-2.4225	dari	-0.3969
-4.1821	darimana	-0.2940
-4.0060	daripada	-0.2939
-3.7050	dasar	-0.5980
-4.4832	dasarnya	-0.3010
-3.1029	data	-0.3928
-4.4832	databasenya	-0.3008
-3.3370	datang	-0.3224
-4.1821	datangnya	-0.2999
-4.1821	datathon	-0.2996
-3.2790	dateng	-0.5208
-4.4832	dateng-dateng	-0.2975
-4.4832	datengin	-0.3007
-4.4832	datengnya	-0.3010
-3.8811	daun	-0.9029
-4.0060	daya	-0.2941
-4.4832	dayang	-0.3010
-4.4832	de	-0.2988
-3.7050	deadline	-0.2258
-3.8811	deadlinenya	-0.2961
-4.4832	deadliner	-0.2370
-3.6381	debat	-0.2992
-4.4832	debatnya	-0.3004
-4.4832	debo	-0.2996
-2.3071	deh	-0.5439
-3.4040	dekat	-0.3255
-3.7050	deket	-0.3727
-4.1821	deket-deket	-0.2968
-4.4832	dela	-0.3010
-3.5289	delapan	-0.4035
-4.4832	delay	-0.2987
-3.8811	delivery	-0.2874
-4.4832	deliverynya	-0.2370
-4.4832	demam	-0.2370
-3.7842	demi	-0.2989
-4.4832	dempet	-0.2981
-4.4832	dendam	-0.2370
-2.6838	dengan	-0.3845
-4.4832	denganku	-0.2370
-3.8811	denganmu	-0.3575
-3.7842	dengar	-0.3956
-3.5801	denger	-0.3490
-4.4832	denger-denger	-0.3000
-4.1821	dengerin	-0.2996
-4.4832	dengerinnya	-0.2987
-2.9780	depan	-0.3086
-4.4832	depannya	-0.2979
-4.1821	depok	-0.2360
-4.1821	desa	-0.5380
-3.7842	desain	-0.3903
-3.7842	desember	-0.2317
-4.4832	designer	-0.3008
-4.1821	deskripsi	-0.2904
-4.0060	detail	-0.2981
-4.0060	detik	-0.2294
-1.9022	di	-0.5161
-2.3561	dia	-0.3641
-4.4832	diacungi	-0.3010
-4.0060	diagram	-0.2876
-4.4832	diagramnya	-0.3008
-4.0060	diajak	-0.2984
-4.4832	diajakin	-0.3010
-4.1821	diajar	-0.5995
-4.4832	diakui	-0.3009
-4.1821	dialog-dialog	-0.3010
-4.1821	diam	-0.5978
-4.1821	diambil	-0.2351
-4.4832	diambilnya	-0.2981
-4.4832	dianggap	-0.3010
-4.1821	diantara	-0.3006
-4.4832	dianterin	-0.2370
-4.4832	dianya	-0.2965
-4.4832	diapain	-0.2985
-4.4832	diarahin	-0.2981
-4.4832	dibaca	-0.2370
-4.0060	dibajak	-0.4765
-4.0060	dibanding	-0.2954
-4.4832	dibandingin	-0.2978
-4.4832	dibandingkan	-0.3001
-4.4832	dibangun	-0.2972
-4.4832	dibawain	-0.3008
-4.4832	dibawakan	-0.3009
-4.4832	dibebasin	-0.3005
-4.4832	dibersihin	-0.2972
-4.4832	dibiarin	-0.3004
-4.4832	dibiarkan	-0.2994
-3.7842	dibikin	-0.3324
-4.0060	dibilang	-0.2370
-4.4832	dibuang	-0.2370
-4.1821	dibuat	-0.2963
-4.4832	dibujuk	-0.3009
-4.4832	dibuka	-0.2959
-4.4832	dibungkus	-0.2370
-4.4832	diburu-buru	-0.3010
-4.4832	dibutu	-0.2942
-4.1821	dicek	-0.2985
-4.4832	diceritain	-0.3004
-4.4832	diceritakan	-0.2370
-4.4832	dichi	-0.2995
-4.4832	dicintai	-0.2370
-3.4418	dick	-0.3569
-3.7842	dicky	-0.3246
-4.4832	dickynya	-0.3006
-4.0060	dicoba	-0.2939
-4.4832	dicobain	-0.2981
-4.4832	dicuci	-0.3010
-4.1821	diculik	-0.6020
-4.4832	didrop	-0.2370
-4.1821	dielus-elus	-0.5380
-4.4832	difilmkan	-0.2370
-4.4832	diga	-0.3010
-4.1821	digabung	-0.5380
-4.1821	digabungin	-0.2331
-4.1821	digambarin	-0.2958
-4.0060	diganti	-0.4131
-4.4832	digantik	-0.3010
-4.1821	digantikan	-0.6012
-4.1821	diginiin	-0.2932
-4.1821	digit	-0.2941
-4.4832	digital	-0.3010
-4.4832	digituin	-0.2968
-4.4832	dih	-0.3003
-4.4832	diilangin	-0.3003
-4.4832	diimplementasiin	-0.2985
-4.4832	diindonesiakan	-0.2370
-4.0060	diisi	-0.4737
-4.4832	diitungin	-0.2965
-4.1821	dijalanin	-0.2913
-4.1821	dijual	-0.2996
-3.3370	dik	-0.3707
-3.4832	dikasih	-0.2765
-4.4832	dikatain	-0.3010
-4.4832	dikegelapan	-0.3003
-4.4832	dikelas	-0.2370
-4.1821	dikelompokin	-0.2963
-4.4832	dikeluarin	-0.2987
-4.4832	dikenakan	-0.3009
-4.4832	dikendalikan	-0.3006
-3.8811	dikerjain	-0.3526
-4.4832	dikerjakan	-0.2370
-4.4832	dikirim	-0.3010
-3.4040	dikit	-0.3369
-4.4832	dikombinasikan	-0.3001
-4.4832	dikopi	-0.2968
-4.4832	dikumpul	-0.3004
-3.7842	dikumpulin	-0.2321
-4.4832	dikunci	-0.2370
-4.4832	dikunyah	-0.2370
-4.4832	dilain	-0.3010
-4.4832	dilakuin	-0.2985
-4.1821	dilakukan	-0.6018
-4.1821	dilan	-0.2370
-4.4832	dilarang	-0.3005
-4.4832	dilatih	-0.3010
-4.4832	dilepas	-0.2968
-3.8811	dilihat	-0.4239
-4.4832	dilihatin	-0.2370
-4.4832	diluar	-0.3010
-3.1609	dimana	-0.4133
-4.0060	dimarahin	-0.2351
-4.0060	dimas	-0.2978
-4.4832	dimasak	-0.3008
-4.0060	dimasukin	-0.2885
-4.4832	dimasukkin	-0.2981
-4.4832	diminta	-0.3008
-4.4832	dimulai	-0.2985
-3.5289	din	-0.8858
-4.4832	dinamain	-0.2370
-4.4832	dinda	-0.2370
-4.4832	ding	-0.2998
-4.4832	dingin	-0.2370
-4.4832	dinikmati	-0.2956
-4.4832	diomongin	-0.2947
-3.7050	dion	-0.2277
-4.1821	dipakai	-0.6015
-4.1821	dipake	-0.2950
-4.4832	dipaksa	-0.2991
-4.4832	dipasang	-0.2956
-4.4832	dipause	-0.2997
-4.4832	dipecah	-0.2370
-4.4832	dipecat	-0.3009
-4.4832	dipencet	-0.3010
-4.4832	diperintah	-0.2994
-4.4832	diperkemahan	-0.3006
-4.4832	dipermasalah	-0.2976
-4.4832	diperpanjang	-0.2979
-4.4832	dipersiapkan	-0.2370
-4.4832	dipesen	-0.2994
-4.4832	dipikir	-0.3007
-4.4832	dipilih	-0.3010
-4.4832	dipimpin	-0.3009
-4.0060	dipotong	-0.4091
-4.4832	dipotong-potong	-0.2975
-4.4832	diramalin	-0.3004
-4.4832	dirapatkan	-0.2370
-4.4832	dirapihin	-0.3010
-4.4832	dirasakan	-0.2999
-4.4832	director	-0.2956
-4.1821	diri	-0.2949
-4.1821	dirimu	-0.2990
-4.4832	dirusakin	-0.2985
-4.4832	disain
-3.4832	disana	-0.4502
-4.4832	disangka	-0.2979
-4.4832	disangka-sangka	-0.2965
-4.4832	disaranin	-0.3009
-4.4832	disclaimer	-0.2997
-4.4832	disebar	-0.2370
-4.4832	disebut	-0.2370
-4.4832	diselamatin	-0.2985
-4.4832	diselamatkan	-0.3010
-4.4832	diselametin	-0.2956
-4.4832	diselesaiin	-0.3007
-4.4832	diselingi	-0.3001
-4.4832	disengaja	-0.2370
-4.4832	disesuaiin	-0.3007
-4.4832	disiapkan	-0.3005
-4.1821	disimpan	-0.2946
-4.1821	disini	-0.2965
-4.4832	disisipi	-0.3010
-3.8811	disitu	-0.2284
-3.7842	diskon	-0.2959
-4.4832	diskon-diskon	-0.2998
-4.4832	diskusi	-0.2997
-4.4832	diskusi-diskusi	-0.2997
-3.8811	disney	-0.3545
-4.1821	disubmit	-0.5380
-4.4832	disuguhin	-0.3010
-4.0060	disuru	-0.3007
-3.5801	disuruh	-0.3002
-4.1821	ditakdirkan	-0.6015
-4.4832	ditambah	-0.3010
-4.1821	ditambahin	-0.2978
-4.1821	ditambal	-0.5380
-4.4832	ditampilkan	-0.3010
-4.4832	ditandatangan	-0.2965
-4.1821	ditanya	-0.2953
-4.1821	ditanyain	-0.2984
-4.4832	ditanyakin	-0.2997
-4.4832	ditaruh	-0.3003
-4.4832	ditempat	-0.2942
-4.4832	ditempatin	-0.2985
-4.4832	ditentuin	-0.2976
-4.4832	ditiruin	-0.2968
-4.4832	ditolak	-0.2370
-4.4832	ditoleransi	-0.2370
-4.4832	ditolongin	-0.2985
-4.4832	ditonton	-0.2988
-4.4832	ditrain	-0.3009
-3.8811	ditraktir	-0.2923
-4.4832	ditujunya	-0.3001
-4.4832	ditunda
-4.4832	ditunda-tunda	-0.2370
-4.4832	diturunin	-0.3004
-4.4832	ditutup	-0.2370
-4.4832	diulang	-0.2979
-4.4832	diundur	-0.2981
-4.4832	diving	-0.2370
-4.4832	dizni	-0.3009
-4.1821	dkv	-0.6020
-4.4832	do	-0.2370
-4.4832	doain	-0.2968
-3.3071	doang	-0.5548
-4.0060	dokter	-0.3010
-4.1821	dokumen	-0.2997
-4.4832	dokumentasi	-0.2370
-4.1821	dokumentasinya	-0.2334
-4.4832	dolar	-0.2947
-3.8811	domino	-0.3562
-4.1821	dompet	-0.2967
-2.7930	dong	-0.7110
-4.1821	donk	-0.5380
-4.4832	doraemon	-0.2370
-3.2527	dosen	-0.5446
-3.5289	dosennya	-0.2801
-4.4832	doswal	-0.2978
-3.6381	dot	-0.5440
-4.4832	dp	-0.3010
-4.4832	draft	-0.2997
-4.4832	drakor	-0.2370
-3.8811	drama	-0.4189
-4.4832	drive	-0.2981
-4.4832	drivernya	-0.3009
-4.4832	drop	-0.3009
-3.4418	dsdm	-0.3518
-2.4746	dua	-0.4765
-3.7050	dua-duanya	-0.3014
-3.5801	duduk	-0.5890
-4.1821	duh	-0.6006
-3.8811	duit	-0.2938
-4.1821	duitnya	-0.2368
-2.5194	dulu	-0.4635
-3.5289	duluan	-0.2673
-4.4832	dulunya	-0.3010
-3.2279	dunia	-0.4056
-4.4832	dura	-0.3010
-4.4832	durasinya	-0.3003
-3.4418	durian	-0.4145
-4.4832	dwbi	-0.2947
-3.5289	e	-0.3392
-4.1821	eat	-0.6020
-4.1821	ebook	-0.2976
-4.4832	edan	-0.2370
-3.8811	editan	-0.2863
-3.8811	efek	-0.6020
-4.4832	efeknya	-0.3010
-4.4832	efektif	-0.3001
-4.4832	egg	-0.2976
-2.5387	eh	-0.3165
-4.4832	ehem	-0.3009
-3.8811	ekor	-0.2903
-4.4832	eksekusi	-0.3005
-4.4832	ekspektasi	-0.2965
-4.4832	elektronik	-0.2976
-4.0060	ellen	-0.2971
-4.1821	elu	-0.2344
-3.7842	em	-0.3332
-3.7842	email	-0.4505
-2.6770	emang	-0.3263
-3.4832	emangnya	-0.4554
-4.4832	emm	-0.3010
-3.0682	empat	-0.5586
-4.4832	empatan	-0.2998
-2.6081	enak	-0.4913
-4.1821	enak-enak	-0.2321
-4.0060	enakan	-0.3005
-4.0060	enaknya	-0.2942
-3.5801	enam	-0.2919
-4.0060	endgame	-0.2348
-4.1821	enem	-0.3006
-4.4832	energinya	-0.3005
-2.8811	engga	-0.3200
-2.9517	enggak	-0.4220
-4.4832	engineering	-0.2947
-4.4832	english	-0.3004
-4.4832	enrollment	-0.3010
-4.1821	entah	-0.2981
-3.7842	entar	-0.2945
-4.4832	episode	-0.3010
-4.4832	erma	-0.2370
-4.4832	error	-0.2370
-3.4418	es	-0.6432
-4.4832	escobar	-0.2370
-4.4832	esei	-0.3010
-4.1821	eu	-0.5380
-4.0060	euh	-0.2327
-3.7842	eum	-0.3238
-4.4832	euy	-0.3010
-4.4832	event	-0.3005
-4.4832	expert	-0.3003
-4.4832	f	-0.2370
-4.0060	fa	-0.4124
-4.1821	fadil	-0.3010
-4.4832	faldi	-0.3002
-4.4832	fantasinya	-0.2959
-4.4832	fantastis	-0.2370
-4.4832	fase-fase	-0.3010
-4.4832	fasilitas	-0.3010
-4.4832	fast	-0.3010
-3.8811	favorit	-0.5913
-4.1821	februari	-0.2942
-4.4832	feel	-0.3003
-3.8811	felix	-0.2317
-3.8811	ferdi	-0.3619
-4.4832	festival	-0.3010
-4.4832	fillet	-0.2370
-2.7930	film	-0.5260
-4.4832	film-film	-0.2370
-3.5289	filmnya	-0.2781
-4.1821	final	-0.2356
-4.4832	fintech	-0.2976
-3.8811	fis	-0.5350
-4.4832	fisik	-0.3009
-4.4832	fisika	-0.2956
-4.0060	fix	-0.4745
-4.4832	fizi	-0.2370
-4.4832	fokus	-0.3008
-4.4832	food	-0.2975
-4.4832	format	-0.2985
-4.4832	formatnya	-0.2968
-4.4832	formnya	-0.3007
-4.1821	forum	-0.3003
-4.4832	forward	-0.2370
-4.4832	foto	-0.3009
-4.1821	fotokopi	-0.2985
-4.4832	four	-0.3010
-4.4832	front	-0.3010
-4.4832	frsnya	-0.2370
-3.7842	full	-0.4535
-4.4832	fun	-0.3010
-4.4832	fundamentalnya	-0.2976
-4.4832	furious	-0.2975
-4.4832	futsal	-0.3002
-2.0870	ga	-0.5529
-4.4832	gaak	-0.2987
-4.1821	gabisa	-0.3004
-4.4832	gabu	-0.3010
-4.1821	gabung	-0.2994
-4.4832	gabungan	-0.2370
-4.4832	gabungang
-4.4832	gabungin	-0.2999
-4.4832	gabunging
-4.0060	gabut	-0.2325
-3.8811	gagal	-0.2950
-4.4832	gajelas	-0.2370
-4.1821	gaji	-0.2938
-4.4832	gajinya	-0.3001
-2.2710	gak	-0.5494
-4.4832	galak	-0.3009
-4.4832	galau	-0.2976
-4.4832	gamau	-0.2370
-4.4832	gambarnya	-0.2942
-3.5289	game	-0.3385
-4.4832	gamenya	-0.3003
-4.4832	gameplaynya	-0.2370
-4.4832	gaming	-0.3005
-4.4832	gamma	-0.2370
-3.4418	gampang	-0.2634
-4.4832	ganteng	-0.3007
-3.4832	ganti	-0.2790
-4.4832	ganyang	-0.2968
-3.7050	gapapa	-0.4094
-4.4832	gapernah	-0.3009
-4.0060	gara-gara	-0.2939
-4.1821	garingan	-0.2310
-3.7050	gatau	-0.2968
-4.4832	gataunya	-0.3008
-4.4832	gausah	-0.3007
-3.7842	gaya	-0.5212
-3.8811	gdp	-0.3616
-3.5801	gede	-0.2812
-4.4832	gedean	-0.3009
-4.4832	gedein	-0.3009
-4.0060	gedung	-0.2967
-4.4832	geek	-0.2370
-3.7050	gelap	-0.3011
-4.4832	gelut	-0.3007
-4.0060	gendut	-0.2349
-4.0060	geprek	-0.2948
-4.1821	gerak	-0.2370
-4.4832	gerakannya	-0.3003
-4.4832	gerbang	-0.3008
-4.4832	gercep	-0.3010
-4.4832	gereja	-0.2370
-4.4832	gestur	-0.3010
-4.4832	ghost	-0.2947
-3.5801	gi	-0.5294
-3.7050	gila	-0.3061
-4.1821	gili	-0.2994
-2.4661	gimana	-0.6315
-3.1407	gini	-0.4722
-4.1821	ginian	-0.5380
-2.1029	gitu	-0.5114
-3.7842	gitu-gitu	-0.3792
-4.1821	gitulah	-0.2370
-4.4832	go-food	-0.2972
-4.4832	goang	-0.3010
-4.1821	god	-0.2946
-4.1821	gofood	-0.2932
-4.0060	gojek	-0.2283
-4.4832	gombalnya	-0.2370
-3.8811	google	-0.2960
-4.4832	googling	-0.2976
-4.0060	gopay	-0.2946
-3.8811	goreng	-0.2323
-4.1821	gorengnya	-0.2360
-4.4832	goyang	-0.2965
-3.5289	grab	-0.2143
-4.4832	grabfood	-0.2370
-4.4832	gramedia	-0.2979
-4.4832	gratis	-0.2979
-4.4832	grebek	-0.2370
-3.7050	grup	-0.4044
-2.1291	gua	-0.4153
-4.4832	guanya	-0.3010
-2.9269	gue	-0.3894
-4.4832	gundik	-0.2370
-4.1821	gunung	-0.2976
-3.8811	guru	-0.4240
-4.4832	guys	-0.3006
-4.4832	gym	-0.3010
-4.0060	ha	-0.2318
-4.4832	habibi	-0.2977
-4.4832	habibinya	-0.2370
-3.0208	habis	-0.3521
-4.4832	habisin	-0.2997
-4.0060	hackathon	-0.2312
-3.7842	hackaton	-0.2306
-4.4832	hadiahnya	-0.2370
-4.4832	haduh	-0.3009
-3.4040	hah	-0.2323
-3.4418	haha	-0.9730
-3.5289	hahaha	-0.4838
-4.4832	hahahaha	-0.2370
-3.3692	hai	-0.2997
-4.0060	hak	-0.2906
-4.4832	hak-haknya	-0.3009
-3.5801	hal	-0.4175
-4.1821	halah	-0.3006
-3.8811	halaman	-0.3544
-4.0060	hallo	-0.3009
-4.1821	hallowen	-0.2364
-3.2527	halo	-0.2865
-4.4832	halu	-0.2976
-3.8811	hampir	-0.4255
-4.4832	hancur	-0.3003
-4.4832	hank	-0.3010
-4.1821	hans	-0.2369
-4.4832	hansnya	-0.3009
-4.1821	hanung	-0.6020
-3.2527	hanya	-0.4396
-3.7842	hape	-0.5173
-4.1821	harapan	-0.2370
-4.4832	hard	-0.3010
-4.4832	harga	-0.3010
-3.5289	harganya	-0.3496
-2.7273	hari	-0.6312
-3.7050	harry	-0.2233
-2.7123	harus	-0.2366
-4.4832	haruskah	-0.2943
-3.1821	harusnya	-0.4042
-4.1821	hasil	-0.3001
-4.4832	hasilnya	-0.2370
-3.7842	hati	-0.4509
-4.4832	haus	-0.2370
-4.4832	hawkeye	-0.2977
-4.0060	heboh	-0.2992
-3.8811	hedon	-0.2307
-4.4832	heeh	-0.3010
-4.4832	heh	-0.3010
-3.2044	hehe	-0.7252
-4.4832	hehehehehe	-0.2370
-4.4832	hei	-0.3010
-4.4832	helm	-0.2996
-3.5289	hem	-0.2737
-4.1821	hemat	-0.2987
-4.4832	hendak	-0.3006
-4.4832	henri	-0.3010
-4.0060	hey	-0.3005
-4.4832	hi	-0.3010
-3.7050	hidup	-0.3600
-4.0060	hidupnya	-0.2366
-4.4832	hih	-0.3010
-3.8811	hilang	-0.5346
-4.4832	himpunan	-0.3005
-4.1821	hingga	-0.3010
-4.4832	hire	-0.3010
-4.4832	hiruk-pikuk	-0.3010
-4.1821	hitam	-0.2952
-4.0060	hits	-0.2926
-4.4832	hitung	-0.2997
-4.1821	hitz	-0.2358
-4.4832	hm
-4.4832	hmif	-0.2965
-2.9150	hmm	-0.2520
-4.1821	hobi	-0.6020
-4.1821	hobiku	-0.6018
-3.7050	hobimu	-0.5965
-4.4832	hoo	-0.3010
-4.4832	hormat	-0.2988
-3.7842	horor	-0.3302
-4.1821	hotel	-0.2940
-3.7050	hp	-0.3747
-4.1821	hr	-0.2975
-4.4832	html	-0.2370
-4.4832	hubungannya	-0.3000
-3.7842	huh	-0.2878
-3.5289	hujan	-0.4082
-4.1821	hujannya	-0.3007
-3.8811	hulk	-0.2844
-4.4832	hungergames	-0.3009
-3.7050	hut	-0.3009
-4.4832	hutang	-0.2978
-4.4832	i	-0.3010
-4.1821	ia	-0.3001
-4.1821	ibaratnya	-0.3010
-3.5289	ibu	-0.4623
-4.4832	ibuku	-0.2942
-4.1821	ibunya	-0.3006
-4.4832	id	-0.2370
-3.3692	ide	-0.3487
-4.4832	identification	-0.3003
-4.4832	identifikasi	-0.2965
-4.4832	identitas	-0.3010
-4.0060	idenya	-0.2937
-4.4832	if50xx	-0.2370
-4.4832	ig	-0.3010
-3.2790	ih	-0.3835
-4.4832	iit	-0.2370
-4.1821	ijin	-0.3008
-4.4832	ijo	-0.2984
-4.4832	ikan	-0.2994
-2.7672	ikut	-0.4057
-4.1821	ikut-ikut	-0.2960
-4.0060	ikutan	-0.2981
-4.4832	ikuti	-0.3001
-4.1821	ikutnya	-0.2994
-4.1821	ilang	-0.2930
-4.4832	ilegal	-0.2987
-4.4832	ilmu	-0.3007
-4.4832	ilustrasinya	-0.2370
-4.0060	imagine	-0.7781
-4.4832	imajinasinya	-0.2959
-4.4832	imigrasi	-0.2985
-4.4832	implementasinya	-0.2968
-4.4832	incredible	-0.3010
-4.0060	indah	-0.7141
-3.7842	india	-0.3236
-4.4832	indianya	-0.2959
-4.4832	indigo	-0.2370
-4.4832	indomaret	-0.2968
-3.4418	indonesia	-0.3101
-4.1821	industri	-0.3009
-4.1821	info	-0.5952
-4.4832	infonya	-0.3000
-4.4832	informasi	-0.3003
-4.4832	informasinya	-0.2985
-4.1821	informatika	-0.5380
-3.7842	ingat	-0.2781
-4.4832	ingat-ingat	-0.2979
-3.4040	inget	-0.3502
-4.0060	inggris	-0.2936
-3.5801	ingin	-0.3563
-4.4832	inginkan	-0.2370
-4.4832	inginku	-0.3010
-2.0550	ini	-0.3045
-4.4832	inilah	-0.2942
-4.4832	inisiasi	-0.2999
-4.4832	inisiatif	-0.3006
-4.4832	innovation	-0.2370
-4.4832	input	-0.3010
-4.4832	inspirasi	-0.2992
-4.4832	instagram	-0.3010
-4.4832	install	-0.3003
-3.6381	instan	-0.2903
-4.4832	institut	-0.3009
-4.1821	insya	-0.6020
-4.4832	insyaallah	-0.2370
-4.4832	integrity	-0.3010
-4.4832	interaksi	-0.3009
-3.4418	intern	-0.4078
-3.8811	internet	-0.3543
-4.4832	interview	-0.3004
-4.0060	intinya	-0.2335
-4.4832	intipin	-0.2997
-4.4832	inventorisnya	-0.3010
-4.4832	inventory	-0.2971
-4.1821	investasi	-0.2980
-4.4832	iphone	-0.3003
-3.7842	iqbal	-0.2932
-4.0060	ir	-0.4086
-4.4832	iri	-0.3003
-4.4832	iron	-0.3010
-4.0060	iseng	-0.2241
-3.4832	isi	-0.2988
-4.4832	isiin	-0.3010
-4.0060	isinya	-0.2365
-4.4832	iso	-0.2370
-4.4832	istirahat	-0.2370
-4.0060	istri	-0.2968
-4.4832	istriku	-0.2370
-3.7050	itb	-0.2273
-1.9269	itu	-0.3144
-4.4832	itu-itu	-0.2968
-4.4832	itulah	-0.2942
-4.1821	itung	-0.2966
-4.4832	itungannya	-0.2370
-4.4832	itunya	-0.2370
-4.1821	ivan	-0.2977
-2.0665	iya	-0.4390
-4.1821	iya-iya	-0.5982
-4.4832	iyalah	-0.2992
-4.1821	iye	-0.3009
-3.6381	izin	-0.2290
-4.4832	j	-0.2370
-2.1139	jadi	-0.2409
-4.4832	jadiin	-0.3003
-3.5289	jadinya	-0.2327
-4.1821	jadwal	-0.3010
-4.4832	jadwalkan	-0.3009
-4.4832	jadwalnya	-0.3010
-4.1821	jaga	-0.2370
-4.4832	jaga-jaga	-0.2968
-4.4832	jaganya	-0.2370
-4.4832	jago	-0.3010
-4.1821	jahat	-0.2992
-3.3071	jakarta	-0.3552
-3.0208	jalan	-0.4480
-3.5289	jalan-jalan	-0.4011
-4.0060	jalanan	-0.2954
-4.4832	jalanin	-0.3010
-4.4832	jalannya	-0.3010
-4.1821	jalur	-0.2369
-4.4832	jalurnya	-0.3010
-2.6023	jam	-0.6089
-3.8811	jaman	-0.6004
-4.1821	jamin	-0.2970
-4.4832	jamnya	-0.2985
-3.0208	jangan	-0.3137
-4.4832	janganlah	-0.3008
-4.4832	janjian	-0.3008
-3.5801	januari	-0.4363
-4.1821	jaraknya	-0.6017
-3.5801	jarang	-0.4929
-4.1821	jarang-jarang	-0.2965
-4.4832	jason	-0.2370
-4.4832	jato	-0.2995
-4.0060	jatuh	-0.2363
-4.4832	jatuhi	-0.3009
-4.4832	jatuhnya	-0.2370
-3.2044	jauh	-0.2533
-4.0060	jauh-jauh	-0.4128
-4.0060	jawa	-0.4686
-3.7842	jawab	-0.3304
-4.4832	jawabnya	-0.2979
-4.1821	jebol	-0.2930
-3.7842	jelas	-0.2961
-4.1821	jelasin	-0.2972
-3.7842	jelaskan	-0.2323
-4.4832	jelaslah	-0.2987
-3.7842	jelek	-0.3851
-4.4832	jem	-0.2998
-4.4832	jempol	-0.2370
-4.1821	jen	-0.5380
-3.7842	jendela	-0.4552
-3.7842	jendelanya	-0.3878
-4.0060	jenguk	-0.2926
-4.1821	jenis	-0.2903
-4.1821	jenisnya	-0.3009
-4.4832	jenius	-0.3010
-4.4832	jenjang	-0.3010
-3.8811	jepang	-0.2319
-3.5801	jerit	-0.5290
-4.4832	jerman	-0.2370
-4.1821	jessin	-0.2949
-4.4832	jessy	-0.2370
-3.5801	ji	-0.5257
-3.7050	jika	-0.3693
-4.4832	jinak	-0.3001
-4.4832	jingga	-0.2370
-3.8811	jiwa	-0.6017
-4.1821	jo	-0.2334
-4.4832	joget	-0.3006
-4.1821	jogja	-0.2326
-4.0060	joker	-0.2944
-3.4418	joni	-0.4924
-4.1821	jorok	-0.2310
-4.4832	josep	-0.2975
-3.7842	jual	-0.3903
-3.4832	jualan	-0.6972
-4.4832	jualnya	-0.2942
-4.4832	juara	-0.3010
-4.0060	judul	-0.2960
-4.4832	judulnya	-0.3006
-2.0616	juga	-0.4157
-4.1821	jujur	-0.2985
-3.5289	juli	-0.4047
-4.4832	julitin	-0.3005
-3.4832	jumat	-0.3804
-4.4832	juminten	-0.2965
-3.7842	jumpa	-0.4552
-3.7050	jurusan	-0.3680
-4.0060	jus	-0.2314
-4.4832	just	-0.3009
-4.0060	justru	-0.2953
-4.4832	justus	-0.2998
-4.0060	juta	-0.2330
-4.4832	jutaan	-0.2998
-4.4832	ka	-0.3010
-3.5801	kabar	-0.4284
-4.4832	kabar-kabarin	-0.2968
-4.1821	kabari	-0.2942
-4.0060	kabarin	-0.2285
-4.4832	kabarmu	-0.2370
-4.0060	kabarnya	-0.4130
-4.4832	kabur	-0.2370
-4.4832	kacang	-0.2370
-4.1821	kacau	-0.2908
-3.4418	kadang	-0.3773
-4.4832	kadang-kadang	-0.2988
-4.0060	kado	-0.4693
-4.4832	kafe	-0.3006
-4.0060	kaga	-0.2297
-3.8811	kaget	-0.3619
-4.1821	kagum	-0.2979
-4.1821	kak	-0.2887
-3.7842	kakak	-0.3886
-4.4832	kakap	-0.2370
-3.4040	kakek	-0.5193
-4.4832	kakek-kakek	-0.2994
-3.7050	kaki	-0.4117
-4.4832	kakiku	-0.2370
-4.4832	kakinya	-0.2370
-4.4832	kalah	-0.2370
-2.2928	kalau	-0.4575
-4.4832	kalender	-0.3010
-2.9269	kali	-0.3769
-2.8921	kalian	-0.3552
-4.4832	kalibr	-0.2370
-4.0060	kalimat	-0.2921
-4.4832	kalimatnya	-0.2976
-3.5801	kalinya	-0.5240
-4.4832	kalkulus	-0.2998
-2.2845	kalo	-0.4663
-3.4832	kamar	-0.2211
-4.1821	kamarnya	-0.2997
-4.4832	kamera	-0.3009
-3.1407	kami	-0.3002
-3.8811	kamis	-0.2966
-4.4832	kampong
-3.3370	kampung	-0.6787
-4.1821	kampungnya	-0.5998
-3.1609	kampus	-0.4206
-2.0470	kamu	-0.3669
-1.9848	kan	-0.4140
-4.1821	kanan	-0.2964
-4.4832	kangen	-0.2947
-3.7842	kantin	-0.3337
-3.8811	kantor	-0.2313
-4.4832	kantu	-0.2956
-3.8811	kanvas	-0.3618
-4.4832	kapal	-0.3007
-3.1029	kapan	-0.3337
-4.0060	kapan-kapan	-0.2339
-4.1821	kapok	-0.2370
-3.5289	kapten	-0.9541
-3.7050	karakter	-0.4767
-3.8811	karang	-0.9030
-4.4832	karangan	-0.3010
-3.5801	karaoke	-0.3483
-4.4832	karaokenya	-0.2987
-2.6838	karena	-0.2801
-4.4832	karet	-0.2370
-3.5289	karna	-0.2791
-4.1821	kartu	-0.2942
-4.4832	kartun	-0.2975
-4.4832	karya	-0.3010
-4.0060	kasar	-0.4112
-3.8811	kasian	-0.2940
-3.1407	kasih	-0.3802
-3.7842	kasihan	-0.2283
-4.4832	kasir	-0.3005
-4.4832	kasur	-0.2956
-4.0060	kasus	-0.2325
-4.4832	kasusnya	-0.2370
-3.2790	kata	-0.4223
-4.4832	kata-kata	-0.2956
-4.1821	kata-katanya	-0.2975
-2.9517	katanya	-0.4143
-4.4832	katsu	-0.2370
-3.2527	kau	-0.3671
-4.4832	kawan-kawannya	-0.2959
-2.8704	kaya	-0.2307
-2.6258	kayak	-0.3536
-2.9780	kayaknya	-0.3339
-3.1821	kayanya	-0.2859
-4.1821	kayu	-0.2965
-2.1672	ke	-0.5348
-4.1821	keadaan	-0.2990
-4.4832	keadaannya	-0.3010
-4.4832	keadilan	-0.2956
-4.1821	keakraban	-0.2905
-4.4832	kebaca	-0.2370
-4.4832	kebagian	-0.3004
-4.1821	kebaktian	-0.2955
-4.4832	kebanggannya	-0.3010
-4.4832	kebangun	-0.2972
-3.5801	kebanyakan	-0.2974
-4.4832	kebawah
-4.0060	kebayang	-0.2910
-3.6381	kebetulan	-0.2830
-4.4832	kebohongan	-0.2370
-4.4832	kebon	-0.3010
-4.4832	kebuka	-0.2976
-4.4832	kecantikanmu	-0.2370
-4.4832	kecepatan	-0.3010
-3.4040	kecil	-0.5203
-4.4832	kecil-kecil	-0.3010
-4.4832	kecuali	-0.3003
-4.4832	kedengarannya	-0.3008
-3.8811	kediri	-0.2290
-4.0060	kedua	-0.2918
-4.1821	keduanya	-0.2958
-4.4832	kegedean	-0.2370
-4.0060	kegiatan	-0.4741
-4.4832	kehadiran	-0.3010
-3.8811	kehidupan	-0.2301
-4.4832	kehilangan	-0.3010
-4.4832	keisengan	-0.3010
-4.4832	keisya	-0.3010
-3.4832	kejadian	-0.3855
-4.1821	kejahatan	-0.2307
-4.4832	kejar	-0.3010
-4.4832	kejaran	-0.2985
-4.4832	kejebak	-0.2956
-4.0060	keju	-0.2930
-4.4832	keju-keju	-0.3006
-4.4832	kekalutan	-0.3010
-4.1821	kekuatan	-0.3010
-4.4832	kelahirannya	-0.3004
-4.4832	kelamaan	-0.3003
-3.5289	kelar	-0.2691
-4.4832	kelarin	-0.2977
-2.7273	kelas	-0.3500
-3.5801	kelasnya	-0.5040
-4.4832	kelemahannya	-0.2979
-4.4832	kelewat	-0.2370
-3.8811	kelewatan	-0.3558
-3.8811	keliatan	-0.2330
-3.7842	kelihatan	-0.3310
-4.1821	kelihatannya	-0.2357
-3.2044	kelompok	-0.3158
-4.4832	kelompoknya	-0.2975
-3.3692	keluar	-0.3420
-4.4832	keluar-keluar	-0.2972
-4.4832	keluaran	-0.3010
-3.3370	keluarga	-0.4126
-4.4832	keluargaku	-0.3009
-4.1821	keluarganya	-0.2989
-4.4832	keluarin	-0.3010
-4.4832	keluarnya	-0.3010
-4.4832	keluguan	-0.3008
-4.0060	kemah	-0.4764
-4.4832	kemahalan	-0.2984
-4.4832	kemahasiswaan	-0.3005
-4.4832	kemahnya	-0.2975
-3.0360	kemana	-0.6171
-4.1821	kemana-mana	-0.2297
-3.0360	kemaren	-0.3840
-2.8019	kemarin	-0.3901
-3.5801	kembali	-0.5319
-4.4832	kembalinya	-0.2977
-4.4832	kemudian	-0.2956
-4.1821	kemungkinan	-0.2369
-3.4832	kena	-0.6007
-4.1821	kenal	-0.5380
-4.4832	kenalan	-0.2976
-4.1821	kenalin	-0.2939
-2.7756	kenapa	-0.4364
-4.4832	kenceng	-0.2992
-4.4832	kening	-0.2971
-3.7050	kentang	-0.2353
-4.0060	kenyang	-0.2321
-4.4832	kenyataan	-0.2370
-4.0060	keos	-0.2365
-4.4832	kepada	-0.3005
-4.1821	kepala	-0.5380
-4.0060	kepentingan	-0.2971
-4.4832	kepikiran	-0.2977
-4.4832	kepolisian	-0.3001
-4.1821	kepribadian	-0.2364
-4.1821	kepuasan	-0.6012
-4.1821	keras	-0.2370
-4.4832	kerasa	-0.3008
-3.8811	kerbau	-0.5994
-4.1821	kerbaunya	-0.5380
-3.2527	keren	-0.4033
-3.8811	keren-keren	-0.2285
-3.8811	kereta	-0.2292
-4.1821	keringin	-0.2955
-3.3071	kerja	-0.4941
-3.5801	kerjaan	-0.3434
-4.4832	kerjaanmu	-0.3010
-4.4832	kerjaannya	-0.3006
-3.5289	kerjain	-0.4727
-4.0060	kerjakan	-0.2955
-4.4832	kerjakn	-0.2981
-4.4832	kerjanya	-0.2979
-4.1821	kertas	-0.2974
-4.4832	kerusakan	-0.2370
-4.1821	kesalahan	-0.2369
-3.2527	kesana	-0.2825
-4.4832	kesederhanaan	-0.2994
-4.4832	kesedihannya	-0.2965
-4.1821	kesel	-0.2976
-4.1821	keseluruhan	-0.2989
-4.4832	keseluruhannya	-0.3007
-4.4832	kesempatan	-0.2959
-4.4832	kesepian	-0.2370
-4.4832	kesiangan	-0.2965
-4.0060	kesini	-0.2357
-4.1821	ketagihan	-0.2345
-4.4832	ketakutan	-0.2959
-4.4832	ketawa	-0.2370
-4.4832	ketempat	-0.2942
-3.0852	ketemu	-0.4938
-4.1821	ketemuan	-0.2955
-4.4832	ketemuannya	-0.3004
-4.0060	ketiduran	-0.2332
-4.0060	ketiga	-0.2361
-4.1821	ketika	-0.5981
-4.4832	ketinggalan	-0.2956
-4.1821	ketua	-0.3009
-4.4832	ketuker	-0.2370
-4.4832	ketutup	-0.2985
-4.4832	kevin	-0.2370
-4.4832	key	-0.3009
-4.4832	kfc	-0.3010
-4.4832	khan	-0.2370
-3.8811	khas	-0.9014
-4.0060	khawatir	-0.4052
-4.4832	khusus	-0.3003
-4.4832	kiamat	-0.3005
-4.4832	kikuk	-0.2976
-4.4832	kilo	-0.2998
-4.1821	kilometer	-0.5380
-4.1821	king	-0.2368
-4.1821	kini	-0.2360
-3.3071	kira	-0.3765
-3.4418	kira-kira	-0.3084
-4.4832	kirain	-0.2943
-4.4832	kirana	-0.2994
-4.4832	kiri	-0.2370
-4.1821	kit	-0.5380
-2.1693	kita	-0.3237
-4.4832	kk	-0.2370
-4.4832	klimaks	-0.2994
-3.6381	ko	-0.2932
-4.4832	kobe	-0.2947
-4.4832	kocak	-0.2370
-4.4832	kode-kodenya	-0.2981
-4.4832	kodenya	-0.3006
-4.4832	koding	-0.2968
-2.6381	kok	-0.4324
-4.4832	kolam	-0.2965
-4.4832	kolongnya	-0.2976
-4.4832	kolonial	-0.3007
-4.1821	kolonialisme	-0.2983
-4.4832	kom	-0.3002
-4.4832	kombinasi	-0.3009
-4.4832	komedi	-0.2977
-4.1821	komik	-0.2915
-4.1821	komite	-0.2958
-4.1821	komposisi	-0.3009
-4.1821	komprehensif	-0.5986
-4.4832	komputasi	-0.3010
-4.0060	komputer	-0.4092
-4.4832	komputil	-0.3010
-4.4832	komunikasi	-0.3003
-4.1821	kondisi	-0.2958
-4.4832	koneksinya	-0.2370
-4.4832	konsentrasi	-0.2994
-4.4832	konsep	-0.3010
-4.1821	konser	-0.2986
-4.4832	konspirasi	-0.2942
-4.4832	kontennya	-0.2975
-4.4832	kontrolnya	-0.2959
-4.0060	kopi	-0.2985
-4.4832	kopinya	-0.2972
-4.1821	korban	-0.6020
-3.8811	korea	-0.2320
-4.4832	kos	-0.2370
-3.1821	kosan	-0.5157
-3.7050	kosong	-0.3065
-3.5801	kota	-0.4325
-4.4832	kotak	-0.2370
-4.1821	kotanya	-0.2969
-3.8811	kotor	-0.2287
-3.3692	kp	-0.3287
-4.4832	kpnya	-0.2965
-4.4832	kreatif	-0.2992
-3.7842	krim	-0.3247
-4.1821	krimnya	-0.5380
-4.4832	kru	-0.3007
-4.4832	ktp	-0.2994
-3.5289	ku	-0.2298
-4.4832	kuah	-0.2985
-4.4832	kualitasnya	-0.2985
-3.8811	kuantum	-0.3545
-4.4832	kuantumnya	-0.2959
-3.7050	kuat	-0.2254
-3.7050	kucek	-0.4093
-4.0060	kucing	-0.2301
-4.4832	kucingnya	-0.3010
-4.4832	kuduga	-0.3008
-3.8811	kue	-0.3607
-4.4832	kuhasut	-0.2984
-4.4832	kuizo	-0.3004
-4.4832	kukabari	-0.2979
-4.4832	kukira	-0.3008
-3.1821	kuliah	-0.3168
-4.1821	kuliahan	-0.5986
-4.4832	kulit	-0.3009
-4.1821	kumpul	-0.3010
-4.1821	kumpulin	-0.2365
-4.1821	kunci	-0.2970
-4.4832	kunciin	-0.2994
-4.1821	kuning	-0.2975
-4.4832	kunjungan	-0.2981
-4.1821	kunjungi	-0.6019
-4.1821	kuota	-0.2897
-3.0518	kurang	-0.4076
-4.4832	kurintis	-0.2370
-4.1821	kursus	-0.2368
-4.4832	kusampaikan	-0.2370
-4.4832	kutipan	-0.3010
-3.7050	la	-0.2944
-4.4832	lab	-0.2996
-4.4832	label	-0.2370
-4.4832	labnya	-0.2979
-4.1821	labs	-0.2369
-4.1821	labtek	-0.6014
-4.4832	laen	-0.2370
-2.1507	lagi	-0.3610
-3.7842	lagian	-0.3893
-3.7050	lagu	-0.3159
-4.4832	lagunya	-0.2370
-2.5338	lah	-0.4830
-4.4832	lahiran	-0.3006
-2.9918	lain	-0.3673
-3.7842	lainnya	-0.9360
-4.1821	lakuin	-0.2310
-3.8811	lakukan	-0.5379
-3.2044	lalu	-0.5449
-3.0518	lama	-0.3338
-4.4832	lamaku	-0.3009
-4.4832	lamaran	-0.2370
-4.0060	lambat	-0.4112
-4.1821	lambung	-0.5380
-4.0060	lampu	-0.4112
-3.8811	lampunya	-0.2353
-4.1821	lancar-lancar	-0.5978
-4.4832	langitnya	-0.2975
-2.9646	langsung	-0.3036
-3.6381	lanjut	-0.2965
-4.4832	lanjutannya	-0.2985
-4.1821	lanjutin	-0.2977
-3.8811	lantai	-0.2960
-4.4832	lantas	-0.3007
-4.4832	lapan	-0.3003
-4.4832	lapangan	-0.2370
-3.7842	lapar	-0.3276
-3.4418	laper	-0.5739
-3.6381	laporan	-0.2219
-4.0060	laporannya	-0.4072
-4.4832	laporkan	-0.2981
-3.4040	laptop	-0.2899
-4.0060	laptopnya	-0.2951
-4.4832	larangan	-0.2965
-4.4832	large	-0.2985
-4.0060	lari	-0.2938
-4.4832	lari-lari	-0.2370
-4.4832	larut	-0.2992
-4.4832	latar	-0.3009
-3.7842	latian	-0.3301
-4.1821	latihan	-0.2958
-4.1821	latihannya	-0.2364
-4.1821	lauknya	-0.6016
-3.7842	laut	-0.9360
-4.4832	lautnya	-0.2972
-4.4832	le	-0.2370
-4.4832	lebay	-0.2968
-2.7756	lebih	-0.3503
-4.4832	lee	-0.3010
-4.4832	lega	-0.3010
-4.4832	legal	-0.3010
-4.4832	legendaris	-0.2370
-4.4832	leher	-0.2987
-4.4832	lehernya	-0.2987
-4.4832	leksikonnya	-0.2370
-4.1821	lelah	-0.5969
-4.4832	lelet	-0.2992
-4.1821	lembaga	-0.2941
-4.1821	lembang	-0.2946
-3.7050	lembar	-0.4757
-4.4832	lempar	-0.2968
-3.8811	len	-0.5380
-4.4832	lengkap	-0.2997
-4.4832	level	-0.3003
-3.7842	lewat	-0.3000
-4.4832	lezat	-0.2370
-4.1821	lho	-0.2995
-4.4832	li	-0.2370
-3.3071	liat	-0.3973
-4.4832	liat-liat	-0.3010
-4.0060	liatnya	-0.4701
-4.4832	lib	-0.3004
-4.4832	libu	-0.2981
-3.7050	libur	-0.2909
-3.0360	liburan	-0.5423
-4.4832	liciknya	-0.2370
-2.9269	lihat	-0.3999
-4.4832	lihatlah	-0.3010
-4.1821	lihatnya	-0.2947
-2.8111	lima	-0.5585
-4.4832	lin	-0.2370
-3.8811	line	-0.3520
-4.4832	link	-0.3003
-4.1821	list	-0.2318
-3.1609	lix	-0.4981
-2.7930	lo	-0.3462
-4.4832	logact	-0.2370
-4.4832	logika	-0.3010
-2.7930	loh	-0.4810
-4.4832	lokal	-0.2975
-4.4832	lokasi	-0.3010
-4.1821	lokasinya	-0.2307
-4.0060	loket	-0.4702
-4.4832	loki	-0.2370
-2.9517	lomba	-0.3849
-3.8811	lombanya	-0.2244
-3.4832	lombok	-0.4463
-4.0060	loss	-0.2367
-4.1821	louis	-0.2930
-4.4832	lowongan	-0.3010
-2.3828	lu	-0.3620
-3.5289	luar	-0.4004
-4.4832	luarnya	-0.2370
-4.0060	luas	-0.2977
-4.4832	lubuk	-0.3010
-3.2790	lucu	-0.3241
-4.0060	lucunya	-0.2325
-4.4832	luka	-0.2976
-4.4832	lukisanmu	-0.2959
-3.5801	lulus	-0.3607
-4.0060	lulusnya	-0.2368
-3.0518	lumayan	-0.4875
-4.4832	lunak	-0.2994
-3.1609	lupa	-0.4188
-4.0060	m	-0.2945
-3.6381	ma	-0.2276
-3.3692	maaf	-0.4830
-4.1821	maafin	-0.2961
-3.7842	maap	-0.2905
-4.1821	maba	-0.2370
-3.7050	macam	-0.2351
-4.4832	macbook	-0.2370
-4.1821	macem	-0.5380
-4.1821	macem-macem	-0.2943
-3.5801	macet	-0.4259
-4.4832	macet-macetan	-0.3010
-4.1821	macetnya	-0.5380
-4.0060	magang	-0.2329
-4.0060	mager	-0.2313
-3.2790	mah	-0.3148
-3.2790	mahal	-0.3052
-4.1821	mahal-mahal	-0.2954
-4.0060	mahasiswa	-0.2972
-4.4832	mahasiswanya	-0.3010
-4.4832	mahkamah	-0.3010
-3.1407	main	-0.2542
-4.4832	mainstream	-0.2992
-4.4832	mak	-0.2370
-4.1821	maka	-0.6013
-4.4832	makalah	-0.3010
-2.4339	makan	-0.4600
-3.7050	makan-makan	-0.3125
-2.9918	makanan	-0.4368
-3.5801	makanannya	-0.5934
-3.7842	makannya	-0.2964
-3.4040	makanya	-0.2879
-3.5289	makasih	-0.4815
-3.7842	make	-0.3978
-4.0060	makhluk	-0.4702
-3.3071	makin	-0.4308
-4.4832	maksa-maksa	-0.2976
-4.1821	maksimal	-0.2367
-4.4832	maksimalkan	-0.3010
-3.7842	maksud	-0.4561
-4.4832	maksudku	-0.2370
-3.1821	maksudnya	-0.3762
-3.2527	malah	-0.3407
-4.4832	malahan	-0.2943
-3.1214	malam	-0.3285
-4.1821	malamnya	-0.2329
-4.4832	malas	-0.3007
-3.3071	malem	-0.3820
-3.6381	males	-0.3750
-4.4832	maling	-0.2370
-3.7050	mall	-0.2858
-4.4832	malunya	-0.2979
-3.5801	mama	-0.3489
-3.8811	mamanya	-0.3579
-3.8811	mampir	-0.4153
-4.4832	mampu	-0.3008
-4.1821	man	-0.2960
-2.7756	mana	-0.5256
-4.4832	mana-mana	-0.2965
-4.1821	manager	-0.2993
-4.4832	mandi	-0.2370
-4.4832	maneh	-0.2370
-4.1821	manggil	-0.2991
-3.7050	manis	-0.2250
-3.4832	mantap	-0.4527
-4.4832	mantep	-0.2370
-3.4832	manusia	-0.2213
-3.7842	mao	-0.2961
-4.4832	mapo	-0.3008
-3.6381	marah	-0.3548
-4.4832	maret	-0.3010
-4.0060	mari	-0.4769
-4.1821	mark	-0.5380
-4.4832	marnat	-0.3006
-3.4040	martabak	-0.3471
-4.4832	martabaknya	-0.3010
-4.1821	marvel	-0.2367
-2.5747	mas	-0.5366
-3.0360	masa	-0.3934
-3.4832	masak	-0.2942
-4.1821	masakan	-0.2941
-4.4832	masako	-0.3001
-4.4832	masala	-0.3009
-3.3692	masalah	-0.3325
-4.0060	masalahnya	-0.2339
-2.5747	masih	-0.3922
-4.4832	masing
-3.7842	masing-masing	-0.3958
-3.1821	masuk	-0.3403
-4.4832	masukannya	-0.2979
-4.1821	masukin	-0.2968
-4.4832	masukkin	-0.3010
-4.4832	masukkinnya	-0.2981
-4.4832	masyarakat	-0.2942
-3.4418	mata	-0.4932
-4.1821	matah	-0.2968
-4.4832	matahari	-0.3010
-4.4832	matanya	-0.2370
-3.8811	matematik	-0.2829
-3.7842	matematika	-0.3863
-3.8811	materi	-0.2890
-4.4832	materialnya	-0.3005
-4.4832	materinya	-0.2972
-3.5801	mati	-0.2195
-4.4832	matiin	-0.3010
-4.0060	matkul	-0.3010
-2.1139	mau	-0.4270
-4.4832	maudy	-0.3010
-4.4832	maunya	-0.2994
-4.4832	mayan	-0.2998
-4.4832	mb	-0.3010
-4.1821	mbd	-0.2935
-4.1821	mcd	-0.2907
-4.4832	media	-0.2976
-4.4832	meeting	-0.2985
-4.4832	megang	-0.3010
-4.4832	mekanik	-0.3010
-4.0060	melakukan	-0.2999
-4.4832	melalui	-0.3010
-4.4832	melamar	-0.2981
-3.8811	melanjutkan	-0.6019
-3.8811	melelahkan	-0.5380
-4.4832	meleleh	-0.2992
-4.4832	melempar	-0.3010
-3.7842	melihat	-0.3946
-4.4832	melingkupi	-0.3010
-4.0060	melukis	-0.2370
-4.4832	memainkan	-0.3009
-4.4832	memakai	-0.3008
-4.1821	memaksa	-0.3002
-3.3370	memanah	-0.5866
-4.4832	memancing	-0.2971
-4.1821	memanen	-0.6020
-3.1609	memang	-0.3013
-3.4832	memangnya	-0.3796
-4.4832	memaparkan	-0.3008
-4.1821	memarkirkan	-0.6020
-4.4832	membahas	-0.2999
-3.7842	membantu	-0.3955
-4.4832	membantumu	-0.3010
-4.4832	membasmi	-0.3010
-4.4832	membawakan	-0.3009
-4.4832	membeli	-0.3007
-4.0060	member	-0.2918
-4.1821	memberi	-0.2999
-4.4832	membernya	-0.2370
-4.4832	membicarakan	-0.3010
-3.3071	membuat	-0.4267
-4.1821	membuatnya	-0.2326
-4.4832	membutuhkan	-0.3010
-4.4832	memenangkan	-0.3010
-4.4832	memerangi	-0.3010
-4.4832	memerintah	-0.2370
-4.1821	memilih	-0.3007
-3.8811	memiliki	-0.4246
-4.4832	mempelajari	-0.2994
-4.4832	mempelajarinya	-0.2956
-4.4832	memperjuangkan	-0.3010
-4.4832	memperkenalkan	-0.2971
-4.4832	memperlihatkan	-0.3008
-4.4832	mempertahankan	-0.3010
-4.4832	memuaskan	-0.3001
-4.4832	memungkinkan	-0.2965
-4.4832	memvisualisasikan	-0.3010
-4.1821	menambah	-0.6020
-4.1821	menambal	-0.6020
-4.0060	menanam	-0.4770
-4.1821	menang	-0.2329
-3.2527	menarik	-0.4853
-4.4832	mencapai	-0.3010
-4.4832	mencari	-0.3007
-4.4832	menceritakan	-0.3008
-4.4832	mencetak	-0.2976
-4.0060	mencoba	-0.3005
-4.1821	mendadak	-0.2925
-4.1821	mendaftar	-0.2365
-4.1821	mendapatkan	-0.3010
-4.4832	mendefinisikan	-0.3010
-4.4832	mendekati	-0.2370
-4.4832	mendengarkan	-0.2370
-3.3071	mending	-0.3730
-3.6381	mendingan	-0.2891
-4.4832	mendiriin	-0.3010
-4.4832	mendirikan	-0.3010
-4.1821	mendorong	-0.6019
-4.1821	menebaknya	-0.2365
-3.8811	menemukan	-0.4259
-4.0060	mengajar	-0.3006
-4.4832	mengalah	-0.2968
-4.1821	mengalahkan	-0.6018
-4.4832	mengalami	-0.2370
-4.1821	mengambil	-0.3008
-4.4832	menganggap	-0.3010
-4.4832	menganggur	-0.2370
-4.1821	mengantar	-0.3009
-4.4832	mengantarmu	-0.3008
-4.1821	mengarah	-0.2979
-4.4832	mengarahkan	-0.3010
-4.1821	mengayuhkan	-0.6020
-4.1821	mengelilingi	-0.6020
-4.4832	mengemasnya	-0.2994
-4.4832	mengemudi	-0.2947
-4.4832	mengenai	-0.3010
-4.4832	mengenalkan	-0.3007
-4.0060	mengendarai	-0.7780
-3.7842	mengerjakan	-0.5223
-4.4832	mengerti	-0.2370
-4.4832	mengetahui	-0.3003
-4.4832	menggambarkan	-0.3008
-4.4832	menggeliat	-0.2999
-4.4832	menggelinding	-0.2994
-4.4832	menggendarai	-0.3009
-3.8811	menggunakan	-0.4256
-4.4832	menghabiskan	-0.3004
-4.4832	menghadap	-0.2981
-4.4832	menghadapi	-0.3010
-4.4832	menghasilkan	-0.3010
-4.1821	mengikuti	-0.2990
-4.4832	mengingatkan	-0.3005
-4.4832	menginjak	-0.2370
-4.4832	mengirim	-0.3010
-4.1821	menguap	-0.2351
-4.1821	menguasai	-0.3002
-4.4832	mengucapkan	-0.3010
-4.4832	mengunjungi	-0.3009
-4.4832	menguras	-0.3010
-4.4832	mengurus	-0.3009
-4.1821	menikah	-0.2361
-4.4832	menikmati	-0.3010
-4.4832	mening	-0.3010
-4.4832	meninggal	-0.2956
-4.4832	meninggalkan	-0.3005
-3.1214	menit	-0.4613
-4.4832	menitan	-0.3003
-3.7050	menjadi	-0.3005
-4.4832	menjadikan	-0.3003
-4.4832	menjalani	-0.3010
-4.4832	menjawab	-0.2370
-4.4832	menjemputmu	-0.2999
-4.1821	menjenguk	-0.6019
-4.1821	menonton	-0.3009
-4.4832	menontonnya	-0.2994
-4.1821	mentok-mentok	-0.2940
-4.4832	mentor	-0.3009
-4.4832	mentornya	-0.2959
-4.4832	menu	-0.2942
-4.1821	menunggu	-0.3007
-4.4832	menunjukkan	-0.3009
-4.1821	menuntun	-0.6019
-4.4832	menunya	-0.2370
-4.4832	menuruni	-0.3010
-3.3370	menurut	-0.6537
-4.1821	menurutku	-0.2993
-4.4832	menurutmu	-0.2370
-4.4832	meny	-0.3010
-4.4832	menyapa	-0.3003
-4.4832	menyarankan	-0.3005
-4.4832	menyatu	-0.3009
-4.4832	menyebabkan	-0.3007
-4.1821	menyebalkan	-0.2993
-4.0060	menyediakan	-0.4733
-3.8811	menyelam	-0.5380
-4.4832	menyelesaikan	-0.3010
-3.8811	menyenangkan	-0.3543
-4.4832	menyengat	-0.2992
-4.4832	menyesal	-0.2370
-4.4832	menyesuaiakan	-0.3010
-4.4832	menyesuaikan	-0.3010
-4.4832	menyiapkan	-0.3010
-4.1821	menyukai	-0.3010
-4.4832	mepet	-0.2965
-4.0060	merah	-0.2900
-4.4832	merahnya	-0.3007
-4.4832	merasa	-0.2370
-4.4832	merayakan	-0.3002
-4.1821	merek	-0.2991
-2.8921	mereka	-0.2711
-4.1821	merendah	-0.2957
-4.4832	merepotkan	-0.2370
-4.4832	meriah	-0.2984
-4.4832	mertua	-0.2979
-3.7842	mesen	-0.3301
-4.1821	mesennya	-0.5380
-4.4832	mesinnya	-0.3010
-3.4832	meskipun	-0.3393
-4.1821	metode	-0.3010
-4.4832	mewah	-0.2370
-4.4832	mewek	-0.2370
-4.4832	mi	-0.3010
-4.4832	microsoft	-0.3010
-3.5801	mie	-0.9023
-4.4832	mikir	-0.3008
-4.1821	mikirnya	-0.2974
-4.4832	milea	-0.2370
-4.0060	milih	-0.2992
-4.4832	milik	-0.2981
-4.4832	milimeter	-0.3009
-4.4832	mimpi	-0.2988
-4.4832	ming	-0.3010
-2.8811	minggu	-0.6975
-4.0060	mini	-0.4701
-4.4832	mini-mini	-0.2370
-4.4832	minimal	-0.2996
-3.8811	mining	-0.2311
-4.4832	minjem	-0.3010
-3.2790	minke	-0.3787
-3.0682	minta	-0.6301
-4.0060	minum	-0.4735
-4.4832	minuman	-0.2370
-3.8811	mirip	-0.2327
-4.4832	misah	-0.3010
-4.4832	misal	-0.2977
-3.8811	misalkan	-0.2970
-3.2527	misalnya	-0.3341
-4.4832	misi	-0.3010
-4.0060	miss	-0.4770
-4.4832	mistis	-0.2959
-3.5801	mit	-0.2845
-4.0060	ml	-0.2948
-4.1821	mm	-0.2368
-2.8811	mo	-0.5506
-3.7842	mobil	-0.5182
-3.8811	mobilku	-0.8391
-4.0060	model	-0.2290
-4.4832	modelnya	-0.2979
-4.1821	modern	-0.5380
-4.4832	modis	-0.2992
-4.4832	moga-moga	-0.3009
-4.4832	mole	-0.3001
-4.4832	molor	-0.2370
-4.4832	monologue	-0.3003
-3.5801	motor	-0.5309
-4.4832	motornya	-0.2370
-4.1821	mouse	-0.2989
-3.8811	mrt	-0.2307
-4.4832	mtsn	-0.2976
-3.8811	mu	-0.3579
-4.0060	muak	-0.2942
-4.4832	muat	-0.3010
-4.1821	muda	-0.2938
-3.8811	mudah	-0.3575
-4.4832	mudah-mudahan	-0.2943
-4.4832	mudahan
-4.4832	muka	-0.3010
-3.3071	mulai	-0.2853
-4.4832	mulainya	-0.2959
-4.4832	multichatnya	-0.2972
-4.4832	mulu	-0.2370
-4.1821	mulut	-0.2967
-4.4832	mumpung	-0.3002
-4.1821	muncul	-0.3004
-3.0208	mungkin	-0.3308
-4.4832	mungkinkan	-0.3010
-3.2790	murah	-0.4230
-4.4832	murid	-0.2999
-4.4832	murni	-0.3004
-4.1821	musang	-0.6020
-4.4832	music	-0.3010
-3.8811	musik	-0.5916
-3.8811	musim	-0.4258
-4.1821	mustahil	-0.6020
-3.4040	musti	-0.3367
-4.4832	musuhan	-0.2947
-4.1821	mutar	-0.2297
-4.1821	my	-0.6020
-3.8811	na	-0.2366
-4.4832	nabrak	-0.3010
-4.4832	nada	-0.3010
-3.8811	naek	-0.4226
-3.0518	nah	-0.3602
-3.2279	naik	-0.4452
-4.1821	naikkan	-0.6020
-4.1821	nak	-0.2356
-4.4832	nakal	-0.2959
-3.5801	nam	-0.8312
-3.6381	nama	-0.3623
-4.4832	namaku	-0.3010
-3.4418	namanya	-0.3704
-4.4832	nambah	-0.2370
-4.4832	nambahin	-0.2979
-3.8811	namun	-0.2926
-4.1821	nana	-0.2998
-4.4832	nangis	-0.2972
-4.1821	nannys	-0.2364
-2.3862	nanti	-0.4972
-3.5801	nanya	-0.2751
-4.1821	napa	-0.5380
-4.1821	napak	-0.2972
-4.4832	narasi	-0.2999
-3.8811	narcos	-0.3615
-4.1821	narik	-0.3006
-4.0060	narkoba	-0.2953
-3.2044	nasi	-0.3894
-4.0060	nasib	-0.4728
-4.4832	nasinya	-0.3010
-4.0060	nasional	-0.4129
-4.1821	nasionalis	-0.2949
-4.4832	nasionalisme	-0.2942
-4.4832	nasjep	-0.3010
-4.4832	naskor	-0.2370
-4.4832	nat	-0.2972
-4.1821	natural	-0.2321
-4.4832	nawarin	-0.3003
-4.1821	ndi	-0.2336
-4.4832	nebeng	-0.2947
-3.8811	nebula	-0.2227
-3.7842	negeri	-0.4468
-4.4832	nelpon	-0.3008
-4.4832	nembakin	-0.3010
-4.4832	nemenin	-0.3008
-4.4832	nempel	-0.2981
-4.4832	nemu	-0.3010
-4.4832	nemuin	-0.2959
-4.1821	nenek	-0.2954
-3.8811	nengok	-0.2277
-4.0060	nengokin	-0.4727
-4.4832	nengoknya	-0.3009
-4.4832	nentang	-0.2370
-4.0060	nentu	-0.2942
-4.4832	nentuin	-0.3010
-4.4832	neror	-0.2981
-4.0060	netflix	-0.4095
-4.1821	next	-0.2997
-4.0060	ngabarin	-0.2338
-4.4832	ngabisin	-0.3010
-3.7842	ngadain	-0.3326
-3.7842	ngajak	-0.2302
-4.4832	ngajar	-0.2979
-4.4832	ngalahin	-0.3008
-4.4832	ngalamin	-0.3009
-3.7842	ngambil	-0.2974
-4.1821	ngangkat	-0.2947
-3.7842	ngantri	-0.2346
-4.4832	ngantri-ngantri	-0.3003
-4.4832	ngantrinya	-0.3010
-4.1821	ngantuk	-0.2985
-4.4832	ngantuknya	-0.2943
-4.1821	ngapa-ngapain	-0.2362
-2.9780	ngapain	-0.6424
-4.1821	ngarepin	-0.2925
-4.4832	ngaruh	-0.2992
-3.7842	ngasih	-0.2984
-4.4832	ngatur	-0.3003
-4.4832	ngawasin	-0.2959
-4.4832	ngayal	-0.2965
-4.0060	nge	-0.3009
-4.4832	ngebelain	-0.2985
-4.4832	ngebosenin	-0.2370
-4.4832	ngebully	-0.3006
-4.4832	ngebut	-0.2370
-4.1821	ngecek	-0.2941
-4.4832	ngechat	-0.2942
-4.4832	ngedepanin	-0.3010
-4.4832	ngedit	-0.3010
-4.4832	ngedorong	-0.3009
-4.4832	ngefek	-0.3003
-4.1821	ngeforge	-0.2368
-4.4832	ngegantung	-0.2956
-4.1821	ngelakuin	-0.2971
-4.1821	ngeliat	-0.2980
-4.4832	ngeliatnya	-0.3008
-3.4040	ngelihat	-0.5190
-3.8811	ngelihatnya	-0.5914
-4.1821	ngembaliin	-0.6016
-4.1821	ngerasa	-0.2977
-4.0060	ngerasain	-0.2993
-4.4832	ngerayain	-0.3009
-4.1821	ngerekam	-0.2330
-4.4832	ngerem	-0.3010
-4.0060	ngeri	-0.2275
-4.4832	ngerinya	-0.2976
-3.1609	ngerjain	-0.5378
-4.1821	ngerjainnya	-0.2366
-3.3071	ngerti	-0.4387
-4.1821	ngerusak	-0.3002
-4.4832	ngetem	-0.2994
-4.4832	ngetemnya	-0.3010
-4.4832	ngetroll	-0.2370
-3.2527	ngga	-0.2495
-2.6381	nggak	-0.4322
-4.4832	ngide	-0.2992
-4.1821	ngikutin	-0.3007
-4.4832	ngilang	-0.2976
-4.4832	ngilangin	-0.3006
-4.4832	ngiler	-0.2968
-4.0060	nginep	-0.7727
-4.4832	nginepnya	-0.2956
-4.4832	ngintip	-0.2981
-4.4832	ngira	-0.3008
-4.1821	ngobrol	-0.2947
-4.1821	ngobrol-ngobrol	-0.2341
-4.4832	ngoding	-0.2370
-3.4040	ngomong	-0.2897
-3.4040	ngomong-ngomong	-0.3618
-4.4832	ngomonginnya	-0.3004
-4.0060	ngomongnya	-0.3000
-4.0060	ngondak	-0.2307
-4.4832	ngontak	-0.2978
-4.1821	ngumpul	-0.2984
-4.4832	ngumpul-ngumpul	-0.3010
-4.4832	ngumpulinnya	-0.2959
-4.4832	ngunjungin	-0.3005
-4.1821	ngurus	-0.2976
-4.4832	ngurusin	-0.2959
-3.1821	ni	-0.2910
-4.4832	nicho	-0.3009
-2.2352	nih	-0.5141
-4.1821	nik	-0.5380
-4.4832	niko	-0.2370
-4.1821	nilai	-0.3001
-4.1821	nindya	-0.3000
-4.4832	ninggalin	-0.2978
-4.4832	nisa	-0.2370
-4.0060	nitip	-0.4765
-4.0060	niza	-0.4052
-3.6381	nlp	-0.4433
-4.1821	no	-0.3005
-3.7842	nol	-0.3950
-4.4832	noleh	-0.2979
-4.4832	nomer	-0.2992
-3.4418	nomor	-0.2874
-4.4832	nomornya	-0.3001
-2.9034	nonton	-0.4194
-4.4832	nontonin	-0.2972
-4.4832	nontonnya	-0.2370
-3.6381	nop	-0.2955
-4.4832	normal	-0.2979
-4.4832	notifikasi	-0.3003
-4.4832	novel	-0.2370
-3.1214	ntar	-0.2944
-4.4832	nubes	-0.2370
-4.0060	nugas	-0.2965
-4.4832	nulis	-0.3010
-4.4832	numerik	-0.2965
-4.4832	numpang	-0.2994
-4.1821	nunggu	-0.2970
-4.0060	nungguin	-0.2940
-4.1821	nurut	-0.2984
-2.7842	nya	-0.3943
-3.7842	nyai	-0.4588
-4.1821	nyala	-0.2343
-4.0060	nyalahin	-0.2335
-4.4832	nyalain	-0.3009
-4.4832	nyalon	-0.2370
-4.1821	nyambung	-0.2901
-3.7050	nyampe	-0.2922
-4.1821	nyampenya	-0.2972
-4.1821	nyangka	-0.2297
-3.7050	nyanyi	-0.2897
-4.4832	nyanyian	-0.3001
-4.4832	nyanyiin	-0.3009
-3.7842	nyari	-0.2953
-4.0060	nyata	-0.2938
-4.4832	nyebelin	-0.2992
-4.4832	nyediain	-0.3010
-4.4832	nyelesaiin	-0.3010
-4.1821	nyenggol	-0.3008
-4.1821	nyerah	-0.5995
-4.4832	nyeremin	-0.2992
-4.4832	nyesuaiin	-0.3009
-4.4832	nyetok	-0.2976
-4.0060	nyiapin	-0.2978
-4.4832	nyicil	-0.3010
-4.4832	nyo	-0.3000
-3.7050	nyoba	-0.3156
-4.1821	nyuci	-0.2364
-4.4832	nyusulnya	-0.3010
-3.7842	o	-0.4506
-4.4832	oalah	-0.3005
-4.4832	obat-obatan	-0.2976
-4.4832	obrolannya	-0.2370
-4.1821	obrolin	-0.2341
-4.4832	of	-0.3010
-4.4832	office	-0.2942
-2.2763	oh	-0.5191
-3.8811	ohh	-0.3002
-4.4832	oiya	-0.3007
-4.1821	ojek	-0.2997
-3.6381	ok	-0.2869
-4.4832	okay	-0.2370
-2.5289	oke	-0.5182
-3.7050	okei	-0.2344
-4.1821	okelah	-0.2977
-4.4832	okey	-0.2370
-4.0060	oktober	-0.2366
-4.0060	olahraga	-0.2950
-3.6381	oleh	-0.3021
-3.7050	oleh-oleh	-0.7749
-3.8811	olimpiade	-0.4213
-4.4832	om	-0.2975
-4.4832	omg	-0.2947
-4.1821	omong	-0.2971
-4.4832	omong-omong	-0.2942
-4.4832	omongan	-0.2992
-4.4832	omongin	-0.3010
-4.4832	omonginnya	-0.2979
-4.1821	on	-0.2947
-4.4832	onel	-0.2942
-4.4832	ongkos	-0.2981
-4.4832	ongkosnya	-0.2370
-4.4832	onlee	-0.3010
-4.0060	online	-0.2326
-4.0060	ontosoroh	-0.2900
-3.7050	ooh	-0.2173
-4.4832	operasiin	-0.3010
-2.7756	orang	-0.4211
-3.8811	orang-orang	-0.2934
-3.5801	orangnya	-0.2881
-4.4832	orangtua	-0.3007
-4.4832	orchard	-0.2370
-4.1821	order	-0.3001
-3.5801	oreo	-0.2739
-4.4832	organigram	-0.2987
-3.7050	osk	-0.2903
-3.8811	osn	-0.4213
-4.1821	osp	-0.2969
-4.1821	ospek	-0.3000
-4.0060	otaknya	-0.4770
-4.4832	otomatis	-0.3010
-4.4832	otw	-0.3008
-4.4832	outputnya	-0.2979
-4.1821	ovaltine	-0.2365
-3.7842	ovo	-0.2225
-4.1821	ow	-0.2369
-4.4832	oyah	-0.3008
-3.4832	pa	-0.3901
-4.4832	pab	-0.3010
-4.4832	pablo	-0.3010
-4.4832	pabrik	-0.3010
-4.4832	pacar	-0.3010
-2.9918	pada	-0.2598
-3.2527	padahal	-0.3833
-3.8811	padang	-0.2288
-3.8811	padi	-0.6004
-4.4832	pagaruyung	-0.2370
-3.3370	pagi	-0.4078
-4.4832	paginya	-0.3007
-3.7842	paham	-0.3887
-4.4832	pajajaran	-0.2959
-3.4418	pak	-0.3750
-4.0060	pakai	-0.3007
-4.1821	pakde	-0.2985
-3.0518	pake	-0.3553
-4.1821	pakmin	-0.2964
-2.8019	paling	-0.3762
-4.1821	palingan	-0.2927
-4.4832	palunya	-0.3010
-4.4832	pamer	-0.2981
-3.8811	pameran	-0.6016
-4.4832	pamit	-0.3001
-4.4832	panahan	-0.2370
-4.4832	panas	-0.2370
-4.1821	pandai	-0.3010
-4.1821	pandan	-0.2367
-3.7842	pandang	-0.3246
-4.4832	pandangnya	-0.3009
-4.4832	panduannya	-0.2370
-4.0060	panggang	-0.2945
-4.0060	panggangnya	-0.4119
-4.0060	panggil	-0.2347
-4.4832	panitia	-0.2959
-3.6381	panjang	-0.3750
-4.4832	panjangnya	-0.3008
-4.0060	pantai	-0.4755
-4.4832	pantat	-0.3010
-4.4832	pantes	-0.3004
-3.5801	papa	-0.5363
-4.0060	papan	-0.4771
-4.4832	paparon	-0.2968
-4.0060	paper	-0.4768
-4.1821	para	-0.3009
-4.1821	paragraf	-0.2999
-4.4832	paranormal	-0.2370
-3.8811	parkir	-0.2302
-4.4832	parkiran	-0.2968
-4.4832	parkirnya	-0.3008
-3.7050	part	-0.5997
-4.4832	partikelnya	-0.2998
-4.1821	parut	-0.2970
-3.1029	pas	-0.3304
-4.4832	pasar	-0.2994
-4.4832	pasca	-0.3009
-3.8811	pasir	-0.6004
-4.4832	paskal	-0.2370
-4.4832	paspor	-0.2992
-4.1821	paspornya	-0.6007
-3.7842	pasta	-0.2308
-2.9646	pasti	-0.3158
-4.1821	pastinya	-0.2365
-4.4832	pasukannya	-0.3010
-3.7842	pat	-0.2885
-4.4832	patut	-0.3010
-4.4832	pause	-0.2994
-4.4832	payday	-0.3007
-4.0060	payung	-0.2846
-4.4832	pc	-0.2370
-4.4832	pecahin	-0.3009
-4.4832	pecinnya	-0.2977
-4.4832	pedagang	-0.2956
-3.8811	pegang	-0.2330
-3.7050	pekan	-0.2153
-3.8811	pekerjaan	-0.2362
-4.4832	pekerjaannya	-0.3010
-3.8811	pelajaran	-0.2332
-4.1821	pelanin	-0.2959
-3.8811	pelatihan	-0.2985
-4.4832	pelatihannya	-0.2972
-4.4832	pelengkap	-0.3010
-4.4832	peluang	-0.3003
-3.8811	pemain	-0.4259
-4.4832	pemainnya	-0.2943
-4.4832	pemakainya	-0.2370
-4.4832	pemanasan	-0.2976
-4.4832	pemandangannya	-0.3010
-4.4832	pembahasan	-0.3007
-4.4832	pembayarannya	-0.2370
-4.4832	pembicara	-0.2956
-3.7050	pembimbing	-0.4004
-4.4832	pembuatan	-0.3010
-4.4832	pembulian	-0.3008
-4.4832	pemecahan	-0.3008
-4.1821	pemeran	-0.2984
-4.4832	pemerintah	-0.2370
-4.4832	pemerintahan	-0.3008
-4.4832	pemikiran	-0.2942
-4.4832	pemimpin	-0.3010
-4.4832	pemrosesan	-0.3009
-4.4832	penampakan	-0.2997
-4.1821	penangkaran	-0.6020
-4.1821	pencarian	-0.3010
-4.4832	pencet	-0.3008
-4.4832	pendaftaran	-0.2370
-4.4832	pendaftarannya	-0.2370
-4.4832	pendapat	-0.2985
-4.4832	pendapatmu	-0.2370
-4.1821	pendek	-0.2947
-4.4832	pendek-pendek	-0.2370
-4.4832	pendekar	-0.3010
-4.4832	pendidikan	-0.2956
-4.1821	penemuan	-0.3010
-4.1821	pengadilan	-0.2958
-4.0060	pengalaman	-0.2997
-4.1821	pengarang	-0.6020
-4.4832	pengaruh	-0.3010
-4.1821	pengcit	-0.5380
-4.1821	pengembangan	-0.6020
-2.9646	pengen	-0.3161
-4.4832	pengertian	-0.3009
-4.1821	pengesahan	-0.2910
-4.1821	pengganti	-0.3006
-4.1821	penggunaan	-0.3008
-4.4832	penghuni	-0.2956
-4.1821	pengolahan	-0.6020
-4.1821	pengumpulan	-0.6020
-4.4832	pengunjung	-0.2370
-4.4832	penilaiannya	-0.3005
-4.1821	penolongmu	-0.5380
-4.1821	penonton	-0.2370
-3.4040	penting	-0.2620
-4.4832	penuh	-0.2370
-4.4832	penulis	-0.2976
-4.4832	penurunan	-0.3010
-4.4832	penyisihan	-0.2985
-4.4832	pepper	-0.2370
-3.8811	per	-0.4219
-4.4832	perahu	-0.2370
-4.4832	peran	-0.3010
-4.4832	perang	-0.3008
-4.4832	perangkat	-0.3010
-3.3071	perasaan	-0.3555
-4.4832	perayaan	-0.3005
-4.4832	perbaiki	-0.2370
-3.6381	percakapan	-0.2315
-3.8811	percaya	-0.2323
-4.4832	perempuanku	-0.2981
-4.4832	perfeksionis	-0.2992
-3.0360	pergi	-0.4897
-4.4832	pergolakan	-0.3009
-4.4832	perhari	-0.3001
-4.4832	perhatian	-0.2370
-4.4832	perihnya	-0.3010
-4.4832	perintah	-0.3008
-4.4832	perintahnya	-0.3000
-3.7050	perjalanan	-0.4682
-4.1821	perjalananku	-0.5380
-4.4832	perjalanannya	-0.3006
-3.8811	perjuangan	-0.3002
-4.4832	perkemahan
-4.4832	perkumpulan	-0.3010
-4.4832	perlakuan	-0.3005
-3.4418	perlu	-0.2621
-4.4832	permasalahan	-0.2942
-4.4832	permen	-0.3010
-3.0852	pernah	-0.2752
-3.8811	pernikahan	-0.2266
-4.1821	perpus	-0.3001
-4.4832	perpusnya	-0.2977
-3.7050	perpustakaan	-1.0749
-3.8811	persen	-0.2293
-4.1821	persiapan	-0.3006
-4.4832	persis	-0.2943
-4.4832	persisnya	-0.2370
-4.4832	personal	-0.2968
-3.0852	pertama	-0.5281
-3.7842	pertamanya	-0.3272
-4.0060	pertanian	-0.4668
-4.1821	pertanyaan	-0.2997
-4.4832	pertemuan	-0.3008
-4.4832	pertigaan	-0.3008
-4.4832	pertiwi	-0.2977
-4.4832	pertumbuhannya	-0.3010
-4.4832	perumpamaan	-0.3003
-4.4832	perusaan	-0.3009
-3.7842	perusahaan	-0.2845
-4.0060	perusahaannya	-0.2351
-4.0060	perwalian	-0.2358
-3.7842	pesan	-0.2906
-2.9391	pesen	-0.4248
-4.4832	pesenin	-0.2947
-4.1821	pesennya	-0.2978
-4.1821	peserta	-0.3002
-4.4832	pesertanya	-0.2998
-4.1821	pesta	-0.2970
-3.8811	petualang	-0.5377
-4.4832	phd	-0.3010
-4.4832	pi	-0.3010
-4.1821	piala	-0.3001
-4.4832	piano	-0.3010
-4.4832	pihak	-0.3005
-4.0060	pikir	-0.2364
-4.4832	pikir-pikir	-0.3005
-4.1821	pikiran	-0.2925
-4.1821	pikirannya	-0.3001
-3.8811	pilih	-0.2356
-3.5801	pilihan	-0.3514
-4.0060	pilihannya	-0.2987
-4.4832	pilihnya	-0.2942
-3.7050	pindah	-0.5984
-3.7842	pingin	-0.5178
-4.1821	pinginnya	-0.5975
-4.4832	pingsan	-0.2370
-4.4832	pinjam	-0.3006
-4.1821	pinjem	-0.3009
-4.4832	pinter	-0.2975
-3.4418	pintu	-0.3686
-4.1821	pintunya	-0.2329
-4.1821	pipis	-0.2964
-4.0060	piring	-0.4082
-4.4832	piring-piring	-0.2959
-3.7842	pisah	-0.2908
-4.0060	pisang	-0.4079
-4.4832	pitchingnya	-0.2968
-3.4832	pizza	-0.5375
-4.4832	pizzanya	-0.3004
-4.4832	pkn	-0.2959
-4.4832	plagiat	-0.3006
-4.4832	plan	-0.2976
-4.4832	plot	-0.3003
-4.4832	plus	-0.3010
-4.4832	pm	-0.3001
-4.4832	pnj	-0.2947
-4.4832	poin	-0.3010
-4.4832	point	-0.3010
-3.5289	pokoknya	-0.2720
-4.4832	pokonya	-0.2975
-4.4832	polanya	-0.2976
-4.1821	polisi	-0.2330
-4.1821	polusi	-0.6020
-4.4832	pong	-0.2992
-4.1821	populer	-0.2954
-4.1821	porsi	-0.3006
-4.4832	porsinya	-0.3000
-4.1821	posisi	-0.2938
-4.4832	posisinya	-0.2370
-4.1821	positifnya	-0.2329
-4.4832	post	-0.2956
-4.4832	postingan	-0.2956
-4.4832	postur	-0.3010
-4.4832	pot	-0.2956
-4.4832	potensinya	-0.3004
-3.8811	potong	-0.2971
-4.4832	powerful	-0.2370
-3.8811	pr	-0.3007
-4.1821	pra	-0.3009
-3.7842	praktikum	-0.2977
-3.8811	pram	-0.5379
-4.4832	pramuka	-0.2370
-4.4832	prasmanan	-0.2370
-4.4832	prasmanannya	-0.2976
-4.4832	prasyarat	-0.2942
-4.4832	prasyaratnya	-0.3010
-4.1821	predict	-0.2366
-4.0060	prepare	-0.2993
-4.0060	presentasi	-0.4082
-4.4832	pretelin	-0.3010
-4.1821	pribadi	-0.2935
-3.7842	pribumi	-0.3866
-4.4832	prnya	-0.3009
-4.1821	pro	-0.3006
-4.0060	product	-0.4771
-4.1821	produksi	-0.2989
-4.4832	produksinya	-0.2987
-4.4832	profesional	-0.2992
-4.4832	profesor	-0.3009
-4.0060	professor	-0.7781
-4.1821	program	-0.2370
-4.4832	programmernya	-0.3010
-4.1821	programming	-0.2367
-3.8811	programnya	-0.2922
-4.4832	progress	-0.3010
-4.4832	progressnya	-0.2975
-3.3071	promo	-0.3538
-3.6381	promonya	-0.2941
-4.4832	promosi	-0.3009
-4.4832	pronounciation	-0.2370
-4.0060	proyek	-0.3000
-4.4832	proyekan	-0.2370
-4.4832	prs	-0.3007
-4.1821	puas	-0.2364
-4.4832	pula	-0.2370
-3.0208	pulang	-0.4111
-4.1821	pulangnya	-0.2998
-3.5289	pulau	-0.6461
-4.4832	pulen	-0.3009
-4.4832	pulih	-0.2959
-2.7842	puluh	-0.5632
-3.5801	puluhan	-0.2789
-3.4832	pun	-0.2286
-4.1821	puncak	-0.2968
-4.4832	puncaknya	-0.3010
-4.4832	punclut	-0.3002
-4.4832	pundi	-0.3001
-2.9269	punya	-0.4011
-4.4832	punyaku	-0.3007
-3.4040	pura	-1.0787
-4.1821	pusing	-0.5380
-3.5289	putih	-0.3350
-4.4832	putra	-0.2999
-4.0060	pvj	-0.2305
-4.4832	pvjnya	-0.3008
-4.4832	pymes	-0.2985
-4.4832	qih	-0.2370
-4.4832	quality	-0.3010
-4.0060	quantum	-0.2980
-4.4832	query	-0.3010
-4.4832	rabu	-0.3009
-3.7842	rada	-0.3978
-4.4832	rada-rada	-0.3006
-4.4832	radiasi	-0.3010
-4.1821	raf	-0.5380
-4.4832	rafi	-0.2370
-4.1821	rafli	-0.5380
-4.4832	ragu	-0.2370
-3.7842	rahasia	-0.4509
-4.4832	rajin	-0.3007
-4.1821	rak	-0.3003
-4.4832	rakus	-0.2370
-4.4832	rama	-0.3009
-4.4832	ramadhan	-0.3009
-3.4832	ramai	-0.3732
-4.4832	ramalan	-0.3010
-4.1821	rambut	-0.2935
-4.1821	rambutmu	-0.2970
-3.8811	rame	-0.3554
-4.0060	rame-rame	-0.2359
-4.4832	rangka	-0.2979
-4.1821	rapat	-0.2370
-3.7842	rapi	-0.2210
-4.4832	rapih	-0.2994
-4.4832	rapihin	-0.2370
-3.2790	rasa	-0.4848
-3.2790	rasanya	-0.3122
-4.1821	rasis	-0.2901
-4.4832	rata-rata	-0.3008
-4.1821	ratih	-0.2998
-4.4832	ratu	-0.3010
-4.0060	ratus	-0.2994
-4.4832	rayakan	-0.3002
-4.4832	rayuan-rayuan	-0.3010
-4.0060	real	-0.4110
-4.4832	realm	-0.2976
-4.4832	recehnya	-0.3008
-4.4832	recognitionnya	-0.2972
-3.8811	red	-0.9030
-4.4832	reda	-0.3009
-4.1821	referensi	-0.2941
-4.4832	regulatornya	-0.3009
-3.7050	rekam	-0.4764
-4.4832	rekaman	-0.2994
-4.1821	rekamannya	-0.2964
-4.4832	rekamnya	-0.3002
-3.8811	rekomendasi	-0.2980
-4.4832	rektor	-0.2975
-4.4832	release	-0.3009
-4.4832	relevan	-0.3001
-4.1821	remaja	-0.3010
-3.8811	remang	-0.3545
-3.1821	rencana	-0.3879
-4.4832	rencanain	-0.3009
-4.4832	rencanaku	-0.3010
-4.1821	rencanamu	-0.2949
-3.3692	rencananya	-0.2489
-4.4832	rendah	-0.3003
-4.4832	report	-0.2370
-4.4832	repot	-0.2992
-4.1821	reservasi	-0.2962
-4.4832	resminya	-0.2968
-3.4040	restoran	-0.5127
-3.8811	restorannya	-0.2300
-4.4832	review	-0.2994
-4.4832	revisi	-0.2975
-4.0060	revisinya	-0.2969
-4.4832	rezeki	-0.3006
-3.7050	ribet	-0.2270
-2.9517	ribu	-0.4130
-4.1821	ribuan	-0.2330
-4.4832	ribunya	-0.2370
-4.4832	ribut	-0.2968
-4.4832	ricat	-0.2979
-3.6381	ricky	-0.2993
-4.4832	rido	-0.2985
-3.8811	rik	-0.2959
-4.4832	rika	-0.2370
-4.4832	rinci	-0.2370
-4.4832	rindi	-0.2370
-4.1821	ringan	-0.2291
-4.4832	risalah	-0.2972
-4.1821	robot	-0.2981
-4.4832	robotnya	-0.3003
-4.4832	roda	-0.2370
-4.4832	romansa	-0.2994
-4.4832	romantis	-0.3010
-4.4832	romantisme	-0.2994
-4.1821	ronin	-0.3002
-3.2527	roti	-0.4091
-4.4832	rotinya	-0.2370
-4.4832	rplsd	-0.2975
-3.8811	rt	-0.2932
-4.4832	ru	-0.3009
-3.7050	ruang	-0.4752
-4.4832	rugi	-0.2971
-2.9269	rumah	-0.3716
-3.7050	rumahku	-0.4075
-4.4832	rumahmu	-0.2370
-3.4418	rumahnya	-0.3512
-4.4832	rumusin	-0.3010
-4.1821	rusa	-0.2297
-3.6381	rusak	-0.4743
-4.4832	rusanya	-0.3003
-4.4832	rutin	-0.2370
-4.4832	rutinitas	-0.3007
-4.4832	s1	-0.2370
-4.1821	s3	-0.5380
-4.4832	sa	-0.2370
-3.4040	saat	-0.3700
-4.4832	saatnya	-0.3010
-3.8811	sabar	-0.2256
-4.4832	sabar-sabar	-0.2959
-4.0060	sabi	-0.2331
-3.4418	sabtu	-0.3306
-4.0060	sabuga	-0.4072
-4.4832	sad	-0.2370
-4.1821	sadar	-0.2985
-4.0060	sah	-0.4068
-4.4832	sahabat	-0.2994
-4.4832	sahabatnya	-0.3009
-4.4832	saingannya	-0.2985
-4.1821	sains	-0.2366
-2.7508	saja	-0.6599
-4.4832	sajalah	-0.2370
-4.4832	saking	-0.3010
-3.0682	sakit	-0.5610
-4.1821	saku	-0.5380
-4.4832	salad	-0.3010
-2.8397	salah	-0.4639
-4.4832	salam	-0.3001
-4.4832	salamku	-0.3010
-4.4832	saldo	-0.2978
-4.4832	saldonya	-0.3001
-4.4832	saling	-0.3010
-4.4832	salon	-0.2370
-4.4832	salted	-0.3010
-2.2352	sama	-0.3105
-3.7050	sama-sama	-0.4106
-4.1821	sambal	-0.6020
-4.4832	sambelnya	-0.2987
-3.5289	sambil	-0.3494
-4.4832	sampah	-0.3007
-2.8111	sampai	-0.3621
-4.4832	sampaikan	-0.3010
-3.2527	sampe	-0.2250
-3.8811	samping	-0.6018
-4.4832	sampingan	-0.3009
-4.4832	sampingku	-0.2956
-4.4832	sampingmu	-0.2370
-4.4832	sampingnya	-0.2370
-4.1821	san	-0.5380
-2.9918	sana	-0.4723
-3.4418	sangat	-0.4383
-4.4832	sanggup	-0.2947
-3.6381	santai	-0.3724
-4.4832	sapa	-0.3010
-4.1821	sapi	-0.2953
-4.4832	saraga	-0.3002
-4.4832	sarah	-0.2943
-4.0060	sarapan	-0.2352
-4.4832	sate	-0.2370
-2.5911	satu	-0.3629
-3.8811	satunya	-0.4221
-4.1821	saudara	-0.3005
-4.4832	saver	-0.2370
-4.0060	sawah	-0.4750
-3.7050	sawah-sawah	-0.5958
-2.6838	saya	-0.2553
-3.8811	sayang	-0.5985
-4.1821	sayangnya	-0.2988
-4.1821	sayur	-0.2291
-4.4832	sayur-sayuran	-0.2972
-4.1821	sayuran	-0.2984
-4.4832	sc	-0.2370
-4.4832	school	-0.2975
-4.4832	scoring	-0.3010
-3.7842	sd	-0.3186
-4.4832	se	-0.2979
-4.4832	seakan	-0.3003
-4.4832	searchnya	-0.3010
-4.4832	season	-0.2981
-3.6381	sebagai	-0.3675
-4.4832	sebagian	-0.3009
-4.4832	sebaik	-0.2959
-4.4832	sebangku	-0.2943
-4.1821	sebanyak	-0.2956
-4.4832	sebeda	-0.2959
-4.4832	sebel	-0.2965
-4.0060	sebelah	-0.2989
-3.7842	sebelas	-0.2273
-4.0060	sebelom	-0.4769
-3.4418	sebelum	-0.3715
-4.4832	sebelum-sebelumnya	-0.2976
-3.5801	sebelumnya	-0.4353
-3.4832	sebenarnya	-0.2814
-3.4418	sebenernya	-0.3022
-3.5289	sebentar	-0.3919
-4.4832	seberang	-0.2988
-4.4832	seberapa	-0.3010
-4.4832	seblak	-0.2370
-3.8811	sebuah	-0.4248
-4.0060	sebut	-0.4124
-4.4832	secanggih	-0.2959
-3.7050	secara	-0.3709
-3.3370	sedang	-0.3596
-4.4832	sedeng	-0.2987
-3.5801	sedih	-0.4105
-3.3370	sedikit	-0.3252
-4.4832	sedunia	-0.3003
-4.1821	seenaknya	-0.2908
-3.7842	segala	-0.4587
-4.4832	segalanya	-0.2370
-4.4832	segaring	-0.2959
-4.4832	segede	-0.2959
-4.1821	segini	-0.5380
-4.1821	segitu	-0.2318
-4.4832	segituan	-0.2942
-4.4832	segitunya	-0.2370
-4.4832	segreget	-0.3010
-4.1821	sehabis	-0.2990
-4.4832	sehari	-0.3002
-4.4832	seharusnya	-0.3006
-3.8811	sehat	-0.5362
-4.4832	sei	-0.3010
-4.1821	seindah	-0.3010
-4.4832	seingatku	-0.3006
-4.4832	seinget	-0.2978
-4.1821	sejarah	-0.2368
-4.4832	sejarahnya	-0.3004
-4.1821	sejauh	-0.5982
-3.4040	sekali	-0.3907
-4.1821	sekali-sekali	-0.2368
-3.5289	sekalian	-0.3354
-2.6023	sekarang	-0.3948
-4.4832	sekarat	-0.3010
-4.1821	sekarung	-0.6020
-4.1821	sekedar	-0.2370
-4.0060	sekelompok	-0.4090
-4.4832	sekelompoknya	-0.2985
-4.4832	sekeren	-0.2959
-4.4832	sekip	-0.2370
-3.0518	sekitar	-0.5787
-4.1821	sekitaran	-0.2993
-3.2044	sekolah	-0.2713
-4.4832	sekre	-0.2984
-3.7842	selain	-0.2959
-4.0060	selalu	-0.3007
-3.4832	selama	-0.4465
-3.5289	selamat	-0.5470
-4.4832	selang	-0.3004
-4.4832	selanjutnya	-0.2370
-4.1821	selasa	-0.3003
-4.4832	seleksi	-0.3010
-4.4832	seleksinya	-0.3004
-4.4832	selembar	-0.2370
-4.4832	seleraku	-0.2994
-3.1821	selesai	-0.4467
-4.4832	selese	-0.2994
-4.4832	selevel	-0.3009
-4.4832	selidiki	-0.3010
-4.1821	semacam	-0.2959
-4.4832	semacamnya	-0.2370
-4.1821	semakin	-0.3007
-3.8811	semalam	-0.3532
-3.8811	semangat	-0.2292
-4.4832	semangatnya	-0.3010
-4.4832	sembarangan	-0.2370
-3.2044	sembilan	-0.4257
-4.4832	sembuh	-0.2965
-4.4832	sembunyi	-0.3001
-4.4832	semenit	-0.2979
-4.4832	semenjak	-0.3010
-3.2527	semester	-0.5565
-3.5801	seminar	-0.2204
-3.5801	semoga	-0.4225
-3.8811	sempat	-0.2987
-3.6381	sempet	-0.2995
-4.1821	sempit	-0.2349
-4.4832	sempurna	-0.2370
-2.9646	semua	-0.2899
-3.3692	semuanya	-0.3040
-4.4832	semudah	-0.3010
-4.4832	sen	-0.2988
-3.4040	senang	-0.5325
-2.8704	sendiri	-0.5516
-4.4832	sendirian	-0.2968
-4.4832	sendirinya	-0.2972
-4.4832	senen	-0.3006
-3.5801	sengaja	-0.4380
-4.1821	seni	-0.3005
-4.4832	senin	-0.3009
-4.4832	senjata	-0.3010
-4.0060	seorang	-0.3004
-3.1821	sepatu	-0.5636
-3.8811	sepatu-sepatu	-0.2971
-4.4832	sepatumu	-0.2959
-3.5289	sepeda	-0.5785
-3.7050	sepedaku	-0.5333
-3.8811	sepedamu	-0.5936
-3.1609	seperti	-0.4256
-4.4832	sepertimu	-0.2972
-3.2279	sepertinya	-0.4558
-4.4832	sepi	-0.2370
-4.4832	sepinter	-0.3008
-4.4832	seporsinya	-0.3003
-4.4832	sepuasnya	-0.2956
-4.1821	sepulang	-0.6018
-3.1821	sepuluh	-0.3817
-4.0060	seram	-0.2871
-3.3692	seratus	-0.3867
-4.4832	serba	-0.3010
-4.4832	serem	-0.2370
-4.4832	seri	-0.3010
-4.4832	serial	-0.3003
-4.4832	seribu	-0.2994
-3.3370	sering	-0.3249
-3.5289	serius	-0.3468
-3.3071	seru	-0.3424
-4.4832	servis	-0.3009
-4.0060	seseorang	-0.4125
-4.4832	sesering	-0.3006
-4.4832	sesi	-0.3009
-4.1821	sesuai	-0.3000
-3.8811	sesuatu	-0.2872
-4.0060	set	-0.4769
-4.1821	setahun	-0.3003
-4.4832	setanah	-0.3010
-4.4832	setara	-0.3001
-3.7842	setau	-0.9968
-3.4832	setelah	-0.2852
-3.7842	setengah	-0.2995
-4.4832	setengahnya	-0.2965
-4.0060	seterusnya	-0.4091
-3.8811	setiap	-0.2934
-4.4832	setidaknya	-0.3000
-3.5289	setuju	-0.3956
-4.4832	seumuran	-0.3000
-3.8811	sewa	-0.2984
-4.4832	sharing	-0.3010
-4.1821	shia	-0.5380
-4.4832	shit	-0.2370
-4.1821	shock	-0.2321
-4.4832	shooting	-0.2979
-4.1821	shopee	-0.2972
-2.8704	si	-0.4850
-4.4832	sial	-0.2370
-3.5289	siang	-0.4004
-3.3692	siap	-0.5012
-4.0060	siap-siap	-0.2937
-2.9269	siapa	-0.5469
-3.4832	sibuk	-0.3376
-4.4832	sibuk-sibuknya	-0.2370
-4.1821	sidang	-0.2963
-4.4832	signature	-0.3007
-4.4832	signifikan	-0.2947
-1.9848	sih	-0.5348
-4.4832	sikaping	-0.3009
-4.4832	sikit	-0.2370
-4.1821	sil	-0.5380
-3.7842	silahkan	-0.2980
-4.4832	silahkan-silahkan	-0.3007
-4.4832	sim	-0.2956
-4.4832	simpan	-0.3004
-4.1821	simpenin	-0.2940
-4.4832	simulasi	-0.2370
-4.4832	simulasinya	-0.3010
-4.1821	sinar	-0.2941
-4.4832	sinematografi	-0.2942
-3.8811	singa	-0.2942
-4.4832	singapore	-0.2370
-4.0060	singapur	-0.2327
-4.0060	singkat	-0.7779
-4.4832	single	-0.3010
-2.6908	sini	-0.3855
-4.4832	sini-sini	-0.2943
-4.4832	sinopsis	-0.3008
-4.1821	sinyal	-0.2900
-4.4832	sinyalnya	-0.3004
-3.7050	sip	-0.5354
-4.1821	siri	-0.2361
-3.7050	sis	-0.7133
-4.1821	sisa	-0.6020
-4.4832	sisanya	-0.3010
-3.7842	sisi	-0.3960
-4.1821	siska	-0.2940
-4.1821	sistem	-0.3010
-4.4832	sistemnya	-0.2370
-4.1821	sister	-0.3009
-3.4418	situ	-0.4158
-4.4832	situasi	-0.2975
-4.4832	situs	-0.3007
-4.4832	skenario	-0.2370
-4.4832	skip	-0.2997
-3.5801	sks	-0.5370
-4.1821	skuy	-0.2974
-4.4832	slide	-0.2976
-3.4418	sma	-0.4267
-4.0060	smanten	-0.3009
-4.4832	smapsic	-0.2994
-4.4832	smp	-0.3009
-4.4832	sms	-0.3007
-3.7050	snap	-0.3057
-4.4832	snapnya	-0.2370
-4.1821	snek	-0.2362
-4.4832	so	-0.3010
-3.0682	soal	-0.4006
-2.7930	soalnya	-0.4434
-4.4832	software	-0.3010
-3.7842	sok	-0.3976
-4.4832	soleh	-0.3005
-4.4832	songong	-0.2989
-4.4832	sop	-0.3008
-4.4832	sopnya	-0.2370
-3.4040	sore	-0.5228
-4.4832	sori	-0.2370
-4.1821	sorry	-0.2942
-3.8811	sosial	-0.4191
-4.1821	sosok	-0.2995
-4.4832	speakerin	-0.2968
-4.4832	specificity	-0.2985
-3.4418	speech	-0.3270
-3.8811	speknya	-0.5943
-4.4832	spesial	-0.3003
-4.4832	spoiler	-0.2985
-4.4832	standar	-0.3010
-3.5289	stark	-0.2725
-4.0060	startup	-0.2250
-4.4832	statistik	-0.3007
-4.1821	status	-0.6020
-4.4832	steak	-0.3009
-4.1821	stei	-0.2329
-3.7842	steven	-0.3300
-4.0060	sti	-0.2362
-4.4832	stkip	-0.2370
-4.4832	stoknya	-0.3010
-4.1821	story	-0.3006
-4.4832	strange	-0.2959
-4.4832	studi	-0.2981
-4.4832	studinya	-0.2942
-4.4832	suami	-0.3010
-4.4832	suaminya	-0.3001
-3.6381	suara	-0.2322
-3.7842	suasana	-0.3975
-4.4832	subbab	-0.3010
-4.4832	subjektif	-0.2987
-4.0060	subuh	-0.2955
-4.1821	suci	-0.2987
-2.7930	sudah	-0.3158
-4.0060	sudahlah	-0.2369
-3.7050	sudut	-0.7781
-4.4832	sugar	-0.2976
-2.9269	suka	-0.4204
-4.1821	sukajadi	-0.3004
-4.1821	sukanya	-0.3009
-4.0060	sukses	-0.2918
-4.4832	sukur	-0.2988
-4.0060	sulit	-0.4770
-4.4832	sumbar	-0.3010
-4.1821	sumber	-0.6020
-4.4832	sumbernya	-0.3004
-4.4832	sumbi	-0.2370
-4.1821	summer	-0.3009
-3.6381	sumpah	-0.3764
-4.1821	sup	-0.2993
-4.0060	supaya	-0.2977
-3.7842	super	-0.2356
-4.4832	supirnya	-0.2988
-4.0060	surabaya	-0.2324
-3.8811	surat	-0.4257
-4.4832	surhof	-0.2977
-4.0060	suruh	-0.3003
-4.4832	surveynya	-0.3009
-3.1214	susah	-0.4245
-4.1821	susanti	-0.2933
-4.1821	susi	-0.6020
-4.0060	sutradara	-0.2974
-4.4832	sutradaranya	-0.3006
-4.4832	swear	-0.2987
-4.4832	syarat	-0.3003
-4.4832	syukurlah	-0.2370
-4.4832	t	-0.2977
-3.4418	ta	-0.3074
-4.4832	tab	-0.2968
-2.8299	tadi	-0.3533
-4.4832	tagihin	-0.2370
-4.0060	tah	-0.4120
-4.4832	tahap	-0.3010
-3.2044	tahu	-0.2755
-2.8811	tahun	-0.4221
-4.1821	tahunku	-0.3001
-4.1821	tahunmu	-0.2365
-4.1821	tahunnya	-0.2991
-4.4832	tahunya	-0.2995
-4.4832	tai	-0.3009
-4.1821	taichan	-0.2989
-3.7842	tak	-0.5197
-4.4832	taksi	-0.2942
-3.1821	takut	-0.2964
-4.1821	takutnya	-0.2977
-4.4832	talang	-0.2999
-4.4832	taman	-0.2942
-3.5801	tambah	-0.2994
-4.0060	tambahin	-0.2994
-4.1821	tambal	-0.6020
-4.1821	tamfest	-0.5380
-4.4832	tampil	-0.3005
-4.4832	tanah	-0.3010
-3.8811	tanda	-0.9030
-4.4832	tandanya	-0.2999
-4.4832	tanding	-0.3010
-3.5801	tangan	-0.2884
-4.1821	tangga	-0.2363
-3.4418	tanggal	-0.3779
-4.0060	tanggung	-0.7781
-4.4832	tangkis	-0.3007
-4.4832	tangkuban	-0.3010
-4.0060	tanpa	-0.3006
-4.1821	tantangannya	-0.5380
-3.6381	tanya	-0.2915
-4.1821	tanyain	-0.2926
-4.4832	tanyakan	-0.2981
-2.2160	tapi	-0.3004
-3.5289	tar	-0.3390
-4.4832	target	-0.3009
-4.4832	tarik	-0.3004
-4.4832	tarung	-0.2985
-4.4832	tarungnya	-0.2370
-4.1821	tata	-0.3010
-4.4832	tatanan	-0.3010
-2.6139	tau	-0.3170
-4.1821	taun	-0.2969
-4.1821	tautan	-0.2998
-4.4832	tayang	-0.2998
-4.1821	tbd	-0.2366
-4.4832	teb	-0.3010
-4.4832	tebak	-0.3007
-4.1821	tebakanmu	-0.6020
-4.4832	tebel	-0.3010
-4.1821	teh	-0.6020
-4.1821	teken	-0.2994
-4.4832	teknik	-0.3010
-3.7050	teknologi	-0.3724
-4.4832	teks	-0.2370
-4.0060	telah	-0.4770
-3.4832	telat	-0.3148
-4.4832	telinga	-0.2968
-4.4832	telkomsel	-0.2979
-4.0060	telor	-0.2918
-4.4832	telornya	-0.3010
-4.4832	telpon	-0.2981
-4.1821	tema	-0.2978
-3.4832	teman	-0.2743
-4.0060	teman-teman	-0.2959
-4.4832	teman-temanku	-0.3009
-4.4832	temani	-0.3009
-4.1821	temanin	-0.3004
-4.0060	temanya	-0.2953
-4.4832	tembak
-4.4832	tembakan	-0.2370
-4.4832	tembok	-0.2370
-3.3692	temen	-0.3274
-3.8811	temen-temen	-0.2885
-4.4832	temen-temennya	-0.2370
-4.1821	temenin	-0.2887
-4.4832	temennya	-0.3010
-2.8397	tempat	-0.4675
-4.0060	tempat-tempat	-0.4702
-3.5289	tempatnya	-0.2866
-4.0060	tempe	-0.2919
-3.8811	template	-0.2893
-4.4832	tenaga	-0.2370
-4.4832	tenaganya	-0.2370
-3.7842	tenang	-0.2897
-4.1821	tendanya	-0.2370
-3.4418	tengah	-0.7394
-4.4832	tengil	-0.2370
-4.4832	tengok	-0.2979
-3.8811	tensai	-0.3615
-4.4832	tensainya	-0.2975
-3.2279	tentang	-0.3941
-3.5801	tentu	-0.8382
-4.4832	tentukan	-0.3007
-4.0060	tentunya	-0.4718
-4.4832	teori	-0.3010
-3.7050	tepat	-0.5315
-3.3370	terakhir	-0.2755
-4.4832	terang	-0.2370
-3.8811	terasa	-0.4256
-4.4832	terbaik	-0.3010
-3.8811	terbaru	-0.2304
-4.0060	terbarunya	-0.2942
-4.4832	terbatas	-0.2370
-4.4832	terbenam	-0.3008
-4.1821	terbiasa	-0.6012
-4.4832	terbuka	-0.3010
-4.4832	tercapai	-0.2370
-4.0060	terdekat	-0.4768
-4.1821	terdistribusi	-0.5380
-4.1821	terduga	-0.2989
-4.4832	terenak	-0.3010
-4.4832	tergantung	-0.3010
-4.4832	terhadap	-0.3010
-4.0060	terhingga	-0.2291
-3.4040	terima	-1.0780
-3.7842	terimakasih	-0.3963
-4.4832	teringat	-0.3000
-3.6381	terjadi	-0.3013
-4.4832	terjadinya	-0.2959
-4.4832	terjatuh	-0.2370
-4.4832	terkagum	-0.3010
-4.4832	terkenal	-0.2370
-4.1821	terkenalnya	-0.2930
-4.4832	terkesan	-0.3010
-4.4832	terkilir	-0.2968
-4.4832	terkonn	-0.2979
-4.4832	terkumpul	-0.3010
-4.4832	terkurungnya	-0.3010
-3.2044	terlalu	-0.3428
-4.4832	terlanjur	-0.2977
-4.1821	terlebih	-0.6020
-4.4832	terlibat	-0.2972
-3.6381	terlihat	-0.2994
-4.1821	termacet	-0.2307
-4.4832	termerdu	-0.2370
-4.4832	terminat	-0.2998
-3.4832	terminator	-0.3672
-4.4832	termotivasi	-0.3010
-3.0208	ternyata	-0.2400
-4.4832	terombang-ambing	-0.2956
-4.1821	teror	-0.2370
-4.4832	teroris	-0.3003
-4.4832	terperangkap	-0.2956
-4.4832	terpisah	-0.2370
-4.4832	terselamatkan	-0.2998
-3.8811	terserah	-0.5960
-4.4832	terserahlah	-0.2370
-4.1821	tersinkronisasi	-0.2983
-4.4832	tersisa	-0.3003
-3.6381	tertarik	-0.2184
-4.4832	tertata	-0.3001
-4.0060	tertentu	-0.4091
-2.4263	terus	-0.2223
-3.7842	tes	-0.2313
-4.4832	tesis	-0.2989
-4.1821	testing	-0.5380
-4.4832	tetangga	-0.2999
-3.8811	tetap	-0.2925
-3.8811	tetapi	-0.2954
-3.8811	tetep	-0.2937
-4.0060	text	-0.2295
-4.4832	textbook	-0.3003
-3.7842	thanos	-0.3255
-4.0060	the	-0.4771
-4.4832	thor	-0.2370
-4.0060	tiap	-0.2991
-4.4832	tiara	-0.2370
-3.7842	tiba	-0.3964
-4.4832	tiba-tiba	-0.3010
-2.6770	tidak	-0.4681
-3.0852	tidur	-0.4805
-4.4832	tidurnya	-0.2370
-2.8019	tiga	-0.5255
-4.4832	tigaan	-0.2998
-3.7050	tiket	-0.3775
-3.8811	tikus	-0.2905
-4.1821	tim	-0.3010
-3.6381	time	-0.2906
-3.2527	tinggal	-0.3117
-4.4832	tinggi	-0.3001
-4.1821	tingkat	-0.2986
-4.1821	tipe	-0.3003
-3.7050	tirta	-0.4028
-4.4832	tisu	-0.3010
-4.0060	titik	-0.2943
-4.4832	titip	-0.3010
-4.4832	toffee	-0.2977
-4.1821	toh	-0.2964
-3.8811	toko	-0.3005
-4.4832	tokoh	-0.3010
-4.4832	tokonya	-0.2956
-3.4832	tolong	-0.3901
-4.4832	tomat	-0.3010
-4.4832	tombolnya	-0.3007
-3.5289	ton	-0.2746
-4.4832	tonton	-0.3010
-3.2044	tony	-0.5597
-4.1821	top	-0.2368
-4.0060	topik	-0.3004
-4.1821	topiknya	-0.2940
-4.1821	total	-0.2942
-4.0060	totalnya	-0.4731
-4.4832	toyota	-0.3010
-4.4832	tradisi	-0.3008
-4.0060	trailer	-0.2913
-4.4832	train	-0.3010
-4.4832	trainingnya	-0.2997
-3.5801	traktir	-0.4345
-4.4832	transformasiin	-0.3010
-4.4832	transformasinya	-0.3002
-4.0060	transformer	-0.2331
-4.4832	transkrip	-0.2984
-4.0060	transportasi	-0.3009
-4.0060	transportasinya	-0.7141
-4.1821	traumanya	-0.2362
-4.4832	travel	-0.2965
-4.1821	traveloka	-0.2947
-4.4832	trigger	-0.2370
-4.4832	trigonometri	-0.2956
-3.3692	trus	-0.2926
-2.8397	tu	-0.2911
-3.7842	tua	-0.2267
-4.4832	tubes	-0.2942
-4.4832	tubesnya	-0.2370
-4.0060	tubuh	-0.4741
-4.4832	tubuhnya	-0.2975
-2.9780	tugas	-0.3056
-3.7050	tugasnya	-0.2339
-2.5911	tuh	-0.3953
-4.4832	tujuannya	-0.3003
-3.3071	tujuh	-0.3531
-4.1821	tulang	-0.2942
-4.4832	tulis	-0.2959
-4.4832	tulisan-tulisan	-0.3010
-4.1821	tulisnya	-0.3010
-3.6381	tumben	-0.3614
-4.4832	tunda
-3.2527	tunggu	-0.4006
-4.1821	tungguin	-0.2989
-4.4832	tunggunya	-0.2977
-4.4832	tunjukan	-0.3001
-4.1821	tunjukin	-0.2964
-3.7842	turnamen	-0.3315
-3.7842	turun	-0.6347
-4.4832	turut	-0.2370
-4.4832	tutorial	-0.3010
-4.4832	tutup	-0.3010
-3.8811	tv	-0.2363
-4.4832	u	-0.2968
-4.0060	uang	-0.4732
-4.4832	uang-uangnya	-0.2976
-4.0060	uangnya	-0.4129
-3.8811	uas	-0.2298
-4.4832	ucapan	-0.3008
-4.4832	uda	-0.3010
-2.0922	udah	-0.3298
-4.4832	udahan	-0.3006
-3.7050	udahlah	-0.7140
-4.4832	udang	-0.2989
-4.1821	udara	-0.5952
-4.1821	udik	-0.2981
-4.4832	uduk	-0.2942
-4.1821	ugm	-0.3004
-4.4832	ui	-0.3008
-3.4040	ujian	-0.3524
-4.4832	ujiannya	-0.3007
-4.1821	ujung	-0.6016
-4.4832	uks	-0.2370
-4.4832	ulahnya	-0.3010
-3.3071	ulang	-0.7134
-4.0060	ulasan	-0.3008
-4.4832	ulfa	-0.2370
-4.4832	ulwan	-0.2370
-4.1821	umum	-0.2943
-4.4832	umumnya	-0.3003
-4.1821	umur	-0.3000
-4.4832	unand	-0.3010
-4.4832	undang	-0.3010
-4.4832	undangan	-0.2999
-4.4832	undead	-0.3005
-4.1821	undip	-0.3009
-4.4832	unggun	-0.3008
-4.4832	uniknya	-0.3004
-3.6381	unit	-0.4386
-4.0060	universitas	-0.2962
-4.4832	unp	-0.2959
-2.9150	untuk	-0.3020
-4.4832	untuknya	-0.2370
-4.0060	untung	-0.2912
-3.8811	untungnya	-0.2872
-4.4832	up	-0.2997
-4.1821	update	-0.3006
-4.1821	upload	-0.2991
-4.1821	upnormal	-0.2361
-4.4832	urang	-0.3008
-4.0060	urpa	-0.2990
-4.0060	urusan	-0.3007
-4.4832	us	-0.3003
-3.6381	usah	-0.2947
-4.4832	usaha	-0.2981
-3.8811	utama	-0.2897
-4.4832	utamanya	-0.2987
-4.4832	utang	-0.3008
-4.4832	uts	-0.2959
-4.4832	validnya	-0.3004
-4.4832	van	-0.2956
-4.4832	variasi	-0.3003
-3.8811	velvet	-0.2869
-3.8811	ven	-0.2978
-4.4832	vi	-0.3010
-4.4832	vihara	-0.2994
-4.4832	villa	-0.3010
-3.8811	vin	-0.3532
-4.4832	vintage	-0.2972
-4.4832	visa	-0.3010
-4.4832	visualisasi	-0.2979
-4.1821	vocabnya	-0.2976
-4.4832	voltage	-0.3010
-4.4832	vormir	-0.2985
-4.4832	vue	-0.2370
-3.8811	wa	-0.2227
-4.4832	waalaikumsalam	-0.2972
-3.6381	waduh	-0.3786
-4.4832	wagila	-0.2992
-4.1821	wagyu	-0.2964
-2.5641	wah	-0.3581
-2.8111	waktu	-0.3157
-3.7050	waktunya	-0.3048
-3.5801	walaupun	-0.2945
-3.3692	wan	-0.4968
-3.5801	wanda	-0.5350
-4.1821	wandanya	-0.5380
-4.0060	wanita	-0.2368
-4.4832	wanitanya	-0.3008
-4.4832	warcraft	-0.2370
-4.4832	warcraftnya	-0.2999
-4.4832	warming	-0.3010
-4.1821	warna	-0.5952
-4.4832	warnanya	-0.2994
-4.1821	warteg	-0.2989
-4.0060	waw	-0.2970
-4.1821	way	-0.2985
-4.1821	web	-0.3010
-4.4832	webmd	-0.2370
-4.1821	webnya	-0.2984
-4.1821	website	-0.2976
-4.1821	weh	-0.2331
-4.0060	well	-0.4770
-4.4832	wew	-0.2965
-4.4832	what	-0.3009
-4.1821	wibu	-0.2370
-4.1821	wifi	-0.2948
-4.4832	wiki	-0.3003
-4.4832	windows	-0.3001
-4.4832	winternship	-0.2370
-4.4832	wisata	-0.2942
-4.4832	wisokto	-0.3005
-3.5801	wisuda	-0.2869
-4.4832	wisudaan	-0.2370
-4.4832	wisudaannya	-0.3003
-4.1821	wisudanya	-0.5380
-4.1821	wisudawan	-0.2970
-4.1821	wix	-0.6020
-4.4832	wo	-0.3010
-3.2790	woi	-0.4748
-4.1821	world	-0.3010
-4.0060	wortel	-0.4733
-4.4832	wortelnya	-0.3005
-4.4832	wow	-0.3010
-4.4832	x	-0.3010
-4.4832	y	-0.3010
-1.8387	ya	-0.5744
-4.4832	yaelah	-0.3010
-2.7508	yah	-0.4758
-4.4832	yaitu	-0.3007
-4.4832	yak	-0.2370
-3.8811	yakin	-0.2309
-4.1821	yan	-0.3006
-1.8046	yang	-0.3193
-4.0060	yasudah	-0.2979
-3.8811	yauda	-0.4227
-3.0060	yaudah	-0.3416
-4.4832	yaudalah	-0.3010
-4.1821	ye	-0.2985
-4.4832	yes	-0.3009
-4.4832	yey	-0.3009
-4.4832	yoga	-0.3009
-4.1821	yok	-0.2988
-3.4832	yon	-0.6268
-4.4832	yonas	-0.2968
-3.7050	yor	-0.3996
-4.1821	you	-0.6020
-4.1821	yu	-0.2362
-4.4832	yuds	-0.2370
-2.7050	yuk	-0.6028
-4.4832	za	-0.2370
-4.0060	zaman	-0.4758
-4.4832	zi	-0.2370
-4.4832	zombieland	-0.2370
-0.8631	!EXIT

\2-grams:
-3.4439	!ENTER a
-3.4439	!ENTER aa
-3.4439	!ENTER abis
-3.9211	!ENTER abisnya
-3.9211	!ENTER acara
-3.9211	!ENTER acaranya
-1.9526	!ENTER ada
-3.9211	!ENTER adegan
-3.9211	!ENTER adik
-3.4439	!ENTER adikku
-2.8797	!ENTER aduh
-3.4439	!ENTER agak
-2.3300	!ENTER ah
-3.9211	!ENTER ahelah
-3.9211	!ENTER ahsiap
-3.9211	!ENTER ai
-3.9211	!ENTER aing
-3.9211	!ENTER ajarin
-3.9211	!ENTER akan
-3.4439	!ENTER akhir
-3.2221	!ENTER akhirnya
-1.4693	!ENTER aku
-3.9211	!ENTER alasan
-3.9211	!ENTER alghi
-3.9211	!ENTER alhamdulillah
-3.9211	!ENTER alur
-3.9211	!ENTER amin
-3.0760	!ENTER anak
-3.9211	!ENTER analisisnya
-3.9211	!ENTER angkot
-3.9211	!ENTER angkotnya
-3.4439	!ENTER annelies
-3.9211	!ENTER antara
-3.9211	!ENTER anti
-2.2490	!ENTER apa
-3.0760	!ENTER apaan
-3.9211	!ENTER apah
-2.7450	!ENTER apakah
-2.9668	!ENTER apalagi
-3.9211	!ENTER apapula
-3.9211	!ENTER apapun
-3.4439	!ENTER apply
-3.9211	!ENTER asa
-3.4439	!ENTER asal
-3.2221	!ENTER asik
-3.9211	!ENTER assembly
-2.7450	!ENTER atau
-3.9211	!ENTER ato
-3.4439	!ENTER atur
-3.9211	!ENTER aturan
-3.9211	!ENTER awal
-3.4439	!ENTER awalnya
-3.9211	!ENTER ayam
-2.5988	!ENTER ayo
-3.4439	!ENTER ayuk
-3.9211	!ENTER bacanya
-2.6423	!ENTER bagaimana
-3.9211	!ENTER bagi
-2.9668	!ENTER bagus
-3.9211	!ENTER bahasa
-2.8797	!ENTER bahkan
-3.0760	!ENTER baik
-2.8071	!ENTER baiklah
-3.2221	!ENTER baju
-3.9211	!ENTER ban
-3.9211	!ENTER bandung
-3.9211	!ENTER banget
-3.4439	!ENTER bangun
-2.5593	!ENTER banyak
-3.9211	!ENTER banyakan
-2.9668	!ENTER baru
-3.9211	!ENTER barulah
-3.9211	!ENTER barusan
-3.4439	!ENTER bawakan
-3.9211	!ENTER beb
-3.9211	!ENTER becanda-becanda
-3.0760	!ENTER beda
-3.9211	!ENTER bedanya
-3.2221	!ENTER beli
-3.2221	!ENTER beliau
-2.8071	!ENTER belom
-2.2309	!ENTER belum
-2.7450	!ENTER benar
-3.0760	!ENTER benarkah
-3.4439	!ENTER bener
-3.9211	!ENTER bener-bener
-3.9211	!ENTER beneran
-3.2221	!ENTER bentar
-3.4439	!ENTER berapa
-3.9211	!ENTER berapaan
-2.7450	!ENTER berarti
-3.9211	!ENTER berdiri
-3.9211	!ENTER berenang
-3.9211	!ENTER berisik
-3.9211	!ENTER berjuang
-3.9211	!ENTER berlebihan
-3.9211	!ENTER bersepeda
-3.9211	!ENTER bertiga
-2.4297	!ENTER besok
-2.9668	!ENTER biar
-3.9211	!ENTER biarin
-2.8071	!ENTER biasa
-2.6906	!ENTER biasanya
-3.9211	!ENTER bikin
-3.4439	!ENTER bimbingan
-3.0760	!ENTER bingung
-2.6423	!ENTER bisa
-3.2221	!ENTER bisakah
-3.9211	!ENTER bla
-3.4439	!ENTER blibli
-3.9211	!ENTER bo
-3.9211	!ENTER boi
-3.9211	!ENTER bole
-3.9211	!ENTER bolee
-2.2490	!ENTER boleh
-3.9211	!ENTER bombastis
-3.9211	!ENTER bosan
-3.9211	!ENTER bosen
-3.0760	!ENTER btw
-3.0760	!ENTER buat
-3.9211	!ENTER budaya
-3.9211	!ENTER budgetnya
-3.0760	!ENTER buka
-3.9211	!ENTER bukain
-2.9668	!ENTER bukan
-3.2221	!ENTER bukankah
-3.0760	!ENTER bukannya
-3.9211	!ENTER buku
-3.4439	!ENTER bumi
-3.9211	!ENTER bunganya
-3.2221	!ENTER butuh
-3.4439	!ENTER by
-3.9211	!ENTER bye
-3.9211	!ENTER cacat
-3.9211	!ENTER campur
-3.2221	!ENTER cape
-3.9211	!ENTER caranya
-3.9211	!ENTER cece
-3.4439	!ENTER ceo
-3.9211	!ENTER cepat
-3.9211	!ENTER cerah
-3.9211	!ENTER cerdas
-3.9211	!ENTER charada
-3.9211	!ENTER chatbot
-3.9211	!ENTER chatnya
-3.4439	!ENTER cicis
-2.5593	!ENTER coba
-3.9211	!ENTER contoh
-3.4439	!ENTER contohnya
-3.9211	!ENTER cowok
-3.9211	!ENTER cuci
-3.9211	!ENTER cui
-3.4439	!ENTER cukup
-2.6906	!ENTER cuma
-2.5231	!ENTER cuman
-3.9211	!ENTER curang
-3.9211	!ENTER dalam
-2.1968	!ENTER dan
-3.4439	!ENTER dapur
-2.6423	!ENTER dari
-3.0760	!ENTER dasar
-3.2221	!ENTER data
-3.9211	!ENTER datathon
-3.2221	!ENTER dateng
-3.9211	!ENTER deadlinenya
-3.9211	!ENTER debatnya
-3.2221	!ENTER dekat
-3.4439	!ENTER deket
-3.9211	!ENTER delivery
-2.9668	!ENTER dengan
-3.9211	!ENTER denger-denger
-2.1807	!ENTER di
-2.0577	!ENTER dia
-3.9211	!ENTER diajak
-3.9211	!ENTER dialog-dialog
-3.9211	!ENTER diarahin
-3.9211	!ENTER dibandingkan
-3.0760	!ENTER dick
-3.9211	!ENTER dicoba
-3.9211	!ENTER dih
-2.6423	!ENTER dik
-3.9211	!ENTER dikasih
-3.9211	!ENTER dikit
-3.9211	!ENTER dimana
-3.9211	!ENTER dimarahin
-3.9211	!ENTER diminta
-3.9211	!ENTER dirimu
-3.9211	!ENTER disclaimer
-3.9211	!ENTER disuru
-3.2221	!ENTER disuruh
-3.9211	!ENTER ditanya
-3.9211	!ENTER ditanyain
-3.9211	!ENTER dokter
-3.9211	!ENTER dokumen
-3.2221	!ENTER dosen
-3.4439	!ENTER dosennya
-3.9211	!ENTER dsdm
-3.0760	!ENTER dua
-3.4439	!ENTER duh
-3.4439	!ENTER dulu
-3.4439	!ENTER durian
-3.2221	!ENTER e
-3.9211	!ENTER efeknya
-1.7307	!ENTER eh
-3.4439	!ENTER em
-3.9211	!ENTER email
-2.4025	!ENTER emang
-3.0760	!ENTER emangnya
-3.9211	!ENTER empat
-2.8797	!ENTER enak
-3.4439	!ENTER enakan
-3.9211	!ENTER enaknya
-3.9211	!ENTER enam
-3.0760	!ENTER engga
-3.0760	!ENTER enggak
-3.9211	!ENTER enrollment
-3.9211	!ENTER entah
-3.9211	!ENTER entar
-3.9211	!ENTER es
-3.9211	!ENTER eu
-3.4439	!ENTER euh
-3.0760	!ENTER eum
-3.9211	!ENTER expert
-3.9211	!ENTER fantasinya
-3.9211	!ENTER fantastis
-3.2221	!ENTER felix
-3.9211	!ENTER ferdi
-3.9211	!ENTER film
-3.9211	!ENTER format
-3.9211	!ENTER formnya
-3.9211	!ENTER fotokopi
-2.5231	!ENTER ga
-3.9211	!ENTER gaak
-3.4439	!ENTER gabut
-3.9211	!ENTER gagal
-2.2490	!ENTER gak
-3.9211	!ENTER ganti
-3.9211	!ENTER gara-gara
-3.2221	!ENTER gatau
-3.9211	!ENTER gdp
-3.4439	!ENTER gelap
-3.9211	!ENTER gerakannya
-3.2221	!ENTER gila
-2.3770	!ENTER gimana
-3.4439	!ENTER gini
-2.6906	!ENTER gitu
-3.9211	!ENTER gitulah
-3.9211	!ENTER gojek
-3.9211	!ENTER google
-3.9211	!ENTER gopay
-1.9433	!ENTER gua
-2.8797	!ENTER gue
-3.9211	!ENTER guys
-3.9211	!ENTER ha
-3.2221	!ENTER habis
-3.9211	!ENTER haduh
-2.5593	!ENTER hah
-3.2221	!ENTER haha
-2.8797	!ENTER hahaha
-2.5231	!ENTER hai
-3.9211	!ENTER hal
-3.4439	!ENTER halah
-3.4439	!ENTER hallo
-2.4025	!ENTER halo
-3.9211	!ENTER hanung
-3.0760	!ENTER hanya
-3.9211	!ENTER harga
-3.4439	!ENTER harganya
-2.7450	!ENTER hari
-2.8071	!ENTER harus
-3.9211	!ENTER haruskah
-2.6906	!ENTER harusnya
-3.9211	!ENTER hedon
-3.9211	!ENTER heh
-2.8071	!ENTER hehe
-3.9211	!ENTER hehehehehe
-3.9211	!ENTER hei
-2.7450	!ENTER hem
-3.9211	!ENTER henri
-3.4439	!ENTER hey
-3.9211	!ENTER hi
-3.9211	!ENTER hidup
-3.4439	!ENTER hidupnya
-3.9211	!ENTER hih
-3.4439	!ENTER hilang
-3.9211	!ENTER hitam
-3.9211	!ENTER hmif
-2.0577	!ENTER hmm
-3.4439	!ENTER hobiku
-3.4439	!ENTER hobimu
-3.9211	!ENTER hoo
-2.9668	!ENTER huh
-3.9211	!ENTER hujan
-3.9211	!ENTER hujannya
-3.9211	!ENTER ibaratnya
-3.9211	!ENTER ibu
-3.4439	!ENTER ide
-3.9211	!ENTER identification
-3.9211	!ENTER idenya
-2.4897	!ENTER ih
-3.2221	!ENTER ikut
-3.9211	!ENTER indonesia
-3.9211	!ENTER industri
-3.9211	!ENTER info
-3.9211	!ENTER ingat
-1.9717	!ENTER ini
-3.9211	!ENTER insyaallah
-3.9211	!ENTER integrity
-3.4439	!ENTER intern
-3.9211	!ENTER intinya
-3.4439	!ENTER iqbal
-3.4439	!ENTER ir
-3.4439	!ENTER itb
-1.8529	!ENTER itu
-3.9211	!ENTER itu-itu
-1.4200	!ENTER iya
-3.4439	!ENTER iya-iya
-3.9211	!ENTER iye
-1.6634	!ENTER jadi
-3.4439	!ENTER jadinya
-3.9211	!ENTER jaga-jaga
-2.9668	!ENTER jalan
-2.8797	!ENTER jam
-3.9211	!ENTER jaman
-3.9211	!ENTER jamnya
-2.6906	!ENTER jangan
-3.9211	!ENTER janganlah
-3.9211	!ENTER jaraknya
-3.9211	!ENTER jarang
-3.9211	!ENTER jarang-jarang
-3.9211	!ENTER jauh
-3.4439	!ENTER jelek
-3.9211	!ENTER jen
-3.2221	!ENTER jendelanya
-3.9211	!ENTER jenjang
-3.4439	!ENTER jika
-3.9211	!ENTER joni
-3.9211	!ENTER judul
-3.9211	!ENTER juga
-3.4439	!ENTER juli
-3.9211	!ENTER jumat
-3.9211	!ENTER justus
-3.9211	!ENTER kabarnya
-3.2221	!ENTER kadang
-3.9211	!ENTER kado
-3.9211	!ENTER kaga
-3.4439	!ENTER kak
-3.9211	!ENTER kakak
-3.9211	!ENTER kaki
-1.9082	!ENTER kalau
-2.6906	!ENTER kalian
-3.9211	!ENTER kalibr
-3.9211	!ENTER kalimat
-1.7657	!ENTER kalo
-3.9211	!ENTER kamar
-3.9211	!ENTER kamarnya
-2.9668	!ENTER kami
-1.6830	!ENTER kamu
-2.0126	!ENTER kan
-3.9211	!ENTER kanvas
-3.0760	!ENTER kapan
-3.4439	!ENTER kapan-kapan
-3.9211	!ENTER kapten
-2.2309	!ENTER karena
-3.2221	!ENTER karna
-3.9211	!ENTER kartu
-3.9211	!ENTER kasar
-3.9211	!ENTER kasian
-3.2221	!ENTER kasih
-2.6423	!ENTER kata
-2.6906	!ENTER katanya
-2.9668	!ENTER kau
-2.8071	!ENTER kaya
-2.6423	!ENTER kayak
-2.4297	!ENTER kayaknya
-2.8071	!ENTER kayanya
-2.8797	!ENTER ke
-3.9211	!ENTER keadaannya
-2.9668	!ENTER kebanyakan
-3.4439	!ENTER kebetulan
-3.9211	!ENTER kecepatan
-3.9211	!ENTER kedengarannya
-3.9211	!ENTER kediri
-3.9211	!ENTER kedua
-3.9211	!ENTER kelar
-3.4439	!ENTER kelas
-3.9211	!ENTER kelemahannya
-3.9211	!ENTER keliatan
-3.9211	!ENTER kelihatan
-3.9211	!ENTER kelihatannya
-3.4439	!ENTER kelompok
-3.9211	!ENTER keluar
-3.9211	!ENTER keluargaku
-3.4439	!ENTER kemana
-2.7450	!ENTER kemaren
-2.4297	!ENTER kemarin
-3.9211	!ENTER kembalinya
-3.4439	!ENTER kena
-2.5593	!ENTER kenapa
-3.9211	!ENTER kentang
-3.9211	!ENTER kenyang
-3.9211	!ENTER kepala
-3.9211	!ENTER keras
-3.0760	!ENTER keren
-3.4439	!ENTER kerjaan
-3.9211	!ENTER kesel
-3.9211	!ENTER ketemu
-3.9211	!ENTER ketiduran
-3.9211	!ENTER ketiga
-3.9211	!ENTER ketutup
-3.9211	!ENTER kikuk
-2.8071	!ENTER kira-kira
-2.0698	!ENTER kita
-3.9211	!ENTER klimaks
-3.2221	!ENTER ko
-2.4297	!ENTER kok
-3.9211	!ENTER komposisi
-3.4439	!ENTER kondisi
-3.9211	!ENTER kopi
-3.0760	!ENTER kosan
-3.0760	!ENTER kp
-3.4439	!ENTER ku
-3.9211	!ENTER kualitasnya
-3.9211	!ENTER kuat
-3.9211	!ENTER kucek
-3.9211	!ENTER kukira
-3.9211	!ENTER kumpulin
-3.9211	!ENTER kunci
-3.9211	!ENTER kuota
-3.0760	!ENTER kurang
-3.9211	!ENTER kutipan
-2.7450	!ENTER lagi
-3.0760	!ENTER lagian
-2.5231	!ENTER lah
-3.9211	!ENTER lain
-3.9211	!ENTER lalu
-3.9211	!ENTER lama
-3.4439	!ENTER lampunya
-3.9211	!ENTER lanjut
-3.4439	!ENTER lantai
-3.9211	!ENTER laper
-3.2221	!ENTER laptop
-3.9211	!ENTER lauknya
-2.8797	!ENTER lebih
-3.9211	!ENTER lembar
-3.9211	!ENTER lho
-3.4439	!ENTER liat
-3.0760	!ENTER liburan
-3.0760	!ENTER lihat
-3.4439	!ENTER lima
-3.9211	!ENTER lin
-2.8797	!ENTER lix
-2.8797	!ENTER lo
-2.5593	!ENTER loh
-3.9211	!ENTER lomba
-3.9211	!ENTER lombanya
-2.1807	!ENTER lu
-3.4439	!ENTER lucu
-3.9211	!ENTER lucunya
-3.9211	!ENTER lulus
-3.0760	!ENTER lumayan
-3.9211	!ENTER m
-3.2221	!ENTER ma
-2.9668	!ENTER maaf
-3.4439	!ENTER maafin
-3.9211	!ENTER maap
-3.9211	!ENTER magang
-3.9211	!ENTER mager
-3.2221	!ENTER mahal
-3.9211	!ENTER main
-3.4439	!ENTER maka
-2.9668	!ENTER makan
-3.0760	!ENTER makanan
-3.9211	!ENTER makannya
-2.8071	!ENTER makanya
-3.4439	!ENTER makasih
-3.4439	!ENTER maksud
-2.8797	!ENTER maksudnya
-3.9211	!ENTER malah
-3.9211	!ENTER malahan
-3.9211	!ENTER malam
-3.9211	!ENTER mamanya
-3.9211	!ENTER man
-3.0760	!ENTER mana
-3.2221	!ENTER mantap
-3.9211	!ENTER manusia
-3.9211	!ENTER maret
-3.4439	!ENTER mari
-3.9211	!ENTER martabak
-2.9668	!ENTER mas
-2.6906	!ENTER masa
-3.9211	!ENTER masak
-3.9211	!ENTER masakan
-2.5231	!ENTER masih
-3.9211	!ENTER masing-masing
-3.9211	!ENTER masukin
-3.9211	!ENTER mata
-3.9211	!ENTER materi
-3.9211	!ENTER materialnya
-2.1357	!ENTER mau
-3.9211	!ENTER maunya
-3.9211	!ENTER mbd
-3.9211	!ENTER memanah
-2.7450	!ENTER memang
-2.9668	!ENTER memangnya
-3.9211	!ENTER member
-3.9211	!ENTER memungkinkan
-3.9211	!ENTER menceritakan
-2.8071	!ENTER mending
-3.2221	!ENTER mendingan
-3.9211	!ENTER mengarah
-3.9211	!ENTER menghadap
-3.9211	!ENTER menikah
-3.0760	!ENTER menurut
-3.4439	!ENTER menurutku
-3.9211	!ENTER menyebalkan
-3.9211	!ENTER menyesuaikan
-2.6906	!ENTER mereka
-2.6906	!ENTER meskipun
-3.9211	!ENTER mie
-2.8797	!ENTER minggu
-3.9211	!ENTER mini
-3.4439	!ENTER minta
-3.2221	!ENTER misalnya
-3.4439	!ENTER mit
-3.9211	!ENTER ml
-3.4439	!ENTER mm
-2.8797	!ENTER mo
-3.9211	!ENTER mulai
-3.9211	!ENTER muncul
-2.6906	!ENTER mungkin
-3.9211	!ENTER murah
-3.9211	!ENTER musti
-3.4439	!ENTER na
-2.2309	!ENTER nah
-3.9211	!ENTER naik
-3.2221	!ENTER nama
-3.4439	!ENTER namun
-2.0698	!ENTER nanti
-3.9211	!ENTER napak
-3.4439	!ENTER narcos
-3.9211	!ENTER nasi
-3.9211	!ENTER nasib
-3.9211	!ENTER nat
-3.9211	!ENTER nengokin
-3.9211	!ENTER ngalamin
-3.9211	!ENTER ngantrinya
-2.9668	!ENTER ngapain
-3.9211	!ENTER ngecek
-3.9211	!ENTER ngelihat
-3.9211	!ENTER ngelihatnya
-3.9211	!ENTER ngerasain
-3.9211	!ENTER ngeri
-3.0760	!ENTER ngerjain
-3.9211	!ENTER ngerti
-3.2221	!ENTER ngga
-2.4587	!ENTER nggak
-3.9211	!ENTER ngomong
-2.6423	!ENTER ngomong-ngomong
-3.9211	!ENTER ngomongnya
-3.9211	!ENTER ngurus
-2.8797	!ENTER nih
-3.9211	!ENTER nisa
-3.9211	!ENTER niza
-3.9211	!ENTER no
-3.9211	!ENTER noleh
-3.4439	!ENTER nonton
-2.8797	!ENTER ntar
-3.9211	!ENTER nya
-3.0760	!ENTER o
