~o
<STREAMINFO> 1 25
<VECSIZE> 25<NULLD><MFCC_D_N_Z_0><DIAGC>
~h "a"
<BEGINHMM>
<NUMSTATES> 5
<STATE> 2
<MEAN> 25
 4.191549e+00 -7.039841e+00 -3.531732e+00 -3.864046e+00 -1.526423e-01 -1.504773e+00 -4.823892e-01 3.766938e+00 2.835485e+00 -4.711694e-02 -2.756834e+00 -3.298754e+00 2.439999e-01 -7.537034e-01 -4.207049e-01 -2.303102e-01 4.576061e-01 2.819843e-01 1.735053e-01 4.623912e-01 1.655392e-01 -2.521845e-01 -5.873973e-01 -3.085107e-01 4.217730e-01
<VARIANCE> 25
 3.039651e+01 4.134048e+01 4.472338e+01 4.693065e+01 5.986070e+01 6.473016e+01 5.537646e+01 5.699592e+01 5.809756e+01 5.125369e+01 5.127408e+01 4.559673e+01 1.581415e+00 3.130226e+00 2.500428e+00 3.202669e+00 3.559210e+00 3.790922e+00 3.661553e+00 4.393112e+00 3.670673e+00 3.589519e+00 3.519166e+00 3.060112e+00 2.536543e+00
<GCONST> 1.077534e+02
<STATE> 3
<MEAN> 25
 4.464895e+00 -7.538317e+00 -3.838918e+00 -3.702782e+00 4.776415e-01 -1.147138e+00 -4.892241e-01 3.719440e+00 2.797562e+00 -3.950331e-01 -3.365978e+00 -3.419422e+00 -7.037455e-02 5.472674e-01 3.102904e-02 5.619579e-01 2.536246e-01 2.452434e-01 1.289196e-01 -3.120216e-01 -1.937784e-01 -9.530310e-02 -1.958140e-02 3.045168e-01 -6.907952e-01
<VARIANCE> 25
 2.402966e+01 3.987378e+01 3.960753e+01 4.316157e+01 5.320000e+01 5.710028e+01 5.104618e+01 5.452887e+01 5.601592e+01 4.938810e+01 5.114140e+01 4.358741e+01 7.924824e-01 2.004471e+00 1.713568e+00 2.210680e+00 2.646254e+00 2.939556e+00 2.862891e+00 3.166322e+00 2.857541e+00 2.814312e+00 2.728234e+00 2.384945e+00 1.445585e+00
<GCONST> 1.022175e+02
<STATE> 4
<MEAN> 25
 2.441097e+00 -3.902005e+00 -4.069328e+00 -3.917271e-01 2.320546e+00 7.121189e-01 8.997552e-01 2.561746e+00 1.913075e+00 -8.512491e-01 -2.829984e+00 -1.283960e+00 -2.811792e-01 7.893186e-01 2.650250e-01 5.124748e-01 4.788303e-02 1.506141e-01 1.026189e-01 -3.591290e-01 -2.253845e-01 4.074008e-02 2.480150e-01 3.257899e-01 -8.290322e-01
<VARIANCE> 25
 3.172743e+01 4.251780e+01 3.325498e+01 4.605449e+01 4.522737e+01 4.873128e+01 4.196635e+01 4.395343e+01 4.446707e+01 4.378826e+01 4.391925e+01 3.699228e+01 7.222975e-01 1.386086e+00 1.386067e+00 1.788079e+00 2.037524e+00 2.154515e+00 2.186541e+00 2.489348e+00 2.354934e+00 2.218422e+00 2.172665e+00 1.871221e+00 8.496903e-01
<GCONST> 9.764866e+01
<TRANSP> 5
 0.000000e+00 1.000000e+00 0.000000e+00 0.000000e+00 0.000000e+00
 0.000000e+00 4.665097e-01 5.334904e-01 0.000000e+00 0.000000e+00
 0.000000e+00 0.000000e+00 4.610331e-01 5.389670e-01 0.000000e+00
 0.000000e+00 0.000000e+00 0.000000e+00 7.588968e-01 2.411032e-01
 0.000000e+00 0.000000e+00 0.000000e+00 0.000000e+00 0.000000e+00
<ENDHMM>
~h "b"
<BEGINHMM>
<NUMSTATES> 5
<STATE> 2
<MEAN> 25
 3.476314e+00 6.927087e+00 1.139330e+00 3.946387e+00 2.201002e+00 2.158501e+00 -7.969542e-01 -3.590300e+00 -2.661945e+00 -1.922692e+00 -6.814195e-01 -3.914705e-01 4.467707e-01 3.342848e-01 -2.326699e-02 -3.341877e-02 2.575451e-02 -1.777410e-01 -4.524783e-01 -4.154652e-01 2.079041e-02 -3.970139e-02 2.231583e-01 -1.026446e-01 2.596818e-01
<VARIANCE> 25
 2.971098e+01 3.571044e+01 2.660947e+01 3.555462e+01 3.118249e+01 3.506568e+01 3.742486e+01 3.811705e+01 3.613877e+01 3.609918e+01 3.037626e+01 2.545528e+01 2.512265e+00 4.114642e+00 2.712046e+00 4.346360e+00 2.988095e+00 3.738443e+00 3.942313e+00 3.542431e+00 3.752750e+00 4.193446e+00 3.513598e+00 2.429501e+00 3.526733e+00
<GCONST> 1.038639e+02
<STATE> 3
<MEAN> 25
 5.330274e+00 4.584226e+00 -2.227231e-01 1.090677e+00 1.062881e+00 6.843598e-01 -3.560630e+00 -4.502108e+00 -1.525833e+00 -3.341429e-03 1.261073e+00 -1.071042e+00 3.865754e-01 -1.885731e+00 -6.584520e-01 -1.522489e+00 -8.869171e-01 -1.014766e+00 -1.200923e+00 4.567704e-01 1.148168e+00 1.114559e+00 7.523029e-01 -5.875717e-01 1.899722e+00
<VARIANCE> 25
 2.144704e+01 4.441041e+01 3.083784e+01 5.377127e+01 3.287260e+01 4.085936e+01 4.322430e+01 3.960259e+01 4.249973e+01 5.423547e+01 4.504935e+01 3.156401e+01 2.155453e+00 5.870216e+00 3.942734e+00 7.070083e+00 4.322055e+00 5.757444e+00 5.758402e+00 5.436665e+00 6.698070e+00 7.328012e+00 5.328230e+00 4.640354e+00 3.630375e+00
<GCONST> 1.107845e+02
<STATE> 4
<MEAN> 25
 5.666203e+00 7.672865e-01 -7.236203e-01 -7.236564e-01 -1.027186e+00 -1.866427e+00 -5.344853e+00 -1.892309e+00 1.148651e+00 8.044403e-01 1.217364e+00 -2.791819e+00 -5.950922e-02 -1.354746e+00 6.156250e-02 -5.956988e-01 -7.839278e-01 -7.819947e-01 -1.161523e-01 9.734767e-01 6.816680e-01 2.159563e-01 -9.239350e-02 -2.557919e-01 1.120168e+00
<VARIANCE> 25
 2.255742e+01 5.365807e+01 4.034381e+01 7.292298e+01 4.160936e+01 5.678932e+01 4.906303e+01 4.869409e+01 6.005236e+01 9.201118e+01 4.803334e+01 4.052780e+01 1.272437e+00 3.608050e+00 3.704291e+00 4.900888e+00 4.053425e+00 4.974678e+00 4.502760e+00 5.682130e+00 5.785224e+00 5.294459e+00 5.153451e+00 4.195236e+00 2.044545e+00
<GCONST> 1.106495e+02
<TRANSP> 5
 0.000000e+00 1.000000e+00 0.000000e+00 0.000000e+00 0.000000e+00
 0.000000e+00 5.074593e-01 4.925407e-01 0.000000e+00 0.000000e+00
 0.000000e+00 0.000000e+00 4.104195e-01 5.895805e-01 0.000000e+00
 0.000000e+00 0.000000e+00 0.000000e+00 3.944926e-01 6.055074e-01
 0.000000e+00 0.000000e+00 0.000000e+00 0.000000e+00 0.000000e+00
<ENDHMM>
~h "c"
<BEGINHMM>
<NUMSTATES> 5
<STATE> 2
<MEAN> 25
 -8.557934e+00 4.856037e+00 -3.857255e-02 1.000187e+00 3.561987e+00 3.763407e-01 8.804486e-01 -4.211286e-01 8.528162e-01 -3.050937e-01 1.374064e+00 1.030452e+00 -1.850549e+00 1.255315e-01 1.951716e-01 -5.566404e-01 1.193501e-01 -2.863591e-01 4.139051e-01 1.351676e-01 2.997817e-01 -5.682148e-03 3.866408e-01 1.217773e-01 7.738205e-01
<VARIANCE> 25
 1.122161e+02 5.233680e+01 4.553090e+01 5.132777e+01 4.934719e+01 5.523571e+01 4.545134e+01 5.349894e+01 4.528506e+01 3.412081e+01 3.640014e+01 3.140289e+01 7.474894e+00 5.787724e+00 4.258054e+00 4.641206e+00 5.472651e+00 5.488968e+00 4.053242e+00 4.803836e+00 3.879509e+00 3.302713e+00 2.985857e+00 2.347093e+00 6.843707e+00
<GCONST> 1.120162e+02
<STATE> 3
<MEAN> 25
 -1.085921e+01 7.582811e-01 5.258980e+00 6.047016e-02 -8.226762e-01 -1.023680e+00 1.373441e+00 -1.277514e-01 2.154422e+00 -2.016325e+00 1.877587e+00 2.456869e+00 2.400812e+00 -1.481978e+00 8.275724e-01 1.602094e-01 -1.827656e+00 -1.339839e+00 -8.925577e-01 5.712807e-02 1.474876e-01 -4.464707e-01 -2.830443e-01 -1.695119e-01 1.769483e+00
<VARIANCE> 25
 7.927781e+01 1.003352e+02 6.815633e+01 5.656711e+01 7.127671e+01 9.410318e+01 6.164372e+01 5.980381e+01 4.424219e+01 4.443453e+01 3.809293e+01 3.301740e+01 1.102872e+01 9.195547e+00 7.580879e+00 6.042555e+00 7.263305e+00 8.338439e+00 7.008137e+00 7.090936e+00 6.026502e+00 5.662817e+00 4.088757e+00 3.566035e+00 3.853211e+00
<GCONST> 1.189418e+02
<STATE> 4
<MEAN> 25
 1.772822e+00 -1.724638e+00 4.099760e+00 3.363757e-01 -4.904886e+00 -4.783432e+00 -2.424527e+00 -1.147490e+00 1.788175e+00 -2.295451e+00 1.974204e-01 9.995323e-02 2.036242e+00 -5.023407e-01 -7.453213e-01 -2.963281e-01 -4.026641e-01 -3.576266e-01 -6.408246e-01 -7.781862e-02 -1.734319e-01 3.013651e-01 -7.606138e-02 -4.904556e-01 5.624597e-01
<VARIANCE> 25
 6.674906e+01 7.510546e+01 7.094615e+01 4.644505e+01 8.891772e+01 1.071827e+02 7.626009e+01 8.320908e+01 7.086121e+01 5.179673e+01 4.582071e+01 3.725786e+01 7.358269e+00 7.336368e+00 6.296216e+00 4.335196e+00 6.659352e+00 8.002966e+00 5.884088e+00 6.066541e+00 6.212322e+00 4.801507e+00 4.478504e+00 3.744328e+00 3.316560e+00
<GCONST> 1.183955e+02
<TRANSP> 5
 0.000000e+00 1.000000e+00 0.000000e+00 0.000000e+00 0.000000e+00
 0.000000e+00 7.809964e-01 2.190036e-01 0.000000e+00 0.000000e+00
 0.000000e+00 0.000000e+00 6.025931e-01 3.974069e-01 0.000000e+00
 0.000000e+00 0.000000e+00 0.000000e+00 6.591008e-01 3.408992e-01
 0.000000e+00 0.000000e+00 0.000000e+00 0.000000e+00 0.000000e+00
<ENDHMM>
~h "d"
<BEGINHMM>
<NUMSTATES> 5
<STATE> 2
<MEAN> 25
 2.483167e+00 4.293178e+00 3.177213e+00 5.409491e+00 5.640614e-01 -2.803116e-01 -1.317858e+00 -1.453426e+00 -8.832841e-01 -2.364493e+00 -1.339091e+00 1.908015e-01 1.109005e-01 -7.385955e-01 8.892503e-01 3.311386e-02 -8.488799e-01 -8.730239e-01 -4.492228e-01 -5.282845e-02 -1.770636e-01 -2.678764e-01 4.641222e-01 2.169747e-01 1.037105e+00
<VARIANCE> 25
 4.184693e+01 6.623862e+01 4.245420e+01 5.539981e+01 6.583827e+01 6.302374e+01 5.383545e+01 5.449405e+01 5.028783e+01 4.476558e+01 4.758866e+01 3.603029e+01 4.114856e+00 8.101214e+00 4.336579e+00 6.358160e+00 6.864032e+00 7.137516e+00 6.344517e+00 6.499053e+00 5.842765e+00 5.483765e+00 5.334492e+00 3.780776e+00 6.228664e+00
<GCONST> 1.158527e+02
<STATE> 3
<MEAN> 25
 2.847239e+00 -7.032529e-01 6.235769e+00 2.994169e+00 -4.545158e+00 -4.855043e+00 -3.187964e+00 -7.030348e-01 -8.982485e-01 -2.155058e+00 8.569489e-01 1.061817e+00 -4.042343e-02 -1.696411e+00 7.405765e-01 -1.434648e+00 -1.724728e+00 -1.260393e+00 -6.983060e-01 6.503611e-01 1.828202e-01 6.388478e-01 1.005661e+00 4.516542e-05 1.963489e+00
<VARIANCE> 25
 2.336973e+01 5.145713e+01 4.627220e+01 6.090379e+01 7.080408e+01 6.061258e+01 6.797864e+01 6.387389e+01 5.847578e+01 5.204822e+01 4.909406e+01 3.747548e+01 2.535104e+00 5.447920e+00 5.284603e+00 6.120739e+00 6.723424e+00 6.159351e+00 7.153877e+00 7.747052e+00 6.976779e+00 6.395575e+00 6.087247e+00 4.080611e+00 4.122880e+00
<GCONST> 1.155294e+02
<STATE> 4
<MEAN> 25
 4.122566e+00 -2.914195e+00 6.725160e+00 1.233563e+00 -7.111089e+00 -6.055417e+00 -4.646387e+00 -3.671974e-02 1.279437e-01 -1.832244e+00 1.416426e+00 -1.325122e-01 -7.970598e-03 -2.286787e-01 -2.415874e-01 -6.698393e-01 -1.875979e-01 5.558257e-02 9.415810e-02 2.237526e-01 9.608939e-02 3.857214e-01 5.919880e-02 -3.605807e-01 3.836482e-01
<VARIANCE> 25
 2.659958e+01 5.553302e+01 5.730663e+01 7.764107e+01 7.957154e+01 7.110863e+01 8.449141e+01 9.665971e+01 7.334980e+01 7.894718e+01 5.622594e+01 3.957489e+01 1.231210e+00 2.963717e+00 4.047446e+00 4.126028e+00 5.064426e+00 4.495928e+00 4.806509e+00 5.032553e+00 4.558193e+00 4.426319e+00 4.406012e+00 3.212427e+00 2.556600e+00
<GCONST> 1.126800e+02
<TRANSP> 5
 0.000000e+00 1.000000e+00 0.000000e+00 0.000000e+00 0.000000e+00
 0.000000e+00 5.569822e-01 4.430178e-01 0.000000e+00 0.000000e+00
 0.000000e+00 0.000000e+00 3.859122e-01 6.140878e-01 0.000000e+00
 0.000000e+00 0.000000e+00 0.000000e+00 5.809872e-01 4.190128e-01
 0.000000e+00 0.000000e+00 0.000000e+00 0.000000e+00 0.000000e+00
<ENDHMM>
~h "e"
<BEGINHMM>
<NUMSTATES> 5
<STATE> 2
<MEAN> 25
 2.339833e+00 -3.439419e+00 1.317818e+00 -8.659416e-02 -4.419629e+00 -5.736461e+00 4.186988e-01 2.640672e+00 -1.330962e-01 8.059164e-01 1.033335e+00 -2.621015e-01 6.793821e-01 -7.423583e-01 5.925756e-01 -3.629379e-01 -1.110197e+00 -7.154588e-01 4.033796e-01 5.924550e-01 -4.776377e-01 4.867727e-02 1.273935e-01 -2.562993e-01 1.054896e+00
<VARIANCE> 25
 4.313948e+01 4.987443e+01 5.556058e+01 4.453631e+01 7.124545e+01 7.043958e+01 6.014077e+01 6.546044e+01 5.772044e+01 4.765002e+01 4.664371e+01 3.216495e+01 3.322355e+00 4.100945e+00 3.954946e+00 4.209841e+00 5.202098e+00 5.605283e+00 4.708256e+00 5.521916e+00 4.816339e+00 4.104402e+00 3.966796e+00 2.952542e+00 4.429638e+00
<GCONST> 1.124547e+02
<STATE> 3
<MEAN> 25
 3.546247e+00 -4.502407e+00 2.478827e+00 -7.563701e-01 -6.208357e+00 -6.652662e+00 7.527933e-01 3.284120e+00 -7.228318e-01 8.226823e-01 1.307537e+00 -8.181011e-01 5.921498e-02 1.703388e-01 1.687348e-01 1.508015e-01 -4.918667e-02 3.060744e-01 3.672130e-01 -9.779800e-02 -2.385655e-01 2.003066e-03 -8.685374e-02 -6.206292e-02 -1.940298e-01
<VARIANCE> 25
 2.990207e+01 4.805214e+01 5.632482e+01 4.497233e+01 6.964665e+01 6.626194e+01 5.801440e+01 7.229928e+01 5.756716e+01 4.856791e+01 4.742866e+01 3.146076e+01 1.203917e+00 2.260391e+00 2.276848e+00 2.559257e+00 3.176443e+00 3.018486e+00 3.226908e+00 3.308814e+00 3.260321e+00 2.848786e+00 2.701708e+00 2.148121e+00 1.792885e+00
<GCONST> 1.050400e+02
<STATE> 4
<MEAN> 25
 2.020126e+00 -2.635596e+00 3.669527e+00 5.523937e-01 -5.831866e+00 -5.310705e+00 2.520422e+00 3.050411e+00 -1.828125e+00 7.655151e-01 1.603315e+00 -1.770621e-01 -1.982865e-01 4.818781e-01 -1.702759e-01 3.100199e-01 5.784190e-01 5.177923e-01 2.239337e-02 -3.065554e-01 4.665956e-02 -1.050328e-01 -1.702825e-01 7.627125e-02 -5.775167e-01
<VARIANCE> 25
 3.211766e+01 4.233845e+01 5.290456e+01 4.355220e+01 6.377132e+01 6.037981e+01 5.339663e+01 5.847685e+01 5.281541e+01 4.188730e+01 3.989932e+01 2.924495e+01 6.474606e-01 1.330004e+00 1.379427e+00 1.572989e+00 2.150912e+00 2.051838e+00 2.272095e+00 2.219136e+00 2.203917e+00 2.024340e+00 1.887386e+00 1.528947e+00 7.836679e-01
<GCONST> 9.800974e+01
<TRANSP> 5
 0.000000e+00 1.000000e+00 0.000000e+00 0.000000e+00 0.000000e+00
 0.000000e+00 4.284671e-01 5.715330e-01 0.000000e+00 0.000000e+00
 0.000000e+00 0.000000e+00 3.179604e-01 6.820396e-01 0.000000e+00
 0.000000e+00 0.000000e+00 0.000000e+00 7.801422e-01 2.198578e-01
 0.000000e+00 0.000000e+00 0.000000e+00 0.000000e+00 0.000000e+00
<ENDHMM>
~h "f"
<BEGINHMM>
<NUMSTATES> 5
<STATE> 2
<MEAN> 25
 -1.090531e+00 7.041201e-01 -1.406505e+00 2.767439e+00 2.496175e+00 -2.787262e-01 1.560278e+00 -5.482996e-01 6.150286e-01 -2.390644e-01 5.649823e-01 6.021864e-01 -1.675980e+00 3.300000e-01 -1.670589e-01 3.846541e-01 7.459531e-01 -5.321477e-02 5.141266e-01 4.945577e-02 3.437531e-01 -2.001617e-01 -5.835309e-02 4.876886e-01 -6.634742e-01
<VARIANCE> 25
 3.957000e+01 2.565443e+01 3.670398e+01 3.228741e+01 4.137807e+01 4.917677e+01 4.189091e+01 5.231680e+01 4.125313e+01 4.480141e+01 3.251370e+01 2.877591e+01 2.742561e+00 2.283762e+00 2.127041e+00 2.157983e+00 3.063434e+00 3.194868e+00 3.385602e+00 3.311786e+00 2.831407e+00 2.795012e+00 2.743889e+00 2.011241e+00 1.013937e+00
<GCONST> 1.014683e+02
<STATE> 3
<MEAN> 25
 -4.130698e+00 1.099347e+00 -1.426692e+00 3.097097e+00 2.890285e+00 -9.109113e-01 2.104689e+00 -5.606387e-01 1.156404e+00 -3.933912e-01 2.813413e-01 1.649573e+00 -9.595992e-01 -5.932830e-03 2.482936e-02 1.851955e-01 2.188577e-01 -1.114539e-01 2.275195e-01 1.196036e-01 2.430010e-01 -7.806019e-02 -9.804212e-02 2.707094e-01 -2.955343e-01
<VARIANCE> 25
 3.758400e+01 2.554270e+01 3.492063e+01 3.155026e+01 3.542437e+01 4.833649e+01 3.962352e+01 4.428985e+01 4.313367e+01 3.592290e+01 3.219749e+01 2.398274e+01 2.224906e+00 1.381518e+00 1.576487e+00 1.869302e+00 2.274300e+00 2.586259e+00 2.233463e+00 2.642772e+00 2.302740e+00 2.395344e+00 2.013396e+00 1.836928e+00 7.450879e-01
<GCONST> 9.720139e+01
<STATE> 4
<MEAN> 25
 -5.497901e+00 1.280567e+00 -6.682023e-01 3.313612e+00 3.472803e+00 1.074151e+00 2.597162e+00 4.401699e-01 3.408927e-01 -2.315789e-01 3.796999e-01 2.852566e+00 1.264567e-01 -9.485344e-02 1.799852e-01 -3.719750e-02 -1.372593e-01 -1.413253e-01 -1.420666e-01 -7.021071e-03 -3.364464e-02 -9.471860e-03 -9.545958e-03 6.248822e-03 2.885090e-02
<VARIANCE> 25
 2.942894e+01 1.829361e+01 2.450183e+01 2.120533e+01 2.256107e+01 3.622232e+01 2.703788e+01 2.936934e+01 3.175927e+01 2.429226e+01 2.421372e+01 2.313276e+01 1.337495e+00 8.188320e-01 1.384685e+00 1.433686e+00 1.844155e+00 2.257865e+00 2.139877e+00 2.020767e+00 2.136362e+00 2.020029e+00 1.906681e+00 1.593562e+00 5.012892e-01
<GCONST> 9.039835e+01
<TRANSP> 5
 0.000000e+00 1.000000e+00 0.000000e+00 0.000000e+00 0.000000e+00
 0.000000e+00 4.173169e-01 5.826832e-01 0.000000e+00 0.000000e+00
 0.000000e+00 0.000000e+00 3.932515e-01 6.067485e-01 0.000000e+00
 0.000000e+00 0.000000e+00 0.000000e+00 8.461379e-01 1.538621e-01
 0.000000e+00 0.000000e+00 0.000000e+00 0.000000e+00 0.000000e+00
<ENDHMM>
~h "g"
<BEGINHMM>
<NUMSTATES> 5
<STATE> 2
<MEAN> 25
 2.953558e+00 3.625189e+00 2.975422e+00 3.226226e+00 2.162939e-01 -1.559736e+00 -2.225936e+00 -2.165996e+00 -2.041268e+00 -6.514144e-01 -5.690198e-01 -1.279766e+00 1.776350e-01 -3.225862e-01 3.187176e-01 7.081330e-02 -9.472750e-02 -1.061012e+00 -7.396439e-01 2.528872e-01 8.821829e-02 1.054885e-01 2.442952e-01 -1.994134e-01 7.751582e-01
<VARIANCE> 25
 3.597935e+01 5.481560e+01 4.516903e+01 4.800630e+01 7.273551e+01 6.919189e+01 5.760567e+01 6.021478e+01 5.631538e+01 5.120731e+01 4.124225e+01 3.394940e+01 3.916440e+00 6.486269e+00 4.470854e+00 4.876165e+00 7.801556e+00 7.316370e+00 6.073215e+00 5.684408e+00 5.503442e+00 5.394513e+00 4.368348e+00 3.570808e+00 5.138556e+00
<GCONST> 1.147796e+02
<STATE> 3
<MEAN> 25
 3.708219e+00 1.452408e+00 3.161659e+00 1.784605e+00 -1.390963e+00 -5.519567e+00 -4.772992e+00 -3.874620e-01 -9.322776e-01 1.915646e-01 6.063082e-01 -1.851009e+00 1.314275e-01 -9.177847e-01 2.383872e-02 -9.756824e-01 -7.298937e-01 -8.165236e-01 -4.185753e-01 7.947189e-01 6.434639e-01 3.543710e-01 2.563584e-01 -2.200311e-01 1.250629e+00
<VARIANCE> 25
 2.835062e+01 5.161920e+01 4.588057e+01 5.045596e+01 6.965753e+01 7.214856e+01 6.938550e+01 6.482754e+01 5.549018e+01 6.405855e+01 5.269253e+01 3.870868e+01 2.242596e+00 4.858912e+00 4.597167e+00 5.192712e+00 7.243857e+00 6.109943e+00 5.998709e+00 6.249345e+00 6.191403e+00 5.530071e+00 4.874128e+00 3.788504e+00 3.294433e+00
<GCONST> 1.143296e+02
<STATE> 4
<MEAN> 25
 4.715524e+00 -3.528782e-01 2.920501e+00 -4.327152e-01 -3.919972e+00 -6.097972e+00 -4.926799e+00 1.061384e+00 6.693300e-01 -7.690423e-01 3.562999e-01 -2.010336e+00 -3.674420e-02 -5.096804e-01 -1.976487e-01 -7.822211e-01 -2.777065e-01 3.094552e-01 3.653024e-01 3.521154e-01 2.885224e-01 1.526634e-01 -1.572563e-01 -9.211488e-02 5.145192e-01
<VARIANCE> 25
 3.567346e+01 6.478315e+01 5.150303e+01 6.345584e+01 6.927941e+01 7.187429e+01 7.162825e+01 8.337018e+01 7.187042e+01 9.626556e+01 5.849525e+01 4.383316e+01 1.214177e+00 2.777423e+00 3.630233e+00 3.302714e+00 3.875179e+00 3.824631e+00 3.733383e+00 4.367313e+00 4.319993e+00 3.934553e+00 3.742019e+00 2.807902e+00 1.762278e+00
<GCONST> 1.106224e+02
<TRANSP> 5
 0.000000e+00 1.000000e+00 0.000000e+00 0.000000e+00 0.000000e+00
 0.000000e+00 5.460464e-01 4.539536e-01 0.000000e+00 0.000000e+00
 0.000000e+00 0.000000e+00 4.342360e-01 5.657640e-01 0.000000e+00
 0.000000e+00 0.000000e+00 0.000000e+00 5.408524e-01 4.591475e-01
 0.000000e+00 0.000000e+00 0.000000e+00 0.000000e+00 0.000000e+00
<ENDHMM>
~h "h"
<BEGINHMM>
<NUMSTATES> 5
<STATE> 2
<MEAN> 25
 5.055591e-01 -2.139685e+00 9.121115e-01 -1.752625e-01 -2.110015e-01 1.143750e+00 2.600702e+00 5.296511e-01 3.968071e-01 -3.568090e-01 -8.086646e-01 2.387387e-01 -5.270154e-01 1.383216e-01 -2.224950e-01 3.356861e-01 6.007413e-01 3.347642e-01 3.728587e-01 1.304360e-01 4.778061e-02 -4.823934e-02 -4.266988e-03 2.538823e-01 -7.079699e-01
<VARIANCE> 25
 3.814691e+01 5.365502e+01 6.495068e+01 5.169497e+01 7.503874e+01 6.091490e+01 6.230459e+01 5.763448e+01 4.993382e+01 4.428648e+01 4.538666e+01 3.368422e+01 1.318649e+00 1.958401e+00 2.263765e+00 2.293611e+00 2.930410e+00 2.689974e+00 2.850003e+00 2.774616e+00 2.795460e+00 2.522739e+00 2.587305e+00 2.089189e+00 1.317528e+00
<GCONST> 1.039821e+02
<STATE> 3
<MEAN> 25
 -2.035452e-01 -2.117085e+00 -2.848248e-01 6.200847e-01 1.104867e+00 1.396832e+00 3.066763e+00 7.173014e-01 5.329198e-02 -6.296244e-01 -9.023124e-01 5.987780e-01 -4.028675e-01 2.284612e-01 -2.173518e-01 2.593054e-01 3.545985e-01 1.424937e-01 3.717655e-02 5.265187e-02 3.364591e-03 5.884929e-03 2.885152e-02 1.775116e-01 -6.680012e-01
<VARIANCE> 25
 3.947467e+01 5.319164e+01 5.445784e+01 4.670778e+01 6.209275e+01 5.283171e+01 5.445430e+01 5.106917e+01 4.683486e+01 4.192785e+01 4.401116e+01 3.262963e+01 7.736960e-01 1.297691e+00 1.651356e+00 1.706670e+00 2.173796e+00 2.227023e+00 2.310517e+00 2.286961e+00 2.320498e+00 2.136887e+00 1.976281e+00 1.720556e+00 6.445941e-01
<GCONST> 9.898420e+01
<STATE> 4
<MEAN> 25
 -4.396798e+00 8.315615e-01 -1.107298e+00 2.242832e+00 3.691264e+00 2.542805e+00 2.442446e+00 8.600745e-01 -4.413556e-02 2.183751e-01 -2.174974e-01 1.800153e+00 -1.024953e-01 9.249546e-02 -2.481753e-03 5.054429e-02 4.575067e-02 1.627030e-02 -2.243697e-02 -5.040008e-03 -2.689135e-03 2.110176e-02 2.995552e-02 2.077479e-02 -1.715400e-01
<VARIANCE> 25
 3.827116e+01 3.187140e+01 2.864102e+01 3.306627e+01 3.566060e+01 3.034418e+01 3.003269e+01 3.220042e+01 3.105354e+01 3.389011e+01 2.734888e+01 2.508733e+01 3.367313e-01 6.064337e-01 8.260249e-01 9.608545e-01 1.299684e+00 1.368753e+00 1.470233e+00 1.675926e+00 1.678257e+00 1.653003e+00 1.526407e+00 1.373948e+00 2.516242e-01
<GCONST> 8.729673e+01
<TRANSP> 5
 0.000000e+00 1.000000e+00 0.000000e+00 0.000000e+00 0.000000e+00
 0.000000e+00 4.534692e-01 5.465308e-01 0.000000e+00 0.000000e+00
 0.000000e+00 0.000000e+00 4.539617e-01 5.460383e-01 0.000000e+00
 0.000000e+00 0.000000e+00 0.000000e+00 9.114209e-01 8.857911e-02
 0.000000e+00 0.000000e+00 0.000000e+00 0.000000e+00 0.000000e+00
<ENDHMM>
~h "i"
<BEGINHMM>
<NUMSTATES> 5
<STATE> 2
<MEAN> 25
 2.278937e-01 1.102298e+00 1.080883e+01 4.048709e-01 -7.255568e+00 -4.462294e+00 -1.697636e+00 -3.593846e+00 -4.819517e+00 -1.970601e-01 2.370274e+00 -3.094529e-01 2.126077e-01 -2.410571e-01 2.333907e+00 -1.059862e+00 -1.933370e+00 -3.630703e-01 -7.060372e-01 -4.116196e-01 -1.215057e+00 3.542095e-01 5.674129e-01 -3.319425e-01 1.053920e+00
<VARIANCE> 25
 3.017848e+01 4.352169e+01 6.504598e+01 7.400916e+01 7.750727e+01 7.434122e+01 5.607505e+01 5.678853e+01 6.247462e+01 5.428976e+01 5.146507e+01 3.887000e+01 3.377028e+00 3.173221e+00 5.829375e+00 6.448721e+00 6.399627e+00 6.271796e+00 5.834816e+00 5.255442e+00 5.850723e+00 5.406129e+00 5.527082e+00 3.705089e+00 2.399217e+00
<GCONST> 1.145244e+02
<STATE> 3
<MEAN> 25
 5.439803e-01 1.067142e+00 1.480365e+01 -1.840387e+00 -1.096651e+01 -4.847334e+00 -3.092680e+00 -3.968491e+00 -7.189179e+00 5.785272e-01 3.558837e+00 -1.267265e+00 9.597526e-02 2.205115e-01 -1.890868e-01 1.806423e-02 1.911234e-01 2.485877e-01 -6.063275e-02 4.207762e-02 1.553968e-01 7.126662e-02 -1.391092e-01 5.227711e-02 -2.725365e-01
<VARIANCE> 25
 1.902949e+01 3.479676e+01 5.573426e+01 7.959470e+01 6.496784e+01 7.086727e+01 5.142923e+01 5.504604e+01 6.251001e+01 6.093436e+01 6.542110e+01 4.248397e+01 1.137246e+00 1.962599e+00 3.304433e+00 3.451587e+00 3.887302e+00 3.658779e+00 3.412261e+00 3.482107e+00 3.607625e+00 3.177670e+00 3.092181e+00 2.357646e+00 1.554662e+00
<GCONST> 1.066320e+02
<STATE> 4
<MEAN> 25
 2.386405e-02 3.186869e+00 1.114131e+01 -4.178418e-01 -6.213448e+00 -2.209548e+00 -2.970452e+00 -4.150120e+00 -4.482415e+00 2.034323e-01 1.278829e+00 1.872008e-01 -4.533090e-02 1.808250e-01 -1.042471e+00 4.827034e-01 8.327477e-01 3.108384e-01 3.355434e-01 2.250459e-01 4.781150e-01 -1.187661e-01 -2.151113e-01 1.869408e-01 -6.388236e-01
<VARIANCE> 25
 2.159982e+01 4.421797e+01 5.448554e+01 9.895404e+01 6.451901e+01 6.905545e+01 5.701001e+01 5.267836e+01 5.950640e+01 5.053502e+01 5.207095e+01 3.783821e+01 8.737239e-01 1.567034e+00 2.192441e+00 2.533149e+00 2.897486e+00 2.852158e+00 2.816766e+00 2.842775e+00 2.917826e+00 2.654631e+00 2.520765e+00 1.969489e+00 1.078557e+00
<GCONST> 1.033514e+02
<TRANSP> 5
 0.000000e+00 1.000000e+00 0.000000e+00 0.000000e+00 0.000000e+00
 0.000000e+00 6.008962e-01 3.991039e-01 0.000000e+00 0.000000e+00
 0.000000e+00 0.000000e+00 5.858176e-01 4.141823e-01 0.000000e+00
 0.000000e+00 0.000000e+00 0.000000e+00 8.030156e-01 1.969844e-01
 0.000000e+00 0.000000e+00 0.000000e+00 0.000000e+00 0.000000e+00
<ENDHMM>
~h "j"
<BEGINHMM>
<NUMSTATES> 5
<STATE> 2
<MEAN> 25
 -2.959944e+00 6.364130e+00 3.846957e+00 3.303039e+00 7.196038e-01 -1.077823e+00 1.194054e+00 -1.708535e+00 -8.947427e-01 -2.941241e+00 -1.354309e-01 6.326523e-01 -1.151945e+00 4.867521e-01 1.039955e+00 -3.310081e-01 -3.705762e-01 -5.859376e-01 -7.730491e-02 -5.308918e-01 -8.206694e-02 -2.076657e-01 4.778042e-01 1.606839e-01 8.251888e-01
<VARIANCE> 25
 8.240446e+01 6.732130e+01 5.036023e+01 4.671410e+01 5.841041e+01 6.228820e+01 4.877646e+01 4.524385e+01 4.109811e+01 4.031010e+01 3.629926e+01 3.266518e+01 7.312979e+00 6.173106e+00 5.459313e+00 5.352269e+00 7.186581e+00 7.171793e+00 5.134805e+00 4.722947e+00 4.519067e+00 4.699070e+00 4.032498e+00 2.931491e+00 5.687564e+00
<GCONST> 1.142999e+02
<STATE> 3
<MEAN> 25
 -2.333129e+00 3.571128e+00 1.040933e+01 1.326834e+00 -5.340564e+00 -5.647465e+00 -1.614763e+00 -2.910357e+00 -2.359504e+00 -2.406095e+00 2.597824e+00 1.855099e+00 1.498485e+00 -1.922250e+00 9.957208e-01 -6.199721e-01 -2.090090e+00 -1.581359e+00 -1.206845e+00 5.373985e-01 -3.967299e-01 4.933207e-01 7.590544e-01 1.031740e-01 1.444113e+00
<VARIANCE> 25
 4.633073e+01 6.743827e+01 5.295433e+01 5.856851e+01 7.229844e+01 8.398342e+01 6.153682e+01 5.499642e+01 4.708202e+01 4.896683e+01 4.005846e+01 3.833553e+01 5.350227e+00 5.954675e+00 6.294677e+00 6.218239e+00 8.231082e+00 6.726069e+00 6.413949e+00 6.467221e+00 5.639278e+00 5.624914e+00 4.717382e+00 3.346049e+00 2.509730e+00
<GCONST> 1.159555e+02
<STATE> 4
<MEAN> 25
 2.410676e+00 -1.523416e+00 9.391741e+00 -2.048946e-01 -8.572691e+00 -8.475538e+00 -3.712523e+00 1.206910e+00 -1.809848e+00 -1.069289e+00 2.923422e+00 1.404311e+00 7.075917e-01 -8.231313e-01 -1.261460e+00 -2.886973e-01 4.052785e-01 3.511425e-01 -9.358370e-02 7.711197e-01 5.916473e-01 2.758411e-01 -3.996618e-01 -5.223105e-01 1.679505e-01
<VARIANCE> 25
 2.740390e+01 4.461276e+01 4.376243e+01 6.346778e+01 5.795063e+01 5.696482e+01 7.534203e+01 7.325574e+01 5.276034e+01 5.999606e+01 4.590979e+01 3.657969e+01 1.341018e+00 3.569588e+00 3.335523e+00 3.029420e+00 4.789187e+00 4.520081e+00 4.832107e+00 4.711280e+00 3.862759e+00 4.000133e+00 3.697178e+00 3.099598e+00 1.600309e+00
<GCONST> 1.089149e+02
<TRANSP> 5
 0.000000e+00 1.000000e+00 0.000000e+00 0.000000e+00 0.000000e+00
 0.000000e+00 7.325831e-01 2.674169e-01 0.000000e+00 0.000000e+00
 0.000000e+00 0.000000e+00 5.623873e-01 4.376127e-01 0.000000e+00
 0.000000e+00 0.000000e+00 0.000000e+00 6.927805e-01 3.072195e-01
 0.000000e+00 0.000000e+00 0.000000e+00 0.000000e+00 0.000000e+00
<ENDHMM>
~h "k"
<BEGINHMM>
<NUMSTATES> 5
<STATE> 2
<MEAN> 25
 -3.757071e+00 1.928893e+00 -2.892500e+00 2.842499e+00 3.491569e+00 3.166911e+00 1.182834e+00 8.448063e-01 1.429818e+00 1.171653e+00 1.702466e+00 1.546873e+00 -3.773528e-01 -8.300533e-01 -6.986873e-01 -2.463113e-01 5.302037e-01 -3.699845e-01 -2.996103e-02 2.215338e-01 3.996932e-01 3.235637e-01 7.501017e-03 8.882166e-02 6.222378e-01
<VARIANCE> 25
 4.927705e+01 6.186835e+01 4.838519e+01 6.563281e+01 6.588203e+01 6.691862e+01 5.193110e+01 4.921099e+01 5.061416e+01 4.477024e+01 4.669711e+01 3.498609e+01 3.733227e+00 6.502455e+00 4.776397e+00 6.049552e+00 6.622063e+00 6.708799e+00 5.688756e+00 5.184052e+00 5.383893e+00 4.623249e+00 4.296338e+00 3.600757e+00 6.954014e+00
<GCONST> 1.150182e+02
<STATE> 3
<MEAN> 25
 -1.761370e+00 -2.799966e+00 -5.145881e+00 -4.241427e-01 3.814968e+00 1.099420e-01 3.771383e-01 1.226586e+00 2.323285e+00 1.896181e+00 -3.775740e-02 7.517017e-01 9.770340e-01 -8.474425e-01 -7.973994e-02 -1.223725e+00 -6.458427e-01 -7.711423e-01 -2.042216e-01 -2.802060e-02 -7.744378e-02 9.799138e-03 -2.575652e-01 -4.939448e-01 1.925506e+00
<VARIANCE> 25
 4.064749e+01 5.715052e+01 6.641743e+01 6.648351e+01 9.194873e+01 7.420105e+01 6.489299e+01 5.931374e+01 5.941569e+01 5.164477e+01 4.158474e+01 3.745342e+01 5.162371e+00 6.017271e+00 6.186223e+00 7.623341e+00 8.546622e+00 7.663476e+00 6.886607e+00 6.500937e+00 6.747875e+00 6.209390e+00 5.291899e+00 4.603282e+00 6.032552e+00
<GCONST> 1.185523e+02
<STATE> 4
<MEAN> 25
 1.335560e+00 -2.972417e+00 -4.614566e+00 -3.104611e+00 1.699803e+00 -6.682719e-01 1.654520e-01 5.639251e-01 1.020280e+00 1.170619e+00 -5.611511e-01 -6.547821e-01 1.136275e+00 -6.470929e-02 5.877910e-01 -8.258049e-01 -1.090199e+00 -3.038036e-01 -2.584691e-01 -2.655987e-01 -5.479734e-01 -2.731144e-01 -7.752720e-02 -5.308205e-01 1.062554e+00
<VARIANCE> 25
 4.105688e+01 5.153445e+01 6.170679e+01 6.454296e+01 7.558861e+01 6.958196e+01 5.544080e+01 5.725149e+01 5.691570e+01 4.917200e+01 4.569843e+01 4.099884e+01 3.693264e+00 4.117484e+00 4.568068e+00 5.867250e+00 5.968307e+00 5.501323e+00 5.168815e+00 5.453439e+00 5.488837e+00 4.643772e+00 4.627469e+00 3.675161e+00 3.416659e+00
<GCONST> 1.141380e+02
<TRANSP> 5
 0.000000e+00 1.000000e+00 0.000000e+00 0.000000e+00 0.000000e+00
 0.000000e+00 5.751497e-01 4.248503e-01 0.000000e+00 0.000000e+00
 0.000000e+00 0.000000e+00 4.754442e-01 5.245557e-01 0.000000e+00
 0.000000e+00 0.000000e+00 0.000000e+00 4.465176e-01 5.534824e-01
 0.000000e+00 0.000000e+00 0.000000e+00 0.000000e+00 0.000000e+00
<ENDHMM>
~h "l"
<BEGINHMM>
<NUMSTATES> 5
<STATE> 2
<MEAN> 25
 5.793898e+00 -3.161758e+00 -2.566482e+00 -3.943583e+00 -1.210102e+00 -1.398867e+00 -5.485541e+00 -3.208723e+00 3.938503e+00 3.728166e+00 -6.640679e-01 -2.963310e+00 2.617957e-01 -1.894741e-01 -1.121096e-01 -2.299703e-01 -3.441895e-02 -2.085951e-02 -6.075248e-01 -1.745214e-01 4.799960e-01 5.082842e-01 -1.598866e-01 -2.648122e-01 1.571763e-01
<VARIANCE> 25
 2.759817e+01 3.673120e+01 4.214554e+01 6.277162e+01 5.392207e+01 8.200124e+01 6.721496e+01 7.669209e+01 6.347262e+01 6.715121e+01 5.496730e+01 4.303487e+01 9.835287e-01 1.948631e+00 2.206261e+00 2.953663e+00 3.014992e+00 4.252769e+00 4.011410e+00 4.697189e+00 3.812761e+00 3.770508e+00 3.618996e+00 2.923503e+00 1.130941e+00
<GCONST> 1.069769e+02
<STATE> 3
<MEAN> 25
 5.944245e+00 -3.674623e+00 -2.772397e+00 -4.614530e+00 -1.210617e+00 -1.239561e+00 -6.157324e+00 -2.841273e+00 4.798410e+00 4.327507e+00 -1.099061e+00 -3.343923e+00 -5.233719e-02 -3.930000e-02 3.890519e-02 7.090051e-03 2.422625e-02 -1.279265e-05 1.290304e-01 3.267057e-01 -7.472251e-02 -2.982103e-01 -1.606520e-01 6.533479e-02 -1.006449e-03
<VARIANCE> 25
 2.449549e+01 3.317412e+01 3.971067e+01 5.825867e+01 5.146982e+01 7.541655e+01 6.318222e+01 7.185389e+01 6.328579e+01 6.194706e+01 5.563901e+01 4.225595e+01 4.279459e-01 1.448625e+00 1.700760e+00 2.206080e+00 2.270400e+00 3.237676e+00 3.188621e+00 3.827566e+00 3.010516e+00 3.073216e+00 3.097154e+00 2.164541e+00 6.446647e-01
<GCONST> 1.021442e+02
<STATE> 4
<MEAN> 25
 6.597077e+00 -3.351349e+00 -2.841488e+00 -3.292120e+00 -2.359018e+00 -2.707521e+00 -4.550659e+00 -1.204562e+00 3.210101e+00 3.991191e-01 -1.305098e+00 -2.177268e+00 -1.995828e-01 1.543400e-01 1.814110e-01 1.319722e-01 3.751128e-02 6.839657e-02 4.030096e-01 2.414617e-01 -4.273967e-01 -3.426844e-01 6.769349e-02 1.932476e-01 -1.991815e-01
<VARIANCE> 25
 2.705605e+01 4.071664e+01 4.627473e+01 6.198717e+01 7.690481e+01 8.511012e+01 6.043428e+01 8.188136e+01 6.444329e+01 8.905766e+01 5.973872e+01 4.236922e+01 4.160545e-01 1.245536e+00 1.455554e+00 1.857121e+00 2.293236e+00 2.643096e+00 2.493665e+00 2.857594e+00 2.743354e+00 2.739524e+00 2.545757e+00 1.821164e+00 6.508765e-01
<GCONST> 1.019219e+02
<TRANSP> 5
 0.000000e+00 1.000000e+00 0.000000e+00 0.000000e+00 0.000000e+00
 0.000000e+00 4.652475e-01 5.347525e-01 0.000000e+00 0.000000e+00
 0.000000e+00 0.000000e+00 4.427958e-01 5.572041e-01 0.000000e+00
 0.000000e+00 0.000000e+00 0.000000e+00 6.867281e-01 3.132719e-01
 0.000000e+00 0.000000e+00 0.000000e+00 0.000000e+00 0.000000e+00
<ENDHMM>
~h "m"
<BEGINHMM>
<NUMSTATES> 5
<STATE> 2
<MEAN> 25
 5.145376e+00 1.180883e+00 -7.006447e-01 1.048738e+00 7.460648e-01 2.885585e+00 -8.815443e-01 -5.382753e+00 -4.470737e+00 -1.060957e-01 2.430706e-01 -1.326498e+00 9.647220e-02 4.854805e-01 4.387505e-01 7.837457e-01 2.295783e-01 4.381876e-01 1.534979e-01 -9.804012e-01 -9.675148e-01 -3.386463e-01 -3.442265e-01 -6.084860e-02 -3.448468e-01
<VARIANCE> 25
 2.432947e+01 3.182989e+01 3.482419e+01 4.044938e+01 3.598648e+01 4.154536e+01 3.870595e+01 4.283624e+01 5.078645e+01 3.313908e+01 3.484121e+01 2.835272e+01 1.358147e+00 2.171303e+00 3.187788e+00 3.817165e+00 2.494236e+00 2.787414e+00 2.726630e+00 3.709336e+00 4.245885e+00 2.480573e+00 2.968995e+00 2.239665e+00 1.782190e+00
<GCONST> 1.015567e+02
<STATE> 3
<MEAN> 25
 5.402808e+00 1.164717e+00 -5.719059e-01 1.228064e+00 9.318168e-01 3.654741e+00 -7.195576e-01 -6.153849e+00 -5.325301e+00 -7.510901e-01 -4.623834e-01 -1.800288e+00 5.934405e-02 -2.421116e-01 -4.282833e-01 -3.991707e-01 1.728242e-01 1.473508e-01 -7.945418e-02 4.182481e-01 4.650323e-01 -6.173912e-02 -1.590031e-01 -3.168411e-01 2.478728e-01
<VARIANCE> 25
 2.181069e+01 3.201493e+01 3.645845e+01 4.040176e+01 3.655389e+01 4.551962e+01 3.847923e+01 4.347299e+01 5.691282e+01 3.394405e+01 3.588178e+01 2.924241e+01 8.089836e-01 1.974682e+00 2.895760e+00 3.633253e+00 2.328947e+00 2.469268e+00 2.418622e+00 3.538890e+00 4.317759e+00 2.312333e+00 2.737648e+00 2.233685e+00 1.310130e+00
<GCONST> 1.002519e+02
<STATE> 4
<MEAN> 25
 3.911257e+00 1.665733e+00 -1.739489e+00 7.279198e-01 1.878790e+00 2.860330e+00 -4.449467e-01 -2.971684e+00 -2.919940e+00 -1.113638e+00 -1.271246e+00 -1.762626e+00 -8.944015e-02 -1.959612e-01 -2.218033e-01 -3.316938e-01 -3.749351e-02 -1.883408e-01 -4.590220e-02 5.984038e-01 5.181620e-01 9.676773e-02 3.394736e-02 -3.790910e-02 1.133700e-01
<VARIANCE> 25
 3.108590e+01 3.612675e+01 3.581555e+01 4.311078e+01 4.288792e+01 4.209394e+01 3.836991e+01 4.201269e+01 4.695294e+01 3.459888e+01 3.372179e+01 3.244609e+01 5.455896e-01 1.268306e+00 1.642981e+00 2.128076e+00 1.996337e+00 1.945018e+00 1.891880e+00 2.581595e+00 2.686099e+00 2.055995e+00 2.269113e+00 1.813619e+00 7.076358e-01
<GCONST> 9.619112e+01
<TRANSP> 5
 0.000000e+00 1.000000e+00 0.000000e+00 0.000000e+00 0.000000e+00
 0.000000e+00 4.884271e-01 5.115729e-01 0.000000e+00 0.000000e+00
 0.000000e+00 0.000000e+00 4.640846e-01 5.359154e-01 0.000000e+00
 0.000000e+00 0.000000e+00 0.000000e+00 7.374485e-01 2.625515e-01
 0.000000e+00 0.000000e+00 0.000000e+00 0.000000e+00 0.000000e+00
<ENDHMM>
~h "n"
<BEGINHMM>
<NUMSTATES> 5
<STATE> 2
<MEAN> 25
 5.020474e+00 -1.349032e+00 2.082494e+00 2.447104e+00 -2.681746e+00 -2.605691e+00 -2.129857e+00 -1.854944e+00 -9.884195e-01 -9.490523e-01 -3.256880e+00 -1.694331e+00 1.231121e-01 1.422475e+00 3.571807e-01 1.051679e+00 8.809522e-02 3.326828e-01 -8.405107e-02 -1.349339e+00 -3.662595e-01 -6.136626e-03 -3.479913e-01 9.173654e-02 -1.125123e+00
<VARIANCE> 25
 1.620833e+01 3.890907e+01 2.993896e+01 3.391272e+01 3.883511e+01 4.080664e+01 4.295799e+01 6.049176e+01 4.728597e+01 5.222006e+01 4.250613e+01 3.374319e+01 7.047406e-01 2.049455e+00 2.277487e+00 2.472427e+00 2.786707e+00 3.140361e+00 2.920068e+00 4.744359e+00 3.371581e+00 3.329864e+00 2.991071e+00 2.432468e+00 1.118152e+00
<GCONST> 1.010359e+02
<STATE> 3
<MEAN> 25
 4.923997e+00 1.935824e+00 2.499150e+00 4.047318e+00 -2.155051e+00 -1.471690e+00 -1.889576e+00 -4.105221e+00 -1.577795e+00 -9.387478e-01 -3.564873e+00 -1.441846e+00 -1.472089e-01 7.746566e-01 5.303110e-02 3.188621e-01 3.261909e-01 3.211429e-01 1.251957e-01 -2.589400e-01 -1.924145e-01 -1.525660e-01 -8.053850e-03 5.745476e-02 -6.260380e-01
<VARIANCE> 25
 1.621099e+01 3.556110e+01 2.634844e+01 3.026026e+01 3.690226e+01 3.825639e+01 3.785250e+01 4.887387e+01 4.184077e+01 4.857454e+01 3.993260e+01 3.102360e+01 5.407529e-01 1.595078e+00 1.474303e+00 1.661182e+00 2.036009e+00 2.247376e+00 2.303370e+00 3.128551e+00 2.499304e+00 2.458364e+00 2.196413e+00 1.838244e+00 8.034205e-01
<GCONST> 9.573537e+01
<STATE> 4
<MEAN> 25
 1.131568e+00 3.694832e+00 1.745999e+00 4.921857e+00 1.157999e+00 5.847894e-01 2.037352e-02 -2.237173e+00 -1.670250e+00 -1.598210e+00 -2.185211e+00 1.305864e-01 -3.805282e-01 -1.915187e-03 -9.336542e-02 -9.786819e-02 2.766234e-01 1.646595e-01 1.628281e-01 3.228193e-01 7.980383e-02 -9.697792e-05 2.352200e-01 1.018886e-01 -2.238137e-01
<VARIANCE> 25
 3.101450e+01 3.381142e+01 2.781257e+01 3.014154e+01 3.943628e+01 3.527416e+01 3.547414e+01 4.219620e+01 3.944676e+01 4.082684e+01 3.448269e+01 2.936977e+01 6.631527e-01 1.399365e+00 1.306894e+00 1.519626e+00 1.889645e+00 1.972615e+00 2.037826e+00 2.620042e+00 2.228665e+00 2.253584e+00 2.035448e+00 1.712782e+00 6.897495e-01
<GCONST> 9.458080e+01
<TRANSP> 5
 0.000000e+00 1.000000e+00 0.000000e+00 0.000000e+00 0.000000e+00
 0.000000e+00 5.289614e-01 4.710386e-01 0.000000e+00 0.000000e+00
 0.000000e+00 0.000000e+00 4.808884e-01 5.191116e-01 0.000000e+00
 0.000000e+00 0.000000e+00 0.000000e+00 7.613121e-01 2.386879e-01
 0.000000e+00 0.000000e+00 0.000000e+00 0.000000e+00 0.000000e+00
<ENDHMM>
~h "o"
<BEGINHMM>
<NUMSTATES> 5
<STATE> 2
<MEAN> 25
 3.658105e+00 5.001056e-01 -5.177232e+00 -7.010861e+00 -2.734970e-01 2.923192e+00 -1.039973e+00 -9.721343e-01 9.077538e-01 2.121296e+00 1.648328e+00 -7.852014e-01 1.121651e+00 -1.827312e-01 -7.839394e-01 -1.722923e+00 -3.204012e-01 7.668624e-01 -1.196472e-02 -1.675245e-01 -1.817218e-01 2.428779e-01 4.715163e-01 -2.743551e-01 9.960788e-01
<VARIANCE> 25
 5.993204e+01 3.955391e+01 3.562738e+01 7.777048e+01 6.055180e+01 6.747044e+01 5.619799e+01 5.138647e+01 5.021165e+01 5.191660e+01 4.185366e+01 3.699305e+01 4.556894e+00 2.960329e+00 2.992679e+00 6.783732e+00 4.769686e+00 4.888991e+00 4.206483e+00 4.102171e+00 4.209431e+00 3.848480e+00 3.512101e+00 3.030284e+00 4.641769e+00
<GCONST> 1.114339e+02
<STATE> 3
<MEAN> 25
 6.502789e+00 -5.107887e-01 -6.820028e+00 -1.028571e+01 -8.403167e-01 4.900700e+00 -1.730873e+00 -1.946634e+00 1.532723e-01 2.249581e+00 3.192458e+00 -1.250614e+00 -5.698335e-02 1.115092e-01 -1.010782e-01 2.054157e-01 1.794703e-01 2.981511e-01 1.967805e-01 -3.841414e-02 -1.140445e-01 -7.764503e-02 1.069332e-02 9.510385e-02 -3.494481e-01
<VARIANCE> 25
 3.035468e+01 3.425415e+01 3.460387e+01 6.569883e+01 5.548758e+01 6.993099e+01 5.365285e+01 5.013747e+01 5.214375e+01 5.359942e+01 4.564946e+01 3.734336e+01 1.079882e+00 1.882504e+00 1.663035e+00 3.599436e+00 2.695632e+00 3.174492e+00 3.125956e+00 2.747062e+00 3.347691e+00 3.174730e+00 2.690706e+00 2.504160e+00 1.801206e+00
<GCONST> 1.038160e+02
<STATE> 4
<MEAN> 25
 3.986450e+00 1.242053e+00 -6.127107e+00 -7.597833e+00 2.272038e-01 5.123082e+00 6.132085e-01 -1.008223e+00 3.853027e-01 1.534086e+00 1.816851e+00 3.996509e-02 -3.314229e-01 1.378132e-01 2.928291e-01 6.877860e-01 2.136294e-01 -1.873179e-01 7.934719e-02 3.081733e-02 -2.467524e-03 -1.024807e-01 -2.132632e-01 4.608403e-02 -4.070710e-01
<VARIANCE> 25
 5.089657e+01 2.793676e+01 3.173798e+01 7.393782e+01 5.059853e+01 6.575508e+01 4.445762e+01 4.325455e+01 4.489387e+01 4.746002e+01 3.580048e+01 3.355119e+01 5.439019e-01 8.774959e-01 1.083790e+00 1.894897e+00 1.629626e+00 1.894309e+00 1.863412e+00 1.838802e+00 1.995535e+00 2.001523e+00 1.721474e+00 1.572855e+00 5.111846e-01
<GCONST> 9.544267e+01
<TRANSP> 5
 0.000000e+00 1.000000e+00 0.000000e+00 0.000000e+00 0.000000e+00
 0.000000e+00 5.673789e-01 4.326211e-01 0.000000e+00 0.000000e+00
 0.000000e+00 0.000000e+00 5.157274e-01 4.842726e-01 0.000000e+00
 0.000000e+00 0.000000e+00 0.000000e+00 8.459520e-01 1.540480e-01
 0.000000e+00 0.000000e+00 0.000000e+00 0.000000e+00 0.000000e+00
<ENDHMM>
~h "p"
<BEGINHMM>
<NUMSTATES> 5
<STATE> 2
<MEAN> 25
 -2.430817e+00 2.775972e+00 -2.997102e+00 1.861133e+00 2.526167e+00 3.230454e+00 1.634543e+00 1.649377e-01 1.771832e+00 4.360906e-01 1.232168e+00 1.058987e+00 -3.428780e-01 -5.664732e-01 -2.250167e-01 -2.823945e-01 -2.107356e-01 -1.375919e-01 9.451383e-02 -1.050907e-02 4.264244e-01 2.251814e-01 3.305350e-01 5.218104e-02 4.505064e-01
<VARIANCE> 25
 5.630871e+01 3.429462e+01 3.203726e+01 3.929195e+01 3.571638e+01 4.136180e+01 3.375387e+01 3.551176e+01 3.806311e+01 3.318334e+01 3.230487e+01 2.780984e+01 5.266369e+00 4.790366e+00 3.014783e+00 4.293791e+00 3.697522e+00 4.699944e+00 3.665226e+00 3.512653e+00 3.800030e+00 3.493617e+00 3.220273e+00 2.904295e+00 7.275417e+00
<GCONST> 1.069847e+02
<STATE> 3
<MEAN> 25
 6.041673e-01 -7.106032e-01 -4.016799e+00 -4.428817e-01 9.480012e-01 1.915158e+00 6.972504e-01 -7.734663e-01 2.055543e+00 1.253069e+00 1.405575e+00 1.163976e-01 1.745012e+00 -1.689412e+00 -5.281585e-01 -1.428826e+00 -8.071275e-01 -7.302715e-01 -6.886267e-01 -1.495737e-01 1.113228e-01 1.935195e-01 -1.276265e-03 -8.663074e-01 2.819253e+00
<VARIANCE> 25
 4.230504e+01 4.391571e+01 4.067807e+01 5.622269e+01 4.118745e+01 5.321003e+01 3.804268e+01 3.931457e+01 3.988065e+01 3.533825e+01 3.309132e+01 3.132049e+01 6.017399e+00 6.705095e+00 5.615776e+00 7.395836e+00 5.972093e+00 7.918471e+00 5.477303e+00 5.553842e+00 5.861244e+00 5.608077e+00 5.376756e+00 4.848377e+00 6.270656e+00
<GCONST> 1.136908e+02
<STATE> 4
<MEAN> 25
 4.588479e+00 -3.690195e+00 -5.487697e+00 -3.025395e+00 -2.837112e-01 9.899143e-01 -5.609120e-01 -8.174887e-01 1.622799e+00 8.694183e-01 8.387609e-01 -1.923384e+00 9.497436e-01 -8.613629e-01 2.702050e-01 -6.015950e-01 -6.734609e-01 -7.020154e-01 -5.515519e-01 1.594891e-01 -2.330972e-01 -1.530773e-01 -2.219629e-01 -5.022582e-01 1.424869e+00
<VARIANCE> 25
 4.354562e+01 5.371394e+01 5.529849e+01 6.781142e+01 5.270098e+01 7.108331e+01 4.557445e+01 4.562771e+01 4.727160e+01 4.705910e+01 4.005916e+01 4.200337e+01 3.737837e+00 4.786174e+00 5.600515e+00 5.971913e+00 5.783334e+00 6.535931e+00 4.961993e+00 5.248843e+00 5.823628e+00 4.854625e+00 4.829782e+00 4.016355e+00 4.120934e+00
<GCONST> 1.139470e+02
<TRANSP> 5
 0.000000e+00 1.000000e+00 0.000000e+00 0.000000e+00 0.000000e+00
 0.000000e+00 5.743749e-01 4.256251e-01 0.000000e+00 0.000000e+00
 0.000000e+00 0.000000e+00 4.181389e-01 5.818611e-01 0.000000e+00
 0.000000e+00 0.000000e+00 0.000000e+00 3.895026e-01 6.104974e-01
 0.000000e+00 0.000000e+00 0.000000e+00 0.000000e+00 0.000000e+00
<ENDHMM>
~h "r"
<BEGINHMM>
<NUMSTATES> 5
<STATE> 2
<MEAN> 25
 4.630504e+00 -4.816457e+00 -2.404119e+00 9.212242e-01 -2.855559e+00 -3.614846e+00 -2.596426e+00 5.918594e-01 4.387783e+00 9.483910e-01 -4.210953e-01 -1.412895e+00 8.325678e-02 2.131575e-02 1.550384e-01 7.764625e-01 -2.196608e-01 -1.611730e-01 -1.950396e-01 -5.041008e-02 1.432604e-01 -2.365547e-01 3.203856e-02 2.343759e-01 -4.231632e-01
<VARIANCE> 25
 2.686911e+01 3.580962e+01 3.988231e+01 4.011856e+01 4.758466e+01 5.263643e+01 5.095649e+01 5.753893e+01 6.073518e+01 5.201046e+01 4.609179e+01 3.847726e+01 1.600953e+00 2.580519e+00 2.455004e+00 3.414706e+00 3.760739e+00 3.913850e+00 3.619828e+00 4.236527e+00 4.168086e+00 3.959179e+00 3.605329e+00 3.336389e+00 1.882071e+00
<GCONST> 1.064292e+02
<STATE> 3
<MEAN> 25
 4.523234e+00 -4.179554e+00 -1.884320e+00 2.290954e+00 -2.923204e+00 -3.626397e+00 -2.629113e+00 4.178767e-01 3.832675e+00 3.318075e-01 -2.884404e-01 -6.956602e-01 -1.582018e-01 3.431401e-01 3.256992e-01 2.678376e-01 5.994327e-02 1.692147e-01 1.040586e-01 -8.571290e-02 -4.238364e-01 -2.209030e-01 4.362623e-02 1.959497e-01 -4.510945e-01
<VARIANCE> 25
 2.589784e+01 3.791410e+01 3.977503e+01 3.603609e+01 4.859811e+01 5.197592e+01 4.732332e+01 5.497916e+01 5.640228e+01 4.927949e+01 4.104544e+01 3.400394e+01 1.442139e+00 2.394637e+00 2.376211e+00 2.674500e+00 3.318185e+00 3.535794e+00 3.216580e+00 3.821555e+00 3.801004e+00 3.498833e+00 3.380695e+00 3.020180e+00 1.572188e+00
<GCONST> 1.043972e+02
<STATE> 4
<MEAN> 25
 3.657073e+00 -2.467262e+00 -1.152300e+00 2.595717e+00 -1.975654e+00 -2.492144e+00 -1.751123e+00 2.368543e-01 2.432109e+00 -3.269372e-01 -3.418486e-01 -1.362241e-01 -3.006465e-01 4.377124e-01 3.321831e-01 -1.446791e-01 2.100111e-01 3.368768e-01 2.578752e-01 -1.028446e-01 -6.095631e-01 -2.969808e-02 8.528866e-02 6.877750e-02 -3.714094e-01
<VARIANCE> 25
 2.889756e+01 4.556490e+01 4.084956e+01 3.849149e+01 5.075168e+01 5.591717e+01 4.365463e+01 5.540145e+01 5.478853e+01 5.202804e+01 4.083699e+01 3.305376e+01 1.143193e+00 1.883330e+00 2.074264e+00 2.049280e+00 2.829671e+00 2.966960e+00 2.667289e+00 3.113834e+00 3.231628e+00 2.840441e+00 2.748664e+00 2.179576e+00 1.143620e+00
<GCONST> 1.019949e+02
<TRANSP> 5
 0.000000e+00 1.000000e+00 0.000000e+00 0.000000e+00 0.000000e+00
 0.000000e+00 3.746880e-01 6.253120e-01 0.000000e+00 0.000000e+00
 0.000000e+00 0.000000e+00 3.244240e-01 6.755761e-01 0.000000e+00
 0.000000e+00 0.000000e+00 0.000000e+00 5.344507e-01 4.655493e-01
 0.000000e+00 0.000000e+00 0.000000e+00 0.000000e+00 0.000000e+00
<ENDHMM>
~h "s"
<BEGINHMM>
<NUMSTATES> 5
<STATE> 2
<MEAN> 25
 -8.967488e+00 6.463402e+00 -9.064798e-01 2.700756e+00 4.162769e+00 -4.015208e+00 3.688587e+00 1.035648e+00 1.369842e+00 -1.458656e+00 8.820869e-01 1.737209e+00 -2.789920e+00 1.427723e+00 -6.508823e-01 2.845972e-01 1.065007e+00 -1.536392e-01 9.837096e-01 3.099271e-01 3.200203e-01 -2.984452e-01 5.318496e-01 4.055451e-01 -4.385868e-02
<VARIANCE> 25
 7.434764e+01 5.632767e+01 6.021240e+01 5.836990e+01 6.752087e+01 7.452428e+01 6.316434e+01 5.789852e+01 4.761061e+01 4.568149e+01 4.411667e+01 3.437246e+01 4.664085e+00 4.474433e+00 4.150280e+00 3.957776e+00 4.340483e+00 4.385993e+00 4.359647e+00 4.347360e+00 3.830975e+00 3.948631e+00 3.472726e+00 2.819368e+00 1.258073e+00
<GCONST> 1.111414e+02
<STATE> 3
<MEAN> 25
 -1.587247e+01 7.263613e+00 -2.619986e+00 2.198503e+00 6.064949e+00 -3.344391e+00 5.203188e+00 2.424809e+00 2.084886e+00 -1.598670e+00 1.989339e+00 3.055379e+00 5.691636e-01 -6.549318e-01 2.129418e-01 -7.338643e-02 -4.186329e-01 4.071128e-02 -2.064166e-01 -2.478752e-02 6.929469e-02 -7.515519e-03 -1.070647e-01 -2.852491e-02 -1.941630e-01
<VARIANCE> 25
 5.906412e+01 5.372881e+01 5.327851e+01 6.137989e+01 5.341366e+01 6.652958e+01 5.104046e+01 5.266674e+01 4.033250e+01 4.283353e+01 3.559897e+01 3.231033e+01 4.829993e+00 2.736365e+00 2.831887e+00 2.355004e+00 2.899201e+00 3.327668e+00 3.088969e+00 3.228416e+00 2.927738e+00 2.809515e+00 2.536979e+00 2.181981e+00 1.597324e+00
<GCONST> 1.060089e+02
<STATE> 4
<MEAN> 25
 -6.146284e+00 9.971603e-01 1.589932e+00 1.538970e+00 1.403417e+00 -1.211917e+00 2.425712e+00 2.022019e-01 1.993195e+00 -1.653576e+00 5.278671e-01 2.086732e+00 2.601266e+00 -9.611006e-01 1.948036e-01 -4.889019e-01 -1.135441e+00 -1.053722e-01 -1.062950e+00 -5.487320e-01 -2.714445e-01 2.453085e-01 -4.823149e-01 -5.362107e-01 5.163798e-01
<VARIANCE> 25
 6.815811e+01 9.098201e+01 1.036235e+02 5.266089e+01 7.225452e+01 1.004904e+02 5.386379e+01 5.023881e+01 4.243251e+01 4.199818e+01 3.788721e+01 3.134088e+01 6.242422e+00 5.818686e+00 6.198080e+00 4.265843e+00 4.988107e+00 5.478577e+00 4.979091e+00 4.698681e+00 4.436299e+00 4.309430e+00 3.620438e+00 3.085404e+00 3.057754e+00
<GCONST> 1.144520e+02
<TRANSP> 5
 0.000000e+00 1.000000e+00 0.000000e+00 0.000000e+00 0.000000e+00
 0.000000e+00 7.396026e-01 2.603974e-01 0.000000e+00 0.000000e+00
 0.000000e+00 0.000000e+00 7.267004e-01 2.732996e-01 0.000000e+00
 0.000000e+00 0.000000e+00 0.000000e+00 6.638470e-01 3.361530e-01
 0.000000e+00 0.000000e+00 0.000000e+00 0.000000e+00 0.000000e+00
<ENDHMM>
~h "t"
<BEGINHMM>
<NUMSTATES> 5
<STATE> 2
<MEAN> 25
 -3.222653e+00 3.295692e+00 -8.064100e-01 3.299208e+00 1.407513e+00 1.139554e+00 1.465470e+00 -2.934009e-03 1.634442e+00 -1.641567e-02 1.268594e+00 1.939141e+00 -9.340721e-01 -4.692577e-01 -4.514798e-01 -4.206512e-01 1.687575e-01 -1.029997e-02 3.397058e-01 1.702162e-01 6.957828e-01 -1.243506e-01 3.503107e-01 2.498647e-01 8.295727e-02
<VARIANCE> 25
 4.168426e+01 2.983855e+01 3.399761e+01 3.642160e+01 4.048284e+01 5.172079e+01 3.669436e+01 3.874675e+01 4.264471e+01 3.264909e+01 3.655647e+01 2.627155e+01 3.432375e+00 4.468416e+00 3.334373e+00 4.109520e+00 4.309439e+00 6.255721e+00 4.168133e+00 4.169876e+00 4.462311e+00 3.503380e+00 3.634776e+00 2.743066e+00 7.782856e+00
<GCONST> 1.078053e+02
<STATE> 3
<MEAN> 25
 -3.758641e+00 -5.333916e-01 -1.707960e+00 1.081967e-01 1.208776e+00 -1.241098e+00 1.522411e+00 4.006062e-01 3.064416e+00 -4.032263e-01 1.093084e+00 1.827833e+00 7.822058e-01 -1.383806e+00 1.672363e-02 -1.405482e+00 -4.719041e-01 -1.236534e+00 -6.620706e-01 -3.257420e-03 4.549657e-01 -4.403581e-02 -1.880722e-01 -6.031632e-01 2.783336e+00
<VARIANCE> 25
 3.713872e+01 3.933200e+01 3.659736e+01 4.058909e+01 4.683826e+01 6.616582e+01 4.357103e+01 4.344246e+01 4.242699e+01 3.724210e+01 3.823623e+01 3.076941e+01 5.647488e+00 5.024223e+00 4.932036e+00 5.603693e+00 5.846289e+00 8.485736e+00 6.651519e+00 6.277965e+00 6.319496e+00 5.392531e+00 5.625330e+00 4.538933e+00 7.228954e+00
<GCONST> 1.136048e+02
<STATE> 4
<MEAN> 25
 -6.712946e-01 -2.088494e+00 -1.492006e+00 -1.967901e+00 2.225761e-01 -3.278708e+00 -8.489247e-01 3.221902e-01 3.270682e+00 -2.098234e-01 1.340837e-01 6.504110e-02 1.474345e+00 -4.992768e-01 2.537103e-01 -8.560385e-01 -6.045443e-01 -4.677022e-01 -1.145388e+00 -2.689990e-01 -3.681511e-01 3.186308e-01 -1.754448e-01 -8.152144e-01 1.553609e+00
<VARIANCE> 25
 4.147636e+01 4.050333e+01 4.403415e+01 4.681774e+01 4.908883e+01 6.739362e+01 5.803607e+01 5.083143e+01 4.945181e+01 4.464035e+01 4.177687e+01 3.765871e+01 4.283834e+00 4.260629e+00 5.009759e+00 4.944439e+00 5.502499e+00 7.096526e+00 6.580505e+00 6.052632e+00 6.053763e+00 5.140530e+00 5.343342e+00 4.066853e+00 4.238164e+00
<GCONST> 1.135830e+02
<TRANSP> 5
 0.000000e+00 1.000000e+00 0.000000e+00 0.000000e+00 0.000000e+00
 0.000000e+00 5.739211e-01 4.260788e-01 0.000000e+00 0.000000e+00
 0.000000e+00 0.000000e+00 4.185550e-01 5.814450e-01 0.000000e+00
 0.000000e+00 0.000000e+00 0.000000e+00 3.373131e-01 6.626869e-01
 0.000000e+00 0.000000e+00 0.000000e+00 0.000000e+00 0.000000e+00
<ENDHMM>
~h "u"
<BEGINHMM>
<NUMSTATES> 5
<STATE> 2
<MEAN> 25
 5.596005e+00 2.998293e+00 -1.600819e+00 -4.008840e+00 -9.911590e-01 -4.312698e-01 -6.988880e+00 -5.204613e+00 -2.490510e+00 6.281514e-01 2.440596e+00 -4.120982e-01 9.571480e-01 4.855000e-01 -3.632845e-01 -1.050423e+00 -3.103101e-01 6.562221e-01 -8.062222e-01 -9.485862e-01 -7.952077e-01 3.088595e-01 6.992632e-01 3.773173e-02 2.501297e-01
<VARIANCE> 25
 2.646019e+01 3.620175e+01 4.034103e+01 6.806161e+01 5.266287e+01 5.882417e+01 6.623965e+01 5.700356e+01 5.774647e+01 5.715395e+01 4.701937e+01 3.703057e+01 2.601485e+00 2.814648e+00 3.235593e+00 5.216758e+00 4.891312e+00 5.276445e+00 5.596742e+00 5.206595e+00 5.513072e+00 5.004027e+00 4.088185e+00 3.332237e+00 1.961445e+00
<GCONST> 1.106111e+02
<STATE> 3
<MEAN> 25
 6.398829e+00 3.378314e+00 -2.268780e+00 -5.299712e+00 -1.454905e+00 1.135603e+00 -7.458337e+00 -6.564328e+00 -3.315789e+00 1.061225e+00 3.527552e+00 -1.006341e-02 -1.477228e-02 1.643519e-01 -1.785314e-02 2.825417e-01 7.003473e-02 2.758287e-01 3.202458e-01 -1.328058e-02 6.157738e-02 -3.801344e-02 -1.397962e-01 1.035946e-01 -3.409092e-01
<VARIANCE> 25
 2.189662e+01 3.376077e+01 3.764839e+01 6.619149e+01 4.913908e+01 5.386414e+01 5.799205e+01 5.725082e+01 6.123174e+01 6.268983e+01 5.134570e+01 3.733633e+01 1.026738e+00 2.201182e+00 2.220990e+00 4.573622e+00 3.558957e+00 3.820601e+00 4.446239e+00 3.972027e+00 4.595174e+00 4.207140e+00 3.677726e+00 3.046724e+00 1.535008e+00
<GCONST> 1.065952e+02
<STATE> 4
<MEAN> 25
 4.809111e+00 5.050236e+00 -1.881808e+00 -3.072531e+00 -8.505507e-01 1.645791e+00 -4.150764e+00 -4.895367e+00 -3.192575e+00 -2.310379e-01 2.363931e+00 1.174993e+00 -5.320951e-01 -8.081196e-02 2.072963e-01 7.114395e-01 3.126982e-01 -3.007885e-02 5.309454e-01 4.348067e-01 3.897489e-01 -5.692646e-02 -3.518896e-01 1.374437e-02 -4.405970e-01
<VARIANCE> 25
 2.865401e+01 3.648167e+01 3.277060e+01 7.024837e+01 4.673783e+01 4.907449e+01 4.873254e+01 4.568022e+01 5.347792e+01 5.565547e+01 4.336674e+01 3.701046e+01 8.871249e-01 1.502926e+00 1.667947e+00 2.698478e+00 2.438435e+00 2.678556e+00 2.801707e+00 2.765632e+00 2.943047e+00 2.915595e+00 2.677351e+00 2.206172e+00 8.776688e-01
<GCONST> 1.009770e+02
<TRANSP> 5
 0.000000e+00 1.000000e+00 0.000000e+00 0.000000e+00 0.000000e+00
 0.000000e+00 4.809753e-01 5.190246e-01 0.000000e+00 0.000000e+00
 0.000000e+00 0.000000e+00 4.588013e-01 5.411987e-01 0.000000e+00
 0.000000e+00 0.000000e+00 0.000000e+00 7.338808e-01 2.661193e-01
 0.000000e+00 0.000000e+00 0.000000e+00 0.000000e+00 0.000000e+00
<ENDHMM>
~h "v"
<BEGINHMM>
<NUMSTATES> 5
<STATE> 2
<MEAN> 25
 -5.284083e+00 -1.336930e-01 4.037825e-01 2.369553e+00 3.019501e+00 1.700883e+00 7.009706e-01 -4.327893e-02 -8.667796e-01 1.496822e-01 7.246369e-01 2.803941e-01 -4.027990e-01 -4.574576e-02 2.698676e-02 1.377589e-01 1.582775e-01 1.875046e-01 1.537408e-02 -5.729832e-04 -7.400446e-02 -3.299656e-02 1.090458e-01 6.876267e-02 -1.891398e-01
<VARIANCE> 25
 3.446248e+01 1.614059e+01 1.834375e+01 2.338376e+01 2.127800e+01 2.806728e+01 1.910979e+01 2.324324e+01 2.239136e+01 2.276064e+01 1.981564e+01 1.469528e+01 1.069538e+00 7.999957e-01 7.383437e-01 1.073686e+00 1.619278e+00 1.937193e+00 1.607922e+00 1.576213e+00 1.862215e+00 1.803742e+00 1.849008e+00 1.435232e+00 3.271679e-01
<GCONST> 8.548101e+01
<STATE> 3
<MEAN> 25
 -5.239145e+00 -1.059982e+00 6.964409e-01 3.434901e+00 2.043175e+00 2.383271e+00 1.313066e+00 7.216362e-01 3.155391e-01 -4.982013e-01 1.969165e+00 7.785233e-01 2.231588e-01 -2.853903e-01 -2.394393e-01 -2.669014e-01 -3.010034e-01 -1.387306e-01 -1.097475e-01 -1.274074e-01 2.110979e-01 -1.401725e-01 -5.036720e-02 -6.969282e-02 5.155466e-02
<VARIANCE> 25
 4.411513e+01 3.906671e+01 2.402450e+01 3.668539e+01 3.113624e+01 4.985641e+01 3.153781e+01 2.765514e+01 3.316543e+01 4.391640e+01 2.101014e+01 2.002318e+01 1.626585e+00 1.468871e+00 1.276856e+00 1.712386e+00 2.190765e+00 2.905873e+00 2.029336e+00 1.958806e+00 2.788623e+00 2.162277e+00 1.791641e+00 1.654076e+00 5.399368e-01
<GCONST> 9.477573e+01
<STATE> 4
<MEAN> 25
 2.562374e+00 -1.608111e+00 1.282316e+00 3.002592e+00 -2.953397e+00 -1.887900e+00 -3.825593e-01 -1.217376e+00 -1.583882e+00 -2.148732e+00 2.121334e+00 -2.838919e-01 1.217144e+00 7.815745e-02 -4.464272e-01 -7.669998e-01 -5.364323e-01 -4.888698e-01 -5.816850e-02 -3.717524e-01 -1.746181e-01 2.316562e-01 3.412051e-02 -2.488260e-01 4.882502e-01
<VARIANCE> 25
 7.099073e+01 2.940771e+01 4.137505e+01 5.561066e+01 8.846797e+01 5.373714e+01 3.801278e+01 3.094817e+01 7.652563e+01 5.109245e+01 1.908196e+01 2.231534e+01 3.746109e+00 1.853737e+00 3.109312e+00 3.769009e+00 5.246772e+00 3.376837e+00 2.818939e+00 2.466285e+00 4.064353e+00 2.839464e+00 2.064836e+00 2.164485e+00 1.700455e+00
<GCONST> 1.048808e+02
<TRANSP> 5
 0.000000e+00 1.000000e+00 0.000000e+00 0.000000e+00 0.000000e+00
 0.000000e+00 8.865559e-01 1.134442e-01 0.000000e+00 0.000000e+00
 0.000000e+00 0.000000e+00 4.763291e-01 5.236709e-01 0.000000e+00
 0.000000e+00 0.000000e+00 0.000000e+00 6.085024e-01 3.914975e-01
 0.000000e+00 0.000000e+00 0.000000e+00 0.000000e+00 0.000000e+00
<ENDHMM>
~h "w"
<BEGINHMM>
<NUMSTATES> 5
<STATE> 2
<MEAN> 25
 5.356121e+00 4.841907e+00 -4.373776e+00 -7.794163e+00 -2.027212e+00 2.588777e+00 -1.891905e+00 -2.602342e+00 -3.113386e+00 1.044069e+00 3.449086e+00 1.032457e+00 9.287041e-01 -2.819583e-01 -6.633843e-01 -1.479382e+00 -3.131003e-01 4.266386e-01 -5.075452e-01 -2.855225e-01 -1.359533e-02 5.066452e-01 6.267768e-01 -2.457965e-01 1.003284e+00
<VARIANCE> 25
 8.835344e+01 4.715125e+01 3.335143e+01 6.352341e+01 5.206859e+01 5.805368e+01 5.172069e+01 4.367667e+01 4.162283e+01 5.058650e+01 4.048396e+01 3.396757e+01 3.782620e+00 3.516005e+00 2.385869e+00 4.299962e+00 3.963878e+00 4.523073e+00 3.581496e+00 3.189504e+00 3.584898e+00 4.020941e+00 3.727101e+00 3.301085e+00 2.801369e+00
<GCONST> 1.090016e+02
<STATE> 3
<MEAN> 25
 8.705459e+00 1.231623e+00 -6.729418e+00 -1.218911e+01 -1.788764e+00 5.173079e+00 -5.024170e+00 -3.882926e+00 -1.689223e+00 3.844772e+00 5.835646e+00 -1.303308e+00 -1.447220e-01 -1.439167e+00 -3.289139e-01 -6.981196e-02 6.556223e-01 1.676056e-01 -4.002444e-01 3.454002e-01 1.172837e+00 7.764617e-01 -3.962387e-01 -1.265436e+00 8.255222e-01
<VARIANCE> 25
 2.365376e+01 3.682088e+01 3.304613e+01 5.916738e+01 4.821923e+01 7.339334e+01 5.444998e+01 4.516748e+01 4.676792e+01 6.195637e+01 5.027774e+01 3.799335e+01 1.103423e+00 2.901414e+00 1.885567e+00 2.952016e+00 3.007189e+00 4.189342e+00 3.575125e+00 3.427376e+00 3.970781e+00 4.139093e+00 3.834057e+00 4.010880e+00 1.504926e+00
<GCONST> 1.056614e+02
<STATE> 4
<MEAN> 25
 8.257568e+00 -2.814042e+00 -6.965349e+00 -9.378008e+00 -8.260654e-02 2.887995e+00 -5.568860e+00 -1.377730e+00 2.962237e+00 2.586688e+00 1.819389e+00 -5.128256e+00 -3.781066e-01 -5.640126e-01 2.949111e-01 8.257517e-01 2.371480e-01 -6.326729e-01 3.856772e-01 6.190590e-01 4.415443e-01 -3.209589e-01 -8.658140e-01 -1.796504e-01 4.806493e-02
<VARIANCE> 25
 2.550697e+01 4.695113e+01 3.789809e+01 8.190437e+01 7.189392e+01 1.367224e+02 6.107492e+01 6.532973e+01 6.534389e+01 9.764225e+01 6.523177e+01 5.864822e+01 5.852003e-01 2.398214e+00 1.788883e+00 2.565423e+00 2.631550e+00 3.666798e+00 2.948711e+00 3.291379e+00 3.274392e+00 3.205493e+00 3.182548e+00 3.106082e+00 1.171587e+00
<GCONST> 1.067732e+02
<TRANSP> 5
 0.000000e+00 1.000000e+00 0.000000e+00 0.000000e+00 0.000000e+00
 0.000000e+00 6.194486e-01 3.805514e-01 0.000000e+00 0.000000e+00
 0.000000e+00 0.000000e+00 5.505627e-01 4.494373e-01 0.000000e+00
 0.000000e+00 0.000000e+00 0.000000e+00 7.507281e-01 2.492719e-01
 0.000000e+00 0.000000e+00 0.000000e+00 0.000000e+00 0.000000e+00
<ENDHMM>
~h "y"
<BEGINHMM>
<NUMSTATES> 5
<STATE> 2
<MEAN> 25
 8.002711e-01 -1.089500e+00 1.090212e+01 -3.840241e+00 -9.346510e+00 -4.686510e+00 -1.366992e+00 -1.052880e+00 -3.467862e+00 1.747192e+00 2.189186e+00 3.040834e-01 1.884098e-01 -5.640435e-01 5.920671e-01 -5.616436e-01 -1.180782e+00 -5.889158e-01 3.310816e-01 4.917620e-01 -1.362939e-01 3.401920e-01 4.402073e-01 4.031969e-02 8.392115e-01
<VARIANCE> 25
 3.068807e+01 4.695378e+01 7.123026e+01 8.003935e+01 7.233639e+01 6.030909e+01 5.839628e+01 6.607285e+01 5.787566e+01 5.798579e+01 5.600508e+01 3.470842e+01 2.012215e+00 3.397543e+00 6.765097e+00 4.662344e+00 4.906779e+00 4.152274e+00 4.706000e+00 5.458263e+00 4.530340e+00 4.004314e+00 3.782888e+00 2.679400e+00 2.471214e+00
<GCONST> 1.119509e+02
<STATE> 3
<MEAN> 25
 1.735656e+00 -4.583535e+00 9.252738e+00 -5.135251e+00 -1.171700e+01 -7.094827e+00 5.535359e-01 2.989549e+00 -2.397853e+00 1.718526e+00 3.274469e+00 -1.460918e-01 2.168474e-01 -8.086609e-01 -1.341319e+00 1.344597e-01 7.696577e-01 -3.880074e-02 6.656560e-01 1.228403e+00 6.607250e-01 -4.499073e-01 -6.966930e-01 -2.562256e-01 2.322176e-01
<VARIANCE> 25
 2.353733e+01 3.106000e+01 5.133414e+01 5.054873e+01 4.944536e+01 4.807764e+01 5.579698e+01 6.971750e+01 4.983955e+01 5.198209e+01 5.117648e+01 2.829614e+01 4.519164e-01 1.766828e+00 3.034324e+00 1.951845e+00 3.042732e+00 2.337568e+00 2.895427e+00 3.636404e+00 3.437333e+00 3.023593e+00 3.190281e+00 2.108665e+00 6.117594e-01
<GCONST> 1.012059e+02
<STATE> 4
<MEAN> 25
 2.012201e+00 -6.370603e+00 1.696687e+00 -2.858021e+00 -4.726681e+00 -4.831161e+00 2.768879e+00 5.307215e+00 5.305457e-02 -5.564067e-01 -5.036899e-01 -1.851868e-01 1.016456e-01 -6.210848e-02 -7.377456e-01 2.206234e-01 9.064707e-01 3.726169e-01 -7.608362e-02 8.042611e-03 1.952706e-01 -2.004351e-01 -5.274700e-01 -1.540228e-01 -2.316785e-01
<VARIANCE> 25
 3.244603e+01 4.139565e+01 4.275796e+01 4.866301e+01 5.583875e+01 4.709518e+01 5.066908e+01 6.316839e+01 4.344011e+01 4.359100e+01 4.869005e+01 3.025403e+01 3.133942e-01 8.947194e-01 1.416067e+00 1.233257e+00 2.048497e+00 1.553502e+00 1.799155e+00 2.097167e+00 1.912629e+00 1.989535e+00 2.158157e+00 1.531197e+00 3.594070e-01
<GCONST> 9.485717e+01
<TRANSP> 5
 0.000000e+00 1.000000e+00 0.000000e+00 0.000000e+00 0.000000e+00
 0.000000e+00 6.473165e-01 3.526836e-01 0.000000e+00 0.000000e+00
 0.000000e+00 0.000000e+00 6.262202e-01 3.737797e-01 0.000000e+00
 0.000000e+00 0.000000e+00 0.000000e+00 7.949129e-01 2.050871e-01
 0.000000e+00 0.000000e+00 0.000000e+00 0.000000e+00 0.000000e+00
<ENDHMM>
~h "z"
<BEGINHMM>
<NUMSTATES> 5
<STATE> 2
<MEAN> 25
 -4.447225e+00 2.797302e+00 8.664118e+00 3.690012e+00 -2.924889e+00 5.698639e+00 -1.925225e+00 -7.441393e+00 -2.512525e+00 -1.995843e+00 -1.837382e-01 5.709502e-01 -1.235082e-01 -4.566420e-01 3.690539e-01 3.038683e-01 8.283900e-02 2.524361e-01 -6.630032e-02 -2.283815e-01 2.588201e-01 -7.267930e-02 1.702805e-01 -3.510596e-02 2.865637e-01
<VARIANCE> 25
 7.028954e+01 1.704635e+02 1.077839e+02 2.269110e+02 1.170312e+02 1.709520e+02 5.983095e+01 8.921980e+01 9.596056e+01 9.557822e+01 5.777155e+01 6.972955e+01 3.983824e+00 4.707701e+00 6.692904e+00 9.137255e+00 5.742421e+00 8.600853e+00 5.462942e+00 5.039451e+00 6.741099e+00 5.898076e+00 4.352284e+00 4.053126e+00 2.808838e+00
<GCONST> 1.231999e+02
<STATE> 3
<MEAN> 25
 1.786851e+00 -7.196677e+00 1.099601e+01 7.994673e+00 8.829001e-01 8.139605e+00 -6.817590e+00 -1.047840e+01 -8.390379e-02 -4.588806e+00 2.180682e+00 2.336262e+00 3.752546e-01 7.259615e-03 -6.826138e-01 -2.747257e-01 -1.919850e-01 -3.903449e-01 1.118651e-01 3.897703e-01 2.660888e-01 -2.716510e-01 1.760291e-01 1.889554e-01 3.446077e-01
<VARIANCE> 25
 2.776423e+01 4.313947e+01 1.760055e+02 8.654813e+01 6.072254e+01 1.307543e+02 7.583354e+01 5.848030e+01 6.958046e+01 6.553668e+01 7.212574e+01 4.974007e+01 2.080705e+00 2.249451e+00 9.397973e+00 3.118269e+00 2.420002e+00 8.509782e+00 3.957840e+00 4.063292e+00 3.949559e+00 5.696589e+00 3.488259e+00 2.835298e+00 1.684209e+00
<GCONST> 1.133036e+02
<STATE> 4
<MEAN> 25
 5.584311e+00 -1.907403e+00 1.194114e+00 4.623242e+00 1.251153e+00 1.477190e+00 -4.889136e+00 -3.074511e+00 1.934470e+00 -8.520207e+00 -8.949405e-01 3.847489e-01 7.474723e-02 1.487710e-01 -4.317523e-01 -2.442589e-01 -2.673091e-02 -5.014979e-02 3.953209e-01 3.629394e-01 1.828553e-01 1.845203e-01 -2.867848e-01 -9.973003e-02 -2.559702e-01
<VARIANCE> 25
 3.124261e+01 6.424129e+01 8.234402e+01 9.200931e+01 8.834975e+01 8.526081e+01 3.864878e+01 4.543880e+01 3.600274e+01 8.020939e+01 1.060210e+02 4.942637e+01 4.851094e-01 1.160766e+00 2.963824e+00 2.059492e+00 1.935748e+00 2.773357e+00 1.837960e+00 2.606521e+00 2.232573e+00 3.727028e+00 1.901166e+00 1.703438e+00 5.647504e-01
<GCONST> 1.026188e+02
<TRANSP> 5
 0.000000e+00 1.000000e+00 0.000000e+00 0.000000e+00 0.000000e+00
 0.000000e+00 8.870445e-01 1.129555e-01 0.000000e+00 0.000000e+00
 0.000000e+00 0.000000e+00 8.659017e-01 1.340983e-01 0.000000e+00
 0.000000e+00 0.000000e+00 0.000000e+00 8.277406e-01 1.722594e-01
 0.000000e+00 0.000000e+00 0.000000e+00 0.000000e+00 0.000000e+00
<ENDHMM>
~h "ai"
<BEGINHMM>
<NUMSTATES> 5
<STATE> 2
<MEAN> 25
 5.063898e+00 -5.650256e+00 -5.467808e-01 -1.202620e+00 -5.009904e+00 -2.936678e+00 -1.355408e+00 4.170585e+00 5.875124e+00 -2.171172e+00 -4.436814e+00 -8.014295e-01 -1.718044e-01 1.152553e-01 5.665799e-01 -1.043828e-01 -6.283602e-02 1.449193e-01 1.702533e-01 -3.243112e-01 -3.988543e-01 3.627677e-01 5.299839e-01 2.106366e-01 -9.375576e-02
<VARIANCE> 25
 1.532278e+01 2.050879e+01 3.133847e+01 6.302135e+00 1.761319e+01 9.299541e+01 2.077874e+01 1.135008e+02 1.077066e+02 2.058792e+01 5.098703e+01 1.367935e+01 2.026652e-01 1.036511e+00 1.667622e+00 5.056110e-01 1.691068e+00 1.075802e+00 1.082876e+00 1.623784e+00 2.155879e+00 1.287343e+00 2.009045e+00 2.000779e+00 4.589733e-01
<GCONST> 8.746646e+01
<STATE> 3
<MEAN> 25
 2.643172e+00 -3.880969e-01 3.218652e+00 -1.137464e+00 -3.360908e+00 8.857024e-01 3.351164e-01 3.495702e+00 7.936213e+00 6.920951e+00 -1.649763e-01 -1.002141e+00 -5.565505e-01 6.782216e-01 -4.930399e-01 3.045192e-01 4.413330e-01 3.693007e-01 5.906643e-01 -7.750591e-01 4.102519e-01 2.169134e-01 -4.004189e-01 -5.908155e-02 -6.681657e-01
<VARIANCE> 25
 2.163771e+01 1.598094e+01 5.431675e+01 1.278838e+01 1.965935e+01 3.444940e+01 2.937453e+01 1.378867e+02 5.081522e+01 2.320304e+01 1.702948e+01 9.554241e+00 4.829467e-01 2.353147e+00 1.180112e+00 1.522873e+00 2.840512e+00 1.651411e+00 2.167771e+00 9.754438e-01 1.349189e+00 1.495234e+00 1.571705e+00 5.249070e-01 1.456185e+00
<GCONST> 8.921895e+01
<STATE> 4
<MEAN> 25
 -6.187021e+00 -5.848530e+00 2.869955e+00 2.470255e+00 3.440511e+00 1.660629e+00 7.365040e+00 4.144546e-01 4.206259e-01 5.460488e+00 -2.995668e+00 -1.336547e+00 -3.752716e-01 -1.473808e-02 1.004506e-01 3.340622e-01 -6.333522e-02 1.764774e-03 3.295715e-01 6.371678e-01 -6.884158e-01 -2.208874e-02 1.474753e-01 4.522907e-01 -5.521067e-01
<VARIANCE> 25
 1.638018e+01 3.193356e+01 1.142551e+01 1.153993e+01 2.998866e+01 1.900451e+01 2.390324e+01 5.849284e+01 4.736294e+01 7.491257e+01 1.395942e+01 1.194746e+01 2.598113e+00 5.622946e-01 8.629896e-01 6.558774e-01 2.268066e+00 1.623084e+00 2.495121e+00 1.800861e+00 2.147156e+00 3.439249e+00 1.801156e+00 1.687638e+00 1.711434e+00
<GCONST> 9.023183e+01
<TRANSP> 5
 0.000000e+00 1.000000e+00 0.000000e+00 0.000000e+00 0.000000e+00
 0.000000e+00 9.221539e-01 7.784615e-02 0.000000e+00 0.000000e+00
 0.000000e+00 0.000000e+00 8.404185e-01 1.595816e-01 0.000000e+00
 0.000000e+00 0.000000e+00 0.000000e+00 9.087245e-01 9.127554e-02
 0.000000e+00 0.000000e+00 0.000000e+00 0.000000e+00 0.000000e+00
<ENDHMM>
~h "au"
<BEGINHMM>
<NUMSTATES> 5
<STATE> 2
<MEAN> 25
 -2.159635e+01 9.635290e+00 -3.371523e+00 -5.126127e+00 1.011214e+01 2.225465e+00 -1.733420e+00 2.823013e+00 -2.889359e-02 5.027247e+00 1.554137e+00 -1.999936e+00 -2.788910e-01 4.824066e-01 9.281738e-02 -4.519922e-02 3.301527e-01 -9.321510e-02 2.336860e-01 -3.871267e-02 -1.567582e-01 2.705412e-01 9.708441e-02 -2.670423e-02 -3.953589e-01
<VARIANCE> 25
 1.213708e+02 6.441328e+01 1.459401e+01 2.826036e+01 4.060838e+01 1.793662e+01 2.000792e+01 2.430063e+01 1.323942e+01 1.860588e+01 1.287954e+01 1.364164e+01 9.321204e+00 1.922970e+00 1.096588e+00 3.993721e+00 1.743689e+00 1.125593e+00 2.489251e+00 8.701474e-01 1.223143e+00 7.202091e-01 1.238598e+00 1.051883e+00 6.990820e+00
<GCONST> 9.227871e+01
<STATE> 3
<MEAN> 25
 -7.990599e-01 4.132513e+00 -2.813240e+00 8.411838e-01 2.479564e+00 -7.866404e-01 6.563409e+00 5.170464e+00 -1.467427e+00 3.008588e+00 1.254613e+00 -2.636734e+00 3.174900e+00 -2.359377e+00 -1.142906e+00 6.094653e-01 -1.261289e+00 -6.744249e-01 1.649052e+00 -3.895409e-01 -1.851394e+00 -8.804401e-01 3.930950e-01 1.065087e+00 2.872161e+00
<VARIANCE> 25
 1.604493e+02 9.541756e+01 2.244128e+01 2.915539e+01 8.012711e+01 5.066698e+01 3.889296e+01 2.079130e+01 2.453280e+01 2.793317e+01 1.789980e+01 3.131280e+01 1.091449e+01 7.446718e+00 2.034057e+00 3.415002e+00 2.774959e+00 7.462606e+00 4.179326e+00 1.247659e+00 1.216459e+00 1.475808e+00 1.062482e+00 3.513191e+00 8.905023e+00
<GCONST> 1.050365e+02
<STATE> 4
<MEAN> 25
 -2.724788e+00 1.806774e+00 -5.343322e+00 3.538001e-01 2.592893e+00 -3.598230e-01 7.238899e+00 4.004460e+00 -5.842351e+00 -1.038102e+00 2.002417e+00 3.665758e+00 2.373496e-02 -1.782729e-01 2.647679e-01 -2.074350e-01 -4.173375e-01 -5.720946e-02 -3.102290e-01 -1.235966e-01 3.289018e-01 -4.795642e-02 -5.896847e-02 2.670071e-01 1.244369e-01
<VARIANCE> 25
 1.097772e+02 6.196402e+01 6.480728e+01 5.781524e+01 6.556931e+01 7.680558e+01 4.064780e+01 3.067879e+01 5.071936e+01 4.707050e+01 1.716734e+01 2.372474e+01 8.583508e+00 8.662826e+00 4.596570e+00 3.083637e+00 5.346695e+00 8.996542e+00 5.108785e+00 2.598374e+00 4.375015e+00 3.640881e+00 1.996981e+00 2.678919e+00 8.925110e+00
<GCONST> 1.124945e+02
<TRANSP> 5
 0.000000e+00 1.000000e+00 0.000000e+00 0.000000e+00 0.000000e+00
 0.000000e+00 7.695290e-01 2.304709e-01 0.000000e+00 0.000000e+00
 0.000000e+00 0.000000e+00 5.843374e-01 4.156626e-01 0.000000e+00
 0.000000e+00 0.000000e+00 0.000000e+00 8.846831e-01 1.153169e-01
 0.000000e+00 0.000000e+00 0.000000e+00 0.000000e+00 0.000000e+00
<ENDHMM>
~h "aw"
<BEGINHMM>
<NUMSTATES> 5
<STATE> 2
<MEAN> 25
 5.338915e+00 -4.479408e+00 -6.511506e+00 -9.767880e+00 1.755086e+00 4.734212e+00 -7.706582e-01 5.802929e-02 1.824335e+00 2.396150e+00 -2.213457e-01 -3.406692e+00 3.095240e-01 2.538972e-01 -4.140341e-01 -8.317764e-01 9.250418e-02 6.196201e-01 -2.280594e-01 -1.661818e-01 -2.893855e-01 2.031982e-01 5.996572e-01 1.280138e-01 -8.285332e-02
<VARIANCE> 25
 2.322895e+01 3.502196e+01 3.013391e+01 5.295441e+01 5.071848e+01 5.455121e+01 5.058039e+01 4.725092e+01 4.788187e+01 4.815983e+01 5.289447e+01 3.996064e+01 7.349957e-01 1.245372e+00 1.412644e+00 2.325992e+00 2.564284e+00 2.397732e+00 2.638776e+00 2.927976e+00 2.388692e+00 2.345757e+00 2.405501e+00 1.984364e+00 7.569695e-01
<GCONST> 9.909727e+01
<STATE> 3
<MEAN> 25
 6.503623e+00 -1.109353e+00 -6.697299e+00 -1.166469e+01 6.858473e-01 5.911052e+00 -2.781090e+00 -1.472292e+00 -5.869230e-01 2.721184e+00 2.522889e+00 -1.439470e+00 9.250175e-02 7.531049e-01 1.626420e-01 3.315237e-01 -2.215745e-01 -1.615974e-01 -1.252718e-01 -3.325865e-01 -4.162525e-01 -2.178202e-01 1.190828e-01 3.984601e-01 -5.412668e-01
<VARIANCE> 25
 2.192774e+01 2.309544e+01 2.828773e+01 5.595010e+01 5.307030e+01 5.365576e+01 5.569915e+01 4.565437e+01 4.692807e+01 5.270286e+01 3.762874e+01 3.600043e+01 4.653236e-01 1.376522e+00 1.190847e+00 2.731383e+00 2.366952e+00 2.413826e+00 2.723578e+00 2.656280e+00 2.943524e+00 2.975988e+00 2.376303e+00 2.293236e+00 6.778514e-01
<GCONST> 9.829363e+01
<STATE> 4
<MEAN> 25
 6.029215e+00 3.866479e+00 -3.824277e+00 -7.204119e+00 -2.093582e+00 3.134656e+00 -9.158406e-01 -2.723204e+00 -2.445577e+00 2.954731e-01 1.288985e+00 1.496228e-01 -3.412077e-01 3.215995e-01 4.869578e-01 1.006595e+00 1.004399e-01 -3.333798e-01 8.417878e-02 -2.492022e-02 6.322505e-02 -1.648417e-01 -2.036449e-01 6.692916e-02 -5.504586e-01
<VARIANCE> 25
 2.229328e+01 2.855258e+01 2.413528e+01 5.496126e+01 4.494218e+01 4.073628e+01 4.262019e+01 4.019617e+01 4.778423e+01 4.953363e+01 3.351113e+01 3.124514e+01 5.218631e-01 1.033532e+00 1.198841e+00 2.159299e+00 2.022695e+00 2.070107e+00 2.314792e+00 2.364216e+00 2.528480e+00 2.589990e+00 1.974878e+00 1.866853e+00 5.505250e-01
<GCONST> 9.532765e+01
<TRANSP> 5
 0.000000e+00 1.000000e+00 0.000000e+00 0.000000e+00 0.000000e+00
 0.000000e+00 7.079682e-01 2.920319e-01 0.000000e+00 0.000000e+00
 0.000000e+00 0.000000e+00 6.387551e-01 3.612448e-01 0.000000e+00
 0.000000e+00 0.000000e+00 0.000000e+00 8.355505e-01 1.644495e-01
 0.000000e+00 0.000000e+00 0.000000e+00 0.000000e+00 0.000000e+00
<ENDHMM>
~h "ay"
<BEGINHMM>
<NUMSTATES> 5
<STATE> 2
<MEAN> 25
 2.571510e+00 -1.023613e+01 -9.391158e-01 -4.022368e+00 -3.341435e+00 -4.508051e+00 1.956427e+00 7.470285e+00 3.247050e+00 -2.332710e+00 -1.513093e+00 -3.414164e+00 -2.928444e-01 3.051659e-02 1.557047e+00 -4.102284e-02 -1.634266e+00 -1.091030e+00 5.289840e-01 7.017870e-01 -8.868404e-01 -9.626172e-02 8.829483e-01 6.795126e-01 1.305522e-01
<VARIANCE> 25
 2.400732e+01 2.849450e+01 4.765845e+01 3.215751e+01 5.865995e+01 5.393291e+01 5.642013e+01 5.634521e+01 6.373075e+01 4.217331e+01 5.029602e+01 3.747462e+01 6.463881e-01 1.410389e+00 2.009767e+00 1.773416e+00 2.670396e+00 2.788509e+00 2.889245e+00 3.980834e+00 3.032796e+00 3.171855e+00 3.293463e+00 2.265248e+00 5.224255e-01
<GCONST> 1.006244e+02
<STATE> 3
<MEAN> 25
 1.680765e+00 -6.806055e+00 7.283994e+00 -4.173783e+00 -1.090574e+01 -7.950547e+00 2.013549e+00 5.222760e+00 -1.570293e+00 6.174842e-01 4.378729e+00 -1.498295e-01 -1.951303e-01 9.914598e-01 1.247880e+00 -9.457813e-02 -5.460904e-01 1.264376e-01 -4.875897e-01 -1.119979e+00 -8.383973e-01 4.859452e-01 4.122350e-01 3.433092e-01 -5.024978e-01
<VARIANCE> 25
 2.409504e+01 2.255227e+01 5.509798e+01 4.343300e+01 5.306315e+01 4.901784e+01 6.175847e+01 6.387515e+01 4.974814e+01 5.281000e+01 6.020520e+01 2.641567e+01 4.220016e-01 1.137686e+00 2.151915e+00 1.790047e+00 2.418588e+00 1.962839e+00 2.775970e+00 3.197109e+00 3.729309e+00 2.586052e+00 2.786396e+00 1.915268e+00 4.867277e-01
<GCONST> 9.899091e+01
<STATE> 4
<MEAN> 25
 8.953874e-01 1.748872e-01 8.278075e+00 -2.437213e+00 -8.025575e+00 -4.577723e+00 -7.706701e-01 5.329037e-01 -3.328633e+00 3.715028e-01 2.046695e+00 1.375542e+00 9.181743e-02 8.460935e-01 -5.861132e-01 7.489163e-01 8.012546e-01 6.268150e-01 -7.157842e-02 -3.997678e-01 -5.554363e-03 -1.538720e-01 -4.329328e-01 1.633070e-02 -9.922211e-01
<VARIANCE> 25
 1.744970e+01 3.898937e+01 5.247792e+01 5.843889e+01 4.840997e+01 5.022348e+01 4.774339e+01 6.100301e+01 4.731908e+01 4.594554e+01 4.478982e+01 3.237841e+01 6.543816e-01 1.263616e+00 2.254599e+00 2.024194e+00 2.452006e+00 2.464598e+00 2.932627e+00 3.078500e+00 2.933071e+00 2.647791e+00 2.489255e+00 2.055511e+00 8.119758e-01
<GCONST> 1.000360e+02
<TRANSP> 5
 0.000000e+00 1.000000e+00 0.000000e+00 0.000000e+00 0.000000e+00
 0.000000e+00 7.408426e-01 2.591574e-01 0.000000e+00 0.000000e+00
 0.000000e+00 0.000000e+00 6.387418e-01 3.612582e-01 0.000000e+00
 0.000000e+00 0.000000e+00 0.000000e+00 8.254024e-01 1.745976e-01
 0.000000e+00 0.000000e+00 0.000000e+00 0.000000e+00 0.000000e+00
<ENDHMM>
~h "eu"
<BEGINHMM>
<NUMSTATES> 5
<STATE> 2
<MEAN> 25
 2.357180e+00 3.153517e-01 -7.362739e-01 4.573299e-01 -2.405391e-01 -2.285350e+00 -2.688641e+00 -9.543226e-01 1.954913e+00 9.317155e-01 -1.733002e-01 -8.757311e-01 1.184280e+00 -6.912745e-01 -1.515042e-01 -3.441444e-01 -5.318550e-01 -6.353304e-01 -7.067798e-01 7.069304e-02 3.173392e-01 2.770466e-01 -2.222765e-01 -4.220487e-01 9.910526e-01
<VARIANCE> 25
 4.488422e+01 5.545030e+01 4.633625e+01 5.140552e+01 6.299796e+01 7.627428e+01 5.802656e+01 6.058745e+01 5.913187e+01 5.055765e+01 4.376997e+01 3.581527e+01 4.993481e+00 6.118330e+00 4.694942e+00 5.619781e+00 6.263199e+00 7.176029e+00 6.329516e+00 6.579072e+00 6.307534e+00 5.661098e+00 4.940009e+00 4.049439e+00 4.614138e+00
<GCONST> 1.158720e+02
<STATE> 3
<MEAN> 25
 4.642429e+00 -1.716345e+00 -1.043218e+00 -5.267501e-01 -1.464192e+00 -3.949821e+00 -3.942734e+00 -8.910367e-01 2.318986e+00 1.388569e+00 -5.500144e-01 -1.654587e+00 6.257291e-01 -4.419993e-01 -4.208058e-03 -2.855843e-02 -3.456054e-01 3.374087e-02 -1.233513e-01 9.698487e-02 5.006785e-02 3.331746e-02 -2.067601e-01 -2.013798e-01 3.317754e-01
<VARIANCE> 25
 2.721757e+01 4.532957e+01 4.219586e+01 4.937434e+01 5.456435e+01 6.402117e+01 5.543056e+01 6.381210e+01 5.872991e+01 5.494970e+01 4.604407e+01 3.648536e+01 2.748125e+00 4.536121e+00 3.772264e+00 5.047050e+00 5.082637e+00 5.979156e+00 5.407380e+00 6.240221e+00 5.552105e+00 4.900468e+00 4.457447e+00 3.663459e+00 3.336102e+00
<GCONST> 1.122457e+02
<STATE> 4
<MEAN> 25
 4.707864e+00 -1.728269e+00 -8.110188e-01 1.477134e-01 -1.598337e+00 -3.606896e+00 -3.491194e+00 -3.754472e-01 2.007895e+00 7.161173e-01 -9.636031e-01 -1.706604e+00 -7.550804e-02 2.351636e-01 1.536098e-01 3.603655e-01 5.712257e-02 5.300733e-01 4.070546e-01 -1.281439e-01 -2.548402e-01 -1.796786e-01 -7.136205e-02 9.090711e-02 -4.339145e-01
<VARIANCE> 25
 2.546466e+01 4.678014e+01 4.187043e+01 4.994183e+01 5.471168e+01 6.140840e+01 5.408264e+01 6.828675e+01 6.232152e+01 5.995494e+01 4.842399e+01 3.825734e+01 1.512511e+00 3.138219e+00 2.743154e+00 3.517758e+00 3.591835e+00 3.979747e+00 3.750458e+00 4.303838e+00 4.022677e+00 3.633892e+00 3.419561e+00 2.745575e+00 2.236026e+00
<GCONST> 1.077513e+02
<TRANSP> 5
 0.000000e+00 1.000000e+00 0.000000e+00 0.000000e+00 0.000000e+00
 0.000000e+00 3.270717e-01 6.729283e-01 0.000000e+00 0.000000e+00
 0.000000e+00 0.000000e+00 2.143252e-01 7.856748e-01 0.000000e+00
 0.000000e+00 0.000000e+00 0.000000e+00 4.221737e-01 5.778263e-01
 0.000000e+00 0.000000e+00 0.000000e+00 0.000000e+00 0.000000e+00
<ENDHMM>
~h "kh"
<BEGINHMM>
<NUMSTATES> 5
<STATE> 2
<MEAN> 25
 2.831185e-01 -4.167382e+00 -1.341907e+00 2.245633e+00 3.597795e+00 3.697867e-01 5.655587e+00 2.818198e+00 5.776500e-02 -2.298234e+00 -2.031414e+00 1.240505e+00 -8.852938e-01 7.756007e-01 1.059487e+00 1.122678e-01 -5.409777e-01 1.873369e-01 6.842417e-01 -1.988116e-01 -2.165141e-01 4.531857e-01 8.533902e-01 1.904928e-01 -7.943267e-01
<VARIANCE> 25
 1.345125e+01 2.929448e+01 3.290374e+01 3.082148e+01 4.482999e+01 4.682756e+01 3.275764e+01 4.369656e+01 2.838376e+01 2.868618e+01 2.212876e+01 2.718816e+01 1.164860e+00 2.015523e+00 2.028471e+00 3.120960e+00 2.596958e+00 3.584985e+00 3.267445e+00 2.939667e+00 3.014523e+00 3.149240e+00 3.409308e+00 2.286777e+00 2.026080e+00
<GCONST> 9.906549e+01
<STATE> 3
<MEAN> 25
 -1.992143e+00 -2.216884e+00 1.474172e+00 1.314161e+00 1.180710e+00 9.521230e-01 6.007113e+00 1.086508e+00 1.102073e-01 -1.560371e-01 2.926386e-01 7.871025e-01 -7.387738e-01 5.384229e-01 1.208877e+00 -2.087597e-01 -6.955819e-01 3.222211e-02 -2.439979e-01 -1.054932e+00 5.364404e-02 7.467651e-01 6.342773e-01 1.040683e-01 -2.360616e-01
<VARIANCE> 25
 2.211182e+01 2.321285e+01 4.053878e+01 3.106939e+01 4.824645e+01 5.001980e+01 3.458710e+01 4.577451e+01 3.227390e+01 2.340243e+01 2.501418e+01 2.281095e+01 1.251297e+00 1.880308e+00 2.657223e+00 2.398499e+00 2.956060e+00 3.693376e+00 2.525885e+00 2.480179e+00 3.262406e+00 2.671252e+00 3.034941e+00 1.929606e+00 1.325571e+00
<GCONST> 9.860339e+01
<STATE> 4
<MEAN> 25
 -3.875815e+00 -1.524822e+00 3.930234e+00 3.969544e-02 -4.348456e-01 2.228237e+00 5.338675e+00 -1.776507e+00 1.420822e+00 1.840379e+00 1.040853e+00 1.606871e+00 8.458057e-02 2.239771e-01 1.002739e+00 -4.391206e-01 -9.156199e-01 -7.770047e-01 -9.501692e-01 -1.100428e+00 -5.232208e-01 2.365865e-01 1.273302e-01 1.098023e-01 4.146295e-01
<VARIANCE> 25
 2.797195e+01 2.906983e+01 3.406451e+01 4.200993e+01 5.229295e+01 6.570140e+01 3.781519e+01 4.159139e+01 5.278706e+01 2.692929e+01 3.176692e+01 2.397276e+01 2.596726e+00 2.988127e+00 3.970807e+00 2.609226e+00 4.487334e+00 5.789615e+00 3.622166e+00 3.042909e+00 3.933016e+00 2.806262e+00 4.405200e+00 2.252909e+00 1.705693e+00
<GCONST> 1.045858e+02
<TRANSP> 5
 0.000000e+00 1.000000e+00 0.000000e+00 0.000000e+00 0.000000e+00
 0.000000e+00 5.958444e-01 4.041556e-01 0.000000e+00 0.000000e+00
 0.000000e+00 0.000000e+00 5.074891e-01 4.925109e-01 0.000000e+00
 0.000000e+00 0.000000e+00 0.000000e+00 5.792007e-01 4.207993e-01
 0.000000e+00 0.000000e+00 0.000000e+00 0.000000e+00 0.000000e+00
<ENDHMM>
~h "ng"
<BEGINHMM>
<NUMSTATES> 5
<STATE> 2
<MEAN> 25
 5.170502e+00 -8.802122e-01 -7.230517e-01 -1.594222e+00 -1.259866e+00 2.237072e+00 -9.574988e-02 -2.917421e+00 -2.118297e+00 6.967297e-01 -1.538794e+00 -2.639832e+00 -5.746867e-03 7.448971e-01 4.164569e-01 5.938423e-01 -2.591195e-01 2.311129e-01 3.104501e-01 -7.158453e-01 -3.705715e-01 -1.745284e-02 -2.255850e-01 1.596890e-01 -6.471377e-01
<VARIANCE> 25
 1.778950e+01 3.375066e+01 3.636224e+01 3.524740e+01 4.375754e+01 4.764055e+01 4.108382e+01 4.363287e+01 4.644519e+01 4.328770e+01 3.542075e+01 3.250478e+01 4.847756e-01 1.238593e+00 1.981492e+00 1.884282e+00 2.371688e+00 2.285497e+00 2.369116e+00 2.951104e+00 2.794533e+00 2.406705e+00 2.463400e+00 1.949246e+00 6.445370e-01
<GCONST> 9.676692e+01
<STATE> 3
<MEAN> 25
 4.894711e+00 1.213910e+00 4.500842e-01 -2.435718e-01 -1.829229e+00 2.274746e+00 5.476077e-01 -3.901334e+00 -2.608273e+00 3.980576e-01 -2.027030e+00 -2.083310e+00 -1.449907e-01 5.611860e-01 2.109289e-01 3.885754e-01 6.164526e-02 -3.231570e-02 1.366915e-01 -1.169465e-01 -7.565393e-02 -1.108612e-01 -1.055738e-01 8.230429e-02 -4.569423e-01
<VARIANCE> 25
 1.755834e+01 3.195263e+01 3.249687e+01 3.259357e+01 4.006920e+01 4.322547e+01 3.998271e+01 4.359032e+01 4.451377e+01 4.125032e+01 3.126381e+01 2.867677e+01 4.474156e-01 1.144913e+00 1.411402e+00 1.538054e+00 1.940747e+00 1.875325e+00 1.979680e+00 2.437392e+00 2.266429e+00 2.016588e+00 1.938189e+00 1.651077e+00 6.145331e-01
<GCONST> 9.364407e+01
<STATE> 4
<MEAN> 25
 1.857004e+00 3.396008e+00 3.715320e-01 1.748012e+00 4.793464e-01 1.835077e+00 1.219209e+00 -2.054534e+00 -1.704145e+00 -4.211488e-01 -1.599975e+00 -5.240169e-01 -3.032383e-01 4.160396e-02 -4.078376e-02 1.206737e-01 2.635219e-01 -1.497531e-01 -4.706425e-03 2.704656e-01 1.497493e-01 -4.461235e-02 1.271070e-01 1.027055e-01 -1.812839e-01
<VARIANCE> 25
 2.727467e+01 3.126681e+01 2.994497e+01 3.554040e+01 4.068810e+01 3.482403e+01 3.707277e+01 4.117309e+01 4.069632e+01 3.452127e+01 2.958216e+01 3.123461e+01 5.931792e-01 1.125658e+00 1.325996e+00 1.512434e+00 2.012249e+00 1.895826e+00 1.971572e+00 2.410404e+00 2.274746e+00 2.095600e+00 1.899841e+00 1.635792e+00 5.916175e-01
<GCONST> 9.368903e+01
<TRANSP> 5
 0.000000e+00 1.000000e+00 0.000000e+00 0.000000e+00 0.000000e+00
 0.000000e+00 4.870129e-01 5.129871e-01 0.000000e+00 0.000000e+00
 0.000000e+00 0.000000e+00 4.857566e-01 5.142434e-01 0.000000e+00
 0.000000e+00 0.000000e+00 0.000000e+00 7.436566e-01 2.563434e-01
 0.000000e+00 0.000000e+00 0.000000e+00 0.000000e+00 0.000000e+00
<ENDHMM>
~h "ny"
<BEGINHMM>
<NUMSTATES> 5
<STATE> 2
<MEAN> 25
 2.704604e+00 7.119989e-01 8.175581e+00 -3.256012e+00 -5.470706e+00 -1.302777e+00 2.482103e-01 -1.303283e+00 -4.643257e+00 3.887532e-01 9.154631e-01 -3.762044e-01 -3.140086e-01 -1.019997e+00 8.774312e-01 -8.298619e-01 -9.848299e-01 -6.886362e-02 5.184098e-01 9.114388e-01 -5.071341e-01 -1.718287e-01 2.120152e-01 -1.215282e-01 8.368009e-01
<VARIANCE> 25
 1.911296e+01 5.021717e+01 5.090352e+01 6.587580e+01 4.781295e+01 5.381270e+01 4.884584e+01 6.469959e+01 4.629316e+01 5.191945e+01 3.941809e+01 3.725432e+01 1.453683e+00 3.976743e+00 4.215878e+00 5.354105e+00 3.967336e+00 4.599900e+00 4.095329e+00 6.210610e+00 3.775334e+00 4.388456e+00 3.377844e+00 2.620460e+00 1.871278e+00
<GCONST> 1.085455e+02
<STATE> 3
<MEAN> 25
 2.091986e+00 -4.858443e+00 7.794264e+00 -3.821083e+00 -7.809545e+00 -2.660941e+00 2.169741e+00 4.007790e+00 -4.548120e+00 -1.668061e+00 8.781260e-01 -6.202556e-01 1.220032e-01 -9.811908e-01 -8.603263e-01 3.857842e-01 3.719465e-01 -3.429539e-01 3.973716e-02 1.015372e+00 5.171336e-01 -7.147222e-01 -5.701436e-01 -4.957089e-02 3.454047e-01
<VARIANCE> 25
 1.983917e+01 3.552295e+01 4.296619e+01 4.724492e+01 4.916373e+01 4.796595e+01 5.734617e+01 7.498939e+01 4.841264e+01 5.286857e+01 3.824394e+01 3.632058e+01 5.533317e-01 2.269563e+00 2.193981e+00 2.503576e+00 2.827951e+00 2.884882e+00 2.832610e+00 3.668311e+00 3.148339e+00 2.897476e+00 2.674324e+00 2.016424e+00 8.522898e-01
<GCONST> 1.014437e+02
<STATE> 4
<MEAN> 25
 2.470900e+00 -6.429294e+00 3.809124e+00 -1.348297e+00 -3.638623e+00 -3.274573e+00 6.058657e-01 6.201395e+00 -3.240418e+00 -5.123426e+00 -1.997283e+00 -1.063964e+00 9.786835e-02 1.506801e-01 -8.425402e-01 4.802731e-01 8.213584e-01 8.836576e-02 -2.906851e-01 -4.395991e-02 5.250298e-01 -6.192307e-02 -4.636295e-01 -5.038507e-02 -4.544135e-01
<VARIANCE> 25
 1.782950e+01 3.953090e+01 3.020531e+01 5.337236e+01 4.983896e+01 4.566896e+01 5.446625e+01 6.517726e+01 5.352114e+01 5.482336e+01 4.771559e+01 3.058596e+01 4.509368e-01 1.535415e+00 1.527761e+00 1.857560e+00 2.177713e+00 1.967810e+00 2.277605e+00 2.473826e+00 2.306555e+00 2.281282e+00 2.052210e+00 1.646199e+00 8.381688e-01
<GCONST> 9.762595e+01
<TRANSP> 5
 0.000000e+00 1.000000e+00 0.000000e+00 0.000000e+00 0.000000e+00
 0.000000e+00 7.331886e-01 2.668114e-01 0.000000e+00 0.000000e+00
 0.000000e+00 0.000000e+00 5.269491e-01 4.730509e-01 0.000000e+00
 0.000000e+00 0.000000e+00 0.000000e+00 7.490913e-01 2.509088e-01
 0.000000e+00 0.000000e+00 0.000000e+00 0.000000e+00 0.000000e+00
<ENDHMM>
~h "sy"
<BEGINHMM>
<NUMSTATES> 5
<STATE> 2
<MEAN> 25
 -1.233684e+01 6.438717e+00 7.984706e+00 -1.030069e+00 5.643104e-01 1.278945e-02 3.569026e+00 -3.275325e-01 -1.917636e-01 -1.140075e+00 2.760286e+00 2.779613e+00 -2.212681e+00 4.118197e-01 -7.597180e-02 -2.052337e-04 6.373270e-01 6.376863e-01 5.991132e-01 -2.571622e-01 6.270159e-01 -2.265715e-01 -9.299168e-02 3.007917e-01 1.906455e-01
<VARIANCE> 25
 9.691286e+01 2.895633e+01 4.116344e+01 3.646934e+01 4.535993e+01 6.979663e+01 7.865156e+01 5.560362e+01 3.979672e+01 5.107383e+01 4.089576e+01 3.045090e+01 5.151660e+00 3.339197e+00 2.292395e+00 2.954286e+00 5.060612e+00 4.737963e+00 3.205237e+00 2.247088e+00 2.792002e+00 3.322881e+00 2.305192e+00 2.093269e+00 7.276920e-01
<GCONST> 1.057813e+02
<STATE> 3
<MEAN> 25
 -1.219543e+01 1.404065e+00 7.460436e+00 3.677176e-01 -3.701186e+00 -1.260731e+00 2.166239e+00 -7.786090e-01 3.188748e+00 -1.362503e+00 1.830614e+00 4.240871e+00 2.605563e+00 -1.073755e+00 -2.012994e-01 1.889262e-01 -1.559677e+00 -1.872812e+00 -1.015728e+00 1.948335e-01 -1.267558e-02 7.616922e-02 -1.748001e-01 -1.729644e-01 1.721554e-01
<VARIANCE> 25
 1.004120e+02 4.281890e+01 3.606458e+01 3.823849e+01 5.291832e+01 9.068906e+01 5.091436e+01 4.338571e+01 5.075484e+01 3.660933e+01 3.607545e+01 2.517053e+01 6.665906e+00 2.969192e+00 2.256434e+00 2.367646e+00 5.348693e+00 6.430575e+00 3.249512e+00 2.601614e+00 3.985376e+00 2.939768e+00 2.625194e+00 2.676859e+00 1.092241e+00
<GCONST> 1.068899e+02
<STATE> 4
<MEAN> 25
 -6.910700e+00 6.196941e+00 4.250484e+00 8.257123e+00 -7.647086e+00 3.254076e+00 4.662902e+00 5.061096e+00 4.252516e+00 2.440742e-01 2.321278e+00 1.829147e-01 7.607340e-01 -2.363592e-01 -3.488795e-01 -4.290588e-01 -2.695684e-01 -4.119660e-02 -2.822122e-01 1.436779e-01 1.917312e-02 2.298790e-01 -1.409934e-01 -4.560246e-01 2.974420e-01
<VARIANCE> 25
 8.762427e+01 1.537444e+02 1.006454e+02 1.079305e+02 6.820283e+01 1.383561e+02 1.110800e+02 1.004551e+02 1.231873e+02 7.519988e+01 6.422638e+01 4.021962e+01 5.511221e+00 6.480881e+00 6.216692e+00 8.907120e+00 6.153575e+00 8.508284e+00 7.708330e+00 8.335306e+00 9.189469e+00 8.188766e+00 5.018086e+00 5.261693e+00 3.028404e+00
<GCONST> 1.246242e+02
<TRANSP> 5
 0.000000e+00 1.000000e+00 0.000000e+00 0.000000e+00 0.000000e+00
 0.000000e+00 8.331155e-01 1.668845e-01 0.000000e+00 0.000000e+00
 0.000000e+00 0.000000e+00 7.693001e-01 2.306999e-01 0.000000e+00
 0.000000e+00 0.000000e+00 0.000000e+00 8.201922e-01 1.798078e-01
 0.000000e+00 0.000000e+00 0.000000e+00 0.000000e+00 0.000000e+00
<ENDHMM>
~h "sil"
<BEGINHMM>
<NUMSTATES> 5
<STATE> 2
<MEAN> 25
 -5.998135e+00 1.865984e+00 -1.109033e+00 3.034336e+00 3.528337e+00 3.564914e+00 2.673477e+00 1.261444e+00 6.747701e-01 1.497200e-01 7.256060e-01 2.381172e+00 -8.803234e-02 1.872154e-02 -1.041251e-02 1.746733e-02 3.718407e-02 4.634701e-02 2.366147e-02 8.180937e-03 1.139159e-02 1.431458e-02 3.374359e-02 2.443330e-02 -9.073520e-02
<VARIANCE> 25
 3.004305e+01 2.184648e+01 2.003465e+01 2.415647e+01 2.748203e+01 2.506291e+01 2.351805e+01 2.743044e+01 2.850798e+01 3.089996e+01 2.539809e+01 2.030597e+01 2.050892e-01 3.907915e-01 5.732726e-01 7.720979e-01 1.033193e+00 1.178853e+00 1.294020e+00 1.440827e+00 1.491506e+00 1.484731e+00 1.394454e+00 1.271224e+00 1.302332e-01
<GCONST> 8.145679e+01
<STATE> 3
<MEAN> 25
 -8.743325e+00 3.179858e+00 -2.251672e+00 4.644640e+00 4.565262e+00 5.423126e+00 4.014268e+00 2.544879e+00 2.683421e+00 1.069552e+00 1.644011e+00 3.536242e+00 -2.560562e-02 -5.457200e-03 2.812721e-02 -3.534782e-02 -3.709013e-02 -6.605524e-02 -6.258629e-02 -4.421197e-02 -1.870656e-02 -1.097288e-02 -3.809878e-02 -5.864976e-02 9.871135e-03
<VARIANCE> 25
 4.803469e+01 2.857915e+01 3.028312e+01 3.697730e+01 4.016980e+01 3.451040e+01 2.852558e+01 3.515747e+01 3.892640e+01 3.665326e+01 3.021183e+01 2.249173e+01 6.730875e-01 9.533315e-01 1.078207e+00 1.361579e+00 1.835161e+00 1.697044e+00 1.794592e+00 1.916427e+00 1.879849e+00 1.896475e+00 1.712330e+00 1.503168e+00 7.150357e-01
<GCONST> 9.231473e+01
<STATE> 4
<MEAN> 25
 -5.033074e+00 1.861472e+00 -5.853637e-01 2.520498e-01 1.937486e+00 1.902514e+00 1.822346e+00 1.132631e+00 2.343443e-01 1.209784e+00 3.741290e-02 1.108404e+00 9.161469e-02 1.092444e-02 4.540743e-02 -3.498668e-02 1.007724e-02 -7.445890e-02 -3.652945e-02 -2.928587e-02 -4.351336e-02 -7.779226e-04 -2.805868e-02 -4.464186e-02 1.265380e-01
<VARIANCE> 25
 6.857945e+01 4.844301e+01 5.080622e+01 6.580101e+01 6.273438e+01 5.483625e+01 4.245253e+01 4.802819e+01 4.870852e+01 4.894135e+01 3.637450e+01 3.275728e+01 1.545671e+00 1.754650e+00 1.909763e+00 2.233992e+00 2.862472e+00 2.638055e+00 2.350864e+00 2.754193e+00 2.680799e+00 2.414172e+00 2.167389e+00 1.835172e+00 1.872227e+00
<GCONST> 1.030062e+02
<TRANSP> 5
 0.000000e+00 1.000000e+00 0.000000e+00 0.000000e+00 0.000000e+00
 0.000000e+00 9.441748e-01 5.582518e-02 0.000000e+00 0.000000e+00
 0.000000e+00 0.000000e+00 6.348945e-01 3.651054e-01 0.000000e+00
 0.000000e+00 0.000000e+00 0.000000e+00 8.547496e-01 1.452504e-01
 0.000000e+00 0.000000e+00 0.000000e+00 0.000000e+00 0.000000e+00
<ENDHMM>
