~o
<STREAMINFO> 1 25
<VECSIZE> 25<NULLD><MFCC_D_N_Z_0><DIAGC>
~h "a"
<BEGINHMM>
<NUMSTATES> 5
<STATE> 2
<MEAN> 25
 3.173441e+00 -9.080309e+00 -2.609757e+00 -3.901849e+00 7.974051e-01 -1.603716e+00 1.418419e+00 4.556483e+00 1.151063e-01 -1.396740e+00 -4.512237e+00 -6.946640e-01 2.299065e-01 -1.003745e+00 -2.136783e-01 -1.990018e-01 7.731838e-01 3.897366e-01 1.219560e-01 3.325073e-01 -3.634790e-01 -5.186955e-01 -6.013406e-01 1.442156e-01 3.859475e-01
<VARIANCE> 25
 3.534805e+01 4.156702e+01 4.174632e+01 4.179735e+01 6.543961e+01 5.147527e+01 6.021297e+01 5.118419e+01 4.881624e+01 5.462108e+01 5.236708e+01 4.103548e+01 2.019599e+00 3.079830e+00 2.524321e+00 3.144251e+00 3.671270e+00 3.435683e+00 4.310585e+00 3.942530e+00 3.702273e+00 3.928971e+00 3.711010e+00 2.729217e+00 2.592991e+00
<GCONST> 1.076331e+02
<STATE> 3
<MEAN> 25
 3.826978e+00 -9.920631e+00 -2.666184e+00 -3.870593e+00 1.833812e+00 -1.230144e+00 9.921565e-01 4.174225e+00 -3.693195e-01 -2.135890e+00 -5.155261e+00 -3.047585e-01 8.280217e-02 5.242981e-01 -5.140571e-02 4.785845e-01 9.657572e-02 1.772933e-01 -1.977998e-01 -3.328093e-01 3.843000e-03 -2.318227e-01 2.583604e-01 4.594373e-02 -6.809025e-01
<VARIANCE> 25
 2.575002e+01 3.861503e+01 3.541081e+01 3.682223e+01 5.724615e+01 4.784819e+01 5.493887e+01 5.161545e+01 4.998168e+01 5.417888e+01 5.291653e+01 3.929648e+01 8.725725e-01 1.788056e+00 1.638767e+00 2.166677e+00 2.700048e+00 2.599359e+00 3.007623e+00 2.721991e+00 2.792611e+00 2.952162e+00 2.597625e+00 2.163228e+00 1.231323e+00
<GCONST> 1.012382e+02
<STATE> 4
<MEAN> 25
 2.131946e+00 -4.734714e+00 -3.661917e+00 1.073554e+00 3.040061e+00 8.855243e-01 6.721708e-01 2.393702e+00 -8.805594e-02 -3.160629e+00 -2.010652e+00 -1.044086e-01 -2.422972e-01 1.012098e+00 9.335694e-02 5.842274e-01 -5.660097e-02 1.597323e-01 -8.440338e-03 -3.188890e-01 1.175438e-01 1.560588e-01 5.081815e-01 -4.613027e-04 -1.060495e+00
<VARIANCE> 25
 3.534489e+01 4.211604e+01 3.495482e+01 5.259613e+01 5.281441e+01 4.765942e+01 4.742263e+01 4.382731e+01 5.008185e+01 5.187616e+01 4.903685e+01 3.348485e+01 9.944305e-01 1.624828e+00 1.615202e+00 2.293684e+00 2.384880e+00 2.422832e+00 2.761195e+00 2.884623e+00 2.809070e+00 2.885053e+00 2.573380e+00 2.098557e+00 9.271900e-01
<GCONST> 1.008275e+02
<TRANSP> 5
 0.000000e+00 1.000000e+00 0.000000e+00 0.000000e+00 0.000000e+00
 0.000000e+00 5.321999e-01 4.678001e-01 0.000000e+00 0.000000e+00
 0.000000e+00 0.000000e+00 5.777041e-01 4.222960e-01 0.000000e+00
 0.000000e+00 0.000000e+00 0.000000e+00 7.727510e-01 2.272490e-01
 0.000000e+00 0.000000e+00 0.000000e+00 0.000000e+00 0.000000e+00
<ENDHMM>
~h "b"
<BEGINHMM>
<NUMSTATES> 5
<STATE> 2
<MEAN> 25
 5.333968e+00 8.786814e+00 1.635985e+00 4.877414e+00 1.574182e+00 1.186120e+00 -2.547553e+00 -3.415236e+00 -1.633940e+00 -3.020200e+00 -5.957105e-01 -2.392651e+00 4.782136e-01 2.577905e-01 1.209820e-01 2.086187e-01 -1.097533e-01 -3.164966e-01 -2.777660e-01 -2.863187e-01 1.999438e-04 8.809537e-03 5.163990e-03 -2.169491e-01 4.034619e-01
<VARIANCE> 25
 3.002528e+01 4.029977e+01 3.100779e+01 3.346100e+01 2.742820e+01 3.302341e+01 3.342011e+01 3.734048e+01 3.155609e+01 4.298129e+01 3.281090e+01 2.559874e+01 3.152012e+00 5.124910e+00 2.809298e+00 4.069348e+00 2.500213e+00 3.501428e+00 4.031134e+00 3.539536e+00 3.792230e+00 4.813329e+00 3.407454e+00 2.628202e+00 4.386260e+00
<GCONST> 1.044950e+02
<STATE> 3
<MEAN> 25
 6.406072e+00 5.820126e+00 1.545714e-01 2.811264e+00 5.071731e-01 -5.263190e-01 -4.057219e+00 -3.740786e+00 -5.578237e-01 -2.120814e-01 2.162711e-01 -2.874661e+00 9.877540e-03 -2.379820e+00 -7.947755e-01 -1.516561e+00 -8.048215e-01 -1.050288e+00 -5.439964e-01 6.968634e-01 9.421132e-01 1.834303e+00 2.813334e-01 -8.677898e-02 2.300401e+00
<VARIANCE> 25
 2.593166e+01 4.573561e+01 3.463113e+01 4.922169e+01 2.774885e+01 3.650920e+01 3.604801e+01 3.465166e+01 3.527526e+01 5.279412e+01 3.950956e+01 3.015294e+01 2.735917e+00 6.318027e+00 4.684623e+00 6.957185e+00 3.410616e+00 4.715893e+00 6.412295e+00 5.246914e+00 4.846047e+00 6.262980e+00 4.661304e+00 3.606474e+00 4.476993e+00
<GCONST> 1.094911e+02
<STATE> 4
<MEAN> 25
 6.223228e+00 -2.858787e-01 -1.925620e+00 -1.096950e+00 -1.701100e+00 -3.381547e+00 -5.061728e+00 -4.930997e-01 2.800559e+00 3.855129e+00 -6.499110e-01 -3.006964e+00 -3.496034e-01 -2.116092e+00 8.731087e-02 -1.251018e+00 -9.272233e-01 -9.160367e-01 4.886763e-01 1.471711e+00 5.364612e-01 5.956665e-01 -5.479038e-01 3.812978e-01 1.735132e+00
<VARIANCE> 25
 3.418646e+01 5.309252e+01 4.048911e+01 6.384275e+01 3.616218e+01 5.469430e+01 4.769701e+01 4.295049e+01 4.669730e+01 6.493550e+01 4.748561e+01 3.188575e+01 1.928721e+00 4.700083e+00 4.940276e+00 6.357179e+00 5.088829e+00 4.645161e+00 6.117031e+00 6.219765e+00 5.936529e+00 6.645757e+00 5.765316e+00 4.461520e+00 2.741074e+00
<GCONST> 1.122465e+02
<TRANSP> 5
 0.000000e+00 1.000000e+00 0.000000e+00 0.000000e+00 0.000000e+00
 0.000000e+00 5.670998e-01 4.329002e-01 0.000000e+00 0.000000e+00
 0.000000e+00 0.000000e+00 4.309423e-01 5.690577e-01 0.000000e+00
 0.000000e+00 0.000000e+00 0.000000e+00 4.137729e-01 5.862271e-01
 0.000000e+00 0.000000e+00 0.000000e+00 0.000000e+00 0.000000e+00
<ENDHMM>
~h "c"
<BEGINHMM>
<NUMSTATES> 5
<STATE> 2
<MEAN> 25
 -1.059697e+01 5.195594e+00 1.198520e+00 2.222847e+00 7.600922e-01 1.188918e+00 1.389140e+00 -6.435944e-01 3.173692e+00 -6.455053e-01 4.394049e+00 1.698359e+00 -2.835114e+00 2.356540e-01 1.902137e-01 -5.485613e-01 -2.030349e-01 -1.360675e-01 8.513372e-01 -3.866986e-02 3.132066e-01 3.623468e-01 6.083213e-01 8.750448e-02 1.560177e+00
<VARIANCE> 25
 8.250447e+01 5.490323e+01 6.053317e+01 4.824289e+01 5.192326e+01 5.687213e+01 5.045551e+01 4.713735e+01 3.999574e+01 3.837636e+01 3.469665e+01 3.204464e+01 5.975519e+00 5.594529e+00 4.716189e+00 5.192371e+00 5.512287e+00 5.494572e+00 4.768317e+00 4.069312e+00 4.630234e+00 3.669367e+00 3.190429e+00 2.626937e+00 6.921546e+00
<GCONST> 1.124366e+02
<STATE> 3
<MEAN> 25
 -1.584461e+01 5.421919e+00 5.339899e+00 1.223685e+00 -3.309409e+00 -2.483998e+00 3.709977e+00 -6.312256e-01 1.856591e+00 -1.089775e+00 4.757050e+00 8.615514e-01 3.256908e+00 -5.720894e-01 9.995986e-01 2.481086e-01 -1.827106e+00 -2.512421e+00 -8.386934e-01 7.055299e-02 -7.454753e-01 -7.596787e-01 -9.252291e-01 -6.831406e-01 1.327859e+00
<VARIANCE> 25
 5.736869e+01 5.863377e+01 7.709101e+01 5.980816e+01 6.562778e+01 6.256092e+01 6.427908e+01 5.810672e+01 3.642685e+01 4.348894e+01 3.129546e+01 3.230684e+01 1.144322e+01 5.298058e+00 6.397459e+00 6.809422e+00 5.852386e+00 6.964844e+00 7.146562e+00 5.625824e+00 3.618008e+00 4.632071e+00 4.485168e+00 3.326028e+00 1.870522e+00
<GCONST> 1.147645e+02
<STATE> 4
<MEAN> 25
 -1.804299e+00 2.273524e+00 6.295494e+00 -7.759947e-01 -8.841047e+00 -8.942886e+00 -8.590602e-01 -1.146682e+00 -5.158902e-01 -2.522146e+00 1.989640e-01 -2.347698e+00 3.397590e+00 -1.373243e+00 -6.696616e-01 -1.068965e+00 -3.392871e-01 7.532253e-02 -1.056780e+00 -1.123442e-01 -5.417452e-01 1.639396e-01 -9.922166e-01 -5.827310e-01 5.525387e-01
<VARIANCE> 25
 5.018126e+01 5.309417e+01 5.044381e+01 4.954259e+01 6.161341e+01 5.607025e+01 7.092686e+01 5.678768e+01 4.797356e+01 3.884066e+01 3.719958e+01 3.114546e+01 8.109167e+00 7.996346e+00 7.572762e+00 5.156201e+00 8.344465e+00 8.438601e+00 6.624326e+00 5.825273e+00 4.305078e+00 4.674187e+00 4.288268e+00 3.549697e+00 2.003574e+00
<GCONST> 1.148555e+02
<TRANSP> 5
 0.000000e+00 1.000000e+00 0.000000e+00 0.000000e+00 0.000000e+00
 0.000000e+00 7.919922e-01 2.080078e-01 0.000000e+00 0.000000e+00
 0.000000e+00 0.000000e+00 5.965950e-01 4.034050e-01 0.000000e+00
 0.000000e+00 0.000000e+00 0.000000e+00 5.973400e-01 4.026600e-01
 0.000000e+00 0.000000e+00 0.000000e+00 0.000000e+00 0.000000e+00
<ENDHMM>
~h "d"
<BEGINHMM>
<NUMSTATES> 5
<STATE> 2
<MEAN> 25
 2.523549e+00 6.556205e+00 4.697691e+00 6.004601e+00 -1.600424e+00 -1.083615e-01 -1.862690e-01 -9.015756e-01 -9.964071e-01 -2.466017e+00 8.684863e-01 -9.594448e-01 -2.050337e-01 -9.696549e-01 1.292918e+00 -5.295388e-01 -1.141422e+00 -1.059414e+00 1.243160e-01 -3.174387e-01 -3.868823e-01 2.990372e-01 4.843317e-01 6.535601e-02 1.743742e+00
<VARIANCE> 25
 5.183076e+01 7.509374e+01 4.470200e+01 6.259812e+01 6.271779e+01 6.238760e+01 5.601066e+01 5.384738e+01 5.261705e+01 4.910276e+01 5.439804e+01 4.264924e+01 5.562835e+00 1.037889e+01 4.851881e+00 7.388107e+00 8.221014e+00 6.469455e+00 6.792952e+00 6.549666e+00 6.550547e+00 6.905053e+00 6.101356e+00 4.504983e+00 7.329314e+00
<GCONST> 1.185620e+02
<STATE> 3
<MEAN> 25
 2.488503e+00 -5.079269e-02 8.437909e+00 8.137580e-01 -7.388134e+00 -6.016982e+00 -4.698725e-01 -1.240452e+00 -1.656883e+00 -5.440217e-01 2.313003e+00 -1.016514e+00 -2.963285e-01 -1.848048e+00 6.897367e-01 -1.988782e+00 -2.084005e+00 -1.163317e+00 5.421028e-02 4.978490e-01 6.340445e-02 1.268069e+00 4.849390e-01 2.585079e-01 2.277724e+00
<VARIANCE> 25
 2.887993e+01 4.948518e+01 3.355441e+01 5.323315e+01 7.359324e+01 5.383170e+01 5.892603e+01 5.405890e+01 4.807713e+01 5.119719e+01 4.420789e+01 3.636945e+01 3.533406e+00 5.956320e+00 5.017511e+00 5.855030e+00 6.819133e+00 5.044248e+00 7.873574e+00 7.391635e+00 6.432903e+00 6.510591e+00 4.969507e+00 4.575204e+00 4.287941e+00
<GCONST> 1.145849e+02
<STATE> 4
<MEAN> 25
 3.544629e+00 -2.062285e+00 8.218015e+00 -3.083564e+00 -1.095049e+01 -5.564535e+00 7.555139e-02 5.657395e-01 -7.499141e-01 1.457646e+00 1.221216e+00 -1.848656e+00 -7.841839e-02 -2.065950e-01 -4.014592e-01 -6.759592e-01 1.533244e-01 3.652416e-01 1.959681e-01 2.557235e-01 1.208380e-01 2.055605e-01 -5.733902e-01 -1.122149e-01 3.278461e-01
<VARIANCE> 25
 3.317210e+01 5.536387e+01 4.037365e+01 5.741076e+01 6.395885e+01 4.945557e+01 8.112538e+01 6.608121e+01 5.804229e+01 6.662495e+01 4.715768e+01 3.838829e+01 1.568034e+00 3.071434e+00 4.041077e+00 4.437515e+00 5.526943e+00 3.819490e+00 5.150218e+00 4.945157e+00 4.192609e+00 4.837281e+00 3.999089e+00 3.551728e+00 2.424153e+00
<GCONST> 1.109131e+02
<TRANSP> 5
 0.000000e+00 1.000000e+00 0.000000e+00 0.000000e+00 0.000000e+00
 0.000000e+00 6.174650e-01 3.825350e-01 0.000000e+00 0.000000e+00
 0.000000e+00 0.000000e+00 3.975586e-01 6.024414e-01 0.000000e+00
 0.000000e+00 0.000000e+00 0.000000e+00 6.160314e-01 3.839686e-01
 0.000000e+00 0.000000e+00 0.000000e+00 0.000000e+00 0.000000e+00
<ENDHMM>
~h "e"
<BEGINHMM>
<NUMSTATES> 5
<STATE> 2
<MEAN> 25
 2.583744e+00 -3.823050e+00 2.506182e+00 -8.220430e-01 -7.286994e+00 -6.965662e+00 1.922755e+00 1.992568e+00 -1.333115e+00 2.050272e+00 1.398002e-01 -1.592711e+00 9.048026e-01 -7.898679e-01 1.260865e+00 -5.990180e-01 -1.632460e+00 -4.007363e-01 8.059351e-01 2.734408e-01 -8.753672e-01 2.052719e-01 -1.593722e-01 -5.566185e-01 1.119683e+00
<VARIANCE> 25
 5.320698e+01 5.968745e+01 5.066884e+01 5.027758e+01 8.765122e+01 8.072748e+01 8.733110e+01 5.600520e+01 5.982075e+01 5.113168e+01 4.909386e+01 3.826476e+01 5.158904e+00 5.460215e+00 4.313681e+00 5.482289e+00 7.214694e+00 6.203342e+00 6.627810e+00 5.367475e+00 5.019072e+00 4.566287e+00 4.828519e+00 3.705474e+00 4.567939e+00
<GCONST> 1.161865e+02
<STATE> 3
<MEAN> 25
 3.970482e+00 -4.897402e+00 4.473806e+00 -2.537543e+00 -9.247046e+00 -5.331570e+00 3.245639e+00 1.152246e+00 -2.250668e+00 1.643696e+00 -7.252216e-03 -2.420743e+00 9.645018e-02 7.374832e-02 4.689346e-01 -1.209357e-01 -5.030655e-02 5.622393e-01 2.897761e-01 -2.741605e-02 -1.879314e-01 -2.730381e-02 1.440056e-01 -1.563707e-01 -1.915768e-01
<VARIANCE> 25
 3.252443e+01 5.696499e+01 4.645075e+01 4.542930e+01 8.740788e+01 8.336791e+01 8.457943e+01 6.130370e+01 5.934904e+01 5.206265e+01 5.121797e+01 3.395174e+01 2.246120e+00 2.978808e+00 2.867610e+00 3.432675e+00 4.603366e+00 3.818195e+00 4.186941e+00 3.510569e+00 3.531266e+00 3.495461e+00 3.460725e+00 2.534485e+00 2.482223e+00
<GCONST> 1.094058e+02
<STATE> 4
<MEAN> 25
 3.961163e+00 -2.457907e+00 5.750301e+00 -1.311541e+00 -9.490829e+00 -5.990510e+00 4.093482e+00 1.873075e+00 -3.261319e+00 2.391033e+00 1.099890e+00 -2.750245e+00 -1.411911e-01 7.569267e-01 -2.679790e-01 4.047502e-01 7.167809e-01 5.012773e-01 -1.557014e-01 -1.869829e-01 2.306843e-01 -2.555107e-01 2.222316e-02 1.388702e-01 -7.829570e-01
<VARIANCE> 25
 5.269959e+01 6.586291e+01 5.087168e+01 3.921100e+01 9.099396e+01 7.877917e+01 7.110981e+01 6.575029e+01 5.139255e+01 4.362988e+01 4.567872e+01 3.803475e+01 1.047218e+00 2.322916e+00 1.864207e+00 1.884388e+00 2.848867e+00 2.315366e+00 2.644812e+00 2.409604e+00 2.619421e+00 2.449749e+00 2.296773e+00 1.837179e+00 1.354850e+00
<GCONST> 1.036866e+02
<TRANSP> 5
 0.000000e+00 1.000000e+00 0.000000e+00 0.000000e+00 0.000000e+00
 0.000000e+00 4.454270e-01 5.545729e-01 0.000000e+00 0.000000e+00
 0.000000e+00 0.000000e+00 3.756711e-01 6.243289e-01 0.000000e+00
 0.000000e+00 0.000000e+00 0.000000e+00 7.914466e-01 2.085534e-01
 0.000000e+00 0.000000e+00 0.000000e+00 0.000000e+00 0.000000e+00
<ENDHMM>
~h "f"
<BEGINHMM>
<NUMSTATES> 5
<STATE> 2
<MEAN> 25
 2.369541e+00 -1.175099e+00 -8.166279e+00 -1.977777e-01 2.323887e+00 4.220121e+00 -8.663898e-01 -2.874185e+00 2.672316e+00 6.904025e-01 -3.567211e+00 -6.176075e+00 -4.188102e-02 -1.312601e-01 -5.783505e-01 -3.358516e-02 3.743198e-01 3.685730e-01 5.506773e-01 5.449327e-03 4.414483e-02 2.588912e-01 2.443324e-01 -2.166747e-01 -4.713258e-02
<VARIANCE> 25
 1.084850e+02 5.530992e+01 1.001037e+02 6.247996e+01 4.000566e+01 5.174218e+01 4.393624e+01 3.778017e+01 2.524448e+01 3.338720e+01 4.256934e+01 4.156145e+01 7.795910e+00 2.534486e+00 3.088713e+00 3.696728e+00 3.030912e+00 2.396402e+00 3.038310e+00 2.716334e+00 2.268841e+00 2.493982e+00 2.975530e+00 2.363347e+00 2.352176e+00
<GCONST> 1.067036e+02
<STATE> 3
<MEAN> 25
 4.829495e+00 -3.693802e+00 -7.742707e+00 1.003725e+00 3.002743e+00 4.163577e+00 -4.710379e-01 -1.637931e+00 3.301534e+00 -8.915311e-02 -2.466073e+00 -5.677079e+00 -4.136083e-01 2.723781e-01 1.314212e-01 8.321816e-01 2.353249e-01 -6.750397e-02 7.550420e-01 3.684251e-01 -2.864683e-02 -1.267342e-01 3.868452e-01 3.117506e-01 -3.391287e-01
<VARIANCE> 25
 1.102344e+02 6.193766e+01 9.359889e+01 4.660080e+01 5.154651e+01 4.715191e+01 4.545779e+01 4.788287e+01 2.550043e+01 3.328527e+01 5.100800e+01 3.968957e+01 2.484995e+00 2.108747e+00 1.730882e+00 1.591507e+00 1.878066e+00 2.313666e+00 2.677927e+00 2.786177e+00 2.201330e+00 3.113686e+00 2.496771e+00 1.737223e+00 9.764335e-01
<GCONST> 1.025114e+02
<STATE> 4
<MEAN> 25
 -4.156615e+00 -1.356413e+00 -5.204417e+00 5.247268e+00 5.307217e+00 4.209457e+00 2.937039e+00 5.971054e-01 3.167274e+00 -5.668846e-02 9.676538e-01 8.910980e-01 -6.586539e-01 2.427141e-01 5.638887e-01 2.434092e-01 -2.429581e-01 -2.872894e-01 1.472919e-01 5.963604e-02 -1.988562e-01 4.737186e-02 3.720347e-01 3.719017e-01 -4.365136e-01
<VARIANCE> 25
 9.491415e+01 2.820363e+01 5.018554e+01 2.069358e+01 5.910733e+01 3.844961e+01 3.012295e+01 3.823925e+01 2.879410e+01 2.857323e+01 3.901793e+01 3.703339e+01 3.546060e+00 1.311661e+00 1.820331e+00 1.534137e+00 2.790875e+00 2.500773e+00 2.544270e+00 2.285441e+00 2.434861e+00 2.420040e+00 2.525683e+00 1.594135e+00 9.027099e-01
<GCONST> 9.888287e+01
<TRANSP> 5
 0.000000e+00 1.000000e+00 0.000000e+00 0.000000e+00 0.000000e+00
 0.000000e+00 6.428959e-01 3.571041e-01 0.000000e+00 0.000000e+00
 0.000000e+00 0.000000e+00 5.657508e-01 4.342492e-01 0.000000e+00
 0.000000e+00 0.000000e+00 0.000000e+00 8.452271e-01 1.547729e-01
 0.000000e+00 0.000000e+00 0.000000e+00 0.000000e+00 0.000000e+00
<ENDHMM>
~h "g"
<BEGINHMM>
<NUMSTATES> 5
<STATE> 2
<MEAN> 25
 3.622289e+00 6.213269e+00 3.181681e+00 4.151334e+00 -1.224793e-01 -1.727811e+00 -1.967038e+00 -2.647717e+00 -1.645623e+00 -2.132761e+00 -1.068107e+00 -2.057673e+00 -6.977750e-02 -4.119424e-01 6.167955e-01 5.909416e-02 -4.030091e-02 -1.471352e+00 -2.738307e-01 2.644045e-01 1.797155e-01 7.666947e-01 -2.310121e-01 -2.679443e-02 1.218351e+00
<VARIANCE> 25
 4.218121e+01 5.637968e+01 4.696606e+01 4.677828e+01 6.452428e+01 5.323631e+01 4.907659e+01 4.304963e+01 4.057675e+01 4.622026e+01 3.434595e+01 3.062100e+01 5.748055e+00 8.137903e+00 4.688846e+00 5.019392e+00 7.242123e+00 6.551291e+00 6.159985e+00 5.595969e+00 4.801949e+00 5.583640e+00 3.721391e+00 3.782990e+00 4.655340e+00
<GCONST> 1.135832e+02
<STATE> 3
<MEAN> 25
 3.241781e+00 2.315737e+00 3.622777e+00 2.594715e+00 -1.392198e+00 -6.825387e+00 -2.687182e+00 -5.233073e-01 -6.810316e-02 1.564580e+00 -1.287905e+00 -1.387342e+00 -4.413190e-01 -1.273509e+00 3.057948e-01 -1.626247e+00 -9.417504e-01 -1.121880e+00 -5.451249e-02 9.404429e-01 6.535475e-01 1.330100e+00 -1.300531e-01 3.148266e-01 2.093201e+00
<VARIANCE> 25
 3.932641e+01 6.599264e+01 4.789272e+01 5.666488e+01 6.772044e+01 6.552173e+01 6.681776e+01 4.527442e+01 4.645649e+01 5.381113e+01 4.172942e+01 3.692808e+01 4.061146e+00 6.867756e+00 5.629053e+00 6.590813e+00 8.027143e+00 5.780266e+00 6.633505e+00 6.764571e+00 6.111671e+00 6.342205e+00 4.054481e+00 3.970879e+00 3.783569e+00
<GCONST> 1.156411e+02
<STATE> 4
<MEAN> 25
 4.518138e+00 -8.321285e-03 3.019993e+00 -2.704446e+00 -5.045534e+00 -7.024382e+00 -2.812558e+00 2.664355e+00 1.992311e+00 3.415272e+00 -2.053264e+00 -1.852536e+00 -2.549063e-01 -1.059202e+00 -2.833557e-01 -1.491567e+00 -3.052241e-01 6.863314e-01 5.113152e-01 7.509688e-01 3.615394e-01 1.039233e-01 -5.973395e-01 5.234107e-02 1.194562e+00
<VARIANCE> 25
 5.879412e+01 8.733575e+01 5.407776e+01 5.334407e+01 6.476606e+01 5.269055e+01 8.048679e+01 5.886074e+01 5.124685e+01 6.178273e+01 4.827938e+01 4.916455e+01 1.970226e+00 4.302319e+00 5.590693e+00 4.758024e+00 5.086784e+00 4.014101e+00 5.402595e+00 5.595623e+00 5.287402e+00 5.472706e+00 4.111485e+00 3.139734e+00 1.958838e+00
<GCONST> 1.133278e+02
<TRANSP> 5
 0.000000e+00 1.000000e+00 0.000000e+00 0.000000e+00 0.000000e+00
 0.000000e+00 5.032166e-01 4.967834e-01 0.000000e+00 0.000000e+00
 0.000000e+00 0.000000e+00 4.501973e-01 5.498027e-01 0.000000e+00
 0.000000e+00 0.000000e+00 0.000000e+00 5.394171e-01 4.605829e-01
 0.000000e+00 0.000000e+00 0.000000e+00 0.000000e+00 0.000000e+00
<ENDHMM>
~h "h"
<BEGINHMM>
<NUMSTATES> 5
<STATE> 2
<MEAN> 25
 -1.735291e-01 -3.594336e+00 3.021487e+00 -1.946878e-01 -2.090210e+00 1.670014e+00 3.925389e+00 -3.789293e-01 -1.060099e+00 -1.580359e+00 -2.434326e-01 -6.953994e-01 -5.303018e-01 4.440639e-02 -2.396477e-01 5.803331e-01 6.872325e-01 5.644865e-01 3.539347e-01 8.853202e-02 2.360088e-01 8.107240e-02 3.743342e-01 2.040599e-01 -8.019307e-01
<VARIANCE> 25
 4.408960e+01 6.798988e+01 7.723302e+01 5.653752e+01 9.599484e+01 5.369310e+01 7.540119e+01 6.202788e+01 5.662122e+01 6.055191e+01 5.080164e+01 4.093156e+01 1.565382e+00 2.513061e+00 2.910344e+00 2.530325e+00 3.556900e+00 3.011135e+00 3.559474e+00 3.806815e+00 3.840657e+00 3.160743e+00 3.383694e+00 2.564230e+00 1.759553e+00
<GCONST> 1.086779e+02
<STATE> 3
<MEAN> 25
 -1.551029e+00 -3.231694e+00 6.546230e-01 1.978475e+00 1.112463e+00 3.176790e+00 3.708686e+00 -2.782807e-01 1.877319e-01 -1.670473e+00 5.263944e-01 8.843011e-02 -4.198103e-01 2.481330e-01 -3.738649e-01 4.435730e-01 5.477523e-01 2.279950e-01 8.768366e-02 2.238907e-01 1.909370e-01 2.202524e-01 3.045405e-01 2.921998e-01 -8.831843e-01
<VARIANCE> 25
 4.324776e+01 7.546332e+01 5.681518e+01 4.708692e+01 7.574321e+01 5.121457e+01 6.553837e+01 5.667465e+01 5.166456e+01 4.999189e+01 4.752584e+01 3.907476e+01 1.324620e+00 1.888776e+00 2.154273e+00 2.061112e+00 2.742299e+00 2.541562e+00 2.991093e+00 3.335492e+00 2.969268e+00 2.823778e+00 2.710713e+00 2.312694e+00 1.313177e+00
<GCONST> 1.046801e+02
<STATE> 4
<MEAN> 25
 -8.133591e+00 -2.214872e+00 -1.267895e+00 4.034151e+00 5.341876e+00 4.674499e+00 3.806256e+00 1.459978e+00 9.977154e-01 5.017853e-01 2.271704e+00 2.957861e+00 -1.292693e-01 1.339062e-01 -4.198998e-03 9.387553e-02 5.303519e-02 4.523117e-04 -3.413809e-02 4.117808e-02 6.724617e-02 9.855676e-02 6.363615e-02 5.723367e-02 -3.395593e-01
<VARIANCE> 25
 4.652205e+01 3.354202e+01 2.728622e+01 2.601094e+01 3.988412e+01 2.945211e+01 3.154890e+01 3.416941e+01 2.949135e+01 2.966519e+01 2.820485e+01 2.782050e+01 6.704783e-01 9.049426e-01 1.054133e+00 1.163850e+00 1.594846e+00 1.694764e+00 1.755603e+00 2.008593e+00 1.857092e+00 1.891573e+00 1.750566e+00 1.625668e+00 5.130816e-01
<GCONST> 9.094982e+01
<TRANSP> 5
 0.000000e+00 1.000000e+00 0.000000e+00 0.000000e+00 0.000000e+00
 0.000000e+00 5.099954e-01 4.900046e-01 0.000000e+00 0.000000e+00
 0.000000e+00 0.000000e+00 4.339038e-01 5.660962e-01 0.000000e+00
 0.000000e+00 0.000000e+00 0.000000e+00 8.568010e-01 1.431990e-01
 0.000000e+00 0.000000e+00 0.000000e+00 0.000000e+00 0.000000e+00
<ENDHMM>
~h "i"
<BEGINHMM>
<NUMSTATES> 5
<STATE> 2
<MEAN> 25
 -2.693375e-01 2.686461e+00 1.215810e+01 -3.087924e+00 -9.908697e+00 -4.358974e+00 -6.383845e-01 -5.742283e+00 -3.714084e+00 3.050974e+00 -3.550404e-02 -1.411728e+00 3.017806e-01 1.109036e-01 2.698381e+00 -2.194344e+00 -1.812756e+00 -1.469815e-01 -8.732125e-01 -9.141173e-01 -9.931754e-01 1.193397e+00 -6.851619e-01 -1.964888e-01 1.038839e+00
<VARIANCE> 25
 3.473101e+01 4.057780e+01 5.688570e+01 7.670422e+01 8.039530e+01 5.738214e+01 5.694448e+01 5.199961e+01 7.154636e+01 5.705305e+01 5.504098e+01 4.575710e+01 4.329774e+00 3.738529e+00 5.073555e+00 6.955756e+00 7.061127e+00 5.774569e+00 6.158363e+00 5.254536e+00 6.183058e+00 5.716355e+00 5.513288e+00 4.644550e+00 2.576793e+00
<GCONST> 1.154419e+02
<STATE> 3
<MEAN> 25
 -2.455584e-01 3.573620e+00 1.620144e+01 -8.553191e+00 -1.120322e+01 -2.767583e+00 -3.156694e+00 -6.691773e+00 -4.790070e+00 4.996777e+00 -2.652947e+00 -1.535601e+00 1.412581e-01 2.502635e-01 -2.459492e-01 1.306076e-02 2.089320e-01 2.392690e-01 -1.550714e-01 9.211574e-02 3.378698e-01 -2.022809e-01 -3.798477e-02 1.609079e-01 -3.522007e-01
<VARIANCE> 25
 2.140137e+01 2.657472e+01 4.035683e+01 7.909676e+01 6.085015e+01 4.225111e+01 4.878532e+01 3.985682e+01 7.247786e+01 5.668801e+01 6.241502e+01 5.128730e+01 1.099150e+00 1.809834e+00 2.490425e+00 3.419980e+00 3.323067e+00 2.965041e+00 3.332374e+00 3.002074e+00 3.405558e+00 3.181071e+00 2.954106e+00 2.338060e+00 1.237972e+00
<GCONST> 1.041249e+02
<STATE> 4
<MEAN> 25
 -1.562054e-01 6.521613e+00 1.016184e+01 -4.756671e+00 -6.927897e+00 8.180871e-01 -3.498553e+00 -5.143562e+00 -2.616337e-01 1.339188e+00 -4.862015e-01 5.389524e-01 -6.856490e-05 3.312117e-02 -1.384351e+00 1.161941e+00 9.035944e-01 2.497830e-01 3.760049e-01 5.597820e-01 4.574390e-01 -5.740509e-01 3.726908e-01 8.604867e-02 -8.147587e-01
<VARIANCE> 25
 2.931182e+01 5.844855e+01 5.234776e+01 1.141760e+02 7.061991e+01 7.229159e+01 6.784573e+01 5.553468e+01 5.789759e+01 5.427677e+01 6.280586e+01 4.515416e+01 1.252740e+00 2.880815e+00 2.818697e+00 3.585227e+00 4.093627e+00 4.038630e+00 4.332375e+00 3.994945e+00 4.495110e+00 4.038105e+00 3.522626e+00 3.001811e+00 1.748327e+00
<GCONST> 1.099327e+02
<TRANSP> 5
 0.000000e+00 1.000000e+00 0.000000e+00 0.000000e+00 0.000000e+00
 0.000000e+00 6.209874e-01 3.790126e-01 0.000000e+00 0.000000e+00
 0.000000e+00 0.000000e+00 7.452326e-01 2.547673e-01 0.000000e+00
 0.000000e+00 0.000000e+00 0.000000e+00 7.963381e-01 2.036618e-01
 0.000000e+00 0.000000e+00 0.000000e+00 0.000000e+00 0.000000e+00
<ENDHMM>
~h "j"
<BEGINHMM>
<NUMSTATES> 5
<STATE> 2
<MEAN> 25
 -4.381865e+00 9.053471e+00 2.175697e+00 4.850031e+00 7.042360e-02 -1.093192e-01 2.686965e+00 -2.422750e+00 4.949588e-02 -3.052144e+00 9.860490e-01 -1.447884e+00 -2.023064e+00 1.011712e+00 8.643376e-01 -5.059286e-01 -3.815527e-01 -7.147846e-01 5.057804e-01 -8.928090e-01 4.202013e-02 4.220603e-01 3.915017e-01 -9.181493e-02 1.344090e+00
<VARIANCE> 25
 1.069572e+02 5.760991e+01 5.277801e+01 4.562629e+01 5.641745e+01 5.178510e+01 4.547996e+01 4.613963e+01 3.917102e+01 4.451813e+01 3.626257e+01 3.383710e+01 9.562128e+00 5.396615e+00 5.964325e+00 5.329947e+00 7.444061e+00 6.138567e+00 4.985281e+00 4.171024e+00 4.394905e+00 4.887607e+00 4.020102e+00 3.048964e+00 3.906392e+00
<GCONST> 1.138599e+02
<STATE> 3
<MEAN> 25
 -6.096653e+00 8.995903e+00 9.798882e+00 6.647174e-01 -6.833771e+00 -6.048490e+00 1.709499e+00 -4.921094e+00 -1.882551e+00 4.918672e-01 3.291213e+00 -1.306138e+00 2.068355e+00 -2.087912e+00 2.047974e+00 -1.696944e+00 -2.989064e+00 -2.067148e+00 -8.566167e-01 6.969428e-01 -6.726643e-01 1.320166e+00 5.727209e-01 1.073454e-01 1.545579e+00
<VARIANCE> 25
 6.567878e+01 5.322665e+01 5.297897e+01 7.559260e+01 7.959432e+01 6.612523e+01 4.964048e+01 4.429573e+01 4.176604e+01 5.378008e+01 4.083260e+01 3.710546e+01 8.030202e+00 6.321205e+00 5.019210e+00 8.036020e+00 7.567213e+00 6.655804e+00 6.170409e+00 5.974300e+00 4.896762e+00 7.211968e+00 4.609046e+00 3.098715e+00 2.234756e+00
<GCONST> 1.158843e+02
<STATE> 4
<MEAN> 25
 9.307249e-01 -6.133530e-01 9.683522e+00 -4.150416e+00 -1.166811e+01 -8.624386e+00 1.452291e+00 1.600961e+00 -1.438784e+00 2.646651e+00 2.377645e+00 -9.705912e-01 1.021344e+00 -1.772968e+00 -1.136025e+00 -2.835387e-01 5.936059e-01 5.439152e-01 8.644533e-02 1.507345e+00 3.584420e-01 -3.660823e-01 -7.289977e-01 6.578517e-02 4.115901e-01
<VARIANCE> 25
 4.046422e+01 4.279610e+01 4.412146e+01 7.752560e+01 5.493154e+01 4.507623e+01 6.946737e+01 4.864556e+01 5.356978e+01 6.682219e+01 4.864527e+01 3.855804e+01 2.058836e+00 4.594957e+00 3.671181e+00 3.799013e+00 5.691302e+00 5.378933e+00 5.413194e+00 4.595860e+00 4.346688e+00 5.547783e+00 3.812213e+00 3.531233e+00 1.949243e+00
<GCONST> 1.111688e+02
<TRANSP> 5
 0.000000e+00 1.000000e+00 0.000000e+00 0.000000e+00 0.000000e+00
 0.000000e+00 7.420898e-01 2.579102e-01 0.000000e+00 0.000000e+00
 0.000000e+00 0.000000e+00 5.794954e-01 4.205046e-01 0.000000e+00
 0.000000e+00 0.000000e+00 0.000000e+00 7.243150e-01 2.756849e-01
 0.000000e+00 0.000000e+00 0.000000e+00 0.000000e+00 0.000000e+00
<ENDHMM>
~h "k"
<BEGINHMM>
<NUMSTATES> 5
<STATE> 2
<MEAN> 25
 -3.539399e+00 8.398504e-01 -3.540245e+00 4.759540e+00 3.972781e+00 3.433080e+00 9.765603e-01 1.721103e+00 2.848078e+00 1.476868e+00 2.821318e+00 1.426224e+00 -6.114502e-01 -1.081216e+00 -8.443298e-01 2.140919e-01 5.594435e-01 -4.759405e-01 2.475275e-01 4.506246e-01 5.930451e-01 4.940251e-01 1.135014e-01 3.828434e-01 5.484152e-01
<VARIANCE> 25
 3.750826e+01 6.800586e+01 4.793988e+01 6.322212e+01 6.739399e+01 6.163659e+01 5.148229e+01 4.396054e+01 4.527765e+01 4.536584e+01 4.402523e+01 3.265696e+01 2.732798e+00 8.256616e+00 4.475996e+00 5.344171e+00 6.401868e+00 6.033830e+00 5.577222e+00 4.664708e+00 5.351703e+00 4.419037e+00 4.753062e+00 3.359230e+00 8.857606e+00
<GCONST> 1.140813e+02
<STATE> 3
<MEAN> 25
 -3.710901e+00 -3.812044e+00 -6.262717e+00 2.990353e+00 5.169678e+00 3.444243e-01 1.670290e+00 2.713181e+00 4.624602e+00 2.757266e+00 1.195287e+00 1.802848e+00 4.680933e-01 -7.099588e-01 -2.944285e-01 -1.259918e+00 -2.972560e-01 -7.588494e-01 7.104573e-02 -1.136525e-01 -2.080755e-01 -4.638156e-02 -7.526754e-01 1.390950e-03 1.926822e+00
<VARIANCE> 25
 3.732172e+01 5.392075e+01 5.595447e+01 6.335620e+01 7.376209e+01 6.483131e+01 5.809047e+01 4.959318e+01 5.376575e+01 4.528177e+01 4.129769e+01 3.207888e+01 4.462330e+00 6.410472e+00 5.264991e+00 7.499847e+00 7.013229e+00 6.237338e+00 6.243645e+00 5.608719e+00 6.120257e+00 5.660579e+00 5.429942e+00 3.917238e+00 8.151960e+00
<GCONST> 1.162169e+02
<STATE> 4
<MEAN> 25
 -1.518416e-02 -2.429857e+00 -6.735227e+00 -5.965130e-01 3.645818e+00 9.017500e-01 3.779364e-01 1.510654e+00 2.277483e+00 1.583205e+00 -3.812674e-01 1.062582e+00 1.239116e+00 2.163981e-01 5.667040e-01 -1.263148e+00 -9.249301e-01 -2.700565e-01 -2.496767e-01 -5.734714e-01 -1.069462e+00 -5.715876e-01 -7.884893e-01 -3.634395e-01 1.054993e+00
<VARIANCE> 25
 4.507594e+01 8.176229e+01 7.487998e+01 8.283929e+01 8.021414e+01 8.449091e+01 7.437365e+01 6.126194e+01 6.544568e+01 5.334404e+01 6.442265e+01 4.315386e+01 4.759351e+00 5.186785e+00 4.966339e+00 8.122804e+00 6.502336e+00 5.598272e+00 7.083369e+00 6.561208e+00 6.507887e+00 6.220590e+00 5.350871e+00 3.921910e+00 4.839553e+00
<GCONST> 1.188844e+02
<TRANSP> 5
 0.000000e+00 1.000000e+00 0.000000e+00 0.000000e+00 0.000000e+00
 0.000000e+00 6.185171e-01 3.814829e-01 0.000000e+00 0.000000e+00
 0.000000e+00 0.000000e+00 4.321314e-01 5.678685e-01 0.000000e+00
 0.000000e+00 0.000000e+00 0.000000e+00 6.063160e-01 3.936840e-01
 0.000000e+00 0.000000e+00 0.000000e+00 0.000000e+00 0.000000e+00
<ENDHMM>
~h "l"
<BEGINHMM>
<NUMSTATES> 5
<STATE> 2
<MEAN> 25
 6.924213e+00 -3.693046e+00 -3.205621e+00 -3.988984e+00 -4.949568e-01 -3.398503e+00 -6.340302e+00 -1.089619e+00 4.118267e+00 3.843764e+00 -3.349790e+00 -3.112518e+00 4.085292e-01 3.929734e-03 -1.544967e-01 -3.201780e-01 2.352721e-01 -5.131663e-01 -8.255622e-01 1.986125e-01 4.976356e-01 6.649214e-01 -3.813601e-01 -2.984651e-01 -3.481052e-02
<VARIANCE> 25
 3.267390e+01 3.497033e+01 4.265924e+01 5.333036e+01 5.746812e+01 7.359181e+01 7.163783e+01 7.494529e+01 5.081911e+01 6.669455e+01 5.856865e+01 4.370429e+01 1.454498e+00 2.115063e+00 2.362802e+00 2.636878e+00 3.515620e+00 4.044972e+00 4.280231e+00 5.168662e+00 4.306769e+00 4.274829e+00 3.871343e+00 3.017642e+00 1.218255e+00
<GCONST> 1.079049e+02
<STATE> 3
<MEAN> 25
 7.047398e+00 -3.467094e+00 -3.654397e+00 -4.720354e+00 1.999747e-02 -4.163210e+00 -6.953151e+00 6.896317e-02 4.799318e+00 4.249791e+00 -3.450947e+00 -2.790532e+00 -5.846716e-02 6.700112e-02 9.922985e-03 -2.882432e-02 -1.251931e-02 -8.254000e-02 2.152764e-01 2.350507e-01 -1.596487e-01 -2.333171e-01 3.134805e-02 2.005962e-01 -2.285686e-03
<VARIANCE> 25
 2.617424e+01 3.164969e+01 4.213115e+01 5.147019e+01 5.589543e+01 6.408543e+01 6.084857e+01 6.543153e+01 5.748164e+01 6.212936e+01 5.984973e+01 4.647794e+01 4.932493e-01 1.614200e+00 1.908701e+00 2.101817e+00 2.665619e+00 3.312360e+00 3.374215e+00 3.854501e+00 3.254829e+00 3.513101e+00 3.313038e+00 2.329875e+00 6.479201e-01
<GCONST> 1.028840e+02
<STATE> 4
<MEAN> 25
 6.265185e+00 -2.772215e+00 -3.743919e+00 -3.760758e+00 -1.763579e-01 -3.276418e+00 -4.476536e+00 3.239378e-01 3.390014e+00 1.759149e+00 -2.343359e+00 -1.481153e+00 -3.517599e-01 8.195759e-02 2.233397e-01 1.337581e-01 -1.456177e-01 4.055135e-01 7.291433e-01 1.116704e-02 -6.662417e-01 -5.033143e-01 2.806782e-01 2.045733e-01 -2.383631e-02
<VARIANCE> 25
 2.872618e+01 4.241965e+01 5.068988e+01 5.210762e+01 6.188769e+01 7.118106e+01 5.570830e+01 6.375954e+01 5.619672e+01 6.441505e+01 5.929694e+01 4.743282e+01 6.178761e-01 1.756819e+00 2.056846e+00 2.449958e+00 3.146930e+00 3.032038e+00 3.083786e+00 3.111839e+00 3.283833e+00 3.462571e+00 3.227988e+00 2.213815e+00 8.103551e-01
<GCONST> 1.040369e+02
<TRANSP> 5
 0.000000e+00 1.000000e+00 0.000000e+00 0.000000e+00 0.000000e+00
 0.000000e+00 5.407118e-01 4.592882e-01 0.000000e+00 0.000000e+00
 0.000000e+00 0.000000e+00 5.423313e-01 4.576687e-01 0.000000e+00
 0.000000e+00 0.000000e+00 0.000000e+00 6.137500e-01 3.862500e-01
 0.000000e+00 0.000000e+00 0.000000e+00 0.000000e+00 0.000000e+00
<ENDHMM>
~h "m"
<BEGINHMM>
<NUMSTATES> 5
<STATE> 2
<MEAN> 25
 7.195307e+00 1.174618e+00 -3.286407e+00 3.378435e-01 3.110814e+00 1.229410e+00 -4.558824e+00 -4.706453e+00 -2.749469e+00 -6.836888e-01 -3.895853e-01 -1.861109e+00 3.661117e-01 8.250178e-01 1.762323e-01 1.026075e+00 2.473430e-01 8.245088e-02 -2.956461e-01 -1.196104e+00 -1.075690e+00 -5.069413e-01 -1.098870e-01 -6.369811e-02 -5.602518e-01
<VARIANCE> 25
 2.458257e+01 4.146108e+01 4.095044e+01 4.818606e+01 3.236564e+01 4.214081e+01 3.649306e+01 4.359779e+01 4.429887e+01 3.848689e+01 3.325554e+01 2.847746e+01 1.502851e+00 3.799879e+00 3.682940e+00 4.991909e+00 2.690787e+00 3.139281e+00 3.393028e+00 4.890426e+00 4.200221e+00 3.260311e+00 3.495137e+00 2.572677e+00 2.690804e+00
<GCONST> 1.047458e+02
<STATE> 3
<MEAN> 25
 7.543589e+00 1.568535e+00 -3.353291e+00 7.824606e-01 3.437244e+00 1.736106e+00 -4.719532e+00 -5.781541e+00 -4.712806e+00 -1.681649e+00 -1.312136e+00 -2.528125e+00 -1.028648e-01 -4.098721e-01 -2.488022e-01 -5.249051e-01 3.842947e-01 7.984275e-02 -1.061192e-01 7.487581e-01 1.896930e-01 -4.731593e-02 -4.005354e-01 -5.356705e-01 4.456912e-01
<VARIANCE> 25
 1.988194e+01 3.740186e+01 3.568673e+01 5.167591e+01 3.211154e+01 4.630034e+01 3.698936e+01 4.755381e+01 5.157898e+01 3.818519e+01 3.656641e+01 3.021346e+01 8.053592e-01 3.297372e+00 2.885891e+00 5.362638e+00 2.744098e+00 2.515073e+00 2.895697e+00 6.016140e+00 4.276169e+00 3.390315e+00 3.472315e+00 2.475024e+00 1.983901e+00
<GCONST> 1.034636e+02
<STATE> 4
<MEAN> 25
 5.140655e+00 1.414850e+00 -2.623585e+00 -7.564577e-01 3.438677e+00 -6.426775e-02 -4.005201e+00 -2.370907e+00 -3.707971e+00 -2.288577e+00 -2.602953e+00 -3.572850e+00 -2.038309e-01 -9.034889e-02 1.347648e-01 -7.000440e-02 -1.206744e-01 -7.201184e-02 2.337052e-01 4.021934e-01 1.877155e-01 6.551086e-02 -3.115067e-02 9.455177e-02 -1.122138e-02
<VARIANCE> 25
 1.919488e+01 4.544198e+01 2.914205e+01 3.954202e+01 3.681741e+01 3.486977e+01 3.267707e+01 4.654957e+01 4.194000e+01 4.429556e+01 3.539761e+01 2.671314e+01 4.584086e-01 1.315856e+00 1.330802e+00 1.935045e+00 1.890816e+00 1.761082e+00 1.845408e+00 2.678725e+00 2.249651e+00 2.366729e+00 2.334997e+00 1.705917e+00 6.314083e-01
<GCONST> 9.446724e+01
<TRANSP> 5
 0.000000e+00 1.000000e+00 0.000000e+00 0.000000e+00 0.000000e+00
 0.000000e+00 5.466911e-01 4.533089e-01 0.000000e+00 0.000000e+00
 0.000000e+00 0.000000e+00 5.761466e-01 4.238534e-01 0.000000e+00
 0.000000e+00 0.000000e+00 0.000000e+00 8.301614e-01 1.698385e-01
 0.000000e+00 0.000000e+00 0.000000e+00 0.000000e+00 0.000000e+00
<ENDHMM>
~h "n"
<BEGINHMM>
<NUMSTATES> 5
<STATE> 2
<MEAN> 25
 6.078044e+00 3.060898e-01 2.342936e+00 8.568180e-01 -3.899124e+00 -5.248868e+00 -2.243623e+00 -1.620317e+00 -2.855436e+00 -3.788388e+00 -2.875605e+00 -5.538050e-01 4.244258e-01 1.588268e+00 -1.422358e-01 1.090812e+00 2.419375e-03 -5.060090e-02 -4.766091e-01 -1.051470e+00 -1.589581e-03 -4.806283e-01 7.806589e-02 -1.318800e-01 -1.189960e+00
<VARIANCE> 25
 1.655372e+01 4.486739e+01 2.861858e+01 3.494449e+01 3.894857e+01 3.818522e+01 4.453598e+01 4.845763e+01 4.769415e+01 4.528279e+01 4.822975e+01 3.994200e+01 7.719507e-01 2.195836e+00 2.096612e+00 2.534429e+00 2.574188e+00 3.170680e+00 3.069062e+00 3.964594e+00 3.160000e+00 3.140226e+00 2.821338e+00 2.464408e+00 1.009507e+00
<GCONST> 1.007277e+02
<STATE> 3
<MEAN> 25
 6.479935e+00 5.164088e+00 1.828271e+00 3.078641e+00 -3.021510e+00 -4.384380e+00 -3.259233e+00 -3.714659e+00 -2.445730e+00 -4.148134e+00 -2.274639e+00 -1.322718e+00 -1.299001e-01 6.906350e-01 3.837224e-03 3.448376e-01 2.770235e-01 2.464324e-01 -1.828710e-02 -1.041720e-01 -5.665328e-02 -1.016582e-01 1.118698e-01 -1.278011e-01 -5.596341e-01
<VARIANCE> 25
 1.844502e+01 4.172183e+01 2.470914e+01 3.076468e+01 3.239017e+01 3.634314e+01 3.417291e+01 4.296131e+01 4.447248e+01 4.203099e+01 4.169066e+01 3.422180e+01 6.599515e-01 1.673704e+00 1.493442e+00 1.889340e+00 2.144959e+00 2.463616e+00 2.425097e+00 2.778844e+00 2.358525e+00 2.531279e+00 2.325328e+00 2.022458e+00 8.504723e-01
<GCONST> 9.626770e+01
<STATE> 4
<MEAN> 25
 2.840215e+00 6.278955e+00 2.454683e+00 5.083106e+00 -1.724379e-01 -1.063390e+00 -1.882612e+00 -2.353635e+00 -2.178541e+00 -3.500994e+00 -9.231092e-01 -1.194171e+00 -8.102540e-01 -3.169613e-01 2.002063e-02 -6.130648e-02 4.156543e-01 5.059840e-01 4.587510e-01 5.302312e-01 1.669960e-01 3.883253e-01 3.497244e-01 1.034613e-01 -2.168848e-01
<VARIANCE> 25
 3.705394e+01 4.766286e+01 2.659332e+01 3.851439e+01 4.487192e+01 4.886702e+01 3.870521e+01 4.065263e+01 4.435307e+01 4.124438e+01 3.905981e+01 3.004848e+01 1.130878e+00 2.536322e+00 1.975594e+00 2.516722e+00 2.710079e+00 2.753703e+00 2.965277e+00 3.334775e+00 3.141337e+00 3.136466e+00 2.839777e+00 2.353872e+00 1.384471e+00
<GCONST> 1.014604e+02
<TRANSP> 5
 0.000000e+00 1.000000e+00 0.000000e+00 0.000000e+00 0.000000e+00
 0.000000e+00 6.513316e-01 3.486684e-01 0.000000e+00 0.000000e+00
 0.000000e+00 0.000000e+00 5.895231e-01 4.104769e-01 0.000000e+00
 0.000000e+00 0.000000e+00 0.000000e+00 6.753166e-01 3.246834e-01
 0.000000e+00 0.000000e+00 0.000000e+00 0.000000e+00 0.000000e+00
<ENDHMM>
~h "o"
<BEGINHMM>
<NUMSTATES> 5
<STATE> 2
<MEAN> 25
 4.744234e+00 -1.111859e+00 -6.575493e+00 -8.415462e+00 1.956314e+00 2.727365e+00 -2.798371e+00 -3.531141e-01 5.617154e-01 3.435637e+00 1.389636e+00 -1.915493e+00 9.921522e-01 -3.198404e-01 -8.263041e-01 -2.063812e+00 2.534212e-01 1.004138e+00 -2.430657e-01 -4.478341e-02 -3.201808e-01 2.351440e-01 1.544958e-01 -2.551457e-01 1.031802e+00
<VARIANCE> 25
 5.239757e+01 3.711228e+01 3.592206e+01 8.212608e+01 7.331346e+01 6.166022e+01 6.569041e+01 5.453704e+01 5.622603e+01 5.366731e+01 4.633490e+01 3.926667e+01 5.383988e+00 2.918740e+00 3.311608e+00 8.247695e+00 5.833537e+00 5.187835e+00 6.288054e+00 4.874629e+00 4.187403e+00 4.009093e+00 4.465116e+00 3.274032e+00 5.176204e+00
<GCONST> 1.136696e+02
<STATE> 3
<MEAN> 25
 7.138271e+00 -1.385098e+00 -8.507958e+00 -1.158989e+01 2.400967e+00 4.933427e+00 -4.206234e+00 -5.524676e-01 8.055124e-02 2.837860e+00 1.491250e+00 -2.199225e+00 -5.378222e-02 2.649380e-01 -2.596540e-01 4.027039e-01 1.590898e-01 3.159493e-01 9.843089e-02 -9.879312e-02 4.653465e-02 -3.194790e-01 1.502108e-01 6.531300e-02 -5.598674e-01
<VARIANCE> 25
 3.442843e+01 3.857563e+01 3.156174e+01 6.121141e+01 6.143417e+01 5.228502e+01 5.657473e+01 5.780512e+01 5.567425e+01 5.571532e+01 5.107491e+01 3.547119e+01 1.147612e+00 1.957905e+00 1.728689e+00 3.685800e+00 2.930983e+00 2.993692e+00 3.649580e+00 3.129818e+00 3.727464e+00 3.775625e+00 2.948215e+00 2.525342e+00 1.617468e+00
<GCONST> 1.048154e+02
<STATE> 4
<MEAN> 25
 3.698059e+00 1.206268e+00 -6.713618e+00 -6.399249e+00 1.674251e+00 5.384808e+00 -6.881744e-02 -8.668296e-01 -1.096759e-01 8.629994e-01 1.693205e+00 -7.156512e-01 -4.462342e-01 1.969796e-01 4.020783e-01 7.546622e-01 6.745817e-02 -1.864850e-01 2.368963e-01 9.364945e-02 4.593437e-02 -1.976134e-01 -1.282218e-01 6.089032e-02 -5.425538e-01
<VARIANCE> 25
 7.290811e+01 3.063470e+01 4.511887e+01 7.545275e+01 4.792668e+01 4.466158e+01 5.487808e+01 4.076104e+01 3.642151e+01 3.633980e+01 3.880561e+01 3.477895e+01 7.913322e-01 1.005238e+00 1.288678e+00 1.944588e+00 1.800806e+00 2.037712e+00 2.197392e+00 2.225151e+00 2.252357e+00 2.208470e+00 1.946115e+00 1.740007e+00 5.767927e-01
<GCONST> 9.741906e+01
<TRANSP> 5
 0.000000e+00 1.000000e+00 0.000000e+00 0.000000e+00 0.000000e+00
 0.000000e+00 6.112202e-01 3.887798e-01 0.000000e+00 0.000000e+00
 0.000000e+00 0.000000e+00 6.764910e-01 3.235090e-01 0.000000e+00
 0.000000e+00 0.000000e+00 0.000000e+00 8.428250e-01 1.571750e-01
 0.000000e+00 0.000000e+00 0.000000e+00 0.000000e+00 0.000000e+00
<ENDHMM>
~h "p"
<BEGINHMM>
<NUMSTATES> 5
<STATE> 2
<MEAN> 25
 -2.989169e+00 2.231712e+00 -2.957328e+00 3.884681e+00 3.050979e+00 4.603945e+00 1.901988e+00 1.030353e+00 3.504171e+00 2.654960e-01 3.431973e+00 1.654788e+00 -9.373134e-01 -6.581211e-01 -5.752505e-02 1.206794e-01 -2.529602e-01 -9.241785e-02 5.826252e-01 3.920382e-01 5.591279e-01 4.460511e-01 5.355346e-01 3.415605e-01 1.509783e-01
<VARIANCE> 25
 3.746521e+01 2.659936e+01 3.381071e+01 2.822699e+01 2.980939e+01 2.902909e+01 3.515782e+01 3.358596e+01 3.863988e+01 3.679787e+01 3.092295e+01 2.650205e+01 2.827104e+00 3.396574e+00 2.202073e+00 2.857512e+00 3.132595e+00 2.904951e+00 3.601319e+00 3.127592e+00 3.258794e+00 3.195581e+00 2.839346e+00 2.223102e+00 6.465082e+00
<GCONST> 1.023010e+02
<STATE> 3
<MEAN> 25
 -2.781354e+00 -9.975645e-01 -2.589134e+00 3.209083e+00 1.373555e+00 2.972085e+00 2.777306e+00 1.180440e+00 3.845769e+00 1.865041e+00 3.371489e+00 1.054878e+00 1.695972e+00 -1.939628e+00 -4.191611e-01 -1.477960e+00 -5.663288e-01 -7.613753e-01 -3.014948e-01 -3.333443e-01 -2.701239e-01 5.187730e-01 -6.924037e-01 -6.542495e-01 3.636415e+00
<VARIANCE> 25
 3.571879e+01 3.663102e+01 3.661246e+01 3.730185e+01 4.023447e+01 3.690641e+01 3.541011e+01 3.891274e+01 3.728957e+01 3.171429e+01 2.864158e+01 2.862946e+01 7.160031e+00 8.218272e+00 5.290806e+00 6.211875e+00 6.603737e+00 5.831388e+00 5.825570e+00 5.108846e+00 4.455420e+00 5.216774e+00 4.690080e+00 3.877295e+00 7.983199e+00
<GCONST> 1.113945e+02
<STATE> 4
<MEAN> 25
 3.452453e+00 -4.172398e+00 -5.060213e+00 -6.678717e-01 7.035137e-01 1.686983e+00 2.239475e-01 -1.909944e-01 2.096164e+00 1.501943e+00 3.507168e-01 -1.694285e+00 1.981961e+00 -1.247077e+00 -3.109381e-01 -1.609807e+00 -6.158733e-01 -8.231759e-01 -8.582275e-01 -3.381403e-01 -8.860784e-01 -3.056986e-01 -1.342376e+00 -6.460099e-01 2.255688e+00
<VARIANCE> 25
 5.659779e+01 5.318230e+01 4.565079e+01 5.782253e+01 4.530485e+01 4.667289e+01 4.100394e+01 3.749776e+01 3.331911e+01 3.486417e+01 3.645834e+01 3.411075e+01 5.415800e+00 7.054067e+00 6.544279e+00 7.035359e+00 7.526349e+00 5.237436e+00 5.610374e+00 5.612678e+00 5.645283e+00 5.755540e+00 5.082472e+00 4.018961e+00 5.829381e+00
<GCONST> 1.138700e+02
<TRANSP> 5
 0.000000e+00 1.000000e+00 0.000000e+00 0.000000e+00 0.000000e+00
 0.000000e+00 6.982774e-01 3.017226e-01 0.000000e+00 0.000000e+00
 0.000000e+00 0.000000e+00 4.377322e-01 5.622678e-01 0.000000e+00
 0.000000e+00 0.000000e+00 0.000000e+00 4.208905e-01 5.791095e-01
 0.000000e+00 0.000000e+00 0.000000e+00 0.000000e+00 0.000000e+00
<ENDHMM>
~h "r"
<BEGINHMM>
<NUMSTATES> 5
<STATE> 2
<MEAN> 25
 3.980524e+00 -5.932309e+00 -1.806235e-01 6.679446e-01 -5.226992e+00 -3.703471e+00 -1.040963e+00 2.382283e+00 3.936661e+00 -6.861733e-01 -1.548743e+00 -4.646865e-01 4.695963e-02 7.312024e-02 3.029301e-01 8.417093e-01 -5.824437e-01 -5.626768e-02 -2.440528e-01 -1.523102e-01 3.658857e-01 -4.552389e-01 2.322690e-01 2.714048e-02 -5.945378e-01
<VARIANCE> 25
 2.842626e+01 3.903619e+01 3.873666e+01 3.988987e+01 4.866554e+01 5.217667e+01 5.636773e+01 4.568994e+01 4.891970e+01 4.627844e+01 4.407355e+01 3.301465e+01 2.674536e+00 3.111698e+00 2.613397e+00 3.075051e+00 4.424599e+00 3.820206e+00 4.913951e+00 3.896971e+00 4.333547e+00 4.379550e+00 4.432037e+00 3.043612e+00 1.675117e+00
<GCONST> 1.070465e+02
<STATE> 3
<MEAN> 25
 3.789629e+00 -4.612969e+00 3.193287e-01 2.412856e+00 -5.619801e+00 -3.620987e+00 -1.274242e+00 1.550793e+00 3.688967e+00 -1.615415e+00 -1.023885e+00 -5.119480e-01 -2.514007e-01 6.045437e-01 1.251509e-01 2.756689e-01 1.275723e-01 1.303449e-01 1.374408e-01 -3.454389e-01 -3.581564e-01 -9.960612e-02 9.063190e-02 -4.279472e-02 -5.073581e-01
<VARIANCE> 25
 2.936165e+01 4.146285e+01 3.754055e+01 3.262111e+01 5.108874e+01 5.131515e+01 5.017344e+01 4.671396e+01 4.906770e+01 4.443510e+01 4.084776e+01 2.986279e+01 2.457921e+00 2.987039e+00 2.711834e+00 2.585479e+00 3.955258e+00 3.686636e+00 4.068922e+00 3.771028e+00 3.981804e+00 4.079831e+00 4.027451e+00 2.820264e+00 1.592597e+00
<GCONST> 1.056213e+02
<STATE> 4
<MEAN> 25
 1.979585e+00 -2.152995e+00 3.723846e-01 2.488491e+00 -3.651629e+00 -2.351187e+00 -1.160010e-01 6.494174e-01 2.132717e+00 -1.332828e+00 -8.288543e-01 -5.772820e-01 -3.393251e-01 5.824811e-01 3.232164e-02 -1.440928e-01 4.405540e-01 3.039941e-01 2.827579e-01 -3.024737e-01 -4.378389e-01 3.199038e-01 1.380269e-01 3.133662e-02 -4.722525e-01
<VARIANCE> 25
 3.580162e+01 5.204132e+01 3.767031e+01 3.412959e+01 5.370818e+01 4.814577e+01 4.893827e+01 5.114597e+01 4.628929e+01 4.802372e+01 3.972346e+01 2.881305e+01 1.865587e+00 2.315296e+00 2.354302e+00 2.254486e+00 3.284051e+00 3.130092e+00 3.144340e+00 3.696370e+00 3.482380e+00 3.534447e+00 3.115335e+00 2.441090e+00 1.371796e+00
<GCONST> 1.038390e+02
<TRANSP> 5
 0.000000e+00 1.000000e+00 0.000000e+00 0.000000e+00 0.000000e+00
 0.000000e+00 4.814767e-01 5.185234e-01 0.000000e+00 0.000000e+00
 0.000000e+00 0.000000e+00 4.213715e-01 5.786285e-01 0.000000e+00
 0.000000e+00 0.000000e+00 0.000000e+00 5.923752e-01 4.076248e-01
 0.000000e+00 0.000000e+00 0.000000e+00 0.000000e+00 0.000000e+00
<ENDHMM>
~h "s"
<BEGINHMM>
<NUMSTATES> 5
<STATE> 2
<MEAN> 25
 -9.948213e+00 8.801480e+00 -3.211339e+00 5.811937e+00 8.446515e-01 -3.785378e+00 3.829884e+00 -9.658813e-02 1.113884e+00 -2.277004e+00 1.804743e+00 1.094300e-01 -3.074918e+00 1.770753e+00 -1.370426e+00 1.106963e+00 8.700743e-01 2.535048e-01 1.378510e+00 2.538562e-01 6.162694e-01 4.528534e-01 8.521594e-01 3.871861e-01 -2.232549e-01
<VARIANCE> 25
 6.407793e+01 5.976759e+01 7.043121e+01 6.272541e+01 7.099862e+01 7.396149e+01 6.924842e+01 6.001715e+01 4.990237e+01 5.332799e+01 4.813181e+01 3.799067e+01 4.317615e+00 4.683421e+00 3.941641e+00 4.404676e+00 4.253669e+00 4.317136e+00 4.358051e+00 4.519045e+00 3.982360e+00 4.297148e+00 4.050608e+00 3.284508e+00 8.783858e-01
<GCONST> 1.119372e+02
<STATE> 3
<MEAN> 25
 -1.725766e+01 9.627440e+00 -6.432282e+00 8.268885e+00 2.875056e+00 -1.228160e+00 7.069352e+00 1.488292e+00 3.434224e+00 8.033634e-01 4.308549e+00 2.605562e+00 2.484494e-01 -4.603951e-01 2.283809e-01 5.474329e-03 -2.791806e-01 1.338088e-01 -5.903729e-02 9.301154e-02 1.329361e-01 6.152121e-02 1.269650e-01 8.761407e-02 -4.336590e-01
<VARIANCE> 25
 3.738249e+01 6.060850e+01 4.989069e+01 6.203592e+01 5.151114e+01 6.346407e+01 4.691684e+01 4.865616e+01 3.941153e+01 5.011325e+01 3.200109e+01 3.455164e+01 2.950669e+00 2.003546e+00 2.351785e+00 2.288021e+00 2.779201e+00 3.290809e+00 2.983515e+00 3.062256e+00 2.780261e+00 2.822572e+00 2.599133e+00 2.143570e+00 1.239204e+00
<GCONST> 1.040098e+02
<STATE> 4
<MEAN> 25
 -8.814546e+00 6.839222e+00 -3.234957e+00 6.403654e+00 -9.222111e-01 -1.201653e+00 3.474215e+00 1.877600e+00 2.638765e+00 -1.040764e+00 3.749582e+00 1.534647e+00 3.315525e+00 -1.348193e+00 7.574984e-01 -1.304803e+00 -1.103591e+00 -6.409547e-01 -1.728998e+00 -3.731422e-01 -6.833391e-01 -4.961030e-01 -1.083363e+00 -6.777465e-01 8.965559e-01
<VARIANCE> 25
 7.937318e+01 7.083691e+01 6.252906e+01 8.290904e+01 7.832191e+01 1.187954e+02 7.508591e+01 6.784636e+01 5.733143e+01 6.053009e+01 6.025860e+01 4.213645e+01 7.667021e+00 7.557530e+00 5.574529e+00 6.810155e+00 6.897741e+00 6.929665e+00 7.015331e+00 6.952903e+00 6.427094e+00 6.090883e+00 5.953635e+00 4.745859e+00 3.194541e+00
<GCONST> 1.204209e+02
<TRANSP> 5
 0.000000e+00 1.000000e+00 0.000000e+00 0.000000e+00 0.000000e+00
 0.000000e+00 7.715302e-01 2.284699e-01 0.000000e+00 0.000000e+00
 0.000000e+00 0.000000e+00 7.943833e-01 2.056166e-01 0.000000e+00
 0.000000e+00 0.000000e+00 0.000000e+00 7.219546e-01 2.780454e-01
 0.000000e+00 0.000000e+00 0.000000e+00 0.000000e+00 0.000000e+00
<ENDHMM>
~h "t"
<BEGINHMM>
<NUMSTATES> 5
<STATE> 2
<MEAN> 25
 -4.601513e+00 3.012580e+00 -1.364700e+00 5.265076e+00 2.321785e-01 1.853433e+00 1.930895e+00 1.025845e+00 3.185144e+00 -1.752250e-01 4.346052e+00 2.141363e+00 -9.301516e-01 -9.351723e-01 -6.419712e-01 -3.528616e-01 -1.243592e-01 1.729253e-01 4.845282e-01 3.806624e-01 6.399126e-01 2.525800e-02 5.088487e-01 3.938119e-01 3.589989e-01
<VARIANCE> 25
 3.305876e+01 3.880714e+01 3.771691e+01 3.215812e+01 4.141582e+01 5.881273e+01 3.958169e+01 3.847191e+01 3.881937e+01 3.584426e+01 3.705249e+01 2.815790e+01 2.260209e+00 4.256490e+00 3.680943e+00 3.889169e+00 4.289083e+00 5.531811e+00 4.378229e+00 3.961797e+00 4.040114e+00 3.613879e+00 4.127447e+00 2.838225e+00 9.566039e+00
<GCONST> 1.078645e+02
<STATE> 3
<MEAN> 25
 -5.651094e+00 -2.271957e+00 -2.490539e+00 2.039768e+00 -9.458838e-02 -2.290832e-01 3.018129e+00 2.482750e+00 4.253535e+00 -3.189451e-01 4.065724e+00 2.125730e+00 6.621603e-01 -1.495560e+00 3.604690e-01 -1.607399e+00 -3.692744e-01 -1.713722e+00 -5.457636e-01 1.246738e-01 -1.700569e-01 -3.948413e-02 -9.944123e-01 -5.373543e-01 3.750951e+00
<VARIANCE> 25
 3.351095e+01 4.090359e+01 4.089151e+01 3.784385e+01 4.566338e+01 6.302886e+01 4.648717e+01 4.334385e+01 3.806055e+01 4.267304e+01 3.870095e+01 3.323337e+01 5.913460e+00 6.107753e+00 4.930947e+00 5.605011e+00 6.613605e+00 8.185431e+00 7.979639e+00 6.507554e+00 5.255308e+00 6.157871e+00 6.009071e+00 4.477001e+00 9.325654e+00
<GCONST> 1.144891e+02
<STATE> 4
<MEAN> 25
 -1.372526e+00 -2.885291e+00 -1.011616e+00 -6.339433e-01 -5.529802e-01 -4.249716e+00 -8.972384e-01 1.813423e+00 2.371543e+00 -7.821044e-01 4.379662e-01 1.533139e-01 2.074529e+00 -2.933258e-02 4.207878e-01 -1.298979e+00 -2.555059e-01 -9.938723e-01 -1.646720e+00 -6.718342e-01 -1.061764e+00 3.638844e-01 -1.249413e+00 -8.009269e-01 1.653994e+00
<VARIANCE> 25
 4.330848e+01 5.087492e+01 4.401639e+01 4.709385e+01 5.006092e+01 7.815636e+01 7.892625e+01 5.261439e+01 4.438148e+01 5.336921e+01 5.057656e+01 4.010243e+01 6.336921e+00 6.079114e+00 5.688609e+00 6.242251e+00 7.013906e+00 7.512256e+00 8.993562e+00 7.827636e+00 6.981663e+00 7.118079e+00 5.600843e+00 5.294286e+00 6.314020e+00
<GCONST> 1.178477e+02
<TRANSP> 5
 0.000000e+00 1.000000e+00 0.000000e+00 0.000000e+00 0.000000e+00
 0.000000e+00 6.874565e-01 3.125434e-01 0.000000e+00 0.000000e+00
 0.000000e+00 0.000000e+00 4.218668e-01 5.781332e-01 0.000000e+00
 0.000000e+00 0.000000e+00 0.000000e+00 3.951866e-01 6.048133e-01
 0.000000e+00 0.000000e+00 0.000000e+00 0.000000e+00 0.000000e+00
<ENDHMM>
~h "u"
<BEGINHMM>
<NUMSTATES> 5
<STATE> 2
<MEAN> 25
 7.243649e+00 4.340903e+00 -4.021413e+00 -6.440610e+00 -1.118765e-01 -1.469813e+00 -7.324619e+00 -3.866418e+00 -4.044147e+00 1.259798e+00 1.534615e+00 -6.770009e-01 1.193277e+00 8.660154e-01 -5.974553e-01 -1.125076e+00 -1.823626e-01 4.729047e-01 -7.628653e-01 -8.808327e-01 -9.667066e-01 1.223929e-02 3.918284e-01 7.141972e-02 -8.035925e-02
<VARIANCE> 25
 2.947906e+01 3.284599e+01 4.116836e+01 6.919415e+01 5.044539e+01 5.518795e+01 6.637827e+01 5.991477e+01 5.913108e+01 4.986037e+01 3.957218e+01 4.141706e+01 2.951789e+00 2.564724e+00 3.421964e+00 5.185212e+00 4.587107e+00 4.556015e+00 5.404138e+00 5.640918e+00 5.268754e+00 4.912109e+00 3.538040e+00 3.477491e+00 1.994676e+00
<GCONST> 1.101988e+02
<STATE> 3
<MEAN> 25
 8.436079e+00 5.792628e+00 -5.129232e+00 -7.443120e+00 -6.870982e-01 8.459590e-03 -7.387986e+00 -5.303709e+00 -5.302658e+00 4.868240e-01 1.705263e+00 -3.751977e-01 -9.632196e-02 7.068627e-02 8.803137e-02 7.419038e-01 4.586336e-02 1.634231e-01 1.488876e-01 -2.008099e-01 4.539685e-01 -1.437281e-01 -6.759882e-02 -1.008273e-01 -4.366381e-01
<VARIANCE> 25
 2.337620e+01 2.785720e+01 3.640293e+01 6.315715e+01 5.043361e+01 4.399603e+01 5.136803e+01 6.212658e+01 6.453057e+01 5.570939e+01 4.118694e+01 3.893953e+01 9.158944e-01 2.020516e+00 2.067019e+00 4.197665e+00 3.211486e+00 3.224648e+00 3.975977e+00 3.957721e+00 4.126395e+00 4.021574e+00 3.187438e+00 3.033700e+00 1.354107e+00
<GCONST> 1.047572e+02
<STATE> 4
<MEAN> 25
 5.215169e+00 6.195492e+00 -2.849960e+00 -1.203282e+00 -2.482871e-01 8.239751e-01 -4.465311e+00 -3.930808e+00 -1.209550e+00 4.792944e-01 2.230035e+00 -4.799081e-02 -9.362587e-01 -3.334108e-01 5.959857e-01 1.079369e+00 2.558473e-01 -1.269925e-02 6.641566e-01 5.476527e-01 6.890938e-01 -9.951879e-02 -2.123162e-01 -9.905190e-03 -5.138903e-01
<VARIANCE> 25
 4.389918e+01 4.927768e+01 4.432190e+01 6.658661e+01 5.128906e+01 6.109945e+01 5.746632e+01 5.356328e+01 5.695505e+01 5.656676e+01 5.419056e+01 4.534939e+01 1.350884e+00 2.538178e+00 2.550154e+00 3.333752e+00 3.579105e+00 3.942421e+00 4.007309e+00 3.960222e+00 4.343452e+00 3.971313e+00 3.915638e+00 3.138904e+00 1.495378e+00
<GCONST> 1.081257e+02
<TRANSP> 5
 0.000000e+00 1.000000e+00 0.000000e+00 0.000000e+00 0.000000e+00
 0.000000e+00 6.071324e-01 3.928675e-01 0.000000e+00 0.000000e+00
 0.000000e+00 0.000000e+00 6.682705e-01 3.317295e-01 0.000000e+00
 0.000000e+00 0.000000e+00 0.000000e+00 6.967168e-01 3.032832e-01
 0.000000e+00 0.000000e+00 0.000000e+00 0.000000e+00 0.000000e+00
<ENDHMM>
~h "v"
<BEGINHMM>
<NUMSTATES> 5
<STATE> 2
<MEAN> 25
 -9.540193e+00 3.608912e+00 -2.141312e+00 9.510486e+00 -1.673795e+00 1.000157e+00 2.652208e+00 -1.795161e+00 2.351723e+00 -6.598640e+00 2.928783e+00 -4.068240e-01 1.426459e+00 1.322955e-02 2.757992e+00 -1.395311e+00 -2.015180e+00 -1.605603e+00 -7.168625e-01 -1.758163e+00 -1.148506e+00 1.185849e+00 -2.017514e-01 5.139797e-01 1.477047e+00
<VARIANCE> 25
 1.799856e+01 1.623431e+01 4.192907e+01 2.923340e+01 3.552610e+01 7.902256e+00 4.208097e+01 1.845420e+01 2.316597e+01 1.724601e+01 7.834188e+00 3.285038e+01 5.251575e+00 5.009035e+00 6.398640e+00 3.163648e+00 1.414719e+00 1.578451e+00 4.519828e+00 2.842861e+00 3.375297e+00 2.726085e+00 5.249461e-01 2.381847e+00 8.944894e-01
<GCONST> 9.453417e+01
<STATE> 3
<MEAN> 25
 6.145269e-01 9.492183e-01 1.202382e+01 -2.984798e+00 -1.060021e+01 -4.610664e+00 -3.359634e+00 -5.945468e+00 -1.515077e+00 2.705235e+00 -1.045072e+00 -1.279774e-01 6.521246e-01 -1.985428e+00 5.351281e+00 -4.563437e+00 -7.726073e-01 -1.141203e+00 -1.361419e+00 -3.501571e-01 -2.435120e+00 3.199468e+00 -1.456430e+00 3.682205e-01 2.061430e+00
<VARIANCE> 25
 3.346621e+00 4.938280e+01 6.266713e+01 4.771476e+01 4.309667e+01 1.705106e+01 2.898510e+01 2.453059e+01 6.854964e+01 1.931729e+01 1.466656e+01 1.473598e+01 4.450757e+00 4.065819e+00 2.370921e+00 4.849158e-01 5.495653e+00 1.458316e+00 5.290130e+00 1.974399e+00 8.065794e-01 9.732506e-01 1.323405e+00 2.774815e+00 5.699948e-01
<GCONST> 9.274747e+01
<STATE> 4
<MEAN> 25
 -4.994971e+00 -1.866307e+00 1.722898e+01 -1.555146e+01 -5.808719e+00 -4.287543e+00 5.469540e+00 -6.906221e+00 3.718657e-01 9.779406e+00 -4.897768e+00 -3.142139e-01 2.133416e-01 3.620655e-01 -3.885511e-02 -9.410758e-02 -5.133291e-01 2.248281e-01 6.219708e-01 1.809798e-01 -1.372473e-02 1.102150e-01 -8.855243e-02 1.685923e-02 -2.180899e-01
<VARIANCE> 25
 7.766075e+00 9.898116e+00 8.039983e+00 1.433743e+01 8.103489e+00 6.017907e+00 2.657051e+01 1.991412e+01 2.581667e+01 1.144296e+01 1.032059e+01 9.720200e+00 1.092368e+00 5.278700e-01 1.360844e+00 2.053568e+00 7.642829e-01 1.053652e+00 2.807891e+00 2.156965e+00 9.100671e-01 2.227273e+00 1.344754e+00 9.614076e-01 5.605652e-01
<GCONST> 7.793764e+01
<TRANSP> 5
 0.000000e+00 1.000000e+00 0.000000e+00 0.000000e+00 0.000000e+00
 0.000000e+00 6.688697e-01 3.311304e-01 0.000000e+00 0.000000e+00
 0.000000e+00 0.000000e+00 6.226372e-01 3.773628e-01 0.000000e+00
 0.000000e+00 0.000000e+00 0.000000e+00 8.769777e-01 1.230223e-01
 0.000000e+00 0.000000e+00 0.000000e+00 0.000000e+00 0.000000e+00
<ENDHMM>
~h "w"
<BEGINHMM>
<NUMSTATES> 5
<STATE> 2
<MEAN> 25
 2.602743e+00 4.029898e+00 -4.084160e+00 -4.978479e+00 6.724014e-01 2.544771e+00 3.064741e-01 -5.258560e-01 -1.194789e+00 1.863867e+00 2.902084e+00 2.663826e+00 8.489487e-01 7.355559e-01 -2.304768e-01 -1.034155e+00 -6.679288e-01 -2.001857e-01 -2.704383e-01 -2.170815e-01 -2.873373e-01 -6.724724e-02 9.837487e-02 9.497654e-02 3.124246e-01
<VARIANCE> 25
 1.531613e+02 5.459120e+01 3.808667e+01 7.227500e+01 5.926555e+01 4.375787e+01 4.098830e+01 3.887344e+01 3.351094e+01 3.250970e+01 3.199579e+01 2.957015e+01 3.344374e+00 3.281016e+00 1.719391e+00 3.162553e+00 2.986835e+00 3.010416e+00 2.355562e+00 2.586751e+00 2.539553e+00 2.443573e+00 2.370190e+00 2.528534e+00 1.925593e+00
<GCONST> 1.043423e+02
<STATE> 3
<MEAN> 25
 1.171566e+01 7.672729e+00 -6.679486e+00 -1.201338e+01 -4.563686e+00 1.055007e+00 -2.348988e+00 -2.847038e+00 -2.632987e+00 1.245933e+00 2.740711e+00 8.801645e-01 5.654232e-01 -1.217532e+00 -1.015815e+00 -1.096905e+00 1.811176e-01 6.278765e-01 -1.924480e-01 -2.466323e-01 2.782768e-01 7.092326e-01 1.883691e-01 -5.990144e-01 1.344863e+00
<VARIANCE> 25
 3.046856e+01 5.294769e+01 4.389452e+01 4.519452e+01 4.528286e+01 5.817131e+01 3.809231e+01 3.963520e+01 3.790207e+01 3.751327e+01 4.025846e+01 3.126579e+01 4.191479e+00 5.000779e+00 3.477637e+00 4.374438e+00 6.202407e+00 5.495338e+00 3.631804e+00 3.528385e+00 3.533191e+00 3.799019e+00 4.355652e+00 3.545747e+00 2.351663e+00
<GCONST> 1.085528e+02
<STATE> 4
<MEAN> 25
 1.177388e+01 -1.643696e+00 -8.270300e+00 -1.145447e+01 -2.353353e+00 2.369899e+00 -5.743637e+00 -4.553440e+00 1.694192e+00 2.987785e+00 -3.089929e-01 -4.371348e+00 -5.455403e-01 -1.546110e+00 5.449710e-01 9.116289e-01 3.479462e-01 -5.528690e-01 -1.194556e-01 5.289785e-01 6.799387e-01 -1.712745e-01 -1.015738e+00 -4.964021e-01 6.166108e-01
<VARIANCE> 25
 2.181891e+01 7.093590e+01 3.991280e+01 5.568656e+01 6.532249e+01 8.096632e+01 5.855042e+01 5.069693e+01 6.008117e+01 7.095137e+01 7.994624e+01 5.209675e+01 8.200003e-01 4.147738e+00 2.712774e+00 3.983927e+00 3.735760e+00 5.784238e+00 3.989128e+00 4.939528e+00 5.018686e+00 5.205383e+00 4.900774e+00 4.894823e+00 1.513541e+00
<GCONST> 1.107724e+02
<TRANSP> 5
 0.000000e+00 1.000000e+00 0.000000e+00 0.000000e+00 0.000000e+00
 0.000000e+00 7.160144e-01 2.839856e-01 0.000000e+00 0.000000e+00
 0.000000e+00 0.000000e+00 6.382731e-01 3.617269e-01 0.000000e+00
 0.000000e+00 0.000000e+00 0.000000e+00 7.872576e-01 2.127425e-01
 0.000000e+00 0.000000e+00 0.000000e+00 0.000000e+00 0.000000e+00
<ENDHMM>
~h "y"
<BEGINHMM>
<NUMSTATES> 5
<STATE> 2
<MEAN> 25
 4.187584e-02 1.322538e+00 1.254458e+01 -7.075153e+00 -9.503517e+00 -3.902102e+00 -1.513219e-01 -3.301361e+00 -3.634009e+00 3.870852e+00 -2.601033e-01 -4.982462e-01 -3.130069e-02 -2.179826e-01 1.614360e+00 -1.332750e+00 -1.491848e+00 -3.968861e-01 1.960331e-01 -1.140279e-01 -3.609171e-01 9.982525e-01 -1.058953e-01 -1.592712e-01 1.032020e+00
<VARIANCE> 25
 2.740190e+01 4.951618e+01 6.447208e+01 7.543042e+01 7.405033e+01 6.009848e+01 6.005237e+01 5.604964e+01 6.520706e+01 5.450134e+01 6.778680e+01 4.302486e+01 2.714093e+00 4.104949e+00 7.115030e+00 6.519499e+00 6.096248e+00 4.621013e+00 5.667306e+00 5.077281e+00 5.269132e+00 4.434962e+00 4.763231e+00 3.210538e+00 3.864183e+00
<GCONST> 1.145013e+02
<STATE> 3
<MEAN> 25
 4.038746e-01 -2.238372e+00 1.225563e+01 -9.568048e+00 -1.202980e+01 -4.668216e+00 2.522829e+00 -9.491953e-01 -2.871091e+00 5.357101e+00 -8.842167e-01 -1.233335e+00 1.237692e-01 -1.049862e+00 -1.305046e+00 3.981670e-01 6.045593e-01 -2.788655e-03 7.945260e-01 1.225215e+00 2.993239e-01 -7.346461e-01 -4.425917e-01 -6.878945e-02 4.433304e-01
<VARIANCE> 25
 2.280793e+01 3.304056e+01 3.663676e+01 5.242052e+01 4.336120e+01 4.432165e+01 5.121227e+01 5.997462e+01 6.480395e+01 4.316355e+01 5.121467e+01 3.931010e+01 5.822375e-01 2.609287e+00 3.506533e+00 2.727856e+00 3.404324e+00 2.741983e+00 4.437624e+00 3.859686e+00 4.079637e+00 4.213388e+00 3.259050e+00 2.632349e+00 8.484814e-01
<GCONST> 1.038470e+02
<STATE> 4
<MEAN> 25
 1.557380e+00 -7.730986e+00 3.901167e+00 -6.885814e+00 -4.665210e+00 -3.744475e+00 4.927264e+00 3.499159e+00 -2.166478e+00 -3.028886e-01 -3.908406e+00 -5.608574e-04 2.025868e-01 -3.006945e-01 -1.140960e+00 5.878879e-01 1.359084e+00 2.713749e-01 -3.371580e-01 2.276441e-01 1.491739e-01 -6.416369e-01 -2.929817e-01 2.666719e-01 -2.631515e-01
<VARIANCE> 25
 2.121270e+01 3.722784e+01 3.593226e+01 4.159233e+01 5.238128e+01 4.661700e+01 5.835693e+01 6.346609e+01 4.342119e+01 5.006487e+01 4.436700e+01 3.603580e+01 4.446823e-01 1.390318e+00 1.893837e+00 1.846508e+00 2.781365e+00 1.889828e+00 2.628470e+00 2.682098e+00 2.816103e+00 3.123823e+00 2.670569e+00 2.152257e+00 5.453148e-01
<GCONST> 9.870731e+01
<TRANSP> 5
 0.000000e+00 1.000000e+00 0.000000e+00 0.000000e+00 0.000000e+00
 0.000000e+00 7.536853e-01 2.463147e-01 0.000000e+00 0.000000e+00
 0.000000e+00 0.000000e+00 7.384497e-01 2.615503e-01 0.000000e+00
 0.000000e+00 0.000000e+00 0.000000e+00 7.926938e-01 2.073062e-01
 0.000000e+00 0.000000e+00 0.000000e+00 0.000000e+00 0.000000e+00
<ENDHMM>
~h "z"
<BEGINHMM>
<NUMSTATES> 5
<STATE> 2
<MEAN> 25
 -5.503516e-01 1.400285e+01 1.043758e+01 -1.917048e+00 -1.859738e+01 1.392364e+00 2.443259e+00 -6.885931e+00 2.854964e+00 -3.039917e+00 -7.446767e+00 -6.147398e+00 2.125743e-02 4.535001e-02 -5.865234e-01 8.463349e-01 -7.541832e-01 3.107878e-01 1.613458e-01 -1.896082e-01 -3.320417e-01 1.693703e-01 8.723933e-02 -6.781812e-01 1.561612e-02
<VARIANCE> 25
 1.812094e+01 7.290388e+01 8.819628e+01 1.966062e+02 2.655618e+01 1.914253e+01 2.638810e+01 4.003651e+01 1.131017e+01 2.815522e+01 3.268595e+01 4.809549e+01 1.376685e+00 6.624268e+00 6.407139e+00 1.424268e+01 2.672727e+00 1.856193e+00 2.923228e+00 4.154593e+00 1.909853e+00 4.410775e+00 2.829984e+00 3.568104e+00 1.818711e+00
<GCONST> 1.050755e+02
<STATE> 3
<MEAN> 25
 1.963393e+00 3.313115e+00 1.086950e+01 -1.358932e+01 -1.607950e+01 3.598748e+00 4.311622e+00 -7.680511e+00 2.219810e+00 2.459149e-01 -6.942902e+00 -3.577260e+00 5.153382e-01 -2.071844e-01 -7.604466e-01 -2.602770e-01 1.640630e+00 -3.151035e-01 2.155236e-01 1.167768e-01 -7.268171e-01 -6.003138e-01 -8.823152e-02 8.047637e-01 -1.945622e-01
<VARIANCE> 25
 9.253498e+00 9.973098e+00 2.954651e+01 6.568999e+01 4.186221e+01 2.329686e+01 3.201611e+01 1.517636e+01 3.933173e+01 7.470767e+00 3.692398e+01 1.067961e+01 6.865386e-01 1.240690e+00 1.844485e+00 9.097494e+00 1.980270e+00 8.733118e-01 5.447003e+00 1.482542e+00 5.272057e+00 1.490638e+00 3.821268e+00 1.584773e+00 1.097175e+00
<GCONST> 9.202342e+01
<STATE> 4
<MEAN> 25
 4.222683e+00 5.639265e+00 3.589339e+00 4.611818e-01 -2.353757e+00 -6.648487e-01 -3.203961e+00 -5.970844e+00 -8.764208e+00 -1.111295e+01 -2.917305e+00 -2.087887e+00 -3.020837e-01 4.894190e-01 -4.437370e-02 6.199645e-01 -2.009511e-03 -4.938984e-02 -3.076991e-01 5.969869e-02 -1.056704e-01 9.697089e-02 2.307765e-01 9.664422e-02 -7.922375e-01
<VARIANCE> 25
 3.144944e+01 1.581136e+02 2.553133e+01 2.198412e+02 3.117309e+01 4.365377e+01 6.290856e+01 3.355056e+01 4.577670e+01 4.507020e+01 1.990421e+01 3.859717e+01 9.719423e-01 2.747218e+00 1.975300e+00 6.093939e+00 1.757967e+00 2.609714e+00 3.799095e+00 1.517571e+00 2.799955e+00 2.580138e+00 1.752716e+00 2.030845e+00 1.413355e+00
<GCONST> 1.025766e+02
<TRANSP> 5
 0.000000e+00 1.000000e+00 0.000000e+00 0.000000e+00 0.000000e+00
 0.000000e+00 8.980667e-01 1.019333e-01 0.000000e+00 0.000000e+00
 0.000000e+00 0.000000e+00 8.155773e-01 1.844227e-01 0.000000e+00
 0.000000e+00 0.000000e+00 0.000000e+00 9.501879e-01 4.981202e-02
 0.000000e+00 0.000000e+00 0.000000e+00 0.000000e+00 0.000000e+00
<ENDHMM>
~h "aw"
<BEGINHMM>
<NUMSTATES> 5
<STATE> 2
<MEAN> 25
 -6.932629e+00 -4.787254e-02 4.281547e+00 -2.583834e+00 -1.079676e+01 -1.131472e+00 1.027222e+01 -3.256679e+00 -1.181178e+00 1.116064e+01 -2.566943e+00 -2.289943e+00 -9.043485e-01 5.909872e-01 5.999814e-01 -7.795427e-01 -1.774598e+00 6.341532e-01 3.290089e-01 5.320515e-01 8.922599e-02 6.134036e-01 -2.305693e-01 -7.524827e-01 1.317572e+00
<VARIANCE> 25
 2.784001e+01 2.032280e+01 3.552333e+01 1.856037e+01 7.260021e+01 4.461318e+01 2.724990e+01 3.855207e+01 3.571398e+01 3.095568e+01 2.926734e+01 2.706019e+01 1.730169e+00 1.621718e+00 6.639224e+00 3.861339e+00 9.894841e+00 5.068775e+00 3.521263e+00 4.641894e+00 5.886931e+00 4.934191e+00 3.214707e+00 2.603127e+00 1.479696e+00
<GCONST> 1.043690e+02
<STATE> 3
<MEAN> 25
 -6.342125e+00 6.802152e-01 8.099057e+00 -6.332924e+00 -1.262954e+01 2.179198e+00 6.888793e+00 1.594012e+00 -1.048657e+00 1.108313e+01 -4.065802e+00 -4.630321e+00 9.092462e-01 -2.930217e-01 1.016903e+00 -4.697116e-01 3.108910e-01 1.572857e-01 -7.943076e-01 -3.597994e-01 -7.342143e-01 -3.355127e-01 -1.426862e-01 3.743630e-01 -9.570923e-01
<VARIANCE> 25
 2.630884e+01 1.464064e+01 7.452327e+01 3.910376e+01 3.152212e+01 2.658973e+01 3.370935e+01 2.518450e+01 2.751314e+01 4.018069e+01 2.601699e+01 1.775606e+01 1.338268e+00 1.156472e+00 1.641686e+00 2.797658e+00 2.461721e+00 1.394232e+00 2.305976e+00 3.055576e+00 2.960127e+00 2.966681e+00 2.013962e+00 1.397843e+00 8.237383e-01
<GCONST> 9.465746e+01
<STATE> 4
<MEAN> 25
 1.065683e+00 5.514783e-01 9.298526e+00 -5.288350e+00 -7.252541e+00 6.467278e+00 -6.440141e-01 -5.352844e+00 3.877444e-01 5.576842e+00 -2.172182e+00 -4.674387e-02 2.129351e-01 4.178108e-01 -3.607825e-01 9.344907e-01 3.987114e-01 2.856742e-01 -2.393260e-01 -6.866724e-01 8.654991e-01 -7.591496e-01 3.517977e-01 3.560320e-01 -1.042885e+00
<VARIANCE> 25
 1.200254e+01 1.261285e+01 4.732872e+01 5.212128e+01 4.056270e+01 3.922300e+01 3.800487e+01 4.030235e+01 5.731762e+01 2.862344e+01 3.193428e+01 2.324271e+01 7.190542e-01 7.823815e-01 1.291311e+00 2.123004e+00 2.490878e+00 2.701457e+00 3.171863e+00 2.984969e+00 2.362617e+00 3.598673e+00 2.778795e+00 1.656856e+00 4.458804e-01
<GCONST> 9.494335e+01
<TRANSP> 5
 0.000000e+00 1.000000e+00 0.000000e+00 0.000000e+00 0.000000e+00
 0.000000e+00 8.953128e-01 1.046872e-01 0.000000e+00 0.000000e+00
 0.000000e+00 0.000000e+00 8.534113e-01 1.465888e-01 0.000000e+00
 0.000000e+00 0.000000e+00 0.000000e+00 8.853780e-01 1.146220e-01
 0.000000e+00 0.000000e+00 0.000000e+00 0.000000e+00 0.000000e+00
<ENDHMM>
~h "ay"
<BEGINHMM>
<NUMSTATES> 5
<STATE> 2
<MEAN> 25
 -4.009833e-01 -1.363567e+00 3.709535e+00 -1.963782e+00 1.503903e+00 -4.909256e-01 4.238304e+00 1.319509e+00 8.438491e-01 -3.406240e+00 -4.785844e+00 -2.506395e+00 3.187654e-01 -2.545515e-01 9.529704e-01 -4.939457e-01 -4.778613e-01 -2.747116e-01 2.119829e-02 5.264922e-01 -2.499165e-02 -1.962199e-01 -3.429665e-01 -6.038971e-02 1.528185e-01
<VARIANCE> 25
 3.067028e+01 2.115402e+02 5.788779e+01 1.287377e+02 4.564786e+01 3.686388e+01 7.964410e+01 9.296246e+01 4.680168e+01 5.781942e+01 2.266505e+01 1.877782e+01 4.105291e+00 8.845658e+00 4.038145e+00 1.088717e+01 3.767191e+00 5.109710e+00 4.793336e+00 6.288406e+00 3.561670e+00 5.012644e+00 3.059289e+00 1.716795e+00 3.885093e+00
<GCONST> 1.135726e+02
<STATE> 3
<MEAN> 25
 -6.940630e-01 -4.168242e+00 9.304884e+00 -3.904215e+00 -8.234282e+00 -5.312096e+00 3.955121e+00 3.363036e+00 -7.965283e-01 2.701730e+00 -2.239271e+00 -3.688443e-02 7.179077e-02 1.070620e+00 5.387303e-01 -1.767502e-01 -1.107037e+00 -1.729570e-01 -2.656817e-01 -7.949841e-01 -1.718236e-01 1.103241e+00 6.516765e-01 5.023875e-01 -5.392701e-01
<VARIANCE> 25
 7.376762e+00 1.136707e+02 4.324945e+01 2.117070e+02 1.093471e+02 1.069521e+02 3.630116e+01 1.093178e+02 8.377720e+01 6.215344e+01 4.665056e+01 2.002293e+01 7.970213e-01 4.860752e+00 3.381517e+00 1.188439e+01 3.837606e+00 7.252783e+00 4.687180e+00 5.642894e+00 6.392902e+00 3.289045e+00 3.219464e+00 1.773817e+00 1.357846e+00
<GCONST> 1.115945e+02
<STATE> 4
<MEAN> 25
 -1.114876e+00 4.553739e+00 3.812796e-01 -2.398817e+00 -5.340115e+00 4.448008e+00 2.386118e+00 1.807018e+00 5.338989e+00 4.222155e+00 6.634067e-01 2.188338e+00 1.326516e-01 -2.255875e-01 -4.826263e-01 4.910098e-01 5.594877e-01 -1.009258e-01 -2.014784e-01 -1.434536e-01 1.193954e-01 -4.371640e-02 -3.328609e-02 -7.464661e-02 7.790321e-02
<VARIANCE> 25
 2.025220e+01 1.866306e+02 6.689835e+01 1.059153e+02 9.714397e+01 2.565763e+02 6.929131e+01 5.559448e+01 8.208086e+01 6.086642e+01 8.900048e+01 2.559319e+01 1.979688e+00 1.227711e+01 4.318011e+00 8.048794e+00 6.830082e+00 1.602161e+01 6.673444e+00 6.892656e+00 6.676451e+00 6.887460e+00 5.537752e+00 2.914508e+00 7.886614e+00
<GCONST> 1.216151e+02
<TRANSP> 5
 0.000000e+00 1.000000e+00 0.000000e+00 0.000000e+00 0.000000e+00
 0.000000e+00 8.414271e-01 1.585729e-01 0.000000e+00 0.000000e+00
 0.000000e+00 0.000000e+00 8.301914e-01 1.698086e-01 0.000000e+00
 0.000000e+00 0.000000e+00 0.000000e+00 9.054292e-01 9.457082e-02
 0.000000e+00 0.000000e+00 0.000000e+00 0.000000e+00 0.000000e+00
<ENDHMM>
~h "eu"
<BEGINHMM>
<NUMSTATES> 5
<STATE> 2
<MEAN> 25
 2.311537e+00 -8.814148e-01 -5.353866e-01 -3.343272e-01 -2.974596e+00 -4.945676e+00 -8.362229e-01 9.378022e-01 2.607269e+00 1.014803e+00 -9.005035e-01 -6.549062e-01 1.049010e+00 -7.854649e-01 4.838625e-01 -1.075067e+00 -5.401832e-01 -7.200896e-01 -3.146407e-01 3.669553e-01 -1.121004e-01 -1.012320e-01 -8.343713e-01 -2.724180e-01 1.090137e+00
<VARIANCE> 25
 4.439926e+01 5.993870e+01 5.294210e+01 6.012569e+01 7.432085e+01 7.619532e+01 7.424152e+01 5.534239e+01 5.713242e+01 5.360188e+01 4.924664e+01 3.248984e+01 4.752660e+00 6.259470e+00 4.550419e+00 6.868890e+00 6.626159e+00 6.292456e+00 7.248245e+00 6.149369e+00 5.816516e+00 5.611750e+00 4.827203e+00 3.592279e+00 5.409198e+00
<GCONST> 1.166556e+02
<STATE> 3
<MEAN> 25
 3.982503e+00 -2.603510e+00 2.482672e-01 -2.025011e+00 -3.633644e+00 -6.288716e+00 -1.240762e+00 1.786252e+00 2.168107e+00 4.842108e-01 -2.341488e+00 -1.115387e+00 4.637403e-01 -1.328112e-01 2.271490e-01 -1.604887e-01 1.305001e-02 3.349653e-01 -1.088694e-01 1.709391e-01 -3.077944e-01 -3.128265e-01 -2.325251e-01 -2.086552e-01 -1.336528e-01
<VARIANCE> 25
 3.128838e+01 5.654990e+01 5.050809e+01 5.414441e+01 6.386933e+01 5.024142e+01 6.776881e+01 5.247483e+01 5.595105e+01 5.630525e+01 4.738961e+01 3.136325e+01 2.800917e+00 4.223785e+00 3.299256e+00 4.865317e+00 4.691381e+00 4.494209e+00 5.686241e+00 4.967979e+00 4.557915e+00 4.750253e+00 4.198913e+00 2.881612e+00 3.321541e+00
<GCONST> 1.113533e+02
<STATE> 4
<MEAN> 25
 3.792448e+00 -1.448761e+00 7.883609e-01 -1.020843e+00 -3.605077e+00 -5.126328e+00 -8.370064e-01 2.013750e+00 1.304748e+00 3.041450e-01 -1.606087e+00 -1.417546e+00 -7.764772e-02 4.977596e-01 -2.056290e-02 4.995261e-01 3.426812e-01 7.617487e-01 4.138829e-02 -1.318413e-01 -1.726404e-01 -2.549463e-01 2.468642e-01 -8.615866e-02 -7.440188e-01
<VARIANCE> 25
 2.772035e+01 5.894603e+01 4.835701e+01 5.328826e+01 5.674534e+01 4.756483e+01 6.383092e+01 4.872076e+01 5.847505e+01 5.709624e+01 4.688353e+01 2.980747e+01 1.506933e+00 2.736609e+00 2.306272e+00 3.060835e+00 3.142965e+00 3.175893e+00 3.845227e+00 3.540080e+00 3.404495e+00 3.734128e+00 3.166274e+00 2.275026e+00 1.704237e+00
<GCONST> 1.058320e+02
<TRANSP> 5
 0.000000e+00 1.000000e+00 0.000000e+00 0.000000e+00 0.000000e+00
 0.000000e+00 3.494176e-01 6.505824e-01 0.000000e+00 0.000000e+00
 0.000000e+00 0.000000e+00 2.783093e-01 7.216907e-01 0.000000e+00
 0.000000e+00 0.000000e+00 0.000000e+00 5.663531e-01 4.336469e-01
 0.000000e+00 0.000000e+00 0.000000e+00 0.000000e+00 0.000000e+00
<ENDHMM>
~h "kh"
<BEGINHMM>
<NUMSTATES> 5
<STATE> 2
<MEAN> 25
 -1.287605e+01 -6.277817e+00 2.959613e+00 1.024979e+01 8.744872e+00 -3.531125e+00 1.830871e-01 3.911349e+00 -3.578403e+00 1.488929e+00 -4.259089e-01 6.377804e-01 -7.841977e-01 -8.929271e-01 -5.479477e-03 3.311131e-01 1.500785e+00 -1.096525e+00 1.863552e-01 5.029404e-01 1.498269e-01 1.431055e+00 1.837645e-01 5.011836e-01 1.582718e+00
<VARIANCE> 25
 8.754939e+01 2.386890e+01 4.311329e+01 4.674557e+01 2.909838e+01 4.394732e+01 2.614327e+01 3.379890e+01 7.749013e+01 3.968184e+01 2.765843e+01 2.077498e+01 1.074424e+01 6.056931e+00 1.204303e+00 5.155569e+00 3.716679e+00 4.166614e+00 3.010537e+00 5.284356e+00 9.760245e+00 2.133249e+00 2.216685e+00 2.020322e+00 2.174564e+01
<GCONST> 1.086457e+02
<STATE> 3
<MEAN> 25
 -1.591947e+01 -1.326987e+01 1.739800e+00 1.416502e+01 1.502621e+01 1.381228e+00 6.473261e+00 2.804865e+00 1.235998e+00 5.494237e+00 2.729545e+00 2.589335e+00 -2.139041e-01 -8.532794e-01 3.437996e-02 1.936837e-01 6.661328e-01 1.354244e+00 7.909861e-01 -5.723773e-01 6.556479e-01 -1.073724e-01 4.639524e-01 3.178688e-01 -6.611212e-02
<VARIANCE> 25
 1.248071e+02 3.281213e+01 1.678435e+01 8.692317e+01 3.077502e+01 5.634814e+01 2.936849e+01 4.025418e+01 5.340767e+01 1.318187e+01 2.458568e+01 1.177850e+01 1.875355e+00 9.923041e-01 9.943163e-01 2.448119e+00 1.545904e+00 1.964267e+00 1.910440e+00 2.627530e+00 2.773120e+00 2.301000e+00 2.863391e+00 2.253185e+00 7.635285e-01
<GCONST> 9.599124e+01
<STATE> 4
<MEAN> 25
 -6.952565e+00 -1.293369e+01 1.704273e+00 1.828344e+00 8.698481e+00 8.114431e+00 7.037611e+00 -4.511919e+00 5.470231e+00 9.744713e-01 2.575567e+00 4.253262e+00 2.222241e+00 6.909108e-01 -1.846998e-01 -1.906738e+00 -2.223868e+00 -2.997466e-01 -1.386550e+00 -5.647583e-01 -8.459786e-02 -1.269472e+00 -5.397984e-01 -1.001032e+00 4.520530e-01
<VARIANCE> 25
 6.577928e+01 3.786917e+01 1.547441e+01 9.618110e+01 6.309941e+01 5.185760e+01 3.674306e+01 2.743688e+01 8.785237e+01 4.459048e+01 2.649561e+01 3.093571e+01 9.231986e+00 2.221259e+00 2.393064e+00 3.233407e+00 4.263683e+00 2.966365e+00 3.895869e+00 1.982887e+00 5.681312e+00 4.605834e+00 5.461789e+00 4.841003e+00 1.307363e+00
<GCONST> 1.075201e+02
<TRANSP> 5
 0.000000e+00 1.000000e+00 0.000000e+00 0.000000e+00 0.000000e+00
 0.000000e+00 7.856238e-01 2.143761e-01 0.000000e+00 0.000000e+00
 0.000000e+00 0.000000e+00 8.513694e-01 1.486306e-01 0.000000e+00
 0.000000e+00 0.000000e+00 0.000000e+00 8.209788e-01 1.790212e-01
 0.000000e+00 0.000000e+00 0.000000e+00 0.000000e+00 0.000000e+00
<ENDHMM>
~h "ng"
<BEGINHMM>
<NUMSTATES> 5
<STATE> 2
<MEAN> 25
 6.639972e+00 4.679559e-01 -1.787253e+00 -2.654301e+00 1.200392e+00 -1.774284e-01 -3.457720e+00 -2.581678e+00 -2.123307e+00 -1.155030e+00 -3.694639e+00 -3.287700e+00 1.708463e-01 9.738322e-01 1.619664e-01 6.463181e-01 -2.651500e-01 -4.584834e-02 4.406184e-02 -6.958736e-01 -3.366767e-01 -3.336636e-01 1.321955e-01 -1.608075e-01 -7.617788e-01
<VARIANCE> 25
 1.819662e+01 3.262720e+01 3.667199e+01 3.473808e+01 4.723122e+01 4.065249e+01 4.268793e+01 4.608896e+01 4.673689e+01 5.025826e+01 3.795142e+01 3.271429e+01 4.786241e-01 1.490243e+00 1.986671e+00 1.915266e+00 2.508131e+00 2.649689e+00 2.544206e+00 3.023506e+00 2.714998e+00 2.759596e+00 2.809866e+00 1.838005e+00 6.556581e-01
<GCONST> 9.767979e+01
<STATE> 3
<MEAN> 25
 6.381203e+00 3.882044e+00 -6.381847e-01 -8.388948e-01 -8.161020e-02 -3.374256e-01 -2.778834e+00 -4.042274e+00 -3.196238e+00 -2.148272e+00 -2.839436e+00 -3.443769e+00 -1.090839e-01 5.370967e-01 1.882618e-01 4.361766e-01 -4.357526e-02 2.543832e-02 1.865498e-01 -6.081235e-02 -1.188025e-01 -1.770320e-01 1.119996e-01 7.579148e-03 -4.231173e-01
<VARIANCE> 25
 1.817497e+01 3.098098e+01 2.952429e+01 3.519842e+01 4.088914e+01 3.652124e+01 3.903827e+01 4.402993e+01 4.443222e+01 4.512933e+01 3.210748e+01 2.960030e+01 4.521435e-01 1.202915e+00 1.445197e+00 1.634940e+00 1.947100e+00 2.086469e+00 2.015394e+00 2.530728e+00 2.244456e+00 2.250005e+00 2.184198e+00 1.716329e+00 6.166337e-01
<GCONST> 9.418444e+01
<STATE> 4
<MEAN> 25
 4.704560e+00 5.478064e+00 2.718740e-01 1.871048e+00 6.470538e-01 7.657520e-01 -1.926319e+00 -2.820758e+00 -2.517802e+00 -2.624022e+00 -2.229600e+00 -2.694246e+00 -6.998652e-01 -1.668878e-01 1.258223e-01 3.548957e-01 2.874274e-01 3.312808e-02 4.629523e-01 5.661053e-01 3.185241e-01 1.766625e-01 2.819123e-01 3.714759e-01 -2.055908e-01
<VARIANCE> 25
 3.554211e+01 5.102193e+01 3.425869e+01 5.978376e+01 4.491845e+01 4.447804e+01 4.553973e+01 5.187722e+01 5.129879e+01 4.278121e+01 4.180360e+01 3.223449e+01 1.129558e+00 2.821631e+00 2.237086e+00 2.787838e+00 2.914031e+00 3.217065e+00 3.364697e+00 3.434712e+00 3.555140e+00 3.195291e+00 3.341824e+00 2.402905e+00 1.377442e+00
<GCONST> 1.038500e+02
<TRANSP> 5
 0.000000e+00 1.000000e+00 0.000000e+00 0.000000e+00 0.000000e+00
 0.000000e+00 6.182850e-01 3.817150e-01 0.000000e+00 0.000000e+00
 0.000000e+00 0.000000e+00 6.295059e-01 3.704941e-01 0.000000e+00
 0.000000e+00 0.000000e+00 0.000000e+00 5.898610e-01 4.101390e-01
 0.000000e+00 0.000000e+00 0.000000e+00 0.000000e+00 0.000000e+00
<ENDHMM>
~h "ny"
<BEGINHMM>
<NUMSTATES> 5
<STATE> 2
<MEAN> 25
 2.781422e+00 4.289064e+00 7.679766e+00 -7.127331e+00 -3.748585e+00 -1.518128e+00 5.470050e-01 -4.214862e+00 -5.048926e+00 3.215365e+00 -1.675108e+00 -4.001290e+00 -8.822026e-01 -1.154452e+00 1.564665e+00 -1.899858e+00 -9.092174e-01 4.175801e-01 9.021827e-01 4.962235e-01 -8.082393e-01 5.625333e-01 -2.268113e-01 -5.282726e-01 1.210193e+00
<VARIANCE> 25
 2.554796e+01 4.846316e+01 5.204774e+01 8.553010e+01 5.656032e+01 4.387902e+01 4.666637e+01 5.036007e+01 3.513735e+01 4.661024e+01 4.538607e+01 3.417083e+01 2.073446e+00 4.832013e+00 4.911706e+00 7.838418e+00 4.562948e+00 4.115037e+00 4.809813e+00 4.498338e+00 3.352280e+00 4.831230e+00 3.522104e+00 2.623672e+00 2.055135e+00
<GCONST> 1.094868e+02
<STATE> 3
<MEAN> 25
 3.967901e-01 -4.850655e+00 9.857092e+00 -9.776794e+00 -5.766231e+00 -5.218943e-01 3.499327e+00 1.750965e-01 -7.708851e+00 1.586743e+00 -2.508605e+00 -5.396427e+00 1.150603e-01 -1.181527e+00 -8.043848e-01 8.304808e-01 3.949268e-01 -4.148606e-01 -1.373877e-02 1.013580e+00 -5.072606e-02 -1.016579e+00 -1.148222e-01 3.909953e-01 3.362994e-01
<VARIANCE> 25
 1.600924e+01 3.398221e+01 2.522843e+01 4.065327e+01 5.332269e+01 3.828585e+01 4.865264e+01 6.874377e+01 3.293057e+01 3.810925e+01 3.549915e+01 3.523616e+01 5.434219e-01 2.631719e+00 1.843894e+00 2.550696e+00 2.083299e+00 2.222025e+00 2.734541e+00 2.791877e+00 2.358389e+00 2.665516e+00 2.852317e+00 1.945092e+00 7.257031e-01
<GCONST> 9.788420e+01
<STATE> 4
<MEAN> 25
 4.940156e-01 -5.678173e+00 4.830900e+00 -2.153079e+00 -9.812682e-01 -2.215255e+00 9.230267e-01 3.882097e+00 -8.677363e+00 -4.756236e+00 -1.745068e+00 -2.727917e+00 1.319281e-01 4.156744e-01 -8.173987e-01 9.994692e-01 4.902316e-01 -2.765922e-02 -3.898932e-01 1.703022e-01 3.824517e-01 -4.468980e-01 2.646003e-02 4.038667e-01 -7.930838e-01
<VARIANCE> 25
 1.678566e+01 6.913653e+01 2.842843e+01 8.855283e+01 5.823059e+01 5.825295e+01 5.606393e+01 6.816659e+01 4.393538e+01 5.164955e+01 4.521671e+01 3.403569e+01 5.588559e-01 2.263222e+00 1.741811e+00 2.839052e+00 2.604243e+00 2.874965e+00 3.155114e+00 3.300534e+00 2.875238e+00 2.772657e+00 2.636696e+00 1.976691e+00 9.354888e-01
<GCONST> 1.021281e+02
<TRANSP> 5
 0.000000e+00 1.000000e+00 0.000000e+00 0.000000e+00 0.000000e+00
 0.000000e+00 7.979158e-01 2.020841e-01 0.000000e+00 0.000000e+00
 0.000000e+00 0.000000e+00 7.371110e-01 2.628890e-01 0.000000e+00
 0.000000e+00 0.000000e+00 0.000000e+00 8.014466e-01 1.985535e-01
 0.000000e+00 0.000000e+00 0.000000e+00 0.000000e+00 0.000000e+00
<ENDHMM>
~h "sy"
<BEGINHMM>
<NUMSTATES> 5
<STATE> 2
<MEAN> 25
 -1.875529e+01 1.629927e+00 8.242370e+00 1.680233e+00 -2.128445e-01 5.135160e+00 3.500935e+00 3.742960e+00 4.164814e+00 -2.444984e+00 1.279309e+00 5.155581e-02 -1.740569e+00 -2.942917e-01 1.190168e-01 7.097010e-01 -5.495721e-01 1.104581e+00 4.491273e-01 -4.426337e-01 5.694914e-01 5.719122e-01 3.654002e-01 -1.045589e-01 -1.720315e-01
<VARIANCE> 25
 1.024370e+02 6.667306e+01 3.776908e+01 5.186290e+01 2.585828e+01 4.138683e+01 4.974240e+01 2.897264e+01 4.280011e+01 3.722916e+01 2.593664e+01 2.277035e+01 6.798968e+00 2.697732e+00 1.215443e+00 1.844230e+00 3.765143e+00 2.130093e+00 2.743180e+00 1.354608e+00 1.534371e+00 3.023439e+00 3.317712e+00 1.721957e+00 8.195601e-01
<GCONST> 1.005488e+02
<STATE> 3
<MEAN> 25
 -7.711206e+00 -3.122377e+00 9.153866e+00 6.732199e+00 -9.189430e+00 1.611481e-01 8.843794e-01 2.417430e+00 1.494337e+00 -3.154612e+00 3.167163e+00 2.647653e-01 2.686143e+00 7.790595e-01 -1.201242e+00 -2.987555e-01 -7.454848e-01 -1.648495e+00 -1.401119e+00 -4.933738e-01 3.172077e-01 -1.081239e+00 -1.264560e+00 1.354803e-01 -6.046954e-01
<VARIANCE> 25
 1.063709e+02 4.126538e+01 6.591418e+01 1.591409e+01 6.244949e+01 8.909078e+01 4.212476e+01 4.134032e+01 9.911324e+01 4.334127e+01 7.162100e+01 1.992837e+01 1.623566e+01 3.438859e+00 1.119635e+00 4.925184e+00 5.433594e+00 7.872349e+00 3.142262e+00 9.246384e-01 9.408391e+00 5.064992e+00 3.230905e+00 3.269424e+00 1.438527e+00
<GCONST> 1.101420e+02
<STATE> 4
<MEAN> 25
 -1.096110e+01 8.593184e+00 5.003346e+00 9.322618e+00 -6.179075e+00 8.434795e+00 4.271811e+00 6.020578e+00 4.184166e+00 -9.335120e-01 2.822397e+00 9.316347e-01 4.196991e-01 7.628601e-02 -4.589152e-02 -1.595302e-01 -1.168244e-01 -5.009043e-02 -1.408311e-01 -1.227616e-01 6.371433e-02 1.455157e-01 -2.176429e-01 -2.043228e-01 3.467938e-01
<VARIANCE> 25
 9.684137e+01 1.461735e+02 1.166276e+02 1.190189e+02 5.954354e+01 9.691135e+01 1.584632e+02 1.025990e+02 1.155693e+02 8.238366e+01 5.497065e+01 5.442920e+01 7.053302e+00 5.765105e+00 6.709999e+00 9.704961e+00 5.787499e+00 1.203303e+01 8.343510e+00 8.383511e+00 9.889346e+00 9.168409e+00 4.780639e+00 5.833572e+00 3.152066e+00
<GCONST> 1.259210e+02
<TRANSP> 5
 0.000000e+00 1.000000e+00 0.000000e+00 0.000000e+00 0.000000e+00
 0.000000e+00 8.477642e-01 1.522359e-01 0.000000e+00 0.000000e+00
 0.000000e+00 0.000000e+00 6.943808e-01 3.056193e-01 0.000000e+00
 0.000000e+00 0.000000e+00 0.000000e+00 9.545836e-01 4.541634e-02
 0.000000e+00 0.000000e+00 0.000000e+00 0.000000e+00 0.000000e+00
<ENDHMM>
~h "sil"
<BEGINHMM>
<NUMSTATES> 5
<STATE> 2
<MEAN> 25
 -8.941100e+00 4.766924e-01 -4.241698e-01 5.188672e+00 5.905737e+00 5.388927e+00 3.712682e+00 2.160538e+00 2.202458e+00 1.809207e+00 4.008861e+00 3.349918e+00 -1.250229e-01 -6.799649e-03 1.129290e-02 4.480699e-02 4.425338e-02 6.661900e-02 4.872484e-02 1.571885e-02 2.988765e-02 6.602082e-02 8.309875e-02 3.770593e-02 -1.131003e-01
<VARIANCE> 25
 3.934943e+01 1.626462e+01 1.644313e+01 2.030794e+01 2.236421e+01 1.957847e+01 1.847139e+01 2.279393e+01 2.231012e+01 2.536141e+01 2.085958e+01 1.963968e+01 2.232609e-01 3.422949e-01 5.351447e-01 7.236605e-01 9.392385e-01 1.149711e+00 1.283018e+00 1.408639e+00 1.492993e+00 1.491226e+00 1.347612e+00 1.249570e+00 1.212029e-01
<GCONST> 7.905730e+01
<STATE> 3
<MEAN> 25
 -7.722540e+00 1.101111e+00 -2.094826e+00 7.785223e+00 4.812223e+00 6.136875e+00 4.236677e+00 2.601723e+00 4.682083e+00 9.584097e-01 5.190462e+00 3.168704e+00 -6.030855e-02 1.216201e-02 2.403301e-02 -1.965696e-02 -5.379416e-02 -9.574664e-02 -3.923052e-02 -5.009681e-02 -4.041094e-02 -7.809283e-02 -1.116990e-01 -7.747206e-02 9.426437e-03
<VARIANCE> 25
 3.011920e+01 2.549949e+01 2.332808e+01 3.146257e+01 3.028410e+01 2.764912e+01 2.585040e+01 3.537762e+01 3.034089e+01 3.469452e+01 2.352891e+01 2.213167e+01 6.620030e-01 9.502251e-01 1.273974e+00 1.452562e+00 1.619073e+00 1.890177e+00 1.950884e+00 2.082230e+00 2.111369e+00 2.021410e+00 1.914697e+00 1.567613e+00 8.794151e-01
<GCONST> 9.104607e+01
<STATE> 4
<MEAN> 25
 -5.824606e+00 6.791356e-01 -1.241429e+00 5.225759e+00 3.667938e+00 3.972633e+00 2.509988e+00 1.770139e+00 2.285221e+00 5.677154e-01 3.207591e+00 2.366705e+00 3.668327e-01 2.183665e-02 1.395580e-01 -2.213616e-01 -5.945480e-02 -3.536875e-01 -1.694710e-01 -2.198660e-01 -1.635662e-01 -2.724864e-02 -2.088652e-01 -1.217636e-01 7.733879e-01
<VARIANCE> 25
 7.383323e+01 6.199416e+01 4.298975e+01 6.062079e+01 5.824269e+01 5.998925e+01 4.209519e+01 5.012298e+01 4.835172e+01 4.465208e+01 4.204861e+01 3.368760e+01 3.226006e+00 3.423684e+00 2.848921e+00 3.360833e+00 3.424688e+00 3.735558e+00 3.281443e+00 3.785187e+00 3.412374e+00 3.013415e+00 2.922993e+00 2.520121e+00 4.383757e+00
<GCONST> 1.085226e+02
<TRANSP> 5
 0.000000e+00 1.000000e+00 0.000000e+00 0.000000e+00 0.000000e+00
 0.000000e+00 9.244505e-01 7.554958e-02 0.000000e+00 0.000000e+00
 0.000000e+00 0.000000e+00 5.292703e-01 4.707297e-01 0.000000e+00
 0.000000e+00 0.000000e+00 0.000000e+00 6.669740e-01 3.330261e-01
 0.000000e+00 0.000000e+00 0.000000e+00 0.000000e+00 0.000000e+00
<ENDHMM>
