~o
<STREAMINFO> 1 39
<VECSIZE> 39<NULLD><MFCC_D_A_0><DIAGC>
~s "silst"
<MEAN> 39
 -1.218522e+01 -8.916343e-01 -4.117389e+00 -5.422245e-01 -1.783742e+00 -3.737846e-02 -1.704751e+00 -4.576827e-01 -2.126226e+00 -2.172133e+00 -1.828619e+00 -1.168885e+00 5.143804e+01 -3.691556e-01 -6.115810e-02 5.812959e-02 1.419856e-01 1.503034e-01 1.507057e-01 1.441201e-01 8.948214e-02 5.862510e-02 1.184762e-01 1.802359e-01 1.118389e-01 -2.588002e-01 1.085398e-01 -1.698598e-02 1.797356e-02 -3.916455e-02 -5.081782e-02 -9.950886e-02 -7.576163e-02 -6.955329e-02 -5.476857e-02 -4.276912e-02 -1.039337e-01 -4.988974e-02 1.658991e-01
<VARIANCE> 39
 2.654872e+01 2.228379e+01 1.765261e+01 1.648640e+01 2.015494e+01 2.095183e+01 2.023181e+01 2.491231e+01 2.897836e+01 3.027125e+01 1.914432e+01 1.895257e+01 1.191360e+02 5.072700e-01 6.975496e-01 8.966929e-01 1.036027e+00 1.356305e+00 1.579733e+00 1.625605e+00 1.795895e+00 1.778019e+00 1.802619e+00 1.672011e+00 1.414055e+00 3.163238e-01 1.004756e-01 1.610235e-01 1.879320e-01 2.180318e-01 2.747582e-01 3.280619e-01 3.259049e-01 3.542543e-01 3.605233e-01 3.592083e-01 3.277818e-01 2.816693e-01 8.586594e-02
<GCONST> 9.628223e+01
~h "a"
<BEGINHMM>
<NUMSTATES> 5
<STATE> 2
<MEAN> 39
 -1.427668e+00 -1.418329e+01 -6.567410e+00 -1.430108e+01 -6.737809e+00 -5.484494e+00 -2.968485e+00 2.000618e+00 -7.418293e+00 -7.173403e+00 -9.112798e+00 -5.387345e+00 7.747152e+01 2.651073e-01 -1.008530e+00 -6.110096e-02 -3.319325e-01 6.565834e-01 3.253720e-01 -4.277700e-02 4.928565e-01 -3.925391e-01 -3.432983e-01 -5.332372e-01 9.199654e-02 4.521287e-01 -4.608155e-02 4.070456e-01 1.516863e-01 3.242472e-01 9.500448e-03 -1.304875e-02 -1.550747e-01 -2.836382e-01 3.072284e-02 6.853569e-02 2.488398e-01 6.928583e-02 -5.023149e-01
<VARIANCE> 39
 4.560165e+01 4.895729e+01 5.048025e+01 7.605437e+01 8.692295e+01 6.920569e+01 8.735638e+01 7.558563e+01 7.177065e+01 9.182548e+01 5.332612e+01 5.166248e+01 7.712599e+01 3.196146e+00 3.225789e+00 3.295902e+00 3.484867e+00 4.144531e+00 4.172616e+00 6.302169e+00 4.705414e+00 4.351735e+00 4.470911e+00 3.948313e+00 3.097175e+00 3.365086e+00 6.122183e-01 6.043953e-01 5.124897e-01 7.443684e-01 7.039205e-01 7.390802e-01 1.105217e+00 9.143019e-01 8.574944e-01 8.885616e-01 7.969278e-01 6.217134e-01 4.718340e-01
<GCONST> 1.395719e+02
<STATE> 3
<MEAN> 39
 1.553820e-01 -1.463923e+01 -4.435135e+00 -1.374901e+01 -4.480915e+00 -7.022319e+00 -4.801326e+00 2.335006e+00 -7.544955e+00 -5.489413e+00 -1.138658e+01 -4.502200e+00 7.544125e+01 1.716837e-01 5.102946e-01 -1.627407e-02 4.397730e-01 2.415607e-02 1.418157e-02 -2.281489e-01 -3.732964e-01 6.517177e-02 -2.471747e-01 2.126622e-01 5.044422e-02 -6.470750e-01 -3.739586e-02 4.734139e-01 -1.236683e-02 3.084891e-01 -1.527260e-01 -1.803663e-02 -6.586114e-02 -2.393191e-01 1.140413e-01 -1.064310e-02 2.433923e-01 -4.220681e-02 -3.231631e-01
<VARIANCE> 39
 2.853762e+01 4.772078e+01 4.063564e+01 6.118277e+01 8.790796e+01 6.531832e+01 7.307778e+01 9.626970e+01 7.611112e+01 1.155269e+02 5.968143e+01 5.051197e+01 4.136382e+01 6.582251e-01 1.757472e+00 1.540411e+00 2.042029e+00 2.660564e+00 2.427325e+00 2.791532e+00 2.638329e+00 2.716288e+00 2.898803e+00 2.688826e+00 1.986378e+00 1.002369e+00 1.455108e-01 2.350994e-01 2.538239e-01 3.561724e-01 4.503848e-01 4.535147e-01 5.324341e-01 5.363465e-01 5.428625e-01 5.561556e-01 5.225849e-01 3.930961e-01 1.376597e-01
<GCONST> 1.205534e+02
<STATE> 4
<MEAN> 39
 -7.402615e-01 -7.258691e+00 -7.351250e+00 -5.299959e+00 -3.936773e+00 -4.405919e+00 -4.674654e+00 -1.409866e+00 -5.063335e+00 -9.162936e+00 -8.384024e+00 -4.739612e+00 6.676542e+01 -3.112260e-01 1.146671e+00 -2.925401e-02 7.591112e-01 8.900303e-02 3.235984e-01 3.517062e-02 -3.223014e-01 1.172788e-01 6.383424e-02 5.011209e-01 -1.692232e-02 -1.235594e+00 -1.208272e-01 1.127766e-02 7.141131e-02 -5.366847e-02 -2.449206e-02 -8.518982e-03 6.410059e-02 1.265231e-02 -2.941851e-02 8.522719e-02 2.352601e-02 1.599820e-02 1.437523e-02
<VARIANCE> 39
 3.871237e+01 5.298748e+01 5.225721e+01 5.706818e+01 8.085235e+01 5.527075e+01 5.377475e+01 6.789072e+01 7.291542e+01 9.190176e+01 4.870319e+01 4.654698e+01 8.641713e+01 9.669141e-01 1.660051e+00 1.737025e+00 2.611287e+00 2.563080e+00 2.532159e+00 2.852029e+00 3.130809e+00 2.955383e+00 3.130181e+00 2.779382e+00 2.268780e+00 1.080693e+00 1.312211e-01 2.326727e-01 2.762385e-01 3.728792e-01 4.141315e-01 4.284905e-01 4.944968e-01 5.209228e-01 5.181702e-01 5.335581e-01 4.621032e-01 4.073601e-01 1.150890e-01
<GCONST> 1.211304e+02
<TRANSP> 5
 0.000000e+00 1.000000e+00 0.000000e+00 0.000000e+00 0.000000e+00
 0.000000e+00 6.122135e-01 3.877865e-01 0.000000e+00 0.000000e+00
 0.000000e+00 0.000000e+00 7.016143e-01 2.983857e-01 0.000000e+00
 0.000000e+00 0.000000e+00 0.000000e+00 7.217818e-01 2.782181e-01
 0.000000e+00 0.000000e+00 0.000000e+00 0.000000e+00 0.000000e+00
<ENDHMM>
~h "b"
<BEGINHMM>
<NUMSTATES> 5
<STATE> 2
<MEAN> 39
 2.627642e+00 7.657142e+00 -1.280456e+00 -2.324996e+00 -5.795758e+00 -4.238553e+00 -8.012776e+00 -6.225323e+00 -7.113869e+00 -7.217045e+00 -6.624393e+00 -7.221542e+00 5.902087e+01 1.798272e-01 4.543014e-01 3.124893e-01 4.092842e-01 -6.381675e-02 -1.483290e-01 5.698152e-02 -6.236893e-02 8.042900e-02 -7.758176e-02 3.146714e-02 -3.022600e-02 5.097492e-02 -1.110807e-01 -9.000401e-01 -1.680189e-01 -5.052124e-01 -3.790729e-01 -3.812066e-01 -1.529343e-01 1.202755e-01 2.018677e-01 6.203736e-01 2.235136e-01 1.717016e-01 6.881565e-01
<VARIANCE> 39
 4.000838e+01 6.979531e+01 4.184882e+01 4.182780e+01 4.402252e+01 3.252446e+01 3.248793e+01 4.190620e+01 4.400138e+01 7.035181e+01 3.654565e+01 2.850280e+01 6.558099e+01 2.097910e+00 3.654253e+00 2.091236e+00 2.819831e+00 2.084229e+00 2.641106e+00 2.826175e+00 2.667450e+00 2.820006e+00 3.013918e+00 2.660016e+00 2.288306e+00 2.200899e+00 3.290599e-01 5.544638e-01 6.409605e-01 6.515478e-01 5.316799e-01 6.168080e-01 6.806085e-01 6.788866e-01 7.137151e-01 7.017033e-01 6.181464e-01 4.900192e-01 3.393795e-01
<GCONST> 1.255760e+02
<STATE> 3
<MEAN> 39
 3.092029e+00 4.515439e+00 -2.362732e+00 -3.040832e+00 -6.220325e+00 -4.541172e+00 -8.728396e+00 -7.136049e+00 -6.910521e+00 -6.747700e+00 -5.632349e+00 -6.616912e+00 6.155397e+01 4.339252e-02 -2.838561e+00 -6.048615e-01 -1.604671e+00 -1.232690e+00 -1.449946e+00 -7.154230e-01 2.570579e-01 8.824641e-01 2.309351e+00 6.586155e-01 4.399703e-02 2.752604e+00 -1.183553e-01 -7.163215e-01 -4.212056e-02 -7.872899e-01 -3.105619e-01 -2.754085e-01 3.177151e-03 4.593768e-01 2.047171e-01 4.297482e-01 -1.770519e-01 -1.202522e-02 6.440431e-01
<VARIANCE> 39
 4.335071e+01 8.966362e+01 4.249101e+01 5.270539e+01 4.835875e+01 3.794770e+01 3.720976e+01 4.711099e+01 4.812168e+01 7.986968e+01 4.306966e+01 3.172380e+01 8.309267e+01 2.912895e+00 5.076087e+00 7.176779e+00 6.270157e+00 4.830881e+00 5.088218e+00 6.767813e+00 5.649399e+00 5.373217e+00 5.479855e+00 4.898218e+00 3.668120e+00 2.906038e+00 4.787882e-01 8.726579e-01 8.073635e-01 9.633822e-01 6.590528e-01 7.312298e-01 9.646060e-01 9.588963e-01 8.601750e-01 9.629080e-01 8.164105e-01 8.110605e-01 5.049090e-01
<GCONST> 1.400023e+02
<STATE> 4
<MEAN> 39
 3.355142e+00 -4.239792e+00 -5.203411e+00 -8.793249e+00 -9.372079e+00 -8.929195e+00 -1.148417e+01 -4.421228e+00 -2.566634e+00 7.380018e-01 -4.997282e+00 -7.948492e+00 7.005167e+01 -3.205947e-01 -2.791712e+00 -1.191232e-01 -1.975735e+00 -1.018237e+00 -1.245245e+00 1.020202e-01 1.685212e+00 9.262862e-01 1.310090e+00 -6.966417e-01 3.158971e-02 2.527514e+00 -1.616552e-01 6.382326e-01 4.215577e-01 1.930890e-01 2.101486e-01 3.888527e-01 4.943583e-01 1.081522e-01 -4.132861e-01 -8.071364e-01 -3.008463e-01 2.613480e-01 -5.588662e-01
<VARIANCE> 39
 4.969576e+01 5.652090e+01 5.885756e+01 1.029118e+02 5.660023e+01 5.869418e+01 5.695265e+01 5.705743e+01 6.778671e+01 1.041483e+02 5.816864e+01 4.190775e+01 6.589141e+01 2.974570e+00 5.052462e+00 6.818965e+00 7.109516e+00 5.833138e+00 4.968530e+00 7.801107e+00 6.791302e+00 6.622293e+00 7.790859e+00 6.370981e+00 5.239735e+00 3.047629e+00 3.365575e-01 6.937180e-01 7.298569e-01 1.264794e+00 6.947204e-01 7.021753e-01 1.067449e+00 1.036119e+00 9.176114e-01 1.091702e+00 9.622089e-01 7.132004e-01 4.099204e-01
<GCONST> 1.444455e+02
<TRANSP> 5
 0.000000e+00 1.000000e+00 0.000000e+00 0.000000e+00 0.000000e+00
 0.000000e+00 6.245599e-01 3.754401e-01 0.000000e+00 0.000000e+00
 0.000000e+00 0.000000e+00 3.491945e-01 6.508055e-01 0.000000e+00
 0.000000e+00 0.000000e+00 0.000000e+00 3.884994e-01 6.115006e-01
 0.000000e+00 0.000000e+00 0.000000e+00 0.000000e+00 0.000000e+00
<ENDHMM>
~h "c"
<BEGINHMM>
<NUMSTATES> 5
<STATE> 2
<MEAN> 39
 -1.201917e+01 2.610588e+00 -7.487726e-01 -4.292757e+00 -5.724663e+00 -5.550706e+00 -5.182834e+00 -2.954388e+00 -3.180954e+00 -3.815097e+00 -2.085355e+00 -2.391670e+00 5.935888e+01 -2.972748e+00 1.485074e-01 -1.612733e-01 -5.984278e-01 1.462302e-01 3.835893e-01 6.982883e-01 -1.528588e-02 5.504680e-01 4.226557e-01 6.993179e-01 1.408400e-01 9.341463e-01 -8.107269e-02 -8.170439e-02 2.525957e-01 -1.982099e-01 -3.381043e-01 -3.732280e-01 7.244049e-02 -7.569062e-03 -2.319281e-01 7.849638e-02 -2.082587e-02 -9.867470e-02 6.783521e-01
<VARIANCE> 39
 8.735242e+01 7.517078e+01 4.612503e+01 5.382372e+01 6.600330e+01 5.928028e+01 5.049683e+01 5.726806e+01 4.098540e+01 8.132899e+01 3.571407e+01 3.692713e+01 8.507249e+01 4.504183e+00 5.414956e+00 4.398736e+00 4.492210e+00 4.502448e+00 4.801755e+00 4.272041e+00 3.886373e+00 4.502872e+00 3.305465e+00 2.829643e+00 2.603853e+00 7.761981e+00 1.304547e+00 9.836109e-01 7.386550e-01 8.890383e-01 7.069315e-01 8.306964e-01 7.640434e-01 7.153217e-01 7.197054e-01 6.871022e-01 5.460880e-01 5.075149e-01 8.190977e-01
<GCONST> 1.395784e+02
<STATE> 3
<MEAN> 39
 -2.288326e+01 3.292639e+00 2.239913e+00 -6.665378e+00 -8.837821e+00 -6.814993e+00 -9.712008e-01 -3.465838e+00 -3.393067e+00 -3.244965e+00 1.604402e-02 -3.290375e+00 6.795267e+01 2.082843e+00 -2.824102e-01 1.140204e+00 1.585965e-01 -1.868023e+00 -2.293540e+00 -2.595407e-01 8.347800e-02 -6.633359e-01 -5.728895e-01 -4.835038e-01 -5.178740e-01 1.557069e+00 2.067864e+00 -4.734707e-01 -2.106980e-01 -2.252138e-02 -1.626104e-01 -2.779843e-01 -7.296551e-01 4.553133e-03 -2.077946e-01 -2.633843e-01 -6.173477e-01 -1.732402e-01 -4.169128e-01
<VARIANCE> 39
 4.294685e+01 4.178845e+01 6.861883e+01 6.503276e+01 8.727272e+01 7.193076e+01 5.714384e+01 7.239716e+01 4.651506e+01 5.603961e+01 3.082546e+01 4.016130e+01 7.790722e+01 1.249223e+01 4.944520e+00 5.030035e+00 6.570009e+00 5.035996e+00 5.418976e+00 6.125545e+00 4.971903e+00 3.539033e+00 4.164077e+00 4.238764e+00 3.135821e+00 2.047824e+00 9.679896e-01 1.230902e+00 1.368156e+00 1.409838e+00 1.153806e+00 1.419425e+00 1.055842e+00 1.084278e+00 8.282872e-01 7.908199e-01 5.971795e-01 5.927868e-01 4.405016e-01
<GCONST> 1.435061e+02
<STATE> 4
<MEAN> 39
 -5.565512e+00 -4.257446e-01 2.884442e+00 -7.088397e+00 -1.650202e+01 -1.632472e+01 -6.799040e+00 -3.090490e+00 -5.935755e+00 -7.511271e+00 -5.495197e+00 -6.228505e+00 7.048870e+01 4.484065e+00 -1.768914e+00 -9.450386e-01 -1.129719e+00 -5.717055e-01 -5.335696e-01 -1.388106e+00 -2.878970e-02 -6.635160e-01 1.989586e-01 -1.394612e+00 -8.363395e-01 9.053629e-01 -8.817914e-01 2.208728e-02 -3.927095e-01 -2.956237e-01 8.379112e-01 1.364286e+00 3.168339e-01 -4.203352e-02 9.703346e-02 4.546066e-01 3.754292e-01 2.035193e-01 -4.443165e-01
<VARIANCE> 39
 3.644310e+01 5.001285e+01 5.402435e+01 8.474245e+01 6.812241e+01 6.254963e+01 7.759978e+01 7.322359e+01 5.090070e+01 6.133230e+01 3.476027e+01 3.878664e+01 6.209828e+01 5.578154e+00 7.525823e+00 8.167488e+00 5.341171e+00 6.817135e+00 7.752957e+00 7.133837e+00 6.485086e+00 4.083670e+00 5.300325e+00 4.069057e+00 3.443359e+00 1.575706e+00 6.941434e-01 7.190281e-01 7.692864e-01 9.973508e-01 7.801309e-01 1.008722e+00 9.872038e-01 7.929633e-01 6.558861e-01 7.695388e-01 6.935467e-01 6.084291e-01 2.400297e-01
<GCONST> 1.410642e+02
<TRANSP> 5
 0.000000e+00 1.000000e+00 0.000000e+00 0.000000e+00 0.000000e+00
 0.000000e+00 7.874531e-01 2.125469e-01 0.000000e+00 0.000000e+00
 0.000000e+00 0.000000e+00 6.843365e-01 3.156635e-01 0.000000e+00
 0.000000e+00 0.000000e+00 0.000000e+00 5.198687e-01 4.801312e-01
 0.000000e+00 0.000000e+00 0.000000e+00 0.000000e+00 0.000000e+00
<ENDHMM>
~h "d"
<BEGINHMM>
<NUMSTATES> 5
<STATE> 2
<MEAN> 39
 3.753643e-01 6.566432e+00 1.467312e+00 -1.097413e+00 -9.834926e+00 -5.302700e+00 -6.814252e+00 -4.474907e+00 -7.079447e+00 -8.054002e+00 -6.103381e+00 -6.984286e+00 5.643634e+01 -5.168353e-01 -4.599497e-01 6.880732e-01 -8.697718e-03 -2.167852e-01 -3.115857e-01 4.276543e-01 -2.492454e-01 6.976580e-02 2.183647e-01 2.179089e-01 5.038081e-02 8.471794e-01 -3.493423e-01 -9.119837e-01 2.687936e-01 -8.092599e-01 -5.953075e-01 -4.480013e-01 7.075719e-02 -8.833470e-02 -7.177287e-02 5.164695e-01 2.905823e-01 3.206670e-01 9.922198e-01
<VARIANCE> 39
 5.161840e+01 9.988636e+01 5.296547e+01 7.752892e+01 7.440587e+01 5.443601e+01 5.488547e+01 5.988472e+01 6.238650e+01 8.473501e+01 5.818654e+01 4.073701e+01 1.245340e+02 3.482622e+00 7.797931e+00 4.072364e+00 5.850780e+00 6.540559e+00 5.555033e+00 5.174882e+00 5.816984e+00 5.362996e+00 5.623522e+00 5.020623e+00 4.044749e+00 5.528516e+00 5.126792e-01 8.876683e-01 7.142835e-01 9.769511e-01 1.088611e+00 9.000132e-01 1.106307e+00 1.123794e+00 1.204832e+00 1.135065e+00 9.052618e-01 7.186496e-01 4.871971e-01
<GCONST> 1.459293e+02
<STATE> 3
<MEAN> 39
 -3.128990e+00 -3.179609e+00 5.818747e+00 -5.496753e+00 -1.162825e+01 -9.539814e+00 -3.844646e+00 -5.354581e+00 -7.147194e+00 -5.203849e+00 -3.269876e+00 -4.920129e+00 6.884124e+01 -8.918981e-01 -2.624279e+00 1.468885e+00 -2.468279e+00 -2.727567e+00 -2.024825e+00 1.178507e-01 -1.426766e-01 -2.272237e-01 1.554020e+00 9.606832e-01 6.736999e-01 3.519102e+00 4.894641e-01 3.682421e-01 -2.607173e-01 -3.441588e-01 -2.381837e-01 1.651968e-01 -3.885933e-01 2.695408e-01 1.809706e-02 1.147001e-01 -3.922357e-01 -1.685390e-01 -2.598490e-01
<VARIANCE> 39
 4.184629e+01 5.963381e+01 3.769469e+01 9.766936e+01 1.070137e+02 6.910529e+01 6.045443e+01 8.483025e+01 5.709905e+01 4.690450e+01 4.668365e+01 4.888828e+01 5.425536e+01 3.560526e+00 6.105567e+00 5.057934e+00 5.667111e+00 5.808780e+00 4.615459e+00 7.957704e+00 8.252375e+00 7.310743e+00 6.700762e+00 5.054477e+00 3.692435e+00 2.801858e+00 4.361782e-01 7.695047e-01 1.005969e+00 9.400868e-01 1.402322e+00 1.015316e+00 1.139896e+00 1.134531e+00 9.542416e-01 1.067767e+00 9.215152e-01 1.028972e+00 5.149068e-01
<GCONST> 1.453025e+02
<STATE> 4
<MEAN> 39
 -1.211824e+00 -5.700125e+00 6.099185e+00 -1.022498e+01 -1.853686e+01 -1.344211e+01 -6.161646e+00 -2.636841e+00 -5.748207e+00 -1.870480e+00 -3.260250e+00 -4.459878e+00 7.298896e+01 2.042589e-01 -8.776614e-01 3.829813e-02 -1.964334e+00 -1.260699e+00 -2.789389e-01 -1.774899e-01 7.697874e-01 1.300489e-01 9.223853e-01 -6.826472e-01 -1.371509e-01 1.429584e+00 2.460484e-01 6.936591e-01 -4.388152e-01 4.839326e-01 9.352111e-01 8.082693e-01 -1.443172e-02 -2.546631e-02 -5.701824e-02 -5.007873e-01 -5.160203e-01 -2.213136e-01 -8.979422e-01
<VARIANCE> 39
 4.446307e+01 6.292926e+01 4.495807e+01 1.191212e+02 9.295444e+01 5.577459e+01 8.678265e+01 1.114356e+02 7.518774e+01 5.680164e+01 5.313084e+01 3.831276e+01 5.161597e+01 2.417179e+00 2.823484e+00 6.631956e+00 4.107010e+00 7.025945e+00 4.223862e+00 7.962945e+00 6.775763e+00 5.941081e+00 5.676592e+00 5.052799e+00 5.407050e+00 1.512033e+00 4.216403e-01 6.049163e-01 6.240225e-01 8.827792e-01 1.099425e+00 7.709743e-01 1.144446e+00 1.092701e+00 9.620194e-01 9.781663e-01 8.238270e-01 6.739136e-01 2.875079e-01
<GCONST> 1.418950e+02
<TRANSP> 5
 0.000000e+00 1.000000e+00 0.000000e+00 0.000000e+00 0.000000e+00
 0.000000e+00 6.774795e-01 3.225205e-01 0.000000e+00 0.000000e+00
 0.000000e+00 0.000000e+00 3.242953e-01 6.757047e-01 0.000000e+00
 0.000000e+00 0.000000e+00 0.000000e+00 3.462529e-01 6.537471e-01
 0.000000e+00 0.000000e+00 0.000000e+00 0.000000e+00 0.000000e+00
<ENDHMM>
~h "e"
<BEGINHMM>
<NUMSTATES> 5
<STATE> 2
<MEAN> 39
 -1.059179e+00 -5.854534e+00 -2.280253e-01 -6.628069e+00 -1.570671e+01 -1.258411e+01 -2.342318e+00 7.548138e-03 -6.991990e+00 -7.951925e-01 -4.374618e+00 -5.725797e+00 6.728162e+01 1.020398e+00 -9.729959e-01 1.231804e+00 -6.906565e-01 -1.555596e+00 -2.629357e-01 7.012202e-01 3.832202e-01 -8.200852e-01 1.450157e-01 -1.604048e-01 -5.566955e-01 1.316511e+00 -3.372918e-01 3.040732e-01 -9.020071e-02 -1.366986e-02 4.336212e-01 5.996946e-01 4.848003e-02 -1.673411e-01 1.925833e-01 -7.652568e-02 1.849518e-01 2.519619e-02 -3.897293e-01
<VARIANCE> 39
 6.109671e+01 8.538715e+01 6.761439e+01 9.757098e+01 1.361841e+02 9.759280e+01 9.588319e+01 8.005298e+01 7.273341e+01 9.374953e+01 6.738905e+01 5.012715e+01 1.139462e+02 5.184664e+00 5.338556e+00 4.093075e+00 5.764637e+00 6.944157e+00 5.927324e+00 6.353834e+00 5.302039e+00 4.956446e+00 4.856110e+00 4.789872e+00 3.687079e+00 4.599847e+00 7.950886e-01 9.996145e-01 6.620958e-01 1.012627e+00 1.160250e+00 9.481763e-01 9.934987e-01 7.931921e-01 9.406872e-01 8.663701e-01 7.842035e-01 6.201156e-01 8.352984e-01
<GCONST> 1.485770e+02
<STATE> 3
<MEAN> 39
 -4.911573e-01 -8.307706e+00 3.388334e+00 -1.167984e+01 -1.812942e+01 -1.159863e+01 -1.365280e+00 -2.478963e+00 -8.291665e+00 -3.782342e-01 -5.029421e+00 -6.600121e+00 7.121861e+01 3.429188e-02 3.806054e-01 4.786018e-01 -1.332516e-01 2.972977e-01 7.186974e-01 -2.967747e-02 -1.198229e-01 -1.433675e-01 -9.593423e-02 2.401758e-01 -2.042662e-01 -3.670277e-01 -2.097272e-01 4.946759e-01 -3.571856e-01 5.538157e-01 4.875657e-01 1.863156e-01 -1.814584e-01 -1.119697e-01 2.447546e-01 -2.588940e-01 1.126118e-01 8.440883e-02 -5.516023e-01
<VARIANCE> 39
 3.740496e+01 6.546936e+01 5.693879e+01 8.882424e+01 1.337337e+02 8.561734e+01 9.840255e+01 1.301642e+02 6.987814e+01 8.797324e+01 6.404300e+01 5.304137e+01 5.554302e+01 1.628619e+00 2.540167e+00 2.477323e+00 4.112581e+00 3.184484e+00 3.283330e+00 4.225072e+00 3.747981e+00 4.131120e+00 3.943725e+00 2.830506e+00 2.250715e+00 2.174651e+00 4.465187e-01 4.287925e-01 4.501736e-01 6.403108e-01 8.831752e-01 6.470333e-01 9.225070e-01 8.624714e-01 9.186646e-01 7.557393e-01 6.490741e-01 6.062330e-01 2.540975e-01
<GCONST> 1.356014e+02
<STATE> 4
<MEAN> 39
 -8.407347e-01 -3.196576e+00 4.816882e+00 -7.038319e+00 -1.666650e+01 -1.044071e+01 -6.489266e-01 -6.187180e-01 -7.229908e+00 1.126942e+00 -3.541955e+00 -6.560378e+00 6.814388e+01 -2.089118e-01 7.214054e-01 -2.686004e-01 4.911750e-01 5.868970e-01 4.287917e-01 -5.477903e-02 -1.643302e-01 2.821481e-01 -2.392479e-01 2.655195e-02 1.674788e-01 -8.340768e-01 -7.027782e-02 5.463059e-02 -9.704882e-02 9.499780e-02 1.040780e-01 -2.989540e-02 -5.598967e-02 -5.288735e-03 5.511997e-02 -5.118831e-02 -2.341252e-02 4.143763e-02 -6.679486e-02
<VARIANCE> 39
 4.393784e+01 6.110661e+01 8.036954e+01 6.488085e+01 1.326703e+02 8.448586e+01 8.295139e+01 9.159528e+01 5.644323e+01 9.092753e+01 7.022548e+01 5.331833e+01 8.111644e+01 9.083384e-01 1.781469e+00 1.677209e+00 1.852644e+00 2.467677e+00 2.137747e+00 2.507658e+00 2.238620e+00 2.537954e+00 2.294626e+00 2.235941e+00 1.756091e+00 1.278717e+00 1.113645e-01 2.412577e-01 2.524410e-01 2.784911e-01 4.161659e-01 3.684551e-01 4.251222e-01 3.759788e-01 4.083114e-01 4.037541e-01 3.495810e-01 2.990866e-01 1.075956e-01
<GCONST> 1.196673e+02
<TRANSP> 5
 0.000000e+00 1.000000e+00 0.000000e+00 0.000000e+00 0.000000e+00
 0.000000e+00 4.229779e-01 5.770220e-01 0.000000e+00 0.000000e+00
 0.000000e+00 0.000000e+00 4.593120e-01 5.406880e-01 0.000000e+00
 0.000000e+00 0.000000e+00 0.000000e+00 7.803017e-01 2.196983e-01
 0.000000e+00 0.000000e+00 0.000000e+00 0.000000e+00 0.000000e+00
<ENDHMM>
~h "f"
<BEGINHMM>
<NUMSTATES> 5
<STATE> 2
<MEAN> 39
 -2.260032e+00 -9.571581e+00 -6.520284e+00 -1.360570e+01 -2.722579e+00 -3.629967e+00 -9.148626e+00 2.502951e+00 -6.772552e+00 -4.817032e+00 -6.161637e+00 -1.204707e+01 7.341931e+01 -4.777014e-01 -6.153268e-01 -2.820163e-01 6.613962e-02 2.684185e-01 1.691530e-01 7.348391e-01 5.872367e-01 3.116224e-01 1.962608e-01 2.093145e-01 -1.682429e-01 3.798389e-01 9.295933e-02 -5.678805e-02 1.308562e-01 -5.649116e-02 -7.149494e-02 -6.371538e-02 -2.298797e-02 -5.303341e-02 2.032674e-02 6.930958e-02 -5.446304e-02 7.376074e-02 -3.748108e-02
<VARIANCE> 39
 8.410889e+01 1.007548e+02 6.107336e+01 1.907782e+02 7.824818e+01 4.649506e+01 8.643450e+01 8.903404e+01 5.980418e+01 6.241553e+01 3.126097e+01 4.155495e+01 9.496413e+01 7.783855e+00 3.611987e+00 3.320756e+00 6.826478e+00 5.121843e+00 3.067067e+00 7.138559e+00 5.966446e+00 3.971311e+00 4.473541e+00 3.161634e+00 2.082018e+00 3.005005e+00 1.152313e+00 5.990179e-01 5.468295e-01 1.042266e+00 9.127381e-01 5.590552e-01 1.367899e+00 9.660704e-01 6.694697e-01 6.547366e-01 6.117145e-01 4.112736e-01 4.251480e-01
<GCONST> 1.416187e+02
<STATE> 3
<MEAN> 39
 2.920617e-01 -1.687717e+01 -7.387701e+00 -1.489170e+01 -1.730598e+00 1.886560e-01 -8.297021e+00 4.282460e+00 -4.572073e+00 -8.348977e+00 -6.623149e+00 -9.598455e+00 7.555741e+01 7.905783e-02 1.779139e-01 -1.161201e-01 5.085635e-01 -1.265705e-01 3.397343e-02 1.459032e-01 -4.165441e-01 2.411016e-01 -6.810590e-02 1.013844e-01 2.313756e-01 -6.768684e-01 9.802618e-02 4.713640e-03 1.249938e-01 -6.866020e-02 -9.973082e-02 -1.103324e-01 -1.396330e-01 -7.657193e-02 -6.749422e-02 9.898762e-02 7.178811e-02 3.769405e-03 1.416234e-02
<VARIANCE> 39
 6.826752e+01 7.832607e+01 5.078267e+01 8.918340e+01 1.677795e+02 3.829568e+01 1.367328e+02 4.895621e+01 5.382277e+01 3.880604e+01 1.690603e+01 2.790719e+01 7.829678e+01 2.052834e+00 1.691895e+00 1.633026e+00 1.738123e+00 2.152548e+00 2.373423e+00 4.459424e+00 2.631175e+00 2.318805e+00 2.212970e+00 1.965056e+00 2.112422e+00 1.389644e+00 4.085551e-01 2.557850e-01 3.947555e-01 4.152695e-01 4.227599e-01 4.671261e-01 7.641262e-01 4.801359e-01 4.203716e-01 3.962288e-01 4.151778e-01 3.614694e-01 2.238346e-01
<GCONST> 1.223101e+02
<STATE> 4
<MEAN> 39
 -5.029751e+00 -3.486599e+00 -9.121511e+00 -1.202317e+00 -2.473114e+00 1.215239e-01 -2.495249e+00 -1.925191e+00 -7.016372e-01 -2.181625e+00 -5.184830e+00 -7.135634e+00 6.430785e+01 -3.625383e-01 2.516668e-01 5.503401e-01 1.959668e-01 -1.527752e-01 -2.766699e-01 3.325627e-02 1.954509e-02 -3.555215e-01 -5.164357e-02 3.350390e-01 2.176187e-01 -2.256814e-01 2.542851e-01 2.997525e-02 1.328154e-01 -2.316055e-01 -2.135520e-01 -1.667580e-01 -2.096959e-01 -7.897459e-02 -1.771526e-01 -8.367137e-02 -1.352961e-01 -8.175167e-02 1.269935e-01
<VARIANCE> 39
 1.404793e+02 5.655577e+01 1.006003e+02 3.904359e+01 4.152039e+01 4.325885e+01 3.089817e+01 4.585865e+01 3.120283e+01 4.603027e+01 4.217229e+01 5.365366e+01 6.124818e+01 5.189027e+00 1.814509e+00 2.200099e+00 2.023806e+00 3.269619e+00 2.831116e+00 2.712646e+00 2.676748e+00 2.669096e+00 2.835499e+00 3.316852e+00 1.978877e+00 1.275863e+00 7.302893e-01 3.534797e-01 4.305352e-01 3.867551e-01 6.896899e-01 5.195304e-01 4.534466e-01 5.118698e-01 6.064672e-01 4.544332e-01 5.144258e-01 3.585223e-01 2.094991e-01
<GCONST> 1.247087e+02
<TRANSP> 5
 0.000000e+00 1.000000e+00 0.000000e+00 0.000000e+00 0.000000e+00
 0.000000e+00 6.744007e-01 3.255994e-01 0.000000e+00 0.000000e+00
 0.000000e+00 0.000000e+00 7.229509e-01 2.770491e-01 0.000000e+00
 0.000000e+00 0.000000e+00 0.000000e+00 8.204461e-01 1.795539e-01
 0.000000e+00 0.000000e+00 0.000000e+00 0.000000e+00 0.000000e+00
<ENDHMM>
~h "g"
<BEGINHMM>
<NUMSTATES> 5
<STATE> 2
<MEAN> 39
 9.002616e-01 6.458360e+00 1.473670e+00 -2.654007e+00 -9.012116e+00 -6.123009e+00 -7.024503e+00 -5.204141e+00 -6.435264e+00 -5.645229e+00 -6.497895e+00 -7.484448e+00 5.878758e+01 -2.458529e-01 -4.198062e-01 3.342533e-01 2.780433e-01 3.171134e-01 -7.823384e-01 -1.063969e-01 8.537179e-02 3.342785e-01 4.483215e-01 -1.355808e-01 1.163462e-01 8.340213e-01 -2.969997e-01 -7.984425e-01 6.967614e-02 -5.460247e-01 -1.033839e-01 -4.233389e-01 -1.044448e-01 1.335977e-01 3.819320e-02 4.222498e-01 -2.875615e-02 2.270768e-01 7.932960e-01
<VARIANCE> 39
 5.274343e+01 8.247633e+01 5.696915e+01 6.523000e+01 7.871973e+01 4.799433e+01 4.536385e+01 4.957766e+01 4.905425e+01 9.393624e+01 3.992933e+01 3.549617e+01 7.960171e+01 4.653835e+00 7.936300e+00 4.906814e+00 5.046161e+00 5.914592e+00 6.012635e+00 5.024138e+00 4.713795e+00 4.425158e+00 4.808841e+00 3.320771e+00 3.639845e+00 3.977571e+00 5.767401e-01 9.430354e-01 8.026107e-01 8.701834e-01 1.034384e+00 9.215559e-01 8.446754e-01 8.436092e-01 8.639510e-01 8.485464e-01 5.735456e-01 6.022407e-01 4.720387e-01
<GCONST> 1.413060e+02
<STATE> 3
<MEAN> 39
 -1.458020e+00 -2.754340e+00 8.948177e-02 -3.581738e+00 -5.363147e+00 -1.225238e+01 -8.268559e+00 -3.261918e+00 -5.538206e+00 -1.667657e+00 -7.211919e+00 -4.888004e+00 6.791702e+01 -5.944788e-01 -1.704591e+00 8.712580e-01 -1.960347e+00 -1.269807e+00 -1.897830e+00 -4.068975e-01 6.562055e-01 2.742054e-01 1.748176e+00 -8.076222e-02 4.617859e-01 2.716976e+00 2.222563e-01 3.512383e-01 2.001792e-01 -7.743100e-01 -6.950824e-01 4.648083e-01 4.824573e-02 1.273495e-01 -7.602974e-02 -1.408567e-02 -1.001592e-02 -1.820503e-01 -5.484681e-02
<VARIANCE> 39
 4.813897e+01 7.592211e+01 6.303861e+01 9.435966e+01 9.664915e+01 7.393544e+01 8.705505e+01 6.040118e+01 5.965702e+01 7.904868e+01 4.809814e+01 4.501071e+01 6.676890e+01 4.373795e+00 6.293565e+00 6.032433e+00 5.773875e+00 8.745334e+00 5.900105e+00 7.344675e+00 7.254179e+00 5.950982e+00 5.830031e+00 4.259156e+00 4.037877e+00 2.670249e+00 4.859870e-01 9.458855e-01 9.400470e-01 9.409432e-01 1.258456e+00 1.171546e+00 1.170445e+00 8.797005e-01 1.043181e+00 1.071876e+00 7.725242e-01 6.565349e-01 3.851647e-01
<GCONST> 1.465082e+02
<STATE> 4
<MEAN> 39
 -4.537011e-01 -4.855443e+00 2.469023e+00 -1.118981e+01 -1.336578e+01 -1.319965e+01 -8.461685e+00 -4.099008e-02 -3.448547e+00 1.998408e+00 -7.439986e+00 -5.658864e+00 7.251067e+01 -1.583860e-01 -1.041492e+00 -3.426257e-02 -2.242012e+00 -8.421054e-01 5.078818e-01 4.447520e-01 1.180324e+00 5.334472e-01 4.975625e-01 -6.575606e-01 -1.799864e-01 1.589718e+00 6.718144e-02 2.490514e-01 -3.639929e-01 4.328142e-01 5.176249e-01 5.115497e-01 2.129366e-01 -1.218768e-01 -2.353953e-01 -5.686118e-01 -1.001857e-01 -1.326105e-01 -5.099234e-01
<VARIANCE> 39
 5.381902e+01 6.305698e+01 6.157210e+01 1.056087e+02 9.535419e+01 6.640090e+01 8.225539e+01 9.311974e+01 8.046439e+01 8.353540e+01 6.693946e+01 6.341327e+01 6.734177e+01 2.731711e+00 3.785432e+00 5.873697e+00 4.392429e+00 5.590159e+00 4.172168e+00 5.601074e+00 5.798077e+00 5.944074e+00 5.742647e+00 4.296587e+00 3.197213e+00 1.477753e+00 4.142781e-01 6.456380e-01 7.415724e-01 7.532843e-01 1.188895e+00 9.531109e-01 9.464881e-01 9.303033e-01 1.006585e+00 9.298344e-01 8.372433e-01 7.041510e-01 2.278244e-01
<GCONST> 1.424404e+02
<TRANSP> 5
 0.000000e+00 1.000000e+00 0.000000e+00 0.000000e+00 0.000000e+00
 0.000000e+00 6.280161e-01 3.719838e-01 0.000000e+00 0.000000e+00
 0.000000e+00 0.000000e+00 4.255355e-01 5.744644e-01 0.000000e+00
 0.000000e+00 0.000000e+00 0.000000e+00 4.612024e-01 5.387976e-01
 0.000000e+00 0.000000e+00 0.000000e+00 0.000000e+00 0.000000e+00
<ENDHMM>
~h "h"
<BEGINHMM>
<NUMSTATES> 5
<STATE> 2
<MEAN> 39
 -3.831187e+00 -8.118294e+00 1.353042e+00 -1.147750e+01 -1.319371e+01 -3.395652e+00 -3.306344e-01 -5.076867e+00 -7.984526e+00 -6.429396e+00 -6.055545e+00 -6.902639e+00 6.981017e+01 -3.738432e-01 -1.561425e-02 -1.411596e-01 6.582353e-01 7.392095e-01 5.305744e-01 2.850054e-01 4.489213e-02 1.024690e-01 -1.285181e-01 1.009223e-01 1.027996e-01 -7.720675e-01 -1.310300e-03 7.821884e-03 -1.164256e-01 -4.795875e-02 4.112270e-02 -6.443273e-02 -8.241637e-02 1.157988e-01 8.224940e-02 1.099512e-01 5.950425e-02 1.066289e-01 -7.127825e-02
<VARIANCE> 39
 3.937997e+01 8.264500e+01 8.164580e+01 1.381828e+02 1.282133e+02 6.301488e+01 8.662386e+01 1.146296e+02 6.229391e+01 8.967320e+01 6.404982e+01 5.449155e+01 1.121959e+02 1.311056e+00 1.831450e+00 2.553474e+00 2.355346e+00 3.255892e+00 3.081221e+00 3.560881e+00 3.503722e+00 3.230356e+00 2.810471e+00 2.793434e+00 2.519597e+00 9.781533e-01 1.508776e-01 2.042373e-01 2.941747e-01 3.952334e-01 4.497265e-01 5.187840e-01 5.436571e-01 5.738688e-01 5.686552e-01 5.213666e-01 5.009221e-01 4.355577e-01 6.865485e-02
<GCONST> 1.267686e+02
<STATE> 3
<MEAN> 39
 -4.398242e+00 -6.979313e+00 -2.575500e+00 -4.228014e+00 -6.076400e+00 -1.788175e+00 -2.568257e+00 -3.406893e+00 -5.081383e+00 -7.842888e+00 -5.032478e+00 -4.222665e+00 6.407343e+01 -4.153108e-01 1.552776e-01 -6.709858e-01 5.147717e-01 7.317092e-01 1.433447e-01 1.482706e-01 5.068511e-01 4.134012e-01 4.157826e-01 4.955328e-01 4.684214e-01 -9.702383e-01 7.543884e-02 1.436738e-01 3.288068e-03 -2.078446e-01 -1.999533e-01 -1.435435e-01 -1.307653e-01 -1.180497e-01 -9.810679e-02 1.237658e-01 -6.995972e-03 -1.469271e-02 4.922651e-03
<VARIANCE> 39
 4.776567e+01 9.737537e+01 7.967168e+01 8.649113e+01 1.084401e+02 6.947735e+01 7.766429e+01 9.868969e+01 6.999419e+01 9.749867e+01 6.835791e+01 5.029416e+01 1.173657e+02 1.470909e+00 2.719309e+00 2.492738e+00 2.669446e+00 3.642806e+00 3.154702e+00 3.696854e+00 4.089678e+00 3.627922e+00 3.699298e+00 3.502108e+00 2.735375e+00 1.533580e+00 1.881261e-01 2.962577e-01 3.134394e-01 4.194356e-01 5.528214e-01 5.048774e-01 6.444489e-01 6.868217e-01 6.367791e-01 6.287581e-01 5.764760e-01 4.896418e-01 1.241808e-01
<GCONST> 1.310173e+02
<STATE> 4
<MEAN> 39
 -7.315760e+00 -6.494419e+00 -4.035890e+00 -2.923923e+00 -2.162472e+00 -1.554666e+00 -1.472267e+00 -2.230591e+00 -4.108619e+00 -4.794077e+00 -4.386098e+00 -1.580219e+00 6.333264e+01 -2.010760e-01 3.067686e-01 -1.511126e-01 1.876557e-01 1.213367e-01 6.037918e-02 -2.983027e-02 8.326495e-02 1.057126e-01 1.632507e-01 1.932970e-01 1.083939e-01 -7.254619e-01 5.494440e-02 4.457033e-02 6.842232e-02 -9.182978e-02 -1.150378e-01 -5.299217e-02 -5.582945e-02 -6.202335e-02 -7.456055e-02 -1.186583e-02 -7.542667e-02 -6.754443e-02 7.179555e-02
<VARIANCE> 39
 3.645589e+01 5.930967e+01 6.204678e+01 5.711071e+01 7.851186e+01 5.054315e+01 5.535361e+01 7.292282e+01 5.438113e+01 8.342040e+01 5.642729e+01 4.149783e+01 1.308029e+02 8.733189e-01 1.222838e+00 1.456836e+00 1.708904e+00 2.114832e+00 2.122438e+00 2.265064e+00 2.494390e+00 2.346645e+00 2.393412e+00 2.348416e+00 1.846387e+00 8.402628e-01 1.173339e-01 1.762078e-01 2.133646e-01 2.703014e-01 3.275784e-01 4.041609e-01 4.001607e-01 4.700471e-01 4.589179e-01 4.461919e-01 4.106057e-01 3.509427e-01 9.241711e-02
<GCONST> 1.160709e+02
<TRANSP> 5
 0.000000e+00 1.000000e+00 0.000000e+00 0.000000e+00 0.000000e+00
 0.000000e+00 5.656484e-01 4.343516e-01 0.000000e+00 0.000000e+00
 0.000000e+00 0.000000e+00 3.771609e-01 6.228391e-01 0.000000e+00
 0.000000e+00 0.000000e+00 0.000000e+00 7.345645e-01 2.654355e-01
 0.000000e+00 0.000000e+00 0.000000e+00 0.000000e+00 0.000000e+00
<ENDHMM>
~h "i"
<BEGINHMM>
<NUMSTATES> 5
<STATE> 2
<MEAN> 39
 -3.373751e+00 -2.367506e-01 1.058821e+01 -1.203104e+01 -1.909155e+01 -1.086367e+01 -6.482473e+00 -9.250930e+00 -1.063471e+01 -1.269279e+00 -5.260512e+00 -6.318514e+00 6.798846e+01 5.020010e-01 1.338622e-01 2.480614e+00 -2.073558e+00 -1.616850e+00 -6.504317e-02 -8.220004e-01 -6.069094e-01 -9.693056e-01 1.044130e+00 -6.544646e-01 -2.395436e-01 9.005240e-01 -1.171406e-01 8.719870e-02 -7.106440e-01 2.616356e-01 7.288978e-01 4.260064e-01 6.608152e-02 3.943233e-01 4.187495e-01 -2.403593e-01 -2.994581e-02 1.599629e-01 -4.191520e-01
<VARIANCE> 39
 4.105221e+01 8.925102e+01 6.709792e+01 1.414995e+02 1.165657e+02 7.193983e+01 6.309666e+01 8.327980e+01 7.774937e+01 6.626423e+01 6.994608e+01 5.688963e+01 7.883393e+01 4.520883e+00 3.816127e+00 5.376414e+00 7.208361e+00 7.282490e+00 5.899307e+00 6.462744e+00 5.465092e+00 6.297004e+00 5.794011e+00 5.784539e+00 4.719968e+00 2.353209e+00 6.200181e-01 6.425568e-01 1.008963e+00 1.215871e+00 1.313446e+00 9.511821e-01 1.131294e+00 9.480134e-01 1.183409e+00 1.011503e+00 9.267146e-01 7.593243e-01 4.206746e-01
<GCONST> 1.479752e+02
<STATE> 3
<MEAN> 39
 -4.849591e+00 -1.103792e+00 1.524662e+01 -1.825360e+01 -1.655650e+01 -7.615790e+00 -8.449904e+00 -8.561316e+00 -1.231249e+01 2.058788e+00 -9.215841e+00 -5.310691e+00 7.257996e+01 1.622391e-01 1.397311e-01 -2.763963e-01 5.596543e-02 1.585641e-01 1.932675e-01 -3.075972e-02 1.640829e-01 3.166853e-01 -2.210431e-01 5.452321e-03 1.422469e-01 -2.917373e-01 1.953429e-02 3.779193e-02 -5.559173e-01 4.975521e-01 3.007999e-01 1.399430e-02 1.725428e-01 1.244182e-01 2.766142e-01 -3.538191e-01 2.001254e-01 2.843793e-02 -2.424604e-01
<VARIANCE> 39
 2.184645e+01 6.258900e+01 3.898629e+01 1.967345e+02 7.593003e+01 5.507297e+01 5.842849e+01 5.758655e+01 7.805563e+01 5.533553e+01 8.304528e+01 5.948916e+01 4.078336e+01 7.754190e-01 1.550914e+00 2.152909e+00 2.864605e+00 2.854919e+00 2.538109e+00 3.132897e+00 2.786971e+00 3.052741e+00 2.917900e+00 2.625904e+00 2.048564e+00 9.186971e-01 1.953860e-01 2.406536e-01 4.128836e-01 5.072982e-01 6.176742e-01 5.347531e-01 6.010481e-01 5.357838e-01 6.588241e-01 6.026687e-01 5.919927e-01 4.584951e-01 1.553614e-01
<GCONST> 1.238715e+02
<STATE> 4
<MEAN> 39
 -3.163466e+00 5.357332e+00 7.721556e+00 -1.338004e+01 -1.717870e+01 -5.329899e+00 -9.522728e+00 -1.119097e+01 -6.056407e+00 -6.483053e+00 -6.330448e+00 -4.693612e+00 6.085443e+01 -9.743443e-03 2.910245e-01 -1.381181e+00 1.240922e+00 9.208665e-01 3.619329e-01 2.020218e-01 4.440894e-01 4.752867e-01 -5.776125e-01 3.478813e-01 5.927660e-02 -1.062229e+00 -1.029368e-01 -1.010925e-01 -9.983019e-02 2.475642e-02 9.512404e-02 -2.442422e-02 6.150367e-02 3.430214e-02 -5.048126e-02 1.035554e-01 -8.286554e-03 -8.969112e-03 2.697679e-02
<VARIANCE> 39
 3.446604e+01 1.026551e+02 5.721933e+01 1.302546e+02 1.079582e+02 7.250668e+01 7.119450e+01 8.473212e+01 5.479053e+01 7.011050e+01 5.765477e+01 5.022828e+01 9.634436e+01 1.284700e+00 2.513511e+00 2.737786e+00 3.514865e+00 3.984148e+00 3.946752e+00 3.933434e+00 3.749172e+00 4.331376e+00 3.935482e+00 3.379330e+00 2.901119e+00 1.564157e+00 1.586928e-01 3.225066e-01 3.859868e-01 5.385521e-01 6.398649e-01 6.926680e-01 6.717467e-01 6.210226e-01 6.439024e-01 6.319389e-01 5.589129e-01 4.774511e-01 1.646515e-01
<GCONST> 1.314212e+02
<TRANSP> 5
 0.000000e+00 1.000000e+00 0.000000e+00 0.000000e+00 0.000000e+00
 0.000000e+00 5.609679e-01 4.390322e-01 0.000000e+00 0.000000e+00
 0.000000e+00 0.000000e+00 7.532566e-01 2.467434e-01 0.000000e+00
 0.000000e+00 0.000000e+00 0.000000e+00 7.380936e-01 2.619064e-01
 0.000000e+00 0.000000e+00 0.000000e+00 0.000000e+00 0.000000e+00
<ENDHMM>
~h "j"
<BEGINHMM>
<NUMSTATES> 5
<STATE> 2
<MEAN> 39
 -6.091294e+00 5.454082e+00 -2.613927e-01 -3.600661e+00 -7.088501e+00 -5.778526e+00 -3.519108e+00 -5.223378e+00 -6.830391e+00 -8.923737e+00 -5.682268e+00 -6.446706e+00 6.198143e+01 -2.312212e+00 1.028653e+00 5.549889e-01 -3.961942e-01 -1.700334e-01 -4.329010e-01 5.953017e-01 -8.721520e-01 2.204051e-01 3.865576e-01 3.878711e-01 -1.321914e-02 1.190939e+00 1.085729e-01 -3.802044e-01 4.890355e-01 -4.867592e-01 -7.243882e-01 -4.870135e-01 -1.131876e-01 -8.521925e-03 -2.431303e-01 3.501085e-01 2.101465e-01 6.843234e-02 4.871770e-01
<VARIANCE> 39
 1.198826e+02 1.108468e+02 6.158363e+01 5.305123e+01 6.759019e+01 4.786060e+01 4.321455e+01 6.655851e+01 4.983450e+01 8.958357e+01 3.901499e+01 3.838828e+01 9.261716e+01 6.884794e+00 5.076004e+00 5.191909e+00 5.020236e+00 6.403567e+00 5.645300e+00 4.592911e+00 3.969133e+00 3.962798e+00 4.360297e+00 3.560428e+00 2.930160e+00 3.718938e+00 2.138120e+00 1.095373e+00 8.404698e-01 9.861562e-01 1.227948e+00 9.686904e-01 9.333274e-01 8.353961e-01 7.136907e-01 9.055268e-01 6.383765e-01 5.521937e-01 5.674929e-01
<GCONST> 1.439088e+02
<STATE> 3
<MEAN> 39
 -1.102657e+01 6.039528e+00 7.579581e+00 -8.080239e+00 -1.450176e+01 -1.170941e+01 -3.188341e+00 -8.471871e+00 -8.485686e+00 -4.359035e+00 -2.436718e+00 -5.680389e+00 6.971042e+01 2.421802e+00 -1.950494e+00 2.366228e+00 -1.564802e+00 -3.492777e+00 -2.515660e+00 -8.834360e-01 5.170739e-01 -9.104487e-01 1.391109e+00 7.049776e-01 1.019918e-01 1.618226e+00 9.925187e-01 -9.024156e-01 -6.170492e-01 -1.116478e-02 3.537789e-01 2.927293e-01 -1.740205e-01 8.618835e-01 2.743126e-01 5.267592e-03 -3.256686e-01 5.189130e-02 -2.900315e-01
<VARIANCE> 39
 7.726987e+01 5.666151e+01 5.524438e+01 8.326627e+01 1.041092e+02 6.746795e+01 4.891386e+01 5.837056e+01 3.922113e+01 5.549025e+01 4.236681e+01 4.173793e+01 6.145414e+01 6.881689e+00 5.271048e+00 4.274084e+00 7.888375e+00 5.524809e+00 4.953570e+00 5.439570e+00 5.132562e+00 4.055730e+00 7.230958e+00 4.461899e+00 2.850045e+00 1.577423e+00 1.473756e+00 8.187904e-01 8.748084e-01 8.469719e-01 1.487182e+00 1.498427e+00 1.228077e+00 8.225629e-01 7.432981e-01 8.852217e-01 7.658517e-01 6.047999e-01 2.406200e-01
<GCONST> 1.428025e+02
<STATE> 4
<MEAN> 39
 -1.890036e+00 -4.096939e+00 8.890491e+00 -1.300175e+01 -2.113202e+01 -1.556329e+01 -4.895330e+00 -1.151802e+00 -7.583289e+00 -7.501498e-01 -2.291052e+00 -5.361463e+00 7.321408e+01 1.239693e+00 -2.538954e+00 -1.160546e+00 -7.034119e-01 2.877287e-01 3.528011e-01 2.748812e-01 2.151985e+00 6.914037e-01 1.004598e-01 -9.120670e-01 -6.373841e-02 8.292221e-01 -4.723563e-01 5.584157e-01 -7.638831e-01 5.220339e-01 1.149163e+00 7.649285e-01 1.999406e-01 -1.966631e-01 1.331493e-01 -6.548585e-01 -3.545893e-01 -6.159930e-02 -4.352646e-01
<VARIANCE> 39
 4.024798e+01 5.965577e+01 3.035314e+01 1.232186e+02 7.658805e+01 4.976455e+01 6.119080e+01 8.780416e+01 5.691968e+01 6.251593e+01 6.125918e+01 5.001515e+01 5.650918e+01 1.833174e+00 3.574769e+00 3.469624e+00 3.240334e+00 5.223487e+00 5.110231e+00 5.526363e+00 4.114693e+00 3.926609e+00 4.982744e+00 3.584183e+00 3.463568e+00 1.143282e+00 3.768840e-01 4.213932e-01 6.258919e-01 7.361144e-01 6.822889e-01 8.391958e-01 8.249199e-01 8.256555e-01 8.039869e-01 1.175570e+00 7.175954e-01 5.696880e-01 1.249844e-01
<GCONST> 1.345090e+02
<TRANSP> 5
 0.000000e+00 1.000000e+00 0.000000e+00 0.000000e+00 0.000000e+00
 0.000000e+00 7.641720e-01 2.358281e-01 0.000000e+00 0.000000e+00
 0.000000e+00 0.000000e+00 6.048851e-01 3.951149e-01 0.000000e+00
 0.000000e+00 0.000000e+00 0.000000e+00 6.084848e-01 3.915152e-01
 0.000000e+00 0.000000e+00 0.000000e+00 0.000000e+00 0.000000e+00
<ENDHMM>
~h "k"
<BEGINHMM>
<NUMSTATES> 5
<STATE> 2
<MEAN> 39
 -8.031690e+00 4.563683e+00 -6.329478e+00 -2.906757e+00 -8.283934e+00 7.670122e-02 -5.854662e+00 -4.999602e+00 -4.451055e+00 -4.832737e+00 -9.668877e-01 -2.181411e+00 4.853811e+01 -6.482502e-01 -7.688570e-01 -5.248635e-01 3.143495e-01 2.638367e-01 -2.370258e-01 2.940030e-01 3.670769e-01 5.164177e-01 4.207425e-01 2.735612e-01 4.061576e-01 -1.366069e-02 1.179470e-01 -3.863207e-01 -5.070799e-03 -3.239312e-01 -1.539428e-02 -3.410205e-01 8.863476e-04 4.252195e-02 -2.368514e-02 7.096003e-02 -2.470289e-01 -3.197265e-02 6.863359e-01
<VARIANCE> 39
 5.090312e+01 1.455672e+02 7.722363e+01 9.856944e+01 1.257853e+02 9.767911e+01 7.920662e+01 7.249799e+01 7.414764e+01 8.994865e+01 6.962489e+01 5.181343e+01 2.196535e+02 2.240999e+00 8.474136e+00 5.291344e+00 6.736819e+00 7.239050e+00 7.432927e+00 6.754129e+00 5.702972e+00 6.654848e+00 5.369395e+00 5.270600e+00 4.072987e+00 6.329626e+00 3.687550e-01 1.179365e+00 8.734565e-01 1.209608e+00 1.361512e+00 1.283212e+00 1.279667e+00 1.089586e+00 1.256812e+00 1.077455e+00 1.010239e+00 8.222782e-01 8.441430e-01
<GCONST> 1.526882e+02
<STATE> 3
<MEAN> 39
 -9.183644e+00 -7.818119e+00 -9.302691e+00 -3.245387e+00 -1.876125e-01 -6.483054e+00 -3.841378e+00 3.197141e-01 2.206086e-01 1.176262e-01 -4.441454e+00 -1.886715e+00 6.396490e+01 6.186526e-01 -7.888303e-01 -2.473160e-01 -1.203185e+00 -1.962076e-01 -1.167936e+00 -3.866136e-02 -1.660268e-01 -1.610942e-01 -8.753663e-02 -9.910763e-01 -1.501576e-01 2.327947e+00 7.115892e-01 6.529082e-01 5.050331e-01 -5.845360e-01 -5.837471e-01 2.382861e-01 -1.448343e-01 -3.979228e-01 -6.597455e-01 -4.450447e-01 -3.108140e-01 -2.874662e-01 2.589644e-02
<VARIANCE> 39
 4.451129e+01 5.591764e+01 6.070619e+01 7.972029e+01 1.075157e+02 6.876167e+01 6.549108e+01 5.565358e+01 5.920134e+01 7.229986e+01 4.098558e+01 3.805482e+01 1.022451e+02 4.267958e+00 7.545279e+00 5.625193e+00 6.532734e+00 7.663369e+00 5.671023e+00 5.339323e+00 5.502420e+00 5.843744e+00 5.566949e+00 5.093167e+00 3.922893e+00 7.690853e+00 5.892296e-01 1.226710e+00 8.452020e-01 1.056829e+00 1.232180e+00 1.072049e+00 1.132113e+00 9.957711e-01 1.061797e+00 9.551575e-01 8.667508e-01 6.674179e-01 1.059415e+00
<GCONST> 1.476625e+02
<STATE> 4
<MEAN> 39
 -2.476947e+00 -4.661127e+00 -8.926693e+00 -9.670931e+00 -4.354470e+00 -6.531976e+00 -4.560796e+00 -3.177066e+00 -5.460473e+00 -3.721048e+00 -8.208101e+00 -3.682943e+00 6.649393e+01 1.767183e+00 3.770749e-01 7.799976e-01 -1.712824e+00 -1.271522e+00 -3.644966e-01 -3.670852e-01 -8.750097e-01 -1.543069e+00 -6.988177e-01 -1.034064e+00 -5.430525e-01 1.398126e+00 -7.047392e-02 -7.272649e-02 1.616776e-01 1.678836e-01 2.610387e-02 2.514423e-01 -1.314540e-01 6.869885e-02 4.872488e-02 7.974558e-02 2.459982e-01 -2.864969e-02 -2.649640e-01
<VARIANCE> 39
 4.033789e+01 6.574900e+01 7.675894e+01 8.736914e+01 8.969519e+01 6.610038e+01 5.673308e+01 7.556162e+01 5.745961e+01 8.242712e+01 4.961368e+01 4.195289e+01 8.595037e+01 4.829691e+00 4.547606e+00 5.234877e+00 7.635150e+00 6.114960e+00 4.937582e+00 6.468180e+00 6.553616e+00 5.581106e+00 6.493956e+00 5.602210e+00 3.843860e+00 3.968830e+00 5.699733e-01 7.368125e-01 8.396857e-01 1.032188e+00 9.575787e-01 9.332086e-01 9.765535e-01 1.109700e+00 9.551105e-01 1.057142e+00 8.509219e-01 6.650972e-01 7.518943e-01
<GCONST> 1.460625e+02
<TRANSP> 5
 0.000000e+00 1.000000e+00 0.000000e+00 0.000000e+00 0.000000e+00
 0.000000e+00 6.724131e-01 3.275868e-01 0.000000e+00 0.000000e+00
 0.000000e+00 0.000000e+00 5.300142e-01 4.699858e-01 0.000000e+00
 0.000000e+00 0.000000e+00 0.000000e+00 4.439740e-01 5.560259e-01
 0.000000e+00 0.000000e+00 0.000000e+00 0.000000e+00 0.000000e+00
<ENDHMM>
~h "l"
<BEGINHMM>
<NUMSTATES> 5
<STATE> 2
<MEAN> 39
 2.722383e+00 -6.026371e+00 -5.385080e+00 -1.056589e+01 -8.652241e+00 -9.667381e+00 -1.153754e+01 -4.695470e+00 -2.312598e+00 -9.673090e-01 -7.626296e+00 -6.644335e+00 7.022833e+01 4.335409e-01 1.470892e-01 -2.548348e-01 -2.572752e-01 4.085681e-01 -6.660871e-01 -9.159315e-01 4.092327e-02 4.423783e-01 6.832569e-01 -3.031232e-01 -2.432610e-01 -9.783289e-02 -1.531416e-01 3.753275e-03 6.471521e-02 -1.146040e-01 2.948189e-03 1.640901e-01 2.908810e-01 1.578633e-01 -1.975721e-01 -9.892060e-02 3.709229e-02 3.293509e-02 2.140025e-02
<VARIANCE> 39
 4.144684e+01 5.845421e+01 6.041509e+01 9.713635e+01 7.807882e+01 9.549345e+01 8.933146e+01 9.361562e+01 6.899799e+01 1.138585e+02 6.121262e+01 5.703704e+01 7.482051e+01 1.280488e+00 2.062433e+00 2.639748e+00 3.066833e+00 4.026433e+00 3.976716e+00 4.451433e+00 5.367408e+00 5.155500e+00 4.388890e+00 4.003166e+00 3.146513e+00 1.117058e+00 1.982069e-01 2.881105e-01 3.018985e-01 5.085354e-01 5.758267e-01 7.161427e-01 8.024948e-01 9.500322e-01 7.808405e-01 8.601788e-01 7.041993e-01 5.853468e-01 1.122061e-01
<GCONST> 1.329448e+02
<STATE> 3
<MEAN> 39
 3.184162e+00 -5.975903e+00 -5.389484e+00 -1.314036e+01 -5.553613e+00 -1.076372e+01 -1.330406e+01 -2.309296e+00 -3.369911e+00 7.569029e-01 -8.024986e+00 -6.810816e+00 7.087347e+01 -1.093716e-01 5.466050e-02 4.495990e-02 -9.366226e-02 -9.644879e-02 -8.561650e-02 3.161765e-01 3.734157e-01 -1.472680e-01 -1.427964e-01 2.772286e-02 6.559917e-02 6.469080e-02 -1.526651e-01 -1.279182e-01 7.314623e-02 -3.479831e-04 -2.480816e-01 3.837184e-01 4.758624e-01 1.915643e-02 -1.817410e-01 -2.879435e-01 -3.291890e-03 5.623068e-02 1.243673e-01
<VARIANCE> 39
 3.601400e+01 5.162334e+01 6.143315e+01 1.243255e+02 8.478845e+01 8.485657e+01 8.087541e+01 8.186971e+01 8.764637e+01 1.149939e+02 6.078902e+01 5.760480e+01 6.298671e+01 5.701456e-01 1.699796e+00 2.255514e+00 2.388774e+00 3.227052e+00 3.240534e+00 3.724223e+00 4.083175e+00 3.649704e+00 3.890710e+00 3.374836e+00 2.461659e+00 7.034293e-01 1.195459e-01 2.649004e-01 2.841818e-01 5.069141e-01 5.718706e-01 5.726259e-01 7.219827e-01 7.663066e-01 7.725481e-01 7.476494e-01 6.560830e-01 5.081055e-01 1.037462e-01
<GCONST> 1.274762e+02
<STATE> 4
<MEAN> 39
 2.077326e+00 -4.537560e+00 -7.569743e+00 -1.064336e+01 -7.388886e+00 -7.392107e+00 -9.369955e+00 -3.850791e+00 -8.993077e-01 -2.693573e+00 -7.831527e+00 -5.388401e+00 6.960227e+01 -1.998772e-01 -1.339086e-01 7.939562e-02 -1.177660e-01 -6.231653e-02 4.315205e-01 4.848163e-01 9.775192e-02 -3.649988e-01 -2.953542e-01 5.243804e-02 9.600883e-02 8.653425e-02 -5.414928e-02 -3.796151e-02 3.100272e-02 -4.711505e-02 2.713196e-02 1.080353e-01 5.997707e-02 -3.169629e-02 -1.407850e-01 -2.831998e-02 -2.488138e-03 -7.368372e-03 3.128637e-02
<VARIANCE> 39
 3.656248e+01 5.236234e+01 5.790559e+01 7.566647e+01 7.126405e+01 7.745264e+01 5.882669e+01 7.193958e+01 7.087046e+01 1.157614e+02 6.296155e+01 5.338116e+01 6.306637e+01 3.759615e-01 1.414703e+00 1.523536e+00 1.872467e+00 2.491607e+00 2.463604e+00 2.697251e+00 2.703032e+00 2.748041e+00 2.814225e+00 2.772393e+00 1.817391e+00 5.287266e-01 6.685404e-02 1.759056e-01 1.967913e-01 3.047234e-01 3.459561e-01 3.985284e-01 4.107269e-01 4.365246e-01 4.643128e-01 4.833079e-01 4.119023e-01 3.215199e-01 6.551438e-02
<GCONST> 1.159075e+02
<TRANSP> 5
 0.000000e+00 1.000000e+00 0.000000e+00 0.000000e+00 0.000000e+00
 0.000000e+00 3.977300e-01 6.022701e-01 0.000000e+00 0.000000e+00
 0.000000e+00 0.000000e+00 3.829094e-01 6.170905e-01 0.000000e+00
 0.000000e+00 0.000000e+00 0.000000e+00 7.263458e-01 2.736542e-01
 0.000000e+00 0.000000e+00 0.000000e+00 0.000000e+00 0.000000e+00
<ENDHMM>
~h "m"
<BEGINHMM>
<NUMSTATES> 5
<STATE> 2
<MEAN> 39
 4.297185e+00 3.698345e-01 -5.756341e+00 -5.122999e+00 -4.705595e+00 -4.977226e+00 -1.034413e+01 -9.336051e+00 -9.857653e+00 -6.426723e+00 -6.768911e+00 -5.890869e+00 6.302345e+01 3.272274e-01 1.072028e+00 4.126829e-01 1.240335e+00 3.431985e-02 -2.038310e-03 -1.837521e-01 -1.466259e+00 -1.163611e+00 -4.256684e-01 -1.156443e-01 1.393560e-01 -6.396679e-01 -1.120914e-01 -4.695317e-01 -1.343811e-01 -4.691824e-01 5.649869e-03 2.948168e-02 1.141503e-01 4.232441e-01 2.107574e-01 1.152249e-01 -9.488112e-02 -1.300086e-01 3.640114e-01
<VARIANCE> 39
 3.290181e+01 7.695708e+01 4.747706e+01 4.757141e+01 5.443482e+01 5.077946e+01 4.456484e+01 5.357661e+01 5.518100e+01 8.936731e+01 3.527520e+01 3.633087e+01 5.880185e+01 1.370950e+00 2.444134e+00 2.783045e+00 3.714485e+00 2.556006e+00 2.696188e+00 3.012985e+00 3.264360e+00 3.399554e+00 3.036192e+00 2.758211e+00 2.215383e+00 1.749403e+00 1.446208e-01 3.123824e-01 4.698636e-01 5.901119e-01 4.272967e-01 4.935646e-01 4.902195e-01 6.880466e-01 6.343967e-01 5.656734e-01 5.471095e-01 3.855697e-01 1.604677e-01
<GCONST> 1.237035e+02
<STATE> 3
<MEAN> 39
 5.409479e+00 -1.451003e+00 -7.440747e+00 -6.643015e+00 -4.028317e+00 -4.396414e+00 -1.068413e+01 -9.608356e+00 -9.979836e+00 -6.121507e+00 -7.370751e+00 -6.979457e+00 6.499725e+01 9.384443e-02 -1.174393e+00 -7.748202e-01 -8.878193e-01 4.817548e-01 1.747009e-01 -1.460727e-01 9.231023e-01 5.564878e-01 5.091842e-02 -3.511244e-01 -6.175590e-01 8.465607e-01 -2.222056e-01 -2.533091e-01 1.252082e-01 -2.997409e-01 -5.976949e-03 -2.480936e-02 8.934997e-02 6.185154e-01 3.037750e-01 4.059388e-02 -7.872590e-02 -6.034292e-02 1.542214e-01
<VARIANCE> 39
 3.401151e+01 7.579827e+01 5.497768e+01 5.582585e+01 5.388917e+01 5.981100e+01 4.790049e+01 6.308250e+01 8.697492e+01 8.808866e+01 4.519702e+01 3.965000e+01 5.285043e+01 9.339234e-01 4.144409e+00 4.379364e+00 5.142334e+00 3.450322e+00 3.476279e+00 3.554380e+00 4.997146e+00 4.502993e+00 3.726866e+00 3.935648e+00 2.508728e+00 1.810653e+00 1.681654e-01 5.768905e-01 7.815800e-01 1.070641e+00 6.681731e-01 6.466746e-01 6.956842e-01 1.018632e+00 8.750796e-01 7.015920e-01 7.658321e-01 5.390990e-01 2.436160e-01
<GCONST> 1.331092e+02
<STATE> 4
<MEAN> 39
 7.931748e-02 7.446955e-01 -4.102035e+00 -4.453915e+00 -1.512370e+00 -3.687222e+00 -7.282913e+00 -5.610940e+00 -7.639805e+00 -6.520824e+00 -8.569906e+00 -5.970395e+00 6.842934e+01 -1.798376e-01 -8.452545e-02 1.534192e-01 -1.497969e-01 -6.917416e-02 -3.433040e-03 1.862844e-01 4.052545e-01 9.654627e-02 -4.854146e-02 -5.440840e-02 7.285023e-03 2.777423e-02 -3.858126e-02 -6.336624e-02 -1.343659e-02 -7.601778e-02 -4.370203e-02 8.399334e-03 2.517183e-02 8.318587e-02 5.548193e-02 4.820804e-02 3.181955e-02 3.924062e-02 3.561579e-02
<VARIANCE> 39
 3.372553e+01 6.502625e+01 4.177094e+01 4.714821e+01 4.467404e+01 4.316756e+01 4.205192e+01 4.570818e+01 5.660839e+01 8.267071e+01 3.756233e+01 3.331441e+01 5.691717e+01 3.479286e-01 1.295407e+00 1.324541e+00 2.201426e+00 1.725309e+00 1.655027e+00 1.756669e+00 2.935783e+00 2.264123e+00 2.405658e+00 2.267192e+00 1.765301e+00 6.794227e-01 6.273413e-02 1.530508e-01 2.113130e-01 2.862092e-01 2.924108e-01 2.866051e-01 3.241854e-01 4.171431e-01 4.010014e-01 4.159739e-01 3.866237e-01 3.144072e-01 5.709395e-02
<GCONST> 1.086716e+02
<TRANSP> 5
 0.000000e+00 1.000000e+00 0.000000e+00 0.000000e+00 0.000000e+00
 0.000000e+00 5.363223e-01 4.636777e-01 0.000000e+00 0.000000e+00
 0.000000e+00 0.000000e+00 5.334198e-01 4.665802e-01 0.000000e+00
 0.000000e+00 0.000000e+00 0.000000e+00 8.081682e-01 1.918318e-01
 0.000000e+00 0.000000e+00 0.000000e+00 0.000000e+00 0.000000e+00
<ENDHMM>
~h "n"
<BEGINHMM>
<NUMSTATES> 5
<STATE> 2
<MEAN> 39
 2.600634e+00 -4.340034e+00 -8.686953e-01 -7.908732e+00 -1.197796e+01 -1.031700e+01 -7.465720e+00 -5.609846e+00 -9.736878e+00 -9.860599e+00 -7.858242e+00 -4.166189e+00 6.581037e+01 5.852677e-01 1.840265e+00 -4.359957e-01 1.509452e+00 3.575672e-02 2.382811e-03 -6.163864e-01 -1.310361e+00 -3.565189e-02 -5.979596e-01 8.603019e-02 -8.400369e-02 -1.405665e+00 -1.545821e-01 -1.212374e-01 -4.786959e-02 -2.638876e-01 1.037515e-01 8.668254e-02 1.936378e-01 9.083697e-02 -4.840676e-02 1.513816e-01 -1.261478e-02 -8.509047e-02 1.795863e-01
<VARIANCE> 39
 2.771223e+01 9.001827e+01 3.678780e+01 6.601960e+01 6.425911e+01 5.006742e+01 5.522592e+01 7.966190e+01 6.690979e+01 8.351926e+01 5.041689e+01 5.137217e+01 5.275204e+01 7.461247e-01 2.114484e+00 2.393405e+00 2.383114e+00 3.050469e+00 3.874641e+00 3.463571e+00 4.097143e+00 3.615898e+00 3.676586e+00 3.220997e+00 2.903049e+00 8.319967e-01 1.198337e-01 2.516512e-01 2.884347e-01 3.722194e-01 4.395240e-01 5.251722e-01 6.104086e-01 6.749909e-01 5.796422e-01 5.755422e-01 5.255141e-01 4.771555e-01 1.165401e-01
<GCONST> 1.234552e+02
<STATE> 3
<MEAN> 39
 4.544718e+00 3.542092e+00 -2.363394e+00 -4.200211e+00 -1.186567e+01 -1.103153e+01 -9.333517e+00 -7.405452e+00 -7.595217e+00 -8.659864e+00 -8.271799e+00 -6.365212e+00 6.092224e+01 -2.210091e-02 1.073778e+00 6.792094e-02 2.440681e-01 1.629271e-01 1.347581e-01 -8.661891e-02 -3.152087e-01 -3.554860e-02 -7.564913e-02 1.776175e-02 -1.768493e-01 -6.955348e-01 -2.346193e-01 -4.159763e-01 1.463746e-01 -2.248661e-01 1.670062e-03 8.388745e-02 1.506867e-01 3.172792e-01 -5.068600e-03 1.002303e-01 4.190855e-02 1.980505e-02 2.654352e-01
<VARIANCE> 39
 2.517059e+01 8.985807e+01 3.537075e+01 3.705191e+01 5.309029e+01 4.431587e+01 4.111792e+01 7.186611e+01 7.347538e+01 8.101271e+01 4.873654e+01 4.170041e+01 4.801802e+01 4.298889e-01 1.428280e+00 1.439589e+00 1.460541e+00 1.827534e+00 2.143041e+00 2.123724e+00 2.214518e+00 2.110482e+00 2.161672e+00 2.074453e+00 1.831917e+00 4.718204e-01 1.247355e-01 3.125972e-01 3.228837e-01 4.271103e-01 4.402734e-01 4.663700e-01 4.680357e-01 5.568856e-01 4.903198e-01 5.185688e-01 4.660233e-01 3.712893e-01 1.393419e-01
<GCONST> 1.145367e+02
<STATE> 4
<MEAN> 39
 -4.407620e-02 4.745695e+00 -1.009804e-01 -1.419806e+00 -8.234949e+00 -7.001756e+00 -7.897544e+00 -6.974109e+00 -7.847260e+00 -8.978863e+00 -7.759889e+00 -6.019495e+00 5.958187e+01 -8.383400e-01 -3.827811e-01 1.233630e-01 6.491993e-03 4.604882e-01 4.389246e-01 3.672611e-01 6.352368e-01 1.210847e-01 2.318116e-01 2.896990e-01 8.509357e-02 -2.289209e-01 -2.257993e-01 -4.289964e-01 -1.273557e-02 -3.061072e-01 -3.711941e-02 2.646791e-02 1.728656e-01 2.062877e-01 2.521375e-02 2.011570e-01 8.004241e-02 6.732240e-02 3.080133e-01
<VARIANCE> 39
 3.690400e+01 9.008046e+01 3.369674e+01 4.903117e+01 6.792360e+01 4.835468e+01 4.130275e+01 6.460199e+01 5.721115e+01 6.560590e+01 3.828059e+01 3.358349e+01 1.028661e+02 1.116787e+00 2.580586e+00 1.910728e+00 2.690467e+00 2.939452e+00 2.949637e+00 3.021113e+00 3.592997e+00 3.115752e+00 3.268574e+00 2.884453e+00 2.361775e+00 1.536687e+00 2.287616e-01 4.676342e-01 4.627290e-01 5.059371e-01 5.934389e-01 5.892933e-01 5.616255e-01 6.737801e-01 5.862550e-01 6.196454e-01 5.030239e-01 4.110074e-01 2.369981e-01
<GCONST> 1.253764e+02
<TRANSP> 5
 0.000000e+00 1.000000e+00 0.000000e+00 0.000000e+00 0.000000e+00
 0.000000e+00 4.789926e-01 5.210074e-01 0.000000e+00 0.000000e+00
 0.000000e+00 0.000000e+00 6.334807e-01 3.665192e-01 0.000000e+00
 0.000000e+00 0.000000e+00 0.000000e+00 5.995763e-01 4.004237e-01
 0.000000e+00 0.000000e+00 0.000000e+00 0.000000e+00 0.000000e+00
<ENDHMM>
~h "o"
<BEGINHMM>
<NUMSTATES> 5
<STATE> 2
<MEAN> 39
 1.433098e+00 -6.203395e+00 -1.020530e+01 -1.914747e+01 -5.478008e+00 -2.583269e+00 -7.206145e+00 -1.615112e+00 -6.783609e+00 -2.023403e+00 -4.611979e+00 -7.138044e+00 7.112522e+01 8.217124e-01 -4.906676e-01 -5.201108e-01 -1.618998e+00 1.768532e-01 6.803290e-01 -3.223978e-01 6.292960e-02 -3.957437e-02 3.348157e-01 -1.302789e-01 -2.765039e-01 9.948755e-01 -2.943402e-01 1.024187e-01 1.825785e-01 4.465418e-01 1.544604e-01 1.056188e-02 8.710936e-02 -1.231746e-04 2.183556e-02 -1.597824e-01 5.404854e-02 9.827516e-02 -3.702654e-01
<VARIANCE> 39
 5.289335e+01 7.021033e+01 4.759436e+01 1.311650e+02 9.634673e+01 7.701460e+01 8.743773e+01 7.994752e+01 7.238148e+01 8.574845e+01 5.630319e+01 5.086814e+01 1.181078e+02 5.591367e+00 3.212677e+00 3.663109e+00 8.955895e+00 6.633244e+00 6.312311e+00 8.249372e+00 5.338024e+00 4.981816e+00 4.426233e+00 4.672918e+00 3.490424e+00 4.894539e+00 8.770856e-01 5.538338e-01 5.566369e-01 1.433226e+00 1.074764e+00 1.005378e+00 1.486720e+00 9.432132e-01 9.396936e-01 8.776790e-01 8.588470e-01 6.877943e-01 6.455743e-01
<GCONST> 1.475480e+02
<STATE> 3
<MEAN> 39
 3.365726e+00 -7.339979e+00 -1.054033e+01 -2.164139e+01 -5.228368e+00 -9.548002e-01 -9.438222e+00 -1.745779e+00 -6.047456e+00 -2.994224e+00 -5.429627e+00 -8.243342e+00 7.202840e+01 3.788000e-02 3.127720e-01 -2.640171e-01 2.333720e-01 2.818579e-01 2.984854e-01 4.158113e-02 -2.025598e-01 -7.033235e-02 -3.629789e-01 1.125340e-01 1.062520e-01 -5.132826e-01 -1.443553e-01 2.165865e-01 1.206322e-01 4.965601e-01 -8.839086e-02 -2.037372e-01 1.325566e-01 -1.168169e-01 -5.453754e-03 -1.133308e-01 4.001196e-02 7.908263e-02 -2.675756e-01
<VARIANCE> 39
 4.083503e+01 6.326573e+01 4.943404e+01 1.091186e+02 8.289597e+01 6.697431e+01 9.162430e+01 9.815492e+01 9.241139e+01 8.890995e+01 6.394389e+01 4.680224e+01 7.056541e+01 9.293362e-01 1.866596e+00 1.837885e+00 3.926352e+00 2.982241e+00 3.479558e+00 3.501957e+00 3.606188e+00 3.645725e+00 3.408743e+00 2.953019e+00 2.389380e+00 1.178846e+00 1.977100e-01 2.822962e-01 3.283975e-01 5.775356e-01 5.533608e-01 6.070026e-01 6.916714e-01 7.161282e-01 6.429998e-01 6.181670e-01 6.104250e-01 4.861706e-01 1.455117e-01
<GCONST> 1.287620e+02
<STATE> 4
<MEAN> 39
 2.822269e+00 -5.846115e-01 -1.121245e+01 -1.522986e+01 -4.894163e+00 8.515735e-01 -6.006636e+00 -4.552801e+00 -4.609131e+00 -3.176483e+00 -4.656716e+00 -5.162715e+00 6.711301e+01 -3.749578e-01 3.587458e-01 2.854580e-01 6.854774e-01 1.487210e-01 -5.572570e-02 2.155962e-01 3.410818e-02 -8.659498e-02 -2.531551e-01 -2.000510e-02 2.660438e-02 -6.243948e-01 -8.742762e-02 -1.685369e-02 1.370800e-01 1.332620e-01 -5.521458e-02 -9.763305e-02 -9.518815e-03 3.363459e-02 2.180660e-02 -2.059302e-04 -1.192278e-02 -9.015266e-03 -1.475870e-02
<VARIANCE> 39
 4.694586e+01 5.384979e+01 4.605865e+01 8.237190e+01 6.179053e+01 4.884785e+01 4.643365e+01 5.417362e+01 5.009701e+01 6.055591e+01 5.250566e+01 3.713618e+01 7.957524e+01 6.749879e-01 9.361390e-01 1.192349e+00 1.926679e+00 1.673185e+00 1.993636e+00 2.051722e+00 2.111390e+00 2.107800e+00 2.238421e+00 1.989529e+00 1.661118e+00 6.262547e-01 6.602662e-02 1.328492e-01 1.741446e-01 2.555708e-01 2.818950e-01 3.077192e-01 3.327709e-01 3.626782e-01 3.762607e-01 3.784401e-01 3.406174e-01 2.857332e-01 4.758823e-02
<GCONST> 1.091565e+02
<TRANSP> 5
 0.000000e+00 1.000000e+00 0.000000e+00 0.000000e+00 0.000000e+00
 0.000000e+00 6.496876e-01 3.503124e-01 0.000000e+00 0.000000e+00
 0.000000e+00 0.000000e+00 6.999799e-01 3.000201e-01 0.000000e+00
 0.000000e+00 0.000000e+00 0.000000e+00 8.125542e-01 1.874458e-01
 0.000000e+00 0.000000e+00 0.000000e+00 0.000000e+00 0.000000e+00
<ENDHMM>
~h "p"
<BEGINHMM>
<NUMSTATES> 5
<STATE> 2
<MEAN> 39
 -6.222196e+00 1.021914e+00 -5.589043e+00 -2.231766e+00 -3.004413e+00 -1.207704e+00 -4.248348e+00 -1.984183e+00 -2.356858e+00 -2.405718e+00 -2.527863e+00 -2.858591e+00 5.446095e+01 -1.124449e+00 -5.491573e-01 8.873086e-02 3.064550e-01 -2.552246e-01 -1.602265e-01 3.990873e-01 3.208299e-01 4.859368e-01 3.072218e-01 4.720864e-01 4.256048e-01 -3.680378e-01 4.163900e-01 -3.847311e-01 -1.924325e-02 -3.479995e-01 -2.666588e-01 -2.174656e-01 -1.201919e-01 -1.728356e-01 -1.255007e-01 1.342698e-01 -1.505073e-01 -1.139648e-01 8.943076e-01
<VARIANCE> 39
 4.153268e+01 5.022926e+01 4.603368e+01 3.622800e+01 3.937411e+01 3.136133e+01 3.578706e+01 3.688861e+01 4.499933e+01 6.454504e+01 3.410223e+01 3.320965e+01 8.297908e+01 2.034562e+00 2.157456e+00 1.988801e+00 1.962919e+00 2.509298e+00 2.444722e+00 2.471305e+00 2.753056e+00 3.092741e+00 2.696320e+00 2.453700e+00 2.021024e+00 3.976192e+00 5.565710e-01 5.094477e-01 5.447459e-01 5.243947e-01 6.463509e-01 5.339890e-01 5.400413e-01 5.428711e-01 6.147095e-01 6.237439e-01 5.261387e-01 4.203010e-01 5.354732e-01
<GCONST> 1.242472e+02
<STATE> 3
<MEAN> 39
 -7.399532e+00 -1.063930e+00 -5.027131e+00 -1.927430e+00 -6.559563e+00 -2.626215e+00 -3.652884e+00 -3.129087e+00 -2.656412e+00 -3.818114e+00 -2.236202e+00 -2.606757e+00 5.667646e+01 1.752940e+00 -1.823404e+00 -3.108339e-01 -1.491650e+00 -9.217257e-01 -8.756478e-01 1.731320e-02 -4.612995e-01 -2.350472e-01 7.151421e-01 -5.856239e-01 -6.133152e-01 3.719053e+00 7.270859e-01 -1.979387e-01 -2.516069e-01 -7.782694e-01 -7.495786e-02 -1.037547e-01 -3.340476e-01 -1.437065e-01 -3.596676e-01 -1.408825e-01 -4.943986e-01 -3.138359e-01 6.364065e-01
<VARIANCE> 39
 4.114084e+01 1.104984e+02 4.565003e+01 4.966113e+01 8.123588e+01 5.006308e+01 4.809583e+01 5.271687e+01 4.718640e+01 7.034245e+01 3.725720e+01 3.448338e+01 1.699137e+02 7.016589e+00 9.962334e+00 6.142607e+00 6.851813e+00 8.406734e+00 6.670904e+00 6.745338e+00 5.738535e+00 5.846645e+00 6.198339e+00 5.394190e+00 3.759017e+00 6.504005e+00 6.532789e-01 1.610925e+00 8.668172e-01 9.675121e-01 1.359178e+00 1.098296e+00 1.024557e+00 1.041512e+00 9.957718e-01 1.062299e+00 7.815363e-01 7.227917e-01 1.290952e+00
<GCONST> 1.485982e+02
<STATE> 4
<MEAN> 39
 1.901819e+00 -7.564462e+00 -9.758402e+00 -9.245473e+00 -7.627818e+00 -4.029784e+00 -5.640334e+00 -5.327706e+00 -3.346594e+00 -2.114538e+00 -5.950931e+00 -7.326061e+00 6.842034e+01 1.823190e+00 -1.765011e+00 -6.337969e-01 -2.004620e+00 -4.812465e-01 -5.185448e-01 -5.604824e-01 -3.559861e-01 -6.416166e-01 -9.954441e-02 -1.530406e+00 -7.842759e-01 3.027681e+00 -6.335931e-01 3.858370e-01 4.396558e-01 3.535676e-01 2.021485e-01 7.698966e-02 4.416231e-02 2.832907e-01 -9.574133e-02 -3.934979e-01 -1.485159e-02 3.648065e-01 -8.502262e-01
<VARIANCE> 39
 4.496249e+01 6.981806e+01 6.702515e+01 7.901356e+01 6.805833e+01 5.336556e+01 4.905112e+01 4.899605e+01 3.713278e+01 7.474078e+01 4.459459e+01 5.017061e+01 7.090341e+01 5.859870e+00 6.736921e+00 7.027015e+00 7.491347e+00 8.309331e+00 5.998444e+00 6.438827e+00 6.513681e+00 6.284354e+00 6.632192e+00 5.387988e+00 4.503193e+00 4.699008e+00 7.224384e-01 9.851992e-01 6.909877e-01 1.309180e+00 9.617583e-01 9.619541e-01 9.191280e-01 9.352148e-01 8.299965e-01 9.611761e-01 8.652017e-01 7.301060e-01 7.503394e-01
<GCONST> 1.462975e+02
<TRANSP> 5
 0.000000e+00 1.000000e+00 0.000000e+00 0.000000e+00 0.000000e+00
 0.000000e+00 6.916258e-01 3.083743e-01 0.000000e+00 0.000000e+00
 0.000000e+00 0.000000e+00 5.085042e-01 4.914958e-01 0.000000e+00
 0.000000e+00 0.000000e+00 0.000000e+00 3.862055e-01 6.137945e-01
 0.000000e+00 0.000000e+00 0.000000e+00 0.000000e+00 0.000000e+00
<ENDHMM>
~h "r"
<BEGINHMM>
<NUMSTATES> 5
<STATE> 2
<MEAN> 39
 2.815487e-01 -1.089655e+01 -2.572420e+00 -8.924929e+00 -1.268967e+01 -8.009542e+00 -6.612181e+00 -9.080710e-02 -2.802277e+00 -6.548440e+00 -5.757454e+00 -4.733059e+00 7.170116e+01 -2.936596e-01 4.526442e-01 2.619372e-01 1.114540e+00 -1.926957e-01 -2.099345e-01 -1.487815e-01 -2.526915e-01 3.965868e-01 -7.122819e-01 2.760724e-01 -4.905207e-02 -6.758507e-01 -5.272646e-02 1.727448e-01 -1.261790e-01 -1.903450e-01 2.023060e-01 -3.208594e-02 1.782587e-01 -1.683838e-01 -2.922794e-01 1.593568e-01 -2.586611e-01 -2.161982e-02 3.780183e-02
<VARIANCE> 39
 4.006027e+01 7.378915e+01 4.587195e+01 8.779366e+01 7.640983e+01 6.481818e+01 6.760117e+01 5.974666e+01 5.869815e+01 8.464594e+01 5.078980e+01 4.577031e+01 6.812965e+01 2.879071e+00 3.512245e+00 2.893265e+00 3.265146e+00 5.069153e+00 4.007082e+00 5.149675e+00 4.392043e+00 4.848032e+00 4.762800e+00 4.096382e+00 3.164248e+00 1.493171e+00 4.845172e-01 5.550286e-01 4.862192e-01 6.257187e-01 9.552959e-01 7.550530e-01 9.609957e-01 8.616260e-01 8.842569e-01 8.639683e-01 7.424893e-01 5.814465e-01 2.559724e-01
<GCONST> 1.365658e+02
<STATE> 3
<MEAN> 39
 -9.339178e-01 -6.585624e+00 -2.288593e+00 -4.491607e+00 -1.121665e+01 -9.431641e+00 -6.798638e+00 -1.908316e+00 -2.046791e+00 -6.841553e+00 -5.790874e+00 -5.056805e+00 6.878906e+01 -1.685651e-01 6.732283e-01 -1.872601e-01 4.164709e-01 2.156198e-01 -9.782357e-02 3.287874e-01 -5.260731e-01 -4.037158e-01 4.523549e-02 -3.387521e-01 -2.182956e-01 -4.384136e-01 1.936281e-01 -1.541893e-01 -1.536609e-01 -5.153003e-01 1.929128e-02 1.275366e-01 1.693405e-01 -2.354415e-02 -3.898430e-01 3.880797e-01 -2.368591e-01 4.463475e-02 1.606825e-01
<VARIANCE> 39
 5.156022e+01 6.330379e+01 4.973431e+01 6.315374e+01 6.986553e+01 5.558165e+01 5.945339e+01 5.919921e+01 5.651343e+01 8.705556e+01 4.491543e+01 3.884106e+01 6.987169e+01 2.483145e+00 3.375939e+00 3.074435e+00 2.530811e+00 4.379850e+00 3.566658e+00 3.387321e+00 4.012187e+00 3.650909e+00 4.025239e+00 4.199889e+00 2.879036e+00 1.556304e+00 6.129069e-01 6.381227e-01 5.725678e-01 6.030065e-01 8.869309e-01 7.695087e-01 8.657846e-01 8.454113e-01 9.096425e-01 8.903415e-01 8.037331e-01 6.356964e-01 3.250093e-01
<GCONST> 1.349183e+02
<STATE> 4
<MEAN> 39
 -2.428304e+00 -4.018860e+00 -3.032237e+00 -2.817659e+00 -8.700019e+00 -7.778763e+00 -5.082301e+00 -2.856199e+00 -2.763304e+00 -5.165049e+00 -6.910750e+00 -4.850326e+00 6.746406e+01 -1.039141e-01 3.161256e-01 -1.151026e-01 -1.049315e-01 1.299003e-01 3.467717e-01 3.383955e-01 -1.188625e-01 -3.345470e-01 2.665825e-01 -4.950897e-02 2.135995e-02 -5.125703e-01 -3.753890e-02 -1.157743e-01 4.946937e-02 -2.083514e-01 -5.269932e-02 5.886388e-02 2.852757e-02 3.455479e-02 -4.227369e-02 8.660319e-02 4.350843e-02 9.002994e-02 1.090322e-01
<VARIANCE> 39
 4.443989e+01 5.850479e+01 4.716148e+01 4.882236e+01 6.117884e+01 4.398654e+01 5.015607e+01 5.240158e+01 5.114532e+01 8.247889e+01 4.167255e+01 3.069041e+01 9.343977e+01 2.052747e+00 2.549974e+00 2.238624e+00 2.037627e+00 3.162596e+00 2.880598e+00 2.910684e+00 3.625620e+00 3.420395e+00 3.461476e+00 3.360791e+00 2.521209e+00 1.564205e+00 2.680832e-01 3.387999e-01 3.720448e-01 4.412044e-01 5.745355e-01 5.009859e-01 5.483257e-01 6.223100e-01 6.119963e-01 6.445124e-01 5.930634e-01 4.574002e-01 1.899912e-01
<GCONST> 1.254647e+02
<TRANSP> 5
 0.000000e+00 1.000000e+00 0.000000e+00 0.000000e+00 0.000000e+00
 0.000000e+00 4.243220e-01 5.756781e-01 0.000000e+00 0.000000e+00
 0.000000e+00 0.000000e+00 2.045507e-01 7.954493e-01 0.000000e+00
 0.000000e+00 0.000000e+00 0.000000e+00 6.297996e-01 3.702004e-01
 0.000000e+00 0.000000e+00 0.000000e+00 0.000000e+00 0.000000e+00
<ENDHMM>
~h "s"
<BEGINHMM>
<NUMSTATES> 5
<STATE> 2
<MEAN> 39
 -1.140438e+01 5.778933e+00 -6.475441e+00 -2.519267e+00 -7.536415e+00 -1.040714e+01 -2.818382e+00 -4.930190e+00 -5.542852e+00 -9.065056e+00 -5.028962e+00 -5.213467e+00 6.609852e+01 -3.427869e+00 2.194455e+00 -1.351305e+00 1.333977e+00 9.304673e-01 1.185256e-01 1.523233e+00 2.703570e-01 5.829711e-01 2.906743e-01 8.891011e-01 3.038830e-01 -1.717061e-01 3.578440e-02 -3.684636e-01 -2.533728e-02 -2.835165e-01 -5.813296e-02 1.829947e-01 -3.227793e-02 1.270390e-01 -3.058676e-02 3.468926e-01 3.311019e-02 1.384696e-01 -1.112723e-02
<VARIANCE> 39
 7.427902e+01 8.244310e+01 1.046480e+02 7.934087e+01 9.521867e+01 7.743281e+01 8.173476e+01 8.242787e+01 6.837794e+01 8.006287e+01 5.581943e+01 4.573775e+01 8.704446e+01 3.897570e+00 4.398640e+00 4.420533e+00 4.789012e+00 4.850217e+00 4.569548e+00 4.592406e+00 4.946455e+00 4.235454e+00 4.818480e+00 4.373673e+00 3.596061e+00 9.341933e-01 9.281020e-01 7.126698e-01 8.196375e-01 6.844964e-01 7.993193e-01 7.691531e-01 8.515477e-01 7.707309e-01 7.562488e-01 7.564511e-01 7.469162e-01 5.669410e-01 1.206384e-01
<GCONST> 1.404492e+02
<STATE> 3
<MEAN> 39
 -2.352789e+01 7.718270e+00 -7.899050e+00 2.233032e+00 -3.326768e+00 -6.464501e+00 3.298219e+00 -8.955370e-01 -1.973494e+00 -1.820650e+00 -1.167891e+00 -6.512446e-01 6.659265e+01 -1.864858e-01 -2.791202e-01 -2.834401e-02 6.581441e-02 -1.139375e-01 1.687132e-01 7.262930e-02 8.536882e-02 1.801069e-01 1.817169e-01 1.914423e-01 1.949054e-01 -3.652137e-01 7.862495e-01 -2.655209e-01 3.092888e-01 -1.829748e-01 -2.403706e-01 -1.875545e-01 -3.726488e-01 -1.245949e-01 -1.248673e-01 -2.220149e-01 -2.554183e-01 -1.680103e-01 2.656568e-02
<VARIANCE> 39
 3.327520e+01 5.886144e+01 5.826894e+01 7.125272e+01 4.992579e+01 6.852045e+01 4.557727e+01 5.731555e+01 4.106357e+01 5.691861e+01 2.983289e+01 3.300753e+01 8.015833e+01 3.134014e+00 1.554631e+00 2.314844e+00 1.803566e+00 2.157985e+00 2.585000e+00 2.678231e+00 2.561003e+00 2.277050e+00 2.542166e+00 2.417722e+00 1.965871e+00 8.921536e-01 4.580864e-01 3.568733e-01 3.603913e-01 4.242736e-01 4.610831e-01 4.989364e-01 5.603998e-01 5.296038e-01 4.573904e-01 4.934446e-01 5.170209e-01 3.959640e-01 1.277914e-01
<GCONST> 1.209797e+02
<STATE> 4
<MEAN> 39
 -1.548768e+01 7.159001e+00 -7.547984e+00 -7.346025e-01 -9.145205e+00 -6.967142e+00 -1.464985e+00 -2.922635e+00 -2.995637e+00 -7.302653e+00 -1.596906e+00 -2.672923e+00 5.834766e+01 3.149160e+00 -1.251409e+00 7.493885e-01 -1.128102e+00 -1.159142e+00 -6.432984e-01 -1.569813e+00 -3.189218e-01 -5.079626e-01 -5.329927e-01 -9.578323e-01 -6.150556e-01 7.471908e-01 3.968722e-01 -2.212004e-01 2.326376e-02 -3.766746e-01 -9.108294e-03 3.504622e-02 -2.023783e-01 -9.398210e-02 -1.732420e-01 1.111249e-01 -1.865903e-01 -7.605796e-02 3.093054e-01
<VARIANCE> 39
 8.291880e+01 9.219508e+01 7.677647e+01 8.939059e+01 9.633065e+01 1.268028e+02 8.151890e+01 7.767188e+01 7.059055e+01 7.951284e+01 6.595932e+01 5.008325e+01 1.847748e+02 8.070746e+00 7.220796e+00 5.354158e+00 6.967457e+00 7.149151e+00 7.269273e+00 6.912453e+00 7.115370e+00 6.792960e+00 6.097581e+00 6.467017e+00 4.716816e+00 3.393248e+00 1.166698e+00 8.491582e-01 6.845644e-01 9.960817e-01 1.137544e+00 1.276909e+00 1.238717e+00 1.118704e+00 1.143390e+00 1.045716e+00 1.075631e+00 8.310724e-01 3.931729e-01
<GCONST> 1.529057e+02
<TRANSP> 5
 0.000000e+00 1.000000e+00 0.000000e+00 0.000000e+00 0.000000e+00
 0.000000e+00 7.272164e-01 2.727837e-01 0.000000e+00 0.000000e+00
 0.000000e+00 0.000000e+00 8.098394e-01 1.901605e-01 0.000000e+00
 0.000000e+00 0.000000e+00 0.000000e+00 7.120187e-01 2.879813e-01
 0.000000e+00 0.000000e+00 0.000000e+00 0.000000e+00 0.000000e+00
<ENDHMM>
~h "t"
<BEGINHMM>
<NUMSTATES> 5
<STATE> 2
<MEAN> 39
 -7.797923e+00 1.063712e+00 -3.626690e+00 -1.972693e+00 -6.220984e+00 -4.401165e+00 -4.385405e+00 -2.446882e+00 -3.190482e+00 -2.489466e+00 -1.252433e+00 -1.853256e+00 5.365900e+01 -1.063294e+00 -1.022830e+00 -6.436442e-01 -3.554342e-01 -1.201080e-01 2.920308e-01 4.621595e-01 2.841549e-01 5.978107e-01 1.385841e-01 5.674660e-01 4.578429e-01 8.700088e-02 1.931221e-01 -4.357424e-01 2.013748e-01 -4.818523e-01 -2.169205e-01 -5.005416e-01 -8.738797e-02 2.054815e-02 -1.776354e-01 2.769202e-02 -2.600582e-01 -1.343487e-01 1.147140e+00
<VARIANCE> 39
 3.571714e+01 5.404782e+01 4.914066e+01 3.618311e+01 5.114737e+01 5.332781e+01 4.017480e+01 3.852687e+01 4.441989e+01 6.335115e+01 3.384462e+01 3.046053e+01 8.919780e+01 1.853253e+00 3.579042e+00 3.583047e+00 3.208419e+00 3.991969e+00 4.567293e+00 3.769159e+00 3.571086e+00 3.495888e+00 3.408805e+00 3.698627e+00 2.653348e+00 8.358590e+00 4.137614e-01 5.995680e-01 5.886234e-01 6.824474e-01 8.133017e-01 7.815334e-01 7.891282e-01 7.446045e-01 7.038675e-01 7.345979e-01 6.783359e-01 5.690606e-01 7.802843e-01
<GCONST> 1.329247e+02
<STATE> 3
<MEAN> 39
 -1.057313e+01 -6.223302e+00 -4.225836e+00 -5.970407e+00 -7.167024e+00 -6.372606e+00 -2.019659e+00 -1.071727e+00 -2.061447e+00 -3.069362e+00 -8.539548e-01 -1.834834e+00 6.359836e+01 8.823705e-01 -1.190201e+00 5.382250e-01 -1.672628e+00 -6.506099e-01 -2.324440e+00 -6.411781e-01 -1.612595e-01 -3.155391e-01 1.073080e-02 -9.154347e-01 -6.899045e-01 4.276011e+00 1.010504e+00 5.712128e-01 1.415841e-01 -2.576529e-01 1.080985e-02 -1.381130e-01 -7.755155e-01 -3.272862e-01 -4.773474e-01 5.800924e-02 -5.924173e-01 -3.098291e-01 -1.627137e-01
<VARIANCE> 39
 4.043523e+01 4.558580e+01 4.385112e+01 5.587790e+01 6.198533e+01 6.589039e+01 5.474522e+01 4.968402e+01 4.485589e+01 5.482836e+01 4.091296e+01 3.898034e+01 1.251335e+02 5.830208e+00 6.909507e+00 5.870533e+00 5.868656e+00 7.326591e+00 6.944532e+00 8.692925e+00 7.179499e+00 5.990499e+00 6.161632e+00 5.948826e+00 4.357780e+00 7.250246e+00 6.691906e-01 1.142175e+00 1.022303e+00 1.041851e+00 1.131164e+00 1.259059e+00 1.130218e+00 1.363464e+00 1.124990e+00 1.227361e+00 9.009082e-01 8.794062e-01 1.333809e+00
<GCONST> 1.483369e+02
<STATE> 4
<MEAN> 39
 -3.902425e+00 -4.612119e+00 -3.628409e+00 -9.025390e+00 -8.243609e+00 -1.227075e+01 -7.499961e+00 -2.767626e+00 -3.829578e+00 -3.999040e+00 -5.751885e+00 -5.067253e+00 6.933351e+01 2.476780e+00 7.267000e-02 2.542394e-01 -1.738191e+00 -3.273595e-01 -9.776325e-01 -1.822860e+00 -5.627325e-01 -1.155184e+00 5.432770e-01 -1.528506e+00 -9.548894e-01 1.790101e+00 9.161144e-03 2.711720e-01 -3.694123e-02 1.714763e-01 2.465208e-01 9.472728e-01 1.203959e-01 -8.745532e-03 -2.106232e-01 6.004207e-02 1.325247e-01 1.999846e-01 -1.030287e+00
<VARIANCE> 39
 3.817317e+01 5.760314e+01 5.197314e+01 8.114761e+01 7.056828e+01 7.326697e+01 9.353973e+01 6.419959e+01 5.130725e+01 7.122977e+01 4.692447e+01 4.355250e+01 9.040813e+01 6.566144e+00 7.046079e+00 6.811433e+00 6.933070e+00 6.812487e+00 6.449553e+00 8.899460e+00 9.193447e+00 7.968474e+00 8.195338e+00 5.745087e+00 6.154436e+00 5.594972e+00 6.469386e-01 6.821706e-01 7.467948e-01 8.454687e-01 9.621277e-01 1.128108e+00 1.308296e+00 9.754472e-01 8.832864e-01 9.552893e-01 9.604759e-01 7.176262e-01 9.272866e-01
<GCONST> 1.490751e+02
<TRANSP> 5
 0.000000e+00 1.000000e+00 0.000000e+00 0.000000e+00 0.000000e+00
 0.000000e+00 6.975762e-01 3.024238e-01 0.000000e+00 0.000000e+00
 0.000000e+00 0.000000e+00 4.317406e-01 5.682594e-01 0.000000e+00
 0.000000e+00 0.000000e+00 0.000000e+00 2.421569e-01 7.578431e-01
 0.000000e+00 0.000000e+00 0.000000e+00 0.000000e+00 0.000000e+00
<ENDHMM>
~h "u"
<BEGINHMM>
<NUMSTATES> 5
<STATE> 2
<MEAN> 39
 3.716019e+00 -3.468629e-01 -6.027712e+00 -1.571211e+01 -6.771025e+00 -7.374973e+00 -1.411670e+01 -5.826469e+00 -9.953002e+00 -2.105548e+00 -4.039912e+00 -5.626175e+00 6.819050e+01 1.249537e+00 6.951059e-01 -5.169350e-01 -1.035503e+00 -1.921345e-01 5.533303e-01 -7.780691e-01 -7.291341e-01 -7.033862e-01 1.531290e-01 3.261404e-01 -2.352703e-02 -1.315899e-01 -5.465175e-01 -1.527077e-01 1.030415e-01 6.230224e-01 1.042199e-01 2.499684e-01 6.256749e-01 2.060026e-01 3.391587e-01 -2.566765e-01 -3.552270e-02 1.248904e-01 -3.299666e-01
<VARIANCE> 39
 3.337545e+01 7.401725e+01 5.588423e+01 1.392585e+02 7.840269e+01 7.016710e+01 8.199561e+01 8.512277e+01 7.804783e+01 7.914253e+01 4.886543e+01 5.168049e+01 6.023353e+01 2.769132e+00 2.932964e+00 3.821092e+00 6.574890e+00 5.423759e+00 4.957892e+00 5.686590e+00 6.171527e+00 6.000773e+00 5.195721e+00 3.871567e+00 3.687273e+00 1.987279e+00 5.285725e-01 5.929648e-01 5.631182e-01 1.090656e+00 9.803752e-01 9.267494e-01 1.152363e+00 1.275584e+00 1.222395e+00 9.979239e-01 7.638443e-01 7.752018e-01 2.680524e-01
<GCONST> 1.425264e+02
<STATE> 3
<MEAN> 39
 5.087964e+00 3.394341e+00 -8.421597e+00 -1.468738e+01 -7.695765e+00 -5.466537e+00 -1.197335e+01 -8.688181e+00 -1.154831e+01 -3.475748e+00 -3.959828e+00 -4.497461e+00 6.449557e+01 -1.786790e-01 1.816851e-01 1.332603e-01 6.442567e-01 7.313726e-02 2.209509e-01 3.250543e-01 -7.376561e-02 2.795888e-01 -2.118703e-01 -6.769809e-02 -1.885367e-02 -4.741080e-01 -2.541751e-01 -1.384421e-01 1.688438e-01 2.930847e-01 7.660521e-02 -7.534456e-02 1.342779e-01 1.426909e-01 2.154138e-01 -8.437887e-03 -6.545177e-02 -2.299238e-02 -4.210556e-02
<VARIANCE> 39
 2.943387e+01 5.816898e+01 4.469643e+01 7.745509e+01 5.679432e+01 4.315660e+01 5.066099e+01 6.207401e+01 6.808685e+01 7.737303e+01 4.389576e+01 3.777426e+01 5.052194e+01 6.590555e-01 1.586891e+00 1.654531e+00 3.218171e+00 2.524079e+00 2.655446e+00 3.012358e+00 3.177765e+00 3.547422e+00 3.299760e+00 2.780417e+00 2.493681e+00 8.702918e-01 1.537818e-01 2.224284e-01 2.839330e-01 4.485155e-01 4.610012e-01 4.882355e-01 5.244220e-01 6.098692e-01 6.021776e-01 5.863286e-01 5.181462e-01 4.477156e-01 8.950574e-02
<GCONST> 1.201883e+02
<STATE> 4
<MEAN> 39
 4.732970e-01 5.178349e+00 -6.543675e+00 -7.341084e+00 -9.427148e+00 -4.888858e+00 -1.092987e+01 -8.382627e+00 -5.926286e+00 -4.964167e+00 -3.695431e+00 -4.774292e+00 5.700627e+01 -8.387215e-01 -4.467148e-02 4.339355e-01 1.022819e+00 2.269451e-01 1.443684e-01 5.486939e-01 3.676842e-01 5.849943e-01 -2.500463e-01 -9.187166e-02 4.275824e-02 -7.187614e-01 -1.453531e-01 -7.784296e-02 9.475695e-03 -1.587591e-01 3.259906e-02 -7.929880e-02 8.776773e-02 9.260274e-02 -1.109150e-01 6.031859e-02 -3.655424e-03 6.149619e-02 1.207045e-01
<VARIANCE> 39
 6.037160e+01 1.030771e+02 9.969443e+01 9.905714e+01 8.477695e+01 7.795485e+01 7.427612e+01 7.399981e+01 6.484368e+01 8.361481e+01 6.366872e+01 5.091471e+01 1.682729e+02 1.885049e+00 3.569954e+00 3.940010e+00 4.909074e+00 4.758724e+00 4.773714e+00 4.934584e+00 5.173645e+00 5.570505e+00 5.015794e+00 4.687133e+00 3.839443e+00 2.229960e+00 2.757936e-01 5.975645e-01 6.851638e-01 7.668285e-01 9.009441e-01 8.669175e-01 9.626737e-01 9.624102e-01 9.650812e-01 9.906002e-01 8.673632e-01 7.294538e-01 2.921981e-01
<GCONST> 1.425775e+02
<TRANSP> 5
 0.000000e+00 1.000000e+00 0.000000e+00 0.000000e+00 0.000000e+00
 0.000000e+00 5.159184e-01 4.840816e-01 0.000000e+00 0.000000e+00
 0.000000e+00 0.000000e+00 7.498093e-01 2.501906e-01 0.000000e+00
 0.000000e+00 0.000000e+00 0.000000e+00 5.875496e-01 4.124505e-01
 0.000000e+00 0.000000e+00 0.000000e+00 0.000000e+00 0.000000e+00
<ENDHMM>
~h "v"
<BEGINHMM>
<NUMSTATES> 5
<STATE> 2
<MEAN> 39
 -4.164192e+00 -1.155379e+01 -1.225369e+01 -1.983743e+01 5.078530e+00 -2.687229e+00 -1.245510e+01 7.857444e+00 -4.191885e+00 -8.213153e+00 -6.869488e+00 -9.477641e+00 7.684982e+01 -1.766624e-01 4.695133e-01 -3.803768e-01 5.700666e-01 -1.417172e-01 2.230138e-01 2.006445e-01 -3.843589e-01 -1.526539e-01 -4.670038e-01 1.756898e-01 -1.942367e-01 -3.150530e-01 3.010608e-01 -2.395867e-01 3.520014e-01 -3.783010e-01 -2.554419e-01 -1.896775e-01 -2.577680e-01 -2.793601e-01 -1.315472e-01 2.674238e-01 -6.401588e-02 1.363606e-01 9.807792e-02
<VARIANCE> 39
 2.687955e+01 2.256494e+01 2.214832e+01 1.064276e+02 7.934540e+01 3.592952e+01 1.309155e+02 4.342179e+01 5.214016e+01 4.778119e+01 1.115541e+01 2.711662e+01 6.917577e+01 3.880538e+00 1.133476e+00 1.741866e+00 5.119720e+00 8.198760e+00 5.594381e+00 1.486365e+01 5.953878e+00 5.604425e+00 2.213223e+00 1.851825e+00 2.202684e+00 3.393640e+00 7.467282e-01 1.734816e-01 4.823208e-01 1.355843e+00 1.940257e+00 8.967917e-01 3.506117e+00 1.179756e+00 1.048970e+00 8.526363e-01 3.629287e-01 5.968640e-01 5.067818e-01
<GCONST> 1.345285e+02
<STATE> 3
<MEAN> 39
 1.804283e-01 -1.326641e+01 -9.709038e-01 -1.676395e+01 -8.402706e+00 -9.928616e+00 -1.241293e+01 -1.899462e-01 -5.846164e+00 -7.463531e+00 -7.524527e+00 -6.387738e+00 7.119158e+01 3.158894e-01 -2.459965e+00 4.561454e+00 -4.061258e+00 -1.343562e+00 -1.537155e+00 -1.358976e+00 -9.864776e-01 -1.760366e+00 3.233954e+00 -1.245242e+00 6.146849e-01 2.255790e+00 -4.666884e-01 3.578191e-01 2.108144e-01 -5.113524e-02 4.521672e-01 4.526827e-01 8.313333e-01 -2.138044e-02 -2.523835e-01 6.265120e-02 -1.956086e-01 -3.370639e-01 1.018721e-01
<VARIANCE> 39
 5.717020e+01 3.643937e+01 8.771663e+01 1.245490e+02 1.149624e+02 1.933317e+01 6.781310e+01 5.271466e+01 2.141391e+01 5.035044e+01 1.311194e+01 2.628221e+01 2.055982e+01 3.900583e+00 2.003911e+00 5.261937e+00 2.178735e+00 7.152755e+00 1.734703e+00 6.290757e+00 2.652888e+00 8.193995e-01 1.253521e+00 1.260057e+00 3.208704e+00 3.504712e-01 9.537619e-01 9.549607e-01 2.269292e+00 7.180619e-01 8.298057e-01 2.107976e-01 7.066867e-01 6.332288e-01 5.504575e-01 6.729657e-01 2.695859e-01 4.586629e-01 3.203428e-01
<GCONST> 1.241840e+02
<STATE> 4
<MEAN> 39
 -4.782526e+00 -1.650557e+01 1.195718e+01 -3.306999e+01 -3.423192e+00 -1.181688e+01 -7.188838e+00 -2.303433e+00 -9.093646e+00 6.531161e-02 -1.302793e+01 -5.975561e+00 7.851707e+01 8.360299e-02 2.627957e-01 1.646347e-01 -2.111420e-01 -4.151680e-01 5.603422e-02 1.262242e+00 2.756257e-03 -1.859690e-01 4.669446e-01 4.282637e-02 -3.127816e-01 5.682285e-02 3.504071e-01 2.223876e-01 -3.023518e-01 3.356148e-01 -1.520766e-01 1.534942e-01 -1.463673e-01 1.185026e-01 7.776053e-02 -2.897162e-01 1.667359e-01 -1.973490e-02 -2.790518e-01
<VARIANCE> 39
 1.770199e+01 5.661402e+00 1.197211e+01 8.751912e+01 2.107300e+01 3.139020e+00 1.553390e+01 1.968619e+01 6.330109e+00 8.593046e+00 7.640038e+00 1.124694e+01 9.269380e+00 9.673182e-01 4.134491e-01 1.467602e+00 1.356179e+00 4.956074e-01 8.974227e-01 1.147557e+00 2.457259e+00 5.725667e-01 1.121937e+00 1.149927e+00 8.923197e-01 4.727452e-01 1.638501e-01 2.229825e-01 4.927168e-01 1.768630e-01 1.749027e-01 2.097716e-01 3.236555e-01 1.885630e-01 1.603918e-01 4.176254e-01 2.336429e-01 2.366195e-01 8.556204e-02
<GCONST> 8.275426e+01
<TRANSP> 5
 0.000000e+00 1.000000e+00 0.000000e+00 0.000000e+00 0.000000e+00
 0.000000e+00 8.617920e-01 1.382080e-01 0.000000e+00 0.000000e+00
 0.000000e+00 0.000000e+00 6.669757e-01 3.330244e-01 0.000000e+00
 0.000000e+00 0.000000e+00 0.000000e+00 8.506643e-01 1.493358e-01
 0.000000e+00 0.000000e+00 0.000000e+00 0.000000e+00 0.000000e+00
<ENDHMM>
~h "w"
<BEGINHMM>
<NUMSTATES> 5
<STATE> 2
<MEAN> 39
 8.505078e+00 1.081489e+01 -5.512784e+00 -1.250067e+01 -1.447772e+01 -7.081320e+00 -8.301748e+00 -3.416587e+00 -4.646010e+00 -2.693136e+00 -4.461426e+00 -5.663000e+00 5.997513e+01 5.284653e-01 4.808208e-01 -4.360207e-01 -1.016069e+00 -4.920492e-01 1.590993e-02 7.000552e-02 -1.213105e-01 -3.495132e-01 -2.079369e-01 1.728765e-01 3.485677e-01 2.134662e-01 -6.426562e-02 -3.798879e-01 -1.371913e-01 -7.248104e-02 1.145638e-01 1.747514e-01 2.094431e-02 -6.918665e-02 -4.279701e-03 7.049734e-02 5.506431e-02 -4.387474e-03 1.757131e-01
<VARIANCE> 39
 2.723338e+01 8.909089e+01 6.084354e+01 7.885994e+01 4.109021e+01 4.994152e+01 3.521531e+01 3.181491e+01 3.226183e+01 3.618701e+01 3.867923e+01 3.076067e+01 4.909196e+01 1.619662e+00 2.370443e+00 1.959963e+00 2.320321e+00 2.452923e+00 2.778492e+00 2.106477e+00 2.367622e+00 2.461443e+00 2.145594e+00 2.075606e+00 2.150935e+00 1.084173e+00 1.118561e-01 2.238126e-01 2.791453e-01 3.126836e-01 3.594519e-01 3.913305e-01 3.465635e-01 3.721469e-01 4.139109e-01 4.300911e-01 4.171116e-01 3.651530e-01 7.382709e-02
<GCONST> 1.139109e+02
<STATE> 3
<MEAN> 39
 1.016655e+01 7.706258e+00 -1.191041e+01 -1.821556e+01 -1.511094e+01 -4.107537e+00 -8.509252e+00 -7.118345e+00 -8.034699e+00 -3.467041e+00 -1.314231e+00 -4.119658e+00 6.205363e+01 4.265314e-01 -1.942798e+00 -1.327206e+00 -1.143785e+00 5.159677e-01 1.051976e+00 -5.503874e-01 -8.639412e-01 4.939031e-01 1.069861e+00 6.685906e-01 -6.826676e-01 1.595823e+00 -4.777401e-01 -6.106799e-01 3.138907e-01 5.909861e-01 3.654226e-01 -8.693787e-02 -1.197183e-01 2.157752e-01 5.010954e-01 2.363914e-01 -3.526171e-01 -4.550945e-01 6.569602e-02
<VARIANCE> 39
 2.636087e+01 5.721296e+01 4.659138e+01 5.492499e+01 5.325200e+01 5.452356e+01 4.602608e+01 4.730633e+01 4.158264e+01 5.795560e+01 6.322445e+01 3.431927e+01 4.391635e+01 2.807867e+00 4.247036e+00 2.968831e+00 4.726428e+00 5.840045e+00 6.198275e+00 3.940922e+00 4.675992e+00 5.275968e+00 4.984234e+00 5.918201e+00 4.430976e+00 1.357955e+00 3.316801e-01 4.410301e-01 5.765944e-01 6.669552e-01 8.559873e-01 1.296822e+00 7.123414e-01 9.764370e-01 8.070270e-01 7.931722e-01 9.425048e-01 8.077450e-01 1.517933e-01
<GCONST> 1.344791e+02
<STATE> 4
<MEAN> 39
 8.843763e+00 -3.387346e+00 -9.398772e+00 -1.292248e+01 -1.607815e+01 -5.191817e+00 -1.261194e+01 -5.863145e+00 2.056060e-01 -3.026367e-01 -2.113138e+00 -1.214216e+01 6.713237e+01 -7.059178e-01 -1.377626e+00 1.152341e+00 1.367866e+00 1.171255e-01 -9.984226e-01 1.122732e-03 9.675683e-01 5.939232e-01 -2.365297e-01 -1.184639e+00 -5.329793e-01 3.628550e-01 -5.795171e-02 4.225127e-01 2.615094e-01 1.009193e-01 -1.519657e-01 -2.393177e-01 3.260544e-01 1.777858e-01 -3.808374e-01 -3.337578e-01 -1.699596e-02 4.665898e-01 -2.685679e-01
<VARIANCE> 39
 1.961507e+01 3.936455e+01 9.738012e+01 9.292985e+01 1.172862e+02 1.082520e+02 8.093996e+01 8.974181e+01 8.239268e+01 1.187562e+02 1.179445e+02 5.448033e+01 2.371145e+01 5.412412e-01 3.722458e+00 2.433030e+00 3.310529e+00 4.271406e+00 4.686418e+00 4.442432e+00 4.970082e+00 6.318573e+00 5.016293e+00 5.348545e+00 5.011312e+00 1.445763e+00 8.664310e-02 3.090319e-01 3.778026e-01 5.375406e-01 7.026114e-01 9.433585e-01 7.396392e-01 9.620607e-01 9.162928e-01 9.308897e-01 9.485168e-01 6.797380e-01 9.800322e-02
<GCONST> 1.340038e+02
<TRANSP> 5
 0.000000e+00 1.000000e+00 0.000000e+00 0.000000e+00 0.000000e+00
 0.000000e+00 7.652060e-01 2.347940e-01 0.000000e+00 0.000000e+00
 0.000000e+00 0.000000e+00 6.811438e-01 3.188563e-01 0.000000e+00
 0.000000e+00 0.000000e+00 0.000000e+00 7.436300e-01 2.563701e-01
 0.000000e+00 0.000000e+00 0.000000e+00 0.000000e+00 0.000000e+00
<ENDHMM>
~h "y"
<BEGINHMM>
<NUMSTATES> 5
<STATE> 2
<MEAN> 39
 -3.967951e+00 -9.884909e-01 9.774034e+00 -1.643383e+01 -1.571240e+01 -8.927757e+00 -5.930407e+00 -7.481825e+00 -1.019036e+01 -1.552943e+00 -6.484289e+00 -4.052142e+00 6.805963e+01 -6.377348e-02 -4.861689e-01 1.497453e+00 -1.473097e+00 -1.690425e+00 -3.601476e-01 2.658239e-01 -2.815275e-02 -3.942198e-01 9.810835e-01 -3.472245e-02 -2.078912e-01 1.298097e+00 -3.003282e-03 -3.907848e-01 -6.575613e-01 3.063708e-01 2.665220e-01 6.289147e-02 2.354198e-01 4.101412e-01 1.929466e-01 -9.041305e-02 -6.323080e-03 -2.566865e-02 3.756786e-03
<VARIANCE> 39
 3.171365e+01 1.000662e+02 7.745228e+01 1.556532e+02 8.949000e+01 6.804583e+01 7.058775e+01 9.598631e+01 6.922845e+01 6.736309e+01 8.078227e+01 4.756028e+01 1.127757e+02 2.983056e+00 4.241586e+00 7.505644e+00 6.925425e+00 6.872991e+00 5.060915e+00 5.679133e+00 4.985039e+00 5.751509e+00 4.356059e+00 4.732845e+00 3.382190e+00 3.802304e+00 3.740460e-01 5.298366e-01 1.190016e+00 1.085526e+00 1.269091e+00 8.367804e-01 9.252149e-01 7.635254e-01 9.929075e-01 9.520476e-01 7.938270e-01 5.793387e-01 3.645651e-01
<GCONST> 1.453179e+02
<STATE> 3
<MEAN> 39
 -3.008896e+00 -6.464963e+00 9.201171e+00 -1.751435e+01 -2.046004e+01 -1.053008e+01 -1.822787e+00 -3.472611e+00 -8.593265e+00 9.443358e-01 -6.152061e+00 -5.635710e+00 7.348199e+01 1.949308e-01 -1.501635e+00 -1.656148e+00 4.951703e-01 6.630012e-01 -1.087844e-01 1.117273e+00 1.651797e+00 3.005041e-01 -8.454548e-01 -3.672577e-01 -9.994210e-02 6.950103e-01 8.453250e-02 7.146827e-02 -4.005399e-01 2.706362e-01 7.213219e-01 9.639794e-02 -2.303569e-01 3.501060e-02 5.561032e-03 -4.548855e-01 -1.882074e-01 1.811157e-01 -2.248675e-01
<VARIANCE> 39
 3.158537e+01 5.984061e+01 4.586898e+01 1.030928e+02 7.549122e+01 6.283759e+01 6.356865e+01 1.209251e+02 7.276242e+01 7.244437e+01 6.320580e+01 5.275699e+01 6.573345e+01 5.608963e-01 2.112924e+00 3.432823e+00 2.950999e+00 3.692670e+00 3.070014e+00 4.523070e+00 3.831899e+00 4.617405e+00 4.352732e+00 3.998027e+00 3.047191e+00 6.288332e-01 1.231759e-01 3.305446e-01 4.235721e-01 4.841415e-01 5.051093e-01 4.801199e-01 7.773263e-01 7.450950e-01 8.551991e-01 6.597004e-01 5.825408e-01 5.383102e-01 1.316896e-01
<GCONST> 1.282576e+02
<STATE> 4
<MEAN> 39
 -3.486774e+00 -9.412324e+00 2.069833e+00 -1.379237e+01 -1.098810e+01 -8.016358e+00 1.423430e-01 5.467464e-01 -7.868764e+00 -2.632006e+00 -9.600315e+00 -2.529209e+00 7.620563e+01 1.170801e-01 -3.099061e-01 -7.443830e-01 3.336821e-01 1.012216e+00 2.099281e-01 -2.330481e-01 1.756722e-01 1.121612e-01 -4.090626e-01 -2.391786e-01 2.222622e-01 -1.039773e-01 7.057166e-03 1.446570e-01 5.372876e-02 1.807601e-02 4.811357e-03 2.817803e-02 -1.556728e-01 -1.438573e-01 3.692319e-02 8.526710e-02 5.803636e-02 -4.963591e-02 -1.257396e-01
<VARIANCE> 39
 2.019983e+01 4.782148e+01 5.948986e+01 6.091791e+01 6.285162e+01 6.637183e+01 7.660038e+01 8.972462e+01 5.187221e+01 9.183567e+01 6.192073e+01 4.004920e+01 5.052424e+01 3.018646e-01 1.044732e+00 1.877252e+00 1.490672e+00 2.381593e+00 1.605012e+00 2.299774e+00 2.303041e+00 2.334322e+00 3.030473e+00 2.360287e+00 1.744706e+00 2.628526e-01 4.719716e-02 1.670720e-01 1.824326e-01 2.051206e-01 2.700355e-01 2.928681e-01 3.914563e-01 4.509192e-01 3.793406e-01 4.616516e-01 3.308282e-01 3.094701e-01 6.050728e-02
<GCONST> 1.098167e+02
<TRANSP> 5
 0.000000e+00 1.000000e+00 0.000000e+00 0.000000e+00 0.000000e+00
 0.000000e+00 6.847133e-01 3.152867e-01 0.000000e+00 0.000000e+00
 0.000000e+00 0.000000e+00 6.749913e-01 3.250087e-01 0.000000e+00
 0.000000e+00 0.000000e+00 0.000000e+00 8.151439e-01 1.848561e-01
 0.000000e+00 0.000000e+00 0.000000e+00 0.000000e+00 0.000000e+00
<ENDHMM>
~h "z"
<BEGINHMM>
<NUMSTATES> 5
<STATE> 2
<MEAN> 39
 -8.361889e+00 1.818098e+01 6.246364e+00 -1.157079e+01 -3.287115e+01 -7.719235e-01 -4.458101e+00 -1.997382e+01 -2.698975e+00 -1.436306e+01 -1.348045e+01 -1.150714e+01 5.743017e+01 7.655200e-02 -4.537029e-02 -3.897965e-01 5.621255e-01 -7.045507e-01 5.843737e-01 5.691021e-02 -1.179010e-01 -9.687796e-02 1.666146e-01 2.664862e-01 -5.007883e-01 -9.790130e-03 2.123151e-02 -9.947167e-02 1.039850e-01 -3.465455e-01 1.474428e-01 -5.941698e-02 2.708733e-02 -3.381757e-02 3.698257e-02 5.197489e-02 7.344182e-02 1.048244e-01 6.893592e-02
<VARIANCE> 39
 9.840325e+00 8.525831e+01 8.364816e+01 1.637966e+02 3.837427e+01 2.158418e+01 2.681793e+01 4.395399e+01 1.618332e+01 4.035482e+01 3.348572e+01 4.780870e+01 2.756336e+01 1.654014e+00 6.756491e+00 6.037099e+00 1.566921e+01 3.518546e+00 2.170455e+00 2.937936e+00 4.435910e+00 2.172006e+00 4.557448e+00 2.373113e+00 3.933275e+00 1.969951e+00 2.632559e-01 8.255216e-01 6.784914e-01 1.652112e+00 5.653215e-01 2.965131e-01 4.944123e-01 9.198355e-01 2.998572e-01 1.005371e+00 4.172446e-01 6.773403e-01 2.056330e-01
<GCONST> 1.276400e+02
<STATE> 3
<MEAN> 39
 -5.535154e+00 5.934550e+00 5.488994e+00 -2.251038e+01 -3.024684e+01 1.269177e+00 -1.928953e+00 -2.007361e+01 -3.947607e+00 -1.021423e+01 -1.233287e+01 -9.219437e+00 6.339941e+01 8.421985e-01 -2.898985e-01 -1.997234e-01 -6.786774e-01 9.896706e-01 -6.784713e-01 5.964410e-01 3.642084e-01 -5.729195e-01 -3.281366e-01 1.106273e+00 4.190126e-01 -2.415648e-01 2.106601e-01 2.267998e-01 -2.231159e-01 6.585149e-01 3.569641e-01 -2.934110e-01 -3.189374e-01 1.287030e-01 -1.537382e-01 -2.945859e-01 6.921612e-02 -2.069915e-02 -2.344934e-01
<VARIANCE> 39
 9.204421e+00 1.518709e+01 6.061793e+01 1.233696e+02 3.006365e+01 2.719572e+01 2.556236e+01 4.227826e+01 6.395390e+01 2.406672e+01 5.594492e+01 5.813276e+00 9.554223e+00 1.081886e+00 8.697322e-01 1.248451e+00 7.793870e+00 5.918335e+00 3.199838e+00 4.104718e+00 2.063244e+00 5.931691e+00 9.382824e-01 3.297926e+00 1.356349e+00 1.025010e+00 3.372450e-01 1.162944e-01 2.687767e-01 1.218122e+00 9.019895e-01 7.128609e-01 9.740340e-01 5.267653e-01 7.327830e-01 1.770602e-01 8.548744e-01 2.580962e-01 5.543744e-02
<GCONST> 1.132308e+02
<STATE> 4
<MEAN> 39
 -8.511280e-01 1.542055e+00 4.540635e+00 -1.747701e+01 -1.996833e+01 -5.795697e+00 -3.807554e+00 -9.707872e+00 -9.876958e+00 -1.101665e+01 -5.517459e+00 -6.856900e+00 6.230919e+01 1.397024e+00 1.040642e-01 -5.521454e-01 1.472345e+00 2.438110e+00 -4.160121e-01 -1.976218e+00 2.327904e-01 1.167050e-01 -1.823123e+00 -2.345112e-01 4.791858e-01 -1.160403e+00 -2.915132e-01 -1.016030e-02 -4.086950e-01 2.475298e-01 -5.596290e-01 6.742246e-02 3.089313e-01 -8.730861e-01 1.032533e-01 1.072011e-01 -7.939646e-01 -2.484970e-01 2.406641e-01
<VARIANCE> 39
 3.457952e+00 1.180646e+02 3.487351e+01 1.896143e+00 9.474053e+00 2.568722e+01 1.511770e+01 8.247816e+01 4.973529e+01 3.347674e+01 4.942756e+01 3.162464e+00 2.800834e+01 4.700076e-02 2.869370e+00 2.233006e+00 8.599845e+00 2.134553e+00 2.829343e+00 3.811040e+00 5.771253e-01 2.358549e+00 2.290088e+00 2.922056e+00 2.016168e+00 2.043180e+00 1.623956e-01 1.601731e-01 3.201528e-02 8.495935e-01 7.169415e-01 2.705142e-01 8.928974e-01 2.756679e-01 3.183090e+00 4.331423e-01 1.678220e-01 1.457395e-01 4.059813e-02
<GCONST> 1.011288e+02
<TRANSP> 5
 0.000000e+00 1.000000e+00 0.000000e+00 0.000000e+00 0.000000e+00
 0.000000e+00 8.986612e-01 1.013388e-01 0.000000e+00 0.000000e+00
 0.000000e+00 0.000000e+00 8.177310e-01 1.822691e-01 0.000000e+00
 0.000000e+00 0.000000e+00 0.000000e+00 7.495205e-03 9.925048e-01
 0.000000e+00 0.000000e+00 0.000000e+00 0.000000e+00 0.000000e+00
<ENDHMM>
~h "aw"
<BEGINHMM>
<NUMSTATES> 5
<STATE> 2
<MEAN> 39
 -4.334583e-01 -1.556660e+01 -8.953082e+00 -1.954570e+01 -9.993232e+00 3.475336e-01 -5.717104e-01 -3.175475e+00 -6.027269e+00 -4.546336e+00 -8.726696e+00 -6.261960e+00 7.831938e+01 -2.377993e-01 1.747102e-01 6.767346e-01 -4.541292e-01 -8.440460e-01 -2.694397e-01 2.260660e-01 -4.976211e-02 -2.757566e-01 6.961723e-01 -2.784611e-01 -1.668074e-01 1.732335e-01 2.446211e-02 -9.643536e-03 -6.210248e-03 2.497215e-02 -8.973983e-02 9.137952e-02 -1.063680e-01 1.051698e-01 -6.924463e-04 -5.655642e-02 4.289906e-02 -5.742554e-02 8.809884e-03
<VARIANCE> 39
 4.473618e+01 1.330359e+01 6.750350e+01 3.750896e+01 5.940921e+01 6.556114e+01 9.296302e+01 3.941204e+01 5.064639e+01 5.944750e+01 3.423080e+01 2.412261e+01 6.328497e+01 4.911677e+00 1.970475e+00 5.113185e+00 3.889506e+00 7.041097e+00 6.771955e+00 1.014563e+01 4.452229e+00 5.580453e+00 5.580034e+00 3.549558e+00 2.351839e+00 4.747487e+00 7.007834e-01 3.852604e-01 9.712095e-01 6.791713e-01 9.838687e-01 1.419351e+00 1.501436e+00 8.951250e-01 1.209405e+00 8.852002e-01 7.214954e-01 4.114050e-01 5.065933e-01
<GCONST> 1.383811e+02
<STATE> 3
<MEAN> 39
 -1.072189e+01 -1.145728e+01 2.413451e+00 -2.272253e+01 -2.353213e+01 -2.705299e+00 7.871109e+00 -2.043791e-01 -1.019151e+01 5.000204e+00 -1.056009e+01 -1.136160e+01 8.666203e+01 1.823302e-01 -1.416060e-01 2.747785e-01 -3.394952e-01 2.263992e-01 2.905277e-01 -2.383501e-01 1.365905e-01 -2.113505e-01 -2.341461e-01 2.835813e-01 5.148678e-02 -2.142114e-01 1.579573e-01 -6.558812e-02 9.508769e-02 -9.430043e-03 1.339454e-01 -1.178063e-01 -1.487737e-01 -1.594465e-01 -6.210989e-02 -5.646984e-02 -4.207374e-02 1.840671e-01 -2.194656e-01
<VARIANCE> 39
 3.620367e+01 1.346241e+01 5.457315e+01 3.213279e+01 2.958958e+01 2.569098e+01 3.935065e+01 2.445207e+01 1.983038e+01 5.179975e+01 1.969904e+01 1.514905e+01 2.458131e+01 1.465225e+00 9.692432e-01 2.217573e+00 1.877393e+00 2.220221e+00 1.324812e+00 2.178431e+00 2.678593e+00 2.612520e+00 2.377353e+00 1.804502e+00 1.418339e+00 1.059288e+00 1.041359e-01 1.712808e-01 2.268151e-01 3.239376e-01 5.595838e-01 2.527454e-01 2.190753e-01 4.908403e-01 3.873205e-01 4.283227e-01 2.906162e-01 2.727985e-01 4.997443e-02
<GCONST> 1.039664e+02
<STATE> 4
<MEAN> 39
 -1.058833e+00 -1.368894e+01 6.545236e+00 -2.595299e+01 -1.968624e+01 5.448223e+00 -3.014793e+00 -6.293290e+00 -8.450679e+00 -1.881217e+00 -1.161664e+01 -5.886364e+00 7.236488e+01 3.024803e-01 3.227527e-01 -5.474439e-01 1.077921e+00 5.373049e-01 3.885395e-01 -2.022043e-01 -6.399161e-01 9.742305e-01 -7.927526e-01 -8.242287e-03 2.798232e-01 -1.070619e+00 -1.361307e-01 8.349459e-02 -1.439407e-01 1.323397e-01 1.580224e-01 -1.759523e-01 2.334003e-01 -8.516163e-04 5.545578e-02 2.420360e-02 -3.582866e-02 -2.384059e-02 6.356759e-02
<VARIANCE> 39
 1.604809e+01 1.703605e+01 3.529878e+01 5.721009e+01 5.179147e+01 2.556832e+01 6.163705e+01 4.159412e+01 6.487016e+01 3.716393e+01 3.476886e+01 2.792943e+01 4.433842e+01 9.433362e-01 1.044384e+00 1.924304e+00 2.956843e+00 2.337665e+00 2.626673e+00 3.569254e+00 3.074918e+00 4.284558e+00 3.687442e+00 2.906513e+00 2.135953e+00 6.531968e-01 2.444122e-01 2.404573e-01 2.500601e-01 6.183010e-01 4.228038e-01 5.877436e-01 7.123297e-01 6.249750e-01 1.050972e+00 8.314692e-01 6.377689e-01 3.585334e-01 9.181947e-02
<GCONST> 1.175879e+02
<TRANSP> 5
 0.000000e+00 1.000000e+00 0.000000e+00 0.000000e+00 0.000000e+00
 0.000000e+00 9.425133e-01 5.748662e-02 0.000000e+00 0.000000e+00
 0.000000e+00 0.000000e+00 8.979933e-01 1.020068e-01 0.000000e+00
 0.000000e+00 0.000000e+00 0.000000e+00 8.928125e-01 1.071875e-01
 0.000000e+00 0.000000e+00 0.000000e+00 0.000000e+00 0.000000e+00
<ENDHMM>
~h "ay"
<BEGINHMM>
<NUMSTATES> 5
<STATE> 2
<MEAN> 39
 -5.782044e+00 7.367379e+00 2.075316e+00 -1.679191e+01 -1.698291e+01 -2.669671e+00 -4.298574e+00 -1.162261e+01 -4.171381e+00 -1.173855e+01 -6.507765e+00 -4.193314e+00 5.793459e+01 -4.029856e-05 1.285007e+00 3.183519e-01 -3.428085e-01 -3.355037e-01 8.564355e-01 -5.853150e-01 4.285139e-01 9.149869e-01 -3.899795e-02 2.209313e-01 -1.359799e-01 -1.268269e+00 -1.408798e-01 1.209827e-01 -1.115800e-01 3.299901e-01 1.351597e-01 -1.645856e-01 9.991883e-02 2.990485e-01 -2.256730e-01 9.568105e-02 1.292871e-01 8.053069e-02 -2.044539e-01
<VARIANCE> 39
 2.256995e+01 2.299086e+02 3.970681e+01 5.823969e+01 8.611582e+01 4.837938e+01 5.500649e+01 1.082948e+02 5.556104e+01 4.603206e+01 3.196810e+01 1.679555e+01 1.050601e+02 7.785985e-01 3.583689e+00 3.258067e+00 4.410145e+00 2.833309e+00 3.826463e+00 3.166246e+00 5.967793e+00 3.627796e+00 4.908565e+00 2.436871e+00 1.662525e+00 1.654325e+00 2.775713e-01 6.123590e-01 4.491568e-01 4.884780e-01 6.356056e-01 6.125612e-01 5.372016e-01 1.438330e+00 7.611916e-01 8.146735e-01 6.784611e-01 3.530237e-01 1.583734e-01
<GCONST> 1.293475e+02
<STATE> 3
<MEAN> 39
 -5.643579e+00 1.138989e+01 -4.627917e-01 -6.105339e+00 -2.156032e+01 -9.589275e-01 -1.689777e+00 1.490057e+00 -6.322246e+00 -1.548574e+01 -1.875508e+00 -3.059340e+00 4.410450e+01 4.508284e-02 -6.258959e-01 -5.036178e-01 1.128068e+00 7.766135e-02 -1.642512e-01 9.572253e-01 8.199029e-01 -6.822783e-01 5.428389e-01 7.690989e-01 4.834518e-01 -4.158036e-01 -1.360116e-01 -1.639682e-01 3.101711e-02 1.427805e-01 2.155727e-01 -2.440489e-01 -7.334493e-02 -5.155556e-01 -2.615147e-02 5.283684e-01 3.519996e-02 -4.460772e-02 1.868330e-01
<VARIANCE> 39
 4.145522e+01 3.274487e+02 6.975323e+01 2.222512e+02 1.539104e+02 2.179497e+02 1.186926e+02 6.580830e+01 6.411069e+01 8.048809e+01 6.302715e+01 2.158195e+01 2.797162e+02 3.554193e-01 9.054847e+00 5.388669e+00 2.500249e+01 9.518411e+00 1.696580e+01 7.196515e+00 6.104597e+00 4.164616e+00 5.458016e+00 5.250484e+00 1.876669e+00 1.472867e+00 1.502739e-01 1.993236e+00 5.502652e-01 4.178163e+00 1.068180e+00 2.657518e+00 1.024827e+00 1.185880e+00 8.048370e-01 1.206720e+00 9.328771e-01 4.898009e-01 3.249815e-01
<GCONST> 1.512906e+02
<STATE> 4
<MEAN> 39
 -6.131552e+00 3.158373e+00 -9.281899e+00 -8.537904e+00 -1.018088e+01 -4.636078e+00 -5.106710e+00 -3.242531e+00 -3.379681e-01 -7.382010e+00 -5.816805e+00 -2.021557e+00 5.008755e+01 -2.119479e-01 -9.955531e-01 2.027807e-01 -7.179737e-02 9.408207e-01 -1.160132e+00 1.198004e-01 -3.353081e-01 -5.562888e-01 6.683169e-01 -2.852715e-01 -3.185714e-01 1.243364e+00 1.292270e-02 1.551029e-01 2.130427e-01 -1.154091e-01 -1.229791e-01 -1.393971e-01 7.507898e-02 -7.518388e-02 -3.165430e-02 -1.680158e-01 -1.060047e-01 -6.080974e-02 1.488019e-01
<VARIANCE> 39
 4.275853e+01 2.291487e+02 5.813371e+01 1.412766e+02 1.593723e+02 2.359645e+02 7.267593e+01 7.601601e+01 9.932250e+01 5.837357e+01 1.038957e+02 3.202496e+01 2.246355e+02 3.022305e+00 2.002784e+01 4.466510e+00 8.756082e+00 9.099916e+00 1.746450e+01 1.041401e+01 7.102940e+00 6.834379e+00 5.884025e+00 5.285822e+00 2.154581e+00 1.204102e+01 6.949846e-01 3.528684e+00 7.337533e-01 1.468481e+00 1.863749e+00 3.895991e+00 1.788454e+00 8.304300e-01 1.098981e+00 1.124043e+00 1.109568e+00 3.628075e-01 1.899812e+00
<GCONST> 1.602718e+02
<TRANSP> 5
 0.000000e+00 1.000000e+00 0.000000e+00 0.000000e+00 0.000000e+00
 0.000000e+00 7.900387e-01 2.099613e-01 0.000000e+00 0.000000e+00
 0.000000e+00 0.000000e+00 6.367337e-01 3.632663e-01 0.000000e+00
 0.000000e+00 0.000000e+00 0.000000e+00 7.830903e-01 2.169097e-01
 0.000000e+00 0.000000e+00 0.000000e+00 0.000000e+00 0.000000e+00
<ENDHMM>
~h "eu"
<BEGINHMM>
<NUMSTATES> 5
<STATE> 2
<MEAN> 39
 -1.497663e+00 -4.736513e+00 -4.464200e+00 -9.763558e+00 -1.094090e+01 -1.051783e+01 -6.327126e+00 -2.088500e+00 -4.070050e+00 -4.512332e+00 -7.173677e+00 -5.241617e+00 6.787518e+01 9.541813e-01 -1.006727e+00 5.496606e-01 -1.367752e+00 -4.748576e-01 -5.858420e-01 -1.738559e-01 5.066798e-01 -2.572364e-01 -5.475027e-03 -7.723261e-01 -1.594822e-01 1.247802e+00 -2.475857e-01 3.148584e-01 2.463365e-02 3.776177e-01 3.006731e-01 4.762390e-01 1.446511e-01 -8.841668e-02 -1.064055e-01 -4.621282e-02 2.178869e-01 4.320286e-02 -5.589493e-01
<VARIANCE> 39
 6.045363e+01 1.090849e+02 6.499007e+01 1.131052e+02 9.932128e+01 9.811874e+01 8.788461e+01 8.178030e+01 7.490307e+01 9.573320e+01 5.916214e+01 4.584599e+01 1.754715e+02 4.845697e+00 5.703859e+00 4.635008e+00 6.280108e+00 6.048692e+00 5.778697e+00 7.199538e+00 6.365319e+00 6.017283e+00 5.546356e+00 4.808658e+00 3.850555e+00 4.349763e+00 7.891820e-01 1.039055e+00 7.485856e-01 1.151455e+00 1.112852e+00 1.184831e+00 1.140359e+00 1.131711e+00 1.108110e+00 1.131940e+00 9.006593e-01 6.766930e-01 8.782055e-01
<GCONST> 1.511410e+02
<STATE> 3
<MEAN> 39
 -3.815030e-01 -8.884186e+00 -2.032281e+00 -1.342039e+01 -1.111413e+01 -1.185293e+01 -5.094139e+00 -8.607059e-01 -5.496372e+00 -4.474370e+00 -8.845581e+00 -4.996436e+00 7.267347e+01 4.887541e-01 6.808310e-02 3.788510e-01 9.099706e-02 8.380084e-02 4.904244e-01 -2.992347e-01 -2.496095e-02 -2.610756e-01 -1.477275e-01 3.049761e-02 -1.182684e-01 -4.037622e-01 -2.571037e-01 6.116075e-01 -2.024227e-01 7.964442e-01 2.152057e-01 3.841216e-01 -8.381158e-04 -3.069961e-01 6.948183e-02 -1.448886e-01 4.054167e-01 -8.506502e-03 -7.038506e-01
<VARIANCE> 39
 4.020196e+01 8.553720e+01 5.847362e+01 1.162209e+02 9.986023e+01 6.395096e+01 8.987702e+01 9.838778e+01 8.305426e+01 9.991301e+01 6.057083e+01 4.404358e+01 6.569143e+01 2.119446e+00 2.745157e+00 2.691403e+00 3.512741e+00 3.770886e+00 3.856773e+00 4.744496e+00 4.135095e+00 3.863954e+00 4.123829e+00 3.492786e+00 2.546447e+00 1.862120e+00 5.690663e-01 6.369700e-01 6.469569e-01 8.709730e-01 1.002984e+00 7.968242e-01 1.149184e+00 1.102797e+00 9.397581e-01 1.083928e+00 8.776625e-01 6.181558e-01 3.273924e-01
<GCONST> 1.395426e+02
<STATE> 4
<MEAN> 39
 -2.551592e-01 -4.493705e+00 -2.748954e+00 -9.181798e+00 -1.116028e+01 -1.061518e+01 -6.226625e+00 -3.004060e+00 -5.239012e+00 -5.430214e+00 -7.244438e+00 -5.134434e+00 6.744606e+01 -1.771873e-02 8.994520e-01 -1.209761e-01 8.904992e-01 2.966338e-01 7.565645e-01 -5.148084e-02 -2.284761e-01 -4.145011e-02 -3.685607e-01 3.796385e-01 -1.310177e-01 -1.118250e+00 -1.963773e-01 1.212203e-01 -4.890828e-02 1.467706e-01 3.984019e-02 3.000030e-02 1.162708e-01 -8.006027e-02 2.509017e-02 2.892069e-03 7.390850e-02 6.402330e-02 -9.797654e-02
<VARIANCE> 39
 3.534433e+01 8.275412e+01 6.450521e+01 8.407549e+01 7.992248e+01 5.694573e+01 6.878752e+01 6.721822e+01 8.083582e+01 1.002743e+02 4.880042e+01 3.901291e+01 8.637456e+01 1.455320e+00 2.176001e+00 2.121868e+00 2.978604e+00 3.261411e+00 3.174337e+00 3.603698e+00 3.539367e+00 3.572892e+00 3.998855e+00 3.219814e+00 2.416846e+00 1.448389e+00 2.376853e-01 3.793779e-01 3.905050e-01 4.792738e-01 5.399337e-01 5.496504e-01 7.129620e-01 6.222982e-01 6.251186e-01 6.755086e-01 5.766035e-01 4.630511e-01 1.965470e-01
<GCONST> 1.291720e+02
<TRANSP> 5
 0.000000e+00 1.000000e+00 0.000000e+00 0.000000e+00 0.000000e+00
