~o
<STREAMINFO> 1 25
<VECSIZE> 25<NULLD><MFCC_D_N_Z_0><DIAGC>
~h "a"
<BEGINHMM>
<NUMSTATES> 5
<STATE> 2
<MEAN> 25
 9.421850e-01 -6.222715e-01 -1.864033e-01 -2.231774e-01 -7.076447e-02 -2.154948e-01 1.234187e-01 2.294496e-01 1.821285e-01 1.451756e-02 -3.642481e-01 -9.761751e-02 1.416308e-05 3.472509e-03 7.843067e-03 1.391680e-02 1.002844e-02 2.440674e-03 -4.123812e-05 -7.515506e-03 8.943054e-04 -6.338601e-03 7.477647e-03 2.161661e-03 -1.830407e-03
<VARIANCE> 25
 8.579594e+01 5.718195e+01 6.053343e+01 5.698420e+01 6.350648e+01 6.929315e+01 5.407497e+01 5.668037e+01 5.314796e+01 3.820560e+01 3.968937e+01 3.019034e+01 2.756385e+00 3.104753e+00 2.756676e+00 2.871980e+00 3.375580e+00 3.902910e+00 3.158185e+00 3.222961e+00 3.208869e+00 2.633529e+00 2.459460e+00 2.076635e+00 2.767046e+00
<GCONST> 1.076103e+02
<STATE> 3
<MEAN> 25
 9.374571e-01 -6.167276e-01 -1.663584e-01 -1.918684e-01 -4.421853e-02 -2.053879e-01 1.252474e-01 2.099279e-01 1.826805e-01 9.650121e-04 -3.479608e-01 -8.954839e-02 -6.223968e-03 7.414396e-03 7.530225e-03 1.478545e-02 1.025081e-02 4.700085e-03 5.300078e-04 -1.093721e-02 1.852554e-04 -5.762810e-03 9.317150e-03 2.504327e-03 -9.261038e-03
<VARIANCE> 25
 8.544238e+01 5.706918e+01 6.043069e+01 5.717762e+01 6.360009e+01 6.931384e+01 5.422358e+01 5.655090e+01 5.311289e+01 3.816011e+01 3.968129e+01 3.016237e+01 2.739513e+00 3.093192e+00 2.741747e+00 2.861886e+00 3.372094e+00 3.899578e+00 3.157257e+00 3.210727e+00 3.207883e+00 2.624285e+00 2.460037e+00 2.072361e+00 2.748203e+00
<GCONST> 1.075678e+02
<STATE> 4
<MEAN> 25
 9.486204e-01 -6.119183e-01 -1.187083e-01 -1.535742e-01 -4.349665e-03 -1.973816e-01 1.201478e-01 1.652725e-01 1.673238e-01 1.036810e-02 -3.532171e-01 -8.446170e-02 -1.360733e-02 9.313891e-03 5.589088e-03 1.263371e-02 9.941030e-03 6.812725e-03 5.373339e-04 -1.202045e-02 4.305087e-04 -4.077815e-03 8.680089e-03 3.092316e-03 -1.677024e-02
<VARIANCE> 25
 8.503511e+01 5.734736e+01 6.019951e+01 5.797612e+01 6.220214e+01 6.884969e+01 5.295838e+01 5.499998e+01 5.354599e+01 3.765368e+01 4.002062e+01 2.972911e+01 2.666481e+00 3.032986e+00 2.678478e+00 2.863868e+00 3.260716e+00 3.817770e+00 3.056053e+00 3.121921e+00 3.165669e+00 2.574317e+00 2.437878e+00 2.021917e+00 2.764942e+00
<GCONST> 1.072415e+02
<TRANSP> 5
 0.000000e+00 1.000000e+00 0.000000e+00 0.000000e+00 0.000000e+00
 0.000000e+00 6.277127e-01 3.722874e-01 0.000000e+00 0.000000e+00
 0.000000e+00 0.000000e+00 6.277145e-01 3.722855e-01 0.000000e+00
 0.000000e+00 0.000000e+00 0.000000e+00 7.494183e-01 2.505818e-01
 0.000000e+00 0.000000e+00 0.000000e+00 0.000000e+00 0.000000e+00
<ENDHMM>
~h "b"
<BEGINHMM>
<NUMSTATES> 5
<STATE> 2
<MEAN> 25
 1.432675e+00 3.147969e-01 -2.924234e-01 -1.527517e-01 -6.026154e-02 -2.026181e-01 -5.229962e-01 -6.247610e-01 -4.447111e-01 -1.157680e-01 8.710694e-03 -2.547221e-01 2.453681e-02 1.638506e-02 2.325594e-03 -3.047961e-02 2.004861e-03 -9.127260e-04 -1.061112e-02 4.968381e-03 1.129922e-02 1.120249e-02 3.341481e-03 -9.545151e-03 3.356846e-02
<VARIANCE> 25
 7.443309e+01 5.871324e+01 5.829480e+01 5.657092e+01 5.789321e+01 6.703526e+01 4.896036e+01 5.455180e+01 5.126283e+01 3.833369e+01 3.559159e+01 3.049163e+01 2.547145e+00 3.183741e+00 2.697631e+00 2.808617e+00 3.060644e+00 3.890685e+00 2.992856e+00 3.299125e+00 3.296196e+00 2.746300e+00 2.349204e+00 2.151722e+00 2.655752e+00
<GCONST> 1.068426e+02
<STATE> 3
<MEAN> 25
 1.499036e+00 3.734989e-01 -2.809927e-01 -2.189955e-01 -4.744769e-02 -1.958933e-01 -5.327158e-01 -6.219950e-01 -4.190433e-01 -8.414226e-02 1.447324e-02 -2.694764e-01 1.777435e-02 2.179549e-02 6.107045e-03 -2.365126e-02 1.072129e-03 -1.299024e-03 -4.103501e-03 3.697332e-03 1.475686e-02 1.022289e-02 2.600569e-04 -3.817230e-03 2.295871e-02
<VARIANCE> 25
 7.458196e+01 5.867319e+01 5.788887e+01 5.660253e+01 5.796983e+01 6.698727e+01 4.919770e+01 5.462831e+01 5.110424e+01 3.850286e+01 3.570977e+01 3.038702e+01 2.542206e+00 3.170999e+00 2.690791e+00 2.807601e+00 3.048674e+00 3.889832e+00 2.987164e+00 3.287296e+00 3.258379e+00 2.723715e+00 2.341912e+00 2.143551e+00 2.613003e+00
<GCONST> 1.067841e+02
<STATE> 4
<MEAN> 25
 1.567333e+00 4.227676e-01 -1.848620e-01 -3.119397e-01 -4.139905e-02 -2.245541e-01 -5.337192e-01 -6.659551e-01 -4.620174e-01 -3.139997e-02 -4.983456e-02 -2.540804e-01 1.413064e-02 1.906726e-02 8.436411e-03 -1.438746e-02 3.484671e-05 2.665432e-04 5.833139e-04 -1.797249e-03 1.702565e-02 1.184874e-02 -2.594519e-03 1.554391e-03 1.954427e-02
<VARIANCE> 25
 7.429522e+01 5.862626e+01 5.786278e+01 5.756356e+01 5.637638e+01 6.628587e+01 4.785325e+01 5.358606e+01 5.136404e+01 3.884404e+01 3.565064e+01 2.952683e+01 2.497018e+00 3.121420e+00 2.682267e+00 2.871179e+00 2.960150e+00 3.829677e+00 2.893397e+00 3.217556e+00 3.199390e+00 2.704064e+00 2.313406e+00 2.074763e+00 2.635351e+00
<GCONST> 1.065193e+02
<TRANSP> 5
 0.000000e+00 1.000000e+00 0.000000e+00 0.000000e+00 0.000000e+00
 0.000000e+00 6.233010e-01 3.766990e-01 0.000000e+00 0.000000e+00
 0.000000e+00 0.000000e+00 6.232982e-01 3.767018e-01 0.000000e+00
 0.000000e+00 0.000000e+00 0.000000e+00 7.430456e-01 2.569544e-01
 0.000000e+00 0.000000e+00 0.000000e+00 0.000000e+00 0.000000e+00
<ENDHMM>
~h "c"
<BEGINHMM>
<NUMSTATES> 5
<STATE> 2
<MEAN> 25
 -1.482718e+00 -7.637766e-02 9.619445e-02 4.654538e-01 7.105829e-01 5.079594e-01 2.093602e-01 -5.938662e-01 -6.362138e-01 -2.013221e-01 2.985572e-01 5.031022e-01 2.769773e-02 3.921917e-02 2.063544e-02 3.479666e-02 -6.108061e-03 -2.989021e-02 1.286505e-02 3.352006e-02 1.901005e-02 -2.809548e-02 -9.803312e-03 3.860844e-03 1.750795e-02
<VARIANCE> 25
 1.010078e+02 6.302275e+01 6.543012e+01 5.669237e+01 6.457600e+01 6.615184e+01 5.557628e+01 6.650195e+01 5.539795e+01 3.569078e+01 3.655372e+01 2.850504e+01 3.628067e+00 4.194027e+00 3.137057e+00 2.950288e+00 3.579276e+00 4.055275e+00 3.293938e+00 3.615800e+00 3.679759e+00 2.516912e+00 2.337388e+00 2.022352e+00 3.295379e+00
<GCONST> 1.091092e+02
<STATE> 3
<MEAN> 25
 -1.354264e+00 -3.982725e-02 2.249901e-01 5.690832e-01 6.648908e-01 4.514468e-01 2.598454e-01 -4.948472e-01 -5.730670e-01 -2.411328e-01 2.784206e-01 4.983751e-01 3.111162e-02 1.220382e-02 5.062971e-02 4.602803e-02 -2.031253e-02 -2.450836e-02 5.170450e-03 3.195621e-02 3.000414e-02 -1.423280e-02 -3.869945e-03 -5.000544e-03 3.368123e-02
<VARIANCE> 25
 1.000121e+02 6.403991e+01 6.641966e+01 5.604301e+01 6.564142e+01 6.796469e+01 5.620549e+01 6.579845e+01 5.686769e+01 3.533093e+01 3.655024e+01 2.829430e+01 3.595270e+00 4.349258e+00 3.185248e+00 2.975225e+00 3.626216e+00 4.041462e+00 3.370864e+00 3.596685e+00 3.720185e+00 2.589475e+00 2.333317e+00 2.004640e+00 3.312570e+00
<GCONST> 1.092836e+02
<STATE> 4
<MEAN> 25
 -7.807164e-01 -1.211896e-01 5.304886e-01 6.057767e-01 4.230837e-01 3.549340e-01 1.783205e-01 -4.242034e-01 -6.266774e-01 -2.576036e-01 2.839225e-01 3.342343e-01 4.577914e-02 2.799603e-03 5.628232e-02 2.913912e-02 -3.297829e-02 -1.790660e-02 8.349800e-03 3.079386e-02 1.494154e-02 -5.397079e-03 -3.939163e-03 -1.969691e-02 3.999823e-02
<VARIANCE> 25
 9.983007e+01 6.564227e+01 6.681305e+01 5.451076e+01 6.621307e+01 6.930331e+01 5.607009e+01 6.371577e+01 5.969010e+01 3.475625e+01 3.684820e+01 2.845530e+01 3.498255e+00 4.466042e+00 3.233594e+00 2.945902e+00 3.606102e+00 4.089454e+00 3.423782e+00 3.486724e+00 3.797401e+00 2.653748e+00 2.332849e+00 2.032646e+00 3.343408e+00
<GCONST> 1.093872e+02
<TRANSP> 5
 0.000000e+00 1.000000e+00 0.000000e+00 0.000000e+00 0.000000e+00
 0.000000e+00 6.246976e-01 3.753023e-01 0.000000e+00 0.000000e+00
 0.000000e+00 0.000000e+00 6.246979e-01 3.753021e-01 0.000000e+00
 0.000000e+00 0.000000e+00 0.000000e+00 7.428904e-01 2.571096e-01
 0.000000e+00 0.000000e+00 0.000000e+00 0.000000e+00 0.000000e+00
<ENDHMM>
~h "d"
<BEGINHMM>
<NUMSTATES> 5
<STATE> 2
<MEAN> 25
 1.216533e+00 -2.936757e-01 1.495958e+00 9.944494e-01 -6.156657e-01 -1.070082e+00 -1.001862e+00 -2.429318e-01 -5.531529e-01 -2.565587e-01 2.447868e-01 -1.001312e-02 1.879317e-02 -1.098004e-02 2.284290e-02 1.592041e-03 -1.690305e-02 -1.155662e-02 -1.452858e-03 1.486589e-02 5.363453e-04 1.179540e-02 3.149658e-03 1.382924e-02 3.165670e-02
<VARIANCE> 25
 7.962289e+01 5.358543e+01 6.600372e+01 6.162900e+01 6.643576e+01 7.020624e+01 5.529308e+01 5.758652e+01 5.799751e+01 3.995633e+01 3.992292e+01 2.967835e+01 2.640867e+00 3.253572e+00 2.688882e+00 3.006481e+00 3.340778e+00 4.236480e+00 3.250977e+00 3.261526e+00 3.264017e+00 2.689159e+00 2.520420e+00 2.008183e+00 3.013441e+00
<GCONST> 1.081043e+02
<STATE> 3
<MEAN> 25
 1.270546e+00 -3.174590e-01 1.557531e+00 9.962046e-01 -6.578037e-01 -1.103649e+00 -1.000035e+00 -2.133157e-01 -5.446578e-01 -2.200372e-01 2.449834e-01 2.406668e-02 1.382602e-02 -4.592834e-03 1.187707e-02 -3.376068e-03 -8.490949e-03 -4.549574e-03 6.727920e-03 1.710456e-02 8.377093e-03 8.976757e-03 -2.550276e-03 1.542538e-02 2.017467e-02
<VARIANCE> 25
 7.831300e+01 5.350059e+01 6.534144e+01 6.143153e+01 6.692203e+01 7.068470e+01 5.555458e+01 5.802075e+01 5.785327e+01 3.989079e+01 3.983849e+01 2.988659e+01 2.636074e+00 3.240582e+00 2.668091e+00 3.008951e+00 3.348392e+00 4.225244e+00 3.266073e+00 3.250333e+00 3.270329e+00 2.692295e+00 2.503724e+00 2.013222e+00 3.011885e+00
<GCONST> 1.080864e+02
<STATE> 4
<MEAN> 25
 1.363985e+00 -3.001422e-01 1.590031e+00 9.905124e-01 -6.551718e-01 -1.105568e+00 -9.296260e-01 -2.404830e-01 -5.678882e-01 -2.019532e-01 1.756761e-01 7.320062e-02 6.269427e-03 3.115549e-03 -1.266141e-03 -9.161106e-03 2.792320e-03 5.682011e-03 1.260826e-02 1.238258e-02 1.295728e-02 3.698832e-03 -6.477169e-03 1.239666e-02 6.100598e-03
<VARIANCE> 25
 7.706196e+01 5.390915e+01 6.323396e+01 6.117446e+01 6.573966e+01 7.073243e+01 5.471138e+01 5.663930e+01 5.818373e+01 3.963866e+01 3.967031e+01 2.955646e+01 2.615459e+00 3.188696e+00 2.613795e+00 3.037483e+00 3.289347e+00 4.176744e+00 3.194396e+00 3.145616e+00 3.254862e+00 2.662869e+00 2.447283e+00 1.972849e+00 3.079880e+00
<GCONST> 1.078125e+02
<TRANSP> 5
 0.000000e+00 1.000000e+00 0.000000e+00 0.000000e+00 0.000000e+00
 0.000000e+00 6.312893e-01 3.687106e-01 0.000000e+00 0.000000e+00
 0.000000e+00 0.000000e+00 6.312881e-01 3.687120e-01 0.000000e+00
 0.000000e+00 0.000000e+00 0.000000e+00 7.542527e-01 2.457474e-01
 0.000000e+00 0.000000e+00 0.000000e+00 0.000000e+00 0.000000e+00
<ENDHMM>
~h "e"
<BEGINHMM>
<NUMSTATES> 5
<STATE> 2
<MEAN> 25
 7.042942e-01 -4.573176e-01 1.992653e-01 1.148609e-01 -4.861783e-01 -3.600201e-01 4.088471e-01 2.109092e-03 -2.854613e-01 2.391759e-01 6.602586e-01 6.848146e-02 -1.314402e-02 -2.950128e-03 2.553874e-02 2.718083e-02 -1.629776e-02 1.023157e-02 3.542123e-02 1.386972e-03 1.454555e-02 -3.087839e-03 8.523113e-03 2.838305e-03 -5.228219e-04
<VARIANCE> 25
 8.348318e+01 5.272337e+01 5.914445e+01 5.393717e+01 6.345016e+01 6.906757e+01 5.014027e+01 5.357130e+01 5.350269e+01 3.684504e+01 3.718924e+01 2.849346e+01 2.986370e+00 3.081048e+00 2.793402e+00 2.819279e+00 3.308506e+00 4.008668e+00 3.012595e+00 3.099947e+00 3.210805e+00 2.661114e+00 2.418909e+00 1.973778e+00 2.912284e+00
<GCONST> 1.071174e+02
<STATE> 3
<MEAN> 25
 6.609500e-01 -4.731531e-01 2.751895e-01 1.821880e-01 -5.319242e-01 -3.338276e-01 4.913183e-01 1.814160e-02 -2.343541e-01 2.282557e-01 6.800455e-01 7.475473e-02 -2.005416e-02 -2.254911e-03 2.164789e-02 2.139602e-02 -9.786136e-03 1.533522e-02 3.070900e-02 3.409104e-04 2.079442e-02 -5.801746e-03 4.177965e-03 4.025177e-03 -5.224263e-03
<VARIANCE> 25
 8.221543e+01 5.266340e+01 5.949512e+01 5.352333e+01 6.415083e+01 6.920855e+01 5.018752e+01 5.334933e+01 5.349936e+01 3.706651e+01 3.722683e+01 2.872088e+01 2.928129e+00 3.069768e+00 2.816379e+00 2.794140e+00 3.307212e+00 4.006909e+00 3.004053e+00 3.086701e+00 3.186619e+00 2.659512e+00 2.401267e+00 1.967076e+00 2.865852e+00
<GCONST> 1.070569e+02
<STATE> 4
<MEAN> 25
 5.822804e-01 -4.810069e-01 4.150133e-01 2.238580e-01 -5.676176e-01 -3.372522e-01 5.875658e-01 3.751460e-02 -1.785033e-01 2.755177e-01 6.739159e-01 9.897644e-02 -2.382480e-02 -2.010919e-03 1.917690e-02 1.538895e-02 -1.258811e-03 1.352757e-02 1.648863e-02 -2.029154e-04 1.903230e-02 -7.905832e-03 -8.398877e-04 1.585326e-03 -9.450880e-03
<VARIANCE> 25
 8.058340e+01 5.252356e+01 5.950372e+01 5.349393e+01 6.421415e+01 6.902269e+01 4.924378e+01 5.116123e+01 5.426104e+01 3.687346e+01 3.730769e+01 2.846304e+01 2.813102e+00 2.977343e+00 2.739766e+00 2.759019e+00 3.184289e+00 3.885731e+00 2.913736e+00 2.978652e+00 3.117180e+00 2.599020e+00 2.343165e+00 1.908304e+00 2.865796e+00
<GCONST> 1.066278e+02
<TRANSP> 5
 0.000000e+00 1.000000e+00 0.000000e+00 0.000000e+00 0.000000e+00
 0.000000e+00 6.356589e-01 3.643411e-01 0.000000e+00 0.000000e+00
 0.000000e+00 0.000000e+00 6.356561e-01 3.643439e-01 0.000000e+00
 0.000000e+00 0.000000e+00 0.000000e+00 7.580379e-01 2.419621e-01
 0.000000e+00 0.000000e+00 0.000000e+00 0.000000e+00 0.000000e+00
<ENDHMM>
~h "f"
<BEGINHMM>
<NUMSTATES> 5
<STATE> 2
<MEAN> 25
 2.459206e-01 -6.948254e-01 5.662562e-02 3.667109e-01 8.295407e-01 1.083950e+00 1.342867e-01 -1.960349e-01 3.075064e-01 5.956257e-01 1.115043e+00 7.108840e-01 2.374325e-03 -1.370436e-02 7.008495e-02 7.387343e-02 6.923598e-02 4.915973e-02 5.944563e-02 9.595692e-02 6.165898e-02 7.527571e-03 1.300252e-02 4.457531e-02 1.865320e-02
<VARIANCE> 25
 7.988599e+01 6.640797e+01 6.247128e+01 5.558645e+01 5.563813e+01 6.520003e+01 4.628935e+01 5.774345e+01 5.080485e+01 3.274175e+01 3.516780e+01 2.858506e+01 3.104886e+00 3.306866e+00 3.000120e+00 3.085407e+00 2.913034e+00 3.791847e+00 2.895476e+00 3.519387e+00 3.458210e+00 2.793647e+00 2.254742e+00 1.844873e+00 3.259806e+00
<GCONST> 1.072459e+02
<STATE> 3
<MEAN> 25
 2.431390e-01 -6.965001e-01 2.094297e-01 5.893729e-01 1.004019e+00 1.228923e+00 3.376802e-01 3.622085e-02 5.054099e-01 6.273465e-01 1.117560e+00 8.031416e-01 1.229360e-02 -2.617390e-02 6.827652e-02 6.687225e-02 3.659289e-02 4.348300e-02 6.573521e-02 6.983208e-02 5.620420e-02 -6.703113e-04 4.053057e-03 3.653750e-02 3.633301e-02
<VARIANCE> 25
 7.185854e+01 6.326591e+01 6.259889e+01 5.504516e+01 5.345052e+01 6.759501e+01 4.483828e+01 5.697064e+01 5.008838e+01 3.241768e+01 3.492305e+01 2.856051e+01 3.042562e+00 3.223753e+00 2.974335e+00 3.022676e+00 2.897979e+00 3.854330e+00 2.809186e+00 3.478513e+00 3.441818e+00 2.777669e+00 2.187567e+00 1.795196e+00 3.207143e+00
<GCONST> 1.068125e+02
<STATE> 4
<MEAN> 25
 2.446053e-01 -6.226690e-01 3.886572e-01 8.963010e-01 1.167629e+00 1.434771e+00 6.649790e-01 2.868935e-01 7.919192e-01 7.015150e-01 1.089067e+00 8.149945e-01 -6.313997e-03 -1.953472e-02 4.877414e-02 3.081763e-02 1.110740e-02 2.269328e-02 4.386943e-02 4.124355e-02 4.083164e-02 -6.944642e-03 -9.085626e-03 1.338025e-02 2.249813e-02
<VARIANCE> 25
 6.313316e+01 5.996268e+01 6.166090e+01 5.545172e+01 5.101939e+01 6.948322e+01 4.287732e+01 5.293331e+01 5.070139e+01 3.182584e+01 3.479203e+01 2.782949e+01 2.788892e+00 3.183414e+00 2.872215e+00 3.011228e+00 2.832986e+00 3.820990e+00 2.659436e+00 3.303008e+00 3.506155e+00 2.738655e+00 2.130295e+00 1.725000e+00 3.148757e+00
<GCONST> 1.060917e+02
<TRANSP> 5
 0.000000e+00 1.000000e+00 0.000000e+00 0.000000e+00 0.000000e+00
 0.000000e+00 6.385856e-01 3.614144e-01 0.000000e+00 0.000000e+00
 0.000000e+00 0.000000e+00 6.385850e-01 3.614150e-01 0.000000e+00
 0.000000e+00 0.000000e+00 0.000000e+00 7.574258e-01 2.425741e-01
 0.000000e+00 0.000000e+00 0.000000e+00 0.000000e+00 0.000000e+00
<ENDHMM>
~h "g"
<BEGINHMM>
<NUMSTATES> 5
<STATE> 2
<MEAN> 25
 1.102489e+00 1.454850e-01 7.044316e-01 4.359669e-01 -5.882549e-01 -8.307263e-01 -7.245280e-01 -1.541164e-02 -1.624215e-01 -2.512260e-01 -8.585670e-02 -6.477285e-01 -3.729592e-02 1.668874e-02 -5.073768e-03 1.247880e-02 2.998395e-02 1.723640e-02 2.063935e-02 -1.477561e-02 1.696086e-02 5.435994e-03 -9.576056e-03 5.488236e-03 -2.886479e-02
<VARIANCE> 25
 9.137637e+01 5.798140e+01 6.269127e+01 5.916327e+01 6.667264e+01 6.928520e+01 6.036035e+01 6.110190e+01 5.400237e+01 4.188875e+01 3.686544e+01 3.327649e+01 2.616325e+00 3.142429e+00 2.714669e+00 2.834837e+00 3.647237e+00 4.001524e+00 3.471744e+00 3.294976e+00 3.332766e+00 2.766555e+00 2.412984e+00 2.213248e+00 2.721092e+00
<GCONST> 1.083905e+02
<STATE> 3
<MEAN> 25
 9.905047e-01 1.960829e-01 6.755185e-01 4.458036e-01 -5.160716e-01 -7.743269e-01 -6.745234e-01 -5.323609e-02 -1.230360e-01 -2.439844e-01 -8.566380e-02 -6.213458e-01 -4.820730e-02 1.825823e-02 -1.107422e-02 2.147531e-03 3.518022e-02 2.476444e-02 2.154693e-02 -1.535781e-02 1.315670e-02 7.319749e-03 9.015927e-04 9.158636e-03 -3.727432e-02
<VARIANCE> 25
 9.170067e+01 5.772507e+01 6.214367e+01 5.895543e+01 6.632595e+01 6.920794e+01 6.009204e+01 6.065168e+01 5.390029e+01 4.241208e+01 3.704925e+01 3.311141e+01 2.613292e+00 3.113775e+00 2.719294e+00 2.838879e+00 3.626646e+00 4.001117e+00 3.468807e+00 3.283098e+00 3.318584e+00 2.769653e+00 2.379228e+00 2.199194e+00 2.690218e+00
<GCONST> 1.083173e+02
<STATE> 4
<MEAN> 25
 9.372326e-01 1.465373e-01 5.764167e-01 3.546722e-01 -3.979740e-01 -6.170660e-01 -6.289914e-01 -1.122654e-01 -4.076148e-02 -2.217391e-01 -1.034011e-01 -5.804905e-01 -5.105788e-02 1.662435e-02 -1.661475e-02 -1.230312e-02 3.218634e-02 2.660050e-02 1.905261e-02 -6.562233e-03 1.340908e-02 9.544782e-03 9.856125e-03 1.381330e-02 -4.069185e-02
<VARIANCE> 25
 9.250931e+01 5.810270e+01 6.169463e+01 5.973253e+01 6.476138e+01 6.966730e+01 5.847730e+01 5.930104e+01 5.475742e+01 4.322557e+01 3.730691e+01 3.278617e+01 2.589062e+00 3.080408e+00 2.709563e+00 2.889667e+00 3.530273e+00 3.966455e+00 3.394002e+00 3.226675e+00 3.282652e+00 2.753625e+00 2.336392e+00 2.154944e+00 2.702838e+00
<GCONST> 1.081720e+02
<TRANSP> 5
 0.000000e+00 1.000000e+00 0.000000e+00 0.000000e+00 0.000000e+00
 0.000000e+00 6.242771e-01 3.757230e-01 0.000000e+00 0.000000e+00
 0.000000e+00 0.000000e+00 6.242747e-01 3.757253e-01 0.000000e+00
 0.000000e+00 0.000000e+00 0.000000e+00 7.457511e-01 2.542489e-01
 0.000000e+00 0.000000e+00 0.000000e+00 0.000000e+00 0.000000e+00
<ENDHMM>
~h "h"
<BEGINHMM>
<NUMSTATES> 5
<STATE> 2
<MEAN> 25
 -7.480735e-01 -2.747803e-01 -2.991832e-01 -3.998599e-01 1.246239e-02 7.034624e-01 5.276654e-01 2.309228e-01 -1.488196e-01 -2.009374e-01 -9.567154e-02 1.535393e-01 5.144577e-03 2.207339e-02 -2.119773e-02 -1.276721e-02 1.946807e-02 -1.268732e-02 -1.030484e-02 7.751845e-03 1.645111e-03 -8.299387e-03 1.303893e-02 -8.210033e-03 -1.210277e-02
<VARIANCE> 25
 9.147318e+01 4.664843e+01 5.540349e+01 5.291391e+01 6.098873e+01 6.162855e+01 5.043996e+01 4.629013e+01 4.452145e+01 3.370311e+01 3.269779e+01 2.593938e+01 2.362952e+00 2.179854e+00 2.223347e+00 2.389929e+00 2.821469e+00 3.126011e+00 2.661391e+00 2.562218e+00 2.581796e+00 2.237024e+00 1.998347e+00 1.748013e+00 1.963631e+00
<GCONST> 1.034185e+02
<STATE> 3
<MEAN> 25
 -7.416717e-01 -2.111728e-01 -3.587632e-01 -4.468234e-01 6.993970e-02 6.593337e-01 5.016449e-01 2.588392e-01 -1.427232e-01 -2.193249e-01 -5.943207e-02 1.423597e-01 9.443119e-03 2.680028e-02 -1.633862e-02 -1.041904e-02 1.431525e-02 -1.483243e-02 -1.055791e-02 1.077503e-02 6.120656e-03 -4.573214e-03 9.754883e-03 -8.382437e-03 -8.660873e-03
<VARIANCE> 25
 9.185166e+01 4.665325e+01 5.530580e+01 5.281563e+01 6.023928e+01 6.126105e+01 4.989859e+01 4.626780e+01 4.434538e+01 3.351219e+01 3.255205e+01 2.587027e+01 2.306142e+00 2.178692e+00 2.187636e+00 2.342161e+00 2.773162e+00 3.076033e+00 2.618176e+00 2.552388e+00 2.568644e+00 2.223844e+00 1.973884e+00 1.735002e+00 1.941047e+00
<GCONST> 1.032155e+02
<STATE> 4
<MEAN> 25
 -6.798810e-01 -1.015837e-01 -4.266627e-01 -5.054013e-01 9.677011e-02 6.600682e-01 5.094611e-01 3.491033e-01 -6.911885e-02 -2.742341e-01 1.756100e-03 1.619495e-01 2.397877e-03 3.133782e-02 -6.098811e-03 2.222590e-03 1.278382e-02 -1.082136e-02 -7.301854e-03 8.956204e-03 1.084839e-02 -1.379782e-03 7.280644e-03 -5.271150e-03 -1.215758e-02
<VARIANCE> 25
 9.116751e+01 4.686830e+01 5.487294e+01 5.352784e+01 5.749647e+01 5.952029e+01 4.805030e+01 4.510955e+01 4.465472e+01 3.292432e+01 3.258460e+01 2.517612e+01 2.170409e+00 2.129969e+00 2.099092e+00 2.278955e+00 2.641920e+00 2.964137e+00 2.491418e+00 2.482505e+00 2.529976e+00 2.179119e+00 1.925613e+00 1.682177e+00 1.902190e+00
<GCONST> 1.026164e+02
<TRANSP> 5
 0.000000e+00 1.000000e+00 0.000000e+00 0.000000e+00 0.000000e+00
 0.000000e+00 6.368343e-01 3.631657e-01 0.000000e+00 0.000000e+00
 0.000000e+00 0.000000e+00 6.368351e-01 3.631648e-01 0.000000e+00
 0.000000e+00 0.000000e+00 0.000000e+00 7.583512e-01 2.416488e-01
 0.000000e+00 0.000000e+00 0.000000e+00 0.000000e+00 0.000000e+00
<ENDHMM>
~h "i"
<BEGINHMM>
<NUMSTATES> 5
<STATE> 2
<MEAN> 25
 2.362719e-01 3.686477e-03 1.788987e+00 8.289477e-01 -7.525330e-01 -8.728926e-01 -6.506519e-01 -6.489505e-01 -8.143106e-01 -5.371083e-02 2.366298e-01 -1.262705e-02 -1.505722e-02 -9.114620e-03 -2.575762e-02 -3.164722e-02 6.974468e-03 2.377998e-02 5.424093e-03 1.326641e-02 1.182189e-02 1.111874e-02 -4.564731e-03 8.125143e-03 -9.091089e-03
<VARIANCE> 25
 7.690182e+01 5.347453e+01 7.149898e+01 6.412997e+01 6.868906e+01 6.740578e+01 5.578512e+01 5.401426e+01 5.778046e+01 3.656679e+01 3.771466e+01 2.870440e+01 2.683425e+00 2.953156e+00 2.931704e+00 2.980611e+00 3.449746e+00 3.805013e+00 3.142664e+00 3.139801e+00 3.345858e+00 2.537300e+00 2.380497e+00 1.968130e+00 2.749913e+00
<GCONST> 1.075895e+02
<STATE> 3
<MEAN> 25
 1.870578e-01 -1.774134e-02 1.726959e+00 7.615552e-01 -7.317024e-01 -8.296939e-01 -6.251737e-01 -6.085514e-01 -7.849547e-01 -3.601803e-02 2.251857e-01 7.747998e-03 -1.706622e-02 -1.153924e-02 -3.222625e-02 -3.090810e-02 1.491737e-02 2.617319e-02 1.360687e-02 1.469409e-02 1.611901e-02 5.120372e-03 -6.744310e-03 7.704367e-03 -1.320484e-02
<VARIANCE> 25
 7.716405e+01 5.322535e+01 7.098848e+01 6.369650e+01 6.831006e+01 6.739388e+01 5.514828e+01 5.384229e+01 5.796241e+01 3.672440e+01 3.770614e+01 2.854163e+01 2.648361e+00 2.928638e+00 2.919073e+00 2.964662e+00 3.425390e+00 3.788165e+00 3.134676e+00 3.135867e+00 3.347744e+00 2.536943e+00 2.369636e+00 1.969346e+00 2.737503e+00
<GCONST> 1.075009e+02
<STATE> 4
<MEAN> 25
 1.658892e-01 -4.682048e-02 1.689320e+00 6.286611e-01 -6.776258e-01 -8.041553e-01 -5.750038e-01 -5.702760e-01 -7.842681e-01 -4.012448e-02 1.519219e-01 3.054008e-02 -1.816140e-02 -9.527981e-03 -2.988270e-02 -2.375730e-02 1.681438e-02 2.285958e-02 1.613526e-02 1.418513e-02 1.197220e-02 -5.312311e-04 -4.537435e-03 6.963653e-03 -1.890432e-02
<VARIANCE> 25
 7.675585e+01 5.283175e+01 7.139869e+01 6.360543e+01 6.553261e+01 6.611591e+01 5.323120e+01 5.227767e+01 5.915009e+01 3.656489e+01 3.757539e+01 2.788272e+01 2.565265e+00 2.845951e+00 2.890775e+00 2.962237e+00 3.280614e+00 3.686523e+00 3.028116e+00 3.060862e+00 3.356723e+00 2.487332e+00 2.318280e+00 1.921799e+00 2.779230e+00
<GCONST> 1.071076e+02
<TRANSP> 5
 0.000000e+00 1.000000e+00 0.000000e+00 0.000000e+00 0.000000e+00
 0.000000e+00 6.347131e-01 3.652869e-01 0.000000e+00 0.000000e+00
 0.000000e+00 0.000000e+00 6.347181e-01 3.652819e-01 0.000000e+00
 0.000000e+00 0.000000e+00 0.000000e+00 7.576162e-01 2.423838e-01
 0.000000e+00 0.000000e+00 0.000000e+00 0.000000e+00 0.000000e+00
<ENDHMM>
~h "j"
<BEGINHMM>
<NUMSTATES> 5
<STATE> 2
<MEAN> 25
 1.291555e+00 -1.570239e-01 1.675810e+00 7.748696e-01 -4.838094e-01 -1.413268e+00 -1.287003e+00 -1.075126e-01 -9.201063e-02 -6.776826e-01 -1.301129e-01 -4.247833e-02 -2.331656e-02 1.856837e-02 7.747890e-03 -1.552729e-02 1.405703e-02 2.072327e-02 2.128190e-02 2.052422e-02 1.547749e-02 2.470269e-02 1.772800e-02 -1.148813e-02 -1.354335e-02
<VARIANCE> 25
 7.137901e+01 5.848298e+01 6.151660e+01 5.396855e+01 6.065040e+01 6.788773e+01 5.609897e+01 5.603021e+01 4.859957e+01 3.763169e+01 3.729033e+01 2.956715e+01 2.346082e+00 3.211980e+00 2.944829e+00 3.039830e+00 3.690327e+00 3.993192e+00 3.346940e+00 3.442426e+00 3.407039e+00 2.600099e+00 2.478940e+00 2.151153e+00 2.745506e+00
<GCONST> 1.074954e+02
<STATE> 3
<MEAN> 25
 1.216144e+00 -8.611853e-02 1.721048e+00 7.468309e-01 -4.743542e-01 -1.365341e+00 -1.225098e+00 -6.543119e-02 -7.295639e-02 -6.074421e-01 -7.862932e-02 -5.912538e-02 -2.279638e-02 1.660225e-02 4.722365e-03 -1.374522e-02 1.096734e-02 2.268061e-02 2.775534e-02 1.495814e-02 6.273248e-03 3.110077e-02 1.989923e-02 -1.245878e-02 -1.716316e-02
<VARIANCE> 25
 7.173431e+01 5.828132e+01 6.169530e+01 5.396529e+01 6.105777e+01 6.843325e+01 5.589744e+01 5.512125e+01 4.893052e+01 3.818205e+01 3.742407e+01 2.945631e+01 2.321195e+00 3.192118e+00 2.941327e+00 2.989599e+00 3.675101e+00 4.008111e+00 3.305697e+00 3.376903e+00 3.393516e+00 2.585847e+00 2.467708e+00 2.143004e+00 2.705069e+00
<GCONST> 1.074163e+02
<STATE> 4
<MEAN> 25
 1.185462e+00 -1.035359e-01 1.812188e+00 6.284682e-01 -4.988464e-01 -1.350910e+00 -1.123771e+00 -3.128363e-03 -2.133849e-01 -5.185697e-01 -3.745681e-02 -9.323525e-02 -2.638728e-02 1.477037e-02 4.238820e-03 -1.383653e-02 1.146133e-03 1.885478e-02 2.974828e-02 1.316349e-02 -2.776426e-03 2.755336e-02 1.654248e-02 -7.633779e-03 -2.368494e-02
<VARIANCE> 25
 7.185187e+01 5.848647e+01 6.186328e+01 5.408337e+01 5.984884e+01 6.866161e+01 5.401019e+01 5.319254e+01 5.024679e+01 3.836380e+01 3.739440e+01 2.883629e+01 2.319981e+00 3.193007e+00 2.903241e+00 3.026193e+00 3.534886e+00 3.993587e+00 3.204904e+00 3.277235e+00 3.391707e+00 2.545099e+00 2.436899e+00 2.080316e+00 2.807466e+00
<GCONST> 1.072228e+02
<TRANSP> 5
 0.000000e+00 1.000000e+00 0.000000e+00 0.000000e+00 0.000000e+00
 0.000000e+00 6.296741e-01 3.703260e-01 0.000000e+00 0.000000e+00
 0.000000e+00 0.000000e+00 6.296762e-01 3.703237e-01 0.000000e+00
 0.000000e+00 0.000000e+00 0.000000e+00 7.525106e-01 2.474894e-01
 0.000000e+00 0.000000e+00 0.000000e+00 0.000000e+00 0.000000e+00
<ENDHMM>
~h "k"
<BEGINHMM>
<NUMSTATES> 5
<STATE> 2
<MEAN> 25
 5.296633e-02 -2.855131e-01 -3.253585e-01 -3.969429e-01 -1.272621e-01 2.608739e-01 1.469394e-01 6.315333e-02 2.865301e-01 3.752672e-01 7.336485e-02 -1.025721e-01 3.434956e-02 -6.810347e-03 1.265476e-02 6.730128e-03 -2.158701e-02 -1.121049e-02 -1.229190e-02 -8.902902e-03 1.098436e-02 1.787993e-02 -5.190632e-03 -1.791688e-02 3.340686e-02
<VARIANCE> 25
 8.817666e+01 5.520258e+01 6.207282e+01 5.936119e+01 6.792262e+01 6.909454e+01 5.246915e+01 5.624240e+01 5.529046e+01 3.773993e+01 3.856850e+01 2.930742e+01 3.274431e+00 3.105361e+00 2.839368e+00 3.101102e+00 3.582253e+00 4.004493e+00 3.265227e+00 3.247350e+00 3.376364e+00 2.712832e+00 2.496392e+00 2.091999e+00 3.230677e+00
<GCONST> 1.083262e+02
<STATE> 3
<MEAN> 25
 1.426514e-01 -2.989536e-01 -2.960362e-01 -3.730803e-01 -1.799047e-01 2.242281e-01 1.321847e-01 2.374586e-02 3.117457e-01 4.152465e-01 5.822900e-02 -1.408729e-01 3.166549e-02 -8.909840e-03 1.283588e-02 1.054013e-02 -2.267191e-02 -1.353853e-02 -4.245891e-03 -1.416864e-02 6.511931e-03 1.030566e-02 -6.529809e-03 -1.338240e-02 3.141103e-02
<VARIANCE> 25
 8.645912e+01 5.494567e+01 6.220227e+01 5.912742e+01 6.825760e+01 6.919798e+01 5.288365e+01 5.631735e+01 5.543116e+01 3.779355e+01 3.873943e+01 2.951142e+01 3.248317e+00 3.126328e+00 2.862938e+00 3.089172e+00 3.592460e+00 4.008034e+00 3.285926e+00 3.266156e+00 3.382570e+00 2.710981e+00 2.510658e+00 2.101554e+00 3.210933e+00
<GCONST> 1.083552e+02
<STATE> 4
<MEAN> 25
 2.410955e-01 -2.601396e-01 -2.522686e-01 -3.350495e-01 -1.881053e-01 1.648439e-01 1.261099e-01 -4.146547e-02 3.032037e-01 4.361232e-01 4.399376e-02 -1.599986e-01 2.472642e-02 -5.073133e-03 8.938802e-03 1.070645e-02 -1.607639e-02 -1.343936e-02 -3.194546e-03 -1.807641e-02 2.520582e-03 6.226151e-03 -6.479133e-03 -8.960565e-03 2.430313e-02
<VARIANCE> 25
 8.349238e+01 5.441867e+01 6.204893e+01 5.934148e+01 6.636394e+01 6.800753e+01 5.166297e+01 5.405659e+01 5.612967e+01 3.747816e+01 3.891719e+01 2.926650e+01 3.122746e+00 3.093663e+00 2.848190e+00 3.097519e+00 3.461267e+00 3.917153e+00 3.206156e+00 3.176642e+00 3.363047e+00 2.668367e+00 2.491793e+00 2.064139e+00 3.215793e+00
<GCONST> 1.079918e+02
<TRANSP> 5
 0.000000e+00 1.000000e+00 0.000000e+00 0.000000e+00 0.000000e+00
 0.000000e+00 6.363106e-01 3.636893e-01 0.000000e+00 0.000000e+00
 0.000000e+00 0.000000e+00 6.363100e-01 3.636900e-01 0.000000e+00
 0.000000e+00 0.000000e+00 0.000000e+00 7.593886e-01 2.406114e-01
 0.000000e+00 0.000000e+00 0.000000e+00 0.000000e+00 0.000000e+00
<ENDHMM>
~h "l"
<BEGINHMM>
<NUMSTATES> 5
<STATE> 2
<MEAN> 25
 1.335026e+00 -1.286356e-02 -1.553866e-01 -8.191283e-01 -3.984245e-01 3.508702e-02 -3.158005e-01 -2.045940e-01 5.690370e-01 2.457452e-01 -4.816727e-01 -2.557306e-01 -4.237175e-03 -1.254487e-02 2.575113e-02 2.992624e-02 -2.425366e-03 -7.307963e-03 9.876793e-03 8.703790e-03 6.382430e-03 -1.229714e-03 5.850774e-03 6.702982e-03 2.592280e-03
<VARIANCE> 25
 9.398026e+01 5.694371e+01 5.867266e+01 6.115207e+01 6.567035e+01 7.711330e+01 5.703645e+01 5.729303e+01 5.222216e+01 4.410015e+01 4.040046e+01 3.113600e+01 2.598563e+00 3.045908e+00 2.697779e+00 2.868009e+00 3.324594e+00 4.002356e+00 3.077972e+00 3.043954e+00 3.097086e+00 2.797795e+00 2.431301e+00 2.082947e+00 2.378675e+00
<GCONST> 1.078069e+02
<STATE> 3
<MEAN> 25
 1.314725e+00 -5.301800e-02 -9.622142e-02 -7.281444e-01 -4.009700e-01 2.810773e-02 -2.840680e-01 -1.840410e-01 5.858203e-01 2.443487e-01 -4.528305e-01 -2.274854e-01 -1.562583e-02 -1.767085e-02 2.443749e-02 3.375336e-02 1.884400e-03 -6.932176e-03 1.091920e-02 6.330740e-03 1.064429e-03 -1.700642e-03 8.699309e-03 1.183238e-02 -6.258991e-03
<VARIANCE> 25
 9.323707e+01 5.695816e+01 5.894569e+01 6.136198e+01 6.539256e+01 7.694612e+01 5.686643e+01 5.750052e+01 5.247730e+01 4.396631e+01 4.020133e+01 3.109827e+01 2.577864e+00 3.041536e+00 2.691834e+00 2.878647e+00 3.341357e+00 4.000704e+00 3.064085e+00 3.043503e+00 3.107217e+00 2.804753e+00 2.425929e+00 2.080715e+00 2.386674e+00
<GCONST> 1.077950e+02
<STATE> 4
<MEAN> 25
 1.294788e+00 -1.557767e-01 -1.558718e-02 -6.448342e-01 -3.712635e-01 5.400479e-02 -2.654196e-01 -2.471410e-01 5.584130e-01 2.526672e-01 -4.277841e-01 -1.724483e-01 -2.600208e-02 -2.141799e-02 1.839147e-02 3.616539e-02 7.863694e-03 -6.864574e-03 9.887784e-03 6.221190e-03 -5.148733e-03 -1.669294e-03 1.204969e-02 1.389882e-02 -1.574550e-02
<VARIANCE> 25
 9.282333e+01 5.688435e+01 5.935554e+01 6.289097e+01 6.375935e+01 7.579433e+01 5.656132e+01 5.706088e+01 5.342871e+01 4.336884e+01 4.010179e+01 3.064044e+01 2.527212e+00 2.980107e+00 2.637495e+00 2.891352e+00 3.274080e+00 3.903121e+00 2.986484e+00 2.997442e+00 3.109825e+00 2.767758e+00 2.395460e+00 2.035192e+00 2.437793e+00
<GCONST> 1.075862e+02
<TRANSP> 5
 0.000000e+00 1.000000e+00 0.000000e+00 0.000000e+00 0.000000e+00
 0.000000e+00 6.254888e-01 3.745112e-01 0.000000e+00 0.000000e+00
 0.000000e+00 0.000000e+00 6.254913e-01 3.745088e-01 0.000000e+00
 0.000000e+00 0.000000e+00 0.000000e+00 7.441522e-01 2.558478e-01
 0.000000e+00 0.000000e+00 0.000000e+00 0.000000e+00 0.000000e+00
<ENDHMM>
~h "m"
<BEGINHMM>
<NUMSTATES> 5
<STATE> 2
<MEAN> 25
 1.429500e+00 5.038878e-01 -2.782490e-01 2.238863e-03 2.910016e-01 1.016989e-01 -7.217481e-02 -1.678188e-01 -7.388093e-02 -9.147920e-02 -3.105744e-01 -3.874455e-01 3.114547e-02 -5.615508e-03 -3.070466e-03 -5.364833e-03 2.503235e-02 8.301178e-03 -3.423060e-03 5.112571e-03 1.724675e-02 3.946504e-03 -1.317086e-02 -9.636410e-04 3.721204e-02
<VARIANCE> 25
 8.614317e+01 5.839827e+01 5.584521e+01 5.468502e+01 6.059106e+01 6.281938e+01 5.090880e+01 5.159713e+01 5.834017e+01 3.676643e+01 3.808328e+01 2.937212e+01 2.825305e+00 3.156655e+00 2.855518e+00 3.032525e+00 3.516261e+00 3.941578e+00 2.990734e+00 3.092354e+00 3.393280e+00 2.623313e+00 2.441979e+00 2.071547e+00 2.644197e+00
<GCONST> 1.072829e+02
<STATE> 3
<MEAN> 25
 1.509499e+00 4.844408e-01 -2.952051e-01 -9.252504e-03 3.427238e-01 1.151589e-01 -7.400163e-02 -1.501247e-01 -5.266954e-02 -8.311683e-02 -3.419057e-01 -3.911861e-01 2.007118e-02 -9.864219e-03 -3.469149e-03 -7.867470e-04 1.838014e-02 2.495821e-03 -2.173363e-03 6.464380e-03 1.087205e-02 3.333728e-03 -1.173515e-02 2.795891e-03 2.866228e-02
<VARIANCE> 25
 8.533193e+01 5.802602e+01 5.551503e+01 5.448932e+01 6.057612e+01 6.316869e+01 5.071766e+01 5.172690e+01 5.817725e+01 3.672240e+01 3.804816e+01 2.933184e+01 2.782053e+00 3.116136e+00 2.843140e+00 3.015805e+00 3.505657e+00 3.914065e+00 2.983427e+00 3.091818e+00 3.378983e+00 2.614445e+00 2.433055e+00 2.071497e+00 2.618935e+00
<GCONST> 1.071835e+02
<STATE> 4
<MEAN> 25
 1.548014e+00 3.687881e-01 -2.933665e-01 -1.546817e-02 3.790752e-01 7.347177e-02 -5.023742e-02 -1.488368e-01 -1.604434e-01 -5.584011e-02 -4.187360e-01 -4.379247e-01 9.598414e-03 -1.410379e-02 -6.148406e-04 -1.338834e-03 5.756269e-03 -4.237467e-03 3.718011e-03 1.033702e-02 6.068417e-03 2.075598e-03 -1.057936e-02 1.089449e-03 2.182587e-02
<VARIANCE> 25
 8.427139e+01 5.737761e+01 5.529601e+01 5.545114e+01 5.907192e+01 6.287236e+01 4.840334e+01 5.091037e+01 5.925488e+01 3.588075e+01 3.800731e+01 2.882401e+01 2.662816e+00 3.005222e+00 2.787115e+00 3.034190e+00 3.350312e+00 3.757760e+00 2.871282e+00 3.031536e+00 3.299360e+00 2.528704e+00 2.397235e+00 2.008032e+00 2.607102e+00
<GCONST> 1.067119e+02
<TRANSP> 5
 0.000000e+00 1.000000e+00 0.000000e+00 0.000000e+00 0.000000e+00
 0.000000e+00 6.353543e-01 3.646457e-01 0.000000e+00 0.000000e+00
 0.000000e+00 0.000000e+00 6.353582e-01 3.646419e-01 0.000000e+00
 0.000000e+00 0.000000e+00 0.000000e+00 7.577494e-01 2.422506e-01
 0.000000e+00 0.000000e+00 0.000000e+00 0.000000e+00 0.000000e+00
<ENDHMM>
~h "n"
<BEGINHMM>
<NUMSTATES> 5
<STATE> 2
<MEAN> 25
 1.155250e+00 -1.178390e-01 2.063463e-01 5.706967e-01 8.842175e-02 -2.558990e-01 1.426090e-01 -2.415077e-01 -2.845320e-01 1.213853e-02 -5.515206e-01 -2.767789e-01 -4.255722e-02 2.922203e-03 -2.826876e-03 2.865684e-03 1.556773e-02 1.431781e-02 2.007596e-02 -8.969100e-03 1.731060e-03 -8.968354e-03 1.085944e-02 1.073894e-02 -1.968815e-02
<VARIANCE> 25
 7.744801e+01 5.529920e+01 5.663456e+01 5.584400e+01 6.259081e+01 6.333359e+01 5.208043e+01 5.628370e+01 5.299805e+01 3.590207e+01 3.974277e+01 2.880836e+01 2.543449e+00 3.201388e+00 2.632698e+00 2.829547e+00 3.363377e+00 3.844793e+00 3.143091e+00 3.302155e+00 3.253701e+00 2.572539e+00 2.537494e+00 2.037230e+00 2.603153e+00
<GCONST> 1.069597e+02
<STATE> 3
<MEAN> 25
 1.046035e+00 -1.212314e-01 2.042882e-01 5.822220e-01 1.158862e-01 -2.101423e-01 1.853168e-01 -2.696664e-01 -2.842690e-01 -1.417594e-02 -5.155850e-01 -2.438097e-01 -4.753833e-02 7.958349e-04 -3.019086e-03 1.080248e-03 9.454275e-03 1.439160e-02 1.712404e-02 -7.766476e-03 -1.386364e-03 -8.782641e-03 1.679278e-02 1.455958e-02 -2.658901e-02
<VARIANCE> 25
 7.770501e+01 5.518645e+01 5.688953e+01 5.594894e+01 6.288870e+01 6.353838e+01 5.230158e+01 5.619512e+01 5.286343e+01 3.598353e+01 3.997699e+01 2.893900e+01 2.533862e+00 3.161537e+00 2.617935e+00 2.818159e+00 3.350319e+00 3.832913e+00 3.129505e+00 3.295780e+00 3.236114e+00 2.560442e+00 2.521881e+00 2.036831e+00 2.586389e+00
<GCONST> 1.069259e+02
<STATE> 4
<MEAN> 25
 9.050525e-01 -1.468513e-01 2.222369e-01 5.815852e-01 9.455424e-02 -2.393130e-01 2.015862e-01 -2.659077e-01 -3.399666e-01 -3.681092e-02 -4.503313e-01 -2.143007e-01 -4.889654e-02 -4.273018e-03 -3.435507e-03 -3.144198e-03 2.732321e-03 1.499337e-02 8.803168e-03 -2.990943e-03 -3.578445e-05 -8.882431e-03 2.078266e-02 1.505736e-02 -3.130004e-02
<VARIANCE> 25
 7.828145e+01 5.496630e+01 5.687937e+01 5.611076e+01 6.155508e+01 6.313544e+01 5.123361e+01 5.488059e+01 5.341738e+01 3.558300e+01 4.024654e+01 2.879113e+01 2.460824e+00 3.070245e+00 2.557859e+00 2.806721e+00 3.242356e+00 3.752245e+00 3.022625e+00 3.229138e+00 3.184940e+00 2.502274e+00 2.469533e+00 1.995969e+00 2.593907e+00
<GCONST> 1.065885e+02
<TRANSP> 5
 0.000000e+00 1.000000e+00 0.000000e+00 0.000000e+00 0.000000e+00
 0.000000e+00 6.260900e-01 3.739100e-01 0.000000e+00 0.000000e+00
 0.000000e+00 0.000000e+00 6.260902e-01 3.739098e-01 0.000000e+00
 0.000000e+00 0.000000e+00 0.000000e+00 7.467336e-01 2.532664e-01
 0.000000e+00 0.000000e+00 0.000000e+00 0.000000e+00 0.000000e+00
<ENDHMM>
~h "o"
<BEGINHMM>
<NUMSTATES> 5
<STATE> 2
<MEAN> 25
 2.399520e-01 7.936090e-01 -1.083982e+00 -1.064950e+00 -3.437691e-01 6.901973e-01 2.931964e-02 1.987692e-01 2.892888e-01 2.394203e-02 5.595802e-02 5.714900e-02 6.356639e-02 -1.462267e-03 4.581887e-02 1.221153e-02 4.070354e-03 4.068752e-04 -1.200686e-02 -4.906771e-03 -1.565754e-02 4.564410e-03 7.934845e-04 -8.127848e-03 6.127419e-02
<VARIANCE> 25
 1.025204e+02 4.877233e+01 5.097867e+01 6.490897e+01 6.315240e+01 7.642947e+01 5.251083e+01 5.161589e+01 4.898362e+01 3.879360e+01 3.411465e+01 2.841987e+01 2.837962e+00 2.875493e+00 2.576741e+00 2.964673e+00 3.286362e+00 3.854781e+00 2.983012e+00 2.858639e+00 3.038515e+00 2.637187e+00 2.191534e+00 2.014250e+00 2.608091e+00
<GCONST> 1.067214e+02
<STATE> 3
<MEAN> 25
 4.863589e-01 7.984238e-01 -9.926353e-01 -1.088929e+00 -3.468802e-01 7.092917e-01 2.655970e-02 1.790442e-01 2.431409e-01 2.466427e-02 6.185556e-02 2.749361e-02 7.331616e-02 -5.211738e-03 4.154264e-02 8.756414e-03 -6.213892e-04 -2.379908e-03 -3.785416e-03 -3.183772e-03 -1.083148e-02 -4.221284e-05 5.726514e-03 -8.547085e-03 7.241161e-02
<VARIANCE> 25
 1.010588e+02 4.927403e+01 5.212820e+01 6.540598e+01 6.260800e+01 7.709760e+01 5.221407e+01 5.235352e+01 4.951162e+01 3.880152e+01 3.439219e+01 2.853917e+01 2.952578e+00 2.916366e+00 2.669038e+00 3.020984e+00 3.282871e+00 3.881239e+00 2.982797e+00 2.887244e+00 3.079919e+00 2.655287e+00 2.227728e+00 2.033253e+00 2.655005e+00
<GCONST> 1.069663e+02
<STATE> 4
<MEAN> 25
 8.639532e-01 7.768093e-01 -9.391415e-01 -1.254981e+00 -4.068837e-01 7.974817e-01 5.298965e-02 9.365246e-02 1.759749e-01 -1.458834e-02 1.115145e-01 -9.715352e-03 7.674960e-02 -1.253563e-02 3.351502e-02 -4.048957e-03 -1.425795e-02 -1.417341e-02 2.135359e-03 -6.592546e-03 -1.109039e-02 -2.781464e-03 1.112675e-02 -8.112294e-03 7.991278e-02
<VARIANCE> 25
 9.815770e+01 4.874636e+01 5.281939e+01 6.943414e+01 6.026802e+01 7.692372e+01 5.025455e+01 5.186176e+01 4.984410e+01 3.804095e+01 3.393118e+01 2.802525e+01 3.003069e+00 2.838169e+00 2.661898e+00 3.119866e+00 3.164213e+00 3.812184e+00 2.881156e+00 2.839396e+00 3.061212e+00 2.600861e+00 2.210174e+00 1.984368e+00 2.710068e+00
<GCONST> 1.067412e+02
<TRANSP> 5
 0.000000e+00 1.000000e+00 0.000000e+00 0.000000e+00 0.000000e+00
 0.000000e+00 6.398344e-01 3.601656e-01 0.000000e+00 0.000000e+00
 0.000000e+00 0.000000e+00 6.398351e-01 3.601649e-01 0.000000e+00
 0.000000e+00 0.000000e+00 0.000000e+00 7.620009e-01 2.379991e-01
 0.000000e+00 0.000000e+00 0.000000e+00 0.000000e+00 0.000000e+00
<ENDHMM>
~h "p"
<BEGINHMM>
<NUMSTATES> 5
<STATE> 2
<MEAN> 25
 1.808868e-01 -2.280994e-01 -7.604110e-01 -7.005279e-01 3.790458e-02 -3.488849e-01 -7.501939e-02 2.260391e-01 -2.935425e-04 4.698831e-01 2.265245e-01 -1.482342e-01 -2.282819e-02 -5.911219e-03 2.117381e-02 2.790841e-02 7.712840e-03 4.868981e-03 -1.426793e-02 -1.815786e-02 -2.172760e-03 2.970561e-03 1.886503e-03 8.069050e-04 -5.515661e-03
<VARIANCE> 25
 8.878015e+01 5.437135e+01 6.102547e+01 5.750322e+01 6.094558e+01 6.671455e+01 5.015011e+01 5.410511e+01 5.195692e+01 3.615287e+01 3.855115e+01 2.940136e+01 3.676725e+00 3.143612e+00 2.814058e+00 3.054424e+00 3.315277e+00 4.113381e+00 2.930552e+00 3.140239e+00 3.371612e+00 2.626365e+00 2.453947e+00 2.063638e+00 3.442697e+00
<GCONST> 1.078499e+02
<STATE> 3
<MEAN> 25
 1.199415e-01 -2.460053e-01 -7.067655e-01 -6.292997e-01 6.083481e-02 -3.177467e-01 -1.114729e-01 1.692704e-01 -2.479631e-02 4.755325e-01 2.423993e-01 -1.592690e-01 -3.042330e-02 -1.235889e-03 2.042743e-02 3.079398e-02 1.291086e-02 1.273461e-02 -1.068929e-02 -1.635743e-02 -6.799210e-03 -1.360820e-03 5.096598e-04 -3.029219e-03 -1.355141e-02
<VARIANCE> 25
 8.871831e+01 5.425804e+01 6.107051e+01 5.733601e+01 6.124509e+01 6.692522e+01 5.086209e+01 5.430476e+01 5.202696e+01 3.610123e+01 3.850573e+01 2.951538e+01 3.642290e+00 3.109548e+00 2.803712e+00 3.041584e+00 3.308203e+00 4.098282e+00 2.923942e+00 3.164656e+00 3.359069e+00 2.629115e+00 2.448531e+00 2.055690e+00 3.412199e+00
<GCONST> 1.078272e+02
<STATE> 4
<MEAN> 25
 9.690476e-02 -2.895356e-01 -5.558541e-01 -5.221672e-01 1.077751e-01 -2.894198e-01 -1.517453e-01 6.541470e-02 -1.253303e-01 4.652375e-01 2.057330e-01 -2.258921e-01 -3.157371e-02 3.117250e-03 1.611702e-02 2.711296e-02 1.816841e-02 1.910827e-02 -2.685494e-03 -1.341153e-02 -7.313734e-03 2.578015e-03 8.808454e-04 -8.342780e-03 -2.091919e-02
<VARIANCE> 25
 8.774931e+01 5.404126e+01 6.062322e+01 5.764767e+01 6.017832e+01 6.573116e+01 5.042841e+01 5.278561e+01 5.284808e+01 3.539721e+01 3.857245e+01 2.937607e+01 3.508662e+00 3.003434e+00 2.729097e+00 3.027368e+00 3.166399e+00 3.950618e+00 2.856467e+00 3.075538e+00 3.313726e+00 2.583387e+00 2.424522e+00 1.997005e+00 3.425745e+00
<GCONST> 1.074286e+02
<TRANSP> 5
 0.000000e+00 1.000000e+00 0.000000e+00 0.000000e+00 0.000000e+00
 0.000000e+00 6.303956e-01 3.696045e-01 0.000000e+00 0.000000e+00
 0.000000e+00 0.000000e+00 6.303961e-01 3.696038e-01 0.000000e+00
 0.000000e+00 0.000000e+00 0.000000e+00 7.537706e-01 2.462294e-01
 0.000000e+00 0.000000e+00 0.000000e+00 0.000000e+00 0.000000e+00
<ENDHMM>
~h "r"
<BEGINHMM>
<NUMSTATES> 5
<STATE> 2
<MEAN> 25
 1.458980e+00 -7.426786e-01 1.522782e-01 2.801022e-01 -2.790337e-01 -5.397110e-01 -3.390025e-01 -1.045975e-01 -2.340816e-01 1.420148e-02 1.636910e-01 -2.014949e-01 -1.691889e-03 -6.610395e-03 1.643394e-02 2.595596e-03 1.044263e-02 -4.038452e-03 2.047047e-02 1.132822e-02 1.336014e-03 -1.442950e-02 -2.422316e-04 1.896856e-03 1.067501e-02
<VARIANCE> 25
 7.716294e+01 5.807019e+01 5.958043e+01 5.525183e+01 6.035922e+01 7.062785e+01 5.396340e+01 5.548300e+01 5.633236e+01 4.031000e+01 4.026105e+01 3.050385e+01 2.811448e+00 3.357759e+00 2.871242e+00 3.073137e+00 3.320985e+00 4.074401e+00 3.114952e+00 3.327363e+00 3.509727e+00 2.726622e+00 2.534760e+00 2.082988e+00 3.060441e+00
<GCONST> 1.080638e+02
<STATE> 3
<MEAN> 25
 1.448461e+00 -7.631190e-01 1.892036e-01 2.746228e-01 -2.532316e-01 -5.406661e-01 -3.000569e-01 -7.967402e-02 -2.259532e-01 -1.125961e-02 1.611985e-01 -2.071996e-01 -8.821920e-03 -1.319159e-03 1.188255e-02 -2.692819e-04 1.258138e-02 -1.122796e-04 1.869185e-02 8.877110e-03 2.207088e-03 -1.127079e-02 2.687390e-03 1.485009e-03 2.150352e-04
<VARIANCE> 25
 7.693843e+01 5.831604e+01 5.990941e+01 5.488946e+01 6.050531e+01 7.091495e+01 5.387416e+01 5.528449e+01 5.629008e+01 4.027173e+01 4.025943e+01 3.060287e+01 2.797038e+00 3.351035e+00 2.865798e+00 3.059609e+00 3.312938e+00 4.053895e+00 3.105933e+00 3.281713e+00 3.486100e+00 2.715683e+00 2.534922e+00 2.079136e+00 3.030856e+00
<GCONST> 1.080069e+02
<STATE> 4
<MEAN> 25
 1.440837e+00 -7.838535e-01 2.542879e-01 1.781239e-01 -2.159076e-01 -6.224285e-01 -3.245865e-01 -1.024735e-01 -2.878060e-01 3.952179e-02 1.042802e-01 -2.529231e-01 -1.562382e-02 1.657227e-03 6.395158e-03 -5.100043e-03 8.795518e-03 3.824013e-03 1.229615e-02 4.823645e-03 2.953747e-03 -5.615756e-03 3.748443e-03 -1.516242e-04 -9.814736e-03
<VARIANCE> 25
 7.700234e+01 5.913651e+01 5.968528e+01 5.476885e+01 5.859202e+01 7.003720e+01 5.226763e+01 5.416320e+01 5.658865e+01 3.974312e+01 4.037434e+01 3.017092e+01 2.744149e+00 3.291742e+00 2.788844e+00 3.102776e+00 3.202874e+00 3.947734e+00 3.016387e+00 3.200337e+00 3.427672e+00 2.674037e+00 2.522260e+00 2.032151e+00 3.098347e+00
<GCONST> 1.076980e+02
<TRANSP> 5
 0.000000e+00 1.000000e+00 0.000000e+00 0.000000e+00 0.000000e+00
 0.000000e+00 6.299105e-01 3.700894e-01 0.000000e+00 0.000000e+00
 0.000000e+00 0.000000e+00 6.299098e-01 3.700903e-01 0.000000e+00
 0.000000e+00 0.000000e+00 0.000000e+00 7.501423e-01 2.498577e-01
 0.000000e+00 0.000000e+00 0.000000e+00 0.000000e+00 0.000000e+00
<ENDHMM>
~h "s"
<BEGINHMM>
<NUMSTATES> 5
<STATE> 2
<MEAN> 25
 -2.904958e-02 -4.816339e-01 1.075202e+00 -1.627298e-01 5.612653e-02 -1.646789e-01 2.977116e-01 -5.202358e-01 -6.159746e-02 -7.969676e-02 -7.154433e-02 1.493648e-01 1.158198e-02 -9.152923e-03 -1.368052e-02 6.531725e-03 -1.294563e-02 5.881426e-03 2.303265e-02 -9.625239e-03 -3.092647e-02 1.174065e-02 1.618748e-02 -6.719242e-05 -1.480025e-02
<VARIANCE> 25
 9.117361e+01 6.609751e+01 7.799497e+01 6.213812e+01 6.350578e+01 7.473740e+01 5.645391e+01 5.353167e+01 5.042229e+01 3.858249e+01 3.874697e+01 3.033459e+01 3.391818e+00 3.398403e+00 3.402494e+00 2.897411e+00 3.335623e+00 3.937817e+00 3.175273e+00 3.105606e+00 3.189642e+00 2.640020e+00 2.471193e+00 1.959734e+00 2.651295e+00
<GCONST> 1.085384e+02
<STATE> 3
<MEAN> 25
 -3.138845e-02 -4.863436e-01 1.027829e+00 -1.403438e-01 4.706723e-02 -1.620759e-01 3.480780e-01 -5.469921e-01 -1.279672e-01 -5.682454e-02 -3.640014e-02 1.595050e-01 9.108579e-03 -2.620467e-03 -2.208172e-02 9.828746e-03 -3.959001e-03 6.878491e-03 1.683220e-02 -9.853407e-03 -2.874029e-02 9.086794e-03 1.401923e-02 3.265753e-03 -2.598538e-02
<VARIANCE> 25
 9.047724e+01 6.529919e+01 7.726239e+01 6.172651e+01 6.324907e+01 7.447642e+01 5.668134e+01 5.367400e+01 5.062463e+01 3.849653e+01 3.867587e+01 3.014302e+01 3.358585e+00 3.381693e+00 3.382521e+00 2.890084e+00 3.324156e+00 3.926860e+00 3.171119e+00 3.141012e+00 3.214764e+00 2.658723e+00 2.470884e+00 1.960091e+00 2.657604e+00
<GCONST> 1.084931e+02
<STATE> 4
<MEAN> 25
 3.333161e-02 -4.338186e-01 9.546528e-01 -1.503631e-01 8.064002e-02 -2.440089e-01 3.480003e-01 -5.820777e-01 -2.185232e-01 -3.129988e-02 -8.402696e-02 1.346910e-01 3.761442e-03 7.637190e-03 -2.782697e-02 1.104368e-02 4.741402e-03 2.435592e-03 8.470848e-03 -6.138850e-03 -1.950643e-02 5.636626e-03 1.176839e-02 6.727857e-03 -3.168809e-02
<VARIANCE> 25
 8.733989e+01 6.351283e+01 7.575705e+01 6.176665e+01 6.087070e+01 7.339706e+01 5.482624e+01 5.213507e+01 5.159102e+01 3.801765e+01 3.900423e+01 2.937015e+01 3.233779e+00 3.281293e+00 3.279568e+00 2.901109e+00 3.184784e+00 3.820979e+00 3.073954e+00 3.090571e+00 3.217803e+00 2.639982e+00 2.449035e+00 1.921144e+00 2.714794e+00
<GCONST> 1.080583e+02
<TRANSP> 5
 0.000000e+00 1.000000e+00 0.000000e+00 0.000000e+00 0.000000e+00
 0.000000e+00 6.340740e-01 3.659260e-01 0.000000e+00 0.000000e+00
 0.000000e+00 0.000000e+00 6.340762e-01 3.659238e-01 0.000000e+00
 0.000000e+00 0.000000e+00 0.000000e+00 7.573450e-01 2.426550e-01
 0.000000e+00 0.000000e+00 0.000000e+00 0.000000e+00 0.000000e+00
<ENDHMM>
~h "t"
<BEGINHMM>
<NUMSTATES> 5
<STATE> 2
<MEAN> 25
 8.255064e-02 1.089956e-01 2.203286e-01 -4.592330e-01 -3.828463e-01 -2.517873e-01 -6.214379e-02 -2.190391e-01 -7.168655e-03 1.202100e-01 7.711928e-02 5.956329e-02 5.764581e-03 -1.520047e-02 1.403340e-02 -8.868945e-03 -1.113898e-02 6.150762e-03 -3.794478e-02 9.356106e-03 -4.503078e-03 -2.794630e-03 4.592841e-03 -4.947028e-03 1.294116e-02
<VARIANCE> 25
 8.120128e+01 5.277588e+01 6.140076e+01 6.339127e+01 5.961931e+01 6.985139e+01 5.061784e+01 5.233952e+01 5.451587e+01 3.603561e+01 3.772169e+01 2.902349e+01 3.190760e+00 3.069125e+00 2.740851e+00 3.121549e+00 3.387882e+00 4.052197e+00 3.248319e+00 3.222090e+00 3.348997e+00 2.574911e+00 2.462785e+00 2.015000e+00 3.573167e+00
<GCONST> 1.078001e+02
<STATE> 3
<MEAN> 25
 7.831254e-02 9.433771e-02 2.428080e-01 -4.620696e-01 -3.997079e-01 -2.429942e-01 -1.453133e-01 -2.032728e-01 -9.498325e-03 1.019672e-01 7.802851e-02 5.803061e-02 4.480399e-03 -8.450083e-03 8.578985e-03 1.076495e-03 -7.182540e-03 6.839037e-03 -3.543884e-02 8.523503e-03 -8.470699e-03 -9.002717e-03 2.937889e-03 1.140595e-03 1.181447e-03
<VARIANCE> 25
 8.107909e+01 5.271546e+01 6.149156e+01 6.303857e+01 5.938692e+01 6.936895e+01 5.077106e+01 5.246103e+01 5.452752e+01 3.613941e+01 3.779199e+01 2.908526e+01 3.179843e+00 3.041348e+00 2.726692e+00 3.104239e+00 3.359638e+00 4.033415e+00 3.228905e+00 3.213714e+00 3.327516e+00 2.581890e+00 2.466608e+00 1.999225e+00 3.535863e+00
<GCONST> 1.077295e+02
<STATE> 4
<MEAN> 25
 1.321592e-01 9.927610e-02 3.364437e-01 -3.830878e-01 -4.481187e-01 -3.125479e-01 -2.339101e-01 -1.835280e-01 -7.813870e-02 4.514426e-02 8.248103e-02 8.999332e-02 -2.397721e-03 -2.262574e-03 1.729542e-03 1.060766e-02 -8.522536e-04 1.026429e-02 -1.862986e-02 4.587143e-03 -7.331819e-03 -1.348250e-02 4.045360e-04 3.013971e-03 -1.166065e-02
<VARIANCE> 25
 7.981054e+01 5.252641e+01 6.147922e+01 6.319904e+01 5.709393e+01 6.806658e+01 4.981236e+01 5.144082e+01 5.612880e+01 3.580070e+01 3.823081e+01 2.864395e+01 3.077669e+00 2.955300e+00 2.691395e+00 3.082036e+00 3.178952e+00 3.940297e+00 3.092841e+00 3.129067e+00 3.318344e+00 2.558241e+00 2.451504e+00 1.929060e+00 3.541276e+00
<GCONST> 1.073490e+02
<TRANSP> 5
 0.000000e+00 1.000000e+00 0.000000e+00 0.000000e+00 0.000000e+00
 0.000000e+00 6.394740e-01 3.605261e-01 0.000000e+00 0.000000e+00
 0.000000e+00 0.000000e+00 6.394737e-01 3.605263e-01 0.000000e+00
 0.000000e+00 0.000000e+00 0.000000e+00 7.640272e-01 2.359728e-01
 0.000000e+00 0.000000e+00 0.000000e+00 0.000000e+00 0.000000e+00
<ENDHMM>
~h "u"
<BEGINHMM>
<NUMSTATES> 5
<STATE> 2
<MEAN> 25
 3.416695e-01 8.042831e-01 2.209036e-01 -4.336596e-01 -2.710819e-01 1.206411e-01 -8.829238e-01 -5.292106e-01 2.365058e-02 -3.558893e-01 4.049217e-02 2.120165e-02 1.205700e-03 -2.145279e-02 -2.283276e-03 3.858049e-03 -6.719178e-03 1.833546e-02 2.399475e-02 4.640108e-03 1.006708e-02 -1.011799e-04 1.278457e-04 6.505693e-03 5.558735e-03
<VARIANCE> 25
 8.502843e+01 5.863971e+01 6.063313e+01 6.155387e+01 5.911216e+01 6.711663e+01 5.478023e+01 5.419176e+01 5.641085e+01 4.244947e+01 3.795829e+01 2.909603e+01 2.821131e+00 3.143631e+00 2.719639e+00 3.109685e+00 3.326679e+00 3.963835e+00 3.190323e+00 3.246541e+00 3.366932e+00 2.761469e+00 2.476709e+00 1.981977e+00 2.771548e+00
<GCONST> 1.078305e+02
<STATE> 3
<MEAN> 25
 3.422979e-01 7.588046e-01 2.000823e-01 -4.376761e-01 -3.027865e-01 1.756711e-01 -8.108649e-01 -5.244893e-01 2.759323e-02 -3.598157e-01 4.446919e-02 3.422053e-02 1.801478e-03 -2.153401e-02 -1.015257e-02 2.100488e-03 -7.994839e-03 1.710624e-02 3.195231e-02 4.385160e-03 2.636147e-03 -1.230146e-03 -7.493907e-05 4.487263e-03 2.618873e-03
<VARIANCE> 25
 8.451190e+01 5.883285e+01 6.064871e+01 6.131054e+01 5.891634e+01 6.705872e+01 5.486710e+01 5.427481e+01 5.644600e+01 4.226488e+01 3.778491e+01 2.909630e+01 2.811573e+00 3.148260e+00 2.709400e+00 3.087128e+00 3.330437e+00 3.965709e+00 3.191531e+00 3.244033e+00 3.355959e+00 2.762833e+00 2.469157e+00 1.981063e+00 2.749021e+00
<GCONST> 1.077884e+02
<STATE> 4
<MEAN> 25
 3.629092e-01 6.657706e-01 1.528223e-01 -5.224256e-01 -3.755405e-01 2.069918e-01 -7.049663e-01 -5.489905e-01 -1.386085e-01 -3.772207e-01 6.586511e-02 2.164064e-02 -1.758700e-03 -1.687077e-02 -1.706457e-02 -5.688574e-05 -6.584273e-03 1.373295e-02 3.048725e-02 2.359670e-03 -3.601095e-03 -8.470684e-04 2.932928e-03 3.003244e-03 -3.309620e-03
<VARIANCE> 25
 8.302190e+01 5.791835e+01 6.024336e+01 6.168311e+01 5.670002e+01 6.600363e+01 5.339026e+01 5.311652e+01 5.828560e+01 4.131354e+01 3.744070e+01 2.865885e+01 2.726655e+00 3.058204e+00 2.649881e+00 3.093288e+00 3.177250e+00 3.857495e+00 3.115575e+00 3.174048e+00 3.341106e+00 2.712058e+00 2.425663e+00 1.929212e+00 2.775240e+00
<GCONST> 1.073779e+02
<TRANSP> 5
 0.000000e+00 1.000000e+00 0.000000e+00 0.000000e+00 0.000000e+00
 0.000000e+00 6.401342e-01 3.598658e-01 0.000000e+00 0.000000e+00
 0.000000e+00 0.000000e+00 6.401358e-01 3.598641e-01 0.000000e+00
 0.000000e+00 0.000000e+00 0.000000e+00 7.652546e-01 2.347455e-01
 0.000000e+00 0.000000e+00 0.000000e+00 0.000000e+00 0.000000e+00
<ENDHMM>
~h "v"
<BEGINHMM>
<NUMSTATES> 5
<STATE> 2
<MEAN> 25
 -2.260310e-01 -3.068250e-01 8.054519e-01 1.254421e+00 4.580012e-01 3.586506e-01 4.039065e-01 -8.103456e-01 -1.350910e+00 -8.695226e-02 6.093220e-01 8.884602e-01 4.209080e-02 -9.587200e-03 3.727530e-03 6.116753e-02 -2.282071e-03 -1.533283e-02 1.960631e-02 1.982785e-02 5.776769e-02 -1.257619e-02 -1.401543e-02 3.635601e-03 2.191411e-02
<VARIANCE> 25
 9.232794e+01 4.380819e+01 4.049278e+01 5.562357e+01 7.019012e+01 8.511063e+01 4.914171e+01 3.841248e+01 4.410318e+01 4.234674e+01 3.541283e+01 2.141233e+01 2.985157e+00 2.604153e+00 2.556494e+00 3.441458e+00 3.970508e+00 4.574581e+00 3.146336e+00 2.623493e+00 3.370929e+00 2.328385e+00 2.457344e+00 1.841460e+00 2.330066e+00
<GCONST> 1.060249e+02
<STATE> 3
<MEAN> 25
 -9.583096e-02 -2.805664e-01 7.238091e-01 1.393550e+00 5.135463e-01 2.909614e-01 4.061129e-01 -7.353406e-01 -1.212682e+00 -1.999152e-01 5.521342e-01 9.337061e-01 4.211928e-02 -2.223358e-04 -2.277425e-02 4.954474e-02 2.312895e-02 -1.879071e-02 -3.091053e-02 3.280709e-03 4.526305e-02 -4.995139e-02 -3.027602e-02 9.797774e-03 1.835509e-02
<VARIANCE> 25
 9.274977e+01 4.445173e+01 4.165429e+01 5.408521e+01 6.791767e+01 8.522297e+01 4.756647e+01 3.906028e+01 4.446481e+01 4.239095e+01 3.483601e+01 2.142071e+01 3.118826e+00 2.648118e+00 2.567259e+00 3.306502e+00 3.754821e+00 4.590574e+00 3.091913e+00 2.587917e+00 3.251678e+00 2.228631e+00 2.442707e+00 1.860177e+00 2.410563e+00
<GCONST> 1.058896e+02
<STATE> 4
<MEAN> 25
 2.427482e-01 -2.010875e-01 5.911523e-01 1.490871e+00 5.926944e-01 -2.915031e-02 4.255018e-01 -6.224877e-01 -1.108081e+00 -2.977940e-01 3.761627e-01 9.427782e-01 4.672176e-02 6.435163e-03 -2.148201e-02 4.112184e-02 3.508535e-02 -1.946068e-02 -2.528285e-02 1.460728e-03 3.484708e-02 -6.561711e-02 -5.236934e-02 6.083029e-03 2.630897e-02
<VARIANCE> 25
 9.462685e+01 4.718541e+01 4.347821e+01 5.392763e+01 6.514086e+01 8.531140e+01 4.571472e+01 4.029480e+01 4.586956e+01 4.244492e+01 3.402782e+01 2.180682e+01 3.355544e+00 2.785498e+00 2.602409e+00 3.248868e+00 3.530595e+00 4.560805e+00 3.078722e+00 2.551537e+00 3.160072e+00 2.156551e+00 2.450103e+00 1.938240e+00 2.647355e+00
<GCONST> 1.060963e+02
<TRANSP> 5
 0.000000e+00 1.000000e+00 0.000000e+00 0.000000e+00 0.000000e+00
 0.000000e+00 6.507635e-01 3.492365e-01 0.000000e+00 0.000000e+00
 0.000000e+00 0.000000e+00 6.507638e-01 3.492362e-01 0.000000e+00
 0.000000e+00 0.000000e+00 0.000000e+00 7.659293e-01 2.340707e-01
 0.000000e+00 0.000000e+00 0.000000e+00 0.000000e+00 0.000000e+00
<ENDHMM>
~h "w"
<BEGINHMM>
<NUMSTATES> 5
<STATE> 2
<MEAN> 25
 -1.384132e-01 6.873903e-01 -4.769862e-02 -4.229336e-01 3.940021e-01 -3.086850e-02 -1.380310e+00 -2.531280e-01 3.431601e-01 -6.561638e-02 -3.763069e-01 -4.920017e-01 1.058258e-01 -6.495656e-03 -2.053855e-02 -1.608093e-02 -1.974250e-02 -3.373625e-02 -1.152126e-02 4.287801e-02 5.272918e-02 -1.377906e-03 -2.191697e-02 -1.233173e-02 1.019394e-01
<VARIANCE> 25
 1.068407e+02 5.283146e+01 5.605617e+01 5.795786e+01 5.845425e+01 7.365490e+01 5.023767e+01 5.398266e+01 5.144860e+01 3.949385e+01 3.803532e+01 2.762642e+01 2.698085e+00 2.668637e+00 2.714566e+00 2.821244e+00 3.290767e+00 4.060227e+00 2.944019e+00 3.077724e+00 2.860738e+00 2.527486e+00 2.347261e+00 2.146528e+00 2.284949e+00
<GCONST> 1.067465e+02
<STATE> 3
<MEAN> 25
 2.286713e-01 6.607416e-01 -1.252265e-01 -4.807123e-01 3.171293e-01 -1.129339e-01 -1.375552e+00 -1.554446e-01 4.625439e-01 -9.388646e-02 -4.380359e-01 -5.223225e-01 1.187291e-01 -6.662722e-03 -2.680643e-02 -1.756507e-02 -2.184956e-02 -3.872788e-02 1.962743e-03 4.350047e-02 4.610607e-02 -7.952177e-03 -1.775638e-02 -5.248935e-03 1.102274e-01
<VARIANCE> 25
 1.058286e+02 5.229879e+01 5.568036e+01 5.814791e+01 5.953947e+01 7.626088e+01 5.080836e+01 5.440747e+01 5.212344e+01 3.960313e+01 3.848014e+01 2.774950e+01 2.865141e+00 2.706790e+00 2.747331e+00 2.880859e+00 3.347263e+00 4.172108e+00 3.008004e+00 3.119387e+00 2.925972e+00 2.563932e+00 2.346496e+00 2.157423e+00 2.374437e+00
<GCONST> 1.070939e+02
<STATE> 4
<MEAN> 25
 1.002647e+00 4.919536e-01 -2.351581e-01 -5.763174e-01 2.082356e-01 -2.227538e-01 -1.253547e+00 -6.365836e-02 5.038349e-01 -2.163806e-01 -5.585496e-01 -5.701826e-01 1.166321e-01 -8.861330e-03 -2.700839e-02 -1.890017e-02 -1.881028e-02 -2.924809e-02 1.396809e-02 3.243202e-02 3.042841e-02 -1.530369e-02 -1.259008e-02 -3.591125e-03 1.040943e-01
<VARIANCE> 25
 1.043253e+02 5.200552e+01 5.458432e+01 6.007620e+01 6.111494e+01 7.775466e+01 4.974763e+01 5.375449e+01 5.332035e+01 3.933310e+01 3.863247e+01 2.778794e+01 2.988440e+00 2.742535e+00 2.725086e+00 2.921550e+00 3.313710e+00 4.164326e+00 3.005369e+00 3.105235e+00 2.995483e+00 2.569586e+00 2.307932e+00 2.150615e+00 2.506046e+00
<GCONST> 1.072240e+02
<TRANSP> 5
 0.000000e+00 1.000000e+00 0.000000e+00 0.000000e+00 0.000000e+00
 0.000000e+00 6.275205e-01 3.724795e-01 0.000000e+00 0.000000e+00
 0.000000e+00 0.000000e+00 6.275217e-01 3.724783e-01 0.000000e+00
 0.000000e+00 0.000000e+00 0.000000e+00 7.499391e-01 2.500608e-01
 0.000000e+00 0.000000e+00 0.000000e+00 0.000000e+00 0.000000e+00
<ENDHMM>
~h "y"
<BEGINHMM>
<NUMSTATES> 5
<STATE> 2
<MEAN> 25
 -3.395282e-01 -4.378146e-01 2.874540e-01 1.549964e-01 -5.666078e-01 -5.036181e-01 5.378416e-01 1.018364e+00 1.097924e-01 1.116054e-01 1.270226e-01 5.359091e-01 2.118003e-02 -2.801932e-02 -4.194048e-03 -8.095389e-03 2.730098e-02 4.699250e-02 1.779365e-02 -8.986651e-03 1.772351e-02 -2.905715e-02 -1.799668e-02 -1.053090e-02 3.753702e-02
<VARIANCE> 25
 9.271623e+01 5.189777e+01 5.638910e+01 5.685590e+01 6.438186e+01 6.173084e+01 5.219137e+01 5.459068e+01 4.838875e+01 3.282445e+01 3.453216e+01 2.722963e+01 2.305391e+00 2.324210e+00 2.240382e+00 2.544012e+00 3.015464e+00 2.954535e+00 2.720162e+00 2.852947e+00 2.675153e+00 2.203208e+00 2.073181e+00 1.740470e+00 2.328063e+00
<GCONST> 1.045150e+02
<STATE> 3
<MEAN> 25
 -2.663680e-01 -5.345843e-01 3.329580e-01 1.667354e-01 -5.206398e-01 -4.122189e-01 5.754830e-01 9.851772e-01 1.005890e-01 3.147517e-02 1.190689e-01 5.200660e-01 2.267762e-02 -2.256623e-02 1.779002e-03 8.902902e-03 3.209815e-02 4.554543e-02 1.040308e-02 -2.801537e-02 7.985908e-03 -2.683705e-02 -3.935333e-03 -1.385488e-02 2.907220e-02
<VARIANCE> 25
 8.981895e+01 5.117591e+01 5.720525e+01 5.747968e+01 6.396817e+01 6.079160e+01 5.277284e+01 5.394899e+01 4.823407e+01 3.339240e+01 3.469886e+01 2.707452e+01 2.277611e+00 2.304550e+00 2.242011e+00 2.536855e+00 3.002902e+00 2.947696e+00 2.735057e+00 2.846514e+00 2.697169e+00 2.197742e+00 2.075580e+00 1.753550e+00 2.290912e+00
<GCONST> 1.044573e+02
<STATE> 4
<MEAN> 25
 -1.314811e-01 -6.176710e-01 4.827184e-01 3.138747e-01 -4.110684e-01 -2.638513e-01 5.344796e-01 8.264686e-01 8.313996e-02 -6.398601e-03 1.958860e-01 4.734345e-01 2.389631e-02 -2.030178e-02 1.537062e-02 1.561830e-02 2.885395e-02 2.934878e-02 -1.578869e-03 -2.806577e-02 -1.038273e-02 -2.195485e-02 4.852381e-03 -6.809373e-03 2.791795e-02
<VARIANCE> 25
 8.692475e+01 5.063711e+01 6.093634e+01 6.107731e+01 6.191360e+01 6.028803e+01 5.205338e+01 5.086685e+01 4.989722e+01 3.351630e+01 3.514568e+01 2.681586e+01 2.169344e+00 2.200330e+00 2.238200e+00 2.538127e+00 2.851470e+00 2.877465e+00 2.662609e+00 2.725373e+00 2.696802e+00 2.144736e+00 2.043622e+00 1.725680e+00 2.224528e+00
<GCONST> 1.041372e+02
<TRANSP> 5
 0.000000e+00 1.000000e+00 0.000000e+00 0.000000e+00 0.000000e+00
 0.000000e+00 6.346140e-01 3.653860e-01 0.000000e+00 0.000000e+00
 0.000000e+00 0.000000e+00 6.346146e-01 3.653853e-01 0.000000e+00
 0.000000e+00 0.000000e+00 0.000000e+00 7.599005e-01 2.400995e-01
 0.000000e+00 0.000000e+00 0.000000e+00 0.000000e+00 0.000000e+00
<ENDHMM>
~h "z"
<BEGINHMM>
<NUMSTATES> 5
<STATE> 2
<MEAN> 25
 0.000000e+00 0.000000e+00 0.000000e+00 0.000000e+00 0.000000e+00 0.000000e+00 0.000000e+00 0.000000e+00 0.000000e+00 0.000000e+00 0.000000e+00 0.000000e+00 0.000000e+00 0.000000e+00 0.000000e+00 0.000000e+00 0.000000e+00 0.000000e+00 0.000000e+00 0.000000e+00 0.000000e+00 0.000000e+00 0.000000e+00 0.000000e+00 0.000000e+00
<VARIANCE> 25
 1.000000e+00 1.000000e+00 1.000000e+00 1.000000e+00 1.000000e+00 1.000000e+00 1.000000e+00 1.000000e+00 1.000000e+00 1.000000e+00 1.000000e+00 1.000000e+00 1.000000e+00 1.000000e+00 1.000000e+00 1.000000e+00 1.000000e+00 1.000000e+00 1.000000e+00 1.000000e+00 1.000000e+00 1.000000e+00 1.000000e+00 1.000000e+00 1.000000e+00
<GCONST> 4.594693e+01
<STATE> 3
<MEAN> 25
 0.000000e+00 0.000000e+00 0.000000e+00 0.000000e+00 0.000000e+00 0.000000e+00 0.000000e+00 0.000000e+00 0.000000e+00 0.000000e+00 0.000000e+00 0.000000e+00 0.000000e+00 0.000000e+00 0.000000e+00 0.000000e+00 0.000000e+00 0.000000e+00 0.000000e+00 0.000000e+00 0.000000e+00 0.000000e+00 0.000000e+00 0.000000e+00 0.000000e+00
<VARIANCE> 25
 1.000000e+00 1.000000e+00 1.000000e+00 1.000000e+00 1.000000e+00 1.000000e+00 1.000000e+00 1.000000e+00 1.000000e+00 1.000000e+00 1.000000e+00 1.000000e+00 1.000000e+00 1.000000e+00 1.000000e+00 1.000000e+00 1.000000e+00 1.000000e+00 1.000000e+00 1.000000e+00 1.000000e+00 1.000000e+00 1.000000e+00 1.000000e+00 1.000000e+00
<GCONST> 4.594693e+01
<STATE> 4
<MEAN> 25
 0.000000e+00 0.000000e+00 0.000000e+00 0.000000e+00 0.000000e+00 0.000000e+00 0.000000e+00 0.000000e+00 0.000000e+00 0.000000e+00 0.000000e+00 0.000000e+00 0.000000e+00 0.000000e+00 0.000000e+00 0.000000e+00 0.000000e+00 0.000000e+00 0.000000e+00 0.000000e+00 0.000000e+00 0.000000e+00 0.000000e+00 0.000000e+00 0.000000e+00
<VARIANCE> 25
 1.000000e+00 1.000000e+00 1.000000e+00 1.000000e+00 1.000000e+00 1.000000e+00 1.000000e+00 1.000000e+00 1.000000e+00 1.000000e+00 1.000000e+00 1.000000e+00 1.000000e+00 1.000000e+00 1.000000e+00 1.000000e+00 1.000000e+00 1.000000e+00 1.000000e+00 1.000000e+00 1.000000e+00 1.000000e+00 1.000000e+00 1.000000e+00 1.000000e+00
<GCONST> 4.594693e+01
<TRANSP> 5
 0.000000e+00 1.000000e+00 0.000000e+00 0.000000e+00 0.000000e+00
 0.000000e+00 6.000000e-01 4.000000e-01 0.000000e+00 0.000000e+00
 0.000000e+00 0.000000e+00 6.000000e-01 4.000000e-01 0.000000e+00
 0.000000e+00 0.000000e+00 0.000000e+00 7.000000e-01 3.000000e-01
 0.000000e+00 0.000000e+00 0.000000e+00 0.000000e+00 0.000000e+00
<ENDHMM>
~h "ai"
<BEGINHMM>
<NUMSTATES> 5
<STATE> 2
<MEAN> 25
 0.000000e+00 0.000000e+00 0.000000e+00 0.000000e+00 0.000000e+00 0.000000e+00 0.000000e+00 0.000000e+00 0.000000e+00 0.000000e+00 0.000000e+00 0.000000e+00 0.000000e+00 0.000000e+00 0.000000e+00 0.000000e+00 0.000000e+00 0.000000e+00 0.000000e+00 0.000000e+00 0.000000e+00 0.000000e+00 0.000000e+00 0.000000e+00 0.000000e+00
<VARIANCE> 25
 1.000000e+00 1.000000e+00 1.000000e+00 1.000000e+00 1.000000e+00 1.000000e+00 1.000000e+00 1.000000e+00 1.000000e+00 1.000000e+00 1.000000e+00 1.000000e+00 1.000000e+00 1.000000e+00 1.000000e+00 1.000000e+00 1.000000e+00 1.000000e+00 1.000000e+00 1.000000e+00 1.000000e+00 1.000000e+00 1.000000e+00 1.000000e+00 1.000000e+00
<GCONST> 4.594693e+01
<STATE> 3
<MEAN> 25
 0.000000e+00 0.000000e+00 0.000000e+00 0.000000e+00 0.000000e+00 0.000000e+00 0.000000e+00 0.000000e+00 0.000000e+00 0.000000e+00 0.000000e+00 0.000000e+00 0.000000e+00 0.000000e+00 0.000000e+00 0.000000e+00 0.000000e+00 0.000000e+00 0.000000e+00 0.000000e+00 0.000000e+00 0.000000e+00 0.000000e+00 0.000000e+00 0.000000e+00
<VARIANCE> 25
 1.000000e+00 1.000000e+00 1.000000e+00 1.000000e+00 1.000000e+00 1.000000e+00 1.000000e+00 1.000000e+00 1.000000e+00 1.000000e+00 1.000000e+00 1.000000e+00 1.000000e+00 1.000000e+00 1.000000e+00 1.000000e+00 1.000000e+00 1.000000e+00 1.000000e+00 1.000000e+00 1.000000e+00 1.000000e+00 1.000000e+00 1.000000e+00 1.000000e+00
<GCONST> 4.594693e+01
<STATE> 4
<MEAN> 25
 0.000000e+00 0.000000e+00 0.000000e+00 0.000000e+00 0.000000e+00 0.000000e+00 0.000000e+00 0.000000e+00 0.000000e+00 0.000000e+00 0.000000e+00 0.000000e+00 0.000000e+00 0.000000e+00 0.000000e+00 0.000000e+00 0.000000e+00 0.000000e+00 0.000000e+00 0.000000e+00 0.000000e+00 0.000000e+00 0.000000e+00 0.000000e+00 0.000000e+00
<VARIANCE> 25
 1.000000e+00 1.000000e+00 1.000000e+00 1.000000e+00 1.000000e+00 1.000000e+00 1.000000e+00 1.000000e+00 1.000000e+00 1.000000e+00 1.000000e+00 1.000000e+00 1.000000e+00 1.000000e+00 1.000000e+00 1.000000e+00 1.000000e+00 1.000000e+00 1.000000e+00 1.000000e+00 1.000000e+00 1.000000e+00 1.000000e+00 1.000000e+00 1.000000e+00
<GCONST> 4.594693e+01
<TRANSP> 5
 0.000000e+00 1.000000e+00 0.000000e+00 0.000000e+00 0.000000e+00
 0.000000e+00 6.000000e-01 4.000000e-01 0.000000e+00 0.000000e+00
 0.000000e+00 0.000000e+00 6.000000e-01 4.000000e-01 0.000000e+00
 0.000000e+00 0.000000e+00 0.000000e+00 7.000000e-01 3.000000e-01
 0.000000e+00 0.000000e+00 0.000000e+00 0.000000e+00 0.000000e+00
<ENDHMM>
~h "au"
<BEGINHMM>
<NUMSTATES> 5
<STATE> 2
<MEAN> 25
 -4.118721e+00 5.480484e+00 -3.163984e+00 3.811586e-02 5.795848e+00 5.948985e-01 4.283712e+00 5.646821e+00 -2.778364e-01 1.586922e+00 1.432897e+00 -5.892072e-01 4.232433e-01 -4.206514e-01 -4.598471e-01 -2.406447e-01 -2.972513e-01 -2.592463e-01 1.546962e-02 -1.023848e-02 -3.089953e-01 -3.758274e-01 -4.898549e-02 9.401777e-02 4.119034e-01
<VARIANCE> 25
 2.119378e+02 8.147559e+01 5.393888e+01 4.063463e+01 7.699641e+01 4.676512e+01 6.466528e+01 3.917860e+01 4.883696e+01 3.856044e+01 1.646434e+01 2.209969e+01 1.069568e+01 5.494732e+00 3.256076e+00 3.764339e+00 3.957212e+00 4.424892e+00 5.345304e+00 2.332011e+00 3.427296e+00 1.855243e+00 1.270345e+00 2.086051e+00 8.278974e+00
<GCONST> 1.097633e+02
<STATE> 3
<MEAN> 25
 -3.227356e+00 4.319808e+00 -4.337410e+00 -6.094872e-01 5.037839e+00 6.468923e-02 4.317713e+00 5.552341e+00 -1.053442e+00 6.519234e-01 1.309161e+00 -2.376805e-01 3.482328e-01 -4.539779e-01 -4.252626e-01 -2.352190e-01 -2.993811e-01 -1.872191e-01 2.270826e-02 -3.753326e-02 -2.858929e-01 -3.452637e-01 -4.039562e-02 1.536382e-01 3.709489e-01
<VARIANCE> 25
 2.126371e+02 9.009818e+01 5.431748e+01 3.886556e+01 7.844701e+01 5.013017e+01 6.501602e+01 3.713237e+01 5.633522e+01 3.938146e+01 1.644992e+01 2.540278e+01 1.110554e+01 6.163231e+00 3.558772e+00 3.893680e+00 4.082306e+00 4.900691e+00 5.567655e+00 2.769427e+00 4.015943e+00 2.165799e+00 1.497229e+00 2.312012e+00 8.706008e+00
<GCONST> 1.114236e+02
<STATE> 4
<MEAN> 25
 -2.555270e+00 2.887943e+00 -5.574607e+00 -1.238546e+00 4.284638e+00 -2.377697e-01 4.358675e+00 5.437534e+00 -1.768607e+00 -3.550869e-01 1.147350e+00 3.426893e-01 2.751137e-01 -4.458163e-01 -3.082494e-01 -1.613663e-01 -2.770041e-01 -9.706239e-02 1.827184e-02 -5.527954e-02 -1.715160e-01 -2.344538e-01 -3.398566e-02 1.700414e-01 3.266800e-01
<VARIANCE> 25
 2.018912e+02 9.363486e+01 5.431681e+01 3.783128e+01 7.632201e+01 5.426400e+01 6.399542e+01 3.712769e+01 6.201414e+01 4.048714e+01 1.653547e+01 2.878943e+01 1.075548e+01 6.644724e+00 3.868568e+00 3.939871e+00 4.059121e+00 5.370284e+00 5.601689e+00 3.360023e+00 4.517276e+00 2.636800e+00 1.769796e+00 2.519699e+00 8.563424e+00
<GCONST> 1.126480e+02
<TRANSP> 5
 0.000000e+00 1.000000e+00 0.000000e+00 0.000000e+00 0.000000e+00
 0.000000e+00 6.120422e-01 3.879578e-01 0.000000e+00 0.000000e+00
 0.000000e+00 0.000000e+00 6.120422e-01 3.879578e-01 0.000000e+00
 0.000000e+00 0.000000e+00 0.000000e+00 7.141646e-01 2.858354e-01
 0.000000e+00 0.000000e+00 0.000000e+00 0.000000e+00 0.000000e+00
<ENDHMM>
~h "aw"
<BEGINHMM>
<NUMSTATES> 5
<STATE> 2
<MEAN> 25
 1.291625e+00 1.023234e+00 -8.697590e-01 -1.566327e+00 -2.640243e-01 1.719480e-01 -5.301980e-01 4.076754e-03 6.208112e-01 4.913464e-01 1.552446e-01 -4.725376e-01 1.202847e-01 4.187762e-02 1.651198e-02 5.784864e-02 2.982974e-02 -5.385950e-02 6.518053e-03 -2.593778e-02 -3.720504e-02 1.908569e-02 -1.428963e-02 -6.287812e-03 7.499488e-02
<VARIANCE> 25
 9.468798e+01 4.574717e+01 4.908704e+01 5.656730e+01 4.837741e+01 6.300255e+01 4.803371e+01 4.754330e+01 4.555114e+01 3.503214e+01 2.809234e+01 2.854176e+01 2.547039e+00 2.349330e+00 2.379208e+00 2.611454e+00 2.829216e+00 3.461179e+00 2.818114e+00 2.755357e+00 2.687032e+00 2.352840e+00 2.075119e+00 1.973827e+00 1.912086e+00
<GCONST> 1.039166e+02
<STATE> 3
<MEAN> 25
 1.606226e+00 1.123125e+00 -8.088680e-01 -1.407345e+00 -1.826763e-01 -1.542961e-02 -5.422233e-01 -4.275551e-02 5.462376e-01 5.259379e-01 9.025511e-02 -4.969821e-01 1.011126e-01 2.904727e-02 1.359489e-02 6.813176e-02 4.253628e-02 -8.287343e-02 -1.023652e-04 8.629230e-04 -1.956387e-02 1.917482e-02 -2.583105e-02 -1.603877e-02 7.953902e-02
<VARIANCE> 25
 9.138614e+01 4.599516e+01 4.882705e+01 5.831245e+01 4.967636e+01 6.505107e+01 4.763905e+01 4.901010e+01 4.570820e+01 3.500597e+01 2.814681e+01 2.864335e+01 2.620629e+00 2.426472e+00 2.442207e+00 2.679420e+00 2.859015e+00 3.578230e+00 2.803846e+00 2.840701e+00 2.725949e+00 2.400560e+00 2.094637e+00 2.013871e+00 1.963537e+00
<GCONST> 1.042726e+02
<STATE> 4
<MEAN> 25
 1.982751e+00 1.166172e+00 -5.900905e-01 -1.010452e+00 -1.705537e-01 -3.949180e-01 -5.327296e-01 -1.056977e-01 4.332904e-01 4.359567e-01 2.875631e-02 -5.107222e-01 8.472200e-02 -2.508096e-04 1.094013e-02 6.115197e-02 2.945525e-02 -9.717970e-02 4.963060e-03 2.153009e-02 -1.174632e-02 3.368582e-03 -3.328625e-02 -1.062365e-02 8.979198e-02
<VARIANCE> 25
 8.884364e+01 4.632636e+01 4.819928e+01 6.171854e+01 5.184655e+01 6.800965e+01 4.646181e+01 5.049660e+01 4.746795e+01 3.515839e+01 2.866495e+01 2.893633e+01 2.630829e+00 2.424862e+00 2.434529e+00 2.709672e+00 2.862527e+00 3.647024e+00 2.748835e+00 2.862262e+00 2.749947e+00 2.419133e+00 2.091441e+00 2.046052e+00 2.036405e+00
<GCONST> 1.045446e+02
<TRANSP> 5
 0.000000e+00 1.000000e+00 0.000000e+00 0.000000e+00 0.000000e+00
 0.000000e+00 6.159819e-01 3.840181e-01 0.000000e+00 0.000000e+00
 0.000000e+00 0.000000e+00 6.159827e-01 3.840173e-01 0.000000e+00
 0.000000e+00 0.000000e+00 0.000000e+00 7.355357e-01 2.644643e-01
 0.000000e+00 0.000000e+00 0.000000e+00 0.000000e+00 0.000000e+00
<ENDHMM>
~h "ay"
<BEGINHMM>
<NUMSTATES> 5
<STATE> 2
<MEAN> 25
 -5.983787e-01 -8.567683e-01 1.061870e-01 2.664930e-01 -3.250421e-01 -6.524984e-02 1.045227e+00 2.005511e-01 -2.119376e-01 8.884993e-01 8.221520e-01 2.446781e-01 -1.264674e-01 -2.104274e-02 -7.683315e-02 -7.112419e-02 -2.050251e-02 1.934598e-03 6.875721e-02 -8.768904e-03 -1.175036e-01 -2.373538e-02 4.498441e-02 7.362730e-03 -9.470239e-02
<VARIANCE> 25
 9.491354e+01 5.675401e+01 7.971481e+01 5.115290e+01 6.219837e+01 6.540549e+01 6.087393e+01 6.338595e+01 6.401899e+01 4.106725e+01 3.728474e+01 3.250688e+01 2.680574e+00 2.819367e+00 2.659429e+00 2.795496e+00 3.538152e+00 3.702108e+00 3.120268e+00 3.580886e+00 3.442747e+00 2.880473e+00 2.401535e+00 2.077358e+00 2.482603e+00
<GCONST> 1.082207e+02
<STATE> 3
<MEAN> 25
 -9.225820e-01 -9.184572e-01 -1.159864e-01 9.225130e-02 -3.570291e-01 -2.007535e-02 1.246698e+00 1.893547e-01 -4.966586e-01 7.795058e-01 9.222445e-01 2.672505e-01 -1.177653e-01 -1.258350e-02 -7.834787e-02 -8.691802e-02 -1.697292e-02 1.309887e-02 6.389899e-02 -1.833344e-02 -1.336220e-01 -6.038102e-02 2.232352e-02 4.369212e-03 -9.261174e-02
<VARIANCE> 25
 9.730175e+01 5.440969e+01 8.112704e+01 5.146947e+01 6.091547e+01 6.500197e+01 5.890186e+01 6.142872e+01 6.300672e+01 4.115973e+01 3.685595e+01 3.173617e+01 2.694807e+00 2.822783e+00 2.650614e+00 2.762360e+00 3.484454e+00 3.702902e+00 3.155335e+00 3.625942e+00 3.380850e+00 2.930606e+00 2.397006e+00 2.049689e+00 2.494996e+00
<GCONST> 1.080752e+02
<STATE> 4
<MEAN> 25
 -9.415619e-01 -9.558086e-01 -2.542427e-01 6.098352e-02 -4.050145e-01 5.448068e-03 1.493922e+00 1.945815e-01 -7.353219e-01 5.196200e-01 8.373077e-01 3.407703e-01 -8.239102e-02 -5.379611e-03 -6.385501e-02 -8.142783e-02 -1.105619e-02 3.302119e-02 6.157930e-02 -2.365750e-02 -1.263057e-01 -6.491879e-02 2.859903e-03 1.189882e-02 -7.040526e-02
<VARIANCE> 25
 9.621696e+01 5.449285e+01 8.038659e+01 5.075638e+01 5.885860e+01 6.417260e+01 5.535699e+01 5.780824e+01 6.080194e+01 4.026331e+01 3.737065e+01 3.010211e+01 2.675142e+00 2.926768e+00 2.615878e+00 2.672849e+00 3.410249e+00 3.667302e+00 3.099849e+00 3.579355e+00 3.321689e+00 2.962155e+00 2.410933e+00 2.025604e+00 2.530060e+00
<GCONST> 1.076976e+02
<TRANSP> 5
 0.000000e+00 1.000000e+00 0.000000e+00 0.000000e+00 0.000000e+00
 0.000000e+00 6.217436e-01 3.782564e-01 0.000000e+00 0.000000e+00
 0.000000e+00 0.000000e+00 6.217434e-01 3.782566e-01 0.000000e+00
 0.000000e+00 0.000000e+00 0.000000e+00 7.382612e-01 2.617388e-01
 0.000000e+00 0.000000e+00 0.000000e+00 0.000000e+00 0.000000e+00
<ENDHMM>
~h "eu"
<BEGINHMM>
<NUMSTATES> 5
<STATE> 2
<MEAN> 25
 8.925874e-01 -4.012892e-02 3.580115e-01 6.114882e-01 4.049546e-01 -2.706090e-01 -3.474619e-01 -2.772810e-01 -2.021597e-01 2.038322e-01 -2.702681e-01 -3.254139e-01 4.721193e-02 4.914676e-03 -1.629616e-03 1.102049e-02 -1.032790e-02 -2.865875e-02 -1.640450e-03 4.082752e-03 1.275374e-02 6.179786e-03 -1.233739e-02 -1.807734e-02 3.646717e-02
<VARIANCE> 25
 7.679883e+01 5.454997e+01 5.670131e+01 5.500196e+01 5.360173e+01 6.471969e+01 4.865020e+01 5.176847e+01 5.223450e+01 3.603848e+01 3.631599e+01 2.982606e+01 2.901845e+00 3.101359e+00 2.755164e+00 3.020710e+00 3.050543e+00 3.842151e+00 2.982024e+00 3.110359e+00 3.152398e+00 2.558933e+00 2.374964e+00 2.000925e+00 2.958756e+00
<GCONST> 1.065794e+02
<STATE> 3
<MEAN> 25
 1.015184e+00 -3.109667e-02 3.536353e-01 6.397818e-01 3.821778e-01 -3.449910e-01 -3.450689e-01 -2.724341e-01 -1.646208e-01 2.259455e-01 -2.940775e-01 -3.734644e-01 4.285340e-02 5.904804e-04 -7.246521e-04 4.179999e-03 -1.526311e-02 -2.924933e-02 -1.166865e-04 1.445474e-03 1.270356e-02 7.661998e-03 -1.162948e-02 -1.705530e-02 3.606514e-02
<VARIANCE> 25
 7.541525e+01 5.501000e+01 5.671761e+01 5.528975e+01 5.356803e+01 6.469411e+01 4.895921e+01 5.218927e+01 5.201410e+01 3.622392e+01 3.641036e+01 3.002816e+01 2.884754e+00 3.107132e+00 2.740186e+00 3.009123e+00 3.047050e+00 3.838751e+00 2.969515e+00 3.098841e+00 3.128131e+00 2.555614e+00 2.372244e+00 1.987620e+00 2.959523e+00
<GCONST> 1.065589e+02
<STATE> 4
<MEAN> 25
 1.203240e+00 -8.950768e-02 3.190453e-01 6.406144e-01 3.617264e-01 -4.794787e-01 -3.525983e-01 -2.865496e-01 -1.807834e-01 2.983005e-01 -3.296834e-01 -4.560660e-01 2.556165e-02 -4.604632e-03 -1.603311e-03 1.226256e-03 -1.243886e-02 -1.988319e-02 1.166985e-03 -1.520911e-03 1.243153e-02 7.730526e-03 -5.579473e-03 -1.226409e-02 2.528580e-02
<VARIANCE> 25
 7.216030e+01 5.508684e+01 5.576945e+01 5.638852e+01 5.144817e+01 6.401685e+01 4.750707e+01 5.153749e+01 5.376839e+01 3.639435e+01 3.667640e+01 3.011218e+01 2.759030e+00 3.035526e+00 2.634083e+00 3.031922e+00 2.922420e+00 3.750010e+00 2.869746e+00 3.045563e+00 3.108995e+00 2.542093e+00 2.368154e+00 1.937072e+00 3.031391e+00
<GCONST> 1.062420e+02
<TRANSP> 5
 0.000000e+00 1.000000e+00 0.000000e+00 0.000000e+00 0.000000e+00
 0.000000e+00 6.395222e-01 3.604779e-01 0.000000e+00 0.000000e+00
 0.000000e+00 0.000000e+00 6.395237e-01 3.604763e-01 0.000000e+00
 0.000000e+00 0.000000e+00 0.000000e+00 7.635214e-01 2.364786e-01
 0.000000e+00 0.000000e+00 0.000000e+00 0.000000e+00 0.000000e+00
<ENDHMM>
~h "kh"
<BEGINHMM>
<NUMSTATES> 5
<STATE> 2
<MEAN> 25
 1.276505e-01 -2.878911e+00 2.137019e+00 1.218065e+00 -6.199822e-01 -3.041031e+00 -1.476563e+00 1.789050e+00 -1.121534e+00 1.644543e+00 -1.998510e+00 -1.223299e+00 -8.425197e-02 7.886977e-02 -4.446241e-03 -5.442718e-02 1.284651e-01 -2.498062e-02 6.023729e-02 7.990003e-02 4.819550e-02 -3.194753e-03 -5.555865e-02 8.655198e-02 -7.941199e-02
<VARIANCE> 25
 1.079595e+02 7.257947e+01 6.023383e+01 1.000766e+02 6.901461e+01 6.890923e+01 4.345930e+01 9.212257e+01 5.130621e+01 2.917947e+01 4.341949e+01 2.588006e+01 2.369630e+00 3.478178e+00 2.581509e+00 3.902075e+00 3.640887e+00 3.748109e+00 3.004266e+00 4.354517e+00 4.344702e+00 2.308463e+00 2.330665e+00 1.654645e+00 3.545477e+00
<GCONST> 1.092400e+02
<STATE> 3
<MEAN> 25
 -1.236489e-01 -2.721190e+00 2.156026e+00 1.024068e+00 -3.560864e-01 -3.036009e+00 -1.376828e+00 2.007231e+00 -9.984802e-01 1.597015e+00 -2.173579e+00 -9.950724e-01 -9.353702e-02 7.036386e-02 1.251967e-02 -1.014322e-01 1.322392e-01 3.172993e-02 4.358878e-02 7.077625e-02 1.878740e-02 -2.638241e-02 -9.095857e-02 9.620379e-02 -5.438670e-02
<VARIANCE> 25
 1.137895e+02 7.552874e+01 6.005761e+01 1.014501e+02 7.174429e+01 6.769337e+01 4.301484e+01 8.852687e+01 5.340657e+01 2.952076e+01 4.395602e+01 2.624122e+01 2.394142e+00 3.528449e+00 2.568865e+00 4.082960e+00 3.749717e+00 3.657797e+00 3.057536e+00 4.224125e+00 4.351408e+00 2.204091e+00 2.394047e+00 1.654920e+00 3.551935e+00
<GCONST> 1.094333e+02
<STATE> 4
<MEAN> 25
 6.163353e-02 -2.928713e+00 2.775896e+00 1.478922e-01 -2.293769e-02 -2.944145e+00 -1.062296e+00 1.889746e+00 -1.246697e+00 1.097585e+00 -2.730729e+00 -7.866468e-01 -6.918384e-02 6.383511e-02 1.999379e-02 -9.145437e-02 7.748926e-02 5.153262e-02 1.778235e-02 2.286156e-02 9.132950e-03 -6.777360e-02 -8.034638e-02 9.408920e-02 -2.188548e-02
<VARIANCE> 25
 1.150887e+02 8.311074e+01 6.445056e+01 9.995847e+01 7.706565e+01 6.944761e+01 4.026918e+01 8.023056e+01 5.516271e+01 2.873621e+01 4.660293e+01 2.499185e+01 2.559201e+00 3.782171e+00 2.901406e+00 4.428669e+00 3.994022e+00 3.830770e+00 2.993548e+00 3.938772e+00 4.101060e+00 2.101689e+00 2.549463e+00 1.574996e+00 4.188245e+00
<GCONST> 1.099727e+02
<TRANSP> 5
 0.000000e+00 1.000000e+00 0.000000e+00 0.000000e+00 0.000000e+00
 0.000000e+00 6.122192e-01 3.877807e-01 0.000000e+00 0.000000e+00
 0.000000e+00 0.000000e+00 6.122190e-01 3.877810e-01 0.000000e+00
 0.000000e+00 0.000000e+00 0.000000e+00 7.595744e-01 2.404256e-01
 0.000000e+00 0.000000e+00 0.000000e+00 0.000000e+00 0.000000e+00
<ENDHMM>
~h "ng"
<BEGINHMM>
<NUMSTATES> 5
<STATE> 2
<MEAN> 25
 9.066440e-01 1.923726e-01 4.161868e-01 4.286474e-02 1.454927e-01 -6.535927e-02 -1.459700e-01 4.501296e-02 -2.712701e-01 7.149958e-03 -2.817349e-01 -3.489366e-01 -2.756727e-02 4.866273e-03 1.206870e-02 1.961570e-03 -3.261901e-02 -1.390325e-02 3.134443e-03 1.101043e-02 1.247455e-03 7.163060e-03 -1.877448e-03 2.092502e-03 -2.094665e-02
<VARIANCE> 25
 7.819783e+01 5.542764e+01 5.477011e+01 6.346977e+01 6.163598e+01 6.991608e+01 5.629524e+01 5.525591e+01 5.917609e+01 3.814468e+01 3.720799e+01 3.100926e+01 2.309018e+00 3.021861e+00 2.464792e+00 2.863705e+00 3.211575e+00 3.655990e+00 3.269676e+00 3.257068e+00 3.333641e+00 2.666320e+00 2.412915e+00 2.060946e+00 2.759897e+00
<GCONST> 1.071883e+02
<STATE> 3
<MEAN> 25
 8.491555e-01 1.968336e-01 4.541637e-01 5.320811e-02 6.107250e-02 -9.889799e-02 -1.254235e-01 8.459613e-02 -2.510130e-01 2.331464e-02 -2.921734e-01 -3.480510e-01 -2.608673e-02 8.645336e-03 6.073596e-03 5.437849e-03 -3.489732e-02 -1.184213e-02 7.922341e-03 7.571093e-03 6.030736e-03 9.714650e-03 2.009205e-03 2.927129e-03 -2.388630e-02
<VARIANCE> 25
 7.874057e+01 5.562825e+01 5.407552e+01 6.319754e+01 6.187460e+01 6.990784e+01 5.668432e+01 5.547978e+01 5.938068e+01 3.810680e+01 3.741922e+01 3.119901e+01 2.316410e+00 3.013480e+00 2.459823e+00 2.847866e+00 3.215283e+00 3.645862e+00 3.274817e+00 3.266470e+00 3.352184e+00 2.657635e+00 2.421692e+00 2.059285e+00 2.750640e+00
<GCONST> 1.072081e+02
<STATE> 4
<MEAN> 25
 8.832803e-01 1.095598e-01 4.717428e-01 3.221429e-03 -8.554397e-03 -1.785286e-01 -1.582640e-01 9.362237e-02 -2.259413e-01 1.158098e-01 -3.874420e-01 -4.572155e-01 -2.353163e-02 5.403023e-03 -3.301276e-03 1.679958e-03 -2.683816e-02 -3.915367e-03 1.147503e-02 5.022606e-03 1.120148e-02 6.455482e-03 4.956512e-03 4.997207e-03 -2.169209e-02
<VARIANCE> 25
 7.830051e+01 5.624606e+01 5.318987e+01 6.434010e+01 5.997112e+01 6.914706e+01 5.545782e+01 5.514275e+01 6.081520e+01 3.829602e+01 3.804653e+01 3.154584e+01 2.255476e+00 2.968990e+00 2.412167e+00 2.899919e+00 3.127092e+00 3.609314e+00 3.203717e+00 3.219981e+00 3.350391e+00 2.624010e+00 2.438612e+00 2.020799e+00 2.799805e+00
<GCONST> 1.070767e+02
<TRANSP> 5
 0.000000e+00 1.000000e+00 0.000000e+00 0.000000e+00 0.000000e+00
 0.000000e+00 6.240016e-01 3.759984e-01 0.000000e+00 0.000000e+00
 0.000000e+00 0.000000e+00 6.240035e-01 3.759965e-01 0.000000e+00
 0.000000e+00 0.000000e+00 0.000000e+00 7.486460e-01 2.513541e-01
 0.000000e+00 0.000000e+00 0.000000e+00 0.000000e+00 0.000000e+00
<ENDHMM>
~h "ny"
<BEGINHMM>
<NUMSTATES> 5
<STATE> 2
<MEAN> 25
 8.911841e-01 -1.178482e+00 6.087002e-02 2.262526e-02 -3.649143e-01 -2.665614e-01 -2.238735e-02 -2.728172e-01 -7.029271e-01 -4.231125e-01 -1.797550e-01 4.068494e-01 2.106922e-03 1.209990e-02 -1.849328e-02 2.892759e-02 3.293400e-02 1.422005e-02 -2.865627e-02 -3.867035e-02 9.018064e-03 -1.242506e-02 1.564003e-02 1.653061e-03 -3.010961e-02
<VARIANCE> 25
 9.112074e+01 6.170621e+01 6.771204e+01 5.661099e+01 6.035128e+01 7.313069e+01 5.934736e+01 6.596722e+01 5.589268e+01 3.639630e+01 4.192948e+01 2.750612e+01 2.880730e+00 3.544909e+00 3.068986e+00 2.803064e+00 3.552792e+00 4.405124e+00 3.561435e+00 3.607655e+00 3.654530e+00 2.766176e+00 2.523638e+00 2.067369e+00 2.940384e+00
<GCONST> 1.089895e+02
<STATE> 3
<MEAN> 25
 8.680564e-01 -1.151966e+00 3.175461e-02 9.457992e-02 -2.943239e-01 -2.260734e-01 -1.027908e-01 -3.684642e-01 -6.694528e-01 -4.529155e-01 -1.373482e-01 4.064162e-01 -5.168987e-03 1.150467e-02 -1.678348e-02 2.649969e-02 3.440178e-02 1.410791e-02 -3.702030e-02 -3.724352e-02 2.443656e-02 -5.956177e-03 1.377884e-02 -6.973878e-03 -3.698677e-02
<VARIANCE> 25
 9.155270e+01 6.140929e+01 6.722215e+01 5.620094e+01 6.032610e+01 7.276205e+01 5.954448e+01 6.612859e+01 5.620418e+01 3.672689e+01 4.165415e+01 2.753374e+01 2.860898e+00 3.504901e+00 3.015668e+00 2.785963e+00 3.544442e+00 4.401949e+00 3.552598e+00 3.639001e+00 3.625414e+00 2.776831e+00 2.536067e+00 2.075440e+00 2.951135e+00
<GCONST> 1.089537e+02
<STATE> 4
<MEAN> 25
 8.065617e-01 -1.050982e+00 2.124727e-02 2.063756e-01 -1.718457e-01 -1.312544e-01 -2.294485e-01 -5.073519e-01 -4.793475e-01 -4.561500e-01 -1.223232e-01 3.708720e-01 -1.031866e-02 1.394648e-02 -1.223729e-02 2.261396e-02 2.595657e-02 1.331639e-02 -3.693616e-02 -3.026013e-02 3.240272e-02 -1.964530e-04 9.414257e-03 -1.415500e-02 -3.916758e-02
<VARIANCE> 25
 9.189235e+01 6.203071e+01 6.704432e+01 5.601799e+01 5.955167e+01 7.150928e+01 5.847659e+01 6.486618e+01 5.683608e+01 3.671681e+01 4.247605e+01 2.741883e+01 2.792871e+00 3.416352e+00 2.917079e+00 2.780405e+00 3.452481e+00 4.278421e+00 3.445080e+00 3.562147e+00 3.512753e+00 2.741312e+00 2.535692e+00 2.051697e+00 2.950150e+00
<GCONST> 1.086720e+02
<TRANSP> 5
 0.000000e+00 1.000000e+00 0.000000e+00 0.000000e+00 0.000000e+00
 0.000000e+00 6.125075e-01 3.874925e-01 0.000000e+00 0.000000e+00
 0.000000e+00 0.000000e+00 6.125079e-01 3.874921e-01 0.000000e+00
 0.000000e+00 0.000000e+00 0.000000e+00 7.302898e-01 2.697102e-01
 0.000000e+00 0.000000e+00 0.000000e+00 0.000000e+00 0.000000e+00
<ENDHMM>
~h "sy"
<BEGINHMM>
<NUMSTATES> 5
<STATE> 2
<MEAN> 25
 2.704208e+00 1.579837e+00 -3.185853e-01 1.371627e+00 -5.256316e-02 -3.073131e-01 -1.063460e+00 2.475224e-01 -7.448407e-01 -9.017676e-01 -1.331646e+00 4.935939e-01 -1.272418e-02 4.217241e-02 8.094505e-03 1.798544e-01 -1.688470e-02 -6.551814e-02 -7.274219e-02 -5.044141e-02 1.077826e-01 4.317666e-02 4.843925e-02 -7.033933e-02 -6.334058e-02
<VARIANCE> 25
 2.429211e+01 5.115788e+01 4.659295e+01 6.808917e+01 4.105804e+01 4.466400e+01 3.277760e+01 3.920150e+01 3.351008e+01 2.326045e+01 4.613956e+01 2.235020e+01 1.173037e+00 1.764006e+00 1.678158e+00 2.719145e+00 2.077483e+00 2.493632e+00 1.867474e+00 2.552864e+00 1.591610e+00 1.501257e+00 2.377102e+00 1.734687e+00 1.297498e+00
<GCONST> 9.740410e+01
<STATE> 3
<MEAN> 25
 2.633188e+00 1.742197e+00 -2.134333e-01 1.730661e+00 -1.461724e-01 -5.874702e-01 -1.179255e+00 1.509678e-01 -5.879689e-01 -8.103426e-01 -1.198219e+00 4.187653e-01 -1.615084e-02 3.612455e-02 6.855322e-02 1.366539e-01 -7.443016e-02 -9.862138e-02 -5.854866e-02 -2.845638e-02 7.081088e-02 4.246101e-02 4.477575e-02 -6.844214e-02 -2.326141e-02
<VARIANCE> 25
 2.590893e+01 4.921630e+01 4.946525e+01 6.530406e+01 4.219827e+01 4.486831e+01 3.557990e+01 3.929389e+01 3.599399e+01 2.344429e+01 4.506131e+01 2.178283e+01 1.324709e+00 1.797358e+00 1.725001e+00 2.750958e+00 2.119008e+00 2.624081e+00 1.946446e+00 2.662382e+00 1.675771e+00 1.549922e+00 2.401551e+00 1.711882e+00 1.357817e+00
<GCONST> 9.805379e+01
<STATE> 4
<MEAN> 25
 2.977447e+00 1.987047e+00 -1.691669e-02 1.694615e+00 -4.534306e-01 -1.595033e+00 -1.012986e+00 -3.332295e-01 -6.177716e-01 -4.179296e-01 -1.396048e+00 3.500313e-01 -2.767561e-02 1.872272e-02 1.103543e-01 4.754478e-02 -9.558578e-02 -1.312822e-01 -1.232084e-02 -9.517876e-03 -5.226949e-03 4.226278e-02 2.433195e-02 -2.593038e-02 4.819381e-02
<VARIANCE> 25
 3.318531e+01 5.321031e+01 4.607070e+01 5.456290e+01 3.886444e+01 4.693883e+01 3.486442e+01 3.789720e+01 3.936139e+01 2.447630e+01 4.111354e+01 2.133722e+01 1.945584e+00 2.010959e+00 1.895236e+00 2.789544e+00 2.030139e+00 2.908829e+00 2.083175e+00 2.785681e+00 1.817158e+00 1.557005e+00 2.271065e+00 1.793103e+00 1.699272e+00
<GCONST> 9.913345e+01
<TRANSP> 5
 0.000000e+00 1.000000e+00 0.000000e+00 0.000000e+00 0.000000e+00
 0.000000e+00 6.308485e-01 3.691514e-01 0.000000e+00 0.000000e+00
 0.000000e+00 0.000000e+00 6.308488e-01 3.691512e-01 0.000000e+00
 0.000000e+00 0.000000e+00 0.000000e+00 7.876468e-01 2.123533e-01
 0.000000e+00 0.000000e+00 0.000000e+00 0.000000e+00 0.000000e+00
<ENDHMM>
~h "sil"
<BEGINHMM>
<NUMSTATES> 5
<STATE> 2
<MEAN> 25
 -9.868997e+00 2.453330e+00 -3.168843e+00 6.988521e-01 2.572440e+00 3.174787e+00 2.028098e+00 1.394621e+00 1.094690e+00 -1.095293e-02 1.337982e+00 1.362738e+00 -6.689544e-04 -2.357767e-02 -2.410311e-02 -1.236220e-01 -5.246292e-02 -6.781061e-02 -4.936416e-02 -7.265422e-04 -7.148628e-02 1.783760e-03 5.420117e-03 -4.880498e-02 2.059317e-02
<VARIANCE> 25
 5.024710e+01 3.175053e+01 3.742940e+01 5.381836e+01 3.604724e+01 3.165757e+01 3.718515e+01 3.289718e+01 4.186028e+01 2.642770e+01 2.336555e+01 2.064897e+01 1.219590e+00 1.064452e+00 1.135768e+00 1.701278e+00 1.762538e+00 1.678185e+00 1.813836e+00 1.697176e+00 1.895297e+00 1.749873e+00 1.531088e+00 1.454791e+00 1.261458e+00
<GCONST> 9.362721e+01
<STATE> 3
<MEAN> 25
 -9.852298e+00 2.390411e+00 -3.223897e+00 3.737164e-01 2.454443e+00 3.009011e+00 1.848291e+00 1.423275e+00 9.570026e-01 1.587390e-02 1.326674e+00 1.223428e+00 2.006812e-02 -2.639808e-02 5.928384e-04 -9.515613e-02 -3.628832e-02 -5.924368e-02 -8.235421e-02 2.100582e-02 -2.878085e-02 1.592627e-02 -1.383487e-02 -4.345699e-02 4.933662e-02
<VARIANCE> 25
 5.560580e+01 3.230335e+01 3.804766e+01 5.327991e+01 3.610397e+01 3.155308e+01 3.662057e+01 3.208669e+01 4.190174e+01 2.608877e+01 2.310505e+01 2.068870e+01 1.469116e+00 1.207249e+00 1.196393e+00 1.790647e+00 1.788262e+00 1.753209e+00 1.901549e+00 1.743296e+00 1.864370e+00 1.747292e+00 1.555729e+00 1.440746e+00 1.478151e+00
<GCONST> 9.438331e+01
<STATE> 4
<MEAN> 25
 -9.393190e+00 2.324489e+00 -3.233553e+00 4.757864e-01 2.235327e+00 2.911490e+00 1.596405e+00 1.583680e+00 1.354254e+00 -7.279973e-02 1.367774e+00 1.172639e+00 6.386764e-02 -1.232004e-02 2.134291e-02 -1.115806e-02 -5.129041e-03 -4.572383e-02 -6.087946e-02 2.723524e-02 8.153084e-03 -6.678017e-05 -4.849523e-02 -1.997792e-02 7.781066e-02
<VARIANCE> 25
 5.971725e+01 3.206694e+01 3.705016e+01 5.258924e+01 3.492789e+01 3.121408e+01 3.542911e+01 2.994843e+01 4.192002e+01 2.545594e+01 2.279111e+01 2.062724e+01 1.678387e+00 1.228582e+00 1.163928e+00 1.664202e+00 1.616490e+00 1.734421e+00 1.870037e+00 1.685197e+00 1.740666e+00 1.645843e+00 1.529259e+00 1.410242e+00 1.439423e+00
<GCONST> 9.391494e+01
<TRANSP> 5
 0.000000e+00 1.000000e+00 0.000000e+00 0.000000e+00 0.000000e+00
 0.000000e+00 6.385083e-01 3.614917e-01 0.000000e+00 0.000000e+00
 0.000000e+00 0.000000e+00 6.385096e-01 3.614903e-01 0.000000e+00
 0.000000e+00 0.000000e+00 0.000000e+00 7.639417e-01 2.360583e-01
 0.000000e+00 0.000000e+00 0.000000e+00 0.000000e+00 0.000000e+00
<ENDHMM>
