BIGRAM: method Katz, cutoff 1
  coef[7]: 0.000000 0.467425 0.684427 0.684892 0.646857 0.940022 0.908060

\data\
ngram 1=3709
ngram 2~3694

\1-grams:
-0.5923	!!UNK	-0.4224
-4.2377	aa
-4.2377	abed
-4.5387	abet
-3.2377	abis	-0.0001
-4.5387	abisnya
-4.5387	ac
-3.4248	acara	+0.0958
-3.9367	acaranya
-1.9947	ada	-0.0970
-3.2835	adalah	-0.0474
-4.2377	adanya
-4.5387	adblocker
-3.7606	adegan	-0.0675
-4.0616	adik
-3.8398	adikku	-0.2236
-4.5387	adiku
-4.5387	adonannya
-4.5387	adu
-3.7606	aduh
-4.5387	aduk
-3.4596	agak	-0.1241
-4.2377	agama	-0.1454
-4.2377	agate
-4.2377	agustus	-0.1454
-3.0474	ah	-0.0365
-4.5387	ahelah
-4.2377	ahmad
-4.5387	ahsiap
-4.0616	ai
-3.9367	aing
-4.0616	air
-2.0704	aja	-0.2505
-4.5387	ajaibnya
-3.7606	ajak
-4.2377	ajang	-0.2736
-4.2377	ajarin
-2.8145	akan	-0.0021
-3.2165	akhir	-0.2553
-4.5387	akhir-akhir
-3.5387	akhirnya
-4.5387	akriliknya
-4.5387	aksinya
-4.5387	aktif
-4.5387	aktivitas
-4.5387	aktor
-4.5387	akurasinya
-4.5387	akut
-4.2377	ala
-4.5387	alam
-4.5387	alamatnya
-4.5387	alasan
-3.7606	alat	-0.1621
-4.2377	alatnya
-3.9367	alghi	+0.0126
-4.5387	alhamdulillah
-4.2377	alias
-4.5387	alif
-4.5387	aljabar
-4.2377	all	-0.2736
-4.2377	allah	-0.2735
-4.5387	alternatif
-3.8398	alur	-0.3950
-4.5387	alurnya
-4.5387	ama
-4.2377	aman
-4.2377	amat	-0.1454
-3.3626	ambil	-0.0279
-4.5387	ambilin
-3.5387	amerika
-4.5387	amin
-4.5387	ampe
-4.5387	ampuh
-3.5845	ampun	-0.1720
-4.5387	amri
-4.5387	an
-3.0474	anak	+0.0393
-3.8398	anak-anak
-4.5387	anak-anaknya
-4.2377	anaknya
-4.5387	analisa
-4.2377	analisis
-4.5387	analisisnya
-4.5387	anatomi
-4.5387	ancur
-4.5387	and
-3.8398	anda	-0.1014
-4.5387	andi
-3.4973	aneh	-0.0482
-4.5387	angga
-4.5387	anggap
-4.5387	anggota
-4.2377	angka
-4.5387	angkasa
-3.4973	angkot	-0.0041
-4.0616	angkotnya
-4.5387	angle
-4.5387	anjay
-4.5387	ann
-4.5387	anna
-3.4248	annelies	+0.0193
-4.5387	antar
-3.6936	antara
-4.5387	anti
-3.5845	antman	+0.0317
-4.5387	antri
-2.1963	apa	-0.3327
-3.8398	apa-apa	-0.1014
-3.3626	apaan	-0.0256
-4.5387	apah
-3.6356	apakah	-0.5268
-3.4973	apalagi	-0.0787
-4.2377	apalah	-0.1454
-3.8398	apanya
-4.5387	apapula
-4.5387	apapun
-4.5387	api
-4.5387	apks
-4.0616	aplikasi	-0.1621
-3.8398	aplikasinya
-3.8398	apply
-4.5387	apps
-4.5387	april
-4.5387	ar
-4.5387	arak-arakan
-4.5387	arsitektur
-4.5387	artifisial
-4.5387	artikelnya
-4.5387	artinya
-4.5387	artis
-4.2377	artisnya
-4.5387	asa
-4.0616	asal
-4.2377	asalmu	-0.1454
-4.5387	asem
-4.5387	asgard
-4.5387	asia
-3.7606	asik	-0.0731
-4.5387	asiknya
-4.2377	asin
-4.5387	asisten
-4.5387	asli
-4.0616	aslinya
-4.5387	assalamualaikum
-4.5387	assasin
-4.5387	assembly
-4.5387	assurance
-4.5387	asus
-4.5387	at
-3.6936	atas	-0.1507
-4.2377	atasnya	-0.2735
-2.8485	atau	+0.0417
-3.6356	ato
-3.7606	atur	-0.0289
-3.6936	aturan	-0.2414
-4.5387	aufa
-4.5387	automatic
-3.8398	avenger	+0.0383
-4.5387	avengers
-4.5387	avrg
-3.8398	awal	+0.0383
-4.2377	awal-awal
-3.9367	awalnya
-4.5387	awan
-4.5387	awas
-4.5387	ayah
-4.2377	ayahku	-0.1454
-4.5387	ayahmu
-4.5387	ayahnya
-3.3346	ayam	-0.0596
-4.2377	ayamnya
-3.1963	ayo	-0.1169
-4.0616	ayok
-4.5387	ayrton
-4.2377	ayuk	-0.1454
-4.5387	ayunda
-4.5387	azis
-3.8398	b	+0.0383
-4.2377	bab
-3.3926	baca	-0.2280
-4.5387	baca-baca
-4.5387	bacanya
-4.5387	backpacker
-4.0616	badan
-4.5387	badannya
-4.2377	badminton	-0.2691
-3.3083	bagaimana	-0.1656
-4.0616	bagi
-4.0616	bagi-bagi
-3.3926	bagian	-0.0608
-4.5387	bagianku
-4.2377	bagimu	-0.2732
-2.9053	bagus	-0.1515
-4.5387	bagusnya
-3.9367	bahagia	-0.1108
-4.5387	bahan
-3.6936	bahas	-0.0616
-3.3346	bahasa	-0.1922
-4.5387	bahaya
-3.4973	bahkan	-0.1223
-4.2377	bahwa
-2.9947	baik	-0.2224
-3.9367	baik-baik	-0.3121
-3.5387	baiklah	-0.1039
-4.2377	baiknya
-3.6356	baju	-0.1284
-4.5387	bajunya
-4.5387	bak
-3.2600	bakal	-0.0175
-4.2377	bakalan
-4.0616	bakar	-0.1574
-4.5387	bakat
-4.5387	bakatnya
-4.2377	balai	-0.2735
-4.5387	balas
-3.6356	bali	-0.0538
-3.3626	balik	-0.3810
-4.5387	bambang
-3.6936	ban	-0.1949
-4.5387	bandar
-4.5387	bandara
-3.4248	bandung	+0.0255
-2.4315	banget	-0.2933
-3.2377	bangun	-0.2175
-4.5387	bangunan
-4.2377	bangunan-bangunan	-0.2732
-4.5387	bangunin
-3.6936	bank	-0.2415
-3.6936	bantu	+0.0660
-3.9367	bantuan
-4.0616	bantuannya	-0.3727
-3.8398	bantuin
-2.5943	banyak	-0.0611
-4.2377	banyak-banyak
-3.9367	banyakan
-4.2377	banyaknya
-4.5387	bapa
-4.0616	bapak
-4.5387	bapaknya
-4.2377	bapanya
-4.2377	barang
-4.5387	barang-barang
-4.0616	barat
-3.1408	bareng	-0.0065
-3.9367	bareng-bareng	+0.0126
-4.2377	barengan
-4.5387	barnes
-2.6579	baru	-0.0020
-4.5387	barulah
-3.9367	barusan
-3.9367	basah	+0.0126
-4.5387	basdat
-4.5387	basecamp
-4.5387	basi
-4.2377	basic
-4.2377	basis	-0.2733
-4.5387	basjep
-4.5387	batan
-4.0616	batas	-0.1619
-4.5387	batere
-4.5387	batik
-4.5387	battery
-3.9367	batu	-0.3127
-4.5387	bau
-4.5387	baunya
-3.5387	bawa	-0.0426
-3.7606	bawah
-4.5387	bawahnya
-4.5387	bawain
-3.6936	bawakan	-0.0938
-3.5387	bawang	-0.1540
-3.9367	bayangan	-0.1155
-3.6356	bayar	-0.1820
-3.7606	bayarin	-0.1547
-4.5387	bayarnya
-4.2377	bayi
-4.5387	bbm
-3.9367	bca	-0.3733
-4.5387	bea
-4.2377	beasiswa
-4.5387	beb
-3.8398	bebas	+0.0383
-4.5387	bebek
-3.3346	beberapa	-0.0826
-4.5387	bec
-4.5387	becanda-becanda
-4.5387	bed
-3.3626	beda	-0.0492
-4.2377	beda-beda
-4.2377	bedanya
-4.0616	begini	-0.0339
-3.2377	begitu	-0.1696
-3.9367	bekerja	+0.0126
-4.5387	bela
-3.5387	belajar	+0.0403
-3.5845	belakang	+0.0158
-4.5387	belakangan
-4.5387	belakangnya
-3.5845	belanda	+0.0806
-4.0616	belanja
-4.5387	belanjaannya
-4.5387	belar
-3.2600	belas	+0.0292
-2.9477	beli	-0.1678
-3.8398	beliau	-0.0899
-4.5387	beliin
-4.2377	belinya
-4.2377	belok
-3.1408	belom	+0.0075
-2.5992	belum	-0.1126
-3.2600	benar	-0.1365
-4.2377	benar-benar
-4.2377	benaran
-3.9367	benarkah	-0.1845
-4.2377	benarnya	-0.2703
-4.5387	benda
-3.1585	bener	-0.2332
-4.0616	bener-bener	-0.1591
-3.6936	beneran
-4.2377	benerin
-4.5387	benerinnya
-4.5387	bengkelnya
-4.5387	bensin
-3.3926	bentar	-0.3780
-4.0616	ber	-0.0339
-4.0616	berada	-0.1574
-4.5387	beragam
-4.5387	berandalan
-3.5387	berangkat	-0.0407
-4.0616	berangkatnya
-3.7606	berani
-3.9367	berantem
-2.8485	berapa	-0.1488
-4.2377	berapaan
-4.2377	berargumen
-3.3346	berarti	-0.0476
-4.2377	berasa
-4.5387	berasal
-4.2377	berat
-4.2377	berawan
-3.9367	berbagai	-0.1155
-4.0616	berbeda
-4.5387	berbintik-bintik
-4.5387	berbuat
-4.5387	berburu
-4.2377	bercanda
-4.5387	bercerita
-4.5387	berdekatan
-3.9367	berdiri	-0.3079
-3.5387	berdua	-0.0258
-4.5387	berempat
-4.2377	berenang	-0.2729
-4.5387	berenti
-3.9367	beres
-4.5387	beres-beres
-4.5387	berfikir
-4.5387	berfikiran
-4.5387	bergabung
-4.2377	bergaya
-4.5387	bergerak
-4.5387	berharapnya
-3.9367	berhasil
-4.5387	berhenti
-4.5387	berhubungan
-4.5387	berikan
-4.5387	beringas
-4.2377	berisik
-4.5387	beristirahat
-4.2377	berita
-4.5387	beritahu
-4.5387	berjaga
-4.2377	berjalan
-4.5387	berjam-jam
-4.2377	berjuang
-4.5387	berkabar
-4.5387	berkata
-4.2377	berkeliling	-0.2735
-4.5387	berkemah
-4.5387	berkepala
-4.0616	berkesan
-4.0616	berkunjung	-0.1596
-4.2377	berkurang
-4.5387	berlatar
-3.8398	berlebihan	-0.1014
-4.0616	berlibur	-0.4983
-3.9367	bermain
-4.5387	berolahraga
-4.5387	berperasaan
-4.5387	berpikiran
-4.0616	bersama	-0.0339
-4.2377	bersama-sama	-0.1454
-4.5387	bersamaan
-4.5387	bersamurai
-4.5387	bersaudara
-3.6356	bersepeda	-0.1347
-4.2377	bersih
-4.5387	bersihin
-4.5387	berspekulasi
-4.2377	bersyukur
-4.5387	bertanggung
-4.5387	bertanya
-4.5387	bertele-tele
-3.5387	bertemu	-0.1954
-4.2377	bertiga
-4.5387	bertukar
-4.5387	berturut
-4.5387	berturut-turut
-4.5387	berubah
-4.5387	berulang
-4.2377	beruntung
-4.5387	beruntungnya
-4.5387	berusaha
-4.5387	berwibawa
-3.6936	besar	-0.0225
-4.5387	besarku
-4.5387	besarnya
-3.0474	besok	-0.0345
-4.2377	besoknya	-0.1454
-4.2377	betul
-4.2377	betulin	-0.2727
-3.2377	biar	-0.0207
-4.2377	biarin
-3.2165	biasa	-0.0036
-2.9705	biasanya	+0.0294
-4.5387	bibit
-4.0616	bicara
-4.5387	bicarain
-4.5387	bicaranya
-3.8398	bidang
-4.5387	bidangnya
-4.5387	biji
-4.5387	bijinya
-3.0474	bikin	-0.0233
-3.2377	bilang	+0.0617
-3.3626	bimbingan	+0.0034
-4.0616	bimbingannya
-3.1585	bingung	-0.1219
-4.5387	bintang
-4.0616	biologi
-3.9367	bioskop
-2.3213	bisa	+0.0302
-4.5387	bisa-bisa
-4.0616	bisakah	-0.1596
-4.5387	bisalah
-3.7606	bisnis
-4.0616	bla	-0.1621
-4.5387	black
-4.0616	blibli
-4.5387	blizzard
-4.0616	blockchain	-0.3727
-4.5387	bo
-4.2377	boba
-4.5387	boba-boba
-4.5387	bobo
-4.5387	bocah
-4.2377	bocor	-0.2722
-4.5387	bodohnya
-4.5387	bogor
-3.9367	bohong	-0.1845
-4.5387	boi
-4.2377	bola
-4.5387	bolak-balik
-4.0616	bole
-4.5387	bole-bole
-4.5387	bolee
-2.5656	boleh	-0.2490
-4.5387	bolehkah
-4.2377	bolong
-4.5387	bombastis
-3.5845	booking	-0.2629
-4.2377	bookmyshow
-4.2377	borju
-4.5387	borma
-4.5387	bos
-4.5387	bosan
-3.8398	bosen
-4.2377	bramantyo
-4.5387	bri
-3.8398	bro	-0.1014
-4.5387	brown
-3.9367	btw
-4.2377	bu
-3.5387	buah	-0.0234
-4.5387	buahnya
-2.7258	buat	+0.0615
-4.5387	buatin
-4.2377	bubar
-3.7606	bud	-0.0537
-4.0616	budaya
-4.5387	budgetnya
-4.5387	budi
-3.2600	buka	+0.0589
-3.9367	bukain	-0.1155
-3.0073	bukan	+0.1012
-3.8398	bukankah	-0.2026
-3.6936	bukannya
-4.5387	bukanya
-4.5387	bukittinggi
-4.5387	bukti
-3.0336	buku	-0.0991
-3.6936	bukunya	-0.0874
-3.6936	bulan	-0.0621
-4.5387	bulu
-3.4973	bumbu	-0.3373
-4.2377	bumbunya
-3.7606	bumi	-0.1818
-4.5387	bunga
-4.2377	bunganya
-4.0616	bungkus
-4.2377	bungkusan
-4.5387	bungkusin
-4.5387	bunuh
-4.5387	bunyi
-4.5387	bur
-4.5387	burger
-4.5387	buru-buru
-3.9367	buruan
-4.0616	buruk	-0.3727
-4.2377	burung
-4.5387	busway
-3.4973	butuh
-4.2377	by	-0.2736
-4.5387	bye
-3.9367	c
-4.2377	cabut
-4.5387	cacat
-4.0616	cadangan	-0.0339
-4.5387	calon
-4.5387	camping
-4.2377	campur
-4.2377	can	-0.2736
-4.2377	canggih
-4.2377	cantik
-4.5387	cantiknya
-4.2377	capa	-0.1454
-4.5387	capcay
-3.6936	cape	-0.0620
-4.2377	capek
-4.2377	cara
-3.9367	caranya
-3.7606	cari
-4.5387	case
-4.5387	cat
-3.9367	catatan
-4.0616	catur
-4.5387	caturnya
-4.0616	cece	-0.0339
-4.5387	ceceku
-3.7606	cek	-0.0735
-4.5387	celananya
-4.5387	cemas
-4.2377	cemilan
-4.5387	cenderawasih
-4.5387	cengeng
-3.9367	ceo	-0.1111
-3.5845	cepat	+0.0272
-4.2377	cepat-cepat
-3.5845	cepet	+0.0158
-4.0616	cerah
-4.0616	cerdas
-3.3626	cerita	-0.1527
-4.2377	ceritain
-4.5387	ceritakan
-3.4596	ceritanya	-0.0082
-4.5387	cewa
-4.5387	cewek
-4.5387	changing
-4.0616	channel
-4.2377	chaos
-4.0616	charada	-0.1585
-3.8398	chat	-0.0884
-4.5387	chatbot
-4.5387	chatime
-4.5387	chatnya
-4.5387	chatting
-4.5387	check
-4.5387	chef
-4.5387	chefnya
-4.5387	chicken
-4.5387	cia
-3.9367	cicis
-4.5387	cinematic
-4.5387	cinematicnya
-4.5387	cisitu
-4.2377	citra
-4.5387	cium
-4.2377	ciwalk
-3.7606	cluster	-0.0726
-4.5387	clustering
-4.5387	co
-2.9590	coba	+0.0488
-3.8398	cobain
-4.5387	cobainnya
-4.5387	coco
-3.5387	cocok	-0.0422
-4.5387	code
-4.5387	coffee
-4.2377	cokelat	-0.2735
-3.7606	coklat	-0.0537
-3.9367	com
-4.5387	conductornya
-4.5387	configuration
-4.5387	constraint
-3.9367	contoh
-4.2377	contohnya
-4.5387	copy
-4.5387	corgi
-4.5387	corner
-3.6936	cowok	-0.0874
-4.5387	cowoknya
-4.5387	crcs
-4.5387	css
-4.5387	ctim
-4.5387	cuaca
-4.2377	cuacanya
-3.9367	cuci	-0.3127
-4.0616	cui	-0.0339
-4.5387	cukainya
-3.3346	cukup	+0.0388
-2.9260	cuma	+0.0795
-3.0474	cuman	-0.0730
-4.5387	cumi
-4.0616	cup
-3.6356	cupu	-0.0538
-4.2377	curang
-4.5387	custom
-3.7606	cuy	-0.1366
-4.5387	d
-4.2377	da
-4.5387	dadak
-3.6356	daerah
-3.5845	daftar
-4.5387	dagangan
-4.5387	daging
-4.5387	dago
-3.3346	dah	-0.1728
-4.2377	dahulu	-0.1454
-3.2377	dalam	-0.1913
-4.5387	dalem
-4.5387	dam
-2.4857	dan	+0.0017
-4.2377	dana	-0.1454
-4.5387	dananya
-4.5387	dandanannya
-4.5387	daniel
-3.4248	dapat	-0.0669
-4.5387	dapatkan
-4.5387	dapatnya
-3.2835	dapet	+0.1051
-4.5387	dapetin
-4.0616	dapur
-4.5387	dapurnya
-4.5387	darah
-4.5387	darahnya
-2.4780	dari	-0.1263
-4.2377	darimana
-4.0616	daripada
-3.7606	dasar	-0.2614
-4.5387	dasarnya
-3.1585	data	-0.0418
-4.5387	databasenya
-3.3926	datang	+0.0275
-4.2377	datangnya
-4.2377	datathon
-3.3346	dateng	-0.2232
-4.5387	dateng-dateng
-4.5387	datengin
-4.5387	datengnya
-3.9367	daun	-0.5014
-4.0616	daya
-4.5387	dayang
-4.5387	de
-3.7606	deadline
-3.9367	deadlinenya
-4.5387	deadliner
-3.6936	debat	-0.0608
-4.5387	debatnya
-4.5387	debo
-2.3626	deh	-0.2685
-3.4596	dekat	-0.0344
-3.7606	deket	-0.0727
-4.2377	deket-deket
-4.5387	dela
-3.5845	delapan	-0.0467
-4.5387	delay
-3.9367	delivery
-4.5387	deliverynya
-4.5387	demam
-3.8398	demi
-4.5387	dempet
-4.5387	dendam
-2.7394	dengan	-0.0969
-4.5387	denganku
-3.9367	denganmu	+0.0126
-3.8398	dengar	-0.0884
-3.6356	denger	-0.0500
-4.5387	denger-denger
-4.2377	dengerin
-4.5387	dengerinnya
-3.0336	depan	-0.0306
-4.5387	depannya
-4.2377	depok
-4.2377	desa	-0.1454
-3.8398	desain	-0.0839
-3.8398	desember
-4.5387	designer
-4.2377	deskripsi
-4.0616	detail
-4.0616	detik
-1.9578	di	-0.3084
-2.4116	dia	-0.0321
-4.5387	diacungi
-4.0616	diagram
-4.5387	diagramnya
-4.0616	diajak
-4.5387	diajakin
-4.2377	diajar	-0.2714
-4.5387	diakui
-4.2377	dialog-dialog
-4.2377	diam	-0.2699
-4.2377	diambil
-4.5387	diambilnya
-4.5387	dianggap
-4.2377	diantara
-4.5387	dianterin
-4.5387	dianya
-4.5387	diapain
-4.5387	diarahin
-4.5387	dibaca
-4.0616	dibajak	-0.1621
-4.0616	dibanding
-4.5387	dibandingin
-4.5387	dibandingkan
-4.5387	dibangun
-4.5387	dibawain
-4.5387	dibawakan
-4.5387	dibebasin
-4.5387	dibersihin
-4.5387	dibiarin
-4.5387	dibiarkan
-3.8398	dibikin	-0.0899
-4.0616	dibilang
-4.5387	dibuang
-4.2377	dibuat
-4.5387	dibujuk
-4.5387	dibuka
-4.5387	dibungkus
-4.5387	diburu-buru
-4.5387	dibutu
-4.2377	dicek
-4.5387	diceritain
-4.5387	diceritakan
-4.5387	dichi
-4.5387	dicintai
-3.4973	dick	+0.0039
-3.8398	dicky	+0.0383
-4.5387	dickynya
-4.0616	dicoba
-4.5387	dicobain
-4.5387	dicuci
-4.2377	diculik	-0.2735
-4.5387	didrop
-4.2377	dielus-elus	-0.1454
-4.5387	difilmkan
-4.5387	diga
-4.2377	digabung	-0.1454
-4.2377	digabungin
-4.2377	digambarin
-4.0616	diganti	-0.0339
-4.5387	digantik
-4.2377	digantikan	-0.2728
-4.2377	diginiin
-4.2377	digit
-4.5387	digital
-4.5387	digituin
-4.5387	dih
-4.5387	diilangin
-4.5387	diimplementasiin
-4.5387	diindonesiakan
-4.0616	diisi	-0.1594
-4.5387	diitungin
-4.2377	dijalanin
-4.2377	dijual
-3.3926	dik	-0.0000
-3.5387	dikasih	-0.0417
-4.5387	dikatain
-4.5387	dikegelapan
-4.5387	dikelas
-4.2377	dikelompokin
-4.5387	dikeluarin
-4.5387	dikenakan
-4.5387	dikendalikan
-3.9367	dikerjain	+0.0126
-4.5387	dikerjakan
-4.5387	dikirim
-3.4596	dikit	-0.1186
-4.5387	dikombinasikan
-4.5387	dikopi
-4.5387	dikumpul
-3.8398	dikumpulin
-4.5387	dikunci
-4.5387	dikunyah
-4.5387	dilain
-4.5387	dilakuin
-4.2377	dilakukan	-0.2734
-4.2377	dilan
-4.5387	dilarang
-4.5387	dilatih
-4.5387	dilepas
-3.9367	dilihat	-0.1142
-4.5387	dilihatin
-4.5387	diluar
-3.2165	dimana	-0.1410
-4.0616	dimarahin
-4.0616	dimas
-4.5387	dimasak
-4.0616	dimasukin
-4.5387	dimasukkin
-4.5387	diminta
-4.5387	dimulai
-3.5845	din	-0.5888
-4.5387	dinamain
-4.5387	dinda
-4.5387	ding
-4.5387	dingin
-4.5387	dinikmati
-4.5387	diomongin
-3.7606	dion
-4.2377	dipakai	-0.2732
-4.2377	dipake
-4.5387	dipaksa
-4.5387	dipasang
-4.5387	dipause
-4.5387	dipecah
-4.5387	dipecat
-4.5387	dipencet
-4.5387	diperintah
-4.5387	diperkemahan
-4.5387	dipermasalah
-4.5387	diperpanjang
-4.5387	dipersiapkan
-4.5387	dipesen
-4.5387	dipikir
-4.5387	dipilih
-4.5387	dipimpin
-4.0616	dipotong	-0.0339
-4.5387	dipotong-potong
-4.5387	diramalin
-4.5387	dirapatkan
-4.5387	dirapihin
-4.5387	dirasakan
-4.5387	director
-4.2377	diri
-4.2377	dirimu
-4.5387	dirusakin
-4.5387	disain
-3.5387	disana	-0.0653
-4.5387	disangka
-4.5387	disangka-sangka
-4.5387	disaranin
-4.5387	disclaimer
-4.5387	disebar
-4.5387	disebut
-4.5387	diselamatin
-4.5387	diselamatkan
-4.5387	diselametin
-4.5387	diselesaiin
-4.5387	diselingi
-4.5387	disengaja
-4.5387	disesuaiin
-4.5387	disiapkan
-4.2377	disimpan
-4.2377	disini
-4.5387	disisipi
-3.9367	disitu
-3.8398	diskon
-4.5387	diskon-diskon
-4.5387	diskusi
-4.5387	diskusi-diskusi
-3.9367	disney	+0.0126
-4.2377	disubmit	-0.1454
-4.5387	disuguhin
-4.0616	disuru
-3.6356	disuruh
-4.2377	ditakdirkan	-0.2732
-4.5387	ditambah
-4.2377	ditambahin
-4.2377	ditambal	-0.1454
-4.5387	ditampilkan
-4.5387	ditandatangan
-4.2377	ditanya
-4.2377	ditanyain
-4.5387	ditanyakin
-4.5387	ditaruh
-4.5387	ditempat
-4.5387	ditempatin
-4.5387	ditentuin
-4.5387	ditiruin
-4.5387	ditolak
-4.5387	ditoleransi
-4.5387	ditolongin
-4.5387	ditonton
-4.5387	ditrain
-3.9367	ditraktir
-4.5387	ditujunya
-4.5387	ditunda
-4.5387	ditunda-tunda
-4.5387	diturunin
-4.5387	ditutup
-4.5387	diulang
-4.5387	diundur
-4.5387	diving
-4.5387	dizni
-4.2377	dkv	-0.2736
-4.5387	do
-4.5387	doain
-3.3626	doang	-0.2697
-4.0616	dokter
-4.2377	dokumen
-4.5387	dokumentasi
-4.2377	dokumentasinya
-4.5387	dolar
-3.9367	domino	+0.0126
-4.2377	dompet
-2.8485	dong	-0.4495
-4.2377	donk	-0.1454
-4.5387	doraemon
-3.3083	dosen	-0.1139
-3.5845	dosennya	-0.0472
-4.5387	doswal
-3.6936	dot	-0.2156
-4.5387	dp
-4.5387	draft
-4.5387	drakor
-3.9367	drama	-0.1156
-4.5387	drive
-4.5387	drivernya
-4.5387	drop
-3.4973	dsdm	-0.0041
-2.5387	dua	-0.1678
-3.7606	dua-duanya	+0.0547
-3.6356	duduk	-0.2585
-4.2377	duh	-0.2723
-3.9367	duit
-4.2377	duitnya
-2.5749	dulu	-0.1931
-3.5845	duluan	+0.0806
-4.5387	dulunya
-3.2835	dunia	-0.1662
-4.5387	dura
-4.5387	durasinya
-3.4973	durian	-0.0422
-4.5387	dwbi
-3.5845	e	+0.0158
-4.2377	eat	-0.2736
-4.2377	ebook
-4.5387	edan
-3.9367	editan
-3.9367	efek	-0.3127
-4.5387	efeknya
-4.5387	efektif
-4.5387	egg
-2.5943	eh	-0.0159
-4.5387	ehem
-3.9367	ekor
-4.5387	eksekusi
-4.5387	ekspektasi
-4.5387	elektronik
-4.0616	ellen
-4.2377	elu
-3.8398	em	+0.0383
-3.8398	email	-0.0702
-2.7326	emang	+0.0054
-3.5387	emangnya	-0.0685
-4.5387	emm
-3.1408	empat	-0.2494
-4.5387	empatan
-2.6637	enak	-0.1725
-4.2377	enak-enak
-4.0616	enakan
-4.0616	enaknya
-3.6936	enam	-0.0622
-4.0616	endgame
-4.2377	enem
-4.5387	energinya
-2.9367	engga	-0.0037
-3.0073	enggak	-0.0940
-4.5387	engineering
-4.5387	english
-4.5387	enrollment
-4.2377	entah
-3.8398	entar
-4.5387	episode
-4.5387	erma
-4.5387	error
-3.4973	es	-0.2707
-4.5387	escobar
-4.5387	esei
-4.2377	eu	-0.1454
-4.0616	euh
-3.8398	eum	-0.1014
-4.5387	euy
-4.5387	event
-4.5387	expert
-4.5387	f
-4.0616	fa	-0.0339
-4.2377	fadil
-4.5387	faldi
-4.5387	fantasinya
-4.5387	fantastis
-4.5387	fase-fase
-4.5387	fasilitas
-4.5387	fast
-3.9367	favorit	-0.3093
-4.2377	februari
-4.5387	feel
-3.9367	felix
-3.9367	ferdi	+0.0126
-4.5387	festival
-4.5387	fillet
-2.8485	film	-0.2071
-4.5387	film-film
-3.5845	filmnya	+0.0806
-4.2377	final
-4.5387	fintech
-3.9367	fis	-0.1845
-4.5387	fisik
-4.5387	fisika
-4.0616	fix	-0.1599
-4.5387	fizi
-4.5387	fokus
-4.5387	food
-4.5387	format
-4.5387	formatnya
-4.5387	formnya
-4.2377	forum
-4.5387	forward
-4.5387	foto
-4.2377	fotokopi
-4.5387	four
-4.5387	front
-4.5387	frsnya
-3.8398	full	-0.2295
-4.5387	fun
-4.5387	fundamentalnya
-4.5387	furious
-4.5387	futsal
-2.1513	ga	-0.2312
-3.8398	gaada	-0.0892
-4.5387	gaak
-4.2377	gabisa
-4.5387	gabu
-4.2377	gabung
-4.5387	gabungan
-4.5387	gabungang
-4.5387	gabungin
-4.5387	gabunging
-4.0616	gabut
-3.9367	gagal
-4.5387	gajelas
-4.2377	gaji
-4.5387	gajinya
-2.3265	gak	-0.2464
-4.5387	galak
-4.5387	galau
-4.5387	gamau
-4.5387	gambarnya
-3.5845	game	+0.0272
-4.5387	gamenya
-4.5387	gameplaynya
-4.5387	gaming
-4.5387	gamma
-3.4973	gampang	+0.0897
-4.5387	ganteng
-3.5387	ganti
-4.5387	ganyang
-3.7606	gapapa	-0.1810
-4.5387	gapernah
-4.0616	gara-gara
-4.2377	garingan
-3.7606	gatau	+0.0547
-4.5387	gataunya
-4.5387	gausah
-3.8398	gaya	-0.2282
-3.9367	gdp	-0.1156
-3.6356	gede	+0.0743
-4.5387	gedean
-4.5387	gedein
-4.0616	gedung
-4.5387	geek
-3.7606	gelap	+0.0547
-4.5387	gelut
-4.0616	gendut
-4.0616	geprek
-4.2377	gerak
-4.5387	gerakannya
-4.5387	gerbang
-4.5387	gercep
-4.5387	gereja
-4.5387	gestur
-4.5387	ghost
-3.6356	gi	-0.0967
-3.7606	gila	-0.0696
-4.2377	gili
-2.5217	gimana	-0.3656
-3.1963	gini	-0.1257
-4.2377	ginian	-0.1454
-2.1585	gitu	-0.2418
-3.8398	gitu-gitu	-0.0862
-4.2377	gitulah
-4.5387	go-food
-4.5387	goang
-4.2377	god
-4.2377	gofood
-4.0616	gojek
-4.5387	gombalnya
-3.9367	google
-4.5387	googling
-4.0616	gopay
-3.9367	goreng
-4.2377	gorengnya
-4.5387	goyang
-3.5845	grab
-4.5387	grabfood
-4.5387	gramedia
-4.5387	gratis
-4.5387	grebek
-3.7606	grup	-0.0330
-2.1846	gua	-0.1166
-4.5387	guanya
-2.9824	gue	-0.1963
-4.5387	gundik
-4.2377	gunung
-3.9367	guru	-0.1156
-4.5387	guys
-4.5387	gym
-4.0616	ha
-4.5387	habibi
-4.5387	habibinya
-3.0763	habis	-0.1133
-4.5387	habisin
-4.0616	hackathon
-3.8398	hackaton
-4.5387	hadiahnya
-4.5387	haduh
-3.4596	hah
-3.4973	haha	-0.9325
-3.5845	hahaha	-0.0651
-4.5387	hahahaha
-3.4248	hai
-4.0616	hak
-4.5387	hak-haknya
-3.6356	hal	-0.1228
-4.2377	halah
-3.9367	halaman	+0.0126
-4.0616	hallo
-4.2377	hallowen
-3.3083	halo	-0.0531
-4.5387	halu
-3.9367	hampir	-0.1154
-4.5387	hancur
-4.5387	hank
-4.2377	hans
-4.5387	hansnya
-4.2377	hanung	-0.2736
-3.3083	hanya	-0.1363
-3.8398	hape	-0.1989
-4.2377	harapan
-4.5387	hard
-4.5387	harga
-3.5845	harganya	-0.0473
-2.7829	hari	-0.3460
-3.7606	harry
-2.7679	harus	-0.0282
-4.5387	haruskah
-3.2377	harusnya	-0.0301
-4.2377	hasil
-4.5387	hasilnya
-3.8398	hati	-0.0670
-4.5387	haus
-4.5387	hawkeye
-4.0616	heboh
-3.9367	hedon
-4.5387	heeh
-4.5387	heh
-3.2600	hehe	-0.5485
-4.5387	hehehehehe
-4.5387	hei
-4.5387	helm
-3.5845	hem	-0.0474
-4.2377	hemat
-4.5387	hendak
-4.5387	henri
-4.0616	hey
-4.5387	hi
-3.7606	hidup	-0.0687
-4.0616	hidupnya
-4.5387	hih
-3.9367	hilang	-0.1845
-4.5387	himpunan
-4.2377	hingga
-4.5387	hire
-4.5387	hiruk-pikuk
-4.2377	hitam
-4.0616	hits
-4.5387	hitung
-4.2377	hitz
-4.5387	hm
-4.5387	hmif
-3.3626	hmm	+0.0438
-3.1963	hmmm
-4.2377	hobi	-0.2736
-4.2377	hobiku	-0.2734
-3.7606	hobimu	-0.2687
-4.5387	hoo
-4.5387	hormat
-3.8398	horor	+0.0383
-4.2377	hotel
-3.7606	hp	-0.0699
-4.2377	hr
-4.5387	html
-4.5387	hubungannya
-3.8398	huh
-3.5845	hujan	-0.0433
-4.2377	hujannya
-3.9367	hulk
-4.5387	hungergames
-3.7606	hut	+0.0547
-4.5387	hutang
-4.5387	i
-4.2377	ia
-4.2377	ibaratnya
-3.5845	ibu	-0.1575
-4.5387	ibuku
-4.2377	ibunya
-4.5387	id
-3.4248	ide	-0.0642
-4.5387	identification
-4.5387	identifikasi
-4.5387	identitas
-4.0616	idenya
-4.5387	if50xx
-4.5387	ig
-3.3346	ih	-0.0880
-4.5387	iit
-4.2377	ijin
-4.5387	ijo
-4.5387	ikan
-2.8227	ikut	-0.0456
-4.2377	ikut-ikut
-4.0616	ikutan
-4.5387	ikuti
-4.2377	ikutnya
-4.2377	ilang
-4.5387	ilegal
-4.5387	ilmu
-4.5387	ilustrasinya
-4.0616	imagine	-0.5009
-4.5387	imajinasinya
-4.5387	imigrasi
-4.5387	implementasinya
-4.5387	incredible
-4.0616	indah	-0.3727
-3.8398	india	+0.0383
-4.5387	indianya
-4.5387	indigo
-4.5387	indomaret
-3.4973	indonesia	+0.0488
-4.2377	industri
-4.2377	info	-0.2676
-4.5387	infonya
-4.5387	informasi
-4.5387	informasinya
-4.2377	informatika	-0.1454
-3.8398	ingat
-4.5387	ingat-ingat
-3.4596	inget	-0.1229
-4.0616	inggris
-3.6356	ingin	-0.0539
-4.5387	inginkan
-4.5387	inginku
-2.1106	ini	-0.0353
-4.5387	inilah
-4.5387	inisiasi
-4.5387	inisiatif
-4.5387	innovation
-4.5387	input
-4.5387	inspirasi
-4.5387	instagram
-4.5387	install
-3.6936	instan
-4.5387	institut
-4.2377	insya	-0.2736
-4.5387	insyaallah
-4.5387	integrity
-4.5387	interaksi
-3.4973	intern	-0.0230
-3.9367	internet	+0.0126
-4.5387	interview
-4.0616	intinya
-4.5387	intipin
-4.5387	inventorisnya
-4.5387	inventory
-4.2377	investasi
-4.5387	iphone
-3.8398	iqbal
-4.0616	ir	-0.1587
-4.5387	iri
-4.5387	iron
-4.0616	iseng
-3.5387	isi
-4.5387	isiin
-4.0616	isinya
-4.5387	iso
-4.5387	istirahat
-4.0616	istri
-4.5387	istriku
-3.7606	itb
-1.9824	itu	-0.0643
-4.5387	itu-itu
-4.5387	itulah
-4.2377	itung
-4.5387	itungannya
-4.5387	itunya
-4.2377	ivan
-2.1221	iya	-0.1356
-4.2377	iya-iya	-0.2702
-4.5387	iyalah
-4.2377	iye
-3.6936	izin
-4.5387	j
-2.1695	jadi	+0.0601
-4.5387	jadiin
-3.5845	jadinya
-4.2377	jadwal
-4.5387	jadwalkan
-4.5387	jadwalnya
-4.2377	jaga
-4.5387	jaga-jaga
-4.5387	jaganya
-4.5387	jago
-4.2377	jahat
-3.3626	jakarta	-0.0766
-3.0763	jalan	-0.1088
-3.5845	jalan-jalan	-0.0229
-4.0616	jalanan
-4.5387	jalanin
-4.5387	jalannya
-4.2377	jalur
-4.5387	jalurnya
-2.6579	jam	-0.2404
-3.9367	jaman	-0.3125
-4.2377	jamin
-4.5387	jamnya
-3.0763	jangan	-0.0782
-4.5387	janganlah
-4.5387	janjian
-3.6356	januari	-0.0538
-4.2377	jaraknya	-0.2733
-3.6356	jarang	-0.1970
-4.2377	jarang-jarang
-4.5387	jason
-4.5387	jato
-4.0616	jatuh
-4.5387	jatuhi
-4.5387	jatuhnya
-3.2600	jauh	-0.0361
-4.0616	jauh-jauh	-0.0339
-4.0616	jawa	-0.1607
-3.8398	jawab	+0.0383
-4.5387	jawabnya
-4.2377	jebol
-3.8398	jelas
-4.2377	jelasin
-3.8398	jelaskan
-4.5387	jelaslah
-3.8398	jelek	-0.0877
-4.5387	jem
-4.5387	jempol
-4.2377	jen	-0.1454
-3.8398	jendela	-0.1014
-3.8398	jendelanya	-0.0853
-4.0616	jenguk
-4.2377	jenis
-4.2377	jenisnya
-4.5387	jenius
-4.5387	jenjang
-3.9367	jepang
-3.6356	jerit	-0.1603
-4.5387	jerman
-4.2377	jessin
-4.5387	jessy
-3.6356	ji	-0.4020
-3.7606	jika	-0.0701
-4.5387	jinak
-4.5387	jingga
-3.9367	jiwa	-0.3127
-4.2377	jo
-4.5387	joget
-4.2377	jogja
-4.0616	joker
-3.4973	joni	-0.0776
-4.2377	jorok
-4.5387	josep
-3.8398	jual	-0.0898
-3.5387	jualan	-0.3262
-4.5387	jualnya
-4.5387	juara
-4.0616	judul
-4.5387	judulnya
-2.1171	juga	-0.1462
-4.2377	jujur
-3.5845	juli	-0.0469
-4.5387	julitin
-3.5387	jumat	-0.0108
-4.5387	juminten
-3.8398	jumpa	-0.2006
-3.7606	jurusan	-0.0708
-4.0616	jus
-4.5387	just
-4.0616	justru
-4.5387	justus
-4.0616	juta
-4.5387	jutaan
-4.5387	ka
-3.6356	kabar	-0.0967
-4.5387	kabar-kabarin
-4.2377	kabari
-4.0616	kabarin
-4.5387	kabarmu
-4.0616	kabarnya	-0.0339
-4.5387	kabur
-4.5387	kacang
-4.2377	kacau
-3.4973	kadang	-0.0779
-4.5387	kadang-kadang
-4.0616	kado	-0.1561
-4.5387	kafe
-4.0616	kaga
-3.9367	kaget	+0.0126
-4.2377	kagum
-4.2377	kak
-3.8398	kakak	-0.0898
-4.5387	kakap
-3.4596	kakek	-0.1290
-4.5387	kakek-kakek
-3.7606	kaki	-0.0331
-4.5387	kakiku
-4.5387	kakinya
-4.5387	kalah
-2.3484	kalau	-0.0731
-4.5387	kalender
-2.9824	kali	-0.0870
-2.9477	kalian	-0.0110
-4.5387	kalibr
-4.0616	kalimat
-4.5387	kalimatnya
-3.6356	kalinya	-0.4020
-4.5387	kalkulus
-2.3401	kalo	-0.0660
-3.5387	kamar
-4.2377	kamarnya
-4.5387	kamera
-3.1963	kami	+0.0496
-3.9367	kamis
-4.5387	kampong
-3.3926	kampung	-0.2551
-4.2377	kampungnya	-0.2717
-3.2165	kampus	-0.1526
-2.1026	kamu	-0.0842
-2.0404	kan	-0.1074
-4.2377	kanan
-4.5387	kangen
-3.8398	kantin	+0.0383
-3.9367	kantor
-4.5387	kantu
-3.9367	kanvas	-0.1156
-4.5387	kapal
-3.1585	kapan	+0.0255
-4.0616	kapan-kapan
-4.2377	kapok
-3.5845	kapten	-0.7214
-3.7606	karakter	-0.1817
-3.9367	karang	-0.5015
-4.5387	karangan
-3.6356	karaoke	-0.0006
-4.5387	karaokenya
-2.7394	karena	-0.0045
-4.5387	karet
-3.5845	karna
-4.2377	kartu
-4.5387	kartun
-4.5387	karya
-4.0616	kasar	-0.0339
-3.9367	kasian
-3.1963	kasih	-0.0611
-3.8398	kasihan
-4.5387	kasir
-4.5387	kasur
-4.0616	kasus
-4.5387	kasusnya
-3.3346	kata	-0.1215
-4.5387	kata-kata
-4.2377	kata-katanya
-3.0073	katanya	-0.0413
-4.5387	katsu
-3.3083	kau	-0.0756
-4.5387	kawan-kawannya
-2.9260	kaya	-0.0346
-2.6814	kayak	-0.1513
-3.0336	kayaknya	-0.0293
-3.2377	kayanya	+0.0388
-4.2377	kayu
-2.2228	ke	-0.1276
-4.2377	keadaan
-4.5387	keadaannya
-4.5387	keadilan
-4.2377	keakraban
-4.5387	kebaca
-4.5387	kebagian
-4.2377	kebaktian
-4.5387	kebanggannya
-4.5387	kebangun
-3.6356	kebanyakan
-4.5387	kebawah
-4.0616	kebayang
-3.6936	kebetulan
-4.5387	kebohongan
-4.5387	kebon
-4.5387	kebuka
-4.5387	kecantikanmu
-4.5387	kecepatan
-3.4596	kecil	-0.3489
-4.5387	kecil-kecil
-4.5387	kecuali
-4.5387	kedengarannya
-3.9367	kediri
-4.0616	kedua
-4.2377	keduanya
-4.5387	kegedean
-4.0616	kegiatan	-0.1615
-4.5387	kehadiran
-3.9367	kehidupan
-4.5387	kehilangan
-4.5387	keisengan
-4.5387	keisya
-3.5387	kejadian	-0.0888
-4.2377	kejahatan
-4.5387	kejar
-4.5387	kejaran
-4.5387	kejebak
-4.0616	keju
-4.5387	keju-keju
-4.5387	kekalutan
-4.2377	kekuatan
-4.5387	kelahirannya
-4.5387	kelamaan
-3.5845	kelar	+0.0806
-4.5387	kelarin
-2.7829	kelas	-0.0297
-3.6356	kelasnya	-0.1818
-4.5387	kelemahannya
-4.5387	kelewat
-3.9367	kelewatan	-0.1140
-3.9367	keliatan
-3.8398	kelihatan	+0.0383
-4.2377	kelihatannya
-3.2600	kelompok	+0.0351
-4.5387	kelompoknya
-3.4248	keluar	+0.0168
-4.5387	keluar-keluar
-4.5387	keluaran
-3.3926	keluarga	-0.0512
-4.5387	keluargaku
-4.2377	keluarganya
-4.5387	keluarin
-4.5387	keluarnya
-4.5387	keluguan
-4.0616	kemah	-0.1617
-4.5387	kemahalan
-4.5387	kemahasiswaan
-4.5387	kemahnya
-3.0916	kemana	-0.2927
-4.2377	kemana-mana
-3.0916	kemaren	-0.1024
-2.8575	kemarin	-0.0879
-3.6356	kembali	-0.1387
-4.5387	kembalinya
-4.5387	kemudian
-4.2377	kemungkinan
-3.5387	kena	-0.2833
-4.2377	kenal	-0.1454
-4.5387	kenalan
-4.2377	kenalin
-2.8312	kenapa	-0.1247
-4.5387	kenceng
-4.5387	kening
-3.7606	kentang
-4.0616	kenyang
-4.5387	kenyataan
-4.0616	keos
-4.5387	kepada
-4.2377	kepala	-0.1454
-4.0616	kepentingan
-4.5387	kepikiran
-4.5387	kepolisian
-4.2377	kepribadian
-4.2377	kepuasan	-0.2728
-4.2377	keras
-4.5387	kerasa
-3.9367	kerbau	-0.2713
-4.2377	kerbaunya	-0.1454
-3.3083	keren	-0.0314
-3.9367	keren-keren
-3.9367	kereta
-4.2377	keringin
-3.3626	kerja	-0.0977
-3.6356	kerjaan	-0.0538
-4.5387	kerjaanmu
-4.5387	kerjaannya
-3.5845	kerjain	-0.1747
-4.0616	kerjakan
-4.5387	kerjakn
-4.5387	kerjanya
-4.2377	kertas
-4.5387	kerusakan
-4.2377	kesalahan
-3.3083	kesana	+0.0458
-4.5387	kesederhanaan
-4.5387	kesedihannya
-4.2377	kesel
-4.2377	keseluruhan
-4.5387	keseluruhannya
-4.5387	kesempatan
-4.5387	kesepian
-4.5387	kesiangan
-4.0616	kesini
-4.2377	ketagihan
-4.5387	ketakutan
-4.5387	ketawa
-4.5387	ketempat
-3.1408	ketemu	-0.1589
-4.2377	ketemuan
-4.5387	ketemuannya
-4.0616	ketiduran
-4.0616	ketiga
-4.2377	ketika	-0.2702
-4.5387	ketinggalan
-4.2377	ketua
-4.5387	ketuker
-4.5387	ketutup
-4.5387	kevin
-4.5387	key
-4.5387	kfc
-4.5387	khan
-3.9367	khas	-0.5001
-4.0616	khawatir	-0.3727
-4.5387	khusus
-4.5387	kiamat
-4.5387	kikuk
-4.5387	kilo
-4.2377	kilometer	-0.1454
-4.2377	king
-4.2377	kini
-3.3626	kira	-0.0962
-3.4973	kira-kira	+0.0385
-4.5387	kirain
-4.5387	kirana
-4.5387	kiri
-4.2377	kit	-0.1454
-2.2249	kita	-0.0396
-4.5387	kk
-4.5387	klimaks
-3.6936	ko	+0.0660
-4.5387	kobe
-4.5387	kocak
-4.5387	kode-kodenya
-4.5387	kodenya
-4.5387	koding
-2.6936	kok	-0.1354
-4.5387	kolam
-4.5387	kolongnya
-4.5387	kolonial
-4.2377	kolonialisme
-4.5387	kom
-4.5387	kombinasi
-4.5387	komedi
-4.2377	komik
-4.2377	komite
-4.2377	komposisi
-4.2377	komprehensif	-0.2706
-4.5387	komputasi
-4.0616	komputer	-0.0339
-4.5387	komputil
-4.5387	komunikasi
-4.2377	kondisi
-4.5387	koneksinya
-4.5387	konsentrasi
-4.5387	konsep
-4.2377	konser
-4.5387	konspirasi
-4.5387	kontennya
-4.5387	kontrolnya
-4.0616	kopi
-4.5387	kopinya
-4.2377	korban	-0.2736
-3.9367	korea
-4.5387	kos
-3.2377	kosan	-0.2066
-3.7606	kosong	+0.0547
-3.6356	kota	-0.0581
-4.5387	kotak
-4.2377	kotanya
-3.9367	kotor
-3.4248	kp	-0.0971
-4.5387	kpnya
-4.5387	kreatif
-3.8398	krim	+0.0383
-4.2377	krimnya	-0.1454
-4.5387	kru
-4.5387	ktp
-3.5845	ku
-4.5387	kuah
-4.5387	kualitasnya
-3.9367	kuantum	-0.1111
-4.5387	kuantumnya
-3.7606	kuat
-3.7606	kucek	-0.1818
-4.0616	kucing
-4.5387	kucingnya
-4.5387	kuduga
-3.9367	kue	+0.0126
-4.5387	kuhasut
-4.5387	kuizo
-4.5387	kukabari
-4.5387	kukira
-3.2377	kuliah	+0.0070
-4.2377	kuliahan	-0.2706
-4.5387	kulit
-4.2377	kumpul
-4.2377	kumpulin
-4.2377	kunci
-4.5387	kunciin
-4.2377	kuning
-4.5387	kunjungan
-4.2377	kunjungi	-0.2735
-4.2377	kuota
-3.1074	kurang	-0.1298
-4.5387	kurintis
-4.2377	kursus
-4.5387	kusampaikan
-4.5387	kutipan
-3.7606	la
-4.5387	lab
-4.5387	label
-4.5387	labnya
-4.2377	labs
-4.2377	labtek	-0.2731
-4.5387	laen
-2.2063	lagi	-0.1083
-3.8398	lagian	-0.0859
-3.7606	lagu	-0.0735
-4.5387	lagunya
-2.5893	lah	-0.1698
-4.5387	lahiran
-3.0474	lain	-0.0527
-3.8398	lainnya	-0.3238
-4.2377	lakuin
-3.9367	lakukan	-0.1845
-3.2600	lalu	-0.2394
-3.1074	lama	-0.0046
-4.5387	lamaku
-4.5387	lamaran
-4.0616	lambat	-0.0339
-4.2377	lambung	-0.1454
-4.0616	lampu	-0.0339
-3.9367	lampunya
-4.2377	lancar-lancar	-0.2699
-4.5387	langitnya
-3.0202	langsung	+0.0472
-3.6936	lanjut	-0.0595
-4.5387	lanjutannya
-4.2377	lanjutin
-3.9367	lantai
-4.5387	lantas
-4.5387	lapan
-4.5387	lapangan
-3.8398	lapar	-0.0877
-3.4973	laper	-0.2807
-3.6936	laporan
-4.0616	laporannya	-0.0339
-4.5387	laporkan
-3.4596	laptop	+0.0157
-4.0616	laptopnya
-4.5387	larangan
-4.5387	large
-4.0616	lari
-4.5387	lari-lari
-4.5387	larut
-4.5387	latar
-3.8398	latian	-0.0887
-4.2377	latihan
-4.2377	latihannya
-4.2377	lauknya	-0.2732
-3.8398	laut	-0.3238
-4.5387	lautnya
-4.5387	le
-4.5387	lebay
-2.8312	lebih	-0.0166
-4.5387	lee
-4.5387	lega
-4.5387	legal
-4.5387	legendaris
-4.5387	leher
-4.5387	lehernya
-4.5387	leksikonnya
-4.2377	lelah	-0.2691
-4.5387	lelet
-4.2377	lembaga
-4.2377	lembang
-3.7606	lembar	-0.1620
-4.5387	lempar
-3.9367	len	-0.1845
-4.5387	lengkap
-4.5387	level
-3.8398	lewat
-4.5387	lezat
-4.2377	lho
-4.5387	li
-3.3626	liat	-0.0421
-4.5387	liat-liat
-4.0616	liatnya	-0.1574
-4.5387	lib
-4.5387	libu
-3.7606	libur
-3.0916	liburan	-0.2101
-4.5387	liciknya
-2.9824	lihat	-0.0345
-4.5387	lihatlah
-4.2377	lihatnya
-2.8855	lima	-0.1908
-4.5387	lin
-3.9367	line	+0.0126
-4.5387	link
-4.2377	list
-3.2165	lix	-0.1870
-2.8485	lo	-0.0117
-4.5387	logact
-4.5387	logika
-2.8485	loh	-0.1497
-4.5387	lokal
-4.5387	lokasi
-4.2377	lokasinya
-4.0616	loket	-0.1561
-4.5387	loki
-3.0073	lomba	-0.0575
-3.9367	lombanya
-3.5387	lombok	-0.1949
-4.0616	loss
-4.2377	louis
-4.5387	lowongan
-2.4384	lu	-0.0492
-3.5845	luar	-0.1576
-4.5387	luarnya
-4.0616	luas
-4.5387	lubuk
-3.3346	lucu	-0.1087
-4.0616	lucunya
-4.5387	luka
-4.5387	lukisanmu
-3.6356	lulus	-0.0006
-4.0616	lulusnya
-3.1074	lumayan	-0.1430
-4.5387	lunak
-3.2165	lupa	-0.0404
-4.0616	m
-3.6936	ma
-3.4248	maaf	-0.2867
-4.2377	maafin
-3.8398	maap
-4.2377	maba
-3.7606	macam
-4.5387	macbook
-4.2377	macem	-0.1454
-4.2377	macem-macem
-3.6356	macet	-0.0674
-4.5387	macet-macetan
-4.2377	macetnya	-0.1454
-4.0616	magang
-4.0616	mager
-3.3346	mah	-0.0231
-3.3346	mahal	+0.0429
-4.2377	mahal-mahal
-4.0616	mahasiswa
-4.5387	mahasiswanya
-4.5387	mahkamah
-3.1963	main	-0.0384
-4.5387	mainstream
-4.5387	mak
-4.2377	maka	-0.2730
-4.5387	makalah
-2.4895	makan	-0.1534
-3.7606	makan-makan	+0.0547
-3.0474	makanan	-0.0561
-3.6356	makanannya	-0.2628
-3.8398	makannya
-3.4596	makanya
-3.5845	makasih	-0.1878
-3.8398	make	-0.0898
-4.0616	makhluk	-0.1621
-3.3626	makin	-0.1311
-4.5387	maksa-maksa
-4.2377	maksimal
-4.5387	maksimalkan
-3.8398	maksud	-0.2290
-4.5387	maksudku
-3.2377	maksudnya	-0.0379
-3.3083	malah	-0.0530
-4.5387	malahan
-3.1770	malam	-0.0380
-4.2377	malamnya
-4.5387	malas
-3.3626	malem	-0.1112
-3.6936	males	-0.0014
-4.5387	maling
-3.7606	mall
-4.5387	malunya
-3.6356	mama	-0.0538
-3.9367	mamanya	-0.1155
-3.9367	mampir	-0.1130
-4.5387	mampu
-4.2377	man
-2.8312	mana	-0.2365
-4.5387	mana-mana
-4.2377	manager
-4.5387	mandi
-4.5387	maneh
-4.2377	manggil
-3.7606	manis
-3.5387	mantap	-0.0414
-4.5387	mantep
-3.5387	manusia
-3.8398	mao
-4.5387	mapo
-3.6936	marah	-0.0592
-4.5387	maret
-4.0616	mari	-0.1621
-4.2377	mark	-0.1454
-4.5387	marnat
-3.4596	martabak	+0.0076
-4.5387	martabaknya
-4.2377	marvel
-2.6303	mas	-0.2244
-3.0916	masa	-0.1314
-3.5387	masak
-4.2377	masakan
-4.5387	masako
-4.5387	masala
-3.4248	masalah	+0.0255
-4.0616	masalahnya
-2.6303	masih	-0.1884
-4.5387	masing
-3.8398	masing-masing	-0.0886
-3.2377	masuk	-0.1103
-4.5387	masukannya
-4.2377	masukin
-4.5387	masukkin
-4.5387	masukkinnya
-4.5387	masyarakat
-3.4973	mata	-0.2066
-4.2377	matah
-4.5387	matahari
-4.5387	matanya
-3.9367	matematik
-3.8398	matematika	-0.0899
-3.9367	materi
-4.5387	materialnya
-4.5387	materinya
-3.6356	mati
-4.5387	matiin
-4.0616	matkul
-2.1695	mau	-0.1231
-4.5387	maudy
-4.5387	maunya
-4.5387	mayan
-4.5387	mb
-4.2377	mbd
-4.2377	mcd
-4.5387	media
-4.5387	meeting
-4.5387	megang
-4.5387	mekanik
-4.0616	melakukan
-4.5387	melalui
-4.5387	melamar
-3.9367	melanjutkan	-0.2735
-3.9367	melelahkan	-0.1845
-4.5387	meleleh
-4.5387	melempar
-3.8398	melihat	-0.0882
-4.5387	melingkupi
-4.0616	melukis
-4.5387	memainkan
-4.5387	memakai
-4.2377	memaksa
-3.3926	memanah	-0.2492
-4.5387	memancing
-4.2377	memanen	-0.2736
-3.2165	memang	-0.0873
-3.5387	memangnya	-0.0092
-4.5387	memaparkan
-4.2377	memarkirkan	-0.2736
-4.5387	membahas
-3.8398	membantu	-0.0898
-4.5387	membantumu
-4.5387	membasmi
-4.5387	membawakan
-4.5387	membeli
-4.0616	member
-4.2377	memberi
-4.5387	membernya
-4.5387	membicarakan
-3.3626	membuat	-0.1313
-4.2377	membuatnya
-4.5387	membutuhkan
-4.5387	memenangkan
-4.5387	memerangi
-4.5387	memerintah
-4.2377	memilih
-3.9367	memiliki	-0.1156
-4.5387	mempelajari
-4.5387	mempelajarinya
-4.5387	memperjuangkan
-4.5387	memperkenalkan
-4.5387	memperlihatkan
-4.5387	mempertahankan
-4.5387	memuaskan
-4.5387	memungkinkan
-4.5387	memvisualisasikan
-4.2377	menambah	-0.2736
-4.2377	menambal	-0.2735
-4.0616	menanam	-0.1621
-4.2377	menang
-3.3083	menarik	-0.0967
-4.5387	mencapai
-4.5387	mencari
-4.5387	menceritakan
-4.5387	mencetak
-4.0616	mencoba
-4.2377	mendadak
-4.2377	mendaftar
-4.2377	mendapatkan
-4.5387	mendefinisikan
-4.5387	mendekati
-4.5387	mendengarkan
-3.3626	mending	-0.0925
-3.6936	mendingan
-4.5387	mendiriin
-4.5387	mendirikan
-4.2377	mendorong	-0.2735
-4.2377	menebaknya
-3.9367	menemukan	-0.1156
-4.0616	mengajar
-4.5387	mengalah
-4.2377	mengalahkan	-0.2734
-4.5387	mengalami
-4.2377	mengambil
-4.5387	menganggap
-4.5387	menganggur
-4.2377	mengantar
-4.5387	mengantarmu
-4.2377	mengarah
-4.5387	mengarahkan
-4.2377	mengayuhkan	-0.2736
-4.2377	mengelilingi	-0.2736
-4.5387	mengemasnya
-4.5387	mengemudi
-4.5387	mengenai
-4.5387	mengenalkan
-4.0616	mengendarai	-0.5008
-3.8398	mengerjakan	-0.2029
-4.5387	mengerti
-4.5387	mengetahui
-4.5387	menggambarkan
-4.5387	menggeliat
-4.5387	menggelinding
-4.5387	menggendarai
-3.9367	menggunakan	-0.1155
-4.5387	menghabiskan
-4.5387	menghadap
-4.5387	menghadapi
-4.5387	menghasilkan
-4.2377	mengikuti
-4.5387	mengingatkan
-4.5387	menginjak
-4.5387	mengirim
-4.2377	menguap
-4.2377	menguasai
-4.5387	mengucapkan
-4.5387	mengunjungi
-4.5387	menguras
-4.5387	mengurus
-4.2377	menikah
-4.5387	menikmati
-4.5387	mening
-4.5387	meninggal
-4.5387	meninggalkan
-3.1770	menit	-0.1452
-4.5387	menitan
-3.7606	menjadi
-4.5387	menjadikan
-4.5387	menjalani
-4.5387	menjawab
-4.5387	menjemputmu
-4.2377	menjenguk	-0.2735
-4.2377	menonton
-4.5387	menontonnya
-4.2377	mentok-mentok
-4.5387	mentor
-4.5387	mentornya
-4.5387	menu
-4.2377	menunggu
-4.5387	menunjukkan
-4.2377	menuntun	-0.2735
-4.5387	menunya
-4.5387	menuruni
-3.3926	menurut	-0.2671
-4.2377	menurutku
-4.5387	menurutmu
-4.5387	meny
-4.5387	menyapa
-4.5387	menyarankan
-4.5387	menyatu
-4.5387	menyebabkan
-4.2377	menyebalkan
-4.0616	menyediakan	-0.1620
-3.9367	menyelam	-0.1845
-4.5387	menyelesaikan
-3.9367	menyenangkan	-0.1100
-4.5387	menyengat
-4.5387	menyesal
-4.5387	menyesuaiakan
-4.5387	menyesuaikan
-4.5387	menyiapkan
-4.2377	menyukai
-4.5387	mepet
-4.0616	merah
-4.5387	merahnya
-4.5387	merasa
-4.5387	merayakan
-4.2377	merek
-2.9477	mereka	+0.0614
-4.2377	merendah
-4.5387	merepotkan
-4.5387	meriah
-4.5387	mertua
-3.8398	mesen	+0.0383
-4.2377	mesennya	-0.1454
-4.5387	mesinnya
-3.5387	meskipun	-0.0422
-4.2377	metode
-4.5387	mewah
-4.5387	mewek
-4.5387	mi
-4.5387	microsoft
-3.6356	mie	-0.6872
-4.5387	mikir
-4.2377	mikirnya
-4.5387	milea
-4.0616	milih
-4.5387	milik
-4.5387	milimeter
-4.5387	mimpi
-4.5387	ming
-2.9367	minggu	-0.4103
-4.0616	mini	-0.1621
-4.5387	mini-mini
-4.5387	minimal
-3.9367	mining
-4.5387	minjem
-3.3346	minke	-0.0183
-3.1238	minta	-0.3414
-4.0616	minum	-0.1591
-4.5387	minuman
-3.9367	mirip
-4.5387	misah
-4.5387	misal
-3.9367	misalkan
-3.3083	misalnya	-0.1018
-4.5387	misi
-4.0616	miss	-0.1621
-4.5387	mistis
-3.6356	mit	+0.0743
-4.0616	ml
-4.2377	mm
-2.9367	mo	-0.2541
-3.8398	mobil	-0.1993
-3.9367	mobilku	-0.3733
-4.0616	model
-4.5387	modelnya
-4.2377	modern	-0.1454
-4.5387	modis
-4.5387	moga-moga
-4.5387	mole
-4.5387	molor
-4.5387	monologue
-3.6356	motor	-0.0967
-4.5387	motornya
-4.2377	mouse
-3.9367	mrt
-4.5387	mtsn
-3.9367	mu	+0.0126
-4.0616	muak
-4.5387	muat
-4.2377	muda
-3.9367	mudah	-0.1142
-4.5387	mudah-mudahan
-4.5387	mudahan
-4.5387	muka
-3.3626	mulai	+0.0708
-4.5387	mulainya
-4.5387	multichatnya
-4.5387	mulu
-4.2377	mulut
-4.5387	mumpung
-4.2377	muncul
-3.0763	mungkin	-0.0055
-4.5387	mungkinkan
-3.3346	murah	-0.0997
-4.5387	murid
-4.5387	murni
-4.2377	musang	-0.2736
-4.5387	music
-3.9367	musik	-0.3097
-3.9367	musim	-0.1156
-4.2377	mustahil	-0.2736
-3.4596	musti	-0.0352
-4.5387	musuhan
-4.2377	mutar
-4.2377	my	-0.2736
-3.9367	na
-4.5387	nabrak
-4.5387	nada
-3.9367	naek	-0.1155
-3.1074	nah	-0.1265
-3.2835	naik	-0.0651
-4.2377	naikkan	-0.2736
-4.2377	nak
-4.5387	nakal
-3.6356	nam	-0.1454
-3.6936	nama	-0.0615
-4.5387	namaku
-3.4973	namanya	-0.0049
-4.5387	nambah
-4.5387	nambahin
-3.9367	namun
-4.2377	nana
-4.5387	nangis
-4.5387	nannys
-2.4418	nanti	-0.1806
-3.6356	nanya	-0.0006
-4.2377	napa	-0.1454
-4.2377	napak
-4.5387	narasi
-3.9367	narcos	-0.1155
-4.2377	narik
-4.0616	narkoba
-3.2600	nasi	-0.1577
-4.0616	nasib	-0.1617
-4.5387	nasinya
-4.0616	nasional	-0.0339
-4.2377	nasionalis
-4.5387	nasionalisme
-4.5387	nasjep
-4.5387	naskor
-4.5387	nat
-4.2377	natural
-4.5387	nawarin
-4.2377	ndi
-4.5387	nebeng
-3.9367	nebula
-3.8398	negeri	-0.1014
-4.5387	nelpon
-4.5387	nembakin
-4.5387	nemenin
-4.5387	nempel
-4.5387	nemu
-4.5387	nemuin
-4.2377	nenek
-3.9367	nengok
-4.0616	nengokin	-0.1605
-4.5387	nengoknya
-4.5387	nentang
-4.0616	nentu
-4.5387	nentuin
-4.5387	neror
-4.0616	netflix	-0.0339
-4.2377	next
-4.0616	ngabarin
-4.5387	ngabisin
-3.8398	ngadain	-0.0895
-3.8398	ngajak
-4.5387	ngajar
-4.5387	ngalahin
-4.5387	ngalamin
-3.8398	ngambil
-4.2377	ngangkat
-3.8398	ngantri
-4.5387	ngantri-ngantri
-4.5387	ngantrinya
-4.2377	ngantuk
-4.5387	ngantuknya
-4.2377	ngapa-ngapain
-3.0336	ngapain	-0.3688
-4.2377	ngarepin
-4.5387	ngaruh
-3.8398	ngasih
-4.5387	ngatur
-4.5387	ngawasin
-4.5387	ngayal
-4.0616	nge
-4.5387	ngebelain
-4.5387	ngebosenin
-4.5387	ngebully
-4.5387	ngebut
-4.2377	ngecek
-4.5387	ngechat
-4.5387	ngedepanin
-4.5387	ngedit
-4.5387	ngedorong
-4.5387	ngefek
-4.2377	ngeforge
-4.5387	ngegantung
-4.2377	ngelakuin
-4.2377	ngeliat
-4.5387	ngeliatnya
-3.4596	ngelihat	-0.1994
-3.9367	ngelihatnya	-0.3082
-4.2377	ngembaliin	-0.2732
-4.2377	ngerasa
-4.0616	ngerasain
-4.5387	ngerayain
-4.2377	ngerekam
-4.5387	ngerem
-4.0616	ngeri
-4.5387	ngerinya
-3.2165	ngerjain	-0.2724
-4.2377	ngerjainnya
-3.3626	ngerti	-0.0457
-4.2377	ngerusak
-4.5387	ngetem
-4.5387	ngetemnya
-4.5387	ngetroll
-3.3083	ngga	+0.1037
-2.6936	nggak	-0.1016
-4.5387	ngide
-4.2377	ngikutin
-4.5387	ngilang
-4.5387	ngilangin
-4.5387	ngiler
-4.0616	nginep	-0.4961
-4.5387	nginepnya
-4.5387	ngintip
-4.5387	ngira
-4.2377	ngobrol
-4.2377	ngobrol-ngobrol
-4.5387	ngoding
-3.4596	ngomong	+0.0584
-3.4596	ngomong-ngomong	-0.0688
-4.5387	ngomonginnya
-4.0616	ngomongnya
-4.2377	ngondak
-4.5387	ngontak
-4.2377	ngumpul
-4.5387	ngumpul-ngumpul
-4.5387	ngumpulinnya
-4.5387	ngunjungin
-4.2377	ngurus
-4.5387	ngurusin
-3.2377	ni	+0.0643
-4.5387	nicho
-2.2908	nih	-0.2063
-4.2377	nik	-0.1454
-4.5387	niko
-4.2377	nilai
-4.2377	nindya
-4.5387	ninggalin
-4.5387	nisa
-4.0616	nitip	-0.1617
-4.0616	niza	-0.3727
-3.6936	nlp	-0.1507
-4.2377	no
-3.8398	nol	-0.0886
-4.5387	noleh
-4.5387	nomer
-3.4973	nomor
-4.5387	nomornya
-2.9590	nonton	-0.2153
-4.5387	nontonin
-4.5387	nontonnya
-3.6936	nop	-0.0619
-4.5387	normal
-4.5387	notifikasi
-4.5387	novel
-3.1770	ntar	+0.0558
-4.5387	nubes
-4.0616	nugas
-4.5387	nulis
-4.5387	numerik
-4.5387	numpang
-4.2377	nunggu
-4.0616	nungguin
-4.2377	nurut
-2.8398	nya	-0.0865
-3.8398	nyai	-0.2296
-4.2377	nyala
-4.0616	nyalahin
-4.5387	nyalain
-4.5387	nyalon
-4.2377	nyambung
-3.7606	nyampe
-4.2377	nyampenya
-4.2377	nyangka
-3.7606	nyanyi
-4.5387	nyanyian
-4.5387	nyanyiin
-3.8398	nyari
-4.0616	nyata
-4.5387	nyebelin
-4.5387	nyediain
-4.5387	nyelesaiin
-4.2377	nyenggol
-4.2377	nyerah	-0.2714
-4.5387	nyeremin
-4.5387	nyesuaiin
-4.5387	nyetok
-4.0616	nyiapin
-4.5387	nyicil
-4.5387	nyo
-3.7606	nyoba	+0.0547
-4.2377	nyuci
-4.5387	nyusulnya
-3.8398	o	-0.2263
-4.5387	oalah
-4.5387	obat-obatan
-4.5387	obrolannya
-4.2377	obrolin
-4.5387	of
-4.5387	office
-2.3319	oh	-0.2390
-3.9367	ohh
-4.5387	oiya
-4.2377	ojek
-3.6356	ok	-0.0538
-4.5387	okay
-2.5893	oke	-0.2231
-3.7606	okei
-4.2377	okelah
-4.5387	okey
-4.0616	oktober
-4.0616	olahraga
-3.6936	oleh	-0.0615
-3.7606	oleh-oleh	-0.4088
-3.9367	olimpiade	-0.1126
-4.5387	om
-4.5387	omg
-4.2377	omong
-4.5387	omong-omong
-4.5387	omongan
-4.5387	omongin
-4.5387	omonginnya
-4.2377	on
-4.5387	onel
-4.5387	ongkos
-4.5387	ongkosnya
-4.5387	onlee
-4.0616	online
-4.0616	ontosoroh
-3.7606	ooh
-4.5387	operasiin
-2.8312	orang	-0.0886
-3.9367	orang-orang
-3.6356	orangnya	+0.0743
-4.5387	orangtua
-4.5387	orchard
-4.2377	order
-3.6356	oreo	-0.0494
-4.5387	organigram
-3.7606	osk
-3.9367	osn	-0.1155
-4.2377	osp
-4.2377	ospek
-4.0616	otaknya	-0.1621
-4.5387	otomatis
-4.5387	otw
-4.5387	outputnya
-4.2377	ovaltine
-3.8398	ovo
-4.2377	ow
-4.5387	oyah
-3.5387	pa	-0.0146
-4.5387	pab
-4.5387	pablo
-4.5387	pabrik
-4.5387	pacar
-3.0474	pada	+0.0762
-3.3083	padahal	-0.0930
-3.9367	padang
-3.9367	padi	-0.2722
-4.5387	pagaruyung
-3.3926	pagi	-0.1458
-4.5387	paginya
-3.8398	paham	-0.0859
-4.5387	pajajaran
-3.4973	pak	+0.0005
-4.0616	pakai
-4.2377	pakde
-3.1074	pake	-0.0633
-4.2377	pakmin
-2.8575	paling	-0.1034
-4.2377	palingan
-4.5387	palunya
-4.5387	pamer
-3.9367	pameran	-0.2732
-4.5387	pamit
-4.5387	panahan
-4.5387	panas
-4.2377	pandai
-4.2377	pandan
-3.8398	pandang	-0.0895
-4.5387	pandangnya
-4.5387	panduannya
-4.0616	panggang
-4.0616	panggangnya	-0.0339
-4.0616	panggil
-4.5387	panitia
-3.6936	panjang	-0.0225
-4.5387	panjangnya
-4.0616	pantai	-0.1607
-4.5387	pantat
-4.5387	pantes
-3.6356	papa	-0.0967
-4.0616	papan	-0.1621
-4.5387	paparon
-4.0616	paper	-0.1621
-4.2377	para
-4.2377	paragraf
-4.5387	paranormal
-3.9367	parkir
-4.5387	parkiran
-4.5387	parkirnya
-3.7606	part	-0.2648
-4.5387	partikelnya
-4.2377	parut
-3.1585	pas	-0.0082
-4.5387	pasar
-4.5387	pasca
-3.9367	pasir	-0.2722
-4.5387	paskal
-4.5387	paspor
-4.2377	paspornya	-0.2725
-3.8398	pasta
-3.0202	pasti	+0.0286
-4.2377	pastinya
-4.5387	pasukannya
-3.8398	pat
-4.5387	patut
-4.5387	pause
-4.5387	payday
-4.0616	payung
-4.5387	pc
-4.5387	pecahin
-4.5387	pecinnya
-4.5387	pedagang
-3.9367	pegang
-3.7606	pekan	+0.0547
-3.9367	pekerjaan
-4.5387	pekerjaannya
-3.9367	pelajaran
-4.2377	pelanin
-3.9367	pelatihan
-4.5387	pelatihannya
-4.5387	pelengkap
-4.5387	peluang
-3.9367	pemain	-0.1156
-4.5387	pemainnya
-4.5387	pemakainya
-4.5387	pemanasan
-4.5387	pemandangannya
-4.5387	pembahasan
-4.5387	pembayarannya
-4.5387	pembicara
-3.7606	pembimbing	-0.1664
-4.5387	pembuatan
-4.5387	pembulian
-4.5387	pemecahan
-4.2377	pemeran
-4.5387	pemerintah
-4.5387	pemerintahan
-4.5387	pemikiran
-4.5387	pemimpin
-4.5387	pemrosesan
-4.5387	penampakan
-4.2377	penangkaran	-0.2736
-4.2377	pencarian
-4.5387	pencet
-4.5387	pendaftaran
-4.5387	pendaftarannya
-4.5387	pendapat
-4.5387	pendapatmu
-4.2377	pendek
-4.5387	pendek-pendek
-4.5387	pendekar
-4.5387	pendidikan
-4.2377	penemuan
-4.2377	pengadilan
-4.0616	pengalaman
-4.2377	pengarang	-0.2736
-4.5387	pengaruh
-4.2377	pengcit	-0.1454
-4.2377	pengembangan	-0.2736
-3.0202	pengen	-0.0915
-4.5387	pengertian
-4.2377	pengesahan
-4.2377	pengganti
-4.2377	penggunaan
-4.5387	penghuni
-4.2377	pengolahan	-0.2736
-4.2377	pengumpulan	-0.2735
-4.5387	pengunjung
-4.5387	penilaiannya
-4.2377	penolongmu	-0.1454
-4.2377	penonton
-3.4596	penting	+0.0930
-4.5387	penuh
-4.5387	penulis
-4.5387	penurunan
-4.5387	penyisihan
-4.5387	pepper
-3.9367	per	-0.1154
-4.5387	perahu
-4.5387	peran
-4.5387	perang
-4.5387	perangkat
-3.3626	perasaan	-0.0577
-4.5387	perayaan
-4.5387	perbaiki
-3.6936	percakapan
-3.9367	percaya
-4.5387	perempuanku
-4.5387	perfeksionis
-3.0916	pergi	-0.1659
-4.5387	pergolakan
-4.5387	perhari
-4.5387	perhatian
-4.5387	perihnya
-4.5387	perintah
-4.5387	perintahnya
-3.7606	perjalanan	-0.1813
-4.2377	perjalananku	-0.1454
-4.5387	perjalanannya
-3.9367	perjuangan
-4.5387	perkemahan
-4.5387	perkumpulan
-4.5387	perlakuan
-3.4973	perlu	+0.0385
-4.5387	permasalahan
-4.5387	permen
-3.1408	pernah	+0.0819
-3.9367	pernikahan
-4.2377	perpus
-4.5387	perpusnya
-3.7606	perpustakaan	-1.2183
-3.9367	persen
-4.2377	persiapan
-4.5387	persis
-4.5387	persisnya
-4.5387	personal
-3.1408	pertama	-0.2576
-3.8398	pertamanya	+0.0383
-4.0616	pertanian	-0.1561
-4.2377	pertanyaan
-4.5387	pertemuan
-4.5387	pertigaan
-4.5387	pertiwi
-4.5387	pertumbuhannya
-4.5387	perumpamaan
-4.5387	perusaan
-3.8398	perusahaan
-4.0616	perusahaannya
-4.0616	perwalian
-3.8398	pesan
-2.9947	pesen	-0.0535
-4.5387	pesenin
-4.2377	pesennya
-4.2377	peserta
-4.5387	pesertanya
-4.2377	pesta
-3.9367	petualang	-0.1845
-4.5387	phd
-4.5387	pi
-4.2377	piala
-4.5387	piano
-4.5387	pihak
-4.0616	pikir
-4.5387	pikir-pikir
-4.2377	pikiran
-4.2377	pikirannya
-3.9367	pilih
-3.6356	pilihan	-0.1228
-4.0616	pilihannya
-4.5387	pilihnya
-3.7606	pindah	-0.2967
-3.8398	pingin	-0.2292
-4.2377	pinginnya	-0.2696
-4.5387	pingsan
-4.5387	pinjam
-4.2377	pinjem
-4.5387	pinter
-3.4973	pintu	+0.0039
-4.2377	pintunya
-4.2377	pipis
-4.0616	piring	-0.1585
-4.5387	piring-piring
-3.8398	pisah
-4.0616	pisang	-0.0339
-4.5387	pitchingnya
-3.5387	pizza	-0.3605
-4.5387	pizzanya
-4.5387	pkn
-4.5387	plagiat
-4.5387	plan
-4.5387	plot
-4.5387	plus
-4.5387	pm
-4.5387	pnj
-4.5387	poin
-4.5387	point
-3.5845	pokoknya	-0.0431
-4.5387	pokonya
-4.5387	polanya
-4.2377	polisi
-4.2377	polusi	-0.2736
-4.5387	pong
-4.2377	populer
-4.2377	porsi
-4.5387	porsinya
-4.2377	posisi
-4.5387	posisinya
-4.2377	positifnya
-4.5387	post
-4.5387	postingan
-4.5387	postur
-4.5387	pot
-4.5387	potensinya
-3.9367	potong
-4.5387	powerful
-3.9367	pr
-4.2377	pra
-3.8398	praktikum
-3.9367	pram	-0.1845
-4.5387	pramuka
-4.5387	prasmanan
-4.5387	prasmanannya
-4.5387	prasyarat
-4.5387	prasyaratnya
-4.2377	predict
-4.0616	prepare
-4.0616	presentasi	-0.0339
-4.5387	pretelin
-4.2377	pribadi
-3.8398	pribumi	-0.0839
-4.5387	prnya
-4.2377	pro
-4.0616	product	-0.1621
-4.2377	produksi
-4.5387	produksinya
-4.5387	profesional
-4.5387	profesor
-4.0616	professor	-0.5009
-4.2377	program
-4.5387	programmernya
-4.2377	programming
-3.9367	programnya
-4.5387	progress
-4.5387	progressnya
-3.3626	promo	+0.0003
-3.6936	promonya	+0.0660
-4.5387	promosi
-4.5387	pronounciation
-4.0616	proyek
-4.5387	proyekan
-4.5387	prs
-4.2377	puas
-4.5387	pula
-3.0763	pulang	-0.0797
-4.2377	pulangnya
-3.5845	pulau	-0.3307
-4.5387	pulen
-4.5387	pulih
-2.8575	puluh	-0.1875
-3.6356	puluhan	-0.0509
-3.5387	pun
-4.2377	puncak
-4.5387	puncaknya
-4.5387	punclut
-4.5387	pundi
-2.9824	punya	-0.1156
-4.5387	punyaku
-3.4596	pura	-1.2215
-4.2377	pusing	-0.1454
-3.5845	putih	-0.1007
-4.5387	putra
-4.0616	pvj
-4.5387	pvjnya
-4.5387	pymes
-4.5387	qih
-4.5387	quality
-4.0616	quantum
-4.5387	query
-4.5387	rabu
-3.8398	rada	-0.0898
-4.5387	rada-rada
-4.5387	radiasi
-4.2377	raf	-0.1454
-4.5387	rafi
-4.2377	rafli	-0.1454
-4.5387	ragu
-3.8398	rahasia	-0.2165
-4.5387	rajin
-4.2377	rak
-4.5387	rakus
-4.5387	rama
-4.5387	ramadhan
-3.5387	ramai	-0.0784
-4.5387	ramalan
-4.2377	rambut
-4.2377	rambutmu
-3.9367	rame	-0.1111
-4.0616	rame-rame
-4.5387	rangka
-4.2377	rapat
-3.8398	rapi
-4.5387	rapih
-4.5387	rapihin
-3.3346	rasa	-0.2001
-3.3346	rasanya	+0.0397
-4.2377	rasis
-4.5387	rata-rata
-4.2377	ratih
-4.5387	ratu
-4.0616	ratus
-4.5387	rayakan
-4.5387	rayuan-rayuan
-4.0616	real	-0.1606
-4.5387	realm
-4.5387	recehnya
-4.5387	recognitionnya
-3.9367	red	-0.5015
-4.5387	reda
-4.2377	referensi
-4.5387	regulatornya
-3.7606	rekam	-0.1617
-4.5387	rekaman
-4.2377	rekamannya
-4.5387	rekamnya
-3.9367	rekomendasi
-4.5387	rektor
-4.5387	release
-4.5387	relevan
-4.2377	remaja
-3.9367	remang	-0.1156
-3.2377	rencana	-0.0549
-4.5387	rencanain
-4.5387	rencanaku
-4.2377	rencanamu
-3.4248	rencananya	+0.0536
-4.5387	rendah
-4.5387	report
-4.5387	repot
-4.2377	reservasi
-4.5387	resminya
-3.4596	restoran	-0.1774
-3.9367	restorannya
-4.5387	review
-4.5387	revisi
-4.0616	revisinya
-4.5387	rezeki
-3.7606	ribet
-3.0336	ribu	-0.1045
-4.2377	ribuan
-4.5387	ribunya
-4.5387	ribut
-4.5387	ricat
-3.6936	ricky	+0.0660
-4.5387	rido
-3.9367	rik
-4.5387	rika
-4.5387	rinci
-4.5387	rindi
-4.2377	ringan
-4.5387	risalah
-4.2377	robot
-4.5387	robotnya
-4.5387	roda
-4.5387	romansa
-4.5387	romantis
-4.5387	romantisme
-4.2377	ronin
-3.3083	roti	-0.1782
-4.5387	rotinya
-4.5387	rplsd
-3.9367	rt
-4.5387	ru
-3.7606	ruang	-0.1606
-4.5387	rugi
-2.9824	rumah	-0.0430
-3.7606	rumahku	-0.0289
-4.5387	rumahmu
-3.5387	rumahnya	-0.0249
-4.5387	rumusin
-4.2377	rusa
-3.6936	rusak	-0.0874
-4.5387	rusanya
-4.5387	rutin
-4.5387	rutinitas
-4.5387	s1
-4.2377	s3	-0.1454
-4.5387	sa
-3.4596	saat	-0.0781
-4.5387	saatnya
-3.9367	sabar
-4.5387	sabar-sabar
-4.0616	sabi
-3.4973	sabtu	-0.0384
-4.0616	sabuga	-0.0339
-4.5387	sad
-4.2377	sadar
-4.0616	sah	-0.0339
-4.5387	sahabat
-4.5387	sahabatnya
-4.5387	saingannya
-4.2377	sains
-2.8063	saja	-0.3703
-4.5387	sajalah
-4.5387	saking
-3.1238	sakit	-0.2289
-4.2377	saku	-0.1454
-4.5387	salad
-2.8953	salah	-0.1773
-4.5387	salam
-4.5387	salamku
-4.5387	saldo
-4.5387	saldonya
-4.5387	saling
-4.5387	salon
-4.5387	salted
-2.2908	sama	-0.0119
-3.7606	sama-sama	-0.0338
-4.2377	sambal	-0.2736
-4.5387	sambelnya
-3.5845	sambil	-0.0473
-4.5387	sampah
-2.8666	sampai	-0.0274
-4.5387	sampaikan
-3.3083	sampe
-3.9367	samping	-0.3127
-4.5387	sampingan
-4.5387	sampingku
-4.5387	sampingmu
-4.5387	sampingnya
-4.2377	san	-0.1454
-3.0474	sana	-0.1590
-3.4973	sangat	-0.1275
-4.5387	sanggup
-3.6936	santai	-0.1471
-4.5387	sapa
-4.2377	sapi
-4.5387	saraga
-4.5387	sarah
-4.0616	sarapan
-4.5387	sate
-2.6466	satu	-0.0159
-3.9367	satunya	-0.1129
-4.2377	saudara
-4.5387	saver
-4.0616	sawah	-0.1607
-3.7606	sawah-sawah	-0.2681
-2.7394	saya	+0.0684
-3.9367	sayang	-0.3126
-4.2377	sayangnya
-4.2377	sayur
-4.5387	sayur-sayuran
-4.2377	sayuran
-4.5387	sc
-4.5387	school
-4.5387	scoring
-3.8398	sd	+0.0383
-4.5387	se
-4.5387	seakan
-4.5387	searchnya
-4.5387	season
-3.6936	sebagai	-0.0622
-4.5387	sebagian
-4.5387	sebaik
-4.5387	sebangku
-4.2377	sebanyak
-4.5387	sebeda
-4.5387	sebel
-4.0616	sebelah
-3.8398	sebelas
-4.0616	sebelom	-0.1621
-3.4973	sebelum	-0.0757
-4.5387	sebelum-sebelumnya
-3.6356	sebelumnya	-0.0695
-3.5387	sebenarnya
-3.4973	sebenernya	+0.0385
-3.5845	sebentar	-0.0960
-4.5387	seberang
-4.5387	seberapa
-4.5387	seblak
-3.9367	sebuah	-0.1156
-4.0616	sebut	-0.0339
-4.5387	secanggih
-3.7606	secara	-0.0735
-3.3926	sedang	-0.0654
-4.5387	sedeng
-3.6356	sedih	-0.1272
-3.3926	sedikit	+0.0276
-4.5387	sedunia
-4.2377	seenaknya
-3.8398	segala	-0.2033
-4.5387	segalanya
-4.5387	segaring
-4.5387	segede
-4.2377	segini	-0.1454
-4.2377	segitu
-4.5387	segituan
-4.5387	segitunya
-4.5387	segreget
-4.2377	sehabis
-4.5387	sehari
-4.5387	seharusnya
-3.9367	sehat	-0.1845
-4.5387	sei
-4.2377	seindah
-4.5387	seingatku
-4.5387	seinget
-4.2377	sejarah
-4.5387	sejarahnya
-4.2377	sejauh	-0.2702
-3.4596	sekali	-0.0325
-4.2377	sekali-sekali
-3.5845	sekalian	+0.0321
-2.6579	sekarang	-0.0882
-4.5387	sekarat
-4.2377	sekarung	-0.2736
-4.2377	sekedar
-4.0616	sekelompok	-0.0339
-4.5387	sekelompoknya
-4.5387	sekeren
-4.5387	sekip
-3.1074	sekitar	-0.2541
-4.2377	sekitaran
-3.2600	sekolah	+0.0410
-4.5387	sekre
-3.8398	selain
-4.0616	selalu
-3.5387	selama	-0.1365
-3.5845	selamat	-0.2221
-4.5387	selang
-4.5387	selanjutnya
-4.2377	selasa
-4.5387	seleksi
-4.5387	seleksinya
-4.5387	selembar
-4.5387	seleraku
-3.2377	selesai	-0.0527
-4.5387	selese
-4.5387	selevel
-4.5387	selidiki
-4.2377	semacam
-4.5387	semacamnya
-4.2377	semakin
-3.9367	semalam	-0.1845
-3.9367	semangat
-4.5387	semangatnya
-4.5387	sembarangan
-3.3346	sembilan	-0.0206
-4.5387	sembuh
-4.5387	sembunyi
-4.5387	semenit
-4.5387	semenjak
-3.3083	semester	-0.2927
-3.6356	seminar	+0.0743
-3.6356	semoga	-0.1150
-3.9367	sempat
-3.6936	sempet
-4.2377	sempit
-4.5387	sempurna
-3.0202	semua	+0.0376
-3.4248	semuanya	+0.0536
-4.5387	semudah
-4.5387	sen
-3.4596	senang	-0.2797
-2.9260	sendiri	-0.2698
-4.5387	sendirian
-4.5387	sendirinya
-4.5387	senen
-3.6356	sengaja	-0.0538
-4.2377	seni
-4.5387	senin
-4.5387	senjata
-4.0616	seorang
-3.2377	sepatu	-0.3205
-3.9367	sepatu-sepatu
-4.5387	sepatumu
-3.5845	sepeda	-0.3036
-3.7606	sepedaku	-0.1405
-3.9367	sepedamu	-0.2662
-3.2165	seperti	-0.1273
-4.5387	sepertimu
-3.2835	sepertinya	-0.0245
-4.5387	sepi
-4.5387	sepinter
-4.5387	seporsinya
-4.5387	sepuasnya
-4.2377	sepulang	-0.2734
-3.2377	sepuluh	-0.0445
-4.0616	seram
-3.4248	seratus	-0.1543
-4.5387	serba
-4.5387	serem
-4.5387	seri
-4.5387	serial
-4.5387	seribu
-3.3926	sering	-0.0286
-3.5845	serius	-0.0471
-3.3626	seru	-0.1148
-4.5387	servis
-4.0616	seseorang	-0.0339
-4.5387	sesering
-4.5387	sesi
-4.2377	sesuai
-3.9367	sesuatu
-4.0616	set	-0.1621
-4.2377	setahun
-4.5387	setanah
-4.5387	setara
-3.8398	setau	-0.4492
-3.5387	setelah
-3.8398	setengah
-4.5387	setengahnya
-4.0616	seterusnya	-0.0339
-3.9367	setiap
-4.5387	setidaknya
-3.5845	setuju	-0.0651
-4.5387	seumuran
-3.9367	sewa
-4.5387	sharing
-4.2377	shia	-0.1454
-4.5387	shit
-4.2377	shock
-4.5387	shooting
-4.2377	shopee
-2.9260	si	-0.1819
-4.5387	sial
-3.5845	siang	-0.0420
-3.4248	siap	-0.1633
-4.0616	siap-siap
-2.9824	siapa	-0.2334
-3.5387	sibuk	-0.0399
-4.5387	sibuk-sibuknya
-4.2377	sidang
-4.5387	signature
-4.5387	signifikan
-2.0404	sih	-0.2475
-4.5387	sikaping
-4.5387	sikit
-4.2377	sil	-0.1454
-3.8398	silahkan
-4.5387	silahkan-silahkan
-4.5387	sim
-4.5387	simpan
-4.2377	simpenin
-4.5387	simulasi
-4.5387	simulasinya
-4.2377	sinar
-4.5387	sinematografi
-3.9367	singa
-4.5387	singapore
-4.0616	singapur
-4.0616	singkat	-0.5007
-4.5387	single
-2.7463	sini	-0.1000
-4.5387	sini-sini
-4.5387	sinopsis
-4.2377	sinyal
-4.5387	sinyalnya
-3.7606	sip	-0.1685
-4.2377	siri
-3.7606	sis	-0.2081
-4.2377	sisa	-0.2735
-4.5387	sisanya
-3.8398	sisi	-0.0899
-4.2377	siska
-4.2377	sistem
-4.5387	sistemnya
-4.2377	sister
-3.4973	situ	-0.0430
-4.5387	situasi
-4.5387	situs
-4.5387	skenario
-4.5387	skip
-3.6356	sks	-0.0967
-4.2377	skuy
-4.5387	slide
-3.4973	sma	-0.0470
-4.0616	smanten
-4.5387	smapsic
-4.5387	smp
-4.5387	sms
-3.7606	snap	+0.0547
-4.5387	snapnya
-4.2377	snek
-4.5387	so
-3.1238	soal	-0.1870
-2.8485	soalnya	-0.1693
-4.5387	software
-3.8398	sok	-0.0899
-4.5387	soleh
-4.5387	songong
-4.5387	sop
-4.5387	sopnya
-3.4596	sore	-0.1994
-4.5387	sori
-4.2377	sorry
-3.9367	sosial	-0.1096
-4.2377	sosok
-4.5387	speakerin
-4.5387	specificityp
-3.4973	speech	-0.0370
-3.9367	speknya	-0.3088
-4.5387	spesial
-4.5387	spoiler
-4.5387	standar
-3.5845	stark	+0.0806
-4.0616	startup
-4.5387	statistik
-4.2377	status	-0.2736
-4.5387	steak
-4.2377	stei
-3.8398	steven	+0.0383
-4.0616	sti
-4.5387	stkip
-4.5387	stoknya
-4.2377	story
-4.5387	strange
-4.5387	studi
-4.5387	studinya
-4.5387	suami
-4.5387	suaminya
-3.6936	suara
-3.8398	suasana	-0.0899
-4.5387	subbab
-4.5387	subjektif
-4.0616	subuh
-4.2377	suci
-2.8485	sudah	+0.0287
-4.0616	sudahlah
-3.7606	sudut	-0.3363
-4.5387	sugar
-2.9824	suka	-0.1809
-4.2377	sukajadi
-4.2377	sukanya
-4.0616	sukses
-4.5387	sukur
-4.0616	sulit	-0.1621
-4.5387	sumbar
-4.2377	sumber	-0.2736
-4.5387	sumbernya
-4.5387	sumbi
-4.2377	summer
-3.6936	sumpah	-0.1497
-4.2377	sup
-4.0616	supaya
-3.8398	super
-4.5387	supirnya
-4.0616	surabaya
-3.9367	surat	-0.1156
-4.5387	surhof
-4.0616	suruh
-4.5387	surveynya
-3.1770	susah	-0.0919
-4.2377	susanti
-4.2377	susi	-0.2736
-4.0616	sutradara
-4.5387	sutradaranya
-4.5387	swear
-4.5387	syarat
-4.5387	syukurlah
-4.5387	t
-3.4973	ta	+0.0512
-4.5387	tab
-2.8855	tadi	-0.0482
-4.5387	tagihin
-4.0616	tah	-0.0339
-4.5387	tahap
-3.2600	tahu	+0.0353
-2.9367	tahun	-0.0926
-4.2377	tahunku
-4.2377	tahunmu
-4.2377	tahunnya
-4.5387	tahunya
-4.5387	tai
-4.2377	taichan
-3.8398	tak	-0.2296
-4.5387	taksi
-3.2377	takut	+0.0454
-4.2377	takutnya
-4.5387	talang
-4.5387	taman
-3.6356	tambah
-4.0616	tambahin
-4.2377	tambal	-0.2735
-4.2377	tamfest	-0.1454
-4.5387	tampil
-4.5387	tanah
-3.9367	tanda	-0.5014
-4.5387	tandanya
-4.5387	tanding
-3.6356	tangan
-4.2377	tangga
-3.4973	tanggal	-0.0791
-4.0616	tanggung	-0.5008
-4.5387	tangkis
-4.5387	tangkuban
-4.0616	tanpa
-4.2377	tantangannya	-0.1454
-3.6936	tanya
-4.2377	tanyain
-4.5387	tanyakan
-2.2716	tapi	-0.0110
-3.5845	tar	-0.0448
-4.5387	target
-4.5387	tarik
-4.5387	tarung
-4.5387	tarungnya
-4.2377	tata
-4.5387	tatanan
-2.6695	tau	-0.0249
-4.2377	taun
-4.2377	tautan
-4.5387	tayang
-4.2377	tbd
-4.5387	teb
-4.5387	tebak
-4.2377	tebakanmu	-0.2736
-4.5387	tebel
-4.2377	teh	-0.2735
-4.2377	teken
-4.5387	teknik
-3.7606	teknologi	-0.0705
-4.5387	teks
-4.0616	telah	-0.1621
-3.5387	telat	-0.0108
-4.5387	telinga
-4.5387	telkomsel
-4.0616	telor
-4.5387	telornya
-4.5387	telpon
-4.2377	tema
-3.5387	teman	-0.0382
-4.0616	teman-teman
-4.5387	teman-temanku
-4.5387	temani
-4.2377	temanin
-4.0616	temanya
-4.5387	tembak
-4.5387	tembakan
-4.5387	tembok
-3.4248	temen	-0.0122
-3.9367	temen-temen
-4.5387	temen-temennya
-4.2377	temenin
-4.5387	temennya
-2.8953	tempat	-0.1333
-4.0616	tempat-tempat	-0.1561
-3.5845	tempatnya
-4.0616	tempe
-3.9367	template
-4.5387	tenaga
-4.5387	tenaganya
-3.8398	tenang
-4.2377	tendanya
-3.4973	tengah	-0.4715
-4.5387	tengil
-4.5387	tengok
-3.9367	tensai	+0.0126
-4.5387	tensainya
-3.2835	tentang	-0.0959
-3.6356	tentu	-0.6866
-4.5387	tentukan
-4.0616	tentunya	-0.1578
-4.5387	teori
-3.7606	tepat	-0.1646
-3.3926	terakhir	+0.0337
-4.5387	terang
-3.9367	terasa	-0.1155
-4.5387	terbaik
-3.9367	terbaru
-4.0616	terbarunya
-4.5387	terbatas
-4.5387	terbenam
-4.2377	terbiasa	-0.2728
-4.5387	terbuka
-4.5387	tercapai
-4.0616	terdekat	-0.1620
-4.2377	terdistribusi	-0.1454
-4.2377	terduga
-4.5387	terenak
-4.5387	tergantung
-4.5387	terhadap
-4.0616	terhingga
-3.4596	terima	-1.0789
-3.8398	terimakasih	-0.0898
-4.5387	teringat
-3.6936	terjadi	-0.0621
-4.5387	terjadinya
-4.5387	terjatuh
-4.5387	terkagum
-4.5387	terkenal
-4.2377	terkenalnya
-4.5387	terkesan
-4.5387	terkilir
-4.5387	terkonn
-4.5387	terkumpul
-4.5387	terkurungnya
-3.2600	terlalu	-0.0436
-4.5387	terlanjur
-4.2377	terlebih	-0.2736
-4.5387	terlibat
-3.6936	terlihat
-4.2377	termacet
-4.5387	termerdu
-4.5387	terminat
-3.5387	terminator	-0.0035
-4.5387	termotivasi
-3.0763	ternyata	+0.0852
-4.5387	terombang-ambing
-4.2377	teror
-4.5387	teroris
-4.5387	terperangkap
-4.5387	terpisah
-4.5387	terselamatkan
-3.9367	terserah	-0.3093
-4.5387	terserahlah
-4.2377	tersinkronisasi
-4.5387	tersisa
-3.6936	tertarik
-4.5387	tertata
-4.0616	tertentu	-0.0339
-2.4818	terus	+0.0480
-3.8398	tes
-4.5387	tesis
-4.2377	testing	-0.1454
-4.5387	tetangga
-3.9367	tetap
-3.9367	tetapi
-3.9367	tetep
-4.0616	text
-4.5387	textbook
-3.8398	thanos	+0.0383
-4.0616	the	-0.1621
-4.5387	thor
-4.0616	tiap
-4.5387	tiara
-3.8398	tiba	-0.0898
-4.5387	tiba-tiba
-2.7326	tidak	-0.1320
-3.1408	tidur	-0.2138
-4.5387	tidurnya
-2.8760	tiga	-0.2057
-4.5387	tigaan
-3.7606	tiket	-0.0724
-3.9367	tikus
-4.2377	tim
-3.6936	time
-3.3083	tinggal	-0.0198
-4.5387	tinggi
-4.2377	tingkat
-4.2377	tipe
-3.7606	tirta	-0.0537
-4.5387	tisu
-4.0616	titik
-4.5387	titip
-4.5387	toffee
-4.2377	toh
-3.9367	toko
-4.5387	tokoh
-4.5387	tokonya
-3.5387	tolong	-0.0997
-4.5387	tomat
-4.5387	tombolnya
-3.5845	ton	+0.0806
-4.5387	tonton
-3.2600	tony	-0.2401
-4.2377	top
-4.0616	topik
-4.2377	topiknya
-4.2377	total
-4.0616	totalnya	-0.1592
-4.5387	toyota
-4.5387	tradisi
-4.0616	trailer
-4.5387	train
-4.5387	trainingnya
-3.6356	traktir	-0.0748
-4.5387	transformasiin
-4.5387	transformasinya
-4.0616	transformer
-4.5387	transkrip
-4.0616	transportasi
-4.0616	transportasinya	-0.3727
-4.2377	traumanya
-4.5387	travel
-4.2377	traveloka
-4.5387	trigger
-4.5387	trigonometri
-3.4248	trus
-2.8953	tu	+0.0294
-3.8398	tua
-4.5387	tubes
-4.5387	tubesnya
-4.0616	tubuh	-0.1596
-4.5387	tubuhnya
-3.0336	tugas	+0.0244
-3.7606	tugasnya
-2.6466	tuh	-0.0882
-4.5387	tujuannya
-3.3926	tujuh	-0.1420
-4.2377	tulang
-4.5387	tulis
-4.5387	tulisan-tulisan
-4.2377	tulisnya
-3.6936	tumben	-0.0607
-4.5387	tunda
-3.3083	tunggu	-0.0456
-4.2377	tungguin
-4.5387	tunggunya
-4.5387	tunjukan
-4.2377	tunjukin
-3.8398	turnamen	+0.0383
-3.8398	turun	-0.2165
-4.5387	turut
-4.5387	tutorial
-4.5387	tutup
-3.9367	tv
-4.5387	u
-4.0616	uang	-0.1621
-4.5387	uang-uangnya
-4.0616	uangnya	-0.0339
-3.9367	uas
-4.5387	ucapan
-4.5387	uda
-2.1478	udah	-0.0172
-4.5387	udahan
-3.7606	udahlah	-0.2833
-4.5387	udang
-4.2377	udara	-0.2676
-4.2377	udik
-4.5387	uduk
-4.2377	ugm
-4.5387	ui
-3.4596	ujian	+0.0132
-4.5387	ujiannya
-4.2377	ujung	-0.2733
-4.5387	uks
-4.5387	ulahnya
-3.3626	ulang	-0.5596
-4.0616	ulasan
-4.5387	ulfa
-4.5387	ulwan
-4.2377	umum
-4.5387	umumnya
-4.2377	umur
-4.5387	unand
-4.5387	undang
-4.5387	undangan
-4.5387	undead
-4.2377	undip
-4.5387	unggun
-4.5387	uniknya
-3.6936	unit	-0.1302
-4.0616	universitas
-4.5387	unp
-2.9705	untuk	-0.0105
-4.5387	untuknya
-4.0616	untung
-3.9367	untungnya
-4.5387	up
-4.2377	update
-4.2377	upload
-4.2377	upnormal
-4.5387	urang
-4.0616	urpa
-4.0616	urusan
-4.5387	us
-3.6936	usah
-4.5387	usaha
-3.9367	utama
-4.5387	utamanya
-4.5387	utang
-4.5387	uts
-4.5387	validnya
-4.5387	van
-4.5387	variasi
-3.9367	velvet
-3.9367	ven
-4.5387	vi
-4.5387	vihara
-4.5387	villa
-3.9367	vin	-0.1845
-4.5387	vintage
-4.5387	visa
-4.5387	visualisasi
-4.2377	vocabnya
-4.5387	voltage
-4.5387	vormir
-4.5387	vue
-3.9367	wa
-4.5387	waalaikumsalam
-3.6936	waduh	-0.0225
-4.5387	wagila
-4.2377	wagyu
-2.6197	wah	-0.0604
-2.8666	waktu	+0.0099
-3.7606	waktunya	-0.0537
-3.6356	walaupun
-3.4248	wan	-0.1776
-3.6356	wanda	-0.0967
-4.2377	wandanya	-0.1454
-4.0616	wanita
-4.5387	wanitanya
-4.5387	warcraft
-4.5387	warcraftnya
-4.5387	warming
-4.2377	warna	-0.2676
-4.5387	warnanya
-4.2377	warteg
-4.0616	waw
-4.2377	way
-4.2377	web
-4.5387	webmd
-4.2377	webnya
-4.2377	website
-4.2377	weh
-4.0616	well	-0.1621
-4.5387	wew
-4.5387	what
-4.2377	wibu
-4.2377	wifi
-4.5387	wiki
-4.5387	windows
-4.5387	winternship
-4.5387	wisata
-4.5387	wisokto
-3.6356	wisuda	-0.0492
-4.5387	wisudaan
-4.5387	wisudaannya
-4.2377	wisudanya	-0.1454
-4.2377	wisudawan
-4.2377	wix	-0.2735
-4.5387	wo
-3.3346	woi	-0.1728
-4.2377	world
-4.0616	wortel	-0.1621
-4.5387	wortelnya
-4.5387	wow
-4.5387	x
-4.5387	y
-1.8953	ya	-0.2866
-4.5387	yaelah
-2.8063	yah	-0.1538
-4.5387	yaitu
-4.5387	yak
-3.9367	yakin
-4.2377	yan
-1.8602	yang	-0.0248
-4.0616	yasudah
-3.9367	yauda	-0.1128
-3.0616	yaudah	-0.0261
-4.5387	yaudalah
-4.2377	ye
-4.5387	yes
-4.5387	yey
-4.5387	yoga
-4.2377	yok
-3.5387	yon	-0.3102
-4.5387	yonas
-3.7606	yor	-0.1366
-4.2377	you	-0.2736
-4.2377	yu
-4.5387	yuds
-2.7606	yuk	-0.2848
-4.5387	za
-4.0616	zaman	-0.1610
-4.5387	zi
-4.5387	zombieland

\2-grams:
    ~q:   ~q:   7U  
 ~q:   L|   ~q:   )M   h  ! ~q:  % '  & ~q:  ' h  ) ~q:  D `  M ~q:  e #  k `  m B  o [  p ~q:  y ~q:   h   B   h   ~q:   9   ~q:   h   <   h   [   I*   B   I*   h   ~q:   L|   5G   ?   `  h  `   h 0 h 1 I* 5  6 ? 7 ` : ~q: = ~q: ? h D ~q: M B P ~q:  /  [  I*  <  ~q:  I*  *  h  ~q:    ~q:  `  [  `  ~q:  [  h  `  ~q:  h 	 ~q: 
 h  ~q: + ~q: 2 ~q: E 5G O ~q: ] ~q: k 7 l 37 m   ~q:  9  `  h  h  h  ~q:  [  ~q:  b  v  `  <  ` t ~q: u h  ~q:  `  ~q:  h  ~q:  h  y  ~q:  ,;|  `  L|  ~q:  L|  ?  ~q:  `  h  &  ~q: " i ' ~q: 3 h 9 ~q: C h O ,;| Q ~q: R ? T j i L| k B t 7 z h { L| | 5G ~ ~q:  ~q:  ~q:  -2  B  ~q:  B  7  ?  I*  B  ~q:  ~q:  ~q:  1L  &  ~q:  ~q:  [  ~q:  37  <  ~q:  h    ~q:  ~q:  ~q:  ~q: & 
O ' \[ . ~q: / 4 4 ~q: 6 [ @ L| G ~q: I ? K ~q: a h f h r *  h  h  ~q:  7U  ~q:  ?  U  [   p  c  `  ~q:  #  h  h  <  ?  [  I*  9  /  I*  ?  [  ~q:  ~q:  ~q:   ~q: / B 1 -2 2 ~q: 7 7 ; ` M ~q: R h m I*  i  h  /  ~q:  `  `  ~q:  [  1L  `  5G  ~q:  h  ~q:  ~q:  ~q:  h  B  ~q: & ` , 7 . ~q: 1 L| 6 L| 7 7 :  F ~q: K ` Q I* S h U [ V ~q: W h d ~q: l [ n ` p I* s ~q: t h { L| } h ~ `  h  ~q:  [  ?  h  *  '?  h  B  [  I*  h 	 ` O ~q: P < h ? p L|  `  h  ~q:  ~q:  L|  <  ~q:  #  h  ~q:  4t  ~q:  [ 	
 ` 	! ~q: 	" ` 	+ ~q: 	- h 	2 1L 	3 < 	A L| 	N ~q: 	^ L| 	e ` 	  	 ` 	 L| 	 k 	 [ 	 ~q: 	 ~q: 	 L| 	 ~q: 	 ~q: 	 ~q: 	 7 	 h 	 ` 	 7 	 h 	 ~q: 	 37 
 < 
> ~q: 
B B 
U ~q: 
X ~q: 
Y h 
\ ~q: 
j L| 
w ~q: 
x ~q: 
 h 
 ~q: 
 [ 
 ~q: 
 ~q: 
 ~q: 
 ~q: 
 ~q: 
 `  ~q: / h 3 ~q: 8 I* = h Q ~q: W ~q: v h  h    `  [  h  ~q:  h  `  ~q:  B  ~q:  [  ~q:  L|  `  ~q:  #  h  I*  h  ~q:  I*  h  h ! ~q: + ~q: , [ 1 B 3 h 9 h ; [ B ~q: C ~q: O ~q: S ~q: U ~q: Y ~q: ^ ~q: a B c 37 i ~q: m h y ` { h  ~q:  &  h  ~q:  ~q:  ?  h  B  ~q:  `  `  5G  h  L|  h  h  I*  L|  ~q:  ~q: 2 ~q: 6 ~q: ; ` = ~q: ? h B [ D ~q: G h I I* J ~q: N ~q: O B a ` b L| y ~q:  	S  ~q:  ~q:  h  h  ~q:  1L  `  ~q:  [  `  ~q:  ~q:  I*  `  ~q:  <  ~q:  k  h  `  ` # L| 1 m@ 4 ? 5 L| 7 h 8 h C ~q: [ v b ' d 	 i h j ~q: k )M l ~q: r 1L y F   F  ]a ' F n Tj   e 
  y 
  g 
 k $_ 
 x $_ 
   
  $_ 
 $_ 
; $ 
 $_ 
 $_ 
 $_ 
i  
  
G 1 
 $_ 
  
 $_ 
  $_ 
K $_ 
R  
 y 
  
@  
p  
 $_ 
 $_ 
  
	N $_ 
	 $_ 

 $_ 

U $_ 

z y 

  

  
9  
 $_ 
i $_ 
  
6 y 
; $_ 
 $_ 
  
 $_ 
 $_ 
N $_ 
T  
b y` 
i k}  k} A N[ i   i T K DH  z   z   =ug    .     ` !  l ! 
 l ! j ! l !  ! e !Q  !T  !  !  !4 	> ! l ! l !  ! 	> !  !  !  !  !h e !  ! l !	N 	> !	e 2 !i  !  ! 2 !b ZZ !i #" !y z $
- s &  s &  & s &n s & s & s & s &  &
\  & 3 ' 3 '	n (| '
 3 ' 3 ' N[ 5
c N[ 5
y !
 7  z <v z =N   ?1 :m" ?4 z C  H D $L J { J9  M   M M  M  M  M   W   Y   Y   _  : _ M. e  Tj e { i  { i " k  ' k ! D k k  k  ki  k'  k  k  k  k  k  k  k  k	N  k  ki  k i;( kb ' ki   l  H m  H m| =f mi q o  p  p	 z q   w[ z   N[  [   z L Rc       Z    Z 	2 N[   N[  ! [   _ ~ :m"   :m"   z   dD F U(2  0 n z   :m"   Ul  5\  s  z ' J   Tr  s  s n z     6  k    6  6 i 6 b 6 i !
  _  D5I  dD  R Y   gt      b  b  b 	N G  ]     4E k l  
   z  I   =f   ]    _    / -y   L<        '    	N x  l i   b b  i "   }  z e _  Y [   _   (   f             4    K ~ 	  
      b T: i j   b  ! b  b y !
   C     ! /  /  }8  }8 T }8 i }8  }8 ' }8 n }8 
 }8  /  / b !
   z   ' G 


 _  _^ _ c 0]
 !

 nW	 nW	 nWi N[ N[b (R  :m"  R RZ R; H T H b #  "$  F$ !
%  '  ' $L(  {+  l/  l/	 w_/J f0 k f0  0 0 0p 0^ f0 :m"1 j5  j5 
 uz5n j5
m j5 )'6  6 
  6  6  6  6n 6	N C6
m  6 C6i  6 w_7  l77 D7 WPy7b G:  z; I<=  r=  i{== qI= > UlD  (VD UlDb E  F I HM  M  ZM ZM MF Mi Mb RP RP !
UZ G] 0]^  ^ z`y zy }    (   z  nW  nW' nW nW   [     
   i G 	L z  zG F. 3  @* ! bq y   
 y y y   9 F  } k ]  Hi H ^  qIT r i{ r	N (   
    = q   4 G 2 3  i n    z  	 
  1 i 2 2b   (  z G  > 5  # !  '    ~  ' # # #  ' e7  ' #	N e7i O #y $L $L;    0]     C  :0 C : C CX p  w_  l ! !

 8  8 8i :m" & :m"   3* gy gy i   _ : 4  : p (  z
   z z  _6 #  N[%5 !
+' {,  {,r $L.  H1h H1I =f1i g4  : ! :m"; N[L O  8O ! O # O O& OF Oi S zV	 pW  a  Gh
 i  Rk  dDkW .kl  il .kl m 
 m mi m Ip  R s   |  z}  }~ F~ F~ J|~ P  D, D 2' 2 P % DG D R Dm D z  Tj Tj; k}        ?   B G  	 	 	 e  { - R  r  qI i{ r Ul  s R    (R _ .   $pp 3Q i $p   3 $p $pi T N[ {  $L/ Ry    U < ' Ry  
 Ry! / , !
  :m" nWi    gy gy z  :m"i . ' '< F '< k '<  '<  '<  '<  	*  	* '<( '< '<% w ~ '< [ '< 1 '< 	* '<, h '<i '< '< '<& ? 	*@ '< '<  1 . 1 '< . 	*B '<G  '< '< '< '<	\ '<
q .
 C ee '<f .x 	* f '<  '< { L .; .D '< '< '< F  
 
 
  
 F 
l F ?'  
  
 
:  ?	! 

 ?
 

 F 
" 
 ? 
 
i z z ! ( :m"   :m"  zO z  z    z  k 5\  s  !
  T DH z%~ !
* -  3- 3-i 5  {5 z= N  Y  Y !
p  zq  zu zx  zp c,P  !
  "  Z[ z  8}  >' 8}
! {c X !
 :     \  
/ \ \ \ \G \ 0T \	 z
 \J   N[  nW ! I zQ  [   ! _  T Wq {  b {  QM q\	| k}   ' $L  z3 G #     Q  #.  ~ 6 7 	A  :m"  :m"  :m" ! a;   
 M  *  2; *F    F j/ @
 uzJ j %P   !  k 2V    '   : 	N i  b _	Y 2        	/ 8	N 8   	 z       G !
        Rc ` p\6i {  G  	N   .  | 
 [ k [I  [ [   [3 [T 4  [7  [ [ [ [	- 
m 
 sa [ & sai [  [\ o [ b :m" ('  (' 
 s'  s' & s'  s'$ #'K t' *' s' *' s' #'4 s' ' s'	$ '	- s'	 '	 s't s' s' *'& Z'i X' *' {,  {,	 1  p5 N[9   < !
= nW>  N[C  `-N  N[Oi Q  oQ oQ oQ ^zQ (0Q (0Q oQ} 	Q	N /Qi /Q Qb 
	R  gR ! 9R zS  5sT  4T ! jZT 4T 4T TT 4T 4T 4T4 AT 4T2 4T T 4T: 4TF V9T 4T	 4T
 V9T OTi 4T Tb 4Td 4Ti :m"U ! N[h  N[h 0i  )0i 
 i ! i # i D i  i5 iO il i .i i9 i i4 l8i i2 Mwi i i iS in i i i
> i
m i
 i i iA Smii i i .i Mwii k 
  k' k' 6k k !
n st t' tn 1t
 8{  :{. |  4Ei !
  k k !
7 z > 
 k >' > :m"i :m"F {Q   " E : :w Q 
 i- i }  J| F :m"  :m"i @  {
U N[ G  H  H H	 zE z  N[  N[ N[' :m"  N[ ! $L  { N[  =Q Tj  Tj R dD	3 d  d ! d d' d e d d+ d v@ 

 (o (  :m"    6 zi z  DH TG nWy "  4 
 gg  E ! E & E M E N E k )  E gg E gg E E ) E )  ) gg  E  E	3 E	N E EO  )i z =   !
   2'  
' 
 %y'  %y' ! {' k %y'  %y'  %y' %y' %y' 4' %y' {'' M'i %y'4 %y'K x' %y' ' {' %y' %y' M' x': %y'= M'K M'Q M' %y' %y' %y' %y' %y'	 A'
w %y'
 %y'h %y' %y' %y' %y' %y' %y'+ %y'^ %y'i %y' %y' %y' %y' A' x'b {'i SX.  . 
 .= . .u . . . . N.i . .' .. .4 N. . . . N. N. .; . . .7 .} *=. . N. .	N .U 1.i . .a .b .i z/ N4  4 
 4 k 46 4 4 r4 4 4 4' 4R 4T 4i 4 4 4 4' 4K <4 4 4 4 <4 4 <4 4 4 4F 4 <4 4	3 4
> 4
 4 4 4 <4b 4i ?  6<@  @ @ 1@ 1@ @1 {A  {A {Ab ~G  -;GM CG }8G ~G /G }8G ~G /G9 }8G G ~G GHR 1Ky )KS IN  zO 4EP 
 nWP  lW lWb X  Y :m"Z  :m"a	N zd   e  :m"f' nWm  4EmT nWmm qq  N[r Gu
 z  z :m"} 0]~p ]~^ Zx   
 f5 6  'r f f f  ' T i   L   f:  ( 	N 
m  ( ali  f f 'r b d $L  {P   :m"3 :m" N[ k `-    i  i !
  :m" T  $9M T T N[  N[	n a   
 $ ^y V  ^y 2 ^y' VT  m 8, V ^y aF  a V 	   ^y i !   .b   ^ '  f f q  C[  ( 
 ($ (I ( g oG ( p FT -0i (' oG oG oG oGF (p -0 ( oG	2 (	 (
 ( ( oG oG oGi 9  9 & 9  9X 5\  s & 5\ s s z   %  7 
  !  & s D  k   s0 - sO s  s s s s s' Q 7t  4  s s  s2 sQ sU   sn  J s s[ s s s	
 
  s s s" sc  ;  s s s - 7i H   
 ! k !  !5 ! g ) )l ! ! ) ! W )' Wi ! ! )' !4 W g ! ! ! ) !2 00 ! ;F !^ !q ! ) )
 ) ! W !5 gb ;i :m"  !
 ^  ri  F { p (R 4E  &  Ry k J &'      g  0 U(2b R  R	 dDc   8 8 8  i > > > iT .k  
  k | { {R fT { { { {
 3*  gy p gyb F  F }  9  7  7M 7  9 1O? D  9 k  9  9G 1O   9 7 7	 7
n  9
q 7
 1O
 7
 7C  9c Oe kf 1Oh 1O 7 Q{ 7 7 1O; 4QC  	n   {  A  :6 : : : :' 1 :	N :
= :9 I !
  :m"  WPy   l  Tj"  M." s%  Ul% & s% s% + gt/  1/ ! 1/ 1/, 1/	N >(/b _m1  61i .e2  42  2 42i ,2 2 2 2	L I3  nW3 0]7 7 z8  ;  W; P`; P`; P`; t;i zC  zH !
K !
K zL  8}M  kM  HQ  ]Q *Q  nWR {U  $LU  k\  >\ %j  jj uzj jj bj zo (Rx (y  z~  H. ] :  z  
1   &  D   > x   > &' Y '  >4   , U  >V j   > . i &n    Y 
\   &   >i _     
    -~  	  zT   z   }i J| N[  nW  nW nWt Tj 
 Tj Tji :m"  z  !
' p !
  F  J| FO zT z  8 8	 8 z1 G  h 
 G  &| & & b & G &G & G &+ &O & G	
 L	N 
> &
 Ld &i b :m" N[ +  E4 DT b Kd 0*   i A  G    l .`       z    z ! `Y  b ! b\ `Y
 _ :m"	N :  	N   $9M  :m"	 zm A  P`    W  P` P` W P`
> W WQ z' N[ N[
@ G  ]&  ]& ! H& ( 1, 6,/ 1, o", o", .  . 
 6. ! . . 6.' . .@ . 1  \1/ &1< fu1
 &1
 [01$ 1J [01 \1 !
3  6  36 cX7  7 7; 77 7 7	 7
 Z7 c:  : : : Z:i >i  @  8@' @@ B B B B 	EF  F 
 KFO F KF F KF KF/ KF2 KF\ KF, KFr F F 	EF KF	 KF F F Fi =QG D5IK  RKT 4EO  ~aQ  ~aQ QW  Qi O%S  @*S
 3S 3Sb WV  z\  4E^  nW^b z`  Rc dDd  Rd 9i, 9i zl	n _=n  Fn ! }n k n( Sn Nun- ^n Fn ^n nv ^n n^ Nun` nb "ni N[o  p  p k p  {Ip p pU pi Iq nWq tb :m"u v Hw Y Hw^ ]w  {7 }  k~4 E      _  _i I  !
z !
   P`  W	N Wi b ]  _T  z  DH  T k      J J i 1 2$x 1i -y  tI= 
  ! y  CG J a J CG     i :m" ]a F; F  
 :m"    k   r0 I M     Q   " / Q , O i n o    	
 	+ 	3 	@ 	F 	U 	^ 	g <
\ 
 <
 
  w !
 !

d G  :m"   s s' z	 @* 3' 3    ; z :m"R H  ]
X H !
u z
 z  	 8}  > >	N ki ] Hn z. !
 z z0 z< ( . :m"!
 :m"! !
( 5 <  < <1 zCz zL. sO  sOk (VO sO7 X GY  !
[b h  fh ) h fh" :m"m  zn  pe xv 
W  %^  2    , D5I  dDi   2 z/V 	\ )7	    > 
 > > > 5 nW   	 n 	
 
  :m" :m"i (R  z  `-  !
  !
 H  H s  1 1 b u  R z G !
T z  T	l zY !
 _ 8 k
' 8. k}  QM _ k} k} k} z0 z  _ :   &V%  a 
 a ! " & i; '#i a4 "G i; a D " i; " '# " " " 4E  z  !
4 l  l` la l	 w_)           :m"@ 	
   	
 ! p	
i K	!  G	"' z	# 3	+ k 3	+ 	+ *	-  H	- H	-	N >	2  d	3  	3 
 	3 k 	3I &7	3 -	3 	3j 	3 	3	3 -	3 (	9 T	@  T	@ k T	AQ T	A ]a	L  	N  	N M '	N  '	N 	Ni '	N '	N 	N '	N '	N E	N[ 	Nb 	Ni z	O  	U0 (	V  [	W :m"	Y 8	^ ! 	^ k 	^  #v	^ 	^y 	^ 	^i _	aK 	e  	e 	eF 	e 	n  y	n 
 y	n 6	n 6	n^ 6	nb  	o	 z		N N[	   	. 8	  	 
 	  	$ 	 	 	 ,	T 	. 	 	F 	 		 		 	 sO	b z	d 	i z	l I	  U	  DT	  DT	  B	 	i K	 DT	 K	 DT	 DT	 	a DT	 K	 _	 N[	 k R 	x !
	T g	  P`	 P`	' 	 t	 P`		 P`	 	i nW	  nW	' !
	 	 	  	! 	 	  	' 	 >	 >	i >	 >	 !
	 !
	 (V	  s	 :m"	i 	  	  	 ~a	  	q 	  4	| 	 ,	 	 	F 		e 	 !
	 !
	 :m"	 	  [	  	 `-	  	 	
D R 	 r	  i{	 r	i i{	j i{	 !
	 !
		 z
 b
  b
 & b
 b
 `Y
C b
 b
b N[
  !

  p
!  N[
! z
,j z
:i z
<  z
= w b
>  b
>0 X
>n b
>p b
> z
DI z
E z
H  T
J  !

P9 H
U  H
Uo >(
\  
\ 1
\/ 1
\, p
c5 z
d  :
j  j
m  j
m	D j
mi !
q ! uz
w  %
w @
w :m"
x  
yi 
  
 k b
c 
p c
 b
i G
  4E
i p
 N[

  
	^ z
i 
  
 ! 
  ~
 {
' z
 G
  
  :m"
i 
 (
 ]
  H
1 H
	N _
  1
  1
 ! (^
 
 $L
  {
P {
B {
i 
  
 
N ,
1 
< 

r G4
J 
 
 
 nW
T 
 N\
9 
 
 }

 }
 z
  {
 {

 :m" z	  z    0]    b !
' dD k RV dD R R  dD '  (R+" N[/ m N[/ !
88 J|9  F9 k F9 l }9i M.=  TC gC' FJ  pJ gyJ gyJ gyJb _O  J^ >^	 k^	 N[c( N[cn N\e  e' .e e 6e N[f  N[f ! 0]h  hy k  zp  DHr ww x  {  @v  } } E  z/ k  z     ` =i Vi 	D   ! '# ' E '  E '' ' ' E7 ' E	 '	 '	 E E }.^ 'c ' ' '6  i N[  N[ z {@ X   G  j    Ge z  k!  , S  [ ! d`O  ;    E *2G  ~    i !
  N[ N[ N[ J   Ry '    G :m"  _*    4E  nW :  {  =Q !
H   N[` Ul 4E  Ul  s :m"Z :m"\ z  G  z DH  T Tb {  { !  #v  / 
 /  }8 }8 }8	L }8 }8 ~ z	   8 8G 8 8 89 {  w_  l ! li    =Q	 {b J|  FG F F` F	N G  R  R/ R R
 RJ k  nW  nW nW, A  `Y bv M.  $9M! T! DH! j"  .k"Q .k"i I&  + F+' F+h J|+i {. {.' =Q. N[/  N[/ N[/3 !
0 !
0 31 31 bq1' 31h QM3  k}3 k}3 k}3' z8 F9  9< Tj; M.; Tj;J sAn {B =fC  HCb E  J ANi R  U  zY  O@^  \^ i qb^  qb^ qb^p .k^ .k^o .k^ $L`  {` ! a  ic  c ! c	N .c @ci d k i  !i !i6 !il !im Wi !i )iN )ii !i{ !i )i' !i. !i4 !i )i )i ;i !i Wi7 !i Wi )i )i !i )i i !i !i Wib 00ii zl  (y1 {  n{ +{ +{ n{ +{ p  N[ h4  z6 :m"
   i `-     N[   Y i     cX  :m" K  !
i F Gi {  z :m"  :m" Z    M ! L   a W  h4	     W Y @	^ O z [ !
   N  T z   i 2  [0 [0 [0 	 [0	   l  w_> lb 2      1 b i  ` ]a  F z  z  (R  1 (Z z    4^ 
 r F    4^' 4^Q Fi 4^  4^ 4^  ~\     F 4^    y ,b 4^i {i j<   D' G D      =i  z z  N[#T %d &  - 
 -y6  Tj6i `;  ^W;' `;~ `; @; ^W;n `;	 `; V; W;i <i D@ svD !
G  q\I k k}I' k}I xJ L 
 pN  N[N 5\O  !
Q zW Z z[  +a :m"b3 _dr lo  lo zq} w  w wi 1y  y G   H  @ 
   i   JW 2 ;  h  	N 	   5 z  :m"  D :m" Na  a; 
  & E   * 
j *
    j jG b J    G 1 < 	 5aC
 J N[ > p  0]_ {  l  l ) &Q 4 4E  nW < (  ^W  ` 
 `6 ` ` ^W ` `w `s    gy ' gy gy gy gy' I<   1  *2i Ul/ s s _F k  > > kb :m"       q  q   
   qM qb  q   3 3  ' 3T q' 34 q@ 3 q 3  q 7 n   q  q	3 3	^ q	 q	 3
m q  q q & q q R   N[	a zi T  T1 T z@ c,P H H _
' _
 y G'  [1  d4  c4  c4 4 	4 d4' 	4. d4 c4 c4d 4 c4 c43 5  5 e 5t D5' 5 p6  8  Tj88 `-9  z:  z@i JJ nWT zW  zY  [  ] jHb  +b 
 8
b J /,b  +bk +b  b +b5 +b +Yb /,bQ /,bT /,b  b /,b'  b. /,b +Yb b +b +bQ :b /,b +b +b +b +b	^  b +b /,b +b  b +by +b 4b /,b +Ybi Cd  }d dT di }dQ }d }d %^i  
i 
 
i  -L4i  ii  
i  mi -L4i6 -L4i~ -L4i ii -L4i si -L4i -L4iS iia -L4i 
i -L4i mi Vi mi -L4i i mi mi' 
i ii -L4i mi i' -L4ii -L4i} si~ -L4i -L4i 
i mi -L4i7 -L4iM -L4i i -L4i 
i -L4i@ -L4iL -L4in ii mi 
i -L4i mi -L4i -L4i -L4i	@ i	 -L4i	 -L4i
 i
J 
i
w -L4i
 -L4i
 -L4i
 ii
 mi -L4i si -L4i -L4i -L4i -L4i% -L4iN -L4iO -L4iZ mid -L4io mi -L4i 
i mi -L4i5 -L4ii !
ki Yl  ,Fl Is  R u  zv y  Y.y %y %y {  
\end\
