~o
<STREAMINFO> 1 36
<VECSIZE> 36<NULLD><MFCC_D_A><DIAGC>
~s "silst"
<MEAN> 36
 -1.948052e+00 2.566976e+00 -2.415455e+00 4.947235e+00 -2.895102e+00 1.699215e+00 -3.445596e+00 1.944457e+00 -2.829117e+00 -1.597640e+00 -2.523141e+00 -1.124246e+00 -6.293832e-02 9.010821e-02 -6.427700e-02 5.009737e-02 3.561858e-02 6.744657e-02 3.190861e-02 8.154558e-03 1.600948e-02 -9.529100e-03 4.568316e-02 5.747466e-02 1.152112e-02 -1.661552e-02 2.691668e-02 -3.868807e-02 -6.869485e-04 -1.293856e-02 -1.637583e-02 -1.922684e-02 -2.283958e-02 9.379858e-03 2.230628e-03 -2.874359e-02
<VARIANCE> 36
 1.096730e+01 2.148897e+01 1.760309e+01 1.635559e+01 2.357215e+01 2.679440e+01 2.464266e+01 2.864849e+01 2.446176e+01 2.550695e+01 2.340586e+01 2.204062e+01 2.663481e-01 6.569020e-01 8.110363e-01 9.959741e-01 1.267864e+00 1.481680e+00 1.602348e+00 1.831728e+00 1.783646e+00 1.777486e+00 1.667126e+00 1.535182e+00 4.918947e-02 1.143254e-01 1.511974e-01 1.977101e-01 2.489449e-01 2.900791e-01 3.186994e-01 3.613153e-01 3.543038e-01 3.521081e-01 3.279580e-01 3.041421e-01
<GCONST> 8.695557e+01
~h "a"
<BEGINHMM>
<NUMSTATES> 5
<STATE> 2
<MEAN> 36
 2.475669e+00 -9.868104e+00 -7.306362e-01 -7.527351e+00 -4.609829e+00 -1.183163e+00 -1.036372e+01 5.508965e+00 -8.281270e-01 9.554833e-01 -1.841087e+00 -1.181285e+01 2.010203e-01 -1.231194e+00 -2.242069e-01 -7.376850e-01 3.588316e-01 5.134321e-01 2.629095e-02 1.051662e+00 1.730307e-01 -2.167787e-01 -6.326341e-01 -8.667629e-01 -1.709776e-01 7.677425e-01 2.027162e-01 6.693143e-01 4.797906e-02 -7.550268e-02 2.715501e-01 -5.923184e-01 -3.854945e-01 -8.857180e-02 7.419629e-02 6.007627e-01
<VARIANCE> 36
 9.492618e+00 2.768914e+01 4.499336e+01 4.427771e+01 5.724798e+01 8.335773e+01 5.974777e+01 5.902700e+01 6.825147e+01 6.747029e+01 4.907666e+01 5.101918e+01 1.046061e+00 2.580922e+00 2.680641e+00 3.259384e+00 3.559578e+00 4.064621e+00 3.712576e+00 5.054696e+00 3.740693e+00 3.892568e+00 3.533714e+00 3.316631e+00 1.912397e-01 3.828681e-01 3.797764e-01 5.248673e-01 5.845851e-01 6.376806e-01 6.257448e-01 7.914011e-01 7.036065e-01 7.115766e-01 6.275190e-01 5.507097e-01
<GCONST> 1.184647e+02
<STATE> 3
<MEAN> 36
 1.994833e+00 -1.111960e+01 7.809170e-02 -8.037866e+00 -4.431291e+00 -1.205968e+00 -1.015961e+01 7.059970e+00 -6.864534e-01 -4.103042e-01 -2.530223e+00 -1.244521e+01 9.018623e-02 6.891457e-01 1.463999e-01 7.590166e-01 1.508877e-03 -1.621696e-01 2.571757e-01 -4.261141e-01 -4.673650e-01 1.480201e-01 -4.174738e-02 5.289977e-01 1.127495e-02 5.929283e-01 1.120341e-01 4.623948e-01 -1.276567e-01 -3.516271e-02 8.079400e-02 -5.230741e-01 -1.754992e-01 1.067329e-01 1.169219e-01 3.241230e-01
<VARIANCE> 36
 8.365123e+00 2.558118e+01 3.886024e+01 3.713257e+01 5.628215e+01 8.001039e+01 5.410224e+01 6.283797e+01 6.744534e+01 6.680357e+01 4.999454e+01 5.504956e+01 4.520280e-01 1.531860e+00 1.572610e+00 1.807532e+00 2.079938e+00 2.869327e+00 2.449009e+00 3.258279e+00 2.381287e+00 2.583954e+00 2.439906e+00 2.073786e+00 1.093291e-01 2.238796e-01 2.982432e-01 3.180719e-01 4.092994e-01 5.155004e-01 5.091973e-01 6.401228e-01 4.936251e-01 5.682338e-01 5.170904e-01 4.220351e-01
<GCONST> 1.081242e+02
<STATE> 4
<MEAN> 36
 2.900057e+00 -5.456914e+00 -1.876290e+00 -3.077209e+00 -3.462665e+00 -8.770012e-01 -7.515450e+00 3.294832e+00 -2.830984e+00 1.071107e+00 -3.252771e+00 -8.700111e+00 3.947574e-02 1.277659e+00 -1.895492e-02 1.243694e+00 -1.474220e-01 3.174299e-01 5.238895e-01 -8.138118e-01 -3.130198e-01 -7.498738e-02 -1.482454e-01 6.044053e-01 -8.236644e-02 -9.328361e-03 4.832985e-02 -4.049285e-02 -2.342394e-02 3.418870e-02 9.638492e-03 -9.989193e-03 2.961931e-02 -7.324640e-02 -1.413154e-02 -3.648610e-02
<VARIANCE> 36
 8.970594e+00 3.007785e+01 4.565422e+01 4.233413e+01 4.476356e+01 6.090242e+01 5.139406e+01 4.840314e+01 6.043258e+01 5.493278e+01 4.490614e+01 4.244195e+01 5.373103e-01 1.336339e+00 1.597830e+00 1.961588e+00 2.110663e+00 2.504122e+00 2.397386e+00 3.041137e+00 2.628934e+00 2.577189e+00 2.306757e+00 2.077585e+00 1.057980e-01 2.120713e-01 2.459645e-01 2.994022e-01 3.304383e-01 4.272557e-01 4.240743e-01 5.050346e-01 4.245442e-01 4.166223e-01 4.090724e-01 3.618573e-01
<GCONST> 1.051142e+02
<TRANSP> 5
 0.000000e+00 1.000000e+00 0.000000e+00 0.000000e+00 0.000000e+00
 0.000000e+00 4.034770e-01 5.965230e-01 0.000000e+00 0.000000e+00
 0.000000e+00 0.000000e+00 5.651630e-01 4.348370e-01 0.000000e+00
 0.000000e+00 0.000000e+00 0.000000e+00 6.398211e-01 3.601789e-01
 0.000000e+00 0.000000e+00 0.000000e+00 0.000000e+00 0.000000e+00
<ENDHMM>
~h "b"
<BEGINHMM>
<NUMSTATES> 5
<STATE> 2
<MEAN> 36
 4.947266e+00 7.431622e+00 1.895598e+00 5.380960e+00 -3.679544e+00 2.205865e+00 -6.692720e+00 -3.267142e+00 -7.563571e+00 -2.524195e+00 -2.726000e+00 -4.890246e+00 2.996057e-01 1.764651e-01 -2.989985e-01 -3.819921e-01 1.419386e-01 -2.081598e-01 -3.281319e-01 -3.375194e-01 -6.320050e-02 -8.887922e-02 3.145527e-01 3.016202e-01 -7.045976e-02 -6.684374e-01 1.870661e-02 -8.565289e-01 -2.591480e-01 -2.472364e-01 -6.637491e-01 -5.843578e-02 1.610967e-01 4.856467e-01 5.135953e-01 -6.975786e-02
<VARIANCE> 36
 7.491891e+00 2.203026e+01 1.837242e+01 2.110890e+01 2.669407e+01 2.844094e+01 2.999489e+01 2.591900e+01 2.423925e+01 2.278161e+01 2.275702e+01 2.303550e+01 7.090968e-01 2.057322e+00 1.446070e+00 4.418457e+00 2.216083e+00 2.505787e+00 3.592982e+00 2.979259e+00 2.918734e+00 2.728578e+00 2.960811e+00 2.009379e+00 1.231547e-01 4.089274e-01 3.258357e-01 5.426716e-01 4.582100e-01 5.652504e-01 5.651911e-01 5.983763e-01 6.608346e-01 6.246212e-01 5.389897e-01 4.918669e-01
<GCONST> 1.039013e+02
<STATE> 3
<MEAN> 36
 6.012046e+00 4.493925e+00 2.870330e-01 -1.985012e+00 -4.500309e+00 1.343575e+00 -1.104916e+01 -6.549052e+00 -8.996424e+00 1.784861e-02 2.069668e+00 -3.005517e+00 3.126129e-02 -2.297284e+00 -7.768016e-02 -3.224304e+00 -6.677794e-01 -5.084378e-01 -2.753777e+00 -1.494229e-01 1.004253e+00 2.385595e+00 1.993695e+00 -8.687832e-01 -3.131019e-01 -5.123328e-01 3.339390e-01 9.918098e-02 -2.306291e-01 -1.132919e-01 -4.337830e-02 6.622312e-01 5.947380e-01 2.157032e-01 -3.065442e-01 -6.955584e-01
<VARIANCE> 36
 6.963264e+00 2.837854e+01 1.920258e+01 7.350520e+01 3.801887e+01 4.078153e+01 4.035326e+01 3.431094e+01 4.013574e+01 4.367231e+01 3.806294e+01 2.732203e+01 1.004060e+00 3.986454e+00 2.876421e+00 6.858968e+00 4.008417e+00 6.049947e+00 4.634196e+00 4.838001e+00 6.888047e+00 6.492005e+00 5.031445e+00 4.589867e+00 1.256785e-01 4.345903e-01 3.912606e-01 1.090334e+00 5.883062e-01 7.138463e-01 6.984043e-01 7.949644e-01 1.010943e+00 9.036011e-01 9.561517e-01 6.361859e-01
<GCONST> 1.195021e+02
<STATE> 4
<MEAN> 36
 5.315222e+00 -2.121880e+00 1.152603e+00 -6.496234e+00 -6.112965e+00 1.556150e-01 -1.699635e+01 -3.861400e+00 -2.900147e+00 6.079923e+00 4.191410e+00 -8.890024e+00 -6.100857e-01 -2.349968e+00 7.156695e-01 -1.351720e+00 -9.574071e-01 -1.036596e+00 -1.374368e+00 1.822282e+00 1.956597e+00 7.950217e-01 -6.151100e-02 -1.744921e+00 -2.254506e-01 5.027448e-01 2.354938e-01 9.328733e-01 6.689554e-02 -2.016636e-02 9.331493e-01 3.497011e-01 -3.010866e-01 -9.036251e-01 -7.213200e-01 2.724268e-01
<VARIANCE> 36
 6.299667e+00 4.734594e+01 2.821564e+01 9.353621e+01 5.604937e+01 6.471008e+01 5.643531e+01 4.348297e+01 6.530106e+01 7.200314e+01 6.854172e+01 5.375314e+01 9.092647e-01 3.398550e+00 3.648104e+00 5.894530e+00 3.528781e+00 5.329824e+00 4.836207e+00 6.147476e+00 7.063029e+00 6.002756e+00 6.719635e+00 5.566706e+00 1.138694e-01 4.952319e-01 3.521497e-01 1.150227e+00 7.697670e-01 7.143360e-01 7.983758e-01 8.057913e-01 9.847192e-01 1.162941e+00 1.189233e+00 8.000737e-01
<GCONST> 1.255683e+02
<TRANSP> 5
 0.000000e+00 1.000000e+00 0.000000e+00 0.000000e+00 0.000000e+00
 0.000000e+00 7.010549e-01 2.989450e-01 0.000000e+00 0.000000e+00
 0.000000e+00 0.000000e+00 3.528595e-01 6.471405e-01 0.000000e+00
 0.000000e+00 0.000000e+00 0.000000e+00 2.878810e-01 7.121190e-01
 0.000000e+00 0.000000e+00 0.000000e+00 0.000000e+00 0.000000e+00
<ENDHMM>
~h "c"
<BEGINHMM>
<NUMSTATES> 5
<STATE> 2
<MEAN> 36
 -2.182333e+00 3.688005e+00 -9.734783e-02 1.293073e+00 -3.296013e+00 -2.547106e+00 -5.400697e+00 -2.516543e-01 -2.926384e+00 -1.251812e+00 -1.900213e+00 -2.999653e+00 -2.604635e+00 3.269452e-01 3.642691e-01 -1.249231e+00 1.302855e+00 -7.639863e-01 8.111130e-01 -3.520103e-01 2.370897e-01 -1.687259e-01 4.598165e-01 2.161934e-01 -4.276936e-01 -1.926889e-01 5.485028e-01 -3.868341e-01 -3.377456e-02 -5.470681e-01 -1.960254e-01 -1.935874e-02 2.000067e-01 -1.122224e-01 1.946961e-01 4.439684e-02
<VARIANCE> 36
 2.298929e+01 2.251429e+01 2.788667e+01 2.619319e+01 3.538574e+01 5.071859e+01 3.366584e+01 4.450746e+01 3.008201e+01 2.498254e+01 2.709289e+01 2.438392e+01 3.383550e+00 2.531783e+00 2.931706e+00 3.477918e+00 3.375621e+00 4.022755e+00 2.709093e+00 3.473718e+00 2.786853e+00 2.689612e+00 2.553580e+00 2.102255e+00 8.765921e-01 3.867796e-01 4.066749e-01 5.836449e-01 7.010357e-01 6.422840e-01 5.741743e-01 6.567589e-01 6.016428e-01 5.654221e-01 4.446682e-01 4.076768e-01
<GCONST> 1.128625e+02
<STATE> 3
<MEAN> 36
 -1.430549e+01 5.099119e+00 4.744723e+00 -4.739191e+00 6.941135e-01 -7.086729e+00 -2.729579e+00 -8.208300e-01 -7.121344e-01 -3.889148e+00 7.938930e-01 -1.543141e+00 2.494331e-01 -1.175048e+00 1.442779e+00 -3.909993e-01 -1.149324e+00 -1.535247e+00 -1.079434e+00 3.897206e-01 6.156097e-01 -5.040509e-01 3.553776e-01 2.850700e-01 1.953165e+00 -7.482921e-01 -2.428332e-01 4.890194e-01 -9.368265e-01 3.856634e-01 -8.243328e-01 2.130627e-01 -1.441519e-01 2.745635e-01 -1.202792e-01 -2.537437e-01
<VARIANCE> 36
 1.565873e+01 2.641663e+01 2.873494e+01 2.812773e+01 3.952953e+01 5.055716e+01 3.459148e+01 3.582848e+01 2.981102e+01 2.751412e+01 2.595751e+01 1.999765e+01 9.502902e+00 3.576075e+00 3.159057e+00 3.814982e+00 5.203025e+00 3.868524e+00 4.390845e+00 3.756943e+00 3.502898e+00 3.103298e+00 2.593908e+00 2.259322e+00 5.232589e-01 6.810317e-01 6.230881e-01 8.270875e-01 8.406363e-01 7.097590e-01 6.200700e-01 7.794722e-01 9.238346e-01 6.205689e-01 6.568356e-01 5.521134e-01
<GCONST> 1.180333e+02
<STATE> 4
<MEAN> 36
 -2.382801e+00 -3.300408e+00 6.588837e+00 -2.926305e+00 -7.324065e+00 -1.029369e+01 -1.117747e+01 1.935087e+00 1.280722e+00 -3.774432e+00 -1.660433e-01 -2.384408e+00 3.722818e+00 -2.675133e+00 -3.658207e-01 -2.820335e-01 -1.900253e+00 5.752912e-01 -2.223972e+00 4.909081e-01 6.990497e-02 8.564641e-01 5.846350e-01 -1.325883e+00 -2.026519e-01 4.932303e-01 -6.146979e-01 -1.098305e-01 5.518306e-01 9.631466e-01 5.939004e-01 -2.742372e-01 -5.085030e-01 2.676928e-01 1.083517e-01 -3.403393e-01
<VARIANCE> 36
 1.330182e+01 3.363461e+01 4.134545e+01 2.544081e+01 2.707415e+01 3.790307e+01 5.473397e+01 5.535497e+01 3.510474e+01 3.311283e+01 2.002159e+01 1.729863e+01 2.333027e+00 4.018846e+00 3.556825e+00 2.927155e+00 4.061133e+00 3.489716e+00 3.894706e+00 6.574469e+00 5.124394e+00 3.811239e+00 3.567562e+00 3.161007e+00 8.291579e-01 5.480487e-01 4.361069e-01 5.311217e-01 6.171563e-01 6.382433e-01 7.447115e-01 5.969142e-01 6.214265e-01 5.883618e-01 5.407100e-01 5.490844e-01
<GCONST> 1.167365e+02
<TRANSP> 5
 0.000000e+00 1.000000e+00 0.000000e+00 0.000000e+00 0.000000e+00
 0.000000e+00 6.830994e-01 3.169006e-01 0.000000e+00 0.000000e+00
 0.000000e+00 0.000000e+00 6.288218e-01 3.711781e-01 0.000000e+00
 0.000000e+00 0.000000e+00 0.000000e+00 4.498588e-01 5.501412e-01
 0.000000e+00 0.000000e+00 0.000000e+00 0.000000e+00 0.000000e+00
<ENDHMM>
~h "d"
<BEGINHMM>
<NUMSTATES> 5
<STATE> 2
<MEAN> 36
 4.015151e+00 5.414664e+00 4.750276e+00 7.656939e+00 -6.736445e+00 -1.844420e+00 -7.622255e+00 6.338277e-01 -4.383978e+00 -2.484930e+00 -4.476362e+00 -5.289022e+00 1.271391e-02 -3.020497e-02 2.264782e-01 2.319422e-01 1.169508e-01 -1.854254e-01 -9.390236e-02 -3.373610e-02 4.569916e-02 -3.810234e-01 1.221148e-01 2.806327e-01 -3.453199e-01 -9.241813e-01 5.133791e-01 -8.469595e-01 -5.118040e-01 -5.276465e-01 -6.223434e-01 5.682684e-02 3.403991e-02 6.246379e-02 7.346001e-01 9.055357e-02
<VARIANCE> 36
 7.374084e+00 3.012274e+01 2.943185e+01 2.053863e+01 3.490512e+01 2.705065e+01 3.551013e+01 4.792860e+01 3.103328e+01 2.689844e+01 3.423999e+01 2.784010e+01 8.840548e-01 2.973478e+00 2.539734e+00 2.375489e+00 2.903421e+00 3.303091e+00 3.637791e+00 3.977418e+00 3.029625e+00 2.508335e+00 3.127117e+00 2.375911e+00 1.486786e-01 3.429280e-01 5.720691e-01 4.369230e-01 5.715884e-01 6.249495e-01 7.798873e-01 1.068507e+00 7.075277e-01 5.579615e-01 5.913041e-01 4.910228e-01
<GCONST> 1.098376e+02
<STATE> 3
<MEAN> 36
 2.707278e+00 1.087217e+00 6.038671e+00 6.280794e+00 -6.842006e+00 -3.394439e+00 -9.053912e+00 -6.443395e-01 -3.840933e+00 -3.374789e+00 -2.651524e+00 -3.066270e+00 -7.884178e-01 -2.490124e+00 1.968069e+00 -2.207746e+00 -1.662468e+00 -1.871043e+00 -2.304634e+00 5.262684e-01 8.335037e-02 -3.721621e-02 2.272467e+00 2.035151e-01 -1.426556e-01 -2.160434e-01 2.881624e-01 -7.802694e-01 -4.481829e-01 -1.795990e-01 -4.423917e-01 3.692340e-01 -1.296181e-01 3.566214e-01 4.718160e-01 -5.214350e-01
<VARIANCE> 36
 1.020606e+01 3.584359e+01 3.628716e+01 3.186407e+01 3.993528e+01 4.279511e+01 5.475091e+01 6.147169e+01 4.203043e+01 3.469794e+01 2.980086e+01 3.232491e+01 1.129099e+00 2.696944e+00 5.104547e+00 3.282815e+00 3.600088e+00 4.546504e+00 5.504871e+00 9.688428e+00 6.607455e+00 4.496302e+00 5.011164e+00 3.503217e+00 1.498433e-01 4.898103e-01 5.549803e-01 5.204628e-01 8.167410e-01 8.742953e-01 8.063939e-01 1.021210e+00 7.553683e-01 7.537436e-01 7.139303e-01 6.008659e-01
<GCONST> 1.200059e+02
<STATE> 4
<MEAN> 36
 1.419089e+00 -4.897962e+00 1.069465e+01 -9.864709e-01 -1.202323e+01 -8.946445e+00 -1.605842e+01 4.201643e+00 -3.147012e+00 -2.055096e+00 3.222565e+00 -4.708991e+00 -6.918793e-01 -1.638890e+00 1.105030e+00 -2.641856e+00 -1.450742e+00 -1.124661e+00 -1.619989e+00 1.323765e+00 1.299096e-01 7.385674e-01 1.732156e+00 -1.264241e+00 1.234528e-01 6.926793e-01 -5.405044e-01 3.395863e-01 4.363861e-01 6.480461e-01 6.765755e-01 -2.718658e-01 -1.442997e-01 1.602683e-01 -5.961663e-01 -3.250661e-01
<VARIANCE> 36
 1.000223e+01 3.208842e+01 4.823141e+01 3.854480e+01 3.893225e+01 5.323148e+01 8.294051e+01 1.087708e+02 7.578256e+01 5.057276e+01 4.310391e+01 5.385035e+01 1.080617e+00 2.649760e+00 5.908906e+00 3.202132e+00 4.138670e+00 5.032254e+00 4.950826e+00 8.456782e+00 5.917854e+00 5.493399e+00 6.103673e+00 3.850772e+00 1.111501e-01 3.633273e-01 4.203955e-01 5.648685e-01 7.596298e-01 8.516233e-01 1.068354e+00 1.167010e+00 8.806347e-01 6.407505e-01 7.248905e-01 6.271704e-01
<GCONST> 1.233868e+02
<TRANSP> 5
 0.000000e+00 1.000000e+00 0.000000e+00 0.000000e+00 0.000000e+00
 0.000000e+00 6.173165e-01 3.826834e-01 0.000000e+00 0.000000e+00
 0.000000e+00 0.000000e+00 2.245261e-01 7.754738e-01 0.000000e+00
 0.000000e+00 0.000000e+00 0.000000e+00 3.601758e-01 6.398242e-01
 0.000000e+00 0.000000e+00 0.000000e+00 0.000000e+00 0.000000e+00
<ENDHMM>
~h "e"
<BEGINHMM>
<NUMSTATES> 5
<STATE> 2
<MEAN> 36
 3.627163e-01 -6.483860e+00 6.903907e+00 -1.527378e+00 -1.116548e+01 -8.718912e+00 -7.331920e+00 5.215527e+00 -3.821758e+00 -1.460423e+00 2.211616e+00 -6.537222e+00 2.189571e-01 -1.456104e+00 1.654374e+00 -1.162690e+00 -1.728689e+00 -7.952045e-01 -3.486808e-01 1.655163e+00 -2.961815e-01 -2.818660e-01 1.039924e+00 -4.697983e-01 -2.108665e-01 5.041946e-01 -3.337487e-01 1.884520e-01 5.032976e-01 4.263430e-01 3.359638e-01 -4.202977e-01 -7.732245e-02 8.319913e-02 -2.603998e-01 2.302705e-01
<VARIANCE> 36
 1.240421e+01 3.306260e+01 5.613962e+01 3.328894e+01 3.996107e+01 8.037869e+01 8.472310e+01 5.286953e+01 7.922273e+01 7.022763e+01 4.564277e+01 3.956266e+01 1.591774e+00 2.196062e+00 4.251618e+00 2.316013e+00 4.101614e+00 4.091690e+00 5.069861e+00 4.469183e+00 4.365493e+00 5.083671e+00 4.377741e+00 2.800820e+00 2.688753e-01 4.472787e-01 7.902272e-01 3.903700e-01 6.649800e-01 6.914747e-01 8.321644e-01 7.542230e-01 7.745696e-01 7.629972e-01 6.289899e-01 5.188702e-01
<GCONST> 1.212208e+02
<STATE> 3
<MEAN> 36
 3.990657e-01 -9.036074e+00 7.258088e+00 -4.127451e+00 -1.203012e+01 -8.296273e+00 -8.218103e+00 7.502143e+00 -3.490497e+00 -2.093449e+00 2.745378e+00 -8.664035e+00 1.530627e-01 5.395036e-01 -2.694184e-01 5.185969e-01 2.487788e-01 3.369167e-01 1.630190e-01 -3.436698e-01 -1.161076e-01 6.917404e-02 -3.611048e-01 1.480204e-01 -1.982540e-02 5.952587e-01 -3.099250e-01 5.029551e-01 3.855211e-01 2.320171e-01 1.836247e-01 -6.189218e-01 -1.311601e-02 6.818819e-02 -2.674640e-01 1.804394e-01
<VARIANCE> 36
 7.420487e+00 2.863326e+01 4.652967e+01 3.027040e+01 3.291187e+01 9.466775e+01 8.029746e+01 7.148016e+01 8.473481e+01 7.734898e+01 4.696086e+01 4.395035e+01 5.795903e-01 1.627362e+00 1.553095e+00 2.103854e+00 2.060445e+00 2.328055e+00 2.958130e+00 2.868847e+00 2.608534e+00 2.835847e+00 2.235682e+00 1.859581e+00 1.647765e-01 2.974059e-01 3.926035e-01 3.658208e-01 4.801371e-01 4.558614e-01 6.966820e-01 6.279525e-01 5.836665e-01 7.090178e-01 4.953206e-01 3.971885e-01
<GCONST> 1.103397e+02
<STATE> 4
<MEAN> 36
 -6.579488e-01 -3.783787e+00 1.123305e+01 -2.290143e+00 -1.263319e+01 -8.900688e+00 -4.465620e+00 5.087098e+00 -8.681469e+00 2.747076e+00 3.956028e+00 -4.597446e+00 1.358951e-02 7.090365e-01 -4.756467e-01 6.834320e-01 4.543725e-01 5.738122e-01 4.662470e-01 -4.669775e-01 8.289163e-02 -4.927577e-02 -3.968434e-01 2.240008e-01 -4.428492e-02 3.779519e-02 -4.163334e-02 -9.226589e-03 9.537069e-02 4.602767e-02 1.264168e-02 -4.521290e-02 1.811317e-02 -2.676897e-02 -2.455803e-02 2.124469e-02
<VARIANCE> 36
 7.586167e+00 2.495068e+01 5.933696e+01 5.093419e+01 3.693377e+01 5.776107e+01 4.578823e+01 4.977759e+01 5.015594e+01 5.857331e+01 6.562012e+01 3.007325e+01 4.541206e-01 1.379117e+00 1.530318e+00 1.616053e+00 1.836175e+00 1.689239e+00 1.947024e+00 2.201740e+00 1.942133e+00 1.904345e+00 1.698028e+00 1.530783e+00 8.963638e-02 1.726277e-01 2.688946e-01 2.247577e-01 3.010558e-01 2.736686e-01 3.536913e-01 3.625164e-01 3.651184e-01 3.475843e-01 2.788141e-01 2.634156e-01
<GCONST> 9.947813e+01
<TRANSP> 5
 0.000000e+00 1.000000e+00 0.000000e+00 0.000000e+00 0.000000e+00
 0.000000e+00 4.822952e-01 5.177047e-01 0.000000e+00 0.000000e+00
 0.000000e+00 0.000000e+00 6.293535e-01 3.706465e-01 0.000000e+00
 0.000000e+00 0.000000e+00 0.000000e+00 7.844779e-01 2.155221e-01
 0.000000e+00 0.000000e+00 0.000000e+00 0.000000e+00 0.000000e+00
<ENDHMM>
~h "f"
<BEGINHMM>
<NUMSTATES> 5
<STATE> 2
<MEAN> 36
 -4.223339e+00 8.908009e-01 2.602428e-01 -2.726037e-01 -2.983052e+00 -1.706782e+00 -2.620842e+00 -2.278370e+00 -2.311590e+00 -1.232775e+00 -1.020338e+00 -5.358029e+00 -1.716606e+00 7.072788e-01 -2.558147e-01 -5.871431e-02 5.750884e-01 -7.781625e-01 5.174203e-01 -2.791822e-01 6.215335e-01 -3.846630e-01 -5.569991e-01 3.026233e-01 1.024633e-01 -3.783959e-01 1.920708e-01 4.546081e-02 -3.125214e-01 -1.305071e-02 -2.293037e-01 1.574314e-01 5.325091e-02 -8.728956e-02 1.140016e-01 -1.031097e-01
<VARIANCE> 36
 1.694878e+01 1.133304e+01 4.293280e+01 2.249112e+01 2.689730e+01 4.932089e+01 2.968571e+01 3.168726e+01 3.321334e+01 3.263887e+01 2.147944e+01 2.317585e+01 1.540098e+00 1.308524e+00 1.595046e+00 1.934014e+00 2.392299e+00 3.015411e+00 2.347649e+00 2.822533e+00 2.764279e+00 2.401166e+00 2.023915e+00 2.047006e+00 2.863953e-01 1.932631e-01 2.892298e-01 3.979467e-01 4.995393e-01 6.138322e-01 4.583959e-01 4.617293e-01 5.917596e-01 4.096129e-01 4.125481e-01 4.476714e-01
<GCONST> 1.036410e+02
<STATE> 3
<MEAN> 36
 -9.937629e+00 1.388997e+00 2.864694e+00 2.177989e+00 -3.512066e+00 -6.337084e+00 -2.717803e+00 -1.416435e+00 9.679495e-01 -2.284705e+00 -1.926937e+00 -3.318704e+00 -2.137523e-01 -6.586451e-01 3.535443e-01 7.172543e-01 1.951419e-01 -4.710867e-01 -3.720453e-01 2.633044e-01 4.448180e-01 3.537611e-02 4.357734e-02 2.742048e-01 8.022742e-01 -2.788691e-01 3.939618e-01 -3.908338e-02 -5.021499e-01 -1.496448e-01 -5.474579e-01 8.136306e-03 -3.931016e-01 -9.524135e-03 4.126281e-01 -6.858103e-02
<VARIANCE> 36
 1.241668e+01 9.799929e+00 3.245894e+01 2.120063e+01 2.509637e+01 3.661504e+01 2.619514e+01 2.616586e+01 3.608696e+01 2.376387e+01 2.069379e+01 1.542843e+01 1.675307e+00 8.918378e-01 1.588396e+00 1.296822e+00 1.640150e+00 2.694553e+00 1.991180e+00 2.371067e+00 2.615114e+00 2.018789e+00 1.681953e+00 1.643349e+00 3.051677e-01 2.730227e-01 4.488002e-01 2.481658e-01 5.886801e-01 4.914428e-01 6.675643e-01 5.251495e-01 6.804116e-01 5.422541e-01 5.070722e-01 3.264881e-01
<GCONST> 1.004512e+02
<STATE> 4
<MEAN> 36
 -6.340674e+00 -1.180431e+00 4.225070e+00 4.729713e+00 -3.071478e+00 -8.433653e+00 -5.889289e+00 -1.707398e+00 2.251540e-01 -2.487735e+00 -1.704931e+00 -2.717597e+00 2.720925e+00 -1.236590e+00 2.663993e+00 -1.930304e-01 -3.025948e+00 -1.254579e+00 -2.956715e+00 3.666058e-01 -1.498225e+00 -9.421376e-01 2.126362e+00 -1.539699e-01 3.170054e-01 -1.412474e-01 5.007887e-01 -6.186633e-01 -9.561139e-01 2.379783e-01 -4.047897e-01 2.019290e-01 -3.992696e-01 -1.472993e-01 7.090057e-01 -4.201286e-01
<VARIANCE> 36
 2.639986e+01 8.954817e+00 4.478064e+01 2.439921e+01 2.580763e+01 4.614212e+01 3.511240e+01 2.028614e+01 3.196900e+01 2.051704e+01 1.945020e+01 1.956673e+01 1.070089e+00 1.902861e+00 5.299692e+00 2.185049e+00 2.806985e+00 4.180361e+00 4.474666e+00 3.505882e+00 4.936054e+00 4.530161e+00 3.137140e+00 2.777469e+00 4.519666e-01 2.228750e-01 5.172549e-01 3.403006e-01 5.296132e-01 5.238730e-01 7.549375e-01 4.111391e-01 6.932740e-01 5.230981e-01 5.142308e-01 3.766310e-01
<GCONST> 1.092116e+02
<TRANSP> 5
 0.000000e+00 1.000000e+00 0.000000e+00 0.000000e+00 0.000000e+00
 0.000000e+00 7.403775e-01 2.596225e-01 0.000000e+00 0.000000e+00
 0.000000e+00 0.000000e+00 6.721385e-01 3.278615e-01 0.000000e+00
 0.000000e+00 0.000000e+00 0.000000e+00 4.733697e-01 5.266303e-01
 0.000000e+00 0.000000e+00 0.000000e+00 0.000000e+00 0.000000e+00
<ENDHMM>
~h "g"
<BEGINHMM>
<NUMSTATES> 5
<STATE> 2
<MEAN> 36
 3.525729e+00 5.602522e+00 3.930872e+00 4.639193e+00 -5.455192e+00 -1.218461e-01 -8.169702e+00 -2.075776e+00 -7.518809e+00 -2.301078e-01 -1.876114e+00 -6.237493e+00 -5.395026e-01 -5.504463e-01 1.418045e-01 -7.421401e-01 9.183024e-01 -8.262890e-01 -7.625431e-01 7.524522e-02 2.154042e-01 2.528121e-01 2.127343e-01 -8.271083e-02 -3.016854e-01 -5.766585e-01 5.564001e-01 -8.052872e-01 -3.433723e-01 -4.356349e-01 -6.304586e-01 9.007543e-02 9.765060e-02 1.319703e-01 6.275612e-01 -2.743009e-01
<VARIANCE> 36
 7.580038e+00 2.625588e+01 3.105394e+01 2.742379e+01 5.797304e+01 3.847971e+01 4.159895e+01 4.064677e+01 3.425590e+01 3.111786e+01 3.546099e+01 2.938589e+01 1.139216e+00 2.789840e+00 3.750232e+00 3.619857e+00 4.431994e+00 4.542160e+00 4.963999e+00 4.091026e+00 4.171951e+00 3.563852e+00 3.877573e+00 2.832823e+00 1.975838e-01 3.714404e-01 6.216084e-01 4.662685e-01 1.033043e+00 6.253487e-01 6.576197e-01 7.881970e-01 7.312806e-01 6.200836e-01 7.979276e-01 4.920469e-01
<GCONST> 1.154711e+02
<STATE> 3
<MEAN> 36
 8.302633e-01 2.385764e-01 7.165058e+00 -1.368042e+00 -6.142451e+00 -5.978827e+00 -1.504714e+01 -1.066786e+00 -6.821608e+00 1.186004e+00 4.449368e+00 -9.482469e+00 -6.879988e-01 -1.545685e+00 1.257916e+00 -2.190531e+00 -1.753769e+00 -1.517087e+00 -1.539379e+00 9.930565e-01 1.204589e+00 3.838302e-01 1.910534e+00 -1.106072e+00 1.520632e-01 -1.714876e-02 -1.362244e-01 3.101104e-02 -4.752414e-01 4.800621e-01 4.956231e-01 2.124469e-01 2.066386e-01 -5.452382e-02 -3.084867e-01 -4.181489e-03
<VARIANCE> 36
 9.988793e+00 3.192475e+01 4.832129e+01 3.153604e+01 6.667919e+01 6.161937e+01 7.001223e+01 4.841048e+01 5.297847e+01 5.530864e+01 8.736966e+01 4.617905e+01 1.410680e+00 2.635898e+00 5.061191e+00 3.166853e+00 6.621620e+00 4.177466e+00 4.855506e+00 6.660391e+00 5.768389e+00 4.769579e+00 5.948632e+00 3.485688e+00 1.267170e-01 3.674172e-01 6.551816e-01 4.521098e-01 1.326623e+00 9.642686e-01 1.034470e+00 8.815706e-01 8.448079e-01 6.703082e-01 1.494236e+00 6.471034e-01
<GCONST> 1.244907e+02
<STATE> 4
<MEAN> 36
 -5.373126e-01 -1.751163e+00 8.112790e+00 -5.205284e+00 -9.746803e+00 -6.319755e+00 -1.388071e+01 1.514877e+00 -3.692425e+00 2.091403e+00 4.667674e+00 -1.048846e+01 -4.049752e-01 -1.067567e+00 4.479716e-01 -1.397755e+00 -8.248494e-01 6.761785e-02 8.692108e-02 8.301406e-01 6.401526e-01 8.303409e-03 -2.908951e-02 -5.366522e-01 2.522154e-01 1.713841e-01 -2.668695e-01 5.703112e-01 2.325947e-01 3.542489e-01 2.646113e-01 -1.631310e-01 -3.848051e-01 -1.909283e-01 -4.105527e-01 2.398701e-01
<VARIANCE> 36
 2.098918e+01 4.299549e+01 4.948170e+01 3.157627e+01 6.261119e+01 4.973279e+01 7.902614e+01 6.284844e+01 8.119573e+01 6.303912e+01 7.615383e+01 6.379850e+01 1.188165e+00 1.805766e+00 6.123421e+00 2.632381e+00 3.849377e+00 3.714969e+00 3.739999e+00 5.483703e+00 4.948979e+00 3.353824e+00 6.144012e+00 2.825399e+00 1.808932e-01 2.773158e-01 4.671338e-01 4.390821e-01 1.139130e+00 6.339557e-01 9.886688e-01 7.966206e-01 7.935461e-01 6.231080e-01 1.140805e+00 5.977813e-01
<GCONST> 1.225658e+02
<TRANSP> 5
 0.000000e+00 1.000000e+00 0.000000e+00 0.000000e+00 0.000000e+00
 0.000000e+00 6.245642e-01 3.754358e-01 0.000000e+00 0.000000e+00
 0.000000e+00 0.000000e+00 4.361684e-01 5.638316e-01 0.000000e+00
 0.000000e+00 0.000000e+00 0.000000e+00 2.948783e-01 7.051217e-01
 0.000000e+00 0.000000e+00 0.000000e+00 0.000000e+00 0.000000e+00
<ENDHMM>
~h "h"
<BEGINHMM>
<NUMSTATES> 5
<STATE> 2
<MEAN> 36
 -1.275447e-01 -3.065606e+00 3.074414e+00 -1.425190e+00 -3.417679e+00 -3.161775e+00 -4.195106e+00 3.351877e+00 -4.774924e+00 -6.314121e-01 -3.941677e+00 -4.815522e+00 -3.681190e-01 3.548511e-01 -1.085794e-01 8.667955e-01 9.503844e-01 1.961268e-01 1.000477e+00 -2.083097e-01 6.369936e-02 -2.936157e-01 -5.090528e-01 4.371568e-01 2.500587e-02 -1.219152e-01 -1.626418e-02 -1.287997e-01 -2.484111e-01 -2.352585e-02 -2.398996e-01 -9.978153e-02 -1.897374e-03 4.733940e-03 2.580734e-01 -1.135088e-01
<VARIANCE> 36
 1.162305e+01 3.684969e+01 5.655307e+01 4.225371e+01 5.996720e+01 9.471290e+01 5.987860e+01 6.543781e+01 6.519972e+01 5.192525e+01 4.654278e+01 3.485922e+01 8.457929e-01 2.047195e+00 2.349379e+00 2.092190e+00 2.686170e+00 3.006617e+00 2.760632e+00 3.549470e+00 3.159848e+00 2.396341e+00 2.393886e+00 2.046536e+00 1.113413e-01 3.132916e-01 3.140219e-01 3.501518e-01 4.457758e-01 5.424922e-01 4.700255e-01 5.462914e-01 4.966018e-01 4.112044e-01 4.520312e-01 3.683321e-01
<GCONST> 1.108414e+02
<STATE> 3
<MEAN> 36
 -2.785657e+00 -4.655797e+00 1.234091e-01 4.921361e-02 4.400881e-01 -2.972757e+00 5.964612e-01 1.185155e+00 -2.683959e+00 -2.049600e+00 -4.819196e+00 -4.100941e+00 6.769136e-02 8.263756e-02 -1.757019e-01 2.176809e-01 -1.698230e-01 8.548498e-03 -7.428074e-02 -1.885180e-01 -2.639493e-02 -1.402601e-02 1.374041e-01 4.128212e-02 1.795381e-01 -1.099370e-02 5.251979e-03 -1.550884e-01 -3.219375e-01 -6.604133e-03 -2.948386e-01 2.051396e-02 -5.783625e-02 6.459587e-02 1.411657e-01 -1.318720e-01
<VARIANCE> 36
 1.903371e+01 3.703100e+01 4.398466e+01 3.368595e+01 5.327110e+01 6.123840e+01 6.789613e+01 5.408469e+01 5.328849e+01 4.209847e+01 5.158725e+01 3.257223e+01 1.066648e+00 1.501232e+00 1.781111e+00 1.845578e+00 2.156341e+00 2.674854e+00 2.385190e+00 2.614474e+00 2.540198e+00 2.352454e+00 2.028008e+00 1.878009e+00 1.439787e-01 2.841713e-01 2.775165e-01 3.509573e-01 4.175024e-01 4.432365e-01 4.908003e-01 5.189098e-01 5.083746e-01 4.324666e-01 4.430779e-01 3.938898e-01
<GCONST> 1.079915e+02
<STATE> 4
<MEAN> 36
 2.408850e-01 -3.353859e+00 -2.948900e-02 3.671724e-02 -2.363131e+00 -8.403524e-01 -3.777971e+00 1.576138e+00 -3.052769e+00 -1.373360e+00 -3.985832e+00 -4.709732e+00 1.774501e-01 2.361453e-01 -1.910985e-01 1.887624e-01 -4.185582e-01 8.514218e-02 -1.581537e-01 -1.900781e-02 -2.408986e-02 -3.671167e-02 2.187610e-01 -9.322690e-02 -4.048852e-02 -3.138737e-02 7.232369e-02 -7.837600e-02 -2.494830e-02 -2.946651e-02 -4.654358e-02 4.938696e-02 2.322691e-02 -5.951050e-03 5.603611e-02 -2.309841e-02
<VARIANCE> 36
 9.702256e+00 3.655473e+01 4.311913e+01 3.633618e+01 5.047673e+01 5.090354e+01 4.924304e+01 4.402700e+01 6.782146e+01 3.999084e+01 4.378404e+01 3.616264e+01 5.987729e-01 1.256423e+00 1.505609e+00 1.611289e+00 1.786731e+00 2.081544e+00 1.977846e+00 2.124763e+00 1.961301e+00 1.668136e+00 1.712042e+00 1.798762e+00 7.751808e-02 1.739304e-01 2.173227e-01 2.455913e-01 2.853687e-01 3.212997e-01 3.369287e-01 3.769115e-01 3.322140e-01 3.073714e-01 3.001468e-01 2.771645e-01
<GCONST> 9.940018e+01
<TRANSP> 5
 0.000000e+00 1.000000e+00 0.000000e+00 0.000000e+00 0.000000e+00
 0.000000e+00 3.428382e-01 6.571618e-01 0.000000e+00 0.000000e+00
 0.000000e+00 0.000000e+00 5.853280e-01 4.146720e-01 0.000000e+00
 0.000000e+00 0.000000e+00 0.000000e+00 6.848740e-01 3.151260e-01
 0.000000e+00 0.000000e+00 0.000000e+00 0.000000e+00 0.000000e+00
<ENDHMM>
~h "i"
<BEGINHMM>
<NUMSTATES> 5
<STATE> 2
<MEAN> 36
 -1.665204e+00 -1.074921e+00 1.636421e+01 -1.199811e+00 -1.456021e+01 -8.518223e+00 -1.126791e+01 -8.569047e-01 -1.022110e+01 -3.073706e+00 5.591786e+00 -6.280872e+00 -1.079511e-01 -4.968781e-01 2.825836e+00 -1.089749e+00 -2.366846e+00 -3.291176e-01 -1.567362e+00 3.931668e-01 -1.278715e+00 -3.327796e-01 1.969043e+00 -5.980327e-01 2.136949e-03 2.952420e-01 -8.764752e-01 1.253839e-01 6.143147e-01 4.866228e-01 3.528397e-01 1.167303e-02 3.628148e-01 2.393299e-01 -4.791936e-01 5.279255e-03
<VARIANCE> 36
 1.171892e+01 3.377065e+01 4.646473e+01 4.258030e+01 4.507693e+01 5.282872e+01 5.606867e+01 6.122169e+01 5.465178e+01 5.525536e+01 4.495778e+01 3.178664e+01 2.348887e+00 2.126316e+00 4.437946e+00 3.753667e+00 4.064483e+00 4.203451e+00 5.174053e+00 5.126690e+00 5.121243e+00 4.684366e+00 4.019862e+00 2.928197e+00 3.139572e-01 3.412784e-01 8.985703e-01 6.717354e-01 8.292669e-01 7.019970e-01 8.119099e-01 8.629196e-01 7.882524e-01 6.565863e-01 7.007229e-01 5.085377e-01
<GCONST> 1.217838e+02
<STATE> 3
<MEAN> 36
 -3.060372e+00 -7.185833e-01 2.050547e+01 -3.729277e+00 -1.867389e+01 -7.063739e+00 -1.364124e+01 -4.800341e-02 -1.136579e+01 -4.418060e+00 9.673296e+00 -9.042041e+00 1.837224e-01 7.393385e-02 -5.639350e-01 8.120660e-02 2.905781e-01 3.078588e-02 2.063073e-01 2.399272e-01 1.310215e-01 4.023639e-01 -3.559944e-01 7.516888e-02 1.499870e-01 1.370475e-01 -7.925491e-01 3.694530e-01 6.626459e-01 1.271362e-01 4.349325e-01 -8.185407e-02 2.724124e-01 1.310103e-01 -6.194854e-01 1.782975e-01
<VARIANCE> 36
 7.925298e+00 3.356745e+01 3.368644e+01 3.759021e+01 3.686841e+01 5.290718e+01 5.370324e+01 7.014392e+01 5.788403e+01 6.362869e+01 4.365531e+01 3.469579e+01 7.509136e-01 1.653784e+00 2.672354e+00 2.255162e+00 2.480364e+00 2.847529e+00 2.665004e+00 3.400323e+00 2.619037e+00 2.183090e+00 2.375352e+00 1.973576e+00 1.482520e-01 2.496264e-01 5.572682e-01 4.020174e-01 5.611009e-01 5.511845e-01 6.079245e-01 6.857101e-01 6.057616e-01 5.322979e-01 5.619733e-01 4.083898e-01
<GCONST> 1.102508e+02
<STATE> 4
<MEAN> 36
 -7.841411e-01 2.098653e+00 1.288177e+01 -8.547626e-01 -1.142100e+01 -4.363443e+00 -9.481166e+00 -1.712667e+00 -1.043597e+01 -5.252011e-02 1.718496e+00 -4.966324e+00 2.928313e-01 4.181975e-01 -1.561912e+00 8.254704e-01 9.596033e-01 5.987415e-01 7.412747e-01 -9.585486e-02 4.439788e-01 9.419984e-02 -8.761695e-01 2.792343e-01 -8.295159e-02 -3.597840e-02 -3.313430e-02 -3.382852e-02 5.242296e-03 5.254928e-02 1.576428e-02 -5.424281e-02 7.111842e-02 -6.135523e-02 3.876903e-02 -3.398629e-02
<VARIANCE> 36
 8.586212e+00 3.101845e+01 4.415152e+01 4.524597e+01 3.813822e+01 5.938443e+01 4.560859e+01 5.415244e+01 4.642435e+01 4.775944e+01 4.026184e+01 3.053862e+01 6.905834e-01 1.404824e+00 2.327956e+00 2.125779e+00 2.534512e+00 2.778493e+00 2.815217e+00 3.048033e+00 2.953864e+00 2.520180e+00 2.607916e+00 2.048234e+00 1.110769e-01 2.033723e-01 3.990849e-01 3.775761e-01 4.473401e-01 5.337924e-01 4.823139e-01 5.118269e-01 4.890836e-01 4.161168e-01 3.913640e-01 3.405538e-01
<GCONST> 1.069356e+02
<TRANSP> 5
 0.000000e+00 1.000000e+00 0.000000e+00 0.000000e+00 0.000000e+00
 0.000000e+00 4.674228e-01 5.325773e-01 0.000000e+00 0.000000e+00
 0.000000e+00 0.000000e+00 6.824931e-01 3.175069e-01 0.000000e+00
 0.000000e+00 0.000000e+00 0.000000e+00 7.369093e-01 2.630908e-01
 0.000000e+00 0.000000e+00 0.000000e+00 0.000000e+00 0.000000e+00
<ENDHMM>
~h "j"
<BEGINHMM>
<NUMSTATES> 5
<STATE> 2
<MEAN> 36
 1.497520e+00 6.379508e+00 5.375862e+00 4.663392e+00 -3.823891e+00 -1.653071e+00 -5.960302e+00 4.419952e-01 -4.399045e+00 -2.226268e+00 -2.844671e+00 -3.400518e+00 -1.152121e+00 4.713320e-01 6.886275e-01 -7.427309e-01 8.852898e-01 -6.065128e-01 1.758732e-01 -6.329597e-01 5.433060e-02 -4.381620e-01 3.187479e-01 3.491529e-01 -3.929625e-01 -4.544624e-01 6.933940e-01 -5.659477e-01 -4.122761e-01 -6.760155e-01 -5.617113e-01 -8.687253e-02 -1.990350e-01 -3.445635e-02 4.688718e-01 1.646612e-01
<VARIANCE> 36
 1.511771e+01 2.463664e+01 2.779874e+01 2.785531e+01 3.831150e+01 3.372133e+01 3.423943e+01 3.756583e+01 2.785787e+01 2.466431e+01 2.505133e+01 2.357582e+01 2.681541e+00 1.987404e+00 3.756127e+00 3.574260e+00 3.250677e+00 5.031065e+00 3.034148e+00 3.252421e+00 2.618325e+00 2.696776e+00 2.322181e+00 2.131401e+00 4.107626e-01 3.261004e-01 4.453373e-01 5.023853e-01 8.708803e-01 6.614437e-01 6.432560e-01 5.793298e-01 5.255148e-01 5.970715e-01 4.679385e-01 4.129574e-01
<GCONST> 1.110315e+02
<STATE> 3
<MEAN> 36
 -5.446248e+00 5.948789e+00 1.313039e+01 -1.173219e+00 -4.324056e+00 -7.503547e+00 -7.796040e+00 -3.623688e+00 -6.152645e+00 -4.554874e+00 1.072835e+00 -8.278590e-01 -2.573612e-01 -1.644517e+00 2.614116e+00 -8.657081e-01 -2.674666e+00 -2.201522e+00 -2.473777e+00 2.820337e-01 -8.364509e-01 -7.347880e-02 1.771848e+00 4.481151e-01 8.546411e-01 -5.614466e-01 -5.976475e-01 2.590237e-01 -5.527846e-01 2.889073e-01 -5.209076e-01 7.254503e-01 9.033325e-02 4.982554e-01 2.579569e-02 -3.877562e-01
<VARIANCE> 36
 1.925845e+01 3.259634e+01 4.338132e+01 2.907513e+01 5.255959e+01 5.070798e+01 5.336714e+01 3.917188e+01 3.198926e+01 3.193268e+01 2.700668e+01 2.395329e+01 2.918159e+00 2.638510e+00 3.274167e+00 3.840594e+00 4.103797e+00 4.106237e+00 4.229226e+00 4.835311e+00 3.469636e+00 3.716683e+00 3.020780e+00 2.658696e+00 3.574209e-01 5.315990e-01 7.390720e-01 6.093823e-01 1.231048e+00 1.030176e+00 8.632472e-01 7.384399e-01 6.948118e-01 6.237671e-01 6.994987e-01 5.951422e-01
<GCONST> 1.193520e+02
<STATE> 4
<MEAN> 36
 -1.419043e+00 -2.402081e+00 1.575910e+01 -2.625582e+00 -1.316186e+01 -1.193599e+01 -1.683127e+01 3.973674e+00 -6.825568e+00 -1.932235e+00 5.195099e+00 -2.077519e+00 9.053917e-01 -1.611281e+00 -1.078324e+00 -6.959323e-01 -5.633364e-01 -5.896350e-02 -1.317645e+00 1.569230e+00 5.695852e-01 1.135094e+00 2.725689e-01 -1.110317e+00 9.996036e-02 5.163480e-01 -9.086583e-01 1.025621e-01 1.000399e+00 8.490276e-01 8.222105e-01 -2.637764e-01 1.790844e-01 7.923514e-02 -5.850761e-01 -3.115396e-01
<VARIANCE> 36
 6.055176e+00 2.449575e+01 3.337934e+01 3.908210e+01 3.172768e+01 2.659233e+01 5.813799e+01 6.278625e+01 4.688947e+01 6.480191e+01 3.756966e+01 3.016948e+01 8.141319e-01 2.254853e+00 3.374629e+00 2.157434e+00 4.673752e+00 3.296095e+00 5.327248e+00 4.004238e+00 3.787379e+00 3.343509e+00 4.394285e+00 3.017685e+00 2.013907e-01 2.392877e-01 6.457438e-01 5.781525e-01 5.447965e-01 6.273760e-01 6.949564e-01 7.244175e-01 6.647837e-01 6.661388e-01 6.311339e-01 4.908060e-01
<GCONST> 1.140759e+02
<TRANSP> 5
 0.000000e+00 1.000000e+00 0.000000e+00 0.000000e+00 0.000000e+00
 0.000000e+00 7.067623e-01 2.932377e-01 0.000000e+00 0.000000e+00
 0.000000e+00 0.000000e+00 5.755174e-01 4.244826e-01 0.000000e+00
 0.000000e+00 0.000000e+00 0.000000e+00 6.220257e-01 3.779743e-01
 0.000000e+00 0.000000e+00 0.000000e+00 0.000000e+00 0.000000e+00
<ENDHMM>
~h "k"
<BEGINHMM>
<NUMSTATES> 5
<STATE> 2
<MEAN> 36
 5.678297e-01 2.352332e+00 -3.371483e+00 1.820265e+00 -4.455018e+00 1.215620e+00 -4.693655e+00 -3.381034e-01 -4.765945e+00 -1.897238e-01 -1.319354e+00 -3.721057e+00 -6.217833e-01 -4.032418e-01 -7.859579e-01 -1.661604e-01 1.175214e+00 -4.179673e-01 -1.380659e-01 -3.078899e-02 3.790612e-01 1.455784e-01 -1.189435e-01 1.599086e-01 -1.741349e-02 -4.269880e-01 1.363870e-01 -5.448878e-01 2.499829e-01 -3.295476e-01 -2.771471e-01 -1.854849e-02 -2.533440e-02 2.619027e-01 7.008849e-02 -1.965166e-01
<VARIANCE> 36
 9.264388e+00 2.208525e+01 3.153118e+01 2.740108e+01 3.228667e+01 3.784475e+01 3.056485e+01 3.299628e+01 3.016837e+01 2.639090e+01 2.570906e+01 2.557119e+01 1.132029e+00 2.847359e+00 2.844081e+00 3.018792e+00 4.875681e+00 3.875990e+00 3.452006e+00 3.682748e+00 3.380509e+00 3.133637e+00 2.627666e+00 2.461436e+00 2.024492e-01 3.486375e-01 4.519774e-01 4.722140e-01 7.105473e-01 6.047342e-01 5.519840e-01 6.154817e-01 6.051958e-01 5.260661e-01 4.706928e-01 4.620656e-01
<GCONST> 1.096781e+02
<STATE> 3
<MEAN> 36
 -2.879966e+00 -2.067181e+00 -5.743518e+00 -8.024296e-01 3.068653e+00 -2.471827e+00 -6.338584e+00 -1.143874e+00 -3.075176e+00 2.363478e+00 -1.543641e+00 -4.023221e+00 2.441484e-02 -8.738963e-01 2.845061e-01 -1.542337e+00 3.852608e-01 -1.035466e+00 -6.090723e-01 2.099372e-02 -4.006531e-02 5.397231e-01 1.663753e-01 -6.367610e-01 6.106831e-01 3.347594e-02 7.210260e-01 -3.666054e-01 -1.230100e+00 2.395316e-01 -1.410327e-01 2.367030e-01 -3.320155e-01 -1.492567e-01 2.391332e-01 -3.488720e-01
<VARIANCE> 36
 2.213359e+01 3.091906e+01 5.481290e+01 3.956794e+01 6.416067e+01 6.928068e+01 6.137847e+01 5.919243e+01 4.467608e+01 4.209912e+01 4.064874e+01 3.385756e+01 2.164659e+00 3.421174e+00 4.510778e+00 4.258899e+00 6.300434e+00 4.822082e+00 4.180437e+00 4.790620e+00 4.660846e+00 3.506610e+00 3.232214e+00 3.480182e+00 3.638549e-01 6.423793e-01 6.816311e-01 7.454298e-01 1.110739e+00 9.334950e-01 1.120133e+00 1.199728e+00 1.040939e+00 8.772750e-01 8.035157e-01 7.460641e-01
<GCONST> 1.259193e+02
<STATE> 4
<MEAN> 36
 4.634572e-01 -1.169496e+00 -3.020921e+00 -3.976188e+00 -2.505978e+00 -2.924474e+00 -6.769965e+00 7.720301e-02 -5.141512e+00 1.905235e+00 -6.461959e-01 -6.217813e+00 1.292922e+00 -7.108840e-01 1.459381e+00 -1.864823e+00 -2.154422e+00 3.882056e-02 -9.013554e-01 4.946469e-01 -6.545025e-01 -5.748513e-02 7.073277e-01 -1.063933e+00 1.392395e-01 -5.486940e-02 1.995988e-01 1.584181e-01 -3.861458e-01 4.019108e-01 -6.485923e-02 2.081309e-02 4.585268e-03 -1.647169e-01 1.024138e-01 -6.036258e-04
<VARIANCE> 36
 1.893330e+01 3.549736e+01 5.443173e+01 5.059020e+01 4.468869e+01 6.228099e+01 4.601142e+01 4.175366e+01 4.470992e+01 3.785824e+01 3.670657e+01 3.294865e+01 2.281163e+00 4.098932e+00 4.609246e+00 5.533747e+00 6.179506e+00 4.983590e+00 5.892569e+00 6.647190e+00 6.373572e+00 4.747810e+00 4.710301e+00 4.675096e+00 2.737927e-01 4.517150e-01 5.437839e-01 6.984419e-01 7.706951e-01 7.394719e-01 7.709041e-01 8.095519e-01 7.452525e-01 7.003970e-01 5.932142e-01 4.994001e-01
<GCONST> 1.237315e+02
<TRANSP> 5
 0.000000e+00 1.000000e+00 0.000000e+00 0.000000e+00 0.000000e+00
 0.000000e+00 5.928925e-01 4.071075e-01 0.000000e+00 0.000000e+00
 0.000000e+00 0.000000e+00 4.401156e-01 5.598844e-01 0.000000e+00
 0.000000e+00 0.000000e+00 0.000000e+00 2.115273e-01 7.884727e-01
 0.000000e+00 0.000000e+00 0.000000e+00 0.000000e+00 0.000000e+00
<ENDHMM>
~h "l"
<BEGINHMM>
<NUMSTATES> 5
<STATE> 2
<MEAN> 36
 2.879537e+00 -3.489630e+00 2.790281e+00 -5.820936e+00 -6.606503e+00 -2.861039e+00 -1.470577e+01 -5.983182e+00 -5.919378e-01 4.906391e+00 2.241669e+00 -9.460057e+00 2.197675e-01 1.109918e-01 1.468673e-01 -1.391367e-01 3.767994e-02 1.890371e-01 -9.189469e-01 -6.368991e-01 6.202936e-02 7.265110e-01 3.858279e-01 -4.676693e-01 -8.612890e-02 -1.260372e-01 -4.117511e-02 -1.608272e-01 -4.393014e-02 2.359085e-01 2.379519e-01 5.498143e-01 -1.308717e-02 -3.859345e-01 -9.131142e-02 -1.206836e-02
<VARIANCE> 36
 1.124575e+01 3.943005e+01 6.315813e+01 5.811798e+01 4.720329e+01 5.977967e+01 8.015594e+01 9.590962e+01 8.801258e+01 4.996835e+01 5.425686e+01 6.281472e+01 4.994718e-01 1.505400e+00 2.119524e+00 3.148263e+00 2.295229e+00 3.798281e+00 3.939658e+00 4.094851e+00 3.591605e+00 3.069267e+00 3.027746e+00 2.655761e+00 1.080762e-01 2.513326e-01 2.875279e-01 4.772539e-01 5.044028e-01 5.729889e-01 7.182944e-01 7.168782e-01 6.597188e-01 5.512961e-01 6.399463e-01 4.972856e-01
<GCONST> 1.152718e+02
<STATE> 3
<MEAN> 36
 2.903029e+00 -4.421818e+00 3.835966e+00 -7.820555e+00 -7.212556e+00 -1.543819e+00 -1.717830e+01 -4.776919e+00 -2.058877e-01 5.918486e+00 3.723534e+00 -1.207437e+01 -5.481619e-02 -4.289218e-01 -1.399057e-01 -4.776062e-01 -3.340475e-02 5.103507e-01 1.315311e-01 8.484052e-01 3.803830e-01 -3.141640e-01 -3.709250e-01 -3.240931e-01 -1.108929e-01 -1.843379e-01 -1.197553e-01 -7.260570e-03 3.304095e-02 5.871877e-02 5.236492e-01 5.629088e-01 -3.706569e-02 -5.142531e-01 -3.509745e-01 1.936288e-01
<VARIANCE> 36
 8.903703e+00 3.606245e+01 6.945872e+01 5.592342e+01 5.111678e+01 5.298793e+01 8.855640e+01 7.856401e+01 8.466803e+01 4.389645e+01 5.622606e+01 7.130961e+01 3.961688e-01 1.554673e+00 2.048252e+00 2.559878e+00 1.905322e+00 2.859392e+00 3.151578e+00 3.369010e+00 3.417733e+00 2.635782e+00 2.951180e+00 2.261791e+00 7.617508e-02 2.650598e-01 2.762713e-01 4.595160e-01 3.817067e-01 5.766413e-01 6.438628e-01 6.040257e-01 5.570158e-01 5.076490e-01 6.848553e-01 4.497590e-01
<GCONST> 1.119301e+02
<STATE> 4
<MEAN> 36
 2.636618e+00 -5.180227e+00 2.394697e+00 -8.457600e+00 -6.495157e+00 -7.714805e-01 -1.472278e+01 -1.531729e+00 8.843946e-01 3.488030e+00 3.600529e-01 -1.079306e+01 -2.581358e-01 -5.784839e-01 -1.317530e-01 -2.194948e-01 5.380873e-02 3.582153e-01 9.996601e-01 1.500426e+00 -1.231046e-01 -1.084064e+00 -7.699388e-01 1.261532e-01 -3.997945e-02 1.152608e-01 3.613521e-02 1.425724e-01 1.498634e-02 -7.410208e-02 2.281127e-01 -3.018529e-02 -3.835040e-01 -1.152809e-01 8.723260e-02 2.236999e-01
<VARIANCE> 36
 1.061141e+01 3.753986e+01 6.628099e+01 7.258401e+01 4.760411e+01 6.512464e+01 8.518607e+01 7.671535e+01 9.777980e+01 5.266249e+01 5.372760e+01 6.752141e+01 5.406598e-01 2.038742e+00 2.422559e+00 2.861361e+00 2.853313e+00 3.963863e+00 3.827444e+00 4.191352e+00 3.690016e+00 3.397528e+00 4.703105e+00 2.556070e+00 8.416610e-02 2.236549e-01 3.061518e-01 4.678949e-01 4.472573e-01 5.280514e-01 5.941391e-01 5.484028e-01 5.750750e-01 5.273514e-01 5.517763e-01 4.161656e-01
<GCONST> 1.153017e+02
<TRANSP> 5
 0.000000e+00 1.000000e+00 0.000000e+00 0.000000e+00 0.000000e+00
 0.000000e+00 3.585092e-01 6.414908e-01 0.000000e+00 0.000000e+00
 0.000000e+00 0.000000e+00 3.794322e-01 6.205677e-01 0.000000e+00
 0.000000e+00 0.000000e+00 0.000000e+00 2.832619e-01 7.167382e-01
 0.000000e+00 0.000000e+00 0.000000e+00 0.000000e+00 0.000000e+00
<ENDHMM>
~h "m"
<BEGINHMM>
<NUMSTATES> 5
<STATE> 2
<MEAN> 36
 4.634228e+00 -1.239737e+00 3.388772e+00 7.153364e-01 -7.262198e+00 6.316922e+00 -6.042565e+00 -6.782337e+00 -1.167707e+01 3.727269e-01 -7.204807e-01 -8.215202e+00 1.993547e-04 3.030102e-01 1.039314e+00 1.142495e+00 -1.859712e-02 9.500086e-01 4.901461e-01 -1.300941e+00 -1.431289e+00 -6.045299e-01 -8.393445e-01 -1.729006e-01 -6.363664e-02 -2.630666e-01 -1.977420e-01 -4.774844e-01 3.679715e-02 -2.888011e-01 -2.949705e-01 5.026282e-01 5.454361e-01 1.172144e-02 1.104413e-01 -5.852038e-02
<VARIANCE> 36
 7.451453e+00 2.960932e+01 3.148446e+01 3.475490e+01 5.088343e+01 4.164286e+01 4.321220e+01 3.654486e+01 4.137833e+01 3.433047e+01 4.078375e+01 4.029184e+01 5.269116e-01 1.313850e+00 2.004510e+00 2.050090e+00 2.175133e+00 2.426404e+00 2.352670e+00 2.540810e+00 3.904965e+00 2.243526e+00 2.851221e+00 2.042509e+00 9.651694e-02 1.493195e-01 2.593683e-01 2.873112e-01 3.678547e-01 3.824055e-01 3.990957e-01 3.998555e-01 5.082507e-01 4.186949e-01 5.173905e-01 3.652536e-01
<GCONST> 1.028273e+02
<STATE> 3
<MEAN> 36
 4.092537e+00 -1.815937e+00 6.626185e+00 5.815518e-01 -8.413800e+00 7.748669e+00 -6.576478e+00 -7.899777e+00 -1.411559e+01 -1.480138e+00 -1.119968e+00 -9.534531e+00 1.810943e-01 -7.516937e-02 -3.250755e-01 -3.921194e-01 -2.995149e-01 -2.709945e-01 -2.111020e-01 2.221095e-01 5.093597e-01 1.574570e-01 3.658748e-01 5.490058e-02 5.869035e-02 -1.563306e-01 -4.988314e-01 -4.431382e-01 -7.510928e-02 -3.286600e-01 -1.613384e-01 5.554498e-01 7.293914e-01 2.424353e-01 2.377494e-01 -4.439180e-03
<VARIANCE> 36
 5.551102e+00 2.697697e+01 3.665120e+01 3.076470e+01 5.403894e+01 4.501968e+01 3.835475e+01 3.950199e+01 5.442780e+01 3.340414e+01 4.642738e+01 4.450875e+01 3.651161e-01 1.044551e+00 1.460598e+00 1.611066e+00 1.512975e+00 1.928788e+00 1.731062e+00 1.766808e+00 2.686932e+00 1.733791e+00 2.097301e+00 1.744923e+00 6.782573e-02 1.701691e-01 2.546152e-01 3.027313e-01 3.150904e-01 4.019781e-01 3.456692e-01 4.434703e-01 6.678298e-01 4.001476e-01 4.701244e-01 3.936103e-01
<GCONST> 9.940315e+01
<STATE> 4
<MEAN> 36
 5.707571e+00 -2.137208e+00 8.454487e-01 -2.252200e+00 -8.463960e+00 5.353934e+00 -7.174438e+00 -5.006058e+00 -8.574363e+00 8.863726e-01 6.387413e-01 -7.972062e+00 1.305026e-01 -9.360610e-01 -1.253018e+00 -1.398729e+00 2.761396e-01 -3.609714e-01 -5.588880e-01 1.758325e+00 1.813026e+00 2.516443e-01 3.037319e-01 -5.133927e-01 -2.185361e-01 -1.413408e-01 2.230199e-01 6.639104e-02 2.587218e-01 -6.022967e-02 -5.492008e-02 2.394112e-01 7.892396e-03 -1.550410e-01 -2.222476e-01 -7.431259e-02
<VARIANCE> 36
 6.906087e+00 4.000303e+01 3.862006e+01 4.828656e+01 7.598075e+01 4.264410e+01 5.207157e+01 4.217589e+01 4.376752e+01 3.770032e+01 4.066083e+01 4.398331e+01 5.458203e-01 2.000044e+00 2.480778e+00 2.931988e+00 3.487490e+00 3.233790e+00 3.079940e+00 2.923588e+00 5.341374e+00 2.995037e+00 3.151501e+00 3.237314e+00 9.092773e-02 2.093456e-01 3.575571e-01 5.254372e-01 5.561736e-01 4.640779e-01 4.612403e-01 5.517430e-01 6.553678e-01 4.539949e-01 5.267318e-01 4.097334e-01
<GCONST> 1.106771e+02
<TRANSP> 5
 0.000000e+00 1.000000e+00 0.000000e+00 0.000000e+00 0.000000e+00
 0.000000e+00 5.081443e-01 4.918557e-01 0.000000e+00 0.000000e+00
 0.000000e+00 0.000000e+00 6.006598e-01 3.993402e-01 0.000000e+00
 0.000000e+00 0.000000e+00 0.000000e+00 4.694974e-01 5.305026e-01
 0.000000e+00 0.000000e+00 0.000000e+00 0.000000e+00 0.000000e+00
<ENDHMM>
~h "n"
<BEGINHMM>
<NUMSTATES> 5
<STATE> 2
<MEAN> 36
 3.614958e+00 -2.814501e+00 6.262487e+00 3.419875e+00 -9.292826e+00 -1.689170e+00 -9.277038e+00 -2.428884e+00 -5.420534e+00 2.200230e+00 -4.992715e+00 -9.044651e+00 3.866859e-01 1.418509e+00 9.584640e-01 1.380607e+00 -6.186241e-01 9.356195e-01 3.131877e-01 -2.710573e+00 -1.000117e+00 1.045547e+00 -1.145757e+00 5.848134e-01 -1.281869e-01 -2.433526e-01 -1.889811e-01 -4.925336e-01 9.858545e-02 2.098886e-02 6.497268e-02 4.288153e-01 1.347697e-01 -2.451435e-01 2.758565e-01 -2.915967e-02
<VARIANCE> 36
 5.401521e+00 3.272098e+01 3.301501e+01 2.545310e+01 4.944763e+01 3.791729e+01 4.828762e+01 6.566043e+01 5.149619e+01 4.591840e+01 3.728598e+01 4.295643e+01 4.777949e-01 1.352508e+00 2.774018e+00 1.831002e+00 2.332505e+00 2.916457e+00 3.379954e+00 4.812852e+00 2.905578e+00 3.500758e+00 3.184178e+00 2.712568e+00 7.738019e-02 2.304464e-01 3.111138e-01 2.565749e-01 3.313689e-01 3.904886e-01 4.221521e-01 7.341583e-01 4.415412e-01 4.505292e-01 4.508291e-01 3.540115e-01
<GCONST> 1.059671e+02
<STATE> 3
<MEAN> 36
 4.293260e+00 -1.785842e+00 7.995026e+00 4.807315e+00 -1.199205e+01 5.147242e-01 -8.171543e+00 -6.375130e+00 -7.736318e+00 4.472323e+00 -5.816031e+00 -8.945916e+00 8.725722e-02 5.992330e-01 -1.807747e-01 3.571530e-01 7.454649e-02 3.614872e-01 4.099601e-01 -4.698026e-01 -1.962904e-01 -7.327038e-02 -1.914479e-01 2.396954e-01 -1.576233e-01 -2.582630e-01 -3.383883e-01 -3.805845e-01 3.035845e-01 -2.349880e-01 -2.908559e-02 8.035289e-01 2.775495e-01 -4.660618e-01 3.444382e-01 -1.032735e-01
<VARIANCE> 36
 3.979374e+00 2.433335e+01 2.753066e+01 2.384533e+01 3.977356e+01 3.512261e+01 3.694632e+01 5.352456e+01 4.868824e+01 3.968348e+01 3.968003e+01 3.824338e+01 2.443687e-01 1.126455e+00 1.356753e+00 1.204452e+00 1.485134e+00 1.724822e+00 1.896085e+00 2.569028e+00 2.150952e+00 2.084329e+00 1.833474e+00 1.552001e+00 8.591247e-02 2.621529e-01 3.726381e-01 3.435516e-01 3.643629e-01 3.979123e-01 4.372337e-01 7.963780e-01 4.674037e-01 5.152658e-01 5.065893e-01 3.627709e-01
<GCONST> 9.926485e+01
<STATE> 4
<MEAN> 36
 3.458119e+00 1.035271e+00 4.803594e+00 5.312393e+00 -7.325935e+00 2.736759e-01 -7.228832e+00 -4.166861e+00 -5.812803e+00 7.556523e-01 -6.408035e+00 -7.085952e+00 -3.945505e-01 -1.170001e-01 -5.832934e-01 -6.100605e-01 5.497094e-01 -3.781520e-02 2.065482e-01 1.183864e+00 2.940672e-01 -9.825528e-01 5.823746e-01 -5.043111e-02 -2.074084e-01 -3.343420e-01 1.238741e-02 -4.670889e-01 4.537627e-02 -1.198259e-01 -1.204779e-01 4.564199e-01 1.145001e-01 -1.313923e-01 2.981740e-01 -2.899642e-02
<VARIANCE> 36
 6.503925e+00 3.392352e+01 2.793998e+01 2.604688e+01 4.779107e+01 3.619690e+01 4.944533e+01 5.705309e+01 4.516428e+01 4.482302e+01 4.023165e+01 3.550487e+01 5.857264e-01 2.423258e+00 2.312493e+00 2.308883e+00 2.708094e+00 2.591451e+00 2.714283e+00 5.064578e+00 2.847132e+00 3.082533e+00 3.119461e+00 2.418328e+00 1.416131e-01 2.766559e-01 3.748568e-01 3.912143e-01 4.490480e-01 5.073098e-01 4.819383e-01 7.853793e-01 5.072086e-01 5.535324e-01 5.423687e-01 3.906701e-01
<GCONST> 1.087833e+02
<TRANSP> 5
 0.000000e+00 1.000000e+00 0.000000e+00 0.000000e+00 0.000000e+00
 0.000000e+00 3.151726e-01 6.848274e-01 0.000000e+00 0.000000e+00
 0.000000e+00 0.000000e+00 5.893671e-01 4.106329e-01 0.000000e+00
 0.000000e+00 0.000000e+00 0.000000e+00 5.091609e-01 4.908390e-01
 0.000000e+00 0.000000e+00 0.000000e+00 0.000000e+00 0.000000e+00
<ENDHMM>
~h "o"
<BEGINHMM>
<NUMSTATES> 5
<STATE> 2
<MEAN> 36
 4.313708e+00 -1.870508e+00 -3.528278e+00 -1.263036e+01 -7.590328e+00 5.009727e+00 -8.939640e+00 -2.067790e+00 -4.052323e+00 2.675820e+00 3.387734e+00 -5.997697e+00 9.250614e-01 -8.163094e-01 -1.335996e-01 -2.143096e+00 -5.925530e-01 1.292530e+00 -5.335350e-01 1.450423e-01 -2.965963e-01 6.024438e-01 7.718400e-01 -5.277582e-01 -3.252770e-01 2.363385e-01 2.261892e-01 8.587074e-01 2.653768e-01 -2.597526e-01 2.363963e-01 2.924083e-02 -3.441093e-02 -1.877584e-01 -3.273799e-01 1.056807e-01
<VARIANCE> 36
 1.073987e+01 3.521409e+01 2.892079e+01 7.335088e+01 5.337068e+01 6.762690e+01 7.212686e+01 5.214025e+01 6.464238e+01 4.821212e+01 4.057895e+01 4.481842e+01 1.868336e+00 2.325794e+00 2.813039e+00 7.230383e+00 4.793858e+00 5.106009e+00 4.536575e+00 4.445579e+00 4.661155e+00 4.081140e+00 3.404334e+00 2.813864e+00 2.990462e-01 3.855609e-01 4.636367e-01 1.085246e+00 7.112036e-01 8.643876e-01 9.472652e-01 7.203996e-01 8.008251e-01 7.380863e-01 6.061711e-01 5.770519e-01
<GCONST> 1.223296e+02
<STATE> 3
<MEAN> 36
 4.956984e+00 -4.910622e+00 -2.955581e+00 -1.374330e+01 -9.701465e+00 7.697111e+00 -1.035189e+01 -1.652408e+00 -3.220115e+00 2.546610e+00 6.307385e+00 -9.808369e+00 1.437213e-02 1.850727e-01 -2.604573e-02 8.200343e-01 3.096422e-01 -3.209466e-01 2.340526e-01 -2.229705e-02 -7.691993e-02 5.450504e-02 -4.487233e-01 -2.937747e-02 -1.593676e-01 3.037201e-01 8.992201e-02 7.198904e-01 1.843006e-01 -3.821129e-01 1.671499e-01 -1.808887e-01 2.004728e-02 -9.250940e-02 -3.734996e-01 1.751591e-01
<VARIANCE> 36
 6.682902e+00 3.014115e+01 2.138868e+01 5.504226e+01 4.346112e+01 6.024153e+01 5.007949e+01 5.665681e+01 6.261911e+01 4.953284e+01 4.808700e+01 5.121682e+01 4.511927e-01 1.545761e+00 1.206805e+00 3.203463e+00 1.999059e+00 2.853325e+00 2.835441e+00 2.509695e+00 2.908698e+00 2.641072e+00 2.421678e+00 2.163531e+00 1.128398e-01 2.162630e-01 2.666887e-01 4.403276e-01 4.472515e-01 5.344861e-01 4.854308e-01 5.711457e-01 5.860888e-01 5.155165e-01 4.962155e-01 4.439448e-01
<GCONST> 1.073215e+02
<STATE> 4
<MEAN> 36
 4.519711e+00 1.064215e+00 -3.905431e+00 -8.610342e+00 -6.022049e+00 2.994368e+00 -6.570927e+00 -9.463983e-01 -5.769116e+00 2.820269e+00 1.837974e-01 -4.399442e+00 -2.502458e-01 5.457822e-01 1.364364e-01 1.720187e+00 2.039442e-01 -3.321231e-01 3.796399e-01 -3.358211e-01 1.179521e-01 -3.245995e-01 -5.735999e-01 2.096759e-01 -5.197085e-02 -4.803000e-02 9.599911e-02 1.870501e-02 -3.987652e-02 5.030264e-02 -3.255735e-02 6.761890e-03 -1.741991e-02 -4.051136e-02 2.443653e-02 -1.427416e-02
<VARIANCE> 36
 9.057413e+00 4.083572e+01 2.704100e+01 7.460462e+01 4.244683e+01 4.931994e+01 6.616590e+01 4.401511e+01 5.688098e+01 4.783210e+01 3.275884e+01 4.089547e+01 5.351611e-01 1.287948e+00 1.597302e+00 2.624005e+00 2.111864e+00 2.535493e+00 2.538842e+00 2.483454e+00 2.547204e+00 2.909359e+00 2.404813e+00 1.831915e+00 1.068432e-01 2.197657e-01 2.370131e-01 4.013579e-01 3.584007e-01 4.270021e-01 4.761811e-01 4.483176e-01 4.626705e-01 5.480113e-01 3.230024e-01 3.190352e-01
<GCONST> 1.053142e+02
<TRANSP> 5
 0.000000e+00 1.000000e+00 0.000000e+00 0.000000e+00 0.000000e+00
 0.000000e+00 5.511683e-01 4.488317e-01 0.000000e+00 0.000000e+00
 0.000000e+00 0.000000e+00 6.546876e-01 3.453123e-01 0.000000e+00
 0.000000e+00 0.000000e+00 0.000000e+00 7.104912e-01 2.895088e-01
 0.000000e+00 0.000000e+00 0.000000e+00 0.000000e+00 0.000000e+00
<ENDHMM>
~h "p"
<BEGINHMM>
<NUMSTATES> 5
<STATE> 2
<MEAN> 36
 1.549203e+00 2.850578e+00 -4.345024e+00 2.270129e+00 -3.872582e+00 2.713226e+00 -5.167338e+00 -5.570147e-01 -4.062459e+00 -4.984595e-01 -2.341195e+00 -4.772418e+00 -4.482284e-01 2.205137e-01 -1.809705e-01 3.654041e-01 1.861964e-01 -2.859469e-01 3.904415e-01 1.097289e-01 3.745033e-01 -1.726992e-01 -8.070108e-02 3.265349e-01 3.983647e-02 -4.197161e-01 1.945448e-01 -4.008273e-01 -2.215697e-02 -1.849377e-01 -2.183295e-01 -1.093309e-01 7.573300e-02 9.551018e-02 1.955200e-01 -7.051591e-02
<VARIANCE> 36
 9.344306e+00 1.629719e+01 2.372649e+01 1.897705e+01 2.349283e+01 3.576286e+01 2.598059e+01 2.510986e+01 2.811603e+01 2.256717e+01 2.245212e+01 2.420323e+01 6.693108e-01 1.130321e+00 1.104468e+00 1.572135e+00 1.600508e+00 2.168189e+00 1.900430e+00 2.234693e+00 1.997576e+00 1.842694e+00 1.779559e+00 1.686068e+00 1.333836e-01 2.358921e-01 3.226033e-01 3.791968e-01 3.534570e-01 5.066785e-01 4.359899e-01 4.755126e-01 4.554432e-01 4.217506e-01 4.269722e-01 3.772715e-01
<GCONST> 9.630022e+01
<STATE> 3
<MEAN> 36
 -8.961765e-01 1.854017e+00 -2.565418e+00 1.996258e+00 -2.499002e+00 -2.639409e-01 -4.206045e+00 -1.205218e+00 -2.747353e+00 -1.058878e+00 -2.012968e+00 -3.114290e+00 3.485866e-01 -1.513644e+00 3.864200e-01 -1.651846e+00 -3.240062e-01 -9.105720e-01 -8.845489e-01 -6.825375e-01 3.436422e-01 3.636868e-01 8.184916e-01 -9.676979e-02 4.930637e-01 -4.833579e-01 2.269141e-01 -7.258812e-01 -5.678731e-01 1.274404e-01 -6.532733e-01 5.832413e-02 -2.497317e-01 2.206694e-01 3.736825e-01 -4.491818e-01
<VARIANCE> 36
 1.478704e+01 2.267416e+01 2.263375e+01 2.508354e+01 2.607504e+01 4.336397e+01 2.426300e+01 3.093963e+01 3.321011e+01 2.000077e+01 2.084829e+01 2.414071e+01 2.192629e+00 2.884345e+00 4.015646e+00 4.906959e+00 3.526845e+00 5.087395e+00 4.306664e+00 3.547494e+00 4.082944e+00 3.189849e+00 3.192893e+00 3.290306e+00 2.400323e-01 5.940761e-01 7.374673e-01 7.909185e-01 6.982055e-01 9.570158e-01 6.629442e-01 8.288433e-01 7.985516e-01 6.158208e-01 6.316062e-01 6.019968e-01
<GCONST> 1.148836e+02
<STATE> 4
<MEAN> 36
 2.690696e+00 -2.074344e+00 -3.714045e+00 -4.593032e+00 -4.818269e+00 -3.834604e-01 -7.526099e+00 -2.863140e+00 -3.296632e+00 1.216904e+00 1.151202e+00 -4.865844e+00 1.136361e+00 -2.227439e+00 5.916767e-01 -2.443565e+00 -1.205231e+00 -1.596267e-01 -1.732981e+00 1.249524e-01 -1.715843e-01 7.152943e-01 1.139381e+00 -1.295701e+00 -9.235035e-02 1.088086e-01 3.601674e-01 4.005153e-01 -1.163210e-01 7.537945e-02 -8.502135e-02 4.204824e-01 -1.180473e-01 -8.479232e-02 -2.300607e-01 -2.398194e-01
<VARIANCE> 36
 1.893208e+01 3.024912e+01 2.809312e+01 6.374453e+01 2.861498e+01 6.588537e+01 3.825154e+01 3.067452e+01 3.973260e+01 2.945023e+01 2.870675e+01 2.597336e+01 2.003567e+00 4.698727e+00 7.216490e+00 7.092665e+00 5.710555e+00 7.890214e+00 5.493025e+00 5.697603e+00 5.903815e+00 4.979475e+00 4.900746e+00 5.190041e+00 3.050391e-01 4.251455e-01 4.779342e-01 1.047229e+00 6.262021e-01 7.770864e-01 6.500761e-01 7.008535e-01 7.214835e-01 6.024684e-01 7.423441e-01 5.379338e-01
<GCONST> 1.223467e+02
<TRANSP> 5
 0.000000e+00 1.000000e+00 0.000000e+00 0.000000e+00 0.000000e+00
 0.000000e+00 6.837062e-01 3.162938e-01 0.000000e+00 0.000000e+00
 0.000000e+00 0.000000e+00 4.331253e-01 5.668747e-01 0.000000e+00
 0.000000e+00 0.000000e+00 0.000000e+00 2.411110e-01 7.588890e-01
 0.000000e+00 0.000000e+00 0.000000e+00 0.000000e+00 0.000000e+00
<ENDHMM>
~h "r"
<BEGINHMM>
<NUMSTATES> 5
<STATE> 2
<MEAN> 36
 3.178093e+00 -4.090328e+00 -1.588993e+00 3.630386e+00 -5.618472e+00 -4.391953e+00 -1.059146e+01 -2.146474e+00 1.760589e+00 8.495189e-01 -1.042279e+00 -6.238825e+00 1.856508e-01 1.854649e-01 -6.406491e-02 1.058839e+00 -5.219695e-02 -3.086871e-01 6.348800e-03 -2.717675e-01 8.803211e-02 -3.981771e-01 -2.910340e-01 6.370216e-01 -2.611900e-02 -1.488902e-01 1.023309e-01 -6.166537e-01 -2.428191e-01 1.612508e-01 6.936833e-02 2.965991e-01 -3.211166e-01 5.086100e-02 3.068086e-01 -3.133895e-01
<VARIANCE> 36
 1.223147e+01 2.259795e+01 3.926935e+01 3.362932e+01 3.285318e+01 4.607949e+01 6.039942e+01 5.660039e+01 4.861700e+01 3.878519e+01 3.890524e+01 4.667066e+01 1.163153e+00 1.769718e+00 2.208257e+00 2.224034e+00 3.063594e+00 3.423193e+00 3.417693e+00 3.838083e+00 3.634790e+00 3.375437e+00 3.466799e+00 2.891863e+00 1.778684e-01 3.846993e-01 3.789263e-01 5.085595e-01 6.416621e-01 5.975124e-01 6.660022e-01 7.163757e-01 7.059708e-01 6.839848e-01 6.941779e-01 5.805892e-01
<GCONST> 1.138627e+02
<STATE> 3
<MEAN> 36
 3.657088e+00 -4.779243e+00 -1.564736e+00 4.076547e+00 -6.889106e+00 -5.272874e+00 -1.052462e+01 -1.856509e+00 1.346937e+00 4.172346e-01 -2.024007e-01 -5.778845e+00 1.584301e-01 -2.947869e-01 1.989433e-01 -2.651081e-01 -7.821095e-01 4.708236e-02 2.239382e-01 5.585940e-01 -5.568591e-01 -2.813779e-01 4.862483e-01 -3.313820e-01 -1.349798e-01 -9.472572e-02 2.594276e-01 -7.095345e-01 -1.022697e-01 2.849244e-01 8.769581e-02 3.505159e-01 -4.506285e-01 1.355328e-01 2.343601e-01 -4.078102e-01
<VARIANCE> 36
 1.555265e+01 2.631125e+01 4.570041e+01 3.474060e+01 3.727455e+01 5.089944e+01 7.243951e+01 6.831354e+01 5.651986e+01 4.058771e+01 4.158098e+01 4.491497e+01 1.234637e+00 2.786138e+00 2.726564e+00 2.225721e+00 3.918484e+00 3.836915e+00 3.655409e+00 4.757726e+00 4.115219e+00 3.448322e+00 3.652649e+00 3.291408e+00 2.248008e-01 4.046088e-01 4.396802e-01 4.797093e-01 7.358705e-01 6.216198e-01 7.722874e-01 7.860783e-01 7.194940e-01 6.895208e-01 7.734202e-01 5.575080e-01
<GCONST> 1.178405e+02
<STATE> 4
<MEAN> 36
 3.570808e+00 -5.114712e+00 -1.386529e+00 2.661388e+00 -8.162282e+00 -3.878640e+00 -8.907357e+00 -8.426287e-01 -1.372835e-01 -1.173031e-01 6.688801e-01 -7.013792e+00 -2.002278e-01 -4.085438e-02 7.119515e-01 -9.588478e-01 -4.092064e-01 5.266681e-01 2.566530e-01 8.219064e-01 -1.110858e+00 -8.672567e-02 4.471044e-01 -5.697038e-01 -1.468039e-01 1.081003e-01 1.881501e-01 -2.687793e-01 1.992456e-01 1.182098e-01 -3.269110e-02 3.705007e-02 -2.228663e-01 1.512422e-01 -5.771946e-02 -7.123923e-02
<VARIANCE> 36
 2.095755e+01 3.977938e+01 5.553567e+01 3.577060e+01 5.082382e+01 6.653448e+01 7.721590e+01 8.244250e+01 6.808865e+01 5.235666e+01 4.861893e+01 5.447392e+01 1.396258e+00 3.320197e+00 3.329282e+00 2.600463e+00 4.670979e+00 4.110126e+00 3.986887e+00 4.991134e+00 4.127087e+00 3.745401e+00 4.028570e+00 3.491349e+00 2.481600e-01 2.946580e-01 4.490179e-01 4.015272e-01 6.442125e-01 6.534979e-01 7.240903e-01 7.280072e-01 7.169674e-01 6.799047e-01 7.011706e-01 5.041335e-01
<GCONST> 1.208559e+02
<TRANSP> 5
 0.000000e+00 1.000000e+00 0.000000e+00 0.000000e+00 0.000000e+00
 0.000000e+00 3.996576e-01 6.003423e-01 0.000000e+00 0.000000e+00
 0.000000e+00 0.000000e+00 1.121745e-01 8.878255e-01 0.000000e+00
 0.000000e+00 0.000000e+00 0.000000e+00 2.844678e-01 7.155322e-01
 0.000000e+00 0.000000e+00 0.000000e+00 0.000000e+00 0.000000e+00
<ENDHMM>
~h "s"
<BEGINHMM>
<NUMSTATES> 5
<STATE> 2
<MEAN> 36
 -5.950007e+00 4.379962e+00 1.874106e+00 -6.341756e-01 1.713911e+00 -7.413959e+00 -2.074189e+00 -3.385150e-01 -1.400254e+00 -1.579017e+00 -1.813446e+00 -3.350481e+00 -3.476808e+00 2.555003e+00 -7.536458e-01 -6.362303e-01 2.221147e+00 -1.204056e+00 1.677427e+00 -4.256482e-01 6.368917e-01 -1.082019e+00 2.886337e-01 5.619710e-01 -1.380028e-01 -2.756982e-01 -9.281074e-02 -2.528378e-01 -4.238369e-01 2.069105e-01 -4.691391e-01 1.288004e-01 -1.747554e-01 -5.114134e-02 1.482221e-01 -2.928091e-01
<VARIANCE> 36
 3.512872e+01 3.326985e+01 4.285668e+01 2.605691e+01 4.507674e+01 5.788493e+01 5.366605e+01 5.071320e+01 4.662186e+01 3.597021e+01 3.232249e+01 3.046607e+01 1.698543e+00 2.495717e+00 3.172616e+00 2.894772e+00 3.342828e+00 3.609655e+00 4.670966e+00 4.419365e+00 3.599390e+00 3.469064e+00 2.779961e+00 2.763494e+00 6.577970e-01 5.096741e-01 3.595534e-01 4.504285e-01 6.221485e-01 6.014374e-01 7.282947e-01 6.569587e-01 5.446807e-01 5.807822e-01 4.655009e-01 4.837445e-01
<GCONST> 1.168062e+02
<STATE> 3
<MEAN> 36
 -1.597273e+01 8.734057e+00 -3.542558e-02 -2.678209e+00 4.047615e+00 -8.871027e+00 -1.701409e+00 -3.179867e-01 -7.979754e-01 -4.917912e+00 -4.836291e-01 -2.741274e+00 -7.975988e-02 -3.644670e-01 3.774901e-02 4.868812e-02 -1.153453e-01 9.527797e-02 -1.743659e-01 1.452553e-01 2.874311e-02 -7.670605e-02 -3.849380e-02 3.191624e-02 9.712399e-01 -5.599526e-01 2.320729e-01 1.626874e-01 -4.449902e-01 1.263529e-01 -3.027245e-01 -2.459169e-02 -7.248504e-02 2.650860e-01 -7.538176e-02 -9.195085e-02
<VARIANCE> 36
 1.438540e+01 2.594394e+01 2.806534e+01 2.904535e+01 3.542693e+01 3.759602e+01 3.971871e+01 3.326262e+01 3.223289e+01 2.567330e+01 2.472845e+01 2.315394e+01 3.211305e+00 1.796088e+00 1.744049e+00 1.508107e+00 1.826610e+00 2.154877e+00 2.301365e+00 2.226850e+00 2.128227e+00 2.051166e+00 1.802049e+00 1.705280e+00 4.151202e-01 3.951130e-01 3.596170e-01 3.641230e-01 4.516356e-01 5.194643e-01 5.637151e-01 5.500393e-01 4.955819e-01 4.946612e-01 3.901727e-01 3.930001e-01
<GCONST> 1.048157e+02
<STATE> 4
<MEAN> 36
 -7.193705e+00 3.129723e+00 5.182335e-01 -1.558290e+00 1.424867e+00 -8.160119e+00 -3.996488e+00 -5.427409e-01 -4.652183e-01 -2.416257e+00 -2.070866e+00 -3.746536e+00 3.467432e+00 -2.006504e+00 3.271327e-01 -6.088057e-02 -2.090332e+00 5.249272e-01 -1.624860e+00 -3.834014e-01 -2.965461e-01 1.059682e+00 2.346067e-02 -7.779735e-01 -3.389471e-02 -3.151314e-02 8.151645e-02 -1.918583e-01 -2.594954e-01 2.612318e-01 -9.854969e-02 -1.513050e-02 -1.813181e-01 -2.893552e-03 2.849503e-01 -1.559838e-01
<VARIANCE> 36
 3.749099e+01 2.841220e+01 3.822834e+01 2.130069e+01 3.892512e+01 4.338067e+01 4.979725e+01 3.072254e+01 3.690049e+01 3.145592e+01 2.431354e+01 2.481560e+01 2.235370e+00 3.573920e+00 4.578870e+00 2.981805e+00 3.419627e+00 4.036345e+00 4.318489e+00 4.613029e+00 4.470347e+00 3.362167e+00 2.954257e+00 2.977952e+00 6.988670e-01 4.339285e-01 3.712835e-01 3.493567e-01 4.897332e-01 4.988156e-01 7.173970e-01 6.245730e-01 5.608951e-01 5.138572e-01 4.168938e-01 4.462143e-01
<GCONST> 1.148802e+02
<TRANSP> 5
 0.000000e+00 1.000000e+00 0.000000e+00 0.000000e+00 0.000000e+00
 0.000000e+00 6.452516e-01 3.547484e-01 0.000000e+00 0.000000e+00
 0.000000e+00 0.000000e+00 8.073421e-01 1.926579e-01 0.000000e+00
 0.000000e+00 0.000000e+00 0.000000e+00 5.702498e-01 4.297502e-01
 0.000000e+00 0.000000e+00 0.000000e+00 0.000000e+00 0.000000e+00
<ENDHMM>
~h "t"
<BEGINHMM>
<NUMSTATES> 5
<STATE> 2
<MEAN> 36
 1.009172e+00 2.826159e+00 -2.353228e+00 2.778160e+00 -5.254839e+00 -2.088935e-01 -6.331177e+00 9.975149e-02 -3.947037e+00 4.512910e-01 -2.040886e+00 -4.681589e+00 -5.368801e-01 2.123190e-01 -4.710725e-01 4.404303e-02 4.212070e-01 4.569349e-02 6.050539e-01 -5.088814e-02 3.427225e-01 -3.690047e-01 -6.053270e-02 5.012946e-01 -2.905069e-01 -3.788335e-01 3.367778e-01 -5.387396e-01 2.878181e-01 -5.497484e-01 -1.011541e-01 -1.307303e-01 2.751743e-01 -1.718989e-02 1.209157e-01 -1.082502e-01
<VARIANCE> 36
 8.123153e+00 1.733951e+01 3.235884e+01 2.009125e+01 2.598713e+01 3.248562e+01 2.890684e+01 3.023976e+01 3.545919e+01 2.599195e+01 2.948947e+01 2.847862e+01 7.736850e-01 9.148747e-01 1.478128e+00 1.660603e+00 2.277451e+00 2.757160e+00 2.503312e+00 2.410783e+00 2.353782e+00 2.296424e+00 1.899517e+00 1.810997e+00 1.544320e-01 2.233593e-01 3.239312e-01 3.846471e-01 4.389406e-01 5.756989e-01 5.331272e-01 5.451232e-01 5.788049e-01 4.953410e-01 4.199251e-01 4.214925e-01
<GCONST> 1.007277e+02
<STATE> 3
<MEAN> 36
 -9.742113e-01 3.082324e+00 -1.761904e+00 2.106064e+00 -3.391230e+00 -1.473833e+00 -4.766571e+00 -3.461926e-01 -3.488428e+00 -6.325539e-01 -1.967124e+00 -3.170908e+00 -1.534378e+00 -9.591151e-01 4.978617e-01 -1.591522e+00 1.521795e+00 -1.916986e+00 3.590261e-01 -6.504072e-01 1.362734e+00 -4.946045e-01 2.159550e-01 7.087475e-02 2.493157e-01 -4.922636e-01 4.242016e-01 -6.242502e-01 -2.746319e-01 -2.598220e-01 -7.408312e-01 -8.499637e-02 9.065871e-02 2.388432e-01 1.948557e-01 -5.304996e-01
<VARIANCE> 36
 1.279175e+01 1.855413e+01 2.792025e+01 2.269408e+01 3.009308e+01 4.166315e+01 3.290885e+01 3.329451e+01 3.711514e+01 2.549250e+01 2.766806e+01 2.540677e+01 1.593981e+00 2.256492e+00 3.306670e+00 3.202881e+00 3.657561e+00 4.625207e+00 4.612281e+00 4.349234e+00 4.543862e+00 3.628453e+00 3.340842e+00 2.915595e+00 2.236519e-01 3.675282e-01 5.755324e-01 4.733693e-01 5.715187e-01 7.384083e-01 6.256078e-01 8.629977e-01 8.476241e-01 6.052045e-01 5.798256e-01 5.095782e-01
<GCONST> 1.130065e+02
<STATE> 4
<MEAN> 36
 -5.218378e+00 5.900126e-02 8.314059e-02 -2.876616e+00 5.998075e-01 -7.485631e+00 -4.669820e+00 -2.863599e+00 6.768259e-01 -1.492969e+00 -9.999511e-01 -4.064193e+00 5.255663e-01 -1.397969e+00 8.678862e-01 -2.091131e+00 -3.880611e-01 -7.024970e-01 -1.961835e+00 -4.317392e-01 6.316640e-01 4.994336e-01 6.820351e-01 -1.357968e+00 8.484977e-01 -7.151265e-02 7.126068e-02 1.012081e-01 -8.858270e-01 8.691736e-01 -6.576151e-01 2.579241e-01 -6.069453e-01 3.301698e-01 1.528771e-01 -3.132789e-01
<VARIANCE> 36
 1.969291e+01 2.114318e+01 2.806732e+01 2.690407e+01 2.949127e+01 4.742915e+01 5.233524e+01 4.010185e+01 3.962628e+01 3.396510e+01 2.691188e+01 2.956647e+01 2.667290e+00 3.423548e+00 5.443514e+00 4.289485e+00 4.546731e+00 5.703940e+00 5.771147e+00 6.481098e+00 6.878463e+00 4.261572e+00 4.468169e+00 3.996091e+00 3.488281e-01 4.732104e-01 5.609210e-01 5.857096e-01 6.438776e-01 9.800457e-01 1.007340e+00 9.329126e-01 8.211366e-01 8.023776e-01 7.136165e-01 6.363091e-01
<GCONST> 1.214547e+02
<TRANSP> 5
 0.000000e+00 1.000000e+00 0.000000e+00 0.000000e+00 0.000000e+00
 0.000000e+00 5.851212e-01 4.148788e-01 0.000000e+00 0.000000e+00
 0.000000e+00 0.000000e+00 2.483025e-01 7.516975e-01 0.000000e+00
 0.000000e+00 0.000000e+00 0.000000e+00 4.565341e-01 5.434659e-01
 0.000000e+00 0.000000e+00 0.000000e+00 0.000000e+00 0.000000e+00
<ENDHMM>
~h "u"
<BEGINHMM>
<NUMSTATES> 5
<STATE> 2
<MEAN> 36
 4.575082e+00 1.481832e+00 1.314253e+00 -8.058519e+00 -8.004521e+00 1.336659e+00 -1.601853e+01 -6.328868e+00 -7.239842e+00 1.861700e+00 4.316474e+00 -6.058378e+00 8.395445e-01 -1.315843e-01 3.628909e-01 -1.124915e+00 -9.339549e-01 1.208768e+00 -1.489018e+00 -7.948616e-01 -7.361144e-01 6.220350e-01 1.235410e+00 -2.310030e-01 -3.521818e-01 4.816733e-02 -5.601805e-02 6.860808e-01 2.791481e-01 3.543086e-02 8.004375e-01 2.912751e-01 1.759979e-01 -2.586367e-01 -4.630138e-01 1.564444e-01
<VARIANCE> 36
 1.131475e+01 3.035469e+01 3.902465e+01 7.072980e+01 6.827893e+01 5.689002e+01 7.300184e+01 5.676958e+01 6.218105e+01 5.567469e+01 5.451757e+01 4.618317e+01 1.968605e+00 2.545187e+00 3.272578e+00 5.689811e+00 5.033749e+00 5.301472e+00 6.018524e+00 4.935136e+00 5.834052e+00 4.661939e+00 4.588284e+00 3.547594e+00 2.470079e-01 4.540591e-01 4.264524e-01 9.109939e-01 8.426184e-01 8.540969e-01 1.084642e+00 9.665287e-01 9.979569e-01 8.809609e-01 7.796348e-01 7.116811e-01
<GCONST> 1.256718e+02
<STATE> 3
<MEAN> 36
 4.527480e+00 1.943222e-01 2.524625e+00 -7.651677e+00 -9.494680e+00 3.442978e+00 -1.783803e+01 -7.499063e+00 -6.852171e+00 1.797490e+00 7.055497e+00 -7.349762e+00 -5.215696e-02 2.247854e-01 8.638888e-03 7.449370e-01 2.341481e-01 1.174564e-01 7.656659e-01 2.840289e-01 -7.458335e-03 -2.171732e-01 -6.765221e-01 2.773139e-01 -2.819990e-01 1.893792e-01 -8.825406e-02 5.829294e-01 3.799457e-01 -3.744454e-01 7.340000e-01 3.283785e-01 2.090994e-01 -2.757657e-01 -7.143540e-01 1.556953e-01
<VARIANCE> 36
 8.767515e+00 2.934404e+01 3.903364e+01 6.752470e+01 5.425224e+01 6.203218e+01 6.819489e+01 6.189769e+01 6.326733e+01 5.299894e+01 6.899818e+01 5.450711e+01 7.180838e-01 2.401971e+00 2.120962e+00 4.661740e+00 3.130798e+00 3.913998e+00 4.066514e+00 3.728395e+00 4.690114e+00 3.734497e+00 3.536228e+00 3.410581e+00 2.228008e-01 3.529988e-01 4.089200e-01 6.718436e-01 6.637775e-01 8.020977e-01 8.144547e-01 8.704074e-01 8.596877e-01 7.358603e-01 7.745076e-01 7.229607e-01
<GCONST> 1.199769e+02
<STATE> 4
<MEAN> 36
 4.999896e+00 4.749235e+00 -4.200275e-01 -6.132802e+00 -7.871783e+00 3.316431e+00 -1.178361e+01 -4.648427e+00 -8.284507e+00 -3.078548e-01 1.890062e+00 -3.634907e+00 -2.631836e-01 2.564081e-01 -1.114187e-01 1.072816e+00 3.784687e-01 -1.614179e-01 8.557301e-01 3.013315e-01 2.588848e-01 -1.869891e-01 -7.189149e-01 1.982955e-01 -1.086464e-01 -8.949529e-02 2.981422e-02 3.765941e-02 6.290233e-02 -5.823240e-02 -1.942086e-02 -3.784394e-04 8.347243e-02 1.328383e-02 3.596930e-02 -6.517194e-02
<VARIANCE> 36
 9.600355e+00 3.224624e+01 2.732652e+01 7.921028e+01 5.722861e+01 5.022531e+01 4.496754e+01 4.365799e+01 4.347024e+01 4.848279e+01 5.013314e+01 3.989351e+01 6.261263e-01 1.383274e+00 1.361991e+00 2.520233e+00 2.314422e+00 2.541016e+00 2.728177e+00 2.731102e+00 2.592005e+00 2.564322e+00 2.561555e+00 2.261782e+00 1.123733e-01 2.046308e-01 1.993291e-01 4.406447e-01 3.675335e-01 4.355125e-01 4.605937e-01 4.450045e-01 4.599973e-01 4.577452e-01 3.997895e-01 3.851204e-01
<GCONST> 1.058485e+02
<TRANSP> 5
 0.000000e+00 1.000000e+00 0.000000e+00 0.000000e+00 0.000000e+00
 0.000000e+00 3.636599e-01 6.363402e-01 0.000000e+00 0.000000e+00
 0.000000e+00 0.000000e+00 4.207437e-01 5.792562e-01 0.000000e+00
 0.000000e+00 0.000000e+00 0.000000e+00 7.245219e-01 2.754780e-01
 0.000000e+00 0.000000e+00 0.000000e+00 0.000000e+00 0.000000e+00
<ENDHMM>
~h "v"
<BEGINHMM>
<NUMSTATES> 5
<STATE> 2
<MEAN> 36
 0.000000e+00 0.000000e+00 0.000000e+00 0.000000e+00 0.000000e+00 0.000000e+00 0.000000e+00 0.000000e+00 0.000000e+00 0.000000e+00 0.000000e+00 0.000000e+00 0.000000e+00 0.000000e+00 0.000000e+00 0.000000e+00 0.000000e+00 0.000000e+00 0.000000e+00 0.000000e+00 0.000000e+00 0.000000e+00 0.000000e+00 0.000000e+00 0.000000e+00 0.000000e+00 0.000000e+00 0.000000e+00 0.000000e+00 0.000000e+00 0.000000e+00 0.000000e+00 0.000000e+00 0.000000e+00 0.000000e+00 0.000000e+00
<VARIANCE> 36
 1.000000e+00 1.000000e+00 1.000000e+00 1.000000e+00 1.000000e+00 1.000000e+00 1.000000e+00 1.000000e+00 1.000000e+00 1.000000e+00 1.000000e+00 1.000000e+00 1.000000e+00 1.000000e+00 1.000000e+00 1.000000e+00 1.000000e+00 1.000000e+00 1.000000e+00 1.000000e+00 1.000000e+00 1.000000e+00 1.000000e+00 1.000000e+00 1.000000e+00 1.000000e+00 1.000000e+00 1.000000e+00 1.000000e+00 1.000000e+00 1.000000e+00 1.000000e+00 1.000000e+00 1.000000e+00 1.000000e+00 1.000000e+00
<GCONST> 6.616357e+01
<STATE> 3
<MEAN> 36
 0.000000e+00 0.000000e+00 0.000000e+00 0.000000e+00 0.000000e+00 0.000000e+00 0.000000e+00 0.000000e+00 0.000000e+00 0.000000e+00 0.000000e+00 0.000000e+00 0.000000e+00 0.000000e+00 0.000000e+00 0.000000e+00 0.000000e+00 0.000000e+00 0.000000e+00 0.000000e+00 0.000000e+00 0.000000e+00 0.000000e+00 0.000000e+00 0.000000e+00 0.000000e+00 0.000000e+00 0.000000e+00 0.000000e+00 0.000000e+00 0.000000e+00 0.000000e+00 0.000000e+00 0.000000e+00 0.000000e+00 0.000000e+00
<VARIANCE> 36
 1.000000e+00 1.000000e+00 1.000000e+00 1.000000e+00 1.000000e+00 1.000000e+00 1.000000e+00 1.000000e+00 1.000000e+00 1.000000e+00 1.000000e+00 1.000000e+00 1.000000e+00 1.000000e+00 1.000000e+00 1.000000e+00 1.000000e+00 1.000000e+00 1.000000e+00 1.000000e+00 1.000000e+00 1.000000e+00 1.000000e+00 1.000000e+00 1.000000e+00 1.000000e+00 1.000000e+00 1.000000e+00 1.000000e+00 1.000000e+00 1.000000e+00 1.000000e+00 1.000000e+00 1.000000e+00 1.000000e+00 1.000000e+00
<GCONST> 6.616357e+01
<STATE> 4
<MEAN> 36
 0.000000e+00 0.000000e+00 0.000000e+00 0.000000e+00 0.000000e+00 0.000000e+00 0.000000e+00 0.000000e+00 0.000000e+00 0.000000e+00 0.000000e+00 0.000000e+00 0.000000e+00 0.000000e+00 0.000000e+00 0.000000e+00 0.000000e+00 0.000000e+00 0.000000e+00 0.000000e+00 0.000000e+00 0.000000e+00 0.000000e+00 0.000000e+00 0.000000e+00 0.000000e+00 0.000000e+00 0.000000e+00 0.000000e+00 0.000000e+00 0.000000e+00 0.000000e+00 0.000000e+00 0.000000e+00 0.000000e+00 0.000000e+00
<VARIANCE> 36
 1.000000e+00 1.000000e+00 1.000000e+00 1.000000e+00 1.000000e+00 1.000000e+00 1.000000e+00 1.000000e+00 1.000000e+00 1.000000e+00 1.000000e+00 1.000000e+00 1.000000e+00 1.000000e+00 1.000000e+00 1.000000e+00 1.000000e+00 1.000000e+00 1.000000e+00 1.000000e+00 1.000000e+00 1.000000e+00 1.000000e+00 1.000000e+00 1.000000e+00 1.000000e+00 1.000000e+00 1.000000e+00 1.000000e+00 1.000000e+00 1.000000e+00 1.000000e+00 1.000000e+00 1.000000e+00 1.000000e+00 1.000000e+00
<GCONST> 6.616357e+01
<TRANSP> 5
 0.000000e+00 1.000000e+00 0.000000e+00 0.000000e+00 0.000000e+00
 0.000000e+00 6.000000e-01 4.000000e-01 0.000000e+00 0.000000e+00
 0.000000e+00 0.000000e+00 6.000000e-01 4.000000e-01 0.000000e+00
 0.000000e+00 0.000000e+00 0.000000e+00 7.000000e-01 3.000000e-01
 0.000000e+00 0.000000e+00 0.000000e+00 0.000000e+00 0.000000e+00
<ENDHMM>
~h "w"
<BEGINHMM>
<NUMSTATES> 5
<STATE> 2
<MEAN> 36
 3.904194e+00 -6.691141e-01 -4.262673e+00 -6.602621e+00 -6.616291e+00 6.120019e+00 -7.006527e+00 -3.516704e+00 -5.190850e+00 2.639120e+00 2.246060e+00 -5.388613e+00 8.872476e-01 7.048303e-01 -2.224400e-01 -1.366172e+00 -9.322160e-01 4.940988e-01 -6.066617e-02 -2.423560e-01 -1.254822e+00 -2.363824e-01 8.695891e-01 7.877229e-01 8.300298e-02 -5.777013e-02 5.392867e-02 -2.808832e-01 -1.024600e-01 -1.577090e-02 -2.190112e-01 1.915953e-01 1.157133e-01 -5.840425e-02 4.990038e-02 -1.363119e-01
<VARIANCE> 36
 1.600731e+01 3.872335e+01 2.233820e+01 9.007916e+01 4.544904e+01 5.567825e+01 5.306877e+01 2.784846e+01 3.621749e+01 4.737159e+01 3.865059e+01 4.755423e+01 8.517995e-01 1.224366e+00 1.017832e+00 3.239220e+00 1.515103e+00 2.448324e+00 1.793359e+00 1.752342e+00 2.186926e+00 2.190135e+00 2.267604e+00 2.828937e+00 1.333981e-01 1.656978e-01 1.181345e-01 5.456214e-01 3.235812e-01 5.092969e-01 3.221646e-01 3.500215e-01 4.135441e-01 4.096323e-01 4.488346e-01 4.469306e-01
<GCONST> 1.034935e+02
<STATE> 3
<MEAN> 36
 7.145865e+00 1.166294e+00 -4.106017e+00 -1.351272e+01 -1.119450e+01 9.611871e+00 -1.030337e+01 -3.334339e+00 -6.953469e+00 4.854550e-01 7.097855e+00 -4.233025e+00 2.134361e-01 -8.282278e-01 -1.001973e-01 -1.410258e+00 2.622490e-02 7.321565e-01 -7.169244e-01 -7.462385e-02 3.824753e-01 6.057187e-01 7.196440e-01 -7.307103e-01 -3.204370e-01 -4.800682e-01 3.034409e-02 3.528710e-01 4.347600e-01 -1.390096e-01 4.531924e-02 1.345443e-01 4.962280e-01 1.939829e-01 -2.856233e-01 -5.255512e-01
<VARIANCE> 36
 5.499818e+00 2.978477e+01 2.274664e+01 5.066807e+01 4.886393e+01 5.511005e+01 3.497087e+01 3.244242e+01 3.539265e+01 3.063095e+01 4.123172e+01 4.164944e+01 1.000843e+00 3.265059e+00 9.066400e-01 4.970717e+00 2.529511e+00 2.559269e+00 3.283873e+00 2.247349e+00 2.642656e+00 2.742218e+00 2.875186e+00 4.376025e+00 1.229253e-01 2.311078e-01 1.509222e-01 5.757494e-01 3.419075e-01 4.977171e-01 4.196035e-01 4.124834e-01 3.826610e-01 3.811868e-01 5.432680e-01 5.457469e-01
<GCONST> 1.060805e+02
<STATE> 4
<MEAN> 36
 5.170702e+00 -5.447946e+00 -3.664670e+00 -1.713590e+01 -2.781024e+00 8.444182e+00 -1.464115e+01 2.629917e-01 -2.852306e+00 7.607255e+00 2.525851e+00 -1.058928e+01 -3.964445e-01 -9.299768e-01 -1.268058e-02 4.300299e-01 7.542661e-01 -4.341303e-01 2.207474e-01 5.140015e-01 8.084472e-01 -1.244561e-01 -8.279262e-01 -1.014157e+00 -1.521399e-02 2.744970e-01 5.199030e-02 3.478311e-01 -5.766502e-02 -2.673653e-01 1.965274e-01 -1.799713e-02 -1.175405e-01 -2.983828e-01 -1.707132e-01 3.059787e-01
<VARIANCE> 36
 5.743590e+00 4.060842e+01 2.226413e+01 4.569598e+01 7.442995e+01 3.988635e+01 4.122847e+01 3.630460e+01 3.782704e+01 5.636904e+01 8.039587e+01 5.594398e+01 3.303973e-01 1.645916e+00 8.183255e-01 1.941255e+00 1.752151e+00 1.659674e+00 1.915269e+00 1.545150e+00 2.213562e+00 1.846111e+00 2.140417e+00 2.573539e+00 4.601541e-02 1.909347e-01 1.354197e-01 3.763273e-01 2.581507e-01 2.726887e-01 3.274731e-01 2.333690e-01 2.941270e-01 3.237512e-01 4.195925e-01 3.208591e-01
<GCONST> 9.775081e+01
<TRANSP> 5
 0.000000e+00 1.000000e+00 0.000000e+00 0.000000e+00 0.000000e+00
 0.000000e+00 5.979351e-01 4.020649e-01 0.000000e+00 0.000000e+00
 0.000000e+00 0.000000e+00 7.543374e-01 2.456626e-01 0.000000e+00
 0.000000e+00 0.000000e+00 0.000000e+00 7.613847e-01 2.386153e-01
 0.000000e+00 0.000000e+00 0.000000e+00 0.000000e+00 0.000000e+00
<ENDHMM>
~h "y"
<BEGINHMM>
<NUMSTATES> 5
<STATE> 2
<MEAN> 36
 -1.829443e+00 -4.422013e+00 1.535111e+01 -5.755803e+00 -1.565798e+01 -9.159970e+00 -1.044067e+01 4.768864e+00 -8.115255e+00 -1.021087e+00 5.923109e+00 -4.485894e+00 -1.059406e-01 -5.302656e-01 7.819687e-01 -4.973663e-01 -7.975721e-01 -6.246763e-01 -1.225188e-01 9.976841e-01 -1.470266e-01 2.560394e-02 7.085009e-01 3.265865e-02 1.426041e-01 -1.172319e-01 -7.046075e-01 1.452411e-01 4.304757e-01 1.954764e-01 1.774204e-01 1.172715e-01 3.557803e-01 1.119986e-02 -4.647652e-01 -2.435505e-01
<VARIANCE> 36
 7.242377e+00 3.394684e+01 4.211517e+01 3.067523e+01 3.961909e+01 4.308868e+01 5.400304e+01 5.629894e+01 6.727117e+01 6.959786e+01 4.067294e+01 2.935970e+01 7.121815e-01 2.164644e+00 4.864757e+00 1.951703e+00 2.611065e+00 2.862780e+00 3.422145e+00 4.783592e+00 3.297334e+00 2.676054e+00 2.667102e+00 2.258783e+00 8.936812e-02 2.126759e-01 5.541552e-01 3.040228e-01 4.261268e-01 5.015083e-01 4.798113e-01 6.739872e-01 5.017269e-01 4.354964e-01 4.040103e-01 3.367624e-01
<GCONST> 1.093633e+02
<STATE> 3
<MEAN> 36
 -1.053735e+00 -8.970431e+00 1.095899e+01 -6.683729e+00 -1.597778e+01 -1.008943e+01 -7.404468e+00 1.242269e+01 -4.082006e+00 -2.957830e+00 4.982489e+00 -7.430342e+00 3.523141e-01 -7.310544e-01 -1.585504e+00 1.829244e-01 1.189100e+00 4.846346e-01 5.906225e-01 1.028867e+00 7.831682e-01 -4.530845e-01 -1.538929e+00 -9.865470e-01 8.591500e-02 2.344613e-01 -2.017467e-01 2.029292e-01 4.494368e-01 3.536837e-01 -1.324180e-01 -6.565303e-01 -1.345956e-01 1.510936e-01 -3.262752e-01 -7.823135e-02
<VARIANCE> 36
 5.341049e+00 1.896208e+01 2.094012e+01 2.359926e+01 3.441879e+01 4.167187e+01 5.324514e+01 4.830529e+01 4.414078e+01 6.637025e+01 3.907698e+01 3.522737e+01 3.042338e-01 1.155256e+00 2.274114e+00 1.163109e+00 1.684842e+00 1.695562e+00 1.711532e+00 2.826387e+00 2.445075e+00 1.714068e+00 2.168297e+00 1.529184e+00 6.862301e-02 1.749703e-01 2.882272e-01 2.060358e-01 3.028514e-01 3.671587e-01 3.176269e-01 6.970455e-01 3.301902e-01 4.720101e-01 4.023267e-01 3.013628e-01
<GCONST> 9.758096e+01
<STATE> 4
<MEAN> 36
 3.247052e-01 -9.890412e+00 5.199972e+00 -5.312864e+00 -9.219143e+00 -7.168315e+00 -6.458606e+00 1.148449e+01 -2.383339e+00 -3.675295e+00 -1.930334e+00 -9.688840e+00 4.171820e-01 9.491600e-03 -1.232260e+00 4.072075e-01 1.424740e+00 9.862831e-01 -1.564185e-01 -7.553403e-01 6.098457e-02 3.814582e-01 -1.091669e+00 -5.349275e-01 -9.103213e-05 2.945859e-01 1.792081e-01 7.841299e-02 -1.206699e-01 1.222275e-01 -6.872270e-02 -4.523014e-01 -2.646200e-01 2.670711e-01 2.761762e-01 2.031112e-01
<VARIANCE> 36
 5.486609e+00 2.286881e+01 3.470368e+01 2.531317e+01 3.251939e+01 5.515895e+01 5.094193e+01 4.158264e+01 4.434269e+01 7.618668e+01 3.301401e+01 4.398225e+01 3.263980e-01 8.027618e-01 1.765282e+00 1.204814e+00 1.827436e+00 1.726085e+00 1.863486e+00 2.951992e+00 1.994415e+00 2.408413e+00 2.206576e+00 1.714750e+00 5.809688e-02 2.162478e-01 2.794157e-01 2.539313e-01 2.497024e-01 3.809380e-01 3.065822e-01 6.965872e-01 3.876894e-01 3.915412e-01 3.126710e-01 2.857234e-01
<GCONST> 9.827943e+01
<TRANSP> 5
 0.000000e+00 1.000000e+00 0.000000e+00 0.000000e+00 0.000000e+00
 0.000000e+00 7.471718e-01 2.528282e-01 0.000000e+00 0.000000e+00
 0.000000e+00 0.000000e+00 6.081750e-01 3.918250e-01 0.000000e+00
 0.000000e+00 0.000000e+00 0.000000e+00 5.594817e-01 4.405183e-01
 0.000000e+00 0.000000e+00 0.000000e+00 0.000000e+00 0.000000e+00
<ENDHMM>
~h "z"
<BEGINHMM>
<NUMSTATES> 5
<STATE> 2
<MEAN> 36
 -1.630031e+00 3.323775e+00 1.158375e+01 -7.643273e+00 -4.895278e+00 -2.646742e+00 -1.204308e+01 -4.599110e-01 -7.436946e+00 4.186182e+00 -5.379929e-01 -1.657290e+00 -7.317270e-02 -7.625776e-01 5.027518e-01 -1.069944e+00 -6.926395e-01 1.528442e+00 -5.813754e-01 -6.291430e-01 -2.751330e-01 7.258556e-01 2.058141e-01 -1.781278e-01 1.357977e-01 1.934747e-01 -4.471731e-01 3.702300e-01 2.814746e-01 -6.907451e-02 -1.305601e-01 1.083207e-01 2.130393e-01 -4.700357e-02 4.577904e-02 -8.496295e-02
<VARIANCE> 36
 1.483611e+01 8.410568e+00 9.147216e+01 3.570724e+01 2.526323e+01 9.746840e+01 9.627942e+01 3.110370e+01 4.546280e+01 2.583088e+01 7.331552e+00 5.089972e+01 7.745076e-01 1.365219e+00 3.944964e+00 4.759751e+00 1.338597e+00 4.165572e+00 2.067910e+00 1.439150e+00 2.778687e+00 2.277997e+00 1.795114e+00 2.443922e+00 7.868624e-02 3.015281e-01 2.987410e-01 3.222538e-01 3.525766e-01 7.299999e-01 6.594630e-01 3.836273e-01 3.943981e-01 5.615782e-01 3.028850e-01 5.249320e-01
<GCONST> 1.048472e+02
<STATE> 3
<MEAN> 36
 -6.911865e-01 2.246725e+00 1.491817e+01 -1.337166e+01 -7.173615e+00 1.267336e+01 -1.443033e+01 -2.801625e+00 -6.138544e+00 -8.538665e-02 -6.373016e+00 -8.425583e+00 1.288911e-01 2.396061e-01 -1.100133e+00 7.115974e-01 2.740333e-01 2.320521e-01 5.378193e-01 1.499046e-01 3.824879e-01 -6.143358e-01 -4.510645e-01 -6.851267e-02 2.776577e-03 5.860935e-02 -9.154264e-03 8.753199e-02 -3.265288e-02 -8.692539e-02 8.559834e-02 5.462379e-02 -6.028205e-02 -2.883828e-02 2.926711e-03 1.414594e-01
<VARIANCE> 36
 3.724403e+00 1.907557e+01 7.132829e+01 5.729121e+01 6.673238e+00 4.942299e+01 3.695811e+01 7.368531e+00 1.796316e+01 3.022529e+01 3.271679e+01 1.956530e+01 1.853695e-01 1.146485e+00 2.523924e-01 1.585617e+00 5.598186e-01 6.527408e-01 1.364624e+00 1.023104e+00 1.640643e+00 1.337785e+00 1.718487e+00 2.129910e+00 2.237553e-02 1.602726e-01 9.492806e-02 2.270849e-01 8.842159e-02 9.658454e-02 1.446210e-01 2.393539e-01 2.539935e-01 2.555652e-01 4.381655e-01 1.306849e-01
<GCONST> 7.866364e+01
<STATE> 4
<MEAN> 36
 -3.356730e+00 2.646315e+00 -1.493551e+00 4.972581e+00 -1.577505e+00 1.455956e+00 -3.829186e+00 5.262014e+00 -2.469261e+00 -3.896626e+00 -2.992309e+00 6.817009e-01 1.890995e-02 3.157006e-02 -9.902894e-02 1.319537e-01 2.492949e-02 6.602195e-02 7.467640e-02 3.374401e-02 -3.918164e-02 -4.462438e-02 -5.082606e-02 6.571777e-02 7.030524e-04 2.973730e-02 3.160493e-02 -1.320929e-02 1.143971e-03 -2.622135e-02 1.108898e-02 -2.665965e-02 -1.164719e-02 -6.367174e-03 -4.969907e-04 -2.446399e-03
<VARIANCE> 36
 4.319199e+00 1.162199e+01 1.757950e+01 1.352538e+01 1.467420e+01 3.183238e+01 2.028035e+01 2.451446e+01 2.022475e+01 2.475657e+01 2.039823e+01 1.427772e+01 1.749254e-01 4.348690e-01 9.067034e-01 1.004096e+00 1.317436e+00 1.635519e+00 1.555482e+00 2.298311e+00 1.540444e+00 1.645745e+00 2.238473e+00 1.335238e+00 2.966581e-02 8.054327e-02 1.750522e-01 1.926423e-01 2.795389e-01 3.054725e-01 3.000013e-01 4.495444e-01 2.780150e-01 3.391469e-01 4.471143e-01 2.800393e-01
<GCONST> 8.286382e+01
<TRANSP> 5
 0.000000e+00 1.000000e+00 0.000000e+00 0.000000e+00 0.000000e+00
 0.000000e+00 7.897584e-01 2.102416e-01 0.000000e+00 0.000000e+00
 0.000000e+00 0.000000e+00 8.334450e-01 1.665550e-01 0.000000e+00
 0.000000e+00 0.000000e+00 0.000000e+00 9.746817e-01 2.531829e-02
 0.000000e+00 0.000000e+00 0.000000e+00 0.000000e+00 0.000000e+00
<ENDHMM>
~h "aw"
<BEGINHMM>
<NUMSTATES> 5
<STATE> 2
<MEAN> 36
 5.084589e+00 -2.481795e-01 -4.767238e-01 -1.426847e+01 -1.365730e+01 1.417132e+01 -1.147807e+01 -3.724902e+00 1.507133e-02 8.395495e-01 2.901567e+00 -5.222799e+00 2.883588e-01 4.623893e-01 -9.166419e-02 -6.327158e-01 -7.258672e-01 6.940314e-01 -1.776811e-01 -2.223928e-01 -7.600601e-01 8.263297e-03 -3.704780e-01 3.808654e-01 -1.970943e-01 1.748266e-01 1.261934e-01 4.240866e-01 4.682117e-01 -6.165171e-01 9.494027e-02 -9.788352e-02 -3.615185e-01 -2.720221e-01 -7.357450e-02 2.998403e-01
<VARIANCE> 36
 4.845957e+00 3.054649e+01 1.386107e+01 6.208546e+01 2.578278e+01 8.927790e+01 2.504549e+01 4.216753e+01 7.525054e+01 6.094796e+01 5.683039e+01 2.156036e+01 7.558947e-01 1.214968e+00 1.603662e+00 3.224194e+00 2.842260e+00 3.776390e+00 2.522971e+00 2.393931e+00 3.184460e+00 2.439923e+00 4.302797e+00 2.009230e+00 1.904368e-01 3.083699e-01 1.878617e-01 2.849819e-01 5.803424e-01 1.799808e-01 4.250826e-01 3.767156e-01 5.849547e-01 5.097021e-01 7.876966e-01 3.444014e-01
<GCONST> 1.057332e+02
<STATE> 3
<MEAN> 36
 5.724894e+00 4.648318e+00 -2.912810e-01 -1.126432e+01 -1.114734e+01 6.935100e+00 -1.083897e+01 -6.150835e+00 -7.570272e+00 -1.377662e+00 1.281504e+00 -3.473774e-01 -4.981921e-01 3.434640e-01 -1.270936e-01 1.400240e+00 1.696703e+00 -1.237431e+00 4.336987e-01 -1.965128e-01 -7.644401e-01 -5.247709e-01 5.449029e-01 -4.931636e-01 -7.375416e-02 -5.368523e-02 1.172459e-01 3.406264e-01 4.197449e-02 4.762584e-03 5.698359e-02 3.722328e-01 2.129136e-01 7.792377e-02 -3.346970e-02 -6.065338e-01
<VARIANCE> 36
 9.950901e+00 3.260051e+01 2.498678e+01 2.607939e+01 2.143970e+01 5.928756e+01 3.625901e+01 2.894160e+01 3.399392e+01 6.236115e+01 4.396837e+01 1.778177e+01 5.734850e-01 1.842295e+00 1.496861e+00 2.573165e+00 2.103790e+00 2.235888e+00 3.476985e+00 2.233682e+00 4.019453e+00 2.370240e+00 1.951863e+00 3.804461e+00 8.920994e-02 1.585978e-01 3.111261e-01 5.745006e-01 5.959015e-01 4.716970e-01 6.582146e-01 4.604224e-01 7.658328e-01 3.939036e-01 4.958052e-01 5.429782e-01
<GCONST> 1.051567e+02
<STATE> 4
<MEAN> 36
 2.731257e+00 5.968354e-01 5.607892e+00 -3.627484e+00 -7.058611e+00 6.608671e-01 -1.147401e+01 -3.696395e+00 -6.676052e+00 4.098003e-01 1.285730e+00 -7.419054e+00 3.771098e-02 6.330998e-01 1.288910e+00 1.983327e+00 -6.638955e-01 -5.147988e-01 7.719690e-01 6.099543e-01 -1.283465e-01 -2.512439e-01 -4.767618e-01 -5.012754e-01 1.347941e-01 5.317412e-02 -9.773462e-02 -1.222515e-01 -4.672377e-01 1.004274e-01 2.075772e-01 -1.480709e-02 2.536646e-02 -3.988862e-02 1.639663e-01 3.324234e-01
<VARIANCE> 36
 7.669842e+00 2.971527e+01 4.208821e+01 3.077656e+01 4.954068e+01 2.320810e+01 9.256401e+01 4.990022e+01 8.768414e+01 6.442709e+01 6.456448e+01 1.625406e+01 7.425863e-01 1.765506e+00 2.321332e+00 1.613188e+00 4.652146e+00 2.590524e+00 6.752556e+00 3.037408e+00 3.296511e+00 4.388134e+00 4.154126e+00 2.750521e+00 1.741530e-01 5.162084e-01 6.202077e-01 3.928269e-01 1.044657e+00 6.792816e-01 1.405131e+00 7.962885e-01 1.056600e+00 6.017749e-01 1.405074e+00 5.225996e-01
<GCONST> 1.172350e+02
<TRANSP> 5
 0.000000e+00 1.000000e+00 0.000000e+00 0.000000e+00 0.000000e+00
 0.000000e+00 8.181826e-01 1.818174e-01 0.000000e+00 0.000000e+00
 0.000000e+00 0.000000e+00 7.397829e-01 2.602171e-01 0.000000e+00
 0.000000e+00 0.000000e+00 0.000000e+00 6.638896e-01 3.361104e-01
 0.000000e+00 0.000000e+00 0.000000e+00 0.000000e+00 0.000000e+00
<ENDHMM>
~h "ay"
<BEGINHMM>
<NUMSTATES> 5
<STATE> 2
<MEAN> 36
 -8.169477e-02 -1.337064e+01 3.789994e+00 -6.830653e+00 -1.165821e+01 -4.833711e+00 -8.761642e+00 1.005157e+01 3.373995e+00 -6.154089e+00 -4.545917e-01 -1.191769e+01 -2.766661e-01 -2.653812e-01 1.154132e+00 7.864457e-02 -1.242056e+00 -1.001135e+00 4.415497e-01 1.292265e+00 -7.253683e-01 -6.629584e-01 7.523935e-01 6.484519e-01 -2.718456e-02 5.505756e-01 2.166419e-01 1.299390e-01 -3.095768e-02 6.679756e-04 -1.111486e-01 -4.424489e-01 -4.299769e-01 2.369940e-01 3.107156e-01 2.735542e-01
<VARIANCE> 36
 5.201797e+00 2.393670e+01 4.497863e+01 1.499232e+01 3.918918e+01 6.411969e+01 6.335095e+01 7.504864e+01 6.424366e+01 7.146960e+01 4.318639e+01 3.470172e+01 2.758708e-01 1.513170e+00 1.932493e+00 1.016533e+00 1.631915e+00 2.258215e+00 1.567896e+00 2.763559e+00 2.249326e+00 1.985334e+00 3.275142e+00 1.757116e+00 1.237437e-01 2.139998e-01 3.540641e-01 2.523602e-01 4.437012e-01 4.495057e-01 4.197690e-01 5.063903e-01 6.111095e-01 3.621109e-01 5.736727e-01 3.912432e-01
<GCONST> 1.031510e+02
<STATE> 3
<MEAN> 36
 -1.906367e+00 -6.713219e+00 1.576151e+01 -7.254036e+00 -1.926104e+01 -8.047195e+00 -1.289809e+01 9.674961e+00 -5.637759e+00 -6.967456e+00 8.136333e+00 -7.261620e+00 1.284445e-01 7.922526e-01 1.561308e-01 2.889760e-01 1.500152e-01 3.338267e-01 -3.161945e-01 -7.404070e-01 -4.980806e-01 2.612631e-01 -1.712016e-02 8.175164e-03 1.287619e-01 1.451143e-03 -4.472682e-01 1.810466e-01 4.237715e-01 2.269617e-01 1.367768e-01 -1.850554e-01 1.006742e-01 1.306947e-01 -3.796340e-01 -1.837550e-01
<VARIANCE> 36
 4.298626e+00 2.394991e+01 3.778280e+01 2.468644e+01 3.136881e+01 3.674904e+01 6.973742e+01 5.497922e+01 5.015992e+01 5.181179e+01 4.009611e+01 2.126249e+01 4.908497e-01 1.147988e+00 3.673759e+00 1.251930e+00 2.779445e+00 1.768287e+00 2.776925e+00 2.730785e+00 2.792961e+00 2.231364e+00 3.040929e+00 2.278241e+00 5.737140e-02 1.583911e-01 3.024091e-01 1.679026e-01 4.413212e-01 3.267083e-01 4.287363e-01 5.570591e-01 4.223401e-01 3.989230e-01 5.057058e-01 3.230973e-01
<GCONST> 1.012419e+02
<STATE> 4
<MEAN> 36
 1.090993e+00 -3.213647e+00 8.843998e+00 -2.758664e-01 -1.324471e+01 -2.831681e+00 -7.679943e+00 2.741367e+00 -6.239002e+00 -3.317475e+00 -2.043092e-02 -6.549064e+00 4.731581e-01 5.204922e-01 -1.173101e+00 9.919591e-01 1.165668e+00 9.492818e-01 5.365334e-01 -1.106928e+00 -5.158871e-01 8.723560e-01 -8.421642e-01 1.045862e-01 -1.481242e-01 -1.282136e-02 7.147782e-02 -1.560708e-01 -8.757814e-02 3.142165e-03 8.279623e-02 -1.199145e-01 -7.424973e-02 -4.972052e-02 1.219485e-01 8.928785e-02
<VARIANCE> 36
 8.453004e+00 1.824640e+01 2.181390e+01 2.487887e+01 2.843529e+01 2.557908e+01 6.456219e+01 4.375983e+01 4.939645e+01 3.740868e+01 5.669548e+01 3.591180e+01 4.747378e-01 1.370552e+00 1.756447e+00 1.426367e+00 1.608947e+00 2.336728e+00 2.538696e+00 3.787856e+00 4.069751e+00 2.482769e+00 2.895156e+00 2.124568e+00 8.635509e-02 2.288624e-01 2.002478e-01 2.430781e-01 2.600275e-01 2.911744e-01 4.619935e-01 4.106743e-01 7.122896e-01 4.398614e-01 4.328949e-01 4.492936e-01
<GCONST> 1.013936e+02
<TRANSP> 5
 0.000000e+00 1.000000e+00 0.000000e+00 0.000000e+00 0.000000e+00
 0.000000e+00 7.513785e-01 2.486216e-01 0.000000e+00 0.000000e+00
 0.000000e+00 0.000000e+00 8.202940e-01 1.797060e-01 0.000000e+00
 0.000000e+00 0.000000e+00 0.000000e+00 7.140056e-01 2.859945e-01
 0.000000e+00 0.000000e+00 0.000000e+00 0.000000e+00 0.000000e+00
<ENDHMM>
~h "eu"
<BEGINHMM>
<NUMSTATES> 5
<STATE> 2
<MEAN> 36
 1.599779e+00 -4.707381e+00 2.252979e+00 -2.965417e+00 -6.738954e+00 -5.225117e+00 -1.117387e+01 9.971564e-01 -1.552807e+00 1.747790e+00 9.526924e-01 -8.562181e+00 8.341646e-01 -9.418798e-01 3.527444e-01 -4.168445e-01 -1.014704e+00 2.071457e-02 -7.170676e-01 7.647858e-01 1.722127e-01 2.343903e-01 3.505565e-01 -6.690626e-01 -1.694401e-01 5.726304e-01 4.737576e-03 5.284793e-01 2.274858e-01 4.179935e-01 4.595185e-01 -3.215764e-01 -3.068896e-01 -2.095960e-01 -2.955420e-01 3.492920e-01
<VARIANCE> 36
 1.945854e+01 4.407332e+01 5.056361e+01 4.811613e+01 6.795588e+01 7.078465e+01 7.293728e+01 8.065396e+01 6.996222e+01 5.418862e+01 4.982373e+01 5.399518e+01 2.382169e+00 2.757692e+00 3.235931e+00 3.806013e+00 3.914852e+00 5.205346e+00 4.580109e+00 7.139730e+00 5.605527e+00 4.217429e+00 4.351777e+00 3.386156e+00 3.449804e-01 4.563958e-01 5.560527e-01 6.766635e-01 7.317817e-01 7.338949e-01 9.241689e-01 1.029922e+00 9.104728e-01 8.084574e-01 7.568102e-01 6.229988e-01
<GCONST> 1.262036e+02
<STATE> 3
<MEAN> 36
 2.174741e+00 -5.161443e+00 2.513883e+00 -2.781378e+00 -7.670302e+00 -4.555650e+00 -1.157155e+01 1.247470e+00 -1.565209e+00 1.561958e+00 1.591510e+00 -8.806792e+00 3.653193e-01 2.617131e-01 2.692057e-01 6.738474e-01 -2.026287e-01 4.595895e-01 1.944224e-01 -2.779146e-01 -4.107700e-01 -4.037872e-02 -2.821319e-01 2.623120e-01 -2.992204e-01 5.796632e-01 -2.907539e-02 4.840276e-01 4.051844e-01 2.008159e-01 5.057814e-01 -4.457553e-01 -2.625934e-01 -2.060890e-01 -3.565769e-01 4.094389e-01
<VARIANCE> 36
 1.605351e+01 4.766206e+01 5.256120e+01 5.316663e+01 6.588435e+01 6.924332e+01 7.104237e+01 9.833723e+01 7.280999e+01 5.606494e+01 5.660163e+01 6.130395e+01 1.299685e+00 1.885046e+00 2.082148e+00 3.168974e+00 2.741980e+00 3.773148e+00 3.878133e+00 3.793703e+00 4.347703e+00 3.146078e+00 3.179018e+00 2.387698e+00 3.424200e-01 4.444130e-01 5.892803e-01 6.166710e-01 7.052898e-01 7.088464e-01 8.338174e-01 1.255530e+00 9.396980e-01 8.385242e-01 8.082097e-01 6.948748e-01
<GCONST> 1.225757e+02
<STATE> 4
<MEAN> 36
 2.050004e+00 -4.530909e+00 3.246725e+00 -1.278160e+00 -7.886164e+00 -4.907684e+00 -1.036377e+01 2.183270e+00 -2.562766e+00 9.671799e-01 1.660964e-01 -7.985992e+00 6.431515e-02 8.893831e-01 -6.605130e-02 1.019727e+00 2.786447e-01 5.468151e-01 6.391502e-01 -7.643622e-01 -4.546070e-01 -1.369840e-01 -5.651366e-01 4.860885e-01 -1.424547e-01 1.277559e-01 -5.234352e-02 5.913248e-02 1.083560e-01 3.473815e-02 1.279214e-01 -9.975871e-02 -1.764737e-02 -7.460628e-02 -5.446086e-02 4.808158e-02
<VARIANCE> 36
 1.202537e+01 5.005816e+01 4.638829e+01 4.962290e+01 6.292116e+01 6.254638e+01 5.783838e+01 9.059122e+01 6.222366e+01 4.794178e+01 4.722794e+01 5.472968e+01 9.561927e-01 1.851551e+00 2.099005e+00 2.504576e+00 2.667583e+00 2.913273e+00 3.363976e+00 3.617283e+00 3.558825e+00 2.940615e+00 2.783082e+00 2.395388e+00 2.174203e-01 3.005243e-01 3.560899e-01 4.102544e-01 4.532724e-01 5.145496e-01 5.677275e-01 6.879302e-01 6.079022e-01 5.022048e-01 5.227871e-01 3.843643e-01
<GCONST> 1.141916e+02
<TRANSP> 5
 0.000000e+00 1.000000e+00 0.000000e+00 0.000000e+00 0.000000e+00
 0.000000e+00 1.391295e-01 8.608705e-01 0.000000e+00 0.000000e+00
 0.000000e+00 0.000000e+00 1.110512e-01 8.889487e-01 0.000000e+00
 0.000000e+00 0.000000e+00 0.000000e+00 4.485619e-01 5.514382e-01
 0.000000e+00 0.000000e+00 0.000000e+00 0.000000e+00 0.000000e+00
<ENDHMM>
~h "kh"
<BEGINHMM>
<NUMSTATES> 5
<STATE> 2
<MEAN> 36
 -2.655676e-01 -6.930128e+00 -4.709308e+00 3.534433e+00 -2.999664e+00 -7.910879e+00 3.130636e+00 -1.484206e+00 2.929122e+00 -8.792650e+00 -1.522186e+00 -4.079791e+00 4.557869e-01 1.247863e+00 2.393789e-01 1.329018e+00 -4.904989e-01 4.866828e-01 -8.927684e-01 -9.565191e-02 -7.659128e-01 9.875332e-01 1.801323e-01 1.802191e+00 1.398405e-02 1.019505e-01 1.393082e-01 -2.338318e-01 -8.557973e-02 4.943320e-01 -2.990731e-01 2.555619e-01 -4.325705e-01 1.714046e-01 -1.709351e-01 -7.664341e-02
<VARIANCE> 36
 5.515198e+00 2.517662e+01 2.225066e+01 3.414919e+01 2.191135e+01 4.496212e+01 3.955967e+01 4.452790e+01 2.920428e+01 3.376379e+01 1.217378e+01 2.974941e+01 3.332319e-01 1.153465e+00 1.544288e+00 9.481319e-01 1.293468e+00 3.908048e+00 1.535330e+00 2.762473e+00 1.984982e+00 1.848279e+00 1.661812e+00 2.556597e+00 5.360362e-02 2.794959e-01 2.954714e-01 2.762337e-01 2.619088e-01 3.993292e-01 3.226967e-01 4.004475e-01 1.488820e-01 1.839050e-01 2.383640e-01 7.772207e-01
<GCONST> 9.382502e+01
<STATE> 3
<MEAN> 36
 4.532159e-02 4.581237e-01 -2.769552e+00 4.625617e+00 -1.925774e+00 -1.321617e+00 -2.717067e+00 7.969688e-01 -3.717789e+00 -2.531609e+00 -3.204459e+00 -1.657763e+00 -2.464204e-01 1.652074e-01 -2.277927e-01 -7.833414e-03 7.163014e-01 6.599243e-01 -7.863426e-01 -2.328403e-01 -5.918914e-01 5.465432e-01 -6.089869e-01 7.639708e-02 -1.647792e-01 -5.524483e-01 8.648910e-02 -3.405783e-01 4.394749e-01 -4.956247e-01 2.211131e-01 -3.919322e-02 1.155896e-01 3.381251e-01 -1.939742e-01 -2.338462e-01
<VARIANCE> 36
 7.585663e+00 2.049764e+01 1.902633e+01 1.919467e+01 4.450301e+01 3.680264e+01 1.922516e+01 3.781146e+01 1.317482e+01 2.034911e+01 1.964548e+01 1.523850e+01 4.922214e-01 2.400285e+00 1.429478e+00 1.572603e+00 3.639994e+00 2.734799e+00 2.111402e+00 1.931877e+00 1.446353e+00 3.347506e+00 1.536732e+00 2.119256e+00 2.037977e-01 3.120831e-01 3.757783e-01 2.234985e-01 6.638697e-01 1.105392e+00 5.541481e-01 4.034421e-01 2.683109e-01 5.399019e-01 5.157792e-01 2.524282e-01
<GCONST> 9.882182e+01
<STATE> 4
<MEAN> 36
 -1.956726e+00 -3.929439e+00 -3.549825e+00 1.319958e+00 3.362118e+00 -4.946801e+00 -1.505458e+00 7.486367e-01 -4.708709e+00 3.010843e+00 -5.767222e+00 -1.550094e+00 -2.352029e-01 -9.356942e-01 1.293693e+00 -1.504166e+00 -8.726503e-01 -1.402891e+00 -8.609608e-03 1.200897e-01 -4.701385e-01 9.655872e-01 7.638469e-01 -5.824646e-01 3.783540e-01 4.073319e-02 3.428905e-01 -1.011574e-01 -1.428307e+00 2.609555e-01 -3.134133e-01 -4.671903e-02 4.445229e-01 -7.037513e-01 7.666807e-01 -3.212880e-01
<VARIANCE> 36
 1.476515e+01 2.531007e+01 5.795335e+01 2.233709e+01 4.349855e+01 4.409493e+01 5.593144e+01 3.824104e+01 5.683742e+01 5.313169e+01 1.651723e+01 1.835744e+01 2.517701e+00 2.981116e+00 3.159570e+00 3.260803e+00 1.057050e+01 3.541685e+00 5.518201e+00 4.741170e+00 4.243993e+00 5.193247e+00 3.347992e+00 3.572404e+00 2.468958e-01 3.064694e-01 4.394799e-01 8.339278e-01 1.114270e+00 8.510253e-01 7.200298e-01 8.132290e-01 1.201557e+00 7.759878e-01 2.004662e-01 4.760385e-01
<GCONST> 1.184241e+02
<TRANSP> 5
 0.000000e+00 1.000000e+00 0.000000e+00 0.000000e+00 0.000000e+00
 0.000000e+00 5.863385e-01 4.136615e-01 0.000000e+00 0.000000e+00
 0.000000e+00 0.000000e+00 6.688601e-01 3.311400e-01 0.000000e+00
 0.000000e+00 0.000000e+00 0.000000e+00 6.430191e-01 3.569809e-01
 0.000000e+00 0.000000e+00 0.000000e+00 0.000000e+00 0.000000e+00
<ENDHMM>
~h "ng"
<BEGINHMM>
<NUMSTATES> 5
<STATE> 2
<MEAN> 36
 3.959438e+00 -4.859351e+00 7.432053e+00 -3.221710e+00 -1.308501e+01 5.227476e+00 -6.026886e+00 -4.381910e+00 -1.049629e+01 4.403140e+00 -2.283882e-01 -1.126366e+01 1.530569e-01 5.522265e-01 6.517683e-01 5.755771e-01 -6.020196e-01 3.730394e-01 3.140600e-01 -9.418085e-01 -4.093295e-01 2.648709e-01 -3.949849e-01 3.311917e-01 -6.692683e-02 -2.951124e-02 -2.927760e-01 -4.905142e-02 2.513592e-01 -2.404622e-01 -8.001020e-02 3.882109e-01 3.072345e-01 -2.804083e-01 4.424357e-02 -7.592303e-02
<VARIANCE> 36
 5.931766e+00 2.823164e+01 5.047185e+01 2.764288e+01 4.203316e+01 3.498701e+01 3.558991e+01 2.543555e+01 3.123214e+01 3.544894e+01 2.934279e+01 3.904207e+01 3.539454e-01 8.543025e-01 2.148232e+00 1.542912e+00 1.913070e+00 1.929944e+00 1.850927e+00 2.279778e+00 2.248210e+00 1.846695e+00 1.749367e+00 1.765673e+00 5.917677e-02 1.382513e-01 2.940168e-01 2.287353e-01 3.133962e-01 3.285050e-01 3.497771e-01 4.578512e-01 3.882318e-01 3.287270e-01 3.318312e-01 2.907247e-01
<GCONST> 9.597195e+01
<STATE> 3
<MEAN> 36
 4.606214e+00 -8.417721e-01 4.357841e+00 1.411616e+00 -1.125328e+01 6.903419e+00 -2.878041e+00 -7.090775e+00 -8.484783e+00 2.263736e+00 -3.010005e+00 -7.187506e+00 -6.757575e-02 6.618307e-01 -4.684622e-01 5.354803e-01 4.217935e-01 -1.964694e-01 3.333377e-01 4.663692e-02 3.807363e-01 -2.445942e-01 -2.627402e-01 1.542915e-01 -1.766937e-01 -1.442954e-01 -2.016676e-01 -3.168817e-01 3.858244e-01 -3.740833e-01 -2.190926e-01 5.153828e-01 1.769820e-01 -1.341798e-01 1.806162e-01 -1.497801e-01
<VARIANCE> 36
 5.395744e+00 2.703661e+01 3.449271e+01 3.365978e+01 4.718476e+01 4.804975e+01 3.443932e+01 3.995692e+01 3.998436e+01 4.265212e+01 3.192759e+01 3.386308e+01 3.679472e-01 1.180588e+00 1.225753e+00 1.422151e+00 1.941983e+00 2.078792e+00 1.775078e+00 2.249527e+00 1.965274e+00 1.950459e+00 1.627497e+00 1.553685e+00 1.075410e-01 1.922736e-01 3.033641e-01 3.051837e-01 4.865307e-01 4.499428e-01 4.230858e-01 6.006941e-01 5.133218e-01 4.114254e-01 4.056284e-01 3.732130e-01
<GCONST> 9.976723e+01
<STATE> 4
<MEAN> 36
 3.488899e+00 -3.504665e-01 2.936000e+00 -2.768610e-02 -8.104710e+00 2.918369e+00 -3.700166e+00 -4.264428e+00 -7.939554e+00 2.303819e+00 -2.851487e+00 -8.750960e+00 -5.087807e-01 -2.058500e-01 -8.189746e-01 -5.570366e-01 1.460747e+00 -1.155343e+00 -3.431167e-01 1.588521e+00 7.231604e-01 -5.890703e-01 1.446413e-01 -3.784117e-01 -1.558798e-01 -3.428583e-01 9.173173e-02 -3.623646e-01 1.083066e-01 -1.636140e-01 -4.008746e-01 4.077485e-01 1.294621e-01 -1.354637e-01 1.732243e-01 1.206861e-02
<VARIANCE> 36
 8.815302e+00 3.726621e+01 4.110976e+01 3.913545e+01 6.588728e+01 5.122949e+01 3.883850e+01 4.646049e+01 4.745961e+01 4.163439e+01 3.912796e+01 4.677277e+01 8.334458e-01 1.986733e+00 2.641302e+00 2.728504e+00 3.477868e+00 3.684747e+00 2.933891e+00 4.347179e+00 4.110609e+00 3.246354e+00 2.996473e+00 3.266642e+00 2.101671e-01 2.834695e-01 3.894772e-01 4.497160e-01 6.033828e-01 6.556882e-01 5.099687e-01 8.024846e-01 7.026145e-01 5.426040e-01 5.159506e-01 4.244272e-01
<GCONST> 1.136464e+02
