~o
<STREAMINFO> 1 25
<VECSIZE> 25<NULLD><MFCC_D_N_Z_0><DIAGC>
~s "silst"
<MEAN> 25
 -7.353027e+00 3.050651e+00 -8.333758e-01 4.292396e+00 8.137216e+00 4.028764e+00 4.868106e+00 2.641747e+00 -1.826606e+00 2.043780e+00 -1.492348e+00 3.706752e+00 -1.933098e-01 6.931547e-02 4.268260e-02 4.887857e-02 1.176058e-01 9.414863e-02 3.491469e-02 4.139367e-03 -3.614770e-02 1.980207e-02 5.740587e-03 9.184005e-03 -1.906301e-01
<VARIANCE> 25
 1.455563e+01 2.832648e+01 2.518695e+01 3.542236e+01 2.710567e+01 3.499810e+01 2.764700e+01 3.525197e+01 2.934619e+01 4.069265e+01 2.719370e+01 2.454340e+01 2.932011e-01 5.008047e-01 7.019588e-01 9.335874e-01 1.207862e+00 1.370990e+00 1.454538e+00 1.667455e+00 1.647160e+00 1.639470e+00 1.549411e+00 1.393167e+00 1.809803e-01
<GCONST> 8.519094e+01
~h "a"
<BEGINHMM>
<NUMSTATES> 5
<STATE> 2
<MEAN> 25
 5.261536e+00 -5.276653e+00 -5.262338e+00 -3.892124e+00 -2.851675e+00 -7.772806e-01 -9.926858e-01 1.803578e+00 5.604127e+00 -1.650350e+00 -5.532430e-01 -3.861058e+00 4.024284e-01 -1.027360e+00 -1.017908e+00 -7.645253e-01 1.867616e-01 4.222775e-01 1.655483e-01 6.732606e-01 1.223650e+00 -3.196793e-01 -3.673680e-01 -9.214157e-01 9.661788e-01
<VARIANCE> 25
 2.206355e+01 3.332320e+01 5.021626e+01 5.468039e+01 6.165860e+01 8.413558e+01 5.636265e+01 6.633237e+01 6.402918e+01 5.786974e+01 5.909381e+01 4.502349e+01 1.400858e+00 2.374149e+00 3.280800e+00 3.322345e+00 4.046551e+00 4.642386e+00 3.911132e+00 4.709588e+00 4.228160e+00 3.720808e+00 4.321679e+00 3.345383e+00 2.385880e+00
<GCONST> 1.090828e+02
<STATE> 3
<MEAN> 25
 5.885168e+00 -7.691975e+00 -6.786284e+00 -5.099419e+00 -3.426980e+00 -1.168970e-01 -9.487264e-01 1.718319e+00 7.259300e+00 -2.391537e+00 -7.356960e-01 -5.293219e+00 -6.231311e-02 4.007187e-01 1.404738e-01 3.890370e-01 4.199862e-01 1.099689e-01 1.241460e-01 -7.124764e-02 -3.712317e-01 2.238276e-01 -2.271511e-01 3.123237e-01 -6.105520e-01
<VARIANCE> 25
 1.670026e+01 2.636666e+01 4.437553e+01 4.198239e+01 5.977542e+01 6.998154e+01 5.637923e+01 6.298574e+01 5.765229e+01 5.334999e+01 5.876423e+01 4.604859e+01 4.306432e-01 1.346760e+00 1.428141e+00 1.742436e+00 2.217137e+00 2.447802e+00 2.334052e+00 2.586020e+00 2.606617e+00 2.313665e+00 2.644593e+00 2.008928e+00 1.224377e+00
<GCONST> 9.953821e+01
<STATE> 4
<MEAN> 25
 3.347183e+00 -2.657097e+00 -5.540051e+00 -1.690937e+00 1.211211e+00 5.653085e-01 9.944226e-01 2.631006e+00 3.619457e+00 -2.183970e-01 -2.731539e+00 -2.124827e+00 -4.658409e-01 7.542627e-01 4.600097e-01 5.399562e-01 4.637685e-01 1.397359e-01 1.779044e-01 -9.927844e-02 -6.176196e-01 2.524616e-01 -9.239126e-02 5.080965e-01 -1.005951e+00
<VARIANCE> 25
 2.437171e+01 2.888243e+01 3.828816e+01 4.646288e+01 4.793938e+01 6.060117e+01 4.259858e+01 5.089330e+01 4.767890e+01 4.541060e+01 5.213634e+01 3.884970e+01 5.160823e-01 9.799911e-01 1.204911e+00 1.615077e+00 1.885369e+00 1.988270e+00 2.053149e+00 2.266935e+00 2.172821e+00 1.967621e+00 2.024432e+00 1.770863e+00 7.129021e-01
<GCONST> 9.617146e+01
<TRANSP> 5
 0.000000e+00 1.000000e+00 0.000000e+00 0.000000e+00 0.000000e+00
 0.000000e+00 4.805762e-01 5.194238e-01 0.000000e+00 0.000000e+00
 0.000000e+00 0.000000e+00 6.568909e-01 3.431091e-01 0.000000e+00
 0.000000e+00 0.000000e+00 0.000000e+00 7.042009e-01 2.957991e-01
 0.000000e+00 0.000000e+00 0.000000e+00 0.000000e+00 0.000000e+00
<ENDHMM>
~h "b"
<BEGINHMM>
<NUMSTATES> 5
<STATE> 2
<MEAN> 25
 3.610799e+00 8.075261e+00 1.943102e+00 4.701817e+00 4.302430e+00 1.377876e+00 1.063423e+00 -1.661939e+00 -4.364154e+00 -8.602502e-01 -3.045034e+00 1.488888e-01 6.720755e-01 5.900751e-01 1.884033e-01 -9.840106e-02 -2.333276e-02 -3.894167e-01 -4.545387e-01 -4.338169e-01 -1.352616e-01 -3.074132e-01 1.668847e-01 -1.615467e-01 5.117483e-01
<VARIANCE> 25
 3.107103e+01 3.416692e+01 2.617241e+01 2.865800e+01 3.753773e+01 3.200973e+01 4.082364e+01 3.632133e+01 3.628770e+01 3.178599e+01 3.601942e+01 2.761503e+01 2.048726e+00 2.668658e+00 2.329049e+00 3.955014e+00 3.433096e+00 3.094484e+00 3.355295e+00 3.308251e+00 3.004642e+00 3.116069e+00 3.316597e+00 2.512087e+00 1.836153e+00
<GCONST> 1.015343e+02
<STATE> 3
<MEAN> 25
 5.604168e+00 6.021021e+00 4.478864e-01 1.045405e+00 2.489318e+00 1.050817e+00 -2.480898e+00 -4.211489e+00 -3.972472e+00 -1.088264e+00 5.010309e-01 -2.477813e-01 8.517495e-01 -2.092565e+00 -1.044075e+00 -1.958590e+00 -2.195689e+00 -1.017376e+00 -1.772390e+00 -6.341853e-01 1.479734e+00 -2.493739e-02 2.128199e+00 -6.005884e-01 2.591765e+00
<VARIANCE> 25
 1.813245e+01 4.342513e+01 3.524903e+01 5.099535e+01 4.518649e+01 4.575076e+01 4.466786e+01 4.405738e+01 4.760745e+01 5.220632e+01 5.232298e+01 4.043052e+01 2.321113e+00 4.928726e+00 4.323370e+00 7.436158e+00 5.382447e+00 9.235046e+00 6.202303e+00 6.954647e+00 8.102753e+00 8.707025e+00 5.878625e+00 5.366305e+00 2.522816e+00
<GCONST> 1.130150e+02
<STATE> 4
<MEAN> 25
 7.598889e+00 7.076149e-01 -1.745614e+00 -9.671827e-01 -3.096625e+00 -2.882227e+00 -5.788800e+00 -2.903917e+00 6.878669e-01 -3.128017e+00 3.962398e+00 -2.892268e+00 1.548629e-01 -1.875426e+00 -3.438475e-01 -7.293552e-01 -1.730722e+00 -9.777929e-01 -6.933679e-01 4.009652e-01 1.541307e+00 -3.083520e-01 1.043604e+00 -5.066905e-01 1.750255e+00
<VARIANCE> 25
 1.829937e+01 4.188923e+01 5.245037e+01 8.812818e+01 5.548054e+01 9.222467e+01 5.426215e+01 7.250057e+01 8.499787e+01 1.160160e+02 5.581927e+01 5.227670e+01 1.075142e+00 2.961412e+00 4.367321e+00 5.305865e+00 5.321999e+00 7.779099e+00 5.214844e+00 6.445825e+00 9.117330e+00 6.877079e+00 5.550389e+00 5.781985e+00 1.642478e+00
<GCONST> 1.146627e+02
<TRANSP> 5
 0.000000e+00 1.000000e+00 0.000000e+00 0.000000e+00 0.000000e+00
 0.000000e+00 5.518255e-01 4.481745e-01 0.000000e+00 0.000000e+00
 0.000000e+00 0.000000e+00 3.876736e-01 6.123263e-01 0.000000e+00
 0.000000e+00 0.000000e+00 0.000000e+00 3.233870e-01 6.766130e-01
 0.000000e+00 0.000000e+00 0.000000e+00 0.000000e+00 0.000000e+00
<ENDHMM>
~h "c"
<BEGINHMM>
<NUMSTATES> 5
<STATE> 2
<MEAN> 25
 -8.178474e+00 5.401989e+00 7.953476e-01 1.636997e+00 4.858099e+00 -2.311840e-01 1.727043e+00 5.001678e-01 -5.346518e-01 -3.687073e-01 -2.195385e+00 2.875511e+00 -1.608992e+00 -2.420814e-01 2.388940e-01 -8.190616e-01 -4.541433e-01 -4.452976e-01 8.401386e-02 2.988380e-01 7.444210e-02 -2.692808e-01 7.197294e-02 4.042303e-01 9.718668e-01
<VARIANCE> 25
 7.646896e+01 4.079536e+01 4.227444e+01 3.448730e+01 4.254900e+01 5.271956e+01 3.981757e+01 4.155754e+01 5.145022e+01 3.327546e+01 2.636228e+01 2.992100e+01 7.394719e+00 5.216305e+00 4.087298e+00 3.559805e+00 6.382583e+00 6.429489e+00 4.314047e+00 3.616765e+00 4.080896e+00 2.946722e+00 2.395874e+00 2.296661e+00 4.160630e+00
<GCONST> 1.089301e+02
<STATE> 3
<MEAN> 25
 -6.584976e+00 -4.444909e+00 9.316543e+00 -1.621837e+00 -4.688256e+00 3.547925e+00 -3.420955e-01 -2.273483e+00 -4.114634e-01 -2.682339e+00 -3.528568e+00 2.976031e+00 1.178409e+00 -3.079500e+00 2.048763e+00 -2.387658e-01 -2.823607e+00 -3.768475e-01 -1.569155e+00 -4.749964e-01 8.208343e-01 -1.016286e+00 -1.249674e-01 4.879852e-02 2.131023e+00
<VARIANCE> 25
 5.036581e+01 1.266629e+02 1.039683e+02 6.436170e+01 8.589104e+01 1.329400e+02 4.569597e+01 6.020437e+01 5.365549e+01 5.376831e+01 3.540997e+01 3.539107e+01 8.438677e+00 7.791839e+00 9.120057e+00 7.026683e+00 7.069243e+00 1.102992e+01 4.646710e+00 8.397690e+00 7.441277e+00 7.985535e+00 3.170173e+00 3.577175e+00 3.139928e+00
<GCONST> 1.199037e+02
<STATE> 4
<MEAN> 25
 1.823786e+00 -1.088291e+01 9.856992e+00 2.816261e+00 -6.764168e+00 3.538964e+00 -6.448664e+00 -8.329315e+00 -1.144201e+00 -8.390251e+00 -3.458213e-01 1.757400e+00 2.131109e+00 3.088529e-01 -1.963926e+00 4.460196e-01 1.172334e-03 -1.190763e+00 -5.549206e-01 -1.170770e-01 3.719003e-01 -6.154186e-01 8.390536e-01 -5.436189e-01 1.266083e+00
<VARIANCE> 25
 5.170222e+01 8.707784e+01 1.139393e+02 5.204700e+01 6.783908e+01 1.148655e+02 4.313750e+01 9.987360e+01 5.162119e+01 6.648068e+01 3.321493e+01 3.171639e+01 5.133227e+00 6.663426e+00 1.190639e+01 5.607000e+00 7.771030e+00 7.846617e+00 4.372224e+00 6.324801e+00 4.896019e+00 5.079511e+00 4.361573e+00 3.203910e+00 2.138640e+00
<GCONST> 1.172516e+02
<TRANSP> 5
 0.000000e+00 1.000000e+00 0.000000e+00 0.000000e+00 0.000000e+00
 0.000000e+00 6.199415e-01 3.800585e-01 0.000000e+00 0.000000e+00
 0.000000e+00 0.000000e+00 4.650829e-01 5.349172e-01 0.000000e+00
 0.000000e+00 0.000000e+00 0.000000e+00 6.524507e-01 3.475494e-01
 0.000000e+00 0.000000e+00 0.000000e+00 0.000000e+00 0.000000e+00
<ENDHMM>
~h "d"
<BEGINHMM>
<NUMSTATES> 5
<STATE> 2
<MEAN> 25
 2.647740e+00 4.418445e+00 3.649390e+00 6.565051e+00 3.380513e+00 -2.597571e-01 -1.209858e+00 -2.536704e+00 -2.295416e+00 -1.637966e+00 -3.542094e+00 -1.509172e-01 2.743202e-01 -9.564883e-01 8.952736e-01 1.204502e-01 -8.592404e-01 -8.263155e-01 -1.106273e+00 -5.663224e-01 -3.418016e-01 -7.638358e-01 3.268670e-01 3.334182e-01 1.217937e+00
<VARIANCE> 25
 3.141190e+01 5.127964e+01 4.438931e+01 4.383995e+01 6.492680e+01 5.110260e+01 4.553532e+01 5.132852e+01 5.144603e+01 4.921809e+01 4.889077e+01 3.714785e+01 2.462491e+00 5.057069e+00 3.617738e+00 5.095397e+00 5.065795e+00 5.770892e+00 5.053289e+00 6.157365e+00 5.965208e+00 5.356799e+00 5.090572e+00 3.898418e+00 2.614870e+00
<GCONST> 1.117727e+02
<STATE> 3
<MEAN> 25
 3.187531e+00 -1.254221e+00 5.995032e+00 4.503534e+00 -2.743581e+00 -4.792056e+00 -5.472658e+00 -2.303291e+00 -1.185439e+00 -3.358871e+00 -1.116983e+00 2.602460e+00 1.338696e-01 -1.975399e+00 3.966206e-01 -1.248664e+00 -2.649694e+00 -1.557534e+00 -1.462417e+00 5.835380e-01 8.230167e-01 -6.434070e-01 1.761306e+00 8.941098e-02 2.246261e+00
<VARIANCE> 25
 1.608848e+01 4.061207e+01 4.564449e+01 5.684280e+01 6.012436e+01 5.941611e+01 5.235294e+01 6.009161e+01 6.711365e+01 5.502481e+01 4.356953e+01 3.679893e+01 1.863451e+00 3.116772e+00 5.783770e+00 4.962724e+00 6.047518e+00 6.168098e+00 5.815358e+00 8.657590e+00 9.435401e+00 6.526783e+00 6.652836e+00 4.283199e+00 2.282275e+00
<GCONST> 1.130686e+02
<STATE> 4
<MEAN> 25
 5.376911e+00 -5.528372e+00 4.458472e+00 6.332847e+00 -3.532480e+00 -4.372922e+00 -9.309785e+00 -4.919465e+00 -3.502929e-01 -8.003181e+00 2.652524e+00 4.103422e-01 1.007000e-01 -3.694009e-01 -3.238775e-01 -7.369728e-01 -9.904981e-01 -4.228446e-01 8.832015e-02 3.578452e-01 1.889782e-01 1.503579e-01 6.508359e-01 -4.296650e-01 5.518205e-01
<VARIANCE> 25
 2.043647e+01 3.968450e+01 7.547298e+01 7.787837e+01 1.050812e+02 7.403269e+01 7.305379e+01 1.073747e+02 8.881554e+01 9.684720e+01 7.677158e+01 4.855028e+01 7.817645e-01 1.869561e+00 3.989114e+00 3.270673e+00 4.576878e+00 4.310658e+00 3.958512e+00 4.420324e+00 4.748157e+00 4.416341e+00 4.924195e+00 3.234102e+00 1.739580e+00
<GCONST> 1.116909e+02
<TRANSP> 5
 0.000000e+00 1.000000e+00 0.000000e+00 0.000000e+00 0.000000e+00
 0.000000e+00 4.217003e-01 5.782996e-01 0.000000e+00 0.000000e+00
 0.000000e+00 0.000000e+00 2.756974e-01 7.243026e-01 0.000000e+00
 0.000000e+00 0.000000e+00 0.000000e+00 5.972351e-01 4.027649e-01
 0.000000e+00 0.000000e+00 0.000000e+00 0.000000e+00 0.000000e+00
<ENDHMM>
~h "e"
<BEGINHMM>
<NUMSTATES> 5
<STATE> 2
<MEAN> 25
 3.851893e+00 -4.053544e+00 -1.284806e+00 1.518650e+00 -3.831779e+00 -5.963954e+00 -1.131673e+00 7.484928e-01 -1.690876e+00 -1.164268e+00 3.024445e+00 6.818208e-01 1.001191e+00 -1.072201e+00 -9.705165e-02 9.159418e-02 -1.479910e+00 -1.071147e+00 1.244344e-01 8.434560e-01 1.161211e-01 -5.693688e-01 7.643248e-01 -3.120531e-01 1.558415e+00
<VARIANCE> 25
 3.496610e+01 4.757436e+01 9.166521e+01 5.075533e+01 9.975015e+01 7.803051e+01 5.967359e+01 1.000042e+02 7.992032e+01 6.845145e+01 7.185960e+01 3.677697e+01 2.906703e+00 3.633642e+00 5.029336e+00 4.230916e+00 5.553115e+00 5.111347e+00 4.854041e+00 6.335039e+00 5.181418e+00 5.105539e+00 5.341560e+00 3.319126e+00 2.635176e+00
<GCONST> 1.152556e+02
<STATE> 3
<MEAN> 25
 4.565252e+00 -6.472619e+00 3.071117e+00 1.514793e+00 -1.060032e+01 -9.188390e+00 -1.788062e-01 4.706647e+00 -1.638038e-01 -3.075846e+00 5.179945e+00 -1.312092e+00 -9.361815e-03 2.234766e-01 -4.970175e-02 2.679202e-01 3.129397e-01 2.820712e-01 3.119786e-01 4.885284e-02 7.676318e-02 2.433019e-01 -2.159100e-01 -4.483191e-02 -3.769093e-01
<VARIANCE> 25
 1.869547e+01 2.426152e+01 8.074244e+01 5.647374e+01 7.458228e+01 6.026440e+01 6.762987e+01 9.157853e+01 8.320281e+01 5.092589e+01 6.477190e+01 2.803006e+01 5.279780e-01 1.330411e+00 1.659013e+00 1.757915e+00 2.602093e+00 2.053466e+00 2.469991e+00 2.440803e+00 2.639207e+00 2.215329e+00 2.539742e+00 1.663734e+00 1.307356e+00
<GCONST> 1.011514e+02
<STATE> 4
<MEAN> 25
 3.269376e+00 -2.751393e+00 -1.388292e-01 4.137346e+00 -2.756298e+00 -6.654407e+00 -7.495040e-02 2.425051e+00 -6.414390e-01 -1.649244e-01 2.232442e+00 -6.248880e-02 -3.626433e-01 5.626787e-01 -4.356544e-02 5.526937e-02 8.613726e-01 5.141543e-01 3.492356e-03 -2.907873e-01 -1.327661e-01 2.074783e-01 -3.493314e-01 6.837723e-02 -7.185793e-01
<VARIANCE> 25
 2.806269e+01 2.604705e+01 5.228728e+01 5.490325e+01 6.414314e+01 5.137991e+01 5.134793e+01 8.342937e+01 5.923439e+01 4.465055e+01 4.667876e+01 3.040192e+01 3.859699e-01 7.396257e-01 9.278284e-01 1.231053e+00 1.808208e+00 1.725246e+00 1.734960e+00 2.073314e+00 1.918548e+00 1.672008e+00 1.649500e+00 1.448050e+00 4.550580e-01
<GCONST> 9.465090e+01
<TRANSP> 5
 0.000000e+00 1.000000e+00 0.000000e+00 0.000000e+00 0.000000e+00
 0.000000e+00 5.389723e-01 4.610278e-01 0.000000e+00 0.000000e+00
 0.000000e+00 0.000000e+00 7.055548e-01 2.944451e-01 0.000000e+00
 0.000000e+00 0.000000e+00 0.000000e+00 7.633685e-01 2.366315e-01
 0.000000e+00 0.000000e+00 0.000000e+00 0.000000e+00 0.000000e+00
<ENDHMM>
~h "f"
<BEGINHMM>
<NUMSTATES> 5
<STATE> 2
<MEAN> 25
 4.521875e-01 -3.436671e-01 -8.788345e-01 1.330079e+00 1.775223e+00 1.185374e+00 2.507495e+00 2.700548e+00 -2.123296e-01 -1.051745e+00 -1.673672e-01 4.617321e-01 -1.509951e+00 3.208607e-01 3.749503e-01 1.031119e+00 1.478754e+00 6.405505e-01 1.825406e-02 1.626742e-01 -2.213994e-01 5.616468e-02 -6.981370e-01 6.866939e-01 -1.064732e+00
<VARIANCE> 25
 3.340802e+01 3.168084e+01 3.254161e+01 4.116013e+01 3.492371e+01 4.666591e+01 3.229803e+01 5.832729e+01 4.376131e+01 5.107380e+01 4.624636e+01 3.965949e+01 2.558491e+00 2.498691e+00 1.661836e+00 1.983271e+00 1.908605e+00 2.781830e+00 2.543767e+00 3.564264e+00 2.281136e+00 2.251399e+00 1.521918e+00 2.381742e+00 9.866244e-01
<GCONST> 1.001075e+02
<STATE> 3
<MEAN> 25
 -3.989059e+00 -3.829931e-01 -8.148201e-01 3.041472e+00 4.244393e+00 1.110781e+00 2.420228e+00 3.185540e+00 1.247895e+00 -4.054413e-01 -2.096104e+00 1.812359e+00 -1.136274e+00 2.049733e-01 1.240892e-01 8.909151e-02 4.393653e-01 1.147902e-01 1.678183e-01 2.934973e-01 4.045650e-01 1.519410e-01 -4.259441e-01 3.071045e-01 -5.984176e-01
<VARIANCE> 25
 4.310056e+01 2.708161e+01 3.602812e+01 3.811238e+01 3.514078e+01 3.858211e+01 2.939869e+01 5.715370e+01 4.555512e+01 3.663189e+01 4.538910e+01 2.322519e+01 1.917605e+00 1.234490e+00 9.588420e-01 1.348743e+00 1.109162e+00 2.250771e+00 2.018293e+00 2.691303e+00 2.108232e+00 2.211566e+00 1.739248e+00 2.008593e+00 5.095640e-01
<GCONST> 9.509563e+01
<STATE> 4
<MEAN> 25
 -8.796848e+00 4.545876e-01 2.036863e+00 4.222147e+00 4.653502e+00 1.532319e+00 2.829043e+00 3.283203e+00 3.009642e-01 -3.349707e-01 -1.803901e+00 1.388933e+00 2.311273e-01 9.319264e-02 2.212734e-01 -4.194782e-01 -3.635083e-01 1.662937e-01 -2.916271e-01 -2.464111e-01 -3.333138e-01 -6.600202e-03 -4.164115e-03 -4.712620e-02 -2.430691e-01
<VARIANCE> 25
 4.960906e+01 1.567408e+01 3.952101e+01 2.980351e+01 2.239596e+01 3.508096e+01 2.482818e+01 3.827853e+01 3.808269e+01 2.806390e+01 3.298483e+01 1.981282e+01 2.228101e+00 7.708815e-01 1.902942e+00 2.384256e+00 2.209042e+00 3.145056e+00 1.978531e+00 2.582779e+00 3.186796e+00 2.292744e+00 2.160818e+00 1.930579e+00 9.223552e-01
<GCONST> 9.561367e+01
<TRANSP> 5
 0.000000e+00 1.000000e+00 0.000000e+00 0.000000e+00 0.000000e+00
 0.000000e+00 4.895853e-01 5.104147e-01 0.000000e+00 0.000000e+00
 0.000000e+00 0.000000e+00 3.781079e-01 6.218921e-01 0.000000e+00
 0.000000e+00 0.000000e+00 0.000000e+00 7.013703e-01 2.986297e-01
 0.000000e+00 0.000000e+00 0.000000e+00 0.000000e+00 0.000000e+00
<ENDHMM>
~h "g"
<BEGINHMM>
<NUMSTATES> 5
<STATE> 2
<MEAN> 25
 2.080495e+00 4.426464e+00 3.100396e+00 4.311525e+00 3.894463e+00 1.221457e-01 -5.694203e-01 -3.230851e+00 -4.185019e+00 7.346580e-01 -2.031505e+00 -1.907352e+00 2.691548e-01 -2.917975e-03 6.081709e-01 -1.254261e-02 -4.403235e-01 -6.314195e-01 -4.220682e-01 -3.153152e-01 -3.566139e-01 -2.932228e-01 1.802826e-01 -1.353242e-01 7.136531e-01
<VARIANCE> 25
 2.786894e+01 4.782605e+01 4.244131e+01 4.739619e+01 7.247373e+01 5.940460e+01 5.296848e+01 5.673160e+01 5.261014e+01 4.966440e+01 4.405409e+01 3.550865e+01 2.705532e+00 3.936679e+00 4.217245e+00 5.011286e+00 6.173271e+00 6.624264e+00 5.134257e+00 4.702407e+00 5.402545e+00 4.821749e+00 4.384920e+00 3.382261e+00 2.853353e+00
<GCONST> 1.116644e+02
<STATE> 3
<MEAN> 25
 3.724930e+00 1.646044e+00 3.832363e+00 2.712933e+00 -6.757988e-01 -3.380020e+00 -3.234043e+00 -2.564799e+00 -3.909503e+00 -1.938458e+00 1.060553e+00 -1.781118e+00 4.668266e-01 -1.389140e+00 -9.737548e-02 -9.187598e-01 -1.925931e+00 -1.365714e+00 -8.154979e-01 5.356833e-01 8.367563e-01 -6.981058e-01 1.398245e+00 -1.805872e-01 1.835556e+00
<VARIANCE> 25
 2.085852e+01 5.757000e+01 5.312824e+01 5.886113e+01 6.511534e+01 8.887630e+01 7.060687e+01 6.911201e+01 6.479007e+01 7.870638e+01 5.588683e+01 5.088691e+01 1.900135e+00 3.974805e+00 5.837763e+00 4.764792e+00 6.787483e+00 7.885036e+00 5.981939e+00 6.888957e+00 8.607132e+00 7.144907e+00 5.088831e+00 4.182196e+00 2.272855e+00
<GCONST> 1.157758e+02
<STATE> 4
<MEAN> 25
 6.678331e+00 -2.047026e+00 2.322569e+00 1.312397e+00 -6.196298e+00 -4.757985e+00 -5.270847e+00 -1.495603e+00 -1.801589e-01 -7.796424e+00 2.973450e+00 -2.426002e+00 1.457398e-01 -5.536275e-01 -4.257019e-01 -5.677357e-01 -6.713784e-01 -4.796098e-02 1.511494e-01 9.882334e-02 3.426020e-01 8.198944e-02 5.506445e-01 -8.601857e-02 6.506095e-01
<VARIANCE> 25
 2.861997e+01 6.195657e+01 6.690791e+01 7.175459e+01 8.152394e+01 7.366031e+01 6.571178e+01 8.657450e+01 9.492608e+01 1.212740e+02 7.957851e+01 5.111209e+01 7.059383e-01 2.273776e+00 4.071256e+00 2.758618e+00 4.019904e+00 3.712331e+00 3.469342e+00 3.810693e+00 5.710945e+00 4.528066e+00 4.488724e+00 3.346540e+00 1.563436e+00
<GCONST> 1.114982e+02
<TRANSP> 5
 0.000000e+00 1.000000e+00 0.000000e+00 0.000000e+00 0.000000e+00
 0.000000e+00 4.214432e-01 5.785568e-01 0.000000e+00 0.000000e+00
 0.000000e+00 0.000000e+00 3.990355e-01 6.009645e-01 0.000000e+00
 0.000000e+00 0.000000e+00 0.000000e+00 5.833144e-01 4.166856e-01
 0.000000e+00 0.000000e+00 0.000000e+00 0.000000e+00 0.000000e+00
<ENDHMM>
~h "h"
<BEGINHMM>
<NUMSTATES> 5
<STATE> 2
<MEAN> 25
 2.165025e+00 -2.355693e+00 9.721032e-01 8.603443e-01 -2.575889e+00 -5.371273e-01 5.033868e-01 -3.765370e-01 1.255509e+00 -1.248822e+00 -5.306632e-01 -8.249830e-01 -6.520585e-01 2.880726e-01 3.303659e-01 3.983464e-01 7.863078e-01 6.046926e-01 6.084257e-01 -7.019286e-02 -9.389380e-02 3.039353e-01 -3.058770e-01 4.593558e-01 -9.667821e-01
<VARIANCE> 25
 3.340664e+01 5.644372e+01 7.599153e+01 7.140485e+01 8.268182e+01 7.150150e+01 5.867278e+01 5.527099e+01 6.528140e+01 5.530763e+01 5.043720e+01 3.562440e+01 1.123446e+00 2.145108e+00 2.383993e+00 2.423338e+00 3.348907e+00 2.882773e+00 2.928995e+00 2.847705e+00 3.160377e+00 2.432008e+00 2.397481e+00 2.192116e+00 1.170485e+00
<GCONST> 1.054204e+02
<STATE> 3
<MEAN> 25
 -2.840993e-01 -4.411676e+00 -3.466717e-01 1.481931e+00 -5.720178e-01 -4.871115e-02 2.226710e+00 -3.894254e-01 3.691886e-01 1.612766e+00 -7.991266e-01 1.261936e+00 -4.376803e-01 4.528388e-01 -2.009490e-01 -3.769256e-02 4.948751e-01 -1.541923e-02 3.274802e-02 2.181328e-01 -1.595325e-01 2.908996e-01 -1.600613e-01 1.650236e-01 -8.342309e-01
<VARIANCE> 25
 3.500965e+01 6.282975e+01 7.599456e+01 5.559816e+01 6.683618e+01 5.772591e+01 5.863972e+01 5.633902e+01 6.156070e+01 4.961596e+01 4.692081e+01 3.164749e+01 4.033028e-01 9.757929e-01 1.133570e+00 1.211321e+00 1.391332e+00 1.629849e+00 1.757223e+00 1.784048e+00 1.874246e+00 1.600262e+00 1.604531e+00 1.364267e+00 3.687391e-01
<GCONST> 9.591004e+01
<STATE> 4
<MEAN> 25
 -3.468367e+00 5.723580e-01 -6.735339e-01 1.139073e+00 3.652081e+00 5.823057e-01 1.160744e+00 4.384289e-01 -1.096525e+00 1.516627e+00 -9.745499e-01 1.364379e+00 -2.495319e-01 2.556009e-01 4.708987e-02 1.803435e-02 2.273811e-01 5.017243e-02 -1.057283e-02 1.079645e-01 -4.823647e-02 4.436503e-02 -1.098961e-02 9.216300e-02 -3.369828e-01
<VARIANCE> 25
 3.384471e+01 3.097232e+01 4.473231e+01 4.861467e+01 4.388402e+01 4.461845e+01 3.740818e+01 4.316166e+01 4.276996e+01 5.012277e+01 3.509667e+01 2.856137e+01 3.110170e-01 6.278622e-01 9.627833e-01 1.083423e+00 1.437203e+00 1.535551e+00 1.694973e+00 1.689381e+00 1.703210e+00 1.662393e+00 1.625492e+00 1.407706e+00 2.489492e-01
<GCONST> 9.086395e+01
<TRANSP> 5
 0.000000e+00 1.000000e+00 0.000000e+00 0.000000e+00 0.000000e+00
 0.000000e+00 3.911229e-01 6.088771e-01 0.000000e+00 0.000000e+00
 0.000000e+00 0.000000e+00 6.550304e-01 3.449695e-01 0.000000e+00
 0.000000e+00 0.000000e+00 0.000000e+00 6.566424e-01 3.433577e-01
 0.000000e+00 0.000000e+00 0.000000e+00 0.000000e+00 0.000000e+00
<ENDHMM>
~h "i"
<BEGINHMM>
<NUMSTATES> 5
<STATE> 2
<MEAN> 25
 1.442074e+00 -1.041048e+00 9.383706e+00 4.801674e+00 -5.479810e+00 -5.467776e+00 -3.134552e+00 -3.329357e+00 -5.708431e+00 -2.812069e+00 3.054313e+00 -3.623488e-01 3.484006e-01 -5.268831e-01 1.764303e+00 2.819736e-02 -2.180475e+00 -1.001580e+00 -4.307165e-01 -1.448576e-01 -1.012064e+00 -5.635322e-01 1.552653e+00 -3.361908e-01 1.167619e+00
<VARIANCE> 25
 2.596797e+01 5.216094e+01 6.549697e+01 8.049080e+01 9.244554e+01 9.089825e+01 6.833883e+01 7.803498e+01 6.183519e+01 5.240663e+01 5.241470e+01 4.418777e+01 2.732819e+00 2.833244e+00 5.081110e+00 7.064160e+00 7.028641e+00 7.449899e+00 5.739545e+00 5.665420e+00 6.021882e+00 4.545383e+00 4.585824e+00 4.215882e+00 1.961023e+00
<GCONST> 1.151895e+02
<STATE> 3
<MEAN> 25
 6.142975e-01 2.071169e-01 1.465160e+01 2.038346e+00 -1.340602e+01 -7.317848e+00 -1.528225e+00 -3.217223e+00 -8.991531e+00 -2.813831e+00 8.267654e+00 -1.686156e+00 8.780440e-02 4.619645e-02 -1.855220e-01 1.411165e-01 1.088527e-01 -1.341312e-02 1.103016e-01 1.994221e-01 1.097688e-01 9.080274e-02 -5.531033e-02 6.264076e-02 -1.628157e-01
<VARIANCE> 25
 1.404348e+01 3.159970e+01 4.875156e+01 5.760862e+01 5.737423e+01 7.095322e+01 4.901850e+01 5.434948e+01 5.438628e+01 5.079908e+01 4.184990e+01 4.851896e+01 5.582733e-01 1.391073e+00 2.331841e+00 1.732457e+00 3.059272e+00 2.526146e+00 2.369751e+00 2.734325e+00 3.010627e+00 2.063230e+00 2.349464e+00 1.869358e+00 9.072813e-01
<GCONST> 9.998775e+01
<STATE> 4
<MEAN> 25
 4.710374e-01 1.252819e+00 9.001899e+00 7.063255e+00 -3.171001e+00 -5.377132e+00 -2.987335e+00 -3.011825e+00 -5.833601e+00 -2.203473e+00 1.956082e+00 1.146566e+00 -2.642333e-01 4.204258e-01 -8.699158e-01 1.707101e-01 1.250708e+00 6.793844e-01 3.027181e-01 1.545600e-01 3.835603e-01 3.382197e-01 -7.678296e-01 2.485677e-01 -8.847028e-01
<VARIANCE> 25
 2.080479e+01 4.443378e+01 3.920685e+01 6.674900e+01 6.750807e+01 7.025397e+01 6.744910e+01 6.637856e+01 6.352174e+01 5.105279e+01 4.341576e+01 3.787609e+01 6.726312e-01 1.176676e+00 1.611295e+00 2.040658e+00 2.427006e+00 2.586449e+00 2.448885e+00 2.726191e+00 2.496082e+00 2.219036e+00 2.222127e+00 1.947668e+00 9.903731e-01
<GCONST> 1.008655e+02
<TRANSP> 5
 0.000000e+00 1.000000e+00 0.000000e+00 0.000000e+00 0.000000e+00
 0.000000e+00 5.299127e-01 4.700873e-01 0.000000e+00 0.000000e+00
 0.000000e+00 0.000000e+00 7.174112e-01 2.825888e-01 0.000000e+00
 0.000000e+00 0.000000e+00 0.000000e+00 7.424691e-01 2.575309e-01
 0.000000e+00 0.000000e+00 0.000000e+00 0.000000e+00 0.000000e+00
<ENDHMM>
~h "j"
<BEGINHMM>
<NUMSTATES> 5
<STATE> 2
<MEAN> 25
 -1.069782e+00 7.506890e+00 4.487317e+00 5.371242e+00 2.531343e+00 -1.980379e+00 -2.397403e-01 -8.908951e-01 -1.691174e+00 -2.298509e+00 -2.889191e+00 2.829017e+00 -8.549333e-01 5.644245e-01 1.048610e+00 -1.323548e-01 -4.854327e-01 -4.608731e-01 -4.459524e-01 -8.885277e-01 -4.988385e-01 -3.970957e-01 8.977272e-02 5.523310e-01 6.926643e-01
<VARIANCE> 25
 3.678881e+01 4.484702e+01 3.692382e+01 3.170256e+01 4.600431e+01 5.734841e+01 3.871955e+01 3.236520e+01 3.137805e+01 2.788597e+01 3.263877e+01 2.388134e+01 3.395339e+00 5.045363e+00 4.039949e+00 3.780151e+00 5.871068e+00 6.704829e+00 3.864136e+00 3.785748e+00 3.456110e+00 2.701244e+00 3.850436e+00 2.597040e+00 3.772084e+00
<GCONST> 1.066515e+02
<STATE> 3
<MEAN> 25
 -1.386488e+00 1.052243e-01 1.174591e+01 5.160444e+00 -4.439082e+00 -3.008977e+00 -4.113603e+00 -6.144876e+00 -3.088553e+00 -4.189057e+00 1.938221e-01 3.994524e+00 1.172886e+00 -2.213635e+00 7.008246e-01 2.023877e-01 -2.327549e+00 -1.726632e+00 -1.805393e+00 -5.210855e-01 -2.788923e-02 -1.012197e+00 1.573353e+00 -2.463766e-02 1.996537e+00
<VARIANCE> 25
 2.877600e+01 9.091060e+01 5.484187e+01 5.746813e+01 6.524393e+01 1.192167e+02 5.385175e+01 5.974966e+01 5.013213e+01 3.917334e+01 4.423816e+01 3.719097e+01 2.843116e+00 5.900735e+00 7.989413e+00 6.336759e+00 9.313587e+00 7.360836e+00 5.201615e+00 7.516457e+00 5.684319e+00 4.376547e+00 5.678221e+00 3.450922e+00 2.023966e+00
<GCONST> 1.154283e+02
<STATE> 4
<MEAN> 25
 2.572753e+00 -2.609921e+00 8.235282e+00 3.836551e+00 -8.811480e+00 -8.153801e+00 -7.171283e+00 -2.321816e+00 -1.011880e+00 -5.249087e+00 5.793293e+00 2.621006e+00 7.223428e-01 -6.495537e-01 -1.377195e+00 -6.883994e-01 3.748697e-02 1.272652e-01 4.406646e-02 7.780978e-01 1.050399e+00 3.672791e-01 2.454986e-01 -9.995395e-01 2.783760e-01
<VARIANCE> 25
 1.632319e+01 4.065623e+01 4.235371e+01 5.830046e+01 6.666012e+01 6.201912e+01 5.538172e+01 9.004855e+01 5.764766e+01 3.803402e+01 4.935408e+01 3.727656e+01 7.539203e-01 2.577893e+00 2.697436e+00 2.497644e+00 4.356023e+00 3.478904e+00 4.344217e+00 4.121322e+00 3.658044e+00 2.486613e+00 3.761340e+00 2.727064e+00 1.111212e+00
<GCONST> 1.051249e+02
<TRANSP> 5
 0.000000e+00 1.000000e+00 0.000000e+00 0.000000e+00 0.000000e+00
 0.000000e+00 6.770630e-01 3.229370e-01 0.000000e+00 0.000000e+00
 0.000000e+00 0.000000e+00 6.034603e-01 3.965397e-01 0.000000e+00
 0.000000e+00 0.000000e+00 0.000000e+00 6.710876e-01 3.289124e-01
 0.000000e+00 0.000000e+00 0.000000e+00 0.000000e+00 0.000000e+00
<ENDHMM>
~h "k"
<BEGINHMM>
<NUMSTATES> 5
<STATE> 2
<MEAN> 25
 -3.476402e+00 1.386578e+00 -2.183450e+00 1.095826e+00 5.733895e+00 1.734291e+00 1.196408e+00 1.939867e-01 -1.603514e+00 2.316402e+00 -5.178765e-01 2.071951e+00 -6.157720e-01 -4.025598e-01 -6.811017e-01 -5.859728e-01 6.403583e-01 -3.871124e-01 -1.824529e-02 -3.679286e-02 7.731134e-02 2.209832e-01 -1.190162e-01 2.336478e-02 3.977475e-01
<VARIANCE> 25
 3.162227e+01 3.391350e+01 5.491069e+01 5.140312e+01 6.967292e+01 7.020790e+01 4.477972e+01 4.901048e+01 4.933375e+01 4.165144e+01 3.528030e+01 3.933126e+01 2.704388e+00 3.810486e+00 4.517869e+00 5.026073e+00 6.389500e+00 6.281102e+00 4.254813e+00 4.774094e+00 4.478138e+00 3.831603e+00 3.411861e+00 3.242335e+00 3.996999e+00
<GCONST> 1.107127e+02
<STATE> 3
<MEAN> 25
 -3.202016e+00 -1.968231e+00 -3.419753e+00 -2.462469e+00 3.520478e+00 4.944505e-01 4.287268e-01 1.993978e-01 -9.517933e-01 1.595441e+00 -1.195003e+00 1.560009e+00 1.370617e+00 -1.204525e+00 -4.240024e-01 -1.296287e+00 -1.658060e+00 -7.655588e-01 -4.716796e-01 -5.140451e-01 5.537711e-01 -6.253795e-01 3.450454e-01 -9.382997e-01 2.404896e+00
<VARIANCE> 25
 3.626168e+01 5.218837e+01 7.909054e+01 6.682782e+01 1.177203e+02 9.314761e+01 6.102387e+01 6.807399e+01 6.492497e+01 6.623409e+01 4.228882e+01 4.133841e+01 4.401942e+00 5.464892e+00 7.946423e+00 8.124233e+00 9.443563e+00 1.054947e+01 6.694101e+00 7.135671e+00 7.088204e+00 7.130201e+00 4.738527e+00 5.665760e+00 4.114075e+00
<GCONST> 1.199754e+02
<STATE> 4
<MEAN> 25
 1.524464e+00 -2.670685e+00 -3.573177e+00 -4.084805e+00 -9.225901e-01 -8.750263e-01 -7.929218e-01 -1.372115e+00 1.924661e-01 -2.309004e-01 1.175716e-01 -1.724186e+00 1.907318e+00 -5.788451e-01 -1.770183e-02 -6.206207e-01 -1.974593e+00 -5.271360e-01 -2.847489e-01 -4.978263e-01 6.556487e-01 -5.689014e-01 8.269782e-01 -1.114180e+00 1.984793e+00
<VARIANCE> 25
 3.543550e+01 5.084350e+01 6.528661e+01 5.713957e+01 8.897453e+01 7.623432e+01 5.516092e+01 6.450903e+01 6.778929e+01 5.490063e+01 4.712824e+01 4.399380e+01 3.589133e+00 3.817045e+00 6.960180e+00 6.685467e+00 8.001162e+00 7.749253e+00 6.346903e+00 5.074179e+00 5.906264e+00 4.673580e+00 5.066798e+00 4.452789e+00 2.414610e+00
<GCONST> 1.158983e+02
<TRANSP> 5
 0.000000e+00 1.000000e+00 0.000000e+00 0.000000e+00 0.000000e+00
 0.000000e+00 4.672290e-01 5.327710e-01 0.000000e+00 0.000000e+00
 0.000000e+00 0.000000e+00 3.843932e-01 6.156068e-01 0.000000e+00
 0.000000e+00 0.000000e+00 0.000000e+00 2.419751e-01 7.580248e-01
 0.000000e+00 0.000000e+00 0.000000e+00 0.000000e+00 0.000000e+00
<ENDHMM>
~h "l"
<BEGINHMM>
<NUMSTATES> 5
<STATE> 2
<MEAN> 25
 6.517392e+00 -3.693025e+00 -2.601685e+00 -2.470375e+00 -4.340380e+00 6.206820e-01 -4.785652e+00 -5.113408e+00 3.651465e+00 3.103732e-01 5.570228e-01 -2.613354e+00 3.343700e-01 -4.389192e-01 -2.828151e-02 -1.039390e-01 -4.669303e-01 2.356243e-01 -6.941171e-01 -5.172249e-01 5.341461e-01 4.665393e-01 8.081903e-02 7.573113e-03 3.461965e-01
<VARIANCE> 25
 1.962701e+01 3.996930e+01 4.848397e+01 7.247192e+01 6.501658e+01 8.086496e+01 5.562647e+01 8.053645e+01 8.255711e+01 1.162619e+02 6.306856e+01 4.919997e+01 1.103624e+00 2.215685e+00 3.242013e+00 4.363210e+00 4.770815e+00 4.992548e+00 4.675951e+00 5.672028e+00 5.294230e+00 5.061348e+00 4.894063e+00 4.071565e+00 1.664719e+00
<GCONST> 1.117426e+02
<STATE> 3
<MEAN> 25
 6.792220e+00 -4.711672e+00 -3.789585e+00 -7.044630e+00 -3.897952e+00 4.958350e+00 -6.756311e+00 -6.013885e+00 6.816570e+00 3.527464e+00 5.032635e-01 -2.350944e+00 -2.483207e-02 3.049100e-02 6.292530e-03 1.151121e-01 9.296361e-02 -6.047113e-02 8.091152e-02 2.620390e-01 -8.317751e-02 -2.252383e-01 -2.490706e-01 2.626419e-02 -6.939733e-02
<VARIANCE> 25
 1.521689e+01 3.136199e+01 4.082004e+01 8.779262e+01 5.232474e+01 9.415463e+01 5.173042e+01 7.230058e+01 6.851001e+01 8.650506e+01 5.141478e+01 3.888718e+01 3.325047e-01 8.569752e-01 1.388669e+00 2.290246e+00 2.148080e+00 2.533067e+00 2.563508e+00 3.373861e+00 2.642278e+00 2.396175e+00 2.653229e+00 2.107572e+00 4.412592e-01
<GCONST> 9.981783e+01
<STATE> 4
<MEAN> 25
 9.223260e+00 -3.383348e+00 -4.132792e+00 -9.327059e-01 -7.190774e+00 -4.478122e+00 -4.068106e+00 -1.399307e+00 2.248688e+00 -6.382838e+00 5.564132e-01 -2.937801e+00 -1.406919e-01 1.759787e-01 1.961116e-02 4.850445e-02 2.141000e-01 -1.289061e-01 2.500426e-01 2.668028e-01 -2.533429e-01 5.372959e-02 -2.797569e-02 1.678903e-02 -2.462214e-01
<VARIANCE> 25
 1.747282e+01 4.909257e+01 5.892906e+01 6.854581e+01 9.002107e+01 9.665185e+01 5.286308e+01 9.014762e+01 5.874450e+01 1.172012e+02 6.183194e+01 4.167532e+01 2.779984e-01 9.608685e-01 1.289334e+00 1.660430e+00 2.215779e+00 2.176035e+00 1.910050e+00 2.439339e+00 2.366738e+00 2.296112e+00 2.330023e+00 1.619669e+00 6.187283e-01
<GCONST> 1.003307e+02
<TRANSP> 5
 0.000000e+00 1.000000e+00 0.000000e+00 0.000000e+00 0.000000e+00
 0.000000e+00 4.164981e-01 5.835019e-01 0.000000e+00 0.000000e+00
 0.000000e+00 0.000000e+00 5.015850e-01 4.984150e-01 0.000000e+00
 0.000000e+00 0.000000e+00 0.000000e+00 7.462600e-01 2.537400e-01
 0.000000e+00 0.000000e+00 0.000000e+00 0.000000e+00 0.000000e+00
<ENDHMM>
~h "m"
<BEGINHMM>
<NUMSTATES> 5
<STATE> 2
<MEAN> 25
 5.551491e+00 -1.870361e-02 -8.214538e-01 1.635505e+00 -1.117614e-01 2.628195e+00 7.018642e-01 -5.185060e+00 -3.913743e+00 -5.124299e-02 1.785829e-01 -2.127898e-01 -1.969739e-01 6.597493e-01 9.767673e-01 1.263050e+00 3.947694e-01 3.188675e-01 5.206326e-01 -1.206745e+00 -1.301545e+00 -2.642961e-01 -6.080359e-01 4.230672e-01 -6.848100e-01
<VARIANCE> 25
 1.811894e+01 2.477418e+01 4.042281e+01 4.112000e+01 3.762169e+01 4.100557e+01 3.370104e+01 5.159984e+01 4.849429e+01 3.259166e+01 4.230371e+01 2.755423e+01 7.219896e-01 1.391794e+00 2.571824e+00 3.177037e+00 2.053650e+00 2.174996e+00 2.492193e+00 3.559536e+00 3.476354e+00 2.208140e+00 2.991213e+00 2.225091e+00 1.090967e+00
<GCONST> 9.850399e+01
<STATE> 3
<MEAN> 25
 5.252756e+00 7.869961e-01 7.879040e-02 2.576827e+00 -1.589850e-01 3.025049e+00 1.416823e+00 -5.774983e+00 -4.923762e+00 -8.934249e-01 -3.216081e-01 3.996801e-01 1.689229e-01 -1.289595e-01 -6.310822e-01 -7.838351e-01 -4.264116e-03 3.304768e-01 2.231809e-02 6.971168e-01 5.975297e-01 -1.549737e-01 -2.391778e-03 -3.718971e-01 2.912238e-01
<VARIANCE> 25
 1.989175e+01 2.502805e+01 4.190411e+01 4.197681e+01 3.919592e+01 4.298425e+01 3.587463e+01 5.881279e+01 5.294450e+01 3.582522e+01 4.552377e+01 2.947946e+01 7.645020e-01 1.181190e+00 3.153343e+00 3.426894e+00 1.968294e+00 2.314646e+00 2.450336e+00 2.991625e+00 3.552841e+00 1.973554e+00 2.415476e+00 2.044274e+00 1.206538e+00
<GCONST> 9.898220e+01
<STATE> 4
<MEAN> 25
 5.745147e+00 1.064699e+00 -1.448974e+00 1.788414e+00 5.438327e-01 2.484451e+00 1.798054e+00 -2.123426e+00 -2.971149e+00 -2.120385e+00 -1.179896e+00 -1.245001e+00 3.603362e-02 -4.961786e-02 -4.737763e-01 -6.276467e-01 -3.864775e-02 -4.986762e-02 -1.737729e-01 6.425470e-01 5.628792e-01 3.355444e-02 1.503793e-01 -1.682363e-01 1.347275e-01
<VARIANCE> 25
 2.174192e+01 2.834462e+01 5.046550e+01 5.561224e+01 5.160898e+01 4.523778e+01 3.851259e+01 5.217006e+01 4.069954e+01 3.922042e+01 4.465994e+01 3.222626e+01 4.682624e-01 7.858772e-01 1.649595e+00 1.828686e+00 1.693168e+00 1.826448e+00 1.710973e+00 1.907525e+00 2.381188e+00 1.712814e+00 2.021437e+00 1.562122e+00 6.213151e-01
<GCONST> 9.481467e+01
<TRANSP> 5
 0.000000e+00 1.000000e+00 0.000000e+00 0.000000e+00 0.000000e+00
 0.000000e+00 4.777803e-01 5.222198e-01 0.000000e+00 0.000000e+00
 0.000000e+00 0.000000e+00 3.553588e-01 6.446412e-01 0.000000e+00
 0.000000e+00 0.000000e+00 0.000000e+00 6.461762e-01 3.538238e-01
 0.000000e+00 0.000000e+00 0.000000e+00 0.000000e+00 0.000000e+00
<ENDHMM>
~h "n"
<BEGINHMM>
<NUMSTATES> 5
<STATE> 2
<MEAN> 25
 5.284250e+00 -2.577830e+00 4.682345e-01 2.885660e+00 -2.378950e+00 -1.251307e+00 -2.029671e+00 -1.248643e+00 2.503094e+00 -1.811497e+00 -2.367400e+00 -1.289843e+00 1.055370e-01 1.578936e+00 9.735228e-01 1.479646e+00 6.728210e-01 3.984851e-01 1.553872e-01 -1.604696e+00 -9.904518e-01 5.636215e-01 -8.437184e-01 4.704271e-01 -1.521743e+00
<VARIANCE> 25
 1.463829e+01 3.249850e+01 3.947854e+01 3.436299e+01 4.552683e+01 4.357098e+01 4.042236e+01 6.535934e+01 5.701553e+01 5.012658e+01 4.021907e+01 2.897491e+01 5.473921e-01 1.285606e+00 2.250579e+00 2.162680e+00 3.090307e+00 2.859324e+00 2.960557e+00 4.672091e+00 3.788424e+00 3.152566e+00 2.637467e+00 2.666784e+00 9.001027e-01
<GCONST> 1.001777e+02
<STATE> 3
<MEAN> 25
 5.627070e+00 6.071298e-01 2.476656e+00 5.835095e+00 -1.432137e+00 -3.282660e-01 -1.571060e+00 -5.049862e+00 -4.371341e-01 -1.367442e+00 -3.439608e+00 -9.388751e-01 -1.520714e-01 8.560724e-01 2.313147e-01 3.996116e-01 5.509816e-01 1.915518e-01 1.967343e-01 -2.399497e-01 -5.683804e-01 1.449636e-01 -2.901303e-01 1.422595e-02 -6.875145e-01
<VARIANCE> 25
 1.332449e+01 2.568888e+01 3.145373e+01 2.758782e+01 4.022731e+01 3.827327e+01 3.734753e+01 4.576080e+01 4.384555e+01 4.942081e+01 3.813700e+01 3.152188e+01 3.096956e-01 8.413315e-01 9.691125e-01 1.053214e+00 1.642966e+00 1.490379e+00 1.675398e+00 2.215808e+00 1.849696e+00 1.800643e+00 1.699739e+00 1.469200e+00 4.388693e-01
<GCONST> 9.028193e+01
<STATE> 4
<MEAN> 25
 2.226806e+00 4.467516e+00 2.691051e+00 6.136793e+00 4.243646e+00 8.295963e-01 -5.782240e-01 -2.677173e+00 -3.162219e+00 -1.284009e+00 -3.427037e+00 -6.787313e-01 -5.402880e-01 8.088055e-02 3.118320e-02 -2.030446e-01 3.977887e-01 1.667510e-01 1.372122e-01 4.355159e-01 -1.092520e-01 5.356351e-02 1.326978e-01 1.232466e-01 -3.302053e-01
<VARIANCE> 25
 2.635377e+01 2.934155e+01 3.546215e+01 3.419566e+01 5.833406e+01 3.846885e+01 3.837242e+01 4.860260e+01 4.712962e+01 5.364009e+01 3.808741e+01 3.580497e+01 5.633563e-01 1.006570e+00 1.240440e+00 1.401869e+00 1.818216e+00 1.911854e+00 1.893226e+00 2.631327e+00 2.086956e+00 2.051358e+00 1.837298e+00 1.627639e+00 6.368079e-01
<GCONST> 9.493436e+01
<TRANSP> 5
 0.000000e+00 1.000000e+00 0.000000e+00 0.000000e+00 0.000000e+00
 0.000000e+00 4.497757e-01 5.502244e-01 0.000000e+00 0.000000e+00
 0.000000e+00 0.000000e+00 5.862916e-01 4.137084e-01 0.000000e+00
 0.000000e+00 0.000000e+00 0.000000e+00 6.240766e-01 3.759234e-01
 0.000000e+00 0.000000e+00 0.000000e+00 0.000000e+00 0.000000e+00
<ENDHMM>
~h "o"
<BEGINHMM>
<NUMSTATES> 5
<STATE> 2
<MEAN> 25
 5.251711e+00 1.705033e+00 -5.037169e+00 -6.319369e+00 -2.443620e+00 4.281051e-01 -8.113994e-01 6.824652e-01 1.111064e+00 -1.537762e+00 8.254914e-01 -8.983629e-01 1.480829e+00 -5.824886e-01 -1.043216e+00 -1.699316e+00 -1.031072e+00 3.612348e-01 -3.012874e-01 -1.670857e-01 2.389517e-01 -1.902561e-01 1.149676e+00 -4.275724e-01 1.682523e+00
<VARIANCE> 25
 3.797692e+01 4.086884e+01 4.285984e+01 9.013895e+01 7.609503e+01 1.244938e+02 4.944531e+01 7.354334e+01 6.225745e+01 7.768322e+01 5.300309e+01 4.469768e+01 3.348257e+00 2.757069e+00 3.520032e+00 7.133141e+00 5.879589e+00 8.048708e+00 4.699524e+00 5.152384e+00 4.928362e+00 5.314364e+00 4.136401e+00 4.228856e+00 3.426760e+00
<GCONST> 1.150113e+02
<STATE> 3
<MEAN> 25
 7.291574e+00 -1.289691e-01 -6.509770e+00 -9.664522e+00 -3.733499e+00 4.204974e+00 -1.508603e+00 -2.255099e+00 2.085382e-01 -9.991628e-01 5.035774e+00 -8.316498e-01 -1.947328e-01 2.907223e-01 2.967562e-02 5.293685e-01 6.726995e-01 2.323846e-01 2.150135e-01 -4.553907e-02 -3.889510e-01 2.279550e-01 -1.496135e-01 2.858673e-01 -7.150981e-01
<VARIANCE> 25
 1.533695e+01 2.734440e+01 3.615417e+01 7.660784e+01 9.241351e+01 1.147528e+02 4.244211e+01 5.451411e+01 6.830946e+01 8.036293e+01 4.547345e+01 4.379687e+01 7.047004e-01 1.858442e+00 1.510543e+00 3.429237e+00 2.743211e+00 3.013133e+00 3.005414e+00 2.901310e+00 4.156634e+00 3.504650e+00 2.852800e+00 2.729688e+00 2.335270e+00
<GCONST> 1.049068e+02
<STATE> 4
<MEAN> 25
 5.106816e+00 1.660278e+00 -6.092535e+00 -8.361127e+00 -2.353504e+00 1.507932e+00 3.074570e-01 7.617893e-01 8.579979e-01 9.425100e-01 2.614571e+00 4.909329e-01 -3.978046e-01 1.503202e-01 2.867042e-01 5.273572e-01 3.378881e-01 -1.806023e-01 1.148835e-01 9.425027e-02 -6.859643e-02 9.827709e-02 -3.228821e-01 4.615422e-02 -4.592036e-01
<VARIANCE> 25
 2.947802e+01 2.774664e+01 3.182175e+01 6.805878e+01 5.607549e+01 1.111702e+02 4.146253e+01 6.330605e+01 5.363634e+01 5.624560e+01 3.891059e+01 4.309217e+01 3.831984e-01 6.475384e-01 9.057017e-01 1.626085e+00 1.391978e+00 1.579005e+00 1.617078e+00 1.522894e+00 1.726135e+00 1.743322e+00 1.552594e+00 1.409740e+00 4.116221e-01
<GCONST> 9.406078e+01
<TRANSP> 5
 0.000000e+00 1.000000e+00 0.000000e+00 0.000000e+00 0.000000e+00
 0.000000e+00 5.563632e-01 4.436369e-01 0.000000e+00 0.000000e+00
 0.000000e+00 0.000000e+00 6.525897e-01 3.474104e-01 0.000000e+00
 0.000000e+00 0.000000e+00 0.000000e+00 7.920971e-01 2.079029e-01
 0.000000e+00 0.000000e+00 0.000000e+00 0.000000e+00 0.000000e+00
<ENDHMM>
~h "p"
<BEGINHMM>
<NUMSTATES> 5
<STATE> 2
<MEAN> 25
 -4.911188e-01 2.484725e+00 -2.766255e+00 1.195847e+00 4.012034e+00 2.727782e+00 2.054456e+00 -1.102019e+00 -2.009028e+00 2.307695e+00 -6.916370e-01 2.163353e+00 -1.042339e-01 -2.779392e-01 -7.536671e-02 -6.247919e-01 -5.253744e-01 -5.684712e-01 -2.070788e-01 -3.018207e-01 1.750217e-01 -1.629714e-01 2.111228e-01 7.613055e-02 5.324372e-01
<VARIANCE> 25
 3.302668e+01 2.864321e+01 3.965887e+01 4.338038e+01 4.281814e+01 5.351670e+01 3.776929e+01 5.015400e+01 3.956369e+01 3.874211e+01 3.109461e+01 2.791272e+01 2.433736e+00 2.648715e+00 3.076194e+00 3.836170e+00 3.465338e+00 5.055909e+00 3.251159e+00 4.044232e+00 3.527873e+00 3.129754e+00 2.786391e+00 2.889240e+00 3.079524e+00
<GCONST> 1.050175e+02
<STATE> 3
<MEAN> 25
 7.309685e-01 1.064043e+00 -3.302794e+00 -2.078242e+00 1.044096e+00 3.685661e-01 3.163859e-01 -1.454797e+00 -1.680626e+00 1.458576e+00 -2.922621e-01 1.292972e+00 1.865961e+00 -1.490627e+00 -8.587204e-01 -2.065842e+00 -2.056100e+00 -2.129858e-01 -1.090836e+00 -8.351547e-01 8.747706e-01 -5.984303e-01 8.529400e-01 -1.236375e+00 2.980493e+00
<VARIANCE> 25
 3.233546e+01 3.258942e+01 3.878508e+01 5.185683e+01 4.478867e+01 4.578754e+01 3.333722e+01 4.184898e+01 4.090619e+01 3.640360e+01 3.234879e+01 2.702524e+01 3.099659e+00 4.861753e+00 6.933860e+00 8.317127e+00 5.035400e+00 9.806822e+00 5.665115e+00 7.059773e+00 6.489095e+00 7.428431e+00 4.866765e+00 5.946050e+00 4.410844e+00
<GCONST> 1.125400e+02
<STATE> 4
<MEAN> 25
 5.881958e+00 -2.513569e+00 -6.046697e+00 -5.996432e+00 -3.894091e+00 1.094298e+00 -1.926279e+00 -3.119234e+00 9.575149e-01 -8.237246e-01 1.249964e+00 -1.863199e+00 1.406391e+00 -1.190662e+00 -5.467874e-01 -7.449663e-01 -1.328603e+00 -1.162649e-01 -7.028786e-01 -2.383395e-01 1.040178e+00 -8.176978e-01 7.561559e-01 -1.222617e+00 2.378900e+00
<VARIANCE> 25
 2.803494e+01 4.643953e+01 6.846365e+01 8.219398e+01 5.766240e+01 9.208591e+01 4.432651e+01 6.370002e+01 5.612523e+01 7.256035e+01 4.819871e+01 4.968563e+01 2.454575e+00 4.117066e+00 6.761964e+00 7.415318e+00 5.896416e+00 9.009618e+00 5.587946e+00 6.153276e+00 6.769538e+00 6.484625e+00 5.224320e+00 5.768703e+00 3.222721e+00
<GCONST> 1.164661e+02
<TRANSP> 5
 0.000000e+00 1.000000e+00 0.000000e+00 0.000000e+00 0.000000e+00
 0.000000e+00 3.711694e-01 6.288307e-01 0.000000e+00 0.000000e+00
 0.000000e+00 0.000000e+00 3.026742e-01 6.973258e-01 0.000000e+00
 0.000000e+00 0.000000e+00 0.000000e+00 2.959665e-01 7.040335e-01
 0.000000e+00 0.000000e+00 0.000000e+00 0.000000e+00 0.000000e+00
<ENDHMM>
~h "r"
<BEGINHMM>
<NUMSTATES> 5
<STATE> 2
<MEAN> 25
 5.679464e+00 -4.567019e+00 -3.829238e+00 -9.683958e-02 -4.122256e+00 -2.338644e+00 -4.262123e+00 -2.709358e+00 6.282381e+00 1.369575e+00 -3.937217e-01 -2.283884e+00 1.133363e-01 -1.555558e-01 4.666677e-01 1.046846e+00 -1.348314e-01 -2.787856e-01 -3.408167e-01 -4.027330e-02 -3.517592e-01 1.972696e-01 -3.289171e-01 5.671557e-01 -4.889328e-01
<VARIANCE> 25
 2.028528e+01 3.208661e+01 4.879090e+01 3.857896e+01 5.187630e+01 5.476796e+01 4.665899e+01 6.304379e+01 7.505880e+01 8.340908e+01 5.932705e+01 3.526925e+01 1.110876e+00 1.920480e+00 2.711734e+00 4.125805e+00 4.389435e+00 4.665082e+00 3.600863e+00 4.389990e+00 4.574152e+00 4.302624e+00 3.484293e+00 3.410860e+00 2.075623e+00
<GCONST> 1.074298e+02
<STATE> 3
<MEAN> 25
 5.253259e+00 -3.831296e+00 -1.976857e+00 2.502012e+00 -3.207402e+00 -2.991763e+00 -4.435708e+00 -2.522156e+00 3.434750e+00 1.769752e+00 -1.728855e-01 -1.831264e-01 -2.137632e-01 3.240877e-01 7.350808e-01 6.388954e-01 4.469726e-01 1.572388e-01 1.444633e-01 1.148214e-01 -9.503739e-01 -2.947745e-02 -2.741791e-01 7.301357e-01 -7.940465e-01
<VARIANCE> 25
 1.988126e+01 3.316303e+01 5.047790e+01 3.472507e+01 6.096809e+01 4.942718e+01 4.372809e+01 5.723339e+01 6.177384e+01 7.104417e+01 4.564722e+01 2.968687e+01 1.122450e+00 2.110428e+00 2.598480e+00 2.839719e+00 4.213744e+00 3.731378e+00 3.536170e+00 4.140632e+00 4.008816e+00 3.419262e+00 3.435815e+00 3.229125e+00 1.610888e+00
<GCONST> 1.051428e+02
<STATE> 4
<MEAN> 25
 4.804530e+00 -2.674833e+00 -1.612874e-01 3.044571e+00 -1.984203e+00 -1.523343e+00 -3.730828e+00 -2.780101e+00 5.887792e-01 -8.044320e-02 -9.007425e-01 1.125123e-01 -3.464056e-01 3.661920e-01 4.249027e-01 -1.218533e-01 1.973875e-01 3.245097e-01 2.908803e-01 2.367091e-01 -6.468650e-01 -1.096949e-01 -4.560401e-02 1.807815e-01 -4.908817e-01
<VARIANCE> 25
 2.310152e+01 4.283188e+01 5.359234e+01 3.973163e+01 6.263808e+01 6.511112e+01 4.472138e+01 8.073186e+01 5.882195e+01 9.121877e+01 4.844117e+01 3.689524e+01 7.480544e-01 1.531565e+00 2.167077e+00 1.614055e+00 2.702823e+00 2.815674e+00 2.414847e+00 2.788157e+00 3.080772e+00 2.767291e+00 2.406561e+00 2.062192e+00 1.017627e+00
<GCONST> 1.021761e+02
<TRANSP> 5
 0.000000e+00 1.000000e+00 0.000000e+00 0.000000e+00 0.000000e+00
 0.000000e+00 3.811468e-01 6.188532e-01 0.000000e+00 0.000000e+00
 0.000000e+00 0.000000e+00 1.933163e-01 8.066837e-01 0.000000e+00
 0.000000e+00 0.000000e+00 0.000000e+00 5.020808e-01 4.979192e-01
 0.000000e+00 0.000000e+00 0.000000e+00 0.000000e+00 0.000000e+00
<ENDHMM>
~h "s"
<BEGINHMM>
<NUMSTATES> 5
<STATE> 2
<MEAN> 25
 -6.439287e+00 5.009201e+00 6.192083e-01 1.821923e+00 5.305744e+00 -2.881620e+00 1.052803e+00 1.562864e+00 1.067744e+00 -1.395918e+00 -1.572214e+00 1.723055e+00 -3.672632e+00 1.973295e+00 -1.052840e-01 3.963467e-01 1.529910e+00 4.681258e-02 7.849097e-01 5.012240e-01 -1.598520e-01 -4.743621e-01 4.133232e-01 6.975098e-01 -1.793221e-01
<VARIANCE> 25
 7.497121e+01 4.872779e+01 5.248316e+01 3.894967e+01 6.975344e+01 5.900078e+01 5.187265e+01 5.432863e+01 5.176531e+01 4.445259e+01 4.646154e+01 3.427664e+01 4.733411e+00 3.720953e+00 3.934335e+00 3.336552e+00 4.780298e+00 3.906789e+00 3.525474e+00 3.471490e+00 3.188236e+00 3.213726e+00 3.428592e+00 2.609351e+00 1.024018e+00
<GCONST> 1.085706e+02
<STATE> 3
<MEAN> 25
 -1.723045e+01 7.169161e+00 -4.040553e-01 1.557859e+00 7.487556e+00 -2.017301e+00 3.031184e+00 4.623879e+00 7.214093e-01 -2.726668e+00 2.491462e-01 3.982585e+00 4.391883e-01 -7.290180e-01 9.510811e-02 -6.294105e-02 -4.688455e-01 7.610714e-02 -1.088646e-02 5.806828e-02 1.080300e-01 2.032879e-02 -2.063855e-01 1.537644e-01 -4.673020e-01
<VARIANCE> 25
 6.413823e+01 4.457663e+01 3.949658e+01 5.145380e+01 4.861208e+01 4.685640e+01 4.545388e+01 5.342484e+01 4.195454e+01 3.569153e+01 2.991596e+01 3.095572e+01 4.900523e+00 1.895039e+00 2.751177e+00 1.993934e+00 2.215795e+00 2.981977e+00 2.469425e+00 2.725098e+00 2.704693e+00 2.306766e+00 2.285653e+00 1.977974e+00 9.004635e-01
<GCONST> 1.021506e+02
<STATE> 4
<MEAN> 25
 -5.347424e+00 -5.856885e+00 8.417933e+00 -1.568954e+00 -4.644222e+00 5.001775e+00 -1.001120e-01 -2.894626e+00 1.268189e+00 -1.546839e+00 -1.842323e+00 3.044296e+00 1.809586e+00 -8.106653e-01 9.369919e-02 -3.862778e-01 -1.215962e+00 -4.494723e-02 -6.743758e-01 -8.527549e-01 1.203829e-01 2.197741e-02 -3.070129e-01 -4.034706e-01 7.474861e-01
<VARIANCE> 25
 6.446352e+01 1.356936e+02 1.549627e+02 6.856238e+01 1.190048e+02 1.179778e+02 5.573778e+01 7.172469e+01 5.300035e+01 5.637947e+01 4.200179e+01 3.403735e+01 9.008539e+00 5.783429e+00 1.054217e+01 5.696085e+00 6.307717e+00 7.050807e+00 4.467726e+00 4.520185e+00 4.838868e+00 5.144498e+00 3.519922e+00 3.569899e+00 2.335657e+00
<GCONST> 1.188476e+02
<TRANSP> 5
 0.000000e+00 1.000000e+00 0.000000e+00 0.000000e+00 0.000000e+00
 0.000000e+00 6.268235e-01 3.731765e-01 0.000000e+00 0.000000e+00
 0.000000e+00 0.000000e+00 7.431708e-01 2.568292e-01 0.000000e+00
 0.000000e+00 0.000000e+00 0.000000e+00 6.765900e-01 3.234100e-01
 0.000000e+00 0.000000e+00 0.000000e+00 0.000000e+00 0.000000e+00
<ENDHMM>
~h "t"
<BEGINHMM>
<NUMSTATES> 5
<STATE> 2
<MEAN> 25
 -2.033695e+00 2.584574e+00 -4.116873e-01 2.250903e+00 3.973741e+00 5.210798e-01 3.931969e-01 -1.085548e+00 -6.566902e-01 2.100277e+00 -1.703586e+00 2.625561e+00 -8.805588e-01 -4.464896e-01 -7.051004e-02 -6.943650e-01 -2.767435e-02 -2.295335e-01 3.409190e-01 -5.187690e-02 1.455851e-01 -1.094334e-01 1.519558e-01 3.781300e-01 2.298602e-01
<VARIANCE> 25
 3.003539e+01 2.625823e+01 3.841621e+01 4.143190e+01 4.532949e+01 4.769346e+01 3.973172e+01 4.947160e+01 4.399220e+01 3.545979e+01 3.017025e+01 2.785460e+01 2.565614e+00 3.190463e+00 2.991631e+00 3.752346e+00 3.878799e+00 4.884396e+00 4.061631e+00 4.774734e+00 3.859687e+00 3.110581e+00 2.843615e+00 2.596258e+00 4.491458e+00
<GCONST> 1.057521e+02
<STATE> 3
<MEAN> 25
 -4.269243e+00 -5.199453e-01 -4.013580e-01 -1.133188e+00 2.465566e+00 -1.703224e+00 9.779563e-01 4.554942e-02 -2.265332e-01 6.810758e-01 -1.119542e+00 3.152257e+00 6.967822e-01 -1.409891e+00 -2.010089e-01 -1.732153e+00 -1.458723e+00 -1.235530e+00 -1.076030e+00 -4.540705e-01 1.259565e+00 -5.329024e-01 1.913256e-01 -9.200554e-01 2.895000e+00
<VARIANCE> 25
 3.531107e+01 3.630677e+01 3.286766e+01 4.687874e+01 4.739821e+01 5.548615e+01 3.829630e+01 4.438959e+01 4.096828e+01 3.523741e+01 2.784333e+01 2.822733e+01 4.043843e+00 4.557652e+00 6.059145e+00 6.087092e+00 5.688116e+00 8.278422e+00 6.228992e+00 7.720442e+00 8.060224e+00 5.977146e+00 4.926415e+00 4.992326e+00 4.391791e+00
<GCONST> 1.125021e+02
<STATE> 4
<MEAN> 25
 4.848929e-01 -2.252844e+00 -6.041241e-01 -2.468916e+00 -1.812146e+00 -2.454663e+00 -3.126233e+00 -2.543834e+00 2.298247e+00 -6.357837e-01 -1.367282e+00 1.618021e-01 2.092955e+00 -5.891939e-01 -3.656457e-01 -5.942610e-01 -1.610555e+00 -3.939883e-01 -1.419947e+00 -7.460182e-01 8.626769e-01 -5.079302e-01 7.507912e-01 -1.417606e+00 2.309510e+00
<VARIANCE> 25
 3.734764e+01 4.998002e+01 5.583939e+01 4.642747e+01 5.783672e+01 7.368272e+01 4.909673e+01 7.051630e+01 7.106323e+01 6.951938e+01 4.127479e+01 4.338452e+01 3.379196e+00 4.248094e+00 6.796473e+00 6.798488e+00 6.942721e+00 8.182113e+00 6.792527e+00 7.204473e+00 8.203035e+00 8.325929e+00 5.863797e+00 5.123551e+00 2.931944e+00
<GCONST> 1.169713e+02
<TRANSP> 5
 0.000000e+00 1.000000e+00 0.000000e+00 0.000000e+00 0.000000e+00
 0.000000e+00 4.285744e-01 5.714256e-01 0.000000e+00 0.000000e+00
 0.000000e+00 0.000000e+00 2.998465e-01 7.001534e-01 0.000000e+00
 0.000000e+00 0.000000e+00 0.000000e+00 2.151981e-01 7.848018e-01
 0.000000e+00 0.000000e+00 0.000000e+00 0.000000e+00 0.000000e+00
<ENDHMM>
~h "u"
<BEGINHMM>
<NUMSTATES> 5
<STATE> 2
<MEAN> 25
 6.010728e+00 8.660298e-01 -1.605842e+00 -3.290059e+00 -3.040409e+00 -8.039469e-02 -6.045022e+00 -5.983808e+00 -1.386257e+00 -1.523219e+00 3.122743e+00 -4.522572e-01 7.849260e-01 1.754297e-02 -4.406617e-01 -1.013758e+00 -5.213635e-01 6.601130e-01 -6.208140e-01 -8.007892e-01 -1.554193e-01 2.391879e-01 1.200617e+00 9.737767e-02 5.418326e-01
<VARIANCE> 25
 1.791990e+01 4.087992e+01 4.050018e+01 6.976569e+01 5.069914e+01 6.818672e+01 6.196885e+01 6.286496e+01 6.151797e+01 9.617791e+01 5.816701e+01 4.585432e+01 1.832340e+00 2.699525e+00 2.708169e+00 4.185255e+00 4.781098e+00 5.706440e+00 4.267638e+00 4.548059e+00 5.174753e+00 4.974064e+00 3.965801e+00 3.478049e+00 1.505264e+00
<GCONST> 1.100597e+02
<STATE> 3
<MEAN> 25
 6.942092e+00 3.095722e-01 -2.629647e+00 -5.661713e+00 -3.451230e+00 2.946924e+00 -6.555582e+00 -7.834709e+00 -1.468796e+00 -1.149240e-01 5.742561e+00 9.882778e-03 -3.787440e-02 1.654010e-01 5.722552e-02 2.920129e-01 2.921968e-01 2.179664e-01 3.595114e-01 2.039708e-01 -1.253581e-02 3.070847e-01 -3.547053e-01 1.078187e-01 -4.184215e-01
<VARIANCE> 25
 1.287707e+01 3.548044e+01 3.805426e+01 7.178881e+01 4.255196e+01 6.901202e+01 5.349042e+01 5.684176e+01 6.531705e+01 1.028543e+02 5.350065e+01 4.057076e+01 5.175228e-01 2.096400e+00 1.597586e+00 3.782000e+00 2.863356e+00 3.447652e+00 3.682417e+00 3.203974e+00 4.401934e+00 3.834937e+00 3.751608e+00 3.147107e+00 1.469639e+00
<GCONST> 1.048020e+02
<STATE> 4
<MEAN> 25
 4.732122e+00 3.966350e+00 -1.451735e+00 -3.652751e+00 -1.083230e+00 1.121617e+00 -3.248675e+00 -3.947206e+00 -3.687799e+00 -9.878671e-01 2.805727e+00 1.693345e+00 -5.589455e-01 1.398873e-01 2.725445e-01 7.288254e-01 5.637733e-01 -5.102617e-02 4.527247e-01 3.914153e-01 -2.192327e-02 6.539518e-02 -5.368819e-01 1.396668e-01 -6.025177e-01
<VARIANCE> 25
 2.097931e+01 3.341348e+01 3.379252e+01 7.780943e+01 4.923509e+01 5.139095e+01 4.483397e+01 4.556276e+01 5.176910e+01 6.771825e+01 4.402958e+01 4.887224e+01 5.502856e-01 1.066803e+00 1.094226e+00 2.095243e+00 1.784106e+00 2.106736e+00 2.082286e+00 2.015425e+00 2.148276e+00 2.436073e+00 2.126845e+00 1.823948e+00 6.556572e-01
<GCONST> 9.731226e+01
<TRANSP> 5
 0.000000e+00 1.000000e+00 0.000000e+00 0.000000e+00 0.000000e+00
 0.000000e+00 3.646447e-01 6.353554e-01 0.000000e+00 0.000000e+00
 0.000000e+00 0.000000e+00 5.417979e-01 4.582021e-01 0.000000e+00
 0.000000e+00 0.000000e+00 0.000000e+00 7.355146e-01 2.644854e-01
 0.000000e+00 0.000000e+00 0.000000e+00 0.000000e+00 0.000000e+00
<ENDHMM>
~h "v"
<BEGINHMM>
<NUMSTATES> 5
<STATE> 2
<MEAN> 25
 -2.701527e+00 -1.035232e+00 1.384533e+00 5.073360e+00 3.564392e+00 1.500069e+00 9.890414e-01 1.258596e+00 -1.505183e-01 -1.846617e+00 5.912629e-01 6.480314e-01 -5.480684e-01 -2.211193e-01 -5.402301e-02 1.159614e-01 9.746820e-02 3.759058e-01 4.740715e-02 -3.031064e-03 2.964709e-02 -2.179842e-01 -8.752336e-02 1.071919e-01 -2.390932e-01
<VARIANCE> 25
 3.898969e+01 2.645603e+01 2.059201e+01 2.696740e+01 2.111801e+01 4.682534e+01 1.992035e+01 3.613892e+01 3.860627e+01 2.835284e+01 2.499217e+01 1.768416e+01 1.605166e+00 1.357700e+00 8.330128e-01 1.538416e+00 2.132381e+00 2.193821e+00 2.193980e+00 2.306389e+00 2.454821e+00 2.174682e+00 1.925909e+00 1.588488e+00 3.706535e-01
<GCONST> 9.176226e+01
<STATE> 3
<MEAN> 25
 -2.508969e+00 -3.466473e+00 6.852340e-01 5.221443e+00 1.643875e+00 2.835956e+00 -5.479985e-02 -7.619302e-01 5.893363e-01 -3.057328e+00 1.117100e+00 2.271323e+00 4.691807e-01 -3.241670e-01 -3.881641e-01 -4.418492e-01 -6.025382e-01 -7.626211e-01 -4.201341e-01 -2.667147e-01 -3.802848e-02 -2.878316e-02 -2.304367e-02 -1.356073e-01 4.404033e-01
<VARIANCE> 25
 4.878586e+01 4.871006e+01 2.394587e+01 3.755282e+01 2.819446e+01 8.474799e+01 3.019874e+01 2.882833e+01 4.063858e+01 3.039086e+01 1.725398e+01 2.231257e+01 3.221141e+00 3.215984e+00 2.121859e+00 2.891709e+00 3.459431e+00 4.112219e+00 3.222043e+00 3.354697e+00 3.550545e+00 2.196003e+00 2.003527e+00 1.862705e+00 7.920364e-01
<GCONST> 1.004668e+02
<STATE> 4
<MEAN> 25
 1.976688e+00 -3.129730e+00 -4.632013e-01 3.682252e+00 1.731919e+00 9.664913e-01 -2.074358e+00 -1.798263e+00 -7.981012e-01 -2.935077e+00 1.305175e+00 1.885978e+00 2.015269e+00 -1.846697e-01 -1.857133e-01 -1.228606e+00 -9.721205e-01 -8.877699e-01 -3.870309e-01 -2.935635e-01 -3.423183e-01 5.275308e-01 2.710723e-01 -3.309478e-01 1.189688e+00
<VARIANCE> 25
 7.545273e+01 3.428918e+01 9.473866e+01 6.548351e+01 3.598291e+01 9.488237e+01 3.479414e+01 3.995923e+01 7.900034e+01 5.208666e+01 1.584407e+01 2.443827e+01 5.794765e+00 4.010093e+00 7.323058e+00 5.543579e+00 5.140879e+00 9.837419e+00 4.161777e+00 5.115084e+00 7.422613e+00 3.918895e+00 2.793989e+00 3.879076e+00 2.097433e+00
<GCONST> 1.125176e+02
<TRANSP> 5
 0.000000e+00 1.000000e+00 0.000000e+00 0.000000e+00 0.000000e+00
 0.000000e+00 7.664127e-01 2.335873e-01 0.000000e+00 0.000000e+00
 0.000000e+00 0.000000e+00 4.591854e-01 5.408146e-01 0.000000e+00
 0.000000e+00 0.000000e+00 0.000000e+00 6.210527e-01 3.789473e-01
 0.000000e+00 0.000000e+00 0.000000e+00 0.000000e+00 0.000000e+00
<ENDHMM>
~h "w"
<BEGINHMM>
<NUMSTATES> 5
<STATE> 2
<MEAN> 25
 1.666747e-01 4.794765e+00 -2.129098e+00 -4.231523e+00 1.974378e-01 2.490968e+00 2.785976e-01 1.595238e+00 -3.071811e+00 -5.173886e-01 1.238268e+00 1.790010e+00 2.456905e+00 1.194844e+00 -5.629655e-01 -2.364272e+00 -2.169611e+00 -1.076639e+00 -1.091668e+00 -4.699416e-01 -5.423766e-01 -3.018417e-01 5.768671e-01 -1.540684e-01 1.562414e+00
<VARIANCE> 25
 7.491856e+01 5.462769e+01 4.925473e+01 6.931263e+01 5.177544e+01 6.889639e+01 4.759011e+01 3.161688e+01 3.314686e+01 4.510809e+01 3.561302e+01 3.699451e+01 4.055633e+00 2.714619e+00 3.039104e+00 5.270342e+00 5.514452e+00 5.926102e+00 5.109368e+00 4.563989e+00 2.955910e+00 3.530526e+00 3.270260e+00 3.164515e+00 3.225876e+00
<GCONST> 1.100506e+02
<STATE> 3
<MEAN> 25
 8.116264e+00 7.986571e+00 -3.642088e+00 -7.375971e+00 -5.824697e+00 -6.241104e+00 -5.246920e+00 2.650989e+00 -1.930755e+00 -2.222730e+00 2.897114e+00 -3.697003e+00 1.548389e+00 -1.697937e+00 -1.549075e+00 -8.225234e-01 -1.019648e+00 -3.405670e-01 -2.916968e-01 3.175395e-01 9.298245e-01 -5.007555e-01 1.220998e+00 -1.084455e+00 2.601911e+00
<VARIANCE> 25
 2.569533e+01 9.553008e+01 5.499752e+01 8.353447e+01 3.771108e+01 2.305396e+02 5.399559e+01 5.155444e+01 4.953279e+01 5.317690e+01 5.117343e+01 5.901788e+01 4.712349e+00 5.944671e+00 4.088110e+00 6.860195e+00 5.230167e+00 1.136442e+01 5.692741e+00 6.109014e+00 4.708316e+00 6.624895e+00 3.764512e+00 4.378016e+00 3.617633e+00
<GCONST> 1.169050e+02
<STATE> 4
<MEAN> 25
 8.549122e+00 -8.648322e-01 -7.695340e+00 -1.208249e+01 -3.840871e+00 4.395349e+00 -2.857882e+00 2.281315e-01 -2.946265e-01 -3.737462e+00 6.544439e+00 -1.513911e+00 -2.202267e-01 -5.384926e-01 -9.001300e-02 4.558463e-01 4.690040e-01 1.661234e-02 3.092867e-01 -6.434377e-02 4.898174e-01 2.405608e-01 -3.812369e-01 -4.130811e-01 1.866786e-01
<VARIANCE> 25
 1.551662e+01 3.193663e+01 2.378195e+01 1.125409e+02 4.777890e+01 1.489842e+02 6.035532e+01 4.034816e+01 4.164339e+01 9.141774e+01 2.473966e+01 6.862397e+01 4.205564e-01 1.301717e+00 1.086667e+00 1.708464e+00 2.061974e+00 3.132321e+00 2.051492e+00 2.259231e+00 2.864990e+00 2.473812e+00 2.341850e+00 3.544919e+00 7.376759e-01
<GCONST> 9.958048e+01
<TRANSP> 5
 0.000000e+00 1.000000e+00 0.000000e+00 0.000000e+00 0.000000e+00
 0.000000e+00 3.937579e-01 6.062421e-01 0.000000e+00 0.000000e+00
 0.000000e+00 0.000000e+00 6.278338e-01 3.721661e-01 0.000000e+00
 0.000000e+00 0.000000e+00 0.000000e+00 8.329816e-01 1.670184e-01
 0.000000e+00 0.000000e+00 0.000000e+00 0.000000e+00 0.000000e+00
<ENDHMM>
~h "y"
<BEGINHMM>
<NUMSTATES> 5
<STATE> 2
<MEAN> 25
 2.457387e+00 -3.063941e+00 5.496723e+00 6.006480e+00 -3.259314e+00 -5.259843e+00 -5.024764e+00 -4.123682e+00 -4.218446e+00 -3.843746e+00 3.254709e+00 -2.164574e-01 5.777850e-01 -5.647802e-01 5.167203e-01 -5.731961e-02 -1.533078e+00 -6.383939e-01 -9.256856e-02 -1.918460e-01 -3.844823e-01 -3.805555e-01 1.084328e+00 1.815077e-01 1.152038e+00
<VARIANCE> 25
 3.491901e+01 6.405318e+01 8.045602e+01 1.213769e+02 1.289359e+02 7.874967e+01 7.478226e+01 9.598013e+01 7.008412e+01 5.786009e+01 5.363146e+01 3.599225e+01 2.822720e+00 3.061996e+00 7.023140e+00 8.917025e+00 5.842263e+00 6.726669e+00 6.025097e+00 5.862830e+00 4.928388e+00 5.784240e+00 3.956689e+00 2.844887e+00 3.091932e+00
<GCONST> 1.172533e+02
<STATE> 3
<MEAN> 25
 2.328728e+00 -4.617149e+00 7.185331e+00 -1.944843e-01 -1.379774e+01 -7.337707e+00 1.509235e-01 2.322518e+00 -2.051742e+00 -2.795512e+00 7.785665e+00 -5.806137e-01 1.950746e-01 -2.839082e-01 -9.110579e-01 -1.232167e-01 4.972423e-01 -1.005810e-02 3.555216e-01 7.478612e-01 8.353182e-01 -5.192303e-02 -4.746734e-01 -3.363439e-01 3.338523e-02
<VARIANCE> 25
 1.454819e+01 2.591770e+01 5.607688e+01 3.447552e+01 5.410510e+01 4.808385e+01 4.885371e+01 6.655214e+01 4.721700e+01 2.943556e+01 3.564433e+01 1.979298e+01 3.616084e-01 1.151978e+00 2.983136e+00 1.387354e+00 2.805123e+00 1.890052e+00 2.323672e+00 2.794294e+00 3.460696e+00 1.723228e+00 3.089966e+00 1.682636e+00 4.651186e-01
<GCONST> 9.594501e+01
<STATE> 4
<MEAN> 25
 5.120698e+00 -6.826076e+00 -2.112981e+00 1.368108e+00 -5.420754e+00 -5.702389e+00 5.338717e-01 1.368917e+00 1.884917e+00 -3.229314e+00 3.824627e+00 -1.417979e+00 3.892793e-02 1.201958e-01 -5.249590e-01 -1.405872e-01 4.776663e-01 3.019817e-01 9.690054e-02 4.882210e-02 2.489188e-01 2.037036e-01 -4.898991e-01 -3.420103e-01 -3.111225e-01
<VARIANCE> 25
 2.606340e+01 4.106082e+01 5.094501e+01 5.269700e+01 4.165235e+01 4.440211e+01 5.861796e+01 9.404731e+01 4.958059e+01 4.413381e+01 4.927032e+01 2.686957e+01 2.586002e-01 5.575925e-01 1.260239e+00 1.202366e+00 2.142186e+00 1.360401e+00 1.603261e+00 1.650031e+00 1.703058e+00 1.475917e+00 1.805061e+00 1.133167e+00 3.194798e-01
<GCONST> 9.285212e+01
<TRANSP> 5
 0.000000e+00 1.000000e+00 0.000000e+00 0.000000e+00 0.000000e+00
 0.000000e+00 6.734108e-01 3.265893e-01 0.000000e+00 0.000000e+00
 0.000000e+00 0.000000e+00 6.935433e-01 3.064567e-01 0.000000e+00
 0.000000e+00 0.000000e+00 0.000000e+00 7.010723e-01 2.989277e-01
 0.000000e+00 0.000000e+00 0.000000e+00 0.000000e+00 0.000000e+00
<ENDHMM>
~h "z"
<BEGINHMM>
<NUMSTATES> 5
<STATE> 2
<MEAN> 25
 -7.717816e+00 -2.013523e+00 1.558929e+01 -2.561168e+00 -5.269380e+00 1.218550e+01 -4.441427e+00 -1.274305e+01 -2.994777e+00 -9.966128e-01 -1.415190e+00 3.491142e+00 2.966527e-01 -9.488635e-01 2.129390e-01 7.288353e-01 3.491634e-01 -2.684997e-01 -2.264213e-01 -4.761237e-01 -2.019254e-01 -4.866643e-01 5.496968e-01 -1.300968e-03 7.590070e-01
<VARIANCE> 25
 5.803102e+01 1.353775e+02 1.272165e+02 1.322009e+02 9.042579e+01 2.474942e+02 5.134457e+01 1.006941e+02 8.977785e+01 5.196077e+01 3.594033e+01 5.828408e+01 6.507197e+00 4.398633e+00 1.013765e+01 1.176456e+01 7.483667e+00 1.092401e+01 3.799324e+00 5.587251e+00 8.855249e+00 4.884071e+00 2.659235e+00 3.996028e+00 2.248197e+00
<GCONST> 1.218428e+02
<STATE> 3
<MEAN> 25
 1.680071e+00 -7.442646e+00 1.336967e+01 1.133563e+01 3.015311e+00 8.591507e+00 -8.174902e+00 -1.094028e+01 6.959434e-01 -5.244707e+00 -6.492487e-01 9.712088e-02 3.138562e-01 1.804707e-02 -6.122816e-01 -3.207991e-01 -4.327324e-01 -3.662619e-01 1.563921e-01 1.882659e-01 2.036610e-01 -1.054700e-01 1.959770e-01 3.164725e-01 2.298402e-01
<VARIANCE> 25
 1.907410e+01 4.109489e+01 1.090491e+02 6.749246e+01 6.093823e+01 1.286559e+02 5.552654e+01 5.284803e+01 5.674490e+01 6.538970e+01 5.624250e+01 6.197299e+01 1.786172e+00 2.572340e+00 9.476263e+00 3.040500e+00 2.614167e+00 9.130480e+00 3.340528e+00 4.459178e+00 3.821879e+00 6.075936e+00 4.154561e+00 3.127084e+00 1.628810e+00
<GCONST> 1.117981e+02
<STATE> 4
<MEAN> 25
 6.681935e+00 -4.549252e+00 -5.503271e+00 -1.210872e-01 -5.110266e+00 -8.275115e-01 -3.607220e+00 -5.407360e+00 7.089025e-01 -6.099957e+00 3.519524e+00 4.353060e+00 1.775099e-01 1.642170e-01 -8.027356e-01 -5.471633e-01 -1.337348e-01 -2.135697e-01 4.165692e-01 6.700737e-01 3.845255e-01 1.869532e-01 6.018281e-04 -2.687456e-01 -2.603723e-01
<VARIANCE> 25
 2.084408e+01 8.170901e+01 3.842448e+01 3.973542e+01 7.481660e+01 5.727871e+01 4.237879e+01 3.607561e+01 3.730636e+01 1.058516e+02 1.445522e+02 3.029636e+01 2.490125e-01 1.007780e+00 1.860885e+00 1.626429e+00 2.003272e+00 2.074940e+00 1.748232e+00 2.251540e+00 1.471212e+00 3.669281e+00 1.627809e+00 1.137352e+00 5.227757e-01
<GCONST> 9.725249e+01
<TRANSP> 5
 0.000000e+00 1.000000e+00 0.000000e+00 0.000000e+00 0.000000e+00
 0.000000e+00 8.193282e-01 1.806718e-01 0.000000e+00 0.000000e+00
 0.000000e+00 0.000000e+00 9.103087e-01 8.969135e-02 0.000000e+00
 0.000000e+00 0.000000e+00 0.000000e+00 8.442309e-01 1.557691e-01
 0.000000e+00 0.000000e+00 0.000000e+00 0.000000e+00 0.000000e+00
<ENDHMM>
~h "aw"
<BEGINHMM>
<NUMSTATES> 5
<STATE> 2
<MEAN> 25
 7.805202e+00 8.297231e+00 -3.887271e+00 -9.089863e-02 -9.933642e+00 -2.083396e+01 1.050988e+00 1.625149e+01 7.624795e+00 -1.398343e-01 -5.796103e+00 -8.140046e+00 -3.869918e-01 2.401925e-01 -7.622801e-04 -5.484940e-01 1.088232e-03 6.601185e-02 -1.406717e-01 -3.999025e-03 1.335437e-01 4.843564e-01 -2.783007e-01 8.478937e-02 -5.302484e-01
<VARIANCE> 25
 2.368466e+01 1.149970e+01 7.180156e+00 6.570348e+01 1.530700e+01 3.219827e+01 1.738258e+01 8.884743e+00 1.471103e+01 2.573211e+01 3.659512e+01 2.437080e+01 3.611474e-01 3.387830e-01 5.316842e-01 6.730698e-01 1.040372e+00 2.731746e+00 6.452229e-01 9.248526e-01 1.255682e+00 1.170745e+00 1.376062e+00 1.066731e+00 2.936963e-01
<GCONST> 7.862391e+01
<STATE> 3
<MEAN> 25
 -4.131973e+00 4.459150e+00 -4.666144e+00 -1.120243e+01 -3.447217e-02 -7.823972e+00 -1.804165e+00 7.960496e+00 4.835299e+00 6.425525e+00 -5.707385e+00 -2.288087e+00 -3.741653e-01 -6.068194e-01 2.390294e-01 -1.023313e-01 1.212044e+00 2.222840e+00 -1.072837e-01 -3.012917e+00 -1.919545e+00 -1.967947e-01 1.032972e+00 8.572188e-02 2.331130e-01
<VARIANCE> 25
 3.668734e+01 1.449169e+02 1.873722e+01 1.004577e+01 2.204153e+01 1.314798e+01 7.354756e+00 2.549266e+01 2.129917e+01 8.288180e+01 7.682160e+00 1.707546e+01 9.057692e-01 1.256806e+00 9.139067e-01 2.186896e+00 2.084832e+00 9.802051e-01 3.403692e+00 8.835415e-01 2.691986e+00 1.862531e+00 1.465323e+00 2.905449e+00 1.423953e+00
<GCONST> 8.907085e+01
<STATE> 4
<MEAN> 25
 -3.708463e-01 -1.123585e+01 -4.161541e+00 -1.406832e+01 -5.156243e+00 1.363407e+01 7.646091e+00 -5.420031e+00 -4.186595e+00 -6.733941e-01 2.742581e+00 5.777469e+00 1.926649e-01 -6.276368e-01 3.361834e-01 8.188825e-02 -3.687097e-01 1.774997e+00 5.462028e-01 -7.257677e-01 -1.065273e+00 -1.118020e-01 9.410900e-01 1.327569e+00 8.374757e-02
<VARIANCE> 25
 7.524866e+01 1.199679e+02 5.699279e+00 1.084989e+01 3.793451e+01 9.959752e+01 4.169480e+01 3.285616e+01 5.203412e+01 4.870638e+01 5.678392e+01 6.598964e+01 4.703871e-01 1.133802e+01 5.824900e-01 2.130114e+00 2.737640e+00 6.978243e+00 4.151346e+00 3.512236e+00 3.826694e+00 5.028920e+00 2.476689e+00 2.456458e+00 2.538443e+00
<GCONST> 1.039191e+02
<TRANSP> 5
 0.000000e+00 1.000000e+00 0.000000e+00 0.000000e+00 0.000000e+00
 0.000000e+00 9.644608e-01 3.553911e-02 0.000000e+00 0.000000e+00
 0.000000e+00 0.000000e+00 7.178426e-01 2.821574e-01 0.000000e+00
 0.000000e+00 0.000000e+00 0.000000e+00 8.694044e-01 1.305956e-01
 0.000000e+00 0.000000e+00 0.000000e+00 0.000000e+00 0.000000e+00
<ENDHMM>
~h "ay"
<BEGINHMM>
<NUMSTATES> 5
<STATE> 2
<MEAN> 25
 4.199803e+00 -8.208591e+00 2.082425e+00 -1.823083e+00 -9.563282e+00 -9.855907e+00 1.046103e+00 9.134601e+00 2.504569e+00 -1.587000e+00 2.118607e+00 -3.192010e+00 -2.531255e-01 -2.430922e-01 1.771397e+00 6.094495e-01 -1.852420e+00 -1.106179e+00 -2.763271e-01 8.358537e-01 -1.446061e+00 -7.534166e-01 1.827168e+00 1.157246e+00 4.473763e-02
<VARIANCE> 25
 1.489792e+01 3.421677e+01 4.566794e+01 2.188892e+01 6.564514e+01 3.782634e+01 4.902091e+01 4.286681e+01 5.523447e+01 4.852923e+01 6.314624e+01 3.912027e+01 3.340211e-01 1.658638e+00 1.935212e+00 2.349353e+00 2.568841e+00 3.125616e+00 2.995677e+00 3.500134e+00 2.513572e+00 3.836053e+00 4.713326e+00 2.199799e+00 6.742553e-01
<GCONST> 9.982933e+01
<STATE> 3
<MEAN> 25
 2.940001e+00 -3.805748e+00 8.457942e+00 -4.972332e-01 -1.491433e+01 -1.207845e+01 -4.557413e-02 5.335089e+00 -5.114970e+00 -1.274908e+00 9.681348e+00 3.567269e-02 1.617223e-02 7.551501e-01 -3.591367e-01 3.504613e-01 9.168344e-01 6.359756e-01 2.224195e-02 -6.345926e-01 -2.862695e-01 3.133616e-01 -4.103087e-01 4.525529e-01 -7.283841e-01
<VARIANCE> 25
 9.059681e+00 3.566570e+01 3.307932e+01 2.627728e+01 5.967652e+01 4.646791e+01 5.120002e+01 5.420330e+01 4.066094e+01 4.307707e+01 4.654315e+01 1.862532e+01 6.016207e-01 1.123260e+00 2.621681e+00 1.508340e+00 2.657570e+00 2.066902e+00 1.679103e+00 4.436524e+00 4.775137e+00 2.513914e+00 2.262588e+00 1.446424e+00 5.899328e-01
<GCONST> 9.641956e+01
<STATE> 4
<MEAN> 25
 1.016102e+00 2.373837e+00 5.491820e+00 3.618150e+00 -3.827810e+00 -5.408919e+00 1.217865e+00 8.819908e-01 -3.466238e+00 1.307816e+00 3.305557e+00 3.022994e+00 -5.169653e-01 7.893389e-01 -2.496543e-01 2.618727e-01 1.429007e+00 7.017989e-01 9.567536e-03 -5.218758e-01 2.673274e-01 1.521606e-01 -5.428316e-01 1.090789e-01 -8.186327e-01
<VARIANCE> 25
 1.826218e+01 5.034769e+01 3.336052e+01 3.036113e+01 3.259678e+01 3.631923e+01 5.220051e+01 1.044814e+02 7.568684e+01 2.979545e+01 4.127935e+01 4.267665e+01 5.408993e-01 1.417745e+00 1.494538e+00 1.061300e+00 2.659229e+00 2.111008e+00 2.555857e+00 2.101467e+00 1.938726e+00 1.744502e+00 1.511329e+00 1.802273e+00 4.791866e-01
<GCONST> 9.565384e+01
<TRANSP> 5
 0.000000e+00 1.000000e+00 0.000000e+00 0.000000e+00 0.000000e+00
 0.000000e+00 6.629323e-01 3.370677e-01 0.000000e+00 0.000000e+00
 0.000000e+00 0.000000e+00 7.667246e-01 2.332754e-01 0.000000e+00
 0.000000e+00 0.000000e+00 0.000000e+00 7.059119e-01 2.940881e-01
 0.000000e+00 0.000000e+00 0.000000e+00 0.000000e+00 0.000000e+00
<ENDHMM>
~h "eu"
<BEGINHMM>
<NUMSTATES> 5
<STATE> 2
<MEAN> 25
 3.662097e+00 -1.884575e+00 -1.978471e+00 -7.648782e-01 -2.497156e+00 -1.994314e+00 -3.251667e+00 -2.551261e+00 1.004416e+00 3.308550e-01 9.328858e-01 -1.008106e+00 1.512159e+00 -7.270692e-01 -4.951904e-01 -2.777681e-01 -1.123435e+00 -5.129116e-01 -4.467945e-01 -4.247349e-02 6.593782e-01 -1.177333e-01 3.768631e-01 -6.797273e-01 1.399962e+00
<VARIANCE> 25
 3.680041e+01 5.116115e+01 5.884613e+01 5.722013e+01 7.271938e+01 6.990010e+01 5.890938e+01 7.689937e+01 7.621481e+01 7.280534e+01 5.451532e+01 4.488952e+01 3.749118e+00 4.255753e+00 4.929978e+00 5.172874e+00 5.964011e+00 6.697968e+00 4.846982e+00 6.158593e+00 5.782219e+00 6.342501e+00 4.760931e+00 3.974774e+00 3.332384e+00
<GCONST> 1.158239e+02
<STATE> 3
<MEAN> 25
 5.146821e+00 -3.011752e+00 -2.395120e+00 -1.015236e+00 -4.066589e+00 -2.529392e+00 -4.012877e+00 -2.541911e+00 2.845688e+00 4.158078e-01 1.611845e+00 -1.654468e+00 6.286845e-01 -1.340920e-01 2.450351e-02 2.911923e-01 -1.450742e-01 1.803350e-01 1.087735e-01 -2.419084e-03 1.510061e-01 3.629138e-02 -6.984116e-02 -1.612142e-01 1.944069e-01
<VARIANCE> 25
 2.634014e+01 3.937149e+01 5.181417e+01 5.561189e+01 5.849445e+01 6.753256e+01 5.642936e+01 7.593716e+01 7.459910e+01 8.082612e+01 5.097958e+01 3.708260e+01 1.867275e+00 2.577980e+00 2.817202e+00 3.497290e+00 3.784363e+00 4.407459e+00 3.608963e+00 4.361524e+00 4.250551e+00 3.766960e+00 3.952966e+00 2.759132e+00 1.797429e+00
<GCONST> 1.089293e+02
<STATE> 4
<MEAN> 25
 5.412487e+00 -2.526427e+00 -2.161318e+00 3.965428e-01 -3.019402e+00 -2.628400e+00 -3.654238e+00 -1.708984e+00 1.433400e+00 -3.348845e-01 2.057322e+00 -1.540538e+00 -1.769491e-01 4.404967e-01 3.968310e-01 4.762783e-01 5.304402e-01 4.707314e-01 4.138357e-01 -1.086216e-01 -4.144242e-01 5.489554e-02 -3.648017e-01 2.655549e-01 -6.289623e-01
<VARIANCE> 25
 2.678483e+01 4.105567e+01 5.800232e+01 5.398871e+01 5.978249e+01 7.300654e+01 5.840047e+01 8.249492e+01 6.905226e+01 8.078017e+01 5.421085e+01 3.809836e+01 7.933677e-01 1.690763e+00 1.680591e+00 2.546790e+00 2.581300e+00 2.732443e+00 2.541870e+00 2.818939e+00 3.207026e+00 2.488539e+00 2.618511e+00 2.243481e+00 1.396905e+00
<GCONST> 1.039723e+02
<TRANSP> 5
 0.000000e+00 1.000000e+00 0.000000e+00 0.000000e+00 0.000000e+00
 0.000000e+00 2.124724e-01 7.875276e-01 0.000000e+00 0.000000e+00
 0.000000e+00 0.000000e+00 3.678058e-02 9.632194e-01 0.000000e+00
 0.000000e+00 0.000000e+00 0.000000e+00 5.023094e-01 4.976906e-01
 0.000000e+00 0.000000e+00 0.000000e+00 0.000000e+00 0.000000e+00
<ENDHMM>
~h "kh"
<BEGINHMM>
<NUMSTATES> 5
<STATE> 2
<MEAN> 25
 2.756455e+00 -2.518011e+00 -4.456421e+00 8.864400e-01 2.975341e+00 -2.646624e+00 5.326250e+00 4.877966e+00 4.391795e+00 -5.985532e+00 -5.339280e+00 1.380419e+00 -7.777964e-01 6.083027e-01 1.108938e+00 5.701607e-01 -3.809848e-01 7.685659e-01 2.422961e+00 -1.891179e+00 4.114899e-02 -5.034362e-01 3.347955e-01 -3.127474e-01 -1.676422e-01
<VARIANCE> 25
 5.920126e-01 5.741850e+00 2.942729e+01 5.244907e+00 1.549254e+01 2.855841e+01 1.769122e+00 1.000237e+01 9.702121e+00 1.142372e+01 2.048948e+01 1.451987e+01 1.105593e-01 3.500388e+00 4.491761e+00 2.930634e+00 3.917402e+00 6.745188e-01 1.148051e+00 1.853064e+00 2.953726e+00 4.522890e-01 3.842044e+00 2.728079e+00 2.340689e+00
<GCONST> 7.842316e+01
<STATE> 3
<MEAN> 25
 9.656856e-01 -9.114168e-01 1.400064e+00 3.100171e+00 3.448745e+00 -1.219191e+00 1.053286e+01 3.079044e+00 -8.157039e-01 -3.598818e+00 -1.574060e+00 -9.742342e-01 -4.462959e-01 1.259061e+00 1.509524e+00 7.656215e-01 -4.158262e-01 8.743130e-01 8.983881e-01 -2.004406e+00 -1.228040e+00 9.909899e-01 1.019549e+00 3.755902e-01 -8.534365e-01
<VARIANCE> 25
 5.920126e-01 2.959950e+00 4.241191e+01 5.079545e+00 5.276045e+01 1.793587e+01 8.136332e+00 7.070396e+01 2.623533e+01 1.123743e+01 1.906090e+01 1.364763e+01 1.271796e-01 1.207369e+00 1.442806e+00 5.174141e-01 1.499547e+00 1.006318e+00 1.214521e+00 3.081632e+00 1.536924e+00 6.548310e-01 2.289956e+00 1.555975e+00 9.585856e-01
<GCONST> 7.713548e+01
<STATE> 4
<MEAN> 25
 3.084478e-01 -1.652867e+00 -3.716463e+00 -2.861885e-01 2.755957e+00 3.917409e+00 6.597248e+00 -6.581078e+00 8.320556e+00 -6.612501e+00 -2.389324e+00 -3.240161e+00 5.983619e-03 2.370377e-01 3.053124e-01 -3.325323e-01 -2.849438e-01 8.772197e-01 -1.411800e+00 -1.418036e+00 4.753434e-01 1.184407e-01 1.168007e+00 -1.234499e+00 1.111408e-01
<VARIANCE> 25
 8.521624e-01 1.180968e+01 3.037024e+01 1.665799e+01 1.197045e+01 3.100730e+01 8.942550e+00 4.146527e+01 8.773766e+01 1.750270e+01 1.891558e+01 1.024822e+01 2.336529e-01 7.440431e-01 1.934563e+00 4.344177e-01 9.000630e-01 4.706634e-01 8.216731e-01 2.448955e+00 1.416303e+00 8.875747e-01 4.949490e-01 7.588528e-01 4.893529e-01
<GCONST> 7.537014e+01
<TRANSP> 5
 0.000000e+00 1.000000e+00 0.000000e+00 0.000000e+00 0.000000e+00
 0.000000e+00 3.185430e-01 6.814570e-01 0.000000e+00 0.000000e+00
 0.000000e+00 0.000000e+00 6.288655e-01 3.711345e-01 0.000000e+00
 0.000000e+00 0.000000e+00 0.000000e+00 6.023626e-01 3.976374e-01
 0.000000e+00 0.000000e+00 0.000000e+00 0.000000e+00 0.000000e+00
<ENDHMM>
~h "ng"
<BEGINHMM>
<NUMSTATES> 5
<STATE> 2
<MEAN> 25
 5.540352e+00 -2.553864e+00 -2.010412e+00 -1.024629e+00 -2.187966e+00 2.136891e+00 1.202706e+00 -1.675135e+00 1.760679e-02 -2.606898e-01 -1.497893e-01 -2.033802e+00 -1.458036e-01 7.806874e-01 8.596185e-01 1.060787e+00 -2.673821e-01 2.220106e-01 6.169453e-01 -1.074145e+00 -6.581403e-01 3.761099e-01 -8.073384e-01 6.142855e-01 -8.895097e-01
<VARIANCE> 25
 1.370628e+01 2.996604e+01 4.065439e+01 3.450694e+01 3.454457e+01 4.644470e+01 3.655547e+01 4.648598e+01 4.668768e+01 3.943648e+01 3.538429e+01 3.027010e+01 3.723180e-01 8.673858e-01 2.080913e+00 1.896575e+00 2.374030e+00 1.980109e+00 2.415958e+00 2.783455e+00 2.745362e+00 2.066765e+00 2.352959e+00 2.226032e+00 4.636793e-01
<GCONST> 9.484354e+01
<STATE> 3
<MEAN> 25
 5.025903e+00 -8.575957e-02 1.259783e+00 1.294030e+00 -3.154036e+00 1.937087e+00 2.517066e+00 -2.776978e+00 -8.437825e-01 2.235104e-01 -2.797480e+00 -7.847843e-02 -1.641231e-01 6.448267e-01 2.579991e-01 4.081658e-01 2.783462e-01 -6.087356e-02 9.898709e-02 -2.001019e-01 -3.074726e-01 8.310170e-02 -3.876560e-01 1.301555e-01 -5.369743e-01
<VARIANCE> 25
 1.167561e+01 2.486981e+01 3.235714e+01 2.917455e+01 3.206852e+01 3.988863e+01 3.263700e+01 4.461584e+01 4.186069e+01 3.722698e+01 3.414395e+01 2.819939e+01 3.076535e-01 8.373450e-01 1.031376e+00 1.136694e+00 1.527730e+00 1.377726e+00 1.461933e+00 1.570234e+00 1.640907e+00 1.392640e+00 1.306091e+00 1.169455e+00 4.865001e-01
<GCONST> 8.803440e+01
<STATE> 4
<MEAN> 25
 2.501152e+00 3.045419e+00 1.170528e+00 2.455537e+00 1.343384e+00 1.973380e+00 2.502727e+00 -1.716634e+00 -2.538907e+00 -6.727917e-01 -3.345215e+00 -4.985948e-01 -6.021661e-01 2.487679e-01 -1.517534e-01 -4.473302e-02 7.390730e-01 -1.989396e-02 -6.811203e-02 3.203961e-01 3.043787e-02 2.712747e-02 2.093227e-01 2.578194e-02 -4.647070e-01
<VARIANCE> 25
 2.376813e+01 3.351830e+01 3.551741e+01 3.593956e+01 4.696551e+01 4.388238e+01 3.624826e+01 4.422865e+01 4.994617e+01 4.186145e+01 3.619042e+01 3.484327e+01 8.646161e-01 1.384437e+00 1.783167e+00 1.761312e+00 2.571433e+00 2.120596e+00 2.062486e+00 2.557231e+00 2.574968e+00 2.100563e+00 1.871156e+00 1.800103e+00 9.426814e-01
<GCONST> 9.710157e+01
<TRANSP> 5
 0.000000e+00 1.000000e+00 0.000000e+00 0.000000e+00 0.000000e+00
 0.000000e+00 4.566261e-01 5.433738e-01 0.000000e+00 0.000000e+00
 0.000000e+00 0.000000e+00 5.700654e-01 4.299346e-01 0.000000e+00
 0.000000e+00 0.000000e+00 0.000000e+00 4.899727e-01 5.100273e-01
 0.000000e+00 0.000000e+00 0.000000e+00 0.000000e+00 0.000000e+00
<ENDHMM>
~h "ny"
<BEGINHMM>
<NUMSTATES> 5
<STATE> 2
<MEAN> 25
 3.501171e+00 -6.434302e-01 5.843863e+00 2.278831e+00 -4.967519e+00 -2.566192e+00 -1.466107e-01 -5.903623e-01 -1.638616e+00 -2.476222e+00 1.668979e+00 1.432696e+00 -1.914213e-01 -1.147678e+00 9.086086e-01 -7.302891e-01 -1.690325e+00 -5.626130e-01 4.272757e-01 1.117658e+00 -2.679187e-01 -2.763245e-01 9.030918e-01 -2.075912e-01 1.084245e+00
<VARIANCE> 25
 1.854507e+01 3.933752e+01 6.391125e+01 5.122887e+01 5.628486e+01 5.690224e+01 5.074010e+01 4.641140e+01 5.769149e+01 4.179264e+01 5.037983e+01 3.524940e+01 1.413152e+00 2.386098e+00 3.654240e+00 4.584489e+00 3.788892e+00 5.418305e+00 4.944506e+00 4.403441e+00 3.699838e+00 2.928312e+00 3.799001e+00 3.130735e+00 1.074797e+00
<GCONST> 1.068064e+02
<STATE> 3
<MEAN> 25
 3.215416e+00 -4.692621e+00 6.668090e+00 1.191858e-01 -1.073673e+01 -4.262172e+00 2.746754e+00 4.439397e+00 -2.054849e+00 -4.350713e+00 3.860446e+00 4.879774e-01 1.063571e-01 -1.005000e+00 -7.156081e-01 6.069229e-02 -1.726737e-01 -3.982713e-01 -1.299240e-01 1.178989e+00 7.841815e-01 -8.523433e-01 -4.084620e-01 -1.842944e-01 5.730180e-01
<VARIANCE> 25
 1.423720e+01 2.791070e+01 5.111963e+01 4.779629e+01 6.097129e+01 5.491778e+01 8.540092e+01 5.627276e+01 4.337039e+01 4.611905e+01 4.569939e+01 3.458488e+01 4.545386e-01 1.435728e+00 2.099506e+00 1.813207e+00 2.743659e+00 2.989136e+00 3.125453e+00 2.606611e+00 3.282680e+00 2.546978e+00 2.771043e+00 1.801289e+00 5.218474e-01
<GCONST> 9.948604e+01
<STATE> 4
<MEAN> 25
 4.819807e+00 -7.196698e+00 1.922231e+00 1.675475e+00 -6.532537e+00 -4.351233e+00 -1.338460e+00 5.494587e+00 2.214629e+00 -7.404362e+00 8.389763e-01 -1.441843e-01 8.797196e-02 1.719963e-02 -7.754522e-01 -7.047249e-02 7.611450e-01 2.211421e-01 -3.844768e-01 -2.086837e-02 3.999878e-01 1.307464e-01 -4.840275e-01 -2.237613e-01 -2.136009e-01
<VARIANCE> 25
 1.546366e+01 2.877500e+01 3.443258e+01 4.522415e+01 4.242514e+01 4.237473e+01 6.640839e+01 6.891405e+01 5.279336e+01 5.012503e+01 5.708110e+01 3.181215e+01 3.285594e-01 1.011237e+00 1.406779e+00 1.403715e+00 1.854256e+00 1.708934e+00 2.076832e+00 1.755145e+00 2.073164e+00 1.730495e+00 2.241941e+00 1.462408e+00 6.536359e-01
<GCONST> 9.476877e+01
<TRANSP> 5
 0.000000e+00 1.000000e+00 0.000000e+00 0.000000e+00 0.000000e+00
 0.000000e+00 5.866582e-01 4.133419e-01 0.000000e+00 0.000000e+00
 0.000000e+00 0.000000e+00 5.290602e-01 4.709397e-01 0.000000e+00
 0.000000e+00 0.000000e+00 0.000000e+00 6.823980e-01 3.176019e-01
 0.000000e+00 0.000000e+00 0.000000e+00 0.000000e+00 0.000000e+00
<ENDHMM>
~h "sp"
<BEGINHMM>
<NUMSTATES> 3
<STATE> 2
~s "silst"
<TRANSP> 3
 0.000000e+00 1.929458e-01 8.070542e-01
 0.000000e+00 9.359046e-01 6.409542e-02
 0.000000e+00 0.000000e+00 0.000000e+00
<ENDHMM>
~h "sy"
<BEGINHMM>
<NUMSTATES> 5
<STATE> 2
<MEAN> 25
 -1.246196e+01 4.673903e+00 6.287127e+00 -1.022676e+00 1.665539e+00 -2.336117e+00 1.542151e+00 1.143327e+00 1.871379e+00 -4.026476e+00 4.979116e-01 2.737010e+00 -2.278499e+00 2.613103e-01 5.986463e-01 -1.696816e-01 -2.446283e-02 6.550612e-01 5.456759e-01 -2.930373e-01 3.203537e-01 1.960373e-02 2.087030e-01 3.566730e-01 1.402148e-01
<VARIANCE> 25
 1.008775e+02 4.088050e+01 4.903966e+01 3.110204e+01 3.123442e+01 4.642378e+01 6.428761e+01 5.738307e+01 4.331381e+01 3.377468e+01 3.410700e+01 2.811944e+01 6.404259e+00 4.439562e+00 1.877186e+00 2.770989e+00 4.106169e+00 3.300759e+00 3.475477e+00 1.595723e+00 2.544019e+00 3.599548e+00 2.794833e+00 2.296945e+00 7.564788e-01
<GCONST> 1.043590e+02
<STATE> 3
<MEAN> 25
 -1.485191e+01 -1.546352e+00 8.887605e+00 1.354015e+00 -3.648084e+00 1.773319e+00 -1.644040e+00 7.854760e-01 5.371346e+00 -3.406005e+00 1.999161e+00 5.167017e+00 2.598544e+00 -9.384134e-01 -5.778944e-01 6.451803e-01 -7.048766e-01 -1.136219e+00 -8.560426e-01 3.698623e-02 4.526908e-01 5.852665e-02 -5.687688e-01 -2.620363e-01 1.139575e-01
<VARIANCE> 25
 1.031982e+02 2.707031e+01 3.961485e+01 4.581369e+01 4.012941e+01 1.321600e+02 9.295984e+01 4.177426e+01 3.730252e+01 4.386341e+01 3.547009e+01 3.055160e+01 8.859862e+00 2.335566e+00 3.025789e+00 3.533720e+00 4.075057e+00 1.240842e+01 4.015309e+00 2.793923e+00 4.315021e+00 4.391940e+00 3.080406e+00 2.605513e+00 1.184267e+00
<GCONST> 1.095484e+02
<STATE> 4
<MEAN> 25
 -7.905849e+00 6.999952e+00 3.775988e+00 9.736818e+00 -6.016878e+00 5.677781e+00 4.814841e+00 4.841990e+00 3.524312e+00 -7.763448e-01 2.557331e+00 -7.128012e-02 5.563791e-01 1.177992e-01 -1.735359e-01 -2.210361e-01 -1.729222e-01 -1.088694e-02 -2.418509e-01 -1.660857e-01 -2.140585e-01 3.488407e-01 -4.128854e-02 -3.040816e-01 1.588081e-01
<VARIANCE> 25
 9.111949e+01 1.715265e+02 1.145214e+02 1.005715e+02 5.679387e+01 1.060859e+02 1.285331e+02 1.116099e+02 1.201502e+02 8.857654e+01 5.780708e+01 4.289249e+01 5.457488e+00 5.625891e+00 6.463676e+00 9.987764e+00 5.066641e+00 8.441106e+00 8.051071e+00 8.198452e+00 9.417060e+00 8.843487e+00 5.141433e+00 5.733572e+00 3.390923e+00
<GCONST> 1.248832e+02
<TRANSP> 5
 0.000000e+00 1.000000e+00 0.000000e+00 0.000000e+00 0.000000e+00
 0.000000e+00 8.137099e-01 1.862901e-01 0.000000e+00 0.000000e+00
 0.000000e+00 0.000000e+00 7.664806e-01 2.335194e-01 0.000000e+00
 0.000000e+00 0.000000e+00 0.000000e+00 8.884031e-01 1.115969e-01
 0.000000e+00 0.000000e+00 0.000000e+00 0.000000e+00 0.000000e+00
<ENDHMM>
~h "sil"
<BEGINHMM>
<NUMSTATES> 5
<STATE> 2
<MEAN> 25
 -1.129881e+01 6.697841e+00 1.403741e+00 -1.460360e+00 7.581329e+00 2.892483e+00 4.574810e+00 5.176460e+00 -5.024814e-01 7.299764e+00 -1.090753e+00 1.774411e+00 -6.862243e-02 6.016753e-02 -8.839755e-03 -1.065232e-02 7.693721e-02 5.559996e-03 3.317738e-02 9.656285e-02 8.323006e-03 1.585678e-02 3.022930e-02 -1.624352e-02 -7.271417e-02
<VARIANCE> 25
 1.340709e+01 3.057830e+01 1.610407e+01 2.807907e+01 2.597761e+01 2.590313e+01 2.239162e+01 3.437030e+01 2.154736e+01 4.179523e+01 1.941804e+01 1.844589e+01 1.579849e-01 3.546371e-01 4.017134e-01 5.261478e-01 8.942468e-01 8.241567e-01 9.412529e-01 1.093704e+00 1.049877e+00 1.082085e+00 1.002735e+00 9.289927e-01 1.521028e-01
<GCONST> 7.737984e+01
<STATE> 3
~s "silst"
<STATE> 4
<MEAN> 25
 -8.819021e+00 2.252439e+00 3.474576e+00 -2.099116e+00 1.223277e+00 4.377523e+00 3.237776e+00 1.188021e+00 4.186581e-01 5.028193e+00 -2.672813e+00 2.950436e+00 1.761649e-01 -9.048934e-02 -1.654171e-02 -1.064889e-02 -1.473902e-01 -5.911682e-02 -8.174223e-02 -2.035463e-01 -5.692742e-02 -3.609743e-02 -7.749179e-03 -2.393829e-02 1.999046e-01
<VARIANCE> 25
 3.002118e+01 5.980079e+01 6.696687e+01 8.556969e+01 1.331112e+02 6.923335e+01 5.720615e+01 6.792894e+01 6.877546e+01 7.876187e+01 5.529322e+01 4.277435e+01 1.623057e+00 3.431687e+00 2.927803e+00 2.796963e+00 6.513708e+00 3.733584e+00 3.259339e+00 3.941598e+00 3.403557e+00 3.842964e+00 2.734317e+00 2.487217e+00 2.304889e+00
<GCONST> 1.107407e+02
<TRANSP> 5
 0.000000e+00 1.000000e+00 0.000000e+00 0.000000e+00 0.000000e+00
 0.000000e+00 8.913059e-01 2.784907e-02 8.084503e-02 0.000000e+00
 0.000000e+00 0.000000e+00 8.370562e-01 1.629437e-01 0.000000e+00
 0.000000e+00 6.248150e-02 0.000000e+00 7.438243e-01 1.936942e-01
 0.000000e+00 0.000000e+00 0.000000e+00 0.000000e+00 0.000000e+00
<ENDHMM>
