~o
<STREAMINFO> 1 25
<VECSIZE> 25<NULLD><MFCC_D_N_Z_0><DIAGC>
~s "silst"
<MEAN> 25
 -1.123255e+01 4.222820e+00 -5.039076e+00 -2.225133e+00 3.015162e+00 3.187139e+00 3.550573e+00 2.677362e+00 1.010766e+00 9.245096e-01 1.174957e+00 4.687418e-01 -3.136716e-01 5.534407e-02 -4.578139e-02 -5.991486e-02 8.440709e-02 -3.902698e-02 9.986185e-03 5.664636e-02 -1.331405e-02 -4.092025e-03 1.753481e-02 -1.354226e-02 -2.265388e-01
<VARIANCE> 25
 8.560369e+01 3.982579e+01 4.102808e+01 6.415948e+01 4.805889e+01 4.044030e+01 4.439333e+01 3.247690e+01 4.398936e+01 3.171632e+01 2.323157e+01 2.368400e+01 3.784443e+00 2.259341e+00 2.059098e+00 2.759628e+00 2.825842e+00 2.532406e+00 2.685968e+00 2.180524e+00 2.449042e+00 2.142828e+00 1.798798e+00 1.794259e+00 2.782214e+00
<GCONST> 1.018255e+02
~h "a"
<BEGINHMM>
<NUMSTATES> 5
<STATE> 2
<MEAN> 25
 6.650555e+00 -3.858925e+00 -2.757523e+00 -2.840963e+00 -1.808249e+00 -3.428567e+00 1.987360e-01 1.553793e+00 3.776361e-01 1.153445e+00 -1.953474e+00 -1.033070e+00 9.104733e-01 -1.394160e+00 -7.982332e-01 -8.305121e-01 -1.431198e-01 -5.164988e-01 6.128035e-01 8.313906e-01 -3.338289e-02 1.932123e-01 -6.898234e-01 -2.425840e-01 1.411730e+00
<VARIANCE> 25
 4.489978e+01 3.865189e+01 4.163350e+01 4.560200e+01 6.758724e+01 7.165584e+01 5.347663e+01 5.958332e+01 4.768540e+01 4.040198e+01 4.488982e+01 3.427295e+01 2.513916e+00 3.046443e+00 3.093303e+00 4.263571e+00 4.946723e+00 5.477787e+00 4.471866e+00 4.688956e+00 4.543366e+00 3.593534e+00 4.329051e+00 3.293872e+00 2.274373e+00
<GCONST> 1.096383e+02
<STATE> 3
<MEAN> 25
 9.088171e+00 -7.371439e+00 -3.113906e+00 -3.869205e+00 -4.050645e+00 -5.055003e+00 2.560339e+00 2.762113e+00 -1.837982e-01 1.469510e+00 -1.985458e+00 -1.907634e-01 -3.360297e-02 -2.971172e-01 -1.790252e-01 -1.115984e-01 2.764516e-01 2.987615e-01 2.295230e-01 -2.377868e-02 -6.930066e-03 1.004813e-01 -2.681865e-01 -1.875777e-01 1.156385e-01
<VARIANCE> 25
 3.003965e+01 2.589891e+01 3.539220e+01 4.398030e+01 6.259829e+01 5.765773e+01 6.149841e+01 6.385479e+01 4.309970e+01 4.008825e+01 4.542521e+01 3.745651e+01 4.187129e-01 1.241851e+00 1.471243e+00 1.705419e+00 2.501687e+00 2.881114e+00 2.473530e+00 2.719340e+00 2.439296e+00 2.214940e+00 2.219065e+00 1.685977e+00 5.305244e-01
<GCONST> 9.783424e+01
<STATE> 4
<MEAN> 25
 6.035187e+00 -6.681765e+00 -3.548913e+00 -4.164348e+00 1.794183e+00 -1.262856e+00 -3.209919e-02 2.506979e+00 1.254587e+00 1.906310e+00 -4.948035e+00 -2.831187e+00 -2.335624e-01 7.032460e-01 2.874471e-01 5.249711e-01 1.047197e-01 2.337455e-01 -9.065114e-02 -2.734455e-01 -2.629131e-02 -1.228525e-01 3.726006e-01 2.450498e-01 -7.257578e-01
<VARIANCE> 25
 2.360674e+01 2.924523e+01 2.851690e+01 4.526123e+01 4.847584e+01 5.001091e+01 3.737594e+01 4.318053e+01 3.388304e+01 3.073114e+01 4.399575e+01 2.999200e+01 5.806602e-01 1.169097e+00 1.248578e+00 1.529675e+00 1.759441e+00 2.038459e+00 1.784497e+00 1.919665e+00 1.821138e+00 1.604163e+00 1.794020e+00 1.419166e+00 6.577346e-01
<GCONST> 9.331590e+01
<TRANSP> 5
 0.000000e+00 1.000000e+00 0.000000e+00 0.000000e+00 0.000000e+00
 0.000000e+00 4.390552e-01 5.609448e-01 0.000000e+00 0.000000e+00
 0.000000e+00 0.000000e+00 5.076740e-01 4.923260e-01 0.000000e+00
 0.000000e+00 0.000000e+00 0.000000e+00 7.447938e-01 2.552062e-01
 0.000000e+00 0.000000e+00 0.000000e+00 0.000000e+00 0.000000e+00
<ENDHMM>
~h "b"
<BEGINHMM>
<NUMSTATES> 5
<STATE> 2
<MEAN> 25
 3.200875e+00 6.842559e+00 1.089931e+00 2.922415e+00 1.194983e+00 -3.068269e-01 -1.494362e+00 -1.109319e+00 -7.460610e-01 -9.593164e-01 -5.657054e-01 -1.954554e+00 -7.027977e-01 1.837063e+00 5.187401e-01 9.144216e-01 9.488312e-01 1.313232e+00 5.408182e-01 -1.638767e-01 3.715309e-01 -4.545649e-01 -2.191593e-02 -5.410751e-02 -1.332502e+00
<VARIANCE> 25
 4.822226e+01 4.622344e+01 3.014911e+01 3.862533e+01 4.053670e+01 5.618048e+01 3.615704e+01 5.454996e+01 4.129573e+01 3.995288e+01 2.671847e+01 2.517731e+01 4.479287e+00 4.710537e+00 4.158492e+00 4.222945e+00 3.890766e+00 6.026925e+00 3.671693e+00 4.562762e+00 3.962692e+00 4.909463e+00 2.804871e+00 2.118421e+00 4.981205e+00
<GCONST> 1.081980e+02
<STATE> 3
<MEAN> 25
 2.100092e+00 8.770799e+00 2.755459e+00 4.285356e+00 3.002125e+00 2.391279e+00 -6.955020e-01 -1.992396e+00 -6.128539e-01 -1.952222e+00 -7.457057e-01 -1.483474e+00 1.093018e+00 -2.969168e-01 -4.439995e-01 -1.837084e-01 -2.545699e-01 -7.362746e-01 -6.327426e-01 -2.392239e-01 -1.352037e-01 -2.715062e-01 2.911693e-02 9.870037e-03 1.056383e+00
<VARIANCE> 25
 3.436127e+01 3.966577e+01 3.490511e+01 4.081316e+01 4.273220e+01 4.544435e+01 3.110265e+01 4.736605e+01 3.499895e+01 3.452027e+01 2.744478e+01 2.127391e+01 4.997527e+00 5.146771e+00 4.218533e+00 4.146935e+00 4.477081e+00 6.384085e+00 3.889333e+00 4.199215e+00 4.601693e+00 4.494253e+00 3.158058e+00 2.715518e+00 3.288591e+00
<GCONST> 1.073829e+02
<STATE> 4
<MEAN> 25
 3.513948e+00 8.130940e+00 9.830512e-01 4.026296e+00 1.369939e+00 1.404946e+00 -1.749843e+00 -4.142333e+00 -1.987569e+00 -2.756537e+00 4.862433e-01 -1.274881e+00 1.090329e+00 -1.609702e+00 -8.311530e-01 -1.125124e+00 -7.987311e-01 -1.248176e+00 -8.596500e-01 3.408881e-01 1.349385e-01 7.531000e-01 3.024993e-01 -8.936854e-02 1.709497e+00
<VARIANCE> 25
 2.640136e+01 3.800449e+01 2.715323e+01 5.107936e+01 3.411274e+01 4.535762e+01 3.242048e+01 4.490448e+01 3.496734e+01 4.975391e+01 3.166085e+01 1.939071e+01 2.633536e+00 4.616354e+00 3.562769e+00 5.098865e+00 3.363563e+00 4.926344e+00 3.097691e+00 3.775456e+00 4.291703e+00 6.129264e+00 2.837844e+00 2.941159e+00 2.852183e+00
<GCONST> 1.057058e+02
<TRANSP> 5
 0.000000e+00 1.000000e+00 0.000000e+00 0.000000e+00 0.000000e+00
 0.000000e+00 4.600199e-01 5.399801e-01 0.000000e+00 0.000000e+00
 0.000000e+00 0.000000e+00 1.607744e-01 8.392256e-01 0.000000e+00
 0.000000e+00 0.000000e+00 0.000000e+00 5.285549e-01 4.714451e-01
 0.000000e+00 0.000000e+00 0.000000e+00 0.000000e+00 0.000000e+00
<ENDHMM>
~h "c"
<BEGINHMM>
<NUMSTATES> 5
<STATE> 2
<MEAN> 25
 -4.068367e+00 1.817691e+00 6.077752e-01 3.545528e+00 3.939964e+00 2.777783e+00 -9.449186e-01 -4.490736e+00 -1.080560e+00 6.044753e-01 2.534662e+00 1.287308e+00 -2.257410e+00 8.858681e-01 -3.766509e-01 -1.197410e-01 5.436001e-01 1.495829e-02 6.254755e-01 6.972935e-01 4.862540e-01 6.019988e-02 1.936023e-01 4.787536e-03 -1.514382e+00
<VARIANCE> 25
 7.434713e+01 4.716426e+01 3.469677e+01 5.346509e+01 4.275288e+01 4.662694e+01 6.406696e+01 8.458138e+01 5.573093e+01 4.354850e+01 3.658319e+01 2.615502e+01 4.303606e+00 5.263391e+00 3.424019e+00 4.704423e+00 3.674132e+00 4.704383e+00 4.152018e+00 7.268909e+00 4.290353e+00 3.591626e+00 2.712346e+00 1.864295e+00 6.201989e+00
<GCONST> 1.108254e+02
<STATE> 3
<MEAN> 25
 -1.134896e+01 -2.005375e-01 2.481171e+00 -3.070739e-01 1.374851e+00 1.862398e+00 1.742090e+00 7.483240e-01 3.186459e+00 -1.105052e-02 2.129352e+00 2.104015e+00 9.934361e-01 -2.747567e+00 1.540151e+00 9.900291e-02 -1.841910e+00 -2.449962e-01 -2.145306e-01 3.651350e-01 8.573087e-01 -9.720584e-01 -5.537666e-01 3.362291e-01 2.629074e+00
<VARIANCE> 25
 3.077942e+01 6.894051e+01 4.161678e+01 5.601257e+01 6.006520e+01 6.307625e+01 4.257907e+01 4.805069e+01 3.747664e+01 2.980497e+01 2.621975e+01 2.264642e+01 6.521223e+00 1.096635e+01 6.322577e+00 7.175323e+00 6.927641e+00 6.750295e+00 6.323810e+00 5.813042e+00 5.804006e+00 4.509791e+00 2.852188e+00 2.457856e+00 5.888200e+00
<GCONST> 1.131487e+02
<STATE> 4
<MEAN> 25
 -6.546942e-01 -9.617873e+00 7.838064e+00 5.234877e+00 -1.436291e+00 4.381428e+00 -4.357339e+00 -2.643792e+00 4.705400e+00 -4.572671e+00 5.533069e-01 3.932304e+00 3.361699e+00 1.024798e+00 -1.021191e+00 -1.685061e-01 3.487020e-01 -1.133565e+00 -7.433810e-01 -9.130987e-01 -1.091315e+00 8.424284e-02 -5.741588e-01 -1.707500e-01 1.653501e+00
<VARIANCE> 25
 6.558324e+01 9.801578e+01 6.286234e+01 3.840387e+01 5.602866e+01 7.375101e+01 4.848755e+01 4.660734e+01 4.868890e+01 2.640132e+01 3.310502e+01 2.087691e+01 3.679545e+00 1.473773e+01 8.549608e+00 5.299538e+00 7.087131e+00 1.098644e+01 5.252998e+00 8.229988e+00 8.255300e+00 3.508956e+00 4.378331e+00 3.742612e+00 4.413046e+00
<GCONST> 1.158267e+02
<TRANSP> 5
 0.000000e+00 1.000000e+00 0.000000e+00 0.000000e+00 0.000000e+00
 0.000000e+00 7.547855e-01 2.452145e-01 0.000000e+00 0.000000e+00
 0.000000e+00 0.000000e+00 6.743373e-01 3.256626e-01 0.000000e+00
 0.000000e+00 0.000000e+00 0.000000e+00 6.688924e-01 3.311075e-01
 0.000000e+00 0.000000e+00 0.000000e+00 0.000000e+00 0.000000e+00
<ENDHMM>
~h "d"
<BEGINHMM>
<NUMSTATES> 5
<STATE> 2
<MEAN> 25
 3.249062e+00 4.079320e+00 4.534215e-01 5.648036e+00 5.711703e+00 9.347472e-01 -1.981080e+00 -2.301652e+00 -2.966933e+00 -3.075519e+00 -1.194518e+00 4.352126e-01 9.108198e-02 3.795717e-01 2.741912e-01 1.095168e+00 1.789744e-01 -1.443685e-01 9.505736e-02 7.512871e-02 -1.473824e-01 -8.219346e-01 -2.997760e-02 -3.933857e-02 -1.379848e-01
<VARIANCE> 25
 5.816095e+01 5.221793e+01 5.035457e+01 4.185044e+01 7.330588e+01 8.271476e+01 4.200891e+01 4.154284e+01 5.128109e+01 3.786536e+01 3.641703e+01 2.508461e+01 7.077814e+00 9.480399e+00 4.267351e+00 4.633671e+00 5.601317e+00 1.379931e+01 5.283209e+00 5.188405e+00 5.512267e+00 4.237370e+00 3.808154e+00 3.027258e+00 9.334770e+00
<GCONST> 1.148606e+02
<STATE> 3
<MEAN> 25
 4.172807e+00 2.143783e+00 2.205285e+00 6.578667e+00 8.126101e-01 -3.685399e+00 -3.069577e+00 -2.198172e+00 -2.419850e+00 -5.429447e+00 -1.557705e+00 9.862682e-01 9.502115e-01 -1.902516e+00 4.825181e-01 -1.134670e+00 -1.523128e+00 -1.940886e+00 -7.133353e-01 1.234320e-01 -4.052739e-01 6.250162e-01 7.005861e-01 4.084549e-01 2.319957e+00
<VARIANCE> 25
 3.794275e+01 4.837443e+01 3.897586e+01 5.042677e+01 4.942598e+01 4.731197e+01 3.527725e+01 3.632793e+01 5.159369e+01 3.904927e+01 3.383926e+01 2.290147e+01 2.203745e+00 4.499259e+00 2.920687e+00 5.169681e+00 4.280961e+00 5.941641e+00 3.955419e+00 6.088749e+00 4.568224e+00 4.117668e+00 3.291806e+00 2.765792e+00 3.850230e+00
<GCONST> 1.081373e+02
<STATE> 4
<MEAN> 25
 8.005200e+00 -2.869358e+00 4.134374e+00 2.941272e+00 -3.521500e+00 -7.857339e+00 -5.926827e+00 -1.930209e+00 -1.252857e+00 -1.930307e+00 1.035982e+00 1.270209e+00 1.399182e-01 -7.012562e-01 4.320716e-01 -7.703927e-01 -9.482403e-01 -2.305157e-01 -2.288580e-01 2.818321e-01 3.896620e-01 6.353658e-01 2.832111e-01 -1.185454e-01 8.196350e-01
<VARIANCE> 25
 3.891787e+01 5.154943e+01 4.887679e+01 5.652371e+01 7.833767e+01 8.777309e+01 4.750061e+01 9.544167e+01 7.766824e+01 4.321203e+01 4.254827e+01 3.168022e+01 1.123020e+00 2.692661e+00 3.071924e+00 3.150832e+00 3.913953e+00 4.662811e+00 3.703663e+00 4.500063e+00 4.120904e+00 2.901623e+00 2.545665e+00 2.250280e+00 2.290524e+00
<GCONST> 1.082045e+02
<TRANSP> 5
 0.000000e+00 1.000000e+00 0.000000e+00 0.000000e+00 0.000000e+00
 0.000000e+00 6.128998e-01 3.871001e-01 0.000000e+00 0.000000e+00
 0.000000e+00 0.000000e+00 4.225301e-01 5.774698e-01 0.000000e+00
 0.000000e+00 0.000000e+00 0.000000e+00 5.044155e-01 4.955846e-01
 0.000000e+00 0.000000e+00 0.000000e+00 0.000000e+00 0.000000e+00
<ENDHMM>
~h "e"
<BEGINHMM>
<NUMSTATES> 5
<STATE> 2
<MEAN> 25
 5.665494e+00 -2.632850e+00 1.716646e-01 1.087577e+00 -2.145930e+00 -6.119693e+00 -6.733600e-01 1.527878e-01 -3.650807e+00 2.027552e-01 1.344067e+00 2.846528e-01 1.810812e+00 -1.344173e+00 3.966337e-01 -4.006436e-01 -1.199149e+00 -1.936480e+00 -8.721501e-04 1.645683e-01 -1.929630e+00 7.115025e-01 9.385130e-01 2.099794e-01 2.213503e+00
<VARIANCE> 25
 4.737407e+01 4.520613e+01 4.760041e+01 3.466607e+01 5.393790e+01 6.066787e+01 4.748640e+01 6.753657e+01 5.011491e+01 4.193602e+01 3.470043e+01 2.531309e+01 4.497261e+00 6.403472e+00 5.255823e+00 4.059320e+00 4.975551e+00 6.192810e+00 4.684178e+00 9.000834e+00 6.003020e+00 4.491283e+00 4.322625e+00 2.610255e+00 3.639180e+00
<GCONST> 1.122193e+02
<STATE> 3
<MEAN> 25
 8.243992e+00 -6.417587e+00 6.796985e-01 -2.506172e-01 -3.684178e+00 -6.855651e+00 -1.199647e+00 -3.095521e+00 -6.517766e+00 3.234636e+00 4.680320e+00 1.271268e+00 5.093321e-02 -3.799308e-01 4.441129e-01 -3.154564e-02 -3.546425e-01 9.413007e-02 8.951263e-02 -2.334091e-01 -4.397304e-01 3.572583e-01 4.170370e-01 1.131848e-01 2.714806e-01
<VARIANCE> 25
 3.216173e+01 4.040625e+01 5.031817e+01 3.601710e+01 6.302922e+01 6.971752e+01 5.068614e+01 1.362866e+02 4.631812e+01 4.080327e+01 4.293166e+01 2.507907e+01 9.006912e-01 2.116510e+00 1.915147e+00 2.196807e+00 2.677509e+00 3.121370e+00 3.317904e+00 3.498165e+00 3.267892e+00 2.528430e+00 2.067302e+00 1.659933e+00 1.160609e+00
<GCONST> 1.025239e+02
<STATE> 4
<MEAN> 25
 5.962772e+00 -4.074580e+00 7.318275e+00 -1.031853e-01 -8.858960e+00 -8.111283e+00 5.246089e-01 2.157461e+00 -5.878328e+00 1.950384e+00 3.030515e+00 8.089991e-01 -2.017343e-01 6.243390e-01 3.053650e-02 2.646045e-01 3.239155e-01 3.535388e-01 5.660860e-02 -6.403767e-02 1.830227e-01 -1.156594e-01 -8.825491e-02 -5.982348e-02 -5.522087e-01
<VARIANCE> 25
 2.274134e+01 4.069940e+01 4.776136e+01 3.426051e+01 5.879754e+01 5.209951e+01 4.984953e+01 7.294791e+01 4.034308e+01 2.880964e+01 2.841899e+01 1.796776e+01 3.861371e-01 1.030754e+00 1.057778e+00 1.108566e+00 1.458940e+00 1.403924e+00 1.508260e+00 1.290981e+00 1.410073e+00 1.328812e+00 1.229375e+00 9.474384e-01 5.476018e-01
<GCONST> 9.049686e+01
<TRANSP> 5
 0.000000e+00 1.000000e+00 0.000000e+00 0.000000e+00 0.000000e+00
 0.000000e+00 4.880576e-01 5.119424e-01 0.000000e+00 0.000000e+00
 0.000000e+00 0.000000e+00 4.933572e-01 5.066428e-01 0.000000e+00
 0.000000e+00 0.000000e+00 0.000000e+00 8.213927e-01 1.786074e-01
 0.000000e+00 0.000000e+00 0.000000e+00 0.000000e+00 0.000000e+00
<ENDHMM>
~h "f"
<BEGINHMM>
<NUMSTATES> 5
<STATE> 2
<MEAN> 25
 -4.748631e+00 5.713538e+00 2.441760e-01 1.648000e+00 4.827500e+00 3.766637e+00 -2.373210e-01 -2.018849e+00 -3.389978e-01 2.572081e+00 2.184266e+00 1.518855e+00 -1.125569e+00 -7.007312e-01 -7.721411e-02 9.678868e-01 4.443916e-01 7.588542e-01 9.341357e-01 1.060754e+00 1.229763e+00 -8.326834e-01 4.992720e-01 1.058375e+00 -5.908998e-01
<VARIANCE> 25
 2.218985e+02 9.910999e+01 2.717784e+01 4.740870e+01 7.977873e+01 4.007185e+01 3.913575e+01 3.663694e+01 2.883909e+01 2.153498e+01 1.736100e+01 1.603657e+01 7.020486e+00 4.874122e+00 3.702284e+00 2.703546e+00 4.374393e+00 3.078622e+00 2.700569e+00 4.785821e+00 3.955905e+00 2.795780e+00 3.248205e+00 1.659020e+00 6.032032e+00
<GCONST> 1.073855e+02
<STATE> 3
<MEAN> 25
 -3.948027e+00 -2.212494e+00 -6.485329e-01 3.337799e+00 1.515842e+00 3.473946e+00 3.222022e+00 1.599332e+00 3.711740e+00 -4.771987e-01 4.621815e+00 4.078129e+00 -7.360142e-01 -1.712896e+00 -4.275747e-01 -4.612338e-01 -3.452284e-01 -5.685741e-01 -1.732965e-01 -1.555349e-01 1.536298e-01 -4.790839e-01 -3.231823e-01 -1.409804e-01 4.381852e-01
<VARIANCE> 25
 2.206260e+01 4.401418e+01 2.022172e+01 1.339414e+01 2.798790e+01 5.291204e+01 3.697047e+01 3.553700e+01 3.742765e+01 2.325249e+01 2.075571e+01 1.394387e+01 3.619438e+00 3.686839e+00 1.928481e+00 1.899682e+00 2.319670e+00 3.286155e+00 3.380734e+00 2.704348e+00 3.198854e+00 2.201123e+00 2.598567e+00 1.783314e+00 3.152836e+00
<GCONST> 9.811178e+01
<STATE> 4
<MEAN> 25
 -5.248907e+00 -2.955868e+00 -2.614728e+00 1.770818e+00 2.942874e+00 -4.677272e-02 1.357732e+00 4.990736e-01 -1.801682e-01 -4.405546e-01 3.535863e-01 5.432588e-01 4.476412e-02 1.554969e-01 -2.126250e-01 -4.288787e-02 6.995730e-03 8.733403e-02 1.024315e-02 -9.214108e-02 -6.068584e-02 -6.563008e-02 -1.026748e-01 -5.246535e-02 -1.295472e-01
<VARIANCE> 25
 2.878382e+01 3.503301e+01 1.682840e+01 2.456744e+01 2.197265e+01 5.085283e+01 2.217090e+01 3.605796e+01 2.807335e+01 1.718076e+01 1.644240e+01 1.509137e+01 1.170849e+00 1.237489e+00 9.042351e-01 1.285475e+00 1.377514e+00 2.288036e+00 1.669098e+00 1.843267e+00 1.616537e+00 1.481708e+00 1.519046e+00 1.146545e+00 5.420749e-01
<GCONST> 8.789181e+01
<TRANSP> 5
 0.000000e+00 1.000000e+00 0.000000e+00 0.000000e+00 0.000000e+00
 0.000000e+00 4.840558e-01 5.159442e-01 0.000000e+00 0.000000e+00
 0.000000e+00 0.000000e+00 6.225019e-01 3.774981e-01 0.000000e+00
 0.000000e+00 0.000000e+00 0.000000e+00 8.700964e-01 1.299036e-01
 0.000000e+00 0.000000e+00 0.000000e+00 0.000000e+00 0.000000e+00
<ENDHMM>
~h "g"
<BEGINHMM>
<NUMSTATES> 5
<STATE> 2
<MEAN> 25
 5.115072e-01 5.019730e+00 3.588922e+00 4.103031e+00 1.740451e+00 1.399602e-01 -1.348124e+00 -1.187606e+00 -2.306406e+00 -1.667605e+00 -6.909695e-02 -2.501519e+00 -9.867199e-02 3.779092e-01 4.197080e-01 5.514542e-01 3.981504e-01 -4.791647e-03 -3.981206e-01 3.027707e-01 5.533666e-01 -9.685203e-02 -1.054721e-01 -2.646132e-01 -7.395969e-02
<VARIANCE> 25
 5.452860e+01 4.891204e+01 4.001929e+01 4.961077e+01 6.434395e+01 6.560625e+01 6.243287e+01 6.240993e+01 6.036310e+01 5.032231e+01 3.420935e+01 2.513560e+01 4.976910e+00 5.787726e+00 4.084467e+00 4.861793e+00 6.064958e+00 6.237777e+00 6.366477e+00 6.006412e+00 5.367577e+00 5.015580e+00 2.957363e+00 2.984688e+00 5.426795e+00
<GCONST> 1.136088e+02
<STATE> 3
<MEAN> 25
 3.621013e+00 3.955015e+00 4.787455e+00 3.423996e+00 -1.480402e+00 -4.292148e+00 -4.386273e+00 2.091269e+00 1.732674e+00 -2.329519e+00 -8.836064e-01 -2.007349e+00 1.452430e+00 -1.747372e+00 1.116645e-01 -5.558018e-01 -1.552232e+00 -1.910643e+00 -5.224884e-01 9.089789e-01 -5.271914e-02 -7.929778e-01 -8.683271e-02 5.924366e-01 2.164704e+00
<VARIANCE> 25
 2.953018e+01 7.638793e+01 4.730752e+01 6.584577e+01 1.052608e+02 8.896903e+01 8.124376e+01 7.506149e+01 6.096059e+01 5.704202e+01 3.607482e+01 3.255848e+01 3.424568e+00 5.835842e+00 4.704511e+00 7.260063e+00 1.132988e+01 9.801311e+00 8.860089e+00 6.845668e+00 5.847948e+00 6.134679e+00 3.969893e+00 4.170187e+00 3.424625e+00
<GCONST> 1.177541e+02
<STATE> 4
<MEAN> 25
 7.496023e+00 -3.616777e-02 5.082907e+00 -6.602283e-02 -7.214093e+00 -8.434209e+00 -5.703191e+00 3.115635e+00 1.894310e+00 -5.073378e+00 -1.978814e+00 -2.362966e-01 5.359614e-01 -9.656328e-01 -2.813711e-01 -6.500503e-01 -4.148134e-01 -1.119498e-01 -4.614443e-02 -2.161204e-01 -2.111722e-01 3.695685e-01 3.201776e-02 1.035340e-01 9.857147e-01
<VARIANCE> 25
 2.692441e+01 5.511163e+01 4.182959e+01 6.101681e+01 8.180408e+01 1.107821e+02 7.800465e+01 9.153954e+01 7.727821e+01 7.122493e+01 4.750957e+01 3.472008e+01 1.687524e+00 3.756321e+00 3.669954e+00 4.290423e+00 5.091341e+00 5.226200e+00 5.667900e+00 4.927981e+00 4.369454e+00 3.166098e+00 3.520366e+00 2.634139e+00 2.379343e+00
<GCONST> 1.120363e+02
<TRANSP> 5
 0.000000e+00 1.000000e+00 0.000000e+00 0.000000e+00 0.000000e+00
 0.000000e+00 5.668310e-01 4.331690e-01 0.000000e+00 0.000000e+00
 0.000000e+00 0.000000e+00 4.715607e-01 5.284393e-01 0.000000e+00
 0.000000e+00 0.000000e+00 0.000000e+00 4.938742e-01 5.061258e-01
 0.000000e+00 0.000000e+00 0.000000e+00 0.000000e+00 0.000000e+00
<ENDHMM>
~h "h"
<BEGINHMM>
<NUMSTATES> 5
<STATE> 2
<MEAN> 25
 2.869021e+00 -1.038191e+00 2.538674e+00 1.165457e+00 -1.993369e+00 1.648012e+00 4.058270e+00 1.968233e+00 1.657796e+00 1.987880e-01 2.299583e-01 7.645159e-01 -1.117958e+00 3.067319e-01 -1.296097e-01 1.740515e-01 6.030175e-01 5.083874e-01 4.033241e-01 3.428215e-01 -2.877645e-02 -1.861039e-01 3.656267e-01 3.691905e-01 -1.029761e+00
<VARIANCE> 25
 4.365070e+01 5.067451e+01 4.394170e+01 4.249275e+01 7.050198e+01 6.873552e+01 6.162777e+01 4.895278e+01 4.543913e+01 4.331844e+01 3.846144e+01 2.212460e+01 1.509754e+00 2.739680e+00 2.689542e+00 2.853096e+00 3.019072e+00 3.074024e+00 3.256577e+00 2.759928e+00 2.871241e+00 2.523880e+00 2.513381e+00 1.820608e+00 1.379746e+00
<GCONST> 1.037146e+02
<STATE> 3
<MEAN> 25
 -1.822060e+00 -1.055320e+00 -1.617071e+00 -1.674769e-01 1.282096e+00 4.388960e+00 5.545558e+00 3.221235e+00 4.419163e-01 -2.033192e+00 -1.971287e-02 1.464025e+00 -7.846199e-01 1.383555e-01 -4.766022e-02 2.217718e-02 1.663262e-01 -6.509458e-02 -3.796335e-01 -2.642080e-01 4.576194e-02 1.016862e-01 1.848131e-01 1.088127e-01 -7.208356e-01
<VARIANCE> 25
 3.796950e+01 4.884672e+01 3.632936e+01 4.224338e+01 5.614668e+01 4.721107e+01 5.246925e+01 4.434673e+01 4.563836e+01 4.125433e+01 2.869001e+01 2.212144e+01 6.146250e-01 1.154186e+00 1.570080e+00 1.786181e+00 1.962763e+00 1.782724e+00 2.208368e+00 2.127162e+00 2.098790e+00 2.037359e+00 1.654405e+00 1.429687e+00 2.880235e-01
<GCONST> 9.499353e+01
<STATE> 4
<MEAN> 25
 -5.997471e+00 8.400955e-01 8.584839e-02 2.217849e+00 2.773402e+00 2.277606e+00 6.401949e-01 -6.590506e-01 3.194953e-01 -6.978534e-01 7.349794e-01 1.580313e+00 -7.780489e-02 4.576006e-02 9.791878e-03 4.403288e-02 5.146161e-02 1.479028e-02 -3.512156e-02 -3.064522e-02 1.103205e-02 1.759605e-02 -4.950248e-03 -4.814609e-03 -9.772935e-02
<VARIANCE> 25
 3.500790e+01 2.481951e+01 1.655689e+01 2.486733e+01 2.148409e+01 2.189728e+01 2.526734e+01 1.944204e+01 2.187951e+01 1.587123e+01 1.644819e+01 1.440434e+01 1.613473e-01 3.221560e-01 5.570365e-01 7.045265e-01 9.264147e-01 1.111830e+00 1.184853e+00 1.307133e+00 1.339477e+00 1.343546e+00 1.256148e+00 1.162012e+00 8.178327e-02
<GCONST> 7.743980e+01
<TRANSP> 5
 0.000000e+00 1.000000e+00 0.000000e+00 0.000000e+00 0.000000e+00
 0.000000e+00 6.566623e-01 3.433377e-01 0.000000e+00 0.000000e+00
 0.000000e+00 0.000000e+00 7.134318e-01 2.865682e-01 0.000000e+00
 0.000000e+00 0.000000e+00 0.000000e+00 9.098673e-01 9.013272e-02
 0.000000e+00 0.000000e+00 0.000000e+00 0.000000e+00 0.000000e+00
<ENDHMM>
~h "i"
<BEGINHMM>
<NUMSTATES> 5
<STATE> 2
<MEAN> 25
 4.076418e+00 -1.909541e+00 7.320612e+00 6.077724e+00 -5.789269e-01 -4.473959e+00 -5.540647e+00 -4.457627e+00 -3.549312e+00 -1.762426e+00 -2.044797e-02 -1.030894e+00 8.635067e-01 -5.047685e-01 1.481643e+00 7.552511e-02 -1.188694e+00 -1.212067e+00 -1.002058e+00 -3.016069e-01 -1.385303e+00 1.444935e-01 8.673710e-02 -4.840202e-01 1.209229e+00
<VARIANCE> 25
 3.633404e+01 5.193563e+01 4.804529e+01 9.416104e+01 9.515599e+01 6.072119e+01 7.297120e+01 7.938397e+01 5.430929e+01 3.083073e+01 3.193997e+01 2.438098e+01 3.005015e+00 3.606427e+00 6.372012e+00 5.359721e+00 6.761796e+00 5.898463e+00 5.370659e+00 5.721396e+00 7.004893e+00 3.022973e+00 3.787159e+00 2.491518e+00 2.887940e+00
<GCONST> 1.126967e+02
<STATE> 3
<MEAN> 25
 4.355564e+00 -3.923500e+00 9.574267e+00 9.023643e+00 -2.744517e-01 -6.169834e+00 -8.965925e+00 -5.158296e+00 -2.945741e+00 -5.291506e-01 -3.418576e-01 -3.612175e+00 -1.503419e-01 3.107998e-01 3.309186e-01 -3.572427e-01 -5.233653e-01 3.858945e-01 2.816998e-01 -4.727850e-02 -4.911734e-01 3.091604e-01 3.868996e-01 7.779548e-02 -2.057680e-01
<VARIANCE> 25
 2.726085e+01 4.022271e+01 4.941071e+01 1.089934e+02 1.193274e+02 5.620433e+01 8.663109e+01 8.548750e+01 7.899843e+01 4.767116e+01 4.731101e+01 3.681597e+01 1.105438e+00 1.860544e+00 3.026990e+00 2.633459e+00 3.167887e+00 3.122202e+00 3.356653e+00 3.458597e+00 3.450191e+00 2.499497e+00 2.152774e+00 1.716253e+00 1.445032e+00
<GCONST> 1.063255e+02
<STATE> 4
<MEAN> 25
 2.274054e+00 1.343846e+00 1.357051e+01 2.431269e-01 -8.891496e+00 -4.600810e+00 -2.705049e+00 -2.154289e+00 -8.574686e+00 -6.181594e-01 2.990460e+00 -7.405323e-01 -2.070168e-01 1.861695e-01 -5.254848e-01 1.804457e-01 4.797833e-01 2.279792e-01 3.002714e-01 7.767712e-02 4.076479e-01 1.455885e-02 -4.326971e-02 1.446907e-01 -4.801966e-01
<VARIANCE> 25
 1.879280e+01 2.721312e+01 5.360294e+01 4.517366e+01 5.373722e+01 4.485898e+01 3.769961e+01 4.108078e+01 4.748986e+01 3.064766e+01 3.050594e+01 2.019304e+01 8.104649e-01 1.599220e+00 2.171039e+00 1.820608e+00 2.523856e+00 2.142167e+00 2.150900e+00 2.060869e+00 2.238129e+00 1.600134e+00 1.502647e+00 1.217287e+00 1.131805e+00
<GCONST> 9.562913e+01
<TRANSP> 5
 0.000000e+00 1.000000e+00 0.000000e+00 0.000000e+00 0.000000e+00
 0.000000e+00 5.154387e-01 4.845614e-01 0.000000e+00 0.000000e+00
 0.000000e+00 0.000000e+00 5.310472e-01 4.689528e-01 0.000000e+00
 0.000000e+00 0.000000e+00 0.000000e+00 8.042234e-01 1.957766e-01
 0.000000e+00 0.000000e+00 0.000000e+00 0.000000e+00 0.000000e+00
<ENDHMM>
~h "j"
<BEGINHMM>
<NUMSTATES> 5
<STATE> 2
<MEAN> 25
 1.676995e+00 1.235007e+00 6.561842e+00 6.274386e+00 1.004714e+00 -5.466041e-01 -2.951329e+00 -2.728879e+00 -2.565510e+00 -2.938044e+00 3.716987e-01 1.064773e+00 -1.105457e+00 7.144680e-01 8.698664e-01 9.415957e-01 3.352463e-01 9.604206e-01 -3.894472e-02 2.404914e-01 7.770007e-01 -1.014351e+00 -1.499351e-01 -2.147688e-02 -1.088509e+00
<VARIANCE> 25
 4.398497e+01 6.834303e+01 4.169224e+01 4.778360e+01 7.039556e+01 9.290385e+01 4.660899e+01 6.546283e+01 5.752951e+01 3.760053e+01 3.478283e+01 2.543047e+01 3.341503e+00 9.915595e+00 4.296743e+00 4.605941e+00 6.086942e+00 6.663686e+00 4.970329e+00 6.135287e+00 5.242410e+00 4.249444e+00 2.948007e+00 2.853488e+00 7.332996e+00
<GCONST> 1.136574e+02
<STATE> 3
<MEAN> 25
 -6.696128e-01 8.001697e-02 7.859701e+00 4.372779e+00 3.810142e-01 -1.457212e+00 -3.097200e+00 -2.871588e+00 -5.923712e-02 -5.169621e+00 -3.325237e-01 1.488033e+00 1.117578e+00 -7.903780e-01 1.871543e-01 -8.272700e-01 -6.929839e-01 -1.615784e+00 -7.277822e-01 -5.860904e-01 -9.147485e-01 1.805577e-01 3.004068e-01 3.519699e-01 1.868876e+00
<VARIANCE> 25
 4.726788e+01 7.222356e+01 4.001111e+01 7.267072e+01 5.629787e+01 5.054790e+01 6.378685e+01 4.598376e+01 3.606150e+01 2.954618e+01 1.897897e+01 2.074715e+01 4.676336e+00 4.558205e+00 5.387537e+00 6.754303e+00 6.271702e+00 5.181048e+00 5.671261e+00 5.006609e+00 5.178631e+00 3.267480e+00 2.550039e+00 2.375473e+00 3.793300e+00
<GCONST> 1.103860e+02
<STATE> 4
<MEAN> 25
 4.991851e+00 3.478031e-01 9.730577e+00 9.193905e-01 -7.108789e+00 -8.526495e+00 -4.688124e+00 5.921941e-01 -2.955408e+00 -2.703765e+00 1.535573e+00 2.662396e+00 6.351778e-01 -7.426198e-01 -7.846160e-01 -5.093898e-01 -4.844674e-01 -3.519126e-01 -9.184794e-02 6.053342e-01 2.145133e-01 5.467005e-01 -7.474434e-02 -8.203751e-02 4.719808e-01
<VARIANCE> 25
 2.255408e+01 5.353009e+01 3.005528e+01 3.593776e+01 4.311382e+01 3.694339e+01 4.301268e+01 4.809187e+01 3.220782e+01 2.799389e+01 2.183376e+01 2.177341e+01 1.518849e+00 3.072275e+00 2.879864e+00 2.515341e+00 4.626101e+00 3.233892e+00 4.135146e+00 3.224606e+00 2.606935e+00 2.067069e+00 2.301269e+00 2.236142e+00 1.313714e+00
<GCONST> 1.004157e+02
<TRANSP> 5
 0.000000e+00 1.000000e+00 0.000000e+00 0.000000e+00 0.000000e+00
 0.000000e+00 6.790460e-01 3.209540e-01 0.000000e+00 0.000000e+00
 0.000000e+00 0.000000e+00 6.908994e-01 3.091006e-01 0.000000e+00
 0.000000e+00 0.000000e+00 0.000000e+00 6.901304e-01 3.098696e-01
 0.000000e+00 0.000000e+00 0.000000e+00 0.000000e+00 0.000000e+00
<ENDHMM>
~h "k"
<BEGINHMM>
<NUMSTATES> 5
<STATE> 2
<MEAN> 25
 -4.717252e+00 2.004506e+00 -1.627525e+00 1.201049e+00 2.015484e+00 3.429309e+00 1.851382e+00 2.576392e-01 2.499421e+00 8.066540e-01 1.939006e+00 7.350677e-01 -1.073118e+00 9.952370e-03 -2.537062e-01 2.552391e-01 7.164672e-03 4.387138e-01 3.583530e-01 5.218291e-01 5.304295e-01 -2.826695e-01 3.203962e-01 3.439019e-01 -9.771686e-01
<VARIANCE> 25
 6.071131e+01 3.895053e+01 3.980948e+01 4.807159e+01 6.419756e+01 5.901389e+01 4.336882e+01 4.872319e+01 4.769087e+01 3.568436e+01 3.434758e+01 2.714573e+01 4.765169e+00 4.132940e+00 4.137906e+00 4.828894e+00 4.226931e+00 5.528859e+00 4.343439e+00 3.934858e+00 4.456897e+00 3.308644e+00 3.540554e+00 2.534647e+00 5.464138e+00
<GCONST> 1.099936e+02
<STATE> 3
<MEAN> 25
 -3.817189e+00 -3.065610e+00 -5.104586e-02 -2.055257e+00 -5.084340e+00 3.502440e+00 4.286757e+00 3.783439e+00 4.364085e+00 -2.506068e+00 -2.318120e-01 2.012777e+00 1.799409e+00 -1.236773e+00 -2.097791e-01 -8.552746e-01 -8.742486e-01 -7.450641e-01 -3.682463e-01 -7.129560e-02 1.297552e-01 -8.981423e-02 -5.271100e-01 -1.528039e-01 2.288400e+00
<VARIANCE> 25
 4.595608e+01 7.000139e+01 5.650407e+01 5.557167e+01 1.440169e+02 6.505659e+01 6.949285e+01 6.025493e+01 6.156709e+01 4.964183e+01 4.004370e+01 2.860259e+01 8.053514e+00 9.215158e+00 7.042560e+00 7.445588e+00 1.211490e+01 8.977781e+00 8.035740e+00 6.515751e+00 6.809949e+00 7.512981e+00 3.912398e+00 4.334669e+00 7.534809e+00
<GCONST> 1.203278e+02
<STATE> 4
<MEAN> 25
 1.695300e+00 -3.292573e+00 -3.603483e+00 -3.302183e+00 4.205948e-02 -1.573713e+00 -1.006898e+00 8.044821e-01 2.700274e+00 1.813727e+00 -1.053421e+00 -1.139739e+00 2.067910e+00 2.353422e-01 1.948723e-02 -2.980437e-01 -1.583932e-01 -1.107711e+00 -2.355861e-01 -4.673191e-01 -1.076378e+00 6.145195e-01 -4.043858e-01 -7.152103e-01 1.619863e+00
<VARIANCE> 25
 4.164885e+01 4.928691e+01 7.091715e+01 5.605702e+01 9.212263e+01 6.463268e+01 5.403165e+01 5.292383e+01 5.929994e+01 4.468654e+01 3.521841e+01 3.297715e+01 4.716551e+00 4.791511e+00 5.591253e+00 5.890208e+00 6.166240e+00 7.353456e+00 5.479764e+00 5.829177e+00 5.200586e+00 4.448518e+00 3.370754e+00 2.788816e+00 3.935899e+00
<GCONST> 1.140946e+02
<TRANSP> 5
 0.000000e+00 1.000000e+00 0.000000e+00 0.000000e+00 0.000000e+00
 0.000000e+00 6.902207e-01 3.097793e-01 0.000000e+00 0.000000e+00
 0.000000e+00 0.000000e+00 5.193963e-01 4.806036e-01 0.000000e+00
 0.000000e+00 0.000000e+00 0.000000e+00 4.441925e-01 5.558075e-01
 0.000000e+00 0.000000e+00 0.000000e+00 0.000000e+00 0.000000e+00
<ENDHMM>
~h "l"
<BEGINHMM>
<NUMSTATES> 5
<STATE> 2
<MEAN> 25
 8.355466e+00 -1.190035e+00 -2.874525e+00 -3.046715e+00 -1.576103e+00 -2.879027e+00 -2.745714e+00 -1.915535e+00 6.972364e-01 1.604845e+00 -2.161657e+00 -1.634660e+00 9.971684e-02 -4.669763e-01 1.329956e-02 6.318198e-02 -6.561711e-02 -2.871991e-01 -5.557073e-01 1.578111e-01 6.047676e-01 7.070422e-02 -5.709878e-01 -2.727043e-01 2.751403e-01
<VARIANCE> 25
 3.186107e+01 3.012429e+01 3.874427e+01 5.134131e+01 6.026912e+01 7.774274e+01 5.211363e+01 5.684596e+01 4.820890e+01 7.179938e+01 4.888133e+01 3.299107e+01 6.856948e-01 2.229891e+00 2.109816e+00 3.425053e+00 3.163315e+00 4.628826e+00 3.225470e+00 3.275495e+00 3.736102e+00 3.551987e+00 3.067140e+00 2.412393e+00 9.680066e-01
<GCONST> 1.043884e+02
<STATE> 3
<MEAN> 25
 9.351020e+00 -1.433236e+00 -1.717756e+00 -1.397379e+00 -3.706340e+00 -7.332313e+00 -3.483521e+00 1.743698e+00 2.868402e+00 -5.383296e-01 -4.366078e+00 -1.242116e+00 -1.102255e-01 -1.234667e-01 4.663092e-01 8.706266e-02 -4.380129e-01 -2.274818e-01 3.058754e-02 1.944193e-01 7.112046e-02 -1.809157e-01 -1.888301e-01 1.358385e-01 3.697985e-02
<VARIANCE> 25
 2.908434e+01 3.028580e+01 3.799110e+01 4.711864e+01 6.297128e+01 1.082296e+02 5.719632e+01 7.122730e+01 5.390450e+01 8.226604e+01 4.414735e+01 2.871804e+01 2.946247e-01 1.204180e+00 1.491943e+00 2.081128e+00 3.103017e+00 3.358651e+00 2.749877e+00 2.685148e+00 2.546949e+00 2.924708e+00 2.284025e+00 1.551289e+00 4.277894e-01
<GCONST> 9.976331e+01
<STATE> 4
<MEAN> 25
 8.948149e+00 -2.814909e+00 -6.917582e-01 -4.970408e+00 -3.328699e+00 -3.582393e+00 -4.332223e+00 -2.042850e+00 1.883171e+00 2.358604e+00 -3.647076e+00 -1.299408e+00 -1.025859e-01 1.574707e-01 2.540282e-01 1.840833e-02 -9.474532e-02 7.829424e-02 1.119848e-01 8.983855e-02 -2.117417e-01 -1.655043e-01 1.335914e-01 6.436817e-02 -1.394130e-01
<VARIANCE> 25
 1.810797e+01 2.706670e+01 3.349482e+01 6.497436e+01 6.884551e+01 6.840422e+01 5.027302e+01 4.772802e+01 3.614584e+01 6.884293e+01 3.917181e+01 2.841830e+01 2.539748e-01 8.958122e-01 1.010520e+00 1.258230e+00 1.413674e+00 1.941104e+00 1.698099e+00 1.796931e+00 1.537108e+00 1.887272e+00 1.416418e+00 1.065772e+00 3.378108e-01
<GCONST> 9.217789e+01
<TRANSP> 5
 0.000000e+00 1.000000e+00 0.000000e+00 0.000000e+00 0.000000e+00
 0.000000e+00 2.746979e-01 7.253021e-01 0.000000e+00 0.000000e+00
 0.000000e+00 0.000000e+00 3.863519e-01 6.136481e-01 0.000000e+00
 0.000000e+00 0.000000e+00 0.000000e+00 6.967718e-01 3.032282e-01
 0.000000e+00 0.000000e+00 0.000000e+00 0.000000e+00 0.000000e+00
<ENDHMM>
~h "m"
<BEGINHMM>
<NUMSTATES> 5
<STATE> 2
<MEAN> 25
 5.219417e+00 3.951862e+00 -8.041002e-01 2.499142e-02 9.553009e-01 1.215163e-01 -1.362091e+00 -2.525254e-01 -3.958853e-01 9.074589e-01 -3.525799e-01 -3.340818e+00 -4.783283e-01 1.395441e+00 6.950523e-01 1.149324e+00 1.234249e+00 1.267339e+00 -3.877302e-01 -9.210605e-01 2.457079e-01 4.710304e-01 -4.507470e-01 -1.065214e+00 -1.009354e+00
<VARIANCE> 25
 5.126741e+01 3.730011e+01 3.515188e+01 4.480075e+01 4.869334e+01 5.870366e+01 3.864694e+01 4.092894e+01 6.830888e+01 3.051856e+01 3.178395e+01 2.806460e+01 5.138634e+00 3.796711e+00 4.161428e+00 5.361219e+00 5.370688e+00 5.636922e+00 3.652419e+00 3.519290e+00 7.231401e+00 3.477101e+00 3.128289e+00 3.460955e+00 4.329831e+00
<GCONST> 1.097372e+02
<STATE> 3
<MEAN> 25
 4.120278e+00 6.002933e+00 1.116826e+00 3.031410e+00 4.674163e+00 2.772245e+00 -3.363820e+00 -2.504629e+00 1.969658e+00 2.472756e+00 -2.309413e+00 -5.939556e+00 2.601939e-01 -1.797668e-01 -1.359193e-02 1.541713e-02 -7.846902e-02 -1.074556e-01 -2.064203e-02 -2.865008e-01 -3.398997e-01 -8.739121e-02 -5.015519e-03 2.063666e-01 3.236372e-01
<VARIANCE> 25
 2.222326e+01 3.350618e+01 3.321131e+01 4.340272e+01 4.832415e+01 4.077266e+01 5.315087e+01 4.573558e+01 1.184294e+02 3.891513e+01 4.094171e+01 4.608709e+01 3.632628e+00 2.649073e+00 3.994698e+00 4.523412e+00 5.165608e+00 4.978746e+00 3.344239e+00 2.964963e+00 4.935617e+00 3.112276e+00 2.440367e+00 3.370662e+00 2.475211e+00
<GCONST> 1.076387e+02
<STATE> 4
<MEAN> 25
 4.717123e+00 3.782558e+00 1.420556e+00 2.225693e+00 9.591373e-01 1.236492e+00 -1.005461e+00 -5.136668e+00 -7.056931e+00 1.216503e+00 1.732082e-01 -3.750509e+00 4.537587e-01 -5.329252e-01 -6.802439e-01 -9.329512e-01 -4.819312e-01 -2.787079e-01 1.867956e-01 6.082871e-01 2.812814e-01 -1.856893e-01 -1.691774e-02 2.801408e-01 5.963814e-01
<VARIANCE> 25
 1.777325e+01 2.561312e+01 2.817818e+01 4.365303e+01 3.234214e+01 2.873409e+01 2.920920e+01 4.194786e+01 1.012216e+02 2.161176e+01 2.729883e+01 2.385156e+01 1.442290e+00 1.815734e+00 2.682381e+00 4.002446e+00 3.169808e+00 3.128178e+00 2.113723e+00 2.688103e+00 4.002037e+00 2.027553e+00 1.796958e+00 1.907203e+00 1.268270e+00
<GCONST> 9.822792e+01
<TRANSP> 5
 0.000000e+00 1.000000e+00 0.000000e+00 0.000000e+00 0.000000e+00
 0.000000e+00 4.357730e-01 5.642270e-01 0.000000e+00 0.000000e+00
 0.000000e+00 0.000000e+00 3.131904e-01 6.868095e-01 0.000000e+00
 0.000000e+00 0.000000e+00 0.000000e+00 6.205658e-01 3.794342e-01
 0.000000e+00 0.000000e+00 0.000000e+00 0.000000e+00 0.000000e+00
<ENDHMM>
~h "n"
<BEGINHMM>
<NUMSTATES> 5
<STATE> 2
<MEAN> 25
 6.949317e+00 -6.356792e-01 -1.628286e+00 1.413887e+00 1.055122e+00 -2.444374e+00 -1.230998e+00 -2.544329e+00 -4.717513e+00 5.250887e-01 -4.974119e-01 -1.284325e+00 -1.134356e+00 2.393158e+00 6.378767e-01 1.138121e+00 1.407501e+00 1.834838e+00 -1.080448e+00 -1.356664e+00 6.657014e-01 -1.906942e-01 -5.459529e-01 -1.112609e+00 -2.165742e+00
<VARIANCE> 25
 2.457291e+01 3.594594e+01 3.987269e+01 3.656054e+01 5.470243e+01 5.651637e+01 4.137733e+01 6.358867e+01 5.061420e+01 3.229432e+01 4.919975e+01 2.999126e+01 1.188399e+00 2.017487e+00 2.296001e+00 3.041310e+00 5.464338e+00 4.821837e+00 4.231051e+00 4.809368e+00 4.931383e+00 3.053233e+00 5.306557e+00 3.093331e+00 1.556073e+00
<GCONST> 1.056773e+02
<STATE> 3
<MEAN> 25
 3.766114e+00 4.445241e+00 6.212440e-01 3.544226e+00 5.427898e+00 3.480029e+00 -6.134906e+00 -7.106393e+00 -3.898663e-01 5.319446e-01 -4.153990e+00 -4.492488e+00 -6.489633e-01 9.219301e-01 7.415621e-01 5.463029e-01 3.634608e-01 5.078616e-01 -1.220063e-01 -1.693645e-01 4.178606e-01 -1.154344e-01 -1.378878e-01 -3.872264e-03 -8.825845e-01
<VARIANCE> 25
 2.035058e+01 3.068300e+01 2.699065e+01 2.758496e+01 7.426330e+01 5.076228e+01 6.191771e+01 6.264993e+01 4.517542e+01 3.256694e+01 3.670604e+01 2.856231e+01 9.381685e-01 1.285334e+00 1.407979e+00 1.588965e+00 2.266220e+00 2.368153e+00 3.395110e+00 3.429933e+00 3.164617e+00 2.009374e+00 2.409402e+00 1.671349e+00 6.502516e-01
<GCONST> 9.768354e+01
<STATE> 4
<MEAN> 25
 -1.662571e+00 3.766062e+00 1.918473e+00 5.093383e+00 1.950926e+00 1.988018e+00 2.449071e-01 -2.578375e+00 -2.574085e-01 -7.787880e-01 -3.289436e-01 3.903191e-01 -2.456403e-01 3.703376e-02 -3.932047e-02 1.781717e-02 3.600893e-02 5.510908e-02 1.332233e-01 1.326936e-01 5.063727e-02 -1.450495e-01 6.531113e-02 1.528425e-01 -2.151578e-01
<VARIANCE> 25
 4.116943e+01 2.434017e+01 2.249600e+01 3.094159e+01 3.565930e+01 3.208160e+01 3.024067e+01 3.648422e+01 3.445452e+01 2.252081e+01 2.363600e+01 2.285355e+01 5.902910e-01 9.503718e-01 9.757702e-01 1.127209e+00 1.336719e+00 1.523920e+00 1.604749e+00 1.967013e+00 1.783758e+00 1.600307e+00 1.428638e+00 1.325766e+00 4.300858e-01
<GCONST> 8.861852e+01
<TRANSP> 5
 0.000000e+00 1.000000e+00 0.000000e+00 0.000000e+00 0.000000e+00
 0.000000e+00 5.082265e-01 4.917735e-01 0.000000e+00 0.000000e+00
 0.000000e+00 0.000000e+00 4.647107e-01 5.352892e-01 0.000000e+00
 0.000000e+00 0.000000e+00 0.000000e+00 8.218297e-01 1.781703e-01
 0.000000e+00 0.000000e+00 0.000000e+00 0.000000e+00 0.000000e+00
<ENDHMM>
~h "o"
<BEGINHMM>
<NUMSTATES> 5
<STATE> 2
<MEAN> 25
 1.325813e+00 1.780649e+00 -1.866473e+00 -2.934223e+00 -1.827197e+00 -1.380289e+00 -1.115642e-01 9.283242e-01 9.506739e-01 2.878430e-01 -1.746984e-01 -3.025501e-01 9.597144e-01 4.727588e-01 -4.285858e-01 -7.790546e-01 -3.725103e-01 1.148564e-01 1.789279e-01 1.701683e-02 -5.215360e-02 2.762080e-01 -8.320004e-03 -3.569059e-01 4.821858e-01
<VARIANCE> 25
 1.087025e+02 3.836998e+01 3.695242e+01 5.360103e+01 7.028072e+01 9.720478e+01 4.768577e+01 5.225710e+01 3.934081e+01 3.741353e+01 2.685122e+01 2.623932e+01 5.463191e+00 3.350694e+00 3.132906e+00 4.834665e+00 4.098359e+00 5.412260e+00 3.467374e+00 3.111764e+00 3.336143e+00 3.257228e+00 2.086218e+00 2.204388e+00 3.134909e+00
<GCONST> 1.085329e+02
<STATE> 3
<MEAN> 25
 6.999495e+00 3.099894e+00 -2.405014e+00 -4.879767e+00 -4.231045e+00 -2.466648e+00 -1.224159e+00 1.557327e+00 2.695282e+00 2.492368e-03 -1.820612e+00 -1.323724e+00 1.354977e+00 -1.744093e-01 -6.808141e-01 -1.184476e+00 -2.887492e-01 -1.514048e-02 -7.677434e-02 -2.769877e-01 -2.714630e-01 3.044167e-01 1.438467e-01 -2.223913e-01 1.116678e+00
<VARIANCE> 25
 4.703867e+01 4.551673e+01 4.345305e+01 6.248512e+01 6.904312e+01 1.267671e+02 5.976065e+01 6.342124e+01 5.880592e+01 4.631596e+01 3.384579e+01 3.365262e+01 6.119040e+00 3.870265e+00 3.447610e+00 6.112404e+00 5.527622e+00 9.090379e+00 4.434713e+00 4.478256e+00 4.819328e+00 4.319565e+00 2.824595e+00 3.099727e+00 4.701772e+00
<GCONST> 1.136593e+02
<STATE> 4
<MEAN> 25
 7.143855e+00 1.336477e+00 -5.453319e+00 -1.033445e+01 -1.017541e+00 6.480239e+00 7.369411e-01 -2.813528e+00 -1.209874e+00 3.463835e-01 1.503568e+00 1.338027e-01 -2.563034e-01 3.215209e-02 1.912837e-01 4.716212e-01 2.314679e-01 -4.838543e-02 -2.130229e-02 -8.934706e-03 3.662471e-02 6.540256e-03 6.497765e-02 6.693199e-02 -2.800213e-01
<VARIANCE> 25
 2.636194e+01 2.283561e+01 2.454024e+01 5.886881e+01 4.164741e+01 6.050898e+01 3.856401e+01 3.192272e+01 3.336028e+01 3.510119e+01 2.350990e+01 2.581855e+01 6.970316e-01 1.204650e+00 1.182868e+00 1.925211e+00 1.567948e+00 2.065242e+00 1.895290e+00 1.547149e+00 1.938233e+00 1.789903e+00 1.491504e+00 1.454255e+00 7.780224e-01
<GCONST> 9.271085e+01
<TRANSP> 5
 0.000000e+00 1.000000e+00 0.000000e+00 0.000000e+00 0.000000e+00
 0.000000e+00 2.946051e-01 7.053949e-01 0.000000e+00 0.000000e+00
 0.000000e+00 0.000000e+00 5.343689e-01 4.656310e-01 0.000000e+00
 0.000000e+00 0.000000e+00 0.000000e+00 8.150005e-01 1.849995e-01
 0.000000e+00 0.000000e+00 0.000000e+00 0.000000e+00 0.000000e+00
<ENDHMM>
~h "p"
<BEGINHMM>
<NUMSTATES> 5
<STATE> 2
<MEAN> 25
 -1.515821e+00 5.624765e+00 -1.881761e+00 -4.612087e-01 1.318523e+00 -2.469019e-01 -1.145586e-01 1.274602e+00 1.559065e+00 1.402151e+00 4.178540e-01 -8.614697e-01 -2.350169e+00 7.037120e-01 1.587170e-01 3.004940e-01 5.357953e-01 1.088122e+00 3.892250e-01 1.482235e-01 5.548041e-01 5.978961e-02 5.265314e-01 3.917722e-01 -2.141860e+00
<VARIANCE> 25
 8.340298e+01 3.330744e+01 2.903259e+01 4.131508e+01 4.147583e+01 5.065759e+01 3.009769e+01 3.617508e+01 3.481228e+01 3.081065e+01 2.335187e+01 1.932698e+01 4.632977e+00 4.605422e+00 2.831622e+00 3.970654e+00 3.302023e+00 4.555874e+00 2.863347e+00 3.152789e+00 3.782716e+00 3.038510e+00 2.599576e+00 2.184670e+00 5.008031e+00
<GCONST> 1.048802e+02
<STATE> 3
<MEAN> 25
 -6.748143e+00 4.066851e+00 -1.474411e+00 1.501675e+00 4.160707e+00 3.643954e+00 1.376625e+00 1.191231e+00 2.548958e+00 2.363680e+00 1.844049e+00 9.473796e-01 1.903405e+00 -1.722340e+00 -3.519032e-01 1.554886e-01 -6.233447e-01 3.595269e-01 7.427485e-02 -2.455577e-01 5.157150e-01 -3.738876e-01 -9.350339e-02 2.580274e-01 2.115266e+00
<VARIANCE> 25
 5.808801e+01 3.674641e+01 2.709016e+01 3.550656e+01 3.628883e+01 4.027302e+01 3.045594e+01 3.317991e+01 3.818728e+01 2.841492e+01 2.254360e+01 1.817374e+01 9.336421e+00 5.560793e+00 4.043301e+00 5.423281e+00 3.978803e+00 5.784011e+00 3.655327e+00 3.889295e+00 4.070189e+00 3.176220e+00 2.377892e+00 2.715871e+00 6.700208e+00
<GCONST> 1.068469e+02
<STATE> 4
<MEAN> 25
 -2.115139e+00 1.327537e+00 -2.582945e+00 1.944171e+00 6.322218e-01 3.240022e+00 1.067091e+00 5.449252e-01 4.199286e+00 -3.208358e-01 2.006623e+00 1.411768e+00 2.485069e+00 -8.229854e-01 -4.527940e-01 -8.395894e-01 -6.018401e-01 -1.291281e+00 -6.012304e-01 -1.770769e-01 -6.895188e-01 2.882848e-02 -5.312532e-01 -6.848714e-01 2.431819e+00
<VARIANCE> 25
 4.981770e+01 3.027931e+01 2.256074e+01 3.712300e+01 2.288798e+01 4.262599e+01 2.850882e+01 2.419585e+01 2.886478e+01 2.255124e+01 2.546951e+01 2.040978e+01 6.612660e+00 4.166354e+00 2.942426e+00 5.198876e+00 4.099590e+00 6.410223e+00 3.354910e+00 3.566866e+00 3.949294e+00 3.395277e+00 2.684408e+00 2.587550e+00 5.591290e+00
<GCONST> 1.041975e+02
<TRANSP> 5
 0.000000e+00 1.000000e+00 0.000000e+00 0.000000e+00 0.000000e+00
 0.000000e+00 6.574391e-01 3.425609e-01 0.000000e+00 0.000000e+00
 0.000000e+00 0.000000e+00 3.756582e-01 6.243418e-01 0.000000e+00
 0.000000e+00 0.000000e+00 0.000000e+00 6.075481e-01 3.924519e-01
 0.000000e+00 0.000000e+00 0.000000e+00 0.000000e+00 0.000000e+00
<ENDHMM>
~h "r"
<BEGINHMM>
<NUMSTATES> 5
<STATE> 2
<MEAN> 25
 6.868451e+00 -2.860961e+00 -1.830055e+00 1.153891e+00 -2.481507e+00 -2.255092e+00 -7.580142e-02 -4.807550e-01 -1.301021e+00 -4.744465e-01 3.687582e-01 7.812930e-01 2.520732e-01 2.478387e-01 -1.263796e-01 9.237894e-01 -2.785315e-01 -3.547164e-01 2.953389e-01 -6.034960e-01 -9.031048e-01 -5.850542e-01 7.275674e-01 4.540690e-01 -1.955676e-01
<VARIANCE> 25
 4.622393e+01 4.907691e+01 3.946275e+01 3.962751e+01 5.103424e+01 7.605310e+01 5.135860e+01 5.545163e+01 6.363469e+01 5.156293e+01 3.645827e+01 3.041708e+01 4.112840e+00 5.113388e+00 3.556927e+00 4.979276e+00 4.837131e+00 7.223114e+00 4.396726e+00 5.239671e+00 7.018014e+00 4.706741e+00 3.662545e+00 3.101345e+00 4.622262e+00
<GCONST> 1.124233e+02
<STATE> 3
<MEAN> 25
 8.814198e+00 -2.327106e+00 -2.316719e+00 2.540269e+00 -2.354452e+00 -2.977247e+00 2.576241e+00 -2.231559e+00 -7.504952e+00 -1.669850e+00 4.029950e+00 1.607696e+00 -3.944513e-01 8.090541e-02 4.498201e-01 3.424526e-01 6.543136e-02 3.370848e-01 -1.537807e-01 -6.063040e-01 -8.123732e-02 7.887679e-02 2.386944e-01 -1.726735e-01 -2.831103e-01
<VARIANCE> 25
 3.439678e+01 2.571535e+01 3.297698e+01 3.236549e+01 4.662452e+01 7.155345e+01 6.334516e+01 6.759548e+01 1.113635e+02 5.939248e+01 4.373389e+01 3.540688e+01 1.944031e+00 3.027213e+00 3.366466e+00 2.970806e+00 3.879726e+00 7.369640e+00 4.173531e+00 5.304155e+00 5.578305e+00 5.498877e+00 3.118960e+00 3.518631e+00 1.931404e+00
<GCONST> 1.093243e+02
<STATE> 4
<MEAN> 25
 6.293954e+00 -3.233214e+00 -5.077621e-01 3.132900e+00 -2.960711e+00 -3.438657e+00 -9.561252e-01 -1.756816e+00 -1.880360e+00 -1.917008e-01 1.706221e+00 4.913691e-02 -3.285127e-01 1.952953e-01 4.086283e-01 -3.973017e-01 2.058540e-01 3.790086e-02 -2.095774e-01 2.407047e-01 2.667591e-01 6.827072e-02 -1.220262e-01 -1.217740e-01 -1.020509e-01
<VARIANCE> 25
 2.879709e+01 2.742090e+01 4.162773e+01 3.842501e+01 4.436112e+01 7.308085e+01 5.322426e+01 6.692446e+01 7.410101e+01 3.934000e+01 3.628704e+01 2.990354e+01 1.343091e+00 2.070891e+00 2.234676e+00 2.791503e+00 2.670043e+00 3.682132e+00 2.305423e+00 3.486708e+00 3.651965e+00 2.891462e+00 2.471071e+00 2.238481e+00 1.453316e+00
<GCONST> 1.028899e+02
<TRANSP> 5
 0.000000e+00 1.000000e+00 0.000000e+00 0.000000e+00 0.000000e+00
 0.000000e+00 2.774720e-01 7.225280e-01 0.000000e+00 0.000000e+00
 0.000000e+00 0.000000e+00 4.146290e-01 5.853710e-01 0.000000e+00
 0.000000e+00 0.000000e+00 0.000000e+00 4.701962e-01 5.298038e-01
 0.000000e+00 0.000000e+00 0.000000e+00 0.000000e+00 0.000000e+00
<ENDHMM>
~h "s"
<BEGINHMM>
<NUMSTATES> 5
<STATE> 2
<MEAN> 25
 2.396831e-01 -4.173512e+00 9.022408e+00 1.937690e+00 -1.127154e-01 5.577718e+00 2.627683e+00 -1.276144e+00 2.282641e+00 -1.210777e+00 2.081255e+00 3.661232e+00 -2.067361e+00 -1.496350e+00 2.686143e+00 2.082423e-01 8.142583e-03 1.218408e+00 8.875945e-01 2.828577e-01 9.791793e-01 -7.964400e-01 8.759354e-01 8.809852e-01 6.874880e-01
<VARIANCE> 25
 5.801757e+01 7.495580e+01 1.163369e+02 3.858309e+01 4.992527e+01 9.617960e+01 4.350126e+01 4.937950e+01 2.962155e+01 3.628720e+01 3.047614e+01 2.269164e+01 4.471889e+00 9.219508e+00 9.908650e+00 4.090515e+00 5.253718e+00 5.930331e+00 5.118715e+00 4.689862e+00 3.935143e+00 3.863636e+00 3.198382e+00 2.341605e+00 2.250750e+00
<GCONST> 1.119867e+02
<STATE> 3
<MEAN> 25
 -5.300864e+00 -1.215019e+01 1.689127e+01 1.838627e+00 -1.317792e+00 9.916182e+00 3.674667e+00 -1.155634e+00 4.450274e+00 -3.324227e+00 4.288388e+00 6.070805e+00 4.375566e-02 1.059985e+00 -1.326239e+00 1.970120e-02 3.925354e-01 -4.434455e-01 -1.334018e-01 -1.760490e-01 -1.915541e-01 7.153143e-02 -1.505718e-01 -2.248974e-01 -4.623212e-01
<VARIANCE> 25
 3.135875e+01 1.210050e+02 1.264849e+02 3.490943e+01 3.897396e+01 9.405917e+01 3.703589e+01 3.667454e+01 2.816173e+01 2.826735e+01 2.386780e+01 1.900071e+01 5.266600e+00 6.260961e+00 5.260308e+00 2.627243e+00 3.023079e+00 3.015327e+00 3.382123e+00 2.504281e+00 2.351914e+00 2.407133e+00 2.115652e+00 1.602976e+00 1.723369e+00
<GCONST> 1.047661e+02
<STATE> 4
<MEAN> 25
 -6.918632e+00 3.779698e+00 6.646050e-01 1.844406e-01 3.001926e+00 -3.876361e+00 3.646277e+00 -1.984626e+00 2.462495e+00 -2.365252e+00 4.342918e-01 1.995476e+00 1.070061e+00 8.725728e-02 -5.715992e-01 -2.493590e-01 -4.043180e-01 -6.699637e-01 -5.231370e-01 -1.957010e-01 -3.996381e-01 1.994945e-01 -4.976067e-01 -4.315115e-01 3.611147e-02
<VARIANCE> 25
 5.825370e+01 4.518070e+01 4.696334e+01 3.097000e+01 3.740672e+01 6.917296e+01 3.589891e+01 3.702523e+01 2.785131e+01 2.670600e+01 2.349472e+01 1.874240e+01 6.442121e+00 4.697704e+00 5.665561e+00 2.831316e+00 3.789889e+00 4.352071e+00 3.595752e+00 3.261316e+00 3.148560e+00 2.824041e+00 2.787906e+00 2.146739e+00 2.103383e+00
<GCONST> 1.050227e+02
<TRANSP> 5
 0.000000e+00 1.000000e+00 0.000000e+00 0.000000e+00 0.000000e+00
 0.000000e+00 6.012796e-01 3.987204e-01 0.000000e+00 0.000000e+00
 0.000000e+00 0.000000e+00 6.596583e-01 3.403417e-01 0.000000e+00
 0.000000e+00 0.000000e+00 0.000000e+00 7.193104e-01 2.806896e-01
 0.000000e+00 0.000000e+00 0.000000e+00 0.000000e+00 0.000000e+00
<ENDHMM>
~h "t"
<BEGINHMM>
<NUMSTATES> 5
<STATE> 2
<MEAN> 25
 -1.666589e+00 4.246525e+00 1.789714e+00 2.469529e+00 2.367893e+00 7.889964e-01 2.002074e-01 -2.130924e+00 -1.229911e+00 4.766836e-01 3.758532e-01 6.741143e-01 -2.470486e+00 1.049120e+00 -8.734930e-01 2.378922e-01 6.732099e-01 1.004163e+00 6.787882e-01 8.602294e-01 1.101928e+00 -2.569850e-01 7.565273e-01 4.155364e-01 -2.597772e+00
<VARIANCE> 25
 6.437962e+01 3.411058e+01 3.443951e+01 4.610211e+01 5.635032e+01 6.344812e+01 4.236769e+01 5.412462e+01 5.204599e+01 3.141700e+01 3.224045e+01 2.213374e+01 3.850189e+00 5.149982e+00 3.113039e+00 4.652584e+00 4.515607e+00 6.058022e+00 4.613553e+00 4.664536e+00 4.859914e+00 3.333797e+00 3.875872e+00 2.062327e+00 6.243274e+00
<GCONST> 1.096340e+02
<STATE> 3
<MEAN> 25
 -5.474920e+00 6.770315e-01 4.514559e-01 9.453382e-01 6.910573e-01 4.028107e+00 1.041438e+00 -1.040951e+00 2.471035e+00 2.580970e-01 1.986724e+00 2.021138e+00 1.420511e+00 -2.020020e+00 2.838007e-01 -5.379742e-01 -1.739879e+00 5.312630e-01 -2.185819e-02 -4.316390e-01 8.561658e-01 -6.293854e-01 1.920893e-01 6.815584e-01 2.248905e+00
<VARIANCE> 25
 4.935586e+01 6.538785e+01 4.406810e+01 4.267954e+01 5.154930e+01 7.214981e+01 4.021757e+01 4.445803e+01 3.879003e+01 3.083345e+01 2.653856e+01 2.356369e+01 9.362410e+00 7.229657e+00 5.976068e+00 5.348943e+00 6.689819e+00 8.232926e+00 4.366941e+00 5.483269e+00 4.410260e+00 3.749934e+00 3.478042e+00 2.927693e+00 9.302620e+00
<GCONST> 1.130217e+02
<STATE> 4
<MEAN> 25
 -5.298522e+00 1.025347e+00 -9.414891e-01 2.430156e+00 -5.671396e-01 1.922399e+00 2.314862e+00 1.148850e+00 5.146715e+00 -1.527617e+00 3.271335e+00 3.696270e+00 1.080342e+00 -6.159701e-01 2.469183e-02 -8.103563e-01 -2.343335e-01 -9.304483e-01 -5.217890e-01 -1.849429e-01 -3.663796e-01 9.817721e-02 -5.379913e-01 -2.840964e-01 1.594162e+00
<VARIANCE> 25
 3.372897e+01 3.576725e+01 2.643431e+01 4.174553e+01 2.335922e+01 5.098377e+01 2.716985e+01 3.097859e+01 2.721323e+01 1.910720e+01 2.197103e+01 1.601818e+01 4.079301e+00 3.089015e+00 2.333384e+00 4.216949e+00 2.704005e+00 4.889264e+00 3.469479e+00 3.146168e+00 2.979168e+00 2.675474e+00 2.809160e+00 1.840618e+00 6.124560e+00
<GCONST> 1.013069e+02
<TRANSP> 5
 0.000000e+00 1.000000e+00 0.000000e+00 0.000000e+00 0.000000e+00
 0.000000e+00 5.922781e-01 4.077219e-01 0.000000e+00 0.000000e+00
 0.000000e+00 0.000000e+00 3.939645e-01 6.060354e-01 0.000000e+00
 0.000000e+00 0.000000e+00 0.000000e+00 6.977940e-01 3.022060e-01
 0.000000e+00 0.000000e+00 0.000000e+00 0.000000e+00 0.000000e+00
<ENDHMM>
~h "u"
<BEGINHMM>
<NUMSTATES> 5
<STATE> 2
<MEAN> 25
 6.963054e+00 4.316453e+00 3.702576e+00 1.877922e-01 -4.581717e+00 -7.190270e+00 -7.048069e+00 1.251549e+00 2.526428e+00 -4.639781e+00 -3.152958e+00 -9.938957e-01 6.652175e-01 7.531214e-01 -1.688868e-01 -4.351330e-01 -8.748439e-02 -1.230551e-01 -6.140987e-01 -4.113791e-01 -3.509405e-01 3.599798e-01 3.504757e-02 -2.956725e-01 1.151616e-01
<VARIANCE> 25
 2.762227e+01 5.366939e+01 6.538898e+01 5.000077e+01 6.673141e+01 1.154757e+02 6.064673e+01 8.656541e+01 5.867412e+01 6.364008e+01 5.303461e+01 3.020155e+01 3.549184e+00 3.809554e+00 4.022066e+00 3.917645e+00 5.221410e+00 9.458767e+00 5.524848e+00 6.474443e+00 5.629577e+00 4.733694e+00 3.632442e+00 2.813662e+00 2.342306e+00
<GCONST> 1.137572e+02
<STATE> 3
<MEAN> 25
 6.771315e+00 3.460327e+00 -4.626447e-01 -3.610408e+00 -2.815932e+00 -9.527986e-01 -5.925993e+00 -4.230919e+00 -1.786734e+00 -4.408346e-01 -8.625516e-02 -1.185732e+00 -6.392714e-02 3.148363e-01 -3.708300e-01 -5.796295e-01 2.084749e-01 1.007777e+00 3.672146e-01 -5.637884e-01 -8.048092e-01 2.738770e-01 6.465744e-01 2.493551e-01 -2.643673e-01
<VARIANCE> 25
 2.982904e+01 4.264033e+01 3.876208e+01 5.341871e+01 5.374046e+01 6.124485e+01 5.791364e+01 6.712016e+01 6.389719e+01 6.129419e+01 4.593703e+01 2.828332e+01 2.388393e+00 2.576457e+00 2.843608e+00 3.389373e+00 3.794238e+00 5.152069e+00 4.173771e+00 4.190229e+00 4.971808e+00 3.947964e+00 2.690446e+00 2.531173e+00 1.843099e+00
<GCONST> 1.079618e+02
<STATE> 4
<MEAN> 25
 5.373594e+00 5.508005e+00 -2.093525e+00 -5.155347e+00 -2.640769e+00 3.535948e+00 -2.513689e+00 -5.629795e+00 -4.248253e+00 -1.814344e+00 2.129583e+00 1.277685e+00 -4.045229e-01 -9.108732e-02 4.250650e-02 4.065786e-01 3.218397e-01 1.102909e-01 2.718981e-01 1.841933e-01 2.849224e-01 5.624418e-02 -2.164072e-02 2.029724e-03 -3.429539e-01
<VARIANCE> 25
 2.767103e+01 2.915392e+01 2.716175e+01 6.091512e+01 3.966447e+01 4.115643e+01 4.667588e+01 3.971901e+01 5.121365e+01 4.833380e+01 2.988286e+01 2.214780e+01 8.442276e-01 1.403207e+00 1.381604e+00 2.010149e+00 1.825804e+00 2.284628e+00 2.325028e+00 2.258966e+00 2.387679e+00 2.511511e+00 1.769274e+00 1.663605e+00 6.882477e-01
<GCONST> 9.605815e+01
<TRANSP> 5
 0.000000e+00 1.000000e+00 0.000000e+00 0.000000e+00 0.000000e+00
 0.000000e+00 5.659933e-01 4.340067e-01 0.000000e+00 0.000000e+00
 0.000000e+00 0.000000e+00 3.020649e-01 6.979352e-01 0.000000e+00
 0.000000e+00 0.000000e+00 0.000000e+00 7.789771e-01 2.210229e-01
 0.000000e+00 0.000000e+00 0.000000e+00 0.000000e+00 0.000000e+00
<ENDHMM>
~h "v"
<BEGINHMM>
<NUMSTATES> 5
<STATE> 2
<MEAN> 25
 1.539597e+00 -1.194325e+01 3.184154e+00 1.519072e+00 -1.902621e+00 1.359974e+01 1.773248e+00 -3.434509e+00 1.815605e+00 -2.522510e+00 3.298045e+00 2.856339e+00 -5.665739e-01 -8.922754e-01 -3.217500e-01 -1.078140e+00 -1.461590e+00 5.651650e-01 4.502248e-01 7.661778e-01 1.005521e+00 -2.425537e-01 -5.207727e-01 -1.949187e-01 -9.648774e-02
<VARIANCE> 25
 2.372892e+01 6.084224e+01 1.177381e+01 3.237786e+01 4.441782e+01 6.353316e+01 1.752390e+01 3.323619e+01 2.453644e+01 1.801840e+01 6.957999e+00 1.383147e+01 1.635775e+00 5.126908e+00 8.565857e-01 3.398676e+00 4.694855e+00 4.537257e+00 3.178358e+00 3.244396e+00 2.317075e+00 1.272258e+00 9.027465e-01 1.171888e+00 4.774770e-01
<GCONST> 9.312151e+01
<STATE> 3
<MEAN> 25
 1.552951e+00 -1.852351e+00 -2.559426e+00 3.179381e+00 1.031726e+00 1.613111e+00 2.707592e-01 -2.171806e+00 1.890467e+00 -8.144036e-01 -3.926155e-02 1.646686e+00 2.275558e+00 1.686663e+00 -1.257293e+00 8.785463e-01 1.025830e+00 -2.812190e+00 -4.998139e-01 -7.968152e-01 -1.698695e+00 -3.645994e-01 -9.716464e-01 -2.817040e-01 1.068038e+00
<VARIANCE> 25
 5.334286e+01 5.197478e+01 1.604258e+01 4.268660e+01 3.310335e+01 9.350708e+01 3.614166e+01 2.313254e+01 4.668958e+01 3.896620e+01 1.169160e+01 2.515430e+01 6.079864e+00 9.406212e+00 3.110681e+00 1.963873e+00 6.710543e+00 8.996093e+00 4.429412e+00 4.162019e+00 6.419558e+00 2.778910e+00 1.615945e+00 2.061696e+00 2.901262e+00
<GCONST> 1.063809e+02
<STATE> 4
<MEAN> 25
 8.613105e+00 -7.308383e+00 6.720825e+00 1.495794e+01 6.564868e+00 -3.447245e+00 -9.467650e+00 -5.829542e+00 -3.829073e+00 -8.482143e+00 -1.780195e+00 6.122057e-01 -1.294615e-01 -1.484363e-01 4.755773e-01 1.345940e-01 -1.617088e-01 -2.010059e-02 -3.068352e-01 -1.837723e-01 2.271651e-01 4.614437e-02 -2.913365e-01 -2.800994e-01 3.917386e-02
<VARIANCE> 25
 2.346434e+01 2.395538e+01 7.283813e+01 6.362637e+01 4.473595e+01 6.297886e+01 5.443149e+01 5.498976e+01 8.704767e+01 2.734762e+01 4.178191e+01 3.381833e+01 1.838414e+00 2.867509e+00 2.809193e+00 2.858777e+00 3.554912e+00 6.030849e+00 3.571318e+00 3.899295e+00 3.765143e+00 2.519610e+00 2.201903e+00 2.322794e+00 1.847864e+00
<GCONST> 1.056367e+02
<TRANSP> 5
 0.000000e+00 1.000000e+00 0.000000e+00 0.000000e+00 0.000000e+00
 0.000000e+00 7.144685e-01 2.855315e-01 0.000000e+00 0.000000e+00
 0.000000e+00 0.000000e+00 6.176767e-01 3.823234e-01 0.000000e+00
 0.000000e+00 0.000000e+00 0.000000e+00 9.159425e-01 8.405753e-02
 0.000000e+00 0.000000e+00 0.000000e+00 0.000000e+00 0.000000e+00
<ENDHMM>
~h "w"
<BEGINHMM>
<NUMSTATES> 5
<STATE> 2
<MEAN> 25
 -5.777667e+00 1.981946e+00 -2.275983e+00 -1.676000e+00 5.420502e-01 1.941436e+00 -6.427190e-01 -3.720442e-01 2.849184e-02 9.772978e-01 3.066471e+00 3.638024e-01 1.538330e-01 3.242640e-01 1.063310e-01 4.954015e-02 -9.766491e-02 5.559606e-02 1.520374e-01 1.835916e-03 -1.147520e-01 -7.164372e-02 4.484796e-02 1.628354e-01 -1.336299e-01
<VARIANCE> 25
 1.157048e+02 2.066703e+01 1.552225e+01 6.810448e+01 4.131763e+01 3.584538e+01 2.602166e+01 2.711675e+01 3.005239e+01 2.508287e+01 2.348296e+01 2.334723e+01 8.512534e-01 8.197547e-01 6.483089e-01 1.297699e+00 9.229047e-01 1.351237e+00 1.273260e+00 1.523964e+00 1.470344e+00 1.716072e+00 1.460384e+00 1.952996e+00 5.441361e-01
<GCONST> 8.919740e+01
<STATE> 3
<MEAN> 25
 1.152224e-01 4.913324e+00 -3.575967e+00 -4.114796e+00 2.450497e-01 2.581293e+00 -1.119588e+00 -1.005854e+00 -1.812724e+00 5.149691e-01 4.453104e-01 -1.799461e+00 3.013216e+00 2.236384e-01 -1.137955e+00 -1.181036e+00 -1.877882e-01 5.363945e-01 -5.772798e-02 -7.303448e-01 -8.430771e-02 1.651129e-01 -7.181637e-01 -8.530463e-01 2.080457e+00
<VARIANCE> 25
 1.548532e+02 3.906713e+01 3.193229e+01 5.433006e+01 6.176159e+01 6.060197e+01 2.784926e+01 2.811363e+01 3.232620e+01 2.781897e+01 2.819253e+01 2.554351e+01 8.469464e+00 3.963798e+00 4.503663e+00 5.253858e+00 4.737358e+00 3.722861e+00 2.476296e+00 2.670236e+00 3.824962e+00 2.323723e+00 2.699214e+00 2.609424e+00 4.764516e+00
<GCONST> 1.075195e+02
<STATE> 4
<MEAN> 25
 1.054468e+01 -3.312878e+00 -7.720137e+00 -9.278425e+00 3.359213e+00 7.058585e+00 -3.020141e+00 -3.435423e+00 4.712508e-01 2.596365e+00 -4.264385e+00 -4.713413e+00 -2.570486e-01 -5.637778e-01 1.289204e-01 4.333580e-01 6.566667e-01 2.767668e-03 1.960772e-01 3.445109e-01 4.433280e-01 4.305848e-02 -4.487984e-01 -1.884600e-01 1.962194e-01
<VARIANCE> 25
 1.257134e+01 3.363072e+01 2.533784e+01 5.102560e+01 5.694785e+01 4.741833e+01 2.140837e+01 2.211884e+01 2.822579e+01 2.312799e+01 2.742669e+01 2.073246e+01 5.376103e-01 1.752403e+00 1.233068e+00 1.547199e+00 1.646944e+00 1.516852e+00 1.552351e+00 1.182891e+00 1.408098e+00 1.205730e+00 1.288010e+00 1.551385e+00 9.244636e-01
<GCONST> 8.929690e+01
<TRANSP> 5
 0.000000e+00 1.000000e+00 0.000000e+00 0.000000e+00 0.000000e+00
 0.000000e+00 7.462622e-01 2.537378e-01 0.000000e+00 0.000000e+00
 0.000000e+00 0.000000e+00 6.640941e-01 3.359059e-01 0.000000e+00
 0.000000e+00 0.000000e+00 0.000000e+00 8.053733e-01 1.946268e-01
 0.000000e+00 0.000000e+00 0.000000e+00 0.000000e+00 0.000000e+00
<ENDHMM>
~h "y"
<BEGINHMM>
<NUMSTATES> 5
<STATE> 2
<MEAN> 25
 3.780170e+00 -1.990737e+00 5.736642e+00 1.966503e+00 -3.063336e+00 -5.804099e+00 -3.137204e+00 -1.046247e+00 -4.078445e+00 1.669144e+00 1.554166e+00 5.618969e-01 1.043979e+00 -7.416335e-01 2.610992e-01 -5.930962e-02 -6.783101e-01 -9.402909e-01 1.315150e-01 4.341046e-01 -3.028826e-01 -1.130409e-02 9.383341e-02 4.585988e-01 1.332826e+00
<VARIANCE> 25
 6.330594e+01 5.343198e+01 6.414391e+01 8.385549e+01 6.934638e+01 5.151064e+01 6.064558e+01 8.563945e+01 5.644090e+01 2.957562e+01 2.869946e+01 2.805920e+01 3.863222e+00 4.099177e+00 4.356218e+00 5.500769e+00 4.267097e+00 4.387012e+00 4.002137e+00 4.820739e+00 3.851847e+00 2.702824e+00 2.316355e+00 2.335925e+00 2.837105e+00
<GCONST> 1.104131e+02
<STATE> 3
<MEAN> 25
 5.300906e+00 -7.211715e+00 3.728559e+00 -1.188152e+00 -5.749763e+00 -8.238779e+00 5.755356e-01 6.495181e+00 -2.881835e+00 -3.435951e-03 -2.867535e-01 1.065921e+00 7.438501e-02 -1.550678e-01 -5.426602e-01 -4.654241e-02 5.290078e-01 4.456915e-01 2.197496e-01 1.007591e-01 3.632904e-01 -6.881683e-02 -5.700353e-01 -1.899692e-01 -7.789882e-02
<VARIANCE> 25
 2.656063e+01 2.049272e+01 3.894490e+01 2.756851e+01 3.719579e+01 3.125303e+01 4.396759e+01 7.136819e+01 3.624829e+01 2.882117e+01 4.534616e+01 2.664410e+01 2.262363e-01 7.333261e-01 1.299470e+00 9.640534e-01 1.775948e+00 1.280381e+00 1.227728e+00 1.931731e+00 1.506450e+00 1.078724e+00 1.629498e+00 1.185957e+00 3.364340e-01
<GCONST> 8.855234e+01
<STATE> 4
<MEAN> 25
 -1.868185e+00 1.371902e+00 -2.032388e+00 5.095528e+00 2.905311e+00 2.026369e+00 3.825091e+00 2.021182e-01 1.672179e+00 -1.543343e+00 -1.611901e+00 2.305446e+00 -7.311499e-02 1.305820e-01 -3.146581e-02 5.864311e-02 9.671103e-02 1.714512e-01 7.037622e-02 -7.044220e-02 2.421393e-02 -2.298834e-02 -3.078776e-02 2.200057e-02 -1.683655e-01
<VARIANCE> 25
 4.158237e+01 3.650468e+01 1.931380e+01 3.390797e+01 2.808542e+01 3.174486e+01 3.356368e+01 4.455264e+01 3.071222e+01 2.552154e+01 3.726606e+01 2.822256e+01 2.100276e-01 5.033095e-01 7.317230e-01 8.883353e-01 1.220775e+00 1.342664e+00 1.522086e+00 1.673711e+00 1.675677e+00 1.549719e+00 1.504119e+00 1.221010e+00 2.027172e-01
<GCONST> 8.619966e+01
<TRANSP> 5
 0.000000e+00 1.000000e+00 0.000000e+00 0.000000e+00 0.000000e+00
 0.000000e+00 7.007192e-01 2.992808e-01 0.000000e+00 0.000000e+00
 0.000000e+00 0.000000e+00 8.137333e-01 1.862667e-01 0.000000e+00
 0.000000e+00 0.000000e+00 0.000000e+00 8.690835e-01 1.309166e-01
 0.000000e+00 0.000000e+00 0.000000e+00 0.000000e+00 0.000000e+00
<ENDHMM>
~h "z"
<BEGINHMM>
<NUMSTATES> 5
<STATE> 2
<MEAN> 25
 0.000000e+00 0.000000e+00 0.000000e+00 0.000000e+00 0.000000e+00 0.000000e+00 0.000000e+00 0.000000e+00 0.000000e+00 0.000000e+00 0.000000e+00 0.000000e+00 0.000000e+00 0.000000e+00 0.000000e+00 0.000000e+00 0.000000e+00 0.000000e+00 0.000000e+00 0.000000e+00 0.000000e+00 0.000000e+00 0.000000e+00 0.000000e+00 0.000000e+00
<VARIANCE> 25
 1.000000e+00 1.000000e+00 1.000000e+00 1.000000e+00 1.000000e+00 1.000000e+00 1.000000e+00 1.000000e+00 1.000000e+00 1.000000e+00 1.000000e+00 1.000000e+00 1.000000e+00 1.000000e+00 1.000000e+00 1.000000e+00 1.000000e+00 1.000000e+00 1.000000e+00 1.000000e+00 1.000000e+00 1.000000e+00 1.000000e+00 1.000000e+00 1.000000e+00
<GCONST> 4.594693e+01
<STATE> 3
<MEAN> 25
 0.000000e+00 0.000000e+00 0.000000e+00 0.000000e+00 0.000000e+00 0.000000e+00 0.000000e+00 0.000000e+00 0.000000e+00 0.000000e+00 0.000000e+00 0.000000e+00 0.000000e+00 0.000000e+00 0.000000e+00 0.000000e+00 0.000000e+00 0.000000e+00 0.000000e+00 0.000000e+00 0.000000e+00 0.000000e+00 0.000000e+00 0.000000e+00 0.000000e+00
<VARIANCE> 25
 1.000000e+00 1.000000e+00 1.000000e+00 1.000000e+00 1.000000e+00 1.000000e+00 1.000000e+00 1.000000e+00 1.000000e+00 1.000000e+00 1.000000e+00 1.000000e+00 1.000000e+00 1.000000e+00 1.000000e+00 1.000000e+00 1.000000e+00 1.000000e+00 1.000000e+00 1.000000e+00 1.000000e+00 1.000000e+00 1.000000e+00 1.000000e+00 1.000000e+00
<GCONST> 4.594693e+01
<STATE> 4
<MEAN> 25
 0.000000e+00 0.000000e+00 0.000000e+00 0.000000e+00 0.000000e+00 0.000000e+00 0.000000e+00 0.000000e+00 0.000000e+00 0.000000e+00 0.000000e+00 0.000000e+00 0.000000e+00 0.000000e+00 0.000000e+00 0.000000e+00 0.000000e+00 0.000000e+00 0.000000e+00 0.000000e+00 0.000000e+00 0.000000e+00 0.000000e+00 0.000000e+00 0.000000e+00
<VARIANCE> 25
 1.000000e+00 1.000000e+00 1.000000e+00 1.000000e+00 1.000000e+00 1.000000e+00 1.000000e+00 1.000000e+00 1.000000e+00 1.000000e+00 1.000000e+00 1.000000e+00 1.000000e+00 1.000000e+00 1.000000e+00 1.000000e+00 1.000000e+00 1.000000e+00 1.000000e+00 1.000000e+00 1.000000e+00 1.000000e+00 1.000000e+00 1.000000e+00 1.000000e+00
<GCONST> 4.594693e+01
<TRANSP> 5
 0.000000e+00 1.000000e+00 0.000000e+00 0.000000e+00 0.000000e+00
 0.000000e+00 6.000000e-01 4.000000e-01 0.000000e+00 0.000000e+00
 0.000000e+00 0.000000e+00 6.000000e-01 4.000000e-01 0.000000e+00
 0.000000e+00 0.000000e+00 0.000000e+00 7.000000e-01 3.000000e-01
 0.000000e+00 0.000000e+00 0.000000e+00 0.000000e+00 0.000000e+00
<ENDHMM>
~h "aw"
<BEGINHMM>
<NUMSTATES> 5
<STATE> 2
<MEAN> 25
 0.000000e+00 0.000000e+00 0.000000e+00 0.000000e+00 0.000000e+00 0.000000e+00 0.000000e+00 0.000000e+00 0.000000e+00 0.000000e+00 0.000000e+00 0.000000e+00 0.000000e+00 0.000000e+00 0.000000e+00 0.000000e+00 0.000000e+00 0.000000e+00 0.000000e+00 0.000000e+00 0.000000e+00 0.000000e+00 0.000000e+00 0.000000e+00 0.000000e+00
<VARIANCE> 25
 1.000000e+00 1.000000e+00 1.000000e+00 1.000000e+00 1.000000e+00 1.000000e+00 1.000000e+00 1.000000e+00 1.000000e+00 1.000000e+00 1.000000e+00 1.000000e+00 1.000000e+00 1.000000e+00 1.000000e+00 1.000000e+00 1.000000e+00 1.000000e+00 1.000000e+00 1.000000e+00 1.000000e+00 1.000000e+00 1.000000e+00 1.000000e+00 1.000000e+00
<GCONST> 4.594693e+01
<STATE> 3
<MEAN> 25
 0.000000e+00 0.000000e+00 0.000000e+00 0.000000e+00 0.000000e+00 0.000000e+00 0.000000e+00 0.000000e+00 0.000000e+00 0.000000e+00 0.000000e+00 0.000000e+00 0.000000e+00 0.000000e+00 0.000000e+00 0.000000e+00 0.000000e+00 0.000000e+00 0.000000e+00 0.000000e+00 0.000000e+00 0.000000e+00 0.000000e+00 0.000000e+00 0.000000e+00
<VARIANCE> 25
 1.000000e+00 1.000000e+00 1.000000e+00 1.000000e+00 1.000000e+00 1.000000e+00 1.000000e+00 1.000000e+00 1.000000e+00 1.000000e+00 1.000000e+00 1.000000e+00 1.000000e+00 1.000000e+00 1.000000e+00 1.000000e+00 1.000000e+00 1.000000e+00 1.000000e+00 1.000000e+00 1.000000e+00 1.000000e+00 1.000000e+00 1.000000e+00 1.000000e+00
<GCONST> 4.594693e+01
<STATE> 4
<MEAN> 25
 0.000000e+00 0.000000e+00 0.000000e+00 0.000000e+00 0.000000e+00 0.000000e+00 0.000000e+00 0.000000e+00 0.000000e+00 0.000000e+00 0.000000e+00 0.000000e+00 0.000000e+00 0.000000e+00 0.000000e+00 0.000000e+00 0.000000e+00 0.000000e+00 0.000000e+00 0.000000e+00 0.000000e+00 0.000000e+00 0.000000e+00 0.000000e+00 0.000000e+00
<VARIANCE> 25
 1.000000e+00 1.000000e+00 1.000000e+00 1.000000e+00 1.000000e+00 1.000000e+00 1.000000e+00 1.000000e+00 1.000000e+00 1.000000e+00 1.000000e+00 1.000000e+00 1.000000e+00 1.000000e+00 1.000000e+00 1.000000e+00 1.000000e+00 1.000000e+00 1.000000e+00 1.000000e+00 1.000000e+00 1.000000e+00 1.000000e+00 1.000000e+00 1.000000e+00
<GCONST> 4.594693e+01
<TRANSP> 5
 0.000000e+00 1.000000e+00 0.000000e+00 0.000000e+00 0.000000e+00
 0.000000e+00 6.000000e-01 4.000000e-01 0.000000e+00 0.000000e+00
 0.000000e+00 0.000000e+00 6.000000e-01 4.000000e-01 0.000000e+00
 0.000000e+00 0.000000e+00 0.000000e+00 7.000000e-01 3.000000e-01
 0.000000e+00 0.000000e+00 0.000000e+00 0.000000e+00 0.000000e+00
<ENDHMM>
~h "ay"
<BEGINHMM>
<NUMSTATES> 5
<STATE> 2
<MEAN> 25
 -4.798606e+00 -1.259358e+01 -9.760537e+00 -2.852542e-01 -2.999493e-01 2.043856e-01 6.912616e+00 -2.207887e+00 -1.053741e+01 -1.489049e+00 2.823912e+00 -7.681101e-01 -8.749235e-02 9.950892e-01 -2.256565e-01 -3.563992e-01 6.949143e-01 1.329731e-01 5.782532e-02 -1.641829e-02 -7.524865e-01 -1.029600e-01 1.573135e-01 2.985150e-01 -3.752075e-01
<VARIANCE> 25
 4.171409e+01 6.646368e+01 1.286541e+02 1.619994e+01 3.092696e+01 6.245431e+01 1.356794e+01 3.331401e+01 2.343673e+01 2.264424e+01 1.851855e+01 1.148857e+01 1.555617e-01 1.019080e+00 2.282696e+00 6.623788e-01 2.166147e+00 5.610181e+00 2.052350e+00 1.966956e+00 1.098503e+00 8.559176e-01 1.616538e+00 8.070278e-01 4.682197e-01
<GCONST> 8.874072e+01
<STATE> 3
<MEAN> 25
 -6.640876e+00 -3.634598e+00 -1.583653e+01 -7.544196e+00 2.778640e+00 2.170987e+00 1.133649e+01 4.628042e+00 -1.221162e+01 -3.298883e+00 4.880612e+00 3.792500e+00 -1.124039e-01 1.217225e-01 -1.842966e-01 -3.862008e-01 -3.556059e-01 -1.129062e-01 -1.207107e-01 1.597211e-01 -1.449355e-02 1.905290e-01 1.953927e-01 3.970243e-02 -1.576266e-01
<VARIANCE> 25
 3.613296e+01 5.481548e+00 9.990211e+01 1.311552e+01 2.111282e+01 4.353067e+01 1.846191e+01 2.182808e+01 1.600124e+01 2.497727e+01 1.466172e+01 1.073797e+01 2.861315e-01 4.401512e-01 6.527473e-01 8.199245e-01 7.920167e-01 1.535740e+00 9.307766e-01 1.740398e+00 2.491401e+00 1.890267e+00 1.045799e+00 1.510388e+00 1.275250e-01
<GCONST> 8.021387e+01
<STATE> 4
<MEAN> 25
 -1.444170e+00 1.040988e+00 4.956884e+00 -3.624058e+00 -2.053649e-01 -6.355783e+00 1.573663e+00 -2.951202e+00 -3.901690e+00 -3.218020e+00 -1.002891e+00 3.358648e+00 2.932560e-01 -4.633348e-01 -7.804694e-01 -1.735504e-01 4.547800e-01 1.799577e-02 -8.734705e-02 1.886513e-01 2.806708e-01 4.692471e-01 -2.504161e-01 -2.827207e-01 1.549240e-01
<VARIANCE> 25
 4.240578e+01 1.664071e+01 1.247713e+02 1.822161e+01 1.756186e+01 1.945937e+01 2.665757e+01 2.499118e+01 3.771541e+01 2.508501e+01 2.131333e+01 9.300984e+00 2.495297e+00 2.021353e+00 2.980369e+00 1.201843e+00 1.086218e+00 1.317433e+00 2.290828e+00 2.833997e+00 2.943035e+00 1.976663e+00 1.615375e+00 1.542639e+00 1.290966e+00
<GCONST> 9.276496e+01
<TRANSP> 5
 0.000000e+00 1.000000e+00 0.000000e+00 0.000000e+00 0.000000e+00
 0.000000e+00 7.479520e-01 2.520480e-01 0.000000e+00 0.000000e+00
 0.000000e+00 0.000000e+00 8.040838e-01 1.959163e-01 0.000000e+00
 0.000000e+00 0.000000e+00 0.000000e+00 8.215553e-01 1.784447e-01
 0.000000e+00 0.000000e+00 0.000000e+00 0.000000e+00 0.000000e+00
<ENDHMM>
~h "eu"
<BEGINHMM>
<NUMSTATES> 5
<STATE> 2
<MEAN> 25
 4.020411e+00 -6.637374e-01 7.229091e-02 -3.465999e-01 -6.187498e-01 -2.407900e+00 -1.856694e+00 -5.125362e-01 1.116615e-01 1.283768e+00 -5.034089e-01 -7.864411e-01 1.193286e+00 -7.285371e-01 -2.010994e-01 -5.164171e-01 -3.767098e-01 -8.414694e-01 -2.665671e-01 2.940699e-01 -3.867409e-01 4.275683e-01 -3.805338e-01 -2.343839e-01 1.258511e+00
<VARIANCE> 25
 5.298602e+01 4.344532e+01 4.104408e+01 4.201860e+01 5.122464e+01 5.974281e+01 4.666319e+01 5.565463e+01 4.987186e+01 4.413954e+01 3.891294e+01 2.777685e+01 5.127241e+00 5.356252e+00 4.619054e+00 4.882630e+00 5.403035e+00 6.061801e+00 5.116069e+00 4.828971e+00 5.086820e+00 4.655819e+00 3.759165e+00 3.281487e+00 4.723832e+00
<GCONST> 1.120665e+02
<STATE> 3
<MEAN> 25
 5.911541e+00 -2.249750e+00 -9.897061e-02 -1.135693e+00 -1.448573e+00 -3.438168e+00 -1.935743e+00 -9.957354e-02 -4.664391e-01 1.585685e+00 -1.164976e+00 -8.277830e-01 4.574155e-01 -5.226743e-01 -7.889949e-02 -1.713679e-01 -1.661901e-01 -2.954853e-01 -1.254230e-02 3.169331e-02 -3.227018e-01 2.954841e-01 -1.371039e-01 -1.038924e-01 5.382185e-01
<VARIANCE> 25
 4.685366e+01 4.930896e+01 4.306501e+01 4.838926e+01 6.224377e+01 6.657996e+01 5.034181e+01 5.805381e+01 4.890212e+01 4.878572e+01 3.915358e+01 2.813774e+01 2.269985e+00 3.308151e+00 3.178557e+00 2.937177e+00 3.428649e+00 4.112175e+00 3.625516e+00 3.230147e+00 3.820513e+00 3.182686e+00 2.620439e+00 2.421448e+00 2.047654e+00
<GCONST> 1.068448e+02
<STATE> 4
<MEAN> 25
 2.584593e+00 -1.673859e+00 2.564687e-01 -2.031522e-01 3.872474e-01 -2.329707e+00 -1.353171e+00 -7.044163e-02 -5.874067e-01 2.084848e+00 -8.365160e-01 -4.347427e-01 -1.069792e-01 1.931393e-01 8.150730e-02 2.509149e-01 7.399783e-02 1.642679e-01 1.237538e-01 -8.791073e-02 -1.039910e-01 -8.431041e-02 6.956954e-02 1.711310e-02 -2.978483e-01
<VARIANCE> 25
 6.427457e+01 4.385733e+01 4.267118e+01 5.008293e+01 4.810344e+01 6.236557e+01 3.622761e+01 4.059804e+01 5.029038e+01 4.266993e+01 3.392399e+01 2.967193e+01 7.867966e-01 1.264676e+00 1.357790e+00 1.440391e+00 1.736849e+00 1.780543e+00 1.729035e+00 1.788828e+00 2.033914e+00 1.753819e+00 1.612014e+00 1.400975e+00 7.592141e-01
<GCONST> 9.617863e+01
<TRANSP> 5
 0.000000e+00 1.000000e+00 0.000000e+00 0.000000e+00 0.000000e+00
 0.000000e+00 2.927464e-01 7.072536e-01 0.000000e+00 0.000000e+00
 0.000000e+00 0.000000e+00 6.695236e-02 9.330476e-01 0.000000e+00
 0.000000e+00 0.000000e+00 0.000000e+00 6.781052e-01 3.218949e-01
 0.000000e+00 0.000000e+00 0.000000e+00 0.000000e+00 0.000000e+00
<ENDHMM>
~h "kh"
<BEGINHMM>
<NUMSTATES> 5
<STATE> 2
<MEAN> 25
 5.101724e-01 -5.473963e+00 5.511606e-01 4.663459e+00 -5.777090e+00 -7.598997e+00 -1.514457e+00 8.267396e+00 -3.485322e+00 1.331788e+00 -8.857350e-01 -1.967149e+00 -1.062622e-01 2.656444e-01 2.695270e-02 5.709862e-01 1.269513e-01 -5.810962e-01 6.848983e-01 -6.040480e-01 4.649084e-01 -4.957458e-01 1.393994e-01 6.217163e-01 -4.492743e-01
<VARIANCE> 25
 2.841339e+00 4.536531e+00 1.534676e+01 3.632239e+01 7.697982e+01 6.306488e+00 1.476227e+01 3.391666e+01 2.978599e+01 2.051197e+01 2.166681e+01 1.011163e+01 4.577675e-01 1.228304e+00 8.711184e-01 1.040358e+00 6.644425e+00 1.086451e+00 3.173130e+00 4.523757e+00 4.336460e+00 3.073128e+00 2.433886e+00 9.827347e-01 2.224640e+00
<GCONST> 8.726032e+01
<STATE> 3
<MEAN> 25
 1.145242e+00 -3.182945e+00 1.486706e+00 3.180881e+00 -6.494255e+00 -1.094345e+01 -2.289944e-01 7.824883e+00 -9.018884e-01 1.163893e+00 -1.507729e+00 -1.005604e+00 3.505752e-01 -2.322545e-01 8.577032e-02 -3.964990e-01 -3.751770e-01 6.759008e-01 -1.196637e+00 3.165096e-01 -8.025724e-01 4.709107e-01 -5.029717e-01 -5.590778e-01 -2.070495e-01
<VARIANCE> 25
 4.846182e+00 5.951839e+00 7.634461e+00 2.300254e+01 9.975997e+00 1.140800e+01 4.492889e+01 4.478580e+01 4.909788e+01 2.144847e+01 7.083849e+00 1.300021e+01 3.603074e-01 1.074407e+00 4.414172e-01 2.059008e+00 1.498146e+00 1.611167e+00 8.757821e-01 4.852921e+00 7.566557e+00 1.851300e+00 4.197336e-01 1.262120e+00 1.506740e+00
<GCONST> 8.199860e+01
<STATE> 4
<MEAN> 25
 -5.426482e-01 -9.652943e+00 -8.637615e-02 -4.889861e+00 -3.857508e+00 -3.422522e+00 -3.088301e+00 6.238124e+00 -4.874927e+00 3.117131e+00 -1.292167e+01 3.988699e+00 -9.416343e-02 6.050473e-02 -5.706288e-02 1.279532e-01 6.393379e-01 3.562418e-01 4.706217e-01 1.060279e-01 2.829264e-01 1.429480e-01 -3.442677e-01 2.842852e-01 1.469566e-02
<VARIANCE> 25
 2.655837e+00 9.789054e+00 2.642389e+01 1.935943e+01 2.907274e+01 1.528573e+01 1.893909e+01 5.490509e+01 2.465145e+01 1.855184e+01 2.786023e+01 2.300021e+01 3.856808e-01 8.212175e-01 1.953674e+00 1.430942e+00 1.261757e+00 1.308734e+00 1.596422e+00 2.226691e+00 2.162293e+00 7.736216e-01 1.426833e+00 8.709548e-01 1.357987e+00
<GCONST> 8.376003e+01
<TRANSP> 5
 0.000000e+00 1.000000e+00 0.000000e+00 0.000000e+00 0.000000e+00
 0.000000e+00 8.333772e-01 1.666228e-01 0.000000e+00 0.000000e+00
 0.000000e+00 0.000000e+00 8.000014e-01 1.999986e-01 0.000000e+00
 0.000000e+00 0.000000e+00 0.000000e+00 8.949032e-01 1.050968e-01
 0.000000e+00 0.000000e+00 0.000000e+00 0.000000e+00 0.000000e+00
<ENDHMM>
~h "ng"
<BEGINHMM>
<NUMSTATES> 5
<STATE> 2
<MEAN> 25
 6.692778e+00 1.774651e-01 -1.882476e+00 -2.168727e+00 -1.855653e+00 -7.619454e-01 -5.375565e-01 6.849289e-02 -1.050393e+00 2.170576e+00 1.232575e-01 -3.686913e+00 -6.995457e-01 1.714023e+00 4.145984e-01 1.139422e+00 3.941562e-01 7.042727e-01 -4.688619e-01 -1.109429e+00 1.458324e-01 4.108942e-01 1.741776e-01 -4.481965e-01 -1.621832e+00
<VARIANCE> 25
 1.805750e+01 3.249395e+01 3.563570e+01 3.818321e+01 6.323079e+01 6.014932e+01 6.260469e+01 5.882294e+01 6.102428e+01 3.861584e+01 3.226157e+01 3.443222e+01 7.975491e-01 1.802125e+00 2.268780e+00 2.626597e+00 4.158800e+00 3.347914e+00 6.429229e+00 3.776604e+00 5.583708e+00 3.061325e+00 3.451725e+00 2.539352e+00 1.201622e+00
<GCONST> 1.039342e+02
<STATE> 3
<MEAN> 25
 4.379258e+00 4.345687e+00 7.007278e-01 1.132828e+00 3.366150e-01 6.344584e-01 -3.484835e+00 -3.085763e+00 1.135316e+00 1.583553e+00 -1.402870e+00 -2.963250e+00 -5.849667e-01 8.032290e-01 7.759137e-01 6.173453e-01 2.956399e-01 1.827904e-01 1.772070e-02 -1.843739e-01 1.107639e-02 -7.482855e-02 -9.813008e-02 1.186086e-01 -7.407209e-01
<VARIANCE> 25
 1.568416e+01 3.078223e+01 2.918496e+01 2.842230e+01 4.602708e+01 5.790059e+01 9.124684e+01 5.278516e+01 8.460046e+01 3.923369e+01 3.749680e+01 3.160262e+01 6.647859e-01 9.915436e-01 1.530736e+00 1.434891e+00 1.941706e+00 1.799487e+00 2.913599e+00 2.269877e+00 2.799416e+00 2.075729e+00 1.980294e+00 1.646256e+00 5.300469e-01
<GCONST> 9.621700e+01
<STATE> 4
<MEAN> 25
 2.525544e+00 4.837032e+00 2.324741e+00 2.372409e+00 -4.997233e-01 1.507170e+00 6.038426e-01 -3.659305e+00 -3.039567e+00 1.393737e+00 -2.136381e-01 -2.598473e+00 -4.477195e-01 -4.505228e-02 2.606776e-03 1.873748e-01 1.365322e-01 -1.123668e-01 1.553177e-01 3.529963e-01 1.225313e-01 -3.361841e-01 5.712435e-03 1.770498e-01 -2.537964e-01
<VARIANCE> 25
 2.233932e+01 3.236327e+01 2.594551e+01 2.802626e+01 3.780631e+01 4.111088e+01 4.260423e+01 4.598415e+01 6.979163e+01 3.476636e+01 2.496066e+01 2.603330e+01 9.526263e-01 1.249465e+00 1.285625e+00 1.261565e+00 1.675723e+00 1.954070e+00 1.885761e+00 2.080357e+00 2.146523e+00 1.873611e+00 1.517015e+00 1.393486e+00 7.528372e-01
<GCONST> 9.338647e+01
<TRANSP> 5
 0.000000e+00 1.000000e+00 0.000000e+00 0.000000e+00 0.000000e+00
 0.000000e+00 5.153229e-01 4.846771e-01 0.000000e+00 0.000000e+00
 0.000000e+00 0.000000e+00 5.107366e-01 4.892634e-01 0.000000e+00
 0.000000e+00 0.000000e+00 0.000000e+00 6.418310e-01 3.581690e-01
 0.000000e+00 0.000000e+00 0.000000e+00 0.000000e+00 0.000000e+00
<ENDHMM>
~h "ny"
<BEGINHMM>
<NUMSTATES> 5
<STATE> 2
<MEAN> 25
 3.695243e+00 2.007153e+00 4.285786e+00 4.946288e+00 1.246098e+00 -3.675115e-01 -3.922245e+00 -4.863353e+00 -3.623127e+00 -8.073899e-01 1.885408e+00 -4.619939e-01 2.568861e-01 -4.276597e-01 5.900514e-01 2.957589e-02 -6.465034e-01 -6.869838e-01 -4.441276e-01 4.439793e-02 -4.014876e-01 -2.033179e-01 4.514923e-01 3.092419e-01 6.209562e-01
<VARIANCE> 25
 2.418396e+01 5.027133e+01 4.606570e+01 5.232257e+01 5.869753e+01 5.921389e+01 6.590484e+01 6.253948e+01 5.335143e+01 3.217136e+01 3.640771e+01 2.613387e+01 3.585131e+00 7.722262e+00 4.448496e+00 5.210130e+00 5.446923e+00 7.042935e+00 4.741912e+00 6.036905e+00 6.099563e+00 3.793420e+00 3.881192e+00 2.684200e+00 4.890722e+00
<GCONST> 1.121589e+02
<STATE> 3
<MEAN> 25
 5.349519e+00 -2.791607e+00 5.882093e+00 3.428427e+00 -2.638720e+00 -4.409417e+00 -4.350876e+00 -2.864269e+00 -5.147243e+00 -5.172392e-01 2.684210e+00 1.043975e+00 5.441806e-01 -1.756747e+00 -2.022035e-02 -1.030834e+00 -1.076684e+00 -8.453181e-01 1.401801e-02 -8.408841e-02 -5.267643e-01 5.757300e-01 2.750551e-02 5.417110e-01 1.589671e+00
<VARIANCE> 25
 2.348526e+01 3.000923e+01 5.342125e+01 8.241644e+01 4.785870e+01 5.679898e+01 6.719360e+01 7.551522e+01 5.474349e+01 3.681592e+01 3.488599e+01 2.329343e+01 1.718116e+00 2.600900e+00 5.107261e+00 4.251206e+00 4.072731e+00 4.994148e+00 5.662212e+00 6.448515e+00 5.100152e+00 3.819834e+00 3.304775e+00 2.666762e+00 1.472151e+00
<GCONST> 1.083610e+02
<STATE> 4
<MEAN> 25
 7.301809e+00 -7.542300e+00 3.971436e+00 -1.205183e+00 -5.452433e+00 -1.828076e+00 -3.739730e+00 -5.854774e+00 -3.936522e+00 7.539344e-02 2.708570e+00 2.768331e+00 1.107261e-01 -5.667287e-01 -5.937579e-01 -7.284230e-01 -4.048846e-01 3.565004e-02 6.398090e-01 5.140746e-01 2.665550e-01 -1.087302e-01 -5.121964e-01 1.229886e-01 3.922606e-01
<VARIANCE> 25
 2.152195e+01 2.751557e+01 3.481089e+01 5.445822e+01 4.398465e+01 6.700119e+01 6.103164e+01 1.169001e+02 3.927625e+01 3.276953e+01 3.512112e+01 2.161425e+01 6.613317e-01 1.319355e+00 1.701815e+00 2.469406e+00 2.306309e+00 3.235569e+00 2.900869e+00 3.124806e+00 2.102015e+00 2.151061e+00 1.588935e+00 1.353276e+00 7.444258e-01
<GCONST> 9.802450e+01
<TRANSP> 5
 0.000000e+00 1.000000e+00 0.000000e+00 0.000000e+00 0.000000e+00
 0.000000e+00 5.422830e-01 4.577171e-01 0.000000e+00 0.000000e+00
 0.000000e+00 0.000000e+00 4.286211e-01 5.713789e-01 0.000000e+00
 0.000000e+00 0.000000e+00 0.000000e+00 6.948163e-01 3.051836e-01
 0.000000e+00 0.000000e+00 0.000000e+00 0.000000e+00 0.000000e+00
<ENDHMM>
~h "sp"
<BEGINHMM>
<NUMSTATES> 3
<STATE> 2
~s "silst"
<TRANSP> 3
 0.000000e+00 1.864633e-01 8.135368e-01
 0.000000e+00 9.281650e-01 7.183496e-02
 0.000000e+00 0.000000e+00 0.000000e+00
<ENDHMM>
~h "sy"
<BEGINHMM>
<NUMSTATES> 5
<STATE> 2
<MEAN> 25
 0.000000e+00 0.000000e+00 0.000000e+00 0.000000e+00 0.000000e+00 0.000000e+00 0.000000e+00 0.000000e+00 0.000000e+00 0.000000e+00 0.000000e+00 0.000000e+00 0.000000e+00 0.000000e+00 0.000000e+00 0.000000e+00 0.000000e+00 0.000000e+00 0.000000e+00 0.000000e+00 0.000000e+00 0.000000e+00 0.000000e+00 0.000000e+00 0.000000e+00
<VARIANCE> 25
 1.000000e+00 1.000000e+00 1.000000e+00 1.000000e+00 1.000000e+00 1.000000e+00 1.000000e+00 1.000000e+00 1.000000e+00 1.000000e+00 1.000000e+00 1.000000e+00 1.000000e+00 1.000000e+00 1.000000e+00 1.000000e+00 1.000000e+00 1.000000e+00 1.000000e+00 1.000000e+00 1.000000e+00 1.000000e+00 1.000000e+00 1.000000e+00 1.000000e+00
<GCONST> 4.594693e+01
<STATE> 3
<MEAN> 25
 0.000000e+00 0.000000e+00 0.000000e+00 0.000000e+00 0.000000e+00 0.000000e+00 0.000000e+00 0.000000e+00 0.000000e+00 0.000000e+00 0.000000e+00 0.000000e+00 0.000000e+00 0.000000e+00 0.000000e+00 0.000000e+00 0.000000e+00 0.000000e+00 0.000000e+00 0.000000e+00 0.000000e+00 0.000000e+00 0.000000e+00 0.000000e+00 0.000000e+00
<VARIANCE> 25
 1.000000e+00 1.000000e+00 1.000000e+00 1.000000e+00 1.000000e+00 1.000000e+00 1.000000e+00 1.000000e+00 1.000000e+00 1.000000e+00 1.000000e+00 1.000000e+00 1.000000e+00 1.000000e+00 1.000000e+00 1.000000e+00 1.000000e+00 1.000000e+00 1.000000e+00 1.000000e+00 1.000000e+00 1.000000e+00 1.000000e+00 1.000000e+00 1.000000e+00
<GCONST> 4.594693e+01
<STATE> 4
<MEAN> 25
 0.000000e+00 0.000000e+00 0.000000e+00 0.000000e+00 0.000000e+00 0.000000e+00 0.000000e+00 0.000000e+00 0.000000e+00 0.000000e+00 0.000000e+00 0.000000e+00 0.000000e+00 0.000000e+00 0.000000e+00 0.000000e+00 0.000000e+00 0.000000e+00 0.000000e+00 0.000000e+00 0.000000e+00 0.000000e+00 0.000000e+00 0.000000e+00 0.000000e+00
<VARIANCE> 25
 1.000000e+00 1.000000e+00 1.000000e+00 1.000000e+00 1.000000e+00 1.000000e+00 1.000000e+00 1.000000e+00 1.000000e+00 1.000000e+00 1.000000e+00 1.000000e+00 1.000000e+00 1.000000e+00 1.000000e+00 1.000000e+00 1.000000e+00 1.000000e+00 1.000000e+00 1.000000e+00 1.000000e+00 1.000000e+00 1.000000e+00 1.000000e+00 1.000000e+00
<GCONST> 4.594693e+01
<TRANSP> 5
 0.000000e+00 1.000000e+00 0.000000e+00 0.000000e+00 0.000000e+00
 0.000000e+00 6.000000e-01 4.000000e-01 0.000000e+00 0.000000e+00
 0.000000e+00 0.000000e+00 6.000000e-01 4.000000e-01 0.000000e+00
 0.000000e+00 0.000000e+00 0.000000e+00 7.000000e-01 3.000000e-01
 0.000000e+00 0.000000e+00 0.000000e+00 0.000000e+00 0.000000e+00
<ENDHMM>
~h "sil"
<BEGINHMM>
<NUMSTATES> 5
<STATE> 2
<MEAN> 25
 -9.087219e+00 2.070184e+00 -1.835280e+00 3.567058e+00 2.526579e+00 4.662205e+00 1.747069e+00 1.408135e+00 3.467574e+00 -4.094321e-01 2.900589e+00 2.445212e+00 -4.931835e-02 1.052569e-02 7.778101e-04 -3.014596e-04 -9.978896e-03 -8.264756e-03 -1.312700e-02 -1.366268e-02 -1.555130e-02 5.560665e-03 2.773816e-03 8.448407e-03 -5.408818e-02
<VARIANCE> 25
 1.195409e+01 1.822429e+01 1.956053e+01 2.083032e+01 2.148834e+01 1.994999e+01 2.613663e+01 2.361362e+01 3.411466e+01 2.127477e+01 1.802881e+01 1.354324e+01 1.822090e-01 3.189165e-01 5.270340e-01 6.826960e-01 8.604668e-01 1.041224e+00 1.195075e+00 1.265976e+00 1.358539e+00 1.336077e+00 1.265163e+00 1.177431e+00 1.188186e-01
<GCONST> 7.721278e+01
<STATE> 3
~s "silst"
<STATE> 4
<MEAN> 25
 -1.466984e+01 4.650991e+00 -5.765860e+00 -3.548212e+00 3.099837e+00 9.164881e-01 1.740428e+00 2.693745e+00 -3.859305e-02 1.673751e+00 -1.998190e-01 -1.332898e+00 2.110834e-03 3.360401e-02 9.442160e-02 5.876673e-02 2.778405e-02 -3.566436e-03 -2.822671e-04 1.047404e-02 -1.541827e-02 3.469608e-02 -2.257110e-03 -3.831411e-02 -3.400182e-03
<VARIANCE> 25
 8.210152e+01 2.467656e+01 2.596419e+01 4.426126e+01 2.773804e+01 2.281954e+01 2.404496e+01 2.392893e+01 2.846385e+01 2.264213e+01 1.651680e+01 1.719538e+01 1.007032e+00 7.781218e-01 8.071137e-01 1.028158e+00 1.135247e+00 1.178246e+00 1.272916e+00 1.179207e+00 1.325899e+00 1.238361e+00 1.082474e+00 1.006687e+00 7.919125e-01
<GCONST> 8.614558e+01
<TRANSP> 5
 0.000000e+00 1.000000e+00 0.000000e+00 0.000000e+00 0.000000e+00
 0.000000e+00 9.086696e-01 2.986886e-02 6.146153e-02 0.000000e+00
 0.000000e+00 0.000000e+00 8.801995e-01 1.198005e-01 0.000000e+00
 0.000000e+00 5.534540e-02 0.000000e+00 7.483021e-01 1.963525e-01
 0.000000e+00 0.000000e+00 0.000000e+00 0.000000e+00 0.000000e+00
<ENDHMM>
