~o
<STREAMINFO> 1 39
<VECSIZE> 39<NULLD><MFCC_D_A_0><DIAGC>
~s "silst"
<MEAN> 39
 -8.786795e+00 1.190649e+00 -3.314399e+00 2.906988e+00 -2.449257e+00 2.367625e+00 -1.545913e+00 3.271776e-01 -1.018868e+00 -7.920648e-01 -1.215129e+00 -1.076385e+00 4.956994e+01 -1.887484e-01 3.774292e-02 -2.731361e-03 6.665864e-02 7.343835e-02 6.842715e-02 4.462471e-02 9.835581e-03 2.017994e-03 1.916032e-02 5.792227e-02 4.145500e-02 -1.892130e-01 6.592262e-02 -2.059247e-02 2.317760e-02 -4.209936e-02 -3.875128e-02 -6.242545e-02 -5.036713e-02 -3.838240e-02 -2.942199e-02 -1.551025e-02 -3.241237e-02 -3.456869e-02 9.664606e-02
<VARIANCE> 39
 5.228708e+01 2.559018e+01 3.670062e+01 3.195960e+01 4.985574e+01 4.091066e+01 2.643695e+01 3.077797e+01 3.096842e+01 2.873548e+01 2.202361e+01 2.169394e+01 8.120776e+01 5.135031e-01 7.310976e-01 9.073049e-01 1.073648e+00 1.340763e+00 1.486782e+00 1.535712e+00 1.690538e+00 1.707386e+00 1.663196e+00 1.533598e+00 1.370810e+00 3.693090e-01 9.271369e-02 1.387432e-01 1.751071e-01 2.162481e-01 2.695867e-01 2.980710e-01 3.100314e-01 3.365322e-01 3.443401e-01 3.300500e-01 3.016790e-01 2.727668e-01 7.034685e-02
<GCONST> 9.931637e+01
~h "a"
<BEGINHMM>
<NUMSTATES> 5
<STATE> 2
<MEAN> 39
 2.135840e+00 -1.084131e+01 -4.900487e+00 -8.077200e+00 -6.924795e+00 -4.073361e+00 -5.151910e+00 1.822266e+00 -1.093964e+00 -3.053625e+00 -4.662611e+00 -7.621478e+00 7.174534e+01 2.449232e-01 -1.029501e+00 -4.215979e-01 -3.952843e-01 4.393927e-01 2.880522e-01 1.034580e-01 6.979893e-01 2.700922e-01 -2.622698e-01 -5.757591e-01 -4.293850e-01 6.374995e-01 -1.892840e-01 4.691985e-01 2.379727e-01 3.947881e-01 8.764730e-02 3.754516e-02 1.840933e-02 -3.376332e-01 -2.065061e-01 -3.025171e-02 1.398921e-01 2.718155e-01 -4.687580e-01
<VARIANCE> 39
 4.233886e+01 5.386814e+01 6.984879e+01 1.191302e+02 1.104066e+02 9.432039e+01 8.809767e+01 8.110359e+01 1.158949e+02 9.240473e+01 7.148887e+01 6.594830e+01 6.939210e+01 1.736182e+00 2.879026e+00 3.087982e+00 3.328722e+00 3.889199e+00 4.091171e+00 4.344181e+00 4.699341e+00 4.331058e+00 3.944892e+00 3.894390e+00 3.240644e+00 2.190232e+00 3.452790e-01 4.886740e-01 4.857984e-01 6.189798e-01 6.792635e-01 6.975412e-01 7.827799e-01 8.164051e-01 8.221292e-01 7.559268e-01 7.135981e-01 6.296881e-01 3.429509e-01
<GCONST> 1.378966e+02
<STATE> 3
<MEAN> 39
 3.243975e+00 -1.180760e+01 -4.176389e+00 -7.432883e+00 -6.695909e+00 -4.311115e+00 -6.240981e+00 2.501204e+00 -1.080491e-01 -2.761691e+00 -4.625447e+00 -8.420512e+00 7.148268e+01 3.659882e-02 6.835946e-01 9.970441e-02 6.118762e-01 1.866907e-01 8.002043e-02 1.354460e-02 -4.127432e-01 -2.413088e-01 -7.064930e-02 3.245518e-02 3.545129e-01 -7.068923e-01 -9.341419e-02 5.097163e-01 1.499567e-01 3.199525e-01 -7.620946e-03 1.643730e-02 1.290739e-02 -3.285267e-01 -1.520698e-01 2.415591e-02 1.514256e-01 2.081571e-01 -4.106857e-01
<VARIANCE> 39
 3.144724e+01 4.815168e+01 6.715929e+01 1.047357e+02 1.131758e+02 9.357967e+01 8.698551e+01 9.317226e+01 1.232030e+02 9.540749e+01 7.759547e+01 6.871096e+01 4.270930e+01 6.020461e-01 1.940520e+00 1.805024e+00 2.137522e+00 2.727475e+00 2.905113e+00 2.838990e+00 3.205798e+00 2.862248e+00 2.906426e+00 2.827604e+00 2.351155e+00 1.149288e+00 1.418482e-01 2.415532e-01 3.268645e-01 3.660874e-01 5.010488e-01 5.268024e-01 5.595279e-01 6.247691e-01 5.965090e-01 5.650384e-01 5.799900e-01 4.680755e-01 1.374096e-01
<GCONST> 1.255142e+02
<STATE> 4
<MEAN> 39
 1.103151e+00 -6.789088e+00 -5.515711e+00 -4.316874e+00 -3.769461e+00 -2.912192e+00 -3.991653e+00 5.008777e-01 -6.692039e-01 -3.420848e+00 -5.520189e+00 -6.304980e+00 6.610406e+01 -2.909728e-01 8.558728e-01 2.095736e-01 6.007281e-01 1.638698e-01 2.284952e-01 1.636947e-01 -3.520323e-01 -2.384353e-01 -9.431658e-03 1.459670e-01 3.163196e-01 -9.431577e-01 -6.409752e-02 1.327033e-02 5.829734e-02 -2.822565e-02 -6.510690e-02 -1.589922e-02 -6.758978e-03 -3.044865e-02 -4.200590e-03 1.787169e-02 5.293499e-02 -8.336252e-03 7.636524e-03
<VARIANCE> 39
 3.524279e+01 4.848196e+01 5.867241e+01 8.217693e+01 8.135004e+01 7.222328e+01 6.398170e+01 6.737315e+01 8.517236e+01 8.653623e+01 6.389402e+01 5.432654e+01 7.036676e+01 6.917236e-01 1.394741e+00 1.436967e+00 1.917992e+00 2.137139e+00 2.203990e+00 2.232531e+00 2.601441e+00 2.471298e+00 2.311421e+00 2.276873e+00 1.932295e+00 9.305997e-01 9.717511e-02 1.887148e-01 2.100222e-01 2.774728e-01 3.160753e-01 3.530503e-01 3.690936e-01 4.188496e-01 3.939388e-01 3.898437e-01 3.739770e-01 3.222110e-01 1.046907e-01
<GCONST> 1.162515e+02
<TRANSP> 5
 0.000000e+00 1.000000e+00 0.000000e+00 0.000000e+00 0.000000e+00
 0.000000e+00 4.911060e-01 5.088940e-01 0.000000e+00 0.000000e+00
 0.000000e+00 0.000000e+00 5.402703e-01 4.597297e-01 0.000000e+00
 0.000000e+00 0.000000e+00 0.000000e+00 7.255595e-01 2.744405e-01
 0.000000e+00 0.000000e+00 0.000000e+00 0.000000e+00 0.000000e+00
<ENDHMM>
~h "b"
<BEGINHMM>
<NUMSTATES> 5
<STATE> 2
<MEAN> 39
 2.258776e+00 6.323826e+00 1.253368e+00 2.456248e+00 -3.248968e+00 -3.100601e-01 -5.916291e+00 -4.771046e+00 -5.562325e+00 -3.862331e+00 -3.123936e+00 -5.170128e+00 5.773751e+01 3.035277e-01 1.901743e-01 -1.173457e-02 3.845077e-03 -2.209896e-02 -2.540415e-01 -2.590708e-01 -2.847278e-01 7.556845e-04 -6.588095e-02 1.992522e-01 8.460571e-02 2.866528e-01 6.371478e-02 -7.761967e-01 -2.164469e-01 -5.921348e-01 -4.025570e-01 -3.896777e-01 -4.238677e-01 4.936954e-02 2.239088e-01 4.216503e-01 4.072003e-01 4.184877e-03 6.681736e-01
<VARIANCE> 39
 4.202950e+01 4.276135e+01 3.740763e+01 5.427351e+01 5.031789e+01 4.964504e+01 3.697898e+01 3.892875e+01 4.423423e+01 4.312057e+01 3.361781e+01 2.935220e+01 6.627853e+01 1.867360e+00 3.061634e+00 2.205405e+00 3.537417e+00 2.517447e+00 3.003300e+00 3.138430e+00 2.974598e+00 2.889006e+00 3.115200e+00 2.937807e+00 2.110515e+00 2.136773e+00 2.633050e-01 4.696420e-01 5.342184e-01 6.453626e-01 5.477256e-01 6.513299e-01 6.587840e-01 6.827499e-01 7.257845e-01 7.233199e-01 6.275216e-01 5.032623e-01 2.512041e-01
<GCONST> 1.251966e+02
<STATE> 3
<MEAN> 39
 3.814356e+00 2.644852e+00 -1.195389e+00 -1.100292e+00 -4.851126e+00 -1.592882e+00 -8.245548e+00 -7.104846e+00 -5.408089e+00 -2.620388e+00 -1.315948e-01 -4.349564e+00 6.182681e+01 5.266931e-01 -2.301306e+00 -7.305862e-01 -1.877577e+00 -1.189955e+00 -1.121781e+00 -1.629372e+00 1.042068e-01 1.075936e+00 1.613603e+00 1.318738e+00 -4.900267e-01 2.334795e+00 -1.272907e-01 -4.809794e-01 1.139598e-01 -1.865282e-01 -2.943985e-01 -1.568158e-01 3.182635e-02 5.369393e-01 3.866083e-01 1.388033e-01 -2.004481e-01 -2.891735e-01 2.978486e-01
<VARIANCE> 39
 3.724479e+01 5.326578e+01 4.632714e+01 9.831063e+01 6.103462e+01 6.740384e+01 5.161883e+01 4.695801e+01 5.843645e+01 6.861315e+01 5.605635e+01 3.537687e+01 5.895288e+01 2.449578e+00 4.735234e+00 5.139205e+00 7.550026e+00 5.041069e+00 6.720378e+00 6.018128e+00 6.113649e+00 6.806395e+00 7.667067e+00 5.564845e+00 4.669603e+00 2.591223e+00 3.144037e-01 6.275522e-01 6.167130e-01 9.962615e-01 7.226641e-01 7.830420e-01 7.879446e-01 8.697934e-01 9.537747e-01 9.386309e-01 9.432021e-01 7.511027e-01 3.749400e-01
<GCONST> 1.406830e+02
<STATE> 4
<MEAN> 39
 4.495794e+00 -3.836631e+00 -2.173935e+00 -4.153294e+00 -7.435463e+00 -5.010588e+00 -1.215021e+01 -4.165195e+00 -4.134999e-01 9.934367e-01 1.236669e+00 -7.280844e+00 6.748215e+01 9.782352e-04 -2.120199e+00 1.211551e-01 -1.117871e+00 -1.329403e+00 -1.169534e+00 -4.993983e-01 1.494591e+00 1.250879e+00 5.760373e-01 -9.897372e-02 -6.940262e-01 1.848733e+00 -2.067047e-01 4.814418e-01 3.448619e-01 3.941062e-01 1.525946e-01 2.946489e-01 6.595554e-01 1.332984e-01 -3.556704e-01 -5.552646e-01 -4.521934e-01 2.089152e-01 -4.655222e-01
<VARIANCE> 39
 3.456265e+01 5.405848e+01 6.699946e+01 1.436643e+02 7.851934e+01 9.298625e+01 7.998793e+01 6.588711e+01 8.921162e+01 1.175926e+02 7.089410e+01 5.707940e+01 5.111343e+01 1.991860e+00 3.851485e+00 5.423785e+00 6.229273e+00 5.220934e+00 6.003915e+00 5.602558e+00 6.436868e+00 7.663105e+00 6.503355e+00 6.226779e+00 5.610904e+00 2.171862e+00 2.308910e-01 5.736063e-01 5.502328e-01 1.173092e+00 7.296907e-01 9.162739e-01 8.837204e-01 9.278325e-01 9.035840e-01 1.256983e+00 9.690704e-01 7.371332e-01 3.077928e-01
<GCONST> 1.437237e+02
<TRANSP> 5
 0.000000e+00 1.000000e+00 0.000000e+00 0.000000e+00 0.000000e+00
 0.000000e+00 6.156653e-01 3.843348e-01 0.000000e+00 0.000000e+00
 0.000000e+00 0.000000e+00 3.568653e-01 6.431347e-01 0.000000e+00
 0.000000e+00 0.000000e+00 0.000000e+00 2.956933e-01 7.043067e-01
 0.000000e+00 0.000000e+00 0.000000e+00 0.000000e+00 0.000000e+00
<ENDHMM>
~h "c"
<BEGINHMM>
<NUMSTATES> 5
<STATE> 2
<MEAN> 39
 -1.007122e+01 2.481523e+00 -6.638983e-01 -8.375289e-01 -3.978117e+00 -3.420310e+00 -3.616189e+00 -2.216443e+00 -2.777758e+00 -2.409616e+00 -8.779068e-01 -2.176115e+00 5.910835e+01 -1.853400e+00 6.284726e-02 2.010167e-01 -6.350814e-01 1.168564e-01 -2.598006e-01 3.654808e-01 5.332946e-02 3.406302e-01 -6.991918e-02 3.559225e-01 1.067545e-01 8.823147e-01 3.491022e-01 -3.266673e-01 2.431305e-01 -5.379764e-02 -4.416659e-01 -2.945004e-01 -1.633564e-01 6.265734e-02 -1.518368e-02 -4.378545e-02 -2.808682e-02 -4.377955e-02 4.535046e-01
<VARIANCE> 39
 1.004571e+02 5.364271e+01 4.839520e+01 7.466866e+01 8.804876e+01 7.962718e+01 4.839471e+01 5.273801e+01 4.641151e+01 5.514608e+01 3.414074e+01 3.390908e+01 9.877061e+01 7.000648e+00 4.470091e+00 4.163628e+00 4.077937e+00 5.402302e+00 5.308429e+00 3.660119e+00 4.072742e+00 3.688714e+00 3.062221e+00 2.908723e+00 2.186178e+00 5.836022e+00 1.777817e+00 9.034122e-01 7.322848e-01 8.393213e-01 9.144210e-01 8.639882e-01 7.766611e-01 7.954198e-01 7.250336e-01 6.329725e-01 5.678226e-01 4.660319e-01 8.513259e-01
<GCONST> 1.400284e+02
<STATE> 3
<MEAN> 39
 -9.005365e+00 -4.642016e+00 3.085165e+00 2.798861e+00 -1.231068e+01 -6.407804e-01 -4.748621e+00 -3.457548e+00 -1.188272e+00 -5.765274e+00 -4.033091e-01 -5.957835e-01 6.500014e+01 2.147721e+00 -1.056301e+00 4.149536e-01 3.338411e-01 -1.346188e+00 -1.176658e+00 -8.042012e-01 9.516110e-02 9.031039e-02 -3.843287e-01 -2.440618e-01 -1.465457e-01 1.275092e+00 8.633271e-01 -4.053177e-02 -4.491101e-01 -8.464800e-03 1.336632e-01 -1.051295e-03 -2.545437e-01 -6.770595e-02 -1.177242e-01 2.003189e-01 -1.047601e-01 -1.915562e-01 -1.465372e-01
<VARIANCE> 39
 1.270299e+02 1.472463e+02 8.063542e+01 1.923058e+02 1.374044e+02 2.317409e+02 7.718948e+01 9.332010e+01 6.473833e+01 6.753828e+01 4.597140e+01 5.159472e+01 7.066138e+01 1.222783e+01 1.007292e+01 8.323390e+00 6.805486e+00 8.674443e+00 9.095249e+00 7.548241e+00 7.760382e+00 6.222648e+00 5.802084e+00 4.447934e+00 3.617448e+00 5.200450e+00 1.980037e+00 1.841616e+00 1.388129e+00 1.337945e+00 1.478281e+00 1.885308e+00 1.320836e+00 1.404445e+00 1.125927e+00 1.020644e+00 8.321256e-01 6.748531e-01 8.408859e-01
<GCONST> 1.590726e+02
<STATE> 4
<MEAN> 39
 6.051047e+00 -1.268391e+01 6.361421e-01 1.055448e+01 -2.069236e+01 6.029429e+00 -7.693129e+00 -6.723587e+00 8.288887e-02 -5.914674e+00 -1.286294e-01 3.272767e+00 7.039978e+01 7.815470e-01 -2.174723e-01 -3.368876e-01 -1.799813e-01 -2.063766e-01 -1.963360e-01 -2.340049e-01 4.722094e-02 -3.913809e-02 1.669885e-01 -3.955214e-02 -2.435201e-01 2.166922e-01 -1.768901e-01 3.942737e-02 -3.706548e-02 -4.869811e-02 1.289878e-01 2.153218e-01 9.002063e-02 6.808944e-03 -2.052992e-02 5.345830e-02 2.424725e-02 -2.436843e-02 -1.336417e-01
<VARIANCE> 39
 6.947202e+01 1.103626e+02 1.029406e+02 1.187083e+02 1.250243e+02 1.961185e+02 7.657880e+01 1.046020e+02 7.897070e+01 5.590360e+01 5.982371e+01 5.434330e+01 4.942150e+01 6.051119e+00 6.500588e+00 6.183197e+00 3.764707e+00 5.279551e+00 6.542706e+00 4.806403e+00 5.645869e+00 4.763994e+00 3.966739e+00 3.517790e+00 2.956894e+00 3.513317e+00 7.255083e-01 9.873053e-01 9.311486e-01 6.538037e-01 9.078760e-01 1.241965e+00 7.829902e-01 9.173431e-01 8.067950e-01 6.851957e-01 6.032488e-01 5.005446e-01 5.714089e-01
<GCONST> 1.463178e+02
<TRANSP> 5
 0.000000e+00 1.000000e+00 0.000000e+00 0.000000e+00 0.000000e+00
 0.000000e+00 7.699575e-01 2.300425e-01 0.000000e+00 0.000000e+00
 0.000000e+00 0.000000e+00 6.670331e-01 3.329669e-01 0.000000e+00
 0.000000e+00 0.000000e+00 0.000000e+00 7.959163e-01 2.040837e-01
 0.000000e+00 0.000000e+00 0.000000e+00 0.000000e+00 0.000000e+00
<ENDHMM>
~h "d"
<BEGINHMM>
<NUMSTATES> 5
<STATE> 2
<MEAN> 39
 6.540654e-01 4.190877e+00 2.312502e+00 3.465552e+00 -6.846384e+00 -2.937418e+00 -6.205851e+00 -3.116156e+00 -4.117509e+00 -5.074783e+00 -4.388828e+00 -4.827322e+00 5.746255e+01 -1.670016e-01 -3.847129e-01 5.508475e-01 2.407357e-02 -2.847861e-01 -3.330913e-01 -4.583401e-02 -8.183821e-02 -3.809195e-02 -1.767359e-01 2.584980e-01 1.936144e-01 5.428431e-01 -1.097041e-01 -8.576604e-01 2.475643e-01 -6.088257e-01 -6.514163e-01 -4.591310e-01 -2.674652e-01 4.243122e-02 -3.176478e-02 2.448521e-01 4.516103e-01 1.139251e-01 8.604744e-01
<VARIANCE> 39
 5.396005e+01 6.629277e+01 5.993601e+01 8.234844e+01 7.167350e+01 7.396255e+01 5.201341e+01 6.069218e+01 5.883833e+01 6.010260e+01 4.533611e+01 3.978364e+01 9.580748e+01 2.925498e+00 6.001734e+00 3.721320e+00 4.599954e+00 5.289553e+00 5.537284e+00 4.826464e+00 5.097559e+00 4.675900e+00 4.268994e+00 4.267353e+00 3.232143e+00 4.507659e+00 4.715142e-01 7.231545e-01 7.553573e-01 8.081691e-01 8.990635e-01 9.393166e-01 1.012431e+00 1.047596e+00 9.987385e-01 9.205546e-01 8.243663e-01 6.339914e-01 4.741949e-01
<GCONST> 1.414783e+02
<STATE> 3
<MEAN> 39
 1.614415e-01 -4.196070e+00 4.977567e+00 2.143934e-01 -9.696031e+00 -7.165949e+00 -6.879588e+00 -3.541234e+00 -4.099254e+00 -4.934659e+00 -1.396122e+00 -2.739408e+00 6.635160e+01 -7.166442e-02 -2.287354e+00 1.127493e+00 -1.732517e+00 -2.339951e+00 -1.755620e+00 -1.027978e+00 3.986209e-01 -1.938813e-02 6.956269e-01 1.370301e+00 2.144306e-01 2.680439e+00 1.804194e-01 2.647148e-01 -2.008073e-01 -2.833449e-01 -9.460659e-02 1.720547e-01 -1.090883e-01 1.829084e-01 6.273527e-02 2.192482e-01 -1.228639e-01 -3.528049e-01 -1.076537e-01
<VARIANCE> 39
 4.090982e+01 6.343655e+01 7.163596e+01 1.356627e+02 8.892794e+01 9.499255e+01 7.680083e+01 8.554548e+01 8.234167e+01 5.674103e+01 5.155588e+01 5.039755e+01 5.443378e+01 3.393759e+00 4.707071e+00 6.126119e+00 6.063019e+00 5.758940e+00 6.162481e+00 7.544204e+00 8.755075e+00 7.976706e+00 6.968940e+00 5.942359e+00 3.857509e+00 3.117824e+00 3.907239e-01 7.349818e-01 7.397919e-01 9.146882e-01 1.152293e+00 1.125522e+00 1.183968e+00 1.049612e+00 9.806078e-01 9.609942e-01 9.606293e-01 7.730628e-01 4.804255e-01
<GCONST> 1.470430e+02
<STATE> 4
<MEAN> 39
 1.935695e+00 -7.505651e+00 6.145654e+00 -7.603489e-01 -1.472970e+01 -8.120084e+00 -1.029252e+01 -3.160136e+00 -1.966671e+00 -3.482143e+00 7.077854e-01 -3.419098e+00 7.000362e+01 1.960820e-01 -7.404596e-01 1.253421e-01 -1.389949e+00 -1.229161e+00 -4.667034e-01 -5.314093e-01 5.448675e-01 1.544091e-01 6.525779e-01 4.037547e-01 -6.074591e-01 1.186855e+00 4.761828e-02 6.060817e-01 -3.884237e-01 2.693796e-01 6.461123e-01 5.545417e-01 3.337171e-01 -7.255225e-02 -5.021517e-02 -1.061710e-01 -4.151803e-01 -1.845247e-01 -6.205240e-01
<VARIANCE> 39
 4.110636e+01 7.844897e+01 9.936980e+01 1.767634e+02 9.264223e+01 1.233073e+02 9.907112e+01 1.449516e+02 1.192743e+02 8.510097e+01 7.282409e+01 5.749110e+01 4.944901e+01 1.594100e+00 2.574435e+00 5.687120e+00 4.129657e+00 5.796966e+00 5.148092e+00 5.905548e+00 6.196192e+00 5.969713e+00 5.211632e+00 5.706985e+00 4.077198e+00 1.620112e+00 2.686755e-01 5.249463e-01 5.912545e-01 7.469479e-01 8.712999e-01 8.667817e-01 9.909315e-01 1.073829e+00 9.395265e-01 9.029132e-01 8.085988e-01 5.536826e-01 3.085718e-01
<GCONST> 1.434038e+02
<TRANSP> 5
 0.000000e+00 1.000000e+00 0.000000e+00 0.000000e+00 0.000000e+00
 0.000000e+00 6.363354e-01 3.636646e-01 0.000000e+00 0.000000e+00
 0.000000e+00 0.000000e+00 3.133743e-01 6.866257e-01 0.000000e+00
 0.000000e+00 0.000000e+00 0.000000e+00 3.343470e-01 6.656531e-01
 0.000000e+00 0.000000e+00 0.000000e+00 0.000000e+00 0.000000e+00
<ENDHMM>
~h "e"
<BEGINHMM>
<NUMSTATES> 5
<STATE> 2
<MEAN> 39
 1.471941e+00 -7.703288e+00 1.240024e+00 -2.288434e+00 -1.252911e+01 -1.061789e+01 -3.461531e+00 1.937675e+00 -2.795975e+00 -1.744891e+00 1.990263e-01 -4.924216e+00 6.808346e+01 5.295475e-01 -9.076728e-01 6.487756e-01 -3.912311e-01 -1.210615e+00 -5.443817e-01 3.819553e-01 8.554028e-01 -2.328793e-01 -3.527316e-02 3.150972e-01 -2.202006e-01 9.889578e-01 -2.831699e-01 3.562608e-01 -1.272883e-01 1.373205e-01 4.540906e-01 4.389121e-01 9.458247e-02 -3.192292e-01 -5.047739e-03 -3.106708e-02 -5.690438e-02 7.461607e-02 -3.958992e-01
<VARIANCE> 39
 4.093721e+01 6.291200e+01 1.010694e+02 1.035598e+02 1.054683e+02 1.209248e+02 8.236263e+01 8.987856e+01 1.055039e+02 7.765530e+01 6.871833e+01 5.081696e+01 6.386584e+01 2.487663e+00 3.290911e+00 4.240474e+00 3.528612e+00 4.908627e+00 4.790337e+00 4.972354e+00 5.308364e+00 4.538784e+00 4.387918e+00 4.043584e+00 2.985994e+00 2.617890e+00 4.260103e-01 6.493629e-01 7.522487e-01 6.444274e-01 9.111587e-01 8.852957e-01 8.435104e-01 9.107533e-01 8.894127e-01 8.178737e-01 7.244343e-01 5.598775e-01 4.401043e-01
<GCONST> 1.416310e+02
<STATE> 3
<MEAN> 39
 2.095856e+00 -8.667247e+00 3.625027e+00 -2.313956e+00 -1.513375e+01 -1.277203e+01 -2.976799e+00 2.568923e+00 -4.179956e+00 -1.691489e+00 2.203910e+00 -6.411211e+00 6.942040e+01 -1.015025e-01 6.707858e-01 -1.263740e-01 3.463066e-01 5.773703e-01 5.048871e-01 1.297213e-01 -4.123473e-01 1.787497e-02 5.071875e-02 -1.977592e-01 8.171847e-02 -6.598757e-01 -1.228647e-01 3.191352e-01 -1.061326e-01 1.463104e-01 3.506219e-01 1.918378e-01 -4.294101e-02 -2.350682e-01 1.764834e-02 -5.685056e-02 -9.312862e-02 7.366307e-02 -2.897915e-01
<VARIANCE> 39
 3.199095e+01 5.154581e+01 1.029932e+02 9.321451e+01 1.062954e+02 1.030446e+02 8.778395e+01 1.057068e+02 1.121230e+02 7.258222e+01 6.974549e+01 5.290723e+01 3.755429e+01 7.294582e-01 1.822139e+00 2.096542e+00 2.056484e+00 2.914073e+00 2.498382e+00 2.947226e+00 2.918314e+00 2.830508e+00 2.495367e+00 2.476835e+00 1.921521e+00 1.247289e+00 1.347556e-01 2.732407e-01 3.647060e-01 3.704361e-01 5.210434e-01 4.584055e-01 5.579613e-01 5.749349e-01 5.548370e-01 4.987569e-01 4.636593e-01 3.702997e-01 1.471182e-01
<GCONST> 1.243184e+02
<STATE> 4
<MEAN> 39
 -2.481363e+00 -1.699383e+00 5.723348e-01 -4.147942e+00 -5.695258e+00 -6.634040e+00 6.659108e-01 -2.996477e-01 1.754527e+00 -1.152641e+00 -3.259649e-01 -4.192121e+00 6.633018e+01 -1.532446e-01 2.879038e-01 -3.243292e-02 1.437209e-01 3.347315e-01 2.601681e-01 7.036129e-03 -1.919176e-01 -5.971240e-02 -8.949237e-02 -8.123834e-02 3.503353e-02 -3.170834e-01 -6.793409e-03 -1.297005e-02 -1.629484e-02 1.785672e-03 -1.061086e-02 -1.878408e-02 -2.677391e-02 -7.507197e-04 1.216348e-02 -1.204656e-02 -3.864839e-03 1.435009e-03 1.299198e-02
<VARIANCE> 39
 2.353401e+01 3.447648e+01 5.904904e+01 4.389413e+01 8.265607e+01 5.728551e+01 5.105854e+01 5.141230e+01 8.036015e+01 4.746114e+01 4.426235e+01 3.213780e+01 3.986481e+01 4.068090e-01 9.722659e-01 1.063260e+00 1.160224e+00 1.808826e+00 1.699837e+00 1.743346e+00 2.064590e+00 2.056720e+00 1.985262e+00 1.852341e+00 1.576094e+00 4.694940e-01 5.641037e-02 1.285095e-01 1.669571e-01 1.906065e-01 2.851975e-01 2.813765e-01 3.127348e-01 3.497904e-01 3.711896e-01 3.655185e-01 3.324847e-01 2.943079e-01 4.732680e-02
<GCONST> 1.046900e+02
<TRANSP> 5
 0.000000e+00 1.000000e+00 0.000000e+00 0.000000e+00 0.000000e+00
 0.000000e+00 5.376781e-01 4.623220e-01 0.000000e+00 0.000000e+00
 0.000000e+00 0.000000e+00 6.657132e-01 3.342868e-01 0.000000e+00
 0.000000e+00 0.000000e+00 0.000000e+00 8.647531e-01 1.352470e-01
 0.000000e+00 0.000000e+00 0.000000e+00 0.000000e+00 0.000000e+00
<ENDHMM>
~h "f"
<BEGINHMM>
<NUMSTATES> 5
<STATE> 2
<MEAN> 39
 -1.975258e+00 -1.600110e+00 -3.256513e+00 2.475322e-01 -4.014631e+00 -1.046976e+00 -3.596742e+00 -1.675502e+00 -1.563636e+00 -1.113560e+00 -9.477562e-01 -5.656664e+00 6.058232e+01 -1.606776e+00 3.383830e-01 -2.191566e-01 6.338127e-01 9.915560e-01 -5.503882e-02 6.008967e-01 2.362943e-01 3.622454e-01 -2.999677e-01 2.969398e-02 6.111499e-01 -7.851623e-01 -1.363279e-01 -2.634565e-01 4.345192e-02 -2.464311e-01 -2.733366e-01 -1.882109e-01 -1.114729e-02 -2.331400e-03 1.407291e-02 -7.899564e-02 -2.308034e-02 -2.609693e-02 2.299625e-01
<VARIANCE> 39
 5.840215e+01 5.068834e+01 7.508519e+01 5.938541e+01 6.149762e+01 7.204460e+01 5.027996e+01 5.186519e+01 4.121910e+01 5.210922e+01 4.550177e+01 4.387223e+01 8.074344e+01 3.386626e+00 2.949328e+00 2.520409e+00 2.555365e+00 3.747042e+00 3.593563e+00 3.419952e+00 3.445665e+00 3.380032e+00 2.849714e+00 3.094165e+00 2.096256e+00 1.383356e+00 5.690002e-01 3.848261e-01 3.335138e-01 4.337194e-01 5.636997e-01 5.583118e-01 5.756657e-01 5.307347e-01 5.855104e-01 4.681503e-01 4.499657e-01 4.289567e-01 2.075507e-01
<GCONST> 1.273825e+02
<STATE> 3
<MEAN> 39
 -5.796277e+00 -3.084992e+00 -2.351663e+00 1.435477e+00 -1.987200e+00 -3.059617e+00 -2.173298e+00 -8.504877e-01 -7.750278e-01 -2.687478e+00 -7.841992e-02 -3.581339e+00 6.236501e+01 -1.180308e+00 4.673760e-03 -9.207990e-02 8.655429e-03 1.505554e-01 -2.172987e-01 3.375470e-01 -6.356986e-02 2.996896e-01 -2.430720e-01 -2.377617e-01 3.226892e-01 -3.147399e-01 5.013721e-01 -9.075177e-02 1.790500e-01 -2.539984e-01 -4.770815e-01 -1.026635e-01 -2.514755e-01 -1.066196e-01 -1.133162e-01 5.253400e-02 1.786803e-02 -1.664726e-01 2.408421e-01
<VARIANCE> 39
 4.509937e+01 4.517213e+01 5.051575e+01 6.373828e+01 6.828080e+01 6.989388e+01 4.833099e+01 4.831925e+01 4.515509e+01 5.646797e+01 3.695583e+01 3.770248e+01 5.511356e+01 2.828809e+00 1.886477e+00 2.009215e+00 2.102387e+00 2.506048e+00 3.073723e+00 2.685047e+00 2.828662e+00 2.411807e+00 2.243239e+00 2.406913e+00 2.201995e+00 7.890372e-01 4.535041e-01 4.179954e-01 4.275126e-01 4.017768e-01 6.094886e-01 6.204512e-01 6.141961e-01 5.998746e-01 5.651618e-01 5.255907e-01 5.557587e-01 3.996456e-01 1.847281e-01
<GCONST> 1.231934e+02
<STATE> 4
<MEAN> 39
 -8.690629e+00 -7.432619e-01 5.706108e-01 6.237977e-01 -2.373624e+00 -3.940636e+00 -9.940597e-01 -1.490877e+00 1.104373e+00 -2.354761e+00 -1.532797e+00 -3.436582e+00 6.155967e+01 3.134235e-01 -1.559642e-01 3.308403e-01 -7.960638e-02 -4.748724e-01 -3.623023e-01 -3.977530e-01 -1.275034e-01 -1.040933e-01 -3.268585e-03 1.210381e-01 2.942607e-04 1.684960e-01 5.043727e-01 -9.336483e-02 1.471786e-01 -1.884021e-01 -3.711109e-01 -1.020847e-01 -2.680369e-01 1.925315e-03 -1.742526e-01 2.442457e-02 1.789556e-01 -9.889071e-02 2.274413e-01
<VARIANCE> 39
 3.187438e+01 2.474860e+01 3.609070e+01 3.706250e+01 3.464053e+01 4.743849e+01 3.713643e+01 3.246447e+01 3.988459e+01 3.303080e+01 2.506634e+01 2.362716e+01 4.627755e+01 2.825994e+00 1.551488e+00 2.429172e+00 2.189321e+00 2.772646e+00 3.241056e+00 2.827208e+00 2.820787e+00 3.311072e+00 2.759737e+00 2.490163e+00 2.106360e+00 8.949623e-01 3.156025e-01 3.025201e-01 4.275781e-01 3.932315e-01 6.154523e-01 5.216959e-01 5.493098e-01 5.473493e-01 7.178722e-01 5.388337e-01 5.320050e-01 3.908182e-01 1.564041e-01
<GCONST> 1.177822e+02
<TRANSP> 5
 0.000000e+00 1.000000e+00 0.000000e+00 0.000000e+00 0.000000e+00
 0.000000e+00 4.192402e-01 5.807598e-01 0.000000e+00 0.000000e+00
 0.000000e+00 0.000000e+00 3.177873e-01 6.822127e-01 0.000000e+00
 0.000000e+00 0.000000e+00 0.000000e+00 7.381748e-01 2.618252e-01
 0.000000e+00 0.000000e+00 0.000000e+00 0.000000e+00 0.000000e+00
<ENDHMM>
~h "g"
<BEGINHMM>
<NUMSTATES> 5
<STATE> 2
<MEAN> 39
 4.394071e-01 2.899180e+00 1.128437e+00 3.138329e+00 -7.606714e+00 -1.220793e+00 -6.197875e+00 -4.371953e+00 -5.070023e+00 -3.537243e+00 -3.248965e+00 -4.970559e+00 5.845456e+01 2.259275e-02 -3.478287e-01 3.954702e-02 6.815673e-02 2.639892e-01 -6.029903e-01 -4.298487e-01 1.028014e-01 1.399771e-01 5.612028e-02 1.126623e-01 3.359731e-02 6.336108e-01 4.567839e-03 -5.455942e-01 5.417123e-02 -4.163970e-01 -2.720079e-01 -3.818737e-01 -2.824588e-01 1.421565e-01 5.356377e-02 1.794395e-01 2.110683e-01 -1.733464e-02 5.984251e-01
<VARIANCE> 39
 5.883523e+01 7.809325e+01 5.948797e+01 1.170619e+02 1.040466e+02 9.766086e+01 5.646538e+01 6.120211e+01 6.017822e+01 6.652204e+01 4.359839e+01 4.203458e+01 8.668005e+01 4.118104e+00 6.207215e+00 4.647723e+00 5.231904e+00 6.809999e+00 6.585105e+00 5.509267e+00 5.185842e+00 4.977459e+00 4.703296e+00 3.741544e+00 3.169889e+00 4.407833e+00 5.833927e-01 9.261616e-01 8.486485e-01 8.956828e-01 1.159916e+00 1.035836e+00 9.369234e-01 9.075401e-01 9.491223e-01 8.472953e-01 7.377446e-01 5.948705e-01 5.412436e-01
<GCONST> 1.447768e+02
<STATE> 3
<MEAN> 39
 1.574919e+00 -1.752089e+00 1.459875e+00 -7.867256e-01 -6.409496e+00 -9.060488e+00 -1.047621e+01 -2.358713e+00 -4.539486e+00 -8.474936e-01 -4.564496e-01 -5.975624e+00 6.579575e+01 1.846721e-01 -1.493236e+00 4.358176e-01 -1.512491e+00 -1.408128e+00 -1.396620e+00 -8.536417e-01 9.434300e-01 6.648332e-01 7.613883e-01 6.988214e-01 -3.280387e-01 1.968600e+00 3.345071e-02 3.179247e-02 3.084619e-02 -2.616778e-01 -3.272533e-01 4.489983e-01 3.250287e-01 6.290814e-02 1.264478e-01 -5.923072e-02 -1.693380e-01 -1.252375e-01 -4.593871e-02
<VARIANCE> 39
 3.683268e+01 5.990060e+01 7.547523e+01 1.071349e+02 1.288608e+02 1.070285e+02 9.139536e+01 7.560170e+01 7.489020e+01 7.670733e+01 7.821239e+01 5.309094e+01 4.866834e+01 2.533813e+00 3.933889e+00 5.512732e+00 5.254639e+00 7.453784e+00 6.141031e+00 6.306654e+00 6.736072e+00 6.779780e+00 5.950725e+00 5.438498e+00 4.035323e+00 2.084788e+00 2.985864e-01 6.432193e-01 8.771939e-01 7.847576e-01 1.409647e+00 1.011489e+00 1.030156e+00 9.059285e-01 9.946403e-01 8.915210e-01 1.006973e+00 6.387075e-01 3.220006e-01
<GCONST> 1.449457e+02
<STATE> 4
<MEAN> 39
 6.122893e+00 -9.833332e+00 5.697016e-01 7.827720e+00 -1.454480e+01 -1.369796e+00 -8.968199e+00 -5.255707e+00 9.656364e-01 -6.849730e+00 4.915508e-01 -1.310560e+00 6.953239e+01 1.468790e-02 -4.611499e-01 -1.089891e-02 -6.354799e-01 -4.498885e-01 2.866575e-02 6.124994e-02 1.687848e-01 1.673817e-01 2.257684e-01 9.658517e-02 -1.259430e-01 5.347660e-01 -3.606605e-02 1.376980e-01 -6.665124e-02 7.785019e-02 1.362602e-01 1.740134e-01 1.227612e-01 -3.847375e-02 -8.601715e-02 -2.584028e-02 -7.923117e-02 -1.921540e-02 -1.927151e-01
<VARIANCE> 39
 4.882855e+01 9.769881e+01 1.014206e+02 2.399719e+02 1.549461e+02 1.642900e+02 9.226371e+01 1.207491e+02 9.610253e+01 1.322090e+02 8.510936e+01 7.718340e+01 4.298036e+01 1.566314e+00 3.085468e+00 4.926103e+00 3.970668e+00 4.555211e+00 5.215529e+00 4.532168e+00 4.727592e+00 4.934570e+00 4.617508e+00 4.028676e+00 3.044392e+00 1.953476e+00 2.188866e-01 4.945791e-01 5.928535e-01 5.933869e-01 8.277423e-01 9.183534e-01 8.109057e-01 7.709957e-01 7.915140e-01 8.764091e-01 6.956712e-01 5.060152e-01 2.625611e-01
<GCONST> 1.420359e+02
<TRANSP> 5
 0.000000e+00 1.000000e+00 0.000000e+00 0.000000e+00 0.000000e+00
 0.000000e+00 6.311820e-01 3.688180e-01 0.000000e+00 0.000000e+00
 0.000000e+00 0.000000e+00 4.204587e-01 5.795413e-01 0.000000e+00
 0.000000e+00 0.000000e+00 0.000000e+00 6.398793e-01 3.601207e-01
 0.000000e+00 0.000000e+00 0.000000e+00 0.000000e+00 0.000000e+00
<ENDHMM>
~h "h"
<BEGINHMM>
<NUMSTATES> 5
<STATE> 2
<MEAN> 39
 -6.173907e-01 -6.105903e+00 8.207032e-02 -2.282473e+00 -8.271834e+00 -2.181749e+00 -2.062953e+00 -1.559997e+00 -2.898644e+00 -3.035360e+00 -2.566341e+00 -4.111710e+00 6.590691e+01 -5.192477e-01 1.015213e-01 -1.725789e-01 4.039942e-01 5.656710e-01 3.954385e-01 4.197521e-01 5.863594e-02 8.227006e-02 -5.160285e-02 5.959038e-02 2.036086e-01 -6.800355e-01 5.724652e-03 -2.081800e-02 -6.865156e-02 -1.137216e-01 -8.482451e-02 -4.920657e-02 -1.376271e-01 -7.680662e-03 1.142168e-02 3.357479e-02 9.742947e-03 -2.926009e-02 -2.125496e-02
<VARIANCE> 39
 4.954887e+01 7.210397e+01 8.606676e+01 1.463446e+02 1.376270e+02 1.056963e+02 9.000544e+01 8.528698e+01 8.660523e+01 7.575301e+01 6.091623e+01 4.841495e+01 8.429774e+01 1.178583e+00 2.025846e+00 2.441647e+00 2.562935e+00 3.076226e+00 3.132729e+00 3.202759e+00 3.192055e+00 3.325179e+00 2.796199e+00 2.709170e+00 2.146936e+00 1.058679e+00 1.360707e-01 2.711047e-01 3.232015e-01 4.368428e-01 4.899837e-01 5.232083e-01 5.360726e-01 5.590373e-01 5.805117e-01 4.824164e-01 4.518094e-01 3.781619e-01 1.114814e-01
<GCONST> 1.273274e+02
<STATE> 3
<MEAN> 39
 5.409006e-01 -9.048948e+00 -3.190033e+00 1.486608e+00 -8.763694e+00 -1.446197e+00 -1.338886e+00 -2.199621e+00 -1.349971e+00 -4.379467e+00 -1.952703e+00 -3.044123e+00 6.515445e+01 -3.088657e-01 2.517744e-01 -1.475410e-01 7.514171e-02 2.466548e-01 8.341673e-02 1.748407e-02 4.844587e-02 -6.595089e-03 8.386594e-02 -5.251552e-02 1.067947e-01 -5.944386e-01 3.256309e-02 4.366158e-02 1.124026e-02 -4.567136e-02 -6.968364e-02 -5.983321e-02 -8.341406e-02 -5.380536e-03 -5.691713e-03 2.667741e-02 1.663991e-02 -3.325872e-02 1.285597e-02
<VARIANCE> 39
 5.983009e+01 8.571054e+01 9.481742e+01 1.388313e+02 1.401733e+02 1.085099e+02 8.298206e+01 1.055411e+02 1.018531e+02 7.921251e+01 6.753056e+01 6.021296e+01 8.105064e+01 5.792410e-01 1.137782e+00 1.329600e+00 1.595784e+00 1.798107e+00 2.020293e+00 2.001093e+00 2.092820e+00 2.086949e+00 1.938351e+00 1.733903e+00 1.524722e+00 5.819836e-01 6.467709e-02 1.494257e-01 1.944805e-01 2.447250e-01 3.043838e-01 3.336533e-01 3.354227e-01 3.612046e-01 3.727277e-01 3.343723e-01 3.190645e-01 2.816661e-01 5.217870e-02
<GCONST> 1.154724e+02
<STATE> 4
<MEAN> 39
 -5.356264e+00 -1.330590e+00 -1.795138e+00 -1.863053e+00 -2.420458e+00 -2.141478e+00 -1.319822e+00 -1.976253e+00 -1.413490e+00 -2.936813e+00 -2.511281e+00 -3.305396e+00 5.821546e+01 -1.296543e-01 1.132716e-01 -2.010056e-02 8.733943e-02 6.814376e-02 3.930337e-02 -3.841258e-02 -1.094494e-02 3.693569e-03 1.151082e-02 4.285784e-02 3.207252e-02 -2.354073e-01 2.762459e-02 -1.357771e-02 1.080816e-02 -1.327140e-02 -3.371115e-02 -1.690610e-02 -1.026382e-02 4.978661e-03 3.818196e-04 3.905933e-03 5.256882e-03 -1.311180e-02 3.961143e-02
<VARIANCE> 39
 3.877065e+01 3.447015e+01 4.054949e+01 4.471030e+01 5.532693e+01 4.329342e+01 4.309044e+01 4.205518e+01 4.874545e+01 3.820430e+01 3.285961e+01 3.092755e+01 7.731899e+01 3.019849e-01 5.549468e-01 8.048451e-01 9.877201e-01 1.314181e+00 1.408451e+00 1.534249e+00 1.680072e+00 1.676918e+00 1.693939e+00 1.562031e+00 1.408474e+00 2.551368e-01 4.516696e-02 9.181959e-02 1.305085e-01 1.745680e-01 2.328872e-01 2.587564e-01 2.850720e-01 3.170407e-01 3.237975e-01 3.236893e-01 3.039678e-01 2.693857e-01 3.123953e-02
<GCONST> 9.777201e+01
<TRANSP> 5
 0.000000e+00 1.000000e+00 0.000000e+00 0.000000e+00 0.000000e+00
 0.000000e+00 4.462576e-01 5.537424e-01 0.000000e+00 0.000000e+00
 0.000000e+00 0.000000e+00 6.641027e-01 3.358972e-01 0.000000e+00
 0.000000e+00 0.000000e+00 0.000000e+00 8.467785e-01 1.532215e-01
 0.000000e+00 0.000000e+00 0.000000e+00 0.000000e+00 0.000000e+00
<ENDHMM>
~h "i"
<BEGINHMM>
<NUMSTATES> 5
<STATE> 2
<MEAN> 39
 -1.518821e+00 -1.465194e+00 1.017834e+01 -4.061415e+00 -1.476983e+01 -8.667170e+00 -7.123351e+00 -5.671079e+00 -8.278861e+00 -2.441631e+00 -1.301206e-01 -5.028910e+00 6.621029e+01 3.175318e-01 -2.296835e-01 2.079335e+00 -1.046610e+00 -1.842336e+00 -3.301147e-01 -6.718329e-01 -1.822927e-01 -1.068868e+00 3.384434e-01 5.793008e-01 -3.134458e-01 9.336489e-01 -1.173693e-01 1.192766e-01 -5.284084e-01 8.136517e-02 5.184256e-01 3.910595e-01 1.505122e-01 1.562052e-01 3.238898e-01 -8.130739e-03 -1.521685e-01 1.977132e-02 -2.933137e-01
<VARIANCE> 39
 3.938644e+01 7.531508e+01 9.453185e+01 1.633281e+02 9.536857e+01 1.008486e+02 7.415092e+01 8.925346e+01 8.337292e+01 6.653551e+01 7.665862e+01 4.823013e+01 6.746598e+01 3.271253e+00 3.123407e+00 5.649888e+00 6.435732e+00 6.270981e+00 5.751945e+00 6.026789e+00 5.433223e+00 5.632793e+00 5.323998e+00 5.649607e+00 3.681899e+00 2.095094e+00 4.635635e-01 5.378557e-01 1.019913e+00 1.006640e+00 1.162895e+00 9.378456e-01 9.374449e-01 9.207739e-01 9.459902e-01 8.726537e-01 8.345246e-01 6.109997e-01 3.955490e-01
<GCONST> 1.452855e+02
<STATE> 3
<MEAN> 39
 -1.180465e+00 -2.471720e+00 1.480796e+01 -6.026445e+00 -1.818245e+01 -8.800606e+00 -8.704640e+00 -4.277230e+00 -9.997235e+00 -1.611727e+00 1.935794e+00 -6.549449e+00 6.842531e+01 1.542663e-01 3.204470e-01 -5.119557e-01 2.706232e-01 4.712607e-01 2.114100e-01 1.037306e-01 1.225955e-01 3.167681e-01 -3.742892e-02 -2.283944e-01 7.013066e-02 -4.351327e-01 -3.043326e-02 2.029786e-01 -6.914806e-01 3.709883e-01 7.076702e-01 1.873096e-01 2.486153e-01 1.026139e-03 3.673161e-01 -1.185341e-01 -2.982052e-01 1.275578e-01 -4.006606e-01
<VARIANCE> 39
 2.466073e+01 5.566736e+01 8.027429e+01 1.586297e+02 9.076883e+01 9.583237e+01 7.784503e+01 9.174257e+01 8.836237e+01 7.554655e+01 1.076861e+02 5.307583e+01 4.050103e+01 9.990011e-01 2.046996e+00 3.345398e+00 3.284798e+00 3.834487e+00 3.496758e+00 3.411148e+00 3.704376e+00 3.682257e+00 3.261161e+00 3.079492e+00 2.410124e+00 1.381163e+00 2.300334e-01 3.090415e-01 5.345704e-01 5.777183e-01 7.486665e-01 7.664116e-01 7.330769e-01 7.717582e-01 7.624729e-01 7.171673e-01 7.709172e-01 5.266308e-01 1.840401e-01
<GCONST> 1.323731e+02
<STATE> 4
<MEAN> 39
 -2.519915e+00 1.977990e+00 1.090007e+01 -4.355379e+00 -1.310964e+01 -7.091244e+00 -7.674156e+00 -6.796923e+00 -8.119181e+00 -2.895041e+00 -2.495193e-01 -4.697900e+00 6.306422e+01 -8.288698e-02 2.066794e-01 -8.428968e-01 4.115750e-01 7.827920e-01 3.910953e-01 3.005719e-01 1.576618e-01 3.695690e-01 -7.597939e-02 -2.440820e-01 1.560879e-01 -6.390001e-01 -4.514602e-02 -7.520422e-02 -8.474773e-02 -3.522262e-05 2.711746e-02 1.938932e-03 3.368288e-02 2.435778e-02 3.562129e-02 -4.981169e-03 2.973767e-03 -6.619889e-03 2.420205e-02
<VARIANCE> 39
 2.789348e+01 5.476874e+01 7.888357e+01 1.405180e+02 7.977864e+01 8.810892e+01 6.739833e+01 7.897600e+01 6.694569e+01 6.491679e+01 7.811384e+01 4.215353e+01 6.315337e+01 7.823732e-01 1.403984e+00 2.050709e+00 2.056199e+00 2.661350e+00 2.498741e+00 2.514742e+00 2.648971e+00 2.625248e+00 2.380077e+00 2.345088e+00 1.834469e+00 9.917769e-01 9.642767e-02 1.738966e-01 2.672291e-01 3.016368e-01 3.974692e-01 4.037658e-01 4.058515e-01 4.288254e-01 4.206145e-01 3.993025e-01 3.726332e-01 3.049573e-01 9.561553e-02
<GCONST> 1.184980e+02
<TRANSP> 5
 0.000000e+00 1.000000e+00 0.000000e+00 0.000000e+00 0.000000e+00
 0.000000e+00 5.096570e-01 4.903430e-01 0.000000e+00 0.000000e+00
 0.000000e+00 0.000000e+00 5.815685e-01 4.184315e-01 0.000000e+00
 0.000000e+00 0.000000e+00 0.000000e+00 7.769960e-01 2.230040e-01
 0.000000e+00 0.000000e+00 0.000000e+00 0.000000e+00 0.000000e+00
<ENDHMM>
~h "j"
<BEGINHMM>
<NUMSTATES> 5
<STATE> 2
<MEAN> 39
 -5.054394e+00 4.876206e+00 2.503414e+00 1.478604e-01 -5.534460e+00 -4.106025e+00 -4.094789e+00 -3.200880e+00 -4.761486e+00 -5.341977e+00 -3.063926e+00 -4.033533e+00 5.984804e+01 -1.204576e+00 4.526900e-01 8.857561e-01 -4.575637e-01 -2.858961e-01 -5.909845e-01 -2.986789e-02 -5.553155e-01 -6.977916e-02 -7.687891e-02 4.311566e-01 1.737211e-01 8.836985e-01 2.196594e-01 -5.187286e-01 3.526552e-01 -2.512296e-01 -6.376857e-01 -4.316065e-01 -2.608136e-01 5.432525e-02 -1.551595e-01 1.349908e-01 2.351988e-01 5.171965e-02 4.650308e-01
<VARIANCE> 39
 9.680314e+01 7.658131e+01 6.738402e+01 8.248499e+01 7.502229e+01 7.781515e+01 4.746389e+01 5.854741e+01 5.213836e+01 6.300954e+01 4.038812e+01 3.690007e+01 1.018362e+02 6.285957e+00 4.961496e+00 5.059212e+00 5.118897e+00 6.533556e+00 6.515973e+00 4.444863e+00 4.157933e+00 4.291990e+00 4.104811e+00 3.645325e+00 2.814426e+00 4.784036e+00 1.532833e+00 9.572309e-01 8.074455e-01 9.571507e-01 1.154790e+00 1.008787e+00 9.245093e-01 8.329986e-01 7.777725e-01 8.017592e-01 6.823072e-01 5.274732e-01 6.773150e-01
<GCONST> 1.440984e+02
<STATE> 3
<MEAN> 39
 -3.769927e+00 -7.898688e-02 1.075387e+01 -3.686070e-01 -1.348292e+01 -8.330851e+00 -7.169769e+00 -6.013198e+00 -5.740470e+00 -4.730709e+00 7.375919e-01 -1.758696e+00 6.740351e+01 1.785812e+00 -2.169756e+00 1.204485e+00 -5.077850e-01 -2.561298e+00 -2.020308e+00 -1.397972e+00 5.307162e-01 -6.035504e-01 4.735395e-01 9.158687e-01 2.237071e-01 1.663945e+00 4.296214e-01 -2.480741e-01 -8.933380e-01 4.723159e-02 4.672794e-01 3.569109e-01 4.245598e-02 5.599512e-01 3.401444e-01 1.399898e-01 -2.130943e-01 -2.475884e-01 -2.563019e-01
<VARIANCE> 39
 5.517161e+01 1.121672e+02 7.219299e+01 1.592934e+02 9.476901e+01 1.508063e+02 6.556615e+01 7.655392e+01 8.024318e+01 5.745057e+01 4.856717e+01 4.903717e+01 5.149930e+01 5.320832e+00 5.331737e+00 6.443421e+00 6.442927e+00 7.741846e+00 6.022262e+00 6.260972e+00 5.986322e+00 5.377874e+00 6.117540e+00 4.779651e+00 3.247064e+00 2.014804e+00 8.671839e-01 9.344015e-01 7.373120e-01 8.696222e-01 1.270764e+00 1.463773e+00 1.109658e+00 9.299867e-01 9.291753e-01 9.116002e-01 8.297955e-01 6.631330e-01 2.666653e-01
<GCONST> 1.473848e+02
<STATE> 4
<MEAN> 39
 2.735791e-01 -3.783983e+00 1.011643e+01 -3.424307e+00 -1.618885e+01 -1.332971e+01 -9.746743e+00 5.309008e-01 -4.551214e+00 -1.814592e+00 2.517126e+00 -2.610270e+00 6.980845e+01 9.846265e-01 -1.518278e+00 -1.421071e+00 -5.604013e-01 1.014183e-01 1.245772e-01 -2.567904e-01 1.369515e+00 9.076335e-01 5.465395e-01 -2.917374e-01 -8.075883e-01 6.024125e-01 -2.837487e-01 5.277729e-01 -5.335107e-01 1.320456e-01 9.748414e-01 7.567073e-01 3.964222e-01 -2.474617e-01 1.098100e-01 -1.552981e-01 -4.496453e-01 -2.181858e-01 -4.710540e-01
<VARIANCE> 39
 2.829178e+01 4.858593e+01 6.844185e+01 1.181434e+02 8.463792e+01 7.151716e+01 8.376731e+01 8.640814e+01 8.718076e+01 6.891977e+01 6.080575e+01 4.128537e+01 4.529454e+01 1.074886e+00 2.816762e+00 2.907411e+00 2.598049e+00 4.656346e+00 3.758002e+00 5.087261e+00 4.342731e+00 3.681473e+00 3.448967e+00 4.075374e+00 3.195874e+00 9.560870e-01 2.834122e-01 3.611011e-01 5.717407e-01 6.120253e-01 7.136540e-01 6.773203e-01 7.756079e-01 7.779481e-01 7.312522e-01 8.300109e-01 6.486289e-01 5.048164e-01 1.592204e-01
<GCONST> 1.319743e+02
<TRANSP> 5
 0.000000e+00 1.000000e+00 0.000000e+00 0.000000e+00 0.000000e+00
 0.000000e+00 7.506635e-01 2.493365e-01 0.000000e+00 0.000000e+00
 0.000000e+00 0.000000e+00 5.359498e-01 4.640502e-01 0.000000e+00
 0.000000e+00 0.000000e+00 0.000000e+00 5.377538e-01 4.622463e-01
 0.000000e+00 0.000000e+00 0.000000e+00 0.000000e+00 0.000000e+00
<ENDHMM>
~h "k"
<BEGINHMM>
<NUMSTATES> 5
<STATE> 2
<MEAN> 39
 -6.345920e+00 1.842575e+00 -4.928893e+00 -3.758528e-01 -4.989976e+00 8.589267e-01 -4.405133e+00 -2.672741e+00 -3.019638e+00 -1.901324e+00 -8.344974e-01 -2.419166e+00 5.210321e+01 -5.025054e-01 -5.515243e-01 -6.065574e-01 -5.168277e-02 4.706294e-01 -2.235399e-01 -2.466910e-03 1.824395e-01 3.549474e-01 2.323461e-01 5.041693e-02 1.651592e-01 1.257292e-01 2.326768e-01 -3.788764e-01 3.529160e-03 -3.690015e-01 -1.449646e-01 -3.179808e-01 -9.170613e-02 3.448654e-02 -3.025896e-02 7.751521e-02 -8.890077e-02 -1.366096e-01 6.779733e-01
<VARIANCE> 39
 6.518027e+01 8.389149e+01 6.494284e+01 8.243697e+01 1.079144e+02 8.355654e+01 5.807613e+01 6.016496e+01 6.138905e+01 6.643170e+01 4.672810e+01 4.090168e+01 1.550702e+02 2.715742e+00 5.250177e+00 4.363831e+00 5.347014e+00 5.847214e+00 5.812262e+00 4.744219e+00 4.616824e+00 4.976228e+00 4.091616e+00 3.840968e+00 3.188898e+00 5.268042e+00 4.757742e-01 7.783502e-01 7.255325e-01 8.791978e-01 1.068310e+00 9.725349e-01 8.988301e-01 8.676376e-01 9.506919e-01 8.154716e-01 7.391891e-01 6.394605e-01 6.551470e-01
<GCONST> 1.435682e+02
<STATE> 3
<MEAN> 39
 -3.032242e+00 -7.927347e+00 -6.417523e+00 -1.183118e+00 -5.867728e+00 -1.663534e+00 -4.407712e+00 -9.657761e-01 -1.057815e+00 -1.506981e+00 -2.806183e+00 -1.998513e+00 6.384927e+01 7.318921e-01 -6.280053e-01 5.385375e-03 -8.525791e-01 -4.456717e-01 -8.097277e-01 -1.746481e-01 -7.537145e-02 -7.994110e-02 7.695065e-02 -2.216544e-01 -3.432633e-01 1.684593e+00 3.824030e-01 3.065880e-01 3.494276e-01 -1.122573e-01 -4.382646e-01 7.747427e-02 -4.784608e-02 -1.188456e-01 -2.271644e-01 -1.653190e-01 3.066170e-02 -1.914227e-01 -6.167714e-03
<VARIANCE> 39
 6.948670e+01 8.263246e+01 8.837875e+01 1.575022e+02 2.166648e+02 1.438194e+02 8.369140e+01 7.833146e+01 8.286069e+01 8.013499e+01 5.257288e+01 5.629930e+01 9.482800e+01 5.375791e+00 6.898757e+00 6.501685e+00 7.278967e+00 8.118421e+00 8.080471e+00 6.836881e+00 6.256319e+00 6.398439e+00 6.083769e+00 4.913369e+00 4.250094e+00 6.418964e+00 8.447224e-01 1.240276e+00 1.194040e+00 1.245765e+00 1.593489e+00 1.523800e+00 1.377274e+00 1.220226e+00 1.244561e+00 1.173038e+00 9.168683e-01 7.704859e-01 8.786599e-01
<GCONST> 1.560757e+02
<STATE> 4
<MEAN> 39
 -6.418794e-01 -4.523183e+00 -5.031297e+00 -6.184612e+00 -4.776024e+00 -5.199600e+00 -4.658413e+00 -1.875911e+00 -3.254392e+00 -1.279949e+00 -3.829160e+00 -5.251812e+00 6.571893e+01 1.582793e+00 -2.034564e-01 7.328049e-01 -1.229440e+00 -1.571506e+00 -3.165736e-01 -3.426419e-01 -2.501054e-01 -6.666257e-01 -3.018181e-01 -9.651759e-02 -7.951841e-01 1.371219e+00 -9.124312e-02 -6.896159e-02 6.800819e-02 1.857752e-01 -1.945949e-02 2.817642e-01 -8.364730e-04 5.684732e-02 5.656898e-02 -2.970871e-02 1.421041e-01 6.702323e-02 -2.138451e-01
<VARIANCE> 39
 4.411201e+01 6.182872e+01 7.193575e+01 1.029163e+02 1.003805e+02 8.304091e+01 6.102613e+01 6.800463e+01 7.353835e+01 7.090092e+01 6.177548e+01 4.465647e+01 7.873602e+01 3.897618e+00 4.381672e+00 5.168066e+00 5.907271e+00 6.380363e+00 5.604639e+00 5.803818e+00 6.185165e+00 6.207889e+00 5.250159e+00 5.379192e+00 4.021318e+00 3.051020e+00 4.818220e-01 5.670686e-01 6.249067e-01 7.594236e-01 8.542752e-01 8.098472e-01 7.529657e-01 8.458382e-01 7.960974e-01 7.591245e-01 6.973866e-01 5.449076e-01 4.892209e-01
<GCONST> 1.427441e+02
<TRANSP> 5
 0.000000e+00 1.000000e+00 0.000000e+00 0.000000e+00 0.000000e+00
 0.000000e+00 6.485190e-01 3.514809e-01 0.000000e+00 0.000000e+00
 0.000000e+00 0.000000e+00 5.779629e-01 4.220371e-01 0.000000e+00
 0.000000e+00 0.000000e+00 0.000000e+00 3.225449e-01 6.774552e-01
 0.000000e+00 0.000000e+00 0.000000e+00 0.000000e+00 0.000000e+00
<ENDHMM>
~h "l"
<BEGINHMM>
<NUMSTATES> 5
<STATE> 2
<MEAN> 39
 4.347186e+00 -5.684770e+00 -3.488873e+00 -4.447561e+00 -8.205181e+00 -4.259921e+00 -9.872759e+00 -6.058633e+00 3.708235e-01 2.101421e-02 -1.794213e+00 -5.844611e+00 6.832219e+01 1.777731e-01 -1.367976e-01 -1.075018e-01 -1.531101e-01 -4.220715e-03 6.581723e-02 -5.779700e-01 -3.036238e-01 4.154605e-01 4.991888e-01 -3.915388e-03 -1.682589e-01 7.435414e-02 -1.056248e-01 -3.812727e-02 2.342166e-02 -9.273306e-02 -1.307652e-02 6.232120e-02 1.751103e-01 2.642482e-01 -7.343544e-02 -1.936194e-01 -1.541125e-02 -1.678532e-03 2.153507e-02
<VARIANCE> 39
 3.897229e+01 5.921201e+01 7.631594e+01 1.636479e+02 1.118395e+02 1.160187e+02 9.738880e+01 9.584637e+01 9.878915e+01 1.085533e+02 8.075523e+01 6.422848e+01 5.158618e+01 6.976353e-01 1.797934e+00 2.328264e+00 3.253544e+00 3.301818e+00 4.304307e+00 3.985434e+00 4.220935e+00 4.242519e+00 3.780179e+00 3.451579e+00 2.877697e+00 8.728211e-01 1.236630e-01 2.880588e-01 3.111768e-01 5.299925e-01 5.429892e-01 7.154179e-01 7.196312e-01 8.034735e-01 7.192726e-01 6.835614e-01 6.502945e-01 5.227897e-01 1.247149e-01
<GCONST> 1.314054e+02
<STATE> 3
<MEAN> 39
 4.027141e+00 -5.257139e+00 -2.964464e+00 -6.725329e+00 -6.989740e+00 -4.232180e+00 -1.197834e+01 -5.019473e+00 1.777599e+00 2.738659e+00 -1.973717e+00 -7.634521e+00 6.832665e+01 -9.157436e-02 -2.011552e-01 -2.338639e-03 -1.719598e-01 -2.859937e-02 7.235333e-02 2.415564e-01 5.697763e-01 8.744705e-03 -3.536512e-01 -1.988058e-01 -1.987419e-02 1.121888e-01 -9.134077e-02 -3.106932e-02 1.209481e-02 -9.366871e-03 -7.563777e-03 4.928130e-02 3.303420e-01 2.491821e-01 -1.956378e-01 -2.998181e-01 -2.019440e-02 6.022916e-02 2.142163e-02
<VARIANCE> 39
 3.307573e+01 5.011502e+01 7.505856e+01 1.189780e+02 9.837646e+01 9.777973e+01 9.728715e+01 8.411208e+01 9.407393e+01 9.373363e+01 7.365338e+01 6.435905e+01 4.896267e+01 4.107049e-01 1.414106e+00 1.809006e+00 2.418103e+00 2.355232e+00 3.103878e+00 3.098855e+00 3.621079e+00 3.169843e+00 2.869328e+00 3.170785e+00 2.156035e+00 6.093518e-01 7.454032e-02 2.364136e-01 2.532175e-01 4.019522e-01 4.381850e-01 4.971101e-01 5.654917e-01 6.273003e-01 5.716368e-01 5.527691e-01 5.737197e-01 4.367188e-01 9.357470e-02
<GCONST> 1.229934e+02
<STATE> 4
<MEAN> 39
 6.176411e+00 -8.807406e+00 -6.418312e+00 -2.679497e+00 -1.131274e+01 -2.102214e+00 -6.507899e+00 -4.487427e+00 2.255354e+00 -3.824843e+00 -1.180116e+00 -3.798400e+00 6.964867e+01 -1.312466e-01 3.170050e-02 4.489198e-02 -4.950562e-02 2.589913e-02 4.757191e-02 2.517102e-01 2.265310e-01 -1.983618e-01 -1.209069e-01 -1.691914e-02 3.064078e-02 -1.058307e-01 -2.487400e-02 3.817720e-02 3.157801e-02 2.670150e-02 6.068003e-03 5.778698e-03 2.119704e-02 -9.067299e-03 -5.757558e-02 8.201315e-03 1.837695e-02 4.900931e-04 -3.282676e-02
<VARIANCE> 39
 4.116525e+01 6.978558e+01 7.678761e+01 2.082893e+02 1.728133e+02 1.186553e+02 8.413248e+01 9.360223e+01 9.746454e+01 1.313107e+02 8.437563e+01 7.062186e+01 4.260619e+01 3.176803e-01 1.055197e+00 1.258664e+00 1.603769e+00 2.021178e+00 2.233814e+00 2.192643e+00 2.448602e+00 2.293217e+00 2.373146e+00 2.259242e+00 1.618851e+00 5.261322e-01 4.838877e-02 1.468440e-01 1.676066e-01 2.476659e-01 3.095452e-01 3.498676e-01 3.392817e-01 3.621792e-01 3.792650e-01 3.778811e-01 3.528897e-01 2.775442e-01 6.459943e-02
<GCONST> 1.158142e+02
<TRANSP> 5
 0.000000e+00 1.000000e+00 0.000000e+00 0.000000e+00 0.000000e+00
 0.000000e+00 3.850734e-01 6.149266e-01 0.000000e+00 0.000000e+00
 0.000000e+00 0.000000e+00 3.677272e-01 6.322728e-01 0.000000e+00
 0.000000e+00 0.000000e+00 0.000000e+00 7.484545e-01 2.515455e-01
 0.000000e+00 0.000000e+00 0.000000e+00 0.000000e+00 0.000000e+00
<ENDHMM>
~h "m"
<BEGINHMM>
<NUMSTATES> 5
<STATE> 2
<MEAN> 39
 3.434176e+00 -7.673978e-01 -9.424275e-01 -1.833135e-01 -5.029712e+00 6.932414e-01 -5.711742e+00 -7.614748e+00 -8.041669e+00 -2.311797e+00 -2.161855e+00 -6.113791e+00 6.265177e+01 -7.844304e-02 5.869894e-01 7.650485e-01 1.080612e+00 2.024510e-01 4.182209e-01 2.901507e-01 -1.230559e+00 -1.239828e+00 -4.756472e-01 -4.621136e-01 8.445637e-02 -4.748530e-01 -1.972307e-03 -3.315378e-01 -2.274860e-01 -4.611011e-01 -9.499744e-02 -1.321064e-01 -1.072027e-01 4.386847e-01 4.229044e-01 5.625724e-02 3.061828e-02 -9.658328e-02 3.069436e-01
<VARIANCE> 39
 3.458485e+01 4.859022e+01 6.550404e+01 6.683620e+01 6.649473e+01 6.894368e+01 5.326062e+01 5.061116e+01 7.387087e+01 5.936120e+01 4.813807e+01 4.158347e+01 5.600488e+01 8.422162e-01 1.478775e+00 2.123852e+00 2.590035e+00 2.144947e+00 2.337301e+00 2.427428e+00 2.747918e+00 3.168132e+00 2.341536e+00 2.685005e+00 1.980591e+00 9.630831e-01 1.307471e-01 2.121710e-01 3.556543e-01 4.188026e-01 4.089020e-01 4.307355e-01 4.275000e-01 5.190615e-01 5.794218e-01 4.482888e-01 5.092470e-01 3.593510e-01 1.236672e-01
<GCONST> 1.190354e+02
<STATE> 3
<MEAN> 39
 3.645317e+00 -9.963815e-01 6.982876e-01 5.962846e-01 -5.814220e+00 1.309135e+00 -5.452888e+00 -8.853598e+00 -9.387131e+00 -3.122369e+00 -2.575866e+00 -5.898098e+00 6.301825e+01 2.379282e-01 -3.247522e-01 -5.890452e-01 -7.327660e-01 -1.522361e-01 6.023003e-02 -9.118833e-02 4.359629e-01 5.268543e-01 8.106068e-02 1.500670e-01 -2.152934e-01 3.898682e-01 4.275725e-02 -3.266924e-01 -4.538623e-01 -5.929034e-01 -5.230688e-02 -1.342474e-01 -1.522057e-01 6.734462e-01 6.756580e-01 1.796108e-01 1.407344e-01 -1.335728e-01 2.809040e-01
<VARIANCE> 39
 3.249210e+01 5.138937e+01 7.078230e+01 6.891092e+01 7.119806e+01 7.476322e+01 5.500766e+01 5.902910e+01 9.028082e+01 5.819134e+01 5.206372e+01 4.257062e+01 4.988797e+01 7.823653e-01 1.455125e+00 2.465097e+00 2.790672e+00 2.117105e+00 2.516084e+00 2.214674e+00 2.659779e+00 3.012961e+00 2.141221e+00 2.356902e+00 1.838451e+00 1.014660e+00 1.188124e-01 2.493045e-01 4.016047e-01 4.670901e-01 4.591177e-01 5.044126e-01 4.793737e-01 5.836082e-01 6.531470e-01 5.005526e-01 5.637913e-01 4.483947e-01 1.083064e-01
<GCONST> 1.206395e+02
<STATE> 4
<MEAN> 39
 3.217457e+00 5.852060e-01 -2.438621e+00 -2.674486e+00 -4.902586e+00 -1.557888e-01 -5.749151e+00 -6.051644e+00 -6.315259e+00 -3.327420e+00 -3.494152e+00 -6.314945e+00 6.350162e+01 6.974051e-02 -3.177626e-01 -5.481514e-01 -7.015777e-01 -9.037539e-02 -6.122827e-02 -1.057771e-01 8.254365e-01 7.415016e-01 1.523376e-01 1.310497e-01 -1.836356e-01 2.562957e-01 -5.909781e-02 -1.434263e-01 -4.293963e-03 -4.198118e-02 4.465334e-02 -3.181110e-02 -3.830139e-02 1.259594e-01 7.952783e-02 1.296467e-02 1.585629e-03 1.141867e-03 7.431761e-02
<VARIANCE> 39
 3.487358e+01 4.775814e+01 6.058054e+01 7.795441e+01 6.898013e+01 6.435470e+01 5.298827e+01 4.934160e+01 6.765404e+01 5.966591e+01 4.843347e+01 3.788374e+01 5.907703e+01 6.496800e-01 1.684517e+00 2.289265e+00 2.908566e+00 2.394738e+00 2.507908e+00 2.290015e+00 3.021814e+00 3.251112e+00 2.423649e+00 2.499007e+00 2.193337e+00 1.010329e+00 9.254418e-02 1.724617e-01 2.594587e-01 3.436774e-01 3.972707e-01 3.706620e-01 3.668664e-01 4.360414e-01 4.313202e-01 4.037785e-01 4.338995e-01 3.268294e-01 7.419549e-02
<GCONST> 1.166027e+02
<TRANSP> 5
 0.000000e+00 1.000000e+00 0.000000e+00 0.000000e+00 0.000000e+00
 0.000000e+00 4.322106e-01 5.677894e-01 0.000000e+00 0.000000e+00
 0.000000e+00 0.000000e+00 3.866025e-01 6.133975e-01 0.000000e+00
 0.000000e+00 0.000000e+00 0.000000e+00 6.175672e-01 3.824327e-01
 0.000000e+00 0.000000e+00 0.000000e+00 0.000000e+00 0.000000e+00
<ENDHMM>
~h "n"
<BEGINHMM>
<NUMSTATES> 5
<STATE> 2
<MEAN> 39
 3.267891e+00 -4.029651e+00 1.078618e+00 -1.547299e-01 -9.303442e+00 -5.627121e+00 -6.831273e+00 -3.352672e+00 -4.340845e+00 -3.606925e+00 -5.057797e+00 -6.083841e+00 6.471947e+01 2.023839e-01 1.614714e+00 3.511286e-01 1.241157e+00 1.078761e-01 3.955789e-01 -1.337607e-01 -1.633754e+00 -4.488316e-01 7.441901e-02 -3.998495e-01 1.312496e-01 -1.261860e+00 -1.024835e-01 -1.103161e-01 -7.134656e-02 -2.647047e-01 4.467662e-02 8.382530e-02 1.000084e-01 1.294370e-01 3.121074e-03 -1.660955e-02 9.329168e-02 -3.791896e-02 1.357049e-01
<VARIANCE> 39
 2.826246e+01 6.034445e+01 6.021651e+01 9.053062e+01 6.971613e+01 8.217690e+01 6.243156e+01 8.575545e+01 8.428395e+01 8.841497e+01 5.187511e+01 4.958062e+01 4.788612e+01 7.734914e-01 1.859392e+00 2.663347e+00 2.473105e+00 3.083460e+00 3.365752e+00 3.128537e+00 4.586109e+00 3.524321e+00 3.635741e+00 3.209868e+00 2.680609e+00 9.745598e-01 9.280703e-02 2.550945e-01 2.884177e-01 3.451549e-01 3.908262e-01 4.549575e-01 4.694489e-01 6.901644e-01 4.879035e-01 5.081229e-01 4.462942e-01 3.842129e-01 1.280334e-01
<GCONST> 1.234096e+02
<STATE> 3
<MEAN> 39
 3.677620e+00 -1.102214e+00 2.393992e+00 2.156104e+00 -9.320054e+00 -3.879437e+00 -7.016455e+00 -6.279353e+00 -4.501186e+00 -1.773905e+00 -5.549928e+00 -6.444630e+00 6.285208e+01 -4.043800e-02 8.723164e-01 5.639470e-02 3.294413e-01 2.339849e-01 3.002654e-01 1.369357e-01 -5.047205e-01 -2.895052e-01 -1.043545e-01 -8.825909e-02 6.924284e-02 -6.320234e-01 -1.559730e-01 -4.449776e-01 -1.550481e-01 -4.286683e-01 5.182149e-02 -8.689070e-02 6.078024e-02 6.695541e-01 1.588580e-01 -1.358419e-01 2.231678e-01 -4.118799e-02 3.377510e-01
<VARIANCE> 39
 2.682200e+01 5.244680e+01 6.271137e+01 6.961042e+01 6.716921e+01 7.886506e+01 5.315165e+01 6.539597e+01 7.480206e+01 8.113248e+01 4.843488e+01 4.601541e+01 4.296707e+01 5.323835e-01 1.532107e+00 1.629698e+00 1.578799e+00 2.036600e+00 2.310622e+00 2.213943e+00 2.878775e+00 2.513669e+00 2.378172e+00 2.127301e+00 1.767397e+00 7.323374e-01 1.312184e-01 3.301881e-01 4.271546e-01 4.234369e-01 5.102017e-01 5.319807e-01 4.997424e-01 7.703649e-01 5.558208e-01 6.332077e-01 5.490218e-01 4.288597e-01 1.653517e-01
<GCONST> 1.197622e+02
<STATE> 4
<MEAN> 39
 1.448024e+00 2.882521e+00 1.499142e+00 1.676559e+00 -6.032351e+00 -4.215975e+00 -5.992096e+00 -5.713880e+00 -4.748537e+00 -3.976428e+00 -5.462249e+00 -5.574154e+00 6.034253e+01 -3.852831e-01 1.068088e-01 -6.805830e-02 -7.133321e-02 3.024319e-01 2.314216e-01 1.660381e-01 3.550306e-01 5.943316e-02 -9.619641e-02 2.308859e-01 7.560924e-02 -2.978106e-01 -9.611106e-02 -3.066582e-01 -3.529599e-02 -1.878349e-01 -4.454711e-02 -4.155480e-02 2.019155e-02 2.163311e-01 8.307650e-02 4.200526e-02 9.652998e-02 8.278251e-03 1.990359e-01
<VARIANCE> 39
 3.270137e+01 5.095955e+01 3.943254e+01 5.328514e+01 5.661446e+01 6.218450e+01 4.208632e+01 5.511632e+01 5.619398e+01 6.444006e+01 3.950078e+01 3.636022e+01 5.369087e+01 6.378803e-01 1.513806e+00 1.391647e+00 1.583408e+00 1.935244e+00 2.046084e+00 2.055255e+00 2.779973e+00 2.257561e+00 2.267331e+00 2.079143e+00 1.716020e+00 7.416638e-01 1.247732e-01 2.653410e-01 2.921183e-01 3.450945e-01 4.005499e-01 4.118822e-01 3.999659e-01 5.321238e-01 4.462329e-01 4.480228e-01 4.112432e-01 3.216671e-01 1.250022e-01
<GCONST> 1.138253e+02
<TRANSP> 5
 0.000000e+00 1.000000e+00 0.000000e+00 0.000000e+00 0.000000e+00
 0.000000e+00 3.619980e-01 6.380020e-01 0.000000e+00 0.000000e+00
 0.000000e+00 0.000000e+00 3.322098e-01 6.677902e-01 0.000000e+00
 0.000000e+00 0.000000e+00 0.000000e+00 6.784791e-01 3.215209e-01
 0.000000e+00 0.000000e+00 0.000000e+00 0.000000e+00 0.000000e+00
<ENDHMM>
~h "o"
<BEGINHMM>
<NUMSTATES> 5
<STATE> 2
<MEAN> 39
 2.828992e+00 -3.461475e+00 -7.451581e+00 -1.016165e+01 -7.667638e+00 3.363461e-01 -5.732660e+00 -2.370820e+00 -1.912781e+00 -9.437906e-01 -3.970813e-01 -5.141741e+00 6.557691e+01 1.100998e+00 -3.244084e-01 -6.712846e-01 -1.420314e+00 -3.596334e-01 5.640758e-01 -1.235162e-01 -1.448691e-01 -1.297581e-01 2.406274e-01 4.460451e-01 -3.093765e-01 1.005522e+00 -3.162807e-01 5.810733e-02 1.849106e-01 4.016335e-01 1.899262e-01 1.122872e-02 9.745022e-02 -2.749014e-02 -6.205936e-02 -9.942858e-02 -4.588751e-02 1.054044e-01 -2.736933e-01
<VARIANCE> 39
 5.645573e+01 5.921169e+01 5.807269e+01 1.748334e+02 1.121459e+02 9.204488e+01 7.977005e+01 6.439645e+01 8.006157e+01 7.618493e+01 5.940808e+01 5.226804e+01 1.063498e+02 4.432298e+00 3.246196e+00 3.490186e+00 7.358586e+00 5.174329e+00 5.861954e+00 4.873445e+00 4.451595e+00 4.350293e+00 4.173615e+00 3.763907e+00 3.235825e+00 4.292183e+00 6.593950e-01 5.458882e-01 5.482079e-01 1.154578e+00 8.232118e-01 8.967782e-01 8.983626e-01 7.437627e-01 7.819166e-01 7.423796e-01 6.833631e-01 5.926932e-01 5.393751e-01
<GCONST> 1.432333e+02
<STATE> 3
<MEAN> 39
 6.299335e+00 -5.184788e+00 -7.914420e+00 -1.082068e+01 -8.882890e+00 1.318210e+00 -7.137475e+00 -4.257323e+00 -1.032199e+00 -1.432500e+00 1.622838e+00 -5.788907e+00 6.839533e+01 -1.031758e-01 3.026581e-01 4.573225e-02 4.229874e-01 3.002974e-01 1.645861e-01 2.187891e-01 -9.519323e-02 -1.984770e-01 -8.393590e-02 -1.424085e-01 1.947584e-01 -4.866901e-01 -2.071021e-01 1.748256e-01 2.074020e-01 4.398013e-01 9.008796e-02 -1.668946e-01 8.894025e-02 -2.273397e-02 -2.179536e-02 -8.478510e-02 -1.920524e-01 8.927999e-02 -2.695991e-01
<VARIANCE> 39
 3.143094e+01 5.453963e+01 5.996752e+01 1.896998e+02 1.317676e+02 9.348125e+01 7.836841e+01 8.718256e+01 1.070858e+02 1.061396e+02 7.289537e+01 5.792502e+01 4.496707e+01 6.864927e-01 1.789437e+00 1.691573e+00 3.391047e+00 2.660321e+00 3.380647e+00 2.960573e+00 2.901539e+00 3.436221e+00 3.109134e+00 2.824814e+00 2.411992e+00 1.260376e+00 1.357542e-01 2.497184e-01 3.078966e-01 5.211447e-01 5.018543e-01 5.947381e-01 5.403875e-01 5.810395e-01 6.134021e-01 5.815258e-01 5.312200e-01 4.686352e-01 1.466149e-01
<GCONST> 1.270998e+02
<STATE> 4
<MEAN> 39
 2.296599e+00 -4.654545e-01 -7.745156e+00 -1.090277e+01 -5.239319e+00 1.704963e+00 -3.473277e+00 -3.882055e+00 -1.794239e+00 -4.423211e-01 2.524093e-01 -4.136695e+00 6.340961e+01 -3.318819e-01 1.815801e-01 3.029684e-01 6.249453e-01 2.033551e-01 -1.049345e-01 1.072038e-01 8.818762e-03 -6.140970e-02 -1.262095e-01 -1.798829e-01 3.614214e-02 -4.165627e-01 -3.407608e-02 -2.236623e-02 4.742051e-02 6.297427e-02 -1.926562e-02 -5.586841e-02 -3.138960e-02 1.679067e-03 1.211884e-02 -9.386670e-03 -6.313507e-03 -1.119299e-02 8.223856e-03
<VARIANCE> 39
 4.498012e+01 3.970251e+01 4.953445e+01 1.295446e+02 7.280048e+01 7.436723e+01 5.849157e+01 5.185322e+01 7.098209e+01 5.942073e+01 4.952875e+01 4.382476e+01 6.627369e+01 4.798031e-01 8.108284e-01 1.043906e+00 1.741867e+00 1.484620e+00 1.647031e+00 1.725637e+00 1.682127e+00 1.786521e+00 1.821325e+00 1.665895e+00 1.479254e+00 4.938503e-01 6.027570e-02 1.165942e-01 1.502669e-01 2.324591e-01 2.385295e-01 2.698855e-01 2.826535e-01 2.879307e-01 3.099732e-01 3.200430e-01 2.765943e-01 2.609991e-01 5.001641e-02
<GCONST> 1.062607e+02
<TRANSP> 5
 0.000000e+00 1.000000e+00 0.000000e+00 0.000000e+00 0.000000e+00
 0.000000e+00 5.669404e-01 4.330596e-01 0.000000e+00 0.000000e+00
 0.000000e+00 0.000000e+00 6.564828e-01 3.435173e-01 0.000000e+00
 0.000000e+00 0.000000e+00 0.000000e+00 8.056027e-01 1.943973e-01
 0.000000e+00 0.000000e+00 0.000000e+00 0.000000e+00 0.000000e+00
<ENDHMM>
~h "p"
<BEGINHMM>
<NUMSTATES> 5
<STATE> 2
<MEAN> 39
 -4.717235e+00 1.264003e+00 -4.616021e+00 3.452104e-01 -3.470426e+00 9.507295e-01 -3.645015e+00 -1.805941e+00 -1.868011e+00 -1.206394e+00 -1.190879e+00 -2.603108e+00 5.367435e+01 -4.759381e-01 -4.977545e-01 -4.676803e-02 -1.303087e-01 -2.044224e-01 -2.772545e-01 6.659763e-02 -1.315720e-03 3.319894e-01 1.226881e-01 2.526708e-01 1.758534e-01 2.175625e-01 5.105025e-01 -4.886285e-01 -8.114428e-02 -4.181689e-01 -3.097850e-01 -2.531686e-01 -2.687004e-01 -9.192746e-02 -2.120115e-02 9.562840e-02 3.378985e-02 -2.438451e-01 8.757345e-01
<VARIANCE> 39
 6.601516e+01 4.353341e+01 4.376721e+01 5.614577e+01 6.294680e+01 5.331196e+01 3.390060e+01 3.651917e+01 4.111985e+01 4.597897e+01 3.188984e+01 3.301692e+01 9.767931e+01 3.602543e+00 3.094229e+00 2.464183e+00 3.273458e+00 2.957465e+00 3.671771e+00 2.847326e+00 3.086556e+00 3.293257e+00 2.919468e+00 2.716197e+00 2.358289e+00 4.665819e+00 5.574728e-01 5.508906e-01 5.936460e-01 6.708148e-01 6.296423e-01 7.487037e-01 5.872773e-01 6.408091e-01 6.914914e-01 6.273887e-01 6.041782e-01 5.180227e-01 4.668134e-01
<GCONST> 1.299018e+02
<STATE> 3
<MEAN> 39
 -7.296889e-01 -4.314812e+00 -4.180804e+00 1.856973e+00 -9.403116e+00 1.310655e+00 -4.582489e+00 -4.062502e+00 -1.404914e+00 -3.019349e+00 -9.571772e-01 -1.690861e+00 6.113593e+01 1.550221e+00 -1.308621e+00 -3.649177e-01 -1.190672e+00 -9.734873e-01 -6.719441e-01 -5.995052e-01 -2.806171e-01 2.776476e-02 1.703214e-01 1.161443e-01 -6.933514e-01 2.463229e+00 2.420917e-01 -6.911704e-02 -3.699355e-02 -2.037112e-01 -6.815580e-02 -6.288584e-02 -1.347158e-01 1.005057e-01 -9.830875e-02 -2.489004e-02 -7.835235e-02 -2.157912e-01 1.919782e-01
<VARIANCE> 39
 6.796551e+01 9.921233e+01 6.424951e+01 1.439548e+02 1.184896e+02 1.220249e+02 5.513920e+01 6.381804e+01 5.857972e+01 6.038455e+01 3.965977e+01 4.773784e+01 9.845277e+01 7.006127e+00 8.144254e+00 6.974015e+00 8.231960e+00 7.046517e+00 9.521834e+00 6.612071e+00 6.507152e+00 6.367135e+00 6.398980e+00 5.362625e+00 4.770202e+00 7.097936e+00 8.732119e-01 1.234151e+00 9.763418e-01 1.077435e+00 1.165365e+00 1.450370e+00 1.021080e+00 1.080391e+00 1.086896e+00 9.543694e-01 8.024531e-01 7.208068e-01 8.830924e-01
<GCONST> 1.527619e+02
<STATE> 4
<MEAN> 39
 3.743088e+00 -7.002103e+00 -7.327613e+00 -6.619647e+00 -7.318306e+00 -2.520772e+00 -6.751127e+00 -3.805500e+00 -1.259227e+00 -9.808385e-01 -6.614453e-01 -6.938756e+00 6.752032e+01 1.282713e+00 -1.458775e+00 -1.410482e-01 -1.100448e+00 -7.646106e-01 -6.272898e-01 -7.073430e-01 2.691980e-01 2.150774e-03 1.218077e-01 -1.592308e-01 -9.713137e-01 2.130603e+00 -5.030320e-01 3.541609e-01 4.788363e-01 5.140908e-01 1.706954e-01 1.111788e-01 2.346880e-01 1.768385e-01 -8.888035e-02 -1.991353e-01 -1.738270e-01 3.204105e-01 -6.760027e-01
<VARIANCE> 39
 4.557143e+01 6.085442e+01 7.525921e+01 1.355772e+02 9.226189e+01 8.346809e+01 6.485611e+01 6.232642e+01 7.153866e+01 8.142062e+01 5.877458e+01 5.420449e+01 5.738751e+01 3.459901e+00 4.440451e+00 6.765593e+00 6.595318e+00 6.305072e+00 6.690084e+00 5.468641e+00 5.765786e+00 6.596676e+00 5.311506e+00 5.778579e+00 4.668591e+00 3.242574e+00 5.976374e-01 7.701802e-01 6.677878e-01 1.213467e+00 8.795270e-01 1.119541e+00 8.505449e-01 8.968701e-01 8.882807e-01 9.662885e-01 8.742874e-01 7.229397e-01 5.575114e-01
<GCONST> 1.461580e+02
<TRANSP> 5
 0.000000e+00 1.000000e+00 0.000000e+00 0.000000e+00 0.000000e+00
 0.000000e+00 6.593844e-01 3.406156e-01 0.000000e+00 0.000000e+00
 0.000000e+00 0.000000e+00 5.013723e-01 4.986276e-01 0.000000e+00
 0.000000e+00 0.000000e+00 0.000000e+00 3.133858e-01 6.866142e-01
 0.000000e+00 0.000000e+00 0.000000e+00 0.000000e+00 0.000000e+00
<ENDHMM>
~h "r"
<BEGINHMM>
<NUMSTATES> 5
<STATE> 2
<MEAN> 39
 3.136554e+00 -7.370920e+00 -3.419494e+00 -1.641904e-01 -8.943745e+00 -5.330569e+00 -7.548171e+00 -2.452725e+00 1.894756e+00 -1.686990e+00 -2.156812e+00 -5.097708e+00 6.752474e+01 -1.299369e-01 3.445442e-01 2.018206e-01 1.044006e+00 9.752119e-02 -2.330000e-01 -1.659401e-01 -2.020862e-01 9.138917e-02 -3.196886e-01 -1.086812e-03 4.114397e-01 -6.700163e-01 -5.188983e-02 3.930383e-02 6.861359e-02 -2.622554e-01 -2.518721e-02 7.896256e-02 9.117592e-02 3.505742e-02 -2.636262e-01 2.544908e-02 4.369150e-02 -5.799604e-02 4.992693e-02
<VARIANCE> 39
 4.043691e+01 5.049092e+01 5.565855e+01 1.107238e+02 9.387670e+01 8.588823e+01 7.491350e+01 8.105714e+01 8.319317e+01 8.626246e+01 6.241656e+01 5.988442e+01 5.580219e+01 1.415326e+00 2.254762e+00 2.307867e+00 2.907815e+00 3.462862e+00 3.589741e+00 3.488134e+00 3.764229e+00 3.961233e+00 3.753237e+00 3.536864e+00 3.029839e+00 1.367643e+00 2.480756e-01 3.650714e-01 3.845533e-01 5.564705e-01 6.450087e-01 6.404594e-01 6.370222e-01 6.797373e-01 6.982006e-01 6.975344e-01 6.102079e-01 5.412517e-01 2.581175e-01
<GCONST> 1.315552e+02
<STATE> 3
<MEAN> 39
 2.117093e+00 -5.472403e+00 -2.593711e+00 1.393809e+00 -7.437905e+00 -6.069623e+00 -7.577498e+00 -2.388161e+00 1.045757e+00 -2.013885e+00 -2.043411e+00 -4.109572e+00 6.545520e+01 -1.876259e-01 3.768880e-01 3.216688e-01 2.105820e-01 -1.582665e-03 9.642310e-02 1.774646e-01 -9.145345e-02 -5.389284e-01 -1.573521e-01 7.084140e-02 1.412257e-01 -4.171406e-01 1.313147e-02 -1.235586e-01 2.676534e-02 -5.189455e-01 -1.629983e-01 1.362800e-01 1.166410e-01 1.088314e-01 -2.482168e-01 1.602577e-01 6.955291e-02 -2.338170e-01 2.588767e-01
<VARIANCE> 39
 4.134212e+01 4.725857e+01 5.682416e+01 8.850194e+01 8.225776e+01 8.167172e+01 6.739445e+01 6.646960e+01 6.957423e+01 7.499128e+01 4.832295e+01 4.671972e+01 6.155273e+01 1.553182e+00 2.399098e+00 2.489622e+00 2.238915e+00 3.204968e+00 3.482656e+00 3.096339e+00 3.654851e+00 3.471056e+00 3.252398e+00 3.176081e+00 2.715404e+00 1.461337e+00 3.201924e-01 4.614761e-01 4.766893e-01 5.763799e-01 7.378895e-01 7.110023e-01 6.668494e-01 8.041828e-01 7.637236e-01 7.270855e-01 7.332878e-01 5.842975e-01 3.404816e-01
<GCONST> 1.312440e+02
<STATE> 4
<MEAN> 39
 1.152974e+00 -3.988985e+00 -2.232557e+00 1.046473e+00 -6.754017e+00 -5.537445e+00 -6.523482e+00 -2.396598e+00 -3.800695e-01 -1.848090e+00 -2.176676e+00 -4.307152e+00 6.423111e+01 -1.532122e-01 1.929696e-01 2.042612e-01 -3.700914e-01 -1.547638e-01 3.108821e-01 2.602280e-01 5.537256e-02 -5.497789e-01 1.112723e-01 1.425379e-01 -1.467603e-01 -1.586478e-01 1.684247e-02 -1.584471e-01 -1.173526e-02 -2.528242e-01 -1.003779e-01 6.376864e-03 3.912839e-03 4.933383e-02 -2.922084e-02 8.595889e-02 3.429744e-02 -8.470828e-02 2.090503e-01
<VARIANCE> 39
 4.293125e+01 5.358955e+01 5.355503e+01 7.376640e+01 7.402111e+01 7.849390e+01 6.107894e+01 6.309587e+01 6.365017e+01 6.803177e+01 4.728220e+01 4.089919e+01 6.666242e+01 1.795856e+00 2.606446e+00 2.634441e+00 2.231435e+00 3.525994e+00 3.461543e+00 3.077808e+00 3.792097e+00 3.631739e+00 3.278985e+00 3.154246e+00 2.567954e+00 1.764410e+00 2.665947e-01 3.578307e-01 4.049021e-01 4.350556e-01 5.792209e-01 5.943968e-01 5.431484e-01 6.319734e-01 5.999857e-01 5.862574e-01 5.828183e-01 4.781244e-01 2.292976e-01
<GCONST> 1.281580e+02
<TRANSP> 5
 0.000000e+00 1.000000e+00 0.000000e+00 0.000000e+00 0.000000e+00
 0.000000e+00 3.293679e-01 6.706321e-01 0.000000e+00 0.000000e+00
 0.000000e+00 0.000000e+00 1.262014e-01 8.737986e-01 0.000000e+00
 0.000000e+00 0.000000e+00 0.000000e+00 4.364335e-01 5.635665e-01
 0.000000e+00 0.000000e+00 0.000000e+00 0.000000e+00 0.000000e+00
<ENDHMM>
~h "s"
<BEGINHMM>
<NUMSTATES> 5
<STATE> 2
<MEAN> 39
 -8.401279e+00 3.383026e+00 -1.569666e+00 -4.441513e-01 -2.437841e+00 -7.904935e+00 -2.159738e+00 -1.534096e+00 -2.546288e+00 -4.332269e+00 -2.319339e+00 -3.695654e+00 6.481871e+01 -3.119711e+00 1.816331e+00 -7.004235e-01 4.129196e-01 1.253264e+00 -2.685708e-01 1.132759e+00 2.794151e-01 3.493161e-01 -4.168089e-01 6.419321e-01 4.074884e-01 -1.842251e-02 -2.393785e-02 -2.767607e-01 -7.251372e-02 -2.220034e-01 -2.205963e-01 1.319884e-01 -1.763525e-01 7.551330e-02 -4.834065e-02 1.168577e-01 7.795034e-02 -4.868095e-02 8.870103e-02
<VARIANCE> 39
 7.926467e+01 6.741939e+01 8.939137e+01 7.052264e+01 1.070362e+02 9.123775e+01 8.038914e+01 7.558278e+01 7.373994e+01 7.238239e+01 5.400911e+01 4.204591e+01 7.023125e+01 4.311976e+00 3.882793e+00 4.125737e+00 4.220052e+00 4.565649e+00 4.404000e+00 4.519261e+00 4.614994e+00 3.923719e+00 4.170784e+00 3.697144e+00 2.916438e+00 1.229945e+00 9.169998e-01 6.645625e-01 5.751014e-01 5.842197e-01 7.573424e-01 6.909202e-01 7.878373e-01 7.266995e-01 6.723511e-01 6.953940e-01 6.550342e-01 5.176703e-01 1.629568e-01
<GCONST> 1.381173e+02
<STATE> 3
<MEAN> 39
 -1.860826e+01 4.966412e+00 -2.092913e+00 5.725479e-01 -4.726405e-01 -6.021741e+00 7.167128e-01 5.466574e-01 -9.582486e-01 -3.784179e+00 9.731163e-01 -8.839879e-01 6.542387e+01 6.827429e-02 -5.230752e-01 8.894406e-02 -8.775374e-02 -3.242411e-01 4.822165e-04 -1.387260e-01 6.816212e-02 9.106067e-02 -2.522212e-02 -4.508066e-02 7.272695e-02 -2.704852e-01 1.025082e+00 -3.592804e-01 1.830230e-01 -3.427112e-02 -3.751677e-01 -1.080310e-01 -3.457685e-01 -1.954938e-01 -6.947708e-02 4.280399e-02 -2.408982e-01 -1.839435e-01 2.286565e-03
<VARIANCE> 39
 7.021636e+01 1.018878e+02 9.732444e+01 7.709756e+01 1.071123e+02 1.174144e+02 6.765341e+01 7.050101e+01 5.853358e+01 5.337823e+01 3.903311e+01 4.182391e+01 5.392062e+01 4.049993e+00 2.357830e+00 2.823994e+00 2.009317e+00 2.529624e+00 2.885779e+00 2.793687e+00 3.007452e+00 2.686358e+00 2.518609e+00 2.366961e+00 2.023911e+00 7.932544e-01 5.361071e-01 5.611486e-01 5.114564e-01 5.107198e-01 5.540428e-01 6.299700e-01 6.314066e-01 6.540677e-01 5.831866e-01 5.911964e-01 5.100634e-01 4.496374e-01 1.825570e-01
<GCONST> 1.294548e+02
<STATE> 4
<MEAN> 39
 -9.505557e+00 1.719723e+00 -2.015450e+00 -6.832185e-01 -2.728853e+00 -7.393673e+00 -2.782948e+00 -8.710047e-01 -7.405047e-01 -3.745483e+00 -2.250067e+00 -3.191005e+00 6.270149e+01 3.248817e+00 -1.167424e+00 2.221910e-01 -5.486212e-01 -1.377269e+00 -1.012918e-01 -1.251362e+00 -5.906599e-01 -2.249918e-01 3.557457e-01 -6.835457e-01 -6.630096e-01 4.876164e-01 8.844304e-02 -9.877215e-02 -3.767245e-03 -1.981732e-01 -1.199246e-01 1.277608e-01 -3.286886e-02 -1.598839e-02 -1.012400e-01 1.267412e-01 1.239271e-01 -7.472207e-02 2.969289e-01
<VARIANCE> 39
 7.329191e+01 5.038535e+01 6.942755e+01 5.962212e+01 9.308062e+01 8.482375e+01 6.037250e+01 5.627132e+01 5.609735e+01 5.526341e+01 3.765158e+01 3.356985e+01 6.754484e+01 5.436123e+00 4.643280e+00 4.592793e+00 4.439147e+00 5.125426e+00 5.295289e+00 5.149935e+00 5.149265e+00 4.963187e+00 4.591324e+00 4.042449e+00 3.204653e+00 3.133134e+00 8.170887e-01 4.889172e-01 4.323047e-01 5.124018e-01 6.418783e-01 7.291241e-01 7.300438e-01 6.783482e-01 6.331455e-01 6.169527e-01 5.806306e-01 4.646461e-01 3.258597e-01
<GCONST> 1.371121e+02
<TRANSP> 5
 0.000000e+00 1.000000e+00 0.000000e+00 0.000000e+00 0.000000e+00
 0.000000e+00 6.759748e-01 3.240251e-01 0.000000e+00 0.000000e+00
 0.000000e+00 0.000000e+00 7.284566e-01 2.715434e-01 0.000000e+00
 0.000000e+00 0.000000e+00 0.000000e+00 5.647351e-01 4.352649e-01
 0.000000e+00 0.000000e+00 0.000000e+00 0.000000e+00 0.000000e+00
<ENDHMM>
~h "t"
<BEGINHMM>
<NUMSTATES> 5
<STATE> 2
<MEAN> 39
 -5.831310e+00 1.687982e+00 -2.533177e+00 1.118504e+00 -5.096969e+00 -1.227178e+00 -4.108560e+00 -1.682272e+00 -2.283931e+00 -1.175065e+00 -1.046585e+00 -2.111985e+00 5.280025e+01 -9.358442e-01 -5.097278e-01 -4.065774e-01 -4.307000e-01 1.945637e-01 -6.533965e-02 3.528235e-01 7.878449e-02 5.198488e-01 -1.262579e-01 2.740333e-01 2.961191e-01 3.279978e-02 1.912420e-01 -4.656501e-01 1.021196e-01 -4.475780e-01 -2.183295e-01 -4.780295e-01 -1.845816e-01 -6.874629e-03 7.326764e-02 5.449035e-02 -2.851307e-02 -1.997501e-01 9.371682e-01
<VARIANCE> 39
 6.306210e+01 4.265664e+01 5.052199e+01 5.360794e+01 6.409822e+01 6.946309e+01 3.846244e+01 4.141969e+01 4.893215e+01 4.856652e+01 3.479489e+01 3.265803e+01 1.111969e+02 2.459449e+00 3.343438e+00 2.961468e+00 3.513050e+00 3.654166e+00 5.179175e+00 3.569515e+00 3.596705e+00 3.799624e+00 3.113142e+00 3.184419e+00 2.417261e+00 6.079435e+00 4.819116e-01 5.197855e-01 5.683007e-01 6.450282e-01 7.451467e-01 8.702647e-01 7.549387e-01 7.560861e-01 8.130274e-01 6.639554e-01 6.537289e-01 5.418528e-01 6.671780e-01
<GCONST> 1.335911e+02
<STATE> 3
<MEAN> 39
 -6.536272e+00 -4.191075e+00 -2.755295e+00 -2.764582e+00 -5.573635e+00 -4.809524e+00 -2.849593e+00 -2.095147e+00 -3.382084e-01 -2.939924e+00 -7.968206e-01 -1.918545e+00 6.176839e+01 9.554414e-01 -1.240454e+00 2.268941e-01 -1.389461e+00 -7.025678e-01 -1.553108e+00 -8.226271e-01 -1.273011e-01 4.011735e-01 3.858440e-02 -1.468687e-01 -6.855137e-01 3.096926e+00 7.803935e-01 2.103205e-01 1.398523e-01 -5.393680e-02 -2.345277e-01 1.411930e-01 -5.491475e-01 -8.109409e-02 -3.006343e-01 1.889648e-01 -1.573377e-01 -3.393353e-01 3.959019e-02
<VARIANCE> 39
 4.661306e+01 5.778013e+01 5.499606e+01 8.756814e+01 9.636115e+01 1.130868e+02 5.403256e+01 5.642543e+01 5.258706e+01 5.405318e+01 3.950926e+01 4.098144e+01 9.465509e+01 5.425654e+00 5.254344e+00 5.874145e+00 6.203383e+00 6.612244e+00 7.978283e+00 7.095263e+00 6.917679e+00 6.850352e+00 5.779541e+00 5.752458e+00 4.462525e+00 6.283782e+00 6.837263e-01 1.009112e+00 8.991525e-01 9.290808e-01 1.152764e+00 1.604170e+00 1.130079e+00 1.266779e+00 1.084217e+00 1.032917e+00 9.532520e-01 7.254894e-01 9.600461e-01
<GCONST> 1.489596e+02
<STATE> 4
<MEAN> 39
 -1.322878e+00 -3.905783e+00 -2.203832e+00 -5.269251e+00 -6.221151e+00 -7.885396e+00 -7.139169e+00 -2.362171e+00 6.288422e-02 -1.491709e+00 -2.510179e+00 -5.448485e+00 6.628874e+01 1.964507e+00 -5.408335e-01 2.272230e-01 -1.123688e+00 -8.926132e-01 -2.997248e-01 -1.553451e+00 -1.812911e-01 -2.853469e-01 5.975593e-01 -2.726992e-01 -1.080588e+00 1.633624e+00 1.833990e-03 2.076452e-01 2.680046e-02 2.769205e-01 1.220356e-02 6.484399e-01 1.763914e-01 -1.171771e-04 -3.135822e-01 7.253337e-03 1.104776e-01 1.514779e-01 -6.420113e-01
<VARIANCE> 39
 4.168047e+01 5.294167e+01 6.019979e+01 1.021280e+02 8.573740e+01 9.285417e+01 7.555264e+01 6.452132e+01 7.558732e+01 6.545871e+01 5.046009e+01 4.693462e+01 7.440706e+01 4.275385e+00 5.109926e+00 6.305716e+00 5.864805e+00 6.413177e+00 7.489820e+00 7.208479e+00 7.395711e+00 7.990561e+00 6.291538e+00 6.512226e+00 4.829592e+00 3.475953e+00 5.466194e-01 5.363835e-01 5.804567e-01 7.402821e-01 7.777445e-01 1.019838e+00 9.556057e-01 8.533593e-01 8.399202e-01 7.812646e-01 7.374253e-01 5.982881e-01 7.073592e-01
<GCONST> 1.452219e+02
<TRANSP> 5
 0.000000e+00 1.000000e+00 0.000000e+00 0.000000e+00 0.000000e+00
 0.000000e+00 6.492635e-01 3.507365e-01 0.000000e+00 0.000000e+00
 0.000000e+00 0.000000e+00 4.204370e-01 5.795630e-01 0.000000e+00
 0.000000e+00 0.000000e+00 0.000000e+00 1.964550e-01 8.035449e-01
 0.000000e+00 0.000000e+00 0.000000e+00 0.000000e+00 0.000000e+00
<ENDHMM>
~h "u"
<BEGINHMM>
<NUMSTATES> 5
<STATE> 2
<MEAN> 39
 4.095333e+00 -1.374291e-01 -3.216111e+00 -8.454648e+00 -7.603808e+00 -3.765714e+00 -1.247878e+01 -6.863845e+00 -5.604752e+00 -9.002483e-01 5.419307e-01 -5.058113e+00 6.578596e+01 8.459976e-01 2.876495e-01 -2.495736e-01 -9.642133e-01 -3.184620e-01 6.686158e-01 -7.667983e-01 -7.676548e-01 -5.651937e-01 4.399870e-01 6.713430e-01 -2.386372e-02 2.164032e-01 -4.241225e-01 -1.503265e-02 9.223142e-02 4.594505e-01 2.260746e-01 1.646625e-01 5.728811e-01 2.417030e-01 1.649145e-01 -1.874310e-01 -2.315304e-01 9.825163e-02 -3.237416e-01
<VARIANCE> 39
 3.390221e+01 5.761049e+01 6.550266e+01 1.406334e+02 9.125942e+01 9.018305e+01 9.092457e+01 7.222418e+01 9.196677e+01 7.954891e+01 6.761146e+01 4.955320e+01 5.553625e+01 2.266695e+00 2.897757e+00 3.316439e+00 4.982208e+00 4.908930e+00 5.117149e+00 4.941831e+00 4.884310e+00 5.403921e+00 4.590106e+00 3.857890e+00 3.216844e+00 1.696378e+00 3.763038e-01 4.893400e-01 4.807205e-01 8.841424e-01 8.311650e-01 8.481479e-01 1.096093e+00 9.411609e-01 9.805282e-01 8.975541e-01 7.844316e-01 6.898375e-01 2.573300e-01
<GCONST> 1.396067e+02
<STATE> 3
<MEAN> 39
 4.983113e+00 -2.687058e-01 -3.659126e+00 -9.822243e+00 -7.724320e+00 -1.548605e+00 -1.323373e+01 -9.027431e+00 -5.902846e+00 -5.844294e-02 2.158482e+00 -5.204383e+00 6.604719e+01 -1.140130e-01 2.601935e-01 9.949481e-02 6.413825e-01 2.161314e-01 1.543594e-01 4.853314e-01 1.022037e-01 1.454195e-01 -1.962193e-01 -4.267230e-01 2.473465e-02 -4.895184e-01 -3.011838e-01 4.051810e-02 1.403730e-01 4.461133e-01 1.866467e-01 -1.637301e-01 4.007215e-01 3.067123e-01 1.670624e-01 -2.223271e-01 -3.440150e-01 2.550143e-02 -2.181664e-01
<VARIANCE> 39
 2.776455e+01 4.915878e+01 6.855180e+01 1.340844e+02 8.437518e+01 8.425982e+01 8.209629e+01 8.689932e+01 9.725334e+01 8.829475e+01 7.695422e+01 5.200664e+01 4.193664e+01 8.011172e-01 2.235961e+00 1.977542e+00 4.317092e+00 3.193750e+00 3.698800e+00 3.945608e+00 3.755947e+00 4.537342e+00 4.080895e+00 3.498825e+00 3.222021e+00 1.328284e+00 1.981217e-01 3.433518e-01 3.969498e-01 5.921047e-01 6.519560e-01 6.988780e-01 6.961036e-01 7.615771e-01 8.196917e-01 7.633774e-01 7.016892e-01 5.750056e-01 1.466975e-01
<GCONST> 1.315177e+02
<STATE> 4
<MEAN> 39
 2.784727e+00 4.190940e+00 -3.205549e+00 -6.775907e+00 -6.772509e+00 -2.357209e+00 -9.367934e+00 -7.190532e+00 -6.501536e+00 -2.400263e+00 -1.451415e-01 -3.687868e+00 6.074866e+01 -5.285205e-01 1.055262e-01 1.934333e-01 7.601923e-01 3.693506e-01 9.039240e-02 5.965850e-01 3.581242e-01 2.307813e-01 -1.909801e-01 -3.529263e-01 7.598855e-02 -5.942194e-01 -9.661996e-02 -1.280555e-01 1.794747e-02 -9.628003e-03 1.214368e-02 -4.994684e-02 -3.076065e-02 4.080199e-02 6.075896e-02 4.494759e-02 2.769453e-02 -1.751308e-02 7.359769e-02
<VARIANCE> 39
 3.537074e+01 4.967306e+01 5.264067e+01 9.058043e+01 6.262238e+01 7.200158e+01 5.270274e+01 5.313768e+01 6.639548e+01 6.178308e+01 5.031559e+01 4.014390e+01 6.306110e+01 8.764176e-01 1.445142e+00 1.545125e+00 2.391421e+00 2.306216e+00 2.531264e+00 2.594231e+00 2.617035e+00 2.768651e+00 2.701106e+00 2.533086e+00 2.136258e+00 8.596170e-01 1.301889e-01 2.240590e-01 2.430432e-01 3.783128e-01 3.974455e-01 4.293311e-01 4.488524e-01 4.422569e-01 4.673606e-01 4.727226e-01 4.180149e-01 3.717706e-01 1.050001e-01
<GCONST> 1.178843e+02
<TRANSP> 5
 0.000000e+00 1.000000e+00 0.000000e+00 0.000000e+00 0.000000e+00
 0.000000e+00 3.907621e-01 6.092380e-01 0.000000e+00 0.000000e+00
 0.000000e+00 0.000000e+00 4.727175e-01 5.272825e-01 0.000000e+00
 0.000000e+00 0.000000e+00 0.000000e+00 7.047817e-01 2.952183e-01
 0.000000e+00 0.000000e+00 0.000000e+00 0.000000e+00 0.000000e+00
<ENDHMM>
~h "v"
<BEGINHMM>
<NUMSTATES> 5
<STATE> 2
<MEAN> 39
 -9.982322e-01 -4.028634e+00 -2.320566e-01 1.081100e+01 -7.374368e-01 -3.248502e+00 -7.162382e+00 -1.855221e+00 -5.304442e+00 -9.261211e-01 1.518640e-01 -9.373075e-01 6.760706e+01 -2.988629e-01 6.364824e-03 -1.513223e-01 1.364160e-01 2.526836e-01 4.596649e-01 1.039653e-01 -2.275445e-01 9.889921e-02 -1.210642e-01 -2.365249e-01 -1.343266e-01 -1.999836e-01 2.357281e-01 -8.838484e-02 -8.316246e-02 -1.794892e-01 -2.417915e-01 -2.479542e-01 -9.018575e-02 -2.915852e-02 2.985507e-02 1.714217e-02 -2.040162e-02 -3.704115e-02 1.441229e-01
<VARIANCE> 39
 7.247108e+01 5.766346e+01 3.068361e+01 1.386145e+02 1.502538e+02 6.730224e+01 4.819604e+01 7.062407e+01 6.145531e+01 6.394551e+01 1.938316e+01 2.715015e+01 4.903682e+01 1.833653e+00 9.739885e-01 8.025668e-01 1.422552e+00 2.417331e+00 3.320488e+00 2.563545e+00 2.597044e+00 1.797243e+00 2.250329e+00 1.791861e+00 1.923119e+00 4.446389e-01 3.281409e-01 2.652512e-01 1.580313e-01 2.670494e-01 4.216023e-01 5.382642e-01 5.158631e-01 5.364975e-01 5.327867e-01 3.775215e-01 3.188776e-01 2.970083e-01 1.152212e-01
<GCONST> 1.161784e+02
<STATE> 3
<MEAN> 39
 -8.597670e+00 -7.060043e+00 -5.512417e+00 7.568110e+00 -8.465060e+00 2.870985e+00 -4.919591e+00 -5.219966e-02 -2.452392e+00 -5.332397e+00 -1.378255e+00 -2.769569e+00 5.825903e+01 -1.668760e-02 -1.980317e-01 -2.810662e-01 -3.276659e-01 -3.303129e-01 -3.883761e-01 -2.330418e-02 1.118022e-01 3.725523e-01 -1.267502e-01 -1.737080e-01 2.822730e-02 -3.493227e-02 7.045721e-01 -4.552717e-02 5.936915e-02 -2.316789e-01 -2.489578e-01 -3.821195e-01 -7.407445e-02 -6.197507e-02 -1.885914e-01 1.712587e-01 8.726225e-02 -4.280547e-02 3.945690e-01
<VARIANCE> 39
 1.032085e+02 7.720953e+01 3.722643e+01 7.699033e+01 1.405622e+02 1.709248e+02 3.016740e+01 3.379852e+01 3.317105e+01 5.806092e+01 1.834482e+01 4.359613e+01 1.182978e+02 6.719548e+00 4.034234e+00 1.544788e+00 3.772219e+00 4.590841e+00 5.941722e+00 3.506690e+00 2.661542e+00 3.541890e+00 2.635354e+00 2.130180e+00 2.244473e+00 2.229894e+00 8.166064e-01 7.413290e-01 4.191944e-01 8.145028e-01 8.019480e-01 1.013285e+00 7.059085e-01 5.961512e-01 6.467532e-01 5.877326e-01 3.610331e-01 5.848030e-01 3.198892e-01
<GCONST> 1.335464e+02
<STATE> 4
<MEAN> 39
 5.990456e+00 -1.313243e+01 -2.379209e-01 2.207557e+01 -1.502667e+01 9.199850e+00 -1.041978e+01 -3.644532e+00 -1.191265e+00 -8.028981e+00 -2.773798e+00 3.199408e+00 6.799638e+01 4.086369e-01 -7.281477e-02 1.105458e-02 -1.326408e-01 -3.261017e-01 -3.613419e-01 -1.198988e-01 -4.655805e-02 -7.895572e-02 1.735038e-02 -1.806072e-02 -4.595279e-02 2.909822e-01 1.101432e-02 -3.439049e-02 -2.927341e-03 -1.036569e-01 -8.607133e-02 1.688071e-03 3.569107e-02 1.221981e-02 -2.416744e-02 7.090491e-02 2.752120e-02 -3.102270e-03 4.063196e-02
<VARIANCE> 39
 5.099870e+01 8.402438e+01 8.408768e+01 1.310663e+02 9.465723e+01 1.382678e+02 7.397340e+01 5.947215e+01 6.421953e+01 4.537478e+01 4.272126e+01 5.005236e+01 4.053749e+01 4.800734e+00 5.830762e+00 5.334293e+00 5.575388e+00 6.640599e+00 9.543914e+00 5.808320e+00 5.263296e+00 5.277056e+00 3.628827e+00 3.500286e+00 3.238906e+00 3.496621e+00 6.954084e-01 9.444720e-01 8.560874e-01 8.647870e-01 1.049162e+00 1.636665e+00 1.145586e+00 9.250759e-01 8.402952e-01 7.020198e-01 6.158572e-01 5.544468e-01 5.667424e-01
<GCONST> 1.451968e+02
<TRANSP> 5
 0.000000e+00 1.000000e+00 0.000000e+00 0.000000e+00 0.000000e+00
 0.000000e+00 7.147892e-01 2.852108e-01 0.000000e+00 0.000000e+00
 0.000000e+00 0.000000e+00 6.326551e-01 3.673449e-01 0.000000e+00
 0.000000e+00 0.000000e+00 0.000000e+00 8.967937e-01 1.032063e-01
 0.000000e+00 0.000000e+00 0.000000e+00 0.000000e+00 0.000000e+00
<ENDHMM>
~h "w"
<BEGINHMM>
<NUMSTATES> 5
<STATE> 2
<MEAN> 39
 -1.529452e+00 2.892613e+00 -5.706048e+00 -6.022656e+00 -8.257223e+00 9.278542e-01 -6.027841e+00 -2.044667e+00 -4.063868e+00 -1.076342e+00 2.442098e-02 -2.735721e+00 5.434983e+01 1.001473e+00 7.224673e-01 -1.673186e-01 -8.661069e-01 -6.616910e-01 -8.671455e-02 -2.724258e-01 -2.952519e-01 -4.271223e-01 -1.187929e-01 1.395894e-01 5.218486e-02 4.126641e-01 2.480454e-01 -1.620420e-01 -1.281510e-01 -2.925837e-01 -7.723510e-02 1.138596e-02 -7.798177e-02 -4.380308e-02 4.767236e-02 1.180844e-01 5.090928e-02 -1.754260e-01 3.597745e-01
<VARIANCE> 39
 1.318594e+02 6.026278e+01 3.989116e+01 1.071985e+02 6.759639e+01 7.451997e+01 4.482285e+01 3.668852e+01 4.096517e+01 3.983186e+01 3.634015e+01 2.822713e+01 1.518432e+02 3.799833e+00 2.467239e+00 2.054422e+00 4.188715e+00 2.902629e+00 3.561030e+00 2.757377e+00 2.696908e+00 2.833877e+00 2.501388e+00 2.329125e+00 2.207124e+00 2.550183e+00 5.906302e-01 3.812872e-01 3.490405e-01 6.837295e-01 4.792499e-01 5.823363e-01 4.493469e-01 4.373839e-01 5.014489e-01 4.319230e-01 4.197518e-01 4.029136e-01 3.304802e-01
<GCONST> 1.273253e+02
<STATE> 3
<MEAN> 39
 7.128226e+00 6.200212e+00 -6.696766e+00 -1.162220e+01 -1.283549e+01 -2.851864e+00 -7.460934e+00 -4.065754e+00 -5.975523e+00 -3.293980e+00 -4.573338e-01 -4.230747e+00 6.018131e+01 1.503383e+00 -7.953259e-01 -1.231378e+00 -1.856276e+00 -3.960493e-01 6.024169e-01 -5.438994e-01 -5.818775e-01 -3.159438e-02 4.146336e-01 8.234346e-01 -4.606608e-01 1.758512e+00 -4.615472e-01 -7.175109e-01 -1.042598e-02 3.129352e-01 4.343102e-01 2.110229e-01 1.578163e-02 9.022340e-02 3.690124e-01 2.719784e-01 -6.846450e-04 -2.567008e-01 7.996321e-02
<VARIANCE> 39
 4.187515e+01 6.839137e+01 5.315235e+01 1.088210e+02 7.429789e+01 8.881255e+01 4.678553e+01 4.494549e+01 5.243542e+01 4.792463e+01 5.371432e+01 3.742342e+01 5.392475e+01 4.875139e+00 4.635069e+00 3.246775e+00 5.277518e+00 5.502511e+00 6.722378e+00 3.959855e+00 4.120542e+00 3.775879e+00 4.326379e+00 4.420377e+00 3.926444e+00 3.040071e+00 4.701854e-01 4.059770e-01 5.692030e-01 7.491770e-01 6.972464e-01 9.595007e-01 6.436356e-01 7.534899e-01 6.580499e-01 6.000851e-01 6.867101e-01 6.951717e-01 2.735154e-01
<GCONST> 1.366904e+02
<STATE> 4
<MEAN> 39
 7.654999e+00 -2.106017e+00 -9.763716e+00 -1.612838e+01 -9.392472e+00 2.859858e+00 -1.035670e+01 -6.050365e+00 -1.999178e+00 1.358999e+00 2.176427e+00 -8.640252e+00 6.645651e+01 -4.723051e-01 -1.673331e+00 2.602633e-02 5.615993e-01 8.627244e-01 -2.599874e-01 -2.631357e-01 4.076600e-01 1.256563e+00 4.069878e-01 -8.560116e-01 -1.287624e+00 8.336414e-01 -1.894591e-01 1.120824e-01 3.111873e-01 4.289862e-01 -4.342629e-02 -4.373882e-01 2.205594e-01 2.806236e-01 -4.568164e-02 -3.462047e-01 -3.426764e-01 1.596494e-01 -1.738815e-01
<VARIANCE> 39
 2.321941e+01 4.049572e+01 5.443552e+01 9.592091e+01 7.784987e+01 9.723640e+01 6.823744e+01 5.888460e+01 7.244740e+01 8.018170e+01 9.160056e+01 6.035058e+01 3.411904e+01 6.235219e-01 2.367235e+00 1.833406e+00 3.514077e+00 2.648590e+00 4.486866e+00 3.496599e+00 3.628286e+00 3.469255e+00 3.999129e+00 3.901033e+00 3.663806e+00 1.100532e+00 1.222057e-01 2.892083e-01 3.094615e-01 4.327618e-01 4.901210e-01 6.349089e-01 5.796902e-01 6.206252e-01 6.529041e-01 6.498048e-01 6.863125e-01 7.257734e-01 1.374562e-01
<GCONST> 1.267010e+02
<TRANSP> 5
 0.000000e+00 1.000000e+00 0.000000e+00 0.000000e+00 0.000000e+00
 0.000000e+00 4.898170e-01 5.101830e-01 0.000000e+00 0.000000e+00
 0.000000e+00 0.000000e+00 5.792423e-01 4.207578e-01 0.000000e+00
 0.000000e+00 0.000000e+00 0.000000e+00 6.908350e-01 3.091650e-01
 0.000000e+00 0.000000e+00 0.000000e+00 0.000000e+00 0.000000e+00
<ENDHMM>
~h "y"
<BEGINHMM>
<NUMSTATES> 5
<STATE> 2
<MEAN> 39
 -1.426821e+00 -4.140759e+00 9.053720e+00 -8.816590e+00 -1.505788e+01 -7.975498e+00 -6.002944e+00 -2.890985e+00 -7.379362e+00 -1.287231e+00 -1.555431e+00 -4.554229e+00 6.872291e+01 5.027110e-02 -7.096516e-01 5.144626e-01 -5.004498e-01 -1.051392e+00 -4.617339e-01 3.365508e-01 5.046421e-01 -1.537939e-01 2.092925e-01 3.867781e-01 1.432448e-02 8.790125e-01 1.837445e-02 -1.319105e-01 -4.967113e-01 1.398317e-01 3.650648e-01 1.085873e-01 1.077628e-01 1.806380e-01 1.934679e-01 -9.522966e-02 -1.468834e-01 -2.847602e-02 -1.000258e-01
<VARIANCE> 39
 3.781983e+01 7.792873e+01 9.418497e+01 1.994633e+02 9.420609e+01 7.795135e+01 7.869817e+01 1.058193e+02 9.439894e+01 7.192359e+01 8.132504e+01 4.761444e+01 7.794150e+01 1.723177e+00 3.436831e+00 6.703456e+00 5.289872e+00 5.366626e+00 4.579595e+00 5.085780e+00 5.569160e+00 4.693010e+00 4.641606e+00 3.911626e+00 2.945526e+00 2.344787e+00 2.304197e-01 4.582208e-01 8.305477e-01 7.934992e-01 9.283736e-01 7.422268e-01 8.130672e-01 8.532094e-01 8.344330e-01 8.224376e-01 6.541089e-01 5.198858e-01 2.463058e-01
<GCONST> 1.408869e+02
<STATE> 3
<MEAN> 39
 4.550239e-01 -8.904934e+00 7.790178e+00 -6.509695e+00 -1.687492e+01 -1.048653e+01 -4.112945e+00 3.542547e+00 -4.885527e+00 -1.139432e+00 1.463410e+00 -5.049033e+00 7.162565e+01 1.707710e-01 -4.689461e-01 -9.871267e-01 1.107829e-01 7.747105e-01 1.410675e-01 3.223825e-01 7.190693e-01 4.366365e-01 -3.419294e-01 -6.238251e-01 -1.950153e-01 5.977747e-02 2.098402e-02 9.952328e-02 -1.743771e-01 5.566367e-02 3.199605e-01 1.701828e-01 -1.124691e-01 -1.669443e-01 4.835925e-02 -1.234047e-02 -1.954937e-01 -6.979231e-02 -1.145391e-01
<VARIANCE> 39
 3.049168e+01 4.735202e+01 9.264355e+01 1.163568e+02 8.079368e+01 7.271651e+01 9.087748e+01 1.234290e+02 8.686175e+01 7.329060e+01 7.929559e+01 4.584682e+01 4.433584e+01 3.377485e-01 1.275839e+00 2.529934e+00 1.536553e+00 2.646549e+00 1.995812e+00 2.371324e+00 3.153371e+00 2.756925e+00 2.313701e+00 2.674132e+00 1.860028e+00 4.068775e-01 5.408777e-02 1.755809e-01 2.659873e-01 2.219261e-01 3.230708e-01 3.378509e-01 3.712872e-01 5.554627e-01 3.935791e-01 3.833843e-01 3.952269e-01 3.072947e-01 6.534941e-02
<GCONST> 1.157327e+02
<STATE> 4
<MEAN> 39
 -2.276473e+00 -4.773236e+00 -1.133998e+00 -6.054976e+00 -5.169311e+00 -5.218248e+00 9.960361e-01 9.279218e-01 2.075868e+00 -2.198789e+00 -2.760813e+00 -4.261601e+00 6.951378e+01 9.768869e-03 1.296264e-02 -2.391333e-01 7.804702e-02 3.593197e-01 1.868816e-01 -7.795854e-02 -8.041383e-02 4.496014e-02 -3.082407e-02 -1.504074e-01 -5.767626e-02 -1.383507e-01 -2.926213e-04 4.658186e-02 2.456326e-02 1.493745e-02 -1.303257e-02 7.682648e-03 -3.797727e-02 -5.342605e-02 -1.733705e-02 3.064455e-02 3.249802e-02 3.696133e-03 -4.227679e-02
<VARIANCE> 39
 2.826891e+01 5.223011e+01 5.033438e+01 5.170421e+01 7.478757e+01 5.011539e+01 5.434239e+01 6.099236e+01 7.620241e+01 5.569981e+01 6.200017e+01 4.238283e+01 4.743420e+01 2.366152e-01 7.045244e-01 1.194696e+00 1.026669e+00 1.859978e+00 1.496912e+00 1.618604e+00 1.953787e+00 1.890159e+00 2.018183e+00 1.977815e+00 1.633140e+00 2.321470e-01 3.615956e-02 1.214614e-01 1.582092e-01 1.711584e-01 2.593397e-01 2.584328e-01 2.873442e-01 3.717561e-01 3.418424e-01 3.523741e-01 3.327050e-01 2.941412e-01 3.946004e-02
<GCONST> 1.032500e+02
<TRANSP> 5
 0.000000e+00 1.000000e+00 0.000000e+00 0.000000e+00 0.000000e+00
 0.000000e+00 6.846007e-01 3.153993e-01 0.000000e+00 0.000000e+00
 0.000000e+00 0.000000e+00 7.116215e-01 2.883785e-01 0.000000e+00
 0.000000e+00 0.000000e+00 0.000000e+00 8.469902e-01 1.530098e-01
 0.000000e+00 0.000000e+00 0.000000e+00 0.000000e+00 0.000000e+00
<ENDHMM>
~h "z"
<BEGINHMM>
<NUMSTATES> 5
<STATE> 2
<MEAN> 39
 5.364110e+00 -1.517246e+01 1.625309e+00 1.272542e+01 -1.337387e+01 3.868801e+00 -7.027745e+00 -1.145996e+01 4.436427e+00 -1.075517e+01 2.096492e+00 2.820738e+00 6.746264e+01 1.777440e-01 -2.571545e-01 -1.242200e-01 -4.344128e-02 -1.775041e-01 -8.934000e-02 -9.100886e-02 -1.361765e-01 1.080179e-01 -1.463192e-01 1.341606e-01 1.782075e-01 2.874574e-01 2.233233e-02 1.646473e-02 -1.322255e-01 -5.916265e-02 -9.897607e-03 -4.414555e-02 4.388722e-02 8.521042e-02 3.425957e-02 -7.887093e-03 1.807612e-02 1.020034e-02 -1.045523e-02
<VARIANCE> 39
 6.137354e+01 1.013587e+02 1.878763e+02 1.051084e+02 8.152274e+01 1.954434e+02 5.855512e+01 1.215455e+02 7.255450e+01 8.323136e+01 6.602834e+01 6.047918e+01 4.659982e+01 2.754091e+00 4.043193e+00 9.399467e+00 6.260619e+00 3.624736e+00 9.062540e+00 3.027940e+00 4.579197e+00 5.983657e+00 5.161139e+00 3.890196e+00 3.313424e+00 2.812402e+00 4.056522e-01 6.615605e-01 1.268979e+00 9.915960e-01 5.302758e-01 1.510713e+00 5.754932e-01 8.444528e-01 1.071599e+00 9.454964e-01 6.801646e-01 5.706160e-01 4.293889e-01
<GCONST> 1.455093e+02
<STATE> 3
<MEAN> 39
 9.477114e+00 -1.810642e+01 -5.507861e+00 1.213378e+01 -1.597171e+01 5.784192e-01 -5.918206e+00 -1.093309e+01 3.126014e+00 -1.224193e+01 6.444872e+00 3.351565e-01 7.159590e+01 -6.940922e-02 3.993265e-02 -7.298287e-02 -2.085558e-01 -9.464447e-02 7.296607e-02 9.720423e-02 1.503397e-01 1.648976e-01 1.187758e-01 -7.656249e-02 3.956380e-02 -1.227988e-01 -3.423747e-02 4.731523e-03 6.219705e-02 2.445184e-03 7.544740e-03 4.506658e-02 6.131926e-03 -2.747911e-02 -3.705691e-02 2.025246e-02 -2.649458e-02 -1.547378e-02 -2.286089e-02
<VARIANCE> 39
 1.802831e+01 4.043690e+01 1.083142e+02 9.548212e+01 8.060941e+01 8.842380e+01 5.489519e+01 5.169495e+01 5.034287e+01 4.672304e+01 5.316504e+01 8.401768e+01 3.037729e+01 6.801928e-01 1.948146e+00 3.958375e+00 2.194799e+00 2.229573e+00 3.891841e+00 2.581857e+00 2.704399e+00 2.691945e+00 2.861384e+00 2.799739e+00 2.196591e+00 1.623708e+00 9.908768e-02 3.077660e-01 5.446454e-01 3.327204e-01 3.911676e-01 6.473528e-01 4.165566e-01 4.395470e-01 4.747704e-01 4.746449e-01 4.869133e-01 3.509528e-01 2.295374e-01
<GCONST> 1.218088e+02
<STATE> 4
<MEAN> 39
 -2.705014e+00 -9.464619e+00 -1.493615e+00 4.676726e+00 -1.465795e+01 6.100879e+00 1.395448e+00 -9.632911e+00 3.239778e+00 -3.261511e+00 1.912009e+00 5.485282e+00 6.075946e+01 -5.613319e-01 4.304799e-01 -6.906565e-02 1.593822e-01 3.718528e-01 2.770573e-01 9.644972e-02 -1.940699e-01 1.539811e-02 4.614545e-01 -1.384577e-01 -1.117975e-01 -5.869669e-01 8.305373e-02 -8.096375e-02 6.953054e-02 5.901099e-03 -4.628082e-03 -6.753593e-02 -1.768830e-01 -9.999363e-02 -7.739849e-03 2.222033e-02 7.158409e-02 -6.824001e-02 2.747308e-02
<VARIANCE> 39
 7.564887e+01 3.118170e+02 1.443152e+02 1.205472e+02 1.638262e+02 1.211257e+02 5.088256e+01 3.973409e+01 3.942668e+01 7.792562e+01 7.563918e+01 1.395176e+02 5.926804e+01 6.352357e-01 1.805332e+00 2.793290e+00 2.174818e+00 2.088038e+00 2.641133e+00 2.661211e+00 2.060394e+00 2.609869e+00 2.960893e+00 1.830071e+00 2.188813e+00 5.779771e-01 7.649159e-02 2.496145e-01 4.462676e-01 2.995985e-01 3.583535e-01 4.575046e-01 3.726337e-01 3.564730e-01 3.881882e-01 6.390834e-01 3.275204e-01 4.271071e-01 7.555182e-02
<GCONST> 1.228869e+02
<TRANSP> 5
 0.000000e+00 1.000000e+00 0.000000e+00 0.000000e+00 0.000000e+00
 0.000000e+00 9.296505e-01 7.034947e-02 0.000000e+00 0.000000e+00
 0.000000e+00 0.000000e+00 9.516156e-01 4.838432e-02 0.000000e+00
 0.000000e+00 0.000000e+00 0.000000e+00 7.420455e-01 2.579544e-01
 0.000000e+00 0.000000e+00 0.000000e+00 0.000000e+00 0.000000e+00
<ENDHMM>
~h "aw"
<BEGINHMM>
<NUMSTATES> 5
<STATE> 2
<MEAN> 39
 -2.278133e+00 -1.256188e+01 -5.015050e+00 -2.053851e+01 -1.435717e+01 -1.006442e+00 -2.959820e-01 -2.141013e+00 -7.991640e+00 -5.525021e+00 -7.057582e+00 -8.352475e+00 7.914961e+01 1.434694e-01 -6.166822e-02 6.232630e-02 -1.502878e-02 -1.724385e-02 3.629792e-02 -6.733645e-02 -1.606055e-02 -2.994778e-02 -4.427448e-02 -5.743710e-02 -2.148587e-04 -1.523583e-01 -1.217880e-02 2.148076e-03 1.320260e-02 8.242043e-03 4.714222e-02 -1.308380e-02 -6.587939e-03 -1.254416e-02 -6.900439e-04 -8.139894e-04 -1.650619e-02 -3.933547e-03 -1.138790e-02
<VARIANCE> 39
 5.944410e+01 2.686968e+01 8.446390e+01 4.418306e+01 6.609276e+01 6.130669e+01 1.044261e+02 5.786695e+01 3.970966e+01 6.494907e+01 4.653981e+01 2.834191e+01 7.806641e+01 4.311135e+00 1.994889e+00 2.816506e+00 3.972962e+00 4.344858e+00 3.665171e+00 8.660928e+00 4.449309e+00 3.678048e+00 3.513750e+00 3.805072e+00 2.631900e+00 4.444516e+00 7.090877e-01 3.866927e-01 4.903799e-01 8.232721e-01 7.608894e-01 7.257251e-01 1.384294e+00 8.740405e-01 7.580519e-01 6.564950e-01 7.133251e-01 5.257596e-01 6.877741e-01
<GCONST> 1.363728e+02
<STATE> 3
<MEAN> 39
 -1.144132e-01 -1.619860e+01 1.164725e+00 -1.848432e+01 -1.256126e+01 -5.480955e+00 -1.759156e+00 -6.844531e-01 -9.922385e+00 -5.688182e+00 -1.079890e+01 -6.003563e+00 7.698289e+01 -1.141420e-01 -6.233373e-02 2.035634e-01 -1.936612e-01 -2.368037e-01 5.684796e-02 1.573174e-02 1.757815e-03 -1.087040e-02 5.660912e-02 -1.078369e-01 2.816462e-02 1.593027e-01 -8.131190e-03 2.337638e-02 -5.560717e-02 5.420273e-02 4.613416e-03 4.537714e-02 9.258772e-03 -1.301821e-02 3.692883e-02 -2.860172e-02 1.120695e-02 -5.698406e-03 -5.411991e-03
<VARIANCE> 39
 3.763035e+01 3.615393e+01 1.001573e+02 6.753706e+01 8.760424e+01 6.430041e+01 7.798487e+01 5.853976e+01 9.250740e+01 9.953832e+01 5.743135e+01 2.984707e+01 5.402898e+01 3.731445e+00 2.661258e+00 6.057929e+00 5.585283e+00 5.754980e+00 6.832251e+00 7.629811e+00 5.445362e+00 6.147476e+00 7.505690e+00 4.146453e+00 2.581790e+00 4.547567e+00 6.259205e-01 4.532779e-01 9.621403e-01 1.016447e+00 1.017786e+00 1.276021e+00 1.385191e+00 1.005366e+00 1.282717e+00 1.362355e+00 7.884437e-01 4.903572e-01 6.623723e-01
<GCONST> 1.447780e+02
<STATE> 4
<MEAN> 39
 1.002669e-01 -1.351492e+01 -2.382683e+00 -2.013572e+01 -1.396446e+01 6.779531e+00 -2.612179e+00 -2.395537e+00 -4.799250e+00 -7.082123e+00 -6.951998e+00 -2.737298e+00 7.410113e+01 3.548444e-01 2.447377e-01 -1.168930e-01 5.044659e-01 2.190595e-01 2.083884e-01 -3.664328e-01 -3.825359e-01 2.499166e-01 -2.719004e-01 1.350681e-01 1.722864e-01 -6.615137e-01 -4.240791e-02 1.071525e-01 -6.626497e-03 1.137033e-01 1.159927e-01 -1.921345e-01 7.773075e-02 2.346084e-02 -5.149865e-02 1.522205e-01 -2.549278e-02 -1.339125e-02 -9.578262e-02
<VARIANCE> 39
 3.608813e+01 8.214651e+01 6.902661e+01 7.535913e+01 6.590078e+01 4.264122e+01 8.849639e+01 4.250475e+01 6.385109e+01 5.656962e+01 5.632034e+01 5.271099e+01 8.344392e+01 1.303286e+00 2.093488e+00 1.659332e+00 2.885521e+00 2.296956e+00 2.634585e+00 3.314709e+00 2.921975e+00 3.424305e+00 2.712066e+00 2.314555e+00 2.207509e+00 1.190699e+00 1.908670e-01 2.904658e-01 2.637936e-01 4.392517e-01 3.764203e-01 4.310846e-01 6.260056e-01 5.473661e-01 6.727485e-01 4.982623e-01 4.725455e-01 4.333309e-01 1.194510e-01
<GCONST> 1.229481e+02
<TRANSP> 5
 0.000000e+00 1.000000e+00 0.000000e+00 0.000000e+00 0.000000e+00
 0.000000e+00 9.477080e-01 5.229199e-02 0.000000e+00 0.000000e+00
 0.000000e+00 0.000000e+00 9.388149e-01 6.118500e-02 0.000000e+00
 0.000000e+00 0.000000e+00 0.000000e+00 8.665625e-01 1.334374e-01
 0.000000e+00 0.000000e+00 0.000000e+00 0.000000e+00 0.000000e+00
<ENDHMM>
~h "ay"
<BEGINHMM>
<NUMSTATES> 5
<STATE> 2
<MEAN> 39
 9.237809e-01 -1.254467e+01 3.308423e+00 -6.028282e+00 -1.277285e+01 -7.998888e+00 -5.849697e+00 9.645238e+00 1.943686e+00 -5.093925e+00 -8.063473e-01 -1.001996e+01 7.212022e+01 -2.670121e-01 1.841511e-02 1.288160e+00 1.488897e-01 -1.239892e+00 -8.628514e-01 1.129248e-01 6.110235e-01 -9.055564e-01 -3.041351e-01 1.043083e+00 6.734843e-01 2.187450e-02 -2.945366e-02 4.766454e-01 1.145026e-01 7.483996e-02 9.633838e-02 9.615194e-02 -1.207778e-01 -4.898463e-01 -2.937626e-01 2.594354e-01 1.297812e-01 1.818427e-01 -2.784143e-01
<VARIANCE> 39
 1.460202e+01 2.971489e+01 6.340597e+01 4.685571e+01 7.740437e+01 7.556507e+01 9.022014e+01 6.384820e+01 7.144215e+01 7.227575e+01 6.514735e+01 4.262073e+01 1.864560e+01 3.221017e-01 1.652798e+00 2.241616e+00 1.354262e+00 2.554598e+00 2.580607e+00 2.311709e+00 4.043865e+00 3.138831e+00 2.706616e+00 3.530696e+00 1.966230e+00 5.039111e-01 9.975144e-02 2.188749e-01 3.474521e-01 2.449093e-01 5.276924e-01 4.125745e-01 4.859369e-01 5.519581e-01 5.378538e-01 4.035399e-01 6.886420e-01 4.000677e-01 8.448043e-02
<GCONST> 1.160595e+02
<STATE> 3
<MEAN> 39
 -6.264490e-01 -5.276227e+00 1.187017e+01 -6.076398e+00 -1.871542e+01 -1.039739e+01 -8.705881e+00 4.612206e+00 -6.785595e+00 -3.789530e+00 5.039151e+00 -6.992454e+00 6.783176e+01 2.100339e-01 8.660595e-01 -3.141452e-01 4.894756e-01 6.656457e-01 7.845652e-01 -1.391725e-01 -9.444806e-01 -3.403433e-01 3.749515e-01 -4.663990e-01 3.948786e-02 -8.448995e-01 4.723448e-02 3.157702e-02 -3.517028e-01 1.222031e-01 3.389402e-01 2.054484e-01 1.746161e-01 -7.129848e-02 1.546872e-01 -2.422198e-02 -2.106872e-01 -4.926456e-02 -1.119449e-01
<VARIANCE> 39
 1.377828e+01 3.649533e+01 6.342128e+01 4.785217e+01 6.793575e+01 7.937948e+01 1.072043e+02 9.086705e+01 6.200412e+01 7.393674e+01 7.022685e+01 3.174881e+01 2.014523e+01 5.778778e-01 1.393920e+00 3.116521e+00 1.530943e+00 2.839111e+00 2.187649e+00 2.689139e+00 3.982962e+00 3.896178e+00 2.623875e+00 2.531006e+00 2.133548e+00 6.905163e-01 8.414952e-02 1.757486e-01 3.442902e-01 2.340487e-01 4.579035e-01 3.520757e-01 3.862478e-01 6.929441e-01 6.184123e-01 4.911344e-01 4.917737e-01 3.767041e-01 9.481037e-02
<GCONST> 1.169109e+02
<STATE> 4
<MEAN> 39
 3.103243e-01 -6.835642e-01 2.795765e+00 1.499254e+00 -9.940515e+00 -1.441802e+00 -4.160820e+00 -6.010143e-01 -5.828156e+00 -1.375495e+00 -2.516807e+00 -3.247407e+00 5.976743e+01 -9.015948e-02 5.267112e-01 -5.494586e-01 3.190009e-01 5.671690e-01 4.915454e-01 2.114323e-01 -3.865613e-01 1.760184e-02 6.430899e-02 -1.856248e-01 1.610811e-01 -6.921342e-01 -6.597954e-02 -5.409026e-02 4.892415e-02 -1.045540e-01 -9.320116e-02 -9.003405e-02 -1.988651e-02 3.590628e-02 -1.387853e-03 -4.615815e-02 7.058463e-02 -2.927926e-02 8.316384e-02
<VARIANCE> 39
 1.424928e+01 6.053689e+01 7.955418e+01 4.014316e+01 4.275332e+01 7.639896e+01 5.297292e+01 6.911380e+01 3.882042e+01 5.323127e+01 5.276965e+01 4.440808e+01 5.091957e+01 3.829049e-01 1.014653e+00 1.329058e+00 1.318539e+00 2.027877e+00 1.954357e+00 2.018635e+00 2.928506e+00 2.640080e+00 1.926679e+00 1.901208e+00 1.562637e+00 4.387412e-01 6.576271e-02 1.552271e-01 2.052262e-01 1.866798e-01 3.556987e-01 3.481546e-01 3.189365e-01 3.662356e-01 4.708923e-01 4.091545e-01 3.454462e-01 3.325932e-01 5.960643e-02
<GCONST> 1.080742e+02
<TRANSP> 5
 0.000000e+00 1.000000e+00 0.000000e+00 0.000000e+00 0.000000e+00
 0.000000e+00 7.481758e-01 2.518242e-01 0.000000e+00 0.000000e+00
 0.000000e+00 0.000000e+00 7.897718e-01 2.102282e-01 0.000000e+00
 0.000000e+00 0.000000e+00 0.000000e+00 7.721308e-01 2.278692e-01
 0.000000e+00 0.000000e+00 0.000000e+00 0.000000e+00 0.000000e+00
<ENDHMM>
~h "eu"
<BEGINHMM>
<NUMSTATES> 5
<STATE> 2
<MEAN> 39
 5.529410e-01 -5.530644e+00 -2.218210e+00 -3.449714e+00 -1.011644e+01 -5.514261e+00 -6.570064e+00 -1.953662e+00 -1.602983e+00 -2.251589e+00 -2.604095e+00 -5.122451e+00 6.583189e+01 9.062268e-01 -8.286145e-01 1.585722e-01 -5.397097e-01 -6.101819e-01 -4.070424e-01 -3.090124e-01 3.476875e-01 8.874445e-02 1.183451e-01 -1.468840e-01 -3.343811e-01 9.920202e-01 -2.176455e-01 2.706644e-01 3.534253e-02 2.766082e-01 2.626101e-01 2.878606e-01 2.184465e-01 -8.319160e-02 -1.560741e-01 -9.982132e-02 -2.811735e-02 1.325710e-01 -3.747247e-01
<VARIANCE> 39
 6.152608e+01 9.480177e+01 8.080107e+01 1.443447e+02 1.129223e+02 1.325204e+02 8.727184e+01 8.627581e+01 9.703377e+01 8.991716e+01 6.751760e+01 5.865459e+01 1.269017e+02 4.405526e+00 4.990024e+00 4.894907e+00 5.202766e+00 5.687478e+00 6.715260e+00 5.923708e+00 6.352683e+00 5.952997e+00 5.356979e+00 4.613511e+00 3.684878e+00 3.983426e+00 6.608697e-01 9.074972e-01 7.846804e-01 9.596444e-01 9.886338e-01 1.150460e+00 1.078135e+00 1.005521e+00 1.083933e+00 1.006197e+00 8.672572e-01 6.992557e-01 7.164546e-01
<GCONST> 1.503976e+02
<STATE> 3
<MEAN> 39
 2.332433e+00 -6.886268e+00 -1.336101e+00 -4.891324e+00 -9.540477e+00 -7.523562e+00 -7.944666e+00 -6.654627e-01 -9.494731e-01 -7.904761e-01 -2.161134e+00 -6.504589e+00 6.835905e+01 3.429203e-01 2.013347e-01 1.595610e-01 3.989334e-01 3.275707e-02 3.958711e-01 6.566548e-02 -1.604660e-01 -1.947308e-01 -4.911949e-02 -9.966230e-02 2.510387e-02 -3.147158e-01 -3.913779e-01 5.590348e-01 2.779936e-02 4.868712e-01 3.831978e-01 3.406359e-01 2.977606e-01 -3.082157e-01 -1.993608e-01 -1.820439e-01 -1.435474e-02 2.387863e-01 -6.103148e-01
<VARIANCE> 39
 4.056038e+01 6.561842e+01 7.447445e+01 1.198456e+02 1.064093e+02 1.015208e+02 8.484970e+01 9.880806e+01 1.014745e+02 8.853513e+01 7.330850e+01 5.695684e+01 5.931564e+01 1.551346e+00 2.554472e+00 2.390954e+00 3.196356e+00 3.388131e+00 3.748572e+00 3.778574e+00 4.188189e+00 3.955153e+00 3.526683e+00 3.333501e+00 2.532331e+00 1.786293e+00 4.240539e-01 5.170750e-01 6.432747e-01 7.041301e-01 8.494413e-01 8.121040e-01 8.844100e-01 1.016862e+00 9.686844e-01 8.765320e-01 8.517630e-01 6.199465e-01 3.064391e-01
<GCONST> 1.377961e+02
<STATE> 4
<MEAN> 39
 1.509632e+00 -3.920659e+00 -1.364951e+00 -3.166045e+00 -8.552200e+00 -6.758433e+00 -7.338115e+00 -1.796728e+00 -1.894804e+00 -1.589087e+00 -2.498074e+00 -5.822733e+00 6.514733e+01 -2.218301e-01 8.647658e-01 9.954859e-02 8.003276e-01 4.672652e-01 6.839081e-01 4.229967e-01 -4.267086e-01 -3.346978e-01 -2.576654e-01 -1.113152e-01 2.476320e-01 -1.007468e+00 -2.144375e-01 8.565757e-02 1.877693e-03 5.546826e-02 8.299604e-02 4.552399e-02 9.568960e-02 -4.999663e-02 -2.933795e-02 -5.632861e-02 1.389016e-02 6.328822e-02 -1.061631e-01
<VARIANCE> 39
 3.672310e+01 6.345600e+01 6.923550e+01 1.030980e+02 8.733306e+01 8.894536e+01 6.910376e+01 8.151396e+01 7.958530e+01 8.612473e+01 6.159705e+01 4.693111e+01 6.644445e+01 1.301583e+00 2.210318e+00 2.141100e+00 2.772432e+00 3.023065e+00 3.096545e+00 3.266306e+00 3.428554e+00 3.522123e+00 3.178771e+00 3.035661e+00 2.408840e+00 1.615505e+00 2.354534e-01 3.487215e-01 3.709728e-01 4.577972e-01 5.140759e-01 5.562695e-01 5.851152e-01 6.230577e-01 6.004227e-01 5.755514e-01 5.413936e-01 4.078574e-01 2.235116e-01
<GCONST> 1.286665e+02
<TRANSP> 5
 0.000000e+00 1.000000e+00 0.000000e+00 0.000000e+00 0.000000e+00
 0.000000e+00 3.946258e-01 6.053742e-01 0.000000e+00 0.000000e+00
