~o
<STREAMINFO> 1 24
<VECSIZE> 24<NULLD><MFCC_D><DIAGC>
~s "silst"
<MEAN> 24
 -1.064133e+01 6.589112e-01 -6.563510e+00 3.262124e+00 -5.623257e+00 3.463580e+00 -3.166739e+00 9.734735e-01 -1.394384e+00 -8.824128e-01 -1.328834e+00 -1.027178e+00 -8.739014e-02 5.391987e-02 4.287962e-03 3.585620e-02 1.280738e-02 2.726145e-02 5.763107e-03 7.535335e-03 1.425220e-03 4.546495e-03 3.046319e-02 2.039966e-02
<VARIANCE> 24
 6.806090e+01 2.976642e+01 3.782349e+01 3.141500e+01 5.102340e+01 4.474088e+01 2.121025e+01 2.664087e+01 2.717431e+01 2.149885e+01 2.026003e+01 1.619748e+01 4.775285e-01 6.306777e-01 7.345307e-01 8.744100e-01 1.093619e+00 1.251068e+00 1.354746e+00 1.456194e+00 1.529715e+00 1.439788e+00 1.367722e+00 1.245726e+00
<GCONST> 8.570947e+01
~h "a"
<BEGINHMM>
<NUMSTATES> 5
<STATE> 2
<MEAN> 24
 2.051029e+00 -8.181658e+00 -3.115755e+00 -3.883871e+00 -6.929161e+00 -7.896188e-01 -7.592538e+00 3.255517e+00 -1.164973e+00 8.851193e-01 -3.097526e+00 -7.869634e+00 4.951241e-01 -1.329595e+00 -4.708853e-01 -7.748416e-01 3.641260e-01 2.866301e-01 -1.390990e-02 1.001789e+00 2.948899e-01 -6.781629e-02 -8.078161e-01 -9.174402e-01
<VARIANCE> 24
 4.352238e+01 3.817623e+01 6.372141e+01 1.016711e+02 1.055787e+02 9.959533e+01 6.939063e+01 6.394497e+01 5.882641e+01 6.419315e+01 5.028992e+01 6.298211e+01 2.541054e+00 3.627956e+00 2.899858e+00 4.206671e+00 4.412889e+00 4.584908e+00 4.304537e+00 5.449883e+00 4.125740e+00 4.056558e+00 3.680851e+00 3.393412e+00
<GCONST> 1.104840e+02
<STATE> 3
<MEAN> 24
 2.312595e+00 -1.036345e+01 -2.470518e+00 -5.259290e+00 -6.512578e+00 -3.839068e-01 -7.925039e+00 5.279184e+00 -2.865388e-01 3.510049e-02 -3.274612e+00 -1.016877e+01 -2.254987e-02 3.164245e-02 -2.774261e-03 2.248943e-01 3.064767e-01 1.108346e-01 2.590564e-01 4.589520e-02 -1.720590e-01 -2.935678e-02 -3.540048e-01 8.927386e-02
<VARIANCE> 24
 3.257654e+01 3.383716e+01 5.907541e+01 8.985984e+01 9.556102e+01 9.641744e+01 7.235484e+01 7.199551e+01 6.439617e+01 6.659351e+01 5.076843e+01 7.099224e+01 7.697541e-01 1.909978e+00 1.657620e+00 1.986133e+00 2.312569e+00 3.185813e+00 2.753079e+00 3.333009e+00 2.426646e+00 2.652604e+00 2.496024e+00 2.289366e+00
<GCONST> 1.033271e+02
<STATE> 4
<MEAN> 24
 1.443715e+00 -7.508596e+00 -3.901928e+00 -4.844461e+00 -2.641796e+00 -3.678695e-01 -6.518875e+00 4.050723e+00 -1.723927e+00 1.970574e+00 -5.671140e+00 -8.251451e+00 -1.035435e-01 8.363805e-01 1.194075e-01 7.638193e-01 -9.410497e-02 1.106778e-01 1.922146e-01 -4.213852e-01 -1.447348e-01 -7.052358e-02 2.090325e-01 4.372465e-01
<VARIANCE> 24
 2.685982e+01 3.409327e+01 5.202408e+01 6.459222e+01 6.526972e+01 6.576266e+01 4.698461e+01 4.657151e+01 4.771858e+01 5.654130e+01 4.619393e+01 4.032314e+01 6.115476e-01 1.369399e+00 1.299888e+00 1.731406e+00 1.702666e+00 2.130740e+00 1.993393e+00 2.242993e+00 1.999512e+00 1.952311e+00 1.932496e+00 1.680578e+00
<GCONST> 9.649403e+01
<TRANSP> 5
 0.000000e+00 1.000000e+00 0.000000e+00 0.000000e+00 0.000000e+00
 0.000000e+00 3.581956e-01 6.418044e-01 0.000000e+00 0.000000e+00
 0.000000e+00 0.000000e+00 3.576999e-01 6.423001e-01 0.000000e+00
 0.000000e+00 0.000000e+00 0.000000e+00 7.326704e-01 2.673297e-01
 0.000000e+00 0.000000e+00 0.000000e+00 0.000000e+00 0.000000e+00
<ENDHMM>
~h "b"
<BEGINHMM>
<NUMSTATES> 5
<STATE> 2
<MEAN> 24
 2.016179e+00 6.906527e+00 4.013216e-01 4.496011e+00 -4.462830e+00 2.297627e+00 -6.196352e+00 -3.858702e+00 -6.882306e+00 -2.675947e+00 -2.132348e+00 -4.083180e+00 4.604567e-01 2.166848e-01 -2.347390e-01 -4.715961e-01 -1.074555e-02 -1.743135e-01 -4.652762e-01 -4.723267e-01 -1.747996e-01 5.820723e-02 3.849781e-01 1.371897e-01
<VARIANCE> 24
 5.164861e+01 3.811409e+01 3.051152e+01 4.522249e+01 3.973737e+01 4.481556e+01 2.857471e+01 2.843132e+01 2.937073e+01 2.568208e+01 2.378700e+01 2.129043e+01 1.740484e+00 2.925824e+00 2.171907e+00 4.866703e+00 2.582081e+00 3.044034e+00 3.481735e+00 3.175103e+00 3.322534e+00 3.566380e+00 2.998255e+00 1.972988e+00
<GCONST> 9.866212e+01
<STATE> 3
<MEAN> 24
 4.945504e+00 2.353912e+00 -1.139009e+00 -2.153484e+00 -6.195669e+00 1.410595e+00 -1.083547e+01 -6.547800e+00 -6.780745e+00 1.534311e+00 2.499957e+00 -3.928910e+00 2.646012e-01 -2.232666e+00 -4.596054e-01 -2.384660e+00 -6.128962e-01 -6.921784e-01 -2.122079e+00 3.762098e-01 1.355245e+00 2.097501e+00 1.144840e+00 -1.077907e+00
<VARIANCE> 24
 3.217239e+01 4.687630e+01 4.084424e+01 9.982586e+01 5.933577e+01 5.707666e+01 5.203023e+01 3.975476e+01 4.762477e+01 4.964902e+01 4.984296e+01 3.125073e+01 1.700471e+00 4.820287e+00 3.475080e+00 7.297523e+00 4.341990e+00 5.925551e+00 5.064158e+00 4.980157e+00 6.315008e+00 6.646817e+00 5.446761e+00 5.025608e+00
<GCONST> 1.094810e+02
<STATE> 4
<MEAN> 24
 4.680130e+00 -2.399612e+00 -8.577853e-01 -3.348209e+00 -7.088975e+00 -1.015014e+00 -1.415135e+01 -2.557396e+00 -1.937930e+00 4.358395e+00 1.092716e+00 -7.414091e+00 -2.469064e-01 -1.717881e+00 4.091463e-01 -5.435242e-01 -8.357893e-01 -1.093081e+00 -6.060218e-01 1.691452e+00 1.240462e+00 1.748725e-01 -5.235484e-01 -8.172771e-01
<VARIANCE> 24
 3.053143e+01 5.602131e+01 5.486785e+01 1.294997e+02 7.384988e+01 7.428168e+01 6.992852e+01 5.010629e+01 6.199192e+01 7.832042e+01 6.694207e+01 5.943760e+01 1.531322e+00 3.998027e+00 3.944934e+00 5.944161e+00 4.344055e+00 5.604057e+00 4.377491e+00 5.671837e+00 6.152668e+00 5.114473e+00 5.133199e+00 4.965122e+00
<GCONST> 1.120284e+02
<TRANSP> 5
 0.000000e+00 1.000000e+00 0.000000e+00 0.000000e+00 0.000000e+00
 0.000000e+00 6.450207e-01 3.549794e-01 0.000000e+00 0.000000e+00
 0.000000e+00 0.000000e+00 3.481546e-01 6.518455e-01 0.000000e+00
 0.000000e+00 0.000000e+00 0.000000e+00 2.323626e-01 7.676374e-01
 0.000000e+00 0.000000e+00 0.000000e+00 0.000000e+00 0.000000e+00
<ENDHMM>
~h "c"
<BEGINHMM>
<NUMSTATES> 5
<STATE> 2
<MEAN> 24
 -8.730254e+00 2.377540e+00 -8.598771e-01 -4.490793e-01 -4.526689e+00 -1.678156e+00 -3.532528e+00 -2.712546e-01 -1.575999e+00 -1.161889e+00 -6.253590e-01 -1.789636e+00 -2.162972e+00 4.630037e-02 5.893732e-01 -1.123526e+00 6.147026e-01 -7.451498e-01 3.480235e-01 -3.746981e-01 3.715332e-01 -2.962906e-01 4.229620e-01 2.099971e-01
<VARIANCE> 24
 8.383321e+01 3.878820e+01 4.598698e+01 5.675788e+01 8.038708e+01 7.669707e+01 3.332000e+01 4.081293e+01 3.361736e+01 2.760098e+01 2.534352e+01 2.174771e+01 4.584801e+00 2.919807e+00 3.144318e+00 4.011986e+00 4.059346e+00 4.986144e+00 3.093112e+00 3.410150e+00 3.294805e+00 2.595809e+00 2.649382e+00 1.828146e+00
<GCONST> 1.033666e+02
<STATE> 3
<MEAN> 24
 -1.040310e+01 1.273562e-01 2.978607e+00 -2.569580e+00 -6.161998e+00 -4.950405e+00 -4.486654e+00 3.682251e-01 3.940724e-02 -3.493533e+00 -2.936717e-01 -7.923346e-01 2.823169e+00 -1.901335e+00 4.449306e-01 5.118909e-01 -1.827889e+00 -7.204282e-01 -1.279532e+00 7.746791e-01 4.513989e-01 -2.498964e-01 -3.388690e-01 -7.421196e-03
<VARIANCE> 24
 6.131246e+01 4.183530e+01 5.594786e+01 7.592602e+01 8.199430e+01 8.904303e+01 4.918509e+01 3.611036e+01 3.552106e+01 3.192517e+01 2.324716e+01 2.272958e+01 5.929380e+00 4.910345e+00 4.569701e+00 4.491390e+00 4.859176e+00 4.348547e+00 6.075101e+00 5.275351e+00 3.975615e+00 4.088490e+00 2.781348e+00 2.428430e+00
<GCONST> 1.076036e+02
<STATE> 4
<MEAN> 24
 6.680229e+00 -1.297099e+01 -1.155498e+00 1.333000e+01 -2.410163e+01 1.033273e+01 -6.094002e+00 -4.346383e+00 -1.093732e+00 -4.045528e+00 -4.280291e-01 4.988762e+00 2.816383e-01 -1.078445e-01 -7.571872e-02 -2.985758e-02 -6.690085e-02 6.337777e-03 -1.540737e-01 -5.642145e-03 -2.891025e-02 4.295412e-02 -8.241285e-05 -7.668103e-02
<VARIANCE> 24
 8.044638e+01 1.003510e+02 1.003890e+02 7.779005e+01 1.020523e+02 1.353477e+02 8.205293e+01 8.835399e+01 8.232865e+01 4.867303e+01 5.507854e+01 4.467112e+01 5.730177e+00 7.127951e+00 5.505848e+00 3.499752e+00 5.417115e+00 7.033026e+00 4.691670e+00 5.129302e+00 5.270247e+00 3.617325e+00 3.027798e+00 2.861136e+00
<GCONST> 1.151904e+02
<TRANSP> 5
 0.000000e+00 1.000000e+00 0.000000e+00 0.000000e+00 0.000000e+00
 0.000000e+00 7.117456e-01 2.882544e-01 0.000000e+00 0.000000e+00
 0.000000e+00 0.000000e+00 4.912316e-01 5.087684e-01 0.000000e+00
 0.000000e+00 0.000000e+00 0.000000e+00 9.166114e-01 8.338858e-02
 0.000000e+00 0.000000e+00 0.000000e+00 0.000000e+00 0.000000e+00
<ENDHMM>
~h "d"
<BEGINHMM>
<NUMSTATES> 5
<STATE> 2
<MEAN> 24
 -1.919339e-01 3.022627e+00 1.490509e+00 7.310962e+00 -7.193412e+00 -6.514566e-01 -7.117469e+00 -2.991411e-01 -3.200336e+00 -3.257552e+00 -4.569634e+00 -3.203196e+00 2.252623e-01 -8.436222e-01 7.453268e-01 -3.512680e-01 -7.591189e-01 -1.076067e+00 -8.688802e-01 1.013670e-01 1.025312e-01 -3.182458e-01 6.441479e-01 4.487211e-01
<VARIANCE> 24
 6.944377e+01 5.771195e+01 5.492695e+01 5.574174e+01 5.510473e+01 6.740367e+01 4.027449e+01 4.220677e+01 3.394222e+01 3.401615e+01 3.066806e+01 3.183230e+01 3.370105e+00 6.194592e+00 3.073733e+00 5.162627e+00 4.430141e+00 6.087905e+00 5.048018e+00 5.666010e+00 4.213225e+00 4.187766e+00 3.776098e+00 2.876670e+00
<GCONST> 1.077321e+02
<STATE> 3
<MEAN> 24
 1.808994e+00 -3.275566e+00 5.611149e+00 2.749079e+00 -1.082971e+01 -5.392424e+00 -1.208597e+01 2.033246e+00 -2.336048e+00 -2.736395e+00 -5.640960e-02 -2.735312e+00 -1.865338e-01 -1.750807e+00 8.935803e-01 -1.946497e+00 -1.419126e+00 -1.292103e+00 -1.548733e+00 1.074679e+00 2.149984e-01 5.810560e-01 1.447820e+00 -4.468899e-01
<VARIANCE> 24
 3.730254e+01 5.199751e+01 7.154151e+01 7.448664e+01 6.365565e+01 8.287958e+01 8.874778e+01 7.919601e+01 5.404508e+01 4.264949e+01 4.109904e+01 4.576477e+01 2.112978e+00 3.628519e+00 4.166138e+00 4.804376e+00 4.136628e+00 4.895407e+00 5.472584e+00 8.235707e+00 5.439952e+00 4.684364e+00 5.034002e+00 3.526494e+00
<GCONST> 1.109355e+02
<STATE> 4
<MEAN> 24
 4.034188e+00 -7.731225e+00 3.276678e+00 6.809883e+00 -1.528330e+01 -1.533073e+00 -1.229721e+01 3.849086e-01 -1.486542e+00 -2.462349e+00 4.364399e-01 -1.959733e+00 -1.768857e-01 -3.974883e-01 2.648264e-01 -1.069438e+00 -4.482041e-01 -4.448538e-02 -1.874215e-01 2.307113e-01 -1.687902e-01 5.555621e-01 4.398653e-01 -5.486014e-01
<VARIANCE> 24
 5.346092e+01 8.794818e+01 9.354428e+01 1.781444e+02 1.028412e+02 1.272825e+02 8.996775e+01 1.240267e+02 9.303594e+01 6.675874e+01 5.944756e+01 6.634234e+01 2.092281e+00 3.613589e+00 4.564388e+00 4.453440e+00 4.727693e+00 5.536911e+00 5.213808e+00 5.670175e+00 4.726007e+00 3.984809e+00 4.357631e+00 3.150004e+00
<GCONST> 1.153406e+02
<TRANSP> 5
 0.000000e+00 1.000000e+00 0.000000e+00 0.000000e+00 0.000000e+00
 0.000000e+00 4.954538e-01 5.045462e-01 0.000000e+00 0.000000e+00
 0.000000e+00 0.000000e+00 2.006891e-01 7.993109e-01 0.000000e+00
 0.000000e+00 0.000000e+00 0.000000e+00 4.220167e-01 5.779833e-01
 0.000000e+00 0.000000e+00 0.000000e+00 0.000000e+00 0.000000e+00
<ENDHMM>
~h "e"
<BEGINHMM>
<NUMSTATES> 5
<STATE> 2
<MEAN> 24
 6.387568e-01 -5.692273e+00 -3.843740e-01 4.682192e-01 -1.043502e+01 -5.348097e+00 -6.144553e+00 2.296741e+00 -2.745355e+00 1.555810e-01 -9.941661e-01 -4.459871e+00 1.075279e+00 -1.243291e+00 1.052975e+00 -6.792160e-01 -1.394419e+00 -1.220868e+00 -1.340324e-01 1.180343e+00 -6.923582e-01 1.180572e-01 3.607680e-01 -4.259008e-01
<VARIANCE> 24
 5.650341e+01 5.009282e+01 6.668324e+01 8.137034e+01 1.002962e+02 1.228933e+02 7.140036e+01 6.729093e+01 6.756372e+01 5.551202e+01 4.521745e+01 4.569897e+01 4.494857e+00 5.010286e+00 4.794729e+00 4.164960e+00 5.829914e+00 6.757679e+00 5.695587e+00 7.143467e+00 5.626455e+00 5.060286e+00 4.854311e+00 3.399625e+00
<GCONST> 1.140569e+02
<STATE> 3
<MEAN> 24
 1.739453e+00 -8.330086e+00 2.042238e+00 -2.328700e+00 -1.133828e+01 -6.784874e+00 -7.860625e+00 5.300577e+00 -2.738398e+00 -3.961518e-02 5.359040e-01 -6.884708e+00 1.663877e-01 -1.115106e-01 4.183216e-01 1.156374e-02 -3.076431e-01 -7.126373e-02 2.974743e-01 1.387962e-01 -5.209007e-01 9.552178e-02 5.500803e-02 1.495151e-01
<VARIANCE> 24
 3.821040e+01 4.730615e+01 7.264291e+01 7.533347e+01 9.169231e+01 1.054906e+02 7.538668e+01 9.018584e+01 7.465324e+01 5.991089e+01 5.575090e+01 5.415990e+01 1.295434e+00 2.264387e+00 2.014173e+00 2.409724e+00 2.694505e+00 2.475409e+00 3.305338e+00 3.477984e+00 3.141459e+00 2.912251e+00 2.685127e+00 2.058385e+00
<GCONST> 1.055551e+02
<STATE> 4
<MEAN> 24
 3.734057e-01 -5.399067e+00 4.962317e+00 -1.826122e+00 -1.271506e+01 -9.549701e+00 -3.350724e+00 4.382753e+00 -7.525716e+00 1.383128e+00 3.222326e-01 -3.855171e+00 -9.812435e-02 5.739499e-01 -1.890310e-01 4.618191e-01 3.520248e-01 5.311488e-01 1.393880e-01 -3.510564e-01 1.185277e-01 -1.030085e-01 -1.567149e-01 5.960694e-02
<VARIANCE> 24
 3.523830e+01 3.773074e+01 7.100926e+01 5.227366e+01 7.613190e+01 6.955710e+01 5.831239e+01 6.737029e+01 5.866196e+01 4.945724e+01 4.900084e+01 2.735694e+01 5.865852e-01 1.375089e+00 1.514055e+00 1.560515e+00 1.805254e+00 1.722387e+00 2.279052e+00 1.961466e+00 1.969770e+00 1.731190e+00 1.655418e+00 1.267712e+00
<GCONST> 9.679003e+01
<TRANSP> 5
 0.000000e+00 1.000000e+00 0.000000e+00 0.000000e+00 0.000000e+00
 0.000000e+00 4.137444e-01 5.862557e-01 0.000000e+00 0.000000e+00
 0.000000e+00 0.000000e+00 3.745919e-01 6.254082e-01 0.000000e+00
 0.000000e+00 0.000000e+00 0.000000e+00 7.575455e-01 2.424545e-01
 0.000000e+00 0.000000e+00 0.000000e+00 0.000000e+00 0.000000e+00
<ENDHMM>
~h "f"
<BEGINHMM>
<NUMSTATES> 5
<STATE> 2
<MEAN> 24
 -2.209538e+00 -3.976523e+00 8.615573e+00 1.220144e+00 -9.518582e+00 -6.688198e+00 -1.257276e+01 3.879780e-01 -2.266471e+00 -2.022266e+00 3.295133e+00 -6.169282e+00 3.767632e-01 -5.011195e-01 1.139330e+00 -7.868444e-01 -5.304292e-01 1.182695e-01 -1.533164e+00 8.057101e-02 1.354938e-01 3.935248e-01 8.596367e-01 -7.989132e-01
<VARIANCE> 24
 3.180925e+01 2.694642e+01 1.210060e+02 3.622633e+01 6.322247e+01 9.024742e+01 9.941124e+01 3.968605e+01 3.778972e+01 4.095607e+01 5.029497e+01 3.391217e+01 3.756029e+00 2.938237e+00 4.771827e+00 3.037777e+00 6.311136e+00 4.543045e+00 7.085457e+00 4.328664e+00 4.242570e+00 4.280388e+00 5.940937e+00 3.288102e+00
<GCONST> 1.086896e+02
<STATE> 3
<MEAN> 24
 1.104013e+00 -6.460112e+00 7.458573e+00 -4.641327e+00 -1.048250e+01 -6.668333e-01 -1.560336e+01 -8.212273e-02 -3.535927e+00 4.767226e+00 4.506197e+00 -1.432608e+01 -2.673811e-01 4.245477e-01 -7.303110e-01 1.527770e-01 4.514625e-01 1.912861e-01 1.019956e+00 -2.251124e-01 -3.895023e-01 1.266615e-01 -2.168148e-01 2.127873e-01
<VARIANCE> 24
 1.976003e+01 2.962377e+01 8.618185e+01 4.556184e+01 4.259418e+01 4.042624e+01 1.063508e+02 3.926049e+01 8.525397e+01 2.811309e+01 2.453105e+01 6.656413e+01 1.888196e+00 2.338676e+00 3.077528e+00 2.162943e+00 1.555834e+00 3.102232e+00 2.981836e+00 5.196909e+00 7.946376e+00 2.693298e+00 2.139946e+00 2.447445e+00
<GCONST> 1.021398e+02
<STATE> 4
<MEAN> 24
 -7.007185e+00 -2.125269e-01 4.683862e-01 1.001045e+00 -2.898955e+00 -3.073020e+00 -2.746605e+00 -1.298643e+00 -8.474634e-02 -7.480251e-01 -6.503662e-01 -4.145229e+00 -3.303711e-01 -8.866718e-02 1.939258e-01 3.184846e-01 -6.930263e-02 -5.086114e-01 -7.071215e-02 1.348650e-01 2.227524e-01 -3.809122e-01 -1.811131e-01 3.059485e-01
<VARIANCE> 24
 3.210555e+01 1.471286e+01 4.392411e+01 3.344441e+01 3.261297e+01 5.599350e+01 3.460506e+01 2.676430e+01 3.935189e+01 2.478583e+01 2.326228e+01 2.445965e+01 3.311444e+00 1.565763e+00 2.100605e+00 2.042320e+00 2.363612e+00 3.367634e+00 2.783679e+00 2.735034e+00 3.450288e+00 2.704646e+00 2.100316e+00 2.126762e+00
<GCONST> 9.606335e+01
<TRANSP> 5
 0.000000e+00 1.000000e+00 0.000000e+00 0.000000e+00 0.000000e+00
 0.000000e+00 4.999124e-01 5.000877e-01 0.000000e+00 0.000000e+00
 0.000000e+00 0.000000e+00 6.408494e-01 3.591506e-01 0.000000e+00
 0.000000e+00 0.000000e+00 0.000000e+00 7.653447e-01 2.346553e-01
 0.000000e+00 0.000000e+00 0.000000e+00 0.000000e+00 0.000000e+00
<ENDHMM>
~h "g"
<BEGINHMM>
<NUMSTATES> 5
<STATE> 2
<MEAN> 24
 -1.196469e+00 8.246025e-01 -3.305456e-01 6.176070e+00 -8.339592e+00 1.818396e+00 -7.375737e+00 -1.394377e+00 -4.207125e+00 1.271889e-01 -1.671836e+00 -4.434132e+00 5.004625e-01 -7.475110e-01 2.215083e-01 -1.144009e-01 8.562565e-03 -1.054342e+00 -8.309413e-01 3.400431e-01 3.731800e-01 -5.205239e-02 3.917667e-01 9.228366e-02
<VARIANCE> 24
 8.671769e+01 5.779657e+01 5.919334e+01 1.235916e+02 8.878381e+01 1.117666e+02 5.688990e+01 5.679846e+01 5.901995e+01 4.149576e+01 3.838000e+01 3.815366e+01 5.852348e+00 5.561992e+00 4.571242e+00 6.082641e+00 8.299740e+00 8.503139e+00 6.723285e+00 5.662772e+00 5.270882e+00 4.905431e+00 3.863308e+00 3.279029e+00
<GCONST> 1.143981e+02
<STATE> 3
<MEAN> 24
 1.821576e+00 -1.437250e+00 3.738971e+00 7.973966e-01 -9.058784e+00 -4.780961e+00 -1.238915e+01 3.720089e-01 -4.672764e+00 4.378921e-01 2.753615e+00 -7.673729e+00 6.463175e-02 -1.179323e+00 4.379247e-01 -9.650009e-01 -1.133597e+00 -9.293786e-01 -6.621016e-01 8.168966e-01 6.916296e-01 2.535534e-01 7.354987e-01 -3.498609e-01
<VARIANCE> 24
 3.459998e+01 4.811213e+01 6.837765e+01 7.940095e+01 9.695680e+01 9.971198e+01 7.930584e+01 5.869287e+01 5.458477e+01 5.413844e+01 7.755935e+01 5.272120e+01 2.146585e+00 4.132649e+00 4.475168e+00 4.613282e+00 6.876971e+00 5.430105e+00 5.660716e+00 5.216675e+00 5.781232e+00 4.341114e+00 5.797458e+00 3.696146e+00
<GCONST> 1.125588e+02
<STATE> 4
<MEAN> 24
 6.856060e+00 -1.159923e+01 -1.355722e+00 1.511224e+01 -2.307679e+01 7.758440e+00 -7.787005e+00 -2.652025e+00 3.929908e-02 -3.842169e+00 -2.389755e+00 2.437603e+00 -1.031018e-02 -3.177720e-02 5.616509e-03 -1.000840e-01 -2.578507e-02 -1.978818e-03 2.258422e-02 1.976256e-02 -1.311730e-02 5.066475e-02 7.248956e-03 -3.023229e-02
<VARIANCE> 24
 7.296153e+01 8.709255e+01 8.913716e+01 1.120705e+02 1.144575e+02 1.377617e+02 9.937553e+01 1.047994e+02 7.822270e+01 6.549702e+01 5.118743e+01 5.363427e+01 4.491882e+00 5.571489e+00 4.988508e+00 4.031676e+00 5.614190e+00 7.349536e+00 5.439874e+00 5.058354e+00 4.963891e+00 3.954181e+00 3.067368e+00 3.050776e+00
<GCONST> 1.159203e+02
<TRANSP> 5
 0.000000e+00 1.000000e+00 0.000000e+00 0.000000e+00 0.000000e+00
 0.000000e+00 4.143429e-01 5.856571e-01 0.000000e+00 0.000000e+00
 0.000000e+00 0.000000e+00 4.228380e-01 5.771620e-01 0.000000e+00
 0.000000e+00 0.000000e+00 0.000000e+00 9.136529e-01 8.634710e-02
 0.000000e+00 0.000000e+00 0.000000e+00 0.000000e+00 0.000000e+00
<ENDHMM>
~h "h"
<BEGINHMM>
<NUMSTATES> 5
<STATE> 2
<MEAN> 24
 -3.651465e-01 -2.151948e+00 -7.403845e-01 -1.694124e+00 -8.015721e+00 -1.995626e+00 -1.341810e+00 8.345737e-01 -3.112976e+00 -1.767146e+00 -3.767505e+00 -3.330666e+00 -7.090866e-01 5.324474e-02 -3.361278e-01 2.779030e-01 5.847047e-01 2.395254e-01 2.842522e-01 1.168201e-02 7.262545e-02 -3.305553e-01 -1.363509e-02 2.787881e-01
<VARIANCE> 24
 4.711454e+01 4.275175e+01 5.726596e+01 7.045655e+01 1.169808e+02 8.486566e+01 6.780472e+01 5.346819e+01 4.286890e+01 4.499078e+01 3.578082e+01 2.920398e+01 1.562440e+00 2.239809e+00 2.467257e+00 2.701017e+00 2.965531e+00 3.036412e+00 3.037134e+00 2.902014e+00 2.778655e+00 2.371610e+00 2.469213e+00 1.923123e+00
<GCONST> 1.029017e+02
<STATE> 3
<MEAN> 24
 -7.983881e-01 -4.888887e+00 -4.138075e+00 -9.287179e-01 -3.415033e+00 -5.494285e-01 -5.872310e-01 2.260902e+00 -9.691061e-01 -4.299843e+00 -6.714127e+00 -3.842757e+00 -2.989928e-01 2.148531e-01 -3.084224e-02 1.363462e-01 -5.042911e-02 2.123903e-02 -1.307325e-01 -1.745522e-01 1.382527e-02 7.297871e-02 1.581960e-01 7.402299e-02
<VARIANCE> 24
 4.770398e+01 4.526372e+01 5.303553e+01 6.021885e+01 8.626344e+01 7.730577e+01 5.811849e+01 4.570529e+01 6.217585e+01 5.244774e+01 4.861139e+01 3.026245e+01 7.223591e-01 1.042444e+00 1.253531e+00 1.411068e+00 1.590185e+00 1.794289e+00 1.758153e+00 1.906257e+00 1.783969e+00 1.777427e+00 1.470551e+00 1.353432e+00
<GCONST> 9.631573e+01
<STATE> 4
<MEAN> 24
 -5.239814e+00 -7.933905e-01 -2.606545e+00 -1.394198e+00 -5.538816e+00 -2.903080e+00 -4.047260e+00 -1.593791e+00 -3.953132e+00 -2.835877e+00 -3.043627e+00 -2.637403e+00 -6.035825e-02 8.110560e-02 -2.727765e-02 7.561889e-02 2.470139e-02 3.851362e-02 -7.004528e-02 -1.251103e-02 9.089774e-03 2.073388e-02 4.134117e-02 2.910379e-03
<VARIANCE> 24
 4.510966e+01 3.213896e+01 2.354743e+01 3.534571e+01 3.373888e+01 3.565467e+01 2.222449e+01 2.588433e+01 1.992183e+01 1.981506e+01 1.810181e+01 1.628683e+01 2.260510e-01 4.362082e-01 6.966453e-01 8.465912e-01 1.093446e+00 1.300594e+00 1.335082e+00 1.530089e+00 1.509362e+00 1.486403e+00 1.368019e+00 1.273130e+00
<GCONST> 8.280912e+01
<TRANSP> 5
 0.000000e+00 1.000000e+00 0.000000e+00 0.000000e+00 0.000000e+00
 0.000000e+00 4.659046e-01 5.340954e-01 0.000000e+00 0.000000e+00
 0.000000e+00 0.000000e+00 6.461564e-01 3.538436e-01 0.000000e+00
 0.000000e+00 0.000000e+00 0.000000e+00 8.469320e-01 1.530680e-01
 0.000000e+00 0.000000e+00 0.000000e+00 0.000000e+00 0.000000e+00
<ENDHMM>
~h "i"
<BEGINHMM>
<NUMSTATES> 5
<STATE> 2
<MEAN> 24
 -2.147394e+00 -4.290700e-01 1.060419e+01 -3.927376e-01 -1.285542e+01 -6.532674e+00 -8.188507e+00 -1.260850e+00 -8.487000e+00 -1.806009e+00 2.021976e+00 -4.868266e+00 2.258386e-01 -5.345410e-01 2.868676e+00 -9.372355e-01 -2.394303e+00 -6.955000e-01 -1.286240e+00 1.728381e-01 -1.690439e+00 -2.028093e-01 1.515219e+00 -5.054245e-01
<VARIANCE> 24
 4.517068e+01 4.084006e+01 8.475668e+01 6.098265e+01 6.807851e+01 8.036120e+01 6.173087e+01 5.660468e+01 6.207201e+01 4.476286e+01 4.701369e+01 3.312889e+01 3.579415e+00 2.674377e+00 5.263441e+00 3.932173e+00 4.761621e+00 4.562242e+00 5.543041e+00 5.136761e+00 5.283308e+00 4.171340e+00 4.462765e+00 2.654378e+00
<GCONST> 1.095071e+02
<STATE> 3
<MEAN> 24
 -1.873832e+00 -1.656916e+00 1.793530e+01 -2.621675e+00 -1.773714e+01 -6.358445e+00 -1.225080e+01 6.571488e-01 -1.168758e+01 -2.941380e+00 7.653398e+00 -8.300130e+00 1.245131e-01 1.617702e-01 -2.747317e-01 6.170849e-02 1.868185e-01 2.085728e-01 1.688022e-01 2.172081e-02 -5.477586e-02 3.168775e-01 -2.358694e-01 8.734600e-02
<VARIANCE> 24
 2.223654e+01 3.449660e+01 7.183635e+01 5.329984e+01 4.409161e+01 6.640003e+01 5.827896e+01 6.899088e+01 6.331657e+01 5.934204e+01 5.066357e+01 3.829634e+01 7.978940e-01 1.399116e+00 2.479108e+00 2.008544e+00 2.478667e+00 2.658628e+00 2.600531e+00 2.861398e+00 2.522106e+00 2.132448e+00 2.287855e+00 1.773361e+00
<GCONST> 9.977598e+01
<STATE> 4
<MEAN> 24
 -2.215180e+00 2.446510e+00 1.023475e+01 -4.107881e-01 -1.175382e+01 -3.456124e+00 -7.701554e+00 -2.539813e+00 -1.036246e+01 1.715576e-01 2.896023e-01 -3.889556e+00 -2.275308e-02 2.595262e-01 -1.274950e+00 6.373725e-01 8.819821e-01 3.905888e-01 5.277433e-01 -1.357040e-02 6.356917e-01 -4.855087e-02 -4.879848e-01 2.799109e-01
<VARIANCE> 24
 3.773096e+01 3.264990e+01 5.737347e+01 5.198983e+01 5.261619e+01 6.533829e+01 4.306584e+01 4.676224e+01 4.929089e+01 3.537676e+01 3.331584e+01 2.510332e+01 9.193828e-01 1.515798e+00 2.449115e+00 2.081651e+00 2.613363e+00 2.681807e+00 2.609414e+00 2.533155e+00 2.692734e+00 2.137132e+00 2.220504e+00 1.766072e+00
<GCONST> 9.808226e+01
<TRANSP> 5
 0.000000e+00 1.000000e+00 0.000000e+00 0.000000e+00 0.000000e+00
 0.000000e+00 5.537624e-01 4.462376e-01 0.000000e+00 0.000000e+00
 0.000000e+00 0.000000e+00 7.021371e-01 2.978629e-01 0.000000e+00
 0.000000e+00 0.000000e+00 0.000000e+00 7.392312e-01 2.607688e-01
 0.000000e+00 0.000000e+00 0.000000e+00 0.000000e+00 0.000000e+00
<ENDHMM>
~h "j"
<BEGINHMM>
<NUMSTATES> 5
<STATE> 2
<MEAN> 24
 -3.017628e+00 4.550586e+00 4.654067e+00 1.828343e+00 -5.926862e+00 -3.474893e+00 -5.308549e+00 -1.062536e-01 -4.332327e+00 -2.680565e+00 -2.581416e+00 -2.221692e+00 -7.705083e-01 4.982222e-01 8.581882e-01 -4.189996e-01 1.911666e-01 -3.422469e-01 -7.788859e-02 -5.406806e-01 -7.747997e-02 -3.635008e-01 3.636712e-01 2.482246e-01
<VARIANCE> 24
 8.083401e+01 4.421578e+01 4.321769e+01 5.401649e+01 6.648228e+01 7.285632e+01 3.621510e+01 3.698553e+01 3.121353e+01 2.855993e+01 2.246247e+01 2.073189e+01 2.916546e+00 3.785707e+00 3.899626e+00 5.116680e+00 4.098846e+00 5.761045e+00 3.338058e+00 3.092231e+00 3.202629e+00 3.029215e+00 2.445966e+00 2.238289e+00
<GCONST> 1.035314e+02
<STATE> 3
<MEAN> 24
 -2.998594e+00 1.772062e+00 1.221344e+01 -1.662229e-01 -1.063026e+01 -7.755268e+00 -9.890401e+00 -1.371273e+00 -5.808024e+00 -3.923409e+00 1.569580e+00 -7.035259e-01 8.595252e-01 -1.870640e+00 1.241728e+00 -3.648504e-01 -2.399419e+00 -1.737393e+00 -2.120545e+00 8.913300e-01 -7.014951e-01 2.796311e-01 1.252486e+00 1.143614e-01
<VARIANCE> 24
 3.913708e+01 4.081790e+01 7.067996e+01 6.900211e+01 6.214597e+01 7.991820e+01 6.222143e+01 4.679054e+01 4.558459e+01 3.908315e+01 2.982802e+01 2.436529e+01 3.192256e+00 3.049594e+00 4.951179e+00 3.770997e+00 5.303916e+00 4.773143e+00 5.819355e+00 4.670316e+00 4.128274e+00 3.331761e+00 3.763086e+00 3.067883e+00
<GCONST> 1.073424e+02
<STATE> 4
<MEAN> 24
 -1.185822e-01 -3.273696e+00 1.086985e+01 -2.310910e+00 -1.243727e+01 -1.018230e+01 -1.362878e+01 4.633150e+00 -5.204374e+00 3.602093e-02 2.087773e+00 -2.148040e+00 6.611156e-01 -7.558599e-01 -1.482846e+00 -2.596423e-01 4.558798e-01 5.478531e-01 -1.912268e-01 7.308511e-01 6.481553e-01 8.265085e-01 -4.944603e-01 -8.913275e-01
<VARIANCE> 24
 2.252633e+01 3.453721e+01 6.145281e+01 6.299101e+01 5.050953e+01 5.583321e+01 6.833237e+01 6.817950e+01 4.841205e+01 5.063950e+01 3.950843e+01 3.328261e+01 8.487291e-01 2.561184e+00 2.519029e+00 2.615005e+00 3.014956e+00 2.915277e+00 4.081315e+00 3.725752e+00 2.992239e+00 2.976985e+00 3.083141e+00 2.648982e+00
<GCONST> 1.022480e+02
<TRANSP> 5
 0.000000e+00 1.000000e+00 0.000000e+00 0.000000e+00 0.000000e+00
 0.000000e+00 7.671819e-01 2.328181e-01 0.000000e+00 0.000000e+00
 0.000000e+00 0.000000e+00 5.216211e-01 4.783789e-01 0.000000e+00
 0.000000e+00 0.000000e+00 0.000000e+00 6.301274e-01 3.698726e-01
 0.000000e+00 0.000000e+00 0.000000e+00 0.000000e+00 0.000000e+00
<ENDHMM>
~h "k"
<BEGINHMM>
<NUMSTATES> 5
<STATE> 2
<MEAN> 24
 -2.200084e+00 2.196450e-01 -4.293226e+00 1.257990e+00 -4.752240e+00 1.601228e+00 -4.506244e+00 -8.834615e-01 -3.705602e+00 2.222937e-01 -1.276183e+00 -3.444097e+00 -6.231686e-01 -6.902768e-01 -9.487998e-01 -2.537191e-01 1.326983e+00 -4.227677e-01 -3.619699e-01 -1.718698e-01 6.032666e-01 2.632204e-01 3.095754e-02 1.164856e-01
<VARIANCE> 24
 5.420623e+01 3.806313e+01 4.232493e+01 5.959813e+01 7.475025e+01 6.494144e+01 3.872210e+01 4.260002e+01 3.773524e+01 3.283937e+01 3.078372e+01 2.859972e+01 2.736769e+00 3.859968e+00 4.032969e+00 4.178308e+00 5.854241e+00 5.148334e+00 4.194208e+00 4.509945e+00 4.510483e+00 3.649134e+00 3.328936e+00 2.897344e+00
<GCONST> 1.059676e+02
<STATE> 3
<MEAN> 24
 -2.884155e+00 -3.777044e+00 -6.541965e+00 7.923363e-01 -3.498355e+00 1.228486e+00 -5.818462e+00 -7.682824e-01 -1.629405e+00 1.338406e+00 -1.659887e+00 -2.989477e+00 2.277317e-01 -8.449116e-01 -2.207879e-01 -9.105657e-01 3.205342e-01 -7.516398e-01 -4.497473e-01 1.590614e-01 2.548520e-01 3.467112e-01 2.361426e-02 -3.287866e-01
<VARIANCE> 24
 5.883445e+01 5.301320e+01 6.201852e+01 8.224893e+01 1.718385e+02 1.021732e+02 6.293899e+01 6.137236e+01 4.946213e+01 4.419841e+01 3.716830e+01 3.855645e+01 5.257273e+00 5.090335e+00 4.394321e+00 5.753371e+00 6.729547e+00 6.687716e+00 5.119584e+00 4.922918e+00 5.438514e+00 4.803193e+00 3.915965e+00 3.831084e+00
<GCONST> 1.132031e+02
<STATE> 4
<MEAN> 24
 -6.606267e+00 -1.787578e+00 -7.727582e+00 -1.379657e+00 -2.996530e+00 1.647633e+00 -4.910267e+00 6.809475e-01 -1.499363e+00 2.176124e+00 -9.358854e-01 -3.645119e+00 9.580963e-01 -2.517481e-01 6.875715e-01 -9.388488e-01 -9.813098e-01 -4.034721e-01 -1.688994e-01 2.600415e-01 -5.630518e-01 -3.048432e-02 -3.725077e-03 -5.328072e-01
<VARIANCE> 24
 1.013683e+02 4.679644e+01 6.194020e+01 8.298212e+01 8.316291e+01 8.944598e+01 4.738184e+01 4.680747e+01 4.747958e+01 4.097370e+01 3.943093e+01 3.714707e+01 4.305104e+00 4.504476e+00 4.052053e+00 6.554377e+00 5.374727e+00 4.960110e+00 4.490832e+00 4.629814e+00 5.013682e+00 3.654008e+00 3.558117e+00 3.496234e+00
<GCONST> 1.105906e+02
<TRANSP> 5
 0.000000e+00 1.000000e+00 0.000000e+00 0.000000e+00 0.000000e+00
 0.000000e+00 3.282592e-01 6.717408e-01 0.000000e+00 0.000000e+00
 0.000000e+00 0.000000e+00 2.285499e-01 7.714501e-01 0.000000e+00
 0.000000e+00 0.000000e+00 0.000000e+00 4.934365e-01 5.065635e-01
 0.000000e+00 0.000000e+00 0.000000e+00 0.000000e+00 0.000000e+00
<ENDHMM>
~h "l"
<BEGINHMM>
<NUMSTATES> 5
<STATE> 2
<MEAN> 24
 2.927472e+00 -4.301214e+00 -1.598365e+00 -2.633567e+00 -8.905404e+00 -3.223138e-01 -1.082721e+01 -3.222364e+00 -4.489076e-01 3.538992e+00 -7.941101e-01 -6.310081e+00 4.854741e-01 -2.752456e-01 8.330282e-02 1.072133e-02 -1.588470e-01 -1.102824e-01 -8.185779e-01 -3.825524e-01 4.217414e-01 5.121599e-01 2.206136e-03 -3.386731e-01
<VARIANCE> 24
 5.304813e+01 4.991037e+01 7.066685e+01 1.451388e+02 9.799074e+01 1.043415e+02 8.475401e+01 7.903241e+01 7.063776e+01 5.820774e+01 5.376240e+01 6.277456e+01 2.209393e+00 2.874289e+00 2.746790e+00 4.015675e+00 3.518976e+00 5.260712e+00 4.713070e+00 4.862882e+00 3.928262e+00 3.773746e+00 3.408719e+00 2.999321e+00
<GCONST> 1.110346e+02
<STATE> 3
<MEAN> 24
 3.138649e+00 -5.132362e+00 -5.834626e-01 -5.719647e+00 -8.019844e+00 -7.134379e-01 -1.381348e+01 -3.372360e+00 1.494282e+00 4.645546e+00 5.322504e-01 -9.548580e+00 -7.572785e-03 -1.326980e-01 4.502541e-02 6.667881e-02 -9.720052e-03 1.953787e-01 1.028739e-01 3.925385e-01 -1.491244e-02 -4.539741e-01 -2.277976e-01 1.969282e-02
<VARIANCE> 24
 3.192313e+01 3.863348e+01 6.528972e+01 1.043802e+02 7.283456e+01 8.129063e+01 8.601479e+01 8.002462e+01 7.552127e+01 5.552266e+01 6.665953e+01 7.598483e+01 5.763007e-01 1.779586e+00 1.709038e+00 2.470139e+00 1.857472e+00 3.082333e+00 2.961538e+00 3.442240e+00 2.845253e+00 2.802170e+00 2.809527e+00 2.051237e+00
<GCONST> 1.038075e+02
<STATE> 4
<MEAN> 24
 7.473419e+00 -1.132923e+01 -3.632536e+00 1.110524e+01 -2.213614e+01 6.771775e+00 -6.030523e+00 -1.606377e+00 -7.814144e-01 -2.961571e+00 -2.029930e+00 1.568588e+00 -1.290922e-01 5.861522e-02 2.053647e-02 -5.199660e-02 2.124292e-02 1.126130e-01 1.495429e-01 1.291946e-01 -8.250609e-02 -1.186000e-01 -5.073033e-02 2.576479e-02
<VARIANCE> 24
 6.595370e+01 7.563528e+01 8.077486e+01 1.366299e+02 1.466354e+02 1.294482e+02 1.138903e+02 8.928876e+01 8.980233e+01 7.004256e+01 5.789376e+01 6.337916e+01 3.165286e+00 4.052553e+00 3.482689e+00 3.280014e+00 4.669445e+00 6.355080e+00 4.694436e+00 4.176496e+00 4.421519e+00 3.718999e+00 3.075273e+00 2.687476e+00
<GCONST> 1.142310e+02
<TRANSP> 5
 0.000000e+00 1.000000e+00 0.000000e+00 0.000000e+00 0.000000e+00
 0.000000e+00 2.411308e-01 7.588693e-01 0.000000e+00 0.000000e+00
 0.000000e+00 0.000000e+00 4.973088e-01 5.026913e-01 0.000000e+00
 0.000000e+00 0.000000e+00 0.000000e+00 8.103514e-01 1.896486e-01
 0.000000e+00 0.000000e+00 0.000000e+00 0.000000e+00 0.000000e+00
<ENDHMM>
~h "m"
<BEGINHMM>
<NUMSTATES> 5
<STATE> 2
<MEAN> 24
 2.614049e+00 -1.349003e+00 -3.697334e-01 -2.019586e-01 -7.822176e+00 5.079069e+00 -5.451640e+00 -4.700782e+00 -9.782875e+00 8.650607e-01 -5.310530e-03 -7.046198e+00 -9.860323e-02 5.072052e-01 1.160556e+00 1.350711e+00 -2.916922e-02 8.339778e-01 4.537688e-01 -1.473586e+00 -1.578031e+00 -3.420533e-01 -5.039665e-01 -8.338897e-02
<VARIANCE> 24
 4.497143e+01 4.140447e+01 5.848028e+01 6.753760e+01 6.477578e+01 5.444957e+01 4.201945e+01 4.102893e+01 5.837937e+01 3.269717e+01 3.723929e+01 4.007646e+01 1.247915e+00 1.882798e+00 2.634210e+00 3.167862e+00 2.918348e+00 3.038163e+00 2.534770e+00 2.929029e+00 3.994441e+00 2.450642e+00 3.007874e+00 2.167427e+00
<GCONST> 1.017218e+02
<STATE> 3
<MEAN> 24
 2.183806e+00 -1.088769e+00 3.348852e+00 1.721964e+00 -7.796788e+00 7.122818e+00 -5.190515e+00 -7.395854e+00 -1.192136e+01 -2.967190e-01 -1.283466e+00 -7.385337e+00 8.787699e-02 1.127932e-02 -9.973185e-02 -6.761941e-02 -7.426654e-02 6.415268e-02 -6.434283e-03 -5.839069e-02 7.985997e-02 -1.030374e-01 3.176875e-02 1.849020e-02
<VARIANCE> 24
 4.148048e+01 3.460653e+01 5.286203e+01 5.342348e+01 8.198377e+01 5.893322e+01 3.891470e+01 4.413285e+01 6.836648e+01 3.438218e+01 3.962381e+01 5.027689e+01 5.490075e-01 1.093609e+00 1.360712e+00 1.439747e+00 1.622399e+00 1.937180e+00 1.596930e+00 1.584512e+00 2.064959e+00 1.624127e+00 1.867933e+00 1.454134e+00
<GCONST> 9.506029e+01
<STATE> 4
<MEAN> 24
 2.917871e+00 -1.201096e+00 -6.264322e-01 -5.510883e-01 -7.635707e+00 5.294540e+00 -5.699665e+00 -5.240854e+00 -9.364948e+00 2.120440e-01 -7.979228e-01 -6.592939e+00 2.721292e-01 -7.577895e-01 -1.291581e+00 -1.403003e+00 5.753611e-02 -2.407335e-01 -3.334540e-01 1.317239e+00 1.702508e+00 2.553978e-01 2.707346e-01 -1.954058e-01
<VARIANCE> 24
 4.513491e+01 4.325851e+01 5.539328e+01 6.879788e+01 7.924698e+01 4.990051e+01 4.381348e+01 4.281773e+01 5.886827e+01 3.668027e+01 3.980576e+01 3.852363e+01 1.059739e+00 1.999973e+00 2.593904e+00 3.486685e+00 3.222742e+00 3.138364e+00 2.680399e+00 2.904052e+00 4.383066e+00 2.400795e+00 2.857365e+00 2.489889e+00
<GCONST> 1.023988e+02
<TRANSP> 5
 0.000000e+00 1.000000e+00 0.000000e+00 0.000000e+00 0.000000e+00
 0.000000e+00 5.050992e-01 4.949008e-01 0.000000e+00 0.000000e+00
 0.000000e+00 0.000000e+00 5.523093e-01 4.476907e-01 0.000000e+00
 0.000000e+00 0.000000e+00 0.000000e+00 4.755299e-01 5.244700e-01
 0.000000e+00 0.000000e+00 0.000000e+00 0.000000e+00 0.000000e+00
<ENDHMM>
~h "n"
<BEGINHMM>
<NUMSTATES> 5
<STATE> 2
<MEAN> 24
 2.938071e+00 -5.737738e+00 3.303315e+00 1.311149e+00 -9.250583e+00 -1.934044e+00 -9.212802e+00 1.254565e+00 -4.037228e+00 1.576836e+00 -3.908530e+00 -9.373822e+00 1.896089e-01 1.506528e+00 9.197316e-01 1.485537e+00 -5.093674e-01 6.812049e-01 1.648290e-01 -2.371885e+00 -7.916572e-01 8.281638e-01 -6.562022e-01 3.704291e-01
<VARIANCE> 24
 2.345145e+01 4.285863e+01 5.623875e+01 4.883901e+01 6.152794e+01 5.996469e+01 6.113373e+01 8.896179e+01 5.223223e+01 5.625566e+01 4.379528e+01 5.706223e+01 7.212341e-01 1.686241e+00 2.296863e+00 2.339256e+00 2.584629e+00 3.103870e+00 2.951422e+00 5.083036e+00 3.050734e+00 3.319847e+00 3.604633e+00 2.534323e+00
<GCONST> 1.027588e+02
<STATE> 3
<MEAN> 24
 3.513839e+00 -2.173767e+00 5.164292e+00 3.873089e+00 -1.112144e+01 2.363813e-01 -7.561547e+00 -5.075530e+00 -6.222275e+00 3.075397e+00 -5.602210e+00 -7.698900e+00 -2.840411e-02 8.680093e-01 -7.749726e-02 4.927959e-01 1.584219e-01 4.347087e-01 4.100453e-01 -5.898177e-01 -1.773154e-01 -1.784547e-01 -1.269074e-01 2.319578e-01
<VARIANCE> 24
 2.383978e+01 3.203540e+01 5.264542e+01 4.355837e+01 5.935778e+01 5.875989e+01 5.106595e+01 6.052782e+01 4.827521e+01 4.710656e+01 4.092991e+01 4.136248e+01 4.685967e-01 1.297358e+00 1.519472e+00 1.437558e+00 1.860050e+00 2.165916e+00 2.060521e+00 2.625570e+00 2.342261e+00 2.212737e+00 1.882549e+00 1.673952e+00
<GCONST> 9.600027e+01
<STATE> 4
<MEAN> 24
 4.447112e-01 2.121813e+00 2.105305e+00 5.251948e+00 -5.589324e+00 1.032802e+00 -5.157736e+00 -3.003789e+00 -4.589931e+00 4.150978e-01 -4.979867e+00 -5.343035e+00 -2.795683e-01 1.852807e-01 -3.170669e-01 -1.040564e-01 2.995643e-01 7.668506e-02 1.511234e-01 2.803327e-01 1.121459e-01 -3.014395e-01 2.559669e-01 1.385870e-01
<VARIANCE> 24
 3.303629e+01 3.104148e+01 3.597678e+01 3.331079e+01 5.640818e+01 4.332795e+01 3.917669e+01 4.575825e+01 3.714344e+01 3.804996e+01 3.345239e+01 2.753118e+01 5.345778e-01 1.267878e+00 1.307522e+00 1.379238e+00 1.788431e+00 1.840714e+00 1.978150e+00 2.504090e+00 2.040731e+00 2.091016e+00 1.820055e+00 1.630159e+00
<GCONST> 9.303355e+01
<TRANSP> 5
 0.000000e+00 1.000000e+00 0.000000e+00 0.000000e+00 0.000000e+00
 0.000000e+00 4.852910e-01 5.147091e-01 0.000000e+00 0.000000e+00
 0.000000e+00 0.000000e+00 4.684390e-01 5.315610e-01 0.000000e+00
 0.000000e+00 0.000000e+00 0.000000e+00 7.128671e-01 2.871328e-01
 0.000000e+00 0.000000e+00 0.000000e+00 0.000000e+00 0.000000e+00
<ENDHMM>
~h "o"
<BEGINHMM>
<NUMSTATES> 5
<STATE> 2
<MEAN> 24
 -2.768114e+00 -6.813147e-01 -6.422112e+00 -3.523469e+00 -8.464025e+00 5.369854e+00 -5.497694e+00 -7.067893e-01 -1.950145e+00 7.927204e-01 -1.891632e-01 -2.957205e+00 1.266398e+00 -1.341123e-01 -4.679509e-01 -1.724121e+00 -5.597300e-01 8.045088e-01 3.114796e-02 -6.863987e-02 -3.256521e-01 2.568096e-01 2.969694e-01 -2.532150e-01
<VARIANCE> 24
 1.176906e+02 4.580103e+01 5.164460e+01 1.400920e+02 7.195789e+01 7.873276e+01 6.069257e+01 4.558078e+01 4.639180e+01 3.987429e+01 3.635829e+01 3.853929e+01 6.551881e+00 3.886180e+00 3.285507e+00 8.332861e+00 4.618161e+00 4.781136e+00 4.248062e+00 3.956066e+00 4.197113e+00 3.680600e+00 3.137466e+00 2.583887e+00
<GCONST> 1.102170e+02
<STATE> 3
<MEAN> 24
 4.380762e+00 -3.687712e+00 -5.077499e+00 -6.980464e+00 -1.090332e+01 5.528615e+00 -7.494940e+00 -2.249282e+00 -3.160404e+00 1.079562e+00 1.262058e+00 -4.713990e+00 6.783311e-01 -3.164205e-01 -1.300674e-01 -8.574539e-01 -2.016948e-01 3.683703e-01 -1.694929e-01 -8.123124e-02 -4.122906e-01 3.771603e-01 3.595070e-01 -2.760325e-01
<VARIANCE> 24
 4.782565e+01 5.303736e+01 4.601430e+01 2.061854e+02 9.456973e+01 9.964784e+01 7.389771e+01 5.928050e+01 6.601499e+01 5.616827e+01 5.687212e+01 5.514825e+01 3.088965e+00 3.115356e+00 3.014534e+00 5.920667e+00 4.932394e+00 6.468151e+00 4.423782e+00 4.275985e+00 4.108339e+00 4.141977e+00 3.137927e+00 2.919466e+00
<GCONST> 1.115083e+02
<STATE> 4
<MEAN> 24
 2.888618e+00 -6.163981e-01 -6.877817e+00 -1.277998e+01 -6.635565e+00 6.140656e+00 -5.714135e+00 -2.254829e+00 -4.969454e+00 2.133478e+00 8.958591e-01 -4.391262e+00 -2.157693e-01 1.277816e-01 1.210466e-01 7.304456e-01 1.524630e-01 -1.654791e-01 1.032211e-01 -4.904284e-02 8.694399e-02 -7.589532e-02 -1.384245e-01 5.809734e-02
<VARIANCE> 24
 3.725085e+01 3.630311e+01 4.378104e+01 9.541502e+01 4.952601e+01 5.966004e+01 5.401741e+01 4.021965e+01 4.128595e+01 4.681584e+01 3.631458e+01 3.519416e+01 6.551287e-01 1.184664e+00 1.096195e+00 2.368408e+00 1.575410e+00 1.926301e+00 1.977978e+00 1.611173e+00 1.722472e+00 1.871001e+00 1.560584e+00 1.438940e+00
<GCONST> 9.499968e+01
<TRANSP> 5
 0.000000e+00 1.000000e+00 0.000000e+00 0.000000e+00 0.000000e+00
 0.000000e+00 4.091385e-01 5.908615e-01 0.000000e+00 0.000000e+00
 0.000000e+00 0.000000e+00 3.738301e-01 6.261699e-01 0.000000e+00
 0.000000e+00 0.000000e+00 0.000000e+00 8.170741e-01 1.829258e-01
 0.000000e+00 0.000000e+00 0.000000e+00 0.000000e+00 0.000000e+00
<ENDHMM>
~h "p"
<BEGINHMM>
<NUMSTATES> 5
<STATE> 2
<MEAN> 24
 2.666996e-01 1.610072e+00 -4.721565e+00 9.097725e-01 -4.936742e+00 1.500447e+00 -4.970044e+00 -9.778948e-01 -3.172422e+00 -5.616010e-01 -1.970100e+00 -3.865698e+00 -6.050584e-01 4.296446e-02 -3.457439e-02 1.008798e-01 1.461886e-01 -1.458557e-01 2.396146e-01 -3.604135e-02 3.276006e-01 -9.679690e-02 7.388340e-02 3.197535e-01
<VARIANCE> 24
 3.375288e+01 2.981521e+01 3.407574e+01 4.387559e+01 4.513571e+01 6.144072e+01 2.654008e+01 2.707420e+01 3.024359e+01 2.571620e+01 2.481757e+01 2.328037e+01 1.892179e+00 2.245426e+00 1.810875e+00 2.640412e+00 2.130063e+00 2.798751e+00 2.119620e+00 2.434384e+00 2.457911e+00 2.191555e+00 2.151050e+00 1.769091e+00
<GCONST> 9.531161e+01
<STATE> 3
<MEAN> 24
 -1.799421e+00 7.503510e-03 -4.255474e+00 1.354826e+00 -5.756346e+00 1.656626e+00 -4.423909e+00 -1.256596e+00 -2.422967e+00 -4.345020e-01 -1.337662e+00 -3.113208e+00 3.178788e-01 -1.006385e+00 -1.948225e-01 -1.102532e+00 -3.024233e-01 -3.601165e-01 -3.152936e-01 -1.780459e-01 5.658511e-01 3.420504e-01 5.485743e-01 -1.605001e-01
<VARIANCE> 24
 5.090239e+01 3.703924e+01 4.073685e+01 6.436015e+01 6.798559e+01 6.893404e+01 3.018693e+01 3.301331e+01 3.470407e+01 2.675780e+01 2.568152e+01 2.875514e+01 5.514236e+00 4.885631e+00 3.748349e+00 6.529325e+00 3.789668e+00 5.315912e+00 3.848499e+00 3.868604e+00 4.230206e+00 3.229691e+00 3.366331e+00 3.400878e+00
<GCONST> 1.055649e+02
<STATE> 4
<MEAN> 24
 -8.514758e+00 3.600548e-01 -7.653824e+00 2.307342e+00 -7.261428e+00 4.435461e+00 -3.684759e+00 5.322921e-01 -1.527200e-01 1.010371e+00 6.026900e-01 -1.638362e+00 8.850443e-01 -1.038674e+00 4.553429e-02 -8.974294e-01 -4.673978e-01 -3.919775e-01 -6.242847e-01 -7.567166e-02 -5.535481e-02 3.100419e-01 1.659508e-01 -4.346268e-01
<VARIANCE> 24
 1.393979e+02 3.467485e+01 3.410873e+01 7.302094e+01 5.235505e+01 6.403126e+01 2.905029e+01 3.015011e+01 3.555201e+01 2.217201e+01 2.493052e+01 2.852422e+01 6.204826e+00 4.103282e+00 3.766194e+00 6.099253e+00 3.607347e+00 5.340241e+00 3.921846e+00 3.606700e+00 4.296145e+00 3.110220e+00 3.247142e+00 3.504269e+00
<GCONST> 1.055451e+02
<TRANSP> 5
 0.000000e+00 1.000000e+00 0.000000e+00 0.000000e+00 0.000000e+00
 0.000000e+00 5.855309e-01 4.144692e-01 0.000000e+00 0.000000e+00
 0.000000e+00 0.000000e+00 1.189667e-01 8.810334e-01 0.000000e+00
 0.000000e+00 0.000000e+00 0.000000e+00 5.134287e-01 4.865713e-01
 0.000000e+00 0.000000e+00 0.000000e+00 0.000000e+00 0.000000e+00
<ENDHMM>
~h "r"
<BEGINHMM>
<NUMSTATES> 5
<STATE> 2
<MEAN> 24
 3.336030e+00 -7.079044e+00 -3.001427e+00 1.306469e+00 -9.193295e+00 -2.650243e+00 -9.645091e+00 1.959544e-01 1.473793e+00 1.293165e+00 -2.787989e-01 -7.286004e+00 1.283971e-01 1.342924e-01 -1.419814e-01 1.090729e+00 -2.102454e-01 -2.774521e-01 -1.554718e-01 -2.373194e-01 3.484442e-01 -3.256425e-01 1.429298e-01 1.699676e-01
<VARIANCE> 24
 2.961077e+01 3.549226e+01 4.905804e+01 7.186170e+01 6.789400e+01 8.920519e+01 7.654881e+01 7.737891e+01 5.562532e+01 4.734259e+01 5.533332e+01 6.809310e+01 1.513531e+00 2.733557e+00 2.268289e+00 4.101975e+00 3.594518e+00 4.299567e+00 3.671771e+00 5.027537e+00 3.969325e+00 3.835217e+00 3.812506e+00 3.893901e+00
<GCONST> 1.074647e+02
<STATE> 3
<MEAN> 24
 3.386598e+00 -6.367901e+00 -3.010257e+00 3.399204e+00 -9.656211e+00 -3.175627e+00 -9.186249e+00 -1.741565e-01 9.312465e-01 8.898982e-01 -5.441391e-01 -5.860345e+00 -1.674666e-01 3.728499e-01 2.983364e-01 2.929750e-01 1.061622e-02 5.164452e-03 2.453236e-01 -8.884645e-02 -4.062985e-01 -2.707543e-01 3.476081e-02 2.523995e-01
<VARIANCE> 24
 3.739344e+01 3.719614e+01 5.488897e+01 6.512299e+01 7.660945e+01 9.325388e+01 7.631142e+01 7.429623e+01 5.569937e+01 4.664666e+01 5.020294e+01 5.949586e+01 1.644578e+00 3.005100e+00 2.245868e+00 3.383285e+00 3.653589e+00 3.849815e+00 3.567944e+00 4.416450e+00 3.521926e+00 3.424981e+00 3.456587e+00 3.374355e+00
<GCONST> 1.068832e+02
<STATE> 4
<MEAN> 24
 2.341507e+00 -4.450821e+00 -2.550739e+00 3.117014e+00 -8.282350e+00 -3.518699e+00 -7.651557e+00 -6.738425e-01 -3.502678e-01 2.652252e-01 -1.513571e+00 -4.934258e+00 -3.176454e-01 4.456785e-01 4.470261e-01 -3.557295e-01 1.646635e-01 3.026964e-01 3.500772e-01 1.591990e-01 -7.414460e-01 -1.109210e-01 -3.525057e-02 1.033246e-01
<VARIANCE> 24
 4.055530e+01 4.142479e+01 4.826905e+01 5.619751e+01 6.952219e+01 8.734579e+01 6.074897e+01 6.114730e+01 4.820587e+01 4.420455e+01 3.893851e+01 4.655013e+01 1.644289e+00 2.462992e+00 2.418698e+00 2.518492e+00 3.431160e+00 3.473413e+00 3.290558e+00 3.583641e+00 3.139353e+00 2.747656e+00 2.838098e+00 2.377201e+00
<GCONST> 1.037545e+02
<TRANSP> 5
 0.000000e+00 1.000000e+00 0.000000e+00 0.000000e+00 0.000000e+00
 0.000000e+00 2.838293e-01 7.161708e-01 0.000000e+00 0.000000e+00
 0.000000e+00 0.000000e+00 1.140283e-01 8.859716e-01 0.000000e+00
 0.000000e+00 0.000000e+00 0.000000e+00 4.078766e-01 5.921233e-01
 0.000000e+00 0.000000e+00 0.000000e+00 0.000000e+00 0.000000e+00
<ENDHMM>
~h "s"
<BEGINHMM>
<NUMSTATES> 5
<STATE> 2
<MEAN> 24
 9.297594e-01 -7.286557e+00 1.452525e+00 9.788420e+00 -1.229815e+01 5.227080e+00 -5.563358e+00 -1.892615e+00 -7.628680e-01 -2.071773e+00 -1.379498e+00 7.045919e-01 -1.382714e+00 1.102010e+00 -1.676137e-01 -3.108966e-02 1.128861e+00 -4.856598e-01 9.666842e-01 -9.134643e-02 4.889538e-01 -4.552449e-01 1.652393e-01 4.094096e-01
<VARIANCE> 24
 7.645486e+01 1.358239e+02 9.744906e+01 1.629803e+02 1.685874e+02 1.917127e+02 8.189056e+01 6.913208e+01 5.698693e+01 5.522633e+01 3.696093e+01 5.047573e+01 6.020123e+00 6.826861e+00 5.579345e+00 3.839674e+00 6.055371e+00 6.654654e+00 6.321567e+00 5.062839e+00 4.596807e+00 4.154068e+00 3.230399e+00 2.954148e+00
<GCONST> 1.167884e+02
<STATE> 3
<MEAN> 24
 -1.077713e+01 5.254372e+00 -5.291727e-01 -1.499693e+00 7.129186e-01 -6.612247e+00 -9.879114e-01 -2.791137e-01 -9.712026e-01 -2.404946e+00 -9.373208e-01 -2.483814e+00 -2.728884e+00 1.512037e+00 -8.118577e-01 -6.931737e-01 1.033785e+00 -6.499500e-01 5.535448e-01 -1.533667e-01 1.536437e-01 -6.703315e-01 3.223927e-01 6.675017e-02
<VARIANCE> 24
 5.130439e+01 4.999580e+01 4.540710e+01 5.381074e+01 9.110514e+01 8.329944e+01 4.424092e+01 4.239004e+01 4.010009e+01 3.494590e+01 2.953541e+01 2.752770e+01 3.327813e+00 2.525819e+00 2.291195e+00 2.242794e+00 2.925886e+00 3.088894e+00 3.363921e+00 3.206870e+00 2.954140e+00 2.671775e+00 2.277594e+00 2.002678e+00
<GCONST> 1.021059e+02
<STATE> 4
<MEAN> 24
 -1.447150e+01 5.775374e+00 -1.691340e+00 -2.169624e+00 1.559207e+00 -6.610055e+00 -1.904267e+00 -3.716673e-01 -5.592861e-01 -2.950552e+00 -1.069080e+00 -2.491336e+00 1.024673e+00 -7.653627e-01 1.324350e-01 1.236679e-01 -5.488815e-01 2.084955e-01 -4.151763e-01 -7.463729e-03 -5.352793e-02 2.459661e-01 -1.746386e-01 -1.281390e-01
<VARIANCE> 24
 4.733991e+01 3.573983e+01 4.306462e+01 3.949453e+01 6.101784e+01 5.370856e+01 3.962195e+01 3.321233e+01 3.230868e+01 3.136017e+01 2.438160e+01 2.265729e+01 4.455316e+00 2.363185e+00 2.095758e+00 1.912172e+00 2.562420e+00 2.690163e+00 2.834173e+00 2.582902e+00 2.584847e+00 2.492073e+00 2.115114e+00 1.937218e+00
<GCONST> 9.843039e+01
<TRANSP> 5
 0.000000e+00 1.000000e+00 0.000000e+00 0.000000e+00 0.000000e+00
 0.000000e+00 6.288872e-01 3.711128e-01 0.000000e+00 0.000000e+00
 0.000000e+00 0.000000e+00 5.523576e-01 4.476424e-01 0.000000e+00
 0.000000e+00 0.000000e+00 0.000000e+00 8.158312e-01 1.841688e-01
 0.000000e+00 0.000000e+00 0.000000e+00 0.000000e+00 0.000000e+00
<ENDHMM>
~h "t"
<BEGINHMM>
<NUMSTATES> 5
<STATE> 2
<MEAN> 24
 -1.038373e+00 1.487521e+00 -2.003262e+00 2.403774e+00 -6.228232e+00 -7.933322e-01 -5.783052e+00 -3.959462e-01 -3.312455e+00 4.691297e-01 -2.226672e+00 -3.357691e+00 -1.333057e+00 8.979851e-03 -2.859717e-01 -3.318988e-01 1.006414e+00 -3.176149e-01 7.111617e-01 -2.144226e-01 8.801551e-01 -5.755324e-01 2.025177e-01 4.510427e-01
<VARIANCE> 24
 3.873449e+01 3.277633e+01 3.826843e+01 5.184429e+01 6.408021e+01 6.904187e+01 3.729985e+01 3.706653e+01 4.075221e+01 3.462392e+01 3.243714e+01 2.818727e+01 2.085477e+00 2.748981e+00 2.584300e+00 3.763643e+00 3.763917e+00 5.493876e+00 3.539454e+00 3.664871e+00 3.864401e+00 3.124019e+00 2.933840e+00 2.079513e+00
<GCONST> 1.024574e+02
<STATE> 3
<MEAN> 24
 -4.229701e+00 7.310349e-01 -2.291888e+00 1.378283e+00 -4.220611e+00 -1.338356e+00 -4.092489e+00 -9.121404e-01 -1.435468e+00 -8.904530e-01 -1.852629e+00 -2.475389e+00 -1.082494e+00 -6.814277e-01 -1.443838e-01 -1.197168e+00 6.184907e-01 -7.841511e-01 1.146691e-01 -1.575491e-01 1.224581e+00 -3.067753e-01 4.086664e-01 -3.146265e-02
<VARIANCE> 24
 5.061006e+01 3.454172e+01 3.811301e+01 6.133959e+01 8.054563e+01 8.475777e+01 4.171750e+01 3.855386e+01 3.599644e+01 3.299986e+01 2.711779e+01 2.848476e+01 3.425642e+00 3.507282e+00 3.548040e+00 5.047741e+00 3.992866e+00 7.069348e+00 4.735075e+00 4.980129e+00 4.991879e+00 3.610388e+00 3.841121e+00 3.139351e+00
<GCONST> 1.065270e+02
<STATE> 4
<MEAN> 24
 -1.163862e+01 8.331186e-01 -5.167004e+00 1.115297e+00 -4.632637e+00 5.751832e-01 -3.051000e+00 1.032884e+00 1.424031e+00 1.549451e-01 2.690820e-01 -8.634244e-01 4.769671e-01 -8.801485e-01 1.542435e-01 -1.135432e+00 -1.899312e-01 -5.039121e-01 -7.555051e-01 -9.758367e-02 1.639070e-01 2.538681e-01 2.733998e-03 -4.918604e-01
<VARIANCE> 24
 8.878017e+01 3.529390e+01 3.517363e+01 6.019242e+01 5.202971e+01 9.039774e+01 3.524110e+01 3.413294e+01 3.187555e+01 2.788713e+01 2.626958e+01 2.572158e+01 3.791476e+00 3.469015e+00 3.044253e+00 4.545358e+00 2.843973e+00 5.338614e+00 4.627016e+00 4.044171e+00 4.204865e+00 2.968479e+00 3.583334e+00 2.931752e+00
<GCONST> 1.044006e+02
<TRANSP> 5
 0.000000e+00 1.000000e+00 0.000000e+00 0.000000e+00 0.000000e+00
 0.000000e+00 2.507794e-01 7.492206e-01 0.000000e+00 0.000000e+00
 0.000000e+00 0.000000e+00 1.219769e-01 8.780232e-01 0.000000e+00
 0.000000e+00 0.000000e+00 0.000000e+00 5.557671e-01 4.442329e-01
 0.000000e+00 0.000000e+00 0.000000e+00 0.000000e+00 0.000000e+00
<ENDHMM>
~h "u"
<BEGINHMM>
<NUMSTATES> 5
<STATE> 2
<MEAN> 24
 2.639712e+00 8.946344e-01 -8.788858e-01 -4.793429e+00 -8.304481e+00 3.090722e-01 -1.329821e+01 -5.903895e+00 -5.220972e+00 1.191058e+00 1.984863e+00 -5.102851e+00 1.122445e+00 1.079428e-01 1.777634e-01 -1.304392e+00 -9.224989e-01 9.918596e-01 -1.548160e+00 -1.136450e+00 -9.723582e-01 6.968436e-01 1.212911e+00 -2.929657e-01
<VARIANCE> 24
 3.894950e+01 4.067152e+01 5.443986e+01 8.944377e+01 7.773003e+01 7.517793e+01 7.329120e+01 5.573112e+01 6.179835e+01 5.018078e+01 5.015664e+01 4.004778e+01 2.747686e+00 3.008476e+00 3.463180e+00 5.354080e+00 5.277102e+00 5.346763e+00 6.427343e+00 5.451555e+00 5.661623e+00 4.647530e+00 4.377901e+00 3.528061e+00
<GCONST> 1.105363e+02
<STATE> 3
<MEAN> 24
 4.228744e+00 6.408666e-01 8.192263e-01 -7.375816e+00 -1.014635e+01 4.393337e+00 -1.547275e+01 -6.897888e+00 -6.978870e+00 1.360952e+00 5.396906e+00 -6.230701e+00 5.813835e-02 2.960219e-01 -1.197569e-01 3.768206e-01 1.005383e-01 1.993771e-01 6.398089e-01 2.056246e-01 -2.186872e-01 -1.673436e-01 -4.194393e-01 3.774241e-01
<VARIANCE> 24
 2.340979e+01 3.673445e+01 4.745603e+01 9.819149e+01 6.482657e+01 6.630627e+01 6.422523e+01 5.739307e+01 6.196277e+01 5.903376e+01 6.724651e+01 4.699187e+01 7.496344e-01 1.964006e+00 1.740855e+00 3.870486e+00 2.748869e+00 3.294239e+00 3.614836e+00 3.038147e+00 3.524600e+00 3.224627e+00 3.192965e+00 2.680938e+00
<GCONST> 1.036259e+02
<STATE> 4
<MEAN> 24
 1.733580e+00 5.217475e+00 -2.893610e+00 -3.598433e+00 -7.448473e+00 2.499260e+00 -9.135545e+00 -5.054109e+00 -8.164046e+00 -2.885203e-01 4.578579e-01 -2.139250e+00 -4.324067e-01 4.677144e-02 2.611125e-02 7.807974e-01 3.339579e-01 -1.224797e-01 5.129001e-01 3.667231e-01 3.903843e-01 -1.814021e-01 -3.715099e-01 6.351793e-02
<VARIANCE> 24
 4.015178e+01 3.840545e+01 4.110647e+01 7.680827e+01 4.695697e+01 5.088448e+01 4.187613e+01 3.751920e+01 4.564908e+01 4.170913e+01 3.267395e+01 2.898776e+01 7.677379e-01 1.301052e+00 1.372892e+00 2.327837e+00 2.068940e+00 2.386935e+00 2.515788e+00 2.353356e+00 2.366594e+00 2.496745e+00 2.094420e+00 1.762692e+00
<GCONST> 9.666967e+01
<TRANSP> 5
 0.000000e+00 1.000000e+00 0.000000e+00 0.000000e+00 0.000000e+00
 0.000000e+00 4.191154e-01 5.808846e-01 0.000000e+00 0.000000e+00
 0.000000e+00 0.000000e+00 5.819376e-01 4.180624e-01 0.000000e+00
 0.000000e+00 0.000000e+00 0.000000e+00 7.288207e-01 2.711792e-01
 0.000000e+00 0.000000e+00 0.000000e+00 0.000000e+00 0.000000e+00
<ENDHMM>
~h "v"
<BEGINHMM>
<NUMSTATES> 5
<STATE> 2
<MEAN> 24
 9.233799e+00 -1.428758e+01 -2.709211e+00 1.886348e+01 -2.074226e+01 5.598397e+00 -8.741226e+00 -4.316730e+00 -2.806447e+00 -6.681770e+00 -2.861719e+00 3.513252e+00 1.053815e-01 -4.848037e-02 -9.374619e-04 1.800709e-02 -7.753754e-02 1.179776e-01 3.084344e-02 -6.386201e-02 -2.575137e-03 -7.627799e-02 -2.151450e-02 2.343004e-02
<VARIANCE> 24
 4.923201e+01 5.314513e+01 3.487524e+01 1.577133e+02 1.157325e+02 1.122284e+02 4.944969e+01 5.086097e+01 1.233742e+02 3.906288e+01 3.719659e+01 1.900373e+01 2.878664e+00 4.046638e+00 2.384823e+00 4.540421e+00 5.936470e+00 8.449262e+00 3.616818e+00 3.139059e+00 4.719849e+00 2.294170e+00 2.166706e+00 1.431865e+00
<GCONST> 1.076307e+02
<STATE> 3
<MEAN> 24
 3.459244e+00 -8.783134e+00 -1.158838e+00 1.776455e+01 -1.863274e+01 4.538619e+00 -8.571851e+00 -5.353476e+00 -1.561180e+00 3.998632e-01 7.597197e-01 -1.927888e+00 5.713084e-02 -7.909402e-02 -4.310805e-01 -6.849036e-01 -4.440914e-01 -7.546304e-02 1.097212e-01 2.210310e-01 3.501091e-01 1.370954e-01 -6.623758e-02 -1.401128e-01
<VARIANCE> 24
 4.347789e+01 5.919208e+01 9.832406e+01 3.407407e+02 1.517974e+02 1.015896e+02 8.799203e+01 3.177135e+01 4.912133e+01 4.331065e+01 2.789016e+01 2.590942e+01 5.881364e+00 2.337274e+00 3.822448e+00 3.526124e+00 3.749058e+00 5.054658e+00 3.196016e+00 2.528486e+00 3.278398e+00 3.165626e+00 2.408163e+00 3.481511e+00
<GCONST> 1.089256e+02
<STATE> 4
<MEAN> 24
 4.945928e+00 -1.071836e+01 -2.618880e+00 1.519639e+01 -2.051873e+01 1.175961e+01 -3.204596e+00 -1.030069e+00 -1.021938e+00 -3.328151e+00 -1.101346e+00 3.334999e+00 1.623767e-01 -4.509374e-02 -1.330070e-01 2.456026e-03 9.987792e-02 -1.835202e-01 -2.498446e-02 1.412288e-01 3.742273e-02 -2.519175e-02 -1.722199e-01 -8.850414e-02
<VARIANCE> 24
 1.018509e+02 9.977362e+01 1.349570e+02 8.253880e+01 7.970728e+01 1.561153e+02 6.207756e+01 3.554610e+01 3.712416e+01 3.797791e+01 5.950980e+01 5.731366e+01 6.519370e+00 5.952568e+00 7.403749e+00 3.606543e+00 4.796811e+00 7.490197e+00 3.821748e+00 2.747484e+00 4.004609e+00 2.728454e+00 3.462473e+00 2.644317e+00
<GCONST> 1.126497e+02
<TRANSP> 5
 0.000000e+00 1.000000e+00 0.000000e+00 0.000000e+00 0.000000e+00
 0.000000e+00 9.052050e-01 9.479505e-02 0.000000e+00 0.000000e+00
 0.000000e+00 0.000000e+00 6.116322e-01 3.883678e-01 0.000000e+00
 0.000000e+00 0.000000e+00 0.000000e+00 8.888410e-01 1.111590e-01
 0.000000e+00 0.000000e+00 0.000000e+00 0.000000e+00 0.000000e+00
<ENDHMM>
~h "w"
<BEGINHMM>
<NUMSTATES> 5
<STATE> 2
<MEAN> 24
 4.223312e+00 1.608891e+00 -4.358922e+00 -8.400307e+00 -9.770851e+00 4.541165e+00 -8.145477e+00 -2.720618e+00 -6.224895e+00 6.600186e-01 2.101920e+00 -3.541911e+00 8.270401e-01 2.587687e-01 -5.523708e-01 -1.404631e+00 -4.425863e-01 7.145100e-01 -1.654176e-01 -4.600392e-01 -7.322264e-01 -3.401879e-02 6.564323e-01 4.165501e-01
<VARIANCE> 24
 4.062292e+01 4.616874e+01 3.819474e+01 9.862980e+01 6.256387e+01 6.707506e+01 4.816309e+01 3.522132e+01 3.965785e+01 5.283283e+01 4.231986e+01 3.800457e+01 2.629036e+00 2.107974e+00 1.698385e+00 4.237955e+00 2.260301e+00 2.489729e+00 2.311822e+00 2.361343e+00 3.125457e+00 2.947699e+00 2.580596e+00 2.830078e+00
<GCONST> 1.020084e+02
<STATE> 3
<MEAN> 24
 6.116255e+00 2.873084e-02 -5.857967e+00 -1.179082e+01 -9.470591e+00 6.610991e+00 -1.007794e+01 -4.973525e+00 -5.960602e+00 2.019183e+00 5.112823e+00 -5.272290e+00 8.220772e-02 -1.463330e+00 -6.865000e-01 -7.011423e-01 8.604345e-01 6.075467e-01 -6.843957e-01 -1.089209e-02 1.156144e+00 1.271247e+00 2.278952e-01 -1.504807e+00
<VARIANCE> 24
 3.020627e+01 3.715030e+01 4.458191e+01 9.991664e+01 6.532007e+01 8.253630e+01 4.871907e+01 4.503592e+01 5.659974e+01 6.219853e+01 6.418517e+01 5.109230e+01 2.595542e+00 2.576188e+00 2.324934e+00 4.279775e+00 2.622623e+00 3.558788e+00 3.992666e+00 3.106171e+00 3.879783e+00 3.716256e+00 3.967948e+00 3.933781e+00
<GCONST> 1.064470e+02
<STATE> 4
<MEAN> 24
 4.377405e+00 -3.928309e+00 -9.017996e+00 -1.112751e+01 -4.910584e+00 6.954463e+00 -8.785103e+00 -3.717946e+00 -1.838639e+00 3.712580e+00 9.848527e-01 -9.439455e+00 -4.454118e-01 -6.763837e-01 1.393251e-02 8.330697e-01 7.818945e-01 -4.981207e-01 2.532265e-01 6.112490e-01 7.007914e-01 -1.671229e-01 -9.969235e-01 -5.549496e-01
<VARIANCE> 24
 3.866168e+01 3.027727e+01 5.087837e+01 7.786109e+01 5.758678e+01 6.673240e+01 5.369518e+01 3.466700e+01 4.924098e+01 4.938552e+01 6.642471e+01 5.098984e+01 7.056741e-01 2.067734e+00 1.073459e+00 2.187027e+00 1.957226e+00 2.421552e+00 2.288032e+00 2.195899e+00 2.630106e+00 1.934493e+00 2.545747e+00 2.255713e+00
<GCONST> 9.894210e+01
<TRANSP> 5
 0.000000e+00 1.000000e+00 0.000000e+00 0.000000e+00 0.000000e+00
 0.000000e+00 5.481489e-01 4.518511e-01 0.000000e+00 0.000000e+00
 0.000000e+00 0.000000e+00 5.152617e-01 4.847382e-01 0.000000e+00
 0.000000e+00 0.000000e+00 0.000000e+00 6.553972e-01 3.446028e-01
 0.000000e+00 0.000000e+00 0.000000e+00 0.000000e+00 0.000000e+00
<ENDHMM>
~h "y"
<BEGINHMM>
<NUMSTATES> 5
<STATE> 2
<MEAN> 24
 -2.051469e+00 -3.753113e+00 1.148828e+01 -4.616108e+00 -1.520858e+01 -8.106028e+00 -8.517270e+00 3.288846e+00 -8.853428e+00 2.566028e-01 2.930642e+00 -3.397675e+00 6.698990e-02 -8.555240e-01 4.583330e-01 -4.207090e-01 -7.736829e-01 -8.708071e-01 -6.024734e-02 1.086075e+00 -8.098449e-02 8.651666e-02 5.560042e-01 2.750775e-01
<VARIANCE> 24
 3.457719e+01 4.162307e+01 8.529725e+01 4.703148e+01 5.280610e+01 6.215656e+01 5.753877e+01 6.275653e+01 6.729147e+01 5.663845e+01 4.629601e+01 3.156252e+01 1.120424e+00 2.584585e+00 5.459082e+00 2.233665e+00 3.049683e+00 2.925660e+00 3.307828e+00 4.718819e+00 3.675549e+00 2.634408e+00 3.051928e+00 2.168242e+00
<GCONST> 1.041593e+02
<STATE> 3
<MEAN> 24
 -6.753560e-01 -9.461164e+00 8.076401e+00 -5.887311e+00 -1.429677e+01 -9.938819e+00 -7.090599e+00 1.118259e+01 -4.670589e+00 -4.734318e-01 1.958866e+00 -5.435565e+00 2.834062e-01 -6.521367e-01 -1.444480e+00 4.799743e-02 1.186447e+00 4.511813e-01 4.590381e-01 7.182510e-01 8.479425e-01 -2.027848e-01 -1.363817e+00 -6.869867e-01
<VARIANCE> 24
 2.356629e+01 2.408349e+01 5.821775e+01 3.781898e+01 5.335779e+01 5.005877e+01 5.707843e+01 6.102188e+01 4.629409e+01 5.477887e+01 5.241593e+01 3.965123e+01 3.266848e-01 1.065628e+00 1.973963e+00 1.092210e+00 1.926286e+00 1.584677e+00 1.648631e+00 2.854397e+00 2.141099e+00 1.564993e+00 2.171931e+00 1.468439e+00
<GCONST> 9.441778e+01
<STATE> 4
<MEAN> 24
 5.364505e-01 -9.484486e+00 -2.032636e-01 -4.659102e+00 -6.903549e+00 -5.938025e+00 -3.682818e+00 8.478559e+00 -2.548351e+00 -5.585353e-02 -5.350219e+00 -6.517910e+00 1.090027e-01 2.307930e-01 -6.039879e-01 2.509269e-01 7.294489e-01 6.995228e-01 -3.428204e-02 -5.602508e-01 1.550457e-01 1.481876e-01 -4.376258e-01 -1.346956e-01
<VARIANCE> 24
 3.248468e+01 3.168194e+01 6.074702e+01 4.529313e+01 6.517092e+01 6.537913e+01 4.891758e+01 4.254349e+01 3.591008e+01 5.652971e+01 5.081083e+01 3.693439e+01 3.408946e-01 6.955999e-01 1.015218e+00 1.128597e+00 1.432766e+00 1.295224e+00 1.357135e+00 1.835694e+00 1.474149e+00 1.508349e+00 1.597113e+00 1.233003e+00
<GCONST> 9.182111e+01
<TRANSP> 5
 0.000000e+00 1.000000e+00 0.000000e+00 0.000000e+00 0.000000e+00
 0.000000e+00 6.693522e-01 3.306477e-01 0.000000e+00 0.000000e+00
 0.000000e+00 0.000000e+00 6.954982e-01 3.045018e-01 0.000000e+00
 0.000000e+00 0.000000e+00 0.000000e+00 6.811371e-01 3.188629e-01
 0.000000e+00 0.000000e+00 0.000000e+00 0.000000e+00 0.000000e+00
<ENDHMM>
~h "z"
<BEGINHMM>
<NUMSTATES> 5
<STATE> 2
<MEAN> 24
 -3.550179e-01 -6.169891e+00 -1.413455e+00 1.793565e+01 -8.203237e+00 7.989075e+00 -8.653293e+00 -5.790071e+00 -2.348273e+00 -8.204376e-01 -1.102418e+00 2.136110e+00 -6.582156e-01 -7.399142e-01 1.006976e+00 -3.532926e-01 -7.422387e-01 -1.119007e-01 -4.242849e-01 -1.396081e-01 2.468705e-01 -5.586118e-02 1.956954e-01 1.747123e-01
<VARIANCE> 24
 7.543935e+01 1.037673e+02 3.291583e+01 1.427049e+02 7.142489e+01 2.407126e+02 5.388543e+01 7.214734e+01 1.560912e+01 3.050650e+01 8.804042e+00 3.026641e+01 5.511693e+00 7.531056e+00 4.878327e+00 5.877708e+00 1.012784e+01 7.936495e+00 5.803837e+00 7.934023e+00 1.138306e+00 4.553852e+00 1.216338e+00 2.912054e+00
<GCONST> 1.095067e+02
<STATE> 3
<MEAN> 24
 6.330120e+00 -1.642614e+01 -5.074117e-01 7.453801e+00 -2.468109e+01 8.430462e+00 -7.785017e+00 -3.080335e+00 3.290799e+00 -7.729520e+00 -3.332227e+00 1.287848e+01 2.791908e-01 4.387592e-01 -2.845610e-01 -1.938115e-01 7.923308e-02 -2.981435e-01 1.635426e-01 2.402222e-01 -3.307669e-02 -2.629426e-01 1.034297e-02 1.597334e-01
<VARIANCE> 24
 9.965748e+01 1.239170e+02 1.227841e+02 4.274862e+01 8.295537e+01 1.316358e+02 4.058839e+01 2.548910e+01 2.204795e+01 4.322740e+01 2.820572e+01 4.780302e+01 4.352269e+00 3.142761e+00 5.449968e+00 1.873378e+00 2.883220e+00 4.899124e+00 2.805351e+00 2.657791e+00 1.995074e+00 3.105855e+00 2.313622e+00 2.607844e+00
<GCONST> 1.056200e+02
<STATE> 4
<MEAN> 24
 -3.359996e+00 1.137275e+00 4.952080e-01 3.377582e+00 -9.841638e-01 -3.539755e+00 -5.157791e+00 5.038040e+00 -3.241588e+00 -3.227863e+00 -2.678387e+00 4.471742e-01 -3.234416e-02 -7.733494e-02 -6.584008e-02 1.125028e-01 1.287057e-01 2.708928e-01 -1.459200e-01 -4.850591e-02 -2.450254e-04 -1.300282e-01 -9.083027e-02 -3.701340e-02
<VARIANCE> 24
 8.699106e+00 1.218390e+01 1.536623e+01 2.192030e+01 2.947401e+01 3.332386e+01 1.590239e+01 2.834514e+01 2.748604e+01 2.894995e+01 2.508728e+01 1.517857e+01 3.091575e-01 5.526956e-01 1.133711e+00 1.198797e+00 1.780806e+00 2.010044e+00 1.619583e+00 2.418545e+00 1.957001e+00 1.664706e+00 2.851835e+00 1.480723e+00
<GCONST> 8.401625e+01
<TRANSP> 5
 0.000000e+00 1.000000e+00 0.000000e+00 0.000000e+00 0.000000e+00
 0.000000e+00 7.989273e-01 2.010727e-01 0.000000e+00 0.000000e+00
 0.000000e+00 0.000000e+00 8.811936e-01 1.188064e-01 0.000000e+00
 0.000000e+00 0.000000e+00 0.000000e+00 9.314259e-01 6.857412e-02
 0.000000e+00 0.000000e+00 0.000000e+00 0.000000e+00 0.000000e+00
<ENDHMM>
~h "ai"
<BEGINHMM>
<NUMSTATES> 5
<STATE> 2
<MEAN> 24
 0.000000e+00 0.000000e+00 0.000000e+00 0.000000e+00 0.000000e+00 0.000000e+00 0.000000e+00 0.000000e+00 0.000000e+00 0.000000e+00 0.000000e+00 0.000000e+00 0.000000e+00 0.000000e+00 0.000000e+00 0.000000e+00 0.000000e+00 0.000000e+00 0.000000e+00 0.000000e+00 0.000000e+00 0.000000e+00 0.000000e+00 0.000000e+00
<VARIANCE> 24
 1.000000e+00 1.000000e+00 1.000000e+00 1.000000e+00 1.000000e+00 1.000000e+00 1.000000e+00 1.000000e+00 1.000000e+00 1.000000e+00 1.000000e+00 1.000000e+00 1.000000e+00 1.000000e+00 1.000000e+00 1.000000e+00 1.000000e+00 1.000000e+00 1.000000e+00 1.000000e+00 1.000000e+00 1.000000e+00 1.000000e+00 1.000000e+00
<GCONST> 4.410905e+01
<STATE> 3
<MEAN> 24
 0.000000e+00 0.000000e+00 0.000000e+00 0.000000e+00 0.000000e+00 0.000000e+00 0.000000e+00 0.000000e+00 0.000000e+00 0.000000e+00 0.000000e+00 0.000000e+00 0.000000e+00 0.000000e+00 0.000000e+00 0.000000e+00 0.000000e+00 0.000000e+00 0.000000e+00 0.000000e+00 0.000000e+00 0.000000e+00 0.000000e+00 0.000000e+00
<VARIANCE> 24
 1.000000e+00 1.000000e+00 1.000000e+00 1.000000e+00 1.000000e+00 1.000000e+00 1.000000e+00 1.000000e+00 1.000000e+00 1.000000e+00 1.000000e+00 1.000000e+00 1.000000e+00 1.000000e+00 1.000000e+00 1.000000e+00 1.000000e+00 1.000000e+00 1.000000e+00 1.000000e+00 1.000000e+00 1.000000e+00 1.000000e+00 1.000000e+00
<GCONST> 4.410905e+01
<STATE> 4
<MEAN> 24
 0.000000e+00 0.000000e+00 0.000000e+00 0.000000e+00 0.000000e+00 0.000000e+00 0.000000e+00 0.000000e+00 0.000000e+00 0.000000e+00 0.000000e+00 0.000000e+00 0.000000e+00 0.000000e+00 0.000000e+00 0.000000e+00 0.000000e+00 0.000000e+00 0.000000e+00 0.000000e+00 0.000000e+00 0.000000e+00 0.000000e+00 0.000000e+00
<VARIANCE> 24
 1.000000e+00 1.000000e+00 1.000000e+00 1.000000e+00 1.000000e+00 1.000000e+00 1.000000e+00 1.000000e+00 1.000000e+00 1.000000e+00 1.000000e+00 1.000000e+00 1.000000e+00 1.000000e+00 1.000000e+00 1.000000e+00 1.000000e+00 1.000000e+00 1.000000e+00 1.000000e+00 1.000000e+00 1.000000e+00 1.000000e+00 1.000000e+00
<GCONST> 4.410905e+01
<TRANSP> 5
 0.000000e+00 1.000000e+00 0.000000e+00 0.000000e+00 0.000000e+00
 0.000000e+00 6.000000e-01 4.000000e-01 0.000000e+00 0.000000e+00
 0.000000e+00 0.000000e+00 6.000000e-01 4.000000e-01 0.000000e+00
 0.000000e+00 0.000000e+00 0.000000e+00 7.000000e-01 3.000000e-01
 0.000000e+00 0.000000e+00 0.000000e+00 0.000000e+00 0.000000e+00
<ENDHMM>
~h "au"
<BEGINHMM>
<NUMSTATES> 5
<STATE> 2
<MEAN> 24
 -1.230886e+01 -2.123404e-02 -2.521309e+00 1.800740e+01 -9.500719e+00 1.903867e+01 3.156091e+00 9.531117e+00 6.566957e+00 6.423969e+00 3.400303e+00 4.266755e+00 -9.425937e-01 4.871805e-01 -2.596930e-01 -6.302614e-01 2.068134e-01 -3.271460e-01 -5.994582e-01 -1.592153e-01 -2.618498e-01 -2.060590e-01 -2.243812e-01 -2.696879e-01
<VARIANCE> 24
 4.262170e+01 1.638673e+01 1.125409e+01 8.248884e+01 1.156814e+01 4.359391e+01 5.638297e+01 9.864309e+00 1.735312e+01 2.527238e+01 8.509693e+00 2.125421e+01 5.533417e+00 1.861861e+00 9.631039e-01 3.597994e+00 1.374143e+00 1.451124e+00 2.990250e+00 6.329579e-01 4.888259e-01 8.247135e-01 7.889726e-01 9.591483e-01
<GCONST> 8.503294e+01
<STATE> 3
<MEAN> 24
 -2.533320e+01 9.229333e+00 -7.913005e+00 2.239128e+00 -6.053433e+00 8.884401e+00 -9.835354e+00 4.990098e+00 -9.628258e-01 -1.352000e+00 -2.128960e+00 -3.471275e+00 2.853277e+00 -1.874405e+00 -2.575266e-01 1.887951e+00 -6.271837e-01 6.805021e-01 2.425041e+00 -5.578774e-01 -1.419798e+00 -5.933121e-01 -1.092375e-01 2.134633e-01
<VARIANCE> 24
 1.103784e+02 4.472560e+01 8.941367e+00 7.701041e+01 1.798954e+01 8.688363e+01 4.083673e+01 4.247105e+00 7.306218e+00 2.843553e+00 7.834166e+00 7.762568e+00 2.010103e+01 8.115502e+00 7.950753e-01 4.749582e+00 1.474962e+00 3.190428e+00 4.603960e+00 4.894927e-01 1.371927e+00 1.501795e+00 5.882624e-01 2.171757e+00
<GCONST> 8.855235e+01
<STATE> 4
<MEAN> 24
 -1.406259e+01 -1.972123e+00 -9.145547e+00 4.634561e+00 -1.317706e+01 6.275895e+00 -3.422876e+00 2.698038e+00 -7.463952e+00 -3.543496e+00 5.756075e-01 -2.974867e+00 5.693733e-01 -3.056015e+00 -1.705019e+00 6.968135e-02 -8.903866e-01 4.535375e-01 1.503793e+00 -1.509058e+00 -1.949009e+00 -2.799612e-01 3.495727e-01 2.355187e+00
<VARIANCE> 24
 1.200738e+02 4.808802e+00 9.048413e+00 1.335296e+02 2.256111e+00 1.759194e+02 3.777483e+01 6.118374e-01 2.224574e+00 1.321822e+01 1.849154e+01 1.952524e+01 5.585995e+00 1.121750e+01 1.060472e+00 1.303234e+00 2.389717e+00 4.771193e+00 3.051163e+00 5.890589e-01 9.028052e-01 2.909067e+00 1.706366e+00 4.567958e+00
<GCONST> 8.645911e+01
<TRANSP> 5
 0.000000e+00 1.000000e+00 0.000000e+00 0.000000e+00 0.000000e+00
 0.000000e+00 8.992124e-01 1.007876e-01 0.000000e+00 0.000000e+00
 0.000000e+00 0.000000e+00 5.853338e-01 4.146662e-01 0.000000e+00
 0.000000e+00 0.000000e+00 0.000000e+00 3.850758e-05 9.999615e-01
 0.000000e+00 0.000000e+00 0.000000e+00 0.000000e+00 0.000000e+00
<ENDHMM>
~h "aw"
<BEGINHMM>
<NUMSTATES> 5
<STATE> 2
<MEAN> 24
 3.877740e+00 -5.949823e+00 -6.428368e+00 -1.362021e+01 -4.155665e+00 6.857425e+00 -6.690331e+00 -1.642285e+00 -4.046102e-01 2.902691e+00 1.253532e+00 -1.041430e+01 2.347208e-01 2.888137e-01 -9.038663e-02 -5.865585e-01 -1.024483e-01 6.110346e-01 -6.594583e-02 -1.024242e-01 -5.180947e-01 1.674640e-01 4.008943e-01 2.955318e-01
<VARIANCE> 24
 3.030526e+01 2.676232e+01 4.936903e+01 6.568278e+01 5.215247e+01 8.285356e+01 5.746753e+01 3.381374e+01 5.016301e+01 5.183529e+01 6.652827e+01 5.049910e+01 6.351961e-01 1.372724e+00 9.401889e-01 2.011652e+00 2.163324e+00 2.455139e+00 1.998951e+00 1.856177e+00 1.754324e+00 2.004418e+00 2.069292e+00 2.078027e+00
<GCONST> 9.701508e+01
<STATE> 3
<MEAN> 24
 5.303830e+00 -1.899639e+00 -2.572043e+00 -1.772240e+01 -5.600660e+00 7.029345e+00 -7.784777e+00 -1.766971e+00 -8.055047e+00 4.903548e+00 7.521385e-01 -2.634120e+00 -3.420519e-02 6.335436e-01 1.534520e-01 7.582504e-01 1.469809e-02 -1.621859e-01 -1.285737e-02 -1.621618e-01 -2.636596e-02 -3.577641e-01 -2.551152e-01 3.023915e-01
<VARIANCE> 24
 1.690784e+01 2.487531e+01 3.369318e+01 9.853201e+01 7.603938e+01 6.488626e+01 8.433674e+01 4.007296e+01 6.334268e+01 6.482382e+01 2.898967e+01 3.249523e+01 4.101056e-01 1.365384e+00 1.433465e+00 3.117728e+00 2.445537e+00 2.258167e+00 3.081949e+00 2.313067e+00 2.990013e+00 2.768007e+00 1.955763e+00 2.094417e+00
<GCONST> 9.816975e+01
<STATE> 4
<MEAN> 24
 5.271494e+00 3.606777e+00 -3.850979e+00 -8.796796e+00 -7.697232e+00 3.178534e+00 -6.125295e+00 -1.583301e+00 -5.232721e+00 -1.097266e+00 -2.170492e+00 -4.610305e+00 -4.021031e-01 2.937465e-01 3.545178e-01 1.122087e+00 1.226364e-01 -3.945412e-01 2.080992e-01 4.677092e-02 2.111950e-01 -1.499054e-01 -2.001105e-01 -8.211983e-02
<VARIANCE> 24
 2.330887e+01 2.878936e+01 3.343470e+01 5.993860e+01 6.637001e+01 6.127725e+01 6.248092e+01 4.094204e+01 2.859322e+01 4.646585e+01 3.460579e+01 3.182760e+01 6.096442e-01 1.011138e+00 1.566101e+00 2.273447e+00 2.065296e+00 2.130563e+00 2.380876e+00 2.163320e+00 2.134624e+00 2.256825e+00 1.817931e+00 1.759255e+00
<GCONST> 9.521642e+01
<TRANSP> 5
 0.000000e+00 1.000000e+00 0.000000e+00 0.000000e+00 0.000000e+00
 0.000000e+00 7.471272e-01 2.528728e-01 0.000000e+00 0.000000e+00
 0.000000e+00 0.000000e+00 7.144618e-01 2.855382e-01 0.000000e+00
 0.000000e+00 0.000000e+00 0.000000e+00 7.556554e-01 2.443446e-01
 0.000000e+00 0.000000e+00 0.000000e+00 0.000000e+00 0.000000e+00
<ENDHMM>
~h "ay"
<BEGINHMM>
<NUMSTATES> 5
<STATE> 2
<MEAN> 24
 6.959996e-01 -1.261460e+01 2.348922e+00 -5.183503e+00 -1.058140e+01 -7.070935e+00 -7.685976e+00 1.006056e+01 4.486987e-01 -3.241431e+00 -1.711386e+00 -9.842042e+00 -3.875418e-01 -9.945512e-02 1.711486e+00 6.388921e-02 -1.687220e+00 -1.186371e+00 9.808043e-02 1.150850e+00 -8.715926e-01 -3.612620e-01 1.011771e+00 7.045200e-01
<VARIANCE> 24
 1.708416e+01 2.593643e+01 6.276819e+01 3.144191e+01 4.967979e+01 6.829392e+01 5.177389e+01 5.705949e+01 5.370064e+01 5.948595e+01 5.109699e+01 4.229290e+01 4.267135e-01 1.566063e+00 1.956852e+00 1.221362e+00 2.377918e+00 2.194338e+00 2.111055e+00 3.893647e+00 2.365386e+00 2.418477e+00 3.168320e+00 2.063960e+00
<GCONST> 9.750711e+01
<STATE> 3
<MEAN> 24
 -9.995995e-01 -7.063408e+00 1.436648e+01 -3.927817e+00 -1.886251e+01 -8.569524e+00 -1.267290e+01 8.504838e+00 -6.916946e+00 -4.568817e+00 7.575116e+00 -7.293111e+00 1.540749e-01 8.079191e-01 3.415294e-03 4.429572e-01 3.472943e-01 5.533535e-01 -6.472841e-03 -9.950216e-01 -6.689024e-01 3.483030e-01 -3.210949e-01 -5.827996e-02
<VARIANCE> 24
 1.240067e+01 2.175974e+01 5.968943e+01 3.850975e+01 4.305343e+01 5.000755e+01 5.286478e+01 4.930577e+01 4.597471e+01 5.320693e+01 4.858251e+01 3.430106e+01 6.393639e-01 1.328168e+00 3.770767e+00 1.535698e+00 2.629404e+00 1.738142e+00 2.973216e+00 3.659024e+00 2.746644e+00 2.183805e+00 2.979688e+00 2.472417e+00
<GCONST> 9.749571e+01
<STATE> 4
<MEAN> 24
 2.527629e-01 -1.411831e+00 6.529462e+00 9.519589e-01 -1.207109e+01 -4.625081e+00 -6.311578e+00 2.621406e+00 -8.244370e+00 -1.489726e+00 1.104111e-01 -3.868981e+00 9.277564e-02 7.363960e-01 -9.425707e-01 7.902603e-01 6.815140e-01 8.399148e-01 5.013053e-01 -5.986089e-01 5.481262e-03 -1.500716e-02 -4.931168e-01 1.751816e-01
<VARIANCE> 24
 2.045685e+01 2.471226e+01 4.948002e+01 3.313343e+01 4.208672e+01 4.986911e+01 4.380718e+01 3.937225e+01 4.280171e+01 4.125129e+01 3.156059e+01 3.050353e+01 5.433265e-01 1.219309e+00 1.634519e+00 1.667563e+00 1.845778e+00 2.520551e+00 2.295102e+00 2.631079e+00 2.375998e+00 1.905935e+00 1.988777e+00 1.724513e+00
<GCONST> 9.385414e+01
<TRANSP> 5
 0.000000e+00 1.000000e+00 0.000000e+00 0.000000e+00 0.000000e+00
 0.000000e+00 7.743282e-01 2.256718e-01 0.000000e+00 0.000000e+00
 0.000000e+00 0.000000e+00 7.663261e-01 2.336739e-01 0.000000e+00
 0.000000e+00 0.000000e+00 0.000000e+00 7.396555e-01 2.603444e-01
 0.000000e+00 0.000000e+00 0.000000e+00 0.000000e+00 0.000000e+00
<ENDHMM>
~h "eu"
<BEGINHMM>
<NUMSTATES> 5
<STATE> 2
<MEAN> 24
 4.440288e-01 -2.857411e+00 -8.306887e-01 -1.352800e+00 -7.057447e+00 -2.937189e+00 -9.192253e+00 -7.432695e-01 -1.438441e+00 1.933592e+00 -1.262952e+00 -6.361638e+00 1.170305e+00 -9.225355e-01 -4.326614e-02 -4.935539e-01 -6.861433e-01 -2.173565e-01 -8.798038e-01 3.977921e-01 3.524992e-01 5.178271e-01 -2.181591e-02 -6.875114e-01
<VARIANCE> 24
 5.181805e+01 4.625563e+01 6.578135e+01 7.738706e+01 8.215549e+01 9.225910e+01 6.279921e+01 5.477309e+01 5.447994e+01 5.186404e+01 4.632694e+01 4.899775e+01 3.989828e+00 3.903710e+00 3.415637e+00 4.969536e+00 5.132285e+00 5.564480e+00 5.197357e+00 6.460157e+00 5.457765e+00 4.709170e+00 4.642674e+00 4.003816e+00
<GCONST> 1.117887e+02
<STATE> 3
<MEAN> 24
 2.084887e+00 -4.359931e+00 -3.344804e-01 -1.640625e+00 -8.138814e+00 -2.868438e+00 -1.022540e+01 -8.725706e-02 -1.246865e+00 2.165623e+00 -8.618569e-01 -7.072088e+00 5.724452e-01 -2.083082e-01 9.120847e-02 2.599454e-01 -3.512785e-01 3.215901e-01 -1.847563e-01 9.793274e-03 -3.591749e-02 1.447930e-01 -1.294741e-01 -1.121614e-01
<VARIANCE> 24
 3.706307e+01 4.828389e+01 6.919311e+01 8.503513e+01 8.463728e+01 9.003157e+01 6.724276e+01 7.137516e+01 5.762764e+01 5.748906e+01 4.989857e+01 5.624697e+01 2.145854e+00 2.784057e+00 2.465055e+00 3.237566e+00 3.820469e+00 4.454903e+00 3.944961e+00 4.590187e+00 4.241126e+00 3.299234e+00 3.582721e+00 2.775747e+00
<GCONST> 1.082696e+02
<STATE> 4
<MEAN> 24
 1.911394e+00 -3.161051e+00 -3.146077e-01 -1.050565e+00 -6.764924e+00 -2.968434e+00 -1.031691e+01 3.664764e-01 -1.538490e+00 2.447350e+00 -2.161836e+00 -7.009869e+00 3.906321e-03 5.524927e-01 1.667964e-02 7.571785e-01 2.787915e-02 5.280260e-01 5.151941e-01 -3.743627e-01 -2.946193e-01 -2.556731e-01 -1.683347e-01 3.225374e-01
<VARIANCE> 24
 2.910536e+01 4.677150e+01 5.527613e+01 7.209947e+01 6.564800e+01 7.421073e+01 5.665804e+01 6.442279e+01 5.113270e+01 5.412497e+01 4.447131e+01 4.945889e+01 1.069343e+00 2.193963e+00 1.851583e+00 2.463848e+00 2.606122e+00 2.956564e+00 2.816072e+00 2.987075e+00 2.981777e+00 2.453648e+00 2.595390e+00 2.009260e+00
<GCONST> 1.021147e+02
<TRANSP> 5
 0.000000e+00 1.000000e+00 0.000000e+00 0.000000e+00 0.000000e+00
 0.000000e+00 1.707596e-01 8.292404e-01 0.000000e+00 0.000000e+00
 0.000000e+00 0.000000e+00 6.639670e-02 9.336032e-01 0.000000e+00
 0.000000e+00 0.000000e+00 0.000000e+00 4.254334e-01 5.745666e-01
 0.000000e+00 0.000000e+00 0.000000e+00 0.000000e+00 0.000000e+00
<ENDHMM>
~h "kh"
<BEGINHMM>
<NUMSTATES> 5
<STATE> 2
<MEAN> 24
 5.894129e-01 -8.739089e-01 -5.145679e+00 3.229277e+00 -3.177720e+00 -8.908083e-01 -3.533923e+00 2.704336e+00 -1.720310e+00 1.155923e+00 -4.377053e+00 -5.495026e+00 -4.091858e-01 8.662867e-01 -2.139713e-01 1.942805e-01 -8.703191e-02 7.052543e-01 -2.367609e-01 -2.452394e-01 -5.969854e-02 -2.760593e-01 4.993838e-02 3.241017e-01
<VARIANCE> 24
 1.762798e+01 2.057944e+01 2.319230e+01 2.595459e+01 4.106949e+01 4.301931e+01 2.175723e+01 3.081405e+01 2.111837e+01 2.935266e+01 1.925912e+01 3.007784e+01 7.412281e-01 9.099689e-01 1.088567e+00 1.177305e+00 1.325291e+00 3.078391e+00 2.492456e+00 2.031220e+00 2.504086e+00 2.394186e+00 2.225159e+00 1.702032e+00
<GCONST> 8.918398e+01
<STATE> 3
<MEAN> 24
 -2.176040e+00 -2.335600e+00 -3.750688e+00 1.209528e+00 -3.096717e+00 -8.481830e-02 -3.305639e+00 -1.694396e-01 -3.144944e+00 2.002739e+00 -4.632670e+00 -2.434528e+00 -1.545078e+00 -7.506795e-01 1.453273e+00 -1.114595e+00 7.593061e-01 -1.192086e+00 8.928149e-01 -8.343518e-01 -6.923521e-01 1.594300e+00 -2.973816e-01 8.997431e-01
<VARIANCE> 24
 2.463524e+01 3.071269e+01 3.676819e+01 3.992134e+01 6.009733e+01 4.212550e+01 1.859192e+01 4.136878e+01 2.643940e+01 4.145541e+01 4.287901e+01 2.175839e+01 1.743843e+00 3.147967e+00 4.556365e+00 2.911876e+00 3.569520e+00 2.270609e+00 2.578651e+00 3.673638e+00 3.367191e+00 3.103191e+00 3.064438e+00 2.507734e+00
<GCONST> 9.936404e+01
<STATE> 4
<MEAN> 24
 -1.083548e+01 -4.075902e+00 -4.766479e+00 4.198743e-01 -2.283796e+00 2.874907e+00 -4.666685e-02 1.647208e-01 -7.868916e-01 4.238534e+00 -5.213531e+00 -5.338130e-02 4.184033e-01 -4.453677e-02 9.572251e-01 -3.648798e-01 -9.624469e-01 -6.738684e-01 -1.843598e-01 -2.501922e-01 -3.842788e-01 6.141555e-02 4.428379e-01 -2.595247e-02
<VARIANCE> 24
 9.733605e+01 3.598608e+01 6.483305e+01 8.775157e+01 9.104315e+01 8.031882e+01 2.996743e+01 3.655152e+01 2.588580e+01 2.376176e+01 5.120028e+01 2.163641e+01 6.198108e+00 5.612550e+00 5.111808e+00 5.778998e+00 5.085194e+00 7.372947e+00 3.110343e+00 4.357027e+00 3.464910e+00 2.443342e+00 4.250586e+00 2.508422e+00
<GCONST> 1.079132e+02
<TRANSP> 5
 0.000000e+00 1.000000e+00 0.000000e+00 0.000000e+00 0.000000e+00
 0.000000e+00 6.891843e-01 3.108158e-01 0.000000e+00 0.000000e+00
 0.000000e+00 0.000000e+00 4.768341e-01 5.231659e-01 0.000000e+00
 0.000000e+00 0.000000e+00 0.000000e+00 7.085450e-01 2.914550e-01
 0.000000e+00 0.000000e+00 0.000000e+00 0.000000e+00 0.000000e+00
<ENDHMM>
~h "ng"
<BEGINHMM>
<NUMSTATES> 5
<STATE> 2
<MEAN> 24
 2.934046e+00 -4.728050e+00 6.683457e-01 -2.188389e+00 -9.151863e+00 4.826860e+00 -5.262289e+00 -2.441058e+00 -7.489273e+00 2.616881e+00 -2.228098e-01 -9.150226e+00 4.123849e-02 7.443888e-01 8.450527e-01 8.496038e-01 -7.949117e-01 5.743886e-01 6.716827e-01 -1.321016e+00 -8.217443e-01 4.788155e-01 -3.682573e-01 3.959685e-01
<VARIANCE> 24
 3.239100e+01 4.375757e+01 7.247440e+01 6.843103e+01 7.521815e+01 6.029840e+01 4.118229e+01 4.423077e+01 5.456815e+01 5.191644e+01 3.946036e+01 5.946733e+01 6.405247e-01 1.185632e+00 2.259143e+00 1.831649e+00 2.683714e+00 2.254240e+00 2.549570e+00 2.979194e+00 3.461741e+00 2.577756e+00 2.598513e+00 2.179185e+00
<GCONST> 1.004068e+02
<STATE> 3
<MEAN> 24
 3.463437e+00 -2.808230e+00 4.624431e+00 -1.113699e+00 -1.196668e+01 6.109892e+00 -4.754687e+00 -4.963018e+00 -8.436414e+00 2.828956e+00 -1.395553e+00 -7.793420e+00 -4.371118e-02 5.675248e-01 1.005057e-01 4.821516e-01 -1.954911e-02 4.446101e-02 3.256508e-01 -3.052959e-01 -4.052994e-02 -5.259075e-02 -2.852034e-01 9.594901e-02
<VARIANCE> 24
 2.624487e+01 3.614431e+01 6.888358e+01 6.210107e+01 6.920619e+01 5.312069e+01 4.288464e+01 4.419182e+01 4.723491e+01 4.345519e+01 3.577906e+01 4.160688e+01 3.779391e-01 1.059354e+00 1.268351e+00 1.307404e+00 1.640876e+00 1.603715e+00 1.748975e+00 1.747475e+00 1.641400e+00 1.608717e+00 1.485861e+00 1.357867e+00
<GCONST> 9.336247e+01
<STATE> 4
<MEAN> 24
 1.186060e+00 3.874437e-01 5.152901e-01 1.117038e+00 -8.481570e+00 3.665216e+00 -2.800404e+00 -3.790699e+00 -7.745402e+00 2.166993e+00 -2.934017e+00 -7.265231e+00 -3.655638e-01 1.692449e-01 -4.949170e-01 7.124362e-02 6.472464e-01 -6.242545e-01 -1.342269e-01 7.212204e-01 5.601747e-01 -4.485930e-01 3.437392e-02 2.351385e-02
<VARIANCE> 24
 3.862632e+01 4.197781e+01 5.372043e+01 5.369077e+01 5.826655e+01 4.914124e+01 3.492262e+01 4.577812e+01 5.078582e+01 4.409997e+01 3.041316e+01 3.665158e+01 6.851121e-01 1.673907e+00 1.701448e+00 1.893240e+00 2.498282e+00 2.519650e+00 2.135446e+00 3.000419e+00 2.561117e+00 2.145178e+00 1.929355e+00 1.951820e+00
<GCONST> 9.756776e+01
<TRANSP> 5
 0.000000e+00 1.000000e+00 0.000000e+00 0.000000e+00 0.000000e+00
 0.000000e+00 4.253958e-01 5.746042e-01 0.000000e+00 0.000000e+00
 0.000000e+00 0.000000e+00 5.193881e-01 4.806119e-01 0.000000e+00
 0.000000e+00 0.000000e+00 0.000000e+00 5.940394e-01 4.059606e-01
 0.000000e+00 0.000000e+00 0.000000e+00 0.000000e+00 0.000000e+00
<ENDHMM>
~h "ny"
<BEGINHMM>
<NUMSTATES> 5
<STATE> 2
<MEAN> 24
 6.782334e+00 -1.197387e+01 -1.064505e+00 1.496588e+01 -2.201214e+01 1.023971e+01 -6.406538e+00 -4.118436e+00 -1.976939e+00 -3.555449e+00 -9.484228e-01 2.812272e+00 9.800131e-02 -1.630753e-01 1.609157e-01 -7.126573e-02 -1.471070e-01 -5.810164e-02 -7.148862e-02 2.179073e-02 -9.214740e-02 -6.764071e-02 5.275675e-02 3.024758e-02
<VARIANCE> 24
 6.871191e+01 1.043093e+02 1.059437e+02 9.221266e+01 1.003110e+02 1.250256e+02 8.847186e+01 9.536777e+01 7.739902e+01 4.997478e+01 4.738678e+01 4.108725e+01 5.390508e+00 7.524753e+00 6.098741e+00 4.413337e+00 6.293219e+00 8.662974e+00 5.783813e+00 6.154368e+00 5.837873e+00 4.373287e+00 3.718241e+00 3.254900e+00
<GCONST> 1.167847e+02
<STATE> 3
<MEAN> 24
 7.378424e+00 -1.332153e+01 -1.315421e+00 1.142790e+01 -2.182522e+01 5.077932e+00 -7.204368e+00 -3.963859e+00 -4.332028e+00 -2.767660e+00 3.994321e-02 1.551252e+00 -2.844346e-01 -1.145613e-01 1.679374e-01 -4.671443e-01 -2.235548e-01 1.074940e-01 2.416561e-01 6.226499e-01 -1.366195e-01 -1.084996e-01 1.410000e-01 -5.829925e-02
<VARIANCE> 24
 5.631828e+01 7.872907e+01 9.723559e+01 1.756416e+02 1.093302e+02 1.225875e+02 1.190315e+02 1.129525e+02 6.345826e+01 6.360487e+01 5.165118e+01 4.594771e+01 1.271320e+00 2.627414e+00 2.223174e+00 2.640049e+00 3.019721e+00 4.034834e+00 3.266543e+00 4.684166e+00 2.880450e+00 2.936292e+00 2.283814e+00 1.973346e+00
<GCONST> 1.091808e+02
<STATE> 4
<MEAN> 24
 -3.476090e-01 -7.810624e+00 9.610583e+00 -4.666408e+00 -1.182275e+01 -2.900043e+00 -7.415378e+00 1.010862e+01 -7.549143e+00 -5.279334e+00 -6.060449e-01 -5.196736e+00 1.876781e-03 -7.596257e-01 -8.612953e-01 1.344786e-01 5.487516e-01 -2.460777e-01 9.919197e-02 7.948052e-01 6.149254e-01 -2.705333e-01 -6.886857e-01 -3.201278e-01
<VARIANCE> 24
 1.902857e+01 3.375208e+01 5.440972e+01 5.264222e+01 5.755862e+01 5.879195e+01 6.234543e+01 7.117389e+01 4.847308e+01 7.218644e+01 4.344905e+01 3.871066e+01 6.232622e-01 2.247685e+00 2.127013e+00 1.735596e+00 2.446598e+00 2.172324e+00 2.077419e+00 4.626167e+00 2.669627e+00 2.303079e+00 2.228013e+00 1.758530e+00
<GCONST> 9.940499e+01
<TRANSP> 5
 0.000000e+00 1.000000e+00 0.000000e+00 0.000000e+00 0.000000e+00
 0.000000e+00 9.123934e-01 8.760662e-02 0.000000e+00 0.000000e+00
 0.000000e+00 0.000000e+00 7.472687e-01 2.527314e-01 0.000000e+00
 0.000000e+00 0.000000e+00 0.000000e+00 7.844715e-01 2.155285e-01
 0.000000e+00 0.000000e+00 0.000000e+00 0.000000e+00 0.000000e+00
<ENDHMM>
~h "sp"
<BEGINHMM>
<NUMSTATES> 3
<STATE> 2
~s "silst"
<TRANSP> 3
 0.000000e+00 1.642004e-01 8.357996e-01
 0.000000e+00 9.479265e-01 5.207349e-02
 0.000000e+00 0.000000e+00 0.000000e+00
<ENDHMM>
~h "sy"
<BEGINHMM>
<NUMSTATES> 5
<STATE> 2
<MEAN> 24
 -1.274301e+00 -1.907511e+00 1.348702e+01 -3.370736e+00 -6.765196e+00 -8.684633e+00 -1.236767e+01 6.837292e+00 -1.283910e+01 4.722646e-01 7.448309e+00 -2.809042e+00 -6.853327e-01 8.231958e-01 -8.715811e-02 6.397208e-01 9.464988e-01 3.385738e-01 9.354213e-01 -4.292697e-03 1.849888e-01 -1.522043e-01 1.503071e-01 4.064981e-01
<VARIANCE> 24
 6.730593e+00 1.782295e+01 4.916817e+01 3.122542e+01 5.872979e+01 3.453055e+01 3.442231e+01 2.669567e+01 5.134563e+01 2.671959e+01 4.311031e+01 2.389884e+01 2.248777e+00 1.481558e+00 1.704716e+00 1.225231e+00 2.439526e+00 2.074234e+00 1.780516e+00 1.377191e+00 2.032840e+00 1.086336e+00 1.900739e+00 3.536945e+00
<GCONST> 9.198836e+01
<STATE> 3
<MEAN> 24
 -1.009428e+01 4.749670e+00 1.054795e+01 2.000509e+00 -3.468287e+00 -6.152048e+00 -5.068097e+00 -1.331321e+00 -3.605895e+00 -2.401484e+00 1.837446e+00 -2.706131e-01 -3.616280e-01 6.540256e-02 -4.560360e-01 1.088393e-01 4.029720e-01 -5.798586e-02 3.492760e-01 -2.377008e-01 3.045961e-01 1.989958e-01 -3.787268e-01 2.188393e-01
<VARIANCE> 24
 5.549857e+01 1.658776e+01 2.623408e+01 2.038362e+01 2.960759e+01 3.300203e+01 4.047260e+01 3.975380e+01 4.220091e+01 3.551902e+01 3.298406e+01 1.593392e+01 6.396172e+00 2.409971e+00 2.788509e+00 2.563131e+00 3.702777e+00 5.537936e+00 5.642361e+00 2.816579e+00 1.861800e+00 3.648746e+00 2.686529e+00 2.311220e+00
<GCONST> 9.929131e+01
<STATE> 4
<MEAN> 24
 -3.246174e+00 2.412152e+00 -1.236367e+00 -1.709622e+01 3.265016e+00 3.380376e+00 -1.230211e+01 -1.651855e+00 -5.284588e+00 6.678144e+00 -3.187564e+00 1.476738e+00 1.253008e-01 -2.163451e-01 1.904465e-01 -4.687345e-01 -8.473489e-02 1.563339e-01 -2.594196e-01 1.575798e-01 -1.162895e-01 9.986266e-02 2.237604e-01 -4.278834e-02
<VARIANCE> 24
 1.331474e+02 2.343632e+01 2.342422e+01 1.710559e+02 3.054966e+01 4.797711e+01 1.067741e+02 3.004273e+01 2.109190e+01 3.283947e+01 1.233318e+01 3.499297e+01 2.266773e+00 1.330170e+00 1.443798e+00 3.949661e+00 1.661210e+00 1.617142e+00 1.723733e+00 1.405272e+00 1.800792e+00 1.317282e+00 1.136446e+00 2.085302e+00
<GCONST> 9.486605e+01
<TRANSP> 5
 0.000000e+00 1.000000e+00 0.000000e+00 0.000000e+00 0.000000e+00
 0.000000e+00 7.165356e-01 2.834644e-01 0.000000e+00 0.000000e+00
 0.000000e+00 0.000000e+00 8.728468e-01 1.271532e-01 0.000000e+00
 0.000000e+00 0.000000e+00 0.000000e+00 8.875338e-01 1.124662e-01
 0.000000e+00 0.000000e+00 0.000000e+00 0.000000e+00 0.000000e+00
<ENDHMM>
~h "sil"
<BEGINHMM>
<NUMSTATES> 5
<STATE> 2
<MEAN> 24
 -5.077172e+00 4.439668e+00 -3.843025e+00 5.398818e+00 -3.436763e+00 3.963755e+00 -2.892400e+00 2.420172e+00 -1.901498e+00 -1.271907e+00 -1.049370e+00 -7.142367e-01 -5.248297e-02 6.167554e-02 -3.042517e-02 1.084424e-02 1.234447e-02 3.206779e-02 1.698320e-02 1.425802e-02 1.952656e-02 -6.454931e-03 2.939341e-02 2.902177e-02
<VARIANCE> 24
 5.392299e+01 1.504576e+01 1.728621e+01 1.369874e+01 1.932508e+01 2.345903e+01 1.877783e+01 2.076796e+01 2.355389e+01 1.990644e+01 2.138508e+01 1.776417e+01 1.832923e-01 4.100047e-01 5.951514e-01 7.901802e-01 1.033663e+00 1.229372e+00 1.343231e+00 1.521102e+00 1.598512e+00 1.572527e+00 1.487547e+00 1.370647e+00
<GCONST> 7.969347e+01
<STATE> 3
~s "silst"
<STATE> 4
<MEAN> 24
 -2.885641e+00 -7.681192e-01 -3.307299e-01 -4.846263e-01 -5.653938e+00 5.625954e-01 -3.820295e+00 2.072886e+00 -7.542715e+00 1.206564e+00 2.303776e-01 -4.438426e+00 1.405882e-01 -7.460740e-02 9.039901e-02 -1.319962e-01 -2.207405e-02 -1.113538e-01 -2.520704e-02 -5.076456e-02 -9.301052e-02 4.396954e-03 -3.493695e-02 -6.517761e-02
<VARIANCE> 24
 6.019215e+01 5.110663e+01 7.629395e+01 8.509277e+01 7.376971e+01 9.242371e+01 5.451038e+01 5.600843e+01 7.411826e+01 4.374695e+01 3.982778e+01 4.611676e+01 2.528841e+00 2.725468e+00 3.112352e+00 3.707070e+00 3.855304e+00 3.823994e+00 3.249891e+00 3.940505e+00 3.624351e+00 2.922917e+00 2.818001e+00 2.265754e+00
<GCONST> 1.072008e+02
<TRANSP> 5
 0.000000e+00 1.000000e+00 0.000000e+00 0.000000e+00 0.000000e+00
 0.000000e+00 9.185107e-01 2.021304e-02 6.127632e-02 0.000000e+00
 0.000000e+00 0.000000e+00 9.216842e-01 7.831582e-02 0.000000e+00
 0.000000e+00 4.871334e-02 0.000000e+00 7.923175e-01 1.589693e-01
 0.000000e+00 0.000000e+00 0.000000e+00 0.000000e+00 0.000000e+00
<ENDHMM>
