~o
<STREAMINFO> 1 25
<VECSIZE> 25<NULLD><MFCC_D_N_Z_0><DIAGC>
~h "a"
<BEGINHMM>
<NUMSTATES> 5
<STATE> 2
<MEAN> 25
 6.587968e-01 -8.560280e-01 -4.220946e-01 -3.679532e-01 5.223006e-02 -1.698529e-01 9.882550e-02 4.095002e-01 2.311714e-01 -1.536139e-01 -4.430469e-01 -3.657278e-01 -1.652362e-03 1.039330e-02 2.716146e-03 1.001634e-02 7.566035e-03 4.751398e-03 8.170725e-04 -6.798775e-03 -4.009596e-03 -5.252502e-03 2.895408e-03 1.369549e-03 -1.371652e-02
<VARIANCE> 25
 5.544339e+01 5.622035e+01 6.180491e+01 5.848558e+01 6.493285e+01 6.210674e+01 5.289037e+01 5.704170e+01 5.422127e+01 4.794341e+01 4.605530e+01 3.736548e+01 2.061257e+00 2.851433e+00 2.689934e+00 3.132650e+00 3.412047e+00 3.397599e+00 3.271098e+00 3.581048e+00 3.420121e+00 3.088656e+00 2.985448e+00 2.445780e+00 2.332871e+00
<GCONST> 1.078185e+02
<STATE> 3
<MEAN> 25
 6.438857e-01 -8.187107e-01 -4.150440e-01 -3.318722e-01 7.572878e-02 -1.523951e-01 1.001322e-01 3.906725e-01 2.156318e-01 -1.652412e-01 -4.310377e-01 -3.565170e-01 -9.254151e-03 1.921697e-02 5.312976e-03 1.487174e-02 7.220223e-03 7.888399e-03 2.081934e-04 -9.528710e-03 -6.839669e-03 -3.477710e-03 8.090724e-03 5.629346e-03 -2.805212e-02
<VARIANCE> 25
 5.526101e+01 5.613531e+01 6.164120e+01 5.848067e+01 6.484187e+01 6.200934e+01 5.293676e+01 5.703249e+01 5.416328e+01 4.792609e+01 4.599712e+01 3.733347e+01 2.047203e+00 2.826991e+00 2.678445e+00 3.115243e+00 3.392006e+00 3.383996e+00 3.265830e+00 3.567307e+00 3.414996e+00 3.079762e+00 2.978083e+00 2.440467e+00 2.299750e+00
<GCONST> 1.077412e+02
<STATE> 4
<MEAN> 25
 6.245618e-01 -7.312605e-01 -3.859134e-01 -2.622516e-01 8.791852e-02 -1.234067e-01 8.299657e-02 3.346834e-01 1.723185e-01 -1.812752e-01 -3.868565e-01 -3.232718e-01 -1.672362e-02 2.485915e-02 7.058862e-03 1.758441e-02 5.984616e-03 9.874387e-03 -7.341016e-05 -1.102953e-02 -8.303780e-03 -1.267916e-03 1.149861e-02 9.274532e-03 -3.860944e-02
<VARIANCE> 25
 5.555766e+01 5.672612e+01 6.131100e+01 5.954488e+01 6.482038e+01 6.232488e+01 5.248095e+01 5.667451e+01 5.428450e+01 4.807200e+01 4.579985e+01 3.730039e+01 1.967519e+00 2.736277e+00 2.622250e+00 3.052847e+00 3.314260e+00 3.332445e+00 3.185673e+00 3.495836e+00 3.357640e+00 3.035543e+00 2.925899e+00 2.393122e+00 2.220472e+00
<GCONST> 1.074585e+02
<TRANSP> 5
 0.000000e+00 1.000000e+00 0.000000e+00 0.000000e+00 0.000000e+00
 0.000000e+00 6.193773e-01 3.806228e-01 0.000000e+00 0.000000e+00
 0.000000e+00 0.000000e+00 6.193807e-01 3.806193e-01 0.000000e+00
 0.000000e+00 0.000000e+00 0.000000e+00 7.427236e-01 2.572764e-01
 0.000000e+00 0.000000e+00 0.000000e+00 0.000000e+00 0.000000e+00
<ENDHMM>
~h "b"
<BEGINHMM>
<NUMSTATES> 5
<STATE> 2
<MEAN> 25
 1.081266e+00 4.166784e-01 1.926987e-02 -1.724949e-01 -2.500672e-01 -2.662897e-01 -8.340242e-01 -5.292643e-01 -1.374340e-01 4.296095e-02 1.624479e-01 -3.411964e-01 3.734528e-02 -5.760842e-03 1.281651e-02 -1.371806e-02 -3.287475e-02 -3.035063e-02 -1.793562e-02 -2.695134e-03 9.659122e-03 6.018468e-04 -9.746446e-03 -1.463368e-02 5.848059e-02
<VARIANCE> 25
 5.359681e+01 5.391636e+01 5.946744e+01 6.008694e+01 6.035630e+01 6.060966e+01 5.345567e+01 5.550038e+01 5.557814e+01 5.011842e+01 4.443378e+01 3.653581e+01 1.936865e+00 2.943886e+00 2.697157e+00 3.363575e+00 3.411523e+00 3.467880e+00 3.483997e+00 3.662838e+00 3.633723e+00 3.358363e+00 3.095213e+00 2.516487e+00 2.277859e+00
<GCONST> 1.079623e+02
<STATE> 3
<MEAN> 25
 1.171607e+00 3.990474e-01 4.771033e-02 -2.060853e-01 -3.293130e-01 -3.411441e-01 -8.696156e-01 -5.402594e-01 -1.104815e-01 4.460429e-02 1.309645e-01 -3.746403e-01 2.926337e-02 -7.904142e-03 1.291064e-02 -1.117059e-02 -3.206824e-02 -2.833511e-02 -1.065214e-02 -2.381213e-03 1.010612e-02 9.707418e-04 -1.179704e-02 -1.141820e-02 5.231820e-02
<VARIANCE> 25
 5.280889e+01 5.418722e+01 5.930448e+01 5.977893e+01 6.027578e+01 6.039984e+01 5.364652e+01 5.564474e+01 5.584824e+01 5.036103e+01 4.473143e+01 3.664266e+01 1.929235e+00 2.950532e+00 2.707676e+00 3.358418e+00 3.411518e+00 3.475354e+00 3.489888e+00 3.681141e+00 3.645062e+00 3.370480e+00 3.099996e+00 2.527625e+00 2.260588e+00
<GCONST> 1.079798e+02
<STATE> 4
<MEAN> 25
 1.253615e+00 3.310733e-01 8.129256e-02 -2.515591e-01 -4.338638e-01 -4.711497e-01 -8.494797e-01 -5.261355e-01 -8.626796e-02 3.209371e-02 5.475748e-02 -3.913830e-01 1.842704e-02 -6.626550e-03 1.145853e-02 -4.716980e-03 -2.388995e-02 -2.291060e-02 -1.286011e-03 -2.164446e-04 8.991027e-03 1.625325e-03 -1.258566e-02 -5.973336e-03 3.810925e-02
<VARIANCE> 25
 5.227964e+01 5.500657e+01 5.907796e+01 6.064244e+01 6.038908e+01 6.118758e+01 5.340344e+01 5.554126e+01 5.590059e+01 5.108270e+01 4.479077e+01 3.669849e+01 1.859723e+00 2.877588e+00 2.673311e+00 3.304920e+00 3.337866e+00 3.447645e+00 3.398023e+00 3.638483e+00 3.582155e+00 3.332071e+00 3.049559e+00 2.492860e+00 2.177492e+00
<GCONST> 1.077664e+02
<TRANSP> 5
 0.000000e+00 1.000000e+00 0.000000e+00 0.000000e+00 0.000000e+00
 0.000000e+00 6.164449e-01 3.835551e-01 0.000000e+00 0.000000e+00
 0.000000e+00 0.000000e+00 6.164449e-01 3.835551e-01 0.000000e+00
 0.000000e+00 0.000000e+00 0.000000e+00 7.366422e-01 2.633577e-01
 0.000000e+00 0.000000e+00 0.000000e+00 0.000000e+00 0.000000e+00
<ENDHMM>
~h "c"
<BEGINHMM>
<NUMSTATES> 5
<STATE> 2
<MEAN> 25
 -8.619398e-01 2.236003e-01 6.203497e-01 1.369257e-01 -1.475591e-01 -7.642775e-01 -4.086006e-01 -2.250357e-01 6.935117e-02 -3.305297e-01 2.154394e-01 1.578038e-01 3.744669e-02 3.302656e-03 5.616774e-03 -1.720986e-02 -1.185290e-02 -1.226076e-02 -1.125103e-02 -4.632355e-03 -1.136447e-02 -1.391468e-03 -3.759135e-03 -1.593061e-02 4.600970e-02
<VARIANCE> 25
 6.908643e+01 5.538336e+01 6.241422e+01 5.469865e+01 6.651315e+01 6.793381e+01 5.328990e+01 5.960375e+01 5.328270e+01 4.559777e+01 4.367704e+01 3.575186e+01 3.624535e+00 3.340138e+00 2.965539e+00 3.249052e+00 3.640207e+00 4.066428e+00 3.462278e+00 3.722215e+00 3.450133e+00 3.189824e+00 2.950549e+00 2.504615e+00 2.780511e+00
<GCONST> 1.093918e+02
<STATE> 3
<MEAN> 25
 -7.333522e-01 2.252419e-01 6.389838e-01 8.154421e-02 -2.069432e-01 -7.956590e-01 -4.281342e-01 -2.460776e-01 4.124350e-02 -3.143308e-01 2.155440e-01 1.081093e-01 4.645105e-02 -4.318662e-04 4.231995e-03 -1.770296e-02 -2.054672e-02 -8.281892e-03 -7.717673e-03 -5.561592e-03 -1.057748e-02 5.865312e-03 -1.799381e-03 -1.902941e-02 3.746968e-02
<VARIANCE> 25
 6.841415e+01 5.598782e+01 6.294030e+01 5.482155e+01 6.629785e+01 6.819872e+01 5.313611e+01 5.965506e+01 5.364969e+01 4.574495e+01 4.370547e+01 3.566735e+01 3.605085e+00 3.373293e+00 2.985620e+00 3.257102e+00 3.632395e+00 4.057958e+00 3.467178e+00 3.704232e+00 3.453609e+00 3.206433e+00 2.949259e+00 2.502424e+00 2.736079e+00
<GCONST> 1.094054e+02
<STATE> 4
<MEAN> 25
 -3.867770e-01 1.809536e-01 7.353807e-01 4.710248e-02 -5.033216e-01 -9.283236e-01 -3.822539e-01 -3.955755e-01 -8.705417e-02 -2.340714e-01 2.106622e-01 -3.704181e-02 5.172876e-02 -3.028879e-03 -6.656183e-04 -1.948293e-02 -2.519433e-02 -2.812987e-04 -7.279794e-04 -4.027195e-03 -1.179186e-02 1.470059e-02 -2.397152e-03 -2.162383e-02 1.998027e-02
<VARIANCE> 25
 6.761514e+01 5.700090e+01 6.380996e+01 5.476871e+01 7.163982e+01 7.248602e+01 5.402294e+01 5.908725e+01 5.540408e+01 4.622482e+01 4.401436e+01 3.656336e+01 3.372176e+00 3.286991e+00 2.947218e+00 3.142444e+00 3.583191e+00 3.955305e+00 3.367346e+00 3.583352e+00 3.413133e+00 3.158316e+00 2.895840e+00 2.482630e+00 2.564445e+00
<GCONST> 1.092832e+02
<TRANSP> 5
 0.000000e+00 1.000000e+00 0.000000e+00 0.000000e+00 0.000000e+00
 0.000000e+00 6.263684e-01 3.736316e-01 0.000000e+00 0.000000e+00
 0.000000e+00 0.000000e+00 6.263670e-01 3.736329e-01 0.000000e+00
 0.000000e+00 0.000000e+00 0.000000e+00 7.475338e-01 2.524662e-01
 0.000000e+00 0.000000e+00 0.000000e+00 0.000000e+00 0.000000e+00
<ENDHMM>
~h "d"
<BEGINHMM>
<NUMSTATES> 5
<STATE> 2
<MEAN> 25
 6.660600e-01 4.702412e-02 1.529532e+00 2.697689e-01 -1.237337e+00 -1.072374e+00 -7.407274e-01 -2.099345e-01 -3.930594e-01 -1.418499e-01 1.607600e-01 -8.858314e-02 2.634318e-02 -8.312943e-03 2.388663e-02 -4.662177e-03 -1.328386e-02 -1.493643e-02 -8.532711e-03 -6.189732e-04 -1.609907e-02 1.780113e-03 -5.322354e-03 -7.969311e-03 5.009636e-02
<VARIANCE> 25
 5.265649e+01 5.416039e+01 6.952701e+01 6.117611e+01 6.991338e+01 6.220416e+01 5.759019e+01 6.244173e+01 5.796175e+01 5.019598e+01 4.794547e+01 3.752692e+01 1.908532e+00 2.966330e+00 2.925592e+00 3.377540e+00 3.794774e+00 3.573710e+00 3.553043e+00 3.772419e+00 3.605327e+00 3.276040e+00 3.218036e+00 2.514579e+00 2.516233e+00
<GCONST> 1.090040e+02
<STATE> 3
<MEAN> 25
 7.258415e-01 2.214196e-02 1.570074e+00 2.536942e-01 -1.269156e+00 -1.101367e+00 -7.556951e-01 -2.109258e-01 -4.255316e-01 -1.341433e-01 1.482292e-01 -1.052735e-01 1.739250e-02 -1.060693e-02 7.580498e-03 -6.619355e-03 -6.173840e-03 -5.909649e-03 -2.284719e-03 2.464656e-03 -7.714957e-03 3.480638e-03 -5.159470e-03 -5.322684e-03 3.885205e-02
<VARIANCE> 25
 5.168231e+01 5.407699e+01 6.971484e+01 6.123350e+01 6.998946e+01 6.224491e+01 5.760894e+01 6.259469e+01 5.796763e+01 5.033661e+01 4.801235e+01 3.749447e+01 1.899486e+00 2.958875e+00 2.914673e+00 3.372383e+00 3.796421e+00 3.581584e+00 3.559929e+00 3.773614e+00 3.602831e+00 3.273243e+00 3.222532e+00 2.515416e+00 2.495613e+00
<GCONST> 1.089797e+02
<STATE> 4
<MEAN> 25
 8.121997e-01 -3.658933e-03 1.531507e+00 2.191789e-01 -1.269377e+00 -1.097700e+00 -7.281497e-01 -2.367094e-01 -4.467219e-01 -1.254431e-01 1.017815e-01 -1.357601e-01 7.075476e-03 -9.638370e-03 -1.104917e-02 -5.294573e-03 4.724511e-03 4.208802e-03 5.427181e-03 2.961764e-03 1.359555e-03 2.312652e-03 -5.767114e-03 -3.357564e-03 2.082467e-02
<VARIANCE> 25
 5.224403e+01 5.461200e+01 6.949722e+01 6.183927e+01 7.080340e+01 6.272615e+01 5.725589e+01 6.262688e+01 5.799979e+01 5.095200e+01 4.816973e+01 3.749469e+01 1.866664e+00 2.901855e+00 2.846493e+00 3.319465e+00 3.739967e+00 3.555301e+00 3.496482e+00 3.700220e+00 3.547569e+00 3.239092e+00 3.176729e+00 2.489377e+00 2.420563e+00
<GCONST> 1.088191e+02
<TRANSP> 5
 0.000000e+00 1.000000e+00 0.000000e+00 0.000000e+00 0.000000e+00
 0.000000e+00 6.191767e-01 3.808233e-01 0.000000e+00 0.000000e+00
 0.000000e+00 0.000000e+00 6.191691e-01 3.808309e-01 0.000000e+00
 0.000000e+00 0.000000e+00 0.000000e+00 7.339405e-01 2.660595e-01
 0.000000e+00 0.000000e+00 0.000000e+00 0.000000e+00 0.000000e+00
<ENDHMM>
~h "e"
<BEGINHMM>
<NUMSTATES> 5
<STATE> 2
<MEAN> 25
 4.437611e-01 -5.251284e-01 1.988134e-01 1.304927e-01 -7.605069e-01 -9.360289e-01 2.834780e-01 2.565415e-01 -7.385977e-02 1.912619e-01 2.450254e-01 -7.632829e-02 9.620275e-03 -1.325487e-02 1.228138e-02 -3.798022e-04 -8.743810e-03 -9.695381e-03 5.147143e-03 -4.189767e-03 -1.097598e-02 -1.010938e-02 -9.588853e-03 -1.137767e-02 2.637751e-02
<VARIANCE> 25
 5.575790e+01 5.114021e+01 6.195790e+01 5.476813e+01 6.745873e+01 6.671587e+01 5.166420e+01 5.674931e+01 5.303250e+01 4.593419e+01 4.368114e+01 3.477222e+01 2.154125e+00 2.706166e+00 2.593628e+00 2.952434e+00 3.524908e+00 3.579020e+00 3.123610e+00 3.488243e+00 3.321840e+00 3.071993e+00 2.839267e+00 2.333620e+00 2.322154e+00
<GCONST> 1.073295e+02
<STATE> 3
<MEAN> 25
 4.567121e-01 -5.539768e-01 2.301601e-01 1.377955e-01 -7.706263e-01 -9.481862e-01 3.037433e-01 2.518664e-01 -9.979482e-02 1.636665e-01 2.208886e-01 -1.013669e-01 9.097562e-04 -7.418259e-03 7.771987e-03 3.518265e-04 2.483260e-04 9.603106e-04 9.158911e-03 -3.688436e-03 -8.109424e-03 -1.080732e-02 -9.206858e-03 -6.947521e-03 1.378568e-02
<VARIANCE> 25
 5.519947e+01 5.125488e+01 6.210355e+01 5.453869e+01 6.751705e+01 6.673194e+01 5.171047e+01 5.670862e+01 5.317506e+01 4.596217e+01 4.388303e+01 3.479244e+01 2.136419e+00 2.698859e+00 2.591501e+00 2.949950e+00 3.509366e+00 3.559618e+00 3.121903e+00 3.476265e+00 3.316963e+00 3.072073e+00 2.833880e+00 2.329439e+00 2.288368e+00
<GCONST> 1.072834e+02
<STATE> 4
<MEAN> 25
 4.873775e-01 -5.691201e-01 2.700333e-01 1.377916e-01 -7.499477e-01 -9.129831e-01 3.291207e-01 2.349133e-01 -1.384463e-01 1.397076e-01 1.930010e-01 -1.205027e-01 -8.145626e-03 3.878576e-04 1.485510e-03 5.790006e-03 1.434294e-02 1.202829e-02 8.845521e-03 -4.308353e-03 -4.917408e-03 -9.897732e-03 -8.275041e-03 -1.445532e-03 -4.091321e-03
<VARIANCE> 25
 5.548349e+01 5.159581e+01 6.246007e+01 5.512393e+01 6.811324e+01 6.691301e+01 5.162120e+01 5.651148e+01 5.365393e+01 4.625039e+01 4.412914e+01 3.472431e+01 2.048407e+00 2.637517e+00 2.536858e+00 2.895104e+00 3.408536e+00 3.464291e+00 3.059927e+00 3.383440e+00 3.256165e+00 3.025860e+00 2.779037e+00 2.280087e+00 2.198171e+00
<GCONST> 1.070133e+02
<TRANSP> 5
 0.000000e+00 1.000000e+00 0.000000e+00 0.000000e+00 0.000000e+00
 0.000000e+00 6.253316e-01 3.746684e-01 0.000000e+00 0.000000e+00
 0.000000e+00 0.000000e+00 6.253284e-01 3.746716e-01 0.000000e+00
 0.000000e+00 0.000000e+00 0.000000e+00 7.428128e-01 2.571872e-01
 0.000000e+00 0.000000e+00 0.000000e+00 0.000000e+00 0.000000e+00
<ENDHMM>
~h "f"
<BEGINHMM>
<NUMSTATES> 5
<STATE> 2
<MEAN> 25
 -4.149948e-02 -3.674376e-01 5.163749e-01 2.726340e-01 -2.508506e-01 -1.906165e-01 -2.849745e-01 -5.247152e-01 -1.746112e-01 -2.208684e-01 7.153531e-01 -7.226681e-02 6.134064e-03 1.051940e-02 1.518151e-02 8.223847e-03 1.454587e-02 1.968592e-02 -2.153652e-03 -1.179455e-03 -4.133002e-03 -2.130941e-02 2.788714e-02 9.618931e-03 2.166738e-03
<VARIANCE> 25
 5.753574e+01 4.494822e+01 7.136631e+01 5.403565e+01 6.507041e+01 6.530219e+01 5.117570e+01 5.858411e+01 5.891219e+01 4.781936e+01 4.558406e+01 3.798129e+01 2.312052e+00 2.246787e+00 2.782952e+00 2.950279e+00 3.333303e+00 3.270722e+00 3.154353e+00 3.464997e+00 3.396052e+00 3.075118e+00 2.797727e+00 2.291435e+00 1.940956e+00
<GCONST> 1.072233e+02
<STATE> 3
<MEAN> 25
 -5.395742e-02 -3.272219e-01 5.447654e-01 3.023508e-01 -2.090224e-01 -1.488382e-01 -2.792975e-01 -5.252904e-01 -1.683709e-01 -2.615792e-01 7.832676e-01 -5.276291e-02 -3.306786e-03 1.655180e-02 6.339544e-03 6.919761e-03 1.721653e-02 1.925212e-02 4.584685e-03 1.234615e-04 9.913831e-04 -1.567174e-02 2.643628e-02 6.234890e-03 -8.062911e-03
<VARIANCE> 25
 5.626233e+01 4.459887e+01 7.088471e+01 5.443268e+01 6.534664e+01 6.538557e+01 5.125459e+01 5.886456e+01 5.925028e+01 4.790021e+01 4.590894e+01 3.808919e+01 2.267217e+00 2.246467e+00 2.740386e+00 2.918802e+00 3.296610e+00 3.218241e+00 3.111946e+00 3.405259e+00 3.395787e+00 3.070582e+00 2.795369e+00 2.277460e+00 1.872717e+00
<GCONST> 1.070745e+02
<STATE> 4
<MEAN> 25
 -5.944724e-03 -3.391759e-01 4.511129e-01 3.046199e-01 -1.417206e-01 -8.549169e-02 -2.420372e-01 -5.215901e-01 -9.854219e-02 -2.878524e-01 8.287678e-01 -4.906588e-02 -1.917596e-02 2.018759e-02 -4.055955e-04 1.375212e-03 1.435591e-02 1.633398e-02 1.370891e-02 7.139102e-03 -3.049287e-03 -7.292678e-03 2.068112e-02 1.198291e-02 -2.712890e-02
<VARIANCE> 25
 5.612296e+01 4.456256e+01 6.959908e+01 5.490131e+01 6.559904e+01 6.531275e+01 5.153265e+01 5.853407e+01 5.918557e+01 4.821666e+01 4.623305e+01 3.782109e+01 2.180125e+00 2.235317e+00 2.667801e+00 2.868401e+00 3.221935e+00 3.149610e+00 3.005180e+00 3.321034e+00 3.375399e+00 3.053515e+00 2.791384e+00 2.248122e+00 1.805892e+00
<GCONST> 1.068143e+02
<TRANSP> 5
 0.000000e+00 1.000000e+00 0.000000e+00 0.000000e+00 0.000000e+00
 0.000000e+00 6.139682e-01 3.860317e-01 0.000000e+00 0.000000e+00
 0.000000e+00 0.000000e+00 6.139680e-01 3.860320e-01 0.000000e+00
 0.000000e+00 0.000000e+00 0.000000e+00 7.248234e-01 2.751766e-01
 0.000000e+00 0.000000e+00 0.000000e+00 0.000000e+00 0.000000e+00
<ENDHMM>
~h "g"
<BEGINHMM>
<NUMSTATES> 5
<STATE> 2
<MEAN> 25
 7.855717e-01 4.905736e-01 1.002233e+00 -1.705207e-01 -6.852266e-01 -7.496922e-01 -9.694481e-01 -4.629085e-01 -4.993800e-01 7.402992e-02 9.912366e-02 -4.142278e-01 4.997863e-03 2.567974e-04 -1.564861e-02 -1.251562e-02 1.597947e-02 -1.171891e-03 -2.406578e-03 1.130930e-02 1.130323e-02 7.851872e-03 2.740950e-03 4.121186e-03 1.623062e-02
<VARIANCE> 25
 5.969696e+01 5.357192e+01 6.538425e+01 5.908850e+01 6.578268e+01 6.457147e+01 5.636970e+01 6.021375e+01 5.688215e+01 5.059380e+01 4.616748e+01 3.839989e+01 1.858960e+00 2.736125e+00 2.782677e+00 3.088016e+00 3.632322e+00 3.665016e+00 3.445142e+00 3.576590e+00 3.592503e+00 3.244862e+00 3.041898e+00 2.491029e+00 2.294595e+00
<GCONST> 1.083949e+02
<STATE> 3
<MEAN> 25
 7.981749e-01 4.890960e-01 9.431785e-01 -2.099348e-01 -6.397266e-01 -7.371641e-01 -9.710722e-01 -4.304050e-01 -4.667218e-01 9.020036e-02 1.092856e-01 -4.041824e-01 -5.533893e-04 -2.794717e-03 -2.832947e-02 -1.457522e-02 2.450605e-02 1.013602e-02 1.539160e-03 1.375862e-02 1.636064e-02 7.845549e-03 1.789534e-03 4.469190e-03 7.473927e-03
<VARIANCE> 25
 5.944791e+01 5.362263e+01 6.489912e+01 5.928482e+01 6.536094e+01 6.416938e+01 5.661057e+01 6.026809e+01 5.673536e+01 5.058743e+01 4.633199e+01 3.826810e+01 1.866048e+00 2.720074e+00 2.749229e+00 3.091515e+00 3.598743e+00 3.634470e+00 3.444608e+00 3.571024e+00 3.571718e+00 3.239395e+00 3.030359e+00 2.479465e+00 2.271441e+00
<GCONST> 1.083189e+02
<STATE> 4
<MEAN> 25
 8.899046e-01 4.327642e-01 8.131092e-01 -2.378098e-01 -5.382300e-01 -6.844001e-01 -9.614541e-01 -4.043643e-01 -4.252619e-01 5.213195e-02 1.202976e-01 -3.893199e-01 -2.000383e-03 -2.835177e-03 -3.535379e-02 -1.282620e-02 2.696032e-02 1.904074e-02 6.307886e-03 1.221560e-02 1.649169e-02 6.620401e-03 2.353006e-03 4.032277e-03 -4.600239e-04
<VARIANCE> 25
 6.087306e+01 5.458142e+01 6.442713e+01 6.004831e+01 6.507343e+01 6.373336e+01 5.642597e+01 6.014047e+01 5.660212e+01 5.124149e+01 4.667701e+01 3.816753e+01 1.846794e+00 2.678919e+00 2.673900e+00 3.050724e+00 3.495621e+00 3.547552e+00 3.374236e+00 3.503252e+00 3.485984e+00 3.199863e+00 2.977262e+00 2.441810e+00 2.213237e+00
<GCONST> 1.081092e+02
<TRANSP> 5
 0.000000e+00 1.000000e+00 0.000000e+00 0.000000e+00 0.000000e+00
 0.000000e+00 6.236655e-01 3.763344e-01 0.000000e+00 0.000000e+00
 0.000000e+00 0.000000e+00 6.236688e-01 3.763312e-01 0.000000e+00
 0.000000e+00 0.000000e+00 0.000000e+00 7.406919e-01 2.593081e-01
 0.000000e+00 0.000000e+00 0.000000e+00 0.000000e+00 0.000000e+00
<ENDHMM>
~h "h"
<BEGINHMM>
<NUMSTATES> 5
<STATE> 2
<MEAN> 25
 -5.246175e-01 -3.822492e-01 8.529360e-02 -2.631349e-01 1.864762e-01 3.702962e-01 5.920181e-01 1.472479e-01 3.758331e-02 8.414260e-03 -7.671438e-02 2.293891e-01 1.044897e-02 -1.144604e-03 -1.512749e-02 1.643491e-02 2.159183e-02 1.676620e-03 8.431283e-03 8.126917e-03 -1.107088e-02 -4.622238e-03 1.248301e-02 1.530580e-03 -1.456014e-02
<VARIANCE> 25
 6.190247e+01 5.273142e+01 6.435055e+01 5.892180e+01 6.847535e+01 6.273494e+01 5.405927e+01 5.424385e+01 5.078791e+01 4.560532e+01 4.359767e+01 3.512604e+01 1.863257e+00 2.268097e+00 2.392441e+00 2.871144e+00 3.175207e+00 3.100358e+00 3.053683e+00 3.115573e+00 3.044034e+00 2.771230e+00 2.675047e+00 2.226077e+00 2.021832e+00
<GCONST> 1.062375e+02
<STATE> 3
<MEAN> 25
 -4.967060e-01 -3.737459e-01 4.787045e-02 -2.094289e-01 2.412258e-01 3.664167e-01 5.988246e-01 1.667152e-01 4.627257e-03 -3.459087e-03 -3.770231e-02 2.364652e-01 6.963121e-03 7.698338e-03 -1.520651e-02 2.134774e-02 1.859082e-02 4.529109e-04 1.835279e-03 7.008241e-03 -1.016541e-02 -1.766134e-03 1.185306e-02 3.642418e-03 -2.625693e-02
<VARIANCE> 25
 6.143372e+01 5.269032e+01 6.380081e+01 5.851514e+01 6.752644e+01 6.234151e+01 5.377659e+01 5.399511e+01 5.070830e+01 4.556255e+01 4.345173e+01 3.510554e+01 1.833928e+00 2.259954e+00 2.379050e+00 2.827502e+00 3.128323e+00 3.079491e+00 3.031503e+00 3.111076e+00 3.030663e+00 2.768892e+00 2.656307e+00 2.224107e+00 1.975587e+00
<GCONST> 1.060700e+02
<STATE> 4
<MEAN> 25
 -4.431116e-01 -3.415210e-01 6.590098e-03 -1.429894e-01 2.851108e-01 3.456380e-01 5.622551e-01 1.902739e-01 -4.217957e-02 -2.839351e-02 1.261749e-02 2.286379e-01 -2.962795e-04 1.736372e-02 -1.075791e-02 2.630359e-02 1.442304e-02 -7.203085e-04 -4.152566e-03 5.487002e-03 -6.964688e-03 -8.692082e-04 1.204852e-02 4.242867e-03 -3.604785e-02
<VARIANCE> 25
 6.207273e+01 5.317685e+01 6.286756e+01 5.944528e+01 6.613609e+01 6.202099e+01 5.255752e+01 5.339223e+01 5.052832e+01 4.577898e+01 4.318235e+01 3.483825e+01 1.743308e+00 2.195448e+00 2.312227e+00 2.735663e+00 3.016151e+00 3.015698e+00 2.918822e+00 3.050877e+00 2.961594e+00 2.727490e+00 2.593797e+00 2.181129e+00 1.873536e+00
<GCONST> 1.056273e+02
<TRANSP> 5
 0.000000e+00 1.000000e+00 0.000000e+00 0.000000e+00 0.000000e+00
 0.000000e+00 6.298801e-01 3.701199e-01 0.000000e+00 0.000000e+00
 0.000000e+00 0.000000e+00 6.298780e-01 3.701220e-01 0.000000e+00
 0.000000e+00 0.000000e+00 0.000000e+00 7.535703e-01 2.464298e-01
 0.000000e+00 0.000000e+00 0.000000e+00 0.000000e+00 0.000000e+00
<ENDHMM>
~h "i"
<BEGINHMM>
<NUMSTATES> 5
<STATE> 2
<MEAN> 25
 -2.137409e-01 6.833891e-01 2.309492e+00 2.293948e-01 -1.346166e+00 -9.020975e-01 -3.510180e-01 -7.951741e-01 -9.876745e-01 -2.533903e-02 3.213241e-01 8.374409e-02 1.404437e-02 -8.361734e-03 -1.889935e-02 -1.615208e-02 2.919585e-03 1.713065e-02 -7.334322e-03 3.368793e-03 1.440945e-02 2.728026e-03 -9.059797e-03 1.786599e-03 9.386376e-04
<VARIANCE> 25
 5.324743e+01 5.279108e+01 7.788741e+01 6.390129e+01 7.314823e+01 6.441248e+01 5.570728e+01 5.842521e+01 5.828624e+01 4.775795e+01 4.648805e+01 3.716608e+01 2.032495e+00 2.583802e+00 3.204339e+00 3.241487e+00 3.811699e+00 3.566544e+00 3.395537e+00 3.571941e+00 3.584042e+00 3.121732e+00 3.037738e+00 2.428687e+00 2.198663e+00
<GCONST> 1.086381e+02
<STATE> 3
<MEAN> 25
 -1.786518e-01 6.591005e-01 2.241878e+00 1.878105e-01 -1.322876e+00 -8.563552e-01 -3.654207e-01 -7.753651e-01 -9.408541e-01 -1.895414e-02 2.936578e-01 8.961659e-02 1.204733e-02 -1.450375e-02 -3.964582e-02 -1.370862e-02 1.839194e-02 2.524611e-02 -1.707034e-03 1.241501e-02 2.407464e-02 1.541019e-03 -1.245755e-02 3.380873e-03 -7.584486e-03
<VARIANCE> 25
 5.279981e+01 5.292879e+01 7.756622e+01 6.393761e+01 7.291817e+01 6.432955e+01 5.566879e+01 5.837368e+01 5.823795e+01 4.768996e+01 4.646283e+01 3.712888e+01 2.006755e+00 2.580327e+00 3.161472e+00 3.241198e+00 3.776128e+00 3.546062e+00 3.384489e+00 3.568827e+00 3.568822e+00 3.115235e+00 3.034600e+00 2.426141e+00 2.181875e+00
<GCONST> 1.085558e+02
<STATE> 4
<MEAN> 25
 -8.635218e-02 5.914242e-01 2.047326e+00 1.084225e-01 -1.216758e+00 -7.973149e-01 -3.933088e-01 -7.314824e-01 -8.386322e-01 -1.089514e-02 2.324312e-01 6.167422e-02 7.825830e-03 -1.886845e-02 -5.537174e-02 -8.174689e-03 3.162312e-02 2.928191e-02 4.624475e-03 2.104416e-02 2.888848e-02 -2.469497e-04 -1.197113e-02 4.907846e-03 -1.685345e-02
<VARIANCE> 25
 5.303447e+01 5.371324e+01 7.719854e+01 6.498976e+01 7.306978e+01 6.442843e+01 5.555056e+01 5.822454e+01 5.811610e+01 4.789367e+01 4.639287e+01 3.710593e+01 1.926579e+00 2.532236e+00 3.054313e+00 3.197274e+00 3.664693e+00 3.471009e+00 3.306127e+00 3.500907e+00 3.496559e+00 3.066501e+00 2.978704e+00 2.388508e+00 2.124625e+00
<GCONST> 1.082868e+02
<TRANSP> 5
 0.000000e+00 1.000000e+00 0.000000e+00 0.000000e+00 0.000000e+00
 0.000000e+00 6.208197e-01 3.791804e-01 0.000000e+00 0.000000e+00
 0.000000e+00 0.000000e+00 6.208190e-01 3.791811e-01 0.000000e+00
 0.000000e+00 0.000000e+00 0.000000e+00 7.392706e-01 2.607295e-01
 0.000000e+00 0.000000e+00 0.000000e+00 0.000000e+00 0.000000e+00
<ENDHMM>
~h "j"
<BEGINHMM>
<NUMSTATES> 5
<STATE> 2
<MEAN> 25
 1.303535e-01 2.216627e-01 1.512607e+00 4.365184e-01 -8.748751e-01 -1.370615e+00 -4.602853e-01 1.396063e-01 -2.452578e-01 -4.589456e-01 3.459930e-01 2.180947e-01 1.853720e-02 9.786150e-03 3.236322e-02 -5.285419e-03 -6.725819e-03 -6.296190e-03 -9.092428e-03 -4.126976e-04 -9.246054e-03 6.067985e-03 -8.552287e-03 -1.733014e-02 2.377370e-02
<VARIANCE> 25
 5.607990e+01 5.549922e+01 6.649774e+01 5.538347e+01 6.626961e+01 6.454319e+01 5.781286e+01 5.807187e+01 5.324279e+01 4.946215e+01 4.371750e+01 3.724201e+01 2.353310e+00 3.003963e+00 3.130850e+00 3.116278e+00 3.966415e+00 3.814675e+00 3.539254e+00 3.634753e+00 3.429998e+00 3.189725e+00 3.037503e+00 2.451370e+00 2.315853e+00
<GCONST> 1.086976e+02
<STATE> 3
<MEAN> 25
 1.858262e-01 2.440530e-01 1.592208e+00 4.279030e-01 -8.985305e-01 -1.385164e+00 -4.788914e-01 1.376798e-01 -2.728640e-01 -4.381404e-01 3.288915e-01 1.717037e-01 2.107817e-02 6.760096e-03 2.368847e-02 -1.250797e-03 -7.256945e-04 2.618079e-03 -5.391882e-03 -5.421901e-05 -1.011079e-02 1.388448e-02 -6.880247e-03 -1.710378e-02 7.306669e-03
<VARIANCE> 25
 5.496379e+01 5.535439e+01 6.716650e+01 5.602464e+01 6.620251e+01 6.446111e+01 5.756207e+01 5.792189e+01 5.334665e+01 4.982081e+01 4.394860e+01 3.712526e+01 2.306456e+00 2.980061e+00 3.134924e+00 3.120025e+00 3.957763e+00 3.830405e+00 3.527516e+00 3.624900e+00 3.437308e+00 3.180385e+00 3.038446e+00 2.439807e+00 2.308678e+00
<GCONST> 1.086604e+02
<STATE> 4
<MEAN> 25
 2.662906e-01 2.016355e-01 1.561647e+00 3.353827e-01 -8.525959e-01 -1.322666e+00 -4.296398e-01 7.876790e-02 -3.894202e-01 -3.542020e-01 3.441148e-01 3.383898e-02 1.396917e-02 4.903854e-03 1.104176e-02 1.493903e-03 7.056645e-03 1.410663e-02 -6.919673e-04 8.102541e-04 -9.337610e-03 1.752776e-02 -5.074937e-03 -1.300309e-02 -1.544034e-02
<VARIANCE> 25
 5.358191e+01 5.594751e+01 6.818793e+01 5.872586e+01 6.654359e+01 6.480540e+01 5.608571e+01 5.745251e+01 5.421016e+01 5.028865e+01 4.401282e+01 3.723763e+01 2.167072e+00 2.891801e+00 3.052468e+00 3.086135e+00 3.845376e+00 3.769755e+00 3.427211e+00 3.567114e+00 3.428750e+00 3.135883e+00 2.993750e+00 2.383868e+00 2.281823e+00
<GCONST> 1.084281e+02
<TRANSP> 5
 0.000000e+00 1.000000e+00 0.000000e+00 0.000000e+00 0.000000e+00
 0.000000e+00 6.247371e-01 3.752629e-01 0.000000e+00 0.000000e+00
 0.000000e+00 0.000000e+00 6.247416e-01 3.752585e-01 0.000000e+00
 0.000000e+00 0.000000e+00 0.000000e+00 7.541220e-01 2.458780e-01
 0.000000e+00 0.000000e+00 0.000000e+00 0.000000e+00 0.000000e+00
<ENDHMM>
~h "k"
<BEGINHMM>
<NUMSTATES> 5
<STATE> 2
<MEAN> 25
 1.977484e-01 -3.815627e-01 -7.986019e-01 -5.051036e-01 2.952344e-01 1.847896e-01 1.257569e-01 3.587905e-02 8.570342e-02 2.683208e-01 6.019161e-02 -1.107856e-01 3.063858e-02 -2.285694e-03 -5.712132e-03 -1.444577e-02 -1.845733e-02 -1.385357e-02 -9.588871e-03 -1.582668e-02 -1.621619e-03 -9.466144e-04 -3.386852e-03 -1.190643e-02 3.793242e-02
<VARIANCE> 25
 5.321022e+01 5.368133e+01 6.359303e+01 6.363178e+01 6.623122e+01 6.397908e+01 5.152260e+01 5.413958e+01 5.289446e+01 4.710889e+01 4.490332e+01 3.699424e+01 2.192930e+00 2.869303e+00 2.843115e+00 3.571457e+00 3.722893e+00 3.622542e+00 3.417771e+00 3.607231e+00 3.549392e+00 3.222164e+00 3.051497e+00 2.552215e+00 2.794277e+00
<GCONST> 1.085190e+02
<STATE> 3
<MEAN> 25
 2.712818e-01 -3.867315e-01 -8.029789e-01 -5.306722e-01 2.435257e-01 1.449066e-01 1.042289e-01 -5.854293e-03 8.431917e-02 2.583044e-01 4.225061e-02 -1.386252e-01 2.797519e-02 -4.911147e-04 2.511820e-03 -7.875009e-03 -2.308119e-02 -1.407206e-02 -9.950921e-03 -1.772576e-02 -2.270944e-03 -6.338123e-03 -6.654009e-03 -1.148578e-02 3.217406e-02
<VARIANCE> 25
 5.252302e+01 5.369601e+01 6.363880e+01 6.332570e+01 6.608406e+01 6.399397e+01 5.170206e+01 5.437740e+01 5.307518e+01 4.725589e+01 4.506966e+01 3.705367e+01 2.194756e+00 2.873362e+00 2.846218e+00 3.567597e+00 3.732560e+00 3.624517e+00 3.421932e+00 3.625259e+00 3.561844e+00 3.227289e+00 3.067441e+00 2.554375e+00 2.749047e+00
<GCONST> 1.085263e+02
<STATE> 4
<MEAN> 25
 3.649401e-01 -3.186277e-01 -7.223737e-01 -4.780408e-01 1.282762e-01 9.675284e-02 6.196977e-02 -5.272163e-02 1.085447e-01 2.070099e-01 -1.951956e-03 -1.574901e-01 1.906453e-02 2.384610e-03 7.927486e-03 1.142586e-03 -2.040996e-02 -1.145328e-02 -1.004371e-02 -1.495439e-02 -6.168476e-04 -8.817679e-03 -7.965881e-03 -8.790521e-03 1.926597e-02
<VARIANCE> 25
 5.222298e+01 5.433555e+01 6.335098e+01 6.355343e+01 6.592077e+01 6.398541e+01 5.166331e+01 5.433799e+01 5.367337e+01 4.763327e+01 4.522407e+01 3.685295e+01 2.124385e+00 2.826964e+00 2.793305e+00 3.487607e+00 3.637784e+00 3.556322e+00 3.354318e+00 3.567725e+00 3.513323e+00 3.191522e+00 3.034011e+00 2.509481e+00 2.613180e+00
<GCONST> 1.082693e+02
<TRANSP> 5
 0.000000e+00 1.000000e+00 0.000000e+00 0.000000e+00 0.000000e+00
 0.000000e+00 6.188130e-01 3.811869e-01 0.000000e+00 0.000000e+00
 0.000000e+00 0.000000e+00 6.188110e-01 3.811890e-01 0.000000e+00
 0.000000e+00 0.000000e+00 0.000000e+00 7.377629e-01 2.622371e-01
 0.000000e+00 0.000000e+00 0.000000e+00 0.000000e+00 0.000000e+00
<ENDHMM>
~h "l"
<BEGINHMM>
<NUMSTATES> 5
<STATE> 2
<MEAN> 25
 1.166617e+00 -4.058302e-01 -4.616944e-01 -9.785209e-01 -2.061699e-01 -1.703888e-01 -7.279859e-01 -4.611312e-01 3.651286e-01 3.722262e-01 -2.056492e-01 -4.207532e-01 -7.649095e-03 2.404134e-03 2.418412e-02 2.317349e-02 3.237519e-03 -1.256504e-02 7.903528e-03 4.155624e-03 -7.652661e-03 -1.039122e-02 5.401010e-03 9.927691e-03 -1.206053e-03
<VARIANCE> 25
 5.813480e+01 5.312682e+01 6.279684e+01 6.234907e+01 6.599432e+01 6.703974e+01 5.832812e+01 6.057357e+01 5.690564e+01 5.218055e+01 4.731248e+01 3.847007e+01 1.864746e+00 2.490069e+00 2.533790e+00 3.084709e+00 3.338193e+00 3.454930e+00 3.346145e+00 3.575402e+00 3.428846e+00 3.150679e+00 2.976758e+00 2.430810e+00 1.903880e+00
<GCONST> 1.078441e+02
<STATE> 3
<MEAN> 25
 1.128426e+00 -3.974995e-01 -4.016660e-01 -9.080609e-01 -1.898177e-01 -1.946668e-01 -6.913487e-01 -4.460638e-01 3.410305e-01 3.430552e-01 -1.880164e-01 -3.872899e-01 -1.931349e-02 5.284126e-03 2.624940e-02 3.029356e-02 6.144125e-03 -8.447106e-03 1.804318e-02 8.639541e-03 -1.101763e-02 -1.395533e-02 6.709314e-03 1.361010e-02 -1.499351e-02
<VARIANCE> 25
 5.749988e+01 5.309947e+01 6.280780e+01 6.197136e+01 6.606269e+01 6.704311e+01 5.814073e+01 6.056999e+01 5.691353e+01 5.208411e+01 4.720898e+01 3.837911e+01 1.851602e+00 2.483079e+00 2.525795e+00 3.068535e+00 3.338070e+00 3.451105e+00 3.332837e+00 3.560010e+00 3.420841e+00 3.137162e+00 2.970047e+00 2.419811e+00 1.901381e+00
<GCONST> 1.077758e+02
<STATE> 4
<MEAN> 25
 1.075091e+00 -3.765088e-01 -3.252091e-01 -7.906678e-01 -1.652431e-01 -2.322286e-01 -6.114013e-01 -4.067236e-01 2.896557e-01 2.722919e-01 -1.727530e-01 -3.311266e-01 -3.097419e-02 8.377417e-03 2.364936e-02 3.628092e-02 9.931356e-03 -2.138702e-03 2.623618e-02 1.202698e-02 -1.475614e-02 -1.497693e-02 9.919014e-03 1.609280e-02 -3.114085e-02
<VARIANCE> 25
 5.840711e+01 5.378150e+01 6.283557e+01 6.213696e+01 6.672915e+01 6.686687e+01 5.772155e+01 6.065591e+01 5.679181e+01 5.274602e+01 4.710164e+01 3.823315e+01 1.807383e+00 2.450446e+00 2.487102e+00 3.017667e+00 3.288465e+00 3.404910e+00 3.254056e+00 3.487967e+00 3.368862e+00 3.101161e+00 2.935007e+00 2.383913e+00 1.876454e+00
<GCONST> 1.076040e+02
<TRANSP> 5
 0.000000e+00 1.000000e+00 0.000000e+00 0.000000e+00 0.000000e+00
 0.000000e+00 6.179782e-01 3.820218e-01 0.000000e+00 0.000000e+00
 0.000000e+00 0.000000e+00 6.179776e-01 3.820224e-01 0.000000e+00
 0.000000e+00 0.000000e+00 0.000000e+00 7.317731e-01 2.682269e-01
 0.000000e+00 0.000000e+00 0.000000e+00 0.000000e+00 0.000000e+00
<ENDHMM>
~h "m"
<BEGINHMM>
<NUMSTATES> 5
<STATE> 2
<MEAN> 25
 1.215628e+00 -7.482688e-02 -4.120503e-01 -2.365280e-01 3.545396e-01 4.992316e-01 -2.779886e-01 -3.732110e-01 -3.464582e-01 -1.598359e-01 -2.134927e-01 -4.713297e-01 1.460833e-02 1.275036e-04 1.234961e-03 -4.122399e-04 4.583119e-03 -1.040397e-02 -6.221944e-04 1.046360e-02 -4.528530e-03 -1.320433e-02 -2.242671e-02 -1.307754e-02 2.295073e-02
<VARIANCE> 25
 5.609671e+01 5.347093e+01 5.892590e+01 5.816718e+01 6.366981e+01 6.085306e+01 5.148305e+01 5.699817e+01 5.566687e+01 4.626126e+01 4.385252e+01 3.619218e+01 2.031573e+00 2.656135e+00 2.724176e+00 3.230764e+00 3.387407e+00 3.383426e+00 3.206593e+00 3.652765e+00 3.544606e+00 3.008080e+00 2.972106e+00 2.365258e+00 2.068201e+00
<GCONST> 1.073663e+02
<STATE> 3
<MEAN> 25
 1.244364e+00 -6.859576e-02 -4.110888e-01 -2.395694e-01 3.603588e-01 4.651936e-01 -2.802230e-01 -3.480978e-01 -3.632858e-01 -1.955672e-01 -2.675806e-01 -5.022396e-01 -1.710149e-03 2.698567e-03 2.997651e-03 4.699208e-04 1.945623e-03 -1.648602e-02 2.763778e-03 1.375658e-02 -2.299434e-03 -1.095762e-02 -1.905528e-02 -8.187143e-03 1.477989e-02
<VARIANCE> 25
 5.587984e+01 5.355050e+01 5.887193e+01 5.815361e+01 6.357025e+01 6.097084e+01 5.155997e+01 5.698745e+01 5.558159e+01 4.638757e+01 4.390366e+01 3.628327e+01 2.035060e+00 2.650379e+00 2.725729e+00 3.220461e+00 3.379563e+00 3.377579e+00 3.206341e+00 3.649560e+00 3.531964e+00 3.008668e+00 2.968872e+00 2.366245e+00 2.046864e+00
<GCONST> 1.073468e+02
<STATE> 4
<MEAN> 25
 1.242559e+00 -5.592746e-02 -3.938903e-01 -2.317101e-01 3.468872e-01 3.564757e-01 -2.815813e-01 -2.920259e-01 -3.778452e-01 -2.346891e-01 -3.189500e-01 -5.344601e-01 -1.545181e-02 5.705941e-03 5.042387e-03 2.490447e-03 -3.373310e-03 -2.055090e-02 7.556622e-03 1.457888e-02 9.221219e-04 -7.856623e-03 -1.263174e-02 -2.186925e-03 2.608927e-03
<VARIANCE> 25
 5.706692e+01 5.400606e+01 5.875380e+01 5.860840e+01 6.360219e+01 6.114553e+01 5.136393e+01 5.665031e+01 5.556421e+01 4.700905e+01 4.397295e+01 3.637663e+01 1.976468e+00 2.605487e+00 2.673110e+00 3.153150e+00 3.303708e+00 3.319618e+00 3.138127e+00 3.562065e+00 3.446733e+00 2.971268e+00 2.916235e+00 2.334270e+00 1.981385e+00
<GCONST> 1.071193e+02
<TRANSP> 5
 0.000000e+00 1.000000e+00 0.000000e+00 0.000000e+00 0.000000e+00
 0.000000e+00 6.211959e-01 3.788041e-01 0.000000e+00 0.000000e+00
 0.000000e+00 0.000000e+00 6.212053e-01 3.787947e-01 0.000000e+00
 0.000000e+00 0.000000e+00 0.000000e+00 7.370986e-01 2.629015e-01
 0.000000e+00 0.000000e+00 0.000000e+00 0.000000e+00 0.000000e+00
<ENDHMM>
~h "n"
<BEGINHMM>
<NUMSTATES> 5
<STATE> 2
<MEAN> 25
 9.514892e-01 -1.708938e-01 5.851133e-01 3.658673e-01 -4.022207e-01 -2.812953e-01 -1.694998e-01 -2.039224e-01 -2.867060e-01 -3.005744e-01 -6.303225e-01 -4.211274e-01 -3.293019e-02 1.511638e-02 -4.185513e-03 5.398325e-03 2.020126e-02 1.787164e-02 1.487779e-02 8.113503e-03 -3.766789e-05 1.736979e-03 1.157981e-02 1.464934e-02 -3.581957e-02
<VARIANCE> 25
 4.989493e+01 5.652601e+01 6.142045e+01 5.844002e+01 6.455651e+01 6.011923e+01 5.226233e+01 5.873829e+01 5.416300e+01 4.844956e+01 4.643580e+01 3.710480e+01 1.843309e+00 2.833874e+00 2.686705e+00 3.148343e+00 3.351683e+00 3.383100e+00 3.239964e+00 3.762463e+00 3.406747e+00 3.123043e+00 2.988341e+00 2.397928e+00 2.129240e+00
<GCONST> 1.075018e+02
<STATE> 3
<MEAN> 25
 8.537804e-01 -1.355334e-01 5.692278e-01 3.804398e-01 -3.467370e-01 -2.266640e-01 -1.280772e-01 -1.803084e-01 -2.836990e-01 -2.884589e-01 -5.916395e-01 -3.779962e-01 -4.048474e-02 1.211375e-02 -1.173987e-02 3.899159e-03 2.258966e-02 2.096654e-02 1.768084e-02 1.030419e-02 1.247165e-03 4.290342e-03 1.891256e-02 1.994147e-02 -4.181337e-02
<VARIANCE> 25
 5.008981e+01 5.643106e+01 6.129412e+01 5.843830e+01 6.476258e+01 6.022785e+01 5.239269e+01 5.856126e+01 5.403876e+01 4.837251e+01 4.641429e+01 3.710208e+01 1.836715e+00 2.810846e+00 2.665876e+00 3.124427e+00 3.343254e+00 3.369026e+00 3.234014e+00 3.734243e+00 3.391902e+00 3.107312e+00 2.977328e+00 2.394176e+00 2.101560e+00
<GCONST> 1.074310e+02
<STATE> 4
<MEAN> 25
 7.552950e-01 -1.055700e-01 5.082730e-01 3.707281e-01 -2.754909e-01 -1.867650e-01 -8.920281e-02 -1.751680e-01 -3.086410e-01 -2.733566e-01 -4.979637e-01 -3.415233e-01 -4.544918e-02 9.530433e-03 -1.689290e-02 4.187783e-03 2.328356e-02 2.281847e-02 1.748853e-02 1.067487e-02 2.394817e-03 5.917853e-03 2.346817e-02 2.251529e-02 -4.717395e-02
<VARIANCE> 25
 5.157588e+01 5.693488e+01 6.121281e+01 5.917774e+01 6.555490e+01 6.044913e+01 5.242058e+01 5.805465e+01 5.390147e+01 4.858575e+01 4.646633e+01 3.713529e+01 1.789456e+00 2.736044e+00 2.605791e+00 3.058776e+00 3.293495e+00 3.324774e+00 3.172847e+00 3.625968e+00 3.335110e+00 3.052474e+00 2.925785e+00 2.362775e+00 2.042303e+00
<GCONST> 1.072242e+02
<TRANSP> 5
 0.000000e+00 1.000000e+00 0.000000e+00 0.000000e+00 0.000000e+00
 0.000000e+00 6.177642e-01 3.822358e-01 0.000000e+00 0.000000e+00
 0.000000e+00 0.000000e+00 6.177624e-01 3.822376e-01 0.000000e+00
 0.000000e+00 0.000000e+00 0.000000e+00 7.353527e-01 2.646473e-01
 0.000000e+00 0.000000e+00 0.000000e+00 0.000000e+00 0.000000e+00
<ENDHMM>
~h "o"
<BEGINHMM>
<NUMSTATES> 5
<STATE> 2
<MEAN> 25
 6.100225e-01 3.482527e-01 -1.454442e+00 -1.495507e+00 2.126228e-01 1.121679e+00 2.032454e-02 -1.230587e-01 2.945558e-01 4.050489e-01 2.947365e-01 -4.292614e-02 4.420839e-02 -1.700655e-02 1.671672e-02 -2.487802e-02 -1.112022e-02 -1.603001e-02 -2.612053e-03 -2.645543e-03 -1.856426e-02 -5.388549e-03 2.492384e-03 -1.491961e-02 6.895848e-02
<VARIANCE> 25
 6.773612e+01 4.780040e+01 5.648137e+01 7.305302e+01 6.621702e+01 6.747919e+01 5.171243e+01 5.380524e+01 5.144186e+01 5.207043e+01 4.231026e+01 3.591380e+01 2.116140e+00 2.307482e+00 2.428641e+00 3.503696e+00 3.268965e+00 3.349387e+00 3.096542e+00 3.168350e+00 3.135770e+00 3.037874e+00 2.739603e+00 2.311046e+00 2.170527e+00
<GCONST> 1.071879e+02
<STATE> 3
<MEAN> 25
 7.250588e-01 3.127692e-01 -1.405810e+00 -1.543246e+00 1.923337e-01 1.075587e+00 2.431306e-02 -1.292830e-01 2.309842e-01 3.882487e-01 3.013974e-01 -7.878374e-02 2.919929e-02 -1.452884e-02 2.657461e-02 -8.090683e-05 -7.597423e-03 -2.373981e-02 3.495586e-03 3.219080e-03 -1.829286e-02 -8.297885e-03 -2.870153e-04 -1.137451e-02 5.015724e-02
<VARIANCE> 25
 6.651360e+01 4.792979e+01 5.705133e+01 7.261831e+01 6.610889e+01 6.789707e+01 5.171934e+01 5.410764e+01 5.133697e+01 5.216572e+01 4.251130e+01 3.590748e+01 2.113144e+00 2.314914e+00 2.459694e+00 3.445533e+00 3.270866e+00 3.358672e+00 3.094483e+00 3.175064e+00 3.132818e+00 3.051987e+00 2.745670e+00 2.313689e+00 2.129244e+00
<GCONST> 1.071815e+02
<STATE> 4
<MEAN> 25
 8.200412e-01 2.895495e-01 -1.142521e+00 -1.457628e+00 4.011676e-02 9.224637e-01 -5.127052e-02 -1.169019e-01 1.580188e-01 3.403727e-01 2.914546e-01 -1.336130e-01 1.191362e-02 -1.245157e-02 3.286279e-02 2.041034e-02 -8.507208e-03 -2.975173e-02 6.919842e-03 7.468957e-03 -1.675639e-02 -9.828999e-03 8.946173e-05 -7.911423e-03 2.760139e-02
<VARIANCE> 25
 6.443567e+01 4.856084e+01 5.878977e+01 7.334638e+01 6.682664e+01 6.884930e+01 5.122900e+01 5.424109e+01 5.156017e+01 5.203407e+01 4.214212e+01 3.623666e+01 2.020128e+00 2.239371e+00 2.459947e+00 3.277348e+00 3.229665e+00 3.334956e+00 2.994414e+00 3.165982e+00 3.097140e+00 3.011896e+00 2.707662e+00 2.272723e+00 2.033267e+00
<GCONST> 1.069364e+02
<TRANSP> 5
 0.000000e+00 1.000000e+00 0.000000e+00 0.000000e+00 0.000000e+00
 0.000000e+00 6.343964e-01 3.656036e-01 0.000000e+00 0.000000e+00
 0.000000e+00 0.000000e+00 6.343970e-01 3.656030e-01 0.000000e+00
 0.000000e+00 0.000000e+00 0.000000e+00 7.684074e-01 2.315926e-01
 0.000000e+00 0.000000e+00 0.000000e+00 0.000000e+00 0.000000e+00
<ENDHMM>
~h "p"
<BEGINHMM>
<NUMSTATES> 5
<STATE> 2
<MEAN> 25
 6.888240e-01 -3.500818e-01 -1.079322e+00 -4.204540e-01 8.607888e-02 3.067152e-01 -2.765914e-02 -1.936818e-01 2.355912e-01 1.895011e-01 2.054636e-01 -2.763925e-01 1.002955e-02 -4.439855e-04 2.774251e-02 -8.202099e-03 -2.396149e-02 -1.856655e-02 -2.700198e-03 -1.320457e-02 -1.497675e-02 -2.691113e-03 -8.563619e-03 -4.572226e-03 2.921846e-02
<VARIANCE> 25
 5.684345e+01 5.487181e+01 6.387938e+01 6.011439e+01 6.339806e+01 6.223550e+01 5.091418e+01 5.526313e+01 5.287461e+01 4.850625e+01 4.449746e+01 3.699111e+01 2.455025e+00 2.926210e+00 2.870822e+00 3.405535e+00 3.507140e+00 3.665596e+00 3.336926e+00 3.514476e+00 3.474785e+00 3.252153e+00 3.093528e+00 2.550257e+00 2.910837e+00
<GCONST> 1.085502e+02
<STATE> 3
<MEAN> 25
 7.014037e-01 -3.498272e-01 -1.005090e+00 -4.350408e-01 2.082232e-02 2.609170e-01 -3.137419e-02 -2.238265e-01 1.960062e-01 1.757177e-01 1.825624e-01 -2.823822e-01 1.035423e-03 3.863751e-03 3.377297e-02 -4.410916e-03 -2.650123e-02 -1.947484e-02 -2.605331e-05 -1.166548e-02 -1.818617e-02 -5.859515e-03 -9.399033e-03 -6.801066e-04 2.243505e-02
<VARIANCE> 25
 5.629416e+01 5.487381e+01 6.459293e+01 5.989661e+01 6.347665e+01 6.234846e+01 5.099274e+01 5.557579e+01 5.322359e+01 4.847991e+01 4.438245e+01 3.696334e+01 2.452615e+00 2.922210e+00 2.890419e+00 3.406797e+00 3.520062e+00 3.668540e+00 3.337025e+00 3.531024e+00 3.486227e+00 3.265528e+00 3.092489e+00 2.554286e+00 2.866915e+00
<GCONST> 1.085684e+02
<STATE> 4
<MEAN> 25
 7.310966e-01 -3.624673e-01 -8.985439e-01 -4.278891e-01 -7.282902e-02 1.856510e-01 -5.248254e-02 -2.480343e-01 1.326316e-01 1.014057e-01 1.280658e-01 -2.890899e-01 -9.414409e-03 6.531469e-03 3.472016e-02 1.197568e-03 -2.288294e-02 -1.639836e-02 3.423178e-03 -6.781634e-03 -1.643891e-02 -8.430451e-03 -8.655666e-03 3.319098e-03 9.745249e-03
<VARIANCE> 25
 5.703548e+01 5.546093e+01 6.515971e+01 5.997870e+01 6.406451e+01 6.235233e+01 5.095335e+01 5.597196e+01 5.331232e+01 4.884711e+01 4.420837e+01 3.678225e+01 2.380349e+00 2.863273e+00 2.846076e+00 3.339237e+00 3.455615e+00 3.605554e+00 3.270460e+00 3.481253e+00 3.434869e+00 3.232559e+00 3.044914e+00 2.514406e+00 2.741363e+00
<GCONST> 1.083613e+02
<TRANSP> 5
 0.000000e+00 1.000000e+00 0.000000e+00 0.000000e+00 0.000000e+00
 0.000000e+00 6.210158e-01 3.789842e-01 0.000000e+00 0.000000e+00
 0.000000e+00 0.000000e+00 6.210186e-01 3.789815e-01 0.000000e+00
 0.000000e+00 0.000000e+00 0.000000e+00 7.365435e-01 2.634564e-01
 0.000000e+00 0.000000e+00 0.000000e+00 0.000000e+00 0.000000e+00
<ENDHMM>
~h "r"
<BEGINHMM>
<NUMSTATES> 5
<STATE> 2
<MEAN> 25
 9.327754e-01 -8.610611e-01 -1.358030e-01 8.852467e-02 -5.476328e-01 -7.932675e-01 -3.775394e-01 2.106415e-02 3.054190e-01 6.032005e-02 -1.054283e-01 -2.825564e-01 -7.520572e-03 7.491156e-03 1.644916e-02 -4.138251e-03 7.235357e-03 8.691339e-03 1.528213e-02 7.459003e-03 -1.610312e-02 -1.066913e-02 -5.975072e-03 2.036354e-03 -1.167906e-02
<VARIANCE> 25
 5.171950e+01 5.444581e+01 6.246279e+01 5.506751e+01 6.312221e+01 6.206576e+01 5.215361e+01 5.763169e+01 5.705502e+01 4.857947e+01 4.513250e+01 3.685679e+01 2.112897e+00 2.815579e+00 2.688143e+00 3.145953e+00 3.480554e+00 3.495779e+00 3.255811e+00 3.636467e+00 3.607358e+00 3.135944e+00 3.052852e+00 2.497312e+00 2.257252e+00
<GCONST> 1.078182e+02
<STATE> 3
<MEAN> 25
 9.091157e-01 -8.357497e-01 -9.956963e-02 7.673678e-02 -5.247380e-01 -7.606331e-01 -3.396409e-01 3.721093e-02 2.660809e-01 3.333268e-02 -1.187552e-01 -2.784508e-01 -1.222542e-02 1.461874e-02 1.429377e-02 -4.642598e-03 1.214126e-02 1.703438e-02 1.662861e-02 5.569278e-03 -1.759089e-02 -1.265476e-02 -3.093664e-03 3.700553e-03 -2.173720e-02
<VARIANCE> 25
 5.164271e+01 5.443672e+01 6.250375e+01 5.528035e+01 6.323730e+01 6.215876e+01 5.217029e+01 5.751171e+01 5.696539e+01 4.857196e+01 4.504999e+01 3.671453e+01 2.098530e+00 2.809184e+00 2.678486e+00 3.130377e+00 3.462894e+00 3.479348e+00 3.246797e+00 3.611158e+00 3.586087e+00 3.125066e+00 3.034151e+00 2.484224e+00 2.236392e+00
<GCONST> 1.077479e+02
<STATE> 4
<MEAN> 25
 8.805422e-01 -7.453633e-01 -4.119908e-02 3.153128e-02 -5.117689e-01 -6.389840e-01 -3.366314e-01 1.731914e-02 2.039471e-01 -8.289475e-03 -1.161022e-01 -2.762347e-01 -1.551544e-02 1.933302e-02 8.784490e-03 -3.583609e-03 1.486518e-02 2.270387e-02 1.550635e-02 3.685649e-03 -1.523582e-02 -1.230314e-02 -4.561321e-04 4.866300e-03 -2.963876e-02
<VARIANCE> 25
 5.163648e+01 5.507775e+01 6.240349e+01 5.728276e+01 6.348713e+01 6.315736e+01 5.181204e+01 5.714034e+01 5.702563e+01 4.877819e+01 4.468636e+01 3.678222e+01 2.015993e+00 2.727431e+00 2.632379e+00 3.080768e+00 3.395799e+00 3.440845e+00 3.178250e+00 3.553788e+00 3.513223e+00 3.086009e+00 2.973039e+00 2.430673e+00 2.190556e+00
<GCONST> 1.075320e+02
<TRANSP> 5
 0.000000e+00 1.000000e+00 0.000000e+00 0.000000e+00 0.000000e+00
 0.000000e+00 6.146610e-01 3.853390e-01 0.000000e+00 0.000000e+00
 0.000000e+00 0.000000e+00 6.146594e-01 3.853406e-01 0.000000e+00
 0.000000e+00 0.000000e+00 0.000000e+00 7.393848e-01 2.606153e-01
 0.000000e+00 0.000000e+00 0.000000e+00 0.000000e+00 0.000000e+00
<ENDHMM>
~h "s"
<BEGINHMM>
<NUMSTATES> 5
<STATE> 2
<MEAN> 25
 -1.457761e+00 4.998116e-01 1.398041e-01 2.648360e-01 3.037986e-01 -9.591218e-01 4.825103e-01 7.154754e-02 1.968690e-01 -2.840031e-01 6.518827e-02 2.597121e-01 1.672439e-02 -7.737990e-03 1.372000e-02 -9.382544e-03 -7.811683e-03 1.692198e-04 3.790378e-03 -4.790506e-03 -1.109432e-02 8.623789e-04 2.183489e-03 -1.114731e-03 3.028671e-03
<VARIANCE> 25
 7.958696e+01 6.180280e+01 6.962820e+01 5.916751e+01 7.043425e+01 6.813463e+01 5.789343e+01 5.874947e+01 5.434414e+01 4.635293e+01 4.459964e+01 3.715551e+01 3.452143e+00 3.046255e+00 3.002860e+00 3.107247e+00 3.633150e+00 3.575254e+00 3.493957e+00 3.552785e+00 3.391056e+00 3.065568e+00 2.973557e+00 2.435122e+00 2.021298e+00
<GCONST> 1.093178e+02
<STATE> 3
<MEAN> 25
 -1.387829e+00 4.692055e-01 1.759045e-01 2.365598e-01 2.814526e-01 -9.457006e-01 4.753639e-01 5.588045e-02 1.681633e-01 -2.808016e-01 6.652065e-02 2.532487e-01 4.032585e-02 -1.656842e-02 1.322112e-02 -1.091594e-02 -1.313647e-02 8.788699e-03 -5.324797e-03 -7.993403e-03 -1.238563e-02 3.159511e-03 1.879818e-03 -3.609030e-03 -4.775858e-03
<VARIANCE> 25
 7.865480e+01 6.146358e+01 6.944280e+01 5.901399e+01 7.048293e+01 6.798534e+01 5.769174e+01 5.877800e+01 5.416173e+01 4.618215e+01 4.448420e+01 3.700828e+01 3.411411e+00 3.028312e+00 3.001107e+00 3.107370e+00 3.633028e+00 3.572435e+00 3.485313e+00 3.549320e+00 3.394606e+00 3.060883e+00 2.960264e+00 2.424104e+00 2.026980e+00
<GCONST> 1.092478e+02
<STATE> 4
<MEAN> 25
 -1.077981e+00 3.330860e-01 1.822257e-01 1.565480e-01 2.068745e-01 -8.539612e-01 3.742004e-01 -1.535953e-02 1.157534e-01 -2.494962e-01 5.294110e-02 1.890827e-01 5.274163e-02 -2.045662e-02 8.904305e-03 -1.013529e-02 -1.250855e-02 1.758881e-02 -1.274804e-02 -7.386715e-03 -1.156271e-02 5.936474e-03 -4.081090e-04 -5.128492e-03 -1.478463e-02
<VARIANCE> 25
 7.511336e+01 6.127825e+01 6.922684e+01 6.043377e+01 7.006508e+01 6.808740e+01 5.686560e+01 5.823363e+01 5.428983e+01 4.623556e+01 4.432463e+01 3.693336e+01 3.164494e+00 2.928066e+00 2.944522e+00 3.091777e+00 3.545968e+00 3.523113e+00 3.384640e+00 3.496419e+00 3.359377e+00 3.028563e+00 2.912290e+00 2.373989e+00 2.012842e+00
<GCONST> 1.089085e+02
<TRANSP> 5
 0.000000e+00 1.000000e+00 0.000000e+00 0.000000e+00 0.000000e+00
 0.000000e+00 6.185646e-01 3.814354e-01 0.000000e+00 0.000000e+00
 0.000000e+00 0.000000e+00 6.185682e-01 3.814318e-01 0.000000e+00
 0.000000e+00 0.000000e+00 0.000000e+00 7.420465e-01 2.579535e-01
 0.000000e+00 0.000000e+00 0.000000e+00 0.000000e+00 0.000000e+00
<ENDHMM>
~h "t"
<BEGINHMM>
<NUMSTATES> 5
<STATE> 2
<MEAN> 25
 1.440321e-01 1.898909e-02 -1.129061e-01 -2.533722e-01 -2.310938e-01 -2.548637e-01 -2.771381e-01 -1.170941e-01 1.346339e-01 9.293549e-02 1.044534e-01 4.137050e-02 2.446838e-02 -1.092705e-02 -3.677527e-04 -1.122584e-02 -2.839759e-03 -3.314996e-03 -1.347592e-02 -1.931767e-03 -8.602766e-03 -2.101236e-03 -7.861010e-04 -5.786025e-03 3.392140e-02
<VARIANCE> 25
 5.335643e+01 5.076404e+01 6.229307e+01 5.915732e+01 6.157059e+01 6.314175e+01 5.291682e+01 5.564437e+01 5.580288e+01 4.652227e+01 4.477306e+01 3.684039e+01 2.237535e+00 2.716918e+00 2.755826e+00 3.272347e+00 3.479465e+00 3.761582e+00 3.467273e+00 3.547775e+00 3.593958e+00 3.169269e+00 3.053110e+00 2.513352e+00 3.025241e+00
<GCONST> 1.082494e+02
<STATE> 3
<MEAN> 25
 1.988317e-01 2.487441e-03 -1.169885e-01 -2.733599e-01 -2.338959e-01 -2.584886e-01 -3.052701e-01 -1.314711e-01 1.075317e-01 8.156160e-02 1.001921e-01 2.892750e-02 2.051609e-02 -8.645019e-03 -1.982929e-03 -4.564007e-03 3.499680e-04 9.557385e-04 -1.101386e-02 -2.689230e-03 -7.477839e-03 -5.170358e-03 -3.439999e-04 -3.430099e-03 2.258503e-02
<VARIANCE> 25
 5.273381e+01 5.090384e+01 6.237896e+01 5.892016e+01 6.164162e+01 6.304039e+01 5.303579e+01 5.579473e+01 5.573795e+01 4.658592e+01 4.483062e+01 3.689769e+01 2.226388e+00 2.702286e+00 2.742524e+00 3.266702e+00 3.469871e+00 3.743977e+00 3.457228e+00 3.542803e+00 3.584828e+00 3.173523e+00 3.052369e+00 2.502915e+00 2.969553e+00
<GCONST> 1.081924e+02
<STATE> 4
<MEAN> 25
 2.892364e-01 6.738686e-03 -8.479865e-02 -2.514681e-01 -2.512865e-01 -2.524007e-01 -3.352164e-01 -1.424884e-01 7.069343e-02 2.829566e-02 6.420691e-02 3.959250e-02 8.801945e-03 -2.384186e-03 -3.493102e-03 4.697776e-03 7.144487e-03 6.801215e-03 -3.991788e-03 -2.239366e-03 -5.064846e-03 -5.798083e-03 -2.723636e-05 -3.084847e-04 3.075418e-03
<VARIANCE> 25
 5.237702e+01 5.182541e+01 6.257591e+01 6.012999e+01 6.190004e+01 6.332910e+01 5.270882e+01 5.579266e+01 5.603502e+01 4.676196e+01 4.479059e+01 3.684593e+01 2.139998e+00 2.626301e+00 2.697559e+00 3.209515e+00 3.389090e+00 3.656440e+00 3.354711e+00 3.481425e+00 3.523382e+00 3.129944e+00 2.994328e+00 2.436206e+00 2.804581e+00
<GCONST> 1.079048e+02
<TRANSP> 5
 0.000000e+00 1.000000e+00 0.000000e+00 0.000000e+00 0.000000e+00
 0.000000e+00 6.184339e-01 3.815661e-01 0.000000e+00 0.000000e+00
 0.000000e+00 0.000000e+00 6.184269e-01 3.815732e-01 0.000000e+00
 0.000000e+00 0.000000e+00 0.000000e+00 7.406999e-01 2.593001e-01
 0.000000e+00 0.000000e+00 0.000000e+00 0.000000e+00 0.000000e+00
<ENDHMM>
~h "u"
<BEGINHMM>
<NUMSTATES> 5
<STATE> 2
<MEAN> 25
 7.602937e-01 8.763466e-01 -2.462130e-01 -5.831711e-01 9.953459e-02 1.243427e-01 -1.286949e+00 -9.210343e-01 -3.815317e-01 4.489197e-02 3.662401e-01 2.514948e-02 -3.188743e-03 -1.127620e-02 -1.954080e-03 1.282687e-02 3.659304e-03 -3.650803e-03 1.486138e-02 1.858349e-02 1.282404e-02 -1.228743e-03 -8.245721e-03 2.689680e-03 8.891681e-03
<VARIANCE> 25
 5.750304e+01 5.309685e+01 5.912360e+01 6.227159e+01 6.363263e+01 6.184168e+01 5.760404e+01 5.962413e+01 5.591446e+01 5.113958e+01 4.614273e+01 3.724816e+01 2.185596e+00 2.670444e+00 2.658119e+00 3.420695e+00 3.542020e+00 3.552500e+00 3.570477e+00 3.666533e+00 3.596154e+00 3.280974e+00 3.111519e+00 2.502672e+00 2.242952e+00
<GCONST> 1.084132e+02
<STATE> 3
<MEAN> 25
 7.415373e-01 8.383039e-01 -2.528018e-01 -5.415743e-01 1.074057e-01 1.181092e-01 -1.232164e+00 -8.675516e-01 -3.426316e-01 3.875053e-02 3.462183e-01 3.168169e-02 -1.066282e-02 -1.823785e-02 -1.002481e-03 1.817503e-02 3.844794e-03 -4.775434e-03 2.313626e-02 2.466656e-02 1.665681e-02 -1.888554e-03 -1.055520e-02 2.326583e-03 3.615550e-03
<VARIANCE> 25
 5.730001e+01 5.325249e+01 5.889404e+01 6.216802e+01 6.361247e+01 6.201514e+01 5.770540e+01 5.971790e+01 5.579349e+01 5.113605e+01 4.617304e+01 3.730147e+01 2.164984e+00 2.670432e+00 2.645408e+00 3.396106e+00 3.530626e+00 3.549488e+00 3.564283e+00 3.662315e+00 3.584459e+00 3.278338e+00 3.112625e+00 2.500604e+00 2.212754e+00
<GCONST> 1.083662e+02
<STATE> 4
<MEAN> 25
 7.061531e-01 7.351186e-01 -2.347468e-01 -4.801350e-01 7.229623e-02 5.548653e-02 -1.070361e+00 -7.783947e-01 -3.319001e-01 1.564465e-02 3.094678e-01 1.660769e-02 -1.800334e-02 -2.307682e-02 -5.889177e-04 2.038996e-02 3.175609e-03 -3.386149e-03 2.884519e-02 2.796495e-02 1.795233e-02 -3.160023e-03 -9.855996e-03 1.994769e-03 -2.841269e-03
<VARIANCE> 25
 5.754717e+01 5.409058e+01 5.881491e+01 6.297659e+01 6.371177e+01 6.250766e+01 5.726401e+01 5.933550e+01 5.597884e+01 5.131293e+01 4.606511e+01 3.741902e+01 2.081011e+00 2.629357e+00 2.596406e+00 3.308789e+00 3.449823e+00 3.496096e+00 3.464993e+00 3.594586e+00 3.523031e+00 3.231695e+00 3.059069e+00 2.453846e+00 2.156198e+00
<GCONST> 1.081219e+02
<TRANSP> 5
 0.000000e+00 1.000000e+00 0.000000e+00 0.000000e+00 0.000000e+00
 0.000000e+00 6.210151e-01 3.789849e-01 0.000000e+00 0.000000e+00
 0.000000e+00 0.000000e+00 6.210113e-01 3.789888e-01 0.000000e+00
 0.000000e+00 0.000000e+00 0.000000e+00 7.432037e-01 2.567963e-01
 0.000000e+00 0.000000e+00 0.000000e+00 0.000000e+00 0.000000e+00
<ENDHMM>
~h "v"
<BEGINHMM>
<NUMSTATES> 5
<STATE> 2
<MEAN> 25
 -9.702538e-02 -5.154322e-01 6.084248e-01 1.070033e+00 -4.790361e-01 -3.209624e-01 4.677760e-01 -2.978417e-01 -1.972355e-01 2.287833e-01 3.898445e-01 -2.495112e-03 2.531569e-02 2.546807e-02 3.981048e-02 -2.413473e-02 -6.755333e-02 -1.689137e-02 1.314968e-02 -3.380151e-02 -1.277644e-02 1.996580e-02 2.178452e-02 2.888112e-03 2.392929e-02
<VARIANCE> 25
 6.115690e+01 4.420895e+01 5.621191e+01 5.871577e+01 7.466276e+01 6.780447e+01 4.210720e+01 4.622480e+01 5.333955e+01 4.824151e+01 4.293970e+01 2.639545e+01 2.384540e+00 2.095472e+00 2.648049e+00 2.862478e+00 3.549449e+00 3.686404e+00 2.881279e+00 2.993945e+00 3.575363e+00 2.917650e+00 2.794802e+00 1.966800e+00 1.538808e+00
<GCONST> 1.057809e+02
<STATE> 3
<MEAN> 25
 -4.348816e-03 -4.465064e-01 6.708992e-01 9.704564e-01 -6.370724e-01 -3.871915e-01 4.939026e-01 -3.622915e-01 -2.219037e-01 2.516609e-01 4.215510e-01 -3.595499e-03 1.911390e-02 2.769669e-02 3.446633e-02 -3.681949e-02 -5.255263e-02 -1.555239e-02 -2.969309e-04 -3.477812e-02 -1.918882e-02 8.731498e-03 8.403282e-03 1.981882e-03 2.438605e-02
<VARIANCE> 25
 6.189512e+01 4.530829e+01 5.859977e+01 6.000757e+01 7.484542e+01 6.878755e+01 4.224920e+01 4.623159e+01 5.349598e+01 4.894510e+01 4.298989e+01 2.686905e+01 2.437450e+00 2.121602e+00 2.727108e+00 2.843439e+00 3.499493e+00 3.683683e+00 2.833579e+00 2.968960e+00 3.571825e+00 2.935399e+00 2.777340e+00 1.972018e+00 1.571833e+00
<GCONST> 1.059774e+02
<STATE> 4
<MEAN> 25
 3.428379e-01 -3.575306e-01 5.550750e-01 7.331741e-01 -6.438399e-01 -3.691252e-01 5.536599e-01 -4.505978e-01 -1.400083e-01 3.835278e-01 2.626289e-01 -1.452861e-01 1.861284e-02 3.171322e-02 1.999832e-02 -3.756191e-02 -3.258821e-02 -1.836775e-02 2.775729e-03 -2.786222e-02 -1.282470e-02 -2.674755e-03 -7.761429e-03 -5.385312e-03 2.980798e-02
<VARIANCE> 25
 6.371117e+01 4.685840e+01 6.357689e+01 6.302783e+01 7.387647e+01 7.072202e+01 4.309726e+01 4.592598e+01 5.468951e+01 5.018782e+01 4.395546e+01 2.886237e+01 2.467057e+00 2.123740e+00 2.850258e+00 2.879289e+00 3.380641e+00 3.626632e+00 2.799304e+00 2.895886e+00 3.508338e+00 2.926559e+00 2.797767e+00 2.031345e+00 1.663178e+00
<GCONST> 1.063945e+02
<TRANSP> 5
 0.000000e+00 1.000000e+00 0.000000e+00 0.000000e+00 0.000000e+00
 0.000000e+00 6.507396e-01 3.492604e-01 0.000000e+00 0.000000e+00
 0.000000e+00 0.000000e+00 6.507398e-01 3.492602e-01 0.000000e+00
 0.000000e+00 0.000000e+00 0.000000e+00 7.701162e-01 2.298838e-01
 0.000000e+00 0.000000e+00 0.000000e+00 0.000000e+00 0.000000e+00
<ENDHMM>
~h "w"
<BEGINHMM>
<NUMSTATES> 5
<STATE> 2
<MEAN> 25
 1.359586e+00 6.999632e-01 -1.129098e+00 -1.475615e+00 1.124274e-01 6.944240e-01 -9.577628e-01 -5.081095e-01 -1.870614e-02 3.445965e-01 3.963895e-01 -2.131605e-01 5.286148e-02 -4.052858e-02 -4.093764e-03 -2.721328e-02 -8.469138e-04 -2.655484e-02 -8.293108e-03 2.821644e-03 1.484242e-02 -1.352337e-04 -3.230881e-03 -2.549550e-02 8.887191e-02
<VARIANCE> 25
 7.723980e+01 5.564878e+01 5.980931e+01 7.236856e+01 6.700195e+01 7.057009e+01 5.841809e+01 5.764004e+01 5.431365e+01 5.386454e+01 4.783875e+01 3.968551e+01 2.041989e+00 2.724329e+00 2.521386e+00 3.257847e+00 3.411566e+00 3.577873e+00 3.341450e+00 3.323395e+00 3.324256e+00 3.161451e+00 2.985440e+00 2.559700e+00 2.013279e+00
<GCONST> 1.086161e+02
<STATE> 3
<MEAN> 25
 1.510666e+00 5.876303e-01 -1.132288e+00 -1.535780e+00 1.095083e-01 6.035420e-01 -9.707703e-01 -4.997417e-01 1.901561e-02 3.190880e-01 3.591225e-01 -2.950586e-01 4.297563e-02 -4.119886e-02 7.533284e-04 -1.004219e-02 1.310643e-03 -3.593910e-02 1.241845e-03 8.643701e-03 1.428374e-02 -1.061759e-02 -1.234602e-02 -2.347877e-02 7.788365e-02
<VARIANCE> 25
 7.573810e+01 5.626055e+01 6.037615e+01 7.204499e+01 6.693584e+01 7.120487e+01 5.913641e+01 5.848490e+01 5.463100e+01 5.395794e+01 4.825483e+01 4.016905e+01 2.065263e+00 2.751934e+00 2.554589e+00 3.270703e+00 3.431179e+00 3.616781e+00 3.378019e+00 3.353991e+00 3.363716e+00 3.182014e+00 2.999089e+00 2.574979e+00 2.007493e+00
<GCONST> 1.087764e+02
<STATE> 4
<MEAN> 25
 1.839466e+00 4.307823e-01 -1.071686e+00 -1.523897e+00 4.984619e-02 3.531739e-01 -9.417060e-01 -4.819626e-01 -7.488634e-03 2.030991e-01 2.662210e-01 -4.104487e-01 3.033501e-02 -3.958438e-02 5.151026e-03 6.396034e-03 4.814874e-03 -3.347381e-02 9.095904e-03 1.407368e-02 6.553291e-03 -1.693508e-02 -1.655680e-02 -1.818276e-02 5.901930e-02
<VARIANCE> 25
 7.576692e+01 5.843512e+01 6.168104e+01 7.242880e+01 6.798842e+01 7.229819e+01 5.924222e+01 5.980985e+01 5.494733e+01 5.505554e+01 4.898972e+01 4.072594e+01 2.067843e+00 2.798598e+00 2.582644e+00 3.231965e+00 3.423445e+00 3.632338e+00 3.339647e+00 3.335620e+00 3.339771e+00 3.171803e+00 2.978873e+00 2.556849e+00 1.990078e+00
<GCONST> 1.089205e+02
<TRANSP> 5
 0.000000e+00 1.000000e+00 0.000000e+00 0.000000e+00 0.000000e+00
 0.000000e+00 6.263236e-01 3.736764e-01 0.000000e+00 0.000000e+00
 0.000000e+00 0.000000e+00 6.263234e-01 3.736767e-01 0.000000e+00
 0.000000e+00 0.000000e+00 0.000000e+00 7.428843e-01 2.571156e-01
 0.000000e+00 0.000000e+00 0.000000e+00 0.000000e+00 0.000000e+00
<ENDHMM>
~h "y"
<BEGINHMM>
<NUMSTATES> 5
<STATE> 2
<MEAN> 25
 -4.832181e-01 -3.433399e-01 1.736098e+00 -6.076850e-01 -1.427153e+00 -7.501875e-01 4.605884e-01 6.885214e-01 -3.557591e-01 1.038533e-01 9.159637e-02 1.914062e-01 3.011085e-02 -2.108812e-02 -1.741619e-02 -1.381045e-02 1.957310e-02 9.101448e-03 -4.135775e-03 1.700660e-02 2.011616e-02 -1.780376e-02 -3.162234e-02 -9.820826e-03 3.707170e-02
<VARIANCE> 25
 5.655091e+01 5.382137e+01 7.317630e+01 6.235072e+01 7.656374e+01 5.955183e+01 5.359095e+01 5.762099e+01 5.277588e+01 4.834371e+01 4.682549e+01 3.561392e+01 1.674160e+00 2.377774e+00 2.997369e+00 2.901657e+00 3.610405e+00 3.047565e+00 3.102090e+00 3.423541e+00 3.129898e+00 2.932232e+00 2.856645e+00 2.245046e+00 2.038238e+00
<GCONST> 1.072098e+02
<STATE> 3
<MEAN> 25
 -4.008607e-01 -4.236990e-01 1.658468e+00 -6.252896e-01 -1.354282e+00 -7.271250e-01 4.567645e-01 7.413636e-01 -3.062125e-01 5.236339e-02 1.572818e-02 1.673825e-01 2.693583e-02 -2.139008e-02 -4.004385e-02 -1.554152e-03 3.864209e-02 1.578380e-02 -3.975185e-03 1.503464e-02 2.381762e-02 -1.404126e-02 -2.718467e-02 -7.830037e-03 1.896440e-02
<VARIANCE> 25
 5.558953e+01 5.391755e+01 7.289750e+01 6.214371e+01 7.606770e+01 5.941887e+01 5.362082e+01 5.741844e+01 5.268550e+01 4.852929e+01 4.707747e+01 3.560001e+01 1.667232e+00 2.380005e+00 2.969254e+00 2.886339e+00 3.592150e+00 3.037266e+00 3.105004e+00 3.422506e+00 3.128919e+00 2.922552e+00 2.855849e+00 2.254048e+00 2.024839e+00
<GCONST> 1.071505e+02
<STATE> 4
<MEAN> 25
 -3.237541e-01 -5.378741e-01 1.432682e+00 -5.999666e-01 -1.033176e+00 -6.616741e-01 4.704074e-01 7.558990e-01 -2.069318e-01 7.235479e-02 -1.238901e-01 1.695774e-01 2.012302e-02 -1.937635e-02 -5.768782e-02 1.833496e-02 5.720146e-02 2.165800e-02 -1.860632e-03 1.158914e-02 2.179462e-02 -1.013018e-02 -1.768759e-02 -4.589031e-03 -3.962417e-03
<VARIANCE> 25
 5.518946e+01 5.469908e+01 7.135551e+01 6.261957e+01 7.438421e+01 5.973676e+01 5.307212e+01 5.699267e+01 5.254463e+01 4.851377e+01 4.694244e+01 3.525907e+01 1.600428e+00 2.297846e+00 2.806270e+00 2.783201e+00 3.404983e+00 2.967865e+00 3.011206e+00 3.319122e+00 3.062455e+00 2.846431e+00 2.765550e+00 2.210769e+00 1.924657e+00
<GCONST> 1.066367e+02
<TRANSP> 5
 0.000000e+00 1.000000e+00 0.000000e+00 0.000000e+00 0.000000e+00
 0.000000e+00 6.257026e-01 3.742974e-01 0.000000e+00 0.000000e+00
 0.000000e+00 0.000000e+00 6.257070e-01 3.742929e-01 0.000000e+00
 0.000000e+00 0.000000e+00 0.000000e+00 7.524853e-01 2.475147e-01
 0.000000e+00 0.000000e+00 0.000000e+00 0.000000e+00 0.000000e+00
<ENDHMM>
~h "z"
<BEGINHMM>
<NUMSTATES> 5
<STATE> 2
<MEAN> 25
 5.054246e-01 1.661060e-01 1.307793e+00 1.128911e+00 -1.961118e-01 9.318247e-01 5.244428e-01 -1.443994e+00 -7.920946e-01 -1.807346e+00 -1.528303e-01 -8.086733e-01 5.754237e-02 -6.724188e-02 -5.510085e-02 -4.621181e-02 8.541406e-02 5.866882e-02 -1.163109e-02 2.498110e-02 -3.610920e-04 -3.574665e-02 -3.662398e-02 -1.803217e-02 -7.702702e-03
<VARIANCE> 25
 5.056583e+01 6.896072e+01 1.015038e+02 1.055123e+02 8.389199e+01 8.399310e+01 6.229893e+01 7.252953e+01 6.509389e+01 7.416991e+01 4.893199e+01 4.631575e+01 1.692893e+00 2.474143e+00 2.928740e+00 3.643087e+00 3.397063e+00 3.879286e+00 3.175790e+00 3.303449e+00 3.129318e+00 3.947841e+00 2.607122e+00 2.571375e+00 1.837442e+00
<GCONST> 1.106208e+02
<STATE> 3
<MEAN> 25
 6.655865e-01 2.481582e-02 1.159143e+00 1.052629e+00 4.085088e-02 1.098347e+00 4.822707e-01 -1.328710e+00 -7.999968e-01 -1.936370e+00 -2.596289e-01 -7.999501e-01 6.144198e-02 -4.704845e-02 -6.563207e-02 -4.736161e-02 8.664019e-02 7.408725e-02 -1.846614e-02 4.738761e-02 8.184310e-03 -4.002295e-02 -4.199078e-02 4.068166e-03 -2.573623e-02
<VARIANCE> 25
 4.935396e+01 6.726636e+01 1.009065e+02 1.052058e+02 8.295832e+01 8.328574e+01 6.185415e+01 7.335999e+01 6.326348e+01 7.407178e+01 4.774639e+01 4.525745e+01 1.609167e+00 2.384535e+00 2.893559e+00 3.543611e+00 3.341904e+00 3.878206e+00 3.197408e+00 3.313122e+00 3.097490e+00 3.918011e+00 2.579137e+00 2.553019e+00 1.846012e+00
<GCONST> 1.103045e+02
<STATE> 4
<MEAN> 25
 8.038449e-01 -2.421417e-01 6.936766e-01 1.222473e+00 4.638189e-01 1.336465e+00 3.868866e-01 -7.403618e-01 -5.974877e-01 -2.348670e+00 -4.478610e-01 -4.384821e-01 5.095143e-02 5.076207e-03 -6.457121e-02 -2.221685e-02 6.518450e-02 7.168810e-02 -1.938021e-02 5.517370e-02 1.340530e-02 -3.013089e-02 -4.598690e-02 1.826911e-02 -5.033753e-02
<VARIANCE> 25
 4.358716e+01 6.268995e+01 9.300533e+01 9.653692e+01 7.304314e+01 7.390679e+01 5.662455e+01 7.145506e+01 5.824633e+01 6.974933e+01 4.347606e+01 4.142125e+01 1.358348e+00 2.087118e+00 2.687785e+00 3.215472e+00 2.994210e+00 3.640931e+00 3.065544e+00 3.221404e+00 2.848103e+00 3.666215e+00 2.501150e+00 2.397707e+00 1.660341e+00
<GCONST> 1.081892e+02
<TRANSP> 5
 0.000000e+00 1.000000e+00 0.000000e+00 0.000000e+00 0.000000e+00
 0.000000e+00 6.677557e-01 3.322443e-01 0.000000e+00 0.000000e+00
 0.000000e+00 0.000000e+00 6.677558e-01 3.322442e-01 0.000000e+00
 0.000000e+00 0.000000e+00 0.000000e+00 8.049401e-01 1.950599e-01
 0.000000e+00 0.000000e+00 0.000000e+00 0.000000e+00 0.000000e+00
<ENDHMM>
~h "ai"
<BEGINHMM>
<NUMSTATES> 5
<STATE> 2
<MEAN> 25
 2.246642e+00 -3.103251e+00 1.417772e+00 -1.702942e+00 -1.611705e+00 1.489496e+00 -7.212769e-01 -8.672615e-01 3.095009e+00 1.099463e+00 -1.191819e+00 -3.526578e+00 -3.750668e-01 1.273280e-01 1.153117e-01 1.212479e-01 2.634678e-01 2.609738e-01 2.858167e-01 -1.572530e-01 -2.512931e-02 1.431081e-01 6.479595e-02 -2.851756e-02 -2.164630e-01
<VARIANCE> 25
 3.809394e+01 3.433685e+01 5.858018e+01 3.785014e+01 5.561732e+01 5.842967e+01 5.722269e+01 9.691545e+01 8.678558e+01 3.936953e+01 4.699359e+01 4.040338e+01 1.453932e+00 1.700252e+00 2.222803e+00 1.989905e+00 2.889992e+00 2.276279e+00 3.553199e+00 2.349278e+00 2.958645e+00 2.804027e+00 2.738332e+00 2.580318e+00 1.573030e+00
<GCONST> 1.041414e+02
<STATE> 3
<MEAN> 25
 1.073575e+00 -2.768359e+00 1.694010e+00 -1.226896e+00 -8.221589e-01 2.112598e+00 1.911025e-01 -1.306426e+00 2.963336e+00 1.469139e+00 -1.034115e+00 -3.555760e+00 -4.280136e-01 1.659141e-01 4.921011e-02 1.621106e-01 2.526086e-01 2.271090e-01 3.709955e-01 -9.290978e-02 -1.484282e-02 1.278539e-01 3.536637e-02 5.112678e-02 -3.249430e-01
<VARIANCE> 25
 4.303091e+01 3.479304e+01 5.486684e+01 4.053611e+01 5.470340e+01 5.180377e+01 6.397288e+01 9.251433e+01 7.630542e+01 3.959404e+01 4.043051e+01 4.148371e+01 1.511564e+00 1.615606e+00 2.045019e+00 1.964391e+00 3.173997e+00 2.277338e+00 3.748364e+00 2.300252e+00 2.778783e+00 2.822360e+00 2.588361e+00 2.616167e+00 1.636788e+00
<GCONST> 1.039197e+02
<STATE> 4
<MEAN> 25
 -5.360705e-01 -2.515351e+00 1.692030e+00 -5.433812e-01 2.781077e-01 2.897524e+00 1.649741e+00 -2.145181e+00 2.690112e+00 1.810463e+00 -1.055156e+00 -3.377527e+00 -4.212767e-01 1.525624e-01 -5.762364e-03 1.705471e-01 2.230342e-01 1.451567e-01 3.925545e-01 3.061308e-02 -5.855174e-02 1.377893e-01 3.747088e-02 1.385294e-01 -3.888509e-01
<VARIANCE> 25
 4.787123e+01 3.451916e+01 4.760448e+01 4.241254e+01 5.193715e+01 4.565105e+01 7.192190e+01 8.031700e+01 6.637406e+01 4.251484e+01 3.556449e+01 4.311461e+01 1.618896e+00 1.379155e+00 1.737077e+00 1.855674e+00 3.158183e+00 2.269564e+00 3.834445e+00 2.308216e+00 2.640548e+00 2.905735e+00 2.457438e+00 2.595515e+00 1.624175e+00
<GCONST> 1.031796e+02
<TRANSP> 5
 0.000000e+00 1.000000e+00 0.000000e+00 0.000000e+00 0.000000e+00
 0.000000e+00 6.489977e-01 3.510024e-01 0.000000e+00 0.000000e+00
 0.000000e+00 0.000000e+00 6.489978e-01 3.510021e-01 0.000000e+00
 0.000000e+00 0.000000e+00 0.000000e+00 7.639766e-01 2.360234e-01
 0.000000e+00 0.000000e+00 0.000000e+00 0.000000e+00 0.000000e+00
<ENDHMM>
~h "au"
<BEGINHMM>
<NUMSTATES> 5
<STATE> 2
<MEAN> 25
 -3.326401e+00 3.031679e+00 -5.126942e-01 6.640325e-01 3.944375e+00 2.422091e+00 4.426422e+00 5.090127e+00 6.689314e-01 -3.949027e-02 6.699055e-01 1.476485e+00 7.273137e-02 -1.403345e-01 -2.404363e-01 -1.861431e-01 -9.440441e-02 1.205488e-02 4.561486e-02 -1.287592e-01 -2.888170e-01 -1.881705e-01 9.822036e-02 1.054467e-02 7.729867e-02
<VARIANCE> 25
 1.123081e+02 6.612289e+01 4.163543e+01 3.630842e+01 5.945765e+01 5.002185e+01 4.955309e+01 3.447169e+01 4.530441e+01 3.763829e+01 3.163048e+01 4.210429e+01 5.379779e+00 3.565515e+00 1.867451e+00 2.507867e+00 2.900125e+00 3.383507e+00 3.085072e+00 2.045507e+00 2.630118e+00 2.074346e+00 1.545429e+00 2.428063e+00 4.370152e+00
<GCONST> 1.053750e+02
<STATE> 3
<MEAN> 25
 -3.266800e+00 2.676282e+00 -1.161903e+00 6.807563e-02 3.657578e+00 2.540069e+00 4.539173e+00 4.640805e+00 -1.574892e-01 -4.820967e-01 9.900783e-01 1.466838e+00 6.575651e-02 -1.865351e-01 -2.521569e-01 -2.213784e-01 -1.739697e-01 -1.202155e-02 -2.856893e-03 -1.647941e-01 -2.457444e-01 -1.328349e-01 7.950851e-02 -1.175556e-02 9.009457e-02
<VARIANCE> 25
 1.132622e+02 6.558437e+01 4.490091e+01 3.279069e+01 5.626357e+01 5.271434e+01 5.117760e+01 3.278574e+01 4.827845e+01 3.533913e+01 3.181936e+01 4.273927e+01 5.530988e+00 3.818952e+00 1.991793e+00 2.562549e+00 2.799100e+00 3.466221e+00 3.298609e+00 2.168813e+00 2.876216e+00 2.153342e+00 1.739685e+00 2.557384e+00 4.529738e+00
<GCONST> 1.059792e+02
<STATE> 4
<MEAN> 25
 -3.320446e+00 2.107899e+00 -1.691973e+00 -5.405904e-01 3.135215e+00 2.719021e+00 4.636199e+00 4.116472e+00 -9.384325e-01 -8.016639e-01 1.319230e+00 1.317091e+00 5.299200e-02 -2.002956e-01 -2.291177e-01 -2.359632e-01 -2.165805e-01 -4.183874e-02 -5.884792e-02 -1.795406e-01 -1.737378e-01 -3.369039e-02 5.722587e-02 -6.046065e-02 8.894575e-02
<VARIANCE> 25
 1.073344e+02 6.314568e+01 4.802246e+01 3.064178e+01 5.132824e+01 5.381220e+01 5.146460e+01 3.181898e+01 5.072206e+01 3.379823e+01 3.276084e+01 4.443364e+01 5.091873e+00 3.837019e+00 2.035904e+00 2.531399e+00 2.593849e+00 3.479482e+00 3.317655e+00 2.329072e+00 3.040257e+00 2.284870e+00 1.936533e+00 2.664775e+00 4.218268e+00
<GCONST> 1.059925e+02
<TRANSP> 5
 0.000000e+00 1.000000e+00 0.000000e+00 0.000000e+00 0.000000e+00
 0.000000e+00 6.382842e-01 3.617158e-01 0.000000e+00 0.000000e+00
 0.000000e+00 0.000000e+00 6.382843e-01 3.617158e-01 0.000000e+00
 0.000000e+00 0.000000e+00 0.000000e+00 7.467115e-01 2.532885e-01
 0.000000e+00 0.000000e+00 0.000000e+00 0.000000e+00 0.000000e+00
<ENDHMM>
~h "aw"
<BEGINHMM>
<NUMSTATES> 5
<STATE> 2
<MEAN> 25
 1.305080e+00 2.831969e-01 -1.378333e+00 -2.298274e+00 1.979582e-01 1.300700e+00 -5.792245e-01 -6.686537e-01 -8.732351e-02 6.811718e-01 1.970015e-01 -3.684720e-01 4.440925e-02 1.446163e-02 2.056264e-02 7.599193e-03 -2.816700e-03 -3.439665e-02 -1.284790e-02 -1.839795e-02 -2.364852e-02 2.259067e-03 2.015770e-02 -1.396291e-02 3.724775e-02
<VARIANCE> 25
 5.567805e+01 4.670514e+01 5.784512e+01 7.276297e+01 6.235884e+01 5.945921e+01 5.200505e+01 5.512996e+01 5.133620e+01 5.244894e+01 4.314542e+01 3.723054e+01 1.803764e+00 2.203269e+00 2.453757e+00 3.540143e+00 3.416928e+00 3.309392e+00 3.325622e+00 3.457097e+00 3.349646e+00 3.236802e+00 2.910044e+00 2.415678e+00 2.115262e+00
<GCONST> 1.071065e+02
<STATE> 3
<MEAN> 25
 1.410650e+00 3.302889e-01 -1.320367e+00 -2.237172e+00 1.758504e-01 1.201004e+00 -5.953990e-01 -7.166067e-01 -1.356762e-01 6.831851e-01 2.427975e-01 -3.964401e-01 3.069991e-02 1.251965e-02 2.709817e-02 3.065627e-02 -5.331947e-03 -4.255813e-02 -1.747026e-03 -1.058531e-02 -1.767689e-02 2.228092e-03 1.635238e-02 -9.394942e-03 2.681106e-02
<VARIANCE> 25
 5.459158e+01 4.656061e+01 5.807110e+01 7.231244e+01 6.230676e+01 5.987119e+01 5.210632e+01 5.559525e+01 5.159924e+01 5.305346e+01 4.316276e+01 3.745008e+01 1.818249e+00 2.240821e+00 2.480748e+00 3.520074e+00 3.411444e+00 3.351525e+00 3.342728e+00 3.510094e+00 3.402614e+00 3.264978e+00 2.925828e+00 2.438706e+00 2.108322e+00
<GCONST> 1.072181e+02
<STATE> 4
<MEAN> 25
 1.494187e+00 4.052337e-01 -1.199662e+00 -1.999989e+00 7.684051e-02 9.992328e-01 -5.587834e-01 -7.509077e-01 -2.019032e-01 5.985029e-01 2.678175e-01 -4.058816e-01 1.655325e-02 5.438754e-03 3.169141e-02 4.753458e-02 -1.418802e-02 -4.569981e-02 7.831682e-03 -1.317129e-03 -9.835747e-03 -4.211525e-03 5.581861e-03 -3.567026e-03 1.578094e-02
<VARIANCE> 25
 5.505240e+01 4.649337e+01 5.750045e+01 7.225137e+01 6.297313e+01 6.090657e+01 5.151173e+01 5.599419e+01 5.188484e+01 5.383890e+01 4.318942e+01 3.774019e+01 1.777088e+00 2.239902e+00 2.450832e+00 3.393484e+00 3.335012e+00 3.339695e+00 3.273278e+00 3.500964e+00 3.383096e+00 3.228968e+00 2.896461e+00 2.442485e+00 2.019477e+00
<GCONST> 1.070761e+02
<TRANSP> 5
 0.000000e+00 1.000000e+00 0.000000e+00 0.000000e+00 0.000000e+00
 0.000000e+00 6.298755e-01 3.701245e-01 0.000000e+00 0.000000e+00
 0.000000e+00 0.000000e+00 6.298755e-01 3.701245e-01 0.000000e+00
 0.000000e+00 0.000000e+00 0.000000e+00 7.461833e-01 2.538167e-01
 0.000000e+00 0.000000e+00 0.000000e+00 0.000000e+00 0.000000e+00
<ENDHMM>
~h "ay"
<BEGINHMM>
<NUMSTATES> 5
<STATE> 2
<MEAN> 25
 2.434368e-01 -7.801499e-01 5.942002e-01 -3.404575e-01 -1.117564e+00 -8.304919e-01 4.973838e-01 4.398213e-01 -2.533246e-01 -7.345662e-02 3.595688e-01 -3.113112e-01 -1.550524e-02 4.222043e-02 -1.608336e-02 1.339459e-02 -2.569907e-02 -4.634826e-03 6.193507e-03 -1.946873e-02 -1.323505e-02 -9.481624e-03 9.238711e-03 2.027698e-02 -4.637157e-02
<VARIANCE> 25
 5.053500e+01 6.075244e+01 6.728044e+01 5.941703e+01 7.073683e+01 6.590340e+01 5.332745e+01 6.017039e+01 5.551772e+01 4.657045e+01 4.720402e+01 3.975079e+01 1.919213e+00 2.752106e+00 2.784577e+00 2.946527e+00 3.509789e+00 3.412036e+00 3.289630e+00 3.811206e+00 3.525933e+00 2.982946e+00 3.102434e+00 2.502833e+00 2.082025e+00
<GCONST> 1.081020e+02
<STATE> 3
<MEAN> 25
 1.941471e-01 -6.251966e-01 5.565802e-01 -2.981223e-01 -1.160010e+00 -8.232836e-01 5.063897e-01 3.788351e-01 -2.859698e-01 -9.929582e-02 3.828332e-01 -2.562492e-01 -2.443150e-02 5.606396e-02 -2.044462e-02 1.692685e-02 -1.257202e-02 7.752474e-04 5.675060e-03 -2.072754e-02 -1.555281e-02 -7.444928e-03 6.382679e-03 2.455721e-02 -6.188274e-02
<VARIANCE> 25
 5.015965e+01 5.995988e+01 6.718490e+01 5.903836e+01 6.998470e+01 6.544273e+01 5.313052e+01 5.973161e+01 5.572795e+01 4.611399e+01 4.683538e+01 3.985466e+01 1.912391e+00 2.729141e+00 2.766268e+00 2.918531e+00 3.486423e+00 3.407607e+00 3.279354e+00 3.770860e+00 3.515928e+00 2.972635e+00 3.094836e+00 2.495115e+00 2.043326e+00
<GCONST> 1.079532e+02
<STATE> 4
<MEAN> 25
 2.168973e-01 -3.724750e-01 4.947688e-01 -2.946336e-01 -1.169085e+00 -6.952035e-01 5.546473e-01 2.769051e-01 -2.651612e-01 -1.395937e-01 3.520603e-01 -1.980964e-01 -2.829239e-02 6.500583e-02 -2.121944e-02 2.086322e-02 4.945827e-03 1.074449e-02 2.619308e-03 -1.731464e-02 -1.261798e-02 -4.680079e-03 3.203010e-03 2.576368e-02 -6.983820e-02
<VARIANCE> 25
 5.019651e+01 5.954722e+01 6.627810e+01 5.921055e+01 6.901515e+01 6.445734e+01 5.257935e+01 5.881715e+01 5.503271e+01 4.541215e+01 4.578772e+01 3.965299e+01 1.869564e+00 2.685976e+00 2.665278e+00 2.857601e+00 3.399040e+00 3.334684e+00 3.214792e+00 3.650510e+00 3.425547e+00 2.919297e+00 3.026846e+00 2.449277e+00 1.963265e+00
<GCONST> 1.075046e+02
<TRANSP> 5
 0.000000e+00 1.000000e+00 0.000000e+00 0.000000e+00 0.000000e+00
 0.000000e+00 6.288468e-01 3.711532e-01 0.000000e+00 0.000000e+00
 0.000000e+00 0.000000e+00 6.288456e-01 3.711543e-01 0.000000e+00
 0.000000e+00 0.000000e+00 0.000000e+00 7.462196e-01 2.537804e-01
 0.000000e+00 0.000000e+00 0.000000e+00 0.000000e+00 0.000000e+00
<ENDHMM>
~h "eu"
<BEGINHMM>
<NUMSTATES> 5
<STATE> 2
<MEAN> 25
 8.109964e-01 -1.013588e-01 -7.189485e-02 1.646657e-01 -2.451099e-01 -7.707665e-01 -5.287921e-01 -3.806461e-01 2.687017e-01 9.144967e-02 -1.430789e-01 -3.847692e-01 4.201644e-02 -1.416911e-02 1.039160e-02 -1.001500e-02 -1.637056e-02 -1.967287e-02 -2.398624e-03 -3.049678e-03 -8.979971e-03 6.623964e-04 -1.046658e-02 -1.578150e-02 3.933321e-02
<VARIANCE> 25
 5.584719e+01 5.663450e+01 6.048963e+01 5.772210e+01 6.140220e+01 6.402616e+01 5.480504e+01 5.852613e+01 5.554718e+01 4.772285e+01 4.507552e+01 3.784035e+01 2.332332e+00 3.065592e+00 2.820376e+00 3.355783e+00 3.528108e+00 3.748800e+00 3.543968e+00 3.802103e+00 3.632069e+00 3.244197e+00 3.154713e+00 2.563793e+00 2.564656e+00
<GCONST> 1.087352e+02
<STATE> 3
<MEAN> 25
 9.046658e-01 -1.357873e-01 -4.877638e-02 1.404769e-01 -2.721788e-01 -8.111892e-01 -5.309215e-01 -3.833406e-01 2.439645e-01 9.352272e-02 -1.673007e-01 -4.222232e-01 3.404239e-02 -1.430776e-02 1.004326e-02 -1.138201e-02 -1.197866e-02 -1.203628e-02 -1.945164e-05 -4.532732e-05 -1.047477e-02 1.369514e-03 -1.020907e-02 -1.537488e-02 2.935021e-02
<VARIANCE> 25
 5.476997e+01 5.673146e+01 6.081213e+01 5.764212e+01 6.139726e+01 6.382151e+01 5.471177e+01 5.856671e+01 5.553645e+01 4.796942e+01 4.523021e+01 3.780022e+01 2.298040e+00 3.055917e+00 2.825496e+00 3.359717e+00 3.511188e+00 3.725641e+00 3.525294e+00 3.796354e+00 3.618881e+00 3.243704e+00 3.158405e+00 2.557749e+00 2.517397e+00
<GCONST> 1.086680e+02
<STATE> 4
<MEAN> 25
 1.028715e+00 -2.057389e-01 1.058721e-02 1.177665e-01 -2.839636e-01 -8.772476e-01 -5.233310e-01 -3.734660e-01 1.672565e-01 7.093492e-02 -2.214536e-01 -4.640722e-01 2.009602e-02 -1.353199e-02 9.179926e-03 -1.052976e-02 -5.917256e-03 -1.739679e-03 3.179194e-03 2.838954e-03 -1.013499e-02 6.948796e-04 -8.090582e-03 -1.222056e-02 1.531770e-02
<VARIANCE> 25
 5.435164e+01 5.757003e+01 6.157643e+01 5.874496e+01 6.183180e+01 6.416347e+01 5.394050e+01 5.839766e+01 5.608156e+01 4.873137e+01 4.536570e+01 3.763480e+01 2.203370e+00 3.000302e+00 2.790711e+00 3.330957e+00 3.437891e+00 3.653736e+00 3.435957e+00 3.720717e+00 3.551924e+00 3.205181e+00 3.111820e+00 2.506027e+00 2.452374e+00
<GCONST> 1.084660e+02
<TRANSP> 5
 0.000000e+00 1.000000e+00 0.000000e+00 0.000000e+00 0.000000e+00
 0.000000e+00 6.150666e-01 3.849335e-01 0.000000e+00 0.000000e+00
 0.000000e+00 0.000000e+00 6.150648e-01 3.849352e-01 0.000000e+00
 0.000000e+00 0.000000e+00 0.000000e+00 7.336103e-01 2.663896e-01
 0.000000e+00 0.000000e+00 0.000000e+00 0.000000e+00 0.000000e+00
<ENDHMM>
~h "kh"
<BEGINHMM>
<NUMSTATES> 5
<STATE> 2
<MEAN> 25
 -4.687462e-02 -1.948929e+00 9.753355e-01 2.430646e-01 -6.202486e-01 -1.514756e+00 7.513647e-01 3.056859e-01 1.693105e-02 1.892090e-01 -1.514637e-01 -5.074643e-01 -2.234527e-03 5.690588e-03 7.119671e-02 2.626139e-02 -2.206860e-02 -3.531769e-02 -5.976240e-02 3.738152e-03 1.156766e-02 4.392222e-02 -9.887683e-03 5.833544e-02 -1.419418e-02
<VARIANCE> 25
 4.852849e+01 5.193097e+01 5.151213e+01 5.487048e+01 6.187825e+01 6.195350e+01 5.154342e+01 5.578918e+01 5.218738e+01 3.967851e+01 3.830440e+01 3.019727e+01 1.895853e+00 2.660383e+00 2.394980e+00 2.724230e+00 3.501830e+00 3.453357e+00 3.183546e+00 3.626099e+00 4.020904e+00 3.096196e+00 3.298164e+00 2.215374e+00 2.278173e+00
<GCONST> 1.063966e+02
<STATE> 3
<MEAN> 25
 -6.338555e-02 -1.942135e+00 1.125615e+00 2.762128e-01 -6.792049e-01 -1.569062e+00 5.911572e-01 3.015221e-01 5.172596e-02 3.087843e-01 -1.925051e-01 -3.649065e-01 -5.094990e-03 1.455773e-02 6.098258e-02 2.621711e-02 -1.500424e-02 -8.432231e-03 -8.142990e-02 -3.821711e-03 1.543423e-02 4.635335e-02 -2.149302e-02 6.768893e-02 -3.850552e-02
<VARIANCE> 25
 4.905940e+01 5.255540e+01 5.077882e+01 5.451492e+01 6.111356e+01 6.134858e+01 5.088819e+01 5.473854e+01 5.122120e+01 3.830277e+01 3.836335e+01 2.997096e+01 1.859022e+00 2.652854e+00 2.356849e+00 2.725786e+00 3.517156e+00 3.474705e+00 3.177536e+00 3.569807e+00 3.961235e+00 3.030009e+00 3.306430e+00 2.208681e+00 2.099785e+00
<GCONST> 1.061211e+02
<STATE> 4
<MEAN> 25
 1.249421e-02 -1.977677e+00 1.333869e+00 1.390841e-01 -6.619154e-01 -1.547643e+00 3.243954e-01 2.821989e-01 -6.576553e-03 4.404135e-01 -3.818347e-01 -2.021650e-01 -6.149170e-04 2.644273e-02 3.143342e-02 2.266621e-02 -1.253667e-02 9.711907e-03 -8.960856e-02 -1.645786e-02 3.528699e-03 3.353098e-02 -2.435143e-02 6.240227e-02 -5.215382e-02
<VARIANCE> 25
 5.050205e+01 5.437441e+01 5.126768e+01 5.489072e+01 6.041951e+01 6.127275e+01 4.870371e+01 5.313600e+01 5.023629e+01 3.640477e+01 4.018336e+01 2.937166e+01 1.836294e+00 2.698115e+00 2.353379e+00 2.770523e+00 3.519656e+00 3.562235e+00 3.098847e+00 3.483569e+00 3.821688e+00 2.952100e+00 3.326506e+00 2.179046e+00 2.066967e+00
<GCONST> 1.059805e+02
<TRANSP> 5
 0.000000e+00 1.000000e+00 0.000000e+00 0.000000e+00 0.000000e+00
 0.000000e+00 6.123444e-01 3.876557e-01 0.000000e+00 0.000000e+00
 0.000000e+00 0.000000e+00 6.123435e-01 3.876565e-01 0.000000e+00
 0.000000e+00 0.000000e+00 0.000000e+00 7.297826e-01 2.702174e-01
 0.000000e+00 0.000000e+00 0.000000e+00 0.000000e+00 0.000000e+00
<ENDHMM>
~h "ng"
<BEGINHMM>
<NUMSTATES> 5
<STATE> 2
<MEAN> 25
 1.281977e+00 -1.336558e-01 1.685268e-02 -4.939663e-01 -2.083163e-01 7.439661e-02 -3.189169e-03 -1.835505e-01 -3.701778e-01 8.687474e-02 -4.705224e-01 -6.365682e-01 -1.954208e-02 1.388234e-02 9.833235e-03 1.966180e-02 -9.712414e-03 -1.468416e-02 1.154987e-03 1.580764e-03 3.128710e-03 1.438939e-03 8.312477e-03 4.326681e-03 -1.547458e-02
<VARIANCE> 25
 5.099931e+01 5.279435e+01 5.750080e+01 5.837056e+01 6.221823e+01 6.224501e+01 5.257722e+01 5.662491e+01 5.488222e+01 4.663852e+01 4.435085e+01 3.788053e+01 1.801878e+00 2.627436e+00 2.605065e+00 3.057796e+00 3.429558e+00 3.389099e+00 3.337551e+00 3.715862e+00 3.436651e+00 3.069836e+00 2.978514e+00 2.446325e+00 2.052904e+00
<GCONST> 1.071606e+02
<STATE> 3
<MEAN> 25
 1.225061e+00 -1.013579e-01 4.194928e-02 -4.396523e-01 -2.364307e-01 3.635880e-02 -1.219105e-03 -1.781515e-01 -3.575613e-01 8.457564e-02 -4.461719e-01 -6.228081e-01 -2.697840e-02 1.361697e-02 7.047743e-03 1.999401e-02 -9.518632e-03 -1.536514e-02 -6.991500e-05 3.610277e-03 7.734606e-03 9.052320e-04 1.323267e-02 6.590540e-03 -2.081248e-02
<VARIANCE> 25
 5.113895e+01 5.274196e+01 5.732465e+01 5.827533e+01 6.251847e+01 6.232168e+01 5.275927e+01 5.670886e+01 5.480543e+01 4.655424e+01 4.442207e+01 3.782418e+01 1.800912e+00 2.621229e+00 2.593174e+00 3.059885e+00 3.427307e+00 3.390287e+00 3.339468e+00 3.701882e+00 3.439500e+00 3.064290e+00 2.975879e+00 2.446322e+00 2.036829e+00
<GCONST> 1.071455e+02
<STATE> 4
<MEAN> 25
 1.080826e+00 -6.139737e-02 1.044172e-01 -3.774334e-01 -2.885837e-01 -7.395855e-02 -8.237268e-02 -1.571465e-01 -3.408090e-01 8.366784e-02 -3.549637e-01 -5.919816e-01 -3.093579e-02 1.015570e-02 2.230649e-03 1.727656e-02 -6.815481e-03 -1.079312e-02 1.507018e-03 3.441222e-03 1.165317e-02 -8.629318e-04 1.548711e-02 9.847361e-03 -2.434077e-02
<VARIANCE> 25
 5.056659e+01 5.403609e+01 5.815548e+01 6.068592e+01 6.299223e+01 6.373775e+01 5.227458e+01 5.638546e+01 5.506167e+01 4.614950e+01 4.419076e+01 3.825661e+01 1.742344e+00 2.548849e+00 2.556266e+00 3.022013e+00 3.377321e+00 3.384447e+00 3.249395e+00 3.625696e+00 3.407038e+00 3.016447e+00 2.926401e+00 2.394169e+00 2.024617e+00
<GCONST> 1.070086e+02
<TRANSP> 5
 0.000000e+00 1.000000e+00 0.000000e+00 0.000000e+00 0.000000e+00
 0.000000e+00 6.123760e-01 3.876240e-01 0.000000e+00 0.000000e+00
 0.000000e+00 0.000000e+00 6.123740e-01 3.876260e-01 0.000000e+00
 0.000000e+00 0.000000e+00 0.000000e+00 7.503035e-01 2.496965e-01
 0.000000e+00 0.000000e+00 0.000000e+00 0.000000e+00 0.000000e+00
<ENDHMM>
~h "ny"
<BEGINHMM>
<NUMSTATES> 5
<STATE> 2
<MEAN> 25
 8.500923e-01 -7.699245e-01 9.539390e-01 -2.847181e-01 -8.613077e-01 -6.161234e-01 3.237723e-01 6.947786e-01 -7.196767e-01 -6.794677e-01 -3.159849e-01 -2.240970e-01 -1.564422e-02 4.362010e-03 -2.029414e-02 2.523869e-02 2.310607e-02 2.473696e-02 1.207365e-03 -5.737646e-03 1.428602e-02 -1.740890e-02 -1.758112e-02 6.871677e-03 -4.561646e-02
<VARIANCE> 25
 5.039601e+01 5.515011e+01 6.303305e+01 5.912832e+01 6.390289e+01 6.046500e+01 5.334861e+01 6.336492e+01 5.595600e+01 4.861368e+01 4.515919e+01 3.482838e+01 1.963843e+00 2.911555e+00 2.855953e+00 3.202129e+00 3.500802e+00 3.562618e+00 3.367551e+00 3.777982e+00 3.446471e+00 3.142097e+00 2.871361e+00 2.319819e+00 2.124285e+00
<GCONST> 1.078102e+02
<STATE> 3
<MEAN> 25
 7.931366e-01 -7.539656e-01 8.987168e-01 -2.214303e-01 -7.978897e-01 -5.461607e-01 3.290223e-01 6.694651e-01 -6.784421e-01 -7.134944e-01 -3.551761e-01 -2.004824e-01 -2.125915e-02 9.106971e-03 -3.061120e-02 2.901791e-02 3.332991e-02 3.168275e-02 -1.037981e-03 -1.289906e-02 2.358064e-02 -8.580749e-03 -1.445103e-02 9.124085e-03 -6.045821e-02
<VARIANCE> 25
 5.054762e+01 5.502534e+01 6.222813e+01 5.929420e+01 6.346049e+01 6.055556e+01 5.335194e+01 6.315252e+01 5.573279e+01 4.903321e+01 4.523219e+01 3.497117e+01 1.937047e+00 2.876922e+00 2.819284e+00 3.166139e+00 3.480847e+00 3.539605e+00 3.350339e+00 3.760864e+00 3.432922e+00 3.126838e+00 2.866923e+00 2.323048e+00 2.122942e+00
<GCONST> 1.077210e+02
<STATE> 4
<MEAN> 25
 7.003924e-01 -7.175877e-01 6.766191e-01 -1.319922e-01 -6.194106e-01 -4.319836e-01 3.228055e-01 4.733458e-01 -5.988682e-01 -6.516929e-01 -3.287283e-01 -2.066930e-01 -2.616847e-02 1.235554e-02 -3.440855e-02 2.762926e-02 3.623789e-02 3.534976e-02 -2.550070e-03 -1.825353e-02 2.736909e-02 2.198822e-03 -8.188932e-03 1.034971e-02 -6.758679e-02
<VARIANCE> 25
 5.075407e+01 5.598369e+01 6.187519e+01 6.110828e+01 6.377581e+01 6.200839e+01 5.282760e+01 6.228773e+01 5.645377e+01 4.937324e+01 4.550659e+01 3.571008e+01 1.866863e+00 2.780568e+00 2.755867e+00 3.116539e+00 3.439603e+00 3.492003e+00 3.274941e+00 3.696387e+00 3.392685e+00 3.077531e+00 2.851637e+00 2.305223e+00 2.113842e+00
<GCONST> 1.075985e+02
<TRANSP> 5
 0.000000e+00 1.000000e+00 0.000000e+00 0.000000e+00 0.000000e+00
 0.000000e+00 6.157650e-01 3.842349e-01 0.000000e+00 0.000000e+00
 0.000000e+00 0.000000e+00 6.157642e-01 3.842358e-01 0.000000e+00
 0.000000e+00 0.000000e+00 0.000000e+00 7.433090e-01 2.566909e-01
 0.000000e+00 0.000000e+00 0.000000e+00 0.000000e+00 0.000000e+00
<ENDHMM>
~h "sy"
<BEGINHMM>
<NUMSTATES> 5
<STATE> 2
<MEAN> 25
 -8.570722e-01 1.587116e-01 1.782966e+00 2.029327e-01 -1.318444e+00 -5.635858e-01 -9.255171e-01 8.561889e-01 2.199459e+00 7.411216e-01 -2.341263e-02 6.876819e-01 -8.787531e-03 -9.036416e-03 -1.130574e-01 4.224442e-02 8.026424e-02 8.727468e-02 -1.594519e-02 -3.470504e-02 7.676565e-02 3.848430e-02 -2.026234e-02 7.490048e-04 -1.399423e-01
<VARIANCE> 25
 8.116589e+01 5.702722e+01 4.971863e+01 8.554736e+01 6.229800e+01 5.798199e+01 5.915829e+01 6.238387e+01 6.936611e+01 6.024650e+01 4.952524e+01 2.943486e+01 3.179029e+00 2.744884e+00 2.114915e+00 2.743854e+00 3.792057e+00 3.735748e+00 3.242226e+00 3.081092e+00 3.698957e+00 3.345052e+00 3.120351e+00 2.492774e+00 1.313322e+00
<GCONST> 1.084870e+02
<STATE> 3
<MEAN> 25
 -8.736064e-01 1.837131e-01 1.492092e+00 3.159373e-01 -1.120006e+00 -3.435951e-01 -9.387284e-01 7.808056e-01 2.404429e+00 8.639997e-01 -6.498475e-02 6.879446e-01 1.478706e-02 -6.315445e-03 -1.088610e-01 5.439780e-04 8.596726e-02 9.847482e-02 -2.267985e-03 -4.353012e-02 4.031728e-02 4.544902e-02 1.498782e-03 -7.506813e-04 -1.331231e-01
<VARIANCE> 25
 7.881227e+01 5.718967e+01 4.991495e+01 8.641093e+01 6.263668e+01 5.853875e+01 5.975917e+01 6.398372e+01 7.005170e+01 6.129263e+01 4.941352e+01 2.952971e+01 3.150744e+00 2.727420e+00 2.184757e+00 2.815255e+00 3.748166e+00 3.847429e+00 3.330397e+00 3.129899e+00 3.730324e+00 3.419550e+00 3.117377e+00 2.589981e+00 1.382128e+00
<GCONST> 1.087749e+02
<STATE> 4
<MEAN> 25
 -6.165313e-01 3.773465e-01 9.823686e-01 2.463153e-01 -6.242200e-01 -7.296546e-02 -1.215399e+00 6.917998e-01 2.600802e+00 1.406688e+00 -4.604449e-02 5.534640e-01 1.817541e-02 1.444015e-03 -8.562896e-02 -1.614215e-02 6.205357e-02 7.785137e-02 1.868919e-02 -4.499744e-02 4.715322e-03 4.409977e-02 2.631182e-02 1.567375e-03 -9.978226e-02
<VARIANCE> 25
 7.500299e+01 6.064684e+01 5.342504e+01 1.018979e+02 6.050967e+01 6.053723e+01 6.354604e+01 6.451313e+01 7.814296e+01 6.728339e+01 5.212804e+01 3.031282e+01 2.922771e+00 2.711836e+00 2.327946e+00 3.082921e+00 3.557110e+00 4.106980e+00 3.640313e+00 3.469128e+00 3.801316e+00 3.841424e+00 3.175773e+00 2.808928e+00 1.575334e+00
<GCONST> 1.100118e+02
<TRANSP> 5
 0.000000e+00 1.000000e+00 0.000000e+00 0.000000e+00 0.000000e+00
 0.000000e+00 6.495965e-01 3.504035e-01 0.000000e+00 0.000000e+00
 0.000000e+00 0.000000e+00 6.495964e-01 3.504037e-01 0.000000e+00
 0.000000e+00 0.000000e+00 0.000000e+00 7.817506e-01 2.182494e-01
 0.000000e+00 0.000000e+00 0.000000e+00 0.000000e+00 0.000000e+00
<ENDHMM>
~h "sil"
<BEGINHMM>
<NUMSTATES> 5
<STATE> 2
<MEAN> 25
 -7.056763e+00 2.092736e+00 -1.630075e+00 3.433009e+00 3.463025e+00 3.992563e+00 2.759808e+00 1.588261e+00 1.240056e+00 2.945620e-01 8.896383e-01 2.660906e+00 -1.649076e-02 -8.756315e-03 -6.375702e-03 -4.134795e-02 -1.749627e-02 5.801114e-03 -2.051484e-02 -2.230129e-02 1.312259e-02 2.732750e-02 1.875376e-02 -1.082594e-02 1.858008e-03
<VARIANCE> 25
 4.451229e+01 3.067674e+01 3.361988e+01 4.244002e+01 4.301244e+01 3.709544e+01 3.241803e+01 3.632378e+01 3.926063e+01 3.627111e+01 3.326789e+01 2.493512e+01 8.061599e-01 1.068478e+00 1.149279e+00 1.512866e+00 2.076748e+00 1.819575e+00 1.898382e+00 1.999675e+00 2.000138e+00 2.024733e+00 1.794075e+00 1.610114e+00 1.169647e+00
<GCONST> 9.454114e+01
<STATE> 3
<MEAN> 25
 -7.008557e+00 2.070376e+00 -1.596816e+00 3.249118e+00 3.423057e+00 3.939564e+00 2.684867e+00 1.522007e+00 1.235669e+00 3.729474e-01 9.347181e-01 2.610953e+00 3.675121e-02 -1.237105e-02 2.353467e-02 -7.429416e-02 -1.483671e-02 -4.163525e-02 -3.651701e-02 -3.249483e-02 -1.338506e-02 2.526904e-02 1.296131e-02 -2.476484e-02 1.188966e-01
<VARIANCE> 25
 4.497602e+01 3.163953e+01 3.445193e+01 4.428588e+01 4.351361e+01 3.769219e+01 3.240071e+01 3.608650e+01 3.961412e+01 3.570962e+01 3.316476e+01 2.478116e+01 1.024121e+00 1.202244e+00 1.319018e+00 1.718388e+00 2.143017e+00 2.005611e+00 1.982823e+00 2.105407e+00 2.107334e+00 2.026420e+00 1.862316e+00 1.649814e+00 1.593442e+00
<GCONST> 9.592406e+01
<STATE> 4
<MEAN> 25
 -6.423611e+00 1.896630e+00 -1.348251e+00 2.674112e+00 3.116436e+00 3.509715e+00 2.386008e+00 1.379284e+00 1.174559e+00 4.824664e-01 9.106706e-01 2.342621e+00 8.765502e-02 -1.911763e-02 4.470097e-02 -9.213760e-02 -3.349481e-02 -6.393353e-02 -4.025649e-02 -3.507403e-02 -2.088954e-02 1.426073e-02 -3.727368e-03 -3.953673e-02 1.969264e-01
<VARIANCE> 25
 4.784718e+01 3.438324e+01 3.680396e+01 4.758451e+01 4.401830e+01 4.046729e+01 3.367984e+01 3.696815e+01 4.064672e+01 3.602199e+01 3.348489e+01 2.584315e+01 1.187360e+00 1.266422e+00 1.405470e+00 1.843040e+00 2.107888e+00 2.087873e+00 2.025321e+00 2.200979e+00 2.192381e+00 2.023860e+00 1.931296e+00 1.684631e+00 1.766434e+00
<GCONST> 9.705973e+01
<TRANSP> 5
 0.000000e+00 1.000000e+00 0.000000e+00 0.000000e+00 0.000000e+00
 0.000000e+00 6.374265e-01 3.625736e-01 0.000000e+00 0.000000e+00
 0.000000e+00 0.000000e+00 6.374224e-01 3.625776e-01 0.000000e+00
 0.000000e+00 0.000000e+00 0.000000e+00 7.657596e-01 2.342403e-01
 0.000000e+00 0.000000e+00 0.000000e+00 0.000000e+00 0.000000e+00
<ENDHMM>
