~o
<STREAMINFO> 1 25
<VECSIZE> 25<NULLD><MFCC_D_N_Z_0><DIAGC>
~h "a"
<BEGINHMM>
<NUMSTATES> 5
<STATE> 2
<MEAN> 25
 6.244267e-01 -4.551981e-01 -2.860528e-01 -1.767463e-01 9.343860e-02 -1.115021e-01 6.467693e-02 4.002813e-01 1.519103e-01 5.616076e-02 -2.935849e-01 -4.028146e-01 7.666566e-03 5.268289e-03 1.181769e-02 -1.738832e-03 1.111647e-02 -1.650271e-03 -7.475297e-04 -5.874996e-03 -1.920342e-03 -2.410005e-03 -4.110071e-03 -5.622105e-04 1.347177e-02
<VARIANCE> 25
 4.297313e+01 4.186565e+01 5.060217e+01 4.391107e+01 5.356413e+01 5.752666e+01 4.277217e+01 5.039727e+01 5.022261e+01 4.122919e+01 3.990420e+01 3.334108e+01 1.633010e+00 2.252987e+00 2.263637e+00 2.419472e+00 3.075186e+00 3.071573e+00 2.705226e+00 3.295354e+00 3.117435e+00 2.914896e+00 2.726833e+00 2.287807e+00 1.323055e+00
<GCONST> 1.034399e+02
<STATE> 3
<MEAN> 25
 6.340204e-01 -4.430216e-01 -2.551474e-01 -1.798861e-01 1.251056e-01 -1.139407e-01 6.490179e-02 3.844802e-01 1.462182e-01 5.199391e-02 -2.987725e-01 -3.971788e-01 3.002133e-03 5.920195e-03 1.328919e-02 -1.724433e-03 9.368881e-03 -8.365039e-04 -8.205637e-04 -7.605313e-03 -3.169581e-03 -1.497748e-03 -1.219203e-03 3.410104e-03 8.509384e-03
<VARIANCE> 25
 4.216948e+01 4.178572e+01 5.051583e+01 4.388820e+01 5.355424e+01 5.742620e+01 4.282729e+01 5.042520e+01 5.004839e+01 4.117679e+01 3.990315e+01 3.326260e+01 1.628821e+00 2.244499e+00 2.261534e+00 2.418676e+00 3.073223e+00 3.071721e+00 2.711599e+00 3.291941e+00 3.109875e+00 2.907068e+00 2.722522e+00 2.282499e+00 1.301841e+00
<GCONST> 1.033776e+02
<STATE> 4
<MEAN> 25
 6.601412e-01 -4.222963e-01 -2.265992e-01 -2.109472e-01 1.542859e-01 -9.395135e-02 6.695127e-02 3.544880e-01 1.414372e-01 4.374497e-02 -2.971970e-01 -3.822771e-01 -4.395817e-03 6.373861e-03 1.297084e-02 -2.608491e-04 6.473668e-03 9.359180e-04 5.363309e-04 -9.377649e-03 -5.236911e-03 -2.784515e-03 2.085195e-03 8.345637e-03 2.926698e-04
<VARIANCE> 25
 4.142257e+01 4.093871e+01 4.998090e+01 4.396548e+01 5.357226e+01 5.790419e+01 4.256735e+01 5.058099e+01 5.026203e+01 4.098852e+01 4.027232e+01 3.328206e+01 1.534394e+00 2.123885e+00 2.181252e+00 2.343665e+00 2.994975e+00 3.007610e+00 2.660862e+00 3.213777e+00 3.041655e+00 2.844367e+00 2.682010e+00 2.242708e+00 1.199315e+00
<GCONST> 1.029145e+02
<TRANSP> 5
 0.000000e+00 1.000000e+00 0.000000e+00 0.000000e+00 0.000000e+00
 0.000000e+00 6.339245e-01 3.660755e-01 0.000000e+00 0.000000e+00
 0.000000e+00 0.000000e+00 6.339193e-01 3.660807e-01 0.000000e+00
 0.000000e+00 0.000000e+00 0.000000e+00 7.522147e-01 2.477853e-01
 0.000000e+00 0.000000e+00 0.000000e+00 0.000000e+00 0.000000e+00
<ENDHMM>
~h "b"
<BEGINHMM>
<NUMSTATES> 5
<STATE> 2
<MEAN> 25
 6.664619e-01 3.685915e-01 1.403159e-01 -3.777680e-01 -3.771276e-01 -2.552728e-01 -6.114759e-01 -2.735032e-01 -1.981835e-01 2.593985e-01 2.204350e-01 -3.486216e-01 3.510700e-02 -1.493758e-02 6.218333e-03 1.724243e-02 -8.879940e-03 -4.361232e-02 -1.447297e-02 -1.715105e-03 5.956070e-03 -9.878698e-03 -1.529700e-02 -1.329723e-02 3.499592e-02
<VARIANCE> 25
 4.564261e+01 3.753988e+01 4.802695e+01 4.134416e+01 5.284074e+01 5.646042e+01 4.348943e+01 4.766500e+01 5.005645e+01 4.261688e+01 3.933083e+01 3.271699e+01 1.688851e+00 2.256996e+00 2.328136e+00 2.414505e+00 3.092635e+00 3.168730e+00 2.825520e+00 3.326565e+00 3.257270e+00 3.086143e+00 2.908514e+00 2.281370e+00 1.339344e+00
<GCONST> 1.035297e+02
<STATE> 3
<MEAN> 25
 7.537277e-01 3.281654e-01 1.563330e-01 -3.296758e-01 -3.914685e-01 -3.631014e-01 -6.462756e-01 -2.812903e-01 -1.856537e-01 2.269334e-01 1.757606e-01 -3.741640e-01 3.413968e-02 -1.620615e-02 8.129738e-03 1.999732e-02 -5.604862e-03 -3.914689e-02 -1.053645e-02 -1.882758e-03 2.975181e-03 -1.613168e-02 -1.857025e-02 -8.967392e-03 3.400151e-02
<VARIANCE> 25
 4.382584e+01 3.790419e+01 4.695689e+01 4.099711e+01 5.271457e+01 5.643455e+01 4.365970e+01 4.784562e+01 4.996505e+01 4.259193e+01 3.956176e+01 3.272017e+01 1.693682e+00 2.265189e+00 2.315768e+00 2.404653e+00 3.085174e+00 3.169207e+00 2.820247e+00 3.348655e+00 3.249925e+00 3.085680e+00 2.920118e+00 2.295836e+00 1.359597e+00
<GCONST> 1.034987e+02
<STATE> 4
<MEAN> 25
 8.896681e-01 2.535041e-01 1.778876e-01 -3.026495e-01 -4.479233e-01 -4.941020e-01 -6.714395e-01 -2.950938e-01 -1.548264e-01 1.881694e-01 8.388884e-02 -4.289889e-01 2.329285e-02 -1.708838e-02 1.072386e-02 1.861746e-02 -3.355166e-03 -2.963642e-02 -3.651544e-03 2.738714e-05 -2.879661e-05 -1.629079e-02 -1.681138e-02 -2.053504e-03 2.624140e-02
<VARIANCE> 25
 4.103180e+01 3.820945e+01 4.529605e+01 4.091527e+01 5.257125e+01 5.667772e+01 4.328959e+01 4.816380e+01 5.018486e+01 4.250039e+01 3.962521e+01 3.289102e+01 1.598816e+00 2.175052e+00 2.221067e+00 2.326160e+00 2.993628e+00 3.099105e+00 2.742040e+00 3.276255e+00 3.171027e+00 3.018794e+00 2.866689e+00 2.284770e+00 1.275192e+00
<GCONST> 1.030020e+02
<TRANSP> 5
 0.000000e+00 1.000000e+00 0.000000e+00 0.000000e+00 0.000000e+00
 0.000000e+00 6.284955e-01 3.715044e-01 0.000000e+00 0.000000e+00
 0.000000e+00 0.000000e+00 6.284973e-01 3.715028e-01 0.000000e+00
 0.000000e+00 0.000000e+00 0.000000e+00 7.453061e-01 2.546938e-01
 0.000000e+00 0.000000e+00 0.000000e+00 0.000000e+00 0.000000e+00
<ENDHMM>
~h "c"
<BEGINHMM>
<NUMSTATES> 5
<STATE> 2
<MEAN> 25
 -1.069125e+00 1.485460e-01 6.106390e-01 6.587133e-01 -1.885754e-01 -1.031261e+00 3.282253e-01 -1.570120e-02 -3.104019e-01 -5.619885e-01 3.483811e-01 2.494994e-01 1.548199e-03 -1.083271e-02 7.814146e-03 -1.018047e-02 -9.312787e-03 -2.777949e-02 -2.394680e-02 1.173143e-03 4.833422e-04 -1.853879e-02 5.822695e-03 -1.529201e-02 6.309307e-02
<VARIANCE> 25
 5.606839e+01 4.164465e+01 5.117941e+01 3.937310e+01 6.902371e+01 7.176450e+01 4.302975e+01 5.087620e+01 5.444611e+01 4.322013e+01 4.516854e+01 3.499589e+01 3.072828e+00 2.504758e+00 2.470657e+00 2.281182e+00 3.550598e+00 4.087561e+00 2.768540e+00 3.326966e+00 3.149837e+00 3.191019e+00 3.029677e+00 2.346606e+00 1.646488e+00
<GCONST> 1.060725e+02
<STATE> 3
<MEAN> 25
 -1.028665e+00 1.192852e-01 6.350101e-01 6.134257e-01 -2.768479e-01 -1.136904e+00 2.601394e-01 -9.970183e-03 -2.914239e-01 -5.849130e-01 3.847255e-01 2.069858e-01 1.625667e-02 -1.597117e-02 -3.431226e-03 -2.053104e-02 -2.873235e-02 -2.680828e-02 -2.319068e-02 3.010497e-03 4.847299e-03 -9.801029e-03 7.898960e-03 -1.580670e-02 5.819549e-02
<VARIANCE> 25
 5.647617e+01 4.218272e+01 5.179520e+01 3.951902e+01 6.966207e+01 7.151120e+01 4.379905e+01 5.128682e+01 5.505771e+01 4.380684e+01 4.567682e+01 3.523291e+01 3.164891e+00 2.564935e+00 2.526029e+00 2.305862e+00 3.606527e+00 4.137532e+00 2.807994e+00 3.350045e+00 3.177893e+00 3.225755e+00 3.030705e+00 2.370586e+00 1.620377e+00
<GCONST> 1.063316e+02
<STATE> 4
<MEAN> 25
 -6.522260e-01 2.075219e-02 9.309763e-01 7.202480e-01 -9.838527e-01 -1.586465e+00 3.498479e-01 -3.591630e-01 -4.179696e-01 -4.221130e-01 4.515083e-01 2.603481e-02 4.163232e-02 -2.136997e-02 -1.799517e-02 -3.017389e-02 -3.593293e-02 -1.483575e-02 -2.430990e-02 -1.438575e-03 1.188104e-02 5.689329e-03 8.920138e-03 -1.679320e-02 4.709273e-02
<VARIANCE> 25
 5.411167e+01 4.121831e+01 5.633384e+01 4.119734e+01 8.509329e+01 8.244654e+01 4.913631e+01 5.121321e+01 5.976887e+01 4.469390e+01 4.736124e+01 3.883135e+01 2.830270e+00 2.378370e+00 2.477166e+00 2.182657e+00 3.584665e+00 3.915457e+00 2.712515e+00 3.253571e+00 3.132581e+00 3.114750e+00 2.938529e+00 2.395603e+00 1.453494e+00
<GCONST> 1.065176e+02
<TRANSP> 5
 0.000000e+00 1.000000e+00 0.000000e+00 0.000000e+00 0.000000e+00
 0.000000e+00 6.624837e-01 3.375163e-01 0.000000e+00 0.000000e+00
 0.000000e+00 0.000000e+00 6.624840e-01 3.375160e-01 0.000000e+00
 0.000000e+00 0.000000e+00 0.000000e+00 7.997519e-01 2.002481e-01
 0.000000e+00 0.000000e+00 0.000000e+00 0.000000e+00 0.000000e+00
<ENDHMM>
~h "d"
<BEGINHMM>
<NUMSTATES> 5
<STATE> 2
<MEAN> 25
 5.679336e-01 5.965412e-02 1.042370e+00 2.594752e-02 -9.419468e-01 -8.546438e-01 -7.045206e-01 -1.240929e-02 -3.923028e-01 1.442964e-01 1.587741e-01 5.726005e-02 3.175631e-02 -1.368654e-02 9.857709e-03 9.244792e-03 1.122450e-02 -5.227576e-03 2.050792e-04 -1.701674e-03 -1.685218e-02 7.135202e-04 2.133503e-03 -8.110044e-03 4.066704e-02
<VARIANCE> 25
 4.479351e+01 4.106138e+01 6.138967e+01 4.733372e+01 5.947480e+01 6.066150e+01 4.772737e+01 5.512968e+01 5.443559e+01 4.215223e+01 4.226228e+01 3.315051e+01 1.617407e+00 2.524591e+00 2.695587e+00 2.740518e+00 3.472487e+00 3.327269e+00 3.050607e+00 3.531488e+00 3.357447e+00 3.184057e+00 2.937750e+00 2.380418e+00 1.619193e+00
<GCONST> 1.055148e+02
<STATE> 3
<MEAN> 25
 6.562455e-01 3.376720e-02 1.067840e+00 4.694176e-02 -9.118439e-01 -8.595912e-01 -7.010641e-01 -1.312226e-02 -4.265454e-01 1.503979e-01 1.600531e-01 3.914916e-02 2.875795e-02 -1.095643e-02 4.590691e-03 1.195824e-02 1.498331e-02 1.008797e-03 2.154002e-03 -6.921103e-04 -9.782867e-03 9.500265e-05 -1.823616e-03 -9.071775e-03 3.470345e-02
<VARIANCE> 25
 4.313930e+01 4.114330e+01 6.132316e+01 4.748121e+01 5.942816e+01 6.024224e+01 4.793785e+01 5.529165e+01 5.446404e+01 4.220485e+01 4.221122e+01 3.301796e+01 1.607449e+00 2.527527e+00 2.700736e+00 2.746551e+00 3.471412e+00 3.343075e+00 3.070309e+00 3.540266e+00 3.362349e+00 3.187958e+00 2.938281e+00 2.382971e+00 1.610804e+00
<GCONST> 1.054885e+02
<STATE> 4
<MEAN> 25
 7.819287e-01 4.399943e-02 1.066564e+00 7.980973e-02 -8.909158e-01 -8.561707e-01 -6.665435e-01 -5.378418e-02 -4.520387e-01 1.639250e-01 1.449359e-01 3.664659e-02 2.318520e-02 -5.327464e-03 1.436081e-03 1.319395e-02 1.417053e-02 4.203575e-03 2.718110e-03 -1.676404e-03 -4.491779e-03 -3.579776e-04 -4.054768e-03 -9.389423e-03 2.590090e-02
<VARIANCE> 25
 4.153992e+01 4.057613e+01 6.088559e+01 4.898320e+01 5.961319e+01 6.054897e+01 4.757449e+01 5.619197e+01 5.486338e+01 4.220195e+01 4.248515e+01 3.307927e+01 1.518229e+00 2.396360e+00 2.594095e+00 2.684064e+00 3.406917e+00 3.312300e+00 3.022929e+00 3.461524e+00 3.303242e+00 3.130075e+00 2.892827e+00 2.348705e+00 1.503548e+00
<GCONST> 1.051184e+02
<TRANSP> 5
 0.000000e+00 1.000000e+00 0.000000e+00 0.000000e+00 0.000000e+00
 0.000000e+00 6.308886e-01 3.691114e-01 0.000000e+00 0.000000e+00
 0.000000e+00 0.000000e+00 6.308901e-01 3.691100e-01 0.000000e+00
 0.000000e+00 0.000000e+00 0.000000e+00 7.484420e-01 2.515580e-01
 0.000000e+00 0.000000e+00 0.000000e+00 0.000000e+00 0.000000e+00
<ENDHMM>
~h "e"
<BEGINHMM>
<NUMSTATES> 5
<STATE> 2
<MEAN> 25
 2.602024e-01 -4.063522e-01 2.893994e-01 7.868249e-02 -8.725131e-01 -8.278123e-01 7.916583e-01 5.366286e-01 -1.451682e-01 1.298873e-02 1.785319e-01 -2.126676e-02 1.216260e-02 -1.680125e-02 1.213371e-02 3.107001e-03 -2.265873e-03 -1.291498e-04 8.607188e-03 -7.974312e-03 -4.833713e-03 -8.210918e-03 -9.412568e-03 -6.232642e-03 2.401470e-02
<VARIANCE> 25
 4.014788e+01 3.849088e+01 5.338621e+01 4.183472e+01 5.849547e+01 6.125362e+01 4.093373e+01 4.895596e+01 4.680282e+01 3.983299e+01 3.781324e+01 2.959163e+01 1.688194e+00 2.102576e+00 2.380882e+00 2.254018e+00 3.212152e+00 3.198197e+00 2.661309e+00 3.119016e+00 3.068357e+00 2.893203e+00 2.588571e+00 2.109143e+00 1.381918e+00
<GCONST> 1.029361e+02
<STATE> 3
<MEAN> 25
 2.702276e-01 -4.445830e-01 3.072341e-01 8.785561e-02 -8.708428e-01 -8.087255e-01 8.144752e-01 5.184222e-01 -1.558274e-01 -1.782947e-02 1.492452e-01 -3.179576e-02 4.481386e-03 -9.919868e-03 8.855133e-03 1.767512e-03 2.009677e-03 9.300023e-03 4.368789e-03 -7.432011e-03 -3.297699e-03 -1.013829e-02 -9.002402e-03 -5.064060e-03 1.218747e-02
<VARIANCE> 25
 3.919773e+01 3.858113e+01 5.334259e+01 4.209037e+01 5.839887e+01 6.082866e+01 4.096581e+01 4.870150e+01 4.649911e+01 3.971321e+01 3.782217e+01 2.946542e+01 1.653417e+00 2.107880e+00 2.383888e+00 2.263581e+00 3.193751e+00 3.170148e+00 2.670160e+00 3.110700e+00 3.067750e+00 2.899938e+00 2.584346e+00 2.099789e+00 1.340164e+00
<GCONST> 1.028318e+02
<STATE> 4
<MEAN> 25
 2.495787e-01 -4.645224e-01 2.783455e-01 4.541465e-02 -7.807543e-01 -7.017477e-01 8.015520e-01 5.060985e-01 -1.912495e-01 -9.279643e-02 5.910711e-02 -5.532036e-02 -7.316893e-03 -3.369462e-03 1.502549e-03 3.013613e-03 1.181699e-02 1.689946e-02 -1.728342e-03 -7.502140e-03 -3.483284e-03 -1.168514e-02 -1.121333e-02 -1.631296e-03 -3.065234e-03
<VARIANCE> 25
 3.784957e+01 3.782018e+01 5.313591e+01 4.345504e+01 5.841086e+01 6.019063e+01 4.067167e+01 4.848607e+01 4.673538e+01 3.914056e+01 3.770581e+01 2.954979e+01 1.517373e+00 1.991353e+00 2.280544e+00 2.204644e+00 3.083091e+00 3.045944e+00 2.614892e+00 3.013927e+00 3.002502e+00 2.825902e+00 2.525472e+00 2.048762e+00 1.192757e+00
<GCONST> 1.022206e+02
<TRANSP> 5
 0.000000e+00 1.000000e+00 0.000000e+00 0.000000e+00 0.000000e+00
 0.000000e+00 6.446771e-01 3.553229e-01 0.000000e+00 0.000000e+00
 0.000000e+00 0.000000e+00 6.446757e-01 3.553244e-01 0.000000e+00
 0.000000e+00 0.000000e+00 0.000000e+00 7.652704e-01 2.347297e-01
 0.000000e+00 0.000000e+00 0.000000e+00 0.000000e+00 0.000000e+00
<ENDHMM>
~h "f"
<BEGINHMM>
<NUMSTATES> 5
<STATE> 2
<MEAN> 25
 -2.110447e-01 -2.181281e-01 1.249014e-01 2.771590e-01 2.259145e-01 -7.016239e-02 -1.344268e-01 -4.235103e-01 -1.510961e-01 5.525588e-01 4.979828e-01 -6.319440e-02 -2.629381e-02 -3.186188e-02 -2.317995e-02 4.195117e-03 3.597062e-02 -1.867263e-02 -8.442261e-04 -7.353839e-03 -1.465699e-02 -4.040818e-02 -1.756382e-03 1.007193e-04 4.899606e-02
<VARIANCE> 25
 5.421862e+01 3.533018e+01 5.186438e+01 4.762888e+01 4.434708e+01 5.641408e+01 3.908914e+01 5.463951e+01 4.918248e+01 5.121569e+01 3.898896e+01 3.295259e+01 1.980526e+00 1.824147e+00 2.391826e+00 2.973683e+00 2.867952e+00 3.006298e+00 2.765375e+00 3.132766e+00 2.846071e+00 3.178025e+00 2.558338e+00 2.224371e+00 1.600438e+00
<GCONST> 1.037691e+02
<STATE> 3
<MEAN> 25
 -3.099627e-01 -2.911726e-01 4.002199e-02 2.971585e-01 3.021058e-01 -1.323929e-01 -1.341544e-01 -4.401013e-01 -1.915881e-01 4.437013e-01 5.013716e-01 -3.872444e-02 -3.250941e-02 -2.873079e-02 -4.225142e-02 5.407024e-03 3.172240e-02 -2.273784e-02 -3.537883e-04 3.775107e-03 -8.976232e-03 -4.165988e-02 5.024421e-03 5.371957e-03 3.038593e-02
<VARIANCE> 25
 5.226144e+01 3.459478e+01 5.124449e+01 4.717968e+01 4.483833e+01 5.563892e+01 3.904950e+01 5.495144e+01 4.947437e+01 5.117970e+01 3.907298e+01 3.303696e+01 1.927302e+00 1.835443e+00 2.351402e+00 2.875912e+00 2.905563e+00 2.983378e+00 2.766179e+00 3.138401e+00 2.856949e+00 3.160874e+00 2.601541e+00 2.227871e+00 1.358730e+00
<GCONST> 1.034905e+02
<STATE> 4
<MEAN> 25
 -3.063523e-01 -3.701837e-01 -1.839429e-01 2.285723e-01 3.938182e-01 -1.906557e-01 -1.061007e-01 -4.510314e-01 -2.519554e-01 4.106293e-01 5.695412e-01 -4.476264e-03 -2.910996e-02 -2.472652e-02 -5.189059e-02 1.100058e-03 1.894218e-02 -2.488713e-02 4.605953e-03 1.756672e-02 -5.601802e-03 -3.236974e-02 1.527023e-02 1.970970e-02 4.467646e-03
<VARIANCE> 25
 5.159660e+01 3.326973e+01 4.946781e+01 4.694760e+01 4.503089e+01 5.484856e+01 3.895538e+01 5.413653e+01 5.026062e+01 5.039127e+01 3.929407e+01 3.334258e+01 1.801927e+00 1.791472e+00 2.287067e+00 2.739775e+00 2.902378e+00 2.918750e+00 2.696496e+00 3.097399e+00 2.875571e+00 3.085023e+00 2.641903e+00 2.221500e+00 1.069777e+00
<GCONST> 1.029123e+02
<TRANSP> 5
 0.000000e+00 1.000000e+00 0.000000e+00 0.000000e+00 0.000000e+00
 0.000000e+00 6.364772e-01 3.635227e-01 0.000000e+00 0.000000e+00
 0.000000e+00 0.000000e+00 6.364775e-01 3.635225e-01 0.000000e+00
 0.000000e+00 0.000000e+00 0.000000e+00 7.505453e-01 2.494547e-01
 0.000000e+00 0.000000e+00 0.000000e+00 0.000000e+00 0.000000e+00
<ENDHMM>
~h "g"
<BEGINHMM>
<NUMSTATES> 5
<STATE> 2
<MEAN> 25
 5.089504e-01 7.566782e-01 7.330629e-01 -3.265106e-01 -1.490097e-01 -1.515212e-01 -9.830072e-01 -4.816492e-01 -5.286795e-01 2.362495e-01 -3.284718e-02 -1.611462e-01 1.361107e-02 2.097314e-02 1.359454e-03 -1.162334e-02 1.691444e-02 6.030238e-03 -9.062789e-03 8.634261e-05 -1.319193e-02 -1.660739e-02 1.220969e-02 7.863816e-04 1.621468e-03
<VARIANCE> 25
 4.713686e+01 3.943211e+01 5.010681e+01 4.352467e+01 5.291002e+01 5.830628e+01 4.455754e+01 5.283056e+01 5.189610e+01 4.191439e+01 3.863658e+01 3.355661e+01 1.281855e+00 1.991524e+00 2.199407e+00 2.392097e+00 2.909986e+00 3.025640e+00 2.864581e+00 3.229056e+00 3.089573e+00 2.963017e+00 2.647079e+00 2.200846e+00 1.232012e+00
<GCONST> 1.029951e+02
<STATE> 3
<MEAN> 25
 5.607901e-01 8.157058e-01 7.424419e-01 -3.431171e-01 -9.589336e-02 -1.449442e-01 -1.007839e+00 -4.782575e-01 -5.649907e-01 1.950865e-01 -1.714450e-03 -1.646635e-01 1.270788e-02 1.872480e-02 5.847150e-04 -3.783279e-03 2.363331e-02 7.856485e-03 -4.628225e-03 7.726956e-05 -1.583507e-02 -1.332901e-02 1.374847e-02 1.131336e-03 4.038391e-04
<VARIANCE> 25
 4.597912e+01 3.902647e+01 4.951621e+01 4.334607e+01 5.276699e+01 5.747021e+01 4.484605e+01 5.313379e+01 5.146408e+01 4.177539e+01 3.860574e+01 3.343361e+01 1.286807e+00 1.963577e+00 2.184228e+00 2.384902e+00 2.907882e+00 2.985498e+00 2.850505e+00 3.234009e+00 3.073625e+00 2.946854e+00 2.645469e+00 2.200842e+00 1.249778e+00
<GCONST> 1.028883e+02
<STATE> 4
<MEAN> 25
 6.920521e-01 8.462808e-01 7.743165e-01 -2.712956e-01 3.328393e-02 -1.983626e-01 -9.764106e-01 -4.542720e-01 -6.385750e-01 1.499400e-01 4.814192e-02 -1.768941e-01 1.704080e-02 1.269252e-02 1.406809e-03 1.237975e-03 2.780218e-02 5.857851e-03 1.469808e-03 2.470315e-03 -1.837126e-02 -9.950117e-03 1.338947e-02 -2.538896e-04 1.147788e-02
<VARIANCE> 25
 4.483184e+01 3.825364e+01 4.898123e+01 4.345919e+01 5.322496e+01 5.684983e+01 4.496687e+01 5.333185e+01 5.132442e+01 4.162723e+01 3.884268e+01 3.332470e+01 1.253436e+00 1.860074e+00 2.125308e+00 2.320818e+00 2.859258e+00 2.898888e+00 2.761044e+00 3.176480e+00 2.993993e+00 2.857613e+00 2.605801e+00 2.169822e+00 1.268370e+00
<GCONST> 1.025328e+02
<TRANSP> 5
 0.000000e+00 1.000000e+00 0.000000e+00 0.000000e+00 0.000000e+00
 0.000000e+00 6.389933e-01 3.610067e-01 0.000000e+00 0.000000e+00
 0.000000e+00 0.000000e+00 6.389902e-01 3.610097e-01 0.000000e+00
 0.000000e+00 0.000000e+00 0.000000e+00 7.591733e-01 2.408267e-01
 0.000000e+00 0.000000e+00 0.000000e+00 0.000000e+00 0.000000e+00
<ENDHMM>
~h "h"
<BEGINHMM>
<NUMSTATES> 5
<STATE> 2
<MEAN> 25
 -4.999575e-01 -2.078031e-01 -6.679632e-02 -1.573852e-02 4.936479e-01 4.516650e-01 4.272247e-01 1.758016e-01 3.439770e-02 8.172160e-02 8.435100e-02 1.175205e-01 5.564183e-02 -3.382839e-02 2.980138e-02 -1.507630e-02 4.757121e-03 -2.351644e-02 2.252512e-03 1.492435e-02 -2.828004e-02 -2.062032e-02 1.064263e-02 2.849258e-03 8.176003e-02
<VARIANCE> 25
 4.988386e+01 3.983102e+01 5.581629e+01 4.542049e+01 5.322204e+01 5.971969e+01 4.561536e+01 5.182168e+01 4.722598e+01 3.888452e+01 3.895334e+01 3.170936e+01 1.663762e+00 1.922734e+00 2.198032e+00 2.394636e+00 2.864404e+00 2.943610e+00 2.751748e+00 3.093238e+00 2.991682e+00 2.702713e+00 2.574974e+00 2.107676e+00 1.541420e+00
<GCONST> 1.031573e+02
<STATE> 3
<MEAN> 25
 -3.484691e-01 -2.931064e-01 1.636299e-02 -6.120836e-02 4.953253e-01 3.852797e-01 4.105365e-01 2.145973e-01 -2.966263e-02 2.141726e-02 1.059525e-01 1.173624e-01 4.204630e-02 -2.536117e-02 2.469044e-02 -1.630146e-02 -7.735827e-04 -2.058331e-02 -1.197713e-03 1.848714e-02 -1.607789e-02 -1.758502e-02 7.811664e-03 1.065267e-03 6.274460e-02
<VARIANCE> 25
 4.756512e+01 3.980805e+01 5.550977e+01 4.518575e+01 5.313674e+01 5.926768e+01 4.539460e+01 5.200603e+01 4.674112e+01 3.899697e+01 3.947810e+01 3.180061e+01 1.601854e+00 1.917755e+00 2.191530e+00 2.376401e+00 2.837097e+00 2.934474e+00 2.747479e+00 3.099728e+00 2.981977e+00 2.714529e+00 2.595940e+00 2.114279e+00 1.413972e+00
<GCONST> 1.029595e+02
<STATE> 4
<MEAN> 25
 -2.054236e-01 -3.406325e-01 1.073731e-01 -1.282929e-01 4.999366e-01 3.202313e-01 3.293052e-01 3.066515e-01 -6.126665e-02 -4.103407e-02 8.274568e-02 4.224832e-02 2.245969e-02 -1.579607e-02 1.850429e-02 -1.571980e-02 -4.564423e-03 -1.427135e-02 -8.984121e-03 1.390297e-02 -6.728624e-03 -1.620949e-02 1.918072e-03 9.708665e-04 3.805562e-02
<VARIANCE> 25
 4.597525e+01 3.873291e+01 5.552682e+01 4.621931e+01 5.246957e+01 5.833610e+01 4.407313e+01 5.192578e+01 4.680532e+01 3.880031e+01 4.003738e+01 3.191442e+01 1.449403e+00 1.787930e+00 2.098327e+00 2.272650e+00 2.727576e+00 2.847093e+00 2.650000e+00 3.018291e+00 2.900940e+00 2.659523e+00 2.559640e+00 2.098204e+00 1.210131e+00
<GCONST> 1.022595e+02
<TRANSP> 5
 0.000000e+00 1.000000e+00 0.000000e+00 0.000000e+00 0.000000e+00
 0.000000e+00 6.430386e-01 3.569614e-01 0.000000e+00 0.000000e+00
 0.000000e+00 0.000000e+00 6.430370e-01 3.569629e-01 0.000000e+00
 0.000000e+00 0.000000e+00 0.000000e+00 7.659862e-01 2.340138e-01
 0.000000e+00 0.000000e+00 0.000000e+00 0.000000e+00 0.000000e+00
<ENDHMM>
~h "i"
<BEGINHMM>
<NUMSTATES> 5
<STATE> 2
<MEAN> 25
 4.061262e-02 4.390352e-01 1.538288e+00 2.853497e-02 -1.121499e+00 -7.035244e-01 -2.925549e-02 -4.698141e-01 -6.663767e-01 3.733144e-02 1.316644e-01 1.595566e-01 1.784910e-02 -6.674688e-03 4.775745e-03 -3.095933e-03 -4.523940e-03 1.627718e-03 -5.158460e-04 -1.466415e-03 -3.980869e-03 -4.968041e-03 -1.423655e-03 3.204247e-03 1.190437e-02
<VARIANCE> 25
 4.261749e+01 3.822400e+01 6.204697e+01 4.811578e+01 6.128645e+01 6.112075e+01 4.469641e+01 5.246283e+01 5.282312e+01 4.137490e+01 4.067824e+01 3.156636e+01 1.612053e+00 2.037934e+00 2.630541e+00 2.508156e+00 3.350715e+00 3.289028e+00 2.837408e+00 3.277680e+00 3.234837e+00 2.992483e+00 2.754559e+00 2.194092e+00 1.210275e+00
<GCONST> 1.041459e+02
<STATE> 3
<MEAN> 25
 9.414384e-02 4.245582e-01 1.546898e+00 1.298964e-02 -1.127047e+00 -6.985278e-01 -3.289759e-02 -4.646383e-01 -6.675349e-01 3.281714e-02 1.290293e-01 1.649703e-01 1.541461e-02 -8.104079e-03 -2.704763e-03 -2.683806e-03 4.474872e-03 6.362263e-03 -8.573916e-04 1.804992e-06 -1.288641e-03 -1.904396e-03 -1.893804e-03 1.939073e-03 7.622514e-03
<VARIANCE> 25
 4.154364e+01 3.829445e+01 6.201715e+01 4.782818e+01 6.116397e+01 6.088410e+01 4.467310e+01 5.227716e+01 5.267169e+01 4.130059e+01 4.050645e+01 3.150694e+01 1.591111e+00 2.038025e+00 2.624588e+00 2.510478e+00 3.338536e+00 3.281156e+00 2.833152e+00 3.263777e+00 3.228393e+00 2.971312e+00 2.747824e+00 2.184409e+00 1.205695e+00
<GCONST> 1.040491e+02
<STATE> 4
<MEAN> 25
 2.298756e-01 4.046301e-01 1.501543e+00 1.702688e-02 -1.132071e+00 -7.595863e-01 -3.799387e-02 -4.269878e-01 -6.147309e-01 4.190103e-02 1.411484e-01 1.380253e-01 1.036556e-02 -9.620523e-03 -1.541273e-02 -2.698491e-03 1.578134e-02 9.334484e-03 1.501682e-04 4.389613e-03 6.131847e-03 6.751273e-04 -3.331910e-03 9.835177e-04 1.363481e-03
<VARIANCE> 25
 4.011296e+01 3.792029e+01 6.202740e+01 4.776513e+01 6.291830e+01 6.184355e+01 4.526665e+01 5.257365e+01 5.308054e+01 4.073360e+01 4.058750e+01 3.182111e+01 1.462390e+00 1.921641e+00 2.497840e+00 2.425354e+00 3.241065e+00 3.182805e+00 2.764204e+00 3.178733e+00 3.138841e+00 2.863659e+00 2.697220e+00 2.143905e+00 1.116412e+00
<GCONST> 1.035542e+02
<TRANSP> 5
 0.000000e+00 1.000000e+00 0.000000e+00 0.000000e+00 0.000000e+00
 0.000000e+00 6.382857e-01 3.617143e-01 0.000000e+00 0.000000e+00
 0.000000e+00 0.000000e+00 6.382877e-01 3.617123e-01 0.000000e+00
 0.000000e+00 0.000000e+00 0.000000e+00 7.608471e-01 2.391529e-01
 0.000000e+00 0.000000e+00 0.000000e+00 0.000000e+00 0.000000e+00
<ENDHMM>
~h "j"
<BEGINHMM>
<NUMSTATES> 5
<STATE> 2
<MEAN> 25
 -1.925092e-01 3.174322e-01 1.144609e+00 3.538995e-01 -5.437946e-01 -1.089001e+00 -2.196439e-01 1.096834e-01 -4.295579e-01 9.319057e-02 4.423851e-01 2.573711e-01 5.813708e-03 -6.458031e-03 3.642832e-03 -1.784539e-02 2.087519e-02 6.153220e-04 2.540405e-03 2.371893e-03 -1.430260e-02 -1.786850e-02 -2.778104e-02 -2.347894e-02 1.987430e-02
<VARIANCE> 25
 5.143502e+01 4.380831e+01 6.051643e+01 4.168645e+01 5.889252e+01 6.568311e+01 4.755930e+01 5.540564e+01 5.611532e+01 4.280487e+01 4.143460e+01 3.434425e+01 2.224672e+00 2.652261e+00 2.817950e+00 2.481547e+00 3.785740e+00 3.656076e+00 3.051731e+00 3.624269e+00 3.569417e+00 3.297025e+00 3.063239e+00 2.316347e+00 1.548248e+00
<GCONST> 1.062949e+02
<STATE> 3
<MEAN> 25
 -1.799816e-01 3.091591e-01 1.150221e+00 2.884676e-01 -4.896784e-01 -1.075007e+00 -2.072610e-01 9.742580e-02 -4.659814e-01 5.741538e-02 3.839394e-01 1.835989e-01 2.672160e-03 -1.512089e-03 -6.137981e-04 -2.217420e-02 2.358820e-02 3.814436e-03 3.001997e-03 -3.703438e-03 -9.831562e-03 -1.295735e-02 -2.563191e-02 -2.313631e-02 2.036965e-02
<VARIANCE> 25
 4.947772e+01 4.360964e+01 6.050789e+01 4.210066e+01 5.864619e+01 6.573772e+01 4.743790e+01 5.559890e+01 5.599520e+01 4.336322e+01 4.124742e+01 3.407501e+01 2.211507e+00 2.649033e+00 2.809585e+00 2.490538e+00 3.750731e+00 3.634608e+00 3.000890e+00 3.594557e+00 3.567038e+00 3.275894e+00 3.037809e+00 2.294930e+00 1.608954e+00
<GCONST> 1.062243e+02
<STATE> 4
<MEAN> 25
 -2.138236e-01 2.600271e-01 1.123517e+00 2.100162e-01 -4.143203e-01 -9.542898e-01 -1.912811e-01 -6.775744e-03 -4.801731e-01 7.186778e-02 2.986996e-01 6.282233e-02 2.278948e-03 5.669529e-04 -3.072656e-03 -2.566685e-02 1.825814e-02 4.890624e-03 3.281880e-03 -6.141081e-03 -1.825433e-03 4.138793e-04 -1.518902e-02 -1.530956e-02 2.087863e-02
<VARIANCE> 25
 4.630778e+01 4.185792e+01 6.004427e+01 4.206412e+01 5.796836e+01 6.479787e+01 4.697746e+01 5.575467e+01 5.618268e+01 4.408815e+01 4.152016e+01 3.361806e+01 2.050262e+00 2.516514e+00 2.670924e+00 2.400436e+00 3.586758e+00 3.463945e+00 2.897546e+00 3.458313e+00 3.458646e+00 3.153867e+00 2.934391e+00 2.230012e+00 1.542182e+00
<GCONST> 1.055331e+02
<TRANSP> 5
 0.000000e+00 1.000000e+00 0.000000e+00 0.000000e+00 0.000000e+00
 0.000000e+00 6.371959e-01 3.628041e-01 0.000000e+00 0.000000e+00
 0.000000e+00 0.000000e+00 6.371952e-01 3.628048e-01 0.000000e+00
 0.000000e+00 0.000000e+00 0.000000e+00 7.561193e-01 2.438807e-01
 0.000000e+00 0.000000e+00 0.000000e+00 0.000000e+00 0.000000e+00
<ENDHMM>
~h "k"
<BEGINHMM>
<NUMSTATES> 5
<STATE> 2
<MEAN> 25
 2.258216e-01 -1.821395e-01 -2.519402e-01 1.189338e-02 1.972916e-02 -2.531860e-01 9.256332e-02 2.637621e-01 -1.882560e-01 -8.088618e-02 8.432444e-02 -4.914413e-02 3.080999e-02 -7.910270e-03 -9.907119e-03 -2.142351e-02 8.200661e-03 -7.365503e-03 -9.465440e-03 -1.495490e-02 4.643856e-03 -6.274053e-03 -9.160785e-03 -6.023568e-03 4.036236e-02
<VARIANCE> 25
 4.556072e+01 4.184139e+01 5.148738e+01 4.535312e+01 5.440635e+01 5.907064e+01 4.171534e+01 4.783968e+01 4.887234e+01 4.120605e+01 3.910079e+01 3.258836e+01 1.720716e+00 2.313473e+00 2.430441e+00 2.570405e+00 3.299152e+00 3.340447e+00 2.831069e+00 3.233786e+00 3.118351e+00 2.990325e+00 2.739821e+00 2.367230e+00 1.592372e+00
<GCONST> 1.040827e+02
<STATE> 3
<MEAN> 25
 2.969209e-01 -2.095181e-01 -2.745655e-01 -3.670884e-02 3.550186e-02 -2.697421e-01 7.510442e-02 2.279185e-01 -1.633597e-01 -9.244178e-02 5.290813e-02 -6.285579e-02 2.611387e-02 -8.466684e-03 -8.817852e-03 -1.829726e-02 6.312980e-03 -3.939739e-03 -7.393621e-03 -1.703319e-02 8.623144e-03 -3.753506e-03 -9.551729e-03 -5.517201e-03 3.568096e-02
<VARIANCE> 25
 4.405820e+01 4.174759e+01 5.154884e+01 4.535473e+01 5.411359e+01 5.898052e+01 4.181178e+01 4.772063e+01 4.860991e+01 4.142603e+01 3.910684e+01 3.271426e+01 1.706944e+00 2.310812e+00 2.418328e+00 2.558890e+00 3.265795e+00 3.333054e+00 2.808874e+00 3.227760e+00 3.123526e+00 2.996733e+00 2.744143e+00 2.375687e+00 1.553774e+00
<GCONST> 1.039887e+02
<STATE> 4
<MEAN> 25
 4.568952e-01 -2.130215e-01 -2.488640e-01 -7.519899e-02 -3.905603e-03 -3.190271e-01 5.070082e-02 1.653706e-01 -1.210623e-01 -8.324225e-02 1.929269e-02 -8.502657e-02 1.702535e-02 -6.646977e-03 -3.725904e-03 -1.042335e-02 2.297865e-03 5.478805e-04 -8.935851e-04 -1.529303e-02 1.321897e-02 -1.536768e-03 -9.740495e-03 -3.898718e-03 2.313652e-02
<VARIANCE> 25
 4.273269e+01 4.119726e+01 5.184378e+01 4.590807e+01 5.498687e+01 6.003468e+01 4.190420e+01 4.805532e+01 4.934345e+01 4.182016e+01 3.959667e+01 3.329980e+01 1.615627e+00 2.214319e+00 2.347492e+00 2.481403e+00 3.182913e+00 3.282880e+00 2.731388e+00 3.173619e+00 3.081645e+00 2.951081e+00 2.720500e+00 2.356730e+00 1.408759e+00
<GCONST> 1.036728e+02
<TRANSP> 5
 0.000000e+00 1.000000e+00 0.000000e+00 0.000000e+00 0.000000e+00
 0.000000e+00 6.357788e-01 3.642213e-01 0.000000e+00 0.000000e+00
 0.000000e+00 0.000000e+00 6.357791e-01 3.642209e-01 0.000000e+00
 0.000000e+00 0.000000e+00 0.000000e+00 7.528868e-01 2.471131e-01
 0.000000e+00 0.000000e+00 0.000000e+00 0.000000e+00 0.000000e+00
<ENDHMM>
~h "l"
<BEGINHMM>
<NUMSTATES> 5
<STATE> 2
<MEAN> 25
 7.881532e-01 -2.077135e-01 -5.674648e-01 -5.421334e-01 1.525291e-01 -1.720583e-01 -5.893685e-01 -4.687373e-01 1.904281e-01 4.448795e-01 -6.599935e-02 -3.408941e-01 1.617222e-02 -1.217576e-02 1.036141e-02 -4.424185e-03 7.977927e-03 -9.699838e-03 1.999973e-03 -2.661850e-03 -9.583835e-03 -2.627330e-04 -7.448364e-03 -2.595441e-04 2.747561e-02
<VARIANCE> 25
 4.582214e+01 3.764602e+01 4.968405e+01 4.622031e+01 5.331080e+01 5.928448e+01 4.550989e+01 5.113160e+01 5.023612e+01 4.263684e+01 3.720583e+01 3.349887e+01 1.495073e+00 1.965338e+00 2.139281e+00 2.410633e+00 2.907295e+00 3.072680e+00 2.829170e+00 3.178641e+00 3.082757e+00 2.897190e+00 2.625497e+00 2.252170e+00 1.161414e+00
<GCONST> 1.029681e+02
<STATE> 3
<MEAN> 25
 8.176505e-01 -2.336499e-01 -5.342196e-01 -5.456942e-01 1.771489e-01 -1.939375e-01 -5.636292e-01 -4.690158e-01 1.543333e-01 4.339020e-01 -8.806142e-02 -3.376011e-01 1.180057e-02 -1.066580e-02 1.558005e-02 -1.583602e-03 8.055963e-03 -6.395429e-03 1.059786e-02 2.805482e-03 -1.345511e-02 -5.562068e-03 -1.049288e-02 4.382178e-04 2.199330e-02
<VARIANCE> 25
 4.397158e+01 3.757126e+01 4.981725e+01 4.618299e+01 5.313086e+01 5.874928e+01 4.526973e+01 5.152488e+01 5.005509e+01 4.295935e+01 3.730378e+01 3.348238e+01 1.479886e+00 1.961976e+00 2.129189e+00 2.416490e+00 2.906586e+00 3.068800e+00 2.824996e+00 3.181213e+00 3.069647e+00 2.900597e+00 2.634731e+00 2.242542e+00 1.158036e+00
<GCONST> 1.028995e+02
<STATE> 4
<MEAN> 25
 8.616095e-01 -2.470718e-01 -4.215507e-01 -5.479749e-01 1.492569e-01 -2.168418e-01 -4.817502e-01 -4.133636e-01 6.965104e-02 3.920631e-01 -1.003376e-01 -3.100088e-01 -2.808487e-04 -4.513859e-03 1.646999e-02 2.604073e-03 7.398937e-03 -1.752781e-03 1.929565e-02 9.488770e-03 -1.224520e-02 -9.714827e-03 -6.110435e-03 5.699272e-03 8.654526e-03
<VARIANCE> 25
 4.211930e+01 3.744324e+01 5.065461e+01 4.636275e+01 5.372507e+01 5.815085e+01 4.516128e+01 5.275947e+01 5.010291e+01 4.334661e+01 3.792602e+01 3.347853e+01 1.389526e+00 1.897798e+00 2.075428e+00 2.380945e+00 2.860903e+00 3.022084e+00 2.782641e+00 3.149603e+00 3.010446e+00 2.864411e+00 2.629656e+00 2.209960e+00 1.086091e+00
<GCONST> 1.026165e+02
<TRANSP> 5
 0.000000e+00 1.000000e+00 0.000000e+00 0.000000e+00 0.000000e+00
 0.000000e+00 6.271365e-01 3.728635e-01 0.000000e+00 0.000000e+00
 0.000000e+00 0.000000e+00 6.271365e-01 3.728635e-01 0.000000e+00
 0.000000e+00 0.000000e+00 0.000000e+00 7.423758e-01 2.576242e-01
 0.000000e+00 0.000000e+00 0.000000e+00 0.000000e+00 0.000000e+00
<ENDHMM>
~h "m"
<BEGINHMM>
<NUMSTATES> 5
<STATE> 2
<MEAN> 25
 1.329715e+00 1.303965e-02 -4.254483e-01 -2.977729e-01 1.301125e-01 3.043676e-01 -7.677016e-02 -3.259766e-01 -2.221995e-01 1.688161e-01 -7.995540e-02 -5.196834e-01 1.943743e-02 9.001976e-03 3.494574e-03 1.291210e-02 -7.033543e-03 -1.230403e-03 1.417983e-02 3.203330e-04 -3.430106e-03 -1.626515e-02 -2.268389e-02 -1.343793e-02 5.312603e-03
<VARIANCE> 25
 4.308758e+01 4.027640e+01 4.992328e+01 4.652275e+01 5.411802e+01 5.738018e+01 4.030365e+01 5.179204e+01 4.848254e+01 4.163651e+01 3.770833e+01 3.181180e+01 1.539001e+00 2.076735e+00 2.300570e+00 2.474371e+00 3.046617e+00 3.085245e+00 2.625655e+00 3.402094e+00 3.118053e+00 2.892632e+00 2.726016e+00 2.162088e+00 1.051012e+00
<GCONST> 1.028953e+02
<STATE> 3
<MEAN> 25
 1.365891e+00 4.756221e-02 -4.137817e-01 -2.568410e-01 1.275638e-01 2.964808e-01 -4.504891e-02 -3.262429e-01 -2.376393e-01 1.219977e-01 -1.417895e-01 -5.507978e-01 1.109996e-02 8.313125e-03 4.351479e-03 1.492137e-02 -1.718285e-03 -5.825714e-03 1.215011e-02 2.750132e-03 -2.947679e-03 -1.483210e-02 -2.302166e-02 -1.329516e-02 1.065079e-03
<VARIANCE> 25
 4.245108e+01 3.995959e+01 4.948632e+01 4.685734e+01 5.413117e+01 5.766712e+01 4.024760e+01 5.174473e+01 4.836588e+01 4.170541e+01 3.787133e+01 3.174723e+01 1.539238e+00 2.064349e+00 2.287622e+00 2.462622e+00 3.035254e+00 3.083632e+00 2.628520e+00 3.414231e+00 3.110150e+00 2.896156e+00 2.726979e+00 2.161175e+00 1.041397e+00
<GCONST> 1.028489e+02
<STATE> 4
<MEAN> 25
 1.362704e+00 9.259092e-02 -3.792230e-01 -2.520844e-01 1.234995e-01 2.956245e-01 1.717079e-02 -2.511871e-01 -2.251716e-01 7.524280e-02 -2.095431e-01 -5.908281e-01 1.834785e-03 8.229299e-03 5.415302e-03 1.384269e-02 3.681901e-03 -1.066611e-02 7.640951e-03 5.152146e-03 -1.436191e-03 -1.171200e-02 -1.789661e-02 -1.055110e-02 -2.620351e-03
<VARIANCE> 25
 4.177113e+01 3.896818e+01 4.865346e+01 4.776971e+01 5.445922e+01 5.807766e+01 3.998413e+01 5.121056e+01 4.853873e+01 4.142681e+01 3.801231e+01 3.187525e+01 1.439336e+00 1.938123e+00 2.185503e+00 2.368518e+00 2.964626e+00 3.009948e+00 2.558722e+00 3.328432e+00 3.024877e+00 2.835878e+00 2.684666e+00 2.138045e+00 9.686924e-01
<GCONST> 1.023483e+02
<TRANSP> 5
 0.000000e+00 1.000000e+00 0.000000e+00 0.000000e+00 0.000000e+00
 0.000000e+00 6.324395e-01 3.675605e-01 0.000000e+00 0.000000e+00
 0.000000e+00 0.000000e+00 6.324384e-01 3.675616e-01 0.000000e+00
 0.000000e+00 0.000000e+00 0.000000e+00 7.513741e-01 2.486258e-01
 0.000000e+00 0.000000e+00 0.000000e+00 0.000000e+00 0.000000e+00
<ENDHMM>
~h "n"
<BEGINHMM>
<NUMSTATES> 5
<STATE> 2
<MEAN> 25
 8.571205e-01 -1.983534e-01 5.326281e-01 4.335068e-01 -4.511735e-01 -4.345057e-01 1.548808e-02 -5.000230e-02 -1.087708e-01 -1.669922e-01 -3.888261e-01 -1.839532e-01 2.532017e-03 -1.692844e-03 9.706527e-03 -5.072892e-03 8.319395e-04 -3.677210e-03 1.417940e-02 9.209737e-04 -1.632376e-02 -1.207562e-02 6.979586e-03 3.541239e-03 1.396449e-02
<VARIANCE> 25
 3.914236e+01 4.213150e+01 4.918094e+01 4.515303e+01 5.394263e+01 5.442209e+01 4.100710e+01 5.013639e+01 4.921824e+01 4.067590e+01 3.918740e+01 3.057403e+01 1.485703e+00 2.322859e+00 2.252497e+00 2.519617e+00 3.017672e+00 3.057179e+00 2.693552e+00 3.296244e+00 3.180766e+00 2.949416e+00 2.647259e+00 2.158086e+00 1.260725e+00
<GCONST> 1.029577e+02
<STATE> 3
<MEAN> 25
 8.539414e-01 -2.051107e-01 5.396706e-01 4.236939e-01 -4.364656e-01 -4.315289e-01 5.544923e-02 -4.250334e-02 -1.427301e-01 -1.944714e-01 -3.716384e-01 -1.717490e-01 -4.456674e-03 -2.317010e-03 -2.667780e-03 -4.705527e-03 8.203477e-03 5.729695e-03 1.383333e-02 3.917653e-03 -1.261085e-02 -1.061861e-02 8.739553e-03 6.423545e-03 4.786150e-03
<VARIANCE> 25
 3.868494e+01 4.204852e+01 4.882028e+01 4.469162e+01 5.401664e+01 5.425944e+01 4.130797e+01 5.038345e+01 4.892993e+01 4.071008e+01 3.937733e+01 3.052649e+01 1.470056e+00 2.315713e+00 2.247444e+00 2.510573e+00 3.023276e+00 3.047564e+00 2.693980e+00 3.294538e+00 3.169338e+00 2.937947e+00 2.644367e+00 2.159250e+00 1.214317e+00
<GCONST> 1.028685e+02
<STATE> 4
<MEAN> 25
 8.695229e-01 -1.654959e-01 5.162392e-01 3.887763e-01 -3.560812e-01 -3.867972e-01 6.702045e-02 -1.116367e-02 -1.495370e-01 -1.886192e-01 -3.247754e-01 -1.805705e-01 -1.128985e-02 -1.454440e-03 -1.219833e-02 -2.805793e-03 1.525833e-02 1.392876e-02 1.063231e-02 3.970215e-03 -8.089840e-03 -6.756139e-03 9.037958e-03 8.527147e-03 -3.872463e-03
<VARIANCE> 25
 3.888853e+01 4.109845e+01 4.888421e+01 4.449123e+01 5.443032e+01 5.450713e+01 4.149345e+01 5.073156e+01 4.910605e+01 4.078123e+01 4.004082e+01 3.086002e+01 1.397653e+00 2.197993e+00 2.183764e+00 2.437107e+00 2.977273e+00 2.985167e+00 2.639802e+00 3.214745e+00 3.108627e+00 2.874387e+00 2.616779e+00 2.138358e+00 1.119814e+00
<GCONST> 1.025197e+02
<TRANSP> 5
 0.000000e+00 1.000000e+00 0.000000e+00 0.000000e+00 0.000000e+00
 0.000000e+00 6.316559e-01 3.683441e-01 0.000000e+00 0.000000e+00
 0.000000e+00 0.000000e+00 6.316537e-01 3.683464e-01 0.000000e+00
 0.000000e+00 0.000000e+00 0.000000e+00 7.481230e-01 2.518769e-01
 0.000000e+00 0.000000e+00 0.000000e+00 0.000000e+00 0.000000e+00
<ENDHMM>
~h "o"
<BEGINHMM>
<NUMSTATES> 5
<STATE> 2
<MEAN> 25
 7.117577e-01 2.215914e-01 -1.447137e+00 -9.079656e-01 6.060193e-01 8.286390e-01 -8.508365e-02 -2.198323e-01 5.730062e-01 5.124971e-01 2.677010e-01 -1.481874e-01 6.575669e-02 -8.940534e-03 2.137195e-02 -2.244502e-02 1.232497e-02 -2.573119e-02 4.997849e-03 7.652316e-04 -2.886409e-02 -7.994049e-03 5.194904e-04 -1.067486e-02 8.961263e-02
<VARIANCE> 25
 5.424490e+01 3.698891e+01 4.930659e+01 5.357645e+01 5.124054e+01 6.000537e+01 4.130845e+01 4.848632e+01 4.796710e+01 4.323998e+01 3.862008e+01 3.162788e+01 1.913813e+00 1.958283e+00 2.084211e+00 2.554260e+00 2.762364e+00 2.967519e+00 2.677673e+00 2.919709e+00 2.865819e+00 2.843189e+00 2.609472e+00 2.230094e+00 1.590626e+00
<GCONST> 1.032853e+02
<STATE> 3
<MEAN> 25
 9.042678e-01 2.107640e-01 -1.384427e+00 -9.662299e-01 6.283271e-01 7.593562e-01 -7.837507e-02 -2.212245e-01 4.814792e-01 4.961385e-01 2.827942e-01 -1.731852e-01 5.450674e-02 -1.177007e-03 3.002745e-02 -1.331122e-02 4.996078e-03 -2.925259e-02 3.567692e-03 2.882211e-03 -3.318809e-02 -7.275684e-03 3.848172e-03 -7.276071e-03 7.214388e-02
<VARIANCE> 25
 5.115380e+01 3.690343e+01 4.926774e+01 5.334783e+01 5.141873e+01 6.004894e+01 4.164446e+01 4.878284e+01 4.769376e+01 4.379755e+01 3.897704e+01 3.154709e+01 1.906280e+00 1.962055e+00 2.096135e+00 2.539389e+00 2.775898e+00 2.964419e+00 2.677175e+00 2.925805e+00 2.869081e+00 2.866804e+00 2.615548e+00 2.235390e+00 1.510710e+00
<GCONST> 1.032175e+02
<STATE> 4
<MEAN> 25
 1.202678e+00 3.027193e-01 -1.238194e+00 -1.032422e+00 5.612958e-01 6.283498e-01 -1.254707e-01 -2.222686e-01 3.651851e-01 5.137727e-01 3.346452e-01 -1.882508e-01 3.558467e-02 3.831081e-03 2.864803e-02 -4.953034e-03 -5.600414e-03 -2.942843e-02 7.505382e-04 5.622175e-03 -3.282261e-02 -4.886484e-03 4.769357e-03 -6.199349e-03 4.413249e-02
<VARIANCE> 25
 4.895753e+01 3.584265e+01 4.978946e+01 5.409246e+01 5.288319e+01 6.052698e+01 4.166040e+01 4.947028e+01 4.858018e+01 4.480919e+01 3.971970e+01 3.168807e+01 1.761296e+00 1.862890e+00 2.050375e+00 2.477458e+00 2.740755e+00 2.893941e+00 2.588713e+00 2.876050e+00 2.832629e+00 2.855617e+00 2.587156e+00 2.218494e+00 1.294924e+00
<GCONST> 1.028292e+02
<TRANSP> 5
 0.000000e+00 1.000000e+00 0.000000e+00 0.000000e+00 0.000000e+00
 0.000000e+00 6.441630e-01 3.558370e-01 0.000000e+00 0.000000e+00
 0.000000e+00 0.000000e+00 6.441630e-01 3.558370e-01 0.000000e+00
 0.000000e+00 0.000000e+00 0.000000e+00 7.645299e-01 2.354700e-01
 0.000000e+00 0.000000e+00 0.000000e+00 0.000000e+00 0.000000e+00
<ENDHMM>
~h "p"
<BEGINHMM>
<NUMSTATES> 5
<STATE> 2
<MEAN> 25
 8.112093e-01 -3.998059e-01 -9.247829e-01 -4.951853e-01 3.137794e-01 2.794958e-01 -2.056177e-01 -1.940475e-01 1.431092e-01 2.711450e-01 3.814107e-01 -2.529067e-01 2.636826e-02 -5.788603e-03 4.822559e-03 -1.171380e-02 -1.991067e-02 -1.116885e-02 2.810080e-03 -7.303237e-03 5.766900e-04 2.217484e-03 -9.698671e-03 -1.115399e-02 2.020294e-02
<VARIANCE> 25
 4.608774e+01 4.019633e+01 5.103267e+01 4.474201e+01 5.139489e+01 5.964364e+01 4.159438e+01 4.751549e+01 4.756095e+01 3.956115e+01 3.854514e+01 3.441823e+01 2.032902e+00 2.519392e+00 2.417524e+00 2.524110e+00 3.078566e+00 3.448585e+00 2.886437e+00 3.288517e+00 3.093049e+00 2.968881e+00 2.894982e+00 2.483437e+00 1.623135e+00
<GCONST> 1.042812e+02
<STATE> 3
<MEAN> 25
 8.685734e-01 -4.157143e-01 -9.118783e-01 -5.197545e-01 2.570266e-01 2.488077e-01 -1.819183e-01 -2.071990e-01 1.540050e-01 2.724107e-01 3.519486e-01 -2.771268e-01 2.018480e-02 -4.425042e-04 1.196548e-02 -1.176843e-02 -2.599119e-02 -1.259335e-02 8.415410e-03 -6.063586e-03 1.864119e-03 2.619464e-03 -1.298232e-02 -6.624726e-03 1.714831e-02
<VARIANCE> 25
 4.507212e+01 4.038214e+01 5.151444e+01 4.502367e+01 5.154525e+01 5.985086e+01 4.135776e+01 4.770375e+01 4.792270e+01 3.952960e+01 3.863445e+01 3.432677e+01 2.057193e+00 2.537843e+00 2.441568e+00 2.545005e+00 3.091308e+00 3.472387e+00 2.894461e+00 3.307310e+00 3.121424e+00 2.987327e+00 2.894797e+00 2.497496e+00 1.615057e+00
<GCONST> 1.043630e+02
<STATE> 4
<MEAN> 25
 9.100755e-01 -4.285479e-01 -8.495017e-01 -5.153739e-01 1.961848e-01 1.952883e-01 -1.582634e-01 -1.954933e-01 1.714634e-01 2.629374e-01 2.677311e-01 -2.740552e-01 6.927993e-03 5.823326e-03 1.861479e-02 -8.077598e-03 -2.427022e-02 -1.154852e-02 1.615179e-02 -1.975630e-03 1.797369e-03 -6.007036e-04 -1.336210e-02 -1.107856e-03 1.004908e-02
<VARIANCE> 25
 4.392138e+01 3.960926e+01 5.099976e+01 4.570440e+01 5.159400e+01 6.018560e+01 4.096386e+01 4.833579e+01 4.871668e+01 3.955069e+01 3.871548e+01 3.398061e+01 1.975953e+00 2.425639e+00 2.382677e+00 2.510015e+00 3.039608e+00 3.415335e+00 2.846000e+00 3.273252e+00 3.125216e+00 2.969513e+00 2.842141e+00 2.456117e+00 1.506587e+00
<GCONST> 1.040480e+02
<TRANSP> 5
 0.000000e+00 1.000000e+00 0.000000e+00 0.000000e+00 0.000000e+00
 0.000000e+00 6.325698e-01 3.674301e-01 0.000000e+00 0.000000e+00
 0.000000e+00 0.000000e+00 6.325692e-01 3.674308e-01 0.000000e+00
 0.000000e+00 0.000000e+00 0.000000e+00 7.500448e-01 2.499551e-01
 0.000000e+00 0.000000e+00 0.000000e+00 0.000000e+00 0.000000e+00
<ENDHMM>
~h "r"
<BEGINHMM>
<NUMSTATES> 5
<STATE> 2
<MEAN> 25
 6.860428e-01 -5.971630e-01 -3.924811e-01 1.774057e-01 1.228793e-01 -4.437445e-01 -5.559108e-01 2.124026e-01 5.340700e-01 5.119382e-02 -7.596721e-02 -1.912601e-01 -9.767577e-04 5.469489e-03 2.080517e-02 2.686862e-03 -6.826949e-03 -1.219604e-03 1.195429e-02 2.401480e-03 -1.105042e-02 -1.471757e-02 -7.468177e-03 5.000181e-03 8.852778e-03
<VARIANCE> 25
 4.079378e+01 3.719184e+01 4.849866e+01 4.245993e+01 4.952593e+01 5.807021e+01 4.211149e+01 5.057610e+01 5.411430e+01 4.053564e+01 3.919769e+01 3.261732e+01 1.581549e+00 2.043591e+00 2.145588e+00 2.259356e+00 2.847930e+00 3.040715e+00 2.645306e+00 3.150068e+00 3.182984e+00 2.865067e+00 2.648532e+00 2.243008e+00 1.159813e+00
<GCONST> 1.025473e+02
<STATE> 3
<MEAN> 25
 6.690590e-01 -5.805644e-01 -3.399273e-01 1.815780e-01 1.073609e-01 -4.318327e-01 -5.092878e-01 2.210162e-01 5.002295e-01 1.455669e-02 -1.008923e-01 -1.785570e-01 -6.291500e-03 8.478686e-03 2.381623e-02 1.352471e-03 -7.566048e-03 4.435267e-03 1.603761e-02 4.239779e-03 -1.434369e-02 -1.456227e-02 -7.266682e-03 5.590707e-03 3.967661e-03
<VARIANCE> 25
 4.022894e+01 3.692059e+01 4.830085e+01 4.255154e+01 4.984626e+01 5.800161e+01 4.241259e+01 5.046682e+01 5.375576e+01 4.043274e+01 3.936646e+01 3.232708e+01 1.581272e+00 2.042303e+00 2.143746e+00 2.259934e+00 2.861121e+00 3.037373e+00 2.656442e+00 3.140846e+00 3.168734e+00 2.854464e+00 2.647717e+00 2.229492e+00 1.135634e+00
<GCONST> 1.024883e+02
<STATE> 4
<MEAN> 25
 6.230133e-01 -5.227394e-01 -2.424386e-01 1.651480e-01 9.578714e-02 -3.694299e-01 -4.477817e-01 2.051611e-01 4.939901e-01 2.396064e-02 -1.244974e-01 -1.251302e-01 -1.230450e-02 9.886140e-03 1.856931e-02 -1.627773e-03 -4.956577e-03 1.234412e-02 2.133325e-02 5.876279e-03 -1.286993e-02 -1.229421e-02 -7.042771e-03 5.066168e-03 -3.491297e-03
<VARIANCE> 25
 4.000391e+01 3.612993e+01 4.771330e+01 4.302686e+01 5.024357e+01 5.896161e+01 4.261645e+01 5.031433e+01 5.478876e+01 4.095634e+01 3.988361e+01 3.228907e+01 1.498222e+00 1.957167e+00 2.072372e+00 2.209315e+00 2.823519e+00 2.981720e+00 2.617060e+00 3.071543e+00 3.115211e+00 2.799155e+00 2.620506e+00 2.183342e+00 1.049755e+00
<GCONST> 1.021613e+02
<TRANSP> 5
 0.000000e+00 1.000000e+00 0.000000e+00 0.000000e+00 0.000000e+00
 0.000000e+00 6.315823e-01 3.684177e-01 0.000000e+00 0.000000e+00
 0.000000e+00 0.000000e+00 6.315831e-01 3.684169e-01 0.000000e+00
 0.000000e+00 0.000000e+00 0.000000e+00 7.467255e-01 2.532746e-01
 0.000000e+00 0.000000e+00 0.000000e+00 0.000000e+00 0.000000e+00
<ENDHMM>
~h "s"
<BEGINHMM>
<NUMSTATES> 5
<STATE> 2
<MEAN> 25
 -7.986740e-01 2.463820e-01 -8.205162e-02 1.755196e-01 1.871212e-01 -1.005979e+00 5.185542e-01 5.939294e-01 2.071088e-01 -2.149760e-01 5.039654e-02 1.605108e-01 -1.249293e-04 3.584335e-03 1.606002e-02 -9.102223e-03 1.919535e-02 -8.358370e-04 1.314321e-02 -1.114333e-02 -9.892825e-03 -1.075098e-02 -9.088374e-03 -2.128827e-03 1.131046e-02
<VARIANCE> 25
 6.626586e+01 4.264683e+01 5.552037e+01 4.353085e+01 5.739345e+01 6.316180e+01 5.136683e+01 5.598461e+01 5.553376e+01 4.223568e+01 4.254091e+01 3.378162e+01 2.964757e+00 2.266818e+00 2.438123e+00 2.465611e+00 3.263670e+00 3.264160e+00 2.993278e+00 3.540390e+00 3.281992e+00 2.969278e+00 2.858551e+00 2.286381e+00 1.323800e+00
<GCONST> 1.057340e+02
<STATE> 3
<MEAN> 25
 -7.932003e-01 2.519809e-01 -4.493582e-02 1.469842e-01 2.407311e-01 -1.003579e+00 5.352232e-01 5.639297e-01 1.814707e-01 -2.365743e-01 2.836691e-02 1.557771e-01 4.288654e-03 4.157554e-03 1.660017e-02 -1.078963e-02 2.003482e-02 7.424801e-04 3.659067e-03 -1.663185e-02 -1.305060e-02 -7.853976e-03 -6.864432e-03 -3.135229e-03 1.053832e-02
<VARIANCE> 25
 6.526020e+01 4.265232e+01 5.545774e+01 4.327116e+01 5.730532e+01 6.272279e+01 5.077997e+01 5.554871e+01 5.482993e+01 4.200549e+01 4.252882e+01 3.347611e+01 2.961417e+00 2.268317e+00 2.442601e+00 2.464754e+00 3.270951e+00 3.283911e+00 2.979596e+00 3.521001e+00 3.286924e+00 2.969018e+00 2.849053e+00 2.275245e+00 1.335961e+00
<GCONST> 1.056579e+02
<STATE> 4
<MEAN> 25
 -6.291041e-01 2.477537e-01 -7.381256e-02 5.788496e-02 2.719944e-01 -9.466864e-01 4.216197e-01 4.694772e-01 2.081394e-01 -2.318874e-01 -1.547088e-02 1.051106e-01 7.784492e-03 1.593228e-03 1.281823e-02 -1.174200e-02 1.818840e-02 1.232761e-02 -6.454201e-03 -1.611628e-02 -9.890045e-03 -1.933592e-03 -7.463509e-03 -4.030946e-03 -8.000241e-04
<VARIANCE> 25
 6.246487e+01 4.151443e+01 5.545178e+01 4.375850e+01 5.758596e+01 6.279808e+01 5.032891e+01 5.463057e+01 5.491939e+01 4.197939e+01 4.256182e+01 3.362148e+01 2.736639e+00 2.148633e+00 2.368236e+00 2.392955e+00 3.187292e+00 3.209421e+00 2.900526e+00 3.410395e+00 3.234833e+00 2.921791e+00 2.785643e+00 2.246058e+00 1.229921e+00
<GCONST> 1.051333e+02
<TRANSP> 5
 0.000000e+00 1.000000e+00 0.000000e+00 0.000000e+00 0.000000e+00
 0.000000e+00 6.329509e-01 3.670491e-01 0.000000e+00 0.000000e+00
 0.000000e+00 0.000000e+00 6.329521e-01 3.670479e-01 0.000000e+00
 0.000000e+00 0.000000e+00 0.000000e+00 7.519853e-01 2.480147e-01
 0.000000e+00 0.000000e+00 0.000000e+00 0.000000e+00 0.000000e+00
<ENDHMM>
~h "t"
<BEGINHMM>
<NUMSTATES> 5
<STATE> 2
<MEAN> 25
 1.637787e-01 -3.933850e-03 -1.150084e-01 -8.382974e-03 -1.905295e-01 -2.775157e-01 -2.923329e-02 8.543532e-02 3.851191e-01 1.516685e-01 -7.154243e-02 1.675925e-02 1.572583e-02 -1.503840e-02 -1.002115e-03 -1.302731e-02 4.644070e-03 -9.059289e-03 -2.029196e-03 -1.636154e-03 -8.445658e-03 -2.761757e-03 8.288339e-03 -7.528192e-03 3.686776e-02
<VARIANCE> 25
 4.452958e+01 3.803641e+01 5.069846e+01 4.109213e+01 5.088441e+01 6.046602e+01 3.992039e+01 4.836158e+01 5.099566e+01 3.988494e+01 4.071734e+01 3.253743e+01 1.713858e+00 2.181137e+00 2.314371e+00 2.351280e+00 3.044101e+00 3.444955e+00 2.726171e+00 3.186687e+00 3.208522e+00 2.894181e+00 2.734357e+00 2.273308e+00 1.615952e+00
<GCONST> 1.034876e+02
<STATE> 3
<MEAN> 25
 2.051568e-01 -2.895557e-02 -1.181061e-01 -4.572512e-02 -1.764649e-01 -3.002152e-01 -4.288044e-02 6.564996e-02 3.507051e-01 1.456559e-01 -4.382565e-02 -7.769852e-03 1.664004e-02 -9.799929e-03 -2.925821e-03 -1.299150e-02 7.770876e-03 -9.460696e-03 -6.530812e-03 -5.758958e-03 -1.233486e-02 -2.243532e-03 1.273694e-02 -9.022946e-03 3.578802e-02
<VARIANCE> 25
 4.288651e+01 3.785915e+01 5.070667e+01 4.113597e+01 5.100317e+01 6.045644e+01 4.030011e+01 4.838957e+01 5.088619e+01 4.001184e+01 4.097593e+01 3.284491e+01 1.701560e+00 2.171225e+00 2.319244e+00 2.346850e+00 3.052149e+00 3.437036e+00 2.747768e+00 3.178963e+00 3.210251e+00 2.895213e+00 2.742832e+00 2.284120e+00 1.621365e+00
<GCONST> 1.034819e+02
<STATE> 4
<MEAN> 25
 3.331116e-01 3.114135e-02 -5.708744e-02 -9.747613e-02 -1.833754e-01 -3.763483e-01 -1.185318e-01 2.086489e-02 2.900115e-01 1.557935e-01 4.078241e-02 -1.061259e-02 1.619499e-02 -9.006384e-04 -2.772223e-03 -1.129157e-02 1.085034e-02 -6.660690e-03 -1.258926e-02 -9.876863e-03 -1.576583e-02 -3.053916e-03 1.578334e-02 -6.914528e-03 2.728683e-02
<VARIANCE> 25
 4.112603e+01 3.720716e+01 5.106960e+01 4.214461e+01 5.197993e+01 6.081775e+01 4.099133e+01 4.863455e+01 5.135621e+01 4.019077e+01 4.174455e+01 3.346374e+01 1.620236e+00 2.067544e+00 2.268995e+00 2.297837e+00 3.025863e+00 3.381284e+00 2.733460e+00 3.121720e+00 3.187686e+00 2.858609e+00 2.729330e+00 2.254636e+00 1.531968e+00
<GCONST> 1.032681e+02
<TRANSP> 5
 0.000000e+00 1.000000e+00 0.000000e+00 0.000000e+00 0.000000e+00
 0.000000e+00 6.307000e-01 3.693001e-01 0.000000e+00 0.000000e+00
 0.000000e+00 0.000000e+00 6.306992e-01 3.693008e-01 0.000000e+00
 0.000000e+00 0.000000e+00 0.000000e+00 7.468361e-01 2.531639e-01
 0.000000e+00 0.000000e+00 0.000000e+00 0.000000e+00 0.000000e+00
<ENDHMM>
~h "u"
<BEGINHMM>
<NUMSTATES> 5
<STATE> 2
<MEAN> 25
 8.041469e-01 6.551349e-01 -1.091772e-01 -6.739824e-01 2.220953e-01 8.748995e-02 -1.225935e+00 -7.082944e-01 -2.072724e-01 2.228661e-01 2.847899e-01 -4.193616e-03 2.837159e-02 -1.205818e-02 -6.450002e-03 -4.235933e-04 2.080100e-02 -1.578914e-02 -1.676450e-03 1.586843e-02 -2.736150e-03 1.618097e-05 -4.848693e-03 -2.109934e-02 4.106851e-02
<VARIANCE> 25
 4.453768e+01 3.634049e+01 4.491125e+01 4.536917e+01 5.189470e+01 5.539138e+01 4.873566e+01 5.283606e+01 4.943306e+01 4.368711e+01 3.919172e+01 3.349577e+01 1.676758e+00 2.030171e+00 2.171819e+00 2.540401e+00 3.069414e+00 3.109947e+00 3.010102e+00 3.324339e+00 3.192499e+00 3.062893e+00 2.769218e+00 2.316448e+00 1.332139e+00
<GCONST> 1.035483e+02
<STATE> 3
<MEAN> 25
 8.617114e-01 6.205320e-01 -1.285953e-01 -6.611220e-01 2.706506e-01 5.335852e-02 -1.214866e+00 -6.636613e-01 -2.095344e-01 2.232966e-01 2.695052e-01 -5.770328e-02 1.985705e-02 -1.474088e-02 -9.055384e-03 5.399318e-03 1.766626e-02 -1.240832e-02 6.388031e-03 1.722774e-02 1.832983e-05 -2.524583e-04 -4.437474e-03 -2.071074e-02 3.219600e-02
<VARIANCE> 25
 4.341184e+01 3.632782e+01 4.441468e+01 4.519727e+01 5.202032e+01 5.547199e+01 4.901023e+01 5.308298e+01 4.929280e+01 4.401730e+01 3.937791e+01 3.348703e+01 1.658180e+00 2.031212e+00 2.154615e+00 2.533877e+00 3.066381e+00 3.118020e+00 3.006068e+00 3.335991e+00 3.184360e+00 3.071296e+00 2.768382e+00 2.323566e+00 1.272132e+00
<GCONST> 1.034702e+02
<STATE> 4
<MEAN> 25
 9.093376e-01 5.505400e-01 -1.342768e-01 -6.253740e-01 2.359338e-01 -1.248331e-02 -1.097854e+00 -5.985283e-01 -1.991848e-01 2.146015e-01 2.205490e-01 -1.148537e-01 6.218588e-03 -1.708674e-02 -7.690790e-03 1.379718e-02 1.311122e-02 -7.626447e-03 1.709786e-02 1.740851e-02 6.582825e-04 -1.605487e-03 -5.691793e-03 -1.783231e-02 1.810277e-02
<VARIANCE> 25
 4.191638e+01 3.598221e+01 4.416349e+01 4.536900e+01 5.236152e+01 5.581163e+01 4.889774e+01 5.345705e+01 4.940299e+01 4.411806e+01 3.977293e+01 3.371800e+01 1.557448e+00 1.947336e+00 2.078784e+00 2.446518e+00 3.001351e+00 3.052868e+00 2.919883e+00 3.273040e+00 3.109210e+00 3.015722e+00 2.724570e+00 2.297122e+00 1.143360e+00
<GCONST> 1.030197e+02
<TRANSP> 5
 0.000000e+00 1.000000e+00 0.000000e+00 0.000000e+00 0.000000e+00
 0.000000e+00 6.290691e-01 3.709309e-01 0.000000e+00 0.000000e+00
 0.000000e+00 0.000000e+00 6.290698e-01 3.709302e-01 0.000000e+00
 0.000000e+00 0.000000e+00 0.000000e+00 7.449111e-01 2.550889e-01
 0.000000e+00 0.000000e+00 0.000000e+00 0.000000e+00 0.000000e+00
<ENDHMM>
~h "v"
<BEGINHMM>
<NUMSTATES> 5
<STATE> 2
<MEAN> 25
 1.487320e-01 1.680242e-01 6.648996e-01 8.060094e-01 -7.198523e-01 -2.863677e-01 6.687521e-01 1.714680e-01 4.682278e-01 4.380479e-01 1.788517e-01 -1.651500e-01 1.598740e-02 6.469455e-02 3.682639e-02 -6.608170e-02 -8.458635e-02 -1.822206e-02 3.345004e-02 -6.343077e-02 -2.672453e-02 2.345445e-02 5.015190e-02 7.509476e-03 4.856294e-02
<VARIANCE> 25
 5.580322e+01 4.193873e+01 6.180316e+01 5.447378e+01 7.010818e+01 6.536208e+01 3.939809e+01 5.035862e+01 5.822488e+01 4.487056e+01 4.972234e+01 2.894835e+01 2.363479e+00 1.882999e+00 2.494395e+00 2.441826e+00 3.306322e+00 3.371820e+00 2.663748e+00 3.120989e+00 3.582726e+00 2.962453e+00 3.147157e+00 2.149264e+00 1.179444e+00
<GCONST> 1.052574e+02
<STATE> 3
<MEAN> 25
 2.284617e-01 3.134238e-01 7.394930e-01 5.933629e-01 -9.455554e-01 -3.264765e-01 7.797380e-01 2.676243e-02 4.297895e-01 5.065691e-01 2.793613e-01 -1.913777e-01 1.389370e-02 5.558088e-02 2.988999e-02 -7.952739e-02 -7.992953e-02 -7.761488e-04 3.338983e-02 -5.372218e-02 -2.408873e-02 2.371412e-02 3.695314e-02 -3.468856e-03 5.123649e-02
<VARIANCE> 25
 5.737584e+01 4.369445e+01 6.586191e+01 5.718804e+01 7.053790e+01 6.783561e+01 4.077623e+01 5.052212e+01 5.829670e+01 4.553175e+01 4.966592e+01 2.972675e+01 2.430810e+00 1.919322e+00 2.648943e+00 2.534482e+00 3.337132e+00 3.426796e+00 2.696442e+00 3.109238e+00 3.631367e+00 3.018398e+00 3.106451e+00 2.149368e+00 1.216879e+00
<GCONST> 1.057894e+02
<STATE> 4
<MEAN> 25
 7.898476e-01 4.222608e-01 5.098370e-01 3.963522e-02 -1.039641e+00 -9.416447e-02 9.037647e-01 -1.795881e-01 6.960987e-01 7.830116e-01 1.020247e-02 -5.521721e-01 1.595955e-02 4.819062e-02 9.495183e-03 -8.140337e-02 -5.963668e-02 2.248128e-03 2.691500e-02 -4.528461e-02 -7.428330e-03 2.042266e-02 1.765608e-02 -1.785062e-02 5.229833e-02
<VARIANCE> 25
 5.985809e+01 4.501946e+01 7.404250e+01 6.130276e+01 6.917558e+01 7.315811e+01 4.299110e+01 4.989362e+01 6.077411e+01 4.592345e+01 5.192966e+01 3.338715e+01 2.414052e+00 1.891886e+00 2.934308e+00 2.705062e+00 3.297825e+00 3.473015e+00 2.753069e+00 3.031689e+00 3.625032e+00 2.999245e+00 3.116266e+00 2.220404e+00 1.292639e+00
<GCONST> 1.065867e+02
<TRANSP> 5
 0.000000e+00 1.000000e+00 0.000000e+00 0.000000e+00 0.000000e+00
 0.000000e+00 6.541293e-01 3.458708e-01 0.000000e+00 0.000000e+00
 0.000000e+00 0.000000e+00 6.541297e-01 3.458703e-01 0.000000e+00
 0.000000e+00 0.000000e+00 0.000000e+00 7.775323e-01 2.224676e-01
 0.000000e+00 0.000000e+00 0.000000e+00 0.000000e+00 0.000000e+00
<ENDHMM>
~h "w"
<BEGINHMM>
<NUMSTATES> 5
<STATE> 2
<MEAN> 25
 9.918199e-01 3.190744e-01 -8.140914e-01 -1.393078e+00 -1.879225e-01 1.310293e+00 -1.485440e-01 -8.259474e-04 -1.498935e-01 5.456788e-01 1.068018e+00 -4.512017e-01 1.662501e-01 -2.348266e-02 1.135085e-01 4.276858e-03 -7.738345e-03 -7.255568e-02 -5.324844e-03 -4.456599e-03 -5.753456e-02 -6.157954e-02 1.793149e-04 -2.493574e-02 2.151678e-01
<VARIANCE> 25
 8.972016e+01 4.123758e+01 5.536103e+01 6.756929e+01 5.758998e+01 7.274303e+01 4.771835e+01 4.723087e+01 5.672856e+01 4.757861e+01 4.143288e+01 3.240137e+01 2.107828e+00 2.096963e+00 2.367242e+00 2.668097e+00 2.956695e+00 3.673134e+00 2.948966e+00 3.262416e+00 3.227363e+00 3.219114e+00 2.680176e+00 2.035229e+00 2.336341e+00
<GCONST> 1.064177e+02
<STATE> 3
<MEAN> 25
 1.448071e+00 3.116681e-01 -5.005305e-01 -1.406590e+00 -2.450215e-01 1.092457e+00 -1.559772e-01 -2.218337e-02 -2.996749e-01 3.800994e-01 1.055388e+00 -5.072284e-01 1.385729e-01 -1.640206e-02 1.091829e-01 6.041675e-03 -2.363852e-02 -7.861365e-02 -7.884303e-03 -5.489930e-03 -4.642927e-02 -6.479120e-02 -1.365245e-02 -1.343328e-02 1.871005e-01
<VARIANCE> 25
 8.023323e+01 4.074447e+01 5.788095e+01 6.623241e+01 5.816899e+01 7.078840e+01 4.939387e+01 4.748231e+01 5.591359e+01 4.641233e+01 4.253931e+01 3.120272e+01 2.060995e+00 2.113178e+00 2.457410e+00 2.647754e+00 2.987844e+00 3.635982e+00 3.029918e+00 3.239732e+00 3.234699e+00 3.249030e+00 2.724523e+00 2.024657e+00 2.222045e+00
<GCONST> 1.062984e+02
<STATE> 4
<MEAN> 25
 2.318961e+00 4.877749e-01 -1.150834e-01 -1.646079e+00 -4.392776e-01 8.339217e-01 -2.647652e-01 -6.316032e-02 -4.853748e-01 1.412673e-01 9.276409e-01 -6.251199e-01 8.165403e-02 5.357279e-04 1.032606e-01 1.072675e-02 -4.297562e-02 -9.084188e-02 -1.486857e-02 -1.128933e-02 -2.646706e-02 -4.874976e-02 -3.288763e-02 9.601334e-03 1.221318e-01
<VARIANCE> 25
 7.057844e+01 4.135432e+01 6.071638e+01 6.461766e+01 5.857005e+01 6.760588e+01 4.980556e+01 4.761464e+01 5.349927e+01 4.389479e+01 4.347763e+01 3.090738e+01 1.920248e+00 2.082157e+00 2.518089e+00 2.580447e+00 2.989821e+00 3.436274e+00 3.081089e+00 3.140273e+00 3.122132e+00 3.193268e+00 2.705811e+00 2.011533e+00 1.904022e+00
<GCONST> 1.057148e+02
<TRANSP> 5
 0.000000e+00 1.000000e+00 0.000000e+00 0.000000e+00 0.000000e+00
 0.000000e+00 6.432269e-01 3.567730e-01 0.000000e+00 0.000000e+00
 0.000000e+00 0.000000e+00 6.432268e-01 3.567731e-01 0.000000e+00
 0.000000e+00 0.000000e+00 0.000000e+00 7.617264e-01 2.382736e-01
 0.000000e+00 0.000000e+00 0.000000e+00 0.000000e+00 0.000000e+00
<ENDHMM>
~h "y"
<BEGINHMM>
<NUMSTATES> 5
<STATE> 2
<MEAN> 25
 -5.517824e-02 -3.712288e-01 1.080303e+00 -8.767064e-02 -1.281834e+00 -3.320394e-01 1.151200e+00 7.559418e-01 -1.229075e-01 1.083765e-01 -4.985353e-02 2.367048e-01 2.562364e-03 2.355777e-02 9.516073e-03 1.524478e-02 8.112990e-02 4.470124e-02 -1.376789e-02 -1.721907e-02 -1.547435e-02 -3.827951e-02 -4.263028e-02 -1.501347e-03 2.895720e-03
<VARIANCE> 25
 3.675637e+01 3.715465e+01 5.385217e+01 4.394255e+01 6.223240e+01 5.391858e+01 4.045478e+01 4.825418e+01 4.787574e+01 4.552614e+01 3.726158e+01 3.158222e+01 1.220116e+00 1.912458e+00 2.339355e+00 2.319218e+00 3.081395e+00 2.848425e+00 2.520432e+00 3.179188e+00 2.886622e+00 2.980349e+00 2.580284e+00 2.080045e+00 1.271409e+00
<GCONST> 1.022521e+02
<STATE> 3
<MEAN> 25
 -5.040339e-02 -3.031089e-01 1.109827e+00 -5.756275e-02 -1.070834e+00 -2.176079e-01 1.091470e+00 7.031980e-01 -1.809075e-01 1.436352e-02 -1.590748e-01 2.304924e-01 4.983016e-04 3.121410e-02 7.501937e-03 9.074561e-03 7.971791e-02 4.258931e-02 -2.785087e-02 -2.355031e-02 -1.621308e-02 -2.823076e-02 -3.648146e-02 -1.024497e-03 2.197254e-03
<VARIANCE> 25
 3.525104e+01 3.705675e+01 5.361516e+01 4.436083e+01 6.084694e+01 5.363782e+01 3.970860e+01 4.844351e+01 4.750022e+01 4.519082e+01 3.692639e+01 3.158587e+01 1.198795e+00 1.901896e+00 2.342280e+00 2.317597e+00 3.052737e+00 2.830125e+00 2.513114e+00 3.127833e+00 2.884811e+00 2.930079e+00 2.535343e+00 2.073729e+00 1.214757e+00
<GCONST> 1.020047e+02
<STATE> 4
<MEAN> 25
 -8.394880e-02 -2.276549e-01 1.097762e+00 -4.303760e-02 -7.521493e-01 -1.378443e-01 9.426208e-01 6.167303e-01 -2.989832e-01 -6.331040e-02 -2.494925e-01 2.571630e-01 -4.379068e-03 2.833869e-02 1.766828e-03 6.029348e-03 6.703680e-02 2.951589e-02 -3.443798e-02 -2.476377e-02 -1.586419e-02 -1.381722e-02 -2.454366e-02 2.053268e-04 -1.331500e-03
<VARIANCE> 25
 3.450570e+01 3.684546e+01 5.344103e+01 4.512429e+01 6.025963e+01 5.422982e+01 3.886791e+01 4.893108e+01 4.791537e+01 4.479465e+01 3.689850e+01 3.162918e+01 1.136909e+00 1.838539e+00 2.283415e+00 2.270855e+00 2.993676e+00 2.789968e+00 2.463492e+00 3.051452e+00 2.828795e+00 2.843447e+00 2.476267e+00 2.046678e+00 1.093229e+00
<GCONST> 1.015788e+02
<TRANSP> 5
 0.000000e+00 1.000000e+00 0.000000e+00 0.000000e+00 0.000000e+00
 0.000000e+00 6.313705e-01 3.686294e-01 0.000000e+00 0.000000e+00
 0.000000e+00 0.000000e+00 6.313716e-01 3.686285e-01 0.000000e+00
 0.000000e+00 0.000000e+00 0.000000e+00 7.457089e-01 2.542911e-01
 0.000000e+00 0.000000e+00 0.000000e+00 0.000000e+00 0.000000e+00
<ENDHMM>
~h "z"
<BEGINHMM>
<NUMSTATES> 5
<STATE> 2
<MEAN> 25
 0.000000e+00 0.000000e+00 0.000000e+00 0.000000e+00 0.000000e+00 0.000000e+00 0.000000e+00 0.000000e+00 0.000000e+00 0.000000e+00 0.000000e+00 0.000000e+00 0.000000e+00 0.000000e+00 0.000000e+00 0.000000e+00 0.000000e+00 0.000000e+00 0.000000e+00 0.000000e+00 0.000000e+00 0.000000e+00 0.000000e+00 0.000000e+00 0.000000e+00
<VARIANCE> 25
 1.000000e+00 1.000000e+00 1.000000e+00 1.000000e+00 1.000000e+00 1.000000e+00 1.000000e+00 1.000000e+00 1.000000e+00 1.000000e+00 1.000000e+00 1.000000e+00 1.000000e+00 1.000000e+00 1.000000e+00 1.000000e+00 1.000000e+00 1.000000e+00 1.000000e+00 1.000000e+00 1.000000e+00 1.000000e+00 1.000000e+00 1.000000e+00 1.000000e+00
<GCONST> 4.594693e+01
<STATE> 3
<MEAN> 25
 0.000000e+00 0.000000e+00 0.000000e+00 0.000000e+00 0.000000e+00 0.000000e+00 0.000000e+00 0.000000e+00 0.000000e+00 0.000000e+00 0.000000e+00 0.000000e+00 0.000000e+00 0.000000e+00 0.000000e+00 0.000000e+00 0.000000e+00 0.000000e+00 0.000000e+00 0.000000e+00 0.000000e+00 0.000000e+00 0.000000e+00 0.000000e+00 0.000000e+00
<VARIANCE> 25
 1.000000e+00 1.000000e+00 1.000000e+00 1.000000e+00 1.000000e+00 1.000000e+00 1.000000e+00 1.000000e+00 1.000000e+00 1.000000e+00 1.000000e+00 1.000000e+00 1.000000e+00 1.000000e+00 1.000000e+00 1.000000e+00 1.000000e+00 1.000000e+00 1.000000e+00 1.000000e+00 1.000000e+00 1.000000e+00 1.000000e+00 1.000000e+00 1.000000e+00
<GCONST> 4.594693e+01
<STATE> 4
<MEAN> 25
 0.000000e+00 0.000000e+00 0.000000e+00 0.000000e+00 0.000000e+00 0.000000e+00 0.000000e+00 0.000000e+00 0.000000e+00 0.000000e+00 0.000000e+00 0.000000e+00 0.000000e+00 0.000000e+00 0.000000e+00 0.000000e+00 0.000000e+00 0.000000e+00 0.000000e+00 0.000000e+00 0.000000e+00 0.000000e+00 0.000000e+00 0.000000e+00 0.000000e+00
<VARIANCE> 25
 1.000000e+00 1.000000e+00 1.000000e+00 1.000000e+00 1.000000e+00 1.000000e+00 1.000000e+00 1.000000e+00 1.000000e+00 1.000000e+00 1.000000e+00 1.000000e+00 1.000000e+00 1.000000e+00 1.000000e+00 1.000000e+00 1.000000e+00 1.000000e+00 1.000000e+00 1.000000e+00 1.000000e+00 1.000000e+00 1.000000e+00 1.000000e+00 1.000000e+00
<GCONST> 4.594693e+01
<TRANSP> 5
 0.000000e+00 1.000000e+00 0.000000e+00 0.000000e+00 0.000000e+00
 0.000000e+00 6.000000e-01 4.000000e-01 0.000000e+00 0.000000e+00
 0.000000e+00 0.000000e+00 6.000000e-01 4.000000e-01 0.000000e+00
 0.000000e+00 0.000000e+00 0.000000e+00 7.000000e-01 3.000000e-01
 0.000000e+00 0.000000e+00 0.000000e+00 0.000000e+00 0.000000e+00
<ENDHMM>
~h "aw"
<BEGINHMM>
<NUMSTATES> 5
<STATE> 2
<MEAN> 25
 0.000000e+00 0.000000e+00 0.000000e+00 0.000000e+00 0.000000e+00 0.000000e+00 0.000000e+00 0.000000e+00 0.000000e+00 0.000000e+00 0.000000e+00 0.000000e+00 0.000000e+00 0.000000e+00 0.000000e+00 0.000000e+00 0.000000e+00 0.000000e+00 0.000000e+00 0.000000e+00 0.000000e+00 0.000000e+00 0.000000e+00 0.000000e+00 0.000000e+00
<VARIANCE> 25
 1.000000e+00 1.000000e+00 1.000000e+00 1.000000e+00 1.000000e+00 1.000000e+00 1.000000e+00 1.000000e+00 1.000000e+00 1.000000e+00 1.000000e+00 1.000000e+00 1.000000e+00 1.000000e+00 1.000000e+00 1.000000e+00 1.000000e+00 1.000000e+00 1.000000e+00 1.000000e+00 1.000000e+00 1.000000e+00 1.000000e+00 1.000000e+00 1.000000e+00
<GCONST> 4.594693e+01
<STATE> 3
<MEAN> 25
 0.000000e+00 0.000000e+00 0.000000e+00 0.000000e+00 0.000000e+00 0.000000e+00 0.000000e+00 0.000000e+00 0.000000e+00 0.000000e+00 0.000000e+00 0.000000e+00 0.000000e+00 0.000000e+00 0.000000e+00 0.000000e+00 0.000000e+00 0.000000e+00 0.000000e+00 0.000000e+00 0.000000e+00 0.000000e+00 0.000000e+00 0.000000e+00 0.000000e+00
<VARIANCE> 25
 1.000000e+00 1.000000e+00 1.000000e+00 1.000000e+00 1.000000e+00 1.000000e+00 1.000000e+00 1.000000e+00 1.000000e+00 1.000000e+00 1.000000e+00 1.000000e+00 1.000000e+00 1.000000e+00 1.000000e+00 1.000000e+00 1.000000e+00 1.000000e+00 1.000000e+00 1.000000e+00 1.000000e+00 1.000000e+00 1.000000e+00 1.000000e+00 1.000000e+00
<GCONST> 4.594693e+01
<STATE> 4
<MEAN> 25
 0.000000e+00 0.000000e+00 0.000000e+00 0.000000e+00 0.000000e+00 0.000000e+00 0.000000e+00 0.000000e+00 0.000000e+00 0.000000e+00 0.000000e+00 0.000000e+00 0.000000e+00 0.000000e+00 0.000000e+00 0.000000e+00 0.000000e+00 0.000000e+00 0.000000e+00 0.000000e+00 0.000000e+00 0.000000e+00 0.000000e+00 0.000000e+00 0.000000e+00
<VARIANCE> 25
 1.000000e+00 1.000000e+00 1.000000e+00 1.000000e+00 1.000000e+00 1.000000e+00 1.000000e+00 1.000000e+00 1.000000e+00 1.000000e+00 1.000000e+00 1.000000e+00 1.000000e+00 1.000000e+00 1.000000e+00 1.000000e+00 1.000000e+00 1.000000e+00 1.000000e+00 1.000000e+00 1.000000e+00 1.000000e+00 1.000000e+00 1.000000e+00 1.000000e+00
<GCONST> 4.594693e+01
<TRANSP> 5
 0.000000e+00 1.000000e+00 0.000000e+00 0.000000e+00 0.000000e+00
 0.000000e+00 6.000000e-01 4.000000e-01 0.000000e+00 0.000000e+00
 0.000000e+00 0.000000e+00 6.000000e-01 4.000000e-01 0.000000e+00
 0.000000e+00 0.000000e+00 0.000000e+00 7.000000e-01 3.000000e-01
 0.000000e+00 0.000000e+00 0.000000e+00 0.000000e+00 0.000000e+00
<ENDHMM>
~h "ay"
<BEGINHMM>
<NUMSTATES> 5
<STATE> 2
<MEAN> 25
 5.440937e-01 5.612379e-01 1.724432e+00 6.789894e-01 -1.966323e+00 -1.626281e-01 8.257026e-01 1.314506e-01 -5.678440e-01 -3.701996e-01 -2.844004e-01 -9.398386e-01 -5.923323e-02 6.606246e-02 3.652917e-02 1.559747e-04 -8.000422e-03 5.149299e-02 -5.960853e-02 -1.871943e-01 -5.386360e-02 -7.513279e-03 6.442980e-02 4.966049e-02 -1.072461e-01
<VARIANCE> 25
 9.042333e+00 2.647204e+01 2.580861e+01 1.471040e+01 4.086241e+01 3.441740e+01 3.359525e+01 4.260957e+01 3.672903e+01 1.984377e+01 3.231796e+01 2.629136e+01 6.254523e-01 1.846226e+00 9.316015e-01 1.158096e+00 3.543737e+00 2.553583e+00 3.147791e+00 3.372590e+00 2.978730e+00 1.923361e+00 2.098832e+00 2.004130e+00 1.038176e+00
<GCONST> 9.322024e+01
<STATE> 3
<MEAN> 25
 3.473339e-01 7.501255e-01 1.809007e+00 6.964334e-01 -1.970755e+00 3.574382e-03 6.947787e-01 -3.862001e-01 -6.886330e-01 -3.839874e-01 -1.172902e-01 -7.854909e-01 -8.114973e-02 6.195685e-02 1.512031e-02 1.175227e-03 -5.292213e-03 5.790300e-02 -2.499479e-02 -1.608990e-01 -3.447555e-02 9.858840e-03 5.896204e-02 7.471234e-02 -1.322232e-01
<VARIANCE> 25
 1.028536e+01 2.511696e+01 2.597938e+01 1.524363e+01 4.045526e+01 3.331408e+01 3.414263e+01 4.097360e+01 3.673982e+01 2.037431e+01 3.043167e+01 2.630004e+01 6.106409e-01 1.805608e+00 9.585078e-01 1.173828e+00 3.732194e+00 2.551155e+00 3.266060e+00 3.222736e+00 2.960689e+00 1.957356e+00 2.000589e+00 1.957486e+00 1.042159e+00
<GCONST> 9.322179e+01
<STATE> 4
<MEAN> 25
 5.604063e-02 9.092474e-01 1.883983e+00 6.950881e-01 -2.002374e+00 2.310853e-01 6.426078e-01 -8.821590e-01 -7.311919e-01 -3.615385e-01 -2.793794e-02 -5.618129e-01 -9.933791e-02 4.441767e-02 -3.556536e-03 9.392233e-03 1.652253e-02 6.381597e-02 2.642975e-03 -1.113548e-01 -1.593277e-02 4.739479e-02 7.885911e-02 1.051909e-01 -1.413521e-01
<VARIANCE> 25
 1.189545e+01 2.333785e+01 2.526698e+01 1.597669e+01 3.946731e+01 3.197613e+01 3.531033e+01 3.960288e+01 3.790263e+01 2.120428e+01 2.896477e+01 2.652537e+01 5.585150e-01 1.715734e+00 1.001603e+00 1.204890e+00 3.792198e+00 2.427890e+00 3.245557e+00 3.074508e+00 3.054950e+00 2.011625e+00 1.933700e+00 1.917307e+00 9.402610e-01
<GCONST> 9.302094e+01
<TRANSP> 5
 0.000000e+00 1.000000e+00 0.000000e+00 0.000000e+00 0.000000e+00
 0.000000e+00 6.496832e-01 3.503168e-01 0.000000e+00 0.000000e+00
 0.000000e+00 0.000000e+00 6.496832e-01 3.503168e-01 0.000000e+00
 0.000000e+00 0.000000e+00 0.000000e+00 7.586838e-01 2.413162e-01
 0.000000e+00 0.000000e+00 0.000000e+00 0.000000e+00 0.000000e+00
<ENDHMM>
~h "eu"
<BEGINHMM>
<NUMSTATES> 5
<STATE> 2
<MEAN> 25
 4.644498e-01 -1.692027e-01 -7.440576e-02 1.791568e-01 -4.639969e-03 -7.169381e-01 -3.298861e-01 1.144282e-01 1.270252e-01 1.672163e-01 2.417196e-01 -9.334718e-02 3.135163e-02 -2.293824e-02 1.295917e-02 9.225598e-03 1.706266e-03 -2.254645e-02 6.054582e-03 -1.078427e-02 -1.956208e-02 -2.627765e-03 -1.456609e-02 -2.251227e-02 4.375652e-02
<VARIANCE> 25
 5.153968e+01 4.117831e+01 5.197954e+01 4.390041e+01 5.345072e+01 6.142424e+01 4.394887e+01 5.138026e+01 5.253862e+01 4.137196e+01 3.924930e+01 3.306017e+01 2.059231e+00 2.423671e+00 2.346899e+00 2.367749e+00 3.063503e+00 3.514519e+00 2.908141e+00 3.423223e+00 3.257917e+00 2.966395e+00 2.830653e+00 2.302216e+00 1.565402e+00
<GCONST> 1.045994e+02
<STATE> 3
<MEAN> 25
 5.407513e-01 -2.282208e-01 -3.059151e-02 1.987826e-01 -6.764975e-03 -7.590337e-01 -3.003338e-01 9.739310e-02 7.858793e-02 1.628563e-01 2.054134e-01 -1.510548e-01 2.798797e-02 -2.133787e-02 1.548534e-02 6.650922e-03 -3.355612e-03 -1.492464e-02 1.216812e-02 -6.774989e-03 -1.704534e-02 -2.265391e-03 -1.652661e-02 -2.121869e-02 3.590523e-02
<VARIANCE> 25
 5.015741e+01 4.128788e+01 5.211814e+01 4.418645e+01 5.344116e+01 6.130735e+01 4.397793e+01 5.166600e+01 5.243761e+01 4.135187e+01 3.945135e+01 3.298262e+01 2.053239e+00 2.423946e+00 2.349652e+00 2.385019e+00 3.055809e+00 3.509441e+00 2.906076e+00 3.423146e+00 3.258800e+00 2.975357e+00 2.830876e+00 2.304079e+00 1.528850e+00
<GCONST> 1.045700e+02
<STATE> 4
<MEAN> 25
 6.904644e-01 -2.941695e-01 5.728322e-02 1.849775e-01 -5.482979e-02 -7.568251e-01 -2.261956e-01 1.417706e-01 6.101055e-02 1.845113e-01 1.365112e-01 -2.488082e-01 1.749980e-02 -1.889714e-02 1.448308e-02 2.400180e-03 -5.660338e-03 -4.022488e-03 1.810386e-02 -4.007323e-03 -1.187089e-02 -1.693561e-03 -1.656748e-02 -1.778458e-02 2.264418e-02
<VARIANCE> 25
 4.856050e+01 4.082109e+01 5.215352e+01 4.526373e+01 5.415120e+01 6.237767e+01 4.419010e+01 5.211818e+01 5.386610e+01 4.169873e+01 4.023844e+01 3.353378e+01 1.934131e+00 2.309953e+00 2.287975e+00 2.358941e+00 2.993763e+00 3.409372e+00 2.859119e+00 3.357417e+00 3.212383e+00 2.939236e+00 2.797212e+00 2.284738e+00 1.419141e+00
<GCONST> 1.043146e+02
<TRANSP> 5
 0.000000e+00 1.000000e+00 0.000000e+00 0.000000e+00 0.000000e+00
 0.000000e+00 6.274632e-01 3.725368e-01 0.000000e+00 0.000000e+00
 0.000000e+00 0.000000e+00 6.274639e-01 3.725361e-01 0.000000e+00
 0.000000e+00 0.000000e+00 0.000000e+00 7.429613e-01 2.570387e-01
 0.000000e+00 0.000000e+00 0.000000e+00 0.000000e+00 0.000000e+00
<ENDHMM>
~h "kh"
<BEGINHMM>
<NUMSTATES> 5
<STATE> 2
<MEAN> 25
 0.000000e+00 0.000000e+00 0.000000e+00 0.000000e+00 0.000000e+00 0.000000e+00 0.000000e+00 0.000000e+00 0.000000e+00 0.000000e+00 0.000000e+00 0.000000e+00 0.000000e+00 0.000000e+00 0.000000e+00 0.000000e+00 0.000000e+00 0.000000e+00 0.000000e+00 0.000000e+00 0.000000e+00 0.000000e+00 0.000000e+00 0.000000e+00 0.000000e+00
<VARIANCE> 25
 1.000000e+00 1.000000e+00 1.000000e+00 1.000000e+00 1.000000e+00 1.000000e+00 1.000000e+00 1.000000e+00 1.000000e+00 1.000000e+00 1.000000e+00 1.000000e+00 1.000000e+00 1.000000e+00 1.000000e+00 1.000000e+00 1.000000e+00 1.000000e+00 1.000000e+00 1.000000e+00 1.000000e+00 1.000000e+00 1.000000e+00 1.000000e+00 1.000000e+00
<GCONST> 4.594693e+01
<STATE> 3
<MEAN> 25
 0.000000e+00 0.000000e+00 0.000000e+00 0.000000e+00 0.000000e+00 0.000000e+00 0.000000e+00 0.000000e+00 0.000000e+00 0.000000e+00 0.000000e+00 0.000000e+00 0.000000e+00 0.000000e+00 0.000000e+00 0.000000e+00 0.000000e+00 0.000000e+00 0.000000e+00 0.000000e+00 0.000000e+00 0.000000e+00 0.000000e+00 0.000000e+00 0.000000e+00
<VARIANCE> 25
 1.000000e+00 1.000000e+00 1.000000e+00 1.000000e+00 1.000000e+00 1.000000e+00 1.000000e+00 1.000000e+00 1.000000e+00 1.000000e+00 1.000000e+00 1.000000e+00 1.000000e+00 1.000000e+00 1.000000e+00 1.000000e+00 1.000000e+00 1.000000e+00 1.000000e+00 1.000000e+00 1.000000e+00 1.000000e+00 1.000000e+00 1.000000e+00 1.000000e+00
<GCONST> 4.594693e+01
<STATE> 4
<MEAN> 25
 0.000000e+00 0.000000e+00 0.000000e+00 0.000000e+00 0.000000e+00 0.000000e+00 0.000000e+00 0.000000e+00 0.000000e+00 0.000000e+00 0.000000e+00 0.000000e+00 0.000000e+00 0.000000e+00 0.000000e+00 0.000000e+00 0.000000e+00 0.000000e+00 0.000000e+00 0.000000e+00 0.000000e+00 0.000000e+00 0.000000e+00 0.000000e+00 0.000000e+00
<VARIANCE> 25
 1.000000e+00 1.000000e+00 1.000000e+00 1.000000e+00 1.000000e+00 1.000000e+00 1.000000e+00 1.000000e+00 1.000000e+00 1.000000e+00 1.000000e+00 1.000000e+00 1.000000e+00 1.000000e+00 1.000000e+00 1.000000e+00 1.000000e+00 1.000000e+00 1.000000e+00 1.000000e+00 1.000000e+00 1.000000e+00 1.000000e+00 1.000000e+00 1.000000e+00
<GCONST> 4.594693e+01
<TRANSP> 5
 0.000000e+00 1.000000e+00 0.000000e+00 0.000000e+00 0.000000e+00
 0.000000e+00 6.000000e-01 4.000000e-01 0.000000e+00 0.000000e+00
 0.000000e+00 0.000000e+00 6.000000e-01 4.000000e-01 0.000000e+00
 0.000000e+00 0.000000e+00 0.000000e+00 7.000000e-01 3.000000e-01
 0.000000e+00 0.000000e+00 0.000000e+00 0.000000e+00 0.000000e+00
<ENDHMM>
~h "ng"
<BEGINHMM>
<NUMSTATES> 5
<STATE> 2
<MEAN> 25
 1.391573e+00 -4.548810e-02 2.135622e-01 -4.737541e-01 -5.473435e-01 -2.769410e-02 2.083116e-01 -2.221360e-01 -3.568972e-01 5.126485e-01 -3.694841e-01 -6.965916e-01 -9.732661e-03 1.429081e-02 7.218614e-03 -3.033763e-03 -1.154094e-02 2.165120e-03 7.215777e-03 -2.434982e-02 -6.717367e-03 1.251331e-02 -8.853139e-03 1.149925e-02 -1.795897e-02
<VARIANCE> 25
 3.795685e+01 3.994076e+01 4.872361e+01 4.552084e+01 5.275155e+01 5.634560e+01 4.104815e+01 4.973803e+01 4.535966e+01 4.031243e+01 3.841129e+01 3.434999e+01 1.297619e+00 2.068705e+00 2.153404e+00 2.495322e+00 3.056722e+00 3.055063e+00 2.661796e+00 3.256649e+00 2.901346e+00 2.789982e+00 2.586283e+00 2.272468e+00 9.652981e-01
<GCONST> 1.021797e+02
<STATE> 3
<MEAN> 25
 1.354628e+00 -1.165100e-02 2.262123e-01 -4.827701e-01 -5.715610e-01 -1.619083e-02 2.217539e-01 -2.941086e-01 -3.735835e-01 5.335093e-01 -3.985837e-01 -6.572996e-01 -1.670974e-02 1.396475e-02 2.812266e-03 -5.126161e-03 -4.382760e-03 8.108031e-03 2.315503e-03 -2.812967e-02 -6.178371e-03 7.544410e-03 -8.170782e-03 1.413083e-02 -2.518302e-02
<VARIANCE> 25
 3.767970e+01 3.949304e+01 4.830705e+01 4.507832e+01 5.263074e+01 5.561335e+01 4.079223e+01 4.943122e+01 4.516765e+01 4.060318e+01 3.859492e+01 3.411258e+01 1.275477e+00 2.064082e+00 2.132619e+00 2.477653e+00 3.031543e+00 3.054574e+00 2.643315e+00 3.234482e+00 2.895726e+00 2.809207e+00 2.564589e+00 2.271687e+00 9.513127e-01
<GCONST> 1.020388e+02
<STATE> 4
<MEAN> 25
 1.262200e+00 -5.990795e-03 1.814773e-01 -4.966751e-01 -5.479018e-01 3.566857e-02 2.132033e-01 -3.416366e-01 -3.259650e-01 4.782859e-01 -4.683618e-01 -5.750954e-01 -2.441974e-02 1.225108e-02 -1.409533e-03 -2.383999e-03 2.277354e-03 1.264761e-02 -9.331059e-04 -2.725364e-02 -2.392300e-03 -6.200950e-04 -5.380587e-03 1.721163e-02 -3.098430e-02
<VARIANCE> 25
 3.722949e+01 3.805487e+01 4.679827e+01 4.388322e+01 5.120956e+01 5.366833e+01 3.980885e+01 4.840780e+01 4.462618e+01 4.007587e+01 3.898033e+01 3.348534e+01 1.193457e+00 1.940209e+00 2.036623e+00 2.368894e+00 2.898756e+00 2.970274e+00 2.548032e+00 3.116044e+00 2.829281e+00 2.762758e+00 2.497918e+00 2.235682e+00 8.867320e-01
<GCONST> 1.012705e+02
<TRANSP> 5
 0.000000e+00 1.000000e+00 0.000000e+00 0.000000e+00 0.000000e+00
 0.000000e+00 6.266709e-01 3.733291e-01 0.000000e+00 0.000000e+00
 0.000000e+00 0.000000e+00 6.266702e-01 3.733298e-01 0.000000e+00
 0.000000e+00 0.000000e+00 0.000000e+00 7.453027e-01 2.546973e-01
 0.000000e+00 0.000000e+00 0.000000e+00 0.000000e+00 0.000000e+00
<ENDHMM>
~h "ny"
<BEGINHMM>
<NUMSTATES> 5
<STATE> 2
<MEAN> 25
 7.098448e-01 -1.049527e-02 9.824705e-01 -3.010545e-01 -9.117990e-01 -4.927401e-01 7.082134e-01 4.060605e-01 -4.674762e-01 5.403696e-02 -8.328150e-04 -8.202821e-02 -8.028220e-03 -9.878581e-03 3.143540e-03 2.373432e-02 2.941143e-02 1.555719e-02 1.973426e-02 3.599826e-03 -1.478203e-02 -2.807618e-03 -3.840565e-03 2.732037e-02 -2.678159e-02
<VARIANCE> 25
 3.901578e+01 4.030731e+01 4.810743e+01 4.583927e+01 5.536862e+01 5.749950e+01 4.499669e+01 5.364730e+01 5.230512e+01 4.557013e+01 3.919706e+01 2.982620e+01 1.787520e+00 2.296451e+00 2.324710e+00 2.606591e+00 3.298090e+00 3.294398e+00 3.132530e+00 3.669005e+00 3.368341e+00 3.178462e+00 2.735506e+00 2.161394e+00 1.101474e+00
<GCONST> 1.039868e+02
<STATE> 3
<MEAN> 25
 6.724684e-01 -3.250875e-02 9.753498e-01 -2.360435e-01 -8.231927e-01 -4.460406e-01 7.544687e-01 4.118581e-01 -4.997402e-01 4.085998e-02 -6.179796e-03 -7.969903e-03 -1.180802e-02 -1.492851e-02 -4.281869e-03 2.277240e-02 3.750870e-02 1.790633e-02 1.335845e-02 8.267771e-03 -8.793565e-03 -2.044727e-03 -2.910448e-03 2.693187e-02 -2.887054e-02
<VARIANCE> 25
 3.883440e+01 4.048174e+01 4.779337e+01 4.606085e+01 5.505473e+01 5.779008e+01 4.499385e+01 5.282125e+01 5.193945e+01 4.577922e+01 3.899632e+01 3.004628e+01 1.746712e+00 2.287087e+00 2.319530e+00 2.591200e+00 3.305971e+00 3.263812e+00 3.106021e+00 3.631910e+00 3.339441e+00 3.136972e+00 2.705240e+00 2.163151e+00 1.096915e+00
<GCONST> 1.038712e+02
<STATE> 4
<MEAN> 25
 6.104215e-01 -5.657158e-02 8.785058e-01 -1.992848e-01 -7.090232e-01 -3.250595e-01 7.846183e-01 3.511243e-01 -4.524041e-01 3.093653e-02 -4.831938e-02 5.406722e-02 -1.930023e-02 -1.537802e-02 -1.620704e-02 1.942377e-02 4.793905e-02 2.241204e-02 3.438463e-03 7.488932e-03 2.185875e-05 -1.506069e-03 -3.900815e-03 1.921027e-02 -3.171206e-02
<VARIANCE> 25
 3.930898e+01 4.024821e+01 4.740466e+01 4.637875e+01 5.590218e+01 6.091224e+01 4.465598e+01 5.276513e+01 5.354197e+01 4.571635e+01 3.980516e+01 3.049175e+01 1.646296e+00 2.191344e+00 2.250414e+00 2.510691e+00 3.298253e+00 3.176092e+00 3.017127e+00 3.541086e+00 3.263273e+00 3.036220e+00 2.657856e+00 2.156880e+00 1.053357e+00
<GCONST> 1.036353e+02
<TRANSP> 5
 0.000000e+00 1.000000e+00 0.000000e+00 0.000000e+00 0.000000e+00
 0.000000e+00 6.292396e-01 3.707605e-01 0.000000e+00 0.000000e+00
 0.000000e+00 0.000000e+00 6.292409e-01 3.707591e-01 0.000000e+00
 0.000000e+00 0.000000e+00 0.000000e+00 7.430539e-01 2.569461e-01
 0.000000e+00 0.000000e+00 0.000000e+00 0.000000e+00 0.000000e+00
<ENDHMM>
~h "sy"
<BEGINHMM>
<NUMSTATES> 5
<STATE> 2
<MEAN> 25
 0.000000e+00 0.000000e+00 0.000000e+00 0.000000e+00 0.000000e+00 0.000000e+00 0.000000e+00 0.000000e+00 0.000000e+00 0.000000e+00 0.000000e+00 0.000000e+00 0.000000e+00 0.000000e+00 0.000000e+00 0.000000e+00 0.000000e+00 0.000000e+00 0.000000e+00 0.000000e+00 0.000000e+00 0.000000e+00 0.000000e+00 0.000000e+00 0.000000e+00
<VARIANCE> 25
 1.000000e+00 1.000000e+00 1.000000e+00 1.000000e+00 1.000000e+00 1.000000e+00 1.000000e+00 1.000000e+00 1.000000e+00 1.000000e+00 1.000000e+00 1.000000e+00 1.000000e+00 1.000000e+00 1.000000e+00 1.000000e+00 1.000000e+00 1.000000e+00 1.000000e+00 1.000000e+00 1.000000e+00 1.000000e+00 1.000000e+00 1.000000e+00 1.000000e+00
<GCONST> 4.594693e+01
<STATE> 3
<MEAN> 25
 0.000000e+00 0.000000e+00 0.000000e+00 0.000000e+00 0.000000e+00 0.000000e+00 0.000000e+00 0.000000e+00 0.000000e+00 0.000000e+00 0.000000e+00 0.000000e+00 0.000000e+00 0.000000e+00 0.000000e+00 0.000000e+00 0.000000e+00 0.000000e+00 0.000000e+00 0.000000e+00 0.000000e+00 0.000000e+00 0.000000e+00 0.000000e+00 0.000000e+00
<VARIANCE> 25
 1.000000e+00 1.000000e+00 1.000000e+00 1.000000e+00 1.000000e+00 1.000000e+00 1.000000e+00 1.000000e+00 1.000000e+00 1.000000e+00 1.000000e+00 1.000000e+00 1.000000e+00 1.000000e+00 1.000000e+00 1.000000e+00 1.000000e+00 1.000000e+00 1.000000e+00 1.000000e+00 1.000000e+00 1.000000e+00 1.000000e+00 1.000000e+00 1.000000e+00
<GCONST> 4.594693e+01
<STATE> 4
<MEAN> 25
 0.000000e+00 0.000000e+00 0.000000e+00 0.000000e+00 0.000000e+00 0.000000e+00 0.000000e+00 0.000000e+00 0.000000e+00 0.000000e+00 0.000000e+00 0.000000e+00 0.000000e+00 0.000000e+00 0.000000e+00 0.000000e+00 0.000000e+00 0.000000e+00 0.000000e+00 0.000000e+00 0.000000e+00 0.000000e+00 0.000000e+00 0.000000e+00 0.000000e+00
<VARIANCE> 25
 1.000000e+00 1.000000e+00 1.000000e+00 1.000000e+00 1.000000e+00 1.000000e+00 1.000000e+00 1.000000e+00 1.000000e+00 1.000000e+00 1.000000e+00 1.000000e+00 1.000000e+00 1.000000e+00 1.000000e+00 1.000000e+00 1.000000e+00 1.000000e+00 1.000000e+00 1.000000e+00 1.000000e+00 1.000000e+00 1.000000e+00 1.000000e+00 1.000000e+00
<GCONST> 4.594693e+01
<TRANSP> 5
 0.000000e+00 1.000000e+00 0.000000e+00 0.000000e+00 0.000000e+00
 0.000000e+00 6.000000e-01 4.000000e-01 0.000000e+00 0.000000e+00
 0.000000e+00 0.000000e+00 6.000000e-01 4.000000e-01 0.000000e+00
 0.000000e+00 0.000000e+00 0.000000e+00 7.000000e-01 3.000000e-01
 0.000000e+00 0.000000e+00 0.000000e+00 0.000000e+00 0.000000e+00
<ENDHMM>
~h "sil"
<BEGINHMM>
<NUMSTATES> 5
<STATE> 2
<MEAN> 25
 -7.331483e+00 9.516994e-01 -1.525470e+00 2.029553e+00 1.963227e+00 4.175463e+00 1.470279e+00 -1.183242e-01 9.859704e-01 -1.209884e+00 2.255482e-01 2.345470e+00 3.553245e-04 -1.956184e-02 8.800024e-03 -2.422464e-02 1.861598e-02 1.863500e-02 -9.493208e-03 -7.785326e-03 2.027657e-02 5.077195e-02 1.012348e-02 -5.127653e-02 3.013725e-02
<VARIANCE> 25
 5.475999e+01 1.971836e+01 2.733446e+01 2.264005e+01 3.394305e+01 3.721934e+01 2.297988e+01 2.734407e+01 3.790633e+01 2.565829e+01 2.574819e+01 2.310275e+01 4.144162e-01 5.341732e-01 7.445598e-01 9.811580e-01 1.329562e+00 1.458316e+00 1.502157e+00 1.639933e+00 1.655478e+00 1.684013e+00 1.511638e+00 1.446003e+00 5.085459e-01
<GCONST> 8.708509e+01
<STATE> 3
<MEAN> 25
 -7.198477e+00 8.445265e-01 -1.479067e+00 1.946003e+00 1.990617e+00 4.123246e+00 1.424175e+00 -1.522140e-01 1.014248e+00 -1.152279e+00 2.398327e-01 2.206490e+00 7.015360e-02 -3.988748e-02 2.097510e-02 -3.295877e-02 1.517860e-03 -4.406954e-02 -1.423619e-02 -1.418850e-02 -2.153751e-03 -1.364581e-03 -2.186815e-04 -4.028000e-02 1.185340e-01
<VARIANCE> 25
 5.197558e+01 1.962634e+01 2.598847e+01 2.271073e+01 3.222550e+01 3.645401e+01 2.346904e+01 2.768039e+01 3.781280e+01 2.656780e+01 2.588591e+01 2.230684e+01 6.169780e-01 5.949142e-01 8.169376e-01 1.021231e+00 1.444216e+00 1.531208e+00 1.490276e+00 1.719209e+00 1.776854e+00 1.725436e+00 1.559486e+00 1.434527e+00 9.106531e-01
<GCONST> 8.845415e+01
<STATE> 4
<MEAN> 25
 -6.229959e+00 4.776918e-01 -1.237937e+00 1.657094e+00 1.951340e+00 3.432297e+00 1.182669e+00 -2.190524e-01 6.748030e-01 -1.150970e+00 2.393080e-01 1.892997e+00 1.255079e-01 -3.688965e-02 4.543378e-02 -4.083524e-02 2.677759e-03 -7.332312e-02 -1.790751e-02 -3.537993e-02 -4.679957e-02 -3.989188e-02 -1.332682e-02 -3.449910e-02 1.837087e-01
<VARIANCE> 25
 4.689071e+01 2.049962e+01 2.491971e+01 2.383207e+01 3.149799e+01 3.756669e+01 2.468040e+01 2.963690e+01 3.719374e+01 2.655191e+01 2.605054e+01 2.276229e+01 8.055034e-01 6.674721e-01 8.993162e-01 1.083404e+00 1.518412e+00 1.572756e+00 1.539387e+00 1.844453e+00 1.913906e+00 1.776819e+00 1.658299e+00 1.471457e+00 1.266873e+00
<GCONST> 8.977337e+01
<TRANSP> 5
 0.000000e+00 1.000000e+00 0.000000e+00 0.000000e+00 0.000000e+00
 0.000000e+00 6.586099e-01 3.413901e-01 0.000000e+00 0.000000e+00
 0.000000e+00 0.000000e+00 6.586116e-01 3.413884e-01 0.000000e+00
 0.000000e+00 0.000000e+00 0.000000e+00 7.899881e-01 2.100119e-01
 0.000000e+00 0.000000e+00 0.000000e+00 0.000000e+00 0.000000e+00
<ENDHMM>
