~o
<STREAMINFO> 1 25
<VECSIZE> 25<NULLD><MFCC_D_N_Z_0><DIAGC>
~h "proto"
<BEGINHMM>
<NUMSTATES> 5
<STATE> 2
<MEAN> 25
 -2.014380e-08 -2.253810e-08 -2.574864e-09 -7.166829e-09 5.295662e-09 -1.192204e-09 -1.464779e-08 5.337711e-09 -3.282148e-08 7.482194e-09 -1.466757e-08 -9.398502e-09 1.333823e-03 -1.847491e-03 1.452031e-03 -2.428910e-04 1.894821e-03 5.087137e-04 4.591770e-04 2.334553e-04 1.528246e-03 -4.097717e-04 1.414443e-03 -1.051351e-03 3.114247e-03
<VARIANCE> 25
 8.918002e+01 5.486167e+01 6.063828e+01 5.872104e+01 6.082326e+01 6.673161e+01 5.227402e+01 5.314776e+01 5.346204e+01 3.712578e+01 3.743366e+01 2.891569e+01 2.680467e+00 2.916458e+00 2.632814e+00 2.837256e+00 3.183374e+00 3.710812e+00 2.999838e+00 3.042751e+00 3.133656e+00 2.544472e+00 2.346654e+00 1.969408e+00 2.698955e+00
<GCONST> 1.067861e+02
<STATE> 3
<MEAN> 25
 -2.014380e-08 -2.253810e-08 -2.574864e-09 -7.166829e-09 5.295662e-09 -1.192204e-09 -1.464779e-08 5.337711e-09 -3.282148e-08 7.482194e-09 -1.466757e-08 -9.398502e-09 1.333823e-03 -1.847491e-03 1.452031e-03 -2.428910e-04 1.894821e-03 5.087137e-04 4.591770e-04 2.334553e-04 1.528246e-03 -4.097717e-04 1.414443e-03 -1.051351e-03 3.114247e-03
<VARIANCE> 25
 8.918002e+01 5.486167e+01 6.063828e+01 5.872104e+01 6.082326e+01 6.673161e+01 5.227402e+01 5.314776e+01 5.346204e+01 3.712578e+01 3.743366e+01 2.891569e+01 2.680467e+00 2.916458e+00 2.632814e+00 2.837256e+00 3.183374e+00 3.710812e+00 2.999838e+00 3.042751e+00 3.133656e+00 2.544472e+00 2.346654e+00 1.969408e+00 2.698955e+00
<GCONST> 1.067861e+02
<STATE> 4
<MEAN> 25
 -2.014380e-08 -2.253810e-08 -2.574864e-09 -7.166829e-09 5.295662e-09 -1.192204e-09 -1.464779e-08 5.337711e-09 -3.282148e-08 7.482194e-09 -1.466757e-08 -9.398502e-09 1.333823e-03 -1.847491e-03 1.452031e-03 -2.428910e-04 1.894821e-03 5.087137e-04 4.591770e-04 2.334553e-04 1.528246e-03 -4.097717e-04 1.414443e-03 -1.051351e-03 3.114247e-03
<VARIANCE> 25
 8.918002e+01 5.486167e+01 6.063828e+01 5.872104e+01 6.082326e+01 6.673161e+01 5.227402e+01 5.314776e+01 5.346204e+01 3.712578e+01 3.743366e+01 2.891569e+01 2.680467e+00 2.916458e+00 2.632814e+00 2.837256e+00 3.183374e+00 3.710812e+00 2.999838e+00 3.042751e+00 3.133656e+00 2.544472e+00 2.346654e+00 1.969408e+00 2.698955e+00
<GCONST> 1.067861e+02
<TRANSP> 5
 0.000000e+00 1.000000e+00 0.000000e+00 0.000000e+00 0.000000e+00
 0.000000e+00 6.000000e-01 4.000000e-01 0.000000e+00 0.000000e+00
 0.000000e+00 0.000000e+00 6.000000e-01 4.000000e-01 0.000000e+00
 0.000000e+00 0.000000e+00 0.000000e+00 7.000000e-01 3.000000e-01
 0.000000e+00 0.000000e+00 0.000000e+00 0.000000e+00 0.000000e+00
<ENDHMM>
