~o
<STREAMINFO> 1 39
<VECSIZE> 39<NULLD><MFCC_D_A_0><DIAGC>
~h "proto"
<BEGINHMM>
<NUMSTATES> 5
<STATE> 2
<MEAN> 39
 -2.871176e+00 -1.210169e+00 -1.909897e+00 -2.153046e+00 -1.153519e+00 -5.112576e+00 -3.278625e+00 -3.592194e+00 -1.967030e+00 -2.096247e+00 -4.042145e-01 -4.196087e+00 6.427600e+01 1.567627e-02 -4.946888e-03 7.985411e-03 -4.012384e-03 7.301376e-03 -5.301764e-03 1.108212e-03 -4.158440e-03 -7.063185e-03 -5.468624e-03 -3.914428e-03 -4.990609e-03 2.389602e-02 -1.075757e-04 1.648124e-04 -6.448419e-05 1.133274e-04 -6.762289e-05 -2.996763e-04 1.473254e-04 -2.242884e-04 -4.265811e-04 -7.040927e-04 -1.109568e-04 6.045462e-04 -2.731018e-04
<VARIANCE> 39
 6.152547e+01 4.549152e+01 6.051070e+01 7.387473e+01 7.426376e+01 7.697537e+01 6.377945e+01 6.180811e+01 8.493360e+01 5.913213e+01 4.553172e+01 4.633566e+01 7.278809e+01 1.603781e+00 2.033145e+00 2.193036e+00 2.327582e+00 2.966471e+00 3.040655e+00 2.683194e+00 3.150214e+00 3.034253e+00 2.845136e+00 2.640412e+00 2.189890e+00 1.272874e+00 2.368793e-01 3.366330e-01 3.526930e-01 4.001145e-01 5.108750e-01 5.308349e-01 4.884102e-01 5.539848e-01 5.433121e-01 5.243866e-01 4.856952e-01 4.017231e-01 1.910995e-01
<GCONST> 1.250671e+02
<STATE> 3
<MEAN> 39
 -2.871176e+00 -1.210169e+00 -1.909897e+00 -2.153046e+00 -1.153519e+00 -5.112576e+00 -3.278625e+00 -3.592194e+00 -1.967030e+00 -2.096247e+00 -4.042145e-01 -4.196087e+00 6.427600e+01 1.567627e-02 -4.946888e-03 7.985411e-03 -4.012384e-03 7.301376e-03 -5.301764e-03 1.108212e-03 -4.158440e-03 -7.063185e-03 -5.468624e-03 -3.914428e-03 -4.990609e-03 2.389602e-02 -1.075757e-04 1.648124e-04 -6.448419e-05 1.133274e-04 -6.762289e-05 -2.996763e-04 1.473254e-04 -2.242884e-04 -4.265811e-04 -7.040927e-04 -1.109568e-04 6.045462e-04 -2.731018e-04
<VARIANCE> 39
 6.152547e+01 4.549152e+01 6.051070e+01 7.387473e+01 7.426376e+01 7.697537e+01 6.377945e+01 6.180811e+01 8.493360e+01 5.913213e+01 4.553172e+01 4.633566e+01 7.278809e+01 1.603781e+00 2.033145e+00 2.193036e+00 2.327582e+00 2.966471e+00 3.040655e+00 2.683194e+00 3.150214e+00 3.034253e+00 2.845136e+00 2.640412e+00 2.189890e+00 1.272874e+00 2.368793e-01 3.366330e-01 3.526930e-01 4.001145e-01 5.108750e-01 5.308349e-01 4.884102e-01 5.539848e-01 5.433121e-01 5.243866e-01 4.856952e-01 4.017231e-01 1.910995e-01
<GCONST> 1.250671e+02
<STATE> 4
<MEAN> 39
 -2.871176e+00 -1.210169e+00 -1.909897e+00 -2.153046e+00 -1.153519e+00 -5.112576e+00 -3.278625e+00 -3.592194e+00 -1.967030e+00 -2.096247e+00 -4.042145e-01 -4.196087e+00 6.427600e+01 1.567627e-02 -4.946888e-03 7.985411e-03 -4.012384e-03 7.301376e-03 -5.301764e-03 1.108212e-03 -4.158440e-03 -7.063185e-03 -5.468624e-03 -3.914428e-03 -4.990609e-03 2.389602e-02 -1.075757e-04 1.648124e-04 -6.448419e-05 1.133274e-04 -6.762289e-05 -2.996763e-04 1.473254e-04 -2.242884e-04 -4.265811e-04 -7.040927e-04 -1.109568e-04 6.045462e-04 -2.731018e-04
<VARIANCE> 39
 6.152547e+01 4.549152e+01 6.051070e+01 7.387473e+01 7.426376e+01 7.697537e+01 6.377945e+01 6.180811e+01 8.493360e+01 5.913213e+01 4.553172e+01 4.633566e+01 7.278809e+01 1.603781e+00 2.033145e+00 2.193036e+00 2.327582e+00 2.966471e+00 3.040655e+00 2.683194e+00 3.150214e+00 3.034253e+00 2.845136e+00 2.640412e+00 2.189890e+00 1.272874e+00 2.368793e-01 3.366330e-01 3.526930e-01 4.001145e-01 5.108750e-01 5.308349e-01 4.884102e-01 5.539848e-01 5.433121e-01 5.243866e-01 4.856952e-01 4.017231e-01 1.910995e-01
<GCONST> 1.250671e+02
<TRANSP> 5
 0.000000e+00 1.000000e+00 0.000000e+00 0.000000e+00 0.000000e+00
 0.000000e+00 6.000000e-01 4.000000e-01 0.000000e+00 0.000000e+00
 0.000000e+00 0.000000e+00 6.000000e-01 4.000000e-01 0.000000e+00
 0.000000e+00 0.000000e+00 0.000000e+00 7.000000e-01 3.000000e-01
 0.000000e+00 0.000000e+00 0.000000e+00 0.000000e+00 0.000000e+00
<ENDHMM>
