~o
<STREAMINFO> 1 25
<VECSIZE> 25<NULLD><MFCC_D_N_Z_0><DIAGC>
~h "proto"
<BEGINHMM>
<NUMSTATES> 5
<STATE> 2
<MEAN> 25
 -6.309956e-09 -7.070882e-08 -3.837986e-08 -5.451324e-08 -1.147383e-08 5.569795e-08 -6.387950e-09 -1.653965e-08 6.270884e-08 -4.374662e-09 -7.836473e-09 -2.946201e-08 5.231873e-04 3.952425e-05 8.259650e-04 -7.065663e-04 -1.435058e-03 -8.848339e-04 -9.601546e-04 -8.567526e-04 2.172469e-04 6.978322e-04 5.531641e-05 1.311254e-04 3.129609e-04
<VARIANCE> 25
 2.445981e+01 4.642633e+01 6.042920e+01 5.469841e+01 4.928952e+01 5.677665e+01 5.162048e+01 5.383903e+01 4.829652e+01 3.907188e+01 4.072022e+01 3.948290e+01 1.341980e+00 2.278205e+00 2.530186e+00 3.007696e+00 3.044527e+00 3.071455e+00 3.239964e+00 3.674485e+00 3.223224e+00 2.820910e+00 2.908668e+00 2.432503e+00 1.966230e+00
<GCONST> 1.045769e+02
<STATE> 3
<MEAN> 25
 -6.309956e-09 -7.070882e-08 -3.837986e-08 -5.451324e-08 -1.147383e-08 5.569795e-08 -6.387950e-09 -1.653965e-08 6.270884e-08 -4.374662e-09 -7.836473e-09 -2.946201e-08 5.231873e-04 3.952425e-05 8.259650e-04 -7.065663e-04 -1.435058e-03 -8.848339e-04 -9.601546e-04 -8.567526e-04 2.172469e-04 6.978322e-04 5.531641e-05 1.311254e-04 3.129609e-04
<VARIANCE> 25
 2.445981e+01 4.642633e+01 6.042920e+01 5.469841e+01 4.928952e+01 5.677665e+01 5.162048e+01 5.383903e+01 4.829652e+01 3.907188e+01 4.072022e+01 3.948290e+01 1.341980e+00 2.278205e+00 2.530186e+00 3.007696e+00 3.044527e+00 3.071455e+00 3.239964e+00 3.674485e+00 3.223224e+00 2.820910e+00 2.908668e+00 2.432503e+00 1.966230e+00
<GCONST> 1.045769e+02
<STATE> 4
<MEAN> 25
 -6.309956e-09 -7.070882e-08 -3.837986e-08 -5.451324e-08 -1.147383e-08 5.569795e-08 -6.387950e-09 -1.653965e-08 6.270884e-08 -4.374662e-09 -7.836473e-09 -2.946201e-08 5.231873e-04 3.952425e-05 8.259650e-04 -7.065663e-04 -1.435058e-03 -8.848339e-04 -9.601546e-04 -8.567526e-04 2.172469e-04 6.978322e-04 5.531641e-05 1.311254e-04 3.129609e-04
<VARIANCE> 25
 2.445981e+01 4.642633e+01 6.042920e+01 5.469841e+01 4.928952e+01 5.677665e+01 5.162048e+01 5.383903e+01 4.829652e+01 3.907188e+01 4.072022e+01 3.948290e+01 1.341980e+00 2.278205e+00 2.530186e+00 3.007696e+00 3.044527e+00 3.071455e+00 3.239964e+00 3.674485e+00 3.223224e+00 2.820910e+00 2.908668e+00 2.432503e+00 1.966230e+00
<GCONST> 1.045769e+02
<TRANSP> 5
 0.000000e+00 1.000000e+00 0.000000e+00 0.000000e+00 0.000000e+00
 0.000000e+00 6.000000e-01 4.000000e-01 0.000000e+00 0.000000e+00
 0.000000e+00 0.000000e+00 6.000000e-01 4.000000e-01 0.000000e+00
 0.000000e+00 0.000000e+00 0.000000e+00 7.000000e-01 3.000000e-01
 0.000000e+00 0.000000e+00 0.000000e+00 0.000000e+00 0.000000e+00
<ENDHMM>
