~o
<STREAMINFO> 1 39
<VECSIZE> 39<NULLD><MFCC_D_A_0><DIAGC>
~h "proto"
<BEGINHMM>
<NUMSTATES> 5
<STATE> 2
<MEAN> 39
 -2.183657e+00 -2.469947e+00 -1.471813e+00 -2.069449e+00 -6.369024e+00 -2.515165e+00 -4.644001e+00 -1.987965e+00 -2.540037e+00 -2.282841e+00 -1.878227e+00 -4.116907e+00 6.154852e+01 4.911031e-03 2.768358e-05 1.639942e-03 -1.232054e-03 1.650231e-03 -6.721498e-04 4.813342e-05 -9.946853e-04 -1.654189e-03 -1.237809e-03 -4.083645e-04 -1.237532e-03 5.179218e-03 -6.356195e-04 3.623663e-04 -1.575561e-04 6.312811e-04 6.001423e-04 2.302222e-04 3.139650e-04 9.077202e-05 -4.309310e-05 -7.986827e-05 8.976444e-05 4.421586e-04 -1.065164e-03
<VARIANCE> 39
 7.630592e+01 7.494741e+01 8.308014e+01 1.091964e+02 1.008813e+02 9.094094e+01 6.859586e+01 7.340070e+01 7.924672e+01 6.711219e+01 5.660074e+01 4.957197e+01 1.314211e+02 2.007214e+00 2.613537e+00 2.631267e+00 3.075601e+00 3.371490e+00 3.362933e+00 3.210937e+00 3.451807e+00 3.345253e+00 3.033037e+00 2.898925e+00 2.369506e+00 2.213338e+00 2.957236e-01 4.106329e-01 4.173895e-01 5.119543e-01 5.798345e-01 5.905511e-01 5.757948e-01 6.163225e-01 5.963899e-01 5.562506e-01 5.258444e-01 4.335748e-01 3.107661e-01
<GCONST> 1.325976e+02
<STATE> 3
<MEAN> 39
 -2.183657e+00 -2.469947e+00 -1.471813e+00 -2.069449e+00 -6.369024e+00 -2.515165e+00 -4.644001e+00 -1.987965e+00 -2.540037e+00 -2.282841e+00 -1.878227e+00 -4.116907e+00 6.154852e+01 4.911031e-03 2.768358e-05 1.639942e-03 -1.232054e-03 1.650231e-03 -6.721498e-04 4.813342e-05 -9.946853e-04 -1.654189e-03 -1.237809e-03 -4.083645e-04 -1.237532e-03 5.179218e-03 -6.356195e-04 3.623663e-04 -1.575561e-04 6.312811e-04 6.001423e-04 2.302222e-04 3.139650e-04 9.077202e-05 -4.309310e-05 -7.986827e-05 8.976444e-05 4.421586e-04 -1.065164e-03
<VARIANCE> 39
 7.630592e+01 7.494741e+01 8.308014e+01 1.091964e+02 1.008813e+02 9.094094e+01 6.859586e+01 7.340070e+01 7.924672e+01 6.711219e+01 5.660074e+01 4.957197e+01 1.314211e+02 2.007214e+00 2.613537e+00 2.631267e+00 3.075601e+00 3.371490e+00 3.362933e+00 3.210937e+00 3.451807e+00 3.345253e+00 3.033037e+00 2.898925e+00 2.369506e+00 2.213338e+00 2.957236e-01 4.106329e-01 4.173895e-01 5.119543e-01 5.798345e-01 5.905511e-01 5.757948e-01 6.163225e-01 5.963899e-01 5.562506e-01 5.258444e-01 4.335748e-01 3.107661e-01
<GCONST> 1.325976e+02
<STATE> 4
<MEAN> 39
 -2.183657e+00 -2.469947e+00 -1.471813e+00 -2.069449e+00 -6.369024e+00 -2.515165e+00 -4.644001e+00 -1.987965e+00 -2.540037e+00 -2.282841e+00 -1.878227e+00 -4.116907e+00 6.154852e+01 4.911031e-03 2.768358e-05 1.639942e-03 -1.232054e-03 1.650231e-03 -6.721498e-04 4.813342e-05 -9.946853e-04 -1.654189e-03 -1.237809e-03 -4.083645e-04 -1.237532e-03 5.179218e-03 -6.356195e-04 3.623663e-04 -1.575561e-04 6.312811e-04 6.001423e-04 2.302222e-04 3.139650e-04 9.077202e-05 -4.309310e-05 -7.986827e-05 8.976444e-05 4.421586e-04 -1.065164e-03
<VARIANCE> 39
 7.630592e+01 7.494741e+01 8.308014e+01 1.091964e+02 1.008813e+02 9.094094e+01 6.859586e+01 7.340070e+01 7.924672e+01 6.711219e+01 5.660074e+01 4.957197e+01 1.314211e+02 2.007214e+00 2.613537e+00 2.631267e+00 3.075601e+00 3.371490e+00 3.362933e+00 3.210937e+00 3.451807e+00 3.345253e+00 3.033037e+00 2.898925e+00 2.369506e+00 2.213338e+00 2.957236e-01 4.106329e-01 4.173895e-01 5.119543e-01 5.798345e-01 5.905511e-01 5.757948e-01 6.163225e-01 5.963899e-01 5.562506e-01 5.258444e-01 4.335748e-01 3.107661e-01
<GCONST> 1.325976e+02
<TRANSP> 5
 0.000000e+00 1.000000e+00 0.000000e+00 0.000000e+00 0.000000e+00
 0.000000e+00 6.000000e-01 4.000000e-01 0.000000e+00 0.000000e+00
 0.000000e+00 0.000000e+00 6.000000e-01 4.000000e-01 0.000000e+00
 0.000000e+00 0.000000e+00 0.000000e+00 7.000000e-01 3.000000e-01
 0.000000e+00 0.000000e+00 0.000000e+00 0.000000e+00 0.000000e+00
<ENDHMM>
