~o
<STREAMINFO> 1 25
<VECSIZE> 25<NULLD><MFCC_D_N_Z_0><DIAGC>
~h "proto"
<BEGINHMM>
<NUMSTATES> 5
<STATE> 2
<MEAN> 25
 -1.149891e-09 -1.711228e-08 1.109629e-09 -8.180492e-09 -1.963189e-09 8.907628e-09 -9.343669e-09 4.890056e-09 1.512010e-08 -4.210630e-09 -4.116417e-09 4.116819e-09 4.911234e-03 2.758762e-05 1.639950e-03 -1.232183e-03 1.650129e-03 -6.721028e-04 4.810407e-05 -9.946526e-04 -1.654179e-03 -1.237755e-03 -4.083495e-04 -1.237597e-03 5.179345e-03
<VARIANCE> 25
 5.920821e+01 5.367274e+01 6.258344e+01 6.030228e+01 6.538644e+01 6.290111e+01 5.304599e+01 5.629497e+01 5.414278e+01 4.758770e+01 4.471745e+01 3.669819e+01 2.007221e+00 2.613516e+00 2.631202e+00 3.075539e+00 3.371441e+00 3.362950e+00 3.210965e+00 3.451808e+00 3.345184e+00 3.032900e+00 2.898690e+00 2.369188e+00 2.213483e+00
<GCONST> 1.074481e+02
<STATE> 3
<MEAN> 25
 -1.149891e-09 -1.711228e-08 1.109629e-09 -8.180492e-09 -1.963189e-09 8.907628e-09 -9.343669e-09 4.890056e-09 1.512010e-08 -4.210630e-09 -4.116417e-09 4.116819e-09 4.911234e-03 2.758762e-05 1.639950e-03 -1.232183e-03 1.650129e-03 -6.721028e-04 4.810407e-05 -9.946526e-04 -1.654179e-03 -1.237755e-03 -4.083495e-04 -1.237597e-03 5.179345e-03
<VARIANCE> 25
 5.920821e+01 5.367274e+01 6.258344e+01 6.030228e+01 6.538644e+01 6.290111e+01 5.304599e+01 5.629497e+01 5.414278e+01 4.758770e+01 4.471745e+01 3.669819e+01 2.007221e+00 2.613516e+00 2.631202e+00 3.075539e+00 3.371441e+00 3.362950e+00 3.210965e+00 3.451808e+00 3.345184e+00 3.032900e+00 2.898690e+00 2.369188e+00 2.213483e+00
<GCONST> 1.074481e+02
<STATE> 4
<MEAN> 25
 -1.149891e-09 -1.711228e-08 1.109629e-09 -8.180492e-09 -1.963189e-09 8.907628e-09 -9.343669e-09 4.890056e-09 1.512010e-08 -4.210630e-09 -4.116417e-09 4.116819e-09 4.911234e-03 2.758762e-05 1.639950e-03 -1.232183e-03 1.650129e-03 -6.721028e-04 4.810407e-05 -9.946526e-04 -1.654179e-03 -1.237755e-03 -4.083495e-04 -1.237597e-03 5.179345e-03
<VARIANCE> 25
 5.920821e+01 5.367274e+01 6.258344e+01 6.030228e+01 6.538644e+01 6.290111e+01 5.304599e+01 5.629497e+01 5.414278e+01 4.758770e+01 4.471745e+01 3.669819e+01 2.007221e+00 2.613516e+00 2.631202e+00 3.075539e+00 3.371441e+00 3.362950e+00 3.210965e+00 3.451808e+00 3.345184e+00 3.032900e+00 2.898690e+00 2.369188e+00 2.213483e+00
<GCONST> 1.074481e+02
<TRANSP> 5
 0.000000e+00 1.000000e+00 0.000000e+00 0.000000e+00 0.000000e+00
 0.000000e+00 6.000000e-01 4.000000e-01 0.000000e+00 0.000000e+00
 0.000000e+00 0.000000e+00 6.000000e-01 4.000000e-01 0.000000e+00
 0.000000e+00 0.000000e+00 0.000000e+00 7.000000e-01 3.000000e-01
 0.000000e+00 0.000000e+00 0.000000e+00 0.000000e+00 0.000000e+00
<ENDHMM>
