~o
<STREAMINFO> 1 25
<VECSIZE> 25<NULLD><MFCC_D_N_Z_0><DIAGC>
~h "@"
<BEGINHMM>
<NUMSTATES> 5
<STATE> 2
<MEAN> 25
 2.431305e+00 1.452570e-01 -8.696303e-01 8.087182e-01 -2.610779e-01 -2.130401e+00 -2.264143e+00 -1.084648e+00 1.508978e+00 6.702417e-01 -2.940944e-01 -8.189502e-01 6.140602e-01 -4.959111e-01 -3.321151e-02 -1.372657e-01 -2.770775e-01 -4.048110e-01 -3.356316e-01 1.485395e-02 1.761536e-01 1.496255e-01 -1.195364e-01 -2.483126e-01 6.326302e-01
<VARIANCE> 25
 4.271079e+01 5.689325e+01 4.511116e+01 4.989925e+01 5.644183e+01 6.900562e+01 5.606703e+01 6.128722e+01 5.843005e+01 4.932566e+01 4.331873e+01 3.749823e+01 3.810927e+00 5.372147e+00 3.779109e+00 4.793065e+00 4.945535e+00 6.106194e+00 5.395019e+00 5.471407e+00 5.366055e+00 4.703457e+00 4.307447e+00 3.524833e+00 4.576752e+00
<GCONST> 1.134085e+02
<STATE> 3
<MEAN> 25
 3.560231e+00 -9.231600e-01 -8.409168e-01 4.157588e-01 -8.419486e-01 -2.883807e+00 -2.728641e+00 -1.059529e+00 1.620752e+00 8.229002e-01 -5.452046e-01 -1.291676e+00 3.782728e-01 -3.422093e-01 4.625206e-02 -9.372309e-02 -2.027710e-01 -1.065881e-01 -9.244188e-02 3.733513e-02 1.422005e-02 3.273739e-02 -1.012031e-01 -1.548011e-01 3.802868e-01
<VARIANCE> 25
 3.427575e+01 5.333421e+01 4.444093e+01 4.992697e+01 5.361172e+01 6.439896e+01 5.534873e+01 6.410524e+01 5.986235e+01 5.160604e+01 4.536745e+01 3.824545e+01 2.986428e+00 4.840926e+00 3.568243e+00 4.648952e+00 4.621920e+00 5.648499e+00 5.064245e+00 5.413052e+00 5.180146e+00 4.517879e+00 4.214499e+00 3.413939e+00 3.916077e+00
<GCONST> 1.122157e+02
<STATE> 4
<MEAN> 25
 4.202719e+00 -1.462511e+00 -6.613805e-01 3.515246e-01 -1.128368e+00 -2.924060e+00 -2.631006e+00 -9.752175e-01 1.388345e+00 5.831187e-01 -9.224351e-01 -1.570310e+00 4.312366e-02 -5.467259e-02 1.044524e-01 2.441183e-02 -3.817462e-02 2.155365e-01 1.486148e-01 -1.151283e-03 -1.032644e-01 -9.218781e-02 -4.942365e-02 -1.808649e-02 1.148101e-03
<VARIANCE> 25
 3.152078e+01 5.322058e+01 4.619229e+01 5.219675e+01 5.383593e+01 6.394737e+01 5.357320e+01 6.639000e+01 6.208502e+01 5.484291e+01 4.730539e+01 3.838600e+01 2.062053e+00 3.903310e+00 3.059344e+00 3.979193e+00 3.828087e+00 4.520130e+00 4.182151e+00 4.653868e+00 4.351887e+00 3.854000e+00 3.668644e+00 2.941062e+00 2.863627e+00
<GCONST> 1.097724e+02
<TRANSP> 5
 0.000000e+00 1.000000e+00 0.000000e+00 0.000000e+00 0.000000e+00
 0.000000e+00 4.612817e-01 5.387183e-01 0.000000e+00 0.000000e+00
 0.000000e+00 0.000000e+00 4.451664e-01 5.548336e-01 0.000000e+00
 0.000000e+00 0.000000e+00 0.000000e+00 5.350919e-01 4.649081e-01
 0.000000e+00 0.000000e+00 0.000000e+00 0.000000e+00 0.000000e+00
<ENDHMM>
~h "a"
<BEGINHMM>
<NUMSTATES> 5
<STATE> 2
<MEAN> 25
 3.445331e+00 -5.719465e+00 -2.940166e+00 -2.580750e+00 1.903137e-01 -1.069631e+00 -1.906608e-02 2.859991e+00 1.993019e+00 -4.028555e-01 -2.469676e+00 -2.310803e+00 1.183775e-01 -1.720820e-01 -1.733472e-01 6.923848e-02 2.380255e-01 1.661077e-01 1.244382e-01 1.072296e-01 3.769140e-02 -1.137557e-01 -2.562706e-01 -7.260745e-02 -1.060959e-02
<VARIANCE> 25
 3.335566e+01 4.880830e+01 4.466792e+01 4.876474e+01 5.766354e+01 5.951289e+01 5.155923e+01 5.645895e+01 5.456889e+01 4.918789e+01 4.998330e+01 4.225321e+01 1.620263e+00 3.208724e+00 2.380833e+00 3.096931e+00 3.283696e+00 3.388695e+00 3.275657e+00 3.883086e+00 3.440052e+00 3.190844e+00 3.209076e+00 2.786077e+00 2.599867e+00
<GCONST> 1.068366e+02
<STATE> 3
<MEAN> 25
 3.453496e+00 -5.394145e+00 -3.033069e+00 -2.068319e+00 6.242746e-01 -6.971160e-01 1.440040e-01 2.679095e+00 1.847956e+00 -5.931019e-01 -2.629978e+00 -2.151678e+00 -6.101774e-02 3.494617e-01 5.708729e-02 3.306936e-01 1.508898e-01 1.573945e-01 7.446811e-02 -1.865565e-01 -1.054457e-01 -4.522511e-02 -5.095134e-03 1.432118e-01 -4.582665e-01
<VARIANCE> 25
 3.121945e+01 4.882967e+01 4.231914e+01 4.765203e+01 5.510472e+01 5.676316e+01 4.943369e+01 5.479557e+01 5.312542e+01 4.784923e+01 4.908360e+01 4.090783e+01 1.309273e+00 2.641731e+00 2.109687e+00 2.687825e+00 2.937193e+00 3.068888e+00 3.061015e+00 3.497960e+00 3.134345e+00 2.912652e+00 2.914123e+00 2.518809e+00 2.025695e+00
<GCONST> 1.047400e+02
<STATE> 4
<MEAN> 25
 2.634711e+00 -4.000707e+00 -3.030281e+00 -6.987398e-01 1.325485e+00 7.453302e-02 5.113311e-01 2.202792e+00 1.515004e+00 -7.845373e-01 -2.447410e+00 -1.442646e+00 -1.989021e-01 6.072879e-01 1.949471e-01 3.946276e-01 3.817565e-02 1.124007e-01 4.734785e-02 -3.089163e-01 -1.609980e-01 3.036711e-02 1.726407e-01 2.281337e-01 -6.285647e-01
<VARIANCE> 25
 3.564960e+01 5.082866e+01 4.007204e+01 5.032507e+01 5.284973e+01 5.436271e+01 4.622261e+01 5.151822e+01 5.009630e+01 4.659462e+01 4.728319e+01 3.880241e+01 1.105432e+00 2.078023e+00 1.843901e+00 2.337496e+00 2.551178e+00 2.684723e+00 2.684216e+00 3.047914e+00 2.809326e+00 2.615858e+00 2.573977e+00 2.184755e+00 1.444050e+00
<GCONST> 1.024744e+02
<TRANSP> 5
 0.000000e+00 1.000000e+00 0.000000e+00 0.000000e+00 0.000000e+00
 0.000000e+00 4.946104e-01 5.053895e-01 0.000000e+00 0.000000e+00
 0.000000e+00 0.000000e+00 4.927388e-01 5.072611e-01 0.000000e+00
 0.000000e+00 0.000000e+00 0.000000e+00 6.499938e-01 3.500061e-01
 0.000000e+00 0.000000e+00 0.000000e+00 0.000000e+00 0.000000e+00
<ENDHMM>
~h "b"
<BEGINHMM>
<NUMSTATES> 5
<STATE> 2
<MEAN> 25
 3.785293e+00 4.089229e+00 1.014731e-01 1.757729e+00 9.439350e-01 9.546427e-01 -1.905219e+00 -2.912810e+00 -1.521174e+00 -5.526974e-01 9.327884e-02 -7.384865e-01 3.360723e-01 7.298773e-03 -7.406747e-02 -1.718212e-01 -9.952084e-02 -2.257784e-01 -4.370970e-01 -1.896934e-01 1.064833e-01 1.016788e-01 1.845920e-01 -1.780452e-01 3.551292e-01
<VARIANCE> 25
 3.172056e+01 4.692232e+01 3.471203e+01 4.871889e+01 3.891821e+01 4.517605e+01 4.574569e+01 4.580233e+01 4.700008e+01 4.869843e+01 3.805618e+01 3.113131e+01 1.916106e+00 4.759914e+00 2.842210e+00 4.914015e+00 3.449068e+00 4.030584e+00 4.363840e+00 4.115319e+00 4.533552e+00 4.831722e+00 3.904295e+00 2.980686e+00 3.635215e+00
<GCONST> 1.078170e+02
<STATE> 3
<MEAN> 25
 4.537471e+00 3.202708e+00 -2.236857e-01 7.358625e-01 3.203833e-01 1.250164e-01 -3.068568e+00 -2.918969e+00 -8.635262e-01 -2.862665e-02 5.412721e-01 -1.334774e+00 1.978598e-01 -6.080788e-01 -1.202578e-01 -4.695903e-01 -3.391594e-01 -4.352034e-01 -3.958527e-01 2.577132e-01 3.985279e-01 2.509059e-01 1.384128e-01 -2.640520e-01 7.341537e-01
<VARIANCE> 25
 2.647987e+01 5.173643e+01 3.582327e+01 5.550821e+01 3.873301e+01 4.729166e+01 4.776629e+01 4.626505e+01 5.154414e+01 5.912535e+01 4.267218e+01 3.445769e+01 1.723903e+00 5.238525e+00 3.048271e+00 5.430503e+00 3.650246e+00 4.439663e+00 4.744667e+00 4.750669e+00 5.330430e+00 5.543204e+00 4.334041e+00 3.502103e+00 3.513361e+00
<GCONST> 1.095641e+02
<STATE> 4
<MEAN> 25
 4.672137e+00 1.818193e+00 -3.364447e-01 -2.111225e-01 -5.951236e-01 -9.063523e-01 -3.497520e+00 -1.902215e+00 6.558877e-02 1.022686e-01 3.921868e-01 -1.805544e+00 -3.883474e-02 -6.099406e-01 6.621096e-02 -2.742572e-01 -3.417471e-01 -3.651146e-01 -1.521698e-02 4.178793e-01 2.407053e-01 9.023252e-02 -5.617576e-03 -6.785198e-02 5.483359e-01
<VARIANCE> 25
 2.570824e+01 5.832511e+01 3.923461e+01 6.328074e+01 4.179058e+01 5.267064e+01 4.846676e+01 4.967772e+01 5.740877e+01 6.974266e+01 4.442868e+01 3.815626e+01 1.212071e+00 3.784290e+00 2.924576e+00 4.390622e+00 3.404034e+00 4.017673e+00 4.058765e+00 4.540377e+00 4.671261e+00 4.719422e+00 4.057822e+00 3.183692e+00 2.376807e+00
<GCONST> 1.084136e+02
<TRANSP> 5
 0.000000e+00 1.000000e+00 0.000000e+00 0.000000e+00 0.000000e+00
 0.000000e+00 4.923367e-01 5.076634e-01 0.000000e+00 0.000000e+00
 0.000000e+00 0.000000e+00 4.943427e-01 5.056573e-01 0.000000e+00
 0.000000e+00 0.000000e+00 0.000000e+00 5.921838e-01 4.078163e-01
 0.000000e+00 0.000000e+00 0.000000e+00 0.000000e+00 0.000000e+00
<ENDHMM>
~h "c"
<BEGINHMM>
<NUMSTATES> 5
<STATE> 2
<MEAN> 25
 -7.346255e+00 3.252107e+00 1.080147e+00 1.136137e+00 1.941363e+00 6.508714e-02 3.721571e-01 -4.169258e-01 9.599782e-01 -7.659352e-01 1.187268e+00 1.442658e+00 -1.167841e+00 -1.349574e-01 2.738178e-01 -3.355100e-01 -9.908886e-02 -4.082661e-01 1.594504e-01 6.544527e-02 2.409604e-01 -1.050148e-01 2.505805e-01 7.685871e-02 9.320472e-01
<VARIANCE> 25
 1.047464e+02 6.370151e+01 5.345248e+01 5.329133e+01 5.970328e+01 6.468516e+01 5.156266e+01 6.008751e+01 4.598283e+01 4.025623e+01 3.742926e+01 3.140420e+01 1.054985e+01 7.021545e+00 5.076922e+00 5.199459e+00 6.380637e+00 6.580248e+00 5.004865e+00 5.545509e+00 4.425359e+00 4.090617e+00 3.397434e+00 2.745333e+00 6.597118e+00
<GCONST> 1.152524e+02
<STATE> 3
<MEAN> 25
 -7.278066e+00 1.640098e+00 2.773927e+00 6.075125e-01 3.168219e-01 -1.704379e+00 1.042782e-01 -5.938607e-01 1.406747e+00 -1.438755e+00 1.490233e+00 1.523724e+00 1.021808e+00 -6.079805e-01 2.201037e-01 -2.015616e-01 -7.530777e-01 -7.838894e-01 -3.844566e-01 3.465511e-02 5.184453e-02 -7.994749e-02 -5.888346e-02 -2.010658e-01 1.160367e+00
<VARIANCE> 25
 1.071580e+02 8.391375e+01 6.275907e+01 5.096197e+01 6.823827e+01 8.268156e+01 6.101999e+01 6.466772e+01 4.931927e+01 4.218192e+01 3.762244e+01 3.295519e+01 1.343404e+01 8.206188e+00 6.290851e+00 5.139760e+00 6.728278e+00 7.551195e+00 6.029821e+00 6.099442e+00 5.230032e+00 4.721023e+00 3.836912e+00 3.170754e+00 5.075430e+00
<GCONST> 1.178441e+02
<STATE> 4
<MEAN> 25
 -6.550537e-01 2.188569e-01 2.625812e+00 7.195398e-02 -2.177608e+00 -3.992341e+00 -1.581141e+00 -8.342618e-01 6.685084e-01 -1.248215e+00 7.258425e-01 -5.774449e-02 1.447538e+00 -4.717361e-01 -3.492399e-01 -2.283973e-01 -4.502987e-01 -1.429092e-01 -3.378300e-01 -4.272896e-02 -1.473902e-01 1.447745e-01 -7.606293e-02 -2.940133e-01 4.175181e-01
<VARIANCE> 25
 1.059241e+02 7.719727e+01 6.421376e+01 4.573589e+01 8.231256e+01 1.015176e+02 6.645296e+01 7.262918e+01 5.941117e+01 4.384651e+01 4.081623e+01 3.620115e+01 7.453555e+00 6.485443e+00 5.305636e+00 4.010814e+00 5.924717e+00 7.113383e+00 5.146933e+00 4.979547e+00 4.682368e+00 4.154469e+00 3.662576e+00 3.247283e+00 3.818468e+00
<GCONST> 1.163218e+02
<TRANSP> 5
 0.000000e+00 1.000000e+00 0.000000e+00 0.000000e+00 0.000000e+00
 0.000000e+00 7.407238e-01 2.592762e-01 0.000000e+00 0.000000e+00
 0.000000e+00 0.000000e+00 7.017429e-01 2.982571e-01 0.000000e+00
 0.000000e+00 0.000000e+00 0.000000e+00 7.359766e-01 2.640235e-01
 0.000000e+00 0.000000e+00 0.000000e+00 0.000000e+00 0.000000e+00
<ENDHMM>
~h "d"
<BEGINHMM>
<NUMSTATES> 5
<STATE> 2
<MEAN> 25
 2.645896e+00 1.764537e+00 4.284531e+00 3.147587e+00 -2.617252e+00 -2.396631e+00 -2.171856e+00 -1.081627e+00 -8.505707e-01 -1.600476e+00 -3.256437e-01 8.721974e-02 1.190982e-01 -4.149310e-01 7.212267e-01 -2.335871e-02 -7.207192e-01 -5.995080e-01 -3.843771e-01 3.739359e-02 -1.739275e-01 -1.129884e-01 3.419557e-01 4.336807e-02 6.525942e-01
<VARIANCE> 25
 3.346320e+01 6.065884e+01 5.243376e+01 6.002406e+01 7.184302e+01 6.138931e+01 5.998098e+01 6.622275e+01 5.786197e+01 5.256724e+01 5.141993e+01 3.702964e+01 2.502012e+00 6.222678e+00 4.171574e+00 5.649224e+00 6.392752e+00 5.488934e+00 5.551129e+00 5.911247e+00 5.301396e+00 5.114513e+00 5.050183e+00 3.433484e+00 4.956725e+00
<GCONST> 1.145753e+02
<STATE> 3
<MEAN> 25
 2.989942e+00 1.227958e-01 5.732301e+00 2.319136e+00 -4.580384e+00 -3.922296e+00 -3.042216e+00 -7.003903e-01 -1.071517e+00 -1.545933e+00 5.637935e-01 1.339553e-02 3.774724e-02 -6.172540e-01 3.801115e-01 -5.112205e-01 -6.731289e-01 -4.753585e-01 -2.588323e-01 2.380909e-01 -1.334237e-02 1.768919e-01 3.575795e-01 -6.620783e-02 8.070893e-01
<VARIANCE> 25
 2.657214e+01 5.848820e+01 5.672424e+01 6.507519e+01 7.603243e+01 6.283252e+01 6.680314e+01 7.417457e+01 6.375125e+01 5.707719e+01 5.510448e+01 3.852264e+01 2.014196e+00 5.576851e+00 4.441638e+00 5.573638e+00 6.416455e+00 5.489028e+00 5.754447e+00 6.067773e+00 5.361896e+00 5.200347e+00 5.229062e+00 3.512436e+00 4.536152e+00
<GCONST> 1.148422e+02
<STATE> 4
<MEAN> 25
 3.385655e+00 -1.163758e+00 6.015755e+00 1.230824e+00 -5.846145e+00 -4.722446e+00 -3.428176e+00 -4.643365e-01 -8.892571e-01 -1.238022e+00 8.781463e-01 -4.688326e-01 -4.154279e-02 -2.234447e-01 -1.109359e-01 -4.387080e-01 -7.924059e-02 1.988791e-02 7.477095e-02 1.037508e-01 2.955211e-02 2.173145e-01 5.669583e-02 -1.253408e-01 3.230881e-01
<VARIANCE> 25
 2.696798e+01 6.043580e+01 6.262877e+01 7.048435e+01 7.762688e+01 6.769699e+01 7.227270e+01 8.554360e+01 6.961447e+01 6.522307e+01 5.870683e+01 3.956532e+01 1.424332e+00 3.768956e+00 3.773523e+00 4.387711e+00 5.267787e+00 4.611712e+00 4.810828e+00 4.927819e+00 4.416864e+00 4.342560e+00 4.351563e+00 3.071654e+00 3.181999e+00
<GCONST> 1.127510e+02
<TRANSP> 5
 0.000000e+00 1.000000e+00 0.000000e+00 0.000000e+00 0.000000e+00
 0.000000e+00 5.605154e-01 4.394846e-01 0.000000e+00 0.000000e+00
 0.000000e+00 0.000000e+00 5.567410e-01 4.432590e-01 0.000000e+00
 0.000000e+00 0.000000e+00 0.000000e+00 6.649727e-01 3.350272e-01
 0.000000e+00 0.000000e+00 0.000000e+00 0.000000e+00 0.000000e+00
<ENDHMM>
~h "e"
<BEGINHMM>
<NUMSTATES> 5
<STATE> 2
<MEAN> 25
 2.073800e+00 -2.743523e+00 1.278081e+00 3.639278e-01 -3.852144e+00 -4.870759e+00 7.112455e-01 2.151445e+00 -1.628789e-01 6.749673e-01 1.070359e+00 -1.390692e-01 2.972112e-01 -2.086306e-01 2.559801e-01 -1.905525e-02 -4.383574e-01 -2.733241e-01 2.645569e-01 1.659532e-01 -2.289823e-01 3.494468e-02 8.217572e-03 -9.529451e-02 3.042077e-01
<VARIANCE> 25
 3.974124e+01 4.594471e+01 5.220594e+01 4.234203e+01 7.165018e+01 7.008066e+01 5.347257e+01 6.304164e+01 5.340083e+01 4.372564e+01 4.318207e+01 3.095159e+01 2.298600e+00 3.192313e+00 2.750447e+00 3.070237e+00 4.443540e+00 4.495318e+00 3.418243e+00 4.130735e+00 3.651796e+00 3.174887e+00 3.024593e+00 2.361791e+00 3.413594e+00
<GCONST> 1.081689e+02
<STATE> 3
<MEAN> 25
 2.530362e+00 -2.935137e+00 1.746380e+00 3.106512e-01 -4.423492e+00 -5.083314e+00 1.160882e+00 2.241091e+00 -6.036288e-01 6.448237e-01 9.578894e-01 -3.666516e-01 6.357591e-02 9.948803e-02 8.332202e-02 8.579116e-02 2.188950e-05 1.450184e-01 1.590904e-01 -9.424862e-02 -1.280387e-01 -2.823792e-02 -8.575499e-02 -4.282011e-02 -7.231191e-02
<VARIANCE> 25
 3.505370e+01 4.559267e+01 5.202071e+01 4.179365e+01 6.932694e+01 6.829721e+01 5.274566e+01 6.443503e+01 5.301950e+01 4.330648e+01 4.277264e+01 3.035452e+01 1.653103e+00 2.636935e+00 2.266788e+00 2.574531e+00 3.666514e+00 3.578650e+00 3.045873e+00 3.533372e+00 3.199785e+00 2.871018e+00 2.659375e+00 2.112334e+00 2.477649e+00
<GCONST> 1.055471e+02
<STATE> 4
<MEAN> 25
 1.982957e+00 -2.326049e+00 2.165859e+00 8.051949e-01 -4.279443e+00 -4.494627e+00 1.925451e+00 2.209427e+00 -1.242132e+00 6.380628e-01 9.151585e-01 -1.572114e-01 -1.318079e-01 3.059103e-01 -1.125382e-01 1.748992e-01 3.681873e-01 3.945964e-01 8.114245e-03 -2.272206e-01 9.530952e-03 -7.075595e-02 -1.137396e-01 3.130528e-02 -3.606339e-01
<VARIANCE> 25
 3.712463e+01 4.379247e+01 5.238275e+01 4.112093e+01 6.718933e+01 6.555527e+01 5.065148e+01 5.985828e+01 5.257771e+01 4.173798e+01 4.086572e+01 3.004980e+01 1.107871e+00 1.990787e+00 1.766079e+00 2.057882e+00 2.750350e+00 2.688500e+00 2.578231e+00 2.804395e+00 2.641317e+00 2.488001e+00 2.211178e+00 1.794451e+00 1.396961e+00
<GCONST> 1.018857e+02
<TRANSP> 5
 0.000000e+00 1.000000e+00 0.000000e+00 0.000000e+00 0.000000e+00
 0.000000e+00 4.832913e-01 5.167087e-01 0.000000e+00 0.000000e+00
 0.000000e+00 0.000000e+00 4.827937e-01 5.172063e-01 0.000000e+00
 0.000000e+00 0.000000e+00 0.000000e+00 6.686158e-01 3.313843e-01
 0.000000e+00 0.000000e+00 0.000000e+00 0.000000e+00 0.000000e+00
<ENDHMM>
~h "f"
<BEGINHMM>
<NUMSTATES> 5
<STATE> 2
<MEAN> 25
 -1.573770e+00 3.857800e-02 -6.388255e-01 2.192755e+00 1.306738e+00 -5.650588e-01 1.304930e+00 -9.290920e-01 1.656432e-01 -3.271124e-01 1.004910e+00 1.157986e+00 -6.781996e-01 1.947900e-01 -1.281783e-01 1.963041e-01 2.685089e-01 -2.370162e-03 1.641090e-01 -3.382961e-02 1.766477e-01 -9.348603e-02 1.239658e-02 2.081531e-01 -3.002469e-01
<VARIANCE> 25
 5.069827e+01 2.899535e+01 4.811473e+01 3.731760e+01 4.946051e+01 5.386505e+01 4.318433e+01 5.534289e+01 4.998644e+01 3.951332e+01 3.673866e+01 3.110039e+01 3.036680e+00 1.683987e+00 2.300923e+00 2.328070e+00 3.079080e+00 2.992943e+00 2.904397e+00 3.086082e+00 2.990314e+00 2.761271e+00 2.646630e+00 1.982054e+00 1.334530e+00
<GCONST> 1.028105e+02
<STATE> 3
<MEAN> 25
 -2.759967e+00 3.155870e-01 -6.964558e-01 2.506314e+00 1.664655e+00 -5.882817e-01 1.515278e+00 -8.039770e-01 4.622995e-01 -5.373979e-01 9.501213e-01 1.514215e+00 -3.557128e-01 5.261141e-02 1.452295e-02 6.254478e-02 8.548633e-02 -5.968878e-02 3.695484e-02 4.839767e-02 1.334439e-01 -6.924607e-02 -3.971360e-02 9.847822e-02 -1.368842e-01
<VARIANCE> 25
 5.056065e+01 2.823341e+01 4.656355e+01 3.689209e+01 4.548467e+01 5.352942e+01 4.188840e+01 5.302247e+01 4.924954e+01 3.709743e+01 3.602465e+01 3.019388e+01 2.787866e+00 1.471602e+00 2.210626e+00 2.139171e+00 2.789512e+00 2.831306e+00 2.653641e+00 2.873137e+00 3.008246e+00 2.660435e+00 2.480944e+00 1.961713e+00 1.084475e+00
<GCONST> 1.014717e+02
<STATE> 4
<MEAN> 25
 -4.150040e+00 5.210114e-01 -7.275490e-01 2.945759e+00 2.399930e+00 2.844320e-01 1.934971e+00 -2.988608e-01 3.543428e-01 -3.723042e-01 1.003494e+00 2.313024e+00 1.069917e-01 -4.154991e-02 2.262536e-01 -7.126892e-02 -1.422962e-01 -1.781779e-01 -1.378558e-01 7.313916e-03 -3.724818e-02 -7.883231e-03 2.221987e-02 1.089410e-02 3.664856e-02
<VARIANCE> 25
 5.076630e+01 2.483750e+01 4.164010e+01 3.488206e+01 3.804824e+01 5.091486e+01 3.825074e+01 4.563889e+01 4.451687e+01 3.281224e+01 3.352307e+01 2.981326e+01 2.135445e+00 1.296477e+00 2.152442e+00 2.019018e+00 2.766178e+00 2.726169e+00 2.623989e+00 2.570468e+00 2.916089e+00 2.460414e+00 2.374579e+00 1.889767e+00 9.046879e-01
<GCONST> 9.938372e+01
<TRANSP> 5
 0.000000e+00 1.000000e+00 0.000000e+00 0.000000e+00 0.000000e+00
 0.000000e+00 4.682400e-01 5.317600e-01 0.000000e+00 0.000000e+00
 0.000000e+00 0.000000e+00 4.808753e-01 5.191247e-01 0.000000e+00
 0.000000e+00 0.000000e+00 0.000000e+00 6.757271e-01 3.242729e-01
 0.000000e+00 0.000000e+00 0.000000e+00 0.000000e+00 0.000000e+00
<ENDHMM>
~h "g"
<BEGINHMM>
<NUMSTATES> 5
<STATE> 2
<MEAN> 25
 3.215787e+00 2.126580e+00 2.643466e+00 1.238733e+00 -1.491851e+00 -2.690933e+00 -2.973669e+00 -1.714152e+00 -1.752516e+00 -1.955676e-01 8.563772e-03 -1.558753e+00 1.083425e-01 -4.208017e-02 2.682256e-01 -6.165123e-02 -1.772952e-01 -5.035991e-01 -3.619648e-01 1.213986e-01 4.315355e-02 6.924178e-02 1.265802e-01 -1.155633e-01 3.589214e-01
<VARIANCE> 25
 3.702268e+01 4.958844e+01 4.894674e+01 4.969061e+01 6.539219e+01 6.690481e+01 6.118023e+01 6.730608e+01 6.061488e+01 5.910516e+01 4.798417e+01 3.900495e+01 2.010642e+00 4.209150e+00 3.536693e+00 3.835197e+00 5.554740e+00 5.415796e+00 4.731220e+00 4.751619e+00 4.808576e+00 4.403887e+00 3.927526e+00 3.039109e+00 3.390924e+00
<GCONST> 1.116973e+02
<STATE> 3
<MEAN> 25
 3.419361e+00 1.576993e+00 2.766919e+00 6.485978e-01 -1.881757e+00 -3.639270e+00 -3.653626e+00 -1.065906e+00 -1.251409e+00 1.071925e-01 3.284754e-01 -1.774387e+00 3.651658e-02 -2.590634e-01 4.850820e-02 -3.310773e-01 -1.775574e-01 -2.574749e-01 -1.455260e-01 2.943089e-01 2.309674e-01 1.341390e-01 5.893015e-02 -1.080974e-01 4.580974e-01
<VARIANCE> 25
 3.514899e+01 5.151282e+01 5.055373e+01 5.181021e+01 6.394398e+01 6.831354e+01 6.491136e+01 7.041249e+01 6.161863e+01 6.343155e+01 5.098266e+01 4.005882e+01 1.771551e+00 3.881834e+00 3.489506e+00 3.925538e+00 5.358516e+00 5.088349e+00 4.695093e+00 4.747740e+00 4.863731e+00 4.383325e+00 3.996488e+00 3.051728e+00 2.969890e+00
<GCONST> 1.116257e+02
<STATE> 4
<MEAN> 25
 3.596425e+00 8.765212e-01 2.472129e+00 -2.012941e-01 -2.244109e+00 -3.864594e+00 -3.823420e+00 -4.814464e-01 -7.905813e-01 1.063903e-02 3.172911e-01 -1.825140e+00 -7.831164e-02 -2.686543e-01 -5.263396e-02 -3.785455e-01 -6.487131e-02 9.940412e-02 1.510035e-01 2.310101e-01 1.609447e-01 1.020927e-01 -7.466603e-02 -2.085971e-02 2.932263e-01
<VARIANCE> 25
 3.943891e+01 6.031947e+01 5.293984e+01 5.950785e+01 6.246383e+01 6.595003e+01 6.492370e+01 7.593350e+01 6.731616e+01 7.077541e+01 5.369444e+01 4.218728e+01 1.386890e+00 2.961531e+00 3.117563e+00 3.386217e+00 4.211164e+00 3.987358e+00 3.898267e+00 4.086866e+00 4.102691e+00 3.802462e+00 3.525969e+00 2.708031e+00 2.121428e+00
<GCONST> 1.099120e+02
<TRANSP> 5
 0.000000e+00 1.000000e+00 0.000000e+00 0.000000e+00 0.000000e+00
 0.000000e+00 5.187579e-01 4.812421e-01 0.000000e+00 0.000000e+00
 0.000000e+00 0.000000e+00 5.013682e-01 4.986318e-01 0.000000e+00
 0.000000e+00 0.000000e+00 0.000000e+00 5.993034e-01 4.006966e-01
 0.000000e+00 0.000000e+00 0.000000e+00 0.000000e+00 0.000000e+00
<ENDHMM>
~h "h"
<BEGINHMM>
<NUMSTATES> 5
<STATE> 2
<MEAN> 25
 1.758795e-01 -2.170030e+00 -1.200503e-01 -3.307673e-01 6.095190e-01 9.488280e-01 2.319051e+00 5.194430e-01 2.187889e-01 -3.333970e-01 -8.353485e-01 2.804757e-01 -2.634214e-01 1.022774e-01 -1.584777e-01 2.373422e-01 3.472444e-01 1.850377e-01 2.279447e-01 4.444464e-02 -1.497248e-02 -4.423293e-02 -6.849910e-03 1.599015e-01 -4.302922e-01
<VARIANCE> 25
 4.254441e+01 5.123498e+01 5.871310e+01 5.013027e+01 7.110902e+01 5.720865e+01 5.554568e+01 5.269735e+01 4.660199e+01 4.290481e+01 4.287853e+01 3.276199e+01 1.256842e+00 1.661672e+00 1.936861e+00 2.069180e+00 2.565374e+00 2.457755e+00 2.576369e+00 2.501307e+00 2.515985e+00 2.288212e+00 2.301094e+00 1.910371e+00 1.432312e+00
<GCONST> 1.021817e+02
<STATE> 3
<MEAN> 25
 -4.113794e-01 -1.867166e+00 -5.428537e-01 1.522715e-01 1.281645e+00 1.226082e+00 2.527701e+00 6.221120e-01 1.068621e-01 -3.679453e-01 -7.788360e-01 5.749700e-01 -2.105683e-01 1.538935e-01 -1.423436e-01 1.819048e-01 2.129808e-01 9.176341e-02 4.827797e-02 1.595283e-02 -1.661593e-02 -5.426127e-03 1.375393e-02 1.083526e-01 -4.316122e-01
<VARIANCE> 25
 4.390746e+01 5.020002e+01 5.379651e+01 4.740041e+01 6.382177e+01 5.308828e+01 5.128981e+01 4.876614e+01 4.434925e+01 4.094607e+01 4.122188e+01 3.213669e+01 9.593514e-01 1.394474e+00 1.691039e+00 1.848941e+00 2.256156e+00 2.241895e+00 2.371456e+00 2.302589e+00 2.322070e+00 2.149667e+00 2.063080e+00 1.791606e+00 1.005806e+00
<GCONST> 9.980515e+01
<STATE> 4
<MEAN> 25
 -3.502671e+00 -2.780726e-01 -1.460413e+00 1.736499e+00 3.045357e+00 2.441240e+00 2.619234e+00 8.963418e-01 9.438428e-02 1.055104e-01 -3.295498e-01 1.579238e+00 -1.021531e-01 1.319641e-01 -1.820958e-02 7.527138e-02 5.775245e-02 1.017230e-02 -3.504990e-02 -5.615121e-04 -6.571495e-03 2.509204e-02 3.172551e-02 3.744624e-02 -2.182699e-01
<VARIANCE> 25
 4.998848e+01 4.145487e+01 3.769832e+01 4.417455e+01 4.571106e+01 4.024736e+01 3.647568e+01 3.837709e+01 3.760392e+01 3.604623e+01 3.331278e+01 2.942019e+01 5.985770e-01 9.183012e-01 1.121202e+00 1.318446e+00 1.621904e+00 1.710568e+00 1.769153e+00 1.907244e+00 1.908142e+00 1.822299e+00 1.696613e+00 1.507769e+00 5.567306e-01
<GCONST> 9.349097e+01
<TRANSP> 5
 0.000000e+00 1.000000e+00 0.000000e+00 0.000000e+00 0.000000e+00
 0.000000e+00 5.079015e-01 4.920985e-01 0.000000e+00 0.000000e+00
 0.000000e+00 0.000000e+00 5.259394e-01 4.740606e-01 0.000000e+00
 0.000000e+00 0.000000e+00 0.000000e+00 8.515507e-01 1.484493e-01
 0.000000e+00 0.000000e+00 0.000000e+00 0.000000e+00 0.000000e+00
<ENDHMM>
~h "i"
<BEGINHMM>
<NUMSTATES> 5
<STATE> 2
<MEAN> 25
 1.091366e-01 1.716482e+00 1.117154e+01 1.888383e-01 -7.238704e+00 -3.961808e+00 -1.968791e+00 -3.666350e+00 -5.025379e+00 -9.992409e-02 2.331326e+00 -3.111255e-01 8.656696e-02 -5.145756e-03 1.229011e+00 -4.637207e-01 -8.910731e-01 -1.206431e-01 -3.610813e-01 -2.401634e-01 -5.774867e-01 1.645791e-01 2.326731e-01 -1.149657e-01 4.080912e-01
<VARIANCE> 25
 2.957876e+01 4.297013e+01 7.541266e+01 7.877164e+01 8.060490e+01 7.230019e+01 5.685947e+01 5.612138e+01 6.512383e+01 5.299540e+01 5.504382e+01 3.921899e+01 2.253227e+00 2.577391e+00 6.338764e+00 5.010227e+00 6.431138e+00 4.931847e+00 4.648495e+00 4.217717e+00 5.033647e+00 4.034047e+00 4.208204e+00 2.924477e+00 2.531754e+00
<GCONST> 1.124463e+02
<STATE> 3
<MEAN> 25
 3.266782e-01 1.921360e+00 1.231325e+01 -6.596903e-01 -7.994079e+00 -3.617086e+00 -2.609142e+00 -3.830815e+00 -5.395039e+00 2.633609e-01 2.283797e+00 -4.123014e-01 3.771254e-02 9.264166e-02 -1.737662e-01 -2.700326e-02 1.233935e-01 1.743685e-01 -1.096668e-02 7.184232e-02 1.149018e-01 5.340311e-02 -7.074316e-02 4.727722e-02 -1.724070e-01
<VARIANCE> 25
 2.414249e+01 4.253477e+01 6.883387e+01 8.590038e+01 7.496523e+01 7.112792e+01 5.636963e+01 5.625083e+01 6.474506e+01 5.391837e+01 5.695926e+01 3.896914e+01 1.509928e+00 2.243099e+00 4.801577e+00 4.082787e+00 4.992816e+00 4.084511e+00 3.865976e+00 3.736506e+00 4.163025e+00 3.409757e+00 3.444173e+00 2.524890e+00 2.071684e+00
<GCONST> 1.094977e+02
<STATE> 4
<MEAN> 25
 1.004884e-01 2.609894e+00 1.040515e+01 -2.122400e-01 -6.179202e+00 -2.388535e+00 -2.566226e+00 -3.599079e+00 -4.297327e+00 2.134581e-01 1.468459e+00 7.556874e-03 -3.300361e-02 9.881701e-03 -9.093625e-01 2.694591e-01 5.905088e-01 2.218982e-01 2.597479e-01 2.360112e-01 4.210351e-01 -4.704970e-02 -1.525735e-01 1.125331e-01 -3.954211e-01
<VARIANCE> 25
 2.689022e+01 4.912051e+01 6.947296e+01 9.703143e+01 7.537643e+01 7.159931e+01 5.937970e+01 5.692361e+01 6.391662e+01 5.224480e+01 5.486385e+01 3.898476e+01 1.157997e+00 2.059604e+00 3.046971e+00 3.236202e+00 3.637227e+00 3.418516e+00 3.282695e+00 3.351745e+00 3.479537e+00 3.022203e+00 2.922884e+00 2.255750e+00 1.521782e+00
<GCONST> 1.071849e+02
<TRANSP> 5
 0.000000e+00 1.000000e+00 0.000000e+00 0.000000e+00 0.000000e+00
 0.000000e+00 6.605537e-01 3.394463e-01 0.000000e+00 0.000000e+00
 0.000000e+00 0.000000e+00 6.325112e-01 3.674888e-01 0.000000e+00
 0.000000e+00 0.000000e+00 0.000000e+00 7.672485e-01 2.327516e-01
 0.000000e+00 0.000000e+00 0.000000e+00 0.000000e+00 0.000000e+00
<ENDHMM>
~h "j"
<BEGINHMM>
<NUMSTATES> 5
<STATE> 2
<MEAN> 25
 -1.074705e+00 4.207359e+00 4.980282e+00 2.549597e+00 -1.683648e+00 -2.956975e+00 -1.277506e-01 -9.984218e-01 -1.104438e+00 -2.596364e+00 5.323117e-01 1.100021e+00 -4.573861e-01 1.789310e-01 8.656837e-01 -1.672437e-01 -5.361594e-01 -5.857240e-01 -2.389845e-01 -2.320576e-01 -1.252214e-01 -1.379594e-01 4.027819e-01 1.124597e-01 6.522793e-01
<VARIANCE> 25
 6.621376e+01 6.815661e+01 5.599915e+01 4.724954e+01 6.644527e+01 7.216109e+01 5.708962e+01 5.349727e+01 4.393728e+01 4.445233e+01 4.044490e+01 3.443932e+01 7.002935e+00 6.334967e+00 5.328038e+00 4.803354e+00 7.398976e+00 6.784985e+00 5.429617e+00 5.052759e+00 4.481566e+00 4.611344e+00 4.102680e+00 3.071783e+00 4.502153e+00
<GCONST> 1.148878e+02
<STATE> 3
<MEAN> 25
 -8.868735e-01 3.092474e+00 7.380156e+00 1.671360e+00 -3.989682e+00 -5.030990e+00 -1.376863e+00 -9.599940e-01 -1.571233e+00 -2.375829e+00 1.739413e+00 1.234094e+00 3.862305e-01 -6.626794e-01 3.582740e-01 -3.899040e-01 -6.870834e-01 -6.066835e-01 -4.438593e-01 2.208709e-01 -6.284155e-02 2.490599e-01 3.168883e-01 -7.089491e-02 7.514021e-01
<VARIANCE> 25
 5.394975e+01 6.600753e+01 5.790946e+01 5.379701e+01 7.317014e+01 7.535318e+01 6.492469e+01 5.877962e+01 4.516563e+01 4.853110e+01 4.244487e+01 3.654203e+01 5.780406e+00 6.221440e+00 5.829146e+00 4.803566e+00 7.753996e+00 6.831548e+00 5.701732e+00 5.467581e+00 4.649279e+00 4.783251e+00 4.213990e+00 3.183621e+00 3.430924e+00
<GCONST> 1.153252e+02
<STATE> 4
<MEAN> 25
 1.314100e+00 4.563041e-01 7.319124e+00 6.908684e-01 -5.416296e+00 -6.218143e+00 -2.509612e+00 3.548705e-01 -1.608665e+00 -1.446483e+00 1.932855e+00 9.229518e-01 4.687965e-01 -5.900474e-01 -6.238189e-01 -3.062812e-01 1.321864e-01 1.742186e-01 -1.303893e-01 3.279609e-01 2.148551e-01 2.435651e-01 -1.425706e-01 -2.568027e-01 2.179650e-01
<VARIANCE> 25
 3.779258e+01 6.044800e+01 5.469204e+01 6.242791e+01 6.809081e+01 6.710718e+01 6.881863e+01 6.851773e+01 5.050748e+01 5.371349e+01 4.379445e+01 3.736408e+01 2.469025e+00 4.172770e+00 4.284311e+00 3.633372e+00 5.749098e+00 5.313133e+00 4.637522e+00 4.601090e+00 4.103595e+00 4.021773e+00 3.652565e+00 2.893234e+00 2.360294e+00
<GCONST> 1.115857e+02
<TRANSP> 5
 0.000000e+00 1.000000e+00 0.000000e+00 0.000000e+00 0.000000e+00
 0.000000e+00 6.680242e-01 3.319758e-01 0.000000e+00 0.000000e+00
 0.000000e+00 0.000000e+00 6.374354e-01 3.625646e-01 0.000000e+00
 0.000000e+00 0.000000e+00 0.000000e+00 7.025649e-01 2.974351e-01
 0.000000e+00 0.000000e+00 0.000000e+00 0.000000e+00 0.000000e+00
<ENDHMM>
~h "k"
<BEGINHMM>
<NUMSTATES> 5
<STATE> 2
<MEAN> 25
 -1.355204e+00 -2.186821e-01 -3.445966e+00 6.690657e-01 2.982285e+00 1.790447e+00 7.399827e-01 5.684115e-01 1.148319e+00 1.144409e+00 4.978693e-01 5.723268e-01 2.706821e-02 -5.611041e-01 -4.545734e-01 -3.674534e-01 1.831003e-01 -2.619953e-01 -4.674070e-02 7.175940e-02 1.954211e-01 1.932046e-01 -2.768410e-02 -4.289785e-02 6.223413e-01
<VARIANCE> 25
 4.274209e+01 5.374562e+01 5.176534e+01 6.728027e+01 6.765490e+01 6.313157e+01 4.959442e+01 4.940465e+01 4.981238e+01 4.447592e+01 4.197862e+01 3.641875e+01 3.601651e+00 5.627911e+00 4.351287e+00 6.124003e+00 6.240849e+00 5.874895e+00 4.927321e+00 4.809983e+00 4.964380e+00 4.487615e+00 4.023657e+00 3.541202e+00 6.766779e+00
<GCONST> 1.137724e+02
<STATE> 3
<MEAN> 25
 -5.606164e-01 -1.775432e+00 -4.216306e+00 -7.936714e-01 2.714384e+00 7.648092e-01 4.857330e-01 6.265771e-01 1.401201e+00 1.355933e+00 1.424342e-01 1.839851e-01 4.139414e-01 -4.743761e-01 -7.254279e-02 -5.916966e-01 -3.265130e-01 -3.641227e-01 -9.894648e-02 -4.881308e-03 -3.630780e-03 1.713898e-02 -1.019162e-01 -2.339562e-01 9.832395e-01
<VARIANCE> 25
 4.033751e+01 5.370399e+01 5.696164e+01 6.727821e+01 7.397824e+01 6.710898e+01 5.308790e+01 5.150652e+01 5.338518e+01 4.672810e+01 4.311486e+01 3.873577e+01 3.880859e+00 5.101665e+00 4.671384e+00 6.431696e+00 6.682023e+00 6.005639e+00 5.133733e+00 5.072891e+00 5.382625e+00 4.734525e+00 4.383022e+00 3.792451e+00 5.911242e+00
<GCONST> 1.147110e+02
<STATE> 4
<MEAN> 25
 7.146643e-01 -2.091490e+00 -4.056771e+00 -1.974322e+00 1.574840e+00 3.149827e-01 3.646757e-01 4.488882e-01 1.111396e+00 1.010064e+00 -1.853136e-01 -4.049341e-01 5.087725e-01 -1.083916e-01 2.678849e-01 -3.837474e-01 -5.252163e-01 -2.222072e-01 -1.308831e-01 -1.058074e-01 -2.217439e-01 -1.250794e-01 -5.113515e-02 -2.360248e-01 6.601781e-01
<VARIANCE> 25
 4.077636e+01 5.445577e+01 5.697838e+01 6.758503e+01 6.930282e+01 6.574232e+01 5.199103e+01 5.184146e+01 5.502486e+01 4.660303e+01 4.514497e+01 3.967560e+01 3.117877e+00 3.846115e+00 3.930759e+00 5.463714e+00 5.388955e+00 4.963695e+00 4.472921e+00 4.551449e+00 4.774982e+00 4.116386e+00 3.973680e+00 3.297856e+00 3.874980e+00
<GCONST> 1.123291e+02
<TRANSP> 5
 0.000000e+00 1.000000e+00 0.000000e+00 0.000000e+00 0.000000e+00
 0.000000e+00 5.432080e-01 4.567920e-01 0.000000e+00 0.000000e+00
 0.000000e+00 0.000000e+00 5.270229e-01 4.729772e-01 0.000000e+00
 0.000000e+00 0.000000e+00 0.000000e+00 5.793304e-01 4.206696e-01
 0.000000e+00 0.000000e+00 0.000000e+00 0.000000e+00 0.000000e+00
<ENDHMM>
~h "l"
<BEGINHMM>
<NUMSTATES> 5
<STATE> 2
<MEAN> 25
 5.258446e+00 -3.003194e+00 -2.571100e+00 -3.953037e+00 -1.051633e+00 -1.198800e+00 -4.542548e+00 -2.185939e+00 3.172498e+00 2.626595e+00 -8.682832e-01 -2.602530e+00 1.490415e-01 -2.590145e-02 -7.735513e-03 -9.623954e-02 -6.837527e-03 -3.378890e-02 -2.367773e-01 -7.221337e-02 1.397492e-01 1.696339e-01 -1.136535e-01 -8.622420e-02 8.587167e-02
<VARIANCE> 25
 3.308328e+01 4.127892e+01 4.578408e+01 6.226881e+01 5.853452e+01 7.833733e+01 6.803563e+01 7.425971e+01 6.500919e+01 6.816492e+01 5.568222e+01 4.351442e+01 1.138718e+00 1.845041e+00 2.050333e+00 2.743877e+00 2.850742e+00 3.714653e+00 3.711568e+00 4.050776e+00 3.519443e+00 3.462073e+00 3.206480e+00 2.586799e+00 1.205489e+00
<GCONST> 1.066118e+02
<STATE> 3
<MEAN> 25
 5.319325e+00 -2.987340e+00 -2.488065e+00 -3.881045e+00 -1.033986e+00 -1.259548e+00 -4.499672e+00 -2.022870e+00 3.047126e+00 2.513953e+00 -1.031186e+00 -2.528662e+00 -3.767105e-02 2.735537e-02 9.082799e-02 4.844613e-02 3.608407e-03 1.870241e-02 1.235630e-01 1.368447e-01 -1.256439e-01 -1.459670e-01 -6.249450e-02 5.964473e-02 -1.990118e-02
<VARIANCE> 25
 3.042232e+01 4.122423e+01 4.570465e+01 6.047849e+01 5.863345e+01 7.704399e+01 6.717141e+01 7.454220e+01 6.531389e+01 6.751121e+01 5.617873e+01 4.374622e+01 8.305944e-01 1.719792e+00 1.889752e+00 2.546786e+00 2.679330e+00 3.448236e+00 3.458774e+00 3.834751e+00 3.377511e+00 3.307682e+00 3.116316e+00 2.380315e+00 1.029575e+00
<GCONST> 1.053211e+02
<STATE> 4
<MEAN> 25
 5.180039e+00 -2.741300e+00 -2.477120e+00 -3.357718e+00 -1.087043e+00 -1.338864e+00 -3.755370e+00 -1.388692e+00 2.363464e+00 1.331346e+00 -1.152351e+00 -2.105741e+00 -1.704642e-01 1.280708e-01 1.623940e-01 1.452436e-01 9.190507e-03 8.229249e-02 3.225293e-01 1.776006e-01 -3.079041e-01 -2.431987e-01 5.143496e-02 1.485979e-01 -1.619041e-01
<VARIANCE> 25
 3.344678e+01 4.639065e+01 4.811234e+01 6.142976e+01 6.718998e+01 7.796072e+01 6.485233e+01 7.680084e+01 6.565382e+01 7.424926e+01 5.747929e+01 4.393013e+01 6.901500e-01 1.593465e+00 1.746633e+00 2.366717e+00 2.643470e+00 3.099658e+00 2.986136e+00 3.327951e+00 3.172957e+00 3.034008e+00 2.917648e+00 2.180003e+00 9.450064e-01
<GCONST> 1.046604e+02
<TRANSP> 5
 0.000000e+00 1.000000e+00 0.000000e+00 0.000000e+00 0.000000e+00
 0.000000e+00 5.332022e-01 4.667978e-01 0.000000e+00 0.000000e+00
 0.000000e+00 0.000000e+00 5.200223e-01 4.799777e-01 0.000000e+00
 0.000000e+00 0.000000e+00 0.000000e+00 6.568178e-01 3.431822e-01
 0.000000e+00 0.000000e+00 0.000000e+00 0.000000e+00 0.000000e+00
<ENDHMM>
~h "m"
<BEGINHMM>
<NUMSTATES> 5
<STATE> 2
<MEAN> 25
 4.671139e+00 3.978093e-01 -1.533754e+00 2.105291e-01 1.055895e+00 2.549822e+00 -8.983803e-01 -3.528029e+00 -2.783271e+00 -3.997852e-01 -4.930267e-01 -1.659145e+00 1.372503e-01 1.674931e-01 2.123867e-02 1.826940e-01 1.375101e-01 1.878228e-01 1.107844e-02 -2.276836e-01 -2.522986e-01 -1.397617e-01 -1.620211e-01 -1.259687e-01 -6.050237e-02
<VARIANCE> 25
 3.147845e+01 4.045670e+01 4.064795e+01 4.705587e+01 4.435421e+01 4.879138e+01 4.202758e+01 5.137171e+01 5.724693e+01 3.760351e+01 3.789341e+01 3.226751e+01 1.328687e+00 2.394881e+00 2.854576e+00 3.648804e+00 2.677724e+00 2.886994e+00 2.756773e+00 4.083212e+00 4.276670e+00 2.607870e+00 2.883599e+00 2.297559e+00 1.792538e+00
<GCONST> 1.036464e+02
<STATE> 3
<MEAN> 25
 4.864737e+00 4.320940e-01 -1.662598e+00 1.755139e-01 1.270175e+00 2.703131e+00 -9.796036e-01 -3.427239e+00 -2.860966e+00 -6.924440e-01 -8.593091e-01 -2.013781e+00 1.982105e-02 -7.983106e-02 -1.184615e-01 -1.080785e-01 7.809781e-02 8.267194e-03 -2.357213e-02 2.326788e-01 1.396562e-01 -7.278742e-02 -1.187130e-01 -1.298799e-01 9.934437e-02
<VARIANCE> 25
 2.904173e+01 4.141057e+01 4.101071e+01 4.698796e+01 4.523928e+01 4.978448e+01 4.232260e+01 5.161035e+01 5.854198e+01 3.794703e+01 3.778324e+01 3.264092e+01 1.188559e+00 2.255393e+00 2.682089e+00 3.468417e+00 2.662736e+00 2.776436e+00 2.621572e+00 3.972947e+00 4.080264e+00 2.571794e+00 2.874388e+00 2.270708e+00 1.547257e+00
<GCONST> 1.030583e+02
<STATE> 4
<MEAN> 25
 4.257448e+00 4.423655e-01 -2.145545e+00 3.905237e-02 1.766199e+00 2.488392e+00 -8.448433e-01 -2.159216e+00 -2.275140e+00 -9.703317e-01 -1.274595e+00 -2.092998e+00 -1.165117e-01 -1.428089e-01 -9.213250e-02 -1.800545e-01 -2.333502e-02 -1.436773e-01 5.782479e-03 4.194031e-01 3.080320e-01 1.703121e-02 -1.616079e-02 -4.847299e-04 8.289891e-02
<VARIANCE> 25
 3.399378e+01 4.562798e+01 4.038388e+01 4.900259e+01 4.866738e+01 4.855770e+01 4.305090e+01 5.155915e+01 5.658759e+01 3.958432e+01 3.731675e+01 3.422041e+01 9.203302e-01 1.835190e+00 2.195818e+00 2.777649e+00 2.482500e+00 2.483133e+00 2.366026e+00 3.297254e+00 3.315452e+00 2.408510e+00 2.633921e+00 2.061239e+00 1.141387e+00
<GCONST> 1.013303e+02
<TRANSP> 5
 0.000000e+00 1.000000e+00 0.000000e+00 0.000000e+00 0.000000e+00
 0.000000e+00 5.173223e-01 4.826778e-01 0.000000e+00 0.000000e+00
 0.000000e+00 0.000000e+00 5.185845e-01 4.814155e-01 0.000000e+00
 0.000000e+00 0.000000e+00 0.000000e+00 6.771394e-01 3.228606e-01
 0.000000e+00 0.000000e+00 0.000000e+00 0.000000e+00 0.000000e+00
<ENDHMM>
~h "n"
<BEGINHMM>
<NUMSTATES> 5
<STATE> 2
<MEAN> 25
 4.183574e+00 -5.582194e-01 1.688703e+00 2.186903e+00 -1.729044e+00 -1.678208e+00 -1.333170e+00 -1.466919e+00 -9.865481e-01 -1.050310e+00 -3.021911e+00 -1.478659e+00 2.268244e-03 6.588558e-01 1.478610e-01 4.721391e-01 1.326924e-01 1.936896e-01 1.542807e-03 -4.658388e-01 -1.570748e-01 -9.328963e-02 -1.652801e-01 5.821223e-02 -5.602258e-01
<VARIANCE> 25
 2.238902e+01 5.029960e+01 3.762143e+01 4.134007e+01 4.656575e+01 4.432978e+01 4.437514e+01 6.213736e+01 5.036336e+01 5.024321e+01 4.493085e+01 3.459068e+01 9.290124e-01 2.763283e+00 2.217371e+00 2.760210e+00 2.765628e+00 2.981292e+00 2.866229e+00 4.792931e+00 3.194173e+00 3.105313e+00 2.891931e+00 2.272014e+00 1.599671e+00
<GCONST> 1.031933e+02
<STATE> 3
<MEAN> 25
 3.890194e+00 6.363296e-01 1.828585e+00 2.857111e+00 -1.291262e+00 -1.153703e+00 -1.152513e+00 -2.021812e+00 -1.215943e+00 -1.229377e+00 -3.040958e+00 -1.263092e+00 -1.710060e-01 3.873907e-01 1.190612e-02 1.618527e-01 2.081593e-01 2.142289e-01 1.076489e-01 -8.904556e-02 -8.762642e-02 -9.205299e-02 5.219604e-02 8.095752e-02 -3.852625e-01
<VARIANCE> 25
 2.306503e+01 5.092591e+01 3.521751e+01 4.014515e+01 4.648137e+01 4.364870e+01 4.258607e+01 5.954773e+01 4.818982e+01 4.942977e+01 4.403828e+01 3.391483e+01 8.926966e-01 2.638340e+00 1.994066e+00 2.569692e+00 2.614823e+00 2.775827e+00 2.732241e+00 4.440269e+00 3.002539e+00 2.945935e+00 2.748333e+00 2.166175e+00 1.463665e+00
<GCONST> 1.021212e+02
<STATE> 4
<MEAN> 25
 2.441904e+00 1.623946e+00 1.473951e+00 3.487104e+00 -1.892912e-02 -2.190571e-01 -4.444222e-01 -1.634945e+00 -1.441687e+00 -1.562071e+00 -2.569769e+00 -6.517245e-01 -3.273147e-01 7.700714e-02 -7.087541e-02 -8.355257e-02 2.118933e-01 1.596849e-01 1.509798e-01 2.099308e-01 3.009479e-02 -2.681987e-03 2.394217e-01 1.065483e-01 -2.070334e-01
<VARIANCE> 25
 3.035032e+01 5.303856e+01 3.566357e+01 4.241547e+01 4.910956e+01 4.439389e+01 4.144522e+01 5.602729e+01 4.808173e+01 4.863465e+01 4.264323e+01 3.393787e+01 9.104362e-01 2.242270e+00 1.887238e+00 2.316603e+00 2.529195e+00 2.597577e+00 2.550981e+00 3.596901e+00 2.798540e+00 2.753883e+00 2.577611e+00 2.038413e+00 1.218025e+00
<GCONST> 1.013107e+02
<TRANSP> 5
 0.000000e+00 1.000000e+00 0.000000e+00 0.000000e+00 0.000000e+00
 0.000000e+00 5.134948e-01 4.865051e-01 0.000000e+00 0.000000e+00
 0.000000e+00 0.000000e+00 5.085505e-01 4.914495e-01 0.000000e+00
 0.000000e+00 0.000000e+00 0.000000e+00 6.656585e-01 3.343416e-01
 0.000000e+00 0.000000e+00 0.000000e+00 0.000000e+00 0.000000e+00
<ENDHMM>
~h "o"
<BEGINHMM>
<NUMSTATES> 5
<STATE> 2
<MEAN> 25
 3.576398e+00 5.019602e-01 -5.383657e+00 -7.227206e+00 -3.638850e-02 3.626339e+00 -6.009866e-01 -7.804818e-01 8.656601e-01 1.864618e+00 1.646877e+00 -5.507085e-01 5.428397e-01 -1.667236e-02 -3.567373e-01 -9.114730e-01 -8.373179e-02 4.495720e-01 3.531835e-02 -4.742109e-02 -1.065498e-01 1.168947e-01 1.915861e-01 -9.451024e-02 4.260174e-01
<VARIANCE> 25
 6.454819e+01 3.675886e+01 3.726276e+01 8.263396e+01 6.082186e+01 6.678963e+01 5.246524e+01 4.761565e+01 4.782092e+01 5.478255e+01 4.047343e+01 3.545406e+01 3.036776e+00 2.063441e+00 2.226907e+00 5.754940e+00 3.377853e+00 3.559893e+00 3.174795e+00 2.944504e+00 3.139730e+00 3.095788e+00 2.749144e+00 2.405487e+00 3.181746e+00
<GCONST> 1.074523e+02
<STATE> 3
<MEAN> 25
 4.820053e+00 3.830413e-01 -5.857925e+00 -8.305121e+00 -2.205116e-01 4.240335e+00 -5.526597e-01 -1.070905e+00 5.785410e-01 1.867278e+00 1.923898e+00 -7.291850e-01 6.288941e-02 3.431518e-02 1.194019e-02 8.263317e-02 6.496566e-02 9.932004e-02 4.837809e-02 -4.218797e-02 -6.794829e-02 -1.797727e-02 -9.724873e-03 -1.423852e-02 -5.158111e-02
<VARIANCE> 25
 5.069506e+01 3.505970e+01 3.658575e+01 7.876132e+01 5.828089e+01 7.189359e+01 5.061390e+01 4.828313e+01 4.729478e+01 5.480782e+01 4.027905e+01 3.517706e+01 1.737181e+00 1.700522e+00 1.797211e+00 4.082602e+00 2.718595e+00 3.008380e+00 2.845268e+00 2.583354e+00 2.788147e+00 2.888919e+00 2.454473e+00 2.172346e+00 1.992928e+00
<GCONST> 1.042761e+02
<STATE> 4
<MEAN> 25
 3.644009e+00 9.232606e-01 -5.460026e+00 -7.017794e+00 2.452957e-01 4.611301e+00 1.714077e-01 -8.124717e-01 6.807789e-01 1.528630e+00 1.379224e+00 -2.606569e-01 -2.429616e-01 6.506546e-02 2.291538e-01 5.698270e-01 1.317896e-01 -1.803554e-01 4.200654e-02 3.075904e-03 -1.992290e-02 -7.247888e-02 -1.447587e-01 1.931493e-02 -3.024208e-01
<VARIANCE> 25
 5.767031e+01 3.267365e+01 3.836922e+01 8.559364e+01 6.033108e+01 7.782523e+01 4.687517e+01 4.888549e+01 4.873074e+01 5.377153e+01 3.795439e+01 3.439121e+01 9.267096e-01 1.228987e+00 1.459113e+00 2.615551e+00 2.134559e+00 2.496027e+00 2.231852e+00 2.248690e+00 2.379329e+00 2.413969e+00 2.033121e+00 1.804396e+00 9.534621e-01
<GCONST> 1.005774e+02
<TRANSP> 5
 0.000000e+00 1.000000e+00 0.000000e+00 0.000000e+00 0.000000e+00
 0.000000e+00 6.095124e-01 3.904875e-01 0.000000e+00 0.000000e+00
 0.000000e+00 0.000000e+00 5.958962e-01 4.041038e-01 0.000000e+00
 0.000000e+00 0.000000e+00 0.000000e+00 8.061911e-01 1.938088e-01
 0.000000e+00 0.000000e+00 0.000000e+00 0.000000e+00 0.000000e+00
<ENDHMM>
~h "p"
<BEGINHMM>
<NUMSTATES> 5
<STATE> 2
<MEAN> 25
 6.754937e-01 5.955477e-01 -3.907360e+00 1.986648e-01 1.775637e+00 2.529220e+00 7.919875e-01 -1.686622e-01 1.460346e+00 6.949490e-01 6.248299e-01 -1.541509e-01 1.738395e-01 -5.033566e-01 -2.514791e-01 -3.543177e-01 -1.805475e-01 -1.052390e-01 -2.816499e-02 -8.629885e-02 2.416103e-01 1.465942e-01 1.713346e-01 -9.602015e-02 6.504931e-01
<VARIANCE> 25
 4.916420e+01 4.772319e+01 4.315615e+01 5.293198e+01 4.413852e+01 5.225938e+01 3.922847e+01 4.156664e+01 4.265673e+01 4.004131e+01 3.656519e+01 3.420868e+01 5.129826e+00 5.542346e+00 3.551121e+00 5.217787e+00 4.180348e+00 5.236079e+00 4.010184e+00 3.948196e+00 4.147252e+00 4.020921e+00 3.790922e+00 3.439032e+00 8.047050e+00
<GCONST> 1.107382e+02
<STATE> 3
<MEAN> 25
 1.657320e+00 -1.004129e+00 -4.388734e+00 -9.354959e-01 1.046710e+00 1.978735e+00 4.224619e-01 -4.944304e-01 1.778237e+00 8.882612e-01 8.193105e-01 -6.131575e-01 5.364704e-01 -7.354955e-01 -8.803862e-02 -5.062151e-01 -3.558110e-01 -3.483554e-01 -2.128913e-01 -3.428613e-02 4.263849e-02 3.821635e-02 9.267183e-03 -2.515185e-01 1.141383e+00
<VARIANCE> 25
 4.538454e+01 5.031616e+01 4.571841e+01 5.679780e+01 4.614976e+01 5.708523e+01 4.037923e+01 4.333311e+01 4.440004e+01 4.125323e+01 3.762278e+01 3.638070e+01 5.313534e+00 5.391512e+00 4.195737e+00 5.807886e+00 4.654922e+00 5.895010e+00 4.343833e+00 4.417983e+00 4.595282e+00 4.422068e+00 4.174869e+00 3.875746e+00 7.202572e+00
<GCONST> 1.122055e+02
<STATE> 4
<MEAN> 25
 2.912709e+00 -2.355833e+00 -4.512518e+00 -1.717500e+00 3.740500e-01 1.314099e+00 6.838271e-02 -5.358462e-01 1.536543e+00 5.834427e-01 5.281320e-01 -1.148757e+00 3.891135e-01 -4.383865e-01 2.926356e-01 -2.407293e-01 -3.622883e-01 -4.361157e-01 -2.155628e-01 6.000980e-02 -1.732591e-01 -9.617985e-02 -1.148103e-01 -1.458866e-01 7.737161e-01
<VARIANCE> 25
 4.502534e+01 5.487226e+01 5.083520e+01 5.935233e+01 5.247660e+01 6.207418e+01 4.253217e+01 4.661736e+01 4.685714e+01 4.517216e+01 4.104435e+01 3.933134e+01 3.852482e+00 4.174333e+00 4.122744e+00 4.979820e+00 4.441470e+00 5.176231e+00 3.989691e+00 4.151881e+00 4.444488e+00 4.007734e+00 3.927130e+00 3.449510e+00 4.802580e+00
<GCONST> 1.112935e+02
<TRANSP> 5
 0.000000e+00 1.000000e+00 0.000000e+00 0.000000e+00 0.000000e+00
 0.000000e+00 5.631499e-01 4.368500e-01 0.000000e+00 0.000000e+00
 0.000000e+00 0.000000e+00 5.417436e-01 4.582565e-01 0.000000e+00
 0.000000e+00 0.000000e+00 0.000000e+00 5.971632e-01 4.028368e-01
 0.000000e+00 0.000000e+00 0.000000e+00 0.000000e+00 0.000000e+00
<ENDHMM>
~h "r"
<BEGINHMM>
<NUMSTATES> 5
<STATE> 2
<MEAN> 25
 4.013009e+00 -4.202006e+00 -1.835215e+00 8.543230e-01 -2.379775e+00 -2.968177e+00 -1.835837e+00 5.920500e-01 2.992493e+00 4.557078e-01 -4.231098e-01 -1.078308e+00 3.464346e-02 4.182114e-02 1.410144e-01 3.316895e-01 -1.087677e-01 -5.313950e-02 -5.190654e-02 1.225076e-02 -2.430385e-02 -1.173198e-01 3.711045e-03 1.059532e-01 -2.147368e-01
<VARIANCE> 25
 2.973619e+01 4.324153e+01 4.530111e+01 4.167098e+01 5.026085e+01 5.659452e+01 4.840809e+01 6.004408e+01 6.038044e+01 4.998748e+01 4.619725e+01 3.774998e+01 1.702224e+00 2.740169e+00 2.565211e+00 3.237476e+00 3.649735e+00 3.791005e+00 3.420811e+00 4.091618e+00 4.192148e+00 3.585982e+00 3.462505e+00 3.001850e+00 2.012728e+00
<GCONST> 1.067273e+02
<STATE> 3
<MEAN> 25
 3.930541e+00 -3.922498e+00 -1.520406e+00 1.267968e+00 -2.421109e+00 -2.831166e+00 -1.762043e+00 5.881264e-01 2.681623e+00 2.101093e-01 -4.062434e-01 -8.543601e-01 -8.756834e-02 1.905275e-01 2.054932e-01 1.090828e-01 1.197718e-02 1.166096e-01 6.117936e-02 -2.933524e-02 -2.712094e-01 -9.593601e-02 3.220798e-02 9.999225e-02 -2.431003e-01
<VARIANCE> 25
 2.928430e+01 4.529533e+01 4.675415e+01 4.023826e+01 5.099977e+01 5.697544e+01 4.726817e+01 5.941904e+01 5.990062e+01 4.929647e+01 4.454147e+01 3.638485e+01 1.593893e+00 2.610651e+00 2.513592e+00 2.968945e+00 3.528414e+00 3.629509e+00 3.252146e+00 3.942394e+00 4.059169e+00 3.440496e+00 3.357846e+00 2.865210e+00 1.832631e+00
<GCONST> 1.060160e+02
<STATE> 4
<MEAN> 25
 3.544154e+00 -3.333519e+00 -1.167494e+00 1.373631e+00 -2.117480e+00 -2.182065e+00 -1.433023e+00 5.470285e-01 2.137847e+00 -6.393363e-02 -5.129126e-01 -6.065539e-01 -2.017576e-01 3.017433e-01 2.379116e-01 -6.086842e-02 1.189556e-01 1.989982e-01 1.312770e-01 -9.232264e-02 -3.912758e-01 -2.605429e-02 7.086623e-02 9.301843e-02 -2.520600e-01
<VARIANCE> 25
 3.074834e+01 5.046107e+01 4.937271e+01 4.307936e+01 5.358978e+01 5.890221e+01 4.616985e+01 5.903103e+01 6.074049e+01 5.068385e+01 4.421342e+01 3.596460e+01 1.368682e+00 2.278292e+00 2.347256e+00 2.617060e+00 3.243056e+00 3.282902e+00 2.960308e+00 3.548826e+00 3.672657e+00 3.125832e+00 3.052788e+00 2.470534e+00 1.560996e+00
<GCONST> 1.049040e+02
<TRANSP> 5
 0.000000e+00 1.000000e+00 0.000000e+00 0.000000e+00 0.000000e+00
 0.000000e+00 4.626975e-01 5.373025e-01 0.000000e+00 0.000000e+00
 0.000000e+00 0.000000e+00 4.578252e-01 5.421749e-01 0.000000e+00
 0.000000e+00 0.000000e+00 0.000000e+00 5.737157e-01 4.262843e-01
 0.000000e+00 0.000000e+00 0.000000e+00 0.000000e+00 0.000000e+00
<ENDHMM>
~h "s"
<BEGINHMM>
<NUMSTATES> 5
<STATE> 2
<MEAN> 25
 -9.890863e+00 5.476517e+00 -7.868794e-01 2.148417e+00 3.761353e+00 -3.381565e+00 3.566359e+00 1.337905e+00 1.400569e+00 -1.289052e+00 1.023239e+00 1.882679e+00 -1.807257e+00 7.890429e-01 -3.140669e-01 1.420134e-01 5.673383e-01 -1.533584e-01 5.555518e-01 1.757490e-01 2.150451e-01 -2.228823e-01 3.082708e-01 2.579256e-01 3.067863e-02
<VARIANCE> 25
 1.013952e+02 7.422540e+01 7.181725e+01 5.871283e+01 7.210231e+01 7.970312e+01 6.422868e+01 5.847706e+01 4.746009e+01 4.610877e+01 4.276382e+01 3.542401e+01 7.962211e+00 5.554332e+00 4.621035e+00 3.760045e+00 4.916434e+00 4.470838e+00 4.602122e+00 4.220181e+00 3.727088e+00 3.759599e+00 3.402913e+00 2.800200e+00 1.783246e+00
<GCONST> 1.132949e+02
<STATE> 3
<MEAN> 25
 -1.186635e+01 5.418180e+00 -1.022376e+00 1.950141e+00 3.905334e+00 -3.427468e+00 4.003039e+00 1.479121e+00 1.842823e+00 -1.677167e+00 1.359404e+00 2.301046e+00 5.231948e-01 -3.716552e-01 4.519333e-02 -1.490161e-01 -3.562983e-01 -3.570651e-02 -2.146881e-01 -9.648442e-02 5.546778e-03 -2.963473e-03 -8.824863e-02 -8.242170e-02 8.769275e-02
<VARIANCE> 25
 9.042007e+01 7.835741e+01 7.597970e+01 5.853761e+01 7.327589e+01 8.026363e+01 6.047485e+01 5.860759e+01 4.531263e+01 4.373746e+01 3.945110e+01 3.413297e+01 9.635962e+00 4.830667e+00 4.376756e+00 3.320040e+00 4.502697e+00 4.342916e+00 4.478855e+00 4.136939e+00 3.694979e+00 3.576504e+00 3.254231e+00 2.805937e+00 2.129066e+00
<GCONST> 1.128206e+02
<STATE> 4
<MEAN> 25
 -6.817951e+00 2.747376e+00 -1.667863e-01 1.436849e+00 2.075226e+00 -2.400320e+00 2.622936e+00 4.058425e-01 1.533434e+00 -1.302338e+00 5.693887e-01 1.772357e+00 1.661558e+00 -6.519023e-01 1.486236e-01 -2.968955e-01 -7.020141e-01 4.031926e-02 -5.996398e-01 -2.984927e-01 -1.850147e-01 1.736008e-01 -2.135170e-01 -3.112813e-01 2.003073e-01
<VARIANCE> 25
 8.846360e+01 7.888480e+01 7.937263e+01 5.845472e+01 7.805637e+01 8.442017e+01 5.724763e+01 5.420727e+01 4.580499e+01 4.314493e+01 3.886724e+01 3.347778e+01 6.119063e+00 4.302671e+00 4.499090e+00 3.503215e+00 4.513939e+00 4.530577e+00 4.434192e+00 4.126304e+00 3.797411e+00 3.584760e+00 3.221022e+00 2.710216e+00 2.372808e+00
<GCONST> 1.124281e+02
<TRANSP> 5
 0.000000e+00 1.000000e+00 0.000000e+00 0.000000e+00 0.000000e+00
 0.000000e+00 7.424040e-01 2.575961e-01 0.000000e+00 0.000000e+00
 0.000000e+00 0.000000e+00 6.938518e-01 3.061481e-01 0.000000e+00
 0.000000e+00 0.000000e+00 0.000000e+00 7.089316e-01 2.910684e-01
 0.000000e+00 0.000000e+00 0.000000e+00 0.000000e+00 0.000000e+00
<ENDHMM>
~h "t"
<BEGINHMM>
<NUMSTATES> 5
<STATE> 2
<MEAN> 25
 -1.392462e+00 1.443558e+00 -1.085389e+00 1.445269e+00 7.224482e-01 -2.389877e-01 4.455318e-01 3.805692e-02 1.482762e+00 1.752981e-01 5.139067e-01 1.128595e+00 -2.483859e-01 -4.181654e-01 -2.556561e-01 -4.223703e-01 5.816492e-02 -1.831030e-01 3.539076e-02 6.705587e-02 4.361760e-01 -7.101597e-02 1.290586e-01 2.450956e-02 5.121086e-01
<VARIANCE> 25
 4.121874e+01 3.882885e+01 4.096583e+01 4.534624e+01 4.632557e+01 6.007489e+01 4.414458e+01 4.532682e+01 4.814214e+01 3.844764e+01 4.049022e+01 3.173127e+01 4.017795e+00 4.616681e+00 3.487841e+00 4.687864e+00 4.524734e+00 6.574423e+00 4.755191e+00 4.483551e+00 4.828131e+00 3.902200e+00 4.041152e+00 3.241082e+00 8.757095e+00
<GCONST> 1.109119e+02
<STATE> 3
<MEAN> 25
 -1.301339e+00 -2.521867e-02 -1.475210e+00 4.751274e-02 5.315746e-01 -1.052161e+00 1.575409e-01 1.351796e-01 2.261197e+00 -8.865818e-04 5.647349e-01 8.502829e-01 2.812890e-01 -6.106296e-01 -7.264201e-02 -6.518572e-01 -1.588669e-01 -3.613746e-01 -2.726173e-01 -1.832738e-02 1.912783e-01 -2.737762e-02 -7.855182e-04 -2.493722e-01 1.148879e+00
<VARIANCE> 25
 4.026789e+01 4.031490e+01 4.094398e+01 4.672761e+01 4.674421e+01 6.196722e+01 4.788729e+01 4.604576e+01 4.854125e+01 4.001819e+01 4.131222e+01 3.406780e+01 4.475669e+00 4.261024e+00 3.682026e+00 4.803495e+00 4.582653e+00 6.955377e+00 5.386540e+00 4.851731e+00 5.166594e+00 4.268462e+00 4.486718e+00 3.706834e+00 7.681241e+00
<GCONST> 1.118763e+02
<STATE> 4
<MEAN> 25
 -3.805936e-01 -8.353296e-01 -1.580512e+00 -8.625301e-01 2.221083e-01 -1.358546e+00 -4.310588e-01 1.226261e-01 2.270866e+00 -6.951448e-02 4.072055e-01 3.809650e-01 4.825683e-01 -3.231210e-01 1.083808e-01 -4.581048e-01 -2.057325e-01 -1.709169e-01 -3.673857e-01 -1.467655e-01 -1.944323e-01 6.366102e-02 -1.364740e-02 -2.848066e-01 8.244750e-01
<VARIANCE> 25
 4.260102e+01 4.272525e+01 4.398426e+01 5.140485e+01 4.714639e+01 6.225884e+01 5.248874e+01 4.872290e+01 5.231075e+01 4.203873e+01 4.306798e+01 3.652201e+01 3.455943e+00 3.383267e+00 3.490279e+00 4.088650e+00 4.104920e+00 5.742851e+00 4.911427e+00 4.442316e+00 4.694072e+00 3.896455e+00 3.986587e+00 3.278197e+00 4.945190e+00
<GCONST> 1.105000e+02
<TRANSP> 5
 0.000000e+00 1.000000e+00 0.000000e+00 0.000000e+00 0.000000e+00
 0.000000e+00 5.296289e-01 4.703711e-01 0.000000e+00 0.000000e+00
 0.000000e+00 0.000000e+00 5.023296e-01 4.976704e-01 0.000000e+00
 0.000000e+00 0.000000e+00 0.000000e+00 5.543770e-01 4.456230e-01
 0.000000e+00 0.000000e+00 0.000000e+00 0.000000e+00 0.000000e+00
<ENDHMM>
~h "u"
<BEGINHMM>
<NUMSTATES> 5
<STATE> 2
<MEAN> 25
 4.633326e+00 3.269078e+00 -1.508335e+00 -3.234711e+00 -5.229347e-01 3.814638e-01 -5.804572e+00 -4.727291e+00 -2.346159e+00 3.046204e-01 2.120013e+00 -4.136487e-02 4.289898e-01 2.646861e-01 -1.267979e-01 -3.719618e-01 -8.581571e-02 2.421120e-01 -4.034207e-01 -3.971083e-01 -2.907501e-01 1.250859e-01 2.341201e-01 2.850990e-02 6.098156e-02
<VARIANCE> 25
 3.438980e+01 3.966802e+01 4.195478e+01 7.010697e+01 5.282536e+01 5.715132e+01 6.488583e+01 5.883324e+01 6.057583e+01 5.836956e+01 4.838631e+01 3.717504e+01 2.513299e+00 2.564678e+00 2.764797e+00 4.944461e+00 4.156930e+00 4.467215e+00 5.377327e+00 4.653598e+00 4.923842e+00 4.402822e+00 3.854213e+00 3.027798e+00 2.038145e+00
<GCONST> 1.099428e+02
<STATE> 3
<MEAN> 25
 4.884015e+00 3.526073e+00 -1.618825e+00 -3.297185e+00 -6.086983e-01 8.617591e-01 -5.767161e+00 -4.964798e+00 -2.450042e+00 4.460621e-01 2.267211e+00 1.406355e-01 -3.129048e-02 1.883578e-02 2.087703e-02 1.289616e-01 2.947824e-02 1.008045e-01 1.268385e-01 3.299287e-02 8.180454e-02 3.458225e-02 -5.441117e-02 2.915157e-02 -1.283459e-01
<VARIANCE> 25
 3.175506e+01 4.007515e+01 3.996264e+01 7.025036e+01 5.204172e+01 5.603415e+01 6.240818e+01 5.843103e+01 6.147765e+01 6.109552e+01 4.946775e+01 3.788197e+01 1.817223e+00 2.358990e+00 2.505204e+00 4.643209e+00 3.832624e+00 4.040762e+00 4.722095e+00 4.273641e+00 4.555166e+00 4.150663e+00 3.764587e+00 2.917865e+00 1.805591e+00
<GCONST> 1.085632e+02
<STATE> 4
<MEAN> 25
 4.070256e+00 3.819048e+00 -1.520397e+00 -2.324718e+00 -3.912226e-01 1.250920e+00 -4.469866e+00 -4.282393e+00 -2.260653e+00 1.261755e-01 1.942173e+00 5.422260e-01 -3.672997e-01 -1.557800e-01 1.296873e-01 4.001969e-01 1.355644e-01 -4.176515e-02 3.844342e-01 3.209727e-01 2.793965e-01 -1.395570e-02 -1.939874e-01 7.132437e-04 -1.863948e-01
<VARIANCE> 25
 3.620144e+01 4.402209e+01 3.930479e+01 7.422235e+01 5.242790e+01 5.678488e+01 5.825397e+01 5.568768e+01 6.006730e+01 6.067649e+01 4.882998e+01 3.944925e+01 1.409567e+00 2.163683e+00 2.230004e+00 3.708482e+00 3.301041e+00 3.462059e+00 3.747974e+00 3.629435e+00 3.807151e+00 3.612066e+00 3.328982e+00 2.618109e+00 1.454704e+00
<GCONST> 1.065820e+02
<TRANSP> 5
 0.000000e+00 1.000000e+00 0.000000e+00 0.000000e+00 0.000000e+00
 0.000000e+00 5.532365e-01 4.467635e-01 0.000000e+00 0.000000e+00
 0.000000e+00 0.000000e+00 5.396273e-01 4.603728e-01 0.000000e+00
 0.000000e+00 0.000000e+00 0.000000e+00 6.702162e-01 3.297838e-01
 0.000000e+00 0.000000e+00 0.000000e+00 0.000000e+00 0.000000e+00
<ENDHMM>
~h "v"
<BEGINHMM>
<NUMSTATES> 5
<STATE> 2
<MEAN> 25
 -1.784921e+00 -4.617941e-01 1.080880e+00 3.427082e+00 1.329684e+00 4.927173e-01 8.176337e-01 3.313738e-01 -3.496520e-01 -8.870270e-01 6.064845e-01 -2.267350e-01 -3.584662e-01 -5.761920e-02 3.756477e-02 1.260415e-01 -2.323555e-02 1.841553e-01 8.941412e-02 -1.159512e-02 -8.817413e-02 -7.002716e-02 2.630870e-01 9.943642e-02 -1.423248e-01
<VARIANCE> 25
 4.789961e+01 2.690809e+01 2.798231e+01 3.821819e+01 6.071355e+01 5.398357e+01 2.323903e+01 3.052520e+01 4.070292e+01 3.261219e+01 2.427121e+01 1.733293e+01 2.184879e+00 1.406240e+00 1.345862e+00 1.972680e+00 2.952865e+00 3.270387e+00 2.063586e+00 1.912730e+00 2.581412e+00 2.321204e+00 2.084609e+00 1.558634e+00 7.474357e-01
<GCONST> 9.639275e+01
<STATE> 3
<MEAN> 25
 -1.347100e+00 -7.528170e-01 1.533182e+00 3.290657e+00 -3.957709e-01 1.401324e-01 9.962896e-01 3.995674e-01 -6.528682e-01 -1.331496e+00 1.456865e+00 3.463499e-01 8.792955e-02 -1.138797e-01 -9.308285e-02 -1.298025e-01 -2.044254e-01 -1.108540e-01 2.516760e-03 -8.198361e-02 -1.190586e-01 -1.082843e-01 9.443882e-02 7.811472e-02 5.253271e-02
<VARIANCE> 25
 5.320885e+01 3.154775e+01 3.005732e+01 4.365730e+01 8.011308e+01 5.748574e+01 2.653471e+01 2.951241e+01 4.646649e+01 4.131615e+01 2.250786e+01 1.816670e+01 2.426414e+00 1.358351e+00 1.517787e+00 2.234543e+00 2.919759e+00 3.438003e+00 2.094335e+00 2.002245e+00 3.028695e+00 2.443645e+00 1.924374e+00 1.590118e+00 8.769800e-01
<GCONST> 9.836645e+01
<STATE> 4
<MEAN> 25
 2.026797e+00 -9.105728e-01 9.500904e-01 2.418882e+00 -2.411944e+00 -1.627335e+00 8.661078e-01 -1.072328e-01 -6.334169e-01 -9.218168e-01 9.997360e-01 1.026288e-01 5.800385e-01 -3.128498e-02 -1.995555e-01 -4.063641e-01 -2.370214e-01 -2.025034e-01 -5.614572e-02 -2.034109e-01 -1.158186e-01 9.334251e-02 -8.574335e-02 -1.254712e-01 2.856958e-01
<VARIANCE> 25
 5.877882e+01 3.209498e+01 4.996932e+01 5.247922e+01 9.282323e+01 6.145555e+01 2.968464e+01 2.875497e+01 5.558641e+01 4.531292e+01 2.650463e+01 1.913778e+01 2.956539e+00 1.561420e+00 2.362881e+00 2.926382e+00 3.188952e+00 3.325447e+00 2.199417e+00 2.052199e+00 3.091994e+00 2.443031e+00 1.914436e+00 1.719089e+00 1.265195e+00
<GCONST> 1.016004e+02
<TRANSP> 5
 0.000000e+00 1.000000e+00 0.000000e+00 0.000000e+00 0.000000e+00
 0.000000e+00 6.849890e-01 3.150110e-01 0.000000e+00 0.000000e+00
 0.000000e+00 0.000000e+00 6.259333e-01 3.740667e-01 0.000000e+00
 0.000000e+00 0.000000e+00 0.000000e+00 7.293520e-01 2.706480e-01
 0.000000e+00 0.000000e+00 0.000000e+00 0.000000e+00 0.000000e+00
<ENDHMM>
~h "w"
<BEGINHMM>
<NUMSTATES> 5
<STATE> 2
<MEAN> 25
 4.956960e+00 3.005424e+00 -4.459047e+00 -7.793792e+00 -6.565900e-01 3.247909e+00 -3.212728e+00 -2.354825e+00 -1.619532e+00 1.813576e+00 3.331423e+00 -2.746917e-01 5.363494e-01 -2.551251e-01 -3.647481e-01 -8.824678e-01 -1.531102e-01 2.358818e-01 -3.332028e-01 -3.976374e-02 1.637883e-01 3.332554e-01 2.017981e-01 -3.628055e-01 6.376572e-01
<VARIANCE> 25
 8.955386e+01 5.053308e+01 3.740414e+01 7.805854e+01 6.042485e+01 7.119661e+01 6.119619e+01 4.971474e+01 5.092970e+01 6.508099e+01 4.907763e+01 4.160031e+01 2.541607e+00 3.149214e+00 2.025841e+00 4.056559e+00 3.513802e+00 3.832246e+00 3.313472e+00 3.095025e+00 3.695751e+00 3.831538e+00 3.598971e+00 3.230545e+00 2.138223e+00
<GCONST> 1.094364e+02
<STATE> 3
<MEAN> 25
 7.041493e+00 1.506038e+00 -5.359376e+00 -9.456888e+00 -9.449139e-01 3.597744e+00 -4.297395e+00 -2.480859e+00 -6.299542e-01 2.498021e+00 3.296222e+00 -1.807193e+00 1.667068e-01 -6.538190e-01 -1.948544e-01 -1.633079e-01 1.420526e-01 -5.245517e-02 -1.413130e-01 1.982727e-01 4.660005e-01 1.874494e-01 -2.446415e-01 -5.161177e-01 5.644820e-01
<VARIANCE> 25
 5.140714e+01 5.372269e+01 3.997096e+01 7.628233e+01 6.019891e+01 8.720515e+01 6.309483e+01 5.139811e+01 5.609610e+01 7.068596e+01 5.544447e+01 4.634018e+01 2.074232e+00 3.195605e+00 2.213402e+00 3.824105e+00 3.430601e+00 4.092034e+00 3.461978e+00 3.310990e+00 3.737436e+00 3.859214e+00 3.731692e+00 3.572330e+00 1.996585e+00
<GCONST> 1.097385e+02
<STATE> 4
<MEAN> 25
 7.868424e+00 -7.724566e-01 -5.825887e+00 -8.328298e+00 -3.312474e-01 2.157641e+00 -4.330089e+00 -1.545739e+00 1.082476e+00 1.303722e+00 1.361369e+00 -3.475582e+00 -2.059723e-01 -5.337179e-01 1.096846e-01 5.009810e-01 1.989048e-01 -3.306859e-01 2.390446e-01 2.917186e-01 2.894363e-01 -1.061369e-01 -4.411883e-01 -1.574389e-01 1.630298e-01
<VARIANCE> 25
 4.505464e+01 6.451468e+01 4.470796e+01 8.764396e+01 7.107165e+01 1.220526e+02 6.246599e+01 6.610441e+01 6.428540e+01 9.276604e+01 6.560197e+01 5.736147e+01 1.129572e+00 3.061296e+00 2.191112e+00 3.202367e+00 3.122584e+00 4.006970e+00 3.260242e+00 3.385845e+00 3.474937e+00 3.664295e+00 3.327817e+00 3.401304e+00 1.621637e+00
<GCONST> 1.100867e+02
<TRANSP> 5
 0.000000e+00 1.000000e+00 0.000000e+00 0.000000e+00 0.000000e+00
 0.000000e+00 6.249006e-01 3.750993e-01 0.000000e+00 0.000000e+00
 0.000000e+00 0.000000e+00 6.103968e-01 3.896032e-01 0.000000e+00
 0.000000e+00 0.000000e+00 0.000000e+00 7.918172e-01 2.081827e-01
 0.000000e+00 0.000000e+00 0.000000e+00 0.000000e+00 0.000000e+00
<ENDHMM>
~h "y"
<BEGINHMM>
<NUMSTATES> 5
<STATE> 2
<MEAN> 25
 6.702269e-01 -2.478379e+00 8.522991e+00 -3.613259e+00 -8.797083e+00 -4.676739e+00 4.432940e-02 1.178085e+00 -2.427863e+00 1.183111e+00 2.134893e+00 1.800571e-01 1.514157e-01 -3.154921e-01 2.300003e-01 -3.488583e-01 -4.652556e-01 -2.514425e-01 2.420924e-01 4.286852e-01 6.135422e-03 6.624779e-02 1.660607e-02 -2.861884e-02 4.328451e-01
<VARIANCE> 25
 3.427702e+01 4.576123e+01 7.606485e+01 6.395071e+01 7.687446e+01 5.554978e+01 5.543566e+01 6.604800e+01 5.205299e+01 5.420360e+01 5.382816e+01 3.178468e+01 1.357030e+00 2.436430e+00 5.333430e+00 3.072040e+00 4.521440e+00 2.979704e+00 3.475535e+00 4.292965e+00 3.540081e+00 3.123463e+00 3.309818e+00 2.145257e+00 1.956930e+00
<GCONST> 1.080796e+02
<STATE> 3
<MEAN> 25
 1.177341e+00 -3.759710e+00 7.496475e+00 -4.045554e+00 -8.850478e+00 -5.095191e+00 8.028132e-01 2.680676e+00 -1.783392e+00 8.941363e-01 1.620404e+00 -4.689120e-02 1.496752e-01 -3.996398e-01 -6.815371e-01 3.266404e-02 4.236426e-01 8.801559e-03 2.811784e-01 5.155622e-01 2.989402e-01 -1.790201e-01 -3.942169e-01 -1.337865e-01 1.377178e-01
<VARIANCE> 25
 3.142740e+01 4.386296e+01 7.071315e+01 5.928685e+01 6.933931e+01 5.280532e+01 5.574203e+01 6.883656e+01 5.011699e+01 5.296410e+01 5.326675e+01 3.090877e+01 7.838758e-01 2.027261e+00 3.595186e+00 2.289800e+00 3.642773e+00 2.541870e+00 2.974130e+00 3.712111e+00 3.112081e+00 2.937696e+00 3.025442e+00 2.049956e+00 1.221109e+00
<GCONST> 1.047011e+02
<STATE> 4
<MEAN> 25
 7.321640e-01 -4.568524e+00 3.258311e+00 -2.769757e+00 -4.160060e+00 -3.652229e+00 2.056290e+00 3.791580e+00 -4.417093e-01 2.802544e-01 -5.245676e-01 2.886813e-01 9.998480e-02 -9.644224e-02 -6.863078e-01 2.237941e-01 7.201447e-01 2.324316e-01 2.853509e-02 8.382053e-02 1.982078e-01 -1.481249e-01 -3.828658e-01 -1.170790e-01 -1.918521e-01
<VARIANCE> 25
 3.632538e+01 5.200598e+01 5.747103e+01 6.205359e+01 7.119699e+01 5.052472e+01 5.037065e+01 6.305928e+01 4.447748e+01 4.892475e+01 5.125653e+01 3.207004e+01 5.180393e-01 1.380905e+00 1.986336e+00 1.650709e+00 2.437225e+00 1.901777e+00 2.233592e+00 2.699694e+00 2.320283e+00 2.329407e+00 2.371850e+00 1.724435e+00 7.343007e-01
<GCONST> 9.998148e+01
<TRANSP> 5
 0.000000e+00 1.000000e+00 0.000000e+00 0.000000e+00 0.000000e+00
 0.000000e+00 6.075455e-01 3.924544e-01 0.000000e+00 0.000000e+00
 0.000000e+00 0.000000e+00 5.890508e-01 4.109492e-01 0.000000e+00
 0.000000e+00 0.000000e+00 0.000000e+00 7.835630e-01 2.164371e-01
 0.000000e+00 0.000000e+00 0.000000e+00 0.000000e+00 0.000000e+00
<ENDHMM>
~h "z"
<BEGINHMM>
<NUMSTATES> 5
<STATE> 2
<MEAN> 25
 3.529534e-02 7.299379e-01 8.640371e+00 2.786276e+00 -4.972590e+00 2.817563e+00 -2.793004e+00 -7.758153e+00 -2.888321e+00 -4.286311e+00 5.020341e-01 -5.022042e-01 -5.071526e-02 -1.881168e-01 2.394449e-01 2.016181e-01 3.502846e-02 2.023734e-01 -8.392999e-02 -1.979699e-01 3.322034e-03 2.483846e-02 6.436357e-02 1.795516e-02 9.061479e-02
<VARIANCE> 25
 5.600619e+01 1.350191e+02 1.417209e+02 1.934184e+02 1.167781e+02 1.907816e+02 6.434113e+01 8.497887e+01 9.359605e+01 1.011584e+02 7.872916e+01 6.039637e+01 2.154247e+00 3.376662e+00 6.336950e+00 7.141575e+00 4.217173e+00 7.259391e+00 4.280334e+00 4.365086e+00 5.310151e+00 5.867585e+00 3.993108e+00 3.260348e+00 2.241508e+00
<GCONST> 1.202955e+02
<STATE> 3
<MEAN> 25
 2.146153e+00 -3.663328e+00 8.807423e+00 5.713364e+00 -1.042802e+00 4.410136e+00 -5.360163e+00 -9.325337e+00 -1.523261e+00 -4.495193e+00 1.192680e+00 2.514464e-01 3.150558e-01 -5.030998e-02 -5.039564e-01 -2.541815e-01 -1.061465e-01 -1.679751e-01 4.017244e-02 3.125275e-01 1.780154e-01 -2.170777e-01 7.555158e-02 1.165578e-01 1.963558e-01
<VARIANCE> 25
 3.625128e+01 7.055892e+01 1.643420e+02 1.412138e+02 7.916178e+01 1.530401e+02 7.062877e+01 7.244193e+01 9.450572e+01 7.355524e+01 6.809600e+01 6.346732e+01 1.674767e+00 2.169662e+00 7.620568e+00 3.609705e+00 3.418027e+00 7.396499e+00 3.304131e+00 4.076165e+00 4.005854e+00 5.079675e+00 3.578378e+00 2.828521e+00 1.475417e+00
<GCONST> 1.151584e+02
<STATE> 4
<MEAN> 25
 3.541443e+00 -2.436328e+00 3.531856e+00 4.114441e+00 5.637738e-01 2.637929e+00 -3.995956e+00 -4.306633e+00 8.581333e-01 -7.671603e+00 -1.332673e+00 -1.296177e+00 1.075357e-03 8.842656e-02 -2.732768e-01 1.904601e-02 8.629017e-02 2.241227e-02 1.719722e-01 1.754988e-01 1.057574e-01 1.071213e-01 -1.486910e-01 7.750752e-02 -2.597121e-01
<VARIANCE> 25
 2.508241e+01 6.335677e+01 1.068323e+02 9.694357e+01 6.244945e+01 9.061060e+01 6.723615e+01 7.638081e+01 6.184994e+01 6.053125e+01 6.590674e+01 5.028349e+01 6.104075e-01 1.138110e+00 3.217296e+00 2.178868e+00 1.885845e+00 3.695218e+00 2.535726e+00 3.044108e+00 2.457930e+00 3.339745e+00 2.089751e+00 1.978574e+00 7.161219e-01
<GCONST> 1.048408e+02
<TRANSP> 5
 0.000000e+00 1.000000e+00 0.000000e+00 0.000000e+00 0.000000e+00
 0.000000e+00 9.295928e-01 7.040717e-02 0.000000e+00 0.000000e+00
 0.000000e+00 0.000000e+00 8.283679e-01 1.716321e-01 0.000000e+00
 0.000000e+00 0.000000e+00 0.000000e+00 9.080687e-01 9.193136e-02
 0.000000e+00 0.000000e+00 0.000000e+00 0.000000e+00 0.000000e+00
<ENDHMM>
~h "ai"
<BEGINHMM>
<NUMSTATES> 5
<STATE> 2
<MEAN> 25
 5.348668e+00 -5.427109e+00 -7.117150e-01 -2.492877e+00 -3.577563e+00 7.177617e-01 -1.953176e+00 3.423035e+00 8.284431e+00 -9.184313e-01 -5.330208e+00 -2.122966e+00 -2.055234e-01 7.465586e-03 4.311157e-01 -8.808718e-02 1.925265e-01 2.719328e-01 -7.702649e-03 -2.403809e-01 -2.232656e-01 4.016445e-01 3.604660e-01 -1.374551e-01 -8.836657e-02
<VARIANCE> 25
 1.677045e+01 2.260917e+01 4.146148e+01 2.540440e+01 2.572776e+01 5.671782e+01 3.827739e+01 1.222860e+02 8.073773e+01 2.446777e+01 4.479123e+01 3.420205e+01 2.316386e-01 1.495980e+00 1.928245e+00 7.222753e-01 1.910955e+00 1.197514e+00 1.737550e+00 1.710806e+00 2.332912e+00 1.362229e+00 2.459453e+00 2.303813e+00 7.534751e-01
<GCONST> 9.330077e+01
<STATE> 3
<MEAN> 25
 3.093386e+00 -1.680596e+00 1.577024e+00 -4.312314e+00 -7.004207e-01 3.307114e+00 -3.861804e+00 1.425485e+00 7.112766e+00 5.243351e+00 -4.512209e-01 -5.759228e+00 -6.441824e-01 4.694947e-01 -7.616109e-02 6.363882e-01 1.719367e-01 -2.894536e-02 6.916292e-01 -6.136584e-01 3.492445e-02 2.488169e-01 -3.078423e-01 7.191368e-02 -5.698224e-01
<VARIANCE> 25
 1.962127e+01 1.619839e+01 6.120554e+01 6.037896e+01 5.051639e+01 3.843338e+01 9.245049e+01 1.042092e+02 4.958000e+01 2.612270e+01 1.912604e+01 8.436641e+01 8.593757e-01 1.728564e+00 1.442605e+00 2.396014e+00 2.087621e+00 1.749539e+00 2.987602e+00 1.040917e+00 2.224257e+00 1.790978e+00 1.876872e+00 1.347597e+00 1.468858e+00
<GCONST> 9.798080e+01
<STATE> 4
<MEAN> 25
 -4.406980e+00 -4.048024e+00 1.261638e+00 3.373403e-01 3.583229e+00 2.732615e+00 4.378885e+00 -5.688804e-01 2.356850e+00 4.677693e+00 -3.008353e+00 -4.309063e+00 -4.166395e-01 1.097983e-01 1.557712e-02 4.548902e-01 -3.658676e-02 -1.099931e-01 6.603644e-01 2.603286e-01 -4.851772e-01 1.481612e-01 1.633615e-02 5.978131e-01 -5.805361e-01
<VARIANCE> 25
 2.478346e+01 3.214487e+01 2.301021e+01 2.338141e+01 3.279054e+01 1.663934e+01 6.002425e+01 5.180142e+01 4.394964e+01 5.683703e+01 1.444400e+01 4.672388e+01 1.991045e+00 6.067952e-01 9.430977e-01 1.249087e+00 2.255633e+00 1.329014e+00 2.801432e+00 1.826079e+00 2.168798e+00 2.692005e+00 1.692408e+00 1.867404e+00 1.424545e+00
<GCONST> 9.394919e+01
<TRANSP> 5
 0.000000e+00 1.000000e+00 0.000000e+00 0.000000e+00 0.000000e+00
 0.000000e+00 9.181010e-01 8.189897e-02 0.000000e+00 0.000000e+00
 0.000000e+00 0.000000e+00 7.854362e-01 2.145639e-01 0.000000e+00
 0.000000e+00 0.000000e+00 0.000000e+00 9.306468e-01 6.935318e-02
 0.000000e+00 0.000000e+00 0.000000e+00 0.000000e+00 0.000000e+00
<ENDHMM>
~h "au"
<BEGINHMM>
<NUMSTATES> 5
<STATE> 2
<MEAN> 25
 -1.833986e+01 8.368074e+00 -2.499875e+00 -3.107890e+00 9.196552e+00 2.331110e+00 -6.927252e-01 3.728993e+00 1.071180e+00 4.298007e+00 1.376968e+00 -1.239194e+00 -1.942637e-01 3.364547e-01 -1.433450e-01 -3.443869e-01 9.094130e-02 -6.351937e-02 1.107508e-01 -9.059139e-02 -3.407783e-01 4.263602e-02 2.472459e-02 3.733771e-02 -2.381863e-01
<VARIANCE> 25
 1.565587e+02 6.259509e+01 1.880917e+01 4.273672e+01 4.216857e+01 2.110822e+01 2.444305e+01 2.427133e+01 2.161915e+01 2.595384e+01 1.517372e+01 2.071119e+01 1.178611e+01 2.669439e+00 1.487954e+00 4.440952e+00 2.451846e+00 3.305144e+00 3.331887e+00 1.176818e+00 1.609715e+00 8.573406e-01 1.241846e+00 1.432735e+00 8.546052e+00
<GCONST> 9.892307e+01
<STATE> 3
<MEAN> 25
 -6.737015e+00 5.320152e+00 -2.579823e+00 6.238449e-02 5.460473e+00 3.164530e-01 3.535020e+00 5.205374e+00 -7.877185e-01 1.525212e+00 6.678059e-01 -8.722764e-01 2.047413e+00 -1.708428e+00 -7.517695e-01 3.132982e-01 -1.111985e+00 -1.389423e-01 1.237379e+00 -4.401990e-01 -1.278705e+00 -4.446411e-01 2.831106e-01 5.835729e-01 2.008615e+00
<VARIANCE> 25
 2.086806e+02 1.081494e+02 2.809282e+01 4.312927e+01 9.023630e+01 4.173365e+01 5.767797e+01 2.382159e+01 3.644893e+01 3.075400e+01 2.218638e+01 3.774442e+01 1.352989e+01 7.393775e+00 2.427019e+00 4.435088e+00 2.632259e+00 6.319939e+00 4.438146e+00 1.340071e+00 2.398797e+00 1.678666e+00 1.169226e+00 3.057900e+00 9.938819e+00
<GCONST> 1.088222e+02
<STATE> 4
<MEAN> 25
 -2.554622e+00 1.087873e+00 -4.878734e+00 6.766881e-01 2.300098e+00 2.832429e-01 6.660084e+00 3.705707e+00 -4.727594e+00 -6.959368e-01 1.726676e+00 3.632103e+00 3.185193e-01 -3.848978e-01 2.544894e-01 -1.607954e-01 -5.379901e-01 -1.983369e-01 -2.761489e-01 -2.013105e-01 2.261796e-01 -1.534899e-02 -6.125654e-02 2.243125e-01 4.541832e-01
<VARIANCE> 25
 1.056723e+02 6.537739e+01 6.165041e+01 5.239600e+01 6.246420e+01 8.000040e+01 4.539687e+01 3.552100e+01 5.690851e+01 4.414002e+01 1.817013e+01 2.438275e+01 9.604514e+00 8.786676e+00 4.283234e+00 2.984929e+00 5.083323e+00 9.116992e+00 4.970049e+00 2.608054e+00 4.459347e+00 3.201198e+00 1.882116e+00 2.588464e+00 9.552626e+00
<GCONST> 1.125731e+02
<TRANSP> 5
 0.000000e+00 1.000000e+00 0.000000e+00 0.000000e+00 0.000000e+00
 0.000000e+00 7.773770e-01 2.226230e-01 0.000000e+00 0.000000e+00
 0.000000e+00 0.000000e+00 6.018301e-01 3.981700e-01 0.000000e+00
 0.000000e+00 0.000000e+00 0.000000e+00 8.934857e-01 1.065143e-01
 0.000000e+00 0.000000e+00 0.000000e+00 0.000000e+00 0.000000e+00
<ENDHMM>
~h "aw"
<BEGINHMM>
<NUMSTATES> 5
<STATE> 2
<MEAN> 25
 4.995514e+00 -1.735733e+00 -5.515466e+00 -9.524836e+00 8.378967e-01 4.647351e+00 -1.337412e+00 -1.192453e+00 4.308519e-01 2.307659e+00 5.704885e-01 -1.852444e+00 2.852125e-01 2.866370e-01 -1.770060e-01 -6.002070e-01 -1.601643e-02 2.968215e-01 -2.174347e-01 -1.050850e-01 -2.219100e-01 1.346992e-01 3.073245e-01 9.738855e-02 -5.231524e-02
<VARIANCE> 25
 3.191514e+01 3.588938e+01 3.586899e+01 6.870225e+01 5.181139e+01 5.259976e+01 4.933989e+01 4.675489e+01 4.890434e+01 5.287482e+01 4.485291e+01 3.838720e+01 1.032182e+00 1.428132e+00 1.710886e+00 3.458199e+00 2.906968e+00 2.708510e+00 3.016026e+00 3.179211e+00 2.896203e+00 2.789476e+00 2.610311e+00 2.143156e+00 1.154068e+00
<GCONST> 1.022072e+02
<STATE> 3
<MEAN> 25
 5.665913e+00 -2.213658e-01 -5.373335e+00 -9.880336e+00 2.610631e-01 4.675420e+00 -2.047441e+00 -1.834159e+00 -6.737131e-01 2.319708e+00 1.403753e+00 -1.346555e+00 8.415839e-02 4.188612e-01 1.638007e-01 2.301463e-01 -7.397196e-02 -9.206781e-02 -1.373346e-01 -1.673109e-01 -2.206413e-01 -8.322988e-02 8.169043e-02 1.403332e-01 -3.533198e-01
<VARIANCE> 25
 2.884792e+01 3.327984e+01 3.367820e+01 6.811884e+01 5.278192e+01 5.008892e+01 5.130435e+01 4.545082e+01 4.941983e+01 5.512888e+01 3.999496e+01 3.732290e+01 8.950870e-01 1.411901e+00 1.587842e+00 3.530067e+00 2.685083e+00 2.615429e+00 3.016578e+00 3.022989e+00 2.963899e+00 3.012115e+00 2.574789e+00 2.242821e+00 1.015038e+00
<GCONST> 1.014797e+02
<STATE> 4
<MEAN> 25
 5.789951e+00 2.256149e+00 -4.226076e+00 -7.793360e+00 -9.471531e-01 3.695801e+00 -1.715438e+00 -2.774879e+00 -1.864314e+00 1.413166e+00 1.315149e+00 -8.278873e-01 -2.038476e-01 2.575960e-01 3.415837e-01 7.657956e-01 2.577512e-02 -2.880707e-01 5.684531e-02 -5.104632e-02 6.226561e-03 -1.382622e-01 -9.390619e-02 9.088850e-02 -4.137252e-01
<VARIANCE> 25
 2.779276e+01 3.559694e+01 3.090197e+01 6.723477e+01 5.111506e+01 4.838241e+01 4.743081e+01 4.592774e+01 5.199302e+01 5.854087e+01 3.694426e+01 3.715088e+01 7.737880e-01 1.344887e+00 1.513080e+00 2.948845e+00 2.441174e+00 2.511693e+00 2.701882e+00 2.890396e+00 2.848070e+00 2.910773e+00 2.318484e+00 2.163379e+00 8.513308e-01
<GCONST> 1.001986e+02
<TRANSP> 5
 0.000000e+00 1.000000e+00 0.000000e+00 0.000000e+00 0.000000e+00
 0.000000e+00 6.910529e-01 3.089472e-01 0.000000e+00 0.000000e+00
 0.000000e+00 0.000000e+00 6.705356e-01 3.294643e-01 0.000000e+00
 0.000000e+00 0.000000e+00 0.000000e+00 8.268621e-01 1.731379e-01
 0.000000e+00 0.000000e+00 0.000000e+00 0.000000e+00 0.000000e+00
<ENDHMM>
~h "ay"
<BEGINHMM>
<NUMSTATES> 5
<STATE> 2
<MEAN> 25
 2.100914e+00 -8.011060e+00 2.256547e+00 -3.598158e+00 -5.385291e+00 -5.042563e+00 1.327322e+00 5.574721e+00 1.175298e+00 -7.911382e-01 8.818603e-01 -1.975568e+00 -1.559272e-01 2.240334e-01 1.113973e+00 -4.194839e-02 -1.110115e+00 -5.805960e-01 2.301949e-01 1.824545e-01 -6.783908e-01 7.574681e-02 5.443730e-01 3.805441e-01 -6.579243e-02
<VARIANCE> 25
 2.667211e+01 4.824195e+01 6.952420e+01 4.370313e+01 7.534284e+01 6.379637e+01 5.872166e+01 7.046391e+01 6.209991e+01 5.031686e+01 6.221455e+01 3.929759e+01 9.379758e-01 2.037452e+00 2.950941e+00 2.084316e+00 3.612599e+00 3.263587e+00 3.388431e+00 4.858562e+00 3.699051e+00 3.135704e+00 3.596798e+00 2.630913e+00 1.115213e+00
<GCONST> 1.063203e+02
<STATE> 3
<MEAN> 25
 1.499024e+00 -5.566957e+00 5.414577e+00 -3.485222e+00 -7.797730e+00 -5.811718e+00 1.074249e+00 4.194571e+00 -9.280795e-01 -5.561395e-02 2.409766e+00 -6.670011e-01 -1.205247e-01 7.406037e-01 6.485114e-01 1.468586e-01 -3.560559e-01 3.738437e-02 -6.921190e-02 -4.914462e-01 -5.733209e-01 1.510794e-01 2.164504e-01 2.806638e-01 -5.492367e-01
<VARIANCE> 25
 2.484358e+01 4.811800e+01 7.178448e+01 4.804330e+01 6.760743e+01 6.077635e+01 5.860729e+01 7.309323e+01 6.097334e+01 5.034136e+01 5.933378e+01 3.459763e+01 7.115474e-01 1.616309e+00 3.290755e+00 2.136399e+00 3.632928e+00 2.920654e+00 3.125637e+00 3.956738e+00 3.618950e+00 2.824142e+00 3.278801e+00 2.392727e+00 9.679782e-01
<GCONST> 1.048374e+02
<STATE> 4
<MEAN> 25
 9.028917e-01 -1.506187e+00 6.219411e+00 -2.576434e+00 -7.300886e+00 -4.282391e+00 4.796000e-01 1.752683e+00 -2.262411e+00 1.564097e-01 1.795431e+00 6.173156e-01 -1.985297e-02 7.256086e-01 -1.574506e-01 4.612181e-01 4.135526e-01 4.048489e-01 -7.184409e-02 -4.396021e-01 -1.633075e-01 -1.915601e-02 -1.947920e-01 1.236045e-01 -7.430475e-01
<VARIANCE> 25
 2.383139e+01 5.480901e+01 6.489520e+01 5.354123e+01 6.013495e+01 5.776551e+01 5.154516e+01 6.912289e+01 5.551411e+01 4.440892e+01 4.943136e+01 3.675618e+01 7.658099e-01 1.505995e+00 2.702370e+00 2.184042e+00 2.834525e+00 2.630311e+00 2.872432e+00 3.338706e+00 3.137425e+00 2.638031e+00 2.642082e+00 2.144470e+00 9.076537e-01
<GCONST> 1.028600e+02
<TRANSP> 5
 0.000000e+00 1.000000e+00 0.000000e+00 0.000000e+00 0.000000e+00
 0.000000e+00 6.541488e-01 3.458513e-01 0.000000e+00 0.000000e+00
 0.000000e+00 0.000000e+00 6.303352e-01 3.696648e-01 0.000000e+00
 0.000000e+00 0.000000e+00 0.000000e+00 7.637798e-01 2.362202e-01
 0.000000e+00 0.000000e+00 0.000000e+00 0.000000e+00 0.000000e+00
<ENDHMM>
~h "kh"
<BEGINHMM>
<NUMSTATES> 5
<STATE> 2
<MEAN> 25
 -2.923667e-01 -3.809319e+00 -2.297620e-01 1.029041e+00 1.126957e+00 -8.159689e-01 4.524540e+00 1.901807e+00 7.121781e-02 -9.835552e-01 -1.040276e+00 8.500642e-02 -4.058216e-01 5.013075e-01 7.634801e-01 1.429026e-01 -5.538674e-01 -8.361258e-02 1.101563e-01 -4.438261e-01 -5.988794e-02 4.032347e-01 4.253210e-01 1.102887e-01 -3.623562e-01
<VARIANCE> 25
 2.834181e+01 2.842324e+01 3.669696e+01 3.648621e+01 5.294235e+01 4.915808e+01 4.521543e+01 4.681989e+01 3.646191e+01 3.158690e+01 2.625574e+01 2.684411e+01 1.272835e+00 2.057943e+00 2.213993e+00 2.650952e+00 3.068760e+00 3.858232e+00 2.787419e+00 2.958751e+00 3.578611e+00 2.960969e+00 3.114860e+00 2.135739e+00 2.404119e+00
<GCONST> 1.014138e+02
<STATE> 3
<MEAN> 25
 -9.406912e-01 -2.790141e+00 1.286218e+00 9.811038e-01 -1.728272e-01 -8.575845e-01 4.165876e+00 8.326904e-01 2.215125e-01 8.803834e-02 -2.395290e-01 2.710581e-01 -3.072212e-01 4.514718e-01 7.064909e-01 -9.624466e-03 -5.100765e-01 -5.658996e-02 -2.856776e-01 -6.060492e-01 -2.452725e-02 4.354575e-01 3.702540e-01 1.373031e-01 -3.099347e-01
<VARIANCE> 25
 2.947025e+01 2.680930e+01 3.806825e+01 3.399456e+01 5.585913e+01 5.220562e+01 4.518718e+01 5.082923e+01 4.016548e+01 2.728412e+01 2.674070e+01 2.359108e+01 1.355051e+00 2.098565e+00 2.165526e+00 2.192180e+00 3.364664e+00 3.759923e+00 2.784764e+00 3.083019e+00 3.533289e+00 2.808292e+00 3.385607e+00 1.964273e+00 1.732697e+00
<GCONST> 1.009779e+02
<STATE> 4
<MEAN> 25
 -1.170621e+00 -1.963871e+00 2.746961e+00 6.777332e-01 -1.298045e+00 -8.415227e-01 2.883352e+00 -5.107290e-01 4.149571e-01 1.155188e+00 1.541078e-01 4.345732e-01 -4.570158e-02 2.630854e-01 6.177662e-01 -4.585941e-02 -4.689041e-01 -3.030723e-01 -5.069150e-01 -6.308857e-01 -2.411459e-01 3.235603e-01 2.203678e-01 1.327771e-01 -2.236834e-02
<VARIANCE> 25
 3.382027e+01 3.112230e+01 3.797403e+01 3.499805e+01 5.867305e+01 5.839717e+01 4.451334e+01 5.022911e+01 4.677575e+01 2.759583e+01 3.118132e+01 2.112241e+01 1.860291e+00 2.454041e+00 2.317102e+00 2.313152e+00 4.127194e+00 4.300925e+00 3.212274e+00 3.297439e+00 3.998191e+00 2.812918e+00 4.066365e+00 1.971308e+00 1.645986e+00
<GCONST> 1.030367e+02
<TRANSP> 5
 0.000000e+00 1.000000e+00 0.000000e+00 0.000000e+00 0.000000e+00
 0.000000e+00 5.308805e-01 4.691195e-01 0.000000e+00 0.000000e+00
 0.000000e+00 0.000000e+00 5.334811e-01 4.665190e-01 0.000000e+00
 0.000000e+00 0.000000e+00 0.000000e+00 6.339434e-01 3.660566e-01
 0.000000e+00 0.000000e+00 0.000000e+00 0.000000e+00 0.000000e+00
<ENDHMM>
~h "ng"
<BEGINHMM>
<NUMSTATES> 5
<STATE> 2
<MEAN> 25
 4.453060e+00 -4.654040e-01 -6.651475e-01 -1.333361e+00 -6.143599e-01 1.356515e+00 5.183133e-02 -1.729316e+00 -1.713479e+00 3.582488e-01 -1.740028e+00 -2.361136e+00 -7.210108e-03 4.329544e-01 1.505655e-01 3.328717e-01 -4.387332e-02 5.532436e-02 1.341686e-01 -2.787517e-01 -1.548494e-01 -8.120801e-03 -9.315499e-02 2.084392e-02 -3.876478e-01
<VARIANCE> 25
 2.380678e+01 4.191930e+01 3.947967e+01 4.302750e+01 4.866290e+01 5.163474e+01 4.550031e+01 5.259979e+01 5.033509e+01 4.354745e+01 3.852464e+01 3.635311e+01 7.881829e-01 1.818849e+00 2.053891e+00 2.322253e+00 2.769795e+00 2.695223e+00 2.790807e+00 3.646116e+00 3.066260e+00 2.647374e+00 2.632174e+00 2.165246e+00 1.134029e+00
<GCONST> 1.010498e+02
<STATE> 3
<MEAN> 25
 4.235288e+00 3.550534e-01 -2.930833e-01 -6.903511e-01 -7.104009e-01 1.309718e+00 2.733607e-01 -1.993734e+00 -1.878125e+00 2.892345e-01 -1.817250e+00 -2.236771e+00 -1.402674e-01 3.050742e-01 1.069314e-01 2.527144e-01 4.245898e-02 -3.904075e-02 6.489988e-02 -2.103638e-02 -8.328615e-03 -4.860640e-02 -4.052089e-03 5.869421e-02 -2.946856e-01
<VARIANCE> 25
 2.430170e+01 4.199477e+01 3.733734e+01 4.205953e+01 4.688623e+01 4.975906e+01 4.555301e+01 5.318056e+01 5.003814e+01 4.270680e+01 3.667396e+01 3.540332e+01 7.726074e-01 1.832993e+00 1.875987e+00 2.216440e+00 2.693053e+00 2.568129e+00 2.679851e+00 3.538751e+00 3.007539e+00 2.566912e+00 2.507777e+00 2.080497e+00 1.089508e+00
<GCONST> 1.003555e+02
<STATE> 4
<MEAN> 25
 3.271357e+00 1.301652e+00 -1.730448e-01 1.170610e-01 -3.055452e-01 1.196315e+00 4.211729e-01 -1.577372e+00 -1.691365e+00 1.334945e-01 -1.660851e+00 -1.897269e+00 -2.517325e-01 1.105635e-01 5.739992e-03 1.476595e-01 1.533203e-01 -1.143888e-01 -6.543573e-03 1.754027e-01 1.277367e-01 -5.683260e-02 9.389696e-02 1.115146e-01 -1.688245e-01
<VARIANCE> 25
 2.798813e+01 4.601606e+01 3.693256e+01 4.818684e+01 4.762352e+01 4.894743e+01 4.534899e+01 5.263359e+01 5.076242e+01 4.087928e+01 3.668609e+01 3.765519e+01 8.192548e-01 1.803032e+00 1.826652e+00 2.192369e+00 2.628310e+00 2.557450e+00 2.577672e+00 3.308681e+00 2.924668e+00 2.537120e+00 2.425962e+00 1.985652e+00 1.042564e+00
<GCONST> 1.004368e+02
<TRANSP> 5
 0.000000e+00 1.000000e+00 0.000000e+00 0.000000e+00 0.000000e+00
 0.000000e+00 5.003891e-01 4.996109e-01 0.000000e+00 0.000000e+00
 0.000000e+00 0.000000e+00 4.982195e-01 5.017805e-01 0.000000e+00
 0.000000e+00 0.000000e+00 0.000000e+00 6.641359e-01 3.358640e-01
 0.000000e+00 0.000000e+00 0.000000e+00 0.000000e+00 0.000000e+00
<ENDHMM>
~h "ny"
<BEGINHMM>
<NUMSTATES> 5
<STATE> 2
<MEAN> 25
 2.610386e+00 -2.059155e+00 5.848306e+00 -2.211019e+00 -4.855266e+00 -2.245570e+00 8.249641e-01 1.783747e+00 -3.815198e+00 -1.300441e+00 2.633749e-01 -4.963413e-01 -6.985261e-02 -5.410228e-01 2.121624e-01 -1.864587e-01 -3.281172e-01 -1.238988e-01 2.249786e-01 6.223227e-01 -1.903128e-01 -3.344241e-01 -8.408271e-02 -2.556951e-02 3.102934e-01
<VARIANCE> 25
 2.236648e+01 5.178017e+01 5.488388e+01 5.635565e+01 5.205283e+01 5.206756e+01 5.305452e+01 7.902643e+01 5.176395e+01 5.116829e+01 4.217799e+01 3.428016e+01 1.180192e+00 3.646760e+00 3.735892e+00 3.841699e+00 3.763964e+00 3.818440e+00 3.502571e+00 5.555521e+00 3.586985e+00 3.570756e+00 2.988547e+00 2.286565e+00 1.783905e+00
<GCONST> 1.072503e+02
<STATE> 3
<MEAN> 25
 2.493475e+00 -3.583071e+00 5.239242e+00 -2.098948e+00 -4.813986e+00 -2.395396e+00 1.103898e+00 3.335230e+00 -3.551573e+00 -2.398576e+00 -3.492779e-01 -5.719062e-01 -1.484219e-02 -3.727732e-01 -3.482907e-01 1.206371e-01 1.895634e-01 -2.260824e-02 3.547236e-02 3.949091e-01 1.943216e-01 -2.698928e-01 -2.723007e-01 -5.899506e-02 6.044161e-02
<VARIANCE> 25
 2.209990e+01 4.979020e+01 5.004803e+01 5.259213e+01 5.255539e+01 5.063204e+01 5.469629e+01 8.215885e+01 5.174239e+01 5.372351e+01 4.368177e+01 3.290293e+01 9.143060e-01 3.161044e+00 3.004487e+00 3.119388e+00 3.418124e+00 3.245000e+00 3.196252e+00 4.816416e+00 3.297925e+00 3.172859e+00 2.760679e+00 2.092711e+00 1.537042e+00
<GCONST> 1.052944e+02
<STATE> 4
<MEAN> 25
 2.412592e+00 -4.328807e+00 3.336682e+00 -1.105457e+00 -3.179813e+00 -2.217319e+00 7.919798e-01 4.066439e+00 -2.966835e+00 -3.492595e+00 -1.527740e+00 -7.645665e-01 -2.088554e-02 4.252363e-02 -5.465316e-01 2.627853e-01 4.571075e-01 1.373286e-01 -8.884767e-02 2.489792e-02 3.548561e-01 -2.077870e-02 -2.476155e-01 -3.433464e-02 -3.139994e-01
<VARIANCE> 25
 2.252200e+01 5.286292e+01 4.365994e+01 5.653536e+01 5.331289e+01 5.222466e+01 5.359593e+01 7.506882e+01 5.632123e+01 5.539173e+01 4.812486e+01 3.249459e+01 7.756776e-01 2.496778e+00 2.258539e+00 2.638548e+00 2.860426e+00 2.725311e+00 2.834409e+00 3.697180e+00 2.821272e+00 2.780466e+00 2.465920e+00 1.936377e+00 1.371423e+00
<GCONST> 1.032603e+02
<TRANSP> 5
 0.000000e+00 1.000000e+00 0.000000e+00 0.000000e+00 0.000000e+00
 0.000000e+00 5.987088e-01 4.012912e-01 0.000000e+00 0.000000e+00
 0.000000e+00 0.000000e+00 5.772147e-01 4.227853e-01 0.000000e+00
 0.000000e+00 0.000000e+00 0.000000e+00 7.013603e-01 2.986397e-01
 0.000000e+00 0.000000e+00 0.000000e+00 0.000000e+00 0.000000e+00
<ENDHMM>
~h "sy"
<BEGINHMM>
<NUMSTATES> 5
<STATE> 2
<MEAN> 25
 -1.107999e+01 4.300786e+00 8.409403e+00 -1.120864e+00 -1.261645e+00 -1.210115e-01 2.165563e+00 1.914347e+00 1.480186e+00 6.229523e-01 2.049796e+00 1.624182e+00 -1.507367e+00 1.187134e-01 -7.365449e-02 1.014879e-01 3.186105e-01 2.611860e-01 3.129299e-01 -3.538739e-02 4.782887e-01 -2.564986e-01 -9.824743e-02 1.196869e-01 5.547379e-02
<VARIANCE> 25
 1.309015e+02 4.510117e+01 4.136777e+01 5.291621e+01 5.245494e+01 6.169802e+01 6.768495e+01 5.849127e+01 4.971983e+01 5.168744e+01 4.325570e+01 2.994738e+01 8.015019e+00 3.257383e+00 2.024602e+00 2.762668e+00 5.185118e+00 4.501435e+00 3.629999e+00 2.508664e+00 2.825762e+00 3.574768e+00 2.895048e+00 2.079906e+00 7.497012e-01
<GCONST> 1.078685e+02
<STATE> 3
<MEAN> 25
 -1.142319e+01 2.241461e+00 6.387931e+00 1.173462e-01 -2.248434e+00 -7.290885e-01 2.919297e+00 1.446362e+00 4.029974e+00 -4.295584e-01 9.396188e-01 2.392857e+00 9.425729e-01 -3.611703e-01 -3.429012e-01 -4.728120e-02 -3.951664e-01 -3.985757e-01 -4.689829e-01 -3.566418e-02 3.943133e-01 -1.330052e-01 -3.253747e-01 -1.379502e-01 5.712421e-02
<VARIANCE> 25
 1.154257e+02 5.117339e+01 4.540386e+01 4.712488e+01 6.254581e+01 7.866043e+01 5.672835e+01 6.600314e+01 5.508834e+01 4.460025e+01 4.585733e+01 2.965310e+01 9.740368e+00 3.542395e+00 2.148886e+00 3.046006e+00 5.312463e+00 6.439629e+00 3.901768e+00 2.665944e+00 3.466630e+00 3.372522e+00 2.851384e+00 2.559751e+00 9.264281e-01
<GCONST> 1.097145e+02
<STATE> 4
<MEAN> 25
 -2.867603e+00 5.578407e-01 1.846550e+00 1.448938e+00 -1.560219e+00 -1.846557e-01 -1.003761e+00 1.959992e+00 3.820245e+00 6.142218e-01 6.492122e-01 5.139055e-01 4.546672e-01 -1.039467e-01 -1.908688e-01 -1.238950e-01 -8.012742e-02 -5.277745e-02 -2.174850e-01 -1.000195e-01 -6.803373e-02 6.377786e-02 -2.903563e-02 -1.439119e-01 7.149635e-02
<VARIANCE> 25
 9.053587e+01 1.390385e+02 8.998734e+01 2.128455e+02 6.943442e+01 1.048901e+02 1.177822e+02 8.806284e+01 1.331284e+02 1.205544e+02 8.501509e+01 4.155205e+01 4.166820e+00 4.081535e+00 3.644875e+00 6.679805e+00 4.875693e+00 7.446964e+00 6.081704e+00 6.153371e+00 5.926056e+00 7.032421e+00 4.368641e+00 4.194007e+00 2.222522e+00
<GCONST> 1.219180e+02
<TRANSP> 5
 0.000000e+00 1.000000e+00 0.000000e+00 0.000000e+00 0.000000e+00
 0.000000e+00 8.281122e-01 1.718878e-01 0.000000e+00 0.000000e+00
 0.000000e+00 0.000000e+00 7.320985e-01 2.679016e-01 0.000000e+00
 0.000000e+00 0.000000e+00 0.000000e+00 9.338777e-01 6.612231e-02
 0.000000e+00 0.000000e+00 0.000000e+00 0.000000e+00 0.000000e+00
<ENDHMM>
~h "sil"
<BEGINHMM>
<NUMSTATES> 5
<STATE> 2
<MEAN> 25
 -5.952650e+00 1.966854e+00 -1.192559e+00 3.029384e+00 3.639427e+00 3.593719e+00 2.890306e+00 1.512179e+00 8.530166e-01 2.798760e-01 6.203355e-01 2.386082e+00 -1.142055e-01 2.906390e-02 -1.713242e-02 2.915228e-02 4.750590e-02 5.793582e-02 2.815978e-02 1.027181e-02 1.420751e-02 1.852492e-02 4.073741e-02 3.156215e-02 -1.324619e-01
<VARIANCE> 25
 3.460509e+01 2.371351e+01 2.264207e+01 2.688681e+01 3.075469e+01 2.715916e+01 2.501388e+01 2.973024e+01 3.064609e+01 3.337045e+01 2.691402e+01 2.134120e+01 2.736627e-01 4.912624e-01 6.624328e-01 8.581454e-01 1.180544e+00 1.264198e+00 1.370415e+00 1.528089e+00 1.556384e+00 1.554320e+00 1.443768e+00 1.311604e+00 2.100674e-01
<GCONST> 8.422091e+01
<STATE> 3
<MEAN> 25
 -7.550591e+00 2.547036e+00 -1.871775e+00 3.881789e+00 4.207370e+00 4.606490e+00 3.319160e+00 1.745197e+00 1.422660e+00 3.345432e-01 1.115416e+00 2.931183e+00 -2.787080e-02 -3.084837e-03 2.091383e-02 -4.816245e-02 -2.298585e-02 -6.619713e-02 -4.961322e-02 -4.342688e-02 -1.599507e-02 8.044299e-04 -1.990441e-02 -3.623430e-02 2.260043e-02
<VARIANCE> 25
 3.925967e+01 2.678102e+01 2.708154e+01 3.579457e+01 3.404390e+01 3.098482e+01 2.803634e+01 3.269309e+01 3.516165e+01 3.345527e+01 3.018769e+01 2.219591e+01 6.317034e-01 8.758532e-01 1.008465e+00 1.304599e+00 1.750490e+00 1.685463e+00 1.704188e+00 1.838279e+00 1.833847e+00 1.848971e+00 1.683045e+00 1.474609e+00 7.166138e-01
<GCONST> 9.084391e+01
<STATE> 4
<MEAN> 25
 -3.963206e+00 1.438390e+00 -6.343022e-01 6.943861e-01 1.844211e+00 1.871886e+00 1.570790e+00 8.903817e-01 4.042309e-01 5.739560e-01 1.316648e-01 1.115485e+00 5.276361e-02 5.148942e-03 3.195971e-02 -2.103864e-02 5.890042e-03 -4.888762e-02 -2.277075e-02 -2.917743e-02 -3.280113e-02 -6.917585e-03 -2.286037e-02 -3.085284e-02 8.921307e-02
<VARIANCE> 25
 6.191575e+01 4.057076e+01 4.289727e+01 5.649862e+01 5.382851e+01 4.822273e+01 3.685015e+01 4.117190e+01 4.364840e+01 3.962674e+01 3.353206e+01 3.032545e+01 1.207696e+00 1.369996e+00 1.589645e+00 1.897173e+00 2.385896e+00 2.259931e+00 2.034162e+00 2.424748e+00 2.411625e+00 2.146817e+00 1.997927e+00 1.716572e+00 1.441530e+00
<GCONST> 9.926574e+01
<TRANSP> 5
 0.000000e+00 1.000000e+00 0.000000e+00 0.000000e+00 0.000000e+00
 0.000000e+00 9.482012e-01 5.179876e-02 0.000000e+00 0.000000e+00
 0.000000e+00 0.000000e+00 6.219259e-01 3.780741e-01 0.000000e+00
 0.000000e+00 0.000000e+00 0.000000e+00 8.938721e-01 1.061279e-01
 0.000000e+00 0.000000e+00 0.000000e+00 0.000000e+00 0.000000e+00
<ENDHMM>
