~o
<STREAMINFO> 1 25
<VECSIZE> 25<NULLD><MFCC_D_N_Z_0><DIAGC>
~h "a"
<BEGINHMM>
<NUMSTATES> 5
<STATE> 2
<MEAN> 25
 3.588773e+00 -3.903574e+00 -2.632589e+00 -1.187152e+00 1.639442e-01 -1.082373e+00 -2.485334e-01 3.098406e+00 2.141398e+00 7.790859e-01 -2.158910e+00 -2.798197e+00 1.125313e-01 -1.857372e-01 -2.013165e-01 1.100497e-01 2.172213e-01 8.092233e-02 7.163404e-02 1.948742e-01 1.379211e-01 -1.453001e-01 -3.082308e-01 -1.661740e-01 3.684032e-02
<VARIANCE> 25
 2.575348e+01 4.903895e+01 4.548260e+01 4.308627e+01 5.106796e+01 5.759392e+01 4.249208e+01 5.382715e+01 5.540963e+01 4.277888e+01 4.489932e+01 4.021909e+01 1.221099e+00 2.715838e+00 2.404112e+00 2.554338e+00 3.230716e+00 3.166713e+00 2.846096e+00 3.900506e+00 3.362667e+00 3.037947e+00 3.038526e+00 2.820165e+00 1.604350e+00
<GCONST> 1.043510e+02
<STATE> 3
<MEAN> 25
 3.584095e+00 -3.849014e+00 -2.801287e+00 -9.031956e-01 5.326369e-01 -8.331695e-01 -9.579619e-02 3.104456e+00 2.184201e+00 4.710194e-01 -2.503560e+00 -2.771474e+00 -7.926806e-02 1.804608e-01 2.125037e-02 1.663216e-01 1.348802e-01 1.341351e-01 8.952154e-02 -1.273455e-01 -2.882472e-02 -1.509424e-01 -9.109359e-02 1.203723e-01 -2.209609e-01
<VARIANCE> 25
 2.366009e+01 4.958587e+01 4.213041e+01 4.126312e+01 4.743364e+01 5.568970e+01 4.017550e+01 5.234548e+01 5.253682e+01 4.131816e+01 4.345868e+01 3.964647e+01 9.603153e-01 2.418097e+00 2.126348e+00 2.334028e+00 2.987181e+00 2.934539e+00 2.682827e+00 3.581703e+00 3.111308e+00 2.797244e+00 2.815978e+00 2.615849e+00 1.179452e+00
<GCONST> 1.023437e+02
<STATE> 4
<MEAN> 25
 2.774998e+00 -3.165716e+00 -2.739045e+00 -4.943496e-01 1.077641e+00 3.412791e-02 3.795638e-01 2.715007e+00 2.115766e+00 -1.693345e-01 -2.864755e+00 -2.378961e+00 -2.101777e-01 3.820424e-01 2.137220e-01 1.733327e-01 1.940775e-02 9.047174e-02 7.963648e-02 -3.168169e-01 -1.672063e-01 -8.707254e-02 1.681753e-01 3.090755e-01 -3.232516e-01
<VARIANCE> 25
 2.604190e+01 4.700994e+01 3.750748e+01 3.945398e+01 4.378838e+01 5.492508e+01 3.760091e+01 5.075581e+01 4.966010e+01 4.006776e+01 4.244339e+01 3.788588e+01 7.183059e-01 1.765780e+00 1.667328e+00 1.867552e+00 2.488454e+00 2.459922e+00 2.338302e+00 2.929029e+00 2.648634e+00 2.434635e+00 2.452148e+00 2.222355e+00 7.281973e-01
<GCONST> 9.902625e+01
<TRANSP> 5
 0.000000e+00 1.000000e+00 0.000000e+00 0.000000e+00 0.000000e+00
 0.000000e+00 4.724877e-01 5.275124e-01 0.000000e+00 0.000000e+00
 0.000000e+00 0.000000e+00 4.685941e-01 5.314059e-01 0.000000e+00
 0.000000e+00 0.000000e+00 0.000000e+00 6.262971e-01 3.737030e-01
 0.000000e+00 0.000000e+00 0.000000e+00 0.000000e+00 0.000000e+00
<ENDHMM>
~h "b"
<BEGINHMM>
<NUMSTATES> 5
<STATE> 2
<MEAN> 25
 2.514482e+00 2.926234e+00 2.948301e-01 -1.489696e-02 3.540547e-01 5.051792e-01 -2.060118e+00 -2.800894e+00 -9.271193e-01 1.706052e-01 4.824373e-01 -4.123180e-01 1.507435e-01 3.057515e-02 -2.042674e-02 -4.909135e-02 -1.173229e-01 -2.692874e-01 -3.330214e-01 -8.858384e-02 2.181932e-01 1.509278e-01 1.142330e-01 -5.214659e-02 1.310737e-01
<VARIANCE> 25
 2.862837e+01 3.086728e+01 2.843392e+01 3.022218e+01 3.394057e+01 4.128975e+01 3.555587e+01 3.952185e+01 4.110954e+01 4.296662e+01 3.511002e+01 2.860906e+01 1.447693e+00 3.540186e+00 2.594765e+00 2.735407e+00 2.937788e+00 3.829534e+00 3.257560e+00 3.875968e+00 4.137143e+00 4.088931e+00 3.471307e+00 2.564286e+00 1.941551e+00
<GCONST> 1.025973e+02
<STATE> 3
<MEAN> 25
 2.988220e+00 2.466712e+00 1.051826e-01 -2.643411e-01 2.042329e-02 -3.150480e-01 -2.854896e+00 -2.606284e+00 -2.791989e-01 7.045077e-01 5.973088e-01 -7.046342e-01 1.813783e-01 -3.525665e-01 -2.587368e-02 -9.033757e-02 -2.296702e-01 -3.992604e-01 -2.440794e-01 3.103652e-01 3.051778e-01 2.127423e-01 -3.493286e-02 -1.839875e-01 3.631189e-01
<VARIANCE> 25
 2.431357e+01 3.395397e+01 2.831896e+01 3.136210e+01 3.492823e+01 4.321540e+01 3.848761e+01 3.972334e+01 4.459868e+01 4.878538e+01 3.713255e+01 2.987985e+01 1.492069e+00 4.029726e+00 2.789722e+00 3.082361e+00 3.122543e+00 4.198506e+00 3.441726e+00 4.383542e+00 4.547103e+00 4.615600e+00 3.849837e+00 2.945379e+00 2.097272e+00
<GCONST> 1.042462e+02
<STATE> 4
<MEAN> 25
 2.990383e+00 2.063492e+00 3.226884e-01 -3.715975e-01 -6.297576e-01 -1.362299e+00 -2.902471e+00 -1.672509e+00 2.310287e-01 8.888842e-01 1.625224e-01 -1.030134e+00 2.692796e-02 -4.101325e-01 7.030148e-02 2.541295e-02 -2.337406e-01 -2.297955e-01 5.727965e-02 4.076177e-01 1.174396e-01 1.709375e-02 -8.078504e-02 -8.732720e-02 2.778960e-01
<VARIANCE> 25
 2.181271e+01 3.538445e+01 2.816994e+01 3.250660e+01 3.780373e+01 4.826372e+01 3.685957e+01 4.182961e+01 4.831326e+01 5.054695e+01 3.888258e+01 3.301605e+01 9.910243e-01 2.831223e+00 2.398895e+00 2.554968e+00 2.953546e+00 3.515726e+00 2.784480e+00 3.782635e+00 3.855779e+00 3.736009e+00 3.400765e+00 2.648771e+00 1.212775e+00
<GCONST> 1.018214e+02
<TRANSP> 5
 0.000000e+00 1.000000e+00 0.000000e+00 0.000000e+00 0.000000e+00
 0.000000e+00 4.486704e-01 5.513296e-01 0.000000e+00 0.000000e+00
 0.000000e+00 0.000000e+00 4.588816e-01 5.411184e-01 0.000000e+00
 0.000000e+00 0.000000e+00 0.000000e+00 5.784525e-01 4.215475e-01
 0.000000e+00 0.000000e+00 0.000000e+00 0.000000e+00 0.000000e+00
<ENDHMM>
~h "c"
<BEGINHMM>
<NUMSTATES> 5
<STATE> 2
<MEAN> 25
 -5.480165e+00 3.425052e+00 1.765973e+00 1.399948e+00 1.706864e+00 -5.516449e-01 1.573638e+00 -1.468155e-01 -9.377908e-01 -1.947027e+00 1.174206e+00 1.606708e+00 -1.122849e+00 2.509238e-01 2.222214e-02 -1.767221e-01 -9.672020e-02 -5.885576e-01 -3.028442e-02 6.638982e-02 1.380969e-01 2.215439e-03 3.959903e-01 -8.553751e-03 7.400463e-01
<VARIANCE> 25
 7.806287e+01 5.149905e+01 4.094577e+01 3.139946e+01 5.399780e+01 6.291302e+01 4.040299e+01 4.529414e+01 4.185443e+01 3.506349e+01 3.629814e+01 2.583694e+01 8.364891e+00 5.581861e+00 4.102589e+00 3.538725e+00 6.306691e+00 7.473342e+00 3.865944e+00 5.476357e+00 3.904232e+00 4.160405e+00 3.981539e+00 2.738981e+00 3.928837e+00
<GCONST> 1.111526e+02
<STATE> 3
<MEAN> 25
 -8.316319e+00 3.886719e+00 1.944692e+00 9.506789e-01 7.804314e-01 -3.870968e+00 1.501757e+00 1.218300e+00 -4.037609e-01 -2.723231e+00 2.473233e+00 1.102999e+00 9.317637e-01 -5.422081e-01 2.563496e-01 -5.980413e-02 -8.793816e-01 -1.106945e+00 -3.717897e-01 2.188826e-01 9.429789e-02 2.747672e-01 1.803373e-01 -1.195062e-01 6.633173e-01
<VARIANCE> 25
 1.246317e+02 7.570016e+01 6.174242e+01 4.634625e+01 7.520729e+01 7.813244e+01 6.216736e+01 6.645868e+01 4.843863e+01 5.938749e+01 4.529438e+01 3.212163e+01 1.585810e+01 6.791766e+00 5.681155e+00 4.681984e+00 8.028789e+00 7.916640e+00 5.616815e+00 6.967907e+00 4.432845e+00 6.109078e+00 4.695601e+00 3.248340e+00 3.399126e+00
<GCONST> 1.183368e+02
<STATE> 4
<MEAN> 25
 1.645241e+00 -5.513723e-01 5.500765e+00 3.213482e+00 -8.515509e+00 -1.005518e+01 1.287116e+00 2.899761e-01 -2.115791e+00 -3.580902e-01 2.992583e+00 9.254246e-01 5.384914e-01 -1.973698e-01 -2.813236e-01 -8.257883e-02 -7.927368e-02 3.457103e-02 -8.899923e-02 5.999915e-02 1.853127e-01 1.271724e-01 -2.364649e-01 -1.894010e-01 6.111494e-02
<VARIANCE> 25
 4.295050e+01 4.885236e+01 8.431161e+01 5.652298e+01 1.634721e+02 1.151462e+02 8.181089e+01 8.231200e+01 1.254275e+02 6.418566e+01 9.922926e+01 5.594642e+01 2.686711e+00 2.417341e+00 2.954274e+00 2.262740e+00 6.322635e+00 5.323434e+00 3.589225e+00 4.671372e+00 4.278357e+00 3.722530e+00 4.160169e+00 3.026899e+00 1.330330e+00
<GCONST> 1.140310e+02
<TRANSP> 5
 0.000000e+00 1.000000e+00 0.000000e+00 0.000000e+00 0.000000e+00
 0.000000e+00 6.630688e-01 3.369311e-01 0.000000e+00 0.000000e+00
 0.000000e+00 0.000000e+00 7.536603e-01 2.463398e-01 0.000000e+00
 0.000000e+00 0.000000e+00 0.000000e+00 8.691282e-01 1.308718e-01
 0.000000e+00 0.000000e+00 0.000000e+00 0.000000e+00 0.000000e+00
<ENDHMM>
~h "d"
<BEGINHMM>
<NUMSTATES> 5
<STATE> 2
<MEAN> 25
 2.037006e+00 1.378956e+00 4.278040e+00 9.268670e-01 -2.613112e+00 -1.596107e+00 -1.598034e+00 -9.667805e-01 -8.499382e-01 -5.451444e-01 -2.851402e-01 5.556144e-01 1.404852e-01 -5.105694e-01 5.764691e-01 -9.779610e-02 -7.638023e-01 -5.239774e-01 -2.323593e-01 1.464538e-01 -1.293837e-01 1.532290e-01 3.937605e-01 1.576930e-01 6.598642e-01
<VARIANCE> 25
 2.936251e+01 5.377724e+01 6.849786e+01 5.214964e+01 5.979876e+01 6.413080e+01 5.093723e+01 5.982682e+01 6.053375e+01 5.052898e+01 4.649992e+01 3.194026e+01 2.485290e+00 6.086265e+00 6.005301e+00 5.483172e+00 6.425315e+00 5.827636e+00 5.058543e+00 5.932720e+00 6.173208e+00 5.355756e+00 5.167602e+00 3.231436e+00 4.421113e+00
<GCONST> 1.141307e+02
<STATE> 3
<MEAN> 25
 2.479254e+00 -2.826100e-01 5.667166e+00 2.535540e-01 -4.615759e+00 -2.893548e+00 -2.249895e+00 -1.713238e-01 -1.401258e+00 1.119275e-01 5.218214e-01 6.172357e-01 1.657116e-01 -5.398907e-01 2.727178e-01 -3.442122e-01 -5.479431e-01 -3.637445e-01 -3.507278e-01 2.803746e-01 -6.817092e-02 3.449250e-01 2.332285e-01 -6.472725e-02 5.886335e-01
<VARIANCE> 25
 2.244103e+01 5.698949e+01 7.793230e+01 6.029802e+01 6.434794e+01 7.087578e+01 6.049975e+01 6.639922e+01 7.048830e+01 5.515759e+01 5.006826e+01 3.496346e+01 1.953495e+00 5.948654e+00 6.302228e+00 5.745071e+00 6.751664e+00 6.007659e+00 5.746375e+00 6.071002e+00 6.070416e+00 5.728262e+00 5.359806e+00 3.311488e+00 3.841499e+00
<GCONST> 1.150807e+02
<STATE> 4
<MEAN> 25
 2.849904e+00 -8.285753e-01 5.583935e+00 1.522584e-01 -5.185113e+00 -4.438699e+00 -3.019274e+00 1.091639e-01 -1.610278e+00 6.343967e-01 1.181204e+00 5.505921e-01 1.239920e-01 -5.295181e-02 -2.403193e-01 -1.864010e-01 4.640409e-02 6.823707e-02 -2.108099e-02 7.690480e-02 8.939720e-02 1.904055e-01 -8.834481e-02 -2.067282e-01 6.322499e-02
<VARIANCE> 25
 2.157566e+01 5.201448e+01 8.547597e+01 7.968961e+01 7.075467e+01 9.125839e+01 6.454292e+01 8.282059e+01 8.562918e+01 6.162304e+01 5.588178e+01 4.406523e+01 1.093054e+00 3.569663e+00 3.918871e+00 4.415232e+00 5.551084e+00 5.245427e+00 4.473747e+00 4.818000e+00 4.781411e+00 4.572989e+00 3.962879e+00 3.163163e+00 1.998103e+00
<GCONST> 1.124932e+02
<TRANSP> 5
 0.000000e+00 1.000000e+00 0.000000e+00 0.000000e+00 0.000000e+00
 0.000000e+00 6.017615e-01 3.982385e-01 0.000000e+00 0.000000e+00
 0.000000e+00 0.000000e+00 6.118576e-01 3.881424e-01 0.000000e+00
 0.000000e+00 0.000000e+00 0.000000e+00 6.821078e-01 3.178923e-01
 0.000000e+00 0.000000e+00 0.000000e+00 0.000000e+00 0.000000e+00
<ENDHMM>
~h "e"
<BEGINHMM>
<NUMSTATES> 5
<STATE> 2
<MEAN> 25
 2.617245e+00 -3.035764e+00 1.887384e+00 3.456722e-01 -5.045783e+00 -5.098154e+00 1.754143e+00 3.467434e+00 -4.115448e-01 8.304141e-01 1.345634e+00 -3.329372e-01 1.355815e-01 -7.345783e-02 2.577503e-01 7.568683e-02 -4.884819e-01 -1.878177e-01 3.828579e-01 1.644660e-01 -2.124522e-01 1.566746e-02 5.084814e-02 -3.963106e-02 6.705330e-02
<VARIANCE> 25
 2.139294e+01 4.190640e+01 4.644024e+01 3.375385e+01 6.252774e+01 6.426077e+01 4.225337e+01 5.162342e+01 4.521849e+01 3.779870e+01 3.588720e+01 2.546208e+01 1.336101e+00 2.352762e+00 2.669461e+00 2.142861e+00 4.681597e+00 3.831503e+00 3.030148e+00 3.609409e+00 3.320398e+00 3.020213e+00 2.614151e+00 2.135629e+00 1.428377e+00
<GCONST> 1.029003e+02
<STATE> 3
<MEAN> 25
 2.571923e+00 -2.798960e+00 2.255931e+00 4.774522e-01 -5.432982e+00 -4.809748e+00 2.316823e+00 3.258731e+00 -6.973696e-01 8.209829e-01 1.287016e+00 -4.265017e-01 -7.952923e-02 2.129018e-01 2.101906e-02 1.160858e-01 1.145776e-01 1.844754e-01 1.175512e-01 -1.577238e-01 -6.610695e-02 -6.156052e-02 -8.094475e-02 1.776076e-03 -2.160803e-01
<VARIANCE> 25
 1.940838e+01 4.101897e+01 4.574744e+01 3.351136e+01 6.383197e+01 5.966142e+01 4.112236e+01 4.950218e+01 4.234108e+01 3.567773e+01 3.485443e+01 2.457538e+01 9.468420e-01 2.028052e+00 2.276103e+00 2.017213e+00 3.823124e+00 3.081311e+00 2.722523e+00 2.988262e+00 2.918013e+00 2.810576e+00 2.356182e+00 1.965372e+00 1.155628e+00
<GCONST> 1.004193e+02
<STATE> 4
<MEAN> 25
 1.054194e+00 -1.677385e+00 1.837903e+00 1.045578e+00 -3.490844e+00 -3.321836e+00 2.214230e+00 2.517609e+00 -8.867922e-01 1.159717e-01 8.022311e-01 -3.120505e-01 -1.675391e-01 2.665413e-01 -1.618369e-01 1.166138e-01 4.700543e-01 2.639654e-01 -1.552584e-01 -2.599284e-01 4.732994e-02 -1.097570e-01 -1.251021e-01 5.723766e-02 -2.674434e-01
<VARIANCE> 25
 2.258195e+01 3.480596e+01 3.960508e+01 3.152092e+01 6.235026e+01 5.607592e+01 3.610864e+01 4.385907e+01 3.840842e+01 3.327974e+01 3.059749e+01 2.363058e+01 6.602432e-01 1.418606e+00 1.586680e+00 1.589571e+00 2.622375e+00 2.274010e+00 2.304435e+00 2.399627e+00 2.380158e+00 2.316125e+00 2.003087e+00 1.652255e+00 6.021762e-01
<GCONST> 9.575928e+01
<TRANSP> 5
 0.000000e+00 1.000000e+00 0.000000e+00 0.000000e+00 0.000000e+00
 0.000000e+00 5.134549e-01 4.865451e-01 0.000000e+00 0.000000e+00
 0.000000e+00 0.000000e+00 5.178643e-01 4.821357e-01 0.000000e+00
 0.000000e+00 0.000000e+00 0.000000e+00 7.187412e-01 2.812588e-01
 0.000000e+00 0.000000e+00 0.000000e+00 0.000000e+00 0.000000e+00
<ENDHMM>
~h "f"
<BEGINHMM>
<NUMSTATES> 5
<STATE> 2
<MEAN> 25
 -7.413025e-01 5.262981e-02 1.652782e+00 1.732929e+00 7.769908e-01 5.860729e-01 7.834910e-01 7.284231e-01 2.069633e-01 9.797180e-01 1.152875e+00 4.940792e-01 -2.084059e-01 -9.535816e-02 9.354132e-02 -6.219437e-04 3.118336e-01 9.250183e-02 -4.941984e-02 -1.325346e-01 -1.919296e-01 -2.363250e-01 7.518442e-02 1.350371e-01 3.517194e-01
<VARIANCE> 25
 4.940764e+01 2.640790e+01 4.564096e+01 5.206308e+01 3.764516e+01 5.007259e+01 3.457844e+01 5.713837e+01 4.013224e+01 7.127995e+01 3.495882e+01 2.452076e+01 4.600406e+00 1.685017e+00 4.315535e+00 6.185205e+00 4.054421e+00 3.969239e+00 3.351263e+00 4.148856e+00 3.484273e+00 4.954759e+00 2.658067e+00 2.046944e+00 7.875121e+00
<GCONST> 1.080859e+02
<STATE> 3
<MEAN> 25
 -1.391859e+00 -2.695123e-01 9.546490e-01 2.613979e+00 1.356209e+00 4.985420e-01 3.613302e-01 9.199191e-01 -2.798622e-01 -6.323819e-01 1.385967e+00 6.304051e-01 -3.288937e-01 -1.175084e-02 -3.426578e-01 -8.558080e-02 4.533209e-02 5.270832e-02 -1.618445e-01 -8.205259e-02 -4.077416e-02 -2.207743e-01 6.997892e-03 1.261389e-01 -1.414281e-01
<VARIANCE> 25
 3.702670e+01 2.436211e+01 3.644611e+01 4.466653e+01 3.414582e+01 4.264711e+01 3.456605e+01 5.741812e+01 3.536715e+01 6.436533e+01 3.197572e+01 2.435480e+01 2.658830e+00 1.384942e+00 2.381257e+00 3.972486e+00 3.411922e+00 2.462689e+00 2.844496e+00 3.157218e+00 2.623146e+00 3.571774e+00 2.209375e+00 2.093984e+00 6.685919e-01
<GCONST> 1.006524e+02
<STATE> 4
<MEAN> 25
 -4.104715e+00 -1.024633e+00 6.304094e-01 2.902021e+00 1.940869e+00 5.498380e-01 4.608081e-01 4.098756e-01 -1.714013e+00 -1.721213e+00 1.941269e+00 2.445788e+00 1.589641e-01 2.365777e-02 -2.036207e-01 -3.726907e-01 -2.019969e-01 -9.605750e-02 -8.400238e-02 -8.515438e-02 6.549975e-02 7.738592e-02 4.811202e-02 7.575343e-02 3.066159e-02
<VARIANCE> 25
 3.853625e+01 2.423207e+01 2.836579e+01 3.867846e+01 2.665887e+01 3.393529e+01 3.196520e+01 4.313552e+01 3.986721e+01 5.653902e+01 3.048534e+01 2.930026e+01 1.780267e+00 1.322049e+00 1.598235e+00 2.580775e+00 2.482468e+00 1.900946e+00 2.272515e+00 2.432108e+00 2.682993e+00 3.019067e+00 1.977605e+00 1.783244e+00 4.091902e-01
<GCONST> 9.633137e+01
<TRANSP> 5
 0.000000e+00 1.000000e+00 0.000000e+00 0.000000e+00 0.000000e+00
 0.000000e+00 4.743387e-01 5.256612e-01 0.000000e+00 0.000000e+00
 0.000000e+00 0.000000e+00 4.559217e-01 5.440783e-01 0.000000e+00
 0.000000e+00 0.000000e+00 0.000000e+00 6.947476e-01 3.052524e-01
 0.000000e+00 0.000000e+00 0.000000e+00 0.000000e+00 0.000000e+00
<ENDHMM>
~h "g"
<BEGINHMM>
<NUMSTATES> 5
<STATE> 2
<MEAN> 25
 2.414190e+00 3.037104e+00 1.400218e+00 -1.933480e-01 -2.380895e-01 -7.439877e-01 -2.317589e+00 -1.921976e+00 -1.454996e+00 2.238667e-01 -2.101535e-01 -2.753429e-01 7.608368e-02 3.302789e-01 1.652533e-01 -2.795952e-02 9.563032e-02 -9.649133e-03 -2.008103e-01 -1.784046e-01 -1.849330e-01 -1.216692e-01 3.543763e-02 6.919137e-02 -3.734025e-02
<VARIANCE> 25
 2.867829e+01 3.413278e+01 3.518781e+01 4.117836e+01 4.132567e+01 4.969868e+01 4.658483e+01 5.050763e+01 4.916660e+01 4.237460e+01 3.291492e+01 3.055414e+01 1.123899e+00 2.147152e+00 2.388215e+00 2.416580e+00 3.031341e+00 3.131062e+00 3.195475e+00 3.581757e+00 3.469810e+00 3.190370e+00 2.665981e+00 2.117703e+00 1.523113e+00
<GCONST> 1.019357e+02
<STATE> 3
<MEAN> 25
 2.516895e+00 3.495468e+00 1.676322e+00 -3.278113e-01 -8.395794e-02 -7.945724e-01 -2.789490e+00 -2.161263e+00 -1.913629e+00 -2.232680e-02 -1.169664e-01 -2.101455e-01 4.735132e-02 6.710409e-02 6.574313e-02 -8.519783e-02 6.724433e-02 -3.965613e-02 -1.425225e-01 -6.116960e-03 -9.316497e-02 -3.739230e-02 3.936358e-02 -2.628996e-02 6.748293e-02
<VARIANCE> 25
 2.569087e+01 3.399625e+01 3.651990e+01 3.994103e+01 4.109385e+01 4.900355e+01 4.642739e+01 5.366262e+01 4.706593e+01 4.248536e+01 3.345018e+01 2.989532e+01 1.082753e+00 1.974908e+00 2.341442e+00 2.385769e+00 3.067054e+00 3.044586e+00 3.157453e+00 3.636864e+00 3.348845e+00 3.131123e+00 2.645629e+00 2.091980e+00 1.411701e+00
<GCONST> 1.015025e+02
<STATE> 4
<MEAN> 25
 1.785259e+00 3.860364e+00 2.370487e+00 -1.071030e-01 1.401958e-01 -9.554761e-01 -3.344591e+00 -2.624908e+00 -2.622095e+00 -5.285528e-01 3.068043e-01 2.648724e-01 -1.192024e-02 -1.510804e-01 -4.527289e-02 -9.153515e-02 -3.144139e-03 -4.629819e-02 -3.049920e-02 1.381504e-01 3.369575e-02 7.011215e-02 4.827590e-02 -5.882786e-02 9.871377e-02
<VARIANCE> 25
 2.592662e+01 3.007079e+01 3.465260e+01 3.876168e+01 4.115733e+01 4.606223e+01 4.230301e+01 5.443068e+01 4.356662e+01 4.018868e+01 3.245963e+01 2.989792e+01 7.674240e-01 1.423683e+00 1.785739e+00 1.947106e+00 2.641916e+00 2.544564e+00 2.611060e+00 2.943813e+00 2.699079e+00 2.585550e+00 2.378022e+00 1.920329e+00 8.403904e-01
<GCONST> 9.801076e+01
<TRANSP> 5
 0.000000e+00 1.000000e+00 0.000000e+00 0.000000e+00 0.000000e+00
 0.000000e+00 4.913080e-01 5.086920e-01 0.000000e+00 0.000000e+00
 0.000000e+00 0.000000e+00 5.029631e-01 4.970369e-01 0.000000e+00
 0.000000e+00 0.000000e+00 0.000000e+00 7.094793e-01 2.905208e-01
 0.000000e+00 0.000000e+00 0.000000e+00 0.000000e+00 0.000000e+00
<ENDHMM>
~h "h"
<BEGINHMM>
<NUMSTATES> 5
<STATE> 2
<MEAN> 25
 2.534431e-01 -1.798691e+00 -2.028902e-01 5.658106e-01 1.217371e+00 1.554129e+00 1.717661e+00 9.293935e-01 4.807403e-01 3.165130e-01 -1.624041e-01 8.319861e-02 5.153789e-02 -1.686101e-01 1.680245e-02 1.566708e-01 3.555302e-01 9.449037e-02 1.686178e-01 5.819542e-02 -1.912662e-01 -1.788898e-01 4.544528e-02 3.605210e-02 1.728160e-01
<VARIANCE> 25
 3.745692e+01 4.781446e+01 5.958142e+01 4.389835e+01 5.740389e+01 6.042814e+01 4.938301e+01 5.418348e+01 4.200830e+01 3.644037e+01 3.626759e+01 3.042307e+01 2.120728e+00 1.973632e+00 2.592739e+00 2.688224e+00 2.763828e+00 2.899893e+00 2.945026e+00 2.845261e+00 3.070229e+00 2.590946e+00 2.462053e+00 2.098393e+00 3.717179e+00
<GCONST> 1.042991e+02
<STATE> 3
<MEAN> 25
 4.878204e-01 -2.215050e+00 -1.968325e-01 5.307651e-01 1.675296e+00 1.544454e+00 1.948208e+00 1.129069e+00 -6.536385e-03 -3.275735e-02 -1.545306e-01 -8.099546e-02 -1.271759e-01 -2.100989e-02 -1.029574e-01 6.202697e-02 1.555000e-01 2.903897e-02 2.627925e-02 2.746861e-02 -6.463020e-02 -1.482520e-01 -1.201159e-02 2.315680e-02 -1.614888e-01
<VARIANCE> 25
 2.897260e+01 4.584761e+01 5.648935e+01 4.158599e+01 5.446326e+01 5.944463e+01 5.029988e+01 5.542334e+01 3.849707e+01 3.649462e+01 3.654907e+01 3.000417e+01 9.607763e-01 1.616978e+00 1.932045e+00 2.347442e+00 2.515876e+00 2.578888e+00 2.730428e+00 2.650096e+00 2.710278e+00 2.410867e+00 2.311252e+00 2.049827e+00 1.018103e+00
<GCONST> 1.004157e+02
<STATE> 4
<MEAN> 25
 -2.004381e+00 -2.046254e+00 -7.701844e-03 1.238116e+00 2.761379e+00 2.216755e+00 2.074267e+00 1.385266e+00 -9.145425e-01 -8.606637e-01 -1.040771e-01 -2.896752e-02 -9.111312e-02 7.812235e-02 -3.982418e-02 1.054790e-02 -1.002145e-02 -4.887999e-02 -7.899626e-02 -7.320938e-02 -2.794876e-02 -7.051775e-02 1.983173e-02 3.227748e-02 -1.259471e-01
<VARIANCE> 25
 3.483253e+01 3.572356e+01 4.557658e+01 3.867152e+01 4.258046e+01 4.578278e+01 4.501734e+01 5.079247e+01 3.608921e+01 3.098635e+01 3.353514e+01 2.978170e+01 5.350892e-01 1.029188e+00 1.224460e+00 1.500227e+00 1.824034e+00 1.934491e+00 2.025915e+00 2.191394e+00 2.076210e+00 2.099538e+00 1.968546e+00 1.729297e+00 4.042769e-01
<GCONST> 9.433854e+01
<TRANSP> 5
 0.000000e+00 1.000000e+00 0.000000e+00 0.000000e+00 0.000000e+00
 0.000000e+00 4.638416e-01 5.361584e-01 0.000000e+00 0.000000e+00
 0.000000e+00 0.000000e+00 4.581462e-01 5.418537e-01 0.000000e+00
 0.000000e+00 0.000000e+00 0.000000e+00 7.630795e-01 2.369206e-01
 0.000000e+00 0.000000e+00 0.000000e+00 0.000000e+00 0.000000e+00
<ENDHMM>
~h "i"
<BEGINHMM>
<NUMSTATES> 5
<STATE> 2
<MEAN> 25
 1.134361e+00 1.779861e+00 7.844784e+00 -3.465199e-01 -5.863444e+00 -2.791314e+00 -1.236099e+00 -2.616979e+00 -3.861740e+00 8.157413e-01 1.357925e+00 5.906658e-01 1.872706e-01 6.349695e-02 9.898356e-01 -3.465864e-01 -8.737071e-01 -1.074492e-01 -1.387106e-01 -3.222511e-01 -5.721691e-01 3.267664e-01 1.571229e-01 3.942647e-03 3.317805e-01
<VARIANCE> 25
 2.283892e+01 3.696969e+01 7.037332e+01 6.890360e+01 6.845971e+01 7.285419e+01 4.830595e+01 5.520989e+01 5.881871e+01 4.937057e+01 4.454933e+01 3.283404e+01 1.666655e+00 2.310042e+00 5.081154e+00 4.525242e+00 5.880733e+00 5.228988e+00 4.029939e+00 4.208130e+00 4.653246e+00 4.183084e+00 3.546516e+00 2.587051e+00 1.799678e+00
<GCONST> 1.093500e+02
<STATE> 3
<MEAN> 25
 1.498329e+00 1.907992e+00 9.126164e+00 -9.888800e-01 -7.040454e+00 -2.687088e+00 -1.370828e+00 -3.077852e+00 -4.449389e+00 1.419757e+00 1.456869e+00 5.693769e-01 8.838954e-02 8.060762e-02 9.891147e-03 -4.920816e-02 -7.151054e-02 5.855154e-02 5.232655e-02 -2.160654e-02 9.865408e-03 6.912339e-02 -3.962337e-02 1.524120e-02 -4.736441e-02
<VARIANCE> 25
 1.756399e+01 3.513790e+01 6.999985e+01 7.362795e+01 6.829529e+01 7.626849e+01 4.968540e+01 5.513841e+01 5.793917e+01 5.127121e+01 4.503616e+01 3.360300e+01 1.109672e+00 2.090213e+00 4.450168e+00 4.013521e+00 5.223352e+00 4.522943e+00 3.607280e+00 3.992982e+00 4.219066e+00 3.814518e+00 3.034954e+00 2.366493e+00 1.224821e+00
<GCONST> 1.072184e+02
<STATE> 4
<MEAN> 25
 1.380950e+00 2.212335e+00 8.856150e+00 2.733746e-01 -6.698278e+00 -3.361777e+00 -1.078745e+00 -3.050519e+00 -4.374271e+00 6.723831e-01 1.791381e+00 1.035439e+00 -5.245007e-02 9.215456e-03 -6.102334e-01 1.200106e-01 5.451575e-01 1.578203e-01 1.726571e-01 2.266008e-01 3.349831e-01 -1.210703e-01 -1.818888e-01 2.607394e-02 -2.144120e-01
<VARIANCE> 25
 1.992667e+01 3.441678e+01 6.662057e+01 7.460938e+01 7.891578e+01 7.995399e+01 5.128454e+01 5.926560e+01 5.754584e+01 4.800148e+01 4.959573e+01 3.623894e+01 7.388304e-01 1.467546e+00 2.444557e+00 2.461099e+00 3.561946e+00 3.235070e+00 2.806305e+00 3.177066e+00 3.035569e+00 2.752152e+00 2.529479e+00 2.020425e+00 6.733357e-01
<GCONST> 1.030421e+02
<TRANSP> 5
 0.000000e+00 1.000000e+00 0.000000e+00 0.000000e+00 0.000000e+00
 0.000000e+00 5.676858e-01 4.323142e-01 0.000000e+00 0.000000e+00
 0.000000e+00 0.000000e+00 5.616388e-01 4.383612e-01 0.000000e+00
 0.000000e+00 0.000000e+00 0.000000e+00 7.662337e-01 2.337663e-01
 0.000000e+00 0.000000e+00 0.000000e+00 0.000000e+00 0.000000e+00
<ENDHMM>
~h "j"
<BEGINHMM>
<NUMSTATES> 5
<STATE> 2
<MEAN> 25
 -1.473830e+00 3.807419e+00 4.455772e+00 7.278850e-01 -2.604330e+00 -3.652913e+00 1.120270e+00 -3.477273e-01 -2.092665e+00 -1.526696e+00 1.538577e+00 8.494657e-01 -2.535974e-01 1.804504e-01 5.656827e-01 -6.717899e-02 -5.058871e-01 -5.811756e-01 -1.147531e-01 3.034175e-02 -1.865233e-01 -9.636468e-03 4.717090e-01 1.387040e-01 5.555542e-01
<VARIANCE> 25
 7.484469e+01 7.260033e+01 6.443924e+01 4.458067e+01 6.541324e+01 8.098392e+01 6.437448e+01 5.544243e+01 5.775347e+01 5.408432e+01 5.170609e+01 3.565596e+01 8.832644e+00 7.022916e+00 5.775980e+00 4.376377e+00 8.064591e+00 7.919261e+00 5.827268e+00 5.459729e+00 6.368174e+00 5.378401e+00 5.357445e+00 3.253633e+00 3.932326e+00
<GCONST> 1.175671e+02
<STATE> 3
<MEAN> 25
 -1.405148e+00 2.702756e+00 6.673293e+00 5.900486e-02 -4.147643e+00 -5.388164e+00 4.426396e-01 6.094747e-01 -2.926964e+00 -6.522943e-01 2.473598e+00 8.179319e-01 6.155297e-01 -5.978940e-01 2.476407e-01 -1.904391e-01 -4.209154e-01 -3.672987e-01 -2.552580e-01 3.275997e-01 -1.213189e-02 3.711487e-01 2.125889e-02 -7.566018e-02 4.638149e-01
<VARIANCE> 25
 6.359359e+01 6.854449e+01 6.682016e+01 5.078937e+01 7.054747e+01 8.255038e+01 6.249595e+01 6.415282e+01 6.532262e+01 5.622083e+01 5.061933e+01 3.497411e+01 7.841858e+00 7.306478e+00 6.398278e+00 4.671813e+00 8.773709e+00 7.301457e+00 5.512500e+00 6.149149e+00 6.539745e+00 5.611998e+00 5.187246e+00 3.165043e+00 3.716853e+00
<GCONST> 1.179533e+02
<STATE> 4
<MEAN> 25
 1.941896e+00 -3.983970e-01 6.617187e+00 2.927887e-01 -5.080071e+00 -5.634253e+00 -1.264159e+00 1.384489e+00 -2.105978e+00 5.027393e-01 1.038397e+00 5.310398e-01 5.568122e-01 -3.371421e-01 -8.005643e-01 2.340086e-02 3.334193e-01 2.270967e-01 -1.685663e-01 2.381398e-01 5.951568e-01 1.157956e-01 -4.647762e-01 -2.854612e-01 -1.039462e-01
<VARIANCE> 25
 2.268467e+01 4.434869e+01 6.242377e+01 4.823913e+01 6.861554e+01 6.598592e+01 5.495274e+01 8.460130e+01 6.897606e+01 5.352938e+01 5.290137e+01 3.457982e+01 2.019052e+00 3.707119e+00 4.010055e+00 3.116497e+00 6.442404e+00 4.861852e+00 3.897208e+00 5.261386e+00 4.552191e+00 4.279775e+00 3.771970e+00 2.587050e+00 1.700809e+00
<GCONST> 1.102410e+02
<TRANSP> 5
 0.000000e+00 1.000000e+00 0.000000e+00 0.000000e+00 0.000000e+00
 0.000000e+00 7.417520e-01 2.582480e-01 0.000000e+00 0.000000e+00
 0.000000e+00 0.000000e+00 7.125226e-01 2.874775e-01 0.000000e+00
 0.000000e+00 0.000000e+00 0.000000e+00 6.406749e-01 3.593250e-01
 0.000000e+00 0.000000e+00 0.000000e+00 0.000000e+00 0.000000e+00
<ENDHMM>
~h "k"
<BEGINHMM>
<NUMSTATES> 5
<STATE> 2
<MEAN> 25
 -3.836369e-01 -4.900389e-01 -1.393581e+00 4.725148e-01 1.648822e+00 7.472857e-01 8.276705e-02 1.005870e+00 4.629657e-01 1.103696e-02 1.251593e-02 3.182580e-02 1.129860e-01 -4.354577e-01 -3.786187e-01 -1.692300e-01 1.200767e-01 -2.184183e-01 -1.145089e-01 1.708207e-01 1.483136e-01 1.496470e-01 3.821980e-02 -5.488001e-03 4.278550e-01
<VARIANCE> 25
 3.718417e+01 4.317295e+01 4.468643e+01 4.151171e+01 4.919136e+01 5.210470e+01 3.803915e+01 4.388066e+01 4.103077e+01 4.069964e+01 3.459848e+01 3.263722e+01 2.828925e+00 4.198127e+00 4.189242e+00 4.071260e+00 4.936155e+00 5.165564e+00 4.116640e+00 4.520381e+00 4.103129e+00 4.240838e+00 3.391573e+00 3.167665e+00 4.327081e+00
<GCONST> 1.087415e+02
<STATE> 3
<MEAN> 25
 3.607820e-01 -1.672856e+00 -2.272638e+00 -1.472057e-01 1.711850e+00 2.534303e-02 -1.421090e-01 1.438063e+00 7.880865e-01 4.840866e-01 -4.104774e-02 -2.330932e-01 2.541086e-01 -4.179487e-01 -2.325757e-01 -2.677951e-01 -1.455013e-01 -2.696081e-01 -7.161894e-02 1.079266e-01 1.294452e-01 2.134689e-01 -4.742831e-02 -1.364602e-01 4.632017e-01
<VARIANCE> 25
 3.062892e+01 4.503153e+01 4.781914e+01 4.299988e+01 5.342352e+01 5.494741e+01 4.072412e+01 4.497725e+01 4.260432e+01 4.275359e+01 3.698726e+01 3.499072e+01 2.404654e+00 4.081183e+00 4.304859e+00 4.053553e+00 5.121844e+00 5.321265e+00 4.146217e+00 4.403148e+00 4.126662e+00 4.260041e+00 3.613912e+00 3.348693e+00 3.109287e+00
<GCONST> 1.088229e+02
<STATE> 4
<MEAN> 25
 8.906587e-01 -1.994537e+00 -2.346108e+00 -5.789256e-01 1.181770e+00 -2.010484e-01 -3.690164e-02 1.253806e+00 8.769883e-01 5.729795e-01 -3.711767e-01 -5.789208e-01 2.347626e-01 -1.154367e-01 4.602028e-02 -1.413122e-01 -3.152043e-01 -1.775218e-01 -2.387914e-02 -7.222594e-02 -1.310557e-02 1.055423e-01 -4.886628e-02 -1.684067e-01 2.862046e-01
<VARIANCE> 25
 3.048468e+01 4.487741e+01 4.842699e+01 4.485917e+01 5.567545e+01 5.974929e+01 3.968101e+01 4.572428e+01 4.589775e+01 4.440544e+01 4.057798e+01 3.900747e+01 1.857579e+00 2.980730e+00 3.426934e+00 3.198116e+00 4.320490e+00 4.439581e+00 3.337224e+00 3.656877e+00 3.660321e+00 3.511905e+00 3.330476e+00 3.058514e+00 1.838922e+00
<GCONST> 1.064969e+02
<TRANSP> 5
 0.000000e+00 1.000000e+00 0.000000e+00 0.000000e+00 0.000000e+00
 0.000000e+00 4.903346e-01 5.096654e-01 0.000000e+00 0.000000e+00
 0.000000e+00 0.000000e+00 4.674954e-01 5.325046e-01 0.000000e+00
 0.000000e+00 0.000000e+00 0.000000e+00 5.141997e-01 4.858004e-01
 0.000000e+00 0.000000e+00 0.000000e+00 0.000000e+00 0.000000e+00
<ENDHMM>
~h "l"
<BEGINHMM>
<NUMSTATES> 5
<STATE> 2
<MEAN> 25
 3.864618e+00 -1.107512e+00 -2.921463e+00 -2.192708e+00 2.649437e-01 -1.123189e+00 -3.159854e+00 -2.019333e+00 2.400354e+00 3.150517e+00 -4.203599e-01 -1.701718e+00 1.463262e-01 8.255339e-02 -7.052279e-03 -7.291190e-02 5.869316e-02 -8.434687e-02 -1.718235e-01 -2.373997e-01 7.339001e-02 1.859613e-01 -2.918710e-02 1.054628e-02 6.809244e-02
<VARIANCE> 25
 3.040487e+01 3.464918e+01 3.794979e+01 4.900153e+01 4.693671e+01 6.923032e+01 5.075945e+01 5.463996e+01 5.519173e+01 4.644553e+01 3.748429e+01 3.539793e+01 1.012669e+00 1.670112e+00 1.834972e+00 2.334635e+00 2.491959e+00 3.212204e+00 2.943793e+00 3.437921e+00 3.152104e+00 2.968586e+00 2.731040e+00 2.425990e+00 1.307653e+00
<GCONST> 1.022590e+02
<STATE> 3
<MEAN> 25
 4.021147e+00 -1.017401e+00 -2.868640e+00 -2.245174e+00 3.651763e-01 -1.236514e+00 -3.169905e+00 -2.219916e+00 2.301037e+00 3.325191e+00 -5.053902e-01 -1.675913e+00 1.177018e-02 4.218671e-02 7.823300e-02 -4.955163e-03 -1.405002e-02 -1.905809e-03 8.847129e-02 4.566693e-02 -6.606746e-02 -4.552635e-02 -5.188132e-02 2.935894e-02 6.416562e-03
<VARIANCE> 25
 2.450553e+01 3.349784e+01 3.795827e+01 4.692601e+01 4.556250e+01 6.757214e+01 5.022704e+01 5.548919e+01 5.246023e+01 4.677966e+01 3.676941e+01 3.414672e+01 7.184286e-01 1.590136e+00 1.698388e+00 2.180442e+00 2.358264e+00 2.918896e+00 2.879139e+00 3.365957e+00 2.986722e+00 2.925448e+00 2.696228e+00 2.263856e+00 8.004705e-01
<GCONST> 1.004449e+02
<STATE> 4
<MEAN> 25
 3.616977e+00 -9.755973e-01 -2.840522e+00 -2.187026e+00 2.372076e-01 -9.016069e-01 -2.352836e+00 -1.668695e+00 1.938715e+00 2.747979e+00 -5.749952e-01 -1.460921e+00 -1.025222e-01 1.545233e-02 1.541956e-01 8.661413e-02 -7.642330e-02 2.831258e-02 2.573126e-01 2.252250e-01 -1.707620e-01 -2.377237e-01 -8.528847e-03 8.024874e-02 -4.451079e-02
<VARIANCE> 25
 2.419152e+01 3.416350e+01 3.854335e+01 4.528306e+01 4.600984e+01 6.424053e+01 5.092554e+01 6.179934e+01 5.127888e+01 4.693550e+01 3.953603e+01 3.404943e+01 5.600736e-01 1.399873e+00 1.565247e+00 2.005936e+00 2.302677e+00 2.631016e+00 2.598309e+00 3.083767e+00 2.810973e+00 2.719813e+00 2.519932e+00 2.075434e+00 5.299494e-01
<GCONST> 9.900247e+01
<TRANSP> 5
 0.000000e+00 1.000000e+00 0.000000e+00 0.000000e+00 0.000000e+00
 0.000000e+00 4.703245e-01 5.296754e-01 0.000000e+00 0.000000e+00
 0.000000e+00 0.000000e+00 4.710813e-01 5.289187e-01 0.000000e+00
 0.000000e+00 0.000000e+00 0.000000e+00 6.168085e-01 3.831914e-01
 0.000000e+00 0.000000e+00 0.000000e+00 0.000000e+00 0.000000e+00
<ENDHMM>
~h "m"
<BEGINHMM>
<NUMSTATES> 5
<STATE> 2
<MEAN> 25
 4.654721e+00 3.215448e-01 -1.950450e+00 -3.185038e-01 9.610378e-01 2.270614e+00 -1.291051e-01 -3.183013e+00 -1.559957e+00 3.328790e-01 -3.658719e-01 -1.460742e+00 1.015064e-01 1.950981e-01 -5.869578e-03 9.536932e-02 1.140482e-01 2.688509e-01 8.796193e-02 -3.723027e-01 -1.747486e-01 -1.355308e-01 -1.962230e-01 -6.894322e-02 -8.130199e-02
<VARIANCE> 25
 2.577782e+01 3.590664e+01 3.746223e+01 4.464213e+01 3.610571e+01 4.359517e+01 2.860116e+01 4.939812e+01 4.434545e+01 3.664180e+01 3.408528e+01 2.840749e+01 8.189171e-01 1.746932e+00 2.356833e+00 2.773118e+00 2.569969e+00 2.542504e+00 2.223585e+00 3.878023e+00 3.325252e+00 2.659319e+00 2.664370e+00 2.148156e+00 8.495940e-01
<GCONST> 9.911091e+01
<STATE> 3
<MEAN> 25
 4.788784e+00 5.353473e-01 -1.954901e+00 -2.552288e-01 1.165988e+00 2.707248e+00 -5.775075e-02 -3.532258e+00 -1.663434e+00 1.142950e-01 -7.171184e-01 -1.633720e+00 1.257881e-03 3.077337e-02 -2.656686e-02 -1.449678e-02 9.273690e-02 9.158660e-02 -2.648012e-03 4.662269e-02 4.883649e-02 -6.778689e-02 -1.117317e-01 -9.780595e-02 -2.376482e-02
<VARIANCE> 25
 2.428803e+01 3.548816e+01 3.736661e+01 4.573396e+01 3.618210e+01 4.458137e+01 2.807912e+01 4.849660e+01 4.457230e+01 3.604537e+01 3.418498e+01 2.799872e+01 6.394618e-01 1.648852e+00 2.066408e+00 2.467987e+00 2.252866e+00 2.374933e+00 2.000933e+00 3.579151e+00 3.062699e+00 2.489336e+00 2.500050e+00 2.009587e+00 6.330798e-01
<GCONST> 9.751443e+01
<STATE> 4
<MEAN> 25
 4.321276e+00 7.568970e-01 -1.862271e+00 -8.926497e-02 1.852674e+00 3.041559e+00 1.498553e-02 -2.655727e+00 -1.193374e+00 -1.469680e-01 -9.851517e-01 -1.728443e+00 -1.155764e-01 -1.907982e-02 -2.286449e-03 -3.927853e-02 -3.312167e-03 -1.401648e-01 -3.424756e-02 2.962323e-01 1.726196e-01 2.629658e-02 3.477922e-02 -1.621284e-02 -4.007700e-02
<VARIANCE> 25
 2.900688e+01 3.721723e+01 3.865217e+01 4.967204e+01 3.824163e+01 4.863506e+01 2.800443e+01 4.498885e+01 4.156591e+01 3.435070e+01 3.159814e+01 2.984262e+01 5.110877e-01 1.289931e+00 1.581088e+00 1.868847e+00 1.986835e+00 1.999867e+00 1.733853e+00 2.768149e+00 2.517277e+00 2.174277e+00 2.138405e+00 1.812616e+00 4.338564e-01
<GCONST> 9.510588e+01
<TRANSP> 5
 0.000000e+00 1.000000e+00 0.000000e+00 0.000000e+00 0.000000e+00
 0.000000e+00 5.037485e-01 4.962515e-01 0.000000e+00 0.000000e+00
 0.000000e+00 0.000000e+00 5.079147e-01 4.920853e-01 0.000000e+00
 0.000000e+00 0.000000e+00 0.000000e+00 7.240182e-01 2.759818e-01
 0.000000e+00 0.000000e+00 0.000000e+00 0.000000e+00 0.000000e+00
<ENDHMM>
~h "n"
<BEGINHMM>
<NUMSTATES> 5
<STATE> 2
<MEAN> 25
 3.563007e+00 -2.242804e-01 1.101223e+00 2.236642e+00 -1.889486e+00 -1.947617e+00 -5.890156e-02 -3.558899e-01 1.258983e-01 -8.598210e-01 -2.264100e+00 -3.179215e-01 -2.814052e-03 5.871689e-01 1.809382e-01 2.873082e-01 1.138722e-01 6.623714e-02 1.142855e-02 -3.384140e-01 -1.666373e-01 -3.098282e-01 -8.946212e-02 1.848950e-01 -3.338950e-01
<VARIANCE> 25
 2.167250e+01 4.735824e+01 3.128837e+01 3.492517e+01 4.091976e+01 3.763929e+01 3.134779e+01 4.621925e+01 4.358937e+01 3.613128e+01 3.458746e+01 2.629002e+01 8.797435e-01 2.893895e+00 2.106157e+00 2.476685e+00 2.872831e+00 2.781073e+00 2.367121e+00 3.631489e+00 3.153422e+00 2.893224e+00 2.439261e+00 2.015162e+00 1.493924e+00
<GCONST> 9.969039e+01
<STATE> 3
<MEAN> 25
 3.382375e+00 8.413429e-01 1.449568e+00 2.433978e+00 -1.610764e+00 -1.712547e+00 -1.094027e-02 -8.134735e-01 -2.622140e-01 -1.333173e+00 -2.228468e+00 -5.018244e-02 -1.521055e-01 3.765807e-01 1.172647e-01 3.814941e-02 1.855189e-01 1.817138e-01 3.155119e-02 -1.182632e-01 -1.354143e-01 -1.543373e-01 6.807371e-02 1.065590e-01 -2.757752e-01
<VARIANCE> 25
 2.037234e+01 4.483265e+01 2.810569e+01 3.255450e+01 3.843799e+01 3.442038e+01 2.958488e+01 4.402888e+01 4.044243e+01 3.432180e+01 3.284101e+01 2.491897e+01 6.122794e-01 2.797611e+00 1.776231e+00 2.182596e+00 2.548976e+00 2.477457e+00 2.226378e+00 3.312303e+00 2.919902e+00 2.670749e+00 2.328182e+00 1.854681e+00 9.418146e-01
<GCONST> 9.707661e+01
<STATE> 4
<MEAN> 25
 2.290498e+00 1.657776e+00 1.846030e+00 2.547756e+00 -6.357038e-01 -8.264945e-01 1.921591e-01 -8.470012e-01 -6.645625e-01 -1.680997e+00 -1.892521e+00 4.803589e-02 -2.531040e-01 3.899537e-02 2.678657e-02 -1.337956e-01 1.678927e-01 2.107600e-01 2.848732e-02 7.765235e-02 -1.235139e-02 6.128313e-02 1.990976e-01 3.769775e-02 -1.240915e-01
<VARIANCE> 25
 2.255892e+01 4.210070e+01 2.803983e+01 3.125797e+01 3.848146e+01 3.504198e+01 2.927757e+01 4.192403e+01 3.886644e+01 3.334975e+01 3.252577e+01 2.451998e+01 6.322018e-01 2.011489e+00 1.619401e+00 1.849155e+00 2.307768e+00 2.234038e+00 2.053102e+00 2.797788e+00 2.658558e+00 2.384648e+00 2.177631e+00 1.725642e+00 6.615565e-01
<GCONST> 9.523003e+01
<TRANSP> 5
 0.000000e+00 1.000000e+00 0.000000e+00 0.000000e+00 0.000000e+00
 0.000000e+00 4.842006e-01 5.157994e-01 0.000000e+00 0.000000e+00
 0.000000e+00 0.000000e+00 4.884090e-01 5.115910e-01 0.000000e+00
 0.000000e+00 0.000000e+00 0.000000e+00 6.457301e-01 3.542700e-01
 0.000000e+00 0.000000e+00 0.000000e+00 0.000000e+00 0.000000e+00
<ENDHMM>
~h "o"
<BEGINHMM>
<NUMSTATES> 5
<STATE> 2
<MEAN> 25
 3.375224e+00 3.370437e-01 -5.525631e+00 -5.532005e+00 9.003079e-01 3.324658e+00 -6.520928e-01 -9.622591e-01 1.725109e+00 2.666893e+00 1.707517e+00 -5.459715e-01 8.158353e-01 -7.391124e-02 -4.980536e-01 -9.842175e-01 -3.844368e-02 4.325990e-01 3.710391e-02 -1.216120e-01 -1.029426e-01 2.621950e-01 3.010652e-01 -1.637146e-01 6.256249e-01
<VARIANCE> 25
 5.468464e+01 3.028323e+01 3.810693e+01 7.027918e+01 4.400808e+01 5.188388e+01 4.229185e+01 3.923151e+01 4.403422e+01 4.463202e+01 3.566037e+01 3.100616e+01 3.300160e+00 2.125434e+00 2.679770e+00 4.172720e+00 2.971175e+00 3.393017e+00 3.110410e+00 2.949923e+00 3.292617e+00 3.458858e+00 2.996355e+00 2.593797e+00 3.761281e+00
<GCONST> 1.056884e+02
<STATE> 3
<MEAN> 25
 5.406790e+00 2.148362e-01 -6.357444e+00 -7.444276e+00 8.066432e-01 4.091379e+00 -6.368263e-01 -1.313023e+00 1.241760e+00 3.168193e+00 2.320988e+00 -9.960877e-01 2.186720e-01 -1.051521e-02 -9.516765e-02 -2.141248e-01 2.031284e-02 2.512075e-01 5.965647e-02 -6.578395e-02 -8.544791e-02 1.118751e-02 3.184701e-02 -7.762767e-02 7.644939e-02
<VARIANCE> 25
 3.243563e+01 2.982916e+01 3.541969e+01 6.529741e+01 4.318031e+01 5.400884e+01 4.221686e+01 3.945263e+01 4.361652e+01 4.540067e+01 3.853756e+01 3.156875e+01 1.800484e+00 1.770442e+00 2.097379e+00 3.601815e+00 2.487363e+00 2.974609e+00 2.711854e+00 2.484392e+00 2.757188e+00 2.948816e+00 2.729805e+00 2.415749e+00 1.362688e+00
<GCONST> 1.018168e+02
<STATE> 4
<MEAN> 25
 5.994130e+00 6.016972e-01 -6.787049e+00 -8.712159e+00 1.290431e+00 6.260743e+00 -7.090805e-02 -1.487275e+00 1.639921e+00 3.194914e+00 2.148519e+00 -8.218613e-01 -2.510443e-01 -1.094107e-02 2.570907e-01 5.174891e-01 1.248297e-01 -1.516425e-01 3.660481e-02 3.942005e-02 1.136102e-03 -1.653720e-01 -1.825363e-01 2.301837e-02 -1.957449e-01
<VARIANCE> 25
 3.003977e+01 2.700056e+01 3.094041e+01 6.982777e+01 4.703280e+01 7.931578e+01 4.228973e+01 4.473075e+01 5.593678e+01 5.448957e+01 4.413505e+01 3.247965e+01 7.935529e-01 1.172357e+00 1.430687e+00 2.455477e+00 1.875195e+00 2.558298e+00 2.056839e+00 2.130969e+00 2.417449e+00 2.334325e+00 2.160031e+00 1.959274e+00 5.609248e-01
<GCONST> 9.820802e+01
<TRANSP> 5
 0.000000e+00 1.000000e+00 0.000000e+00 0.000000e+00 0.000000e+00
 0.000000e+00 5.832042e-01 4.167958e-01 0.000000e+00 0.000000e+00
 0.000000e+00 0.000000e+00 5.642411e-01 4.357589e-01 0.000000e+00
 0.000000e+00 0.000000e+00 0.000000e+00 8.143103e-01 1.856897e-01
 0.000000e+00 0.000000e+00 0.000000e+00 0.000000e+00 0.000000e+00
<ENDHMM>
~h "p"
<BEGINHMM>
<NUMSTATES> 5
<STATE> 2
<MEAN> 25
 1.345132e+00 -7.158014e-01 -3.439244e+00 -1.397786e+00 1.746318e+00 2.394922e+00 -3.433860e-01 -6.421316e-01 1.507761e+00 4.115157e-01 6.283824e-01 -5.887399e-01 3.322044e-02 -2.989872e-01 -3.645733e-01 -1.917754e-01 -1.418813e-01 3.959632e-02 -9.671108e-02 3.727393e-02 3.325757e-01 2.651108e-01 3.262518e-01 4.351763e-02 2.421827e-01
<VARIANCE> 25
 4.142571e+01 4.025373e+01 3.741945e+01 3.563419e+01 3.404934e+01 4.861142e+01 3.080128e+01 3.443971e+01 3.541328e+01 3.568409e+01 3.420300e+01 3.405699e+01 3.431049e+00 5.286884e+00 3.248829e+00 3.494112e+00 3.266008e+00 5.103290e+00 3.314209e+00 3.882274e+00 3.830794e+00 3.793304e+00 4.197925e+00 3.818965e+00 4.408281e+00
<GCONST> 1.067720e+02
<STATE> 3
<MEAN> 25
 1.914547e+00 -1.906606e+00 -4.253101e+00 -2.047824e+00 1.196807e+00 2.215525e+00 -6.942879e-01 -3.984095e-01 2.224142e+00 1.149520e+00 1.112879e+00 -9.328061e-01 4.428632e-01 -4.224795e-01 -2.437918e-01 -2.156981e-01 -2.407022e-01 -2.504065e-01 -2.132109e-01 1.585166e-01 1.536216e-01 2.380398e-01 7.516752e-02 -2.677634e-01 5.247032e-01
<VARIANCE> 25
 3.718723e+01 4.294016e+01 4.172363e+01 4.481845e+01 3.532114e+01 5.668587e+01 3.339819e+01 3.626530e+01 3.759638e+01 3.841351e+01 3.437251e+01 3.496069e+01 4.138746e+00 5.286017e+00 3.845426e+00 4.183407e+00 3.784014e+00 5.705021e+00 3.552327e+00 3.819345e+00 4.293399e+00 3.992043e+00 4.387841e+00 4.159937e+00 4.042977e+00
<GCONST> 1.086105e+02
<STATE> 4
<MEAN> 25
 3.124857e+00 -2.285920e+00 -4.676740e+00 -2.565057e+00 8.545184e-01 1.892133e+00 -8.885332e-01 -3.152394e-01 2.288925e+00 1.501744e+00 6.608920e-01 -1.712111e+00 3.267502e-01 -1.270680e-01 2.052558e-01 1.166597e-02 -2.715934e-01 -4.384377e-01 -1.247385e-01 2.017405e-01 -1.446787e-01 -5.672577e-02 -1.441359e-01 -1.668250e-01 3.393285e-01
<VARIANCE> 25
 3.383120e+01 4.058843e+01 4.585992e+01 5.059887e+01 3.766414e+01 6.908165e+01 3.390408e+01 4.077602e+01 4.401344e+01 4.042428e+01 3.758058e+01 4.010934e+01 3.162546e+00 4.003532e+00 3.635462e+00 3.871271e+00 3.783923e+00 4.972634e+00 3.171480e+00 3.501720e+00 4.190982e+00 3.727664e+00 3.951440e+00 3.499043e+00 2.656157e+00
<GCONST> 1.076962e+02
<TRANSP> 5
 0.000000e+00 1.000000e+00 0.000000e+00 0.000000e+00 0.000000e+00
 0.000000e+00 5.667884e-01 4.332116e-01 0.000000e+00 0.000000e+00
 0.000000e+00 0.000000e+00 5.771473e-01 4.228527e-01 0.000000e+00
 0.000000e+00 0.000000e+00 0.000000e+00 6.111481e-01 3.888519e-01
 0.000000e+00 0.000000e+00 0.000000e+00 0.000000e+00 0.000000e+00
<ENDHMM>
~h "r"
<BEGINHMM>
<NUMSTATES> 5
<STATE> 2
<MEAN> 25
 3.357398e+00 -3.177866e+00 -3.138347e+00 5.319721e-01 -2.527925e-01 -1.887707e+00 -2.020640e+00 1.919670e+00 4.400979e+00 9.659253e-01 -1.320915e+00 -1.316656e+00 -8.307149e-02 7.616330e-02 1.107024e-01 3.345581e-01 1.339549e-01 -7.797407e-02 -7.828267e-02 -3.853591e-02 6.604329e-02 -2.277069e-01 -2.033796e-02 1.919176e-01 -1.588287e-01
<VARIANCE> 25
 2.848145e+01 3.460166e+01 3.604117e+01 3.565973e+01 3.841163e+01 5.028407e+01 3.836355e+01 4.628237e+01 5.939737e+01 4.191833e+01 4.328445e+01 3.435235e+01 1.097572e+00 1.772778e+00 1.786560e+00 1.945762e+00 2.304038e+00 2.679071e+00 2.347306e+00 2.843856e+00 3.014165e+00 2.772727e+00 2.541173e+00 2.479940e+00 9.153033e-01
<GCONST> 9.967680e+01
<STATE> 3
<MEAN> 25
 3.001621e+00 -2.810913e+00 -2.658701e+00 1.120999e+00 -1.023286e-02 -1.939302e+00 -1.947999e+00 1.782982e+00 4.057219e+00 4.088164e-01 -1.207171e+00 -8.192621e-01 -1.479733e-01 1.751807e-01 2.280503e-01 2.039911e-01 6.368249e-02 1.974619e-02 4.087687e-02 -1.180219e-01 -2.133854e-01 -1.918835e-01 9.223393e-02 1.885107e-01 -1.912962e-01
<VARIANCE> 25
 2.720580e+01 3.438135e+01 3.563655e+01 3.381292e+01 3.746732e+01 4.749384e+01 3.792174e+01 4.554846e+01 5.651643e+01 3.926742e+01 4.144016e+01 3.146825e+01 9.864063e-01 1.627337e+00 1.644434e+00 1.762019e+00 2.208587e+00 2.573584e+00 2.269315e+00 2.705894e+00 2.869247e+00 2.594551e+00 2.410946e+00 2.371976e+00 6.942227e-01
<GCONST> 9.817454e+01
<STATE> 4
<MEAN> 25
 1.319736e+00 -1.746828e+00 -1.774564e+00 1.051741e+00 4.860011e-01 -1.268070e+00 -1.236555e+00 1.605567e+00 3.195939e+00 9.007914e-02 -9.692252e-01 -3.553165e-01 -1.124831e-01 1.759256e-01 2.086878e-01 1.280274e-02 2.270038e-04 7.225107e-02 8.921554e-02 -1.700172e-01 -3.084219e-01 -4.509434e-02 1.517557e-01 9.165160e-02 -1.259300e-01
<VARIANCE> 25
 3.048631e+01 2.995046e+01 3.307374e+01 3.226259e+01 3.877523e+01 4.605155e+01 3.686304e+01 4.868927e+01 6.511200e+01 3.783105e+01 4.390165e+01 3.126083e+01 6.903236e-01 1.233042e+00 1.356355e+00 1.437063e+00 2.006868e+00 2.235670e+00 2.022322e+00 2.387375e+00 2.626447e+00 2.260854e+00 2.173440e+00 2.067381e+00 4.397733e-01
<GCONST> 9.579449e+01
<TRANSP> 5
 0.000000e+00 1.000000e+00 0.000000e+00 0.000000e+00 0.000000e+00
 0.000000e+00 4.977711e-01 5.022289e-01 0.000000e+00 0.000000e+00
 0.000000e+00 0.000000e+00 4.951756e-01 5.048244e-01 0.000000e+00
 0.000000e+00 0.000000e+00 0.000000e+00 7.183896e-01 2.816104e-01
 0.000000e+00 0.000000e+00 0.000000e+00 0.000000e+00 0.000000e+00
<ENDHMM>
~h "s"
<BEGINHMM>
<NUMSTATES> 5
<STATE> 2
<MEAN> 25
 -8.309453e+00 3.950797e+00 -8.734910e-01 3.230593e+00 2.608442e+00 -5.850065e+00 4.005050e+00 4.240334e+00 6.432941e-01 -2.003799e+00 2.303196e+00 1.916415e+00 -1.727993e+00 6.041854e-01 -4.070180e-01 1.082566e-01 4.669166e-01 -3.176773e-01 5.053098e-01 5.829102e-01 1.648277e-01 -4.036925e-01 4.118887e-01 2.059574e-01 3.204395e-01
<VARIANCE> 25
 1.240299e+02 5.641246e+01 6.358188e+01 5.021907e+01 6.632423e+01 7.308803e+01 8.633844e+01 7.072622e+01 5.793433e+01 4.964678e+01 4.870627e+01 3.541620e+01 9.541298e+00 4.773787e+00 4.240196e+00 4.153183e+00 4.849119e+00 4.760658e+00 5.121464e+00 5.777170e+00 4.498178e+00 4.424070e+00 4.070585e+00 2.867758e+00 1.989295e+00
<GCONST> 1.148390e+02
<STATE> 3
<MEAN> 25
 -1.051302e+01 3.885161e+00 -1.349809e+00 2.028623e+00 3.141162e+00 -5.740753e+00 3.959205e+00 4.842026e+00 9.568906e-01 -2.184516e+00 2.605056e+00 1.802174e+00 7.166470e-01 -3.782781e-01 1.336876e-01 -3.048396e-01 -2.479548e-01 1.191709e-01 -1.860800e-01 -2.185574e-01 2.042370e-02 2.085456e-01 -2.048632e-01 -1.756083e-01 -1.028202e-01
<VARIANCE> 25
 1.149544e+02 5.235154e+01 5.712858e+01 4.675755e+01 6.568391e+01 7.089229e+01 8.008559e+01 7.193027e+01 5.880993e+01 4.948392e+01 5.014721e+01 3.565165e+01 1.109907e+01 4.183339e+00 3.946838e+00 3.384227e+00 4.645079e+00 4.880624e+00 4.719173e+00 6.052461e+00 4.553565e+00 4.305628e+00 3.965780e+00 3.053655e+00 2.011554e+00
<GCONST> 1.141812e+02
<STATE> 4
<MEAN> 25
 -4.414282e+00 1.163454e+00 -2.651230e-02 7.673447e-01 2.202806e+00 -3.421934e+00 2.132006e+00 2.998492e+00 8.853298e-01 -8.003646e-01 4.886984e-01 8.872688e-01 1.469517e+00 -3.534843e-01 1.542907e-01 -3.009233e-01 -5.417290e-01 3.482429e-01 -5.103335e-01 -6.588308e-01 -9.071210e-02 3.145179e-01 -4.094038e-01 -3.509558e-01 -7.068218e-02
<VARIANCE> 25
 8.232922e+01 4.072374e+01 5.405612e+01 4.219883e+01 6.654693e+01 7.162644e+01 6.982316e+01 6.661681e+01 6.766234e+01 4.610617e+01 5.083504e+01 3.905400e+01 5.200908e+00 2.686185e+00 2.976602e+00 2.865551e+00 4.008660e+00 4.295487e+00 4.265718e+00 4.762547e+00 3.983222e+00 3.629260e+00 3.466318e+00 2.834198e+00 1.457041e+00
<GCONST> 1.103205e+02
<TRANSP> 5
 0.000000e+00 1.000000e+00 0.000000e+00 0.000000e+00 0.000000e+00
 0.000000e+00 7.293779e-01 2.706221e-01 0.000000e+00 0.000000e+00
 0.000000e+00 0.000000e+00 6.854274e-01 3.145725e-01 0.000000e+00
 0.000000e+00 0.000000e+00 0.000000e+00 6.285697e-01 3.714303e-01
 0.000000e+00 0.000000e+00 0.000000e+00 0.000000e+00 0.000000e+00
<ENDHMM>
~h "t"
<BEGINHMM>
<NUMSTATES> 5
<STATE> 2
<MEAN> 25
 -2.253771e-01 1.029447e+00 -5.727668e-01 6.075972e-01 2.195119e-01 -1.567484e-01 3.425376e-01 2.991137e-01 1.694658e+00 -1.447053e-01 -3.984336e-01 6.591246e-01 -2.384298e-01 -1.059147e-01 -2.238900e-01 -1.671716e-01 7.191339e-02 2.135182e-02 6.900304e-02 6.077337e-02 3.172160e-01 -6.964974e-02 1.087256e-01 8.511853e-02 7.459617e-02
<VARIANCE> 25
 3.213797e+01 2.794215e+01 3.152363e+01 2.653592e+01 3.601672e+01 5.424532e+01 3.050756e+01 3.606306e+01 4.297786e+01 3.473200e+01 3.511885e+01 2.723673e+01 2.271434e+00 3.248075e+00 2.693288e+00 2.614949e+00 3.367549e+00 5.979049e+00 2.874557e+00 3.462198e+00 4.162612e+00 3.269050e+00 3.561341e+00 2.737953e+00 3.994725e+00
<GCONST> 1.037524e+02
<STATE> 3
<MEAN> 25
 -4.791728e-01 3.264166e-01 -1.094008e+00 7.388195e-02 1.135919e-01 -6.690590e-01 4.304789e-01 5.064590e-01 2.218866e+00 -1.954530e-01 -7.033829e-02 5.555446e-01 4.296738e-02 -3.702445e-01 -1.930680e-01 -2.423805e-01 -1.123385e-01 -3.606535e-01 -2.552864e-02 1.207448e-01 1.684785e-01 9.012659e-02 1.436205e-01 -1.309914e-01 5.469058e-01
<VARIANCE> 25
 2.878040e+01 2.899116e+01 3.195814e+01 2.822490e+01 3.770027e+01 5.806559e+01 3.144104e+01 3.825039e+01 4.571659e+01 3.634467e+01 3.900369e+01 2.947359e+01 2.585752e+00 3.348662e+00 3.020807e+00 2.781136e+00 3.765188e+00 6.826799e+00 3.275303e+00 3.746814e+00 4.605821e+00 3.588080e+00 4.154112e+00 3.055601e+00 4.243037e+00
<GCONST> 1.055566e+02
<STATE> 4
<MEAN> 25
 -3.538519e-02 -2.047887e-01 -1.185287e+00 -2.642382e-01 -1.905679e-01 -1.413776e+00 5.218612e-02 6.164093e-01 2.043393e+00 1.409820e-01 2.237797e-01 2.339437e-01 2.923490e-01 -2.721494e-01 1.041361e-02 -2.004982e-01 -1.483542e-01 -2.733622e-01 -1.651382e-01 1.843199e-02 -1.429929e-01 2.074679e-01 6.600766e-02 -2.135612e-01 4.933022e-01
<VARIANCE> 25
 2.857229e+01 3.077298e+01 3.432447e+01 3.088955e+01 4.213629e+01 6.210318e+01 3.422841e+01 4.212873e+01 5.111390e+01 3.884367e+01 4.289531e+01 3.302505e+01 2.270869e+00 2.699934e+00 2.930511e+00 2.572719e+00 3.872408e+00 5.542591e+00 3.443213e+00 3.519355e+00 4.292807e+00 3.539644e+00 3.689781e+00 2.848204e+00 2.686285e+00
<GCONST> 1.051413e+02
<TRANSP> 5
 0.000000e+00 1.000000e+00 0.000000e+00 0.000000e+00 0.000000e+00
 0.000000e+00 4.659693e-01 5.340307e-01 0.000000e+00 0.000000e+00
 0.000000e+00 0.000000e+00 4.645724e-01 5.354276e-01 0.000000e+00
 0.000000e+00 0.000000e+00 0.000000e+00 5.164916e-01 4.835084e-01
 0.000000e+00 0.000000e+00 0.000000e+00 0.000000e+00 0.000000e+00
<ENDHMM>
~h "u"
<BEGINHMM>
<NUMSTATES> 5
<STATE> 2
<MEAN> 25
 3.832900e+00 2.982471e+00 -1.391112e+00 -2.833042e+00 6.623169e-01 -4.308175e-02 -5.143769e+00 -3.943879e+00 -1.301954e+00 1.703674e+00 2.235543e+00 5.142437e-01 4.037103e-01 1.951648e-01 -6.924784e-02 -5.014070e-01 6.144023e-02 9.293412e-02 -5.223417e-01 -3.440144e-01 -2.675427e-01 3.563589e-01 2.920845e-01 -5.427089e-02 1.745702e-01
<VARIANCE> 25
 2.913381e+01 2.677570e+01 3.178245e+01 4.986459e+01 4.198215e+01 4.691218e+01 5.666837e+01 4.573030e+01 4.548344e+01 4.744694e+01 3.873273e+01 3.105512e+01 1.876446e+00 2.024977e+00 2.305015e+00 3.647712e+00 3.425817e+00 3.507913e+00 4.315464e+00 3.665631e+00 3.994019e+00 3.938419e+00 3.129010e+00 2.484089e+00 1.410343e+00
<GCONST> 1.040512e+02
<STATE> 3
<MEAN> 25
 4.371117e+00 2.990464e+00 -1.485769e+00 -3.554768e+00 7.771029e-01 9.547714e-02 -5.770350e+00 -4.260663e+00 -1.556192e+00 2.385196e+00 2.700854e+00 2.703952e-01 2.267179e-02 -3.022974e-02 5.198918e-02 -5.374268e-02 6.941736e-02 7.753594e-02 -1.017482e-02 1.271661e-02 2.610546e-02 1.317259e-01 1.368580e-03 -1.104113e-01 1.556145e-02
<VARIANCE> 25
 2.560760e+01 2.662629e+01 3.012785e+01 5.235077e+01 4.318693e+01 4.515599e+01 5.902483e+01 4.655660e+01 4.630331e+01 5.117035e+01 4.049932e+01 3.338355e+01 1.203767e+00 1.786092e+00 1.917381e+00 3.212268e+00 2.964286e+00 3.194370e+00 3.765863e+00 3.508173e+00 3.592397e+00 3.642886e+00 3.046327e+00 2.458198e+00 9.352280e-01
<GCONST> 1.022397e+02
<STATE> 4
<MEAN> 25
 3.735278e+00 2.816044e+00 -1.333746e+00 -3.317501e+00 7.850010e-01 2.955026e-01 -4.981698e+00 -3.968156e+00 -1.208936e+00 2.445004e+00 2.622475e+00 4.205553e-01 -2.580150e-01 -1.689785e-01 1.451932e-01 3.188824e-01 1.029702e-01 2.948615e-02 3.640538e-01 3.433314e-01 1.819404e-01 -1.432782e-01 -2.377053e-01 -9.085780e-02 -8.914022e-02
<VARIANCE> 25
 2.615176e+01 2.721223e+01 3.058678e+01 5.484866e+01 4.488903e+01 4.666562e+01 5.281553e+01 4.813800e+01 4.664455e+01 5.255636e+01 4.053641e+01 3.707065e+01 7.942513e-01 1.399858e+00 1.558395e+00 2.409665e+00 2.524471e+00 2.630183e+00 2.940844e+00 3.069607e+00 2.964417e+00 3.035378e+00 2.705326e+00 2.257493e+00 5.980110e-01
<GCONST> 9.956203e+01
<TRANSP> 5
 0.000000e+00 1.000000e+00 0.000000e+00 0.000000e+00 0.000000e+00
 0.000000e+00 5.277141e-01 4.722859e-01 0.000000e+00 0.000000e+00
 0.000000e+00 0.000000e+00 5.276563e-01 4.723438e-01 0.000000e+00
 0.000000e+00 0.000000e+00 0.000000e+00 6.889318e-01 3.110682e-01
 0.000000e+00 0.000000e+00 0.000000e+00 0.000000e+00 0.000000e+00
<ENDHMM>
~h "v"
<BEGINHMM>
<NUMSTATES> 5
<STATE> 2
<MEAN> 25
 -1.810322e+00 -7.019435e-01 2.597741e-01 4.898982e+00 1.160586e+00 -9.353358e-01 -3.503298e-01 3.029331e+00 1.877808e+00 -1.870894e+00 -8.687821e-02 5.152131e-01 3.531487e-01 -2.905881e-01 -3.051024e-01 -4.344127e-01 -6.889327e-01 -6.574787e-01 -8.188990e-02 2.316389e-01 2.640011e-01 6.568995e-01 5.586938e-01 2.311121e-01 2.783806e-01
<VARIANCE> 25
 3.419295e+01 2.545629e+01 2.373998e+01 3.692089e+01 4.192727e+01 5.779393e+01 3.172597e+01 3.879668e+01 3.832970e+01 4.248493e+01 3.155822e+01 3.118270e+01 4.879148e+00 2.255406e+00 2.186560e+00 4.011160e+00 3.853122e+00 6.090381e+00 3.892853e+00 3.424823e+00 5.400074e+00 3.712677e+00 3.612590e+00 3.126310e+00 1.060895e+00
<GCONST> 1.044842e+02
<STATE> 3
<MEAN> 25
 1.772109e-01 -1.854846e+00 2.201350e-01 3.086679e+00 -1.499577e+00 -3.307485e+00 -2.640763e-01 3.100845e+00 1.639030e+00 5.012407e-01 1.815235e+00 8.789120e-01 1.149573e+00 -3.589979e-01 -3.079508e-01 -1.283061e+00 -1.228772e+00 -3.886248e-01 2.206912e-01 -1.616663e-01 1.187178e-01 1.091429e+00 3.169754e-01 -2.266472e-01 8.189404e-01
<VARIANCE> 25
 4.754684e+01 3.108523e+01 4.380736e+01 6.256351e+01 5.950595e+01 7.966994e+01 4.603526e+01 5.140617e+01 4.941433e+01 4.374187e+01 4.027520e+01 3.229580e+01 4.868946e+00 2.318022e+00 4.374438e+00 5.163735e+00 4.935015e+00 6.535701e+00 3.895275e+00 4.389288e+00 5.817899e+00 4.069605e+00 5.001748e+00 3.810773e+00 1.531499e+00
<GCONST> 1.106357e+02
<STATE> 4
<MEAN> 25
 5.056390e+00 -2.948225e-01 -4.907885e-01 -6.272459e+00 -5.878433e+00 2.714023e+00 6.379756e-01 -2.460490e+00 5.209763e+00 4.710920e+00 -6.448267e-01 -1.183830e+00 1.664568e-01 3.321680e-02 -3.820916e-02 -2.846518e-01 -1.056605e-01 2.226659e-01 8.552703e-02 -1.172414e-01 9.339061e-02 2.616917e-02 -1.129915e-01 -1.166445e-01 9.717241e-02
<VARIANCE> 25
 6.350151e+01 4.913651e+01 1.941390e+02 1.417667e+02 8.382048e+01 1.728060e+02 5.815533e+01 9.654433e+01 1.342003e+02 6.226752e+01 1.154141e+02 5.998569e+01 3.101747e+00 2.626734e+00 6.039837e+00 5.962820e+00 5.501696e+00 6.402102e+00 3.625330e+00 3.875867e+00 5.746481e+00 3.637103e+00 4.784997e+00 3.227127e+00 1.948958e+00
<GCONST> 1.186329e+02
<TRANSP> 5
 0.000000e+00 1.000000e+00 0.000000e+00 0.000000e+00 0.000000e+00
 0.000000e+00 4.704466e-01 5.295534e-01 0.000000e+00 0.000000e+00
 0.000000e+00 0.000000e+00 4.917337e-01 5.082663e-01 0.000000e+00
 0.000000e+00 0.000000e+00 0.000000e+00 9.205791e-01 7.942086e-02
 0.000000e+00 0.000000e+00 0.000000e+00 0.000000e+00 0.000000e+00
<ENDHMM>
~h "w"
<BEGINHMM>
<NUMSTATES> 5
<STATE> 2
<MEAN> 25
 3.340129e+00 3.715934e-01 -4.951869e+00 -5.923481e+00 9.312074e-02 7.454899e+00 1.638100e-01 -2.598819e+00 2.702429e+00 1.601344e+00 9.529341e-01 3.521252e-01 1.318353e+00 -2.179610e-01 -1.069291e-01 -1.117924e+00 -7.767009e-02 1.667491e-02 -2.747401e-01 -1.621409e-01 -2.972554e-01 1.922776e-01 4.142883e-01 -2.979401e-01 1.484706e+00
<VARIANCE> 25
 9.517287e+01 3.799961e+01 3.604282e+01 1.038773e+02 4.816306e+01 1.340339e+02 4.937691e+01 4.136086e+01 5.929964e+01 4.733390e+01 5.021645e+01 3.814602e+01 4.898427e+00 3.250791e+00 3.289618e+00 4.833933e+00 3.807496e+00 7.141171e+00 4.099542e+00 4.026246e+00 4.494399e+00 4.431761e+00 4.112123e+00 2.617624e+00 6.396552e+00
<GCONST> 1.131246e+02
<STATE> 3
<MEAN> 25
 6.433725e+00 -2.781734e-01 -4.235058e+00 -7.243853e+00 2.775199e-01 3.454590e+00 -1.945450e+00 -1.506662e+00 1.445014e-01 2.051355e+00 3.225379e+00 -1.509807e+00 6.323054e-01 -3.105924e-01 -3.627419e-02 -4.812088e-01 -2.430960e-02 -3.687727e-01 -2.679949e-01 3.581358e-01 -3.432235e-01 -2.321683e-02 1.403767e-01 -3.681473e-01 7.425227e-01
<VARIANCE> 25
 4.555471e+01 5.079749e+01 4.403411e+01 8.183592e+01 5.829910e+01 9.346204e+01 7.690373e+01 5.083792e+01 5.761011e+01 5.797852e+01 6.161042e+01 3.235775e+01 2.681466e+00 3.565316e+00 3.378552e+00 4.669058e+00 3.643832e+00 4.874886e+00 4.343464e+00 4.171528e+00 3.754321e+00 4.690136e+00 3.933881e+00 2.691050e+00 2.936682e+00
<GCONST> 1.115645e+02
<STATE> 4
<MEAN> 25
 8.832562e+00 1.564583e+00 -4.356836e+00 -1.071110e+01 -7.993197e-01 2.916228e+00 -2.938946e+00 -2.335392e-01 -1.129974e+00 7.168373e-01 3.038840e+00 -1.927114e+00 -1.247133e-01 -7.256468e-02 1.712887e-01 2.632745e-01 -4.755636e-02 -2.879737e-01 4.071749e-03 3.309157e-02 9.371974e-02 -2.500671e-02 -2.485763e-01 -9.007321e-02 -2.165712e-02
<VARIANCE> 25
 3.168454e+01 6.344259e+01 6.367924e+01 7.543525e+01 7.079971e+01 6.397421e+01 5.874682e+01 5.099918e+01 5.218086e+01 4.499131e+01 5.736354e+01 3.381811e+01 9.460171e-01 2.130559e+00 2.442818e+00 2.974431e+00 2.823148e+00 2.952513e+00 3.062095e+00 2.974911e+00 2.774899e+00 2.824251e+00 2.861990e+00 2.113336e+00 7.875175e-01
<GCONST> 1.044187e+02
<TRANSP> 5
 0.000000e+00 1.000000e+00 0.000000e+00 0.000000e+00 0.000000e+00
 0.000000e+00 7.103042e-01 2.896958e-01 0.000000e+00 0.000000e+00
 0.000000e+00 0.000000e+00 6.206955e-01 3.793045e-01 0.000000e+00
 0.000000e+00 0.000000e+00 0.000000e+00 8.806674e-01 1.193325e-01
 0.000000e+00 0.000000e+00 0.000000e+00 0.000000e+00 0.000000e+00
<ENDHMM>
~h "y"
<BEGINHMM>
<NUMSTATES> 5
<STATE> 2
<MEAN> 25
 1.623588e+00 -1.770900e+00 5.520254e+00 -2.291631e+00 -8.481093e+00 -2.989809e+00 2.572803e+00 1.283348e+00 -6.638990e-01 3.000876e+00 1.148898e+00 7.280312e-02 6.852783e-03 7.800975e-02 2.868018e-01 -3.954316e-02 -2.426167e-01 2.983987e-02 2.420725e-01 1.933436e-02 -1.842963e-01 -5.353831e-02 5.763843e-02 -4.952409e-02 3.178611e-02
<VARIANCE> 25
 1.871487e+01 3.280186e+01 6.764577e+01 4.426347e+01 7.749313e+01 5.085893e+01 4.562632e+01 5.437868e+01 4.913851e+01 5.179619e+01 3.213206e+01 3.054741e+01 9.895234e-01 1.660789e+00 3.074598e+00 2.285772e+00 3.798169e+00 2.861479e+00 2.892072e+00 4.096197e+00 2.887630e+00 3.092793e+00 2.539978e+00 1.969081e+00 1.490582e+00
<GCONST> 1.027009e+02
<STATE> 3
<MEAN> 25
 1.346577e+00 -1.456148e+00 4.815026e+00 -1.849150e+00 -6.860601e+00 -2.464055e+00 2.660116e+00 1.786022e+00 -8.244904e-01 1.981954e+00 7.745486e-01 -5.772479e-02 -4.170351e-02 2.969977e-02 -2.434851e-01 1.884905e-01 4.035816e-01 9.542942e-02 6.496088e-02 1.226488e-01 -1.141197e-02 -2.843540e-01 -1.582440e-01 -4.594675e-02 -1.344258e-01
<VARIANCE> 25
 1.387373e+01 3.384190e+01 5.958938e+01 4.396293e+01 6.995293e+01 4.485490e+01 4.323056e+01 5.307558e+01 4.706730e+01 5.016422e+01 3.115483e+01 2.783890e+01 5.444352e-01 1.450324e+00 2.253825e+00 1.833720e+00 3.124336e+00 2.446036e+00 2.381398e+00 3.480276e+00 2.522416e+00 2.890104e+00 2.256298e+00 1.889596e+00 7.884100e-01
<GCONST> 9.882137e+01
<STATE> 4
<MEAN> 25
 -7.426534e-01 -5.365056e-01 2.879942e+00 3.334500e-01 -1.974778e+00 -7.984220e-01 2.200118e+00 1.369863e+00 -1.346492e+00 -1.844197e-01 8.479246e-02 4.826355e-01 -4.602979e-02 -3.099130e-02 -2.731986e-01 1.569264e-01 3.913587e-01 7.048402e-02 -4.106293e-02 6.421878e-02 4.003706e-02 -1.705619e-01 -1.349905e-01 -5.257394e-02 -1.096753e-01
<VARIANCE> 25
 1.585969e+01 2.640022e+01 3.914236e+01 3.822463e+01 6.460229e+01 3.840819e+01 3.234561e+01 4.399823e+01 4.188221e+01 4.230962e+01 2.958732e+01 2.434463e+01 3.456379e-01 9.728624e-01 1.424279e+00 1.322370e+00 2.258288e+00 1.802791e+00 1.939067e+00 2.494060e+00 2.018470e+00 2.314072e+00 2.005215e+00 1.622745e+00 3.850284e-01
<GCONST> 9.272151e+01
<TRANSP> 5
 0.000000e+00 1.000000e+00 0.000000e+00 0.000000e+00 0.000000e+00
 0.000000e+00 6.359748e-01 3.640252e-01 0.000000e+00 0.000000e+00
 0.000000e+00 0.000000e+00 6.052048e-01 3.947952e-01 0.000000e+00
 0.000000e+00 0.000000e+00 0.000000e+00 8.329117e-01 1.670883e-01
 0.000000e+00 0.000000e+00 0.000000e+00 0.000000e+00 0.000000e+00
<ENDHMM>
~h "z"
<BEGINHMM>
<NUMSTATES> 5
<STATE> 2
<MEAN> 25
 0.000000e+00 0.000000e+00 0.000000e+00 0.000000e+00 0.000000e+00 0.000000e+00 0.000000e+00 0.000000e+00 0.000000e+00 0.000000e+00 0.000000e+00 0.000000e+00 0.000000e+00 0.000000e+00 0.000000e+00 0.000000e+00 0.000000e+00 0.000000e+00 0.000000e+00 0.000000e+00 0.000000e+00 0.000000e+00 0.000000e+00 0.000000e+00 0.000000e+00
<VARIANCE> 25
 1.000000e+00 1.000000e+00 1.000000e+00 1.000000e+00 1.000000e+00 1.000000e+00 1.000000e+00 1.000000e+00 1.000000e+00 1.000000e+00 1.000000e+00 1.000000e+00 1.000000e+00 1.000000e+00 1.000000e+00 1.000000e+00 1.000000e+00 1.000000e+00 1.000000e+00 1.000000e+00 1.000000e+00 1.000000e+00 1.000000e+00 1.000000e+00 1.000000e+00
<GCONST> 4.594693e+01
<STATE> 3
<MEAN> 25
 0.000000e+00 0.000000e+00 0.000000e+00 0.000000e+00 0.000000e+00 0.000000e+00 0.000000e+00 0.000000e+00 0.000000e+00 0.000000e+00 0.000000e+00 0.000000e+00 0.000000e+00 0.000000e+00 0.000000e+00 0.000000e+00 0.000000e+00 0.000000e+00 0.000000e+00 0.000000e+00 0.000000e+00 0.000000e+00 0.000000e+00 0.000000e+00 0.000000e+00
<VARIANCE> 25
 1.000000e+00 1.000000e+00 1.000000e+00 1.000000e+00 1.000000e+00 1.000000e+00 1.000000e+00 1.000000e+00 1.000000e+00 1.000000e+00 1.000000e+00 1.000000e+00 1.000000e+00 1.000000e+00 1.000000e+00 1.000000e+00 1.000000e+00 1.000000e+00 1.000000e+00 1.000000e+00 1.000000e+00 1.000000e+00 1.000000e+00 1.000000e+00 1.000000e+00
<GCONST> 4.594693e+01
<STATE> 4
<MEAN> 25
 0.000000e+00 0.000000e+00 0.000000e+00 0.000000e+00 0.000000e+00 0.000000e+00 0.000000e+00 0.000000e+00 0.000000e+00 0.000000e+00 0.000000e+00 0.000000e+00 0.000000e+00 0.000000e+00 0.000000e+00 0.000000e+00 0.000000e+00 0.000000e+00 0.000000e+00 0.000000e+00 0.000000e+00 0.000000e+00 0.000000e+00 0.000000e+00 0.000000e+00
<VARIANCE> 25
 1.000000e+00 1.000000e+00 1.000000e+00 1.000000e+00 1.000000e+00 1.000000e+00 1.000000e+00 1.000000e+00 1.000000e+00 1.000000e+00 1.000000e+00 1.000000e+00 1.000000e+00 1.000000e+00 1.000000e+00 1.000000e+00 1.000000e+00 1.000000e+00 1.000000e+00 1.000000e+00 1.000000e+00 1.000000e+00 1.000000e+00 1.000000e+00 1.000000e+00
<GCONST> 4.594693e+01
<TRANSP> 5
 0.000000e+00 1.000000e+00 0.000000e+00 0.000000e+00 0.000000e+00
 0.000000e+00 6.000000e-01 4.000000e-01 0.000000e+00 0.000000e+00
 0.000000e+00 0.000000e+00 6.000000e-01 4.000000e-01 0.000000e+00
 0.000000e+00 0.000000e+00 0.000000e+00 7.000000e-01 3.000000e-01
 0.000000e+00 0.000000e+00 0.000000e+00 0.000000e+00 0.000000e+00
<ENDHMM>
~h "aw"
<BEGINHMM>
<NUMSTATES> 5
<STATE> 2
<MEAN> 25
 0.000000e+00 0.000000e+00 0.000000e+00 0.000000e+00 0.000000e+00 0.000000e+00 0.000000e+00 0.000000e+00 0.000000e+00 0.000000e+00 0.000000e+00 0.000000e+00 0.000000e+00 0.000000e+00 0.000000e+00 0.000000e+00 0.000000e+00 0.000000e+00 0.000000e+00 0.000000e+00 0.000000e+00 0.000000e+00 0.000000e+00 0.000000e+00 0.000000e+00
<VARIANCE> 25
 1.000000e+00 1.000000e+00 1.000000e+00 1.000000e+00 1.000000e+00 1.000000e+00 1.000000e+00 1.000000e+00 1.000000e+00 1.000000e+00 1.000000e+00 1.000000e+00 1.000000e+00 1.000000e+00 1.000000e+00 1.000000e+00 1.000000e+00 1.000000e+00 1.000000e+00 1.000000e+00 1.000000e+00 1.000000e+00 1.000000e+00 1.000000e+00 1.000000e+00
<GCONST> 4.594693e+01
<STATE> 3
<MEAN> 25
 0.000000e+00 0.000000e+00 0.000000e+00 0.000000e+00 0.000000e+00 0.000000e+00 0.000000e+00 0.000000e+00 0.000000e+00 0.000000e+00 0.000000e+00 0.000000e+00 0.000000e+00 0.000000e+00 0.000000e+00 0.000000e+00 0.000000e+00 0.000000e+00 0.000000e+00 0.000000e+00 0.000000e+00 0.000000e+00 0.000000e+00 0.000000e+00 0.000000e+00
<VARIANCE> 25
 1.000000e+00 1.000000e+00 1.000000e+00 1.000000e+00 1.000000e+00 1.000000e+00 1.000000e+00 1.000000e+00 1.000000e+00 1.000000e+00 1.000000e+00 1.000000e+00 1.000000e+00 1.000000e+00 1.000000e+00 1.000000e+00 1.000000e+00 1.000000e+00 1.000000e+00 1.000000e+00 1.000000e+00 1.000000e+00 1.000000e+00 1.000000e+00 1.000000e+00
<GCONST> 4.594693e+01
<STATE> 4
<MEAN> 25
 0.000000e+00 0.000000e+00 0.000000e+00 0.000000e+00 0.000000e+00 0.000000e+00 0.000000e+00 0.000000e+00 0.000000e+00 0.000000e+00 0.000000e+00 0.000000e+00 0.000000e+00 0.000000e+00 0.000000e+00 0.000000e+00 0.000000e+00 0.000000e+00 0.000000e+00 0.000000e+00 0.000000e+00 0.000000e+00 0.000000e+00 0.000000e+00 0.000000e+00
<VARIANCE> 25
 1.000000e+00 1.000000e+00 1.000000e+00 1.000000e+00 1.000000e+00 1.000000e+00 1.000000e+00 1.000000e+00 1.000000e+00 1.000000e+00 1.000000e+00 1.000000e+00 1.000000e+00 1.000000e+00 1.000000e+00 1.000000e+00 1.000000e+00 1.000000e+00 1.000000e+00 1.000000e+00 1.000000e+00 1.000000e+00 1.000000e+00 1.000000e+00 1.000000e+00
<GCONST> 4.594693e+01
<TRANSP> 5
 0.000000e+00 1.000000e+00 0.000000e+00 0.000000e+00 0.000000e+00
 0.000000e+00 6.000000e-01 4.000000e-01 0.000000e+00 0.000000e+00
 0.000000e+00 0.000000e+00 6.000000e-01 4.000000e-01 0.000000e+00
 0.000000e+00 0.000000e+00 0.000000e+00 7.000000e-01 3.000000e-01
 0.000000e+00 0.000000e+00 0.000000e+00 0.000000e+00 0.000000e+00
<ENDHMM>
~h "ay"
<BEGINHMM>
<NUMSTATES> 5
<STATE> 2
<MEAN> 25
 1.344408e+00 -2.561703e+00 -5.657685e-01 -1.163171e+00 -3.796120e+00 -1.755165e+00 1.197172e+00 3.197583e+00 1.249491e+00 -9.284424e-01 -4.760110e+00 -3.891659e+00 -1.085371e-01 1.811070e-01 2.680026e-01 1.868220e-02 -1.631624e-01 1.621989e-01 1.939924e-01 -3.949742e-01 -2.846081e-01 1.303330e-01 3.226747e-01 2.249312e-01 -1.188170e-01
<VARIANCE> 25
 3.262305e+00 1.456781e+01 1.823673e+01 1.229828e+01 3.224411e+01 2.709672e+01 2.977005e+01 5.831016e+01 3.460728e+01 2.306693e+01 2.689440e+01 2.022147e+01 1.720891e-01 1.202202e+00 9.281305e-01 7.655011e-01 2.378901e+00 1.696380e+00 1.744552e+00 3.858346e+00 3.713706e+00 1.380881e+00 2.214550e+00 1.921997e+00 2.971998e-01
<GCONST> 8.568851e+01
<STATE> 3
<MEAN> 25
 5.881826e-01 4.183048e-02 2.139027e+00 4.522174e-01 -4.026690e+00 -1.040608e+00 2.069640e+00 -6.664126e-01 -2.083779e+00 -5.205562e-01 -9.832577e-01 -1.086006e+00 -2.709045e-01 5.749166e-01 3.052601e-01 4.934387e-02 3.365715e-01 5.920812e-01 -5.774769e-02 -8.596010e-01 -6.322280e-01 1.018954e-01 6.316367e-01 4.602640e-01 -4.122080e-01
<VARIANCE> 25
 4.921051e+00 1.535917e+01 2.397790e+01 1.068531e+01 4.065349e+01 2.602762e+01 4.088656e+01 3.983400e+01 3.346648e+01 2.620642e+01 3.188285e+01 2.213995e+01 2.897002e-01 1.159654e+00 8.162597e-01 9.022942e-01 2.985397e+00 1.480474e+00 2.844954e+00 3.006098e+00 3.633269e+00 2.364080e+00 1.962856e+00 1.773560e+00 4.695915e-01
<GCONST> 8.839162e+01
<STATE> 4
<MEAN> 25
 -1.054233e+00 2.155138e+00 1.702919e+00 -2.057714e-01 -9.177505e-01 9.730661e-01 3.794888e-01 -1.838719e+00 -2.673694e+00 -9.355693e-01 7.594996e-01 1.083907e-01 -6.387503e-02 -1.334491e-02 -6.866162e-02 3.686890e-02 1.498758e-01 8.953381e-02 -1.460591e-02 -1.585294e-02 5.985405e-02 2.048217e-02 4.645196e-02 4.713438e-02 -5.946316e-02
<VARIANCE> 25
 4.635470e+00 1.204716e+01 1.878620e+01 1.845032e+01 3.489793e+01 2.928566e+01 3.628428e+01 2.716304e+01 1.978133e+01 2.668407e+01 1.759978e+01 1.611753e+01 2.000157e-01 6.046326e-01 7.616572e-01 7.115978e-01 2.068949e+00 1.491665e+00 2.079849e+00 1.737685e+00 1.645714e+00 1.841505e+00 1.566919e+00 1.105668e+00 2.353850e-01
<GCONST> 8.145564e+01
<TRANSP> 5
 0.000000e+00 1.000000e+00 0.000000e+00 0.000000e+00 0.000000e+00
 0.000000e+00 9.061963e-01 9.380366e-02 0.000000e+00 0.000000e+00
 0.000000e+00 0.000000e+00 7.420200e-01 2.579800e-01 0.000000e+00
 0.000000e+00 0.000000e+00 0.000000e+00 9.662515e-01 3.374856e-02
 0.000000e+00 0.000000e+00 0.000000e+00 0.000000e+00 0.000000e+00
<ENDHMM>
~h "eu"
<BEGINHMM>
<NUMSTATES> 5
<STATE> 2
<MEAN> 25
 1.542817e+00 -8.014629e-01 -1.071114e+00 6.004505e-01 -4.037702e-02 -2.346792e+00 -1.516654e+00 5.775567e-01 1.724950e+00 8.054427e-01 1.364751e-01 -2.476742e-01 5.905285e-01 -5.223823e-01 -1.077525e-01 -1.698753e-02 -2.238503e-01 -5.051049e-01 -2.051382e-01 1.720968e-01 1.105130e-01 3.065752e-01 2.092753e-02 -2.902754e-01 6.791708e-01
<VARIANCE> 25
 4.080932e+01 4.109009e+01 4.283231e+01 3.711823e+01 5.187880e+01 6.472484e+01 4.731159e+01 4.968720e+01 5.345215e+01 4.389275e+01 3.905381e+01 3.191707e+01 3.102884e+00 4.346999e+00 3.319834e+00 3.024434e+00 4.256792e+00 6.036822e+00 4.171325e+00 4.861866e+00 5.013898e+00 4.010927e+00 3.924350e+00 3.092492e+00 3.741751e+00
<GCONST> 1.094947e+02
<STATE> 3
<MEAN> 25
 2.926406e+00 -1.797019e+00 -1.015584e+00 4.667336e-01 -6.725771e-01 -3.335797e+00 -1.737962e+00 1.004027e+00 1.690678e+00 1.377426e+00 1.191293e-01 -9.103819e-01 4.958912e-01 -2.284941e-01 4.836353e-02 -1.410891e-02 -2.373560e-01 -1.505041e-01 -2.477419e-02 1.064711e-02 -2.442774e-02 1.876788e-01 -7.598837e-02 -2.184431e-01 3.562026e-01
<VARIANCE> 25
 3.366806e+01 4.334246e+01 4.502044e+01 4.091104e+01 5.541433e+01 6.433481e+01 4.864566e+01 5.349910e+01 5.735318e+01 4.667761e+01 4.225659e+01 3.346179e+01 2.679655e+00 4.014454e+00 2.997386e+00 3.109262e+00 4.085816e+00 5.491307e+00 4.040048e+00 4.742318e+00 4.723086e+00 4.019436e+00 3.707107e+00 2.967515e+00 2.611858e+00
<GCONST> 1.089138e+02
<STATE> 4
<MEAN> 25
 3.796826e+00 -2.213989e+00 -5.693603e-01 4.606058e-01 -1.650073e+00 -3.233976e+00 -1.202790e+00 1.136057e+00 1.599756e+00 1.569509e+00 -1.180589e-01 -1.327132e+00 9.384926e-02 1.254474e-01 1.101612e-01 1.032284e-01 -3.906414e-02 2.948189e-01 1.767157e-01 -2.229778e-01 -1.146976e-01 -5.451022e-02 -9.808199e-02 -6.061180e-03 -8.897580e-02
<VARIANCE> 25
 3.158980e+01 4.505583e+01 4.912586e+01 4.548915e+01 6.053960e+01 7.115901e+01 5.096301e+01 6.064285e+01 6.392752e+01 4.866565e+01 4.508774e+01 3.499257e+01 1.769300e+00 2.703708e+00 2.232004e+00 2.616717e+00 3.262575e+00 3.947878e+00 3.245876e+00 3.781633e+00 3.641588e+00 3.322574e+00 3.048611e+00 2.447113e+00 1.441898e+00
<GCONST> 1.059923e+02
<TRANSP> 5
 0.000000e+00 1.000000e+00 0.000000e+00 0.000000e+00 0.000000e+00
 0.000000e+00 4.279991e-01 5.720010e-01 0.000000e+00 0.000000e+00
 0.000000e+00 0.000000e+00 4.166651e-01 5.833349e-01 0.000000e+00
 0.000000e+00 0.000000e+00 0.000000e+00 5.026394e-01 4.973606e-01
 0.000000e+00 0.000000e+00 0.000000e+00 0.000000e+00 0.000000e+00
<ENDHMM>
~h "kh"
<BEGINHMM>
<NUMSTATES> 5
<STATE> 2
<MEAN> 25
 0.000000e+00 0.000000e+00 0.000000e+00 0.000000e+00 0.000000e+00 0.000000e+00 0.000000e+00 0.000000e+00 0.000000e+00 0.000000e+00 0.000000e+00 0.000000e+00 0.000000e+00 0.000000e+00 0.000000e+00 0.000000e+00 0.000000e+00 0.000000e+00 0.000000e+00 0.000000e+00 0.000000e+00 0.000000e+00 0.000000e+00 0.000000e+00 0.000000e+00
<VARIANCE> 25
 1.000000e+00 1.000000e+00 1.000000e+00 1.000000e+00 1.000000e+00 1.000000e+00 1.000000e+00 1.000000e+00 1.000000e+00 1.000000e+00 1.000000e+00 1.000000e+00 1.000000e+00 1.000000e+00 1.000000e+00 1.000000e+00 1.000000e+00 1.000000e+00 1.000000e+00 1.000000e+00 1.000000e+00 1.000000e+00 1.000000e+00 1.000000e+00 1.000000e+00
<GCONST> 4.594693e+01
<STATE> 3
<MEAN> 25
 0.000000e+00 0.000000e+00 0.000000e+00 0.000000e+00 0.000000e+00 0.000000e+00 0.000000e+00 0.000000e+00 0.000000e+00 0.000000e+00 0.000000e+00 0.000000e+00 0.000000e+00 0.000000e+00 0.000000e+00 0.000000e+00 0.000000e+00 0.000000e+00 0.000000e+00 0.000000e+00 0.000000e+00 0.000000e+00 0.000000e+00 0.000000e+00 0.000000e+00
<VARIANCE> 25
 1.000000e+00 1.000000e+00 1.000000e+00 1.000000e+00 1.000000e+00 1.000000e+00 1.000000e+00 1.000000e+00 1.000000e+00 1.000000e+00 1.000000e+00 1.000000e+00 1.000000e+00 1.000000e+00 1.000000e+00 1.000000e+00 1.000000e+00 1.000000e+00 1.000000e+00 1.000000e+00 1.000000e+00 1.000000e+00 1.000000e+00 1.000000e+00 1.000000e+00
<GCONST> 4.594693e+01
<STATE> 4
<MEAN> 25
 0.000000e+00 0.000000e+00 0.000000e+00 0.000000e+00 0.000000e+00 0.000000e+00 0.000000e+00 0.000000e+00 0.000000e+00 0.000000e+00 0.000000e+00 0.000000e+00 0.000000e+00 0.000000e+00 0.000000e+00 0.000000e+00 0.000000e+00 0.000000e+00 0.000000e+00 0.000000e+00 0.000000e+00 0.000000e+00 0.000000e+00 0.000000e+00 0.000000e+00
<VARIANCE> 25
 1.000000e+00 1.000000e+00 1.000000e+00 1.000000e+00 1.000000e+00 1.000000e+00 1.000000e+00 1.000000e+00 1.000000e+00 1.000000e+00 1.000000e+00 1.000000e+00 1.000000e+00 1.000000e+00 1.000000e+00 1.000000e+00 1.000000e+00 1.000000e+00 1.000000e+00 1.000000e+00 1.000000e+00 1.000000e+00 1.000000e+00 1.000000e+00 1.000000e+00
<GCONST> 4.594693e+01
<TRANSP> 5
 0.000000e+00 1.000000e+00 0.000000e+00 0.000000e+00 0.000000e+00
 0.000000e+00 6.000000e-01 4.000000e-01 0.000000e+00 0.000000e+00
 0.000000e+00 0.000000e+00 6.000000e-01 4.000000e-01 0.000000e+00
 0.000000e+00 0.000000e+00 0.000000e+00 7.000000e-01 3.000000e-01
 0.000000e+00 0.000000e+00 0.000000e+00 0.000000e+00 0.000000e+00
<ENDHMM>
~h "ng"
<BEGINHMM>
<NUMSTATES> 5
<STATE> 2
<MEAN> 25
 4.418141e+00 -3.226483e-01 -1.216624e+00 -1.249353e+00 -1.393686e+00 4.504443e-01 7.888369e-01 -1.063877e+00 -6.465000e-01 8.219125e-01 -1.865298e+00 -2.443018e+00 -2.398242e-02 4.754613e-01 1.321706e-01 1.254703e-01 -4.036544e-02 1.214773e-01 1.233160e-01 -3.692048e-01 -1.181828e-01 -1.117535e-01 -4.295988e-02 1.014714e-01 -2.879591e-01
<VARIANCE> 25
 2.135365e+01 4.317994e+01 3.686786e+01 3.900411e+01 4.424326e+01 4.341107e+01 3.450821e+01 4.630233e+01 3.897610e+01 3.628534e+01 3.197457e+01 3.444234e+01 4.321278e-01 1.436019e+00 1.693904e+00 2.211336e+00 2.617834e+00 2.378698e+00 2.247586e+00 3.001484e+00 2.381407e+00 2.560734e+00 2.202497e+00 2.073184e+00 4.529435e-01
<GCONST> 9.635595e+01
<STATE> 3
<MEAN> 25
 4.151529e+00 7.407151e-01 -6.960840e-01 -1.018046e+00 -1.409486e+00 6.465675e-01 8.754710e-01 -1.695995e+00 -8.403048e-01 6.587535e-01 -1.792719e+00 -2.012255e+00 -1.185852e-01 3.766232e-01 1.749260e-01 9.288767e-02 5.542831e-02 6.777801e-02 1.385703e-02 -1.780694e-01 -7.322459e-02 -1.020468e-01 3.660983e-02 1.563589e-01 -2.452371e-01
<VARIANCE> 25
 2.168149e+01 3.829070e+01 3.321928e+01 3.768762e+01 4.145590e+01 3.748282e+01 3.123400e+01 4.177496e+01 3.514626e+01 3.568053e+01 2.939825e+01 3.226052e+01 3.849200e-01 1.360401e+00 1.419235e+00 1.914300e+00 2.315669e+00 2.083238e+00 2.042462e+00 2.675818e+00 2.230668e+00 2.416677e+00 2.015139e+00 1.912153e+00 3.913204e-01
<GCONST> 9.403224e+01
<STATE> 4
<MEAN> 25
 1.443286e+00 1.017701e+00 -2.317777e-01 -6.099145e-01 -4.539576e-01 7.248175e-01 3.957100e-01 -1.190893e+00 -4.373292e-01 -3.307450e-02 -1.225409e+00 -7.997184e-01 -1.123653e-01 5.929830e-02 5.837835e-02 6.645212e-02 1.054472e-01 -8.545997e-03 -4.602883e-02 2.727819e-02 -8.158471e-03 -4.008809e-02 6.027502e-02 6.165931e-02 -8.312018e-02
<VARIANCE> 25
 1.914000e+01 2.300169e+01 2.676259e+01 2.678366e+01 3.429774e+01 2.596002e+01 2.548649e+01 3.141545e+01 2.997652e+01 3.065581e+01 2.949153e+01 2.702389e+01 3.277695e-01 9.023566e-01 1.128846e+00 1.290983e+00 1.779833e+00 1.591134e+00 1.716799e+00 2.142301e+00 2.036121e+00 2.150057e+00 1.754643e+00 1.668800e+00 2.584511e-01
<GCONST> 8.828979e+01
<TRANSP> 5
 0.000000e+00 1.000000e+00 0.000000e+00 0.000000e+00 0.000000e+00
 0.000000e+00 5.226707e-01 4.773293e-01 0.000000e+00 0.000000e+00
 0.000000e+00 0.000000e+00 5.350649e-01 4.649350e-01 0.000000e+00
 0.000000e+00 0.000000e+00 0.000000e+00 8.675668e-01 1.324332e-01
 0.000000e+00 0.000000e+00 0.000000e+00 0.000000e+00 0.000000e+00
<ENDHMM>
~h "ny"
<BEGINHMM>
<NUMSTATES> 5
<STATE> 2
<MEAN> 25
 2.831889e+00 6.612676e-01 4.410587e+00 -2.367630e+00 -4.254120e+00 -4.989753e-01 1.212103e+00 -1.410166e-01 -1.771460e+00 2.104270e+00 -5.617947e-02 -4.160139e-01 3.735540e-02 -3.937624e-01 5.063064e-01 -2.369412e-01 -7.543340e-01 -2.512906e-02 5.521613e-01 2.298446e-01 -2.731436e-01 1.385485e-01 4.872406e-02 1.924543e-02 3.157409e-01
<VARIANCE> 25
 1.675422e+01 3.782345e+01 4.948725e+01 4.870607e+01 5.697506e+01 5.425956e+01 5.041438e+01 6.446616e+01 5.680114e+01 6.352982e+01 3.743769e+01 2.721206e+01 1.309142e+00 3.108874e+00 3.517598e+00 4.292913e+00 4.865989e+00 4.588599e+00 4.131149e+00 5.262455e+00 4.846434e+00 4.381145e+00 3.175445e+00 2.462325e+00 1.198923e+00
<GCONST> 1.070231e+02
<STATE> 3
<MEAN> 25
 2.848279e+00 -5.352371e-01 4.723051e+00 -2.117230e+00 -5.343899e+00 -7.218553e-01 2.765057e+00 7.831088e-01 -2.377744e+00 1.733199e+00 1.385857e-01 -1.338557e-01 4.533626e-02 -4.436452e-01 -7.878584e-02 2.621401e-01 -1.534669e-01 -1.508192e-01 3.817263e-01 3.958511e-01 -5.827837e-02 -2.058963e-01 -6.426848e-02 1.727920e-02 1.040044e-01
<VARIANCE> 25
 1.580929e+01 4.154030e+01 4.714857e+01 4.711236e+01 6.074569e+01 5.503416e+01 5.073995e+01 6.456553e+01 5.813976e+01 6.260411e+01 3.572202e+01 2.876362e+01 8.361908e-01 2.862446e+00 2.723525e+00 3.526474e+00 4.460835e+00 4.032475e+00 3.791215e+00 4.704987e+00 4.379519e+00 3.942399e+00 2.875402e+00 2.270777e+00 1.005129e+00
<GCONST> 1.051198e+02
<STATE> 4
<MEAN> 25
 2.514607e+00 -1.310563e+00 4.293759e+00 7.703562e-01 -5.019413e+00 -2.343237e+00 3.831825e+00 1.036470e+00 -3.715472e+00 -6.361147e-01 -4.796135e-01 -9.563379e-02 4.760755e-03 -1.740343e-01 -4.428523e-01 4.320881e-01 4.571411e-01 -1.032192e-01 -1.159173e-01 2.791628e-01 2.507102e-01 -3.039030e-01 -1.953818e-01 -2.101350e-02 -1.353972e-01
<VARIANCE> 25
 2.097300e+01 4.672154e+01 4.597121e+01 5.674261e+01 6.719329e+01 6.967331e+01 5.529569e+01 8.427861e+01 9.271838e+01 6.227892e+01 3.887076e+01 2.981027e+01 5.802478e-01 1.904240e+00 1.906516e+00 2.251403e+00 3.499546e+00 2.957720e+00 3.104650e+00 3.707666e+00 3.341892e+00 2.974674e+00 2.446090e+00 2.032266e+00 6.736947e-01
<GCONST> 1.031577e+02
<TRANSP> 5
 0.000000e+00 1.000000e+00 0.000000e+00 0.000000e+00 0.000000e+00
 0.000000e+00 5.576882e-01 4.423119e-01 0.000000e+00 0.000000e+00
 0.000000e+00 0.000000e+00 5.359263e-01 4.640738e-01 0.000000e+00
 0.000000e+00 0.000000e+00 0.000000e+00 6.918597e-01 3.081403e-01
 0.000000e+00 0.000000e+00 0.000000e+00 0.000000e+00 0.000000e+00
<ENDHMM>
~h "sy"
<BEGINHMM>
<NUMSTATES> 5
<STATE> 2
<MEAN> 25
 0.000000e+00 0.000000e+00 0.000000e+00 0.000000e+00 0.000000e+00 0.000000e+00 0.000000e+00 0.000000e+00 0.000000e+00 0.000000e+00 0.000000e+00 0.000000e+00 0.000000e+00 0.000000e+00 0.000000e+00 0.000000e+00 0.000000e+00 0.000000e+00 0.000000e+00 0.000000e+00 0.000000e+00 0.000000e+00 0.000000e+00 0.000000e+00 0.000000e+00
<VARIANCE> 25
 1.000000e+00 1.000000e+00 1.000000e+00 1.000000e+00 1.000000e+00 1.000000e+00 1.000000e+00 1.000000e+00 1.000000e+00 1.000000e+00 1.000000e+00 1.000000e+00 1.000000e+00 1.000000e+00 1.000000e+00 1.000000e+00 1.000000e+00 1.000000e+00 1.000000e+00 1.000000e+00 1.000000e+00 1.000000e+00 1.000000e+00 1.000000e+00 1.000000e+00
<GCONST> 4.594693e+01
<STATE> 3
<MEAN> 25
 0.000000e+00 0.000000e+00 0.000000e+00 0.000000e+00 0.000000e+00 0.000000e+00 0.000000e+00 0.000000e+00 0.000000e+00 0.000000e+00 0.000000e+00 0.000000e+00 0.000000e+00 0.000000e+00 0.000000e+00 0.000000e+00 0.000000e+00 0.000000e+00 0.000000e+00 0.000000e+00 0.000000e+00 0.000000e+00 0.000000e+00 0.000000e+00 0.000000e+00
<VARIANCE> 25
 1.000000e+00 1.000000e+00 1.000000e+00 1.000000e+00 1.000000e+00 1.000000e+00 1.000000e+00 1.000000e+00 1.000000e+00 1.000000e+00 1.000000e+00 1.000000e+00 1.000000e+00 1.000000e+00 1.000000e+00 1.000000e+00 1.000000e+00 1.000000e+00 1.000000e+00 1.000000e+00 1.000000e+00 1.000000e+00 1.000000e+00 1.000000e+00 1.000000e+00
<GCONST> 4.594693e+01
<STATE> 4
<MEAN> 25
 0.000000e+00 0.000000e+00 0.000000e+00 0.000000e+00 0.000000e+00 0.000000e+00 0.000000e+00 0.000000e+00 0.000000e+00 0.000000e+00 0.000000e+00 0.000000e+00 0.000000e+00 0.000000e+00 0.000000e+00 0.000000e+00 0.000000e+00 0.000000e+00 0.000000e+00 0.000000e+00 0.000000e+00 0.000000e+00 0.000000e+00 0.000000e+00 0.000000e+00
<VARIANCE> 25
 1.000000e+00 1.000000e+00 1.000000e+00 1.000000e+00 1.000000e+00 1.000000e+00 1.000000e+00 1.000000e+00 1.000000e+00 1.000000e+00 1.000000e+00 1.000000e+00 1.000000e+00 1.000000e+00 1.000000e+00 1.000000e+00 1.000000e+00 1.000000e+00 1.000000e+00 1.000000e+00 1.000000e+00 1.000000e+00 1.000000e+00 1.000000e+00 1.000000e+00
<GCONST> 4.594693e+01
<TRANSP> 5
 0.000000e+00 1.000000e+00 0.000000e+00 0.000000e+00 0.000000e+00
 0.000000e+00 6.000000e-01 4.000000e-01 0.000000e+00 0.000000e+00
 0.000000e+00 0.000000e+00 6.000000e-01 4.000000e-01 0.000000e+00
 0.000000e+00 0.000000e+00 0.000000e+00 7.000000e-01 3.000000e-01
 0.000000e+00 0.000000e+00 0.000000e+00 0.000000e+00 0.000000e+00
<ENDHMM>
~h "sil"
<BEGINHMM>
<NUMSTATES> 5
<STATE> 2
<MEAN> 25
 -5.295220e+00 4.043133e-01 -5.984170e-01 1.650462e+00 2.546825e+00 3.100109e+00 1.358152e+00 -2.141804e-01 -1.932313e-01 -1.371623e+00 4.563661e-02 1.521527e+00 -5.799400e-02 -4.860456e-03 -4.107990e-03 8.289535e-04 3.216052e-02 4.029038e-02 2.258075e-04 -1.399672e-02 1.146579e-03 7.112637e-03 1.424368e-02 -4.214212e-03 -4.410520e-02
<VARIANCE> 25
 3.273067e+01 1.654410e+01 1.912551e+01 1.715651e+01 2.527101e+01 2.708489e+01 1.973202e+01 2.280602e+01 2.974832e+01 2.248677e+01 2.195003e+01 2.006987e+01 1.726193e-01 3.539638e-01 5.391761e-01 7.774132e-01 1.060462e+00 1.176085e+00 1.276893e+00 1.434147e+00 1.481591e+00 1.503458e+00 1.414741e+00 1.295292e+00 7.900008e-02
<GCONST> 7.929570e+01
<STATE> 3
<MEAN> 25
 -6.977233e+00 9.164918e-01 -1.170892e+00 1.920062e+00 2.831975e+00 4.732265e+00 1.921701e+00 -2.941755e-01 9.970783e-01 -1.532409e+00 1.222968e-01 2.187548e+00 1.899697e-02 -8.647930e-03 1.345768e-02 -3.178009e-02 -2.041701e-02 -5.833115e-02 -4.518097e-02 -2.207149e-03 -9.332810e-03 -7.984517e-02 -6.484984e-02 -6.102898e-02 4.134651e-02
<VARIANCE> 25
 3.701564e+01 1.701417e+01 2.067447e+01 1.922864e+01 2.527456e+01 3.044721e+01 1.995463e+01 2.391943e+01 3.423400e+01 2.441087e+01 2.471089e+01 1.970800e+01 3.140732e-01 4.827877e-01 6.608607e-01 9.001831e-01 1.271720e+00 1.330498e+00 1.361567e+00 1.496824e+00 1.563644e+00 1.651005e+00 1.510567e+00 1.296556e+00 2.576422e-01
<GCONST> 8.320472e+01
<STATE> 4
<MEAN> 25
 -2.817388e+00 3.190996e-01 -3.610619e-01 7.120955e-01 1.366477e+00 1.795594e+00 7.201827e-01 -3.111025e-01 -2.592385e-02 -1.124911e+00 -1.037028e-01 8.948283e-01 1.065612e-01 -9.639448e-03 4.598354e-02 -2.453049e-02 5.056088e-03 -5.735169e-02 -1.903087e-02 -3.480205e-02 -5.410103e-02 -3.235525e-02 -2.560171e-02 -2.477305e-02 1.405766e-01
<VARIANCE> 25
 3.093048e+01 2.029296e+01 2.725485e+01 2.688296e+01 3.632774e+01 3.629933e+01 2.853355e+01 3.678719e+01 3.729271e+01 3.039074e+01 3.004621e+01 2.485680e+01 7.720203e-01 8.733360e-01 1.115459e+00 1.327790e+00 1.918422e+00 1.805123e+00 1.736224e+00 2.146800e+00 2.250809e+00 2.059594e+00 1.959347e+00 1.641354e+00 1.005875e+00
<GCONST> 9.203931e+01
<TRANSP> 5
 0.000000e+00 1.000000e+00 0.000000e+00 0.000000e+00 0.000000e+00
 0.000000e+00 9.635127e-01 3.648731e-02 0.000000e+00 0.000000e+00
 0.000000e+00 0.000000e+00 6.250963e-01 3.749038e-01 0.000000e+00
 0.000000e+00 0.000000e+00 0.000000e+00 9.009033e-01 9.909675e-02
 0.000000e+00 0.000000e+00 0.000000e+00 0.000000e+00 0.000000e+00
<ENDHMM>
